svm_type nu_svr
kernel_type rbf
gamma 2
nr_class 2
total_sv 5575
rho 2.20374
SV
354.2694469516052 1:0.3 2:0.2 3:0.2 4:0 5:0 6:0 7:0.143 8:0.02 9:0 10:0 11:0.041 12:0.02 13:0 14:0.082 15:0.143 16:0.082 17:0.061 18:0.163 19:0.245 20:0 
63.93022099799984 1:0.3 2:0.2 3:0.2 4:0 5:0.02 6:0.02 7:0.102 8:0.02 9:0 10:0 11:0.041 12:0.041 13:0.02 14:0 15:0.163 16:0.061 17:0.02 18:0.224 19:0.265 20:0 
-44.4205787300856 1:0.3 2:0.2 3:0.2 4:0.02 5:0 6:0.061 7:0.061 8:0.02 9:0 10:0.02 11:0.02 12:0.02 13:0.02 14:0.122 15:0.061 16:0.082 17:0.041 18:0.041 19:0.408 20:0 
-282.9006761499124 1:0.3 2:0.2 3:0.2 4:0 5:0 6:0.082 7:0.061 8:0.02 9:0 10:0.02 11:0 12:0.041 13:0 14:0 15:0.204 16:0.061 17:0.061 18:0.143 19:0.306 20:0 
211.5679988890414 1:0.3 2:0.267 3:0.2 4:0 5:0 6:0 7:0.143 8:0.02 9:0 10:0.041 11:0.02 12:0.041 13:0 14:0 15:0.184 16:0.082 17:0.082 18:0.184 19:0.204 20:0 
66.86107479614283 1:0.3 2:0.267 3:0.2 4:0.041 5:0 6:0.041 7:0.041 8:0.02 9:0 10:0.041 11:0.02 12:0 13:0 14:0 15:0.224 16:0.082 17:0.082 18:0.143 19:0.265 20:0 
469.7512452734306 1:0.3 2:0.267 3:0.2 4:0.041 5:0.02 6:0.02 7:0.041 8:0.02 9:0 10:0.041 11:0.02 12:0.061 13:0.041 14:0.082 15:0.041 16:0.02 17:0 18:0.082 19:0.469 20:0 
-768 1:0.3 2:0.333 3:0.2 4:0 5:0 6:0 7:0.143 8:0 9:0 10:0 11:0.102 12:0.02 13:0 14:0.102 15:0.061 16:0.122 17:0.102 18:0.102 19:0.245 20:0 
-768 1:0.3 2:0.333 3:0.2 4:0.02 5:0.02 6:0.061 7:0.041 8:0 9:0 10:0 11:0.102 12:0 13:0 14:0 15:0.204 16:0.122 17:0.082 18:0.122 19:0.224 20:0 
-596.0741617158901 1:0.3 2:0.4 3:0.2 4:0 5:0 6:0.02 7:0.122 8:0.02 9:0 10:0.041 11:0.061 12:0 13:0.041 14:0 15:0.143 16:0.122 17:0.061 18:0.122 19:0.245 20:0 
768 1:0.3 2:0.4 3:0.2 4:0 5:0.041 6:0 7:0.102 8:0.02 9:0.02 10:0.041 11:0.041 12:0 13:0.02 14:0.061 15:0.102 16:0.122 17:0.041 18:0.082 19:0.306 20:0 
768 1:0.3 2:0.4 3:0.2 4:0 5:0 6:0.02 7:0.122 8:0 9:0 10:0.02 11:0.102 12:0 13:0 14:0.082 15:0.102 16:0.143 17:0.122 18:0.041 19:0.245 20:0 
14.7534102680952 1:0.3 2:0.4 3:0.2 4:0 5:0 6:0.041 7:0.102 8:0.02 9:0 10:0.02 11:0.082 12:0.02 13:0.02 14:0.082 15:0.041 16:0.102 17:0.102 18:0.02 19:0.347 20:0 
-292.8447622446209 1:0.3 2:0.4 3:0.2 4:0.041 5:0 6:0.041 7:0.041 8:0.02 9:0.02 10:0 11:0.082 12:0.061 13:0 14:0.082 15:0.041 16:0.02 17:0.102 18:0.061 19:0.388 20:0 
-124.9212656146836 1:0.3 2:0.4 3:0.2 4:0.041 5:0 6:0.061 7:0.041 8:0 9:0.02 10:0.041 11:0.041 12:0.061 13:0.041 14:0.061 15:0.02 16:0.041 17:0.061 18:0 19:0.469 20:0 
-767.7226104331234 1:0.3 2:0.467 3:0.2 4:0 5:0.02 6:0.041 7:0.082 8:0.02 9:0 10:0.041 11:0.082 12:0.041 13:0 14:0.061 15:0.041 16:0.082 17:0.122 18:0.02 19:0.347 20:0 
768 1:0.3 2:0.467 3:0.2 4:0.02 5:0.02 6:0 7:0.102 8:0.041 9:0.041 10:0 11:0.061 12:0.041 13:0.02 14:0 15:0.102 16:0.041 17:0.041 18:0.163 19:0.306 20:0 
540.3614319827187 1:0.3 2:0.467 3:0.2 4:0 5:0.02 6:0.041 7:0.082 8:0 9:0 10:0 11:0.143 12:0 13:0 14:0 15:0.163 16:0.143 17:0.122 18:0.122 19:0.163 20:0 
-768 1:0.3 2:0.533 3:0.2 4:0 5:0 6:0 7:0.143 8:0 9:0.061 10:0 11:0.102 12:0.041 13:0 14:0 15:0.082 16:0.082 17:0.102 18:0.143 19:0.245 20:0 
669.8989139676485 1:0.3 2:0.533 3:0.2 4:0.041 5:0.041 6:0 7:0.061 8:0 9:0.061 10:0 11:0.102 12:0.041 13:0.041 14:0 15:0.061 16:0.061 17:0.02 18:0.143 19:0.327 20:0 
-768 1:0.3 2:0.533 3:0.2 4:0.02 5:0 6:0 7:0.122 8:0 9:0 10:0 11:0.163 12:0 13:0.02 14:0 15:0.122 16:0.102 17:0.143 18:0.143 19:0.163 20:0 
768 1:0.3 2:0.6 3:0.2 4:0 5:0 6:0 7:0.143 8:0.02 9:0.02 10:0 11:0.122 12:0.041 13:0 14:0 15:0.082 16:0.082 17:0.163 18:0.102 19:0.224 20:0 
89.57477596888421 1:0.3 2:0.6 3:0.2 4:0.02 5:0 6:0.02 7:0.102 8:0.02 9:0 10:0.041 11:0.122 12:0.041 13:0 14:0.02 15:0.041 16:0.061 17:0.184 18:0.041 19:0.286 20:0 
-768 1:0.3 2:0.6 3:0.2 4:0 5:0 6:0.02 7:0.122 8:0 9:0.082 10:0.02 11:0.082 12:0 13:0.02 14:0 15:0.102 16:0.143 17:0.082 18:0.082 19:0.245 20:0 
-149.1783558568499 1:0.3 2:0.6 3:0.2 4:0.02 5:0.041 6:0.041 7:0.02 8:0 9:0.02 10:0.02 11:0.143 12:0.041 13:0 14:0.02 15:0.061 16:0.082 17:0.102 18:0.041 19:0.347 20:0 
-380.0369032558798 1:0.3 2:0.6 3:0.2 4:0.041 5:0.061 6:0 7:0.041 8:0.061 9:0 10:0 11:0.122 12:0.041 13:0 14:0 15:0.061 16:0 17:0.102 18:0.122 19:0.347 20:0 
-711.1396305465629 1:0.3 2:0.6 3:0.2 4:0.02 5:0.041 6:0 7:0.082 8:0 9:0.061 10:0.041 11:0.082 12:0.041 13:0.041 14:0.02 15:0 16:0.082 17:0.041 18:0.061 19:0.388 20:0 
139.7176616330232 1:0.3 2:0.667 3:0.2 4:0 5:0.061 6:0 7:0.082 8:0 9:0.02 10:0.041 11:0.143 12:0.02 13:0.041 14:0.02 15:0.02 16:0.122 17:0.061 18:0.041 19:0.327 20:0 
768 1:0.3 2:0.667 3:0.2 4:0.041 5:0 6:0.02 7:0.061 8:0.041 9:0 10:0 11:0.163 12:0.02 13:0.02 14:0.02 15:0.041 16:0.041 17:0.184 18:0.061 19:0.286 20:0 
-321.9401175523014 1:0.3 2:0.733 3:0.2 4:0 5:0 6:0 7:0.143 8:0 9:0.082 10:0 11:0.143 12:0 13:0.02 14:0 15:0.061 16:0.143 17:0.102 18:0.082 19:0.224 20:0 
-687.3530446596627 1:0.3 2:0.8 3:0.2 4:0.02 5:0.02 6:0 7:0.082 8:0.041 9:0.02 10:0.02 11:0.163 12:0 13:0 14:0 15:0.061 16:0.082 17:0.204 18:0.041 19:0.245 20:0 
240.38011307444 1:0.3 2:0.8 3:0.2 4:0.02 5:0.082 6:0.02 7:0 8:0.02 9:0.061 10:0 11:0.163 12:0.02 13:0.02 14:0 15:0.02 16:0.082 17:0.061 18:0.041 19:0.388 20:0 
12.88026216675496 1:0.3 2:0.8 3:0.2 4:0 5:0.082 6:0.02 7:0.041 8:0 9:0.061 10:0.02 11:0.143 12:0 13:0 14:0 15:0.061 16:0.143 17:0.102 18:0.02 19:0.306 20:0 
-5.720295379238072 1:0.3 2:0.8 3:0.2 4:0.02 5:0 6:0.02 7:0.082 8:0.082 9:0.143 10:0 11:0.02 12:0 13:0 14:0 15:0.061 16:0.02 17:0.102 18:0.041 19:0.408 20:0 
-666.0130273455613 1:0.3 2:0.2 3:0.257 4:0 5:0 6:0 7:0.184 8:0.02 9:0 10:0 11:0.041 12:0.041 13:0.02 14:0 15:0.184 16:0.122 17:0.041 18:0.224 19:0.122 20:0 
-374.4367273675671 1:0.3 2:0.2 3:0.257 4:0.041 5:0.02 6:0 7:0.122 8:0 9:0 10:0 11:0.041 12:0.102 13:0.02 14:0.082 15:0.041 16:0.041 17:0.02 18:0.163 19:0.306 20:0 
36.1513417453659 1:0.3 2:0.267 3:0.257 4:0.082 5:0.02 6:0 7:0.061 8:0 9:0 10:0.02 11:0.061 12:0.082 13:0.041 14:0.082 15:0.02 16:0.02 17:0.02 18:0.102 19:0.388 20:0 
581.245031149239 1:0.3 2:0.333 3:0.257 4:0.02 5:0 6:0.061 7:0.102 8:0.02 9:0 10:0.041 11:0.041 12:0 13:0 14:0.02 15:0.184 16:0.143 17:0.102 18:0.061 19:0.204 20:0 
1.065736135801574 1:0.3 2:0.333 3:0.257 4:0.061 5:0 6:0.082 7:0.02 8:0.02 9:0 10:0.02 11:0.061 12:0.02 13:0 14:0.082 15:0.102 16:0.082 17:0.082 18:0.02 19:0.347 20:0 
768 1:0.3 2:0.333 3:0.257 4:0.041 5:0 6:0.082 7:0.061 8:0 9:0.02 10:0 11:0.082 12:0.082 13:0.02 14:0 15:0.102 16:0.041 17:0.061 18:0.122 19:0.286 20:0 
-768 1:0.3 2:0.333 3:0.257 4:0.082 5:0.02 6:0.061 7:0 8:0.02 9:0.02 10:0.02 11:0.041 12:0.082 13:0.02 14:0.041 15:0.061 16:0 17:0.02 18:0.082 19:0.429 20:0 
16.86427798076842 1:0.3 2:0.333 3:0.257 4:0 5:0.02 6:0.02 7:0.143 8:0 9:0.02 10:0 11:0.082 12:0.061 13:0.041 14:0 15:0.082 16:0.122 17:0.02 18:0.184 19:0.204 20:0 
221.8218353860074 1:0.3 2:0.333 3:0.257 4:0 5:0.02 6:0 7:0.163 8:0.041 9:0.02 10:0.041 11:0 12:0 13:0 14:0.082 15:0.122 16:0.143 17:0.061 18:0.061 19:0.245 20:0 
-768 1:0.3 2:0.333 3:0.257 4:0 5:0 6:0.02 7:0.163 8:0.041 9:0.02 10:0.02 11:0 12:0 13:0.041 14:0 15:0.163 16:0.122 17:0.041 18:0.163 19:0.204 20:0 
768 1:0.3 2:0.4 3:0.257 4:0.041 5:0.041 6:0.061 7:0.041 8:0 9:0.02 10:0.02 11:0.082 12:0 13:0.041 14:0.02 15:0.102 16:0.143 17:0.02 18:0.082 19:0.286 20:0 
55.86629011551565 1:0.3 2:0.4 3:0.257 4:0.02 5:0.041 6:0 7:0.122 8:0.02 9:0.02 10:0 11:0.082 12:0 13:0.02 14:0 15:0.143 16:0.143 17:0.041 18:0.163 19:0.184 20:0 
-425.3034427105143 1:0.3 2:0.4 3:0.257 4:0.02 5:0 6:0.02 7:0.143 8:0 9:0 10:0 11:0.122 12:0 13:0.02 14:0.082 15:0.061 16:0.163 17:0.102 18:0.082 19:0.184 20:0 
768 1:0.3 2:0.4 3:0.257 4:0.041 5:0.02 6:0.061 7:0.041 8:0.02 9:0 10:0.041 11:0.061 12:0.082 13:0.02 14:0.061 15:0.02 16:0.02 17:0.082 18:0.02 19:0.408 20:0 
193.0193914501282 1:0.3 2:0.4 3:0.257 4:0.082 5:0.041 6:0.02 7:0.041 8:0.02 9:0 10:0 11:0.102 12:0.02 13:0.041 14:0.082 15:0.041 16:0.061 17:0.02 18:0.082 19:0.347 20:0 
768 1:0.3 2:0.4 3:0.257 4:0.02 5:0.02 6:0.082 7:0.061 8:0 9:0 10:0 11:0.122 12:0.061 13:0.02 14:0.061 15:0.02 16:0.102 17:0.082 18:0.041 19:0.306 20:0 
768 1:0.3 2:0.4 3:0.257 4:0 5:0.041 6:0.041 7:0.102 8:0.041 9:0.02 10:0.041 11:0 12:0 13:0 14:0 15:0.184 16:0.143 17:0.041 18:0.102 19:0.245 20:0 
-768 1:0.3 2:0.467 3:0.257 4:0.061 5:0.02 6:0.02 7:0.082 8:0.02 9:0.02 10:0.041 11:0.041 12:0.02 13:0.041 14:0 15:0.102 16:0.061 17:0.061 18:0.102 19:0.306 20:0 
249.3185754921419 1:0.3 2:0.467 3:0.257 4:0.061 5:0.02 6:0.041 7:0.061 8:0.02 9:0 10:0 11:0.122 12:0.041 13:0.02 14:0.02 15:0.082 16:0.061 17:0.102 18:0.102 19:0.245 20:0 
-768 1:0.3 2:0.467 3:0.257 4:0.02 5:0.061 6:0 7:0.102 8:0.041 9:0.041 10:0 11:0.041 12:0.02 13:0.041 14:0 15:0.102 16:0.102 17:0 18:0.163 19:0.265 20:0 
-768 1:0.3 2:0.467 3:0.257 4:0.02 5:0.041 6:0.061 7:0.041 8:0.041 9:0 10:0.041 11:0.061 12:0.02 13:0 14:0 15:0.143 16:0.102 17:0.102 18:0.041 19:0.286 20:0 
-71.84023194673109 1:0.3 2:0.467 3:0.257 4:0.061 5:0.061 6:0 7:0.061 8:0 9:0 10:0.041 11:0.102 12:0.061 13:0 14:0.041 15:0.041 16:0.061 17:0.061 18:0.082 19:0.327 20:0 
-90.40894861972038 1:0.3 2:0.467 3:0.257 4:0.041 5:0.02 6:0.061 7:0.061 8:0 9:0.041 10:0.041 11:0.061 12:0 13:0 14:0.061 15:0.082 16:0.143 17:0.082 18:0 19:0.306 20:0 
-140.3142617767476 1:0.3 2:0.467 3:0.257 4:0.02 5:0.041 6:0 7:0.122 8:0.061 9:0.041 10:0.041 11:0 12:0 13:0 14:0.061 15:0.102 16:0.102 17:0.061 18:0.041 19:0.306 20:0 
-717.287583171251 1:0.3 2:0.533 3:0.257 4:0 5:0 6:0.061 7:0.122 8:0 9:0.041 10:0 11:0.122 12:0.02 13:0.041 14:0.041 15:0.041 16:0.143 17:0.082 18:0.041 19:0.245 20:0 
-169.5136399657329 1:0.3 2:0.533 3:0.257 4:0.061 5:0 6:0.061 7:0.061 8:0 9:0 10:0.02 11:0.143 12:0.061 13:0.041 14:0.02 15:0.02 16:0.061 17:0.122 18:0.041 19:0.286 20:0 
-253.9957893507695 1:0.3 2:0.533 3:0.257 4:0.041 5:0.041 6:0.041 7:0.061 8:0.061 9:0.061 10:0 11:0.041 12:0.041 13:0.041 14:0.041 15:0.02 16:0.041 17:0.02 18:0.041 19:0.408 20:0 
-350.1102316844806 1:0.3 2:0.533 3:0.257 4:0.061 5:0.041 6:0 7:0.082 8:0.061 9:0 10:0 11:0.102 12:0.061 13:0 14:0 15:0.082 16:0 17:0.122 18:0.143 19:0.245 20:0 
-768 1:0.3 2:0.533 3:0.257 4:0.02 5:0.061 6:0.061 7:0.02 8:0 9:0.02 10:0 11:0.143 12:0.02 13:0 14:0.041 15:0.082 16:0.143 17:0.082 18:0.041 19:0.265 20:0 
71.38024471855913 1:0.3 2:0.533 3:0.257 4:0.082 5:0.061 6:0.041 7:0 8:0.041 9:0.061 10:0.041 11:0 12:0.02 13:0 14:0 15:0.122 16:0.041 17:0.041 18:0.041 19:0.408 20:0 
768 1:0.3 2:0.6 3:0.257 4:0.061 5:0.061 6:0.041 7:0.02 8:0.02 9:0.082 10:0.02 11:0.041 12:0 13:0 14:0 15:0.122 16:0.102 17:0.041 18:0.061 19:0.327 20:0 
495.0281008140567 1:0.3 2:0.6 3:0.257 4:0.02 5:0.02 6:0 7:0.143 8:0.082 9:0.041 10:0 11:0.061 12:0 13:0.02 14:0 15:0.102 16:0.082 17:0.102 18:0.122 19:0.204 20:0 
277.4775743437463 1:0.3 2:0.6 3:0.257 4:0 5:0 6:0.041 7:0.143 8:0.082 9:0.082 10:0.02 11:0 12:0.041 13:0 14:0.02 15:0.061 16:0.061 17:0.102 18:0.02 19:0.327 20:0 
768 1:0.3 2:0.667 3:0.257 4:0.041 5:0.02 6:0.02 7:0.102 8:0.082 9:0.041 10:0.02 11:0.061 12:0.02 13:0.02 14:0 15:0.061 16:0.041 17:0.122 18:0.061 19:0.286 20:0 
-247.2669348098559 1:0.3 2:0.667 3:0.257 4:0 5:0.061 6:0.02 7:0.082 8:0.041 9:0.041 10:0 11:0.122 12:0 13:0.041 14:0.02 15:0.041 16:0.122 17:0.061 18:0.061 19:0.286 20:0 
76.98103627261571 1:0.3 2:0.667 3:0.257 4:0.082 5:0.02 6:0.041 7:0.041 8:0 9:0.02 10:0.041 11:0.122 12:0 13:0.02 14:0 15:0.082 16:0.102 17:0.122 18:0.02 19:0.286 20:0 
768 1:0.3 2:0.667 3:0.257 4:0.02 5:0 6:0 7:0.163 8:0 9:0.102 10:0 11:0.102 12:0 13:0 14:0.02 15:0.061 16:0.143 17:0.102 18:0.082 19:0.204 20:0 
530.6630673119363 1:0.3 2:0.667 3:0.257 4:0 5:0.02 6:0 7:0.163 8:0.041 9:0.082 10:0.02 11:0.041 12:0.02 13:0.041 14:0 15:0.041 16:0.122 17:0.061 18:0.082 19:0.265 20:0 
768 1:0.3 2:0.667 3:0.257 4:0 5:0.02 6:0 7:0.163 8:0.041 9:0.041 10:0 11:0.122 12:0 13:0 14:0 15:0.102 16:0.143 17:0.143 18:0.102 19:0.122 20:0 
152.2645766326224 1:0.3 2:0.667 3:0.257 4:0 5:0.082 6:0.041 7:0.041 8:0.082 9:0 10:0.02 11:0.102 12:0 13:0 14:0 15:0.102 16:0.102 17:0.122 18:0.041 19:0.265 20:0 
643.8890441400466 1:0.3 2:0.667 3:0.257 4:0 5:0.061 6:0 7:0.122 8:0.082 9:0.041 10:0.041 11:0.041 12:0.02 13:0.041 14:0.02 15:0 16:0.082 17:0.041 18:0.041 19:0.367 20:0 
-178.3677704738257 1:0.3 2:0.667 3:0.257 4:0.061 5:0 6:0 7:0.122 8:0 9:0 10:0 11:0.184 12:0 13:0 14:0 15:0.102 16:0.122 17:0.204 18:0.102 19:0.102 20:0 
-768 1:0.3 2:0.733 3:0.257 4:0.061 5:0 6:0 7:0.102 8:0.041 9:0.041 10:0.02 11:0.122 12:0 13:0 14:0 15:0.082 16:0.082 17:0.184 18:0.061 19:0.204 20:0 
92.20126787840961 1:0.3 2:0.733 3:0.257 4:0 5:0 6:0.02 7:0.163 8:0.041 9:0.082 10:0.041 11:0.041 12:0.02 13:0 14:0 15:0.061 16:0.122 17:0.143 18:0.02 19:0.245 20:0 
-4.420561118873332 1:0.3 2:0.8 3:0.257 4:0.02 5:0.02 6:0.02 7:0.122 8:0.082 9:0.102 10:0.02 11:0.041 12:0 13:0.02 14:0 15:0.041 16:0.061 17:0.102 18:0.02 19:0.327 20:0 
100.6112638847802 1:0.3 2:0.8 3:0.257 4:0.041 5:0.02 6:0.02 7:0.102 8:0 9:0.041 10:0 11:0.204 12:0 13:0.02 14:0 15:0.041 16:0.143 17:0.143 18:0.041 19:0.184 20:0 
-186.2728007808672 1:0.3 2:0.2 3:0.314 4:0.02 5:0 6:0.082 7:0.122 8:0.02 9:0 10:0 11:0.041 12:0.102 13:0 14:0.122 15:0.02 16:0.061 17:0.061 18:0.041 19:0.306 20:0 
767.3189497921759 1:0.3 2:0.2 3:0.314 4:0.02 5:0 6:0 7:0.204 8:0.02 9:0 10:0 11:0.02 12:0.102 13:0.02 14:0.061 15:0.061 16:0.082 17:0.02 18:0.184 19:0.204 20:0 
-76.67061442473101 1:0.3 2:0.2 3:0.314 4:0 5:0 6:0 7:0.224 8:0.02 9:0 10:0.02 11:0.02 12:0.061 13:0 14:0.061 15:0.122 16:0.143 17:0.061 18:0.163 19:0.102 20:0 
49.33511926351415 1:0.3 2:0.267 3:0.314 4:0.041 5:0.02 6:0.02 7:0.143 8:0.041 9:0 10:0.02 11:0.02 12:0 13:0 14:0.02 15:0.184 16:0.122 17:0.061 18:0.163 19:0.143 20:0 
-238.0000074937328 1:0.3 2:0.267 3:0.314 4:0.122 5:0.02 6:0.02 7:0.061 8:0 9:0 10:0 11:0.082 12:0.02 13:0.041 14:0.02 15:0.143 16:0.082 17:0 18:0.184 19:0.204 20:0 
-15.96406950000345 1:0.3 2:0.267 3:0.314 4:0.122 5:0.041 6:0 7:0.061 8:0.02 9:0 10:0 11:0.061 12:0 13:0.041 14:0.082 15:0.082 16:0.082 17:0 18:0.143 19:0.265 20:0 
-256.8676359343428 1:0.3 2:0.267 3:0.314 4:0.041 5:0 6:0.041 7:0.143 8:0 9:0 10:0 11:0.082 12:0.122 13:0.041 14:0 15:0.041 16:0.061 17:0.02 18:0.184 19:0.224 20:0 
-768 1:0.3 2:0.267 3:0.314 4:0 5:0 6:0.061 7:0.163 8:0.041 9:0 10:0.041 11:0 12:0.082 13:0.041 14:0.041 15:0.041 16:0.102 17:0.041 18:0.061 19:0.286 20:0 
401.0108256731546 1:0.3 2:0.267 3:0.314 4:0 5:0 6:0 7:0.224 8:0.041 9:0 10:0.02 11:0.02 12:0.02 13:0.02 14:0.122 15:0.041 16:0.143 17:0.061 18:0.082 19:0.204 20:0 
-768 1:0.3 2:0.333 3:0.314 4:0.02 5:0.041 6:0.02 7:0.143 8:0 9:0.02 10:0 11:0.082 12:0.041 13:0 14:0.102 15:0.041 16:0.163 17:0.041 18:0.082 19:0.204 20:0 
768 1:0.3 2:0.333 3:0.314 4:0.041 5:0 6:0.102 7:0.082 8:0 9:0 10:0.02 11:0.082 12:0.061 13:0 14:0.041 15:0.102 16:0.122 17:0.102 18:0.041 19:0.204 20:0 
297.6488816633842 1:0.3 2:0.333 3:0.314 4:0.041 5:0.041 6:0.041 7:0.102 8:0.02 9:0 10:0 11:0.082 12:0.102 13:0.02 14:0.082 15:0 16:0.041 17:0.041 18:0.082 19:0.306 20:0 
768 1:0.3 2:0.333 3:0.314 4:0 5:0.041 6:0.02 7:0.143 8:0.041 9:0.02 10:0 11:0.041 12:0.041 13:0.02 14:0 15:0.143 16:0.122 17:0.02 18:0.184 19:0.163 20:0 
-551.9375672771891 1:0.3 2:0.333 3:0.314 4:0.082 5:0.041 6:0.102 7:0 8:0.02 9:0 10:0.041 11:0.041 12:0.061 13:0.041 14:0 15:0.102 16:0.061 17:0.02 18:0.061 19:0.327 20:0 
259.8383171647658 1:0.3 2:0.333 3:0.314 4:0.041 5:0.041 6:0 7:0.143 8:0.041 9:0.02 10:0.041 11:0 12:0.102 13:0.041 14:0 15:0.061 16:0.041 17:0 18:0.163 19:0.265 20:0 
75.70623990919704 1:0.3 2:0.4 3:0.314 4:0.102 5:0 6:0.061 7:0.041 8:0.02 9:0 10:0.041 11:0.061 12:0.061 13:0 14:0.041 15:0.082 16:0.02 17:0.122 18:0.041 19:0.306 20:0 
-65.80793001059629 1:0.3 2:0.4 3:0.314 4:0.041 5:0 6:0.02 7:0.163 8:0.02 9:0.02 10:0.02 11:0.061 12:0.082 13:0 14:0.041 15:0.041 16:0.061 17:0.102 18:0.102 19:0.224 20:0 
768 1:0.3 2:0.4 3:0.314 4:0.041 5:0.041 6:0.082 7:0.061 8:0 9:0 10:0 11:0.122 12:0.082 13:0.02 14:0.041 15:0.02 16:0.102 17:0.061 18:0.061 19:0.265 20:0 
586.9463410451963 1:0.3 2:0.4 3:0.314 4:0 5:0.02 6:0 7:0.204 8:0 9:0.02 10:0.02 11:0.061 12:0.02 13:0.041 14:0 15:0.122 16:0.204 17:0.041 18:0.143 19:0.102 20:0 
768 1:0.3 2:0.4 3:0.314 4:0.122 5:0.02 6:0.02 7:0.061 8:0.061 9:0.02 10:0.041 11:0 12:0 13:0.02 14:0 15:0.143 16:0.041 17:0.061 18:0.122 19:0.265 20:0 
766.5796989146813 1:0.3 2:0.467 3:0.314 4:0.02 5:0.061 6:0.041 7:0.102 8:0 9:0.02 10:0 11:0.122 12:0.041 13:0.02 14:0 15:0.102 16:0.163 17:0.041 18:0.102 19:0.163 20:0 
-768 1:0.3 2:0.467 3:0.314 4:0.082 5:0 6:0.041 7:0.102 8:0.041 9:0.02 10:0 11:0.061 12:0.041 13:0 14:0 15:0.122 16:0.061 17:0.122 18:0.102 19:0.204 20:0 
-475.5299661250735 1:0.3 2:0.467 3:0.314 4:0.082 5:0.02 6:0.02 7:0.102 8:0.061 9:0.02 10:0.041 11:0.02 12:0.061 13:0 14:0.061 15:0.041 16:0.02 17:0.082 18:0.041 19:0.327 20:0 
62.1939844452238 1:0.3 2:0.467 3:0.314 4:0.061 5:0.061 6:0 7:0.082 8:0.041 9:0 10:0 11:0.102 12:0.02 13:0 14:0 15:0.143 16:0.082 17:0.082 18:0.163 19:0.163 20:0 
-445.2155077819785 1:0.3 2:0.467 3:0.314 4:0.02 5:0.02 6:0 7:0.184 8:0 9:0.02 10:0.02 11:0.102 12:0 13:0 14:0.061 15:0.102 16:0.204 17:0.102 18:0.061 19:0.102 20:0 
160.1364529319167 1:0.3 2:0.467 3:0.314 4:0.122 5:0 6:0 7:0.102 8:0 9:0.02 10:0.02 11:0.102 12:0 13:0 14:0.061 15:0.102 16:0.102 17:0.122 18:0.061 19:0.184 20:0 
-768 1:0.3 2:0.467 3:0.314 4:0.02 5:0.061 6:0.061 7:0.082 8:0 9:0.041 10:0.041 11:0.061 12:0 13:0 14:0.061 15:0.102 16:0.204 17:0.041 18:0 19:0.224 20:0 
768 1:0.3 2:0.467 3:0.314 4:0.122 5:0 6:0.02 7:0.082 8:0.041 9:0.02 10:0 11:0.082 12:0.02 13:0.02 14:0.061 15:0.041 16:0.041 17:0.102 18:0.082 19:0.265 20:0 
768 1:0.3 2:0.533 3:0.314 4:0.041 5:0.041 6:0.041 7:0.102 8:0.02 9:0.02 10:0.041 11:0.082 12:0.061 13:0.02 14:0 15:0.061 16:0.082 17:0.082 18:0.061 19:0.245 20:0 
-768 1:0.3 2:0.533 3:0.314 4:0.041 5:0.082 6:0.041 7:0.061 8:0.082 9:0.041 10:0 11:0.041 12:0 13:0 14:0.041 15:0.102 16:0.102 17:0.041 18:0.061 19:0.265 20:0 
768 1:0.3 2:0.533 3:0.314 4:0.082 5:0 6:0.041 7:0.102 8:0.041 9:0.041 10:0.02 11:0.061 12:0.041 13:0.02 14:0.041 15:0.02 16:0.061 17:0.102 18:0.02 19:0.306 20:0 
-768 1:0.3 2:0.533 3:0.314 4:0.102 5:0.041 6:0 7:0.082 8:0.02 9:0.02 10:0 11:0.122 12:0.02 13:0.041 14:0.02 15:0.041 16:0.061 17:0.061 18:0.122 19:0.245 20:0 
768 1:0.3 2:0.533 3:0.314 4:0.041 5:0.02 6:0.02 7:0.143 8:0.082 9:0.02 10:0 11:0.041 12:0 13:0.02 14:0 15:0.122 16:0.082 17:0.102 18:0.122 19:0.184 20:0 
-3.090734486503026 1:0.3 2:0.533 3:0.314 4:0.082 5:0.082 6:0.02 7:0.041 8:0.041 9:0.061 10:0.041 11:0.02 12:0.02 13:0 14:0.041 15:0.082 16:0.061 17:0.02 18:0.041 19:0.347 20:0 
-27.51402915014447 1:0.3 2:0.533 3:0.314 4:0 5:0.082 6:0.061 7:0.082 8:0.082 9:0 10:0.02 11:0.061 12:0.061 13:0.02 14:0.02 15:0.02 16:0.082 17:0.041 18:0.041 19:0.327 20:0 
-768 1:0.3 2:0.533 3:0.314 4:0 5:0.02 6:0.061 7:0.122 8:0 9:0 10:0.041 11:0.122 12:0.061 13:0.041 14:0 15:0.041 16:0.163 17:0.102 18:0.02 19:0.204 20:0 
-768 1:0.3 2:0.6 3:0.314 4:0.082 5:0.041 6:0.041 7:0.061 8:0.041 9:0 10:0.041 11:0.102 12:0.061 13:0 14:0 15:0.061 16:0.041 17:0.143 18:0.041 19:0.245 20:0 
-316.1000575354501 1:0.3 2:0.6 3:0.314 4:0.061 5:0.02 6:0.02 7:0.122 8:0.082 9:0.041 10:0 11:0.041 12:0.041 13:0.02 14:0.02 15:0.041 16:0.041 17:0.102 18:0.082 19:0.265 20:0 
-768 1:0.3 2:0.6 3:0.314 4:0.02 5:0.02 6:0.061 7:0.122 8:0.061 9:0.061 10:0.02 11:0.02 12:0 13:0.02 14:0 15:0.102 16:0.143 17:0.061 18:0.041 19:0.245 20:0 
-768 1:0.3 2:0.6 3:0.314 4:0.02 5:0 6:0 7:0.204 8:0.02 9:0.082 10:0.02 11:0.061 12:0.041 13:0.041 14:0 15:0.041 16:0.143 17:0.041 18:0.102 19:0.184 20:0 
-768 1:0.3 2:0.6 3:0.314 4:0 5:0.061 6:0 7:0.163 8:0.061 9:0.02 10:0 11:0.102 12:0.02 13:0 14:0 15:0.102 16:0.143 17:0.082 18:0.122 19:0.122 20:0 
720.8175580531326 1:0.3 2:0.6 3:0.314 4:0.041 5:0.082 6:0.041 7:0.041 8:0 9:0 10:0 11:0.184 12:0.02 13:0.02 14:0.02 15:0.061 16:0.163 17:0.061 18:0.061 19:0.204 20:0 
768 1:0.3 2:0.6 3:0.314 4:0.02 5:0 6:0 7:0.204 8:0.082 9:0 10:0.041 11:0.061 12:0 13:0.02 14:0 15:0.082 16:0.122 17:0.163 18:0.082 19:0.122 20:0 
768 1:0.3 2:0.6 3:0.314 4:0.041 5:0.082 6:0.041 7:0.061 8:0.02 9:0.061 10:0 11:0.082 12:0 13:0 14:0 15:0.122 16:0.163 17:0.041 18:0.082 19:0.204 20:0 
-768 1:0.3 2:0.667 3:0.314 4:0 5:0.061 6:0.02 7:0.143 8:0.02 9:0.02 10:0 11:0.163 12:0.02 13:0 14:0.02 15:0.061 16:0.163 17:0.122 18:0.061 19:0.122 20:0 
768 1:0.3 2:0.667 3:0.314 4:0.061 5:0 6:0.02 7:0.143 8:0 9:0 10:0.02 11:0.184 12:0.02 13:0.02 14:0.02 15:0.02 16:0.122 17:0.184 18:0.041 19:0.143 20:0 
-768 1:0.3 2:0.667 3:0.314 4:0.061 5:0.082 6:0 7:0.082 8:0.102 9:0.061 10:0 11:0.02 12:0.041 13:0 14:0.02 15:0.041 16:0.02 17:0.061 18:0.082 19:0.327 20:0 
419.1581814846556 1:0.3 2:0.667 3:0.314 4:0 5:0 6:0.041 7:0.163 8:0.061 9:0.02 10:0.041 11:0.082 12:0 13:0 14:0 15:0.102 16:0.163 17:0.163 18:0.02 19:0.143 20:0 
-65.2902140300984 1:0.3 2:0.667 3:0.314 4:0.02 5:0.102 6:0.041 7:0.041 8:0.041 9:0.02 10:0 11:0.143 12:0 13:0 14:0 15:0.102 16:0.163 17:0.082 18:0.061 19:0.184 20:0 
58.52607907282807 1:0.3 2:0.667 3:0.314 4:0.02 5:0.102 6:0.02 7:0.061 8:0 9:0 10:0.041 11:0.163 12:0.041 13:0.02 14:0.02 15:0.02 16:0.163 17:0.082 18:0.02 19:0.224 20:0 
-393.2110287504059 1:0.3 2:0.667 3:0.314 4:0.102 5:0.061 6:0.041 7:0.02 8:0.02 9:0.082 10:0.02 11:0.082 12:0 13:0.02 14:0.02 15:0.061 16:0.102 17:0.02 18:0.02 19:0.327 20:0 
-432.6057930914772 1:0.3 2:0.667 3:0.314 4:0.061 5:0 6:0 7:0.163 8:0.02 9:0.082 10:0 11:0.102 12:0 13:0 14:0 15:0.082 16:0.143 17:0.122 18:0.102 19:0.122 20:0 
-110.967974240558 1:0.3 2:0.667 3:0.314 4:0 5:0.082 6:0 7:0.143 8:0.02 9:0.102 10:0 11:0.082 12:0 13:0 14:0.02 15:0.082 16:0.204 17:0.02 18:0.082 19:0.163 20:0 
-47.63073070973018 1:0.3 2:0.667 3:0.314 4:0.102 5:0.02 6:0.02 7:0.082 8:0.041 9:0.102 10:0.02 11:0.041 12:0.02 13:0.041 14:0.02 15:0 16:0.041 17:0.041 18:0.041 19:0.367 20:0 
-49.56762687740052 1:0.3 2:0.733 3:0.314 4:0 5:0.082 6:0 7:0.122 8:0.02 9:0.061 10:0.02 11:0.122 12:0.041 13:0.041 14:0 15:0 16:0.163 17:0.041 18:0.061 19:0.224 20:0 
-659.6012713489118 1:0.3 2:0.733 3:0.314 4:0.02 5:0.061 6:0 7:0.143 8:0.102 9:0 10:0 11:0.122 12:0 13:0.041 14:0 15:0.041 16:0.102 17:0.122 18:0.061 19:0.184 20:0 
768 1:0.3 2:0.733 3:0.314 4:0.041 5:0 6:0.041 7:0.143 8:0.02 9:0.041 10:0.041 11:0.102 12:0 13:0.02 14:0 15:0.061 16:0.163 17:0.163 18:0 19:0.163 20:0 
768 1:0.3 2:0.733 3:0.314 4:0.082 5:0.041 6:0 7:0.102 8:0.102 9:0.02 10:0.02 11:0.082 12:0 13:0 14:0 15:0.082 16:0.041 17:0.163 18:0.061 19:0.204 20:0 
412.7494932567164 1:0.3 2:0.733 3:0.314 4:0 5:0.082 6:0.041 7:0.102 8:0.122 9:0.02 10:0 11:0.082 12:0.041 13:0.02 14:0 15:0 16:0.061 17:0.102 18:0.041 19:0.286 20:0 
768 1:0.3 2:0.733 3:0.314 4:0.122 5:0 6:0 7:0.082 8:0.02 9:0.061 10:0.02 11:0.122 12:0.041 13:0 14:0 15:0.041 16:0.02 17:0.163 18:0.061 19:0.245 20:0 
-168.8718223415364 1:0.3 2:0.733 3:0.314 4:0 5:0.082 6:0 7:0.143 8:0.082 9:0.061 10:0.041 11:0.02 12:0.041 13:0.041 14:0 15:0 16:0.082 17:0.041 18:0.041 19:0.327 20:0 
768 1:0.3 2:0.733 3:0.314 4:0.041 5:0 6:0 7:0.184 8:0.102 9:0.061 10:0 11:0.061 12:0.041 13:0.02 14:0 15:0.02 16:0.02 17:0.143 18:0.082 19:0.224 20:0 
-260.2552984404424 1:0.3 2:0.8 3:0.314 4:0.061 5:0.02 6:0.02 7:0.102 8:0.122 9:0.061 10:0.02 11:0.041 12:0 13:0.02 14:0 15:0.041 16:0.02 17:0.143 18:0.02 19:0.306 20:0 
768 1:0.3 2:0.2 3:0.343 4:0.082 5:0.02 6:0.082 7:0.061 8:0 9:0 10:0 11:0.061 12:0.122 13:0.02 14:0.082 15:0 16:0.041 17:0.02 18:0.082 19:0.327 20:0 
529.8488448228487 1:0.3 2:0.2 3:0.343 4:0.143 5:0.02 6:0.02 7:0.061 8:0 9:0 10:0 11:0.061 12:0.102 13:0 14:0.061 15:0.061 16:0 17:0.041 18:0.143 19:0.286 20:0 
264.8771824833581 1:0.3 2:0.2 3:0.343 4:0.02 5:0 6:0.061 7:0.143 8:0 9:0 10:0.02 11:0.041 12:0.02 13:0 14:0.041 15:0.184 16:0.204 17:0.061 18:0.102 19:0.102 20:0 
-57.41657686361975 1:0.3 2:0.2 3:0.343 4:0.122 5:0 6:0 7:0.122 8:0.02 9:0 10:0 11:0.02 12:0.041 13:0 14:0.02 15:0.184 16:0.041 17:0.061 18:0.224 19:0.143 20:0 
229.9936160162835 1:0.3 2:0.2 3:0.343 4:0.061 5:0.02 6:0.102 7:0.061 8:0.02 9:0 10:0 11:0.02 12:0.061 13:0.02 14:0 15:0.163 16:0.102 17:0 18:0.143 19:0.224 20:0 
-177.5368507521383 1:0.3 2:0.267 3:0.343 4:0.041 5:0 6:0.122 7:0.082 8:0 9:0 10:0 11:0.061 12:0.02 13:0.02 14:0.061 15:0.122 16:0.163 17:0.061 18:0.041 19:0.204 20:0 
768 1:0.3 2:0.267 3:0.343 4:0.02 5:0 6:0.02 7:0.204 8:0.02 9:0 10:0.02 11:0.02 12:0.122 13:0 14:0.082 15:0.02 16:0.082 17:0.082 18:0.082 19:0.224 20:0 
-768 1:0.3 2:0.267 3:0.343 4:0.041 5:0.041 6:0 7:0.143 8:0.02 9:0 10:0 11:0.061 12:0.122 13:0 14:0.082 15:0.02 16:0.061 17:0.02 18:0.143 19:0.245 20:0 
-768 1:0.3 2:0.267 3:0.343 4:0.102 5:0 6:0 7:0.143 8:0 9:0 10:0.041 11:0.041 12:0.061 13:0 14:0.122 15:0.02 16:0.061 17:0.082 18:0.061 19:0.265 20:0 
181.2824219065802 1:0.3 2:0.333 3:0.343 4:0.041 5:0.02 6:0 7:0.184 8:0.041 9:0 10:0.02 11:0.041 12:0.082 13:0.02 14:0.061 15:0.041 16:0.082 17:0.061 18:0.122 19:0.184 20:0 
-89.55871926683527 1:0.3 2:0.333 3:0.343 4:0 5:0.041 6:0.041 7:0.163 8:0 9:0.02 10:0 11:0.082 12:0.082 13:0 14:0.102 15:0.02 16:0.143 17:0.041 18:0.061 19:0.204 20:0 
-293.6185625393402 1:0.3 2:0.333 3:0.343 4:0.061 5:0.02 6:0.122 7:0.041 8:0 9:0 10:0.041 11:0.061 12:0.041 13:0.041 14:0 15:0.102 16:0.143 17:0.041 18:0.041 19:0.245 20:0 
768 1:0.3 2:0.333 3:0.343 4:0.041 5:0.02 6:0.061 7:0.102 8:0.061 9:0 10:0.02 11:0.02 12:0.082 13:0 14:0.102 15:0.02 16:0.041 17:0.082 18:0.02 19:0.327 20:0 
768 1:0.3 2:0.333 3:0.343 4:0.061 5:0 6:0.102 7:0.082 8:0 9:0 10:0 11:0.102 12:0.02 13:0 14:0.02 15:0.143 16:0.163 17:0.102 18:0.082 19:0.122 20:0 
-509.7810930464387 1:0.3 2:0.333 3:0.343 4:0.02 5:0.061 6:0 7:0.163 8:0.041 9:0 10:0.041 11:0 12:0.102 13:0.041 14:0 15:0.061 16:0.082 17:0 18:0.163 19:0.224 20:0 
235.2486712223851 1:0.3 2:0.333 3:0.343 4:0.143 5:0.02 6:0.061 7:0.02 8:0.02 9:0 10:0 11:0.082 12:0 13:0 14:0.082 15:0.122 16:0.082 17:0.082 18:0.061 19:0.224 20:0 
-768 1:0.3 2:0.333 3:0.343 4:0.041 5:0 6:0.041 7:0.163 8:0.02 9:0 10:0 11:0.082 12:0.122 13:0 14:0.082 15:0 16:0.061 17:0.102 18:0.061 19:0.224 20:0 
768 1:0.3 2:0.4 3:0.343 4:0.02 5:0.041 6:0.041 7:0.143 8:0.041 9:0 10:0.02 11:0.061 12:0.02 13:0 14:0.041 15:0.122 16:0.143 17:0.082 18:0.082 19:0.143 20:0 
-768 1:0.3 2:0.4 3:0.343 4:0.061 5:0.02 6:0.102 7:0.061 8:0.041 9:0.02 10:0.041 11:0 12:0.02 13:0 14:0 15:0.163 16:0.122 17:0.082 18:0.041 19:0.224 20:0 
-768 1:0.3 2:0.4 3:0.343 4:0.082 5:0.02 6:0.02 7:0.122 8:0 9:0 10:0.041 11:0.082 12:0.041 13:0 14:0.082 15:0.041 16:0.122 17:0.102 18:0.041 19:0.204 20:0 
-404.0497865600841 1:0.3 2:0.4 3:0.343 4:0.02 5:0.041 6:0.02 7:0.163 8:0.02 9:0.02 10:0.041 11:0.02 12:0.102 13:0.041 14:0.02 15:0.02 16:0.102 17:0.02 18:0.102 19:0.245 20:0 
-768 1:0.3 2:0.4 3:0.343 4:0.082 5:0.061 6:0.02 7:0.082 8:0.061 9:0.02 10:0.041 11:0 12:0 13:0 14:0.02 15:0.163 16:0.102 17:0.02 18:0.102 19:0.224 20:0 
768 1:0.3 2:0.4 3:0.343 4:0.061 5:0 6:0.02 7:0.163 8:0 9:0.02 10:0 11:0.102 12:0.082 13:0.041 14:0.041 15:0 16:0.082 17:0.061 18:0.122 19:0.204 20:0 
-203.7769483744501 1:0.3 2:0.4 3:0.343 4:0 5:0 6:0.061 7:0.184 8:0.061 9:0.02 10:0.02 11:0.02 12:0.102 13:0 14:0.061 15:0.02 16:0.082 17:0.082 18:0.041 19:0.245 20:0 
-768 1:0.3 2:0.4 3:0.343 4:0.061 5:0 6:0.102 7:0.082 8:0 9:0.02 10:0.02 11:0.082 12:0.102 13:0 14:0.041 15:0.02 16:0.082 17:0.102 18:0.02 19:0.265 20:0 
67.09285702201652 1:0.3 2:0.4 3:0.343 4:0.041 5:0.041 6:0.02 7:0.143 8:0.041 9:0.02 10:0 11:0.061 12:0 13:0.02 14:0 15:0.163 16:0.163 17:0.041 18:0.163 19:0.082 20:0 
-671.6212924900919 1:0.3 2:0.467 3:0.343 4:0.02 5:0.082 6:0.061 7:0.061 8:0 9:0.041 10:0.041 11:0.061 12:0 13:0.02 14:0.041 15:0.102 16:0.224 17:0 18:0.02 19:0.224 20:0 
-768 1:0.3 2:0.467 3:0.343 4:0.082 5:0.061 6:0.041 7:0.061 8:0.041 9:0 10:0 11:0.102 12:0.061 13:0.041 14:0 15:0.041 16:0.061 17:0.041 18:0.102 19:0.265 20:0 
-768 1:0.3 2:0.467 3:0.343 4:0.041 5:0.082 6:0 7:0.122 8:0.02 9:0 10:0.02 11:0.102 12:0.02 13:0.041 14:0.02 15:0.061 16:0.143 17:0.02 18:0.122 19:0.184 20:0 
768 1:0.3 2:0.467 3:0.343 4:0.061 5:0.061 6:0 7:0.122 8:0 9:0.041 10:0.041 11:0.041 12:0.082 13:0 14:0.061 15:0.02 16:0.102 17:0.041 18:0.041 19:0.286 20:0 
768 1:0.3 2:0.467 3:0.343 4:0.143 5:0 6:0.02 7:0.082 8:0 9:0 10:0.02 11:0.122 12:0.041 13:0 14:0.041 15:0.082 16:0.061 17:0.143 18:0.082 19:0.163 20:0 
-768 1:0.3 2:0.467 3:0.343 4:0.061 5:0.082 6:0.02 7:0.082 8:0.082 9:0.041 10:0.02 11:0 12:0.02 13:0 14:0.061 15:0.082 16:0.082 17:0.02 18:0.061 19:0.286 20:0 
768 1:0.3 2:0.467 3:0.343 4:0.02 5:0.061 6:0.041 7:0.122 8:0 9:0.02 10:0.02 11:0.102 12:0.041 13:0.02 14:0.061 15:0.02 16:0.184 17:0.041 18:0.041 19:0.204 20:0 
768 1:0.3 2:0.467 3:0.343 4:0.082 5:0.041 6:0 7:0.122 8:0.061 9:0.02 10:0 11:0.061 12:0 13:0.041 14:0.061 15:0.041 16:0.102 17:0.041 18:0.082 19:0.245 20:0 
462.4155458269184 1:0.3 2:0.467 3:0.343 4:0.02 5:0 6:0.061 7:0.163 8:0 9:0.02 10:0.041 11:0.082 12:0.082 13:0 14:0 15:0.082 16:0.143 17:0.122 18:0.041 19:0.143 20:0 
-196.9641432815498 1:0.3 2:0.467 3:0.343 4:0 5:0 6:0.041 7:0.204 8:0.082 9:0 10:0.041 11:0.02 12:0.082 13:0.041 14:0 15:0.041 16:0.082 17:0.102 18:0.082 19:0.184 20:0 
-178.9325521110484 1:0.3 2:0.467 3:0.343 4:0.122 5:0.061 6:0 7:0.061 8:0.02 9:0.041 10:0.041 11:0.02 12:0.061 13:0 14:0.02 15:0.082 16:0.041 17:0.041 18:0.102 19:0.286 20:0 
768 1:0.3 2:0.467 3:0.343 4:0 5:0.041 6:0.061 7:0.143 8:0.02 9:0.041 10:0.041 11:0.02 12:0.082 13:0 14:0 15:0.082 16:0.143 17:0.061 18:0.041 19:0.224 20:0 
508.663042797033 1:0.3 2:0.533 3:0.343 4:0.082 5:0.082 6:0.02 7:0.061 8:0.02 9:0.02 10:0.02 11:0.102 12:0.041 13:0.02 14:0.02 15:0.061 16:0.082 17:0.041 18:0.082 19:0.245 20:0 
-301.9191639715699 1:0.3 2:0.533 3:0.343 4:0.082 5:0.061 6:0.082 7:0.02 8:0.061 9:0.02 10:0.02 11:0.061 12:0.041 13:0.02 14:0.041 15:0.02 16:0.041 17:0.061 18:0 19:0.367 20:0 
768 1:0.3 2:0.533 3:0.343 4:0.102 5:0 6:0.082 7:0.061 8:0.041 9:0.061 10:0.02 11:0.041 12:0.02 13:0.02 14:0 15:0.082 16:0.061 17:0.082 18:0.041 19:0.286 20:0 
160.9420724690152 1:0.3 2:0.533 3:0.343 4:0 5:0.02 6:0 7:0.224 8:0.041 9:0 10:0.02 11:0.102 12:0.02 13:0.041 14:0.041 15:0.041 16:0.163 17:0.102 18:0.082 19:0.102 20:0 
-768 1:0.3 2:0.533 3:0.343 4:0.041 5:0.02 6:0.061 7:0.122 8:0.041 9:0 10:0 11:0.122 12:0.082 13:0 14:0.041 15:0.02 16:0.061 17:0.143 18:0.041 19:0.204 20:0 
-768 1:0.3 2:0.533 3:0.343 4:0.061 5:0 6:0 7:0.184 8:0.061 9:0.02 10:0.041 11:0.041 12:0.082 13:0 14:0.02 15:0.02 16:0.02 17:0.143 18:0.082 19:0.224 20:0 
768 1:0.3 2:0.533 3:0.343 4:0.122 5:0.061 6:0 7:0.061 8:0 9:0 10:0.02 11:0.143 12:0.02 13:0 14:0.041 15:0.082 16:0.102 17:0.102 18:0.082 19:0.163 20:0 
768 1:0.3 2:0.533 3:0.343 4:0.041 5:0.02 6:0.02 7:0.163 8:0 9:0.061 10:0.02 11:0.082 12:0 13:0.041 14:0.041 15:0.041 16:0.204 17:0.02 18:0.061 19:0.184 20:0 
768 1:0.3 2:0.533 3:0.343 4:0.082 5:0 6:0.02 7:0.143 8:0.02 9:0.061 10:0 11:0.082 12:0.041 13:0.041 14:0.041 15:0 16:0.102 17:0.061 18:0.082 19:0.224 20:0 
-768 1:0.3 2:0.533 3:0.343 4:0.061 5:0.041 6:0.082 7:0.061 8:0 9:0.061 10:0 11:0.082 12:0.02 13:0.041 14:0.041 15:0.041 16:0.143 17:0.02 18:0.02 19:0.286 20:0 
-768 1:0.3 2:0.6 3:0.343 4:0.061 5:0.061 6:0.041 7:0.082 8:0.02 9:0.061 10:0.02 11:0.082 12:0.02 13:0 14:0.02 15:0.061 16:0.122 17:0.061 18:0.041 19:0.245 20:0 
768 1:0.3 2:0.6 3:0.343 4:0.082 5:0.102 6:0 7:0.061 8:0.041 9:0.02 10:0 11:0.122 12:0 13:0.02 14:0 15:0.102 16:0.122 17:0.041 18:0.122 19:0.163 20:0 
-624.4790773022435 1:0.3 2:0.6 3:0.343 4:0 5:0.041 6:0.02 7:0.184 8:0.061 9:0 10:0.041 11:0.082 12:0.02 13:0 14:0 15:0.102 16:0.163 17:0.143 18:0.061 19:0.082 20:0 
69.77237258369524 1:0.3 2:0.6 3:0.343 4:0.041 5:0.102 6:0.041 7:0.061 8:0 9:0.02 10:0.02 11:0.143 12:0.02 13:0.041 14:0.02 15:0.041 16:0.184 17:0.02 18:0.041 19:0.204 20:0 
768 1:0.3 2:0.6 3:0.343 4:0.122 5:0.061 6:0.041 7:0.02 8:0.02 9:0.061 10:0.041 11:0.061 12:0.02 13:0.02 14:0.02 15:0.041 16:0.082 17:0.041 18:0.02 19:0.327 20:0 
646.0919199899216 1:0.3 2:0.667 3:0.343 4:0.02 5:0.061 6:0.061 7:0.102 8:0.061 9:0.061 10:0 11:0.082 12:0.02 13:0 14:0 15:0.082 16:0.143 17:0.082 18:0.041 19:0.184 20:0 
768 1:0.3 2:0.667 3:0.343 4:0.061 5:0.02 6:0 7:0.163 8:0.041 9:0.02 10:0 11:0.143 12:0.02 13:0.02 14:0 15:0.061 16:0.102 17:0.143 18:0.102 19:0.102 20:0 
-343.16915571098 1:0.3 2:0.667 3:0.343 4:0 5:0.041 6:0.02 7:0.184 8:0.041 9:0.061 10:0.02 11:0.061 12:0.061 13:0 14:0.02 15:0.02 16:0.143 17:0.082 18:0.041 19:0.204 20:0 
-713.2980081599115 1:0.3 2:0.667 3:0.343 4:0.041 5:0 6:0.041 7:0.163 8:0.082 9:0.02 10:0.02 11:0.082 12:0 13:0 14:0 15:0.082 16:0.122 17:0.184 18:0.02 19:0.143 20:0 
354.7759566230804 1:0.3 2:0.667 3:0.343 4:0.122 5:0.041 6:0 7:0.061 8:0 9:0 10:0.041 11:0.163 12:0.061 13:0 14:0 15:0.041 16:0.061 17:0.163 18:0.061 19:0.184 20:0 
463.3952613485407 1:0.3 2:0.667 3:0.343 4:0.122 5:0 6:0 7:0.122 8:0.041 9:0.041 10:0.02 11:0.102 12:0.061 13:0.02 14:0 15:0.02 16:0.02 17:0.143 18:0.082 19:0.204 20:0 
768 1:0.3 2:0.667 3:0.343 4:0 5:0.102 6:0 7:0.143 8:0.082 9:0.02 10:0 11:0.102 12:0.041 13:0 14:0 15:0.061 16:0.122 17:0.082 18:0.102 19:0.143 20:0 
768 1:0.3 2:0.667 3:0.343 4:0.02 5:0.041 6:0.041 7:0.122 8:0.061 9:0.102 10:0.02 11:0.02 12:0 13:0.02 14:0.02 15:0.061 16:0.163 17:0.02 18:0.02 19:0.265 20:0 
-768 1:0.3 2:0.667 3:0.343 4:0.102 5:0.061 6:0 7:0.082 8:0 9:0 10:0 11:0.204 12:0.02 13:0.041 14:0.02 15:0 16:0.122 17:0.102 18:0.082 19:0.163 20:0 
135.6680497004591 1:0.3 2:0.667 3:0.343 4:0 5:0.122 6:0.041 7:0.082 8:0.122 9:0.02 10:0.041 11:0 12:0 13:0.02 14:0 15:0.082 16:0.122 17:0.02 18:0.02 19:0.306 20:0 
-768 1:0.3 2:0.667 3:0.343 4:0.143 5:0 6:0 7:0.082 8:0.02 9:0.02 10:0.02 11:0.143 12:0 13:0 14:0 15:0.102 16:0.082 17:0.184 18:0.082 19:0.122 20:0 
572.8263414384446 1:0.3 2:0.667 3:0.343 4:0.122 5:0.02 6:0 7:0.102 8:0.02 9:0.082 10:0 11:0.082 12:0.061 13:0.041 14:0 15:0 16:0.02 17:0.061 18:0.102 19:0.286 20:0 
-768 1:0.3 2:0.733 3:0.343 4:0.102 5:0.122 6:0 7:0.02 8:0.061 9:0.061 10:0 11:0.082 12:0 13:0 14:0 15:0.082 16:0.082 17:0.041 18:0.082 19:0.265 20:0 
-768 1:0.3 2:0.733 3:0.343 4:0.02 5:0.122 6:0.02 7:0.082 8:0.082 9:0.02 10:0.041 11:0.082 12:0.02 13:0.041 14:0 15:0 16:0.102 17:0.041 18:0.02 19:0.306 20:0 
-131.7793929203483 1:0.3 2:0.733 3:0.343 4:0.02 5:0.102 6:0 7:0.122 8:0.061 9:0.02 10:0.041 11:0.102 12:0 13:0 14:0 15:0.082 16:0.163 17:0.102 18:0.041 19:0.143 20:0 
-768 1:0.3 2:0.733 3:0.343 4:0.122 5:0.061 6:0.041 7:0.02 8:0 9:0.122 10:0 11:0.082 12:0.041 13:0 14:0 15:0.041 16:0.082 17:0.041 18:0.041 19:0.306 20:0 
-768 1:0.3 2:0.733 3:0.343 4:0.02 5:0 6:0.041 7:0.184 8:0.122 9:0.061 10:0.041 11:0 12:0 13:0.02 14:0 15:0.041 16:0.102 17:0.143 18:0 19:0.224 20:0 
423.5821725946562 1:0.3 2:0.8 3:0.343 4:0 5:0.122 6:0.02 7:0.102 8:0.041 9:0.041 10:0 11:0.163 12:0 13:0 14:0 15:0.061 16:0.204 17:0.082 18:0.041 19:0.122 20:0 
-274.73806695711 1:0.3 2:0.8 3:0.343 4:0.102 5:0 6:0 7:0.122 8:0 9:0.082 10:0.02 11:0.143 12:0 13:0 14:0 15:0.061 16:0.143 17:0.163 18:0.041 19:0.122 20:0 
-317.2881760391218 1:0.3 2:0.2 3:0.4 4:0.082 5:0 6:0.122 7:0.082 8:0.041 9:0 10:0 11:0 12:0.041 13:0 14:0.02 15:0.184 16:0.122 17:0.061 18:0.102 19:0.143 20:0 
-563.6236152875965 1:0.3 2:0.2 3:0.4 4:0.082 5:0.041 6:0 7:0.143 8:0.02 9:0 10:0 11:0.041 12:0.02 13:0.02 14:0.102 15:0.102 16:0.163 17:0 18:0.143 19:0.122 20:0 
-45.30310870074617 1:0.3 2:0.2 3:0.4 4:0 5:0.041 6:0 7:0.224 8:0.02 9:0 10:0.02 11:0.02 12:0.061 13:0.02 14:0.02 15:0.143 16:0.204 17:0 18:0.184 19:0.041 20:0 
-605.0892318664718 1:0.3 2:0.2 3:0.4 4:0.102 5:0 6:0.082 7:0.102 8:0 9:0 10:0.02 11:0.041 12:0.143 13:0 14:0.061 15:0.02 16:0.02 17:0.061 18:0.082 19:0.265 20:0 
-28.6866885336557 1:0.3 2:0.2 3:0.4 4:0 5:0.041 6:0.163 7:0.082 8:0.02 9:0 10:0 11:0.041 12:0.122 13:0 14:0 15:0.122 16:0.143 17:0.02 18:0.082 19:0.163 20:0 
149.281393780959 1:0.3 2:0.2 3:0.4 4:0 5:0 6:0.102 7:0.184 8:0.041 9:0 10:0.02 11:0 12:0.163 13:0.02 14:0.041 15:0 16:0.082 17:0.041 18:0.082 19:0.224 20:0 
-528.3615918274854 1:0.3 2:0.2 3:0.4 4:0.184 5:0 6:0 7:0.102 8:0.02 9:0 10:0 11:0.041 12:0.041 13:0.02 14:0.061 15:0.122 16:0.041 17:0.041 18:0.184 19:0.143 20:0 
768 1:0.3 2:0.2 3:0.4 4:0.082 5:0 6:0.082 7:0.122 8:0.041 9:0 10:0.02 11:0 12:0 13:0 14:0 15:0.245 16:0.163 17:0.061 18:0.143 19:0.041 20:0 
-768 1:0.3 2:0.2 3:0.4 4:0.02 5:0.041 6:0.122 7:0.082 8:0.041 9:0 10:0.02 11:0 12:0.163 13:0 14:0.061 15:0.02 16:0.061 17:0 18:0.041 19:0.327 20:0 
-233.1694212720887 1:0.3 2:0.267 3:0.4 4:0.102 5:0 6:0.102 7:0.082 8:0.02 9:0 10:0.02 11:0.02 12:0.02 13:0.02 14:0.061 15:0.122 16:0.122 17:0.061 18:0.041 19:0.204 20:0 
131.6432892940569 1:0.3 2:0.267 3:0.4 4:0.102 5:0 6:0 7:0.163 8:0.041 9:0 10:0.02 11:0.02 12:0.102 13:0 14:0.02 15:0.102 16:0.041 17:0.082 18:0.184 19:0.122 20:0 
-226.5218425008894 1:0.3 2:0.267 3:0.4 4:0.041 5:0 6:0.143 7:0.102 8:0.02 9:0 10:0.02 11:0.041 12:0.082 13:0.041 14:0.041 15:0.041 16:0.122 17:0.041 18:0.02 19:0.245 20:0 
465.6652603272904 1:0.3 2:0.267 3:0.4 4:0.143 5:0.041 6:0 7:0.082 8:0 9:0 10:0.02 11:0.061 12:0.061 13:0.041 14:0 15:0.122 16:0.082 17:0 18:0.204 19:0.143 20:0 
398.9366249203659 1:0.3 2:0.267 3:0.4 4:0.041 5:0.02 6:0 7:0.204 8:0 9:0 10:0.041 11:0.041 12:0.041 13:0 14:0.061 15:0.122 16:0.204 17:0.061 18:0.102 19:0.061 20:0 
130.2112149764542 1:0.3 2:0.267 3:0.4 4:0 5:0.02 6:0.102 7:0.143 8:0 9:0 10:0 11:0.082 12:0.061 13:0.02 14:0.102 15:0.041 16:0.224 17:0.041 18:0.02 19:0.143 20:0 
-768 1:0.3 2:0.333 3:0.4 4:0.041 5:0.061 6:0.082 7:0.102 8:0.02 9:0 10:0.02 11:0.061 12:0.02 13:0.02 14:0 15:0.163 16:0.204 17:0.02 18:0.102 19:0.082 20:0 
768 1:0.3 2:0.333 3:0.4 4:0.122 5:0.061 6:0 7:0.102 8:0.02 9:0.02 10:0 11:0.061 12:0.041 13:0.02 14:0.041 15:0.082 16:0.102 17:0 18:0.163 19:0.163 20:0 
-86.24899264130842 1:0.3 2:0.333 3:0.4 4:0.061 5:0.061 6:0.143 7:0.02 8:0.02 9:0 10:0.02 11:0.061 12:0.02 13:0.02 14:0 15:0.163 16:0.163 17:0.02 18:0.041 19:0.184 20:0 
703.9893477584334 1:0.3 2:0.333 3:0.4 4:0.082 5:0.041 6:0.102 7:0.061 8:0.061 9:0 10:0.02 11:0 12:0 13:0.041 14:0.061 15:0.102 16:0.143 17:0.02 18:0.02 19:0.245 20:0 
-768 1:0.3 2:0.333 3:0.4 4:0.061 5:0.061 6:0.041 7:0.122 8:0.061 9:0 10:0.02 11:0 12:0.082 13:0.041 14:0.082 15:0 16:0.061 17:0 18:0.061 19:0.306 20:0 
-37.55571070000073 1:0.3 2:0.333 3:0.4 4:0.041 5:0.02 6:0.082 7:0.143 8:0 9:0 10:0 11:0.102 12:0.082 13:0 14:0.102 15:0.02 16:0.143 17:0.082 18:0.02 19:0.163 20:0 
-621.9416999689552 1:0.3 2:0.333 3:0.4 4:0.02 5:0 6:0.122 7:0.122 8:0 9:0 10:0 11:0.102 12:0.02 13:0.041 14:0.041 15:0.102 16:0.245 17:0.061 18:0.041 19:0.082 20:0 
279.8730672781323 1:0.3 2:0.333 3:0.4 4:0.163 5:0.02 6:0.082 7:0.02 8:0.061 9:0.02 10:0.02 11:0 12:0.02 13:0.02 14:0 15:0.163 16:0.041 17:0.041 18:0.102 19:0.224 20:0 
-768 1:0.3 2:0.333 3:0.4 4:0.163 5:0.041 6:0.061 7:0 8:0 9:0.02 10:0.02 11:0.061 12:0.061 13:0 14:0.082 15:0.061 16:0.061 17:0.041 18:0.041 19:0.286 20:0 
768 1:0.3 2:0.4 3:0.4 4:0.02 5:0.02 6:0.082 7:0.143 8:0.041 9:0 10:0.02 11:0.061 12:0.041 13:0 14:0.061 15:0.082 16:0.184 17:0.102 18:0.02 19:0.122 20:0 
320.6869745525449 1:0.3 2:0.4 3:0.4 4:0.143 5:0.041 6:0.02 7:0.082 8:0.061 9:0.02 10:0.041 11:0 12:0 13:0 14:0.082 15:0.102 16:0.061 17:0.061 18:0.041 19:0.245 20:0 
-768 1:0.3 2:0.4 3:0.4 4:0.122 5:0.02 6:0.02 7:0.102 8:0 9:0 10:0.02 11:0.102 12:0 13:0.02 14:0.061 15:0.102 16:0.163 17:0.082 18:0.082 19:0.102 20:0 
-456.5892382874391 1:0.3 2:0.4 3:0.4 4:0.082 5:0.02 6:0.082 7:0.082 8:0.061 9:0 10:0 11:0.061 12:0.02 13:0 14:0 15:0.163 16:0.122 17:0.102 18:0.102 19:0.102 20:0 
768 1:0.3 2:0.4 3:0.4 4:0.082 5:0.082 6:0.082 7:0.02 8:0.041 9:0 10:0.041 11:0.041 12:0.041 13:0.02 14:0.061 15:0.061 16:0.102 17:0.02 18:0 19:0.306 20:0 
-768 1:0.3 2:0.4 3:0.4 4:0 5:0.041 6:0.02 7:0.224 8:0.061 9:0 10:0.02 11:0.041 12:0.041 13:0.041 14:0.041 15:0.061 16:0.184 17:0.041 18:0.082 19:0.102 20:0 
-87.4035257105012 1:0.3 2:0.4 3:0.4 4:0.061 5:0.082 6:0.041 7:0.102 8:0.082 9:0.02 10:0 11:0.02 12:0.061 13:0 14:0.082 15:0.041 16:0.061 17:0.02 18:0.061 19:0.265 20:0 
-768 1:0.3 2:0.4 3:0.4 4:0.02 5:0.061 6:0.061 7:0.143 8:0.082 9:0 10:0.02 11:0.02 12:0 13:0 14:0.02 15:0.163 16:0.184 17:0.061 18:0.061 19:0.102 20:0 
684.6885004982912 1:0.3 2:0.4 3:0.4 4:0.102 5:0 6:0.102 7:0.061 8:0 9:0.02 10:0 11:0.102 12:0 13:0.041 14:0 15:0.143 16:0.184 17:0.041 18:0.082 19:0.122 20:0 
-557.9989209382162 1:0.3 2:0.4 3:0.4 4:0.122 5:0.02 6:0.082 7:0.061 8:0 9:0 10:0 11:0.122 12:0.061 13:0.041 14:0.061 15:0 16:0.102 17:0.061 18:0.02 19:0.245 20:0 
52.06232968634829 1:0.3 2:0.4 3:0.4 4:0.02 5:0.061 6:0.041 7:0.163 8:0 9:0 10:0 11:0.122 12:0.02 13:0.02 14:0.082 15:0.041 16:0.245 17:0.041 18:0.061 19:0.082 20:0 
469.3018025423887 1:0.3 2:0.4 3:0.4 4:0.082 5:0.082 6:0 7:0.122 8:0.061 9:0 10:0 11:0.061 12:0.122 13:0.02 14:0.041 15:0 16:0.02 17:0.02 18:0.143 19:0.224 20:0 
768 1:0.3 2:0.4 3:0.4 4:0.041 5:0.041 6:0.082 7:0.122 8:0.041 9:0.02 10:0.02 11:0.02 12:0.041 13:0.041 14:0.082 15:0.02 16:0.143 17:0.02 18:0 19:0.265 20:0 
768 1:0.3 2:0.4 3:0.4 4:0.041 5:0.02 6:0.102 7:0.122 8:0.082 9:0.02 10:0.02 11:0 12:0.102 13:0.02 14:0.041 15:0 16:0.061 17:0.061 18:0.02 19:0.286 20:0 
768 1:0.3 2:0.4 3:0.4 4:0.082 5:0 6:0.061 7:0.122 8:0 9:0 10:0.02 11:0.102 12:0.122 13:0.02 14:0 15:0.041 16:0.061 17:0.102 18:0.102 19:0.163 20:0 
-768 1:0.3 2:0.467 3:0.4 4:0.082 5:0.082 6:0.02 7:0.102 8:0.082 9:0 10:0.02 11:0.041 12:0.041 13:0.041 14:0 15:0.061 16:0.061 17:0.02 18:0.122 19:0.224 20:0 
768 1:0.3 2:0.467 3:0.4 4:0.082 5:0.041 6:0.02 7:0.143 8:0 9:0.041 10:0.041 11:0.061 12:0.041 13:0.02 14:0.061 15:0.02 16:0.163 17:0.02 18:0.041 19:0.204 20:0 
-573.7721719631297 1:0.3 2:0.467 3:0.4 4:0.143 5:0 6:0.02 7:0.102 8:0.082 9:0 10:0.041 11:0.02 12:0 13:0.02 14:0.061 15:0.082 16:0.061 17:0.122 18:0.041 19:0.204 20:0 
-768 1:0.3 2:0.467 3:0.4 4:0.082 5:0 6:0.041 7:0.163 8:0.02 9:0.041 10:0.041 11:0.02 12:0 13:0.041 14:0 15:0.122 16:0.184 17:0.061 18:0.061 19:0.122 20:0 
703.954436213686 1:0.3 2:0.467 3:0.4 4:0.02 5:0.082 6:0.02 7:0.163 8:0.082 9:0 10:0.041 11:0.02 12:0.041 13:0.041 14:0.02 15:0.061 16:0.143 17:0.02 18:0.061 19:0.184 20:0 
-209.6309039640529 1:0.3 2:0.467 3:0.4 4:0.082 5:0 6:0.02 7:0.163 8:0.082 9:0 10:0 11:0.061 12:0.02 13:0.02 14:0.061 15:0.061 16:0.102 17:0.122 18:0.082 19:0.122 20:0 
-678.6809842479967 1:0.3 2:0.467 3:0.4 4:0.102 5:0.02 6:0.02 7:0.143 8:0.082 9:0.041 10:0 11:0.02 12:0 13:0.041 14:0.061 15:0.061 16:0.082 17:0.041 18:0.082 19:0.204 20:0 
218.821118456935 1:0.3 2:0.467 3:0.4 4:0.082 5:0.02 6:0.102 7:0.061 8:0.082 9:0.02 10:0.02 11:0.02 12:0.061 13:0 14:0.041 15:0.061 16:0.061 17:0.082 18:0 19:0.286 20:0 
768 1:0.3 2:0.467 3:0.4 4:0.122 5:0.041 6:0.102 7:0.02 8:0 9:0.041 10:0.041 11:0.041 12:0.061 13:0 14:0 15:0.102 16:0.102 17:0.061 18:0.02 19:0.245 20:0 
-616.8827797169483 1:0.3 2:0.467 3:0.4 4:0.02 5:0.082 6:0.041 7:0.143 8:0 9:0 10:0 11:0.143 12:0.082 13:0.02 14:0 15:0.061 16:0.184 17:0.041 18:0.102 19:0.082 20:0 
-750.51325170103 1:0.3 2:0.533 3:0.4 4:0.102 5:0.02 6:0.061 7:0.102 8:0.061 9:0 10:0.041 11:0.061 12:0.02 13:0.041 14:0 15:0.061 16:0.102 17:0.082 18:0.041 19:0.204 20:0 
768 1:0.3 2:0.533 3:0.4 4:0.041 5:0.061 6:0.02 7:0.163 8:0.082 9:0.02 10:0.02 11:0.041 12:0.041 13:0 14:0 15:0.102 16:0.122 17:0.082 18:0.102 19:0.102 20:0 
-768 1:0.3 2:0.533 3:0.4 4:0.122 5:0.041 6:0 7:0.122 8:0 9:0.061 10:0 11:0.102 12:0.082 13:0 14:0 15:0.041 16:0.082 17:0.041 18:0.143 19:0.163 20:0 
768 1:0.3 2:0.533 3:0.4 4:0.02 5:0.041 6:0.082 7:0.143 8:0.102 9:0 10:0.02 11:0.041 12:0.082 13:0 14:0.02 15:0.041 16:0.082 17:0.102 18:0.02 19:0.204 20:0 
768 1:0.3 2:0.533 3:0.4 4:0.041 5:0 6:0.041 7:0.184 8:0 9:0.061 10:0 11:0.102 12:0.061 13:0.02 14:0 15:0.061 16:0.184 17:0.082 18:0.102 19:0.061 20:0 
768 1:0.3 2:0.533 3:0.4 4:0.102 5:0 6:0.02 7:0.143 8:0.041 9:0.02 10:0.02 11:0.082 12:0.082 13:0 14:0.02 15:0.041 16:0.041 17:0.143 18:0.082 19:0.163 20:0 
-768 1:0.3 2:0.533 3:0.4 4:0.163 5:0.041 6:0.02 7:0.061 8:0.02 9:0.02 10:0 11:0.122 12:0.061 13:0 14:0.02 15:0.061 16:0.041 17:0.102 18:0.102 19:0.163 20:0 
768 1:0.3 2:0.533 3:0.4 4:0.061 5:0.102 6:0 7:0.122 8:0.102 9:0 10:0.02 11:0.041 12:0.082 13:0.02 14:0.02 15:0 16:0.041 17:0.02 18:0.102 19:0.265 20:0 
768 1:0.3 2:0.533 3:0.4 4:0 5:0.02 6:0.041 7:0.224 8:0.041 9:0.02 10:0.041 11:0.061 12:0 13:0.02 14:0.02 15:0.082 16:0.224 17:0.102 18:0.041 19:0.061 20:0 
-768 1:0.3 2:0.533 3:0.4 4:0.184 5:0 6:0 7:0.102 8:0.02 9:0 10:0.02 11:0.122 12:0.02 13:0 14:0 15:0.102 16:0.041 17:0.163 18:0.122 19:0.102 20:0 
144.5836745623849 1:0.3 2:0.533 3:0.4 4:0.082 5:0.102 6:0.041 7:0.061 8:0 9:0.041 10:0.02 11:0.102 12:0.082 13:0.02 14:0.041 15:0 16:0.102 17:0 18:0.041 19:0.265 20:0 
-768 1:0.3 2:0.533 3:0.4 4:0 5:0 6:0 7:0.286 8:0.02 9:0.041 10:0.041 11:0.041 12:0.061 13:0.041 14:0.02 15:0.02 16:0.204 17:0.061 18:0.082 19:0.082 20:0 
768 1:0.3 2:0.533 3:0.4 4:0.082 5:0.041 6:0 7:0.163 8:0 9:0.02 10:0.02 11:0.122 12:0 13:0.02 14:0 15:0.122 16:0.204 17:0.061 18:0.122 19:0.02 20:0 
-768 1:0.3 2:0.533 3:0.4 4:0.082 5:0.102 6:0 7:0.102 8:0.061 9:0.041 10:0 11:0.061 12:0.02 13:0 14:0 15:0.102 16:0.122 17:0 18:0.143 19:0.163 20:0 
-492.0004263525794 1:0.3 2:0.533 3:0.4 4:0.163 5:0.061 6:0.041 7:0.02 8:0.041 9:0.041 10:0 11:0.082 12:0.02 13:0.041 14:0.041 15:0.02 16:0.061 17:0.02 18:0.061 19:0.286 20:0 
-768 1:0.3 2:0.533 3:0.4 4:0.184 5:0.041 6:0 7:0.061 8:0.061 9:0.041 10:0.02 11:0.041 12:0.02 13:0.02 14:0 15:0.102 16:0.02 17:0.041 18:0.122 19:0.224 20:0 
-427.0297633174018 1:0.3 2:0.6 3:0.4 4:0.061 5:0.041 6:0.041 7:0.143 8:0.02 9:0.02 10:0 11:0.143 12:0.02 13:0 14:0.02 15:0.082 16:0.184 17:0.122 18:0.061 19:0.041 20:0 
768 1:0.3 2:0.6 3:0.4 4:0.041 5:0.102 6:0.041 7:0.082 8:0.02 9:0.02 10:0.041 11:0.102 12:0.041 13:0.02 14:0.02 15:0.041 16:0.184 17:0.041 18:0 19:0.204 20:0 
-768 1:0.3 2:0.6 3:0.4 4:0.041 5:0 6:0 7:0.224 8:0.082 9:0.041 10:0 11:0.061 12:0.061 13:0 14:0 15:0.061 16:0.082 17:0.143 18:0.122 19:0.082 20:0 
-499.4625043565717 1:0.3 2:0.6 3:0.4 4:0.102 5:0 6:0.041 7:0.122 8:0.122 9:0 10:0 11:0.061 12:0.02 13:0.041 14:0.02 15:0.041 16:0.041 17:0.143 18:0.061 19:0.184 20:0 
73.29135561203037 1:0.3 2:0.6 3:0.4 4:0.122 5:0 6:0.041 7:0.122 8:0 9:0.041 10:0.041 11:0.082 12:0 13:0.041 14:0 15:0.082 16:0.163 17:0.102 18:0.02 19:0.143 20:0 
-768 1:0.3 2:0.6 3:0.4 4:0.102 5:0.041 6:0 7:0.143 8:0.061 9:0.041 10:0 11:0.082 12:0.082 13:0 14:0.02 15:0 16:0.041 17:0.082 18:0.102 19:0.204 20:0 
768 1:0.3 2:0.6 3:0.4 4:0.082 5:0.102 6:0.061 7:0.041 8:0.102 9:0.061 10:0 11:0.02 12:0.041 13:0 14:0 15:0.082 16:0.061 17:0.02 18:0.061 19:0.265 20:0 
-427.5756451263733 1:0.3 2:0.6 3:0.4 4:0.061 5:0 6:0.02 7:0.204 8:0.061 9:0.02 10:0.02 11:0.082 12:0 13:0.041 14:0.02 15:0.061 16:0.143 17:0.122 18:0.061 19:0.082 20:0 
-768 1:0.3 2:0.6 3:0.4 4:0.061 5:0.041 6:0.082 7:0.082 8:0 9:0.02 10:0.02 11:0.143 12:0.02 13:0 14:0.02 15:0.082 16:0.204 17:0.102 18:0 19:0.122 20:0 
-768 1:0.3 2:0.667 3:0.4 4:0.061 5:0.082 6:0 7:0.143 8:0.122 9:0.041 10:0 11:0.041 12:0 13:0.041 14:0.02 15:0.041 16:0.102 17:0.041 18:0.082 19:0.184 20:0 
768 1:0.3 2:0.667 3:0.4 4:0.122 5:0.041 6:0 7:0.122 8:0 9:0 10:0.02 11:0.184 12:0.061 13:0 14:0 15:0.041 16:0.102 17:0.163 18:0.082 19:0.061 20:0 
768 1:0.3 2:0.667 3:0.4 4:0.122 5:0.02 6:0.041 7:0.082 8:0.082 9:0.041 10:0.041 11:0.041 12:0.061 13:0.02 14:0.02 15:0 16:0.02 17:0.122 18:0 19:0.286 20:0 
768 1:0.3 2:0.667 3:0.4 4:0.041 5:0.082 6:0.061 7:0.102 8:0.102 9:0 10:0.02 11:0.082 12:0 13:0 14:0.02 15:0.082 16:0.143 17:0.122 18:0 19:0.143 20:0 
-198.2231784585633 1:0.3 2:0.667 3:0.4 4:0.102 5:0.061 6:0 7:0.122 8:0.143 9:0.02 10:0.02 11:0.02 12:0.02 13:0 14:0 15:0.082 16:0.02 17:0.102 18:0.082 19:0.204 20:0 
768 1:0.3 2:0.667 3:0.4 4:0.02 5:0.041 6:0 7:0.204 8:0 9:0.102 10:0.02 11:0.082 12:0.041 13:0.041 14:0.02 15:0 16:0.204 17:0.02 18:0.061 19:0.143 20:0 
496.8687981448466 1:0.3 2:0.667 3:0.4 4:0.102 5:0.122 6:0.041 7:0.02 8:0.041 9:0.02 10:0.02 11:0.102 12:0 13:0 14:0 15:0.102 16:0.122 17:0.061 18:0.041 19:0.204 20:0 
-768 1:0.3 2:0.667 3:0.4 4:0.02 5:0.082 6:0.061 7:0.122 8:0.02 9:0.041 10:0 11:0.122 12:0 13:0 14:0 15:0.102 16:0.245 17:0.061 18:0.041 19:0.082 20:0 
-433.326834629728 1:0.3 2:0.667 3:0.4 4:0.061 5:0.041 6:0.041 7:0.143 8:0.122 9:0.02 10:0 11:0.061 12:0.061 13:0.041 14:0 15:0 16:0.02 17:0.102 18:0.061 19:0.224 20:0 
-161.8496946743194 1:0.3 2:0.667 3:0.4 4:0 5:0.143 6:0.061 7:0.082 8:0.122 9:0.02 10:0 11:0.061 12:0.041 13:0 14:0.02 15:0.041 16:0.122 17:0.041 18:0.02 19:0.224 20:0 
-285.8219342037479 1:0.3 2:0.667 3:0.4 4:0.184 5:0.041 6:0.02 7:0.041 8:0 9:0.061 10:0.041 11:0.082 12:0.061 13:0.02 14:0.02 15:0 16:0.02 17:0.082 18:0.02 19:0.306 20:0 
768 1:0.3 2:0.667 3:0.4 4:0.143 5:0.061 6:0 7:0.082 8:0.082 9:0.02 10:0 11:0.102 12:0 13:0 14:0 15:0.102 16:0.061 17:0.102 18:0.102 19:0.143 20:0 
768 1:0.3 2:0.667 3:0.4 4:0.122 5:0.082 6:0.041 7:0.041 8:0.041 9:0 10:0.041 11:0.122 12:0.061 13:0 14:0.02 15:0 16:0.041 17:0.122 18:0 19:0.265 20:0 
204.2405955215483 1:0.3 2:0.667 3:0.4 4:0.122 5:0.102 6:0 7:0.061 8:0.02 9:0.02 10:0 11:0.163 12:0.061 13:0 14:0 15:0.041 16:0.082 17:0.082 18:0.102 19:0.143 20:0 
306.8203130267011 1:0.3 2:0.667 3:0.4 4:0.143 5:0.082 6:0.041 7:0.02 8:0.122 9:0 10:0.02 11:0.061 12:0 13:0.02 14:0.02 15:0.041 16:0.02 17:0.102 18:0.02 19:0.286 20:0 
-665.9567845551185 1:0.3 2:0.667 3:0.4 4:0.041 5:0.102 6:0.02 7:0.122 8:0.082 9:0.061 10:0.041 11:0.02 12:0 13:0.02 14:0.02 15:0.061 16:0.163 17:0 18:0.02 19:0.224 20:0 
-317.9325552639256 1:0.3 2:0.667 3:0.4 4:0 5:0.041 6:0.041 7:0.204 8:0.02 9:0.102 10:0.02 11:0.041 12:0 13:0.041 14:0 15:0.061 16:0.265 17:0.02 18:0.041 19:0.102 20:0 
-442.6329746353307 1:0.3 2:0.667 3:0.4 4:0.041 5:0.143 6:0 7:0.082 8:0.02 9:0.02 10:0.041 11:0.122 12:0.041 13:0.041 14:0.02 15:0 16:0.163 17:0 18:0.041 19:0.224 20:0 
524.7553473784465 1:0.3 2:0.733 3:0.4 4:0.102 5:0.082 6:0 7:0.102 8:0.02 9:0.082 10:0 11:0.102 12:0.02 13:0 14:0 15:0.061 16:0.143 17:0.041 18:0.082 19:0.163 20:0 
270.8533414956088 1:0.3 2:0.733 3:0.4 4:0.102 5:0 6:0.041 7:0.122 8:0.041 9:0 10:0 11:0.184 12:0.02 13:0 14:0 15:0.061 16:0.122 17:0.204 18:0.041 19:0.061 20:0 
-428.8264698144805 1:0.3 2:0.733 3:0.4 4:0 5:0.041 6:0.02 7:0.224 8:0 9:0.082 10:0.02 11:0.102 12:0.041 13:0 14:0 15:0.041 16:0.245 17:0.102 18:0.041 19:0.041 20:0 
-117.3959499600806 1:0.3 2:0.733 3:0.4 4:0.143 5:0.082 6:0.041 7:0.02 8:0.041 9:0.122 10:0 11:0.041 12:0 13:0.02 14:0 15:0.061 16:0.102 17:0 18:0.041 19:0.286 20:0 
736.287828375509 1:0.3 2:0.733 3:0.4 4:0.143 5:0.082 6:0.041 7:0.02 8:0.061 9:0.061 10:0.041 11:0.061 12:0.041 13:0.041 14:0 15:0 16:0.02 17:0.041 18:0 19:0.347 20:0 
603.2361458690756 1:0.3 2:0.733 3:0.4 4:0.061 5:0.082 6:0.02 7:0.122 8:0 9:0.102 10:0.02 11:0.082 12:0 13:0.041 14:0 15:0.041 16:0.224 17:0 18:0.02 19:0.184 20:0 
-768 1:0.3 2:0.733 3:0.4 4:0.102 5:0.082 6:0 7:0.102 8:0.143 9:0 10:0 11:0.082 12:0.041 13:0.041 14:0 15:0 16:0 17:0.102 18:0.061 19:0.245 20:0 
768 1:0.3 2:0.8 3:0.4 4:0.061 5:0.102 6:0 7:0.122 8:0.163 9:0.02 10:0 11:0.061 12:0 13:0.02 14:0 15:0.041 16:0.061 17:0.082 18:0.061 19:0.204 20:0 
-768 1:0.3 2:0.8 3:0.4 4:0.02 5:0.061 6:0 7:0.204 8:0.163 9:0.02 10:0 11:0.061 12:0.041 13:0 14:0 15:0.02 16:0.061 17:0.143 18:0.061 19:0.143 20:0 
-114.5181281467829 1:0.3 2:0.8 3:0.4 4:0.061 5:0.082 6:0 7:0.122 8:0.102 9:0.122 10:0 11:0.02 12:0.02 13:0 14:0 15:0.041 16:0.102 17:0.02 18:0.061 19:0.245 20:0 
768 1:0.3 2:0.8 3:0.4 4:0.02 5:0.163 6:0 7:0.102 8:0.041 9:0.02 10:0.02 11:0.163 12:0 13:0 14:0 15:0.061 16:0.204 17:0.061 18:0.041 19:0.102 20:0 
51.82424065486451 1:0.3 2:0.8 3:0.4 4:0 5:0.02 6:0 7:0.265 8:0.041 9:0.102 10:0.02 11:0.082 12:0.02 13:0.02 14:0 15:0.02 16:0.224 17:0.082 18:0.041 19:0.061 20:0 
-166.758373678589 1:0.3 2:0.8 3:0.4 4:0.102 5:0.082 6:0.041 7:0.061 8:0.02 9:0 10:0.02 11:0.184 12:0.041 13:0 14:0 15:0.02 16:0.102 17:0.163 18:0 19:0.163 20:0 
-768 1:0.3 2:0.8 3:0.4 4:0 5:0.122 6:0.041 7:0.122 8:0.143 9:0.02 10:0.02 11:0.061 12:0.02 13:0.02 14:0 15:0 16:0.122 17:0.082 18:0 19:0.224 20:0 
152.8289673653778 1:0.3 2:0.8 3:0.4 4:0 5:0 6:0.02 7:0.265 8:0.163 9:0.061 10:0 11:0.02 12:0.02 13:0.02 14:0 15:0.02 16:0.102 17:0.163 18:0.041 19:0.102 20:0 
768 1:0.3 2:0.2 3:0.457 4:0.082 5:0.02 6:0.184 7:0.041 8:0.041 9:0 10:0.02 11:0 12:0.082 13:0 14:0.02 15:0.122 16:0.102 17:0.041 18:0.02 19:0.224 20:0 
768 1:0.3 2:0.2 3:0.457 4:0.041 5:0.041 6:0.102 7:0.122 8:0.041 9:0 10:0.02 11:0 12:0.163 13:0.02 14:0.061 15:0 16:0.082 17:0 18:0.041 19:0.265 20:0 
-172.8748337944339 1:0.3 2:0.2 3:0.457 4:0.184 5:0.041 6:0.02 7:0.061 8:0.041 9:0 10:0.02 11:0 12:0.02 13:0.02 14:0.02 15:0.184 16:0.082 17:0 18:0.184 19:0.122 20:0 
-516.0402811664923 1:0.3 2:0.2 3:0.457 4:0.122 5:0 6:0.102 7:0.102 8:0.041 9:0 10:0.02 11:0 12:0 13:0 14:0.122 15:0.102 16:0.163 17:0.041 18:0 19:0.184 20:0 
383.2690638308494 1:0.3 2:0.267 3:0.457 4:0.082 5:0.061 6:0.02 7:0.143 8:0 9:0 10:0.02 11:0.061 12:0.061 13:0.02 14:0.102 15:0.041 16:0.184 17:0 18:0.082 19:0.122 20:0 
768 1:0.3 2:0.267 3:0.457 4:0.122 5:0.02 6:0.02 7:0.163 8:0 9:0 10:0.02 11:0.061 12:0.102 13:0 14:0 15:0.122 16:0.102 17:0.061 18:0.184 19:0.02 20:0 
496.9748679664936 1:0.3 2:0.267 3:0.457 4:0 5:0.061 6:0.061 7:0.204 8:0.02 9:0 10:0.02 11:0.041 12:0.041 13:0.02 14:0.102 15:0.061 16:0.245 17:0 18:0.041 19:0.082 20:0 
207.0871388727782 1:0.3 2:0.267 3:0.457 4:0.061 5:0.061 6:0.082 7:0.102 8:0.02 9:0 10:0.02 11:0.041 12:0 13:0 14:0.122 15:0.102 16:0.245 17:0.02 18:0 19:0.122 20:0 
-418.3533180301614 1:0.3 2:0.333 3:0.457 4:0.041 5:0.082 6:0.102 7:0.082 8:0.061 9:0 10:0.041 11:0 12:0.143 13:0 14:0.02 15:0.041 16:0.082 17:0.02 18:0.041 19:0.245 20:0 
126.7838274217322 1:0.3 2:0.333 3:0.457 4:0.102 5:0.061 6:0.061 7:0.082 8:0.02 9:0 10:0 11:0.082 12:0 13:0 14:0.061 15:0.143 16:0.184 17:0.041 18:0.082 19:0.082 20:0 
-258.187109560138 1:0.3 2:0.333 3:0.457 4:0.041 5:0.041 6:0 7:0.245 8:0.061 9:0.02 10:0 11:0.02 12:0.102 13:0 14:0.082 15:0.02 16:0.122 17:0.041 18:0.102 19:0.102 20:0 
-768 1:0.3 2:0.333 3:0.457 4:0.02 5:0 6:0.082 7:0.224 8:0.02 9:0.02 10:0.02 11:0.041 12:0.143 13:0 14:0.041 15:0 16:0.143 17:0.082 18:0.041 19:0.122 20:0 
-768 1:0.3 2:0.333 3:0.457 4:0.02 5:0.02 6:0.122 7:0.163 8:0 9:0.02 10:0.02 11:0.041 12:0.122 13:0 14:0 15:0.082 16:0.184 17:0.061 18:0.061 19:0.082 20:0 
279.1110043147812 1:0.3 2:0.333 3:0.457 4:0.02 5:0 6:0.143 7:0.143 8:0.082 9:0.02 10:0 11:0 12:0.102 13:0 14:0 15:0.102 16:0.122 17:0.082 18:0.061 19:0.122 20:0 
476.9178196699606 1:0.3 2:0.333 3:0.457 4:0.122 5:0.061 6:0.102 7:0.02 8:0.061 9:0 10:0.02 11:0.02 12:0.041 13:0.02 14:0.061 15:0.082 16:0.102 17:0.02 18:0 19:0.265 20:0 
768 1:0.3 2:0.333 3:0.457 4:0.122 5:0.082 6:0.041 7:0.082 8:0 9:0 10:0.02 11:0.082 12:0.082 13:0.02 14:0 15:0.102 16:0.122 17:0 18:0.143 19:0.102 20:0 
80.65026600685266 1:0.3 2:0.333 3:0.457 4:0.082 5:0.041 6:0.02 7:0.163 8:0 9:0.02 10:0.02 11:0.061 12:0 13:0 14:0.102 15:0.102 16:0.245 17:0.041 18:0.061 19:0.041 20:0 
-737.0274764039161 1:0.3 2:0.4 3:0.457 4:0.041 5:0.082 6:0.061 7:0.143 8:0.041 9:0 10:0.041 11:0.041 12:0.061 13:0.02 14:0 15:0.102 16:0.184 17:0.02 18:0.061 19:0.102 20:0 
-481.2162637703074 1:0.3 2:0.4 3:0.457 4:0.102 5:0.061 6:0.061 7:0.102 8:0 9:0.02 10:0 11:0.102 12:0.02 13:0.041 14:0.041 15:0.082 16:0.204 17:0 18:0.061 19:0.102 20:0 
768 1:0.3 2:0.4 3:0.457 4:0.122 5:0 6:0.041 7:0.163 8:0.041 9:0.02 10:0.02 11:0.02 12:0.041 13:0.02 14:0.082 15:0.041 16:0.122 17:0.061 18:0.041 19:0.163 20:0 
-148.9991477625991 1:0.3 2:0.4 3:0.457 4:0.102 5:0 6:0.122 7:0.102 8:0 9:0.02 10:0 11:0.082 12:0.102 13:0 14:0.041 15:0.041 16:0.122 17:0.102 18:0.02 19:0.143 20:0 
539.1234654890131 1:0.3 2:0.4 3:0.457 4:0.102 5:0.061 6:0 7:0.143 8:0.082 9:0 10:0.041 11:0 12:0 13:0.041 14:0.041 15:0.102 16:0.122 17:0.02 18:0.102 19:0.143 20:0 
-768 1:0.3 2:0.4 3:0.457 4:0.061 5:0.02 6:0.102 7:0.122 8:0.061 9:0 10:0 11:0.061 12:0.143 13:0 14:0.041 15:0 16:0.061 17:0.102 18:0.041 19:0.184 20:0 
-118.3522662796727 1:0.3 2:0.467 3:0.457 4:0.122 5:0.02 6:0.122 7:0.041 8:0.041 9:0 10:0 11:0.102 12:0 13:0.041 14:0 15:0.122 16:0.163 17:0.082 18:0.041 19:0.102 20:0 
768 1:0.3 2:0.467 3:0.457 4:0.02 5:0.041 6:0.041 7:0.224 8:0.082 9:0.02 10:0.02 11:0.02 12:0.102 13:0.02 14:0 15:0.041 16:0.102 17:0.061 18:0.102 19:0.102 20:0 
737.6757013225433 1:0.3 2:0.467 3:0.457 4:0.041 5:0 6:0.041 7:0.224 8:0.02 9:0 10:0.02 11:0.102 12:0.061 13:0.041 14:0.041 15:0.02 16:0.184 17:0.102 18:0.061 19:0.041 20:0 
768 1:0.3 2:0.467 3:0.457 4:0.102 5:0.02 6:0.061 7:0.122 8:0.041 9:0.02 10:0.02 11:0.061 12:0.082 13:0 14:0.061 15:0.02 16:0.102 17:0.102 18:0 19:0.184 20:0 
-768 1:0.3 2:0.467 3:0.457 4:0.041 5:0 6:0.02 7:0.265 8:0.061 9:0.041 10:0.041 11:0 12:0.041 13:0.041 14:0.061 15:0.02 16:0.184 17:0.061 18:0.02 19:0.102 20:0 
-479.5822212753053 1:0.3 2:0.467 3:0.457 4:0.02 5:0.041 6:0.082 7:0.184 8:0.082 9:0.041 10:0.02 11:0 12:0.02 13:0 14:0.061 15:0.061 16:0.184 17:0.061 18:0 19:0.143 20:0 
-415.7051217225318 1:0.3 2:0.467 3:0.457 4:0.184 5:0 6:0 7:0.143 8:0.02 9:0.041 10:0.041 11:0.041 12:0.041 13:0.02 14:0.02 15:0.082 16:0.082 17:0.082 18:0.102 19:0.102 20:0 
-768 1:0.3 2:0.467 3:0.457 4:0.143 5:0.082 6:0.061 7:0.02 8:0.02 9:0 10:0 11:0.122 12:0.082 13:0 14:0 15:0.082 16:0.082 17:0.061 18:0.102 19:0.143 20:0 
-768 1:0.3 2:0.467 3:0.457 4:0.163 5:0 6:0.061 7:0.102 8:0.102 9:0.041 10:0 11:0 12:0 13:0.041 14:0.041 15:0.061 16:0.061 17:0.061 18:0.061 19:0.204 20:0 
-768 1:0.3 2:0.467 3:0.457 4:0.143 5:0.041 6:0 7:0.143 8:0 9:0.041 10:0 11:0.102 12:0.041 13:0.041 14:0.02 15:0.041 16:0.143 17:0 18:0.143 19:0.102 20:0 
768 1:0.3 2:0.467 3:0.457 4:0.163 5:0.061 6:0 7:0.102 8:0.061 9:0.041 10:0.02 11:0 12:0.041 13:0.02 14:0 15:0.102 16:0.041 17:0.02 18:0.143 19:0.184 20:0 
-768 1:0.3 2:0.467 3:0.457 4:0.082 5:0.082 6:0.061 7:0.102 8:0.082 9:0 10:0.041 11:0.02 12:0.02 13:0.041 14:0.061 15:0.02 16:0.143 17:0.02 18:0 19:0.224 20:0 
-768 1:0.3 2:0.467 3:0.457 4:0.102 5:0.041 6:0.02 7:0.143 8:0.02 9:0 10:0 11:0.122 12:0.041 13:0 14:0.02 15:0.102 16:0.163 17:0.082 18:0.122 19:0.02 20:0 
-768 1:0.3 2:0.467 3:0.457 4:0.204 5:0.041 6:0.041 7:0.041 8:0 9:0.041 10:0.041 11:0.041 12:0.082 13:0 14:0 15:0.082 16:0.041 17:0.061 18:0.082 19:0.204 20:0 
-657.6610129783223 1:0.3 2:0.533 3:0.457 4:0.143 5:0.061 6:0.041 7:0.082 8:0 9:0.02 10:0.02 11:0.122 12:0.061 13:0.041 14:0.02 15:0.02 16:0.102 17:0.041 18:0.061 19:0.163 20:0 
-768 1:0.3 2:0.533 3:0.457 4:0.143 5:0.02 6:0.02 7:0.143 8:0.02 9:0.061 10:0.041 11:0.02 12:0.082 13:0.041 14:0 15:0.02 16:0.061 17:0.041 18:0.082 19:0.204 20:0 
-768 1:0.3 2:0.533 3:0.457 4:0.02 5:0.041 6:0.082 7:0.184 8:0.082 9:0 10:0.041 11:0.041 12:0.02 13:0 14:0.02 15:0.082 16:0.204 17:0.122 18:0 19:0.061 20:0 
-768 1:0.3 2:0.533 3:0.457 4:0.082 5:0.041 6:0.102 7:0.082 8:0.122 9:0.02 10:0.02 11:0 12:0.041 13:0.02 14:0.02 15:0.061 16:0.061 17:0.082 18:0 19:0.245 20:0 
768 1:0.3 2:0.533 3:0.457 4:0.02 5:0.122 6:0.102 7:0.061 8:0.041 9:0.02 10:0.02 11:0.082 12:0.041 13:0 14:0 15:0.102 16:0.204 17:0.02 18:0.02 19:0.143 20:0 
-768 1:0.3 2:0.533 3:0.457 4:0.122 5:0.041 6:0 7:0.163 8:0.02 9:0.02 10:0.041 11:0.061 12:0 13:0.02 14:0 15:0.122 16:0.184 17:0.082 18:0.102 19:0.02 20:0 
-453.7831099531878 1:0.3 2:0.533 3:0.457 4:0.061 5:0.122 6:0.041 7:0.102 8:0.041 9:0.02 10:0 11:0.102 12:0.102 13:0 14:0.02 15:0.02 16:0.122 17:0.02 18:0.082 19:0.143 20:0 
524.5540776285073 1:0.3 2:0.533 3:0.457 4:0.143 5:0.061 6:0.082 7:0.041 8:0.082 9:0.061 10:0 11:0.02 12:0.02 13:0.041 14:0 15:0.061 16:0.082 17:0 18:0.041 19:0.265 20:0 
768 1:0.3 2:0.533 3:0.457 4:0.143 5:0.061 6:0 7:0.122 8:0.02 9:0 10:0 11:0.143 12:0.102 13:0 14:0.02 15:0.02 16:0.061 17:0.102 18:0.122 19:0.082 20:0 
768 1:0.3 2:0.533 3:0.457 4:0.163 5:0.122 6:0.02 7:0 8:0 9:0.02 10:0.02 11:0.122 12:0.061 13:0 14:0 15:0.082 16:0.102 17:0.02 18:0.102 19:0.163 20:0 
-768 1:0.3 2:0.533 3:0.457 4:0.02 5:0.041 6:0.061 7:0.204 8:0 9:0.041 10:0 11:0.122 12:0.102 13:0 14:0.041 15:0 16:0.184 17:0.082 18:0.041 19:0.061 20:0 
171.5493514415285 1:0.3 2:0.533 3:0.457 4:0.02 5:0.02 6:0.102 7:0.184 8:0 9:0.061 10:0.041 11:0.061 12:0.02 13:0.041 14:0 15:0.082 16:0.286 17:0.041 18:0 19:0.041 20:0 
768 1:0.3 2:0.533 3:0.457 4:0.02 5:0.02 6:0.02 7:0.265 8:0.061 9:0.061 10:0 11:0.041 12:0.02 13:0.041 14:0.041 15:0.02 16:0.204 17:0.041 18:0.082 19:0.061 20:0 
223.4912455386492 1:0.3 2:0.6 3:0.457 4:0.02 5:0.082 6:0.041 7:0.184 8:0.061 9:0.041 10:0.02 11:0.041 12:0.041 13:0 14:0 15:0.082 16:0.204 17:0.061 18:0.061 19:0.061 20:0 
-224.972295110529 1:0.3 2:0.6 3:0.457 4:0.102 5:0.02 6:0.02 7:0.184 8:0.061 9:0.02 10:0 11:0.102 12:0.041 13:0.041 14:0.02 15:0.02 16:0.122 17:0.102 18:0.082 19:0.061 20:0 
768 1:0.3 2:0.6 3:0.457 4:0.204 5:0.082 6:0.02 7:0.02 8:0.041 9:0 10:0.02 11:0.102 12:0 13:0.02 14:0.02 15:0.082 16:0.061 17:0.082 18:0.061 19:0.184 20:0 
-135.9783054668715 1:0.3 2:0.6 3:0.457 4:0.02 5:0.02 6:0.02 7:0.265 8:0.082 9:0 10:0.02 11:0.082 12:0.041 13:0.041 14:0 15:0.02 16:0.163 17:0.122 18:0.082 19:0.02 20:0 
-218.7917529769385 1:0.3 2:0.6 3:0.457 4:0.163 5:0.041 6:0.082 7:0.041 8:0 9:0.041 10:0 11:0.143 12:0.082 13:0 14:0.02 15:0.02 16:0.061 17:0.102 18:0.02 19:0.184 20:0 
768 1:0.3 2:0.6 3:0.457 4:0.041 5:0.102 6:0.041 7:0.122 8:0 9:0.061 10:0.041 11:0.082 12:0.02 13:0.02 14:0 15:0.082 16:0.265 17:0 18:0.041 19:0.082 20:0 
-768 1:0.3 2:0.6 3:0.457 4:0.204 5:0.061 6:0.02 7:0.02 8:0.041 9:0.041 10:0.041 11:0.061 12:0.02 13:0.041 14:0.02 15:0.041 16:0.061 17:0.041 18:0.02 19:0.265 20:0 
768 1:0.3 2:0.6 3:0.457 4:0.102 5:0.061 6:0.02 7:0.143 8:0.082 9:0.082 10:0 11:0.02 12:0.061 13:0.02 14:0.02 15:0 16:0.082 17:0 18:0.082 19:0.224 20:0 
49.10437550103492 1:0.3 2:0.6 3:0.457 4:0.163 5:0.02 6:0.082 7:0.041 8:0.082 9:0.082 10:0 11:0.02 12:0.041 13:0 14:0.02 15:0.061 16:0.041 17:0.082 18:0 19:0.265 20:0 
-719.0624189975149 1:0.3 2:0.6 3:0.457 4:0.143 5:0 6:0 7:0.184 8:0.02 9:0.082 10:0.02 11:0.061 12:0.02 13:0 14:0 15:0.082 16:0.122 17:0.102 18:0.102 19:0.061 20:0 
-571.5249155842203 1:0.3 2:0.6 3:0.457 4:0.061 5:0.122 6:0.082 7:0.041 8:0.082 9:0.02 10:0.041 11:0.041 12:0.082 13:0 14:0 15:0.041 16:0.102 17:0.041 18:0 19:0.245 20:0 
-500.7982470617794 1:0.3 2:0.6 3:0.457 4:0 5:0.061 6:0.082 7:0.163 8:0.102 9:0.041 10:0.02 11:0.02 12:0.082 13:0 14:0.02 15:0.02 16:0.143 17:0.061 18:0 19:0.184 20:0 
-506.4024212308383 1:0.3 2:0.667 3:0.457 4:0.082 5:0.061 6:0.02 7:0.163 8:0.061 9:0 10:0.041 11:0.082 12:0 13:0.041 14:0 15:0.061 16:0.184 17:0.102 18:0.02 19:0.082 20:0 
768 1:0.3 2:0.667 3:0.457 4:0.122 5:0.122 6:0 7:0.082 8:0.102 9:0.02 10:0.02 11:0.061 12:0.02 13:0 14:0.02 15:0.041 16:0.082 17:0.061 18:0.041 19:0.204 20:0 
-768 1:0.3 2:0.667 3:0.457 4:0.061 5:0.122 6:0 7:0.143 8:0.102 9:0 10:0.02 11:0.082 12:0.041 13:0 14:0 15:0.061 16:0.122 17:0.082 18:0.082 19:0.082 20:0 
-768 1:0.3 2:0.667 3:0.457 4:0.102 5:0.082 6:0.02 7:0.122 8:0.143 9:0 10:0 11:0.061 12:0.041 13:0 14:0 15:0.061 16:0.041 17:0.122 18:0.082 19:0.122 20:0 
-334.8352809725978 1:0.3 2:0.667 3:0.457 4:0.061 5:0.02 6:0 7:0.245 8:0.082 9:0.082 10:0.041 11:0 12:0.041 13:0 14:0.02 15:0.02 16:0.143 17:0.102 18:0.041 19:0.102 20:0 
-768 1:0.3 2:0.667 3:0.457 4:0.204 5:0.082 6:0.02 7:0.02 8:0.061 9:0.041 10:0.02 11:0.082 12:0.041 13:0.02 14:0.02 15:0.02 16:0.02 17:0.061 18:0.041 19:0.245 20:0 
94.35475344851345 1:0.3 2:0.667 3:0.457 4:0.082 5:0.041 6:0.02 7:0.184 8:0.02 9:0 10:0.02 11:0.163 12:0.02 13:0.041 14:0.02 15:0.02 16:0.204 17:0.102 18:0.041 19:0.02 20:0 
-105.5824100997415 1:0.3 2:0.667 3:0.457 4:0.041 5:0.061 6:0.02 7:0.204 8:0.02 9:0.082 10:0 11:0.082 12:0 13:0.02 14:0.02 15:0.061 16:0.245 17:0.041 18:0.061 19:0.041 20:0 
-414.4452456994867 1:0.3 2:0.667 3:0.457 4:0.143 5:0.102 6:0 7:0.082 8:0.02 9:0 10:0 11:0.184 12:0 13:0.041 14:0 15:0.061 16:0.163 17:0.061 18:0.082 19:0.061 20:0 
768 1:0.3 2:0.667 3:0.457 4:0.102 5:0 6:0.082 7:0.143 8:0.061 9:0.041 10:0 11:0.102 12:0 13:0 14:0.02 15:0.082 16:0.163 17:0.143 18:0 19:0.061 20:0 
-768 1:0.3 2:0.667 3:0.457 4:0.122 5:0.041 6:0 7:0.163 8:0.102 9:0.041 10:0 11:0.041 12:0.082 13:0 14:0.02 15:0 16:0 17:0.122 18:0.082 19:0.184 20:0 
-420.6834407410039 1:0.3 2:0.667 3:0.457 4:0.204 5:0.041 6:0 7:0.082 8:0.041 9:0 10:0 11:0.163 12:0.02 13:0 14:0 15:0.082 16:0.061 17:0.163 18:0.082 19:0.061 20:0 
-768 1:0.3 2:0.667 3:0.457 4:0.184 5:0 6:0.061 7:0.082 8:0 9:0.041 10:0.041 11:0.102 12:0.061 13:0.02 14:0 15:0.02 16:0.082 17:0.143 18:0 19:0.163 20:0 
-428.2986799705253 1:0.3 2:0.667 3:0.457 4:0.02 5:0.163 6:0.02 7:0.102 8:0.122 9:0 10:0.041 11:0.041 12:0.02 13:0 14:0 15:0.082 16:0.163 17:0.041 18:0.041 19:0.143 20:0 
768 1:0.3 2:0.733 3:0.457 4:0.041 5:0.102 6:0.02 7:0.143 8:0.163 9:0.041 10:0.02 11:0 12:0 13:0.041 14:0 15:0.041 16:0.122 17:0.041 18:0.041 19:0.184 20:0 
768 1:0.3 2:0.733 3:0.457 4:0.041 5:0.102 6:0 7:0.184 8:0.082 9:0 10:0.02 11:0.122 12:0.061 13:0.02 14:0 15:0 16:0.122 17:0.102 18:0.061 19:0.082 20:0 
-768 1:0.3 2:0.733 3:0.457 4:0.143 5:0.122 6:0.02 7:0.02 8:0.102 9:0.041 10:0.02 11:0.061 12:0.02 13:0 14:0 15:0.061 16:0.061 17:0.061 18:0.02 19:0.245 20:0 
-768 1:0.3 2:0.733 3:0.457 4:0.061 5:0.041 6:0.041 7:0.163 8:0.102 9:0 10:0 11:0.122 12:0.02 13:0 14:0 15:0.061 16:0.143 17:0.184 18:0.041 19:0.02 20:0 
-768 1:0.3 2:0.733 3:0.457 4:0.102 5:0.041 6:0.041 7:0.143 8:0.02 9:0.122 10:0 11:0.082 12:0 13:0.02 14:0 15:0.061 16:0.204 17:0.041 18:0.02 19:0.102 20:0 
704.9168962464164 1:0.3 2:0.733 3:0.457 4:0.02 5:0.02 6:0.041 7:0.245 8:0.122 9:0.041 10:0.041 11:0 12:0 13:0.041 14:0 15:0.041 16:0.184 17:0.102 18:0 19:0.102 20:0 
132.2868494460848 1:0.3 2:0.733 3:0.457 4:0.061 5:0.102 6:0 7:0.163 8:0.163 9:0 10:0.02 11:0.02 12:0.02 13:0 14:0 15:0.061 16:0.061 17:0.122 18:0.061 19:0.143 20:0 
768 1:0.3 2:0.733 3:0.457 4:0.122 5:0.102 6:0.061 7:0.02 8:0.082 9:0 10:0.02 11:0.122 12:0 13:0.02 14:0 15:0.061 16:0.122 17:0.102 18:0 19:0.163 20:0 
-171.4453186353196 1:0.3 2:0.8 3:0.457 4:0.061 5:0.102 6:0.02 7:0.143 8:0.102 9:0.061 10:0 11:0.082 12:0.02 13:0 14:0 15:0.041 16:0.143 17:0.082 18:0.041 19:0.102 20:0 
303.8956764065684 1:0.3 2:0.8 3:0.457 4:0.143 5:0.102 6:0 7:0.082 8:0.122 9:0.082 10:0.02 11:0.02 12:0.02 13:0 14:0 15:0.041 16:0.041 17:0.061 18:0.02 19:0.245 20:0 
-768 1:0.3 2:0.8 3:0.457 4:0.204 5:0.02 6:0 7:0.082 8:0.041 9:0.041 10:0.02 11:0.143 12:0 13:0.02 14:0 15:0.041 16:0.061 17:0.163 18:0.041 19:0.122 20:0 
-768 1:0.3 2:0.8 3:0.457 4:0.041 5:0.082 6:0.02 7:0.184 8:0.041 9:0.061 10:0 11:0.143 12:0.02 13:0.02 14:0 15:0.02 16:0.204 17:0.082 18:0.041 19:0.041 20:0 
304.9580189180632 1:0.3 2:0.8 3:0.457 4:0.204 5:0 6:0.02 7:0.102 8:0.082 9:0.102 10:0 11:0.061 12:0 13:0.02 14:0 15:0.02 16:0.041 17:0.122 18:0.041 19:0.184 20:0 
768 1:0.3 2:0.8 3:0.457 4:0 5:0.163 6:0.041 7:0.102 8:0.143 9:0.02 10:0 11:0.082 12:0 13:0.02 14:0 15:0.041 16:0.184 17:0.041 18:0 19:0.163 20:0 
371.2422970213209 1:0.3 2:0.8 3:0.457 4:0.163 5:0.061 6:0 7:0.102 8:0.02 9:0 10:0.02 11:0.204 12:0.041 13:0 14:0 15:0.02 16:0.102 17:0.184 18:0.041 19:0.041 20:0 
359.7669420393237 1:0.3 2:0.2 3:0.514 4:0.061 5:0.02 6:0.061 7:0.204 8:0.041 9:0 10:0 11:0.02 12:0.102 13:0 14:0.041 15:0.102 16:0.163 17:0.041 18:0.122 19:0.02 20:0 
-317.6474515164694 1:0.3 2:0.2 3:0.514 4:0.122 5:0.041 6:0.041 7:0.143 8:0.041 9:0 10:0 11:0.02 12:0.122 13:0 14:0 15:0.122 16:0.082 17:0.02 18:0.184 19:0.061 20:0 
-112.6486281369298 1:0.3 2:0.2 3:0.514 4:0.224 5:0 6:0 7:0.122 8:0.02 9:0 10:0 11:0.041 12:0.061 13:0.02 14:0.041 15:0.122 16:0.061 17:0.02 18:0.204 19:0.061 20:0 
768 1:0.3 2:0.267 3:0.514 4:0.122 5:0.02 6:0.082 7:0.122 8:0.02 9:0 10:0.02 11:0.041 12:0.143 13:0 14:0.041 15:0.041 16:0.061 17:0.061 18:0.082 19:0.143 20:0 
28.24597909697461 1:0.3 2:0.267 3:0.514 4:0.102 5:0.061 6:0.061 7:0.122 8:0.041 9:0 10:0.02 11:0.02 12:0.102 13:0.02 14:0 15:0.102 16:0.122 17:0 18:0.143 19:0.082 20:0 
-768 1:0.3 2:0.267 3:0.514 4:0.061 5:0.041 6:0.041 7:0.204 8:0.02 9:0 10:0.02 11:0.041 12:0.163 13:0.02 14:0 15:0.041 16:0.122 17:0.02 18:0.163 19:0.041 20:0 
768 1:0.3 2:0.267 3:0.514 4:0.143 5:0.041 6:0.102 7:0.061 8:0.02 9:0 10:0 11:0.061 12:0.02 13:0 14:0.02 15:0.184 16:0.184 17:0.02 18:0.102 19:0.041 20:0 
-768 1:0.3 2:0.267 3:0.514 4:0.102 5:0.061 6:0.082 7:0.102 8:0.02 9:0 10:0 11:0.061 12:0 13:0.02 14:0.082 15:0.122 16:0.245 17:0 18:0.061 19:0.041 20:0 
768 1:0.3 2:0.267 3:0.514 4:0.02 5:0.02 6:0.163 7:0.163 8:0.061 9:0 10:0.02 11:0 12:0.143 13:0 14:0.02 15:0.041 16:0.122 17:0.061 18:0.02 19:0.143 20:0 
-768 1:0.3 2:0.267 3:0.514 4:0.163 5:0.02 6:0.061 7:0.122 8:0.02 9:0 10:0.041 11:0.02 12:0.102 13:0 14:0.122 15:0 16:0.061 17:0.061 18:0 19:0.204 20:0 
79.62714502049336 1:0.3 2:0.267 3:0.514 4:0.102 5:0 6:0.163 7:0.102 8:0.02 9:0 10:0 11:0.041 12:0.163 13:0.02 14:0.041 15:0 16:0.082 17:0.061 18:0.02 19:0.184 20:0 
768 1:0.3 2:0.333 3:0.514 4:0.082 5:0.082 6:0.02 7:0.184 8:0.061 9:0 10:0 11:0.041 12:0.02 13:0.02 14:0.082 15:0.061 16:0.204 17:0 18:0.102 19:0.041 20:0 
768 1:0.3 2:0.333 3:0.514 4:0.143 5:0.061 6:0.041 7:0.122 8:0.061 9:0.02 10:0 11:0.02 12:0.122 13:0.02 14:0 15:0.041 16:0.041 17:0 18:0.163 19:0.143 20:0 
324.0081282232863 1:0.3 2:0.333 3:0.514 4:0.184 5:0 6:0.082 7:0.102 8:0.082 9:0 10:0 11:0.02 12:0.061 13:0.02 14:0.061 15:0.041 16:0.041 17:0.082 18:0.041 19:0.184 20:0 
-115.0417878054289 1:0.3 2:0.333 3:0.514 4:0.143 5:0 6:0.143 7:0.082 8:0.061 9:0 10:0.02 11:0.02 12:0.02 13:0.02 14:0.02 15:0.143 16:0.143 17:0.082 18:0.02 19:0.082 20:0 
768 1:0.3 2:0.333 3:0.514 4:0.02 5:0.061 6:0.082 7:0.204 8:0.02 9:0 10:0 11:0.082 12:0.163 13:0.02 14:0.02 15:0 16:0.163 17:0.02 18:0.082 19:0.061 20:0 
768 1:0.3 2:0.333 3:0.514 4:0.143 5:0 6:0.082 7:0.143 8:0.061 9:0.02 10:0 11:0 12:0.02 13:0.02 14:0.102 15:0.061 16:0.122 17:0.061 18:0.02 19:0.143 20:0 
218.5810968170735 1:0.3 2:0.333 3:0.514 4:0.265 5:0.041 6:0 7:0.041 8:0 9:0.02 10:0.041 11:0.041 12:0.082 13:0.02 14:0.02 15:0.082 16:0.02 17:0.02 18:0.122 19:0.184 20:0 
-319.7649245306229 1:0.3 2:0.333 3:0.514 4:0.204 5:0.061 6:0.061 7:0.041 8:0.061 9:0 10:0 11:0.041 12:0.061 13:0.041 14:0 15:0.082 16:0.041 17:0 18:0.143 19:0.163 20:0 
768 1:0.3 2:0.333 3:0.514 4:0.122 5:0 6:0.061 7:0.184 8:0.061 9:0 10:0.02 11:0.02 12:0.102 13:0.02 14:0.082 15:0 16:0.061 17:0.082 18:0.041 19:0.143 20:0 
-768 1:0.3 2:0.333 3:0.514 4:0.082 5:0.041 6:0.061 7:0.163 8:0.02 9:0.02 10:0.041 11:0.02 12:0 13:0.02 14:0.082 15:0.102 16:0.245 17:0.02 18:0.02 19:0.061 20:0 
-768 1:0.3 2:0.333 3:0.514 4:0.102 5:0 6:0.143 7:0.122 8:0.061 9:0.02 10:0 11:0.02 12:0.122 13:0 14:0.041 15:0.02 16:0.061 17:0.082 18:0.02 19:0.184 20:0 
419.1791736430764 1:0.3 2:0.333 3:0.514 4:0.02 5:0 6:0.122 7:0.224 8:0.02 9:0.02 10:0.041 11:0 12:0.122 13:0.02 14:0 15:0.061 16:0.184 17:0.061 18:0.041 19:0.061 20:0 
768 1:0.3 2:0.333 3:0.514 4:0.265 5:0.02 6:0.02 7:0.061 8:0.02 9:0.02 10:0.041 11:0.02 12:0.061 13:0.02 14:0.102 15:0.02 16:0.02 17:0.02 18:0.041 19:0.245 20:0 
-435.3439603604275 1:0.3 2:0.4 3:0.514 4:0.122 5:0 6:0.061 7:0.184 8:0.041 9:0.02 10:0 11:0.061 12:0.122 13:0 14:0.061 15:0 16:0.061 17:0.102 18:0.061 19:0.102 20:0 
768 1:0.3 2:0.4 3:0.514 4:0.143 5:0 6:0.061 7:0.143 8:0 9:0.02 10:0.041 11:0.061 12:0 13:0.041 14:0.041 15:0.102 16:0.224 17:0.061 18:0.02 19:0.041 20:0 
-768 1:0.3 2:0.4 3:0.514 4:0.184 5:0.02 6:0.102 7:0.061 8:0.02 9:0.02 10:0.02 11:0.061 12:0.02 13:0 14:0.02 15:0.143 16:0.143 17:0.082 18:0.02 19:0.082 20:0 
768 1:0.3 2:0.4 3:0.514 4:0.122 5:0 6:0.122 7:0.102 8:0.02 9:0 10:0 11:0.102 12:0.122 13:0.02 14:0.041 15:0 16:0.082 17:0.102 18:0.02 19:0.143 20:0 
768 1:0.3 2:0.4 3:0.514 4:0.122 5:0 6:0.041 7:0.204 8:0.102 9:0 10:0.02 11:0 12:0.082 13:0.02 14:0.02 15:0.041 16:0.061 17:0.102 18:0.102 19:0.082 20:0 
-611.6445005715866 1:0.3 2:0.4 3:0.514 4:0.245 5:0.02 6:0.02 7:0.082 8:0 9:0.02 10:0.041 11:0.061 12:0.02 13:0 14:0.082 15:0.082 16:0.102 17:0.082 18:0.041 19:0.102 20:0 
768 1:0.3 2:0.4 3:0.514 4:0.122 5:0 6:0.102 7:0.122 8:0.102 9:0 10:0 11:0.02 12:0.082 13:0 14:0 15:0.102 16:0.061 17:0.102 18:0.082 19:0.102 20:0 
768 1:0.3 2:0.4 3:0.514 4:0.102 5:0.061 6:0.082 7:0.102 8:0.02 9:0 10:0 11:0.102 12:0.041 13:0 14:0.02 15:0.122 16:0.204 17:0.061 18:0.082 19:0 20:0 
-383.2477605970159 1:0.3 2:0.4 3:0.514 4:0.061 5:0.082 6:0.122 7:0.082 8:0.082 9:0 10:0.041 11:0 12:0 13:0.041 14:0 15:0.143 16:0.224 17:0 18:0.02 19:0.102 20:0 
-768 1:0.3 2:0.4 3:0.514 4:0.102 5:0.082 6:0.061 7:0.102 8:0.082 9:0 10:0.041 11:0 12:0.02 13:0.041 14:0 15:0.122 16:0.143 17:0 18:0.082 19:0.122 20:0 
768 1:0.3 2:0.4 3:0.514 4:0.265 5:0 6:0.02 7:0.061 8:0.061 9:0 10:0.02 11:0.041 12:0.02 13:0.041 14:0.041 15:0.082 16:0.02 17:0.082 18:0.102 19:0.143 20:0 
-768 1:0.3 2:0.4 3:0.514 4:0.143 5:0.041 6:0.02 7:0.143 8:0.102 9:0.02 10:0 11:0 12:0.061 13:0 14:0.082 15:0.041 16:0.041 17:0.061 18:0.082 19:0.163 20:0 
-614.471954607538 1:0.3 2:0.4 3:0.514 4:0.061 5:0.102 6:0.02 7:0.184 8:0 9:0 10:0.02 11:0.102 12:0.102 13:0 14:0.061 15:0 16:0.184 17:0.02 18:0.082 19:0.061 20:0 
768 1:0.3 2:0.4 3:0.514 4:0.163 5:0 6:0.102 7:0.102 8:0.061 9:0.02 10:0 11:0.041 12:0.041 13:0.02 14:0.082 15:0.02 16:0.102 17:0.082 18:0 19:0.163 20:0 
20.09238235426424 1:0.3 2:0.4 3:0.514 4:0.265 5:0.061 6:0 7:0.041 8:0.02 9:0 10:0.02 11:0.082 12:0.02 13:0.041 14:0.02 15:0.102 16:0.061 17:0 18:0.143 19:0.122 20:0 
588.3930145663066 1:0.3 2:0.4 3:0.514 4:0.041 5:0.082 6:0.02 7:0.204 8:0.102 9:0 10:0.02 11:0 12:0.041 13:0.041 14:0.061 15:0.041 16:0.184 17:0 18:0.082 19:0.082 20:0 
768 1:0.3 2:0.467 3:0.514 4:0.163 5:0.082 6:0.02 7:0.082 8:0.02 9:0.02 10:0.02 11:0.082 12:0.041 13:0.02 14:0 15:0.102 16:0.143 17:0.02 18:0.102 19:0.082 20:0 
-249.1850098497643 1:0.3 2:0.467 3:0.514 4:0.143 5:0.041 6:0.041 7:0.122 8:0.082 9:0.02 10:0 11:0.041 12:0.061 13:0 14:0 15:0.102 16:0.082 17:0.082 18:0.122 19:0.061 20:0 
-136.8353603400793 1:0.3 2:0.467 3:0.514 4:0.061 5:0.102 6:0.082 7:0.102 8:0.082 9:0 10:0.041 11:0.02 12:0.061 13:0 14:0 15:0.102 16:0.163 17:0.041 18:0.02 19:0.122 20:0 
-768 1:0.3 2:0.467 3:0.514 4:0.204 5:0.041 6:0.02 7:0.102 8:0.082 9:0.02 10:0.02 11:0.02 12:0.02 13:0.02 14:0.041 15:0.082 16:0.061 17:0.061 18:0.061 19:0.143 20:0 
768 1:0.3 2:0.467 3:0.514 4:0.061 5:0.061 6:0.02 7:0.204 8:0.082 9:0 10:0 11:0.061 12:0.061 13:0.02 14:0.02 15:0.061 16:0.163 17:0.041 18:0.122 19:0.02 20:0 
68.94599509358767 1:0.3 2:0.467 3:0.514 4:0.061 5:0.041 6:0 7:0.245 8:0.02 9:0.041 10:0.041 11:0.041 12:0.082 13:0.041 14:0.02 15:0.02 16:0.204 17:0.02 18:0.082 19:0.041 20:0 
-768 1:0.3 2:0.467 3:0.514 4:0.143 5:0.082 6:0.02 7:0.102 8:0 9:0.041 10:0 11:0.102 12:0.122 13:0 14:0.02 15:0.02 16:0.102 17:0.02 18:0.122 19:0.102 20:0 
34.37147764163115 1:0.3 2:0.467 3:0.514 4:0.02 5:0.082 6:0.102 7:0.143 8:0.041 9:0 10:0.02 11:0.082 12:0.122 13:0 14:0.02 15:0.02 16:0.184 17:0.061 18:0.02 19:0.082 20:0 
768 1:0.3 2:0.467 3:0.514 4:0.102 5:0.102 6:0.041 7:0.122 8:0.082 9:0 10:0 11:0.061 12:0 13:0.041 14:0.041 15:0.082 16:0.184 17:0 18:0.061 19:0.082 20:0 
-768 1:0.3 2:0.467 3:0.514 4:0.245 5:0 6:0.02 7:0.102 8:0.041 9:0.041 10:0.02 11:0.041 12:0.061 13:0.041 14:0.041 15:0 16:0.02 17:0.061 18:0.082 19:0.184 20:0 
-768 1:0.3 2:0.467 3:0.514 4:0.082 5:0.02 6:0.143 7:0.102 8:0.02 9:0 10:0.02 11:0.102 12:0.061 13:0.041 14:0 15:0.061 16:0.184 17:0.082 18:0 19:0.082 20:0 
673.5078417402965 1:0.3 2:0.467 3:0.514 4:0.061 5:0.102 6:0.082 7:0.102 8:0.02 9:0 10:0.041 11:0.082 12:0.122 13:0.02 14:0.02 15:0 16:0.163 17:0 18:0.02 19:0.163 20:0 
203.2099814938087 1:0.3 2:0.467 3:0.514 4:0.163 5:0.041 6:0.122 7:0.02 8:0.061 9:0 10:0 11:0.082 12:0.02 13:0 14:0.041 15:0.102 16:0.102 17:0.102 18:0 19:0.143 20:0 
338.8649280498276 1:0.3 2:0.467 3:0.514 4:0.061 5:0 6:0.041 7:0.245 8:0.061 9:0 10:0.041 11:0.041 12:0.061 13:0.041 14:0.041 15:0.02 16:0.184 17:0.102 18:0.041 19:0.02 20:0 
768 1:0.3 2:0.467 3:0.514 4:0.122 5:0.041 6:0.102 7:0.082 8:0 9:0.041 10:0.041 11:0.061 12:0.02 13:0.02 14:0 15:0.122 16:0.224 17:0.02 18:0.02 19:0.082 20:0 
768 1:0.3 2:0.533 3:0.514 4:0.184 5:0.041 6:0.02 7:0.122 8:0.041 9:0.041 10:0.041 11:0.041 12:0.041 13:0.02 14:0.02 15:0.041 16:0.082 17:0.061 18:0.061 19:0.143 20:0 
-5.004829551146046 1:0.3 2:0.533 3:0.514 4:0.122 5:0.041 6:0.102 7:0.102 8:0.041 9:0.02 10:0 11:0.102 12:0.041 13:0.041 14:0.02 15:0.02 16:0.163 17:0.061 18:0 19:0.122 20:0 
-768 1:0.3 2:0.533 3:0.514 4:0.122 5:0.061 6:0.02 7:0.143 8:0.041 9:0.02 10:0.041 11:0.061 12:0.041 13:0 14:0.041 15:0.061 16:0.163 17:0.082 18:0.041 19:0.061 20:0 
768 1:0.3 2:0.533 3:0.514 4:0.122 5:0 6:0.041 7:0.184 8:0.02 9:0.061 10:0.041 11:0.041 12:0.102 13:0 14:0 15:0.041 16:0.122 17:0.102 18:0.061 19:0.061 20:0 
-297.815086330319 1:0.3 2:0.533 3:0.514 4:0.143 5:0.102 6:0.061 7:0.041 8:0.02 9:0.041 10:0.02 11:0.082 12:0.041 13:0 14:0.041 15:0.061 16:0.163 17:0.02 18:0.02 19:0.143 20:0 
12.88264664850059 1:0.3 2:0.533 3:0.514 4:0.082 5:0.082 6:0.02 7:0.163 8:0.041 9:0.041 10:0.02 11:0.061 12:0.041 13:0.041 14:0 15:0.061 16:0.204 17:0 18:0.102 19:0.041 20:0 
768 1:0.3 2:0.533 3:0.514 4:0.265 5:0.02 6:0 7:0.061 8:0.02 9:0.041 10:0.02 11:0.082 12:0.061 13:0.02 14:0.041 15:0.02 16:0.02 17:0.061 18:0.082 19:0.184 20:0 
-95.93140935147325 1:0.3 2:0.533 3:0.514 4:0.184 5:0 6:0.082 7:0.102 8:0.082 9:0.02 10:0.041 11:0 12:0 13:0.041 14:0 15:0.102 16:0.102 17:0.102 18:0.02 19:0.122 20:0 
768 1:0.3 2:0.533 3:0.514 4:0.143 5:0.02 6:0 7:0.204 8:0.082 9:0.041 10:0.041 11:0 12:0.02 13:0.041 14:0 15:0.061 16:0.122 17:0.061 18:0.082 19:0.082 20:0 
768 1:0.3 2:0.533 3:0.514 4:0.184 5:0.041 6:0 7:0.143 8:0.061 9:0 10:0 11:0.082 12:0.082 13:0 14:0.041 15:0.02 16:0.02 17:0.122 18:0.102 19:0.102 20:0 
768 1:0.3 2:0.533 3:0.514 4:0.122 5:0.102 6:0.041 7:0.102 8:0.143 9:0.02 10:0 11:0 12:0.041 13:0.041 14:0 15:0.041 16:0.061 17:0 18:0.102 19:0.184 20:0 
-300.1066982318458 1:0.3 2:0.533 3:0.514 4:0.122 5:0.02 6:0.061 7:0.163 8:0 9:0 10:0.041 11:0.122 12:0.082 13:0.02 14:0 15:0.02 16:0.163 17:0.122 18:0.041 19:0.02 20:0 
768 1:0.3 2:0.533 3:0.514 4:0 5:0.061 6:0.122 7:0.184 8:0.122 9:0.041 10:0 11:0 12:0.02 13:0.041 14:0.02 15:0.041 16:0.204 17:0.02 18:0 19:0.122 20:0 
768 1:0.3 2:0.533 3:0.514 4:0.041 5:0.061 6:0.061 7:0.204 8:0.122 9:0 10:0.02 11:0.02 12:0.041 13:0 14:0 15:0.102 16:0.143 17:0.102 18:0.061 19:0.02 20:0 
768 1:0.3 2:0.533 3:0.514 4:0.122 5:0.143 6:0.061 7:0.041 8:0.041 9:0 10:0 11:0.122 12:0.102 13:0 14:0 15:0.02 16:0.102 17:0 18:0.082 19:0.163 20:0 
-768 1:0.3 2:0.533 3:0.514 4:0.143 5:0.082 6:0.082 7:0.061 8:0.122 9:0.041 10:0 11:0 12:0.082 13:0 14:0.02 15:0.02 16:0.02 17:0.02 18:0.041 19:0.265 20:0 
567.0670498911333 1:0.3 2:0.533 3:0.514 4:0.286 5:0 6:0 7:0.082 8:0.082 9:0.02 10:0.02 11:0.02 12:0 13:0.041 14:0.02 15:0.082 16:0 17:0.082 18:0.102 19:0.163 20:0 
768 1:0.3 2:0.533 3:0.514 4:0.102 5:0.082 6:0.122 7:0.041 8:0.061 9:0.02 10:0 11:0.082 12:0.102 13:0.02 14:0.02 15:0 16:0.102 17:0.041 18:0 19:0.204 20:0 
-768 1:0.3 2:0.533 3:0.514 4:0.184 5:0.122 6:0.02 7:0.041 8:0.02 9:0.02 10:0 11:0.122 12:0.02 13:0 14:0.02 15:0.082 16:0.143 17:0 18:0.102 19:0.102 20:0 
-768 1:0.3 2:0.6 3:0.514 4:0.102 5:0.082 6:0.02 7:0.163 8:0.061 9:0.02 10:0.02 11:0.082 12:0.061 13:0 14:0.02 15:0.02 16:0.143 17:0.061 18:0.061 19:0.082 20:0 
631.314434894064 1:0.3 2:0.6 3:0.514 4:0.102 5:0.102 6:0.041 7:0.122 8:0.102 9:0 10:0 11:0.061 12:0.082 13:0.02 14:0.02 15:0 16:0.082 17:0.041 18:0.061 19:0.163 20:0 
-768 1:0.3 2:0.6 3:0.514 4:0.041 5:0.082 6:0.061 7:0.163 8:0.143 9:0 10:0.02 11:0.02 12:0.061 13:0 14:0 15:0.061 16:0.122 17:0.082 18:0.041 19:0.102 20:0 
768 1:0.3 2:0.6 3:0.514 4:0.122 5:0.102 6:0 7:0.143 8:0.082 9:0.02 10:0.041 11:0.041 12:0 13:0.02 14:0 15:0.102 16:0.143 17:0.041 18:0.082 19:0.061 20:0 
702.5423488033802 1:0.3 2:0.6 3:0.514 4:0.163 5:0.122 6:0 7:0.082 8:0.082 9:0.041 10:0.02 11:0.041 12:0.041 13:0 14:0.02 15:0.061 16:0.082 17:0.02 18:0.061 19:0.163 20:0 
768 1:0.3 2:0.6 3:0.514 4:0.163 5:0.061 6:0.041 7:0.102 8:0 9:0.02 10:0.02 11:0.143 12:0.082 13:0.02 14:0 15:0.02 16:0.102 17:0.082 18:0.061 19:0.082 20:0 
768 1:0.3 2:0.6 3:0.514 4:0.102 5:0.02 6:0.061 7:0.163 8:0.061 9:0.041 10:0.02 11:0.061 12:0.02 13:0.02 14:0 15:0.082 16:0.184 17:0.102 18:0.041 19:0.02 20:0 
768 1:0.3 2:0.6 3:0.514 4:0.102 5:0.061 6:0.041 7:0.163 8:0.163 9:0 10:0.02 11:0 12:0.041 13:0.02 14:0.02 15:0.02 16:0.041 17:0.102 18:0.041 19:0.163 20:0 
768 1:0.3 2:0.6 3:0.514 4:0.082 5:0.061 6:0 7:0.204 8:0.041 9:0.02 10:0.02 11:0.102 12:0.041 13:0.041 14:0 15:0.041 16:0.204 17:0.061 18:0.082 19:0 20:0 
-702.2878709216686 1:0.3 2:0.6 3:0.514 4:0.061 5:0.041 6:0.041 7:0.224 8:0.122 9:0.061 10:0 11:0 12:0 13:0.041 14:0.02 15:0.061 16:0.163 17:0.041 18:0.061 19:0.061 20:0 
-438.99549897247 1:0.3 2:0.6 3:0.514 4:0.102 5:0.122 6:0.02 7:0.102 8:0.041 9:0 10:0.02 11:0.122 12:0.082 13:0.041 14:0 15:0 16:0.143 17:0 18:0.082 19:0.122 20:0 
129.0221306368529 1:0.3 2:0.6 3:0.514 4:0.163 5:0.061 6:0 7:0.122 8:0 9:0.061 10:0.02 11:0.102 12:0 13:0.041 14:0.02 15:0.061 16:0.204 17:0.02 18:0.082 19:0.041 20:0 
-768 1:0.3 2:0.6 3:0.514 4:0.102 5:0.122 6:0.102 7:0.02 8:0.102 9:0 10:0 11:0.082 12:0.061 13:0 14:0.02 15:0.041 16:0.082 17:0.061 18:0 19:0.204 20:0 
-465.7178742175341 1:0.3 2:0.6 3:0.514 4:0.082 5:0.102 6:0.102 7:0.082 8:0 9:0.061 10:0 11:0.122 12:0 13:0.02 14:0.02 15:0.061 16:0.265 17:0 18:0 19:0.082 20:0 
-768 1:0.3 2:0.667 3:0.514 4:0.163 5:0.082 6:0.061 7:0.041 8:0.02 9:0.02 10:0.041 11:0.122 12:0.02 13:0 14:0 15:0.082 16:0.163 17:0.082 18:0 19:0.102 20:0 
768 1:0.3 2:0.667 3:0.514 4:0.184 5:0.102 6:0.061 7:0.02 8:0.041 9:0.041 10:0 11:0.102 12:0.082 13:0.02 14:0 15:0 16:0.061 17:0.041 18:0.041 19:0.204 20:0 
-768 1:0.3 2:0.667 3:0.514 4:0.143 5:0.061 6:0.082 7:0.061 8:0.122 9:0 10:0 11:0.082 12:0.041 13:0 14:0 15:0.061 16:0.061 17:0.143 18:0.02 19:0.122 20:0 
-704.8007686822701 1:0.3 2:0.667 3:0.514 4:0.224 5:0.02 6:0.02 7:0.102 8:0.02 9:0.102 10:0.02 11:0.061 12:0.041 13:0 14:0.02 15:0.02 16:0.061 17:0.082 18:0.041 19:0.163 20:0 
112.8305772679449 1:0.3 2:0.667 3:0.514 4:0.184 5:0 6:0.02 7:0.163 8:0.061 9:0.02 10:0.02 11:0.102 12:0.061 13:0.02 14:0 15:0.02 16:0.061 17:0.143 18:0.061 19:0.061 20:0 
-768 1:0.3 2:0.667 3:0.514 4:0.122 5:0.184 6:0 7:0.061 8:0.041 9:0.02 10:0.041 11:0.102 12:0.082 13:0 14:0 15:0 16:0.102 17:0 18:0.061 19:0.184 20:0 
-768 1:0.3 2:0.667 3:0.514 4:0.184 5:0.02 6:0.082 7:0.082 8:0.041 9:0.041 10:0 11:0.102 12:0.082 13:0 14:0 15:0.02 16:0.041 17:0.143 18:0.02 19:0.143 20:0 
-481.8399775144447 1:0.3 2:0.667 3:0.514 4:0.163 5:0.143 6:0.041 7:0.02 8:0.041 9:0.02 10:0 11:0.122 12:0 13:0.041 14:0.02 15:0.041 16:0.143 17:0 18:0.041 19:0.163 20:0 
-768 1:0.3 2:0.667 3:0.514 4:0.184 5:0 6:0.082 7:0.082 8:0.102 9:0.061 10:0.02 11:0.02 12:0 13:0.02 14:0 15:0.082 16:0.061 17:0.122 18:0 19:0.163 20:0 
768 1:0.3 2:0.667 3:0.514 4:0.184 5:0.061 6:0 7:0.122 8:0 9:0.061 10:0.02 11:0.102 12:0.082 13:0 14:0 15:0.02 16:0.102 17:0.082 18:0.082 19:0.082 20:0 
-431.1607459365686 1:0.3 2:0.733 3:0.514 4:0.082 5:0.041 6:0.061 7:0.163 8:0.02 9:0.061 10:0 11:0.143 12:0.061 13:0 14:0 15:0.02 16:0.184 17:0.122 18:0.02 19:0.02 20:0 
768 1:0.3 2:0.733 3:0.514 4:0.102 5:0.082 6:0 7:0.184 8:0.02 9:0.102 10:0.02 11:0.061 12:0.041 13:0 14:0 15:0.041 16:0.204 17:0.041 18:0.061 19:0.041 20:0 
-583.0291705707807 1:0.3 2:0.733 3:0.514 4:0.061 5:0.143 6:0.041 7:0.102 8:0.122 9:0 10:0 11:0.102 12:0 13:0.02 14:0 15:0.061 16:0.184 17:0.061 18:0.02 19:0.082 20:0 
-768 1:0.3 2:0.733 3:0.514 4:0.102 5:0.102 6:0 7:0.163 8:0.061 9:0 10:0.02 11:0.143 12:0.02 13:0.041 14:0 15:0 16:0.163 17:0.082 18:0.061 19:0.041 20:0 
-768 1:0.3 2:0.733 3:0.514 4:0.204 5:0.041 6:0 7:0.122 8:0 9:0.082 10:0.02 11:0.122 12:0.041 13:0 14:0 15:0.02 16:0.122 17:0.102 18:0.061 19:0.061 20:0 
-20.39537456296607 1:0.3 2:0.733 3:0.514 4:0.184 5:0.041 6:0.02 7:0.122 8:0.02 9:0.102 10:0.041 11:0.041 12:0.02 13:0.041 14:0 15:0.02 16:0.143 17:0.041 18:0 19:0.163 20:0 
-485.7956036911011 1:0.3 2:0.733 3:0.514 4:0.102 5:0.082 6:0 7:0.184 8:0.122 9:0.041 10:0.02 11:0.041 12:0.02 13:0 14:0 15:0.061 16:0.122 17:0.102 18:0.061 19:0.041 20:0 
768 1:0.3 2:0.733 3:0.514 4:0.102 5:0.082 6:0.041 7:0.122 8:0.102 9:0 10:0 11:0.122 12:0.02 13:0 14:0 15:0.061 16:0.143 17:0.143 18:0.041 19:0.02 20:0 
155.0272794370648 1:0.3 2:0.733 3:0.514 4:0.02 5:0.041 6:0.061 7:0.245 8:0.184 9:0 10:0 11:0.041 12:0.041 13:0.02 14:0 15:0 16:0.122 17:0.143 18:0.02 19:0.061 20:0 
640.7623277087694 1:0.3 2:0.8 3:0.514 4:0.143 5:0.061 6:0.02 7:0.122 8:0.184 9:0 10:0 11:0.061 12:0 13:0.02 14:0 15:0.041 16:0.041 17:0.143 18:0.041 19:0.122 20:0 
177.6707576645792 1:0.3 2:0.8 3:0.514 4:0.082 5:0.061 6:0.041 7:0.184 8:0.184 9:0 10:0.02 11:0.02 12:0.041 13:0 14:0 15:0.02 16:0.061 17:0.184 18:0 19:0.102 20:0 
768 1:0.3 2:0.8 3:0.514 4:0.143 5:0.143 6:0.041 7:0.041 8:0.041 9:0.041 10:0 11:0.163 12:0.041 13:0.02 14:0 15:0 16:0.143 17:0.02 18:0.02 19:0.143 20:0 
768 1:0.3 2:0.2 3:0.543 4:0.163 5:0.041 6:0.082 7:0.082 8:0.041 9:0 10:0.02 11:0 12:0 13:0.02 14:0.102 15:0.122 16:0.184 17:0 18:0.041 19:0.102 20:0 
343.5073826847049 1:0.3 2:0.2 3:0.543 4:0.02 5:0.041 6:0.102 7:0.204 8:0.02 9:0 10:0 11:0.041 12:0.184 13:0.02 14:0.02 15:0.02 16:0.163 17:0 18:0.122 19:0.041 20:0 
-306.4992380219 1:0.3 2:0.2 3:0.543 4:0.102 5:0.02 6:0.102 7:0.163 8:0.041 9:0 10:0.02 11:0 12:0.102 13:0.02 14:0 15:0.122 16:0.122 17:0.02 18:0.122 19:0.041 20:0 
229.9351314209671 1:0.3 2:0.2 3:0.543 4:0.204 5:0.02 6:0 7:0.143 8:0.041 9:0 10:0.02 11:0 12:0.102 13:0 14:0.041 15:0.102 16:0.02 17:0.041 18:0.184 19:0.082 20:0 
0.5282779019951425 1:0.3 2:0.2 3:0.543 4:0.265 5:0.02 6:0.02 7:0.082 8:0 9:0 10:0.02 11:0.041 12:0.082 13:0.02 14:0.082 15:0.061 16:0.041 17:0.02 18:0.102 19:0.143 20:0 
-271.5210890347815 1:0.3 2:0.2 3:0.543 4:0.041 5:0.041 6:0.224 7:0.082 8:0.041 9:0 10:0 11:0 12:0.143 13:0.02 14:0 15:0.082 16:0.143 17:0 18:0.02 19:0.163 20:0 
-469.3311675614377 1:0.3 2:0.267 3:0.543 4:0.102 5:0.02 6:0.122 7:0.122 8:0.02 9:0 10:0 11:0.061 12:0.082 13:0.041 14:0.082 15:0.02 16:0.184 17:0.02 18:0.02 19:0.102 20:0 
-217.9851200310733 1:0.3 2:0.267 3:0.543 4:0.224 5:0.02 6:0.041 7:0.082 8:0.061 9:0 10:0 11:0.02 12:0.061 13:0.041 14:0.102 15:0.02 16:0.041 17:0.02 18:0.082 19:0.184 20:0 
-574.1314637813886 1:0.3 2:0.267 3:0.543 4:0.163 5:0.02 6:0 7:0.184 8:0.02 9:0 10:0.041 11:0.02 12:0.122 13:0.02 14:0 15:0.082 16:0.082 17:0.041 18:0.163 19:0.041 20:0 
59.67463284921087 1:0.3 2:0.267 3:0.543 4:0.204 5:0.02 6:0.102 7:0.041 8:0.02 9:0 10:0.041 11:0.02 12:0.082 13:0 14:0.041 15:0.102 16:0.082 17:0.041 18:0.041 19:0.163 20:0 
356.8634244185553 1:0.3 2:0.267 3:0.543 4:0.184 5:0 6:0.143 7:0.041 8:0 9:0 10:0.02 11:0.061 12:0.041 13:0.041 14:0.041 15:0.102 16:0.163 17:0.041 18:0 19:0.122 20:0 
-768 1:0.3 2:0.267 3:0.543 4:0.102 5:0.061 6:0.02 7:0.184 8:0.041 9:0 10:0.041 11:0 12:0.041 13:0 14:0.041 15:0.143 16:0.184 17:0.02 18:0.122 19:0 20:0 
-768 1:0.3 2:0.267 3:0.543 4:0.143 5:0.02 6:0.163 7:0.061 8:0.02 9:0 10:0 11:0.061 12:0.102 13:0 14:0 15:0.122 16:0.102 17:0.061 18:0.061 19:0.082 20:0 
42.7450349173024 1:0.3 2:0.267 3:0.543 4:0.204 5:0 6:0.02 7:0.163 8:0 9:0 10:0.02 11:0.061 12:0.122 13:0.02 14:0.061 15:0.02 16:0.041 17:0.061 18:0.122 19:0.082 20:0 
-768 1:0.3 2:0.267 3:0.543 4:0.122 5:0.041 6:0.143 7:0.082 8:0.061 9:0 10:0 11:0.02 12:0.143 13:0 14:0 15:0.082 16:0.041 17:0.041 18:0.082 19:0.143 20:0 
-201.8920713379326 1:0.3 2:0.267 3:0.543 4:0.061 5:0.041 6:0.184 7:0.102 8:0.061 9:0 10:0 11:0.02 12:0.02 13:0.02 14:0.02 15:0.163 16:0.245 17:0 18:0.02 19:0.041 20:0 
476.4982730712908 1:0.3 2:0.267 3:0.543 4:0.143 5:0.041 6:0.163 7:0.02 8:0.061 9:0 10:0.02 11:0 12:0.041 13:0 14:0.02 15:0.163 16:0.143 17:0.041 18:0.02 19:0.122 20:0 
-141.1562139330563 1:0.3 2:0.267 3:0.543 4:0.082 5:0 6:0.122 7:0.184 8:0.061 9:0 10:0.02 11:0 12:0.02 13:0.02 14:0.082 15:0.082 16:0.224 17:0.061 18:0 19:0.041 20:0 
52.34828428347868 1:0.3 2:0.267 3:0.543 4:0.082 5:0 6:0.061 7:0.224 8:0.02 9:0 10:0 11:0.061 12:0.041 13:0.041 14:0.102 15:0.041 16:0.245 17:0.041 18:0.041 19:0 20:0 
-768 1:0.3 2:0.267 3:0.543 4:0.163 5:0.061 6:0.061 7:0.082 8:0.061 9:0 10:0.02 11:0 12:0.041 13:0.02 14:0 15:0.163 16:0.122 17:0 18:0.143 19:0.061 20:0 
768 1:0.3 2:0.333 3:0.543 4:0.143 5:0.02 6:0.061 7:0.143 8:0.082 9:0 10:0.02 11:0 12:0.061 13:0.02 14:0.082 15:0.041 16:0.082 17:0.061 18:0.041 19:0.143 20:0 
-768 1:0.3 2:0.333 3:0.543 4:0.082 5:0.061 6:0.102 7:0.143 8:0 9:0.02 10:0.02 11:0.061 12:0.061 13:0 14:0.041 15:0.102 16:0.224 17:0.02 18:0.041 19:0.02 20:0 
768 1:0.3 2:0.333 3:0.543 4:0.204 5:0.041 6:0.02 7:0.102 8:0.041 9:0 10:0.02 11:0.041 12:0.102 13:0 14:0.061 15:0.041 16:0.041 17:0.061 18:0.102 19:0.122 20:0 
-768 1:0.3 2:0.333 3:0.543 4:0.163 5:0.02 6:0.041 7:0.143 8:0.02 9:0 10:0.041 11:0.041 12:0.102 13:0 14:0 15:0.102 16:0.102 17:0.082 18:0.122 19:0.02 20:0 
-768 1:0.3 2:0.333 3:0.543 4:0.184 5:0 6:0.061 7:0.122 8:0.02 9:0 10:0.041 11:0.041 12:0.163 13:0.041 14:0 15:0 16:0.02 17:0.041 18:0.102 19:0.163 20:0 
-628.8862372523641 1:0.3 2:0.333 3:0.543 4:0.163 5:0.041 6:0 7:0.184 8:0.02 9:0.02 10:0.02 11:0.02 12:0.102 13:0.041 14:0.061 15:0 16:0.102 17:0 18:0.122 19:0.102 20:0 
11.20352816984376 1:0.3 2:0.333 3:0.543 4:0.163 5:0.02 6:0.061 7:0.143 8:0.02 9:0 10:0 11:0.082 12:0.041 13:0 14:0.061 15:0.082 16:0.163 17:0.082 18:0.082 19:0 20:0 
-80.12649180411215 1:0.3 2:0.333 3:0.543 4:0.245 5:0.061 6:0 7:0.082 8:0.041 9:0 10:0.041 11:0 12:0.041 13:0.041 14:0.061 15:0.061 16:0.061 17:0 18:0.102 19:0.163 20:0 
-233.1050212221019 1:0.3 2:0.333 3:0.543 4:0.061 5:0.02 6:0.122 7:0.184 8:0.061 9:0.02 10:0 11:0.02 12:0.184 13:0 14:0.02 15:0 16:0.082 17:0.061 18:0.041 19:0.122 20:0 
-768 1:0.3 2:0.333 3:0.543 4:0.122 5:0.061 6:0.143 7:0.061 8:0.082 9:0.02 10:0 11:0 12:0.041 13:0.02 14:0.041 15:0.082 16:0.122 17:0 18:0.02 19:0.184 20:0 
-88.73580168197179 1:0.3 2:0.333 3:0.543 4:0.204 5:0.02 6:0.02 7:0.143 8:0.02 9:0 10:0.041 11:0.041 12:0.02 13:0.041 14:0 15:0.143 16:0.143 17:0.02 18:0.143 19:0 20:0 
-370.1581321667696 1:0.3 2:0.333 3:0.543 4:0.245 5:0.041 6:0.041 7:0.041 8:0.061 9:0.02 10:0.02 11:0 12:0.041 13:0 14:0.02 15:0.143 16:0.02 17:0.041 18:0.122 19:0.143 20:0 
768 1:0.3 2:0.333 3:0.543 4:0.163 5:0.041 6:0.082 7:0.102 8:0.082 9:0.02 10:0 11:0 12:0.041 13:0 14:0 15:0.163 16:0.082 17:0.041 18:0.122 19:0.061 20:0 
579.0142543388574 1:0.3 2:0.4 3:0.543 4:0.102 5:0.082 6:0.102 7:0.102 8:0.02 9:0.02 10:0.02 11:0.061 12:0.082 13:0 14:0 15:0.102 16:0.184 17:0.02 18:0.041 19:0.061 20:0 
768 1:0.3 2:0.4 3:0.543 4:0.184 5:0.041 6:0.041 7:0.102 8:0.061 9:0.02 10:0.02 11:0.02 12:0.061 13:0 14:0.082 15:0.041 16:0.082 17:0.061 18:0.02 19:0.163 20:0 
-768 1:0.3 2:0.4 3:0.543 4:0.102 5:0.02 6:0.102 7:0.163 8:0.02 9:0.02 10:0.02 11:0.061 12:0.02 13:0.041 14:0.061 15:0.041 16:0.224 17:0.041 18:0 19:0.061 20:0 
605.0599819641513 1:0.3 2:0.4 3:0.543 4:0.143 5:0.041 6:0 7:0.184 8:0.02 9:0.02 10:0.041 11:0.041 12:0.163 13:0 14:0 15:0.02 16:0.041 17:0.061 18:0.143 19:0.082 20:0 
-768 1:0.3 2:0.4 3:0.543 4:0.143 5:0.061 6:0.122 7:0.041 8:0.02 9:0.02 10:0 11:0.082 12:0.02 13:0 14:0.061 15:0.102 16:0.204 17:0.041 18:0 19:0.082 20:0 
-768 1:0.3 2:0.4 3:0.543 4:0.204 5:0 6:0.041 7:0.122 8:0.061 9:0.02 10:0.02 11:0.02 12:0 13:0.041 14:0.02 15:0.122 16:0.122 17:0.061 18:0.102 19:0.041 20:0 
768 1:0.3 2:0.4 3:0.543 4:0.163 5:0.041 6:0 7:0.184 8:0 9:0.02 10:0.041 11:0.041 12:0.082 13:0.02 14:0.082 15:0 16:0.122 17:0.041 18:0.061 19:0.102 20:0 
-351.6687533699269 1:0.3 2:0.4 3:0.543 4:0.143 5:0.102 6:0 7:0.122 8:0 9:0 10:0.041 11:0.082 12:0.122 13:0.02 14:0.02 15:0.02 16:0.122 17:0 18:0.102 19:0.102 20:0 
-202.2503396875028 1:0.3 2:0.4 3:0.543 4:0.041 5:0.061 6:0.061 7:0.224 8:0.02 9:0.02 10:0.041 11:0.041 12:0.061 13:0.02 14:0.041 15:0.061 16:0.245 17:0.02 18:0.041 19:0 20:0 
-768 1:0.3 2:0.4 3:0.543 4:0.163 5:0.02 6:0.061 7:0.122 8:0 9:0.02 10:0.041 11:0.061 12:0.143 13:0 14:0.041 15:0 16:0.082 17:0.082 18:0.02 19:0.143 20:0 
309.0760020580009 1:0.3 2:0.4 3:0.543 4:0.163 5:0.102 6:0.041 7:0.061 8:0.082 9:0 10:0 11:0.041 12:0.143 13:0 14:0.041 15:0 16:0 17:0.02 18:0.102 19:0.204 20:0 
-520.2037664396634 1:0.3 2:0.4 3:0.543 4:0.245 5:0.061 6:0.082 7:0 8:0.041 9:0.02 10:0.041 11:0.02 12:0.061 13:0 14:0.02 15:0.082 16:0.041 17:0.041 18:0.02 19:0.224 20:0 
-380.2305035706061 1:0.3 2:0.4 3:0.543 4:0.122 5:0.082 6:0.061 7:0.102 8:0.102 9:0 10:0 11:0.02 12:0.061 13:0.041 14:0.082 15:0 16:0.082 17:0 18:0.041 19:0.204 20:0 
768 1:0.3 2:0.467 3:0.543 4:0.245 5:0.041 6:0.02 7:0.082 8:0.061 9:0.02 10:0.041 11:0 12:0.02 13:0.02 14:0.061 15:0.061 16:0.061 17:0.061 18:0.041 19:0.163 20:0 
768 1:0.3 2:0.467 3:0.543 4:0.163 5:0.041 6:0.102 7:0.082 8:0.061 9:0.041 10:0 11:0.041 12:0.061 13:0.02 14:0.041 15:0.02 16:0.082 17:0.041 18:0.02 19:0.184 20:0 
-182.8169020484688 1:0.3 2:0.467 3:0.543 4:0.102 5:0.041 6:0.122 7:0.122 8:0.041 9:0.02 10:0 11:0.082 12:0.082 13:0 14:0.041 15:0.02 16:0.163 17:0.061 18:0 19:0.102 20:0 
-768 1:0.3 2:0.467 3:0.543 4:0.224 5:0.02 6:0.061 7:0.061 8:0.02 9:0.02 10:0 11:0.102 12:0.082 13:0.041 14:0.02 15:0.02 16:0.061 17:0.061 18:0.082 19:0.122 20:0 
150.671978055477 1:0.3 2:0.467 3:0.543 4:0.061 5:0.041 6:0.061 7:0.204 8:0 9:0.041 10:0.041 11:0.061 12:0.143 13:0 14:0 15:0.02 16:0.184 17:0.061 18:0.061 19:0.02 20:0 
768 1:0.3 2:0.467 3:0.543 4:0.184 5:0.02 6:0.02 7:0.143 8:0.041 9:0.02 10:0.02 11:0.061 12:0.102 13:0 14:0 15:0.061 16:0.041 17:0.102 18:0.122 19:0.061 20:0 
742.1451886299629 1:0.3 2:0.467 3:0.543 4:0.061 5:0.082 6:0.102 7:0.122 8:0.02 9:0 10:0.041 11:0.082 12:0.041 13:0.02 14:0.02 15:0.082 16:0.265 17:0.02 18:0 19:0.041 20:0 
-768 1:0.3 2:0.467 3:0.543 4:0.122 5:0 6:0.102 7:0.163 8:0.041 9:0.041 10:0 11:0.041 12:0.102 13:0 14:0 15:0.061 16:0.122 17:0.102 18:0.061 19:0.041 20:0 
-466.7021156019993 1:0.3 2:0.467 3:0.543 4:0.286 5:0 6:0.041 7:0.061 8:0.02 9:0.041 10:0 11:0.082 12:0 13:0.041 14:0.061 15:0.041 16:0.082 17:0.061 18:0.061 19:0.122 20:0 
768 1:0.3 2:0.467 3:0.543 4:0.143 5:0.02 6:0.02 7:0.204 8:0.082 9:0.02 10:0 11:0.041 12:0 13:0.041 14:0.041 15:0.061 16:0.143 17:0.061 18:0.102 19:0.02 20:0 
-104.8310634459189 1:0.3 2:0.467 3:0.543 4:0.102 5:0.122 6:0.061 7:0.102 8:0.102 9:0 10:0 11:0.041 12:0.061 13:0.02 14:0.061 15:0 16:0.122 17:0 18:0.02 19:0.184 20:0 
289.2746040134632 1:0.3 2:0.467 3:0.543 4:0.224 5:0.061 6:0.082 7:0.02 8:0.122 9:0 10:0.02 11:0 12:0 13:0.041 14:0.02 15:0.102 16:0.041 17:0.041 18:0.02 19:0.204 20:0 
-768 1:0.3 2:0.467 3:0.543 4:0.143 5:0.02 6:0.02 7:0.204 8:0.102 9:0.02 10:0.02 11:0 12:0.122 13:0 14:0.02 15:0 16:0.02 17:0.102 18:0.102 19:0.102 20:0 
-302.0962033213713 1:0.3 2:0.467 3:0.543 4:0.102 5:0.02 6:0.143 7:0.122 8:0.102 9:0.041 10:0 11:0 12:0.061 13:0.041 14:0 15:0.061 16:0.102 17:0.041 18:0.02 19:0.143 20:0 
-768 1:0.3 2:0.467 3:0.543 4:0.122 5:0.102 6:0.041 7:0.102 8:0.122 9:0 10:0 11:0.02 12:0 13:0.041 14:0 15:0.122 16:0.122 17:0 18:0.122 19:0.082 20:0 
703.4823164363248 1:0.3 2:0.467 3:0.543 4:0.122 5:0.041 6:0.02 7:0.204 8:0.041 9:0 10:0.041 11:0.061 12:0.102 13:0 14:0.061 15:0 16:0.122 17:0.102 18:0.041 19:0.041 20:0 
768 1:0.3 2:0.467 3:0.543 4:0.163 5:0.122 6:0.082 7:0.02 8:0.102 9:0 10:0.041 11:0 12:0.041 13:0 14:0.041 15:0.082 16:0.082 17:0 18:0 19:0.224 20:0 
-768 1:0.3 2:0.467 3:0.543 4:0.041 5:0.02 6:0.061 7:0.245 8:0.102 9:0.02 10:0 11:0.02 12:0.082 13:0 14:0.041 15:0.041 16:0.163 17:0.102 18:0.061 19:0 20:0 
-768 1:0.3 2:0.533 3:0.543 4:0.204 5:0.082 6:0.061 7:0.041 8:0.122 9:0 10:0.02 11:0.02 12:0.02 13:0.041 14:0 15:0.082 16:0.041 17:0.041 18:0.061 19:0.163 20:0 
148.2764873322641 1:0.3 2:0.533 3:0.543 4:0.143 5:0.02 6:0.02 7:0.184 8:0.082 9:0 10:0.02 11:0.061 12:0.041 13:0.02 14:0.041 15:0.041 16:0.122 17:0.102 18:0.061 19:0.041 20:0 
-2.349875946525432 1:0.3 2:0.533 3:0.543 4:0.061 5:0.102 6:0.061 7:0.143 8:0.02 9:0.061 10:0.02 11:0.061 12:0.102 13:0 14:0 15:0.041 16:0.204 17:0 18:0.061 19:0.061 20:0 
461.7191486930453 1:0.3 2:0.533 3:0.543 4:0.061 5:0.041 6:0.102 7:0.163 8:0.102 9:0.02 10:0 11:0.041 12:0.041 13:0 14:0.02 15:0.082 16:0.184 17:0.102 18:0.02 19:0.02 20:0 
134.2749566076455 1:0.3 2:0.533 3:0.543 4:0.143 5:0.061 6:0.082 7:0.102 8:0 9:0.041 10:0 11:0.102 12:0 13:0.041 14:0 15:0.102 16:0.224 17:0.02 18:0.061 19:0.02 20:0 
-133.2044143886028 1:0.3 2:0.533 3:0.543 4:0.082 5:0.02 6:0.02 7:0.245 8:0.061 9:0.041 10:0.041 11:0.02 12:0.082 13:0.041 14:0.02 15:0 16:0.163 17:0.041 18:0.061 19:0.061 20:0 
-148.2312056258751 1:0.3 2:0.533 3:0.543 4:0.102 5:0 6:0.082 7:0.184 8:0.082 9:0.02 10:0 11:0.061 12:0.102 13:0.02 14:0.02 15:0 16:0.082 17:0.122 18:0.041 19:0.082 20:0 
768 1:0.3 2:0.533 3:0.543 4:0.122 5:0.061 6:0.122 7:0.082 8:0.041 9:0.02 10:0 11:0.102 12:0.041 13:0.041 14:0.02 15:0.02 16:0.184 17:0.041 18:0 19:0.102 20:0 
768 1:0.3 2:0.533 3:0.543 4:0.245 5:0.061 6:0.02 7:0.061 8:0.02 9:0.061 10:0.02 11:0.041 12:0.082 13:0 14:0 15:0.061 16:0.02 17:0.041 18:0.102 19:0.163 20:0 
-585.4990783106832 1:0.3 2:0.533 3:0.543 4:0.061 5:0.102 6:0.041 7:0.184 8:0.122 9:0 10:0 11:0.041 12:0.02 13:0.041 14:0.041 15:0.041 16:0.184 17:0.02 18:0.041 19:0.061 20:0 
-768 1:0.3 2:0.533 3:0.543 4:0.082 5:0.02 6:0.082 7:0.184 8:0.02 9:0.061 10:0 11:0.082 12:0.061 13:0.041 14:0 15:0.041 16:0.204 17:0.041 18:0.061 19:0.02 20:0 
768 1:0.3 2:0.533 3:0.543 4:0.184 5:0.082 6:0 7:0.122 8:0.122 9:0 10:0.02 11:0.02 12:0.041 13:0.02 14:0.041 15:0.02 16:0.041 17:0.061 18:0.082 19:0.143 20:0 
768 1:0.3 2:0.533 3:0.543 4:0.122 5:0.041 6:0.041 7:0.184 8:0.041 9:0.041 10:0.041 11:0.041 12:0 13:0.041 14:0 15:0.102 16:0.224 17:0.041 18:0.041 19:0 20:0 
768 1:0.3 2:0.533 3:0.543 4:0.163 5:0.041 6:0.082 7:0.082 8:0.102 9:0.041 10:0.02 11:0 12:0.102 13:0 14:0 15:0.041 16:0 17:0.082 18:0.041 19:0.204 20:0 
-768 1:0.3 2:0.533 3:0.543 4:0.102 5:0.061 6:0.082 7:0.143 8:0.041 9:0.061 10:0.02 11:0.02 12:0.122 13:0.02 14:0 15:0 16:0.122 17:0 18:0.041 19:0.163 20:0 
-757.3766509049094 1:0.3 2:0.533 3:0.543 4:0.184 5:0.061 6:0.02 7:0.102 8:0.041 9:0.041 10:0.041 11:0.041 12:0.102 13:0 14:0.041 15:0 16:0.041 17:0.061 18:0.041 19:0.184 20:0 
768 1:0.3 2:0.533 3:0.543 4:0.102 5:0.061 6:0.041 7:0.184 8:0.102 9:0.02 10:0 11:0.02 12:0.041 13:0 14:0 15:0.102 16:0.143 17:0.061 18:0.102 19:0.02 20:0 
-402.9235666123818 1:0.3 2:0.533 3:0.543 4:0.041 5:0.02 6:0.041 7:0.265 8:0.082 9:0 10:0.041 11:0.041 12:0.102 13:0.02 14:0.02 15:0 16:0.163 17:0.122 18:0.02 19:0.02 20:0 
0.01737095416551977 1:0.3 2:0.533 3:0.543 4:0 5:0.061 6:0.082 7:0.224 8:0.102 9:0.02 10:0 11:0.041 12:0.122 13:0.02 14:0 15:0 16:0.143 17:0.061 18:0.061 19:0.061 20:0 
-768 1:0.3 2:0.533 3:0.543 4:0.184 5:0 6:0.041 7:0.143 8:0.102 9:0.02 10:0.041 11:0 12:0 13:0.02 14:0.041 15:0.082 16:0.102 17:0.122 18:0.02 19:0.082 20:0 
768 1:0.3 2:0.533 3:0.543 4:0.102 5:0.041 6:0.122 7:0.122 8:0.02 9:0.061 10:0.02 11:0.041 12:0.041 13:0.02 14:0 15:0.082 16:0.224 17:0.041 18:0 19:0.061 20:0 
768 1:0.3 2:0.533 3:0.543 4:0.061 5:0.02 6:0.102 7:0.184 8:0.02 9:0.061 10:0.041 11:0.041 12:0.122 13:0 14:0 15:0.02 16:0.163 17:0.082 18:0 19:0.082 20:0 
768 1:0.3 2:0.533 3:0.543 4:0.122 5:0.082 6:0 7:0.184 8:0.143 9:0 10:0 11:0.02 12:0.02 13:0.041 14:0.041 15:0.02 16:0.102 17:0.02 18:0.102 19:0.102 20:0 
768 1:0.3 2:0.533 3:0.543 4:0.224 5:0.061 6:0 7:0.102 8:0.061 9:0.061 10:0.02 11:0.02 12:0 13:0.041 14:0 15:0.102 16:0.102 17:0 18:0.102 19:0.102 20:0 
768 1:0.3 2:0.6 3:0.543 4:0.102 5:0.102 6:0.061 7:0.102 8:0.041 9:0.02 10:0 11:0.122 12:0 13:0.041 14:0 15:0.082 16:0.245 17:0.02 18:0.041 19:0.02 20:0 
-768 1:0.3 2:0.6 3:0.543 4:0.143 5:0.102 6:0.02 7:0.122 8:0.143 9:0.041 10:0 11:0 12:0.041 13:0 14:0.02 15:0.061 16:0.061 17:0.041 18:0.082 19:0.122 20:0 
-768 1:0.3 2:0.6 3:0.543 4:0.061 5:0.102 6:0.02 7:0.184 8:0.061 9:0.02 10:0.02 11:0.082 12:0.041 13:0 14:0.02 15:0.061 16:0.204 17:0.061 18:0.061 19:0 20:0 
-768 1:0.3 2:0.6 3:0.543 4:0.163 5:0.102 6:0.102 7:0.02 8:0.041 9:0.041 10:0 11:0.082 12:0.082 13:0 14:0 15:0.041 16:0.102 17:0.041 18:0 19:0.184 20:0 
768 1:0.3 2:0.6 3:0.543 4:0.122 5:0.061 6:0.102 7:0.082 8:0.122 9:0.02 10:0 11:0.041 12:0.061 13:0 14:0 15:0.061 16:0.082 17:0.102 18:0 19:0.143 20:0 
99.66642805504834 1:0.3 2:0.6 3:0.543 4:0.265 5:0.102 6:0 7:0 8:0.041 9:0 10:0.041 11:0.102 12:0.041 13:0.02 14:0.02 15:0.041 16:0.041 17:0.061 18:0.061 19:0.163 20:0 
493.5148833606848 1:0.3 2:0.6 3:0.543 4:0.224 5:0 6:0 7:0.163 8:0.122 9:0.061 10:0 11:0 12:0 13:0.041 14:0.02 15:0.061 16:0.041 17:0.082 18:0.082 19:0.102 20:0 
768 1:0.3 2:0.6 3:0.543 4:0.061 5:0.061 6:0.102 7:0.143 8:0.02 9:0.041 10:0 11:0.122 12:0.082 13:0.02 14:0 15:0.02 16:0.224 17:0.061 18:0 19:0.041 20:0 
768 1:0.3 2:0.6 3:0.543 4:0.224 5:0.02 6:0.102 7:0.041 8:0.02 9:0.061 10:0.02 11:0.061 12:0.102 13:0 14:0 15:0.02 16:0.041 17:0.102 18:0 19:0.184 20:0 
768 1:0.3 2:0.6 3:0.543 4:0.163 5:0.122 6:0.02 7:0.082 8:0.061 9:0.061 10:0.02 11:0.041 12:0.082 13:0 14:0.02 15:0 16:0.082 17:0 18:0.041 19:0.204 20:0 
768 1:0.3 2:0.6 3:0.543 4:0.224 5:0 6:0.041 7:0.102 8:0.041 9:0.082 10:0.02 11:0.041 12:0 13:0.02 14:0.02 15:0.082 16:0.122 17:0.082 18:0.041 19:0.082 20:0 
