int test=1;
char* default_decision_model_string=
"svm_type c_svc\n"
"kernel_type rbf\n"
"gamma 2\n"
"nr_class 2\n"
"total_sv 948\n"
"rho 0.51031\n"
"label 1 -1\n"
"probA -2.03998\n"
"probB -0.134426\n"
"nr_sv 476 472\n"
"SV\n"
"32 1:-0.042333 2:0.219512 3:0.519492 4:-0.5 \n"
"32 1:0.24365 2:0.333333 3:0.465678 4:-0.5 \n"
"32 1:0.014111 2:0.300813 3:0.436441 4:-0.5 \n"
"32 1:0.0837253 2:0.219512 3:0.284746 4:-0.5 \n"
"32 1:0.24365 2:0.528455 3:0.883475 4:-0.5 \n"
"32 1:0.168391 2:0.447154 3:0.747881 4:-0.5 \n"
"32 1:0.318909 2:0.479675 3:0.416102 4:-0.5 \n"
"32 1:0.292568 2:0.414634 3:0.463136 4:-0.5 \n"
"32 1:0.21731 2:0.235772 3:0.338559 4:-0.5 \n"
"32 1:0.234243 2:0.495935 3:0.3 4:-0.5 \n"
"32 1:0.273754 2:0.642276 3:0.961017 4:-1 \n"
"32 1:0.269991 2:0.577236 3:0.61822 4:-1 \n"
"32 1:0.228598 2:0.268293 3:0.61822 4:-1 \n"
"32 1:0.288805 2:0.528455 3:0.389407 4:-1 \n"
"32 1:0.181562 2:0.333333 3:0.227966 4:-1 \n"
"32 1:0.209784 2:0.544715 3:0.902966 4:-1 \n"
"32 1:0.170273 2:0.463415 3:0.773305 4:-1 \n"
"32 1:0.271872 2:0.349593 3:0.615678 4:-1 \n"
"32 1:0.236124 2:0.609756 3:0.732627 4:-1 \n"
"32 1:0.328316 2:0.512195 3:0.217373 4:-1 \n"
"32 1:0.196613 2:0.349593 3:0.0902542 4:-1 \n"
"32 1:0.279398 2:0.658537 3:0.548305 4:-1 \n"
"32 1:0.269991 2:0.512195 3:0.264407 4:-1 \n"
"32 1:0.313264 2:0.642276 3:0.952966 4:-1 \n"
"32 1:0.0630292 2:0.414634 3:0.458051 4:-0.5 \n"
"32 1:0.00470367 2:0.349593 3:0.520763 4:-0.5 \n"
"32 1:0.125118 2:0.414634 3:0.381356 4:-0.5 \n"
"32 1:0.275635 2:0.577236 3:0.713559 4:-0.5 \n"
"32 1:0.317027 2:0.430894 3:0.732627 4:-0.5 \n"
"32 1:0.0103481 2:0.284553 3:0.483475 4:-0.5 \n"
"32 1:0.315146 2:0.642276 3:0.503814 4:0.5 \n"
"32 1:0.283161 2:0.333333 3:0.595339 4:0.5 \n"
"26.27551716679005 1:-0.0536218 2:0.317073 3:0.471186 4:1 \n"
"25.53905733151455 1:0.431797 2:0.495935 3:-0.638983 4:-1 \n"
"32 1:0.330198 2:0.447154 3:0.0978814 4:-1 \n"
"32 1:0.286924 2:0.495935 3:0.8 4:-1 \n"
"32 1:0.232361 2:0.186992 3:-0.139831 4:-1 \n"
"32 1:0.341486 2:0.626016 3:0.763559 4:-1 \n"
"32 1:0.467545 2:0.723577 3:0.434746 4:-1 \n"
"32 1:0.416745 2:0.463415 3:-0.295763 4:-1 \n"
"32 1:0.426152 2:0.414634 3:-0.332627 4:-1 \n"
"32 1:0.420508 2:0.00813008 3:-0.345339 4:-1 \n"
"32 1:0.452493 2:0.414634 3:-0.34661 4:-1 \n"
"32 1:0.221072 2:0.577236 3:0.810593 4:-1 \n"
"32 1:0.337723 2:0.626016 3:0.556356 4:-1 \n"
"32 1:0.330198 2:0.593496 3:0.769915 4:-1 \n"
"32 1:0.202258 2:0.626016 3:0.913136 4:-1 \n"
"16.95331130924231 1:0.367827 2:0.674797 3:0.248729 4:-1 \n"
"32 1:0.318909 2:0.560976 3:0.475 4:-1 \n"
"32 1:0.290687 2:0.528455 3:0.379237 4:-0.5 \n"
"32 1:0.253057 2:0.284553 3:0.208475 4:-0.5 \n"
"32 1:0.341486 2:0.268293 3:-0.397458 4:-0.5 \n"
"32 1:0.416745 2:0.252033 3:-0.42161 4:-0.5 \n"
"25.080882006499 1:0.365945 2:0.414634 3:-0.226271 4:-0.5 \n"
"1.860947433134876 1:0.328316 2:0.203252 3:-0.604237 4:-0.5 \n"
"32 1:0.450611 2:0.544715 3:0.142373 4:-0.5 \n"
"32 1:0.209784 2:0.0406504 3:-0.186864 4:-0.5 \n"
"13.84899232194535 1:0.207902 2:0.512195 3:0.345763 4:-0.5 \n"
"32 1:0.185325 2:0.560976 3:0.714831 4:-0.5 \n"
"32 1:0.17968 2:0.593496 3:0.644492 4:-0.5 \n"
"32 1:0.249294 2:0.219512 3:-0.102119 4:-0.5 \n"
"0.509872130486129 1:-0.857008 2:0.512195 3:0.249576 4:-0.5 \n"
"32 1:0.108184 2:0.495935 3:0.841102 4:-0.5 \n"
"32 1:0.0818438 2:0.495935 3:0.734322 4:-0.5 \n"
"32 1:0.452493 2:0.479675 3:0.232627 4:-0.5 \n"
"32 1:0.396049 2:0.495935 3:0.582627 4:-0.5 \n"
"32 1:0.412982 2:0.463415 3:0.194492 4:-0.5 \n"
"32 1:0.444967 2:0.560976 3:0.258051 4:-0.5 \n"
"32 1:0.309501 2:0.479675 3:0.432627 4:-0.5 \n"
"32 1:0.520226 2:0.577236 3:0.862712 4:-0.5 \n"
"32 1:0.311383 2:0.0243902 3:-0.226271 \n"
"4.173853245613818 1:0.382879 2:0.382114 3:-0.363136 \n"
"32 1:0.411101 2:0.252033 3:-0.526271 \n"
"0.3393867000320326 1:0.245532 2:0.447154 3:-0.000847458 \n"
"32 1:0.264346 2:0.186992 3:-0.0211864 \n"
"32 1:0.15334 2:0.284553 3:0.176271 \n"
"32 1:0.209784 2:0.479675 3:0.165678 \n"
"32 1:0.281279 2:0.186992 3:0.210169 \n"
"32 1:0.175917 2:0.479675 3:0.825847 \n"
"32 1:0.426152 2:0.512195 3:0.325424 \n"
"32 1:0.245532 2:0.154472 3:-0.532203 4:0.5 \n"
"32 1:0.399812 2:0.0894309 3:-0.430932 4:0.5 \n"
"32 1:0.315146 2:0.219512 3:-0.0868644 4:0.5 \n"
"32 1:0.251176 2:0.300813 3:0.0279661 4:0.5 \n"
"32 1:0.164628 2:0.268293 3:0.104661 4:0.5 \n"
"22.51691236145208 1:0.399812 2:0.756098 3:0.0872881 4:0.5 \n"
"32 1:0.403575 2:0.430894 3:0.0101695 4:0.5 \n"
"32 1:0.341486 2:0.382114 3:-0.0114407 4:0.5 \n"
"32 1:0.437441 2:0.463415 3:0.00423729 4:0.5 \n"
"32 1:0.345249 2:0.349593 3:-0.22161 4:1 \n"
"32 1:0.452493 2:0.463415 3:-0.360169 4:1 \n"
"32 1:0.273754 2:0.642276 3:-0.652542 4:1 \n"
"32 1:0.335842 2:0.284553 3:-0.414407 4:1 \n"
"32 1:0.262465 2:0.0569106 3:-0.635593 4:1 \n"
"32 1:0.317027 2:0.0894309 3:-0.418644 4:1 \n"
"32 1:0.296331 2:0.170732 3:-0.376271 4:1 \n"
"32 1:0.271872 2:0.138211 3:-0.382203 4:1 \n"
"20.08922188034222 1:0.238006 2:0.479675 3:-0.558475 4:1 \n"
"12.65628897843912 1:0.313264 2:0.268293 3:-0.29661 4:1 \n"
"32 1:0.249294 2:0.495935 3:0.0419492 4:1 \n"
"0.3967898391959849 1:0.126999 2:0.463415 3:0.264831 4:1 \n"
"18.02579225539043 1:0.202258 2:0.430894 3:0.0855932 4:1 \n"
"32 1:0.158984 2:0.414634 3:0.20678 4:1 \n"
"10.88267378424164 1:0.228598 2:0.756098 3:0.240254 4:1 \n"
"3.277699663207205 1:0.213547 2:0.739837 3:0.133475 4:1 \n"
"32 1:0.100659 2:0.0894309 3:0.294915 4:-1 \n"
"32 1:0.16651 2:0.219512 3:0.134746 4:-1 \n"
"32 1:0.174036 2:0.0894309 3:-0.322881 4:-1 \n"
"32 1:0.213547 2:0.121951 3:-0.311441 4:-1 \n"
"32 1:0.239887 2:0.00813008 3:-0.123305 4:-1 \n"
"32 1:0.19285 2:0.0243902 3:0.186017 4:-1 \n"
"32 1:0.236124 2:0.235772 3:0.640254 4:-1 \n"
"32 1:0.147695 2:0.284553 3:0.602119 4:-1 \n"
"32 1:0.251176 2:0.219512 3:0.602119 4:-1 \n"
"32 1:0.130762 2:0.300813 3:0.433475 4:-1 \n"
"32 1:0.224835 2:0.235772 3:0.636864 4:-1 \n"
"32 1:0.480715 2:0.593496 3:0.986017 4:-1 \n"
"2.132764660145491 1:-0.0253998 2:0.463415 3:0.982627 4:-1 \n"
"32 1:0.268109 2:0.219512 3:-0.0525424 4:-0.5 \n"
"32 1:0.258702 2:-0.170732 3:-0.259322 4:-0.5 \n"
"32 1:0.0329257 2:-0.300813 3:-0.361441 4:-0.5 \n"
"32 1:0.23048 2:-0.268293 3:-0.511017 4:-0.5 \n"
"32 1:0.221072 2:-0.154472 3:-0.580085 4:-0.5 \n"
"32 1:0.296331 2:-0.0406504 3:-0.167373 4:-0.5 \n"
"32 1:0.100659 2:0.300813 3:0.628814 4:-0.5 \n"
"32 1:0.111947 2:0.333333 3:0.513983 4:-0.5 \n"
"32 1:0.177799 2:0.0243902 3:0.12839 4:-0.5 \n"
"32 1:0.046096 2:0.0569106 3:0.291949 4:-0.5 \n"
"32 1:0.157103 2:0.333333 3:0.479237 4:-0.5 \n"
"32 1:0.168391 2:0.333333 3:0.467797 4:-0.5 \n"
"32 1:0.226717 2:0.300813 3:0.616949 4:-0.5 \n"
"32 1:0.042333 2:0.365854 3:0.467797 4:-0.5 \n"
"32 1:0.10254 2:-0.252033 3:-0.338136 \n"
"32 1:0.0780809 2:-0.105691 3:0.0355932 \n"
"32 1:0.187206 2:-0.203252 3:-0.24661 \n"
"32 1:0.136406 2:-0.154472 3:-0.311017 \n"
"32 1:0.138288 2:-0.284553 3:-0.40678 \n"
"32 1:0.207902 2:-0.268293 3:-0.365254 \n"
"32 1:0.170273 2:-0.235772 3:-0.187288 \n"
"32 1:0.15334 2:-0.252033 3:-0.192373 \n"
"32 1:0.0555033 2:-0.121951 3:0.0881356 \n"
"32 1:0.100659 2:0.0731707 3:0.202542 \n"
"31.37546538912934 1:0.126999 2:0.414634 3:0.616949 \n"
"32 1:0.142051 2:0.00813008 3:0.299576 \n"
"32 1:0.136406 2:0.414634 3:0.548305 \n"
"32 1:0.0912512 2:0.0243902 3:0.225424 \n"
"32 1:0.142051 2:-0.186992 3:-0.102119 4:0.5 \n"
"32 1:0.140169 2:-0.317073 3:-0.0601695 4:0.5 \n"
"32 1:0.0649106 2:-0.121951 3:0.20678 4:0.5 \n"
"4.264421247084002 1:0.111947 2:-0.284553 3:-0.179661 4:0.5 \n"
"32 1:0.098777 2:-0.577236 3:-0.318644 4:0.5 \n"
"32 1:0.0931326 2:0.0406504 3:0.23178 4:0.5 \n"
"32 1:0.160865 2:-0.138211 3:-0.1 4:1 \n"
"32 1:0.183443 2:-0.317073 3:-0.335169 4:1 \n"
"32 1:0.128881 2:-0.398374 3:-0.143644 4:1 \n"
"32 1:0.200376 2:-0.365854 3:-0.332627 4:1 \n"
"26.25550861638542 1:0.130762 2:-0.317073 3:-0.547034 4:1 \n"
"32 1:0.113829 2:-0.170732 3:-0.0737288 4:1 \n"
"32 1:0.119473 2:-0.0731707 3:0.175 4:1 \n"
"32 1:0.15334 2:-0.235772 3:0.0220339 4:1 \n"
"32 1:0.200376 2:-0.0731707 3:0.0792373 4:1 \n"
"32 1:0.143932 2:-0.138211 3:-0.0237288 4:1 \n"
"23.37705108199281 1:-0.125118 2:0.284553 3:0.62839 4:1 \n"
"32 1:-0.19285 2:0.235772 3:0.524576 4:1 \n"
"15.12415567887176 1:-0.187206 2:0.252033 3:0.573305 4:1 \n"
"32 1:0.0912512 2:-0.0569106 3:-0.167373 4:-1 \n"
"32 1:0.155221 2:0.447154 3:0.380508 4:-1 \n"
"32 1:0.39793 2:0.349593 3:0.57161 4:-1 \n"
"32 1:0.290687 2:0.593496 3:0.991102 4:-1 \n"
"32 1:0.44873 2:0.365854 3:0.597881 4:-1 \n"
"32 1:0.254939 2:0.382114 3:-0.0338983 4:-1 \n"
"32 1:0.369708 2:0.528455 3:0.940678 4:-1 \n"
"32 1:0.0197554 2:-0.0894309 3:0.159746 4:-0.5 \n"
"32 1:0.379116 2:0.317073 3:0.715254 4:-0.5 \n"
"32 1:0.213547 2:0.365854 3:0.192797 \n"
"32 1:0.0498589 2:0.0243902 3:0.292373 \n"
"12.64407700848639 1:0.0893697 2:0.0731707 3:0.175847 \n"
"32 1:0.074318 2:-0.0243902 3:0.112288 \n"
"32 1:0.000940734 2:-0.00813008 3:0.320763 4:0.5 \n"
"3.678382238941999 1:-0.0667921 2:-0.609756 3:-0.649576 4:1 \n"
"32 1:0.130762 2:0.414634 3:0.484322 4:-1 \n"
"32 1:0.202258 2:0.121951 3:-0.36822 4:-1 \n"
"32 1:0.138288 2:0.382114 3:0.211017 4:-1 \n"
"32 1:0.15334 2:0.170732 3:-0.0207627 4:-1 \n"
"32 1:0.100659 2:0.512195 3:0.806356 4:-1 \n"
"32 1:0.194732 2:0.219512 3:-0.248305 4:-1 \n"
"5.946116093467023 1:0.241769 2:0.284553 3:-0.347881 4:-1 \n"
"32 1:0.215428 2:0.186992 3:-0.225 4:-1 \n"
"23.91870448285684 1:0.0724365 2:-0.00813008 3:-0.131356 4:-1 \n"
"32 1:0.232361 2:0.235772 3:-0.177542 4:-1 \n"
"32 1:0.140169 2:0.235772 3:-0.00169492 4:-1 \n"
"32 1:0.25682 2:0.626016 3:0.920339 4:-1 \n"
"32 1:0.0837253 2:-0.00813008 3:-0.131356 4:-1 \n"
"32 1:0.23048 2:0.626016 3:0.940254 4:-1 \n"
"32 1:0.253057 2:0.609756 3:0.979661 4:-1 \n"
"32 1:0.207902 2:0.642276 3:0.88178 4:-1 \n"
"32 1:0.232361 2:0.642276 3:0.901271 4:-1 \n"
"32 1:0.183443 2:0.642276 3:0.999576 4:-1 \n"
"32 1:0.207902 2:0.609756 3:0.880932 4:-1 \n"
"32 1:0.121355 2:0.00813008 3:-0.131356 4:-1 \n"
"32 1:0.247413 2:0.560976 3:0.993644 4:-1 \n"
"32 1:0.211665 2:0.512195 3:0.649153 4:-1 \n"
"32 1:0.254939 2:0.528455 3:0.623305 4:-1 \n"
"32 1:0.226717 2:0.512195 3:0.661864 4:-1 \n"
"32 1:0.213547 2:0.512195 3:0.622034 4:-1 \n"
"32 1:0.236124 2:0.479675 3:0.487712 4:-1 \n"
"32 1:0.269991 2:0.544715 3:0.917373 4:-1 \n"
"32 1:0.209784 2:0.626016 3:0.993644 4:-1 \n"
"32 1:0.236124 2:0.577236 3:0.993644 4:-1 \n"
"32 1:0.222954 2:0.512195 3:0.647881 4:-1 \n"
"32 1:0.249294 2:0.512195 3:0.713559 4:-1 \n"
"32 1:0.207902 2:0.186992 3:0.0330508 4:-0.5 \n"
"32 1:0.108184 2:0.121951 3:0.209322 4:-0.5 \n"
"32 1:0.204139 2:0.268293 3:0.11822 4:-0.5 \n"
"32 1:0.232361 2:0.235772 3:0.134322 4:-0.5 \n"
"32 1:0.15334 2:0.252033 3:0.275 4:-0.5 \n"
"32 1:0.140169 2:0.105691 3:0.0779661 4:-0.5 \n"
"32 1:0.142051 2:0.0406504 3:0.00550847 4:-0.5 \n"
"8.93018678574766 1:0.0667921 2:0.414634 3:0.442797 4:-0.5 \n"
"32 1:0.16651 2:0.252033 3:0.114831 4:-0.5 \n"
"32 1:0.245532 2:0.284553 3:0.189831 4:-0.5 \n"
"12.5446547283194 1:0.175917 2:0.317073 3:0.112288 4:-0.5 \n"
"32 1:0.19285 2:0.560976 3:0.775847 4:-0.5 \n"
"32 1:0.247413 2:0.284553 3:0.157203 4:-0.5 \n"
"32 1:0.215428 2:0.268293 3:0.148305 4:-0.5 \n"
"32 1:0.202258 2:0.479675 3:0.74661 4:-0.5 \n"
"32 1:0.221072 2:0.463415 3:0.687712 4:-0.5 \n"
"32 1:0.215428 2:0.528455 3:0.934322 4:-0.5 \n"
"32 1:0.213547 2:0.495935 3:0.776695 4:-0.5 \n"
"32 1:0.222954 2:0.528455 3:0.925847 4:-0.5 \n"
"32 1:0.260583 2:0.479675 3:0.705085 4:-0.5 \n"
"32 1:0.209784 2:0.463415 3:0.763983 4:-0.5 \n"
"32 1:0.224835 2:0.447154 3:0.696186 4:-0.5 \n"
"32 1:0.224835 2:0.447154 3:0.679237 4:-0.5 \n"
"32 1:0.213547 2:0.479675 3:0.750847 4:-0.5 \n"
"32 1:0.126999 2:0.235772 3:0.254661 \n"
"32 1:0.200376 2:-0.00813008 3:-0.235593 \n"
"32 1:0.128881 2:-0.0731707 3:-0.0224576 \n"
"32 1:0.194732 2:0.170732 3:-0.0258475 \n"
"32 1:0.224835 2:0.333333 3:0.351271 \n"
"32 1:0.174036 2:0.154472 3:-0.0783898 \n"
"32 1:0.181562 2:0.333333 3:0.201695 \n"
"20.73691005021892 1:0.0874882 2:-0.121951 3:-0.0894068 \n"
"32 1:0.189087 2:0.382114 3:0.127966 \n"
"32 1:0.164628 2:0.170732 3:0.0211864 \n"
"32 1:0.123236 2:0.284553 3:0.29661 \n"
"32 1:0.207902 2:0.300813 3:0.311441 \n"
"32 1:0.142051 2:-0.00813008 3:0.125847 \n"
"32 1:0.241769 2:0.495935 3:0.759322 \n"
"32 1:0.232361 2:0.479675 3:0.708898 \n"
"32 1:0.236124 2:0.544715 3:0.95339 \n"
"32 1:0.215428 2:0.463415 3:0.777119 \n"
"32 1:0.215428 2:0.577236 3:1 \n"
"32 1:0.221072 2:0.447154 3:0.772881 \n"
"32 1:0.211665 2:0.495935 3:0.755085 \n"
"32 1:0.234243 2:0.495935 3:0.755085 \n"
"32 1:0.232361 2:0.495935 3:0.810593 \n"
"32 1:0.21731 2:0.463415 3:0.763983 \n"
"25.50375778895891 1:0.126999 2:0.154472 3:0.119492 4:0.5 \n"
"32 1:0.128881 2:0.00813008 3:0.110169 4:0.5 \n"
"32 1:0.15334 2:-0.0243902 3:0.0194915 4:0.5 \n"
"32 1:0.15334 2:0.349593 3:0.444068 4:0.5 \n"
"32 1:0.190969 2:0.0731707 3:-0.0368644 4:0.5 \n"
"32 1:0.162747 2:0.0731707 3:0.070339 4:0.5 \n"
"32 1:0.187206 2:0.203252 3:0.109746 4:0.5 \n"
"32 1:0.11571 2:0.284553 3:0.394068 4:0.5 \n"
"32 1:0.158984 2:0.317073 3:0.386017 4:0.5 \n"
"32 1:0.23048 2:0.186992 3:0.212712 4:0.5 \n"
"32 1:0.125118 2:0.284553 3:0.366949 4:0.5 \n"
"32 1:0.160865 2:0.170732 3:0.0940678 4:0.5 \n"
"32 1:0.16651 2:0.252033 3:0.142797 4:0.5 \n"
"32 1:0.147695 2:0.0243902 3:-0.00720339 4:0.5 \n"
"8.782330003097782 1:0.108184 2:0.186992 3:0.197034 4:0.5 \n"
"32 1:0.17968 2:0.268293 3:0.372458 4:0.5 \n"
"32 1:0.204139 2:0.219512 3:0.184322 4:0.5 \n"
"32 1:0.222954 2:0.528455 3:0.960593 4:0.5 \n"
"32 1:0.228598 2:0.463415 3:0.784322 4:0.5 \n"
"32 1:0.213547 2:0.447154 3:0.78178 4:0.5 \n"
"19.1400352660589 1:0.222954 2:0.512195 3:0.84661 4:0.5 \n"
"32 1:0.236124 2:0.479675 3:0.808898 4:0.5 \n"
"32 1:0.226717 2:0.512195 3:0.85678 4:0.5 \n"
"32 1:0.228598 2:0.463415 3:0.78178 4:0.5 \n"
"32 1:0.219191 2:0.430894 3:0.738559 4:0.5 \n"
"32 1:0.226717 2:0.512195 3:0.862288 4:0.5 \n"
"16.35277527307097 1:0.213547 2:0.463415 3:0.786864 4:0.5 \n"
"32 1:0.238006 2:0.463415 3:0.746186 4:0.5 \n"
"32 1:0.224835 2:0.528455 3:0.960593 4:0.5 \n"
"32 1:0.239887 2:0.479675 3:0.819068 4:0.5 \n"
"32 1:0.241769 2:0.447154 3:0.741102 4:0.5 \n"
"32 1:0.207902 2:0.447154 3:0.784322 4:0.5 \n"
"32 1:0.226717 2:0.447154 3:0.779237 4:0.5 \n"
"32 1:0.108184 2:0.0894309 3:0.185169 4:1 \n"
"10.61555880063905 1:-0.0272813 2:0.186992 3:0.261017 4:1 \n"
"32 1:0.136406 2:0.349593 3:0.463136 4:1 \n"
"32 1:0.15334 2:-0.0731707 3:-0.0805085 4:1 \n"
"32 1:0.194732 2:0.0731707 3:0.286441 4:1 \n"
"16.02834539532648 1:0.138288 2:0.203252 3:0.148729 4:1 \n"
"32 1:0.108184 2:-0.105691 3:0.0648305 4:1 \n"
"32 1:0.164628 2:0.317073 3:0.3 4:1 \n"
"32 1:0.211665 2:0.00813008 3:0.0436441 4:1 \n"
"32 1:0.128881 2:-0.203252 3:0.112712 4:1 \n"
"32 1:0.215428 2:-0.0243902 3:-0.120339 4:1 \n"
"32 1:0.0893697 2:-0.121951 3:0.0639831 4:1 \n"
"32 1:0.23048 2:0.479675 3:0.847458 4:1 \n"
"32 1:0.236124 2:0.463415 3:0.772458 4:1 \n"
"32 1:0.219191 2:0.447154 3:0.775 4:1 \n"
"32 1:0.207902 2:0.463415 3:0.808898 4:1 \n"
"32 1:0.226717 2:0.479675 3:0.838983 4:1 \n"
"32 1:0.10254 2:0.219512 3:0.469915 4:-1 \n"
"32 1:0.168391 2:0.414634 3:0.469915 4:-1 \n"
"32 1:0.098777 2:0.495935 3:0.783475 4:-1 \n"
"32 1:0.106303 2:0.203252 3:0.391525 4:-1 \n"
"16.97843230647026 1:-0.123236 2:0.447154 3:-0.818644 \n"
"27.05851873855117 1:-0.11571 2:0.495935 3:-0.674153 4:0.5 \n"
"4.895849042397789 1:-0.125118 2:0.414634 3:-0.585593 4:1 \n"
"2.39686872804762 1:-0.25682 2:0.479675 3:-0.487288 4:1 \n"
"0.5580666848313384 1:-0.422389 2:0.333333 3:0.666102 4:-0.5 \n"
"32 1:0.258702 2:0.186992 3:0.40678 4:-0.5 \n"
"32 1:0.433678 2:0.317073 3:0.508051 4:-0.5 \n"
"32 1:0.377234 2:0.0894309 3:0.253814 4:-0.5 \n"
"32 1:0.347131 2:0.105691 3:0.389831 4:-0.5 \n"
"32 1:0.251176 2:0.121951 3:0.332627 4:-0.5 \n"
"32 1:0.409219 2:0.609756 3:0.940254 4:-0.5 \n"
"32 1:0.275635 2:0.121951 3:0.352542 4:-0.5 \n"
"32 1:0.32079 2:0.0406504 3:0.244068 4:-0.5 \n"
"32 1:0.349012 2:0.121951 3:0.277119 4:-0.5 \n"
"32 1:0.262465 2:0.154472 3:0.352542 4:-0.5 \n"
"32 1:0.30762 2:0.170732 3:0.386864 4:-0.5 \n"
"32 1:0.303857 2:0.252033 3:0.635593 4:-0.5 \n"
"32 1:0.245532 2:0.170732 3:0.386864 4:-0.5 \n"
"32 1:0.347131 2:0.0569106 3:0.263983 4:-0.5 \n"
"32 1:0.332079 2:0.00813008 3:0.263983 4:-0.5 \n"
"32 1:0.303857 2:0.154472 3:0.357203 4:-0.5 \n"
"32 1:0.360301 2:0.154472 3:0.409322 4:-0.5 \n"
"32 1:0.277516 2:0.154472 3:0.337712 4:-0.5 \n"
"32 1:0.422389 2:0.300813 3:0.488136 4:-0.5 \n"
"32 1:0.275635 2:0.300813 3:0.622881 4:-0.5 \n"
"32 1:0.352775 2:0.0569106 3:0.234322 4:-0.5 \n"
"32 1:0.271872 2:0.252033 3:0.635593 4:-0.5 \n"
"32 1:0.373471 2:0.138211 3:0.29661 4:-0.5 \n"
"32 1:0.288805 2:0.186992 3:0.357203 4:-0.5 \n"
"32 1:0.364064 2:0.0406504 3:0.253814 4:-0.5 \n"
"32 1:0.332079 2:0.138211 3:0.40678 4:-0.5 \n"
"32 1:0.32079 2:0.154472 3:0.386864 4:-0.5 \n"
"32 1:0.202258 2:0.560976 3:0.918644 4:-0.5 \n"
"32 1:0.271872 2:0.154472 3:0.40678 4:-0.5 \n"
"32 1:0.409219 2:0.317073 3:0.488136 4:-0.5 \n"
"32 1:0.352775 2:0.138211 3:0.327542 4:-0.5 \n"
"32 1:0.339605 2:0.154472 3:0.327542 4:-0.5 \n"
"32 1:0.360301 2:0.105691 3:0.29661 4:-0.5 \n"
"32 1:0.364064 2:0.138211 3:0.347458 4:-0.5 \n"
"32 1:0.33396 2:0.121951 3:0.389831 4:-0.5 \n"
"32 1:0.29445 2:0.105691 3:0.130085 4:-1 \n"
"32 1:0.335842 2:0.252033 3:0.49322 4:-1 \n"
"32 1:0.322672 2:0.105691 3:0.0411017 4:-1 \n"
"32 1:0.343368 2:0.365854 3:0.518644 4:-1 \n"
"32 1:0.296331 2:0.284553 3:0.460169 4:-1 \n"
"32 1:0.428034 2:0.609756 3:0.959746 4:-1 \n"
"32 1:0.315146 2:0.121951 3:0.136441 4:-1 \n"
"32 1:0.388523 2:0.626016 3:0.930085 4:-1 \n"
"32 1:0.190969 2:0.609756 3:0.897881 4:-1 \n"
"32 1:0.273754 2:0.0894309 3:0.130085 4:-1 \n"
"32 1:0.411101 2:0.284553 3:0.253814 4:-1 \n"
"32 1:0.23048 2:0.577236 3:0.898729 4:-1 \n"
"32 1:0.409219 2:0.609756 3:0.930085 4:-1 \n"
"32 1:0.343368 2:0.138211 3:0.0411017 4:-1 \n"
"32 1:0.305738 2:0.138211 3:0.0114407 4:-1 \n"
"32 1:0.335842 2:0.138211 3:0.136441 4:-1 \n"
"32 1:0.44873 2:0.300813 3:0.283475 4:-1 \n"
"32 1:0.183443 2:0.593496 3:0.958898 4:-1 \n"
"32 1:0.25682 2:0.105691 3:0.100424 4:-1 \n"
"32 1:0.298213 2:0.138211 3:0.10678 4:-1 \n"
"32 1:0.428034 2:0.333333 3:0.283475 4:-1 \n"
"1.679527305935055 1:-1 2:0.691057 3:-0.146186 4:-1 \n"
"32 1:0.330198 2:0.0731707 3:0.387288 \n"
"32 1:0.290687 2:0.0731707 3:0.35 \n"
"32 1:0.253057 2:0.268293 3:0.508051 \n"
"32 1:0.328316 2:0.105691 3:0.368644 \n"
"32 1:0.300094 2:0.0731707 3:0.35 \n"
"32 1:0.305738 2:0.105691 3:0.408051 \n"
"32 1:0.373471 2:0.154472 3:0.358475 \n"
"32 1:0.365945 2:0.0731707 3:0.311864 \n"
"32 1:0.418627 2:0.365854 3:0.605508 \n"
"32 1:0.32079 2:0.121951 3:0.353814 \n"
"32 1:0.362183 2:0.154472 3:0.358475 \n"
"32 1:0.315146 2:0.105691 3:0.401695 \n"
"32 1:0.343368 2:0.0569106 3:0.33178 \n"
"32 1:0.300094 2:0.0731707 3:0.353814 \n"
"32 1:0.296331 2:0.0731707 3:0.387288 \n"
"32 1:0.362183 2:0.186992 3:0.53178 \n"
"32 1:0.377234 2:0.0731707 3:0.311864 \n"
"32 1:0.32079 2:0.0894309 3:0.372458 \n"
"32 1:0.296331 2:0.105691 3:0.39322 \n"
"32 1:0.305738 2:0.0731707 3:0.401695 \n"
"32 1:0.262465 2:0.268293 3:0.702542 \n"
"32 1:0.339605 2:0.105691 3:0.387288 \n"
"32 1:0.309501 2:0.0731707 3:0.368644 \n"
"32 1:0.38476 2:0.0731707 3:0.326695 \n"
"32 1:0.362183 2:0.0569106 3:0.34661 \n"
"32 1:0.309501 2:0.0569106 3:0.364831 \n"
"32 1:0.24365 2:0.252033 3:0.49322 \n"
"32 1:0.309501 2:0.121951 3:0.353814 \n"
"32 1:0.352775 2:0.0406504 3:0.33178 \n"
"32 1:0.286924 2:0.121951 3:0.39322 \n"
"32 1:0.318909 2:0.105691 3:0.368644 \n"
"32 1:0.341486 2:0.219512 3:0.530085 \n"
"32 1:0.262465 2:0.252033 3:0.508051 \n"
"32 1:0.365945 2:0.219512 3:0.485593 \n"
"32 1:0.380997 2:0.170732 3:0.373305 \n"
"32 1:0.285042 2:0.105691 3:0.461441 4:0.5 \n"
"32 1:0.379116 2:0.0894309 3:0.442797 4:0.5 \n"
"32 1:0.335842 2:0.00813008 3:0.351695 4:0.5 \n"
"32 1:0.364064 2:0.0569106 3:0.420339 4:0.5 \n"
"32 1:0.382879 2:0.121951 3:0.4 4:0.5 \n"
"32 1:0.318909 2:0.0569106 3:0.375424 4:0.5 \n"
"32 1:0.330198 2:0.00813008 3:0.339831 4:0.5 \n"
"32 1:0.345249 2:0.105691 3:0.358051 4:0.5 \n"
"32 1:0.277516 2:0.121951 3:0.419915 4:0.5 \n"
"32 1:0.300094 2:0.138211 3:0.473305 4:0.5 \n"
"4.443777839160745 1:-0.349012 2:0.479675 3:-0.226695 4:1 \n"
"32 1:0.305738 2:0.0731707 3:0.427119 4:1 \n"
"32 1:0.343368 2:0.00813008 3:0.375424 4:1 \n"
"32 1:0.339605 2:0.0894309 3:0.409746 4:1 \n"
"32 1:0.305738 2:-0.00813008 3:0.404661 4:1 \n"
"32 1:0.317027 2:0.0243902 3:0.414407 4:1 \n"
"32 1:0.311383 2:0.0243902 3:0.404661 4:1 \n"
"32 1:0.356538 2:0.121951 3:0.391949 4:1 \n"
"4.953521034207306 1:-0.691439 2:0.528455 3:0.604661 4:-0.5 \n"
"8.869296451081881 1:-0.471308 2:0.544715 3:-0.0673729 4:1 \n"
"6.261184640878283 1:0.0968956 2:0.577236 3:0.908051 \n"
"1.813071827891246 1:-0.606773 2:0.593496 3:0.825847 \n"
"26.08515958108687 1:0.145814 2:0.252033 3:0.0720339 \n"
"5.344354361005339 1:-0.268109 2:0.235772 3:-0.57161 4:1 \n"
"32 1:0.17968 2:-0.235772 3:-0.692797 \n"
"5.820375599108722 1:0.10254 2:-0.284553 3:-0.637288 \n"
"32 1:0.149577 2:-0.0731707 3:-0.192373 \n"
"32 1:0.155221 2:-0.0894309 3:-0.224576 \n"
"32 1:0.117592 2:0.0894309 3:0.0817797 \n"
"32 1:0.147695 2:-0.0731707 3:-0.203814 \n"
"32 1:0.143932 2:-0.333333 3:-0.788559 4:0.5 \n"
"23.50048372123185 1:0.19285 2:-0.138211 3:-0.734322 4:0.5 \n"
"32 1:0.21731 2:-0.0243902 3:-0.456356 4:0.5 \n"
"24.42503479484878 1:0.187206 2:-0.203252 3:-0.757627 4:0.5 \n"
"32 1:0.23048 2:0.105691 3:-0.637288 4:-1 \n"
"32 1:0.119473 2:0.560976 3:0.934322 4:-1 \n"
"32 1:0.11571 2:0.577236 3:0.920339 4:-1 \n"
"32 1:0.145814 2:0.577236 3:0.920339 4:-1 \n"
"32 1:0.136406 2:0.593496 3:0.919915 4:-1 \n"
"14.1219833757366 1:0.142051 2:0.609756 3:0.920339 4:-1 \n"
"0.2436965326123432 1:-0.736595 2:0.626016 3:0.948305 4:-1 \n"
"32 1:0.254939 2:0.398374 3:0.0165254 4:-1 \n"
"32 1:0.253057 2:0.447154 3:0.0538136 4:-1 \n"
"32 1:0.074318 2:0.495935 3:0.708051 4:-0.5 \n"
"30.61887607913764 1:0.0799624 2:0.560976 3:0.920339 4:-0.5 \n"
"32 1:0.0761994 2:0.479675 3:0.698729 4:-0.5 \n"
"32 1:0.0912512 2:0.512195 3:0.708051 4:-0.5 \n"
"32 1:0.140169 2:0.333333 3:0.329661 4:-0.5 \n"
"27.23008855510512 1:0.042333 2:-0.105691 3:-0.65678 4:-1 \n"
"16.87812829704667 1:0.211665 2:0.138211 3:-0.713983 4:-1 \n"
"32 1:0.221072 2:0.528455 3:0.798305 4:-1 \n"
"32 1:0.222954 2:0.544715 3:0.660593 4:-1 \n"
"10.95241943355214 1:0.11571 2:0.333333 3:0.227119 4:-1 \n"
"19.65594772548732 1:0.162747 2:-0.0731707 3:-1 4:-1 \n"
"11.14697737193531 1:0.140169 2:0.0243902 3:-0.623305 4:-1 \n"
"32 1:0.298213 2:0.349593 3:0.347034 4:-1 \n"
"32 1:0.236124 2:0.0569106 3:-0.496186 4:-1 \n"
"32 1:0.170273 2:0.121951 3:-0.358051 4:-1 \n"
"32 1:0.232361 2:0.170732 3:-0.138559 4:-0.5 \n"
"17.21953774868212 1:0.0931326 2:-0.365854 3:-0.910593 4:-0.5 \n"
"32 1:0.162747 2:0.349593 3:0.361441 4:-0.5 \n"
"32 1:0.224835 2:-0.0569106 3:-0.285169 4:-0.5 \n"
"32 1:0.174036 2:0.0894309 3:-0.00169492 4:-0.5 \n"
"32 1:0.181562 2:0.0731707 3:-0.0241525 4:-0.5 \n"
"32 1:0.0253998 2:0.235772 3:0.357203 4:-0.5 \n"
"32 1:0.170273 2:0.0894309 3:-0.0199153 4:-0.5 \n"
"27.80422458722173 1:0.0216369 2:0.235772 3:0.352542 4:-0.5 \n"
"-32 1:0.0442145 2:0.219512 3:0.380508 4:-0.5 \n"
"-32 1:0.335842 2:0.219512 3:0.33178 4:-0.5 \n"
"-32 1:0.251176 2:0.512195 3:0.621186 4:-0.5 \n"
"-14.00001696549757 1:0.597366 2:0.0894309 3:0.486864 4:-0.5 \n"
"-32 1:0.262465 2:0.203252 3:0.467797 4:-0.5 \n"
"-32 1:0.17968 2:0.219512 3:0.284746 4:-0.5 \n"
"-32 1:0.136406 2:0.512195 3:0.883475 4:-0.5 \n"
"-32 1:0.232361 2:0.544715 3:0.789831 4:-0.5 \n"
"-32 1:0.222954 2:0.479675 3:0.59322 4:-0.5 \n"
"-32 1:0.251176 2:0.0731707 3:-0.0258475 4:-1 \n"
"-32 1:0.249294 2:0.268293 3:-0.141949 4:-1 \n"
"-32 1:-0.0272813 2:0.252033 3:0.102966 4:-1 \n"
"-32 1:0.046096 2:-0.154472 3:-0.589831 4:-1 \n"
"-32 1:0.138288 2:0.495935 3:0.217373 4:-1 \n"
"-32 1:0.356538 2:0.463415 3:0.217373 4:-1 \n"
"-32 1:0.219191 2:0.414634 3:0.489407 4:-1 \n"
"-32 1:0.160865 2:0.642276 3:0.960169 4:-1 \n"
"-32 1:0.450611 2:0.658537 3:0.44661 4:-1 \n"
"-32 1:0.428034 2:0.674797 3:0.389407 4:-1 \n"
"-32 1:0.0536218 2:0.609756 3:0.786864 4:-1 \n"
"-32 1:0.286924 2:0.512195 3:0.541525 4:-1 \n"
"-32 1:0.437441 2:0.560976 3:0.102966 4:-1 \n"
"-32 1:0.211665 2:0.170732 3:0.218644 4:-1 \n"
"-32 1:0.266228 2:0.154472 3:0.0559322 4:-1 \n"
"-32 1:0.228598 2:0.512195 3:0.960169 4:-1 \n"
"-32 1:0.196613 2:0.382114 3:0.192373 4:-1 \n"
"-32 1:0.245532 2:0.333333 3:0.217373 4:-1 \n"
"-32 1:0.38476 2:0.642276 3:0.960169 4:-1 \n"
"-16.41352647935041 1:0.0366886 2:-0.300813 3:-0.112288 4:-0.5 \n"
"-32 1:0.37159 2:0.382114 3:0.438559 4:-0.5 \n"
"-32 1:0.228598 2:0.0894309 3:-0.0258475 4:-0.5 \n"
"-32 1:0.185325 2:-0.170732 3:-0.322881 4:-0.5 \n"
"-32 1:0.247413 2:0.382114 3:-0.183475 4:-0.5 \n"
"-32 1:0.224835 2:0.0731707 3:0.236441 4:-0.5 \n"
"-32 1:0.0761994 2:0.219512 3:0.160169 4:-0.5 \n"
"-32 1:0.318909 2:0.219512 3:0.167797 4:-0.5 \n"
"-20.49931426082891 1:0.529633 2:0.0569106 3:0.458051 4:-0.5 \n"
"-32 1:0.25682 2:0.0731707 3:0.520763 4:-0.5 \n"
"-32 1:0.164628 2:0.463415 3:0.646186 4:-0.5 \n"
"-32 1:0.324553 2:0.479675 3:0.367373 4:-0.5 \n"
"-32 1:0.43556 2:0.609756 3:0.554661 4:-0.5 \n"
"-32 1:-0.123236 2:0.252033 3:0.391525 4:-0.5 \n"
"-32 1:0.16651 2:0.414634 3:0.713559 4:-0.5 \n"
"-32 1:-0.074318 2:0.479675 3:0.483475 4:-0.5 \n"
"-32 1:0.324553 2:0.268293 3:0.467797 4:-0.5 \n"
"-32 1:0.303857 2:0.154472 3:0.520763 4:-0.5 \n"
"-32 1:0.207902 2:0.512195 3:0.786864 4:-0.5 \n"
"-32 1:0.311383 2:0.528455 3:0.783475 4:-0.5 \n"
"-32 1:0.143932 2:-0.0894309 3:0.214831 4:-0.5 \n"
"-32 1:0.30762 2:0.0894309 3:0.363983 4:-0.5 \n"
"-32 1:0.136406 2:0.00813008 3:0.0322034 \n"
"-32 1:0.239887 2:0.138211 3:0.0775424 \n"
"-32 1:0.283161 2:0.203252 3:-0.233898 \n"
"-32 1:0.305738 2:0.154472 3:0.428814 \n"
"-32 1:0.266228 2:0.170732 3:0.102966 \n"
"-0.1938168160953681 1:0.439323 2:0.0406504 3:0.541525 \n"
"-32 1:0.269991 2:0.0243902 3:0.373729 \n"
"-32 1:0.345249 2:0.186992 3:0.448305 \n"
"-32 1:0.298213 2:0.138211 3:0.00889831 4:0.5 \n"
"-32 1:0.303857 2:0.235772 3:-0.221186 4:0.5 \n"
"-19.27275418169098 1:0.416745 2:0.186992 3:-0.119492 4:0.5 \n"
"-32 1:0.213547 2:0.284553 3:0.0555085 4:0.5 \n"
"-32 1:0.19285 2:0.105691 3:0.270339 4:0.5 \n"
"-32 1:0.386642 2:0.0406504 3:0.442797 4:0.5 \n"
"-4.05061217457619 1:0.57667 2:-0.0569106 3:0.466102 4:0.5 \n"
"-32 1:0.281279 2:0.430894 3:0.659322 4:0.5 \n"
"-24.15788310621505 1:0.21731 2:-0.105691 3:0.430932 4:0.5 \n"
"-22.52381170221427 1:0.239887 2:-0.170732 3:-0.0800847 4:1 \n"
"-32 1:0.0253998 2:-0.333333 3:0.125 4:1 \n"
"-32 1:0.350894 2:0.0569106 3:-0.132203 4:1 \n"
"-32 1:0.187206 2:0.463415 3:-0.233475 4:1 \n"
"-32 1:0.288805 2:0.528455 3:-0.0470339 4:1 \n"
"-11.14565082029778 1:0.458137 2:0.512195 3:0.0190678 4:1 \n"
"-4.378360183878196 1:0.604892 2:-0.121951 3:0.533051 4:1 \n"
"-32 1:-0.251176 2:0.414634 3:0.167797 4:1 \n"
"-32 1:-0.164628 2:0.300813 3:0.471186 4:1 \n"
"-32 1:0.309501 2:0.268293 3:-0.502119 4:-1 \n"
"-32 1:0.268109 2:0.365854 3:0.220339 4:-1 \n"
"-32 1:0.251176 2:0.00813008 3:0.0385593 4:-1 \n"
"-32 1:0.198495 2:0.463415 3:0.663136 4:-1 \n"
"-32 1:0.234243 2:0.626016 3:0.913136 4:-1 \n"
"-32 1:0.19285 2:0.528455 3:0.663136 4:-1 \n"
"-32 1:0.196613 2:0.544715 3:0.698729 4:-1 \n"
"-32 1:0.215428 2:0.609756 3:0.810593 4:-1 \n"
"-32 1:0.183443 2:0.544715 3:0.844068 4:-1 \n"
"-1.806956952885834 1:0.239887 2:-0.186992 3:-0.464407 4:-0.5 \n"
"-32 1:0.0555033 2:0.398374 3:0.644492 4:-0.5 \n"
"-32 1:0.309501 2:0.365854 3:0.458898 4:-0.5 \n"
"-32 1:0.281279 2:0.479675 3:0.710593 4:-0.5 \n"
"-32 1:0.0536218 2:0.560976 3:0.844915 4:-0.5 \n"
"-5.569076302382137 1:0.322672 2:0.560976 3:0.833475 4:-0.5 \n"
"-32 1:0.266228 2:0.414634 3:0.797458 4:-0.5 \n"
"-32 1:0.174036 2:-0.00813008 3:0.249576 4:-0.5 \n"
"-23.89797535551039 1:0.392286 2:0.154472 3:0.433051 4:-0.5 \n"
"-32 1:0.269991 2:0.284553 3:0.411864 4:-0.5 \n"
"-32 1:0.211665 2:0.463415 3:0.680932 4:-0.5 \n"
"-32 1:0.174036 2:0.430894 3:0.551695 \n"
"-32 1:0.311383 2:0.219512 3:0.587288 \n"
"-32 1:0.209784 2:0.284553 3:0.220763 \n"
"-32 1:0.0649106 2:0.447154 3:0.844492 \n"
"-30.31713936549606 1:0.283161 2:0.447154 3:0.838983 \n"
"-32 1:0.228598 2:0.414634 3:0.389407 \n"
"-24.97698214113843 1:0.241769 2:-0.252033 3:-0.485593 4:0.5 \n"
"-32 1:0.318909 2:0.170732 3:-0.0122881 4:0.5 \n"
"-32 1:0.264346 2:-0.00813008 3:0.267797 4:0.5 \n"
"-32 1:0.140169 2:0.0731707 3:0.203814 4:0.5 \n"
"-32 1:-0.0216369 2:-0.0243902 3:-0.414407 4:1 \n"
"-32 1:0.221072 2:-0.0894309 3:0.20678 4:1 \n"
"-32 1:0.158984 2:-0.00813008 3:-0.0699153 4:1 \n"
"-32 1:0.253057 2:0.414634 3:0.547034 4:1 \n"
"-32 1:0.134525 2:-0.0894309 3:0.00720339 4:1 \n"
"-32 1:0.315146 2:0.203252 3:-0.266102 4:-1 \n"
"-32 1:0.177799 2:0.382114 3:0.388559 4:-1 \n"
"-32 1:0.0912512 2:0.479675 3:0.812288 4:-1 \n"
"-3.987651569063368 1:0.648166 2:0.105691 3:0.571186 4:-1 \n"
"-32 1:0.245532 2:0.0243902 3:-0.0317797 4:-1 \n"
"-32 1:0.326435 2:0.544715 3:0.433475 4:-1 \n"
"-12.16592853305105 1:0.251176 2:0.300813 3:0.674576 4:-1 \n"
"-32 1:0.0893697 2:0.447154 3:0.719068 4:-1 \n"
"-32 1:0.249294 2:-0.0894309 3:-0.219492 4:-0.5 \n"
"-32 1:0.290687 2:0.0894309 3:0.341525 4:-0.5 \n"
"-32 1:0.145814 2:0.333333 3:0.467797 4:-0.5 \n"
"-32 1:0.143932 2:0.235772 3:0.582627 4:-0.5 \n"
"-32 1:0.268109 2:0.00813008 3:0.146186 4:-0.5 \n"
"-32 1:0.236124 2:0.365854 3:0.467797 4:-0.5 \n"
"-32 1:0.187206 2:0.0406504 3:-0.166949 \n"
"-32 1:0.0837253 2:-0.317073 3:-0.259746 \n"
"-32 1:0.388523 2:0.154472 3:0.383051 \n"
"-5.469582532289135 1:0.23048 2:-0.138211 3:-0.201695 \n"
"-32 1:0.111947 2:-0.219512 3:0.000423729 \n"
"-32 1:0.341486 2:0.0731707 3:0.318644 \n"
"-32 1:0.273754 2:0.300813 3:0.548305 \n"
"-32 1:0.181562 2:-0.0406504 3:0.225424 \n"
"-32 1:0.232361 2:0.0243902 3:0.199576 4:0.5 \n"
"-32 1:0.128881 2:-0.186992 3:-0.0237288 4:0.5 \n"
"-1.719456842795778 1:0.275635 2:0.00813008 3:0.571186 4:0.5 \n"
"-32 1:0.202258 2:0.252033 3:0.571186 4:0.5 \n"
"-32 1:0.175917 2:-0.186992 3:0.0817797 4:1 \n"
"-32 1:0.194732 2:-0.186992 3:-0.129237 4:1 \n"
"-32 1:0.17968 2:0.0243902 3:0.40339 4:1 \n"
"-32 1:0.046096 2:0.252033 3:0.638559 4:1 \n"
"-32 1:0.0479774 2:0.170732 3:0.524576 4:1 \n"
"-32 1:0.170273 2:0.0406504 3:-0.00169492 4:-1 \n"
"-32 1:0.288805 2:0.203252 3:-0.116949 4:-1 \n"
"-32 1:-0.106303 2:0.00813008 3:-0.142373 4:-1 \n"
"-0.323795242905614 1:0.753528 2:0.0731707 3:0.262288 4:-1 \n"
"-8.235031562315276 1:0.836312 2:0.121951 3:0.309322 4:-1 \n"
"-32 1:0.309501 2:0.235772 3:0.0987288 4:-1 \n"
"-32 1:0.253057 2:0.349593 3:0.0478814 4:-1 \n"
"-32 1:0.311383 2:0.252033 3:-0.00762712 4:-1 \n"
"-32 1:0.234243 2:0.317073 3:0.577542 4:-1 \n"
"-32 1:0.29445 2:0.544715 3:0.908051 4:-1 \n"
"-32 1:0.369708 2:0.609756 3:0.997034 4:-1 \n"
"-26.55869373660076 1:0.303857 2:0.512195 3:0.710169 4:-1 \n"
"-18.62865720815601 1:0.286924 2:0.105691 3:0.57161 4:-1 \n"
"-32 1:0.25682 2:0.170732 3:0.332627 4:-0.5 \n"
"-32 1:0.249294 2:0.333333 3:0.380932 4:-0.5 \n"
"-32 1:0.290687 2:0.512195 3:0.60339 4:-0.5 \n"
"-32 1:0.30762 2:0.186992 3:0.297458 4:-0.5 \n"
"-32 1:0.098777 2:0.186992 3:0.286441 4:-0.5 \n"
"-32 1:0.236124 2:0.170732 3:0.344915 4:-0.5 \n"
"-32 1:0.332079 2:0.235772 3:0.330932 4:-0.5 \n"
"-22.58636698276422 1:0.37159 2:0.284553 3:0.101271 4:-0.5 \n"
"-32 1:0.552211 2:0.0894309 3:0.457203 4:-0.5 \n"
"-32 1:0.198495 2:0.252033 3:0.316525 4:-0.5 \n"
"-32 1:0.221072 2:0.138211 3:0.289831 4:-0.5 \n"
"-32 1:0.258702 2:0.398374 3:0.545763 4:-0.5 \n"
"-32 1:0.268109 2:0.544715 3:0.915678 4:-0.5 \n"
"-2.407102413635557 1:0.347131 2:0.577236 3:0.989831 4:-0.5 \n"
"-32 1:0.226717 2:0.00813008 3:-0.191525 \n"
"-32 1:0.354657 2:0.219512 3:0.477966 \n"
"-32 1:0.296331 2:0.0406504 3:0.305085 \n"
"-32 1:0.422389 2:0.138211 3:0.423729 \n"
"-32 1:0.412982 2:0.00813008 3:0.416525 \n"
"-9.880869932952344 1:0.486359 2:0.0243902 3:0.405085 \n"
"-32 1:0.0837253 2:0.463415 3:0.890254 \n"
"-32 1:0.160865 2:0.577236 3:0.930932 \n"
"-32 1:0.11571 2:-0.00813008 3:0.22839 4:0.5 \n"
"-32 1:0.23048 2:0.528455 3:0.863983 4:0.5 \n"
"-32 1:0.149577 2:0.560976 3:0.966102 4:0.5 \n"
"-32 1:0.181562 2:-0.430894 3:-0.275 4:1 \n"
"-27.84704296762616 1:0.38476 2:0.121951 3:0.169915 4:1 \n"
"-32 1:0.162747 2:0.463415 3:0.881356 4:1 \n"
"-23.09576442978518 1:0.309501 2:0.398374 3:0.73178 4:1 \n"
"-32 1:0.285042 2:0.528455 3:0.894915 4:1 \n"
"-32 1:0.24365 2:0.186992 3:0.368644 4:-1 \n"
"-32 1:0.249294 2:0.235772 3:0.486864 4:-1 \n"
"-32 1:0.292568 2:0.252033 3:0.167797 4:-1 \n"
"-32 1:0.258702 2:0.186992 3:0.116525 4:-1 \n"
"-32 1:0.143932 2:0.0406504 3:-0.202542 4:-1 \n"
"-32 1:0.23048 2:0.609756 3:0.979661 4:-1 \n"
"-13.93665129998572 1:0.332079 2:0.577236 3:0.979661 4:-1 \n"
"-32 1:0.292568 2:0.593496 3:0.999576 4:-1 \n"
"-32 1:0.0912512 2:0.544715 3:0.782627 4:-1 \n"
"-32 1:0.014111 2:0.593496 3:0.880932 4:-1 \n"
"-32 1:0.254939 2:0.414634 3:0.623305 4:-1 \n"
"-32 1:0.100659 2:0.593496 3:0.993644 4:-1 \n"
"-32 1:0.221072 2:0.463415 3:0.801271 4:-1 \n"
"-32 1:0.247413 2:0.219512 3:0.449576 4:-1 \n"
"-32 1:0.21731 2:0.365854 3:0.548305 4:-0.5 \n"
"-32 1:0.213547 2:0.0731707 3:0.246186 4:-0.5 \n"
"-32 1:0.23048 2:0.252033 3:0.157203 4:-0.5 \n"
"-32 1:0.249294 2:0.398374 3:0.696186 4:-0.5 \n"
"-32 1:0.147695 2:0.365854 3:0.750847 4:-0.5 \n"
"-32 1:0.318909 2:0.252033 3:0.452119 \n"
"-6.021185863680445 1:0.386642 2:0.154472 3:0.367797 \n"
"-32 1:0.164628 2:-0.203252 3:-0.284322 \n"
"-32 1:0.286924 2:0.398374 3:0.708898 \n"
"-32 1:0.19285 2:0.317073 3:0.577542 4:0.5 \n"
"-32 1:0.254939 2:0.186992 3:0.394068 4:0.5 \n"
"-32 1:0.162747 2:0.560976 3:0.960593 4:0.5 \n"
"-32 1:0.106303 2:0.430894 3:0.85678 4:0.5 \n"
"-32 1:0.298213 2:0.512195 3:0.960593 4:0.5 \n"
"-32 1:0.245532 2:-0.00813008 3:0.233898 4:1 \n"
"-32 1:0.138288 2:0.0894309 3:0.329237 4:1 \n"
"-32 1:0.140169 2:-0.365854 3:-0.120339 4:1 \n"
"-32 1:0.200376 2:0.479675 3:-0.158051 4:-1 \n"
"-32 1:0.196613 2:0.512195 3:0.705085 4:-1 \n"
"-32 1:0.362183 2:0.495935 3:0.391525 4:-1 \n"
"-32 1:0.239887 2:0.382114 3:0.705085 4:-1 \n"
"-1.701625009358364 1:0.715898 2:0.430894 3:-0.158051 4:-1 \n"
"-32 1:0.288805 2:0.365854 3:0.391525 4:-1 \n"
"-32 1:0.241769 2:0.105691 3:0.391525 4:-1 \n"
"-32 1:0.305738 2:0.495935 3:0.469915 4:-1 \n"
"-32 1:0.170273 2:0.414634 3:0.916949 4:-1 \n"
"-32 1:0.35842 2:0.658537 3:0.55678 4:-1 \n"
"-32 1:0.155221 2:0.544715 3:0.864831 4:-1 \n"
"-32 1:0.369708 2:0.674797 3:0.730085 4:-1 \n"
"-32 1:0.360301 2:0.626016 3:0.946186 4:-1 \n"
"-32 1:0.228598 2:0.138211 3:0.286864 4:-0.5 \n"
"-9.926017596765883 1:0.4619 2:0.691057 3:0.652966 4:-0.5 \n"
"-32 1:0.11571 2:0.382114 3:0.312712 4:-0.5 \n"
"-32 1:0.285042 2:0.398374 3:0.0775424 4:-0.5 \n"
"-32 1:0.441204 2:0.382114 3:-0.420339 4:-0.5 \n"
"-32 1:0.354657 2:0.235772 3:-0.290678 4:-0.5 \n"
"-32 1:0.298213 2:0.495935 3:0.816525 4:-0.5 \n"
"-32 1:0.119473 2:0.430894 3:0.715254 4:-0.5 \n"
"-32 1:0.262465 2:0.0569106 3:0.312712 \n"
"-32 1:0.149577 2:0.398374 3:0.358051 \n"
"-32 1:0.258702 2:0.284553 3:0.221186 \n"
"-32 1:0.147695 2:0.0569106 3:0.0512712 \n"
"-10.1343447665841 1:0.303857 2:-0.284553 3:-0.744068 \n"
"-32 1:-0.0159925 2:0.284553 3:-0.818644 \n"
"-32 1:0.0630292 2:-0.0406504 3:-0.229661 \n"
"-32 1:0.0404516 2:-0.300813 3:-0.39322 \n"
"-32 1:0.367827 2:0.0894309 3:-0.457627 \n"
"-32 1:0.277516 2:0.479675 3:0.83178 \n"
"-32 1:0.25682 2:0.463415 3:0.75678 \n"
"-32 1:0.24365 2:0.495935 3:0.857203 \n"
"-32 1:0.322672 2:0.365854 3:0.208898 4:0.5 \n"
"-32 1:0.207902 2:0.154472 3:0.359746 4:0.5 \n"
"-32 1:0.170273 2:-0.0243902 3:0.273729 4:0.5 \n"
"-24.88838073472254 1:0.117592 2:-0.528455 3:-0.64322 4:0.5 \n"
"-32 1:-0.104421 2:0.528455 3:-0.544068 4:0.5 \n"
"-24.62933582232361 1:0.411101 2:0.219512 3:-0.64322 4:0.5 \n"
"-32 1:0.253057 2:0.00813008 3:-0.658898 4:0.5 \n"
"-32 1:0.24365 2:0.0894309 3:-0.589831 4:0.5 \n"
"-22.77099355185826 1:0.510818 2:-0.0569106 3:0.547881 4:1 \n"
"-14.78856251942364 1:0.311383 2:-0.0406504 3:0.359746 4:1 \n"
"-32 1:0.39793 2:0.577236 3:0.0826271 4:1 \n"
"-32 1:0.174036 2:-0.365854 3:-0.569068 4:1 \n"
"-32 1:0.125118 2:0.0406504 3:-0.544068 4:1 \n"
"-32 1:0.454374 2:0.349593 3:-0.522034 4:1 \n"
"-32 1:0.138288 2:0.495935 3:-0.621186 4:1 \n"
"-32 1:0.29445 2:0.105691 3:-0.488983 4:1 \n"
"-32 1:0.292568 2:0.479675 3:-0.447881 4:1 \n"
"-32 1:0.382879 2:0.0894309 3:-0.463136 4:1 \n"
"-19.94413512970148 1:0.52587 2:0.512195 3:-0.558898 4:1 \n"
"-32 1:0.215428 2:0.349593 3:0.344068 4:0.5 \n"
"-19.52064282856656 1:0.446849 2:0.00813008 3:0.508898 4:0.5 \n"
"-32 1:0.37159 2:0.577236 3:0.17161 4:0.5 \n"
"-32 1:0.32079 2:0.479675 3:0.202966 4:0.5 \n"
"-32 1:0.277516 2:0.609756 3:0.273729 4:0.5 \n"
"-32 1:0.262465 2:0.300813 3:0.140254 4:0.5 \n"
"-32 1:0.143932 2:0.463415 3:0.820763 4:0.5 \n"
"-25.23014156104061 1:0.341486 2:0.642276 3:0.795339 4:0.5 \n"
"-32 1:0.332079 2:0.560976 3:0.815678 4:0.5 \n"
"-32 1:0.298213 2:0.349593 3:0.785169 4:0.5 \n"
"-32 1:0.0122295 2:0.577236 3:0.413559 4:-0.5 \n"
"-32 1:0.301976 2:0.252033 3:-0.115678 4:-0.5 \n"
"-32 1:0.0272813 2:0.235772 3:0.508051 4:-0.5 \n"
"-32 1:0.317027 2:0.593496 3:0.940254 4:-0.5 \n"
"-32 1:0.0197554 2:0.268293 3:0.352542 4:-0.5 \n"
"-32 1:0.317027 2:0.154472 3:0.244068 4:-0.5 \n"
"-32 1:0.249294 2:0.0731707 3:0.253814 4:-0.5 \n"
"-32 1:0.337723 2:0.170732 3:0.386864 4:-0.5 \n"
"-32 1:0.317027 2:0.121951 3:0.347458 4:-0.5 \n"
"-32 1:0.324553 2:0.593496 3:0.747034 4:-0.5 \n"
"-32 1:0.236124 2:0.560976 3:0.75 4:-0.5 \n"
"-32 1:0.266228 2:0.528455 3:0.792373 4:-0.5 \n"
"-32 1:0.288805 2:0.0569106 3:-0.163136 4:-0.5 \n"
"-32 1:0.0498589 2:0.00813008 3:-0.221186 4:-1 \n"
"-32 1:0.412982 2:0.365854 3:-0.39322 4:-1 \n"
"-17.84685472088081 1:0.207902 2:-0.0406504 3:-0.341102 4:-1 \n"
"-32 1:0.318909 2:0.382114 3:-0.111017 4:-1 \n"
"-32 1:0.215428 2:-0.0406504 3:0.0584746 4:-1 \n"
"-32 1:0.226717 2:0.268293 3:0.605508 4:-1 \n"
"-32 1:0.428034 2:0.414634 3:-0.675847 4:-1 \n"
"-32 1:0.271872 2:0.544715 3:0.959746 4:-1 \n"
"-32 1:0.301976 2:0.560976 3:0.897881 4:-1 \n"
"-32 1:0.309501 2:0.642276 3:0.930085 4:-1 \n"
"-23.66088430806741 1:0.309501 2:0.170732 3:0.136441 4:-1 \n"
"-32 1:0.238006 2:0.121951 3:0.100424 4:-1 \n"
"-32 1:0.222954 2:0.495935 3:0.682627 4:-1 \n"
"-32 1:0.232361 2:0.512195 3:0.817373 4:-1 \n"
"-32 1:0.275635 2:0.609756 3:0.798305 4:-1 \n"
"-32 1:0.251176 2:0.235772 3:0.264831 \n"
"-32 1:0.298213 2:0.186992 3:-0.0826271 \n"
"-32 1:0.204139 2:0.317073 3:0.161017 \n"
"-32 1:0.25682 2:0.463415 3:0.0347458 \n"
"-32 1:0.271872 2:0.138211 3:0.322034 \n"
"-32 1:0.17968 2:0.00813008 3:0.117797 \n"
"-32 1:0.143932 2:-0.365854 3:-0.325424 \n"
"-32 1:0.174036 2:0.0243902 3:0.35 \n"
"-32 1:0.428034 2:0.0406504 3:0.508051 \n"
"-32 1:0.409219 2:0.0406504 3:0.408051 \n"
"-32 1:0.315146 2:0.170732 3:0.605508 \n"
"-32 1:0.0573848 2:0.203252 3:0.311864 \n"
"-32 1:0.258702 2:0.170732 3:0.326695 \n"
"-32 1:0.362183 2:0.105691 3:0.364831 \n"
"-30.47491025922264 1:0.356538 2:-0.0243902 3:0.353814 \n"
"-32 1:0.382879 2:0.154472 3:0.508051 \n"
"-32 1:0.347131 2:0.0894309 3:0.485593 \n"
"-32 1:0.168391 2:0.560976 3:0.813983 \n"
"-32 1:0.174036 2:0.00813008 3:0.0101695 4:0.5 \n"
"-32 1:0.281279 2:0.300813 3:0.340254 4:0.5 \n"
"-32 1:0.100659 2:-0.203252 3:-0.332203 4:0.5 \n"
"-32 1:0.155221 2:0.268293 3:0.420339 4:0.5 \n"
"-32 1:0.251176 2:0.0731707 3:0.358051 4:0.5 \n"
"-22.73749573010398 1:0.330198 2:0.544715 3:0.816525 4:0.5 \n"
"-32 1:0.147695 2:0.105691 3:-0.120763 4:1 \n"
"-32 1:0.196613 2:-0.0731707 3:-0.0817797 4:1 \n"
"-7.123545525098947 1:0.098777 2:-0.723577 3:-0.170763 4:1 \n"
"-24.34142780021472 1:0.249294 2:-0.0569106 3:0.397458 4:-1 \n"
"-32 1:0.290687 2:0.642276 3:0.849576 4:-1 \n"
"-32 1:0.245532 2:0.154472 3:0.454237 4:-1 \n"
"-29.33216804003057 1:0.322672 2:0.186992 3:-0.39322 4:-1 \n"
"-32 1:0.339605 2:0.626016 3:0.962712 4:-1 \n"
"-32 1:0.187206 2:0.642276 3:0.963136 4:-1 \n"
"-32 1:0.326435 2:0.577236 3:0.783475 4:-1 \n"
"-32 1:0.365945 2:0.495935 3:0.294068 4:-1 \n"
"-32 1:0.194732 2:0.495935 3:0.604661 4:-0.5 \n"
"-32 1:0.286924 2:0.0569106 3:0.294068 4:-0.5 \n"
"-32 1:0.450611 2:0.495935 3:0.367373 4:-0.5 \n"
"-32 1:0.60301 2:0.447154 3:0.122881 4:-0.5 \n"
"-32 1:0.110066 2:0.235772 3:0.104237 4:-0.5 \n"
"-32 1:0.303857 2:0.317073 3:0.145763 4:-0.5 \n"
"-32 1:0.226717 2:0.252033 3:0.182627 4:-0.5 \n"
"-32 1:0.143932 2:-0.121951 3:-0.139831 4:-0.5 \n"
"-32 1:0.0348071 2:0.349593 3:0.365678 4:-0.5 \n"
"-32 1:0.24365 2:0.333333 3:0.0957627 4:-0.5 \n"
"-32 1:0.181562 2:0.0894309 3:0.222458 4:-0.5 \n"
"-32 1:0.300094 2:0.414634 3:0.0669492 4:-0.5 \n"
"-32 1:0.110066 2:0.349593 3:0.365678 4:-0.5 \n"
"-26.45547337769561 1:0.388523 2:0.0894309 3:0.37161 4:-0.5 \n"
"-32 1:0.215428 2:0.0731707 3:0.0783898 \n"
"-32 1:0.140169 2:0.154472 3:0.0987288 \n"
"-32 1:0.219191 2:-0.0406504 3:0.0690678 \n"
"-32 1:0.190969 2:-0.0731707 3:0.121186 \n"
"-32 1:0.213547 2:0.121951 3:0.130508 \n"
"-13.85161371371219 1:0.30762 2:0.219512 3:0.210593 \n"
"-32 1:-0.098777 2:-0.00813008 3:0.264831 \n"
"-32 1:0.183443 2:-0.105691 3:0.143644 \n"
"-32 1:0.25682 2:0.0731707 3:0.358475 \n"
"-32 1:0.177799 2:0.0731707 3:0.0783898 \n"
"-32 1:0.309501 2:-0.0243902 3:0.385593 \n"
"-32 1:0.303857 2:0.528455 3:0.193644 \n"
"-32 1:0.222954 2:0.333333 3:0.476695 \n"
"-32 1:0.125118 2:0.0406504 3:0.111864 \n"
"-32 1:0.292568 2:0.154472 3:0.264831 \n"
"-32 1:-0.0329257 2:-0.0243902 3:0.17839 4:0.5 \n"
"-32 1:0.0479774 2:0.333333 3:0.167373 4:0.5 \n"
"-32 1:0.074318 2:0.0894309 3:0.147881 4:0.5 \n"
"-32 1:0.136406 2:0.268293 3:0.142797 4:0.5 \n"
"-32 1:0.190969 2:-0.0406504 3:-0.104237 4:0.5 \n"
"-32 1:0.234243 2:0.0731707 3:0.280085 4:0.5 \n"
"-32 1:0.262465 2:0.138211 3:0.145339 4:0.5 \n"
"-0.2251720366385558 1:0.234243 2:-0.788618 3:0.194492 4:0.5 \n"
"-32 1:0.162747 2:-0.138211 3:-0.0389831 4:0.5 \n"
"-32 1:0.206021 2:-0.105691 3:0.11822 4:1 \n"
"-32 1:0.074318 2:0.252033 3:0.285169 4:1 \n"
"-32 1:0.143932 2:-0.203252 3:0.0724576 4:1 \n"
"-32 1:0.219191 2:0.0569106 3:0.172458 4:1 \n"
"-32 1:0.209784 2:-0.0406504 3:0.0847458 4:1 \n"
"-32 1:0.177799 2:0.170732 3:0.283898 \n"
"-32 1:0.264346 2:0.138211 3:0.31822 \n"
"-32 1:0.269991 2:0.430894 3:0.652119 \n"
"-32 1:0.345249 2:0.268293 3:0.529237 \n"
"-32 1:0.140169 2:0.333333 3:0.527542 \n"
"-32 1:0.264346 2:0.560976 3:0.908051 \n"
"-32 1:0.232361 2:0.170732 3:0.382203 \n"
"-32 1:0.249294 2:0.186992 3:0.304237 \n"
"-32 1:0.286924 2:0.430894 3:0.590254 \n"
"-32 1:0.283161 2:0.560976 3:0.92161 4:0.5 \n"
"-32 1:0.170273 2:0.365854 3:0.697881 4:0.5 \n"
"-32 1:0.266228 2:0.333333 3:0.577542 4:0.5 \n"
"-32 1:0.30762 2:0.349593 3:0.59322 4:0.5 \n"
"-32 1:0.23048 2:0.382114 3:0.69661 4:0.5 \n"
"-32 1:0.262465 2:0.430894 3:0.784322 4:0.5 \n"
"-6.02879806754459 1:0.313264 2:0.235772 3:0.451695 4:0.5 \n"
"-32 1:0.238006 2:0.235772 3:0.511864 4:0.5 \n"
"-32 1:0.264346 2:0.252033 3:0.507203 4:1 \n"
"-32 1:0.0573848 2:0.333333 3:0.572034 4:1 \n"
"-28.01461871990042 1:0.228598 2:0.170732 3:0.505932 4:1 \n"
"-32 1:0.281279 2:0.365854 3:0.704661 4:1 \n"
"-32 1:0.126999 2:0.382114 3:0.654661 4:1 \n"
"-32 1:0.162747 2:-0.365854 3:-0.634746 \n"
"-32 1:0.143932 2:-0.0894309 3:-0.117797 \n"
"-32 1:0.126999 2:-0.170732 3:-0.406356 \n"
"-32 1:0.202258 2:-0.203252 3:-0.205085 \n"
"-32 1:0.311383 2:0.235772 3:0.388559 \n"
"-32 1:0.0611477 2:-0.0569106 3:-0.143644 \n"
"-32 1:0.281279 2:0.317073 3:0.509322 \n"
"-32 1:0.206021 2:-0.382114 3:-0.661441 4:0.5 \n"
"-32 1:0.286924 2:0.105691 3:0.112288 4:0.5 \n"
"-4.289772851016707 1:0.238006 2:-0.447154 3:-0.548305 4:1 \n"
"-32 1:0.30762 2:-0.00813008 3:-0.0105932 4:1 \n"
"-32 1:0.121355 2:0.121951 3:0.159322 4:1 \n"
"-32 1:0.25682 2:0.528455 3:0.769068 4:-1 \n"
"-32 1:0.281279 2:0.186992 3:-0.425424 4:-1 \n"
"-32 1:0.25682 2:0.154472 3:-0.590678 4:-1 \n"
"-32 1:0.236124 2:0.0894309 3:-0.544068 4:-1 \n"
"-32 1:0.290687 2:0.170732 3:-0.208475 4:-1 \n"
"-32 1:0.25682 2:0.0731707 3:-0.298305 4:-1 \n"
"-2.210176844892837 1:0.236124 2:0.00813008 3:-0.576695 4:-1 \n"
"-32 1:0.269991 2:0.170732 3:0.0228814 4:-1 \n"
"-32 1:0.313264 2:0.626016 3:0.977966 4:-1 \n"
"-32 1:0.285042 2:0.365854 3:0.557203 4:-1 \n"
"-32 1:0.275635 2:0.203252 3:-0.138983 4:-1 \n"
"-32 1:0.207902 2:0.609756 3:0.905932 4:-1 \n"
"-32 1:0.213547 2:0.609756 3:0.934322 4:-1 \n"
"-32 1:0.286924 2:0.414634 3:0.595339 4:-1 \n"
"-4.994415885414233 1:0.919097 2:0.544715 3:0.920339 4:-1 \n"
"-32 1:0.298213 2:0.593496 3:0.877542 4:-1 \n"
"-32 1:0.313264 2:0.577236 3:0.920339 4:-1 \n"
"-32 1:0.264346 2:0.349593 3:0.338983 4:-1 \n"
"-32 1:0.279398 2:0.333333 3:0.413559 4:-1 \n"
"-32 1:0.15334 2:0.447154 3:0.367373 4:-1 \n"
"-32 1:0.283161 2:0.430894 3:0.381356 4:-1 \n"
"-32 1:0.253057 2:0.609756 3:0.948305 4:-1 \n"
"-32 1:0.249294 2:0.268293 3:0.476271 4:-0.5 \n"
"-32 1:0.251176 2:-0.105691 3:-0.361017 4:-0.5 \n"
"-11.4570044489364 1:0.347131 2:0.154472 3:0.26822 4:-0.5 \n"
"-32 1:0.283161 2:0.593496 3:0.982627 4:-0.5 \n"
"-32 1:0.187206 2:0.333333 3:0.557203 4:-0.5 \n"
"-32 1:0.121355 2:0.593496 3:0.925 4:-0.5 \n"
"-28.54357888567404 1:0.326435 2:0.349593 3:0.528814 4:-0.5 \n"
"-32 1:-0.15334 2:0.398374 3:0.688983 4:-0.5 \n"
"-32 1:0.277516 2:0.235772 3:0.358475 4:-0.5 \n"
"-32 1:0.189087 2:0.365854 3:0.697881 4:-0.5 \n"
"-32 1:0.285042 2:0.300813 3:0.486441 4:-0.5 \n"
"-32 1:0.211665 2:0.365854 3:0.572458 4:-0.5 \n"
"-32 1:0.070555 2:0.170732 3:0.161441 4:-0.5 \n"
"-32 1:0.121355 2:0.170732 3:0.329661 4:-0.5 \n"
"-19.86451886834619 1:0.123236 2:-0.268293 3:-0.992797 4:-1 \n"
"-32 1:0.140169 2:-0.0406504 3:-0.549153 4:-1 \n"
"-32 1:0.207902 2:0.252033 3:0.0894068 4:-1 \n"
"-32 1:0.258702 2:0.544715 3:0.869492 4:-1 \n"
"-32 1:0.168391 2:0.121951 3:-0.0733051 4:-1 \n"
"-32 1:0.285042 2:0.560976 3:0.939407 4:-1 \n"
"-13.67953383017715 1:0.222954 2:-0.268293 3:-0.623729 4:-0.5 \n"
"-32 1:0.249294 2:-0.268293 3:-0.748305 4:-0.5 \n"
"-32 1:0.301976 2:0.186992 3:0.336017 4:-0.5 \n"
"-32 1:0.224835 2:0.00813008 3:-0.138559 4:-0.5 \n"
"-32 1:0.224835 2:0.219512 3:0.0877119 4:-0.5 \n"
"-32 1:0.326435 2:0.203252 3:0.357203 4:-0.5 \n"
"-32 1:0.266228 2:-0.0731707 3:-0.358051 4:-0.5 \n"
"-32 1:0.189087 2:-0.138211 3:-0.236441 4:-0.5 \n"
"-32 1:0.215428 2:0.544715 3:0.773729 4:-0.5 \n"
"-32 1:0.283161 2:0.170732 3:0.258475 4:-0.5 \n"
"-32 1:0.303857 2:0.138211 3:-0.0432203 4:-0.5 \n"
"-32 1:0.35842 2:0.252033 3:0.258475 4:-0.5 \n";
