char* decision_dinucleotide_structural_string=
"svm_type c_svc\n"
"kernel_type rbf\n"
"gamma 0.125\n"
"nr_class 2\n"
"total_sv 1068\n"
"rho 1.24644\n"
"label 1 -1\n"
"probA -2.66668\n"
"probB 0.034913\n"
"nr_sv 534 534\n"
"SV\n"
"1 1:0.09862 2:-0.55725 3:-0.1003 \n"
"1 1:0.15187 2:-0.58779 3:0.16281 \n"
"1 1:0.20513 2:0.49618 3:-0.96593 \n"
"1 1:0.49112 2:-0.08397 3:-0.1933 \n"
"1 1:0.24655 2:0.26718 3:-0.73414 \n"
"1 1:0.60355 2:0.49618 3:-0.19812 \n"
"1 1:0.30375 2:0.60305 3:-0.85336 \n"
"1 1:0.27613 2:0.25191 3:-0.67996 \n"
"1 1:0.32544 2:0.49618 3:-0.78179 \n"
"1 1:0.41815 2:0.49618 3:-0.52013 \n"
"1 1:0.48915 2:-0.0687 3:0.30906 \n"
"1 1:0.29586 2:0.40458 3:-0.74775 \n"
"1 1:0.37081 2:-0.17557 3:0.14874 \n"
"1 1:0.42998 2:-0.0229 3:0.10671 \n"
"1 1:0.42209 2:0.26718 3:-0.39893 \n"
"1 1:0.46943 2:0.28244 3:-0.39566 \n"
"1 1:0.45562 2:-0.28244 3:0.09609 \n"
"1 1:0.14596 2:-0.67939 3:0.21585 \n"
"1 1:0.00394 2:-0.78626 3:0.2176 \n"
"1 1:0.47337 2:0.46565 3:-0.50083 \n"
"1 1:0.3787 2:0.35878 3:-0.53497 \n"
"1 1:0.3432 2:0.32824 3:-0.4898 \n"
"1 1:0.47535 2:0.0229 3:-0.17303 \n"
"1 1:0.39448 2:-0.08397 3:-0.17365 \n"
"1 1:0.42209 2:0.19084 3:-0.25645 \n"
"1 1:0.44181 2:-0.19084 3:-0.03638 \n"
"1 1:0.45562 2:-0.1145 3:0.03344 \n"
"1 1:0.57199 2:-0.31298 3:-0.40017 \n"
"1 1:0.4497 2:-0.0687 3:-0.27922 \n"
"1 1:0.38462 2:-0.05344 3:-0.44459 \n"
"1 1:0.43195 2:0.0687 3:-0.19304 \n"
"1 1:0.44576 2:-0.14504 3:-0.13128 \n"
"1 1:0.30769 2:0.14504 3:-0.52693 \n"
"1 1:0.41026 2:-0.20611 3:-0.01018 \n"
"1 1:0.52268 2:-0.32824 3:-0.08353 \n"
"1 1:0.39448 2:-0.12977 3:-0.07735 \n"
"1 1:0.57791 2:-0.00763 3:-0.52176 \n"
"1 1:0.46351 2:-0.25191 3:-0.1062 \n"
"1 1:0.50888 2:-0.29771 3:-0.12567 \n"
"1 1:0.40434 2:-0.14504 3:-0.00819 \n"
"1 1:0.51874 2:-0.09924 3:-0.38038 \n"
"1 1:0.40828 2:-0.08397 3:-0.03454 \n"
"1 1:0.3215 2:0.46565 3:-0.67146 \n"
"1 1:0.36884 2:0.29771 3:-0.41791 \n"
"1 1:0.0927 2:-0.23664 3:-0.38562 \n"
"1 1:0.17751 2:-0.40458 3:-0.10277 \n"
"1 1:0.46154 2:0.43511 3:-0.43511 \n"
"1 1:0.46943 2:0.45038 3:-0.58789 \n"
"1 1:0.43393 2:0.25191 3:-0.37226 \n"
"1 1:0.47337 2:0.46565 3:-0.90612 \n"
"1 1:0.49112 2:0.49618 3:-0.86685 \n"
"1 1:0.2998 2:-0.0687 3:-0.32539 \n"
"1 1:0.28402 2:0.14504 3:-0.4475 \n"
"1 1:0.25641 2:0.12977 3:-0.45873 \n"
"1 1:0.30375 2:-0.03817 3:-0.18013 \n"
"1 1:0.26036 2:0.16031 3:-0.56523 \n"
"1 1:0.31558 2:-0.00763 3:-0.18319 \n"
"1 1:0.35503 2:0.19084 3:-0.44098 \n"
"1 1:0.21499 2:0.0687 3:-0.57882 \n"
"1 1:0.11637 2:-0.0687 3:-0.57689 \n"
"1 1:0.17357 2:0.32824 3:-0.83139 \n"
"1 1:0.18146 2:0.08397 3:-0.55768 \n"
"1 1:0.2288 2:0.05344 3:-0.60628 \n"
"1 1:0.19724 2:0.19084 3:-0.82039 \n"
"1 1:0.13215 2:-0.05344 3:-0.50511 \n"
"1 1:0.14596 2:0.1145 3:-0.65636 \n"
"1 1:0.26036 2:-0.14504 3:-0.59947 \n"
"1 1:0.18738 2:-0.28244 3:-0.61024 \n"
"1 1:0.32742 2:-0.34351 3:0.25167 \n"
"1 1:0.36686 2:0.00763 3:-0.11698 \n"
"1 1:0.25444 2:0.35878 3:-0.86698 \n"
"1 1:0.33531 2:0.26718 3:-0.66119 \n"
"1 1:0.33531 2:0.26718 3:-0.66119 \n"
"1 1:0.33531 2:0.32824 3:-0.50706 \n"
"1 1:0.13609 2:-0.63359 3:0.19814 \n"
"1 1:0.16371 2:-0.00763 3:-0.54605 \n"
"1 1:0.19921 2:-0.23664 3:-0.45442 \n"
"1 1:0.22091 2:-0.17557 3:-0.45032 \n"
"1 1:0.24458 2:-0.17557 3:-0.28307 \n"
"1 1:0.28205 2:0.03817 3:-0.33515 \n"
"1 1:0.22288 2:-0.17557 3:-0.20821 \n"
"1 1:0.2426 2:0.09924 3:-0.5579 \n"
"1 1:0.28402 2:-0.0229 3:-0.26238 \n"
"1 1:0.37278 2:-0.00763 3:-0.27325 \n"
"1 1:0.41026 2:-0.26718 3:-0.116 \n"
"1 1:0.5069 2:-0.25191 3:-0.09354 \n"
"1 1:0.45562 2:-0.26718 3:0.04508 \n"
"1 1:0.42998 2:-0.34351 3:0.02607 \n"
"1 1:0.37673 2:-0.31298 3:-0.02253 \n"
"1 1:0.48126 2:-0.05344 3:-0.32403 \n"
"1 1:0.38659 2:0.00763 3:-0.27899 \n"
"1 1:0.3925 2:-0.25191 3:-0.06066 \n"
"1 1:0.45957 2:-0.00763 3:-0.32769 \n"
"1 1:0.42209 2:-0.12977 3:-0.17109 \n"
"1 1:0.36884 2:-0.08397 3:-0.09372 \n"
"1 1:0.33925 2:-0.08397 3:-0.20025 \n"
"1 1:0.39645 2:-0.28244 3:0.03748 \n"
"1 1:0.37081 2:-0.08397 3:-0.26082 \n"
"1 1:0.40237 2:-0.16031 3:-0.15681 \n"
"1 1:0.40631 2:-0.0229 3:-0.33399 \n"
"1 1:0.42604 2:-0.09924 3:-0.1338 \n"
"1 1:0.40828 2:0.0687 3:-0.33392 \n"
"1 1:0.46943 2:-0.31298 3:-0.01118 \n"
"1 1:0.40828 2:-0.14504 3:0.0385 \n"
"1 1:0.37673 2:0.0687 3:-0.50178 \n"
"1 1:0.31558 2:0.12977 3:-0.387 \n"
"1 1:0.39448 2:0.57252 3:-0.8699 \n"
"1 1:0.45957 2:0.57252 3:-0.52296 \n"
"1 1:0.3432 2:0.34351 3:-0.6707 \n"
"1 1:0.36489 2:0.0687 3:-0.16107 \n"
"1 1:0.37475 2:0.57252 3:-0.78533 \n"
"1 1:0.16963 2:0.34351 3:-0.85544 \n"
"1 1:0.46351 2:0.26718 3:-0.45114 \n"
"1 1:0.0217 2:-0.61832 3:-0.21984 \n"
"1 1:0.25641 2:0.29771 3:-0.65432 \n"
"1 1:0.2071 2:0.41985 3:-0.864 \n"
"1 1:0.60355 2:0.41985 3:-0.18517 \n"
"1 1:0.32742 2:0.45038 3:-0.79778 \n"
"1 1:0.26233 2:0.28244 3:-0.61488 \n"
"1 1:0.47732 2:0.48092 3:-0.66677 \n"
"1 1:0.25641 2:0.26718 3:-0.67788 \n"
"1 1:0.38659 2:0.51145 3:-0.5965 \n"
"1 1:0.21105 2:0.0687 3:-0.64838 \n"
"1 1:0.26824 2:0.19084 3:-0.52381 \n"
"1 1:0.26824 2:0.19084 3:-0.52381 \n"
"1 1:0.42998 2:0.49618 3:-0.84256 \n"
"1 1:0.41617 2:-0.09924 3:0.16628 \n"
"1 1:0.22091 2:-0.48092 3:0.12142 \n"
"1 1:0.12229 2:-0.57252 3:0.18576 \n"
"1 1:0.16174 2:-0.61832 3:0.23981 \n"
"1 1:0.37081 2:0.57252 3:-0.78948 \n"
"1 1:0.45562 2:0.29771 3:-0.25543 \n"
"1 1:0.45365 2:0.28244 3:-0.44153 \n"
"1 1:0.44181 2:-0.20611 3:-0.03042 \n"
"1 1:0.44576 2:-0.0687 3:-0.00303 \n"
"1 1:0.48323 2:-0.12977 3:-0.18417 \n"
"1 1:0.46943 2:-0.12977 3:-0.02283 \n"
"1 1:0.56607 2:0.00763 3:-0.4124 \n"
"1 1:0.43393 2:-0.16031 3:-0.07127 \n"
"1 1:0.41223 2:-0.12977 3:-0.01864 \n"
"1 1:0.40237 2:-0.1145 3:-0.30786 \n"
"1 1:0.4142 2:0.16031 3:-0.54469 \n"
"1 1:0.37081 2:0.00763 3:-0.41263 \n"
"1 1:0.40828 2:-0.1145 3:-0.09939 \n"
"1 1:0.40039 2:-0.05344 3:-0.2899 \n"
"1 1:0.49901 2:-0.05344 3:-0.43053 \n"
"1 1:0.49704 2:-0.25191 3:-0.09362 \n"
"1 1:0.34517 2:0.12977 3:-0.52407 \n"
"1 1:0.48718 2:0.0229 3:-0.10736 \n"
"1 1:0.48323 2:-0.08397 3:-0.00696 \n"
"1 1:0.39448 2:-0.0687 3:0.0105 \n"
"1 1:0.47929 2:-0.00763 3:-0.36652 \n"
"0.5996153001520756 1:0.10454 2:-0.1145 3:-0.4811 \n"
"1 1:0.08481 2:-0.35878 3:-0.54784 \n"
"1 1:0.13807 2:-0.1145 3:-0.48881 \n"
"1 1:0.12821 2:-0.17557 3:-0.36158 \n"
"1 1:0.07495 2:-0.31298 3:-0.53603 \n"
"1 1:0.13609 2:-0.40458 3:-0.62992 \n"
"1 1:0.0789 2:-0.23664 3:-0.44146 \n"
"1 1:0.43787 2:0.37405 3:-0.65256 \n"
"1 1:0.34714 2:0.43511 3:-0.64106 \n"
"1 1:0.48718 2:0.57252 3:-0.70358 \n"
"1 1:0.45562 2:0.51145 3:-0.49755 \n"
"1 1:0.28008 2:0.38931 3:-0.67876 \n"
"1 1:0.27022 2:0.32824 3:-0.65192 \n"
"1 1:0.34517 2:-0.00763 3:-0.23899 \n"
"1 1:0.26233 2:0.12977 3:-0.4609 \n"
"1 1:0.38462 2:0.19084 3:-0.62964 \n"
"1 1:0.31953 2:0.1145 3:-0.40702 \n"
"1 1:0.1716 2:0.0229 3:-0.62915 \n"
"1 1:0.23077 2:0.46565 3:-0.87185 \n"
"1 1:0.13412 2:-0.00763 3:-0.63696 \n"
"1 1:0.22091 2:0.49618 3:-0.90523 \n"
"1 1:0.2071 2:0.17557 3:-0.66648 \n"
"1 1:0.20513 2:0.1145 3:-0.60073 \n"
"1 1:0.32544 2:0.00763 3:-0.24776 \n"
"1 1:0.21696 2:0.00763 3:-0.47419 \n"
"1 1:0.2288 2:0.00763 3:-0.45908 \n"
"1 1:0.21696 2:-0.12977 3:-0.29732 \n"
"1 1:0.22485 2:-0.25191 3:-0.53418 \n"
"1 1:0.22485 2:-0.20611 3:-0.23876 \n"
"1 1:0.28994 2:-0.16031 3:-0.26727 \n"
"1 1:0.16371 2:-0.12977 3:-0.36687 \n"
"1 1:0.27811 2:0.00763 3:-0.55385 \n"
"1 1:0.24458 2:-0.16031 3:-0.43317 \n"
"1 1:0.40434 2:-0.28244 3:-0.10916 \n"
"1 1:0.39645 2:-0.28244 3:0.01454 \n"
"1 1:0.42209 2:-0.32824 3:0.01336 \n"
"1 1:0.42012 2:-0.22137 3:-0.09832 \n"
"1 1:0.41617 2:-0.37405 3:0.01319 \n"
"1 1:0.42209 2:0.25191 3:-0.5119 \n"
"1 1:0.4359 2:-0.31298 3:0.02905 \n"
"1 1:0.42209 2:-0.20611 3:-0.101 \n"
"1 1:0.44379 2:-0.29771 3:0.03091 \n"
"1 1:0.37278 2:-0.25191 3:-0.04525 \n"
"1 1:0.4142 2:0.12977 3:-0.39902 \n"
"1 1:0.39842 2:0.00763 3:-0.22825 \n"
"1 1:0.41815 2:0.34351 3:-0.73497 \n"
"1 1:0.39053 2:-0.17557 3:-0.27575 \n"
"1 1:0.39448 2:-0.20611 3:-0.08603 \n"
"1 1:0.46943 2:-0.05344 3:-0.31055 \n"
"1 1:0.41026 2:-0.23664 3:-0.15509 \n"
"1 1:0.42012 2:-0.14504 3:-0.1224 \n"
"1 1:0.24852 2:-0.03817 3:-0.40231 \n"
"1 1:0.36884 2:-0.05344 3:-0.24364 \n"
"1 1:0.38462 2:-0.12977 3:-0.36146 \n"
"1 1:0.40434 2:-0.29771 3:-0.02762 \n"
"1 1:0.39842 2:-0.20611 3:-0.15992 \n"
"1 1:0.37673 2:0.52672 3:-0.62194 \n"
"1 1:0.46548 2:0.60305 3:-0.5364 \n"
"1 1:0.40434 2:0.22137 3:-0.58857 \n"
"1 1:0.34517 2:0.55725 3:-0.853 \n"
"1 1:0.37673 2:0.12977 3:-0.25079 \n"
"1 1:0.27613 2:0.49618 3:-0.86066 \n"
"1 1:0.36686 2:0.45038 3:-0.59018 \n"
"1 1:0.0217 2:-0.61832 3:-0.21984 \n"
"1 1:0.33728 2:0.41985 3:-0.64634 \n"
"1 1:0.2071 2:0.43511 3:-0.84224 \n"
"1 1:0.24458 2:0.32824 3:-0.71554 \n"
"1 1:0.60355 2:0.40458 3:-0.34377 \n"
"1 1:0.33531 2:0.43511 3:-0.80829 \n"
"1 1:0.46351 2:0.45038 3:-0.66788 \n"
"1 1:0.32939 2:0.40458 3:-0.8176 \n"
"1 1:0.30966 2:0.38931 3:-0.71422 \n"
"1 1:0.16765 2:0.25191 3:-0.8458 \n"
"1 1:0.39842 2:0.41985 3:-0.49664 \n"
"1 1:0.52071 2:0.51145 3:-0.75907 \n"
"1 1:0.53846 2:0.23664 3:-0.08846 \n"
"1 1:0.12426 2:-0.43511 3:-0.08385 \n"
"1 1:0.23669 2:-0.23664 3:-0.23821 \n"
"1 1:0.36095 2:0.48092 3:-0.66752 \n"
"1 1:0.42012 2:0.17557 3:-0.17486 \n"
"1 1:0.38856 2:0.41985 3:-0.54648 \n"
"1 1:0.45759 2:-0.28244 3:-0.07359 \n"
"1 1:0.47337 2:-0.20611 3:-0.08175 \n"
"1 1:0.42604 2:-0.25191 3:-0.22633 \n"
"1 1:0.45562 2:-0.09924 3:-0.03074 \n"
"1 1:0.39842 2:-0.0687 3:-0.09117 \n"
"1 1:0.4714 2:-0.08397 3:-0.07537 \n"
"1 1:0.45562 2:-0.05344 3:-0.33437 \n"
"1 1:0.45168 2:-0.19084 3:-0.03675 \n"
"1 1:0.42604 2:-0.20611 3:-0.03219 \n"
"1 1:0.44773 2:-0.08397 3:-0.08651 \n"
"1 1:0.42604 2:-0.25191 3:-0.05897 \n"
"1 1:0.45957 2:-0.17557 3:-0.05649 \n"
"1 1:0.35897 2:-0.03817 3:-0.12654 \n"
"1 1:0.46943 2:-0.03817 3:-0.07145 \n"
"1 1:0.52268 2:0.41985 3:-0.7793 \n"
"1 1:0.45365 2:-0.05344 3:-0.06939 \n"
"1 1:0.60355 2:0.0687 3:-0.05299 \n"
"1 1:0.41026 2:-0.20611 3:-0.0165 \n"
"1 1:0.30966 2:-0.08397 3:-0.1219 \n"
"1 1:0.45759 2:0.51145 3:-0.76181 \n"
"1 1:0.11045 2:-0.22137 3:-0.35047 \n"
"1 1:0.09862 2:-0.0687 3:-0.57908 \n"
"1 1:0.11834 2:0.05344 3:-0.66648 \n"
"1 1:0.10454 2:-0.23664 3:-0.36525 \n"
"1 1:0.10651 2:-0.28244 3:-0.4585 \n"
"1 1:0.11045 2:-0.08397 3:-0.65245 \n"
"1 1:0.41617 2:0.00763 3:0.0286 \n"
"1 1:0.45562 2:-0.03817 3:0.1342 \n"
"1 1:0.36292 2:0.46565 3:-0.85174 \n"
"1 1:0.32939 2:0.32824 3:-0.60365 \n"
"1 1:0.4714 2:0.58779 3:-0.77514 \n"
"1 1:0.28008 2:0.12977 3:-0.42774 \n"
"1 1:0.37673 2:-0.14504 3:-0.22776 \n"
"1 1:0.30178 2:0.14504 3:-0.42644 \n"
"1 1:0.36884 2:-0.0229 3:-0.17142 \n"
"1 1:0.28797 2:0.16031 3:-0.43446 \n"
"1 1:0.31755 2:0.16031 3:-0.41117 \n"
"1 1:0.27219 2:0.12977 3:-0.42907 \n"
"1 1:0.20907 2:0.03817 3:-0.62497 \n"
"1 1:0.22485 2:0.14504 3:-0.70496 \n"
"1 1:0.21302 2:0.08397 3:-0.56831 \n"
"1 1:0.16174 2:0.14504 3:-0.66895 \n"
"1 1:0.17554 2:0.0229 3:-0.55483 \n"
"1 1:0.14004 2:-0.0229 3:-0.57533 \n"
"1 1:0.22091 2:0.05344 3:-0.58349 \n"
"1 1:0.15582 2:-0.00763 3:-0.56899 \n"
"1 1:0.17949 2:0.00763 3:-0.55602 \n"
"1 1:0.13609 2:0.05344 3:-0.63557 \n"
"1 1:0.13215 2:-0.0229 3:-0.61 \n"
"1 1:0.22682 2:0.1145 3:-0.50843 \n"
"1 1:0.36686 2:0.45038 3:-0.67589 \n"
"1 1:0.26036 2:0.46565 3:-0.7776 \n"
"1 1:0.17751 2:0.12977 3:-0.72452 \n"
"1 1:0.12426 2:-0.67939 3:0.31415 \n"
"1 1:0.11045 2:-0.48092 3:-0.04916 \n"
"1 1:0.27416 2:-0.03817 3:-0.58177 \n"
"1 1:0.18146 2:0.14504 3:-0.62257 \n"
"1 1:0.26036 2:-0.12977 3:-0.20967 \n"
"1 1:0.15582 2:-0.29771 3:-0.2546 \n"
"1 1:0.25247 2:-0.05344 3:-0.29583 \n"
"1 1:0.23669 2:-0.12977 3:-0.28208 \n"
"1 1:0.22091 2:-0.16031 3:-0.23107 \n"
"1 1:0.39448 2:-0.26718 3:0.06412 \n"
"1 1:0.33728 2:-0.03817 3:-0.16292 \n"
"1 1:0.41617 2:-0.26718 3:-0.1431 \n"
"1 1:0.39842 2:-0.28244 3:0.03271 \n"
"1 1:0.34714 2:-0.0229 3:-0.24399 \n"
"1 1:0.36884 2:-0.1145 3:-0.2265 \n"
"1 1:0.4142 2:-0.17557 3:-0.2047 \n"
"1 1:0.45562 2:-0.26718 3:0.04508 \n"
"1 1:0.43393 2:0.25191 3:-0.46942 \n"
"1 1:0.38264 2:0.0229 3:-0.54632 \n"
"1 1:0.3925 2:-0.37405 3:-0.04317 \n"
"1 1:0.45365 2:0.05344 3:-0.37951 \n"
"1 1:0.36095 2:0.25191 3:-0.49075 \n"
"1 1:0.4714 2:-0.37405 3:-0.06528 \n"
"1 1:0.40237 2:0.28244 3:-0.52493 \n"
"1 1:0.42209 2:0.28244 3:-0.63498 \n"
"1 1:0.36884 2:-0.28244 3:-0.00291 \n"
"1 1:0.43195 2:-0.28244 3:0.03382 \n"
"1 1:0.32544 2:0.0229 3:-0.31465 \n"
"1 1:0.44773 2:0.08397 3:-0.37168 \n"
"1 1:0.42209 2:0.05344 3:-0.37519 \n"
"1 1:0.44773 2:-0.16031 3:-0.2786 \n"
"1 1:0.47337 2:0.43511 3:-0.82127 \n"
"1 1:0.44379 2:0.57252 3:-0.6633 \n"
"1 1:0.40631 2:0.23664 3:-0.32838 \n"
"1 1:0.39842 2:0.19084 3:-0.2362 \n"
"1 1:0.40039 2:0.0229 3:-0.03178 \n"
"1 1:0.2643 2:0.46565 3:-0.77358 \n"
"1 1:0.35897 2:0.28244 3:-0.45558 \n"
"1 1:0.29586 2:0.35878 3:-0.80424 \n"
"1 1:0.46548 2:0.41985 3:-0.49961 \n"
"1 1:0.52268 2:-0.05344 3:-0.27055 \n"
"1 1:0.33333 2:0.52672 3:-0.78884 \n"
"1 1:0.36489 2:0.48092 3:-0.87912 \n"
"1 1:0.63116 2:-0.0687 3:-0.20716 \n"
"1 1:0.34714 2:-0.45038 3:0.22857 \n"
"1 1:0.59763 2:0.16031 3:-0.04907 \n"
"1 1:0.3787 2:-0.29771 3:0.30219 \n"
"1 1:0.34714 2:0.29771 3:-0.50002 \n"
"1 1:0.43393 2:-0.23664 3:0.36666 \n"
"1 1:0.51677 2:0.23664 3:-0.64569 \n"
"1 1:0.42801 2:-0.17557 3:-0.04447 \n"
"1 1:0.53057 2:-0.19084 3:-0.21492 \n"
"1 1:0.36884 2:-0.12977 3:0.02919 \n"
"1 1:0.55227 2:-0.0229 3:-0.14332 \n"
"1 1:0.38659 2:-0.03817 3:-0.36108 \n"
"1 1:0.48718 2:-0.28244 3:-0.09085 \n"
"1 1:0.46351 2:-0.16031 3:-0.07766 \n"
"1 1:0.35897 2:-0.0229 3:-0.06791 \n"
"1 1:0.3787 2:-0.14504 3:-0.10133 \n"
"1 1:0.44181 2:-0.1145 3:-0.00329 \n"
"1 1:0.357 2:-0.0229 3:-0.11242 \n"
"1 1:0.46943 2:-0.28244 3:-0.11294 \n"
"1 1:0.37081 2:0.03817 3:-0.11038 \n"
"1 1:0.45365 2:-0.26718 3:-0.21543 \n"
"1 1:0.50888 2:-0.1145 3:-0.11236 \n"
"1 1:0.43195 2:-0.25191 3:-0.04515 \n"
"1 1:0.46746 2:-0.17557 3:-0.16441 \n"
"1 1:0.52071 2:-0.0229 3:-0.14643 \n"
"1 1:0.3787 2:-0.17557 3:-0.2572 \n"
"1 1:0.38659 2:-0.12977 3:-0.27514 \n"
"1 1:0.4714 2:0.1145 3:-0.39462 \n"
"0.8936965656369975 1:0.33728 2:-0.00763 3:-0.12384 \n"
"1 1:0.28994 2:-0.28244 3:0.12026 \n"
"1 1:0.14793 2:-0.35878 3:-0.11966 \n"
"1 1:0.12032 2:0.08397 3:-0.70981 \n"
"1 1:0.16765 2:-0.19084 3:-0.53914 \n"
"1 1:0.44576 2:0.28244 3:-0.27478 \n"
"1 1:0.42998 2:0.38931 3:-0.50167 \n"
"1 1:0.48915 2:0.22137 3:-0.42177 \n"
"1 1:0.2998 2:0.03817 3:-0.27289 \n"
"1 1:0.26627 2:0.14504 3:-0.46891 \n"
"1 1:0.29586 2:0.0687 3:-0.33148 \n"
"1 1:0.25838 2:0.17557 3:-0.53019 \n"
"1 1:0.28205 2:0.17557 3:-0.55775 \n"
"1 1:0.31558 2:-0.00763 3:-0.18319 \n"
"1 1:0.34911 2:0.34351 3:-0.5341 \n"
"1 1:0.35503 2:-0.03817 3:-0.17272 \n"
"1 1:0.32742 2:0.09924 3:-0.32276 \n"
"1 1:0.10651 2:-0.00763 3:-0.60735 \n"
"1 1:0.16963 2:0.1145 3:-0.66265 \n"
"1 1:0.1854 2:0.09924 3:-0.6528 \n"
"1 1:0.17751 2:0.1145 3:-0.63102 \n"
"1 1:0.1854 2:0.05344 3:-0.5906 \n"
"1 1:0.2288 2:0.34351 3:-0.81216 \n"
"1 1:0.20316 2:0.37405 3:-0.84281 \n"
"1 1:0.26627 2:0.19084 3:-0.66513 \n"
"1 1:0.19724 2:0.14504 3:-0.64533 \n"
"1 1:0.24852 2:0.16031 3:-0.60544 \n"
"1 1:0.19527 2:0.17557 3:-0.62257 \n"
"1 1:0.18146 2:0.1145 3:-0.59804 \n"
"1 1:0.40631 2:0.43511 3:-0.70637 \n"
"1 1:0.40631 2:0.43511 3:-0.70637 \n"
"1 1:0.22682 2:0.1145 3:-0.50843 \n"
"1 1:0.31558 2:0.52672 3:-0.72651 \n"
"1 1:0.21499 2:-0.19084 3:-0.17137 \n"
"1 1:0.20316 2:-0.14504 3:-0.24684 \n"
"1 1:0.2426 2:-0.14504 3:-0.17907 \n"
"1 1:0.24852 2:-0.22137 3:-0.42855 \n"
"1 1:0.15779 2:-0.08397 3:-0.55189 \n"
"1 1:0.43195 2:0.09924 3:-0.35397 \n"
"1 1:0.46746 2:-0.20611 3:-0.21442 \n"
"1 1:0.39053 2:0.19084 3:-0.43818 \n"
"1 1:0.34911 2:0.05344 3:-0.46671 \n"
"1 1:0.44576 2:0.32824 3:-0.67866 \n"
"1 1:0.45759 2:-0.22137 3:-0.10027 \n"
"1 1:0.39448 2:-0.22137 3:0.05435 \n"
"1 1:0.42998 2:0.12977 3:-0.43802 \n"
"1 1:0.42998 2:-0.40458 3:-0.06129 \n"
"1 1:0.36095 2:0.25191 3:-0.49075 \n"
"1 1:0.35306 2:-0.12977 3:-0.19798 \n"
"1 1:0.31953 2:0.22137 3:-0.53987 \n"
"1 1:0.31558 2:-0.08397 3:-0.21229 \n"
"1 1:0.48521 2:-0.16031 3:-0.23561 \n"
"1 1:0.40434 2:-0.31298 3:-0.06909 \n"
"1 1:0.40434 2:-0.34351 3:-0.03522 \n"
"1 1:0.45759 2:-0.29771 3:-0.12797 \n"
"1 1:0.36095 2:0.25191 3:-0.57937 \n"
"1 1:0.40237 2:-0.16031 3:-0.21204 \n"
"1 1:0.35897 2:-0.0229 3:-0.25816 \n"
"1 1:0.4142 2:0.19084 3:-0.48808 \n"
"1 1:0.42604 2:-0.0687 3:-0.25453 \n"
"1 1:0.5069 2:0.66412 3:-0.58103 \n"
"1 1:0.36489 2:0.54198 3:-0.75359 \n"
"1 1:0.32544 2:0.0687 3:-0.25194 \n"
"1 1:0.35897 2:0.0687 3:-0.18472 \n"
"1 1:0.42012 2:0.40458 3:-0.46885 \n"
"1 1:0.16963 2:0.34351 3:-0.85544 \n"
"1 1:0.23077 2:0.43511 3:-0.79866 \n"
"1 1:0.39053 2:0.55725 3:-0.72277 \n"
"1 1:0.37278 2:0.52672 3:-0.63399 \n"
"1 1:0.60355 2:0.43511 3:-0.14308 \n"
"1 1:0.48915 2:0.49618 3:-0.68553 \n"
"1 1:0.29783 2:0.60305 3:-0.88353 \n"
"1 1:0.24458 2:0.31298 3:-0.71302 \n"
"1 1:0.35108 2:0.43511 3:-0.86696 \n"
"1 1:0.16765 2:0.25191 3:-0.8458 \n"
"1 1:0.26824 2:0.19084 3:-0.52381 \n"
"1 1:0.34517 2:0.0229 3:-0.33826 \n"
"1 1:0.36095 2:0.34351 3:-0.52212 \n"
"1 1:0.40828 2:0.32824 3:-0.38934 \n"
"1 1:0.4359 2:-0.35878 3:0.36903 \n"
"1 1:0.36292 2:0.34351 3:-0.49416 \n"
"1 1:0.18935 2:-0.45038 3:0.01442 \n"
"1 1:0.30178 2:0.22137 3:-0.47713 \n"
"1 1:0.2071 2:-0.16031 3:-0.21616 \n"
"1 1:0.42604 2:0.37405 3:-0.43844 \n"
"1 1:0.44773 2:-0.26718 3:-0.07707 \n"
"1 1:0.37673 2:0.25191 3:-0.57562 \n"
"1 1:0.41026 2:-0.12977 3:-0.09695 \n"
"1 1:0.44181 2:-0.19084 3:-0.03638 \n"
"1 1:0.44379 2:-0.20611 3:0.03774 \n"
"1 1:0.50296 2:-0.23664 3:-0.17566 \n"
"1 1:0.44181 2:-0.19084 3:-0.01806 \n"
"1 1:0.3787 2:0.31298 3:-0.65186 \n"
"1 1:0.4497 2:0.00763 3:-0.21882 \n"
"1 1:0.42604 2:0.08397 3:-0.45924 \n"
"1 1:0.29586 2:0.41985 3:-0.77345 \n"
"1 1:0.44379 2:-0.12977 3:-0.23607 \n"
"1 1:0.42801 2:-0.03817 3:-0.22881 \n"
"1 1:0.45365 2:-0.08397 3:-0.32953 \n"
"1 1:0.46746 2:-0.1145 3:-0.05267 \n"
"1 1:0.49112 2:-0.03817 3:-0.02091 \n"
"1 1:0.48718 2:-0.19084 3:-0.28959 \n"
"1 1:0.33136 2:0.31298 3:-0.63937 \n"
"1 1:0.38067 2:0.0687 3:-0.27673 \n"
"1 1:0.11243 2:-0.35878 3:-0.47221 \n"
"1 1:0.12229 2:-0.20611 3:-0.37998 \n"
"1 1:0.08876 2:-0.25191 3:-0.36416 \n"
"1 1:0.09862 2:-0.25191 3:-0.40173 \n"
"1 1:0.43984 2:0.03817 3:0.00551 \n"
"1 1:0.40631 2:0.32824 3:-0.4231 \n"
"1 1:0.45759 2:0.43511 3:-0.54317 \n"
"1 1:0.47337 2:0.41985 3:-0.35266 \n"
"1 1:0.42604 2:0.43511 3:-0.71534 \n"
"0.2885834218779462 1:0.42209 2:0.25191 3:-0.24831 \n"
"1 1:0.36292 2:0.41985 3:-0.64238 \n"
"1 1:0.2643 2:0.16031 3:-0.47831 \n"
"1 1:0.286 2:0.0687 3:-0.33999 \n"
"1 1:0.43984 2:0.00763 3:-0.21706 \n"
"1 1:0.35306 2:-0.05344 3:-0.1515 \n"
"1 1:0.34122 2:0.12977 3:-0.41029 \n"
"1 1:0.31755 2:0.14504 3:-0.46534 \n"
"1 1:0.30375 2:0.12977 3:-0.41308 \n"
"1 1:0.33925 2:0.20611 3:-0.47007 \n"
"1 1:0.40237 2:0.40458 3:-0.7098 \n"
"1 1:0.31558 2:0.26718 3:-0.55622 \n"
"1 1:0.30572 2:0.1145 3:-0.45604 \n"
"1 1:0.1499 2:-0.0229 3:-0.59356 \n"
"1 1:0.24458 2:0.20611 3:-0.68278 \n"
"1 1:0.16963 2:0.17557 3:-0.66789 \n"
"1 1:0.13609 2:-0.00763 3:-0.59533 \n"
"1 1:0.15385 2:-0.00763 3:-0.61069 \n"
"1 1:0.15976 2:0.1145 3:-0.6549 \n"
"1 1:0.19132 2:0.03817 3:-0.52443 \n"
"1 1:0.23077 2:0.08397 3:-0.68554 \n"
"1 1:0.15582 2:-0.03817 3:-0.54201 \n"
"1 1:0.18935 2:0.09924 3:-0.59947 \n"
"1 1:0.15582 2:0.00763 3:-0.63635 \n"
"1 1:0.20513 2:-0.03817 3:-0.60151 \n"
"1 1:0.40828 2:0.00763 3:-0.08796 \n"
"1 1:0.05128 2:-0.35878 3:-0.3137 \n"
"1 1:0.22682 2:0.1145 3:-0.50843 \n"
"1 1:0.35306 2:0.49618 3:-0.80159 \n"
"1 1:0.24655 2:-0.00763 3:-0.54269 \n"
"1 1:0.19724 2:-0.09924 3:-0.47903 \n"
"1 1:0.17357 2:-0.19084 3:-0.30296 \n"
"1 1:0.24063 2:-0.05344 3:-0.3094 \n"
"1 1:0.2426 2:-0.17557 3:-0.32665 \n"
"1 1:0.25838 2:0.1145 3:-0.47818 \n"
"1 1:0.4142 2:-0.16031 3:-0.42548 \n"
"1 1:0.38462 2:-0.26718 3:-0.11677 \n"
"1 1:0.45957 2:-0.0229 3:-0.35283 \n"
"1 1:0.42406 2:-0.32824 3:0.03029 \n"
"1 1:0.40434 2:-0.14504 3:-0.23421 \n"
"1 1:0.4142 2:0.05344 3:-0.42168 \n"
"1 1:0.37081 2:-0.19084 3:-0.13482 \n"
"1 1:0.39842 2:0.16031 3:-0.43145 \n"
"1 1:0.42998 2:-0.20611 3:-0.16187 \n"
"1 1:0.39053 2:0.34351 3:-0.63966 \n"
"1 1:0.41815 2:-0.08397 3:-0.26672 \n"
"1 1:0.42801 2:-0.0229 3:-0.20891 \n"
"1 1:0.46351 2:-0.38931 3:-0.04002 \n"
"1 1:0.43787 2:-0.0687 3:-0.30137 \n"
"1 1:0.3787 2:-0.16031 3:-0.22203 \n"
"1 1:0.4931 2:-0.0687 3:-0.28168 \n"
"1 1:0.42406 2:-0.03817 3:-0.37366 \n"
"1 1:0.4142 2:-0.23664 3:-0.09569 \n"
"1 1:0.43195 2:0.1145 3:-0.36312 \n"
"1 1:0.42012 2:-0.29771 3:0.04404 \n"
"1 1:0.34714 2:-0.09924 3:-0.28885 \n"
"1 1:0.41815 2:-0.17557 3:-0.01562 \n"
"1 1:0.38659 2:-0.25191 3:0.03719 \n"
"1 1:0.40237 2:-0.0687 3:-0.22662 \n"
"1 1:0.41223 2:-0.12977 3:-0.12693 \n"
"1 1:0.32544 2:0.34351 3:-0.70383 \n"
"1 1:0.57988 2:-0.05344 3:-0.26368 \n"
"1 1:0.41026 2:0.55725 3:-0.76871 \n"
"1 1:0.37673 2:0.09924 3:-0.40752 \n"
"-1 1:0.4497 2:0.00763 3:-0.52334 \n"
"-1 1:0.50296 2:0.28244 3:-0.65167 \n"
"-1 1:0.5286 2:0.26718 3:-0.49194 \n"
"-1 1:0.51479 2:0.05344 3:-0.38564 \n"
"-1 1:0.26036 2:0.32824 3:-0.80956 \n"
"-1 1:0.48521 2:0.1145 3:-0.56958 \n"
"-1 1:0.29586 2:-0.0687 3:-0.29395 \n"
"-1 1:0.4931 2:0.03817 3:-0.41617 \n"
"-1 1:0.48126 2:-0.05344 3:-0.34755 \n"
"-1 1:0.46154 2:-0.0687 3:-0.25668 \n"
"-1 1:0.55227 2:-0.22137 3:0.10059 \n"
"-1 1:0.44576 2:-0.03817 3:-0.4535 \n"
"-1 1:0.28994 2:0.08397 3:-0.68768 \n"
"-1 1:0.42012 2:0.52672 3:-0.92392 \n"
"-1 1:0.14596 2:-0.0687 3:-0.61647 \n"
"-1 1:0.25049 2:-0.35878 3:-0.40541 \n"
"-1 1:0.45365 2:0.52672 3:-0.63116 \n"
"-1 1:0.50296 2:0.22137 3:-0.30014 \n"
"-1 1:0.51677 2:0.23664 3:-0.46859 \n"
"-1 1:0.55621 2:0.28244 3:-0.5166 \n"
"-1 1:0.21893 2:0.22137 3:-0.3492 \n"
"-1 1:0.47535 2:-0.05344 3:-0.34728 \n"
"-1 1:0.49704 2:0.37405 3:-0.76559 \n"
"-1 1:0.41223 2:0.43511 3:-0.38044 \n"
"-1 1:0.41026 2:0.16031 3:-0.75944 \n"
"-1 1:0.25444 2:-0.55725 3:0.13677 \n"
"-1 1:0.44576 2:0.08397 3:-0.45694 \n"
"-1 1:0.28994 2:-0.89313 3:0.46122 \n"
"-1 1:0.66469 2:0.34351 3:-0.4 \n"
"-1 1:0.31558 2:0.14504 3:-0.83938 \n"
"-1 1:0.24852 2:-0.29771 3:-0.30628 \n"
"-1 1:0.41617 2:-0.51145 3:0.20414 \n"
"-1 1:0.30769 2:0.49618 3:-0.96593 \n"
"-1 1:0.55819 2:0.08397 3:-0.35329 \n"
"-1 1:0.45957 2:0.16031 3:-0.38368 \n"
"-1 1:0.45957 2:0.40458 3:-0.34297 \n"
"-1 1:0.49112 2:0.52672 3:-0.27287 \n"
"-1 1:0.13807 2:-0.00763 3:-0.33091 \n"
"-1 1:0.40237 2:0.25191 3:-0.3029 \n"
"-1 1:0.38659 2:-0.1145 3:-0.25044 \n"
"-1 1:0.3925 2:-0.32824 3:-0.12966 \n"
"-1 1:0.32544 2:0.29771 3:-0.62883 \n"
"-1 1:0.4497 2:0.1145 3:-0.58155 \n"
"-1 1:0.38264 2:-0.12977 3:-0.35062 \n"
"-1 1:0.45168 2:0.23664 3:-0.67665 \n"
"-1 1:0.36489 2:-0.31298 3:-0.02509 \n"
"-1 1:0.50493 2:-0.19084 3:-0.16967 \n"
"-1 1:0.24655 2:-0.08397 3:-0.44877 \n"
"-1 1:0.31164 2:-0.0229 3:-0.5899 \n"
"-1 1:0.40828 2:0.16031 3:-0.42709 \n"
"-1 1:0.44181 2:-0.08397 3:-0.42944 \n"
"-1 1:0.48323 2:-0.0687 3:-0.20977 \n"
"-1 1:0.4931 2:0.1145 3:-0.44513 \n"
"-1 1:0.39842 2:-0.00763 3:-0.59592 \n"
"-1 1:0.35897 2:-0.54198 3:-0.02367 \n"
"-1 1:0.29783 2:-0.40458 3:-0.18824 \n"
"-1 1:0.42209 2:-0.08397 3:-0.43981 \n"
"-1 1:0.37081 2:0.08397 3:-0.54346 \n"
"-1 1:0.32347 2:0.09924 3:-0.66325 \n"
"-1 1:0.38067 2:-0.05344 3:-0.35948 \n"
"-1 1:0.39053 2:-0.0229 3:-0.446 \n"
"-1 1:0.48126 2:-0.20611 3:0.04413 \n"
"-1 1:0.38264 2:-0.32824 3:-0.11765 \n"
"-1 1:0.22288 2:-0.34351 3:-0.41697 \n"
"-1 1:0.37278 2:-0.23664 3:-0.27539 \n"
"-1 1:0.357 2:-0.14504 3:-0.35148 \n"
"-1 1:0.37278 2:-0.28244 3:-0.19136 \n"
"-1 1:0.51085 2:0.00763 3:-0.30226 \n"
"-1 1:0.41617 2:-0.61832 3:0.26219 \n"
"-1 1:0.37278 2:-0.00763 3:-0.42933 \n"
"-1 1:0.21893 2:-0.17557 3:-0.55712 \n"
"-1 1:0.35897 2:0.12977 3:-0.27871 \n"
"-1 1:0.38659 2:-0.0687 3:-0.50168 \n"
"-1 1:0.42012 2:-0.05344 3:-0.47184 \n"
"-1 1:0.12229 2:-0.1145 3:-0.56174 \n"
"-1 1:0.47337 2:-0.17557 3:-0.16016 \n"
"-1 1:0.20907 2:0.23664 3:-0.91856 \n"
"-1 1:0.3432 2:-0.58779 3:0.13958 \n"
"-1 1:0.29191 2:0.29771 3:-0.61016 \n"
"-1 1:0.10059 2:0.41985 3:-0.85653 \n"
"-1 1:0.33925 2:0.08397 3:-0.6463 \n"
"-1 1:0.36292 2:0.16031 3:-0.66519 \n"
"-1 1:0.38659 2:0.29771 3:-0.86588 \n"
"-1 1:0.38462 2:-0.35878 3:-0.22799 \n"
"-1 1:0.42801 2:-0.03817 3:-0.51251 \n"
"-1 1:0.48718 2:-0.03817 3:-0.37427 \n"
"-1 1:0.40828 2:0.35878 3:-0.30011 \n"
"-1 1:0.43195 2:0.43511 3:-0.21204 \n"
"-1 1:0.27811 2:0.0687 3:-0.32817 \n"
"-1 1:0.36489 2:-0.55725 3:0.41525 \n"
"-1 1:0.357 2:-0.05344 3:-0.34614 \n"
"-1 1:0.45957 2:0.16031 3:-0.60922 \n"
"-1 1:0.44576 2:0.22137 3:-0.6931 \n"
"-1 1:0.4497 2:0.1145 3:-0.553 \n"
"-1 1:0.68442 2:0.46565 3:-0.4684 \n"
"-1 1:0.44576 2:0.38931 3:-0.46996 \n"
"-1 1:0.22288 2:-0.16031 3:-0.37399 \n"
"-1 1:0.20907 2:0.35878 3:-0.5905 \n"
"-1 1:0.56016 2:0.08397 3:-0.38553 \n"
"-1 1:0.43787 2:0.12977 3:-0.30783 \n"
"-1 1:0.5641 2:0.19084 3:-0.39578 \n"
"-1 1:0.22682 2:0.17557 3:-0.57458 \n"
"-1 1:0.52663 2:-0.72519 3:0.70423 \n"
"-1 1:0.41223 2:-0.58779 3:0.20399 \n"
"-1 1:0.44379 2:-0.16031 3:-0.31506 \n"
"-1 1:0.36884 2:-0.25191 3:-0.31692 \n"
"-1 1:0.49704 2:0.16031 3:-0.37694 \n"
"-1 1:0.38856 2:-0.60305 3:0.20723 \n"
"-1 1:0.4142 2:-0.03817 3:-0.39293 \n"
"-1 1:0.44379 2:0.09924 3:-0.51287 \n"
"-1 1:0.40828 2:-0.16031 3:-0.35409 \n"
"-1 1:0.27416 2:0.0687 3:-0.60208 \n"
"-1 1:0.18935 2:-0.16031 3:-0.59778 \n"
"-1 1:0.30572 2:0.16031 3:-0.73383 \n"
"-1 1:0.50493 2:-0.14504 3:-0.15651 \n"
"-1 1:0.44576 2:0.22137 3:-0.64481 \n"
"-1 1:0.32347 2:-0.16031 3:-0.42044 \n"
"-1 1:0.11045 2:-0.00763 3:-0.62886 \n"
"-1 1:0.42209 2:-0.19084 3:-0.26372 \n"
"-1 1:0.51479 2:-0.00763 3:-0.32984 \n"
"-1 1:0.18738 2:-0.09924 3:-0.70428 \n"
"-1 1:0.33136 2:-0.03817 3:-0.50969 \n"
"-1 1:0.35897 2:-0.14504 3:-0.42449 \n"
"-1 1:0.39842 2:-0.32824 3:-0.13653 \n"
"-1 1:0.15385 2:-0.1145 3:-0.37333 \n"
"-1 1:0.47929 2:0.34351 3:-0.50699 \n"
"-1 1:0.36686 2:0.03817 3:-0.51265 \n"
"-1 1:0.59172 2:0.29771 3:-0.47252 \n"
"-1 1:0.33333 2:0.35878 3:-0.76053 \n"
"-1 1:0.32544 2:-0.1145 3:-0.4644 \n"
"-1 1:0.44181 2:-0.40458 3:-0.03975 \n"
"-1 1:0.43787 2:-0.25191 3:-0.05745 \n"
"-1 1:0.36095 2:-0.17557 3:-0.42663 \n"
"-1 1:0.20907 2:-0.16031 3:-0.33817 \n"
"-1 1:0.37475 2:0.1145 3:-0.59465 \n"
"-1 1:0.45759 2:0.29771 3:-0.76637 \n"
"-1 1:0.46746 2:-0.25191 3:-0.04124 \n"
"-0.2796945959104804 1:0.53452 2:-0.49618 3:0.29894 \n"
"-1 1:0.49112 2:0.26718 3:-0.51767 \n"
"-1 1:0.63116 2:0.37405 3:-0.43893 \n"
"-1 1:0.42801 2:0.31298 3:-0.58246 \n"
"-1 1:0.54241 2:-0.34351 3:0.11993 \n"
"-1 1:0.36292 2:-0.45038 3:0.01481 \n"
"-1 1:0.06706 2:0.19084 3:-0.6966 \n"
"-1 1:0.52268 2:-0.37405 3:0.1873 \n"
"-1 1:0.3925 2:0.17557 3:-0.68744 \n"
"-1 1:0.18738 2:0.08397 3:-0.45166 \n"
"-1 1:0.14793 2:0.09924 3:-0.63715 \n"
"-1 1:0.2288 2:0.1145 3:-0.40976 \n"
"-1 1:0.29586 2:0.1145 3:-0.7271 \n"
"-1 1:0.45957 2:0.28244 3:-0.79778 \n"
"-1 1:0.37278 2:-0.35878 3:-0.18985 \n"
"-1 1:0.43787 2:-0.45038 3:0.01276 \n"
"-1 1:0.08876 2:0.19084 3:-0.65387 \n"
"-1 1:0.6075 2:0.46565 3:-0.67876 \n"
"-1 1:0.54635 2:0.35878 3:-0.62484 \n"
"-1 1:0.34714 2:-0.22137 3:-0.38486 \n"
"-1 1:0.40237 2:0.16031 3:-0.70247 \n"
"-1 1:0.42998 2:-0.57252 3:0.31948 \n"
"-1 1:0.38462 2:-0.34351 3:-0.13929 \n"
"-1 1:0.31164 2:0.03817 3:-0.38385 \n"
"-1 1:0.46154 2:0.08397 3:-0.58314 \n"
"-1 1:0.40434 2:-0.58779 3:0.13755 \n"
"-1 1:0.39842 2:0.23664 3:-0.56195 \n"
"-1 1:0.25247 2:0.12977 3:-0.59703 \n"
"-1 1:0.27022 2:0.20611 3:-0.8053 \n"
"-1 1:0.29389 2:0.46565 3:-0.31747 \n"
"-1 1:0.48915 2:0.12977 3:-0.44423 \n"
"-1 1:0.36095 2:-0.40458 3:-0.04417 \n"
"-1 1:0.4142 2:-0.17557 3:-0.32117 \n"
"-1 1:0.5286 2:0.09924 3:-0.27721 \n"
"-1 1:0.33728 2:0.05344 3:-0.70824 \n"
"-1 1:0.14793 2:0.26718 3:-0.69566 \n"
"-1 1:0.29586 2:-0.26718 3:-0.20584 \n"
"-1 1:0.40434 2:0.41985 3:-0.82715 \n"
"-1 1:0.2643 2:0.32824 3:-0.84834 \n"
"-1 1:0.38264 2:0.28244 3:-0.86858 \n"
"-1 1:0.28797 2:-0.25191 3:-0.3757 \n"
"-1 1:0.38462 2:-0.32824 3:-0.23588 \n"
"-1 1:0.25444 2:-0.0687 3:-0.7776 \n"
"-1 1:0.50888 2:-0.00763 3:-0.27777 \n"
"-1 1:0.38067 2:-0.40458 3:-0.04982 \n"
"-1 1:0.39053 2:-0.23664 3:-0.18754 \n"
"-1 1:0.45957 2:0.0229 3:-0.34145 \n"
"-1 1:0.44181 2:-0.17557 3:-0.28665 \n"
"-1 1:0.33531 2:-0.49618 3:-0.03219 \n"
"-1 1:0.45562 2:-0.38931 3:-0.00585 \n"
"-1 1:0.24655 2:0.28244 3:-0.61958 \n"
"-1 1:0.65878 2:-0.08397 3:0.04725 \n"
"-1 1:0.48718 2:0.12977 3:0.03707 \n"
"-1 1:0.6568 2:0.37405 3:-0.39213 \n"
"-1 1:0.54438 2:0.12977 3:-0.29592 \n"
"-1 1:0.42998 2:-0.1145 3:-0.42661 \n"
"-1 1:0.39053 2:-0.26718 3:-0.27961 \n"
"-1 1:0.27811 2:-0.46565 3:-0.04712 \n"
"-1 1:0.3925 2:0.0229 3:-0.60219 \n"
"-1 1:0.4359 2:0.25191 3:-0.79259 \n"
"-1 1:0.42604 2:-0.43511 3:0.07758 \n"
"-1 1:0.54438 2:0.0229 3:-0.27361 \n"
"-1 1:0.38659 2:-0.00763 3:-0.52721 \n"
"-1 1:0.42406 2:0.05344 3:-0.26858 \n"
"-1 1:0.42406 2:0.08397 3:-0.57882 \n"
"-1 1:0.48323 2:0.00763 3:-0.3658 \n"
"-1 1:0.48323 2:0.0229 3:-0.28499 \n"
"-1 1:0.37278 2:0.52672 3:-0.54112 \n"
"-1 1:0.6568 2:0.46565 3:-0.47329 \n"
"-1 1:0.50099 2:-0.14504 3:-0.12746 \n"
"-1 1:0.14793 2:0.32824 3:-0.85703 \n"
"-1 1:0.35108 2:0.0687 3:-0.2965 \n"
"-1 1:0.51677 2:0.16031 3:-0.55113 \n"
"-1 1:0.24458 2:-0.32824 3:-0.44553 \n"
"-1 1:0.53846 2:0.1145 3:-0.34541 \n"
"-1 1:0.50099 2:0.22137 3:-0.6381 \n"
"-1 1:0.57396 2:0.12977 3:-0.36583 \n"
"-1 1:0.49704 2:-0.19084 3:-0.13073 \n"
"-1 1:0.52465 2:-0.57252 3:0.47593 \n"
"-1 1:0.36095 2:0.03817 3:-0.68085 \n"
"-1 1:0.50099 2:-0.70992 3:0.57607 \n"
"-1 1:0.42801 2:-0.20611 3:-0.03461 \n"
"-1 1:0.43393 2:-0.20611 3:-0.23754 \n"
"-1 1:0.38067 2:0.22137 3:-0.67003 \n"
"-1 1:0.40237 2:-0.38931 3:0.03622 \n"
"-1 1:0.48323 2:-0.17557 3:-0.16836 \n"
"-1 1:0.3925 2:0.12977 3:-0.65977 \n"
"-1 1:0.33728 2:-0.23664 3:-0.39974 \n"
"-1 1:0.36489 2:0.05344 3:-0.33511 \n"
"-1 1:0.49704 2:-0.0687 3:-0.21045 \n"
"-1 1:0.33136 2:-0.22137 3:-0.42547 \n"
"-1 1:0.34714 2:-0.03817 3:-0.36671 \n"
"-1 1:0.57002 2:-0.46565 3:0.40866 \n"
"-1 1:0.42604 2:-0.43511 3:-0.0055 \n"
"-1 1:0.48718 2:-0.46565 3:0.26939 \n"
"-1 1:0.38462 2:0.43511 3:-0.48084 \n"
"-1 1:0.643 2:0.46565 3:-0.53986 \n"
"-1 1:0.33531 2:-0.0229 3:-0.424 \n"
"-1 1:0.40828 2:0.29771 3:-0.52922 \n"
"-1 1:0.26233 2:0.0229 3:-0.4399 \n"
"-1 1:0.34122 2:0.1145 3:-0.51971 \n"
"-1 1:0.2643 2:-0.0229 3:-0.35506 \n"
"-1 1:0.38067 2:-0.52672 3:0.05923 \n"
"-1 1:0.40434 2:-0.19084 3:-0.18234 \n"
"-1 1:0.32347 2:-0.31298 3:-0.36153 \n"
"-1 1:0.46351 2:0.41985 3:-0.84224 \n"
"-1 1:0.47929 2:0.17557 3:-0.31217 \n"
"-1 1:0.43195 2:-0.26718 3:-0.08878 \n"
"-1 1:0.50296 2:-0.0687 3:-0.30787 \n"
"-1 1:0.59172 2:0.12977 3:-0.32875 \n"
"-1 1:0.43195 2:0.55725 3:-0.29988 \n"
"-1 1:0.43195 2:0.29771 3:-0.55457 \n"
"-1 1:0.29783 2:0.32824 3:-0.70987 \n"
"-1 1:0.53452 2:0.09924 3:-0.33674 \n"
"-1 1:0.56607 2:0.32824 3:-0.51254 \n"
"-1 1:0.286 2:0.1145 3:-0.79672 \n"
"-1 1:0.36686 2:-0.12977 3:-0.50519 \n"
"-1 1:0.40434 2:-0.49618 3:0.05941 \n"
"-1 1:0.44181 2:-0.48092 3:0.09102 \n"
"-1 1:0.3215 2:-0.12977 3:-0.43742 \n"
"-1 1:0.18146 2:0.26718 3:-0.70396 \n"
"-1 1:0.42012 2:-0.1145 3:-0.39724 \n"
"-1 1:0.31164 2:-0.37405 3:-0.20901 \n"
"-1 1:0.46746 2:-0.25191 3:-0.16571 \n"
"-1 1:0.45365 2:-0.60305 3:0.40473 \n"
"-1 1:0.31953 2:0.09924 3:-0.57965 \n"
"-1 1:0.48521 2:0.00763 3:-0.35201 \n"
"-1 1:0.48718 2:0.12977 3:-0.57344 \n"
"-1 1:0.37081 2:-0.19084 3:-0.28694 \n"
"-1 1:0.36292 2:0.0229 3:-0.60633 \n"
"-1 1:0.65483 2:0.63359 3:-0.31245 \n"
"-1 1:0.51282 2:0.25191 3:-0.36507 \n"
"-1 1:0.4931 2:0.00763 3:-0.30352 \n"
"-1 1:0.37673 2:0.03817 3:-0.54356 \n"
"-1 1:0.43195 2:-0.0229 3:-0.45483 \n"
"-1 1:0.48521 2:0.0687 3:-0.33501 \n"
"-1 1:0.48915 2:-0.00763 3:-0.17141 \n"
"-1 1:0.33531 2:-0.00763 3:-0.36627 \n"
"-1 1:0.39448 2:0.26718 3:-0.84372 \n"
"-1 1:0.14793 2:0.16031 3:-0.12366 \n"
"-1 1:0.54832 2:0.22137 3:-0.44162 \n"
"-1 1:0.38856 2:0.0229 3:-0.59142 \n"
"-1 1:0.42406 2:0.22137 3:-0.74944 \n"
"-1 1:0.39053 2:-0.19084 3:-0.07769 \n"
"-1 1:0.30769 2:0.35878 3:-0.76809 \n"
"-1 1:0.46943 2:0.38931 3:-0.84872 \n"
"-1 1:0.25444 2:-0.25191 3:-0.1001 \n"
"-1 1:0.34911 2:-0.09924 3:-0.52777 \n"
"-1 1:0.49507 2:0.0229 3:-0.39809 \n"
"-1 1:0.49901 2:0.25191 3:-0.52482 \n"
"-1 1:0.286 2:-0.40458 3:0.03892 \n"
"-1 1:0.34122 2:-0.63359 3:0.3067 \n"
"-1 1:0.59172 2:0.12977 3:-0.31396 \n"
"-1 1:0.5641 2:-0.28244 3:0.13779 \n"
"-1 1:0.2643 2:0.09924 3:-0.37659 \n"
"-1 1:0.56213 2:0.26718 3:-0.1672 \n"
"-1 1:0.5641 2:-0.00763 3:-0.21832 \n"
"-1 1:0.45957 2:-0.61832 3:0.41967 \n"
"-1 1:0.42998 2:0.08397 3:-0.58356 \n"
"-1 1:0.44576 2:0.16031 3:-0.60333 \n"
"-1 1:0.27219 2:0.22137 3:-0.75467 \n"
"-1 1:0.42406 2:-0.48092 3:0.13567 \n"
"-1 1:0.04339 2:0.28244 3:-0.86198 \n"
"-1 1:0.50493 2:0.17557 3:-0.59423 \n"
"-1 1:0.25838 2:0.08397 3:-0.64959 \n"
"-1 1:0.52465 2:0.20611 3:-0.55561 \n"
"-1 1:0.11243 2:0.52672 3:-0.4753 \n"
"-1 1:0.59566 2:0.51145 3:-0.5146 \n"
"-1 1:0.22288 2:0.03817 3:-0.60868 \n"
"-1 1:0.30769 2:-0.35878 3:-0.0562 \n"
"-1 1:0.42604 2:0.37405 3:-0.79755 \n"
"-1 1:0.35503 2:-0.40458 3:-0.20428 \n"
"-1 1:0.34911 2:-0.16031 3:-0.42812 \n"
"-1 1:0.27416 2:-0.03817 3:-0.31118 \n"
"-1 1:0.38659 2:0.0229 3:-0.36218 \n"
"-1 1:0.40828 2:-0.17557 3:-0.37792 \n"
"-1 1:0.28008 2:0.51145 3:-0.5978 \n"
"-1 1:0.43393 2:0.20611 3:-0.46809 \n"
"-1 1:0.51874 2:-0.70992 3:0.82871 \n"
"-1 1:0.43984 2:-0.57252 3:0.62486 \n"
"-1 1:0.52268 2:0.29771 3:-0.58325 \n"
"-1 1:0.32742 2:0.16031 3:-0.67178 \n"
"-1 1:0.25444 2:0.35878 3:-0.83659 \n"
"-1 1:0.43787 2:0.32824 3:-0.7604 \n"
"-1 1:0.17554 2:-0.22137 3:-0.67009 \n"
"-1 1:0.40434 2:0.19084 3:-0.44805 \n"
"-1 1:0.5286 2:0.34351 3:-0.70474 \n"
"-1 1:0.27811 2:0.05344 3:-0.63155 \n"
"-1 1:0.3215 2:-0.54198 3:0.01735 \n"
"-1 1:0.44379 2:-0.20611 3:-0.28239 \n"
"-1 1:0.30966 2:-0.09924 3:-0.34015 \n"
"-1 1:0.51479 2:-0.05344 3:-0.30898 \n"
"-1 1:0.30966 2:-0.20611 3:-0.34199 \n"
"-1 1:0.4359 2:0.08397 3:-0.5566 \n"
"-1 1:0.2643 2:0.08397 3:-0.28967 \n"
"-1 1:0.41815 2:-0.12977 3:-0.26261 \n"
"-1 1:0.53452 2:0.28244 3:-0.50081 \n"
"-1 1:0.38856 2:0.34351 3:-0.38144 \n"
"-1 1:0.62525 2:0.35878 3:-0.4107 \n"
"-1 1:0.39645 2:-0.08397 3:-0.42521 \n"
"-1 1:0.40237 2:0.0687 3:-0.48903 \n"
"-1 1:0.42209 2:0.08397 3:-0.30027 \n"
"-1 1:0.47732 2:0.14504 3:-0.45432 \n"
"-1 1:0.40828 2:-0.14504 3:-0.43482 \n"
"-1 1:0.33531 2:-0.08397 3:-0.57815 \n"
"-1 1:0.29389 2:0.05344 3:-0.58938 \n"
"-1 1:0.39842 2:-0.03817 3:-0.48705 \n"
"-1 1:0.31558 2:-0.00763 3:-0.61624 \n"
"-1 1:0.44181 2:-0.09924 3:-0.3954 \n"
"-1 1:0.46154 2:-0.22137 3:-0.04121 \n"
"-1 1:0.39842 2:-0.0687 3:-0.5104 \n"
"-1 1:0.357 2:0.32824 3:-0.7501 \n"
"-1 1:0.21696 2:-0.41985 3:-0.32188 \n"
"-1 1:0.45957 2:0.19084 3:-0.58698 \n"
"-1 1:0.45957 2:0.00763 3:-0.49742 \n"
"-1 1:0.43393 2:0.19084 3:-0.67302 \n"
"-1 1:0.33925 2:-0.03817 3:-0.47043 \n"
"-1 1:0.40237 2:0.29771 3:-0.45759 \n"
"-1 1:0.43787 2:-0.49618 3:0.10627 \n"
"-1 1:0.71992 2:0.17557 3:-0.08447 \n"
"-1 1:0.58185 2:-0.09924 3:-0.06763 \n"
"-1 1:0.46154 2:-0.37405 3:0.20287 \n"
"-1 1:0.21499 2:-0.16031 3:-0.42177 \n"
"-1 1:0.20907 2:-0.00763 3:-0.55835 \n"
"-1 1:0.33333 2:-0.43511 3:0.03486 \n"
"-1 1:0.57791 2:0.49618 3:-0.45389 \n"
"-1 1:0.32742 2:-0.22137 3:-0.39504 \n"
"-1 1:0.34517 2:0.31298 3:-0.75395 \n"
"-1 1:0.11243 2:-0.74046 3:-0.24231 \n"
"-1 1:0.11243 2:-0.74046 3:-0.24231 \n"
"-1 1:0.46548 2:-0.34351 3:0.01621 \n"
"-1 1:0.35108 2:-0.32824 3:-0.20327 \n"
"-1 1:0.40631 2:0.12977 3:-0.52897 \n"
"-1 1:0.37673 2:0.25191 3:-0.74981 \n"
"-1 1:0.3787 2:-0.35878 3:-0.17314 \n"
"-1 1:0.40828 2:-0.1145 3:-0.46852 \n"
"-1 1:0.37278 2:0.00763 3:-0.66708 \n"
"-1 1:0.34714 2:0.28244 3:-0.49739 \n"
"-1 1:0.28205 2:0.26718 3:-0.66139 \n"
"-1 1:0.13215 2:-0.20611 3:-0.20047 \n"
"-1 1:0.53846 2:-0.12977 3:-0.116 \n"
"-1 1:0.4497 2:0.14504 3:-0.61889 \n"
"-1 1:0.49901 2:-0.34351 3:0.42277 \n"
"-1 1:0.27219 2:0.03817 3:-0.25534 \n"
"-1 1:0.30375 2:-0.1145 3:-0.23649 \n"
"-1 1:0.30966 2:-0.29771 3:-0.40477 \n"
"-1 1:0.47535 2:0.40458 3:-0.76559 \n"
"-1 1:0.40434 2:0.0229 3:-0.52537 \n"
"-1 1:0.49112 2:-0.0229 3:-0.39797 \n"
"-1 1:0.33728 2:-0.22137 3:-0.48854 \n"
"-1 1:0.51677 2:0.29771 3:-0.24834 \n"
"-1 1:0.56805 2:0.28244 3:-0.51551 \n"
"-1 1:0.39842 2:0.46565 3:-0.46116 \n"
"-1 1:0.30178 2:0.0229 3:-0.26977 \n"
"-1 1:0.41815 2:0.25191 3:-0.67528 \n"
"-1 1:0.42801 2:0.41985 3:-0.91011 \n"
"-1 1:0.48915 2:0.14504 3:-0.58944 \n"
"-1 1:0.10454 2:0.22137 3:-0.75607 \n"
"-1 1:0.26036 2:-0.22137 3:-0.26972 \n"
"-1 1:0.48718 2:0.17557 3:-0.6333 \n"
"-1 1:0.52071 2:0.00763 3:-0.33645 \n"
"-1 1:0.43195 2:-0.54198 3:0.14185 \n"
"-1 1:0.51479 2:0.09924 3:-0.28893 \n"
"-1 1:0.51874 2:0.16031 3:-0.48415 \n"
"-1 1:0.57988 2:0.40458 3:-0.52371 \n"
"-1 1:0.63314 2:0.29771 3:-0.46712 \n"
"-1 1:0.44773 2:0.49618 3:-0.39216 \n"
"-1 1:0.21499 2:0.17557 3:-0.38548 \n"
"-1 1:0.18343 2:0.49618 3:-0.80726 \n"
"-1 1:0.31953 2:0.28244 3:-0.74645 \n"
"-1 1:0.53254 2:0.34351 3:-0.63272 \n"
"-1 1:0.26036 2:0.22137 3:-0.7003 \n"
"-1 1:0.34714 2:0.00763 3:-0.36091 \n"
"-1 1:0.34714 2:-0.05344 3:-0.455 \n"
"-1 1:0.46351 2:-0.1145 3:-0.31545 \n"
"-1 1:0.3432 2:0.25191 3:-0.56254 \n"
"-1 1:0.43984 2:-0.14504 3:-0.34582 \n"
"-1 1:0.357 2:0.17557 3:-0.41733 \n"
"-1 1:0.47732 2:-0.17557 3:0.01137 \n"
"-1 1:0.30178 2:0.0229 3:-0.51815 \n"
"-1 1:0.46351 2:-0.61832 3:0.57024 \n"
"-1 1:0.35306 2:-0.0687 3:-0.41281 \n"
"-1 1:0.19921 2:0.1145 3:-0.54015 \n"
"-1 1:0.44181 2:0.0687 3:-0.46039 \n"
"-1 1:0.46548 2:0.26718 3:-0.73511 \n"
"-1 1:0.3925 2:0.14504 3:-0.76265 \n"
"-1 1:0.357 2:-0.20611 3:-0.34803 \n"
"-1 1:0.46943 2:0.40458 3:-0.81251 \n"
"-1 1:0.48915 2:0.25191 3:-0.42697 \n"
"-1 1:0.43393 2:0.25191 3:-0.60969 \n"
"-1 1:0.42801 2:-0.35878 3:-0.12288 \n"
"-1 1:0.33531 2:-0.0687 3:-0.36098 \n"
"-1 1:0.46943 2:-0.31298 3:-0.07129 \n"
"-1 1:0.30375 2:0.29771 3:-0.71493 \n"
"-1 1:0.45168 2:0.00763 3:-0.3784 \n"
"-1 1:0.53254 2:0.00763 3:-0.1707 \n"
"-1 1:0.4359 2:-0.03817 3:-0.30073 \n"
"-1 1:0.49901 2:0.12977 3:-0.55384 \n"
"-1 1:0.36686 2:0.20611 3:-0.85544 \n"
"-1 1:0.35503 2:-0.23664 3:-0.34628 \n"
"-1 1:0.44773 2:0.16031 3:-0.53791 \n"
"-1 1:0.46746 2:0.38931 3:-0.47945 \n"
"-1 1:0.32544 2:-0.16031 3:-0.4417 \n"
"-1 1:0.42406 2:0.00763 3:-0.44577 \n"
"-1 1:0.50493 2:0.17557 3:-0.52216 \n"
"-1 1:0.10651 2:0.41985 3:-0.46486 \n"
"-1 1:0.43195 2:0.29771 3:-0.5057 \n"
"-1 1:0.38264 2:0.17557 3:-0.32765 \n"
"-1 1:0.40828 2:0.22137 3:-0.28305 \n"
"-1 1:0.50493 2:0.22137 3:-0.53055 \n"
"-1 1:0.20118 2:-0.0229 3:-0.32918 \n"
"-1 1:0.45957 2:-0.1145 3:-0.32369 \n"
"-1 1:0.36095 2:0.19084 3:-0.62314 \n"
"-1 1:0.43787 2:0.16031 3:-0.56503 \n"
"-1 1:0.48126 2:0.16031 3:-0.29979 \n"
"-1 1:0.42012 2:0.29771 3:-0.7532 \n"
"-1 1:0.36292 2:0.23664 3:-0.73498 \n"
"-1 1:0.33925 2:0.20611 3:-0.46355 \n"
"-1 1:0.51677 2:0.40458 3:-0.71174 \n"
"-1 1:0.38856 2:-0.60305 3:0.13515 \n"
"-1 1:0.39842 2:-0.0229 3:-0.50995 \n"
"-1 1:0.4142 2:0.40458 3:-0.79866 \n"
"-1 1:0.28994 2:0.22137 3:-0.34609 \n"
"-1 1:0.38264 2:-0.00763 3:0.04031 \n"
"-1 1:0.26627 2:0.38931 3:-0.28221 \n"
"-1 1:0.61736 2:0.17557 3:-0.31163 \n"
"-1 1:0.31558 2:0.12977 3:-0.61912 \n"
"-1 1:0.29783 2:-0.19084 3:-0.32775 \n"
"-1 1:0.40039 2:0.37405 3:-0.75694 \n"
"-1 1:0.41026 2:-0.05344 3:-0.28139 \n"
"-1 1:0.50888 2:0.25191 3:-0.49572 \n"
"-1 1:0.35108 2:-0.69466 3:0.53312 \n"
"-1 1:0.51282 2:-0.40458 3:0.15145 \n"
"-1 1:0.40039 2:0.0229 3:-0.60956 \n"
"-1 1:0.38659 2:0.03817 3:-0.57318 \n"
"-1 1:0.4931 2:-0.60305 3:0.55457 \n"
"-1 1:0.33333 2:0.03817 3:-0.54998 \n"
"-1 1:0.35503 2:0.09924 3:-0.6942 \n"
"-1 1:0.44181 2:-0.49618 3:0.14503 \n"
"-1 1:0.23077 2:0.03817 3:-0.31655 \n"
"-1 1:0.32544 2:-0.40458 3:-0.29437 \n"
"-1 1:0.40828 2:-0.00763 3:-0.4691 \n"
"-1 1:0.42998 2:0.41985 3:-0.78474 \n"
"-1 1:0.43393 2:0.26718 3:-0.68744 \n"
"-1 1:0.37475 2:0.09924 3:-0.35543 \n"
"-1 1:0.36686 2:-0.09924 3:-0.42248 \n"
"-1 1:0.33728 2:0.05344 3:-0.61845 \n"
"-1 1:0.51677 2:-0.0687 3:0.02126 \n"
"-1 1:0.46943 2:0.34351 3:-0.64238 \n"
"-1 1:0.22682 2:0.00763 3:-0.49651 \n"
"-1 1:0.36489 2:-0.40458 3:-0.08044 \n"
"-1 1:0.26036 2:-0.0229 3:-0.55712 \n"
"-1 1:0.5069 2:-0.70992 3:0.59034 \n"
"-1 1:0.46351 2:0.08397 3:-0.34949 \n"
"-1 1:0.45759 2:-0.57252 3:0.33162 \n"
"-1 1:0.46943 2:-0.08397 3:-0.35241 \n"
"-1 1:0.48718 2:0.37405 3:-0.8067 \n"
"-1 1:0.43984 2:-0.72519 3:0.43271 \n"
"-1 1:0.45759 2:-0.35878 3:-0.05381 \n"
"-1 1:0.23866 2:-0.08397 3:-0.35866 \n"
"-1 1:0.25049 2:0.34351 3:-0.84622 \n"
"-1 1:0.28008 2:0.29771 3:-0.82825 \n"
"-1 1:0.56805 2:0.41985 3:-0.62106 \n"
"-1 1:0.30769 2:-0.12977 3:-0.48945 \n"
"-1 1:0.23471 2:-0.05344 3:-0.48248 \n"
"-1 1:0.25444 2:-0.26718 3:-0.42151 \n"
"-1 1:0.52465 2:-0.58779 3:0.42363 \n"
"-1 1:0.30966 2:0.0229 3:-0.58698 \n"
"-1 1:0.39842 2:0.43511 3:-0.25274 \n"
"-1 1:0.61144 2:-0.0687 3:0.10036 \n"
"-1 1:0.36884 2:-0.63359 3:0.19775 \n"
"-1 1:0.42012 2:0.31298 3:-0.86552 \n"
"-1 1:0.38856 2:0.28244 3:-0.81576 \n"
"-1 1:0.54043 2:0.20611 3:-0.51718 \n"
"-1 1:0.41815 2:0.03817 3:-0.52271 \n"
"-1 1:0.43195 2:0.19084 3:-0.71518 \n"
"-1 1:0.3787 2:0.12977 3:-0.57655 \n"
"-1 1:0.44181 2:0.34351 3:-0.42676 \n"
"-1 1:0.48521 2:0.05344 3:-0.31328 \n"
"-1 1:0.36884 2:0.25191 3:-0.66159 \n"
"-1 1:0.52071 2:-0.03817 3:-0.18896 \n"
"-1 1:0.3215 2:-0.37405 3:-0.32499 \n"
"-1 1:0.00592 2:-0.0229 3:-0.5777 \n"
"-1 1:0.45168 2:-0.37405 3:0.04906 \n"
"-1 1:0.46154 2:-0.00763 3:-0.39533 \n"
"-1 1:0.36686 2:-0.05344 3:-0.4536 \n"
"-1 1:0.51479 2:0.0687 3:-0.34956 \n"
"-1 1:0.45562 2:0.35878 3:-0.80159 \n"
"-1 1:0.48521 2:0.34351 3:-0.64061 \n"
"-0.5022006917565393 1:0.58777 2:0.0687 3:-0.31604 \n"
"-1 1:0.30769 2:-0.28244 3:-0.29858 \n"
"-1 1:0.2071 2:-0.20611 3:-0.65733 \n"
"-1 1:0.3787 2:0.14504 3:-0.7022 \n"
"-1 1:0.26627 2:0.26718 3:-0.74876 \n"
"-1 1:0.29783 2:0.0687 3:-0.6426 \n"
"-1 1:0.37673 2:-0.03817 3:-0.54625 \n"
"-1 1:0.49704 2:-0.58779 3:0.35173 \n";
