svm_type c_svc
kernel_type rbf
gamma 0.125
nr_class 2
total_sv 1068
rho 1.24644
label 1 -1
probA -2.66668
probB 0.034913
nr_sv 534 534
SV
1 1:0.09862 2:-0.55725 3:-0.1003 
1 1:0.15187 2:-0.58779 3:0.16281 
1 1:0.20513 2:0.49618 3:-0.96593 
1 1:0.49112 2:-0.08397 3:-0.1933 
1 1:0.24655 2:0.26718 3:-0.73414 
1 1:0.60355 2:0.49618 3:-0.19812 
1 1:0.30375 2:0.60305 3:-0.85336 
1 1:0.27613 2:0.25191 3:-0.67996 
1 1:0.32544 2:0.49618 3:-0.78179 
1 1:0.41815 2:0.49618 3:-0.52013 
1 1:0.48915 2:-0.0687 3:0.30906 
1 1:0.29586 2:0.40458 3:-0.74775 
1 1:0.37081 2:-0.17557 3:0.14874 
1 1:0.42998 2:-0.0229 3:0.10671 
1 1:0.42209 2:0.26718 3:-0.39893 
1 1:0.46943 2:0.28244 3:-0.39566 
1 1:0.45562 2:-0.28244 3:0.09609 
1 1:0.14596 2:-0.67939 3:0.21585 
1 1:0.00394 2:-0.78626 3:0.2176 
1 1:0.47337 2:0.46565 3:-0.50083 
1 1:0.3787 2:0.35878 3:-0.53497 
1 1:0.3432 2:0.32824 3:-0.4898 
1 1:0.47535 2:0.0229 3:-0.17303 
1 1:0.39448 2:-0.08397 3:-0.17365 
1 1:0.42209 2:0.19084 3:-0.25645 
1 1:0.44181 2:-0.19084 3:-0.03638 
1 1:0.45562 2:-0.1145 3:0.03344 
1 1:0.57199 2:-0.31298 3:-0.40017 
1 1:0.4497 2:-0.0687 3:-0.27922 
1 1:0.38462 2:-0.05344 3:-0.44459 
1 1:0.43195 2:0.0687 3:-0.19304 
1 1:0.44576 2:-0.14504 3:-0.13128 
1 1:0.30769 2:0.14504 3:-0.52693 
1 1:0.41026 2:-0.20611 3:-0.01018 
1 1:0.52268 2:-0.32824 3:-0.08353 
1 1:0.39448 2:-0.12977 3:-0.07735 
1 1:0.57791 2:-0.00763 3:-0.52176 
1 1:0.46351 2:-0.25191 3:-0.1062 
1 1:0.50888 2:-0.29771 3:-0.12567 
1 1:0.40434 2:-0.14504 3:-0.00819 
1 1:0.51874 2:-0.09924 3:-0.38038 
1 1:0.40828 2:-0.08397 3:-0.03454 
1 1:0.3215 2:0.46565 3:-0.67146 
1 1:0.36884 2:0.29771 3:-0.41791 
1 1:0.0927 2:-0.23664 3:-0.38562 
1 1:0.17751 2:-0.40458 3:-0.10277 
1 1:0.46154 2:0.43511 3:-0.43511 
1 1:0.46943 2:0.45038 3:-0.58789 
1 1:0.43393 2:0.25191 3:-0.37226 
1 1:0.47337 2:0.46565 3:-0.90612 
1 1:0.49112 2:0.49618 3:-0.86685 
1 1:0.2998 2:-0.0687 3:-0.32539 
1 1:0.28402 2:0.14504 3:-0.4475 
1 1:0.25641 2:0.12977 3:-0.45873 
1 1:0.30375 2:-0.03817 3:-0.18013 
1 1:0.26036 2:0.16031 3:-0.56523 
1 1:0.31558 2:-0.00763 3:-0.18319 
1 1:0.35503 2:0.19084 3:-0.44098 
1 1:0.21499 2:0.0687 3:-0.57882 
1 1:0.11637 2:-0.0687 3:-0.57689 
1 1:0.17357 2:0.32824 3:-0.83139 
1 1:0.18146 2:0.08397 3:-0.55768 
1 1:0.2288 2:0.05344 3:-0.60628 
1 1:0.19724 2:0.19084 3:-0.82039 
1 1:0.13215 2:-0.05344 3:-0.50511 
1 1:0.14596 2:0.1145 3:-0.65636 
1 1:0.26036 2:-0.14504 3:-0.59947 
1 1:0.18738 2:-0.28244 3:-0.61024 
1 1:0.32742 2:-0.34351 3:0.25167 
1 1:0.36686 2:0.00763 3:-0.11698 
1 1:0.25444 2:0.35878 3:-0.86698 
1 1:0.33531 2:0.26718 3:-0.66119 
1 1:0.33531 2:0.26718 3:-0.66119 
1 1:0.33531 2:0.32824 3:-0.50706 
1 1:0.13609 2:-0.63359 3:0.19814 
1 1:0.16371 2:-0.00763 3:-0.54605 
1 1:0.19921 2:-0.23664 3:-0.45442 
1 1:0.22091 2:-0.17557 3:-0.45032 
1 1:0.24458 2:-0.17557 3:-0.28307 
1 1:0.28205 2:0.03817 3:-0.33515 
1 1:0.22288 2:-0.17557 3:-0.20821 
1 1:0.2426 2:0.09924 3:-0.5579 
1 1:0.28402 2:-0.0229 3:-0.26238 
1 1:0.37278 2:-0.00763 3:-0.27325 
1 1:0.41026 2:-0.26718 3:-0.116 
1 1:0.5069 2:-0.25191 3:-0.09354 
1 1:0.45562 2:-0.26718 3:0.04508 
1 1:0.42998 2:-0.34351 3:0.02607 
1 1:0.37673 2:-0.31298 3:-0.02253 
1 1:0.48126 2:-0.05344 3:-0.32403 
1 1:0.38659 2:0.00763 3:-0.27899 
1 1:0.3925 2:-0.25191 3:-0.06066 
1 1:0.45957 2:-0.00763 3:-0.32769 
1 1:0.42209 2:-0.12977 3:-0.17109 
1 1:0.36884 2:-0.08397 3:-0.09372 
1 1:0.33925 2:-0.08397 3:-0.20025 
1 1:0.39645 2:-0.28244 3:0.03748 
1 1:0.37081 2:-0.08397 3:-0.26082 
1 1:0.40237 2:-0.16031 3:-0.15681 
1 1:0.40631 2:-0.0229 3:-0.33399 
1 1:0.42604 2:-0.09924 3:-0.1338 
1 1:0.40828 2:0.0687 3:-0.33392 
1 1:0.46943 2:-0.31298 3:-0.01118 
1 1:0.40828 2:-0.14504 3:0.0385 
1 1:0.37673 2:0.0687 3:-0.50178 
1 1:0.31558 2:0.12977 3:-0.387 
1 1:0.39448 2:0.57252 3:-0.8699 
1 1:0.45957 2:0.57252 3:-0.52296 
1 1:0.3432 2:0.34351 3:-0.6707 
1 1:0.36489 2:0.0687 3:-0.16107 
1 1:0.37475 2:0.57252 3:-0.78533 
1 1:0.16963 2:0.34351 3:-0.85544 
1 1:0.46351 2:0.26718 3:-0.45114 
1 1:0.0217 2:-0.61832 3:-0.21984 
1 1:0.25641 2:0.29771 3:-0.65432 
1 1:0.2071 2:0.41985 3:-0.864 
1 1:0.60355 2:0.41985 3:-0.18517 
1 1:0.32742 2:0.45038 3:-0.79778 
1 1:0.26233 2:0.28244 3:-0.61488 
1 1:0.47732 2:0.48092 3:-0.66677 
1 1:0.25641 2:0.26718 3:-0.67788 
1 1:0.38659 2:0.51145 3:-0.5965 
1 1:0.21105 2:0.0687 3:-0.64838 
1 1:0.26824 2:0.19084 3:-0.52381 
1 1:0.26824 2:0.19084 3:-0.52381 
1 1:0.42998 2:0.49618 3:-0.84256 
1 1:0.41617 2:-0.09924 3:0.16628 
1 1:0.22091 2:-0.48092 3:0.12142 
1 1:0.12229 2:-0.57252 3:0.18576 
1 1:0.16174 2:-0.61832 3:0.23981 
1 1:0.37081 2:0.57252 3:-0.78948 
1 1:0.45562 2:0.29771 3:-0.25543 
1 1:0.45365 2:0.28244 3:-0.44153 
1 1:0.44181 2:-0.20611 3:-0.03042 
1 1:0.44576 2:-0.0687 3:-0.00303 
1 1:0.48323 2:-0.12977 3:-0.18417 
1 1:0.46943 2:-0.12977 3:-0.02283 
1 1:0.56607 2:0.00763 3:-0.4124 
1 1:0.43393 2:-0.16031 3:-0.07127 
1 1:0.41223 2:-0.12977 3:-0.01864 
1 1:0.40237 2:-0.1145 3:-0.30786 
1 1:0.4142 2:0.16031 3:-0.54469 
1 1:0.37081 2:0.00763 3:-0.41263 
1 1:0.40828 2:-0.1145 3:-0.09939 
1 1:0.40039 2:-0.05344 3:-0.2899 
1 1:0.49901 2:-0.05344 3:-0.43053 
1 1:0.49704 2:-0.25191 3:-0.09362 
1 1:0.34517 2:0.12977 3:-0.52407 
1 1:0.48718 2:0.0229 3:-0.10736 
1 1:0.48323 2:-0.08397 3:-0.00696 
1 1:0.39448 2:-0.0687 3:0.0105 
1 1:0.47929 2:-0.00763 3:-0.36652 
0.5996153001520756 1:0.10454 2:-0.1145 3:-0.4811 
1 1:0.08481 2:-0.35878 3:-0.54784 
1 1:0.13807 2:-0.1145 3:-0.48881 
1 1:0.12821 2:-0.17557 3:-0.36158 
1 1:0.07495 2:-0.31298 3:-0.53603 
1 1:0.13609 2:-0.40458 3:-0.62992 
1 1:0.0789 2:-0.23664 3:-0.44146 
1 1:0.43787 2:0.37405 3:-0.65256 
1 1:0.34714 2:0.43511 3:-0.64106 
1 1:0.48718 2:0.57252 3:-0.70358 
1 1:0.45562 2:0.51145 3:-0.49755 
1 1:0.28008 2:0.38931 3:-0.67876 
1 1:0.27022 2:0.32824 3:-0.65192 
1 1:0.34517 2:-0.00763 3:-0.23899 
1 1:0.26233 2:0.12977 3:-0.4609 
1 1:0.38462 2:0.19084 3:-0.62964 
1 1:0.31953 2:0.1145 3:-0.40702 
1 1:0.1716 2:0.0229 3:-0.62915 
1 1:0.23077 2:0.46565 3:-0.87185 
1 1:0.13412 2:-0.00763 3:-0.63696 
1 1:0.22091 2:0.49618 3:-0.90523 
1 1:0.2071 2:0.17557 3:-0.66648 
1 1:0.20513 2:0.1145 3:-0.60073 
1 1:0.32544 2:0.00763 3:-0.24776 
1 1:0.21696 2:0.00763 3:-0.47419 
1 1:0.2288 2:0.00763 3:-0.45908 
1 1:0.21696 2:-0.12977 3:-0.29732 
1 1:0.22485 2:-0.25191 3:-0.53418 
1 1:0.22485 2:-0.20611 3:-0.23876 
1 1:0.28994 2:-0.16031 3:-0.26727 
1 1:0.16371 2:-0.12977 3:-0.36687 
1 1:0.27811 2:0.00763 3:-0.55385 
1 1:0.24458 2:-0.16031 3:-0.43317 
1 1:0.40434 2:-0.28244 3:-0.10916 
1 1:0.39645 2:-0.28244 3:0.01454 
1 1:0.42209 2:-0.32824 3:0.01336 
1 1:0.42012 2:-0.22137 3:-0.09832 
1 1:0.41617 2:-0.37405 3:0.01319 
1 1:0.42209 2:0.25191 3:-0.5119 
1 1:0.4359 2:-0.31298 3:0.02905 
1 1:0.42209 2:-0.20611 3:-0.101 
1 1:0.44379 2:-0.29771 3:0.03091 
1 1:0.37278 2:-0.25191 3:-0.04525 
1 1:0.4142 2:0.12977 3:-0.39902 
1 1:0.39842 2:0.00763 3:-0.22825 
1 1:0.41815 2:0.34351 3:-0.73497 
1 1:0.39053 2:-0.17557 3:-0.27575 
1 1:0.39448 2:-0.20611 3:-0.08603 
1 1:0.46943 2:-0.05344 3:-0.31055 
1 1:0.41026 2:-0.23664 3:-0.15509 
1 1:0.42012 2:-0.14504 3:-0.1224 
1 1:0.24852 2:-0.03817 3:-0.40231 
1 1:0.36884 2:-0.05344 3:-0.24364 
1 1:0.38462 2:-0.12977 3:-0.36146 
1 1:0.40434 2:-0.29771 3:-0.02762 
1 1:0.39842 2:-0.20611 3:-0.15992 
1 1:0.37673 2:0.52672 3:-0.62194 
1 1:0.46548 2:0.60305 3:-0.5364 
1 1:0.40434 2:0.22137 3:-0.58857 
1 1:0.34517 2:0.55725 3:-0.853 
1 1:0.37673 2:0.12977 3:-0.25079 
1 1:0.27613 2:0.49618 3:-0.86066 
1 1:0.36686 2:0.45038 3:-0.59018 
1 1:0.0217 2:-0.61832 3:-0.21984 
1 1:0.33728 2:0.41985 3:-0.64634 
1 1:0.2071 2:0.43511 3:-0.84224 
1 1:0.24458 2:0.32824 3:-0.71554 
1 1:0.60355 2:0.40458 3:-0.34377 
1 1:0.33531 2:0.43511 3:-0.80829 
1 1:0.46351 2:0.45038 3:-0.66788 
1 1:0.32939 2:0.40458 3:-0.8176 
1 1:0.30966 2:0.38931 3:-0.71422 
1 1:0.16765 2:0.25191 3:-0.8458 
1 1:0.39842 2:0.41985 3:-0.49664 
1 1:0.52071 2:0.51145 3:-0.75907 
1 1:0.53846 2:0.23664 3:-0.08846 
1 1:0.12426 2:-0.43511 3:-0.08385 
1 1:0.23669 2:-0.23664 3:-0.23821 
1 1:0.36095 2:0.48092 3:-0.66752 
1 1:0.42012 2:0.17557 3:-0.17486 
1 1:0.38856 2:0.41985 3:-0.54648 
1 1:0.45759 2:-0.28244 3:-0.07359 
1 1:0.47337 2:-0.20611 3:-0.08175 
1 1:0.42604 2:-0.25191 3:-0.22633 
1 1:0.45562 2:-0.09924 3:-0.03074 
1 1:0.39842 2:-0.0687 3:-0.09117 
1 1:0.4714 2:-0.08397 3:-0.07537 
1 1:0.45562 2:-0.05344 3:-0.33437 
1 1:0.45168 2:-0.19084 3:-0.03675 
1 1:0.42604 2:-0.20611 3:-0.03219 
1 1:0.44773 2:-0.08397 3:-0.08651 
1 1:0.42604 2:-0.25191 3:-0.05897 
1 1:0.45957 2:-0.17557 3:-0.05649 
1 1:0.35897 2:-0.03817 3:-0.12654 
1 1:0.46943 2:-0.03817 3:-0.07145 
1 1:0.52268 2:0.41985 3:-0.7793 
1 1:0.45365 2:-0.05344 3:-0.06939 
1 1:0.60355 2:0.0687 3:-0.05299 
1 1:0.41026 2:-0.20611 3:-0.0165 
1 1:0.30966 2:-0.08397 3:-0.1219 
1 1:0.45759 2:0.51145 3:-0.76181 
1 1:0.11045 2:-0.22137 3:-0.35047 
1 1:0.09862 2:-0.0687 3:-0.57908 
1 1:0.11834 2:0.05344 3:-0.66648 
1 1:0.10454 2:-0.23664 3:-0.36525 
1 1:0.10651 2:-0.28244 3:-0.4585 
1 1:0.11045 2:-0.08397 3:-0.65245 
1 1:0.41617 2:0.00763 3:0.0286 
1 1:0.45562 2:-0.03817 3:0.1342 
1 1:0.36292 2:0.46565 3:-0.85174 
1 1:0.32939 2:0.32824 3:-0.60365 
1 1:0.4714 2:0.58779 3:-0.77514 
1 1:0.28008 2:0.12977 3:-0.42774 
1 1:0.37673 2:-0.14504 3:-0.22776 
1 1:0.30178 2:0.14504 3:-0.42644 
1 1:0.36884 2:-0.0229 3:-0.17142 
1 1:0.28797 2:0.16031 3:-0.43446 
1 1:0.31755 2:0.16031 3:-0.41117 
1 1:0.27219 2:0.12977 3:-0.42907 
1 1:0.20907 2:0.03817 3:-0.62497 
1 1:0.22485 2:0.14504 3:-0.70496 
1 1:0.21302 2:0.08397 3:-0.56831 
1 1:0.16174 2:0.14504 3:-0.66895 
1 1:0.17554 2:0.0229 3:-0.55483 
1 1:0.14004 2:-0.0229 3:-0.57533 
1 1:0.22091 2:0.05344 3:-0.58349 
1 1:0.15582 2:-0.00763 3:-0.56899 
1 1:0.17949 2:0.00763 3:-0.55602 
1 1:0.13609 2:0.05344 3:-0.63557 
1 1:0.13215 2:-0.0229 3:-0.61 
1 1:0.22682 2:0.1145 3:-0.50843 
1 1:0.36686 2:0.45038 3:-0.67589 
1 1:0.26036 2:0.46565 3:-0.7776 
1 1:0.17751 2:0.12977 3:-0.72452 
1 1:0.12426 2:-0.67939 3:0.31415 
1 1:0.11045 2:-0.48092 3:-0.04916 
1 1:0.27416 2:-0.03817 3:-0.58177 
1 1:0.18146 2:0.14504 3:-0.62257 
1 1:0.26036 2:-0.12977 3:-0.20967 
1 1:0.15582 2:-0.29771 3:-0.2546 
1 1:0.25247 2:-0.05344 3:-0.29583 
1 1:0.23669 2:-0.12977 3:-0.28208 
1 1:0.22091 2:-0.16031 3:-0.23107 
1 1:0.39448 2:-0.26718 3:0.06412 
1 1:0.33728 2:-0.03817 3:-0.16292 
1 1:0.41617 2:-0.26718 3:-0.1431 
1 1:0.39842 2:-0.28244 3:0.03271 
1 1:0.34714 2:-0.0229 3:-0.24399 
1 1:0.36884 2:-0.1145 3:-0.2265 
1 1:0.4142 2:-0.17557 3:-0.2047 
1 1:0.45562 2:-0.26718 3:0.04508 
1 1:0.43393 2:0.25191 3:-0.46942 
1 1:0.38264 2:0.0229 3:-0.54632 
1 1:0.3925 2:-0.37405 3:-0.04317 
1 1:0.45365 2:0.05344 3:-0.37951 
1 1:0.36095 2:0.25191 3:-0.49075 
1 1:0.4714 2:-0.37405 3:-0.06528 
1 1:0.40237 2:0.28244 3:-0.52493 
1 1:0.42209 2:0.28244 3:-0.63498 
1 1:0.36884 2:-0.28244 3:-0.00291 
1 1:0.43195 2:-0.28244 3:0.03382 
1 1:0.32544 2:0.0229 3:-0.31465 
1 1:0.44773 2:0.08397 3:-0.37168 
1 1:0.42209 2:0.05344 3:-0.37519 
1 1:0.44773 2:-0.16031 3:-0.2786 
1 1:0.47337 2:0.43511 3:-0.82127 
1 1:0.44379 2:0.57252 3:-0.6633 
1 1:0.40631 2:0.23664 3:-0.32838 
1 1:0.39842 2:0.19084 3:-0.2362 
1 1:0.40039 2:0.0229 3:-0.03178 
1 1:0.2643 2:0.46565 3:-0.77358 
1 1:0.35897 2:0.28244 3:-0.45558 
1 1:0.29586 2:0.35878 3:-0.80424 
1 1:0.46548 2:0.41985 3:-0.49961 
1 1:0.52268 2:-0.05344 3:-0.27055 
1 1:0.33333 2:0.52672 3:-0.78884 
1 1:0.36489 2:0.48092 3:-0.87912 
1 1:0.63116 2:-0.0687 3:-0.20716 
1 1:0.34714 2:-0.45038 3:0.22857 
1 1:0.59763 2:0.16031 3:-0.04907 
1 1:0.3787 2:-0.29771 3:0.30219 
1 1:0.34714 2:0.29771 3:-0.50002 
1 1:0.43393 2:-0.23664 3:0.36666 
1 1:0.51677 2:0.23664 3:-0.64569 
1 1:0.42801 2:-0.17557 3:-0.04447 
1 1:0.53057 2:-0.19084 3:-0.21492 
1 1:0.36884 2:-0.12977 3:0.02919 
1 1:0.55227 2:-0.0229 3:-0.14332 
1 1:0.38659 2:-0.03817 3:-0.36108 
1 1:0.48718 2:-0.28244 3:-0.09085 
1 1:0.46351 2:-0.16031 3:-0.07766 
1 1:0.35897 2:-0.0229 3:-0.06791 
1 1:0.3787 2:-0.14504 3:-0.10133 
1 1:0.44181 2:-0.1145 3:-0.00329 
1 1:0.357 2:-0.0229 3:-0.11242 
1 1:0.46943 2:-0.28244 3:-0.11294 
1 1:0.37081 2:0.03817 3:-0.11038 
1 1:0.45365 2:-0.26718 3:-0.21543 
1 1:0.50888 2:-0.1145 3:-0.11236 
1 1:0.43195 2:-0.25191 3:-0.04515 
1 1:0.46746 2:-0.17557 3:-0.16441 
1 1:0.52071 2:-0.0229 3:-0.14643 
1 1:0.3787 2:-0.17557 3:-0.2572 
1 1:0.38659 2:-0.12977 3:-0.27514 
1 1:0.4714 2:0.1145 3:-0.39462 
0.8936965656369975 1:0.33728 2:-0.00763 3:-0.12384 
1 1:0.28994 2:-0.28244 3:0.12026 
1 1:0.14793 2:-0.35878 3:-0.11966 
1 1:0.12032 2:0.08397 3:-0.70981 
1 1:0.16765 2:-0.19084 3:-0.53914 
1 1:0.44576 2:0.28244 3:-0.27478 
1 1:0.42998 2:0.38931 3:-0.50167 
1 1:0.48915 2:0.22137 3:-0.42177 
1 1:0.2998 2:0.03817 3:-0.27289 
1 1:0.26627 2:0.14504 3:-0.46891 
1 1:0.29586 2:0.0687 3:-0.33148 
1 1:0.25838 2:0.17557 3:-0.53019 
1 1:0.28205 2:0.17557 3:-0.55775 
1 1:0.31558 2:-0.00763 3:-0.18319 
1 1:0.34911 2:0.34351 3:-0.5341 
1 1:0.35503 2:-0.03817 3:-0.17272 
1 1:0.32742 2:0.09924 3:-0.32276 
1 1:0.10651 2:-0.00763 3:-0.60735 
1 1:0.16963 2:0.1145 3:-0.66265 
1 1:0.1854 2:0.09924 3:-0.6528 
1 1:0.17751 2:0.1145 3:-0.63102 
1 1:0.1854 2:0.05344 3:-0.5906 
1 1:0.2288 2:0.34351 3:-0.81216 
1 1:0.20316 2:0.37405 3:-0.84281 
1 1:0.26627 2:0.19084 3:-0.66513 
1 1:0.19724 2:0.14504 3:-0.64533 
1 1:0.24852 2:0.16031 3:-0.60544 
1 1:0.19527 2:0.17557 3:-0.62257 
1 1:0.18146 2:0.1145 3:-0.59804 
1 1:0.40631 2:0.43511 3:-0.70637 
1 1:0.40631 2:0.43511 3:-0.70637 
1 1:0.22682 2:0.1145 3:-0.50843 
1 1:0.31558 2:0.52672 3:-0.72651 
1 1:0.21499 2:-0.19084 3:-0.17137 
1 1:0.20316 2:-0.14504 3:-0.24684 
1 1:0.2426 2:-0.14504 3:-0.17907 
1 1:0.24852 2:-0.22137 3:-0.42855 
1 1:0.15779 2:-0.08397 3:-0.55189 
1 1:0.43195 2:0.09924 3:-0.35397 
1 1:0.46746 2:-0.20611 3:-0.21442 
1 1:0.39053 2:0.19084 3:-0.43818 
1 1:0.34911 2:0.05344 3:-0.46671 
1 1:0.44576 2:0.32824 3:-0.67866 
1 1:0.45759 2:-0.22137 3:-0.10027 
1 1:0.39448 2:-0.22137 3:0.05435 
1 1:0.42998 2:0.12977 3:-0.43802 
1 1:0.42998 2:-0.40458 3:-0.06129 
1 1:0.36095 2:0.25191 3:-0.49075 
1 1:0.35306 2:-0.12977 3:-0.19798 
1 1:0.31953 2:0.22137 3:-0.53987 
1 1:0.31558 2:-0.08397 3:-0.21229 
1 1:0.48521 2:-0.16031 3:-0.23561 
1 1:0.40434 2:-0.31298 3:-0.06909 
1 1:0.40434 2:-0.34351 3:-0.03522 
1 1:0.45759 2:-0.29771 3:-0.12797 
1 1:0.36095 2:0.25191 3:-0.57937 
1 1:0.40237 2:-0.16031 3:-0.21204 
1 1:0.35897 2:-0.0229 3:-0.25816 
1 1:0.4142 2:0.19084 3:-0.48808 
1 1:0.42604 2:-0.0687 3:-0.25453 
1 1:0.5069 2:0.66412 3:-0.58103 
1 1:0.36489 2:0.54198 3:-0.75359 
1 1:0.32544 2:0.0687 3:-0.25194 
1 1:0.35897 2:0.0687 3:-0.18472 
1 1:0.42012 2:0.40458 3:-0.46885 
1 1:0.16963 2:0.34351 3:-0.85544 
1 1:0.23077 2:0.43511 3:-0.79866 
1 1:0.39053 2:0.55725 3:-0.72277 
1 1:0.37278 2:0.52672 3:-0.63399 
1 1:0.60355 2:0.43511 3:-0.14308 
1 1:0.48915 2:0.49618 3:-0.68553 
1 1:0.29783 2:0.60305 3:-0.88353 
1 1:0.24458 2:0.31298 3:-0.71302 
1 1:0.35108 2:0.43511 3:-0.86696 
1 1:0.16765 2:0.25191 3:-0.8458 
1 1:0.26824 2:0.19084 3:-0.52381 
1 1:0.34517 2:0.0229 3:-0.33826 
1 1:0.36095 2:0.34351 3:-0.52212 
1 1:0.40828 2:0.32824 3:-0.38934 
1 1:0.4359 2:-0.35878 3:0.36903 
1 1:0.36292 2:0.34351 3:-0.49416 
1 1:0.18935 2:-0.45038 3:0.01442 
1 1:0.30178 2:0.22137 3:-0.47713 
1 1:0.2071 2:-0.16031 3:-0.21616 
1 1:0.42604 2:0.37405 3:-0.43844 
1 1:0.44773 2:-0.26718 3:-0.07707 
1 1:0.37673 2:0.25191 3:-0.57562 
1 1:0.41026 2:-0.12977 3:-0.09695 
1 1:0.44181 2:-0.19084 3:-0.03638 
1 1:0.44379 2:-0.20611 3:0.03774 
1 1:0.50296 2:-0.23664 3:-0.17566 
1 1:0.44181 2:-0.19084 3:-0.01806 
1 1:0.3787 2:0.31298 3:-0.65186 
1 1:0.4497 2:0.00763 3:-0.21882 
1 1:0.42604 2:0.08397 3:-0.45924 
1 1:0.29586 2:0.41985 3:-0.77345 
1 1:0.44379 2:-0.12977 3:-0.23607 
1 1:0.42801 2:-0.03817 3:-0.22881 
1 1:0.45365 2:-0.08397 3:-0.32953 
1 1:0.46746 2:-0.1145 3:-0.05267 
1 1:0.49112 2:-0.03817 3:-0.02091 
1 1:0.48718 2:-0.19084 3:-0.28959 
1 1:0.33136 2:0.31298 3:-0.63937 
1 1:0.38067 2:0.0687 3:-0.27673 
1 1:0.11243 2:-0.35878 3:-0.47221 
1 1:0.12229 2:-0.20611 3:-0.37998 
1 1:0.08876 2:-0.25191 3:-0.36416 
1 1:0.09862 2:-0.25191 3:-0.40173 
1 1:0.43984 2:0.03817 3:0.00551 
1 1:0.40631 2:0.32824 3:-0.4231 
1 1:0.45759 2:0.43511 3:-0.54317 
1 1:0.47337 2:0.41985 3:-0.35266 
1 1:0.42604 2:0.43511 3:-0.71534 
0.2885834218779462 1:0.42209 2:0.25191 3:-0.24831 
1 1:0.36292 2:0.41985 3:-0.64238 
1 1:0.2643 2:0.16031 3:-0.47831 
1 1:0.286 2:0.0687 3:-0.33999 
1 1:0.43984 2:0.00763 3:-0.21706 
1 1:0.35306 2:-0.05344 3:-0.1515 
1 1:0.34122 2:0.12977 3:-0.41029 
1 1:0.31755 2:0.14504 3:-0.46534 
1 1:0.30375 2:0.12977 3:-0.41308 
1 1:0.33925 2:0.20611 3:-0.47007 
1 1:0.40237 2:0.40458 3:-0.7098 
1 1:0.31558 2:0.26718 3:-0.55622 
1 1:0.30572 2:0.1145 3:-0.45604 
1 1:0.1499 2:-0.0229 3:-0.59356 
1 1:0.24458 2:0.20611 3:-0.68278 
1 1:0.16963 2:0.17557 3:-0.66789 
1 1:0.13609 2:-0.00763 3:-0.59533 
1 1:0.15385 2:-0.00763 3:-0.61069 
1 1:0.15976 2:0.1145 3:-0.6549 
1 1:0.19132 2:0.03817 3:-0.52443 
1 1:0.23077 2:0.08397 3:-0.68554 
1 1:0.15582 2:-0.03817 3:-0.54201 
1 1:0.18935 2:0.09924 3:-0.59947 
1 1:0.15582 2:0.00763 3:-0.63635 
1 1:0.20513 2:-0.03817 3:-0.60151 
1 1:0.40828 2:0.00763 3:-0.08796 
1 1:0.05128 2:-0.35878 3:-0.3137 
1 1:0.22682 2:0.1145 3:-0.50843 
1 1:0.35306 2:0.49618 3:-0.80159 
1 1:0.24655 2:-0.00763 3:-0.54269 
1 1:0.19724 2:-0.09924 3:-0.47903 
1 1:0.17357 2:-0.19084 3:-0.30296 
1 1:0.24063 2:-0.05344 3:-0.3094 
1 1:0.2426 2:-0.17557 3:-0.32665 
1 1:0.25838 2:0.1145 3:-0.47818 
1 1:0.4142 2:-0.16031 3:-0.42548 
1 1:0.38462 2:-0.26718 3:-0.11677 
1 1:0.45957 2:-0.0229 3:-0.35283 
1 1:0.42406 2:-0.32824 3:0.03029 
1 1:0.40434 2:-0.14504 3:-0.23421 
1 1:0.4142 2:0.05344 3:-0.42168 
1 1:0.37081 2:-0.19084 3:-0.13482 
1 1:0.39842 2:0.16031 3:-0.43145 
1 1:0.42998 2:-0.20611 3:-0.16187 
1 1:0.39053 2:0.34351 3:-0.63966 
1 1:0.41815 2:-0.08397 3:-0.26672 
1 1:0.42801 2:-0.0229 3:-0.20891 
1 1:0.46351 2:-0.38931 3:-0.04002 
1 1:0.43787 2:-0.0687 3:-0.30137 
1 1:0.3787 2:-0.16031 3:-0.22203 
1 1:0.4931 2:-0.0687 3:-0.28168 
1 1:0.42406 2:-0.03817 3:-0.37366 
1 1:0.4142 2:-0.23664 3:-0.09569 
1 1:0.43195 2:0.1145 3:-0.36312 
1 1:0.42012 2:-0.29771 3:0.04404 
1 1:0.34714 2:-0.09924 3:-0.28885 
1 1:0.41815 2:-0.17557 3:-0.01562 
1 1:0.38659 2:-0.25191 3:0.03719 
1 1:0.40237 2:-0.0687 3:-0.22662 
1 1:0.41223 2:-0.12977 3:-0.12693 
1 1:0.32544 2:0.34351 3:-0.70383 
1 1:0.57988 2:-0.05344 3:-0.26368 
1 1:0.41026 2:0.55725 3:-0.76871 
1 1:0.37673 2:0.09924 3:-0.40752 
-1 1:0.4497 2:0.00763 3:-0.52334 
-1 1:0.50296 2:0.28244 3:-0.65167 
-1 1:0.5286 2:0.26718 3:-0.49194 
-1 1:0.51479 2:0.05344 3:-0.38564 
-1 1:0.26036 2:0.32824 3:-0.80956 
-1 1:0.48521 2:0.1145 3:-0.56958 
-1 1:0.29586 2:-0.0687 3:-0.29395 
-1 1:0.4931 2:0.03817 3:-0.41617 
-1 1:0.48126 2:-0.05344 3:-0.34755 
-1 1:0.46154 2:-0.0687 3:-0.25668 
-1 1:0.55227 2:-0.22137 3:0.10059 
-1 1:0.44576 2:-0.03817 3:-0.4535 
-1 1:0.28994 2:0.08397 3:-0.68768 
-1 1:0.42012 2:0.52672 3:-0.92392 
-1 1:0.14596 2:-0.0687 3:-0.61647 
-1 1:0.25049 2:-0.35878 3:-0.40541 
-1 1:0.45365 2:0.52672 3:-0.63116 
-1 1:0.50296 2:0.22137 3:-0.30014 
-1 1:0.51677 2:0.23664 3:-0.46859 
-1 1:0.55621 2:0.28244 3:-0.5166 
-1 1:0.21893 2:0.22137 3:-0.3492 
-1 1:0.47535 2:-0.05344 3:-0.34728 
-1 1:0.49704 2:0.37405 3:-0.76559 
-1 1:0.41223 2:0.43511 3:-0.38044 
-1 1:0.41026 2:0.16031 3:-0.75944 
-1 1:0.25444 2:-0.55725 3:0.13677 
-1 1:0.44576 2:0.08397 3:-0.45694 
-1 1:0.28994 2:-0.89313 3:0.46122 
-1 1:0.66469 2:0.34351 3:-0.4 
-1 1:0.31558 2:0.14504 3:-0.83938 
-1 1:0.24852 2:-0.29771 3:-0.30628 
-1 1:0.41617 2:-0.51145 3:0.20414 
-1 1:0.30769 2:0.49618 3:-0.96593 
-1 1:0.55819 2:0.08397 3:-0.35329 
-1 1:0.45957 2:0.16031 3:-0.38368 
-1 1:0.45957 2:0.40458 3:-0.34297 
-1 1:0.49112 2:0.52672 3:-0.27287 
-1 1:0.13807 2:-0.00763 3:-0.33091 
-1 1:0.40237 2:0.25191 3:-0.3029 
-1 1:0.38659 2:-0.1145 3:-0.25044 
-1 1:0.3925 2:-0.32824 3:-0.12966 
-1 1:0.32544 2:0.29771 3:-0.62883 
-1 1:0.4497 2:0.1145 3:-0.58155 
-1 1:0.38264 2:-0.12977 3:-0.35062 
-1 1:0.45168 2:0.23664 3:-0.67665 
-1 1:0.36489 2:-0.31298 3:-0.02509 
-1 1:0.50493 2:-0.19084 3:-0.16967 
-1 1:0.24655 2:-0.08397 3:-0.44877 
-1 1:0.31164 2:-0.0229 3:-0.5899 
-1 1:0.40828 2:0.16031 3:-0.42709 
-1 1:0.44181 2:-0.08397 3:-0.42944 
-1 1:0.48323 2:-0.0687 3:-0.20977 
-1 1:0.4931 2:0.1145 3:-0.44513 
-1 1:0.39842 2:-0.00763 3:-0.59592 
-1 1:0.35897 2:-0.54198 3:-0.02367 
-1 1:0.29783 2:-0.40458 3:-0.18824 
-1 1:0.42209 2:-0.08397 3:-0.43981 
-1 1:0.37081 2:0.08397 3:-0.54346 
-1 1:0.32347 2:0.09924 3:-0.66325 
-1 1:0.38067 2:-0.05344 3:-0.35948 
-1 1:0.39053 2:-0.0229 3:-0.446 
-1 1:0.48126 2:-0.20611 3:0.04413 
-1 1:0.38264 2:-0.32824 3:-0.11765 
-1 1:0.22288 2:-0.34351 3:-0.41697 
-1 1:0.37278 2:-0.23664 3:-0.27539 
-1 1:0.357 2:-0.14504 3:-0.35148 
-1 1:0.37278 2:-0.28244 3:-0.19136 
-1 1:0.51085 2:0.00763 3:-0.30226 
-1 1:0.41617 2:-0.61832 3:0.26219 
-1 1:0.37278 2:-0.00763 3:-0.42933 
-1 1:0.21893 2:-0.17557 3:-0.55712 
-1 1:0.35897 2:0.12977 3:-0.27871 
-1 1:0.38659 2:-0.0687 3:-0.50168 
-1 1:0.42012 2:-0.05344 3:-0.47184 
-1 1:0.12229 2:-0.1145 3:-0.56174 
-1 1:0.47337 2:-0.17557 3:-0.16016 
-1 1:0.20907 2:0.23664 3:-0.91856 
-1 1:0.3432 2:-0.58779 3:0.13958 
-1 1:0.29191 2:0.29771 3:-0.61016 
-1 1:0.10059 2:0.41985 3:-0.85653 
-1 1:0.33925 2:0.08397 3:-0.6463 
-1 1:0.36292 2:0.16031 3:-0.66519 
-1 1:0.38659 2:0.29771 3:-0.86588 
-1 1:0.38462 2:-0.35878 3:-0.22799 
-1 1:0.42801 2:-0.03817 3:-0.51251 
-1 1:0.48718 2:-0.03817 3:-0.37427 
-1 1:0.40828 2:0.35878 3:-0.30011 
-1 1:0.43195 2:0.43511 3:-0.21204 
-1 1:0.27811 2:0.0687 3:-0.32817 
-1 1:0.36489 2:-0.55725 3:0.41525 
-1 1:0.357 2:-0.05344 3:-0.34614 
-1 1:0.45957 2:0.16031 3:-0.60922 
-1 1:0.44576 2:0.22137 3:-0.6931 
-1 1:0.4497 2:0.1145 3:-0.553 
-1 1:0.68442 2:0.46565 3:-0.4684 
-1 1:0.44576 2:0.38931 3:-0.46996 
-1 1:0.22288 2:-0.16031 3:-0.37399 
-1 1:0.20907 2:0.35878 3:-0.5905 
-1 1:0.56016 2:0.08397 3:-0.38553 
-1 1:0.43787 2:0.12977 3:-0.30783 
-1 1:0.5641 2:0.19084 3:-0.39578 
-1 1:0.22682 2:0.17557 3:-0.57458 
-1 1:0.52663 2:-0.72519 3:0.70423 
-1 1:0.41223 2:-0.58779 3:0.20399 
-1 1:0.44379 2:-0.16031 3:-0.31506 
-1 1:0.36884 2:-0.25191 3:-0.31692 
-1 1:0.49704 2:0.16031 3:-0.37694 
-1 1:0.38856 2:-0.60305 3:0.20723 
-1 1:0.4142 2:-0.03817 3:-0.39293 
-1 1:0.44379 2:0.09924 3:-0.51287 
-1 1:0.40828 2:-0.16031 3:-0.35409 
-1 1:0.27416 2:0.0687 3:-0.60208 
-1 1:0.18935 2:-0.16031 3:-0.59778 
-1 1:0.30572 2:0.16031 3:-0.73383 
-1 1:0.50493 2:-0.14504 3:-0.15651 
-1 1:0.44576 2:0.22137 3:-0.64481 
-1 1:0.32347 2:-0.16031 3:-0.42044 
-1 1:0.11045 2:-0.00763 3:-0.62886 
-1 1:0.42209 2:-0.19084 3:-0.26372 
-1 1:0.51479 2:-0.00763 3:-0.32984 
-1 1:0.18738 2:-0.09924 3:-0.70428 
-1 1:0.33136 2:-0.03817 3:-0.50969 
-1 1:0.35897 2:-0.14504 3:-0.42449 
-1 1:0.39842 2:-0.32824 3:-0.13653 
-1 1:0.15385 2:-0.1145 3:-0.37333 
-1 1:0.47929 2:0.34351 3:-0.50699 
-1 1:0.36686 2:0.03817 3:-0.51265 
-1 1:0.59172 2:0.29771 3:-0.47252 
-1 1:0.33333 2:0.35878 3:-0.76053 
-1 1:0.32544 2:-0.1145 3:-0.4644 
-1 1:0.44181 2:-0.40458 3:-0.03975 
-1 1:0.43787 2:-0.25191 3:-0.05745 
-1 1:0.36095 2:-0.17557 3:-0.42663 
-1 1:0.20907 2:-0.16031 3:-0.33817 
-1 1:0.37475 2:0.1145 3:-0.59465 
-1 1:0.45759 2:0.29771 3:-0.76637 
-1 1:0.46746 2:-0.25191 3:-0.04124 
-0.2796945959104804 1:0.53452 2:-0.49618 3:0.29894 
-1 1:0.49112 2:0.26718 3:-0.51767 
-1 1:0.63116 2:0.37405 3:-0.43893 
-1 1:0.42801 2:0.31298 3:-0.58246 
-1 1:0.54241 2:-0.34351 3:0.11993 
-1 1:0.36292 2:-0.45038 3:0.01481 
-1 1:0.06706 2:0.19084 3:-0.6966 
-1 1:0.52268 2:-0.37405 3:0.1873 
-1 1:0.3925 2:0.17557 3:-0.68744 
-1 1:0.18738 2:0.08397 3:-0.45166 
-1 1:0.14793 2:0.09924 3:-0.63715 
-1 1:0.2288 2:0.1145 3:-0.40976 
-1 1:0.29586 2:0.1145 3:-0.7271 
-1 1:0.45957 2:0.28244 3:-0.79778 
-1 1:0.37278 2:-0.35878 3:-0.18985 
-1 1:0.43787 2:-0.45038 3:0.01276 
-1 1:0.08876 2:0.19084 3:-0.65387 
-1 1:0.6075 2:0.46565 3:-0.67876 
-1 1:0.54635 2:0.35878 3:-0.62484 
-1 1:0.34714 2:-0.22137 3:-0.38486 
-1 1:0.40237 2:0.16031 3:-0.70247 
-1 1:0.42998 2:-0.57252 3:0.31948 
-1 1:0.38462 2:-0.34351 3:-0.13929 
-1 1:0.31164 2:0.03817 3:-0.38385 
-1 1:0.46154 2:0.08397 3:-0.58314 
-1 1:0.40434 2:-0.58779 3:0.13755 
-1 1:0.39842 2:0.23664 3:-0.56195 
-1 1:0.25247 2:0.12977 3:-0.59703 
-1 1:0.27022 2:0.20611 3:-0.8053 
-1 1:0.29389 2:0.46565 3:-0.31747 
-1 1:0.48915 2:0.12977 3:-0.44423 
-1 1:0.36095 2:-0.40458 3:-0.04417 
-1 1:0.4142 2:-0.17557 3:-0.32117 
-1 1:0.5286 2:0.09924 3:-0.27721 
-1 1:0.33728 2:0.05344 3:-0.70824 
-1 1:0.14793 2:0.26718 3:-0.69566 
-1 1:0.29586 2:-0.26718 3:-0.20584 
-1 1:0.40434 2:0.41985 3:-0.82715 
-1 1:0.2643 2:0.32824 3:-0.84834 
-1 1:0.38264 2:0.28244 3:-0.86858 
-1 1:0.28797 2:-0.25191 3:-0.3757 
-1 1:0.38462 2:-0.32824 3:-0.23588 
-1 1:0.25444 2:-0.0687 3:-0.7776 
-1 1:0.50888 2:-0.00763 3:-0.27777 
-1 1:0.38067 2:-0.40458 3:-0.04982 
-1 1:0.39053 2:-0.23664 3:-0.18754 
-1 1:0.45957 2:0.0229 3:-0.34145 
-1 1:0.44181 2:-0.17557 3:-0.28665 
-1 1:0.33531 2:-0.49618 3:-0.03219 
-1 1:0.45562 2:-0.38931 3:-0.00585 
-1 1:0.24655 2:0.28244 3:-0.61958 
-1 1:0.65878 2:-0.08397 3:0.04725 
-1 1:0.48718 2:0.12977 3:0.03707 
-1 1:0.6568 2:0.37405 3:-0.39213 
-1 1:0.54438 2:0.12977 3:-0.29592 
-1 1:0.42998 2:-0.1145 3:-0.42661 
-1 1:0.39053 2:-0.26718 3:-0.27961 
-1 1:0.27811 2:-0.46565 3:-0.04712 
-1 1:0.3925 2:0.0229 3:-0.60219 
-1 1:0.4359 2:0.25191 3:-0.79259 
-1 1:0.42604 2:-0.43511 3:0.07758 
-1 1:0.54438 2:0.0229 3:-0.27361 
-1 1:0.38659 2:-0.00763 3:-0.52721 
-1 1:0.42406 2:0.05344 3:-0.26858 
-1 1:0.42406 2:0.08397 3:-0.57882 
-1 1:0.48323 2:0.00763 3:-0.3658 
-1 1:0.48323 2:0.0229 3:-0.28499 
-1 1:0.37278 2:0.52672 3:-0.54112 
-1 1:0.6568 2:0.46565 3:-0.47329 
-1 1:0.50099 2:-0.14504 3:-0.12746 
-1 1:0.14793 2:0.32824 3:-0.85703 
-1 1:0.35108 2:0.0687 3:-0.2965 
-1 1:0.51677 2:0.16031 3:-0.55113 
-1 1:0.24458 2:-0.32824 3:-0.44553 
-1 1:0.53846 2:0.1145 3:-0.34541 
-1 1:0.50099 2:0.22137 3:-0.6381 
-1 1:0.57396 2:0.12977 3:-0.36583 
-1 1:0.49704 2:-0.19084 3:-0.13073 
-1 1:0.52465 2:-0.57252 3:0.47593 
-1 1:0.36095 2:0.03817 3:-0.68085 
-1 1:0.50099 2:-0.70992 3:0.57607 
-1 1:0.42801 2:-0.20611 3:-0.03461 
-1 1:0.43393 2:-0.20611 3:-0.23754 
-1 1:0.38067 2:0.22137 3:-0.67003 
-1 1:0.40237 2:-0.38931 3:0.03622 
-1 1:0.48323 2:-0.17557 3:-0.16836 
-1 1:0.3925 2:0.12977 3:-0.65977 
-1 1:0.33728 2:-0.23664 3:-0.39974 
-1 1:0.36489 2:0.05344 3:-0.33511 
-1 1:0.49704 2:-0.0687 3:-0.21045 
-1 1:0.33136 2:-0.22137 3:-0.42547 
-1 1:0.34714 2:-0.03817 3:-0.36671 
-1 1:0.57002 2:-0.46565 3:0.40866 
-1 1:0.42604 2:-0.43511 3:-0.0055 
-1 1:0.48718 2:-0.46565 3:0.26939 
-1 1:0.38462 2:0.43511 3:-0.48084 
-1 1:0.643 2:0.46565 3:-0.53986 
-1 1:0.33531 2:-0.0229 3:-0.424 
-1 1:0.40828 2:0.29771 3:-0.52922 
-1 1:0.26233 2:0.0229 3:-0.4399 
-1 1:0.34122 2:0.1145 3:-0.51971 
-1 1:0.2643 2:-0.0229 3:-0.35506 
-1 1:0.38067 2:-0.52672 3:0.05923 
-1 1:0.40434 2:-0.19084 3:-0.18234 
-1 1:0.32347 2:-0.31298 3:-0.36153 
-1 1:0.46351 2:0.41985 3:-0.84224 
-1 1:0.47929 2:0.17557 3:-0.31217 
-1 1:0.43195 2:-0.26718 3:-0.08878 
-1 1:0.50296 2:-0.0687 3:-0.30787 
-1 1:0.59172 2:0.12977 3:-0.32875 
-1 1:0.43195 2:0.55725 3:-0.29988 
-1 1:0.43195 2:0.29771 3:-0.55457 
-1 1:0.29783 2:0.32824 3:-0.70987 
-1 1:0.53452 2:0.09924 3:-0.33674 
-1 1:0.56607 2:0.32824 3:-0.51254 
-1 1:0.286 2:0.1145 3:-0.79672 
-1 1:0.36686 2:-0.12977 3:-0.50519 
-1 1:0.40434 2:-0.49618 3:0.05941 
-1 1:0.44181 2:-0.48092 3:0.09102 
-1 1:0.3215 2:-0.12977 3:-0.43742 
-1 1:0.18146 2:0.26718 3:-0.70396 
-1 1:0.42012 2:-0.1145 3:-0.39724 
-1 1:0.31164 2:-0.37405 3:-0.20901 
-1 1:0.46746 2:-0.25191 3:-0.16571 
-1 1:0.45365 2:-0.60305 3:0.40473 
-1 1:0.31953 2:0.09924 3:-0.57965 
-1 1:0.48521 2:0.00763 3:-0.35201 
-1 1:0.48718 2:0.12977 3:-0.57344 
-1 1:0.37081 2:-0.19084 3:-0.28694 
-1 1:0.36292 2:0.0229 3:-0.60633 
-1 1:0.65483 2:0.63359 3:-0.31245 
-1 1:0.51282 2:0.25191 3:-0.36507 
-1 1:0.4931 2:0.00763 3:-0.30352 
-1 1:0.37673 2:0.03817 3:-0.54356 
-1 1:0.43195 2:-0.0229 3:-0.45483 
-1 1:0.48521 2:0.0687 3:-0.33501 
-1 1:0.48915 2:-0.00763 3:-0.17141 
-1 1:0.33531 2:-0.00763 3:-0.36627 
-1 1:0.39448 2:0.26718 3:-0.84372 
-1 1:0.14793 2:0.16031 3:-0.12366 
-1 1:0.54832 2:0.22137 3:-0.44162 
-1 1:0.38856 2:0.0229 3:-0.59142 
-1 1:0.42406 2:0.22137 3:-0.74944 
-1 1:0.39053 2:-0.19084 3:-0.07769 
-1 1:0.30769 2:0.35878 3:-0.76809 
-1 1:0.46943 2:0.38931 3:-0.84872 
-1 1:0.25444 2:-0.25191 3:-0.1001 
-1 1:0.34911 2:-0.09924 3:-0.52777 
-1 1:0.49507 2:0.0229 3:-0.39809 
-1 1:0.49901 2:0.25191 3:-0.52482 
-1 1:0.286 2:-0.40458 3:0.03892 
-1 1:0.34122 2:-0.63359 3:0.3067 
-1 1:0.59172 2:0.12977 3:-0.31396 
-1 1:0.5641 2:-0.28244 3:0.13779 
-1 1:0.2643 2:0.09924 3:-0.37659 
-1 1:0.56213 2:0.26718 3:-0.1672 
-1 1:0.5641 2:-0.00763 3:-0.21832 
-1 1:0.45957 2:-0.61832 3:0.41967 
-1 1:0.42998 2:0.08397 3:-0.58356 
-1 1:0.44576 2:0.16031 3:-0.60333 
-1 1:0.27219 2:0.22137 3:-0.75467 
-1 1:0.42406 2:-0.48092 3:0.13567 
-1 1:0.04339 2:0.28244 3:-0.86198 
-1 1:0.50493 2:0.17557 3:-0.59423 
-1 1:0.25838 2:0.08397 3:-0.64959 
-1 1:0.52465 2:0.20611 3:-0.55561 
-1 1:0.11243 2:0.52672 3:-0.4753 
-1 1:0.59566 2:0.51145 3:-0.5146 
-1 1:0.22288 2:0.03817 3:-0.60868 
-1 1:0.30769 2:-0.35878 3:-0.0562 
-1 1:0.42604 2:0.37405 3:-0.79755 
-1 1:0.35503 2:-0.40458 3:-0.20428 
-1 1:0.34911 2:-0.16031 3:-0.42812 
-1 1:0.27416 2:-0.03817 3:-0.31118 
-1 1:0.38659 2:0.0229 3:-0.36218 
-1 1:0.40828 2:-0.17557 3:-0.37792 
-1 1:0.28008 2:0.51145 3:-0.5978 
-1 1:0.43393 2:0.20611 3:-0.46809 
-1 1:0.51874 2:-0.70992 3:0.82871 
-1 1:0.43984 2:-0.57252 3:0.62486 
-1 1:0.52268 2:0.29771 3:-0.58325 
-1 1:0.32742 2:0.16031 3:-0.67178 
-1 1:0.25444 2:0.35878 3:-0.83659 
-1 1:0.43787 2:0.32824 3:-0.7604 
-1 1:0.17554 2:-0.22137 3:-0.67009 
-1 1:0.40434 2:0.19084 3:-0.44805 
-1 1:0.5286 2:0.34351 3:-0.70474 
-1 1:0.27811 2:0.05344 3:-0.63155 
-1 1:0.3215 2:-0.54198 3:0.01735 
-1 1:0.44379 2:-0.20611 3:-0.28239 
-1 1:0.30966 2:-0.09924 3:-0.34015 
-1 1:0.51479 2:-0.05344 3:-0.30898 
-1 1:0.30966 2:-0.20611 3:-0.34199 
-1 1:0.4359 2:0.08397 3:-0.5566 
-1 1:0.2643 2:0.08397 3:-0.28967 
-1 1:0.41815 2:-0.12977 3:-0.26261 
-1 1:0.53452 2:0.28244 3:-0.50081 
-1 1:0.38856 2:0.34351 3:-0.38144 
-1 1:0.62525 2:0.35878 3:-0.4107 
-1 1:0.39645 2:-0.08397 3:-0.42521 
-1 1:0.40237 2:0.0687 3:-0.48903 
-1 1:0.42209 2:0.08397 3:-0.30027 
-1 1:0.47732 2:0.14504 3:-0.45432 
-1 1:0.40828 2:-0.14504 3:-0.43482 
-1 1:0.33531 2:-0.08397 3:-0.57815 
-1 1:0.29389 2:0.05344 3:-0.58938 
-1 1:0.39842 2:-0.03817 3:-0.48705 
-1 1:0.31558 2:-0.00763 3:-0.61624 
-1 1:0.44181 2:-0.09924 3:-0.3954 
-1 1:0.46154 2:-0.22137 3:-0.04121 
-1 1:0.39842 2:-0.0687 3:-0.5104 
-1 1:0.357 2:0.32824 3:-0.7501 
-1 1:0.21696 2:-0.41985 3:-0.32188 
-1 1:0.45957 2:0.19084 3:-0.58698 
-1 1:0.45957 2:0.00763 3:-0.49742 
-1 1:0.43393 2:0.19084 3:-0.67302 
-1 1:0.33925 2:-0.03817 3:-0.47043 
-1 1:0.40237 2:0.29771 3:-0.45759 
-1 1:0.43787 2:-0.49618 3:0.10627 
-1 1:0.71992 2:0.17557 3:-0.08447 
-1 1:0.58185 2:-0.09924 3:-0.06763 
-1 1:0.46154 2:-0.37405 3:0.20287 
-1 1:0.21499 2:-0.16031 3:-0.42177 
-1 1:0.20907 2:-0.00763 3:-0.55835 
-1 1:0.33333 2:-0.43511 3:0.03486 
-1 1:0.57791 2:0.49618 3:-0.45389 
-1 1:0.32742 2:-0.22137 3:-0.39504 
-1 1:0.34517 2:0.31298 3:-0.75395 
-1 1:0.11243 2:-0.74046 3:-0.24231 
-1 1:0.11243 2:-0.74046 3:-0.24231 
-1 1:0.46548 2:-0.34351 3:0.01621 
-1 1:0.35108 2:-0.32824 3:-0.20327 
-1 1:0.40631 2:0.12977 3:-0.52897 
-1 1:0.37673 2:0.25191 3:-0.74981 
-1 1:0.3787 2:-0.35878 3:-0.17314 
-1 1:0.40828 2:-0.1145 3:-0.46852 
-1 1:0.37278 2:0.00763 3:-0.66708 
-1 1:0.34714 2:0.28244 3:-0.49739 
-1 1:0.28205 2:0.26718 3:-0.66139 
-1 1:0.13215 2:-0.20611 3:-0.20047 
-1 1:0.53846 2:-0.12977 3:-0.116 
-1 1:0.4497 2:0.14504 3:-0.61889 
-1 1:0.49901 2:-0.34351 3:0.42277 
-1 1:0.27219 2:0.03817 3:-0.25534 
-1 1:0.30375 2:-0.1145 3:-0.23649 
-1 1:0.30966 2:-0.29771 3:-0.40477 
-1 1:0.47535 2:0.40458 3:-0.76559 
-1 1:0.40434 2:0.0229 3:-0.52537 
-1 1:0.49112 2:-0.0229 3:-0.39797 
-1 1:0.33728 2:-0.22137 3:-0.48854 
-1 1:0.51677 2:0.29771 3:-0.24834 
-1 1:0.56805 2:0.28244 3:-0.51551 
-1 1:0.39842 2:0.46565 3:-0.46116 
-1 1:0.30178 2:0.0229 3:-0.26977 
-1 1:0.41815 2:0.25191 3:-0.67528 
-1 1:0.42801 2:0.41985 3:-0.91011 
-1 1:0.48915 2:0.14504 3:-0.58944 
-1 1:0.10454 2:0.22137 3:-0.75607 
-1 1:0.26036 2:-0.22137 3:-0.26972 
-1 1:0.48718 2:0.17557 3:-0.6333 
-1 1:0.52071 2:0.00763 3:-0.33645 
-1 1:0.43195 2:-0.54198 3:0.14185 
-1 1:0.51479 2:0.09924 3:-0.28893 
-1 1:0.51874 2:0.16031 3:-0.48415 
-1 1:0.57988 2:0.40458 3:-0.52371 
-1 1:0.63314 2:0.29771 3:-0.46712 
-1 1:0.44773 2:0.49618 3:-0.39216 
-1 1:0.21499 2:0.17557 3:-0.38548 
-1 1:0.18343 2:0.49618 3:-0.80726 
-1 1:0.31953 2:0.28244 3:-0.74645 
-1 1:0.53254 2:0.34351 3:-0.63272 
-1 1:0.26036 2:0.22137 3:-0.7003 
-1 1:0.34714 2:0.00763 3:-0.36091 
-1 1:0.34714 2:-0.05344 3:-0.455 
-1 1:0.46351 2:-0.1145 3:-0.31545 
-1 1:0.3432 2:0.25191 3:-0.56254 
-1 1:0.43984 2:-0.14504 3:-0.34582 
-1 1:0.357 2:0.17557 3:-0.41733 
-1 1:0.47732 2:-0.17557 3:0.01137 
-1 1:0.30178 2:0.0229 3:-0.51815 
-1 1:0.46351 2:-0.61832 3:0.57024 
-1 1:0.35306 2:-0.0687 3:-0.41281 
-1 1:0.19921 2:0.1145 3:-0.54015 
-1 1:0.44181 2:0.0687 3:-0.46039 
-1 1:0.46548 2:0.26718 3:-0.73511 
-1 1:0.3925 2:0.14504 3:-0.76265 
-1 1:0.357 2:-0.20611 3:-0.34803 
-1 1:0.46943 2:0.40458 3:-0.81251 
-1 1:0.48915 2:0.25191 3:-0.42697 
-1 1:0.43393 2:0.25191 3:-0.60969 
-1 1:0.42801 2:-0.35878 3:-0.12288 
-1 1:0.33531 2:-0.0687 3:-0.36098 
-1 1:0.46943 2:-0.31298 3:-0.07129 
-1 1:0.30375 2:0.29771 3:-0.71493 
-1 1:0.45168 2:0.00763 3:-0.3784 
-1 1:0.53254 2:0.00763 3:-0.1707 
-1 1:0.4359 2:-0.03817 3:-0.30073 
-1 1:0.49901 2:0.12977 3:-0.55384 
-1 1:0.36686 2:0.20611 3:-0.85544 
-1 1:0.35503 2:-0.23664 3:-0.34628 
-1 1:0.44773 2:0.16031 3:-0.53791 
-1 1:0.46746 2:0.38931 3:-0.47945 
-1 1:0.32544 2:-0.16031 3:-0.4417 
-1 1:0.42406 2:0.00763 3:-0.44577 
-1 1:0.50493 2:0.17557 3:-0.52216 
-1 1:0.10651 2:0.41985 3:-0.46486 
-1 1:0.43195 2:0.29771 3:-0.5057 
-1 1:0.38264 2:0.17557 3:-0.32765 
-1 1:0.40828 2:0.22137 3:-0.28305 
-1 1:0.50493 2:0.22137 3:-0.53055 
-1 1:0.20118 2:-0.0229 3:-0.32918 
-1 1:0.45957 2:-0.1145 3:-0.32369 
-1 1:0.36095 2:0.19084 3:-0.62314 
-1 1:0.43787 2:0.16031 3:-0.56503 
-1 1:0.48126 2:0.16031 3:-0.29979 
-1 1:0.42012 2:0.29771 3:-0.7532 
-1 1:0.36292 2:0.23664 3:-0.73498 
-1 1:0.33925 2:0.20611 3:-0.46355 
-1 1:0.51677 2:0.40458 3:-0.71174 
-1 1:0.38856 2:-0.60305 3:0.13515 
-1 1:0.39842 2:-0.0229 3:-0.50995 
-1 1:0.4142 2:0.40458 3:-0.79866 
-1 1:0.28994 2:0.22137 3:-0.34609 
-1 1:0.38264 2:-0.00763 3:0.04031 
-1 1:0.26627 2:0.38931 3:-0.28221 
-1 1:0.61736 2:0.17557 3:-0.31163 
-1 1:0.31558 2:0.12977 3:-0.61912 
-1 1:0.29783 2:-0.19084 3:-0.32775 
-1 1:0.40039 2:0.37405 3:-0.75694 
-1 1:0.41026 2:-0.05344 3:-0.28139 
-1 1:0.50888 2:0.25191 3:-0.49572 
-1 1:0.35108 2:-0.69466 3:0.53312 
-1 1:0.51282 2:-0.40458 3:0.15145 
-1 1:0.40039 2:0.0229 3:-0.60956 
-1 1:0.38659 2:0.03817 3:-0.57318 
-1 1:0.4931 2:-0.60305 3:0.55457 
-1 1:0.33333 2:0.03817 3:-0.54998 
-1 1:0.35503 2:0.09924 3:-0.6942 
-1 1:0.44181 2:-0.49618 3:0.14503 
-1 1:0.23077 2:0.03817 3:-0.31655 
-1 1:0.32544 2:-0.40458 3:-0.29437 
-1 1:0.40828 2:-0.00763 3:-0.4691 
-1 1:0.42998 2:0.41985 3:-0.78474 
-1 1:0.43393 2:0.26718 3:-0.68744 
-1 1:0.37475 2:0.09924 3:-0.35543 
-1 1:0.36686 2:-0.09924 3:-0.42248 
-1 1:0.33728 2:0.05344 3:-0.61845 
-1 1:0.51677 2:-0.0687 3:0.02126 
-1 1:0.46943 2:0.34351 3:-0.64238 
-1 1:0.22682 2:0.00763 3:-0.49651 
-1 1:0.36489 2:-0.40458 3:-0.08044 
-1 1:0.26036 2:-0.0229 3:-0.55712 
-1 1:0.5069 2:-0.70992 3:0.59034 
-1 1:0.46351 2:0.08397 3:-0.34949 
-1 1:0.45759 2:-0.57252 3:0.33162 
-1 1:0.46943 2:-0.08397 3:-0.35241 
-1 1:0.48718 2:0.37405 3:-0.8067 
-1 1:0.43984 2:-0.72519 3:0.43271 
-1 1:0.45759 2:-0.35878 3:-0.05381 
-1 1:0.23866 2:-0.08397 3:-0.35866 
-1 1:0.25049 2:0.34351 3:-0.84622 
-1 1:0.28008 2:0.29771 3:-0.82825 
-1 1:0.56805 2:0.41985 3:-0.62106 
-1 1:0.30769 2:-0.12977 3:-0.48945 
-1 1:0.23471 2:-0.05344 3:-0.48248 
-1 1:0.25444 2:-0.26718 3:-0.42151 
-1 1:0.52465 2:-0.58779 3:0.42363 
-1 1:0.30966 2:0.0229 3:-0.58698 
-1 1:0.39842 2:0.43511 3:-0.25274 
-1 1:0.61144 2:-0.0687 3:0.10036 
-1 1:0.36884 2:-0.63359 3:0.19775 
-1 1:0.42012 2:0.31298 3:-0.86552 
-1 1:0.38856 2:0.28244 3:-0.81576 
-1 1:0.54043 2:0.20611 3:-0.51718 
-1 1:0.41815 2:0.03817 3:-0.52271 
-1 1:0.43195 2:0.19084 3:-0.71518 
-1 1:0.3787 2:0.12977 3:-0.57655 
-1 1:0.44181 2:0.34351 3:-0.42676 
-1 1:0.48521 2:0.05344 3:-0.31328 
-1 1:0.36884 2:0.25191 3:-0.66159 
-1 1:0.52071 2:-0.03817 3:-0.18896 
-1 1:0.3215 2:-0.37405 3:-0.32499 
-1 1:0.00592 2:-0.0229 3:-0.5777 
-1 1:0.45168 2:-0.37405 3:0.04906 
-1 1:0.46154 2:-0.00763 3:-0.39533 
-1 1:0.36686 2:-0.05344 3:-0.4536 
-1 1:0.51479 2:0.0687 3:-0.34956 
-1 1:0.45562 2:0.35878 3:-0.80159 
-1 1:0.48521 2:0.34351 3:-0.64061 
-0.5022006917565393 1:0.58777 2:0.0687 3:-0.31604 
-1 1:0.30769 2:-0.28244 3:-0.29858 
-1 1:0.2071 2:-0.20611 3:-0.65733 
-1 1:0.3787 2:0.14504 3:-0.7022 
-1 1:0.26627 2:0.26718 3:-0.74876 
-1 1:0.29783 2:0.0687 3:-0.6426 
-1 1:0.37673 2:-0.03817 3:-0.54625 
-1 1:0.49704 2:-0.58779 3:0.35173 
