svm_type c_svc
kernel_type rbf
gamma 0.5
nr_class 2
total_sv 796
rho 2.05402
label 1 -1
probA -1.92959
probB 0.0190433
nr_sv 398 398
SV
11.43361923377056 1:0.60433 2:0.6124 3:0.3721 
16 1:0.60433 2:0.27132 3:-0.28781 
16 1:0.60433 2:0.22481 3:-0.05457 
16 1:0.60433 2:0.39535 3:-0.04071 
16 1:0.60433 2:0.33333 3:-0.11173 
16 1:0.49213 2:0.53488 3:-0.85688 
16 1:0.49016 2:0.22481 3:-0.41993 
16 1:0.36417 2:0.44186 3:-0.61561 
16 1:0.47244 2:0.6124 3:-0.75831 
16 1:0.33071 2:0.34884 3:-0.57398 
16 1:0.48819 2:0.5969 3:-0.6814 
2.135280727692852 1:0.12992 2:0.89147 3:0.19663 
5.156022047458586 1:0.13583 2:0.86047 3:0.41304 
16 1:0.32283 2:0.34884 3:-0.62324 
16 1:0.35236 2:0.45736 3:-0.85701 
16 1:0.36614 2:0.50388 3:-0.87007 
16 1:0.44291 2:0.48837 3:-0.5148 
16 1:0.49016 2:0.42636 3:-0.36001 
16 1:0.33071 2:0.42636 3:-0.80394 
16 1:0.33661 2:0.45736 3:-0.79394 
16 1:0.49016 2:0.51938 3:-0.66199 
16 1:0.47835 2:0.50388 3:-0.64182 
16 1:0.32874 2:0.47287 3:-0.78264 
16 1:0.44685 2:-0.51938 3:0.53523 
16 1:0.46457 2:0.47287 3:-0.64302 
16 1:0.51772 2:-0.76744 3:0.56474 
16 1:0.35039 2:-0.75194 3:0.57605 
16 1:0.42323 2:0.50388 3:-0.48999 
16 1:0.31102 2:0.41085 3:-0.69283 
16 1:0.27756 2:0.22481 3:-0.60242 
16 1:0.25787 2:0.28682 3:-0.63079 
16 1:0.41339 2:-0.72093 3:0.70691 
16 1:0.16535 2:-0.05426 3:-0.54445 
16 1:0.17913 2:0.14729 3:-0.7039 
16 1:0.2185 2:-0.05426 3:-0.42118 
16 1:0.27559 2:-0.00775 3:-0.51057 
16 1:0.24803 2:0.10078 3:-0.48944 
11.92788381008316 1:0.12008 2:-1 3:0.79967 
16 1:0.1378 2:-0.73643 3:0.28706 
16 1:0.19882 2:-0.13178 3:-0.39558 
16 1:0.20079 2:-0.2093 3:-0.37875 
16 1:0.40945 2:-0.1938 3:-0.04748 
16 1:0.38583 2:0.39535 3:-0.57624 
16 1:0.30118 2:-0.16279 3:-0.3451 
16 1:0.40354 2:0.42636 3:-0.68808 
16 1:0.45669 2:0.33333 3:-0.45869 
16 1:0.37795 2:-0.13178 3:-0.16995 
16 1:0.44094 2:0.08527 3:-0.25787 
16 1:0.3563 2:0.2093 3:-0.39528 
16 1:0.34055 2:0.22481 3:-0.44587 
16 1:0.28346 2:0.1938 3:-0.51092 
16 1:0.31693 2:0.28682 3:-0.523 
16 1:0.26181 2:0.17829 3:-0.52927 
16 1:0.34252 2:0.16279 3:-0.41094 
16 1:0.3189 2:0.16279 3:-0.41133 
16 1:0.3189 2:0.17829 3:-0.40858 
16 1:0.30709 2:0.13178 3:-0.43551 
16 1:0.16929 2:0.2093 3:-0.83426 
16 1:0.25984 2:0.14729 3:-0.66404 
16 1:0.16929 2:0.2093 3:-0.83426 
16 1:0.25984 2:0.14729 3:-0.66404 
16 1:0.20276 2:0.00775 3:-0.66404 
16 1:0.2126 2:0.08527 3:-0.62206 
16 1:0.25984 2:0.14729 3:-0.66404 
16 1:0.15551 2:-0.06977 3:-0.59726 
16 1:0.26969 2:-0.11628 3:-0.48125 
16 1:0.15551 2:-0.06977 3:-0.59726 
16 1:0.26969 2:-0.11628 3:-0.48125 
16 1:0.26378 2:-0.03876 3:-0.40347 
16 1:0.26378 2:-0.03876 3:-0.40347 
16 1:0.26969 2:-0.11628 3:-0.48125 
16 1:0.16929 2:-0.17829 3:-0.50464 
16 1:0.1122 2:-0.06977 3:-0.62644 
16 1:0.1378 2:-0.39535 3:-0.60222 
16 1:0.08661 2:-0.34884 3:-0.51399 
16 1:0.07677 2:-0.30233 3:-0.5013 
16 1:0.11417 2:-0.34884 3:-0.4327 
15.90225253521745 1:0.10827 2:-0.27132 3:-0.41797 
16 1:0.31693 2:0.22481 3:-0.57799 
16 1:0.37795 2:0.24031 3:-0.40551 
16 1:0.40551 2:0.24031 3:-0.58303 
16 1:0.42126 2:0.47287 3:-0.43232 
16 1:0.40748 2:-0.02326 3:-0.2439 
16 1:0.37795 2:-0.00775 3:-0.20616 
16 1:0.20866 2:0.13178 3:-0.64844 
16 1:0.25591 2:0.31783 3:-0.83455 
16 1:0.2126 2:0.14729 3:-0.59465 
16 1:0.19882 2:0.08527 3:-0.58096 
16 1:0.52165 2:0.53488 3:-0.74103 
16 1:0.4311 2:0.50388 3:-0.83078 
16 1:0.41929 2:0.39535 3:-0.48208 
16 1:0.3622 2:-0.06977 3:-0.47352 
16 1:0.34843 2:0.2093 3:-0.47361 
16 1:0.42323 2:0.16279 3:-0.32308 
16 1:0.63189 2:-0.05426 3:-0.14781 
16 1:0.33071 2:-0.33333 3:-0.08251 
16 1:0.40354 2:-0.14729 3:-0.19371 
16 1:0.38976 2:0.30233 3:-0.47288 
16 1:0.47047 2:0.24031 3:-0.39555 
14.04699613336279 1:0.53937 2:0.25581 3:-0.03569 
16 1:0.3622 2:-0.05426 3:-0.21859 
16 1:0.36024 2:-0.42636 3:0.04099 
16 1:0.3878 2:0.28682 3:-0.42973 
16 1:0.39961 2:0.30233 3:-0.46985 
16 1:0.36417 2:-0.30233 3:-0.00117 
16 1:0.59843 2:0.06977 3:-0.00303 
16 1:0.42323 2:-0.1938 3:-0.1851 
16 1:0.34252 2:-0.2093 3:-0.1494 
16 1:0.37598 2:-0.42636 3:-0.04745 
16 1:0.37205 2:-0.13178 3:-0.14119 
16 1:0.31693 2:-0.55039 3:0.234 
16 1:0.37992 2:-0.53488 3:0.63764 
16 1:0.12205 2:0.05426 3:-0.76095 
16 1:0.12205 2:0.05426 3:-0.76095 
16 1:0.40748 2:0.33333 3:-0.6844 
16 1:0.33661 2:0.28682 3:-0.63582 
16 1:0.40748 2:0.33333 3:-0.6844 
16 1:0.33661 2:0.28682 3:-0.63582 
16 1:0.24409 2:0.05426 3:-0.60097 
16 1:0.24409 2:0.05426 3:-0.60097 
16 1:0.30906 2:0.25581 3:-0.58032 
16 1:0.37008 2:0.13178 3:-0.42886 
16 1:0.38976 2:0.44186 3:-0.57762 
16 1:0.3937 2:0.31783 3:-0.49204 
16 1:0.51772 2:0.25581 3:-0.61917 
16 1:0.3622 2:0.50388 3:-0.7077 
16 1:0.34449 2:0.30233 3:-0.45694 
16 1:0.51181 2:0.1938 3:-0.39328 
16 1:0.39961 2:0.08527 3:-0.30313 
16 1:0.30906 2:0.06977 3:-0.46017 
16 1:0.37992 2:0.39535 3:-0.49637 
16 1:0.47441 2:0.48837 3:-0.46006 
16 1:0.42717 2:0.30233 3:-0.49884 
16 1:0.45472 2:0.10078 3:-0.41296 
16 1:0.45669 2:0.31783 3:-0.24755 
16 1:0.47638 2:0.03876 3:-0.13418 
16 1:0.42126 2:0.10078 3:-0.18983 
16 1:0.34252 2:-0.51938 3:0.28928 
16 1:0.38386 2:-0.72093 3:0.52294 
16 1:0.45866 2:0.53488 3:-0.74398 
16 1:0.46063 2:0.5969 3:-0.48725 
16 1:0.52756 2:0.37984 3:-0.29298 
8.137652726286714 1:0.44291 2:0.53488 3:-0.42673 
16 1:0.55315 2:0.00775 3:-0.1778 
16 1:0.44488 2:0.5969 3:-0.63809 
16 1:0.34449 2:0.39535 3:-0.64631 
2.563336682972176 1:0.50787 2:0.68992 3:-0.54967 
16 1:0.23622 2:0.05426 3:-0.48208 
16 1:0.22638 2:-0.24031 3:-0.49931 
16 1:0.27953 2:0.02326 3:-0.52046 
16 1:0.15945 2:-0.06977 3:-0.51834 
16 1:0.24409 2:0.11628 3:-0.52481 
16 1:0.25 2:-0.2093 3:-0.38577 
16 1:0.22244 2:-0.16279 3:-0.40917 
16 1:0.24606 2:-0.14729 3:-0.39075 
16 1:0.48425 2:0.45736 3:-0.80789 
16 1:0.41535 2:0.37984 3:-0.72032 
16 1:0.40945 2:-0.13178 3:-0.38166 
16 1:0.3878 2:0.00775 3:-0.53225 
16 1:0.33465 2:0.36434 3:-0.68166 
16 1:0.43898 2:0.33333 3:-0.65391 
16 1:0.4252 2:-0.13178 3:-0.09161 
16 1:0.37402 2:0.03876 3:-0.47247 
16 1:0.33465 2:0.25581 3:-0.51207 
16 1:0.42323 2:0.25581 3:-0.59634 
16 1:0.36417 2:0.00775 3:-0.29422 
16 1:0.4311 2:0.30233 3:-0.58784 
16 1:0.57874 2:-0.10078 3:-0.2994 
16 1:0.38976 2:0.36434 3:-0.61228 
16 1:0.36417 2:0.27132 3:-0.54564 
16 1:0.42913 2:0.16279 3:-0.47912 
16 1:0.38583 2:-0.10078 3:-0.31386 
16 1:0.37205 2:0.02326 3:-0.2583 
16 1:0.44685 2:0.06977 3:-0.34203 
16 1:0.44094 2:0.10078 3:-0.36289 
16 1:0.36024 2:0.03876 3:-0.43382 
16 1:0.42913 2:0.25581 3:-0.48125 
16 1:0.41929 2:0.05426 3:-0.39378 
16 1:0.45669 2:-0.31783 3:0.11997 
16 1:0.40354 2:0.25581 3:-0.4917 
16 1:0.36417 2:0.24031 3:-0.45153 
16 1:0.41339 2:-0.11628 3:-0.10463 
16 1:0.40551 2:0.16279 3:-0.40987 
16 1:0.46063 2:-0.31783 3:0.11997 
16 1:0.36417 2:0.24031 3:-0.45153 
16 1:0.40945 2:-0.02326 3:-0.28304 
16 1:0.43504 2:0.24031 3:-0.43301 
16 1:0.44488 2:-0.10078 3:-0.25498 
16 1:0.45669 2:0.08527 3:-0.35157 
16 1:0.42126 2:-0.2093 3:-0.05668 
16 1:0.42717 2:-0.00775 3:-0.33493 
16 1:0.44488 2:-0.33333 3:0.11896 
16 1:0.45472 2:0.05426 3:-0.33133 
16 1:0.38976 2:0.13178 3:-0.40453 
16 1:0.41732 2:-0.03876 3:-0.23917 
16 1:0.42717 2:-0.03876 3:-0.21949 
16 1:0.45276 2:-0.11628 3:-0.28352 
16 1:0.49016 2:0.03876 3:-0.26076 
16 1:0.48425 2:-0.24031 3:-0.22289 
16 1:0.47638 2:0.06977 3:-0.30665 
16 1:0.41142 2:0.08527 3:-0.36276 
16 1:0.40157 2:-0.33333 3:0.13563 
16 1:0.40551 2:0.05426 3:-0.28259 
16 1:0.40157 2:-0.33333 3:0.05715 
16 1:0.40551 2:-0.33333 3:-0.03704 
16 1:0.50787 2:-0.28682 3:0.01554 
16 1:0.46457 2:0.00775 3:-0.28386 
16 1:0.38583 2:-0.30233 3:-0.03919 
16 1:0.42717 2:0.03876 3:-0.33515 
16 1:0.43307 2:0.06977 3:-0.32173 
16 1:0.4311 2:-0.06977 3:-0.15577 
16 1:0.4626 2:-0.27132 3:-0.0176 
16 1:0.39567 2:-0.2093 3:-0.07878 
16 1:0.45866 2:0.10078 3:-0.30176 
16 1:0.39567 2:-0.33333 3:0.10006 
16 1:0.40157 2:-0.30233 3:0.10633 
16 1:0.38976 2:-0.22481 3:-0.18279 
16 1:0.4685 2:-0.33333 3:0.08474 
16 1:0.42126 2:-0.39535 3:0.14181 
16 1:0.46457 2:-0.47287 3:0.02618 
16 1:0.39567 2:-0.36434 3:0.02806 
16 1:0.3937 2:-0.41085 3:0.01032 
16 1:0.41732 2:-0.27132 3:0.0683 
16 1:0.42913 2:-0.30233 3:0.00491 
16 1:0.38583 2:-0.00775 3:-0.22067 
16 1:0.42913 2:-0.22481 3:-0.0264 
16 1:0.37402 2:-0.06977 3:-0.222 
16 1:0.40551 2:-0.39535 3:0.0188 
16 1:0.40945 2:-0.22481 3:-0.19474 
16 1:0.37598 2:-0.25581 3:-0.04169 
16 1:0.34843 2:-0.1938 3:-0.21483 
16 1:0.40945 2:-0.13178 3:-0.1484 
16 1:0.37598 2:-0.1938 3:-0.13976 
16 1:0.41929 2:-0.30233 3:-0.02088 
16 1:0.3563 2:-0.08527 3:-0.19982 
16 1:0.4311 2:-0.42636 3:0.13821 
16 1:0.42717 2:-0.41085 3:0.12419 
16 1:0.4252 2:-0.42636 3:0.15271 
16 1:0.40551 2:-0.22481 3:-0.15428 
16 1:0.46654 2:-0.42636 3:0.04004 
16 1:0.40157 2:-0.28682 3:-0.08261 
16 1:0.45866 2:-0.31783 3:-0.03442 
16 1:0.43701 2:-0.41085 3:0.12631 
16 1:0.40945 2:-0.27132 3:-0.10945 
16 1:0.41339 2:-0.45736 3:0.12102 
16 1:0.41535 2:-0.22481 3:-0.10971 
16 1:0.40945 2:-0.45736 3:0.06181 
16 1:0.43504 2:-0.22481 3:-0.08128 
16 1:0.37008 2:-0.41085 3:0.08331 
16 1:0.43504 2:-0.41085 3:0.03218 
16 1:0.40157 2:-0.17829 3:-0.13979 
16 1:0.41929 2:-0.30233 3:-0.0567 
16 1:0.4685 2:-0.24031 3:-0.12996 
16 1:0.41732 2:-0.39535 3:0.11736 
16 1:0.57874 2:-0.17829 3:-0.50562 
16 1:0.52362 2:0.44186 3:-0.76278 
16 1:0.5 2:0.05426 3:-0.43498 
16 1:0.29724 2:0.42636 3:-0.75649 
16 1:0.57283 2:-0.44186 3:-0.34772 
16 1:0.36417 2:-0.13178 3:-0.13836 
16 1:0.30906 2:-0.11628 3:-0.45018 
16 1:0.37992 2:0.34884 3:-0.62088 
16 1:0.51969 2:-0.14729 3:-0.29516 
16 1:0.34646 2:-0.06977 3:-0.47168 
16 1:0.37795 2:0.25581 3:-0.54386 
16 1:0.48819 2:-0.47287 3:-0.2329 
16 1:0.60433 2:-0.33333 3:-0.04201 
16 1:0.44685 2:-0.14729 3:-0.1253 
16 1:0.41535 2:0.16279 3:-0.50627 
16 1:0.45079 2:-0.22481 3:-0.1851 
16 1:0.52165 2:-0.06977 3:-0.10981 
16 1:0.48819 2:-0.44186 3:0.05384 
16 1:0.38583 2:-0.03876 3:-0.39855 
16 1:0.33268 2:0.30233 3:-0.62094 
16 1:0.40354 2:-0.11628 3:-0.26326 
16 1:0.46457 2:-0.31783 3:-0.00968 
16 1:0.42717 2:0.13178 3:-0.41014 
16 1:0.43307 2:0.06977 3:-0.15619 
16 1:0.56693 2:-0.33333 3:-0.32095 
16 1:0.37205 2:0.05426 3:-0.35937 
16 1:0.45472 2:-0.31783 3:-0.14517 
16 1:0.41142 2:-0.27132 3:0.06209 
16 1:0.47244 2:0.08527 3:-0.35282 
16 1:0.5315 2:-0.2093 3:-0.16439 
16 1:0.40157 2:0.02326 3:-0.24525 
16 1:0.48425 2:-0.25581 3:0.06145 
16 1:0.37992 2:-0.16279 3:-0.19747 
16 1:0.45472 2:-0.05426 3:-0.2888 
16 1:0.44488 2:-0.47287 3:0.12189 
16 1:0.48031 2:-0.27132 3:-0.27558 
16 1:0.44291 2:-0.31783 3:0.08886 
16 1:0.44882 2:-0.47287 3:0.01706 
16 1:0.3878 2:-0.2093 3:-0.28698 
16 1:0.42717 2:-0.22481 3:-0.14707 
16 1:0.45669 2:-0.05426 3:-0.27418 
16 1:0.3878 2:-0.10078 3:-0.20577 
16 1:0.45079 2:0.00775 3:-0.16167 
16 1:0.55315 2:-0.14729 3:-0.06807 
16 1:0.4685 2:-0.34884 3:-0.10726 
16 1:0.50394 2:-0.25581 3:-0.11218 
16 1:0.42913 2:-0.00775 3:-0.16103 
16 1:0.52362 2:-0.44186 3:0.00677 
16 1:0.44488 2:-0.08527 3:-0.16857 
16 1:0.42913 2:-0.45736 3:0.04172 
16 1:0.48425 2:-0.22481 3:-0.10769 
16 1:0.45669 2:-0.30233 3:0.05746 
16 1:0.50984 2:-0.24031 3:-0.06868 
16 1:0.46457 2:-0.22481 3:0.01108 
16 1:0.50984 2:-0.13178 3:-0.03353 
16 1:0.48819 2:-0.22481 3:-0.00914 
16 1:0.42717 2:-0.22481 3:0.05796 
16 1:0.39567 2:-0.24031 3:-0.097 
16 1:0.47047 2:-0.28682 3:-0.03742 
16 1:0.49803 2:-0.25581 3:-0.03752 
16 1:0.44291 2:-0.24031 3:0.08692 
16 1:0.47047 2:-0.2093 3:0.06896 
16 1:0.39567 2:-0.30233 3:0.01175 
16 1:0.47441 2:-0.31783 3:-0.02168 
16 1:0.44291 2:-0.2093 3:0.06534 
16 1:0.4685 2:-0.13178 3:0.03763 
16 1:0.45866 2:-0.30233 3:-0.00679 
16 1:0.46063 2:-0.2093 3:-0.00485 
16 1:0.40945 2:-0.33333 3:-0.00507 
16 1:0.43307 2:-0.31783 3:0.05297 
16 1:0.37992 2:-0.28682 3:-0.01245 
16 1:0.44291 2:-0.25581 3:0.05687 
16 1:0.45472 2:-0.14729 3:0.02202 
16 1:0.42717 2:-0.28682 3:0.00817 
16 1:0.44291 2:-0.25581 3:0.05687 
16 1:0.45276 2:-0.17829 3:0.05917 
16 1:0.23228 2:0.10078 3:-0.66201 
16 1:0.25 2:0.17829 3:-0.57591 
16 1:0.26772 2:0.2093 3:-0.64007 
4.132052706603964 1:0.17126 2:0.13178 3:-0.63739 
16 1:0.22638 2:0.16279 3:-0.68287 
16 1:0.20669 2:0.10078 3:-0.56533 
16 1:0.24606 2:0.22481 3:-0.65904 
16 1:0.22244 2:0.06977 3:-0.55231 
16 1:0.18701 2:0.11628 3:-0.62681 
16 1:0.1811 2:-0.05426 3:-0.51628 
16 1:0.21063 2:0.05426 3:-0.5969 
16 1:0.19882 2:0.16279 3:-0.61878 
16 1:0.18701 2:0.06977 3:-0.55995 
16 1:0.23031 2:0.06977 3:-0.57681 
16 1:0.15157 2:-0.00775 3:-0.56314 
16 1:0.20866 2:0.1938 3:-0.64151 
16 1:0.18898 2:-0.27132 3:-0.58107 
16 1:0.21654 2:0.08527 3:-0.54729 
16 1:0.20669 2:-0.02326 3:-0.57168 
16 1:0.15748 2:0.02326 3:-0.60913 
16 1:0.19882 2:0.2093 3:-0.80694 
16 1:0.21457 2:0.10078 3:-0.53599 
16 1:0.13583 2:0.00775 3:-0.60978 
16 1:0.15551 2:0.00775 3:-0.58155 
16 1:0.26181 2:-0.13178 3:-0.56949 
2.369433974726755 1:0.23031 2:0.36434 3:-0.7981 
16 1:0.17323 2:0.03876 3:-0.60139 
16 1:0.46654 2:0.17829 3:-0.16093 
16 1:0.30315 2:-0.14729 3:-0.40493 
16 1:0.22244 2:-0.64341 3:0.16734 
16 1:0.16339 2:-0.68992 3:0.23022 
16 1:0.24803 2:0.28682 3:-0.71424 
16 1:0.35433 2:0.51938 3:-0.78674 
16 1:0.36811 2:0.47287 3:-0.65702 
16 1:0.29724 2:0.33333 3:-0.80578 
16 1:0.32874 2:-0.25581 3:-0.46638 
16 1:0.33268 2:0.13178 3:-0.51548 
16 1:0.27756 2:0.00775 3:-0.39131 
16 1:0.21457 2:0.03876 3:-0.5292 
16 1:0.37205 2:-0.28682 3:-0.13002 
16 1:0.32677 2:-0.36434 3:-0.19761 
16 1:0.19488 2:0.02326 3:-0.51056 
16 1:0.23819 2:-0.13178 3:-0.34878 
16 1:0.46654 2:0.44186 3:-0.49204 
16 1:0.51969 2:-0.03876 3:-0.25215 
16 1:0.49409 2:-0.06977 3:-0.13973 
16 1:0.50197 2:-0.28682 3:0.24301 
16 1:0.36614 2:-0.55039 3:0.62035 
16 1:0.26378 2:-0.79845 3:0.75198 
16 1:0.23228 2:0.02326 3:-0.45058 
16 1:0.46457 2:0.00775 3:-0.42114 
16 1:0.36024 2:0.16279 3:-0.47571 
16 1:0.36811 2:0.41085 3:-0.57473 
16 1:0.25787 2:0.16279 3:-0.55964 
16 1:0.29134 2:0.08527 3:-0.45594 
16 1:0.47441 2:0.48837 3:-0.8991 
16 1:0.36417 2:0.48837 3:-0.84064 
16 1:0.47047 2:0.47287 3:-0.55705 
16 1:0.4626 2:0.42636 3:-0.38907 
16 1:0.43898 2:0.39535 3:-0.62655 
16 1:0.42717 2:0.45736 3:-0.69403 
16 1:0.45866 2:0.45736 3:-0.50897 
16 1:0.4311 2:0.41085 3:-0.40737 
16 1:0.47441 2:0.36434 3:-0.35748 
16 1:0.44685 2:0.06977 3:-0.1865 
16 1:0.43898 2:0.11628 3:-0.17722 
16 1:0.43504 2:0.08527 3:-0.16748 
16 1:0.45669 2:-0.39535 3:0.22017 
-16 1:0.48622 2:0.11628 3:-0.30182 
-16 1:0.37795 2:0.05426 3:-0.50939 
-16 1:0.49016 2:-0.02326 3:-0.13784 
-16 1:0.28346 2:0.27132 3:-0.61171 
-16 1:0.43307 2:-0.00775 3:-0.40973 
-16 1:0.29921 2:0.27132 3:-0.68376 
-16 1:0.16142 2:0.11628 3:-0.60998 
-16 1:0.19488 2:0.05426 3:-0.41223 
-16 1:0.14961 2:0.28682 3:-0.67288 
-16 1:0.47047 2:0.36434 3:-0.61561 
-16 1:0.47047 2:0.42636 3:-0.79847 
-16 1:0.26772 2:0.30233 3:-0.72995 
-16 1:0.29921 2:0.08527 3:-0.61584 
-16 1:0.38976 2:-0.5969 3:0.23986 
-16 1:0.37795 2:0.02326 3:-0.49342 
-16 1:0.3248 2:-0.30233 3:-0.3246 
-16 1:0.46457 2:0.44186 3:-0.83044 
-16 1:0.41535 2:0.42636 3:-0.78359 
-16 1:0.49213 2:0.31783 3:-0.48032 
-16 1:0.3622 2:-0.33333 3:-0.02373 
-16 1:0.33661 2:-0.02326 3:-0.26417 
-16 1:0.41535 2:-0.16279 3:-0.28636 
-16 1:0.21654 2:-0.14729 3:-0.31374 
-16 1:0.29921 2:-0.17829 3:-0.28016 
-16 1:0.42913 2:0.42636 3:-0.90339 
-16 1:0.27953 2:-0.47287 3:-0.04736 
-16 1:0.35827 2:-0.03876 3:-0.29314 
-16 1:0.41929 2:0.27132 3:-0.65097 
-16 1:0.27362 2:0.24031 3:-0.73631 
-16 1:0.4252 2:-0.51938 3:0.20274 
-16 1:0.51772 2:0.42636 3:-0.69016 
-16 1:0.25 2:-0.28682 3:-0.25435 
-16 1:0.44291 2:-0.24031 3:0.03364 
-16 1:0.4626 2:-0.2093 3:0.03056 
-16 1:0.3622 2:-0.16279 3:-0.38371 
-16 1:0.31299 2:-0.06977 3:-0.41946 
-16 1:0.37795 2:0.27132 3:-0.73887 
-16 1:0.37205 2:0.11628 3:-0.51965 
-16 1:0.32087 2:0.10078 3:-0.5478 
-16 1:0.40748 2:0.08527 3:-0.52173 
-16 1:0.3937 2:0.13178 3:-0.55907 
-16 1:0.31299 2:0.51938 3:-0.96338 
-16 1:0.41732 2:-0.47287 3:0.01684 
-16 1:0.3563 2:0.34884 3:-0.73516 
-16 1:0.49606 2:0.47287 3:-0.90555 
-16 1:0.1063 2:0.24031 3:-0.73781 
-16 1:0.04528 2:0.30233 3:-0.85401 
-16 1:0.26181 2:-0.24031 3:-0.22799 
-16 1:0.44488 2:0.11628 3:-0.48349 
-16 1:0.41535 2:-0.02326 3:-0.38218 
-16 1:0.42913 2:-0.1938 3:-0.01158 
-16 1:0.29331 2:0.30233 3:-0.8764 
-16 1:0.3878 2:0.10078 3:-0.56595 
-16 1:0.48622 2:0.03876 3:-0.29861 
-16 1:0.38189 2:-0.17829 3:-0.36226 
-16 1:0.49409 2:-0.5969 3:0.69703 
-16 1:0.30906 2:0.37984 3:-0.75073 
-16 1:0.39173 2:-0.17829 3:-0.02736 
-16 1:0.5 2:-0.33333 3:0.47476 
-16 1:0.72835 2:0.70543 3:-0.53961 
-5.610495261778071 1:0.65551 2:0.48837 3:-0.43386 
-16 1:0.22441 2:0.05426 3:-0.57939 
-16 1:0.47244 2:0.02326 3:-0.31832 
-16 1:0.48622 2:0.06977 3:-0.26187 
-16 1:0.59646 2:0.53488 3:-0.47827 
-16 1:0.58071 2:0.42636 3:-0.48806 
-16 1:0.37992 2:0.55039 3:-0.50677 
-16 1:0.48622 2:0.03876 3:-0.23147 
-16 1:0.44882 2:0.48837 3:-0.33663 
-16 1:0.51575 2:0.11628 3:-0.23571 
-16 1:0.44882 2:0.41085 3:-0.43029 
-16 1:0.11417 2:0.55039 3:-0.43602 
-16 1:0.44291 2:0.36434 3:-0.38385 
-16 1:0.27953 2:0.06977 3:-0.60225 
-16 1:0.30315 2:-0.72093 3:0.22982 
-16 1:0.30118 2:-0.41085 3:-0.22674 
-16 1:0.22835 2:0.02326 3:-0.45882 
-16 1:0.12402 2:-0.10078 3:-0.52927 
-16 1:0.40551 2:0.44186 3:-0.81421 
-16 1:0.36614 2:-0.44186 3:-0.06787 
-16 1:0.26181 2:-0.00775 3:-0.54101 
-16 1:0.47441 2:-0.13178 3:-0.1214 
-16 1:0.29724 2:-0.22481 3:-0.18888 
-16 1:0.57283 2:-0.31783 3:0.19652 
-16 1:0.36024 2:0.14729 3:-0.25024 
-16 1:0.14961 2:0.13178 3:-0.07311 
-16 1:0.53937 2:-0.47287 3:0.40053 
-16 1:0.23228 2:0.05426 3:-0.26539 
-16 1:0.25591 2:0.37984 3:-0.82436 
-16 1:0.43898 2:0.34884 3:-0.74246 
-16 1:0.20079 2:0.03876 3:-0.48783 
-16 1:0.32874 2:0.17829 3:-0.64721 
-16 1:0.42323 2:-0.47287 3:0.08899 
-16 1:0.44291 2:0.17829 3:-0.43232 
-16 1:0.44488 2:-0.13178 3:-0.25658 
-16 1:0.49803 2:0.22481 3:-0.37933 
-16 1:0.35433 2:-0.02326 3:-0.29954 
-16 1:0.45079 2:-0.33333 3:-0.08366 
-1.416973356673355 1:0.37008 2:-0.17829 3:-0.38184 
-16 1:0.44685 2:-0.53488 3:0.18767 
-16 1:0.21063 2:0.25581 3:-0.91246 
-16 1:0.28937 2:-0.1938 3:-0.34064 
-16 1:0.30315 2:0.11628 3:-0.44406 
-16 1:0.46457 2:-0.6124 3:0.70744 
-16 1:0.44094 2:-0.56589 3:0.57979 
-16 1:0.31102 2:0.05426 3:-0.59785 
-16 1:0.26181 2:0.24031 3:-0.67787 
-16 1:0.00787 2:-0.00775 3:-0.54609 
-16 1:0.34843 2:-0.08527 3:-0.32424 
-16 1:0.39173 2:-0.27132 3:-0.23229 
-16 1:0.39764 2:-0.56589 3:0.13126 
-16 1:0.46063 2:-0.5969 3:0.41885 
-16 1:0.23228 2:-0.25581 3:-0.38866 
-16 1:0.46654 2:-0.34884 3:-0.02618 
-16 1:0.38583 2:-0.31783 3:-0.15292 
-16 1:0.4311 2:-0.56589 3:0.31029 
-16 1:0.35236 2:-0.72093 3:0.56511 
-16 1:0.35039 2:-0.06977 3:-0.46135 
-16 1:0.29331 2:0.16279 3:-0.66042 
-16 1:0.10236 2:0.44186 3:-0.83455 
-16 1:0.45866 2:-0.33333 3:-0.05982 
-16 1:0.47047 2:-0.02326 3:-0.29725 
-16 1:0.38583 2:-0.28682 3:-0.23513 
-16 1:0.2185 2:0.1938 3:-0.54274 
-16 1:0.49803 2:-0.17829 3:-0.10906 
-16 1:0.30906 2:-0.27132 3:-0.22337 
-16 1:0.43504 2:0.25581 3:-0.41216 
-16 1:0.48228 2:-0.53488 3:0.30569 
-16 1:0.48031 2:-0.39535 3:0.24637 
-16 1:0.47835 2:-0.16279 3:0.17297 
-16 1:0.25591 2:-0.2093 3:-0.0838 
-16 1:0.34449 2:-0.5814 3:0.07885 
-16 1:0.33268 2:0.00775 3:-0.4971 
-16 1:0.40157 2:0.41085 3:-0.73875 
-16 1:0.24803 2:-0.06977 3:-0.39555 
-16 1:0.5374 2:-0.22481 3:-0.06294 
-16 1:0.50591 2:-0.17829 3:-0.13659 
-16 1:0.33465 2:-0.34884 3:0.02494 
-16 1:0.43898 2:-0.25581 3:-0.01989 
-16 1:0.34843 2:-0.02326 3:-0.35019 
-16 1:0.42717 2:-0.41085 3:0.04205 
-16 1:0.41929 2:-0.11628 3:-0.25403 
-16 1:0.39961 2:-0.31783 3:-0.07654 
-16 1:0.43504 2:0.27132 3:-0.64617 
-16 1:0.30512 2:0.27132 3:-0.69658 
-16 1:0.30709 2:0.16279 3:-0.7568 
-16 1:0.4311 2:-0.2093 3:-0.24248 
-16 1:0.33661 2:-0.05426 3:-0.37508 
-16 1:0.41142 2:-0.42636 3:-0.05866 
-16 1:0.40354 2:-0.37984 3:0.12301 
-16 1:0.53346 2:0.02326 3:-0.1539 
-16 1:0.51575 2:-0.03876 3:-0.23394 
-16 1:0.48425 2:-0.16279 3:-0.1041 
-16 1:0.42913 2:-0.31783 3:-0.0874 
-16 1:0.50591 2:-0.13178 3:-0.16295 
-16 1:0.5374 2:-0.2093 3:-0.04111 
-16 1:0.48425 2:-0.10078 3:-0.21507 
-16 1:0.47047 2:-0.30233 3:-0.04265 
-16 1:0.25394 2:0.16279 3:-0.58032 
-16 1:0.44291 2:-0.53488 3:0.20597 
-16 1:0.29921 2:-0.33333 3:-0.35035 
-16 1:0.47244 2:-0.51938 3:0.26324 
-16 1:0.45472 2:-0.50388 3:0.47522 
-16 1:0.37992 2:-0.34884 3:-0.12329 
-16 1:0.45276 2:-0.36434 3:0.1557 
-16 1:0.36811 2:-0.03876 3:-0.4127 
-16 1:0.34843 2:-0.03876 3:-0.41421 
-16 1:0.4626 2:0.13178 3:-0.35001 
-16 1:0.31693 2:0.08527 3:-0.56404 
-16 1:0.44685 2:-0.2093 3:-0.2294 
-16 1:0.44685 2:0.03876 3:-0.41259 
-16 1:0.26575 2:-0.05426 3:-0.54926 
-16 1:0.49213 2:-0.25581 3:-0.12381 
-16 1:0.37008 2:0.31783 3:-0.65366 
-16 1:0.30906 2:-0.34884 3:-0.00542 
-16 1:0.22441 2:-0.14729 3:-0.35375 
-16 1:0.21654 2:0.1938 3:-0.35883 
-16 1:0.50197 2:-0.08527 3:-0.08432 
-16 1:0.49606 2:-0.36434 3:0.02495 
-16 1:0.52165 2:-0.37984 3:0.10785 
-16 1:0.22047 2:-0.16279 3:-0.52636 
-16 1:0.0689 2:0.2093 3:-0.67389 
-16 1:0.37008 2:-0.45736 3:-0.0142 
-16 1:0.3937 2:-0.31783 3:-0.05075 
-16 1:0.43898 2:-0.50388 3:0.24073 
-16 1:0.36417 2:-0.51938 3:0.07262 
-16 1:0.3878 2:-0.10078 3:-0.21125 
-16 1:0.52165 2:-0.36434 3:0.2992 
-16 1:0.54331 2:-0.33333 3:0.21871 
-16 1:0.45669 2:0.37984 3:-0.78674 
-16 1:0.2815 2:0.53488 3:-0.56769 
-16 1:0.48622 2:0.36434 3:-0.61371 
-16 1:0.27559 2:-0.02326 3:-0.25962 
-16 1:0.35827 2:0.1938 3:-0.37372 
-16 1:0.33858 2:0.27132 3:-0.52979 
-16 1:0.44094 2:-0.13178 3:-0.29685 
-16 1:0.51575 2:0.08527 3:-0.30087 
-16 1:0.56693 2:0.2093 3:-0.35055 
-16 1:0.40945 2:-0.16279 3:-0.33136 
-16 1:0.53937 2:0.13178 3:-0.29642 
-16 1:0.38583 2:0.03876 3:-0.31444 
-16 1:0.4626 2:-0.10078 3:-0.26421 
-16 1:0.43898 2:0.14729 3:-0.25602 
-16 1:0.30512 2:0.11628 3:-0.20452 
-16 1:0.32874 2:-0.10078 3:-0.2397 
-16 1:0.2874 2:-0.48837 3:0.04273 
-16 1:0.26575 2:0.34884 3:-0.83699 
-16 1:0.3878 2:0.34884 3:-0.85584 
-16 1:0.23622 2:0.06977 3:-0.4708 
-16 1:0.46063 2:0.06977 3:-0.34191 
-1.89575860177254 1:0.40551 2:0.03876 3:-0.49533 
-16 1:0.25591 2:-0.25581 3:-0.41533 
-16 1:0.34252 2:-0.53488 3:0.27368 
-16 1:0.26181 2:0.25581 3:-0.7953 
-16 1:0.1122 2:-0.08527 3:-0.60489 
-16 1:0.3248 2:-0.17829 3:-0.37218 
-16 1:0.33858 2:-0.2093 3:-0.35007 
-16 1:0.18504 2:0.51938 3:-0.79283 
-16 1:0.14961 2:0.34884 3:-0.84633 
-16 1:0.32087 2:0.30233 3:-0.72747 
-16 1:0.42717 2:0.39535 3:-0.78239 
-16 1:0.21063 2:0.37984 3:-0.55984 
-16 1:0.32283 2:-0.34884 3:-0.27235 
-16 1:0.35236 2:0.13178 3:-0.25338 
-16 1:0.15551 2:-0.08527 3:-0.34909 
-16 1:0.25197 2:-0.24031 3:-0.37459 
-16 1:0.3563 2:-0.16279 3:-0.33462 
-8.973595070308688 1:0.47047 2:0.41085 3:-0.8374 
-3.938758585579183 1:0.33071 2:-0.45736 3:-0.17412 
-16 1:0.43701 2:-0.36434 3:-0.05367 
-16 1:0.45866 2:-0.56589 3:0.39817 
-16 1:0.33465 2:0.37984 3:-0.7426 
-16 1:0.3622 2:0.2093 3:-0.59493 
-16 1:0.43898 2:0.17829 3:-0.53247 
-16 1:0.54331 2:-0.17829 3:-0.09363 
-16 1:0.41339 2:0.45736 3:-0.33406 
-16 1:0.45276 2:0.55039 3:-0.60355 
-16 1:0.42913 2:0.02326 3:-0.40428 
-16 1:0.37008 2:0.05426 3:-0.47617 
-16 1:0.38976 2:0.1938 3:-0.27732 
-16 1:0.47835 2:0.36434 3:-0.47008 
-16 1:0.52559 2:0.30233 3:-0.46345 
-16 1:0.41339 2:0.31783 3:-0.49398 
-16 1:0.19488 2:-0.00775 3:-0.27897 
-16 1:0.40945 2:0.24031 3:-0.22939 
-16 1:0.50197 2:0.24031 3:-0.24775 
-16 1:0.39764 2:0.36434 3:-0.33514 
-16 1:0.22047 2:0.24031 3:-0.30049 
-16 1:0.43701 2:0.31783 3:-0.4687 
-16 1:0.48031 2:-0.03876 3:-0.29842 
-16 1:0.51575 2:0.25581 3:-0.42881 
-16 1:0.40157 2:0.08527 3:-0.45078 
-16 1:0.46654 2:0.41085 3:-0.44048 
-16 1:0.3937 2:0.45736 3:-0.44197 
-16 1:0.39567 2:-0.06977 3:-0.38218 
-16 1:0.42323 2:0.10078 3:-0.24789 
-16 1:0.26772 2:0.03876 3:-0.39797 
-16 1:0.1063 2:0.44186 3:-0.4248 
-16 1:0.32677 2:-0.14729 3:-0.39991 
-16 1:0.47835 2:0.16279 3:-0.41348 
-16 1:0.62598 2:0.37984 3:-0.36658 
-16 1:0.33858 2:-0.00775 3:-0.38088 
-16 1:0.34646 2:-0.02326 3:-0.30575 
-16 1:0.52756 2:0.37984 3:-0.59676 
-16 1:0.40945 2:0.03876 3:-0.33456 
-16 1:0.41339 2:-0.11628 3:-0.27182 
-16 1:0.47835 2:-0.42636 3:0.17746 
-16 1:0.31102 2:-0.28682 3:-0.36021 
-16 1:0.30906 2:-0.11628 3:-0.45123 
-16 1:0.25197 2:0.36434 3:-0.83471 
-16 1:0.34055 2:0.10078 3:-0.61982 
-16 1:0.27362 2:-0.02326 3:-0.35634 
-16 1:0.24016 2:-0.06977 3:-0.30653 
-16 1:0.21063 2:-0.27132 3:-0.33941 
-16 1:0.41732 2:-0.50388 3:0.1723 
-16 1:0.40551 2:-0.16279 3:-0.26761 
-16 1:0.36811 2:-0.47287 3:0.01175 
-16 1:0.09055 2:0.08527 3:-0.62796 
-16 1:0.31299 2:-0.02326 3:-0.57022 
-16 1:0.32677 2:0.13178 3:-0.66404 
-16 1:0.40157 2:-0.31783 3:-0.18008 
-16 1:0.45669 2:-0.41085 3:0.05768 
-16 1:0.18898 2:-0.10078 3:-0.68214 
-16 1:0.49803 2:-0.05426 3:-0.22527 
-16 1:0.31102 2:-0.17829 3:-0.30541 
-16 1:0.29724 2:-0.16279 3:-0.2296 
-16 1:0.36614 2:0.00775 3:-0.30109 
-16 1:0.43701 2:0.05426 3:-0.3021 
-16 1:0.42323 2:-0.16279 3:-0.22744 
-16 1:0.39961 2:0.13178 3:-0.5527 
-16 1:0.33465 2:0.05426 3:-0.51629 
-16 1:0.45866 2:-0.2093 3:-0.21043 
-16 1:0.53937 2:-0.37984 3:0.31198 
-16 1:0.39173 2:-0.02326 3:-0.40453 
-16 1:0.48228 2:-0.1938 3:0.12553 
-16 1:0.40551 2:-0.5814 3:0.25675 
-16 1:0.29724 2:0.13178 3:-0.70668 
-16 1:0.2874 2:0.13178 3:-0.78151 
-6.309825102499928 1:0.49213 2:-0.33333 3:-0.04183 
-16 1:0.32283 2:-0.24031 3:-0.37748 
-16 1:0.18307 2:0.36434 3:-0.70604 
-16 1:0.42126 2:-0.00775 3:-0.34385 
-16 1:0.36024 2:-0.55039 3:0.12278 
-16 1:0.4685 2:-0.22481 3:-0.06195 
-16 1:0.44291 2:-0.48837 3:0.18176 
-16 1:0.51378 2:-0.41085 3:0.25294 
-16 1:0.2815 2:0.31783 3:-0.81539 
-16 1:0.36417 2:0.17829 3:-0.64013 
-16 1:0.49606 2:0.03876 3:-0.34708 
-16 1:0.5 2:0.27132 3:-0.48926 
-16 1:0.39173 2:-0.22481 3:-0.13496 
-16 1:0.42913 2:-0.45736 3:0.01821 
-16 1:0.50984 2:0.02326 3:-0.22842 
-16 1:0.38189 2:-0.41085 3:0.00631 
-16 1:0.44685 2:-0.41085 3:0.05438 
-16 1:0.42126 2:0.55039 3:-0.91822 
-16 1:0.14764 2:-0.05426 3:-0.58777 
-16 1:0.48819 2:-0.45736 3:0.34593 
-1.65912459956323 1:0.11417 2:-0.75194 3:-0.15744 
-16 1:0.38386 2:-0.11628 3:-0.3565 
-16 1:0.23031 2:-0.02326 3:-0.38681 
-16 1:0.35433 2:-0.34884 3:-0.02789 
-16 1:0.45079 2:-0.53488 3:0.27295 
-16 1:0.30315 2:-0.24031 3:-0.39131 
-16 1:0.27953 2:0.02326 3:-0.33344 
-16 1:0.4685 2:-0.13178 3:0.01386 
-16 1:0.27559 2:-0.00775 3:-0.57644 
-16 1:0.19094 2:-0.14729 3:-0.56768 
-16 1:0.31102 2:-0.00775 3:-0.27909 
-16 1:0.52953 2:0.30233 3:-0.48276 
-16 1:0.45079 2:0.11628 3:-0.47364 
-16 1:0.26575 2:-0.30233 3:-0.36654 
-16 1:0.29528 2:-0.00775 3:-0.56701 
-16 1:0.25591 2:-0.72093 3:0.11644 
-16 1:0.33661 2:0.06977 3:-0.57016 
-16 1:0.34252 2:0.11628 3:-0.5247 
-16 1:0.44685 2:0.10078 3:-0.39814 
-16 1:0.32677 2:-0.10078 3:-0.43236 
-16 1:0.44291 2:-0.08527 3:-0.29477 
-16 1:0.34055 2:-0.02326 3:-0.44249 
-16 1:0.25984 2:0.10078 3:-0.62336 
-16 1:0.46063 2:0.24031 3:-0.55717 
-16 1:0.3878 2:0.02326 3:-0.49292 
-16 1:0.4252 2:0.06977 3:-0.22915 
-16 1:0.43504 2:-0.39535 3:0.29132 
-16 1:0.35827 2:-0.14729 3:-0.32541 
-16 1:0.17717 2:-0.2093 3:-0.6454 
-16 1:0.29134 2:0.10078 3:-0.6759 
-16 1:0.4626 2:0.17829 3:-0.33754 
-16 1:0.27559 2:0.41085 3:-0.22848 
-16 1:0.40551 2:0.27132 3:-0.25072 
-16 1:0.29134 2:0.24031 3:-0.29715 
-16 1:0.49409 2:0.55039 3:-0.28332 
-16 1:0.5 2:-0.05426 3:-0.25606 
-16 1:0.43701 2:0.31783 3:-0.52123 
-16 1:0.42913 2:0.33333 3:-0.5512 
-16 1:0.4685 2:0.42636 3:-0.29379 
-16 1:0.33858 2:-0.02326 3:-0.43079 
-16 1:0.37992 2:-0.02326 3:-0.02512 
-16 1:0.47835 2:0.1938 3:-0.26068 
-16 1:0.62402 2:-0.24031 3:0.09832 
-16 1:0.40354 2:0.31783 3:-0.41699 
-16 1:0.43898 2:-0.25581 3:-0.11089 
-16 1:0.1437 2:0.00775 3:-0.28083 
-16 1:0.42913 2:0.5814 3:-0.24747 
-16 1:0.25787 2:0.30233 3:-0.45408 
-16 1:0.53543 2:0.11628 3:-0.33493 
-16 1:0.25591 2:0.11628 3:-0.34938 
-16 1:0.55906 2:0.00775 3:-0.15981 
-16 1:0.39173 2:0.48837 3:-0.46401 
-16 1:0.48622 2:0.14729 3:0.10535 
-16 1:0.61024 2:-0.06977 3:0.15314 
-16 1:0.40748 2:0.37984 3:-0.24772 
-16 1:0.56299 2:0.28682 3:-0.13928 
-16 1:0.51378 2:0.31783 3:-0.25693 
-16 1:0.39764 2:0.45736 3:-0.28745 
-16 1:0.43701 2:0.45736 3:-0.15948 
-16 1:0.65157 2:-0.06977 3:0.12886 
-16 1:0.52165 2:-0.1938 3:-0.10996 
-16 1:0.4311 2:0.28682 3:-0.66404 
-16 1:0.43307 2:0.44186 3:-0.76863 
-16 1:0.33661 2:0.30233 3:-0.45976 
-16 1:0.49803 2:0.14729 3:-0.40263 
-16 1:0.38386 2:0.11628 3:-0.30718 
-16 1:0.51378 2:0.27132 3:-0.31755 
-16 1:0.29331 2:0.48837 3:-0.26638 
-16 1:0.35827 2:-0.13178 3:-0.30294 
-16 1:0.51378 2:0.02326 3:-0.25003 
-16 1:0.65945 2:0.65891 3:-0.26099 
-16 1:0.49016 2:0.02326 3:-0.25139 
-16 1:0.37402 2:-0.27132 3:-0.13083 
-16 1:0.37402 2:-0.02326 3:-0.38907 
-16 1:0.38583 2:-0.36434 3:-0.08372 
-16 1:0.53937 2:-0.13178 3:-0.11913 
-16 1:0.13386 2:-0.2093 3:-0.16641 
-16 1:0.21063 2:0.10078 3:-0.552 
-16 1:0.26969 2:0.30233 3:-0.82315 
-16 1:0.35433 2:0.05426 3:-0.58789 
