svm_type nu_svr
kernel_type rbf
gamma 3
nr_class 2
total_sv 9958
rho 1.58326
SV
-21.14097571922143 1:0.46 2:0.217 3:0.185 4:0 5:0.02 6:0.02 7:0.061 8:0.02 9:0 10:0.02 11:0.061 12:0 13:0.061 14:0.02 15:0.265 16:0.082 17:0.02 18:0.286 19:0.061 20:0 
214.5855210784251 1:0.46 2:0.261 3:0.185 4:0 5:0 6:0.061 7:0.041 8:0.02 9:0.02 10:0.02 11:0.061 12:0 13:0.041 14:0.204 15:0.082 16:0.061 17:0.061 18:0.061 19:0.265 20:0 
32.34566801608646 1:0.46 2:0.261 3:0.185 4:0 5:0.02 6:0.061 7:0.02 8:0 9:0 10:0.061 11:0.041 12:0 13:0.061 14:0.082 15:0.204 16:0.102 17:0.02 18:0.143 19:0.184 20:0 
-159.0953021445029 1:0.46 2:0.261 3:0.185 4:0.02 5:0.02 6:0.041 7:0 8:0.02 9:0.02 10:0.082 11:0 12:0 13:0.061 14:0.143 15:0.143 16:0.061 17:0.02 18:0.082 19:0.286 20:0 
207.1603357078903 1:0.46 2:0.304 3:0.185 4:0 5:0 6:0 7:0.102 8:0.02 9:0.041 10:0.041 11:0.041 12:0.02 13:0.082 14:0.061 15:0.143 16:0.061 17:0.02 18:0.224 19:0.143 20:0 
-41.74383560830982 1:0.46 2:0.304 3:0.185 4:0.02 5:0.02 6:0.02 7:0.041 8:0.02 9:0 10:0 11:0.102 12:0 13:0.041 14:0.245 15:0.041 16:0.061 17:0.082 18:0.041 19:0.265 20:0 
256 1:0.46 2:0.304 3:0.185 4:0 5:0 6:0.041 7:0.061 8:0 9:0.041 10:0.082 11:0.02 12:0 13:0.082 14:0 15:0.245 16:0.102 17:0.02 18:0.184 19:0.122 20:0 
-256 1:0.46 2:0.304 3:0.185 4:0 5:0.02 6:0 7:0.082 8:0 9:0.041 10:0.041 11:0.061 12:0.02 13:0 14:0.204 15:0.082 16:0.082 17:0.082 18:0.082 19:0.204 20:0 
-1.009070116528868 1:0.46 2:0.348 3:0.185 4:0.02 5:0 6:0.061 7:0.02 8:0.02 9:0.041 10:0.082 11:0.02 12:0.041 13:0.041 14:0.061 15:0.143 16:0.02 17:0.082 18:0.102 19:0.245 20:0 
-256 1:0.46 2:0.348 3:0.185 4:0.02 5:0.041 6:0.02 7:0.02 8:0.041 9:0.061 10:0 11:0.061 12:0.02 13:0.02 14:0.122 15:0.122 16:0.02 17:0.041 18:0.143 19:0.245 20:0 
108.3551948464998 1:0.46 2:0.348 3:0.185 4:0 5:0.041 6:0.02 7:0.041 8:0.02 9:0 10:0.102 11:0.041 12:0.02 13:0.102 14:0.061 15:0.122 16:0.061 17:0.02 18:0.122 19:0.224 20:0 
256 1:0.46 2:0.348 3:0.185 4:0.02 5:0.02 6:0.041 7:0.02 8:0.02 9:0.02 10:0.041 11:0.082 12:0.041 13:0.041 14:0.143 15:0.061 16:0.02 17:0.082 18:0.061 19:0.286 20:0 
-47.70686259050099 1:0.46 2:0.348 3:0.185 4:0.02 5:0 6:0.02 7:0.061 8:0 9:0 10:0.041 11:0.122 12:0.041 13:0.02 14:0.184 15:0.041 16:0.041 17:0.143 18:0.061 19:0.204 20:0 
-232.849541351146 1:0.46 2:0.348 3:0.185 4:0.02 5:0 6:0.061 7:0.02 8:0 9:0.061 10:0.02 11:0.082 12:0.061 13:0.082 14:0.061 15:0.082 16:0.02 17:0.02 18:0.143 19:0.265 20:0 
-41.04077446963174 1:0.46 2:0.348 3:0.185 4:0 5:0 6:0 7:0.102 8:0 9:0.061 10:0.102 11:0 12:0.02 13:0.082 14:0.102 15:0.082 16:0.082 17:0.02 18:0.102 19:0.245 20:0 
-256 1:0.46 2:0.348 3:0.185 4:0 5:0.02 6:0 7:0.082 8:0 9:0 10:0.02 11:0.143 12:0 13:0.02 14:0.163 15:0.102 16:0.102 17:0.122 18:0.102 19:0.122 20:0 
-251.7065842283384 1:0.46 2:0.348 3:0.185 4:0.02 5:0.02 6:0.02 7:0.02 8:0 9:0 10:0.02 11:0.143 12:0.061 13:0.02 14:0.02 15:0.204 16:0.02 17:0.122 18:0.245 19:0.061 20:0 
-256 1:0.46 2:0.391 3:0.185 4:0 5:0.041 6:0.061 7:0 8:0.041 9:0.061 10:0.02 11:0.061 12:0.02 13:0 14:0.143 15:0.102 16:0.041 17:0.082 18:0.061 19:0.265 20:0 
256 1:0.46 2:0.391 3:0.185 4:0.02 5:0 6:0 7:0.082 8:0 9:0.02 10:0.041 11:0.122 12:0.02 13:0.02 14:0.102 15:0.122 16:0.061 17:0.143 18:0.122 19:0.122 20:0 
256 1:0.46 2:0.391 3:0.185 4:0 5:0 6:0 7:0.102 8:0.02 9:0.041 10:0 11:0.122 12:0.02 13:0.102 14:0.082 15:0.061 16:0.061 17:0.041 18:0.204 19:0.143 20:0 
-256 1:0.46 2:0.391 3:0.185 4:0 5:0 6:0.041 7:0.061 8:0 9:0.061 10:0.02 11:0.102 12:0 13:0.102 14:0.122 15:0.041 16:0.082 17:0.02 18:0.102 19:0.245 20:0 
221.7482211573891 1:0.46 2:0.391 3:0.185 4:0 5:0.041 6:0.061 7:0 8:0.041 9:0.061 10:0 11:0.082 12:0.061 13:0.041 14:0.082 15:0.082 16:0 17:0.041 18:0.143 19:0.265 20:0 
-256 1:0.46 2:0.391 3:0.185 4:0 5:0.041 6:0 7:0.061 8:0.02 9:0 10:0.02 11:0.143 12:0.02 13:0.041 14:0.163 15:0.041 16:0.061 17:0.102 18:0.102 19:0.184 20:0 
-34.23913565275572 1:0.46 2:0.391 3:0.185 4:0.02 5:0 6:0.061 7:0 8:0.02 9:0 10:0.061 11:0.102 12:0 13:0.02 14:0.163 15:0.102 16:0.061 17:0.143 18:0 19:0.245 20:0 
-209.3317108190244 1:0.46 2:0.391 3:0.185 4:0 5:0.02 6:0 7:0.082 8:0 9:0 10:0.061 11:0.122 12:0.02 13:0.02 14:0.02 15:0.204 16:0.082 17:0.122 18:0.204 19:0.041 20:0 
256 1:0.46 2:0.391 3:0.185 4:0 5:0.041 6:0 7:0.061 8:0 9:0.061 10:0.061 11:0.041 12:0 13:0.02 14:0.143 15:0.122 16:0.102 17:0.041 18:0.082 19:0.224 20:0 
183.7355881149547 1:0.46 2:0.391 3:0.185 4:0.02 5:0 6:0.061 7:0.02 8:0.041 9:0.041 10:0.082 11:0 12:0 13:0.02 14:0.102 15:0.163 16:0.041 17:0.122 18:0.041 19:0.245 20:0 
-256 1:0.46 2:0.391 3:0.185 4:0.02 5:0 6:0.061 7:0.02 8:0.02 9:0.02 10:0 11:0.143 12:0.061 13:0.02 14:0.061 15:0.122 16:0 17:0.143 18:0.143 19:0.163 20:0 
56.1735544741654 1:0.46 2:0.391 3:0.185 4:0 5:0 6:0.061 7:0.041 8:0.041 9:0.061 10:0.02 11:0.041 12:0.061 13:0 14:0.082 15:0.143 16:0 17:0.122 18:0.122 19:0.204 20:0 
-121.5378135307814 1:0.46 2:0.391 3:0.185 4:0 5:0.041 6:0 7:0.061 8:0.041 9:0.061 10:0.082 11:0 12:0 13:0.02 14:0.041 15:0.224 16:0.061 17:0.041 18:0.163 19:0.163 20:0 
-2.888558367865653 1:0.46 2:0.391 3:0.185 4:0 5:0.041 6:0.02 7:0.041 8:0.02 9:0.061 10:0.041 11:0.041 12:0.02 13:0.061 14:0.163 15:0.041 16:0.061 17:0.02 18:0.061 19:0.306 20:0 
15.81007269171027 1:0.46 2:0.391 3:0.185 4:0 5:0.041 6:0 7:0.061 8:0.041 9:0.041 10:0.02 11:0.082 12:0.041 13:0.082 14:0 15:0.163 16:0.02 17:0.02 18:0.265 19:0.122 20:0 
208.0873947761881 1:0.46 2:0.435 3:0.185 4:0 5:0.041 6:0.02 7:0.02 8:0.02 9:0 10:0.102 11:0.082 12:0.041 13:0.02 14:0.041 15:0.163 16:0.02 17:0.143 18:0.102 19:0.184 20:0 
0.416317542816293 1:0.46 2:0.435 3:0.185 4:0 5:0 6:0.061 7:0.041 8:0.041 9:0 10:0.02 11:0.143 12:0.041 13:0.061 14:0.061 15:0.102 16:0.02 17:0.122 18:0.122 19:0.163 20:0 
-127.0198877848923 1:0.46 2:0.435 3:0.185 4:0.02 5:0 6:0 7:0.082 8:0.02 9:0.041 10:0.082 11:0.061 12:0 13:0.041 14:0.082 15:0.143 16:0.061 17:0.122 18:0.102 19:0.143 20:0 
256 1:0.46 2:0.435 3:0.185 4:0 5:0.02 6:0 7:0.082 8:0.041 9:0.041 10:0.041 11:0.082 12:0.02 13:0.041 14:0.143 15:0.061 16:0.041 17:0.102 18:0.082 19:0.204 20:0 
256 1:0.46 2:0.435 3:0.185 4:0 5:0.02 6:0.02 7:0.061 8:0.041 9:0.02 10:0.02 11:0.122 12:0.041 13:0.122 14:0.02 15:0.061 16:0.02 17:0.041 18:0.204 19:0.184 20:0 
256 1:0.46 2:0.435 3:0.185 4:0.02 5:0 6:0.02 7:0.061 8:0.041 9:0.061 10:0.061 11:0.02 12:0.02 13:0.082 14:0 15:0.163 16:0.02 17:0.061 18:0.184 19:0.184 20:0 
2.174840991837476 1:0.46 2:0.435 3:0.185 4:0 5:0.02 6:0.061 7:0.02 8:0.02 9:0.061 10:0 11:0.122 12:0 13:0.082 14:0.02 15:0.163 16:0.061 17:0.041 18:0.184 19:0.143 20:0 
-256 1:0.46 2:0.435 3:0.185 4:0 5:0 6:0 7:0.102 8:0.02 9:0.061 10:0.082 11:0.02 12:0 13:0.122 14:0.041 15:0.102 16:0.082 17:0.02 18:0.143 19:0.204 20:0 
256 1:0.46 2:0.435 3:0.185 4:0 5:0.041 6:0.041 7:0.02 8:0.041 9:0.061 10:0.02 11:0.082 12:0.061 13:0.02 14:0.02 15:0.143 16:0 17:0.082 18:0.184 19:0.184 20:0 
-256 1:0.46 2:0.435 3:0.185 4:0 5:0 6:0 7:0.102 8:0 9:0 10:0.061 11:0.143 12:0 13:0.061 14:0.102 15:0.082 16:0.102 17:0.143 18:0.082 19:0.122 20:0 
256 1:0.46 2:0.435 3:0.185 4:0 5:0.02 6:0.061 7:0.02 8:0 9:0 10:0.02 11:0.184 12:0 13:0.041 14:0.082 15:0.122 16:0.102 17:0.143 18:0.082 19:0.122 20:0 
-50.81092381503432 1:0.46 2:0.435 3:0.185 4:0 5:0.041 6:0.041 7:0.02 8:0 9:0.041 10:0.122 11:0.041 12:0.041 13:0.122 14:0.02 15:0.061 16:0.061 17:0 18:0.082 19:0.306 20:0 
77.73090546582311 1:0.46 2:0.435 3:0.185 4:0 5:0.041 6:0.061 7:0 8:0 9:0.041 10:0.02 11:0.122 12:0 13:0.122 14:0.041 15:0.102 16:0.102 17:0 18:0.122 19:0.224 20:0 
-36.99064427114457 1:0.46 2:0.435 3:0.185 4:0 5:0.02 6:0.041 7:0.041 8:0 9:0.02 10:0 11:0.184 12:0 13:0.122 14:0.143 15:0 16:0.102 17:0.041 18:0.061 19:0.224 20:0 
-249.4579665557162 1:0.46 2:0.435 3:0.185 4:0 5:0 6:0 7:0.102 8:0.041 9:0.082 10:0.02 11:0.041 12:0.061 13:0.082 14:0.041 15:0.082 16:0 17:0.041 18:0.204 19:0.204 20:0 
104.9608209540701 1:0.46 2:0.435 3:0.185 4:0 5:0.02 6:0.061 7:0.02 8:0 9:0 10:0.02 11:0.184 12:0 13:0.041 14:0.02 15:0.184 16:0.102 17:0.143 18:0.163 19:0.041 20:0 
-256 1:0.46 2:0.522 3:0.185 4:0 5:0.02 6:0.02 7:0.061 8:0 9:0.102 10:0.02 11:0.122 12:0 13:0.02 14:0.102 15:0.082 16:0.102 17:0.082 18:0.082 19:0.184 20:0 
-256 1:0.46 2:0.522 3:0.185 4:0 5:0.061 6:0 7:0.041 8:0.02 9:0.02 10:0.02 11:0.184 12:0.041 13:0.02 14:0.061 15:0.082 16:0.02 17:0.143 18:0.143 19:0.143 20:0 
-63.95220793199405 1:0.46 2:0.522 3:0.185 4:0.02 5:0.02 6:0 7:0.041 8:0.041 9:0.061 10:0.122 11:0.02 12:0 13:0.061 14:0.041 15:0.122 16:0.041 17:0.102 18:0.061 19:0.245 20:0 
-192.1150389551042 1:0.46 2:0.522 3:0.185 4:0 5:0.041 6:0.041 7:0.02 8:0 9:0.082 10:0.082 11:0.082 12:0.02 13:0.061 14:0.061 15:0.082 16:0.082 17:0.061 18:0.041 19:0.245 20:0 
-256 1:0.46 2:0.522 3:0.185 4:0 5:0.02 6:0.041 7:0.041 8:0 9:0.061 10:0.061 11:0.102 12:0 13:0.102 14:0 15:0.122 16:0.102 17:0.061 18:0.122 19:0.163 20:0 
-162.4874885847199 1:0.46 2:0.522 3:0.185 4:0.02 5:0.02 6:0.02 7:0.041 8:0.02 9:0.02 10:0.02 11:0.184 12:0.041 13:0.102 14:0.041 15:0.02 16:0.02 17:0.102 18:0.143 19:0.184 20:0 
256 1:0.46 2:0.522 3:0.185 4:0 5:0 6:0 7:0.102 8:0 9:0.041 10:0.041 11:0.163 12:0 13:0.102 14:0.061 15:0.041 16:0.102 17:0.082 18:0.122 19:0.143 20:0 
16.45796486328354 1:0.46 2:0.522 3:0.185 4:0 5:0.041 6:0.02 7:0.02 8:0 9:0.061 10:0 11:0.184 12:0.041 13:0.061 14:0 15:0.122 16:0.061 17:0.082 18:0.184 19:0.122 20:0 
-16.61094492062385 1:0.46 2:0.522 3:0.185 4:0 5:0.041 6:0 7:0.061 8:0.061 9:0.02 10:0.082 11:0.082 12:0.041 13:0.082 14:0.102 15:0 16:0 17:0.082 18:0.041 19:0.306 20:0 
-25.13233188568201 1:0.46 2:0.522 3:0.185 4:0.02 5:0.061 6:0.02 7:0 8:0 9:0.102 10:0.082 11:0.041 12:0.041 13:0.041 14:0.082 15:0.061 16:0.041 17:0.02 18:0.041 19:0.347 20:0 
256 1:0.46 2:0.522 3:0.185 4:0.02 5:0.041 6:0.041 7:0 8:0 9:0.082 10:0.061 11:0.102 12:0 13:0.122 14:0.02 15:0.061 16:0.082 17:0 18:0.102 19:0.265 20:0 
59.47636660324824 1:0.46 2:0.522 3:0.185 4:0 5:0 6:0 7:0.102 8:0.02 9:0 10:0.082 11:0.143 12:0 13:0.061 14:0.082 15:0.061 16:0.082 17:0.184 18:0.061 19:0.122 20:0 
-256 1:0.46 2:0.522 3:0.185 4:0 5:0 6:0.02 7:0.082 8:0 9:0.041 10:0.122 11:0.061 12:0 13:0.041 14:0.041 15:0.143 16:0.102 17:0.163 18:0.02 19:0.163 20:0 
28.1674964389958 1:0.46 2:0.522 3:0.185 4:0 5:0.02 6:0.041 7:0.041 8:0 9:0.082 10:0 11:0.163 12:0.02 13:0.122 14:0.02 15:0.061 16:0.082 17:0.02 18:0.163 19:0.163 20:0 
229.4683573372452 1:0.46 2:0.522 3:0.185 4:0 5:0 6:0 7:0.102 8:0 9:0.122 10:0 11:0.122 12:0 13:0.02 14:0.082 15:0.122 16:0.082 17:0.102 18:0.143 19:0.102 20:0 
-108.0564601046834 1:0.46 2:0.522 3:0.185 4:0.02 5:0.041 6:0.041 7:0 8:0.061 9:0.082 10:0.102 11:0 12:0.02 13:0 14:0.02 15:0.184 16:0 17:0.102 18:0.061 19:0.265 20:0 
-157.9022663504165 1:0.46 2:0.565 3:0.185 4:0 5:0.041 6:0.041 7:0.02 8:0.02 9:0.102 10:0.061 11:0.082 12:0.041 13:0.061 14:0.041 15:0.041 16:0.041 17:0.061 18:0.041 19:0.306 20:0 
256 1:0.46 2:0.565 3:0.185 4:0 5:0.041 6:0 7:0.061 8:0.02 9:0.082 10:0.061 11:0.102 12:0.02 13:0.082 14:0.02 15:0.061 16:0.061 17:0.061 18:0.102 19:0.224 20:0 
-256 1:0.46 2:0.565 3:0.185 4:0 5:0.041 6:0.02 7:0.041 8:0.02 9:0.02 10:0.041 11:0.184 12:0.02 13:0.041 14:0.041 15:0.082 16:0.041 17:0.163 18:0.102 19:0.143 20:0 
158.2030404133549 1:0.46 2:0.565 3:0.185 4:0 5:0.041 6:0 7:0.061 8:0.041 9:0.041 10:0.122 11:0.061 12:0.041 13:0.041 14:0.061 15:0.041 16:0.02 17:0.143 18:0.02 19:0.265 20:0 
-137.6531917051635 1:0.46 2:0.565 3:0.185 4:0.02 5:0.061 6:0 7:0.02 8:0.02 9:0.102 10:0 11:0.143 12:0.02 13:0.02 14:0.082 15:0.061 16:0.041 17:0.082 18:0.122 19:0.204 20:0 
256 1:0.46 2:0.565 3:0.185 4:0.02 5:0.061 6:0 7:0.02 8:0 9:0.041 10:0.041 11:0.184 12:0.041 13:0.02 14:0.102 15:0.02 16:0.041 17:0.143 18:0.061 19:0.204 20:0 
256 1:0.46 2:0.565 3:0.185 4:0.02 5:0.041 6:0.041 7:0 8:0.061 9:0.061 10:0.041 11:0.102 12:0.02 13:0.041 14:0.02 15:0.102 16:0 17:0.102 18:0.102 19:0.245 20:0 
256 1:0.46 2:0.565 3:0.185 4:0.02 5:0 6:0 7:0.082 8:0 9:0.082 10:0.102 11:0.082 12:0 13:0.041 14:0.061 15:0.082 16:0.082 17:0.122 18:0.041 19:0.204 20:0 
256 1:0.46 2:0.565 3:0.185 4:0 5:0.061 6:0.041 7:0 8:0 9:0.102 10:0.02 11:0.143 12:0 13:0.061 14:0.061 15:0.061 16:0.102 17:0.041 18:0.061 19:0.245 20:0 
132.7599713369732 1:0.46 2:0.565 3:0.185 4:0.02 5:0.02 6:0.02 7:0.041 8:0 9:0.02 10:0.082 11:0.163 12:0.02 13:0 14:0.02 15:0.143 16:0.061 17:0.224 18:0.061 19:0.102 20:0 
-256 1:0.46 2:0.565 3:0.185 4:0.02 5:0 6:0 7:0.082 8:0.061 9:0.082 10:0.02 11:0.102 12:0 13:0.041 14:0.082 15:0.061 16:0.02 17:0.143 18:0.102 19:0.184 20:0 
-256 1:0.46 2:0.565 3:0.185 4:0 5:0.041 6:0.041 7:0.02 8:0.061 9:0.082 10:0 11:0.102 12:0.02 13:0.102 14:0 15:0.082 16:0.02 17:0.02 18:0.163 19:0.245 20:0 
16.47082388989506 1:0.46 2:0.565 3:0.185 4:0 5:0.02 6:0 7:0.082 8:0.041 9:0.102 10:0.02 11:0.082 12:0.041 13:0.122 14:0.041 15:0 16:0.02 17:0.02 18:0.143 19:0.265 20:0 
-256 1:0.46 2:0.565 3:0.185 4:0 5:0 6:0 7:0.102 8:0.02 9:0.041 10:0.041 11:0.163 12:0 13:0.122 14:0.02 15:0.041 16:0.082 17:0.102 18:0.143 19:0.122 20:0 
79.99612191937705 1:0.46 2:0.565 3:0.185 4:0 5:0 6:0 7:0.102 8:0 9:0.041 10:0.082 11:0.143 12:0 13:0.082 14:0 15:0.122 16:0.102 17:0.143 18:0.102 19:0.082 20:0 
58.96388401779857 1:0.46 2:0.565 3:0.185 4:0 5:0.041 6:0 7:0.061 8:0 9:0.061 10:0 11:0.204 12:0 13:0.061 14:0.082 15:0.061 16:0.102 17:0.082 18:0.122 19:0.122 20:0 
202.0692961440761 1:0.46 2:0.565 3:0.185 4:0 5:0.061 6:0.041 7:0 8:0.041 9:0.02 10:0.061 11:0.143 12:0.02 13:0.122 14:0 15:0.041 16:0.041 17:0.061 18:0.082 19:0.265 20:0 
-45.01145119591789 1:0.46 2:0.609 3:0.185 4:0.02 5:0.02 6:0.02 7:0.041 8:0.041 9:0.061 10:0 11:0.184 12:0 13:0 14:0.082 15:0.082 16:0.041 17:0.204 18:0.061 19:0.143 20:0 
-99.00264209078291 1:0.46 2:0.609 3:0.185 4:0.02 5:0.041 6:0.02 7:0.02 8:0.061 9:0.02 10:0.082 11:0.102 12:0.02 13:0.041 14:0 15:0.122 16:0 17:0.184 18:0.082 19:0.184 20:0 
256 1:0.46 2:0.609 3:0.185 4:0 5:0 6:0 7:0.102 8:0 9:0.041 10:0.082 11:0.143 12:0 13:0.102 14:0.082 15:0 16:0.102 17:0.143 18:0.02 19:0.184 20:0 
-104.8418876096177 1:0.46 2:0.609 3:0.185 4:0 5:0.041 6:0.02 7:0.041 8:0.041 9:0.041 10:0.102 11:0.102 12:0.041 13:0.122 14:0.02 15:0 16:0.02 17:0.082 18:0.041 19:0.286 20:0 
-256 1:0.46 2:0.609 3:0.185 4:0 5:0.061 6:0.041 7:0 8:0.02 9:0.082 10:0.061 11:0.122 12:0.041 13:0 14:0.061 15:0.082 16:0.041 17:0.122 18:0.02 19:0.245 20:0 
-256 1:0.46 2:0.609 3:0.185 4:0 5:0.061 6:0.041 7:0 8:0.02 9:0 10:0.122 11:0.122 12:0 13:0.102 14:0 15:0.082 16:0.082 17:0.102 18:0.02 19:0.245 20:0 
256 1:0.46 2:0.609 3:0.185 4:0.02 5:0.061 6:0 7:0.02 8:0.041 9:0.082 10:0.122 11:0.041 12:0 13:0.02 14:0 15:0.143 16:0.02 17:0.122 18:0.061 19:0.245 20:0 
-74.02397638353207 1:0.46 2:0.609 3:0.185 4:0.02 5:0 6:0.02 7:0.061 8:0.061 9:0.102 10:0.02 11:0.082 12:0.02 13:0 14:0.082 15:0.082 16:0 17:0.184 18:0.041 19:0.224 20:0 
-47.6818908289657 1:0.46 2:0.609 3:0.185 4:0 5:0.041 6:0.041 7:0.02 8:0.061 9:0 10:0 11:0.204 12:0.041 13:0 14:0.041 15:0.102 16:0 17:0.245 18:0.102 19:0.102 20:0 
-11.16163472117677 1:0.46 2:0.609 3:0.185 4:0.02 5:0 6:0.041 7:0.041 8:0.061 9:0.163 10:0.041 11:0.02 12:0 13:0.082 14:0.041 15:0.061 16:0.02 17:0.02 18:0.061 19:0.327 20:0 
-32.26314828987772 1:0.46 2:0.609 3:0.185 4:0 5:0.061 6:0 7:0.041 8:0 9:0.163 10:0.041 11:0.082 12:0.02 13:0.041 14:0.041 15:0.061 16:0.082 17:0 18:0.102 19:0.265 20:0 
256 1:0.46 2:0.652 3:0.185 4:0.02 5:0.061 6:0.02 7:0 8:0 9:0.061 10:0 11:0.245 12:0.02 13:0.041 14:0.02 15:0.061 16:0.061 17:0.122 18:0.122 19:0.143 20:0 
-256 1:0.46 2:0.652 3:0.185 4:0.02 5:0 6:0.041 7:0.041 8:0 9:0.102 10:0.041 11:0.143 12:0 13:0.102 14:0.061 15:0 16:0.082 17:0.082 18:0.02 19:0.265 20:0 
226.0967623398816 1:0.46 2:0.652 3:0.185 4:0 5:0.061 6:0.041 7:0 8:0.02 9:0.041 10:0.122 11:0.122 12:0 13:0.041 14:0 15:0.122 16:0.061 17:0.163 18:0 19:0.204 20:0 
-256 1:0.46 2:0.652 3:0.185 4:0 5:0 6:0.02 7:0.082 8:0.041 9:0 10:0.102 11:0.143 12:0.02 13:0.102 14:0 15:0.041 16:0.041 17:0.204 18:0.02 19:0.184 20:0 
-256 1:0.46 2:0.652 3:0.185 4:0 5:0 6:0 7:0.102 8:0 9:0.163 10:0.061 11:0.082 12:0 13:0.041 14:0 15:0.102 16:0.082 17:0.102 18:0.102 19:0.163 20:0 
217.161917540078 1:0.46 2:0.652 3:0.185 4:0.02 5:0.02 6:0.02 7:0.041 8:0.041 9:0.061 10:0.122 11:0.061 12:0.041 13:0.041 14:0 15:0.082 16:0 17:0.163 18:0.02 19:0.265 20:0 
-116.999105009183 1:0.46 2:0.652 3:0.185 4:0.02 5:0.041 6:0.02 7:0.02 8:0.041 9:0.061 10:0.061 11:0.122 12:0.02 13:0 14:0.061 15:0.082 16:0.02 17:0.204 18:0 19:0.224 20:0 
84.48624587215558 1:0.46 2:0.652 3:0.185 4:0 5:0 6:0.041 7:0.061 8:0.041 9:0.184 10:0.041 11:0.02 12:0.041 13:0.02 14:0.02 15:0.082 16:0.02 17:0.102 18:0.041 19:0.286 20:0 
-71.18763646942649 1:0.46 2:0.652 3:0.185 4:0.02 5:0.041 6:0 7:0.041 8:0.041 9:0.163 10:0.02 11:0.082 12:0.02 13:0.061 14:0.061 15:0.02 16:0 17:0.041 18:0.082 19:0.306 20:0 
256 1:0.46 2:0.652 3:0.185 4:0.02 5:0.02 6:0.041 7:0.02 8:0.02 9:0 10:0.061 11:0.224 12:0.041 13:0.02 14:0.041 15:0.041 16:0 17:0.265 18:0.02 19:0.163 20:0 
-55.6493802219649 1:0.46 2:0.652 3:0.185 4:0 5:0.061 6:0.041 7:0 8:0 9:0.02 10:0.041 11:0.245 12:0.02 13:0.122 14:0.02 15:0 16:0.082 17:0.082 18:0.061 19:0.204 20:0 
256 1:0.46 2:0.652 3:0.185 4:0 5:0 6:0 7:0.102 8:0 9:0.041 10:0.02 11:0.224 12:0.02 13:0.122 14:0 15:0.02 16:0.082 17:0.143 18:0.122 19:0.102 20:0 
95.30376255602866 1:0.46 2:0.696 3:0.185 4:0 5:0 6:0.02 7:0.082 8:0 9:0.122 10:0.02 11:0.163 12:0 13:0.102 14:0 15:0.041 16:0.082 17:0.102 18:0.102 19:0.163 20:0 
-256 1:0.46 2:0.696 3:0.185 4:0.02 5:0 6:0 7:0.082 8:0 9:0.204 10:0 11:0.122 12:0.02 13:0.02 14:0 15:0.102 16:0.061 17:0.102 18:0.143 19:0.122 20:0 
256 1:0.46 2:0.696 3:0.185 4:0.02 5:0.02 6:0.02 7:0.041 8:0 9:0.041 10:0 11:0.286 12:0.02 13:0.02 14:0.02 15:0.061 16:0.061 17:0.224 18:0.102 19:0.061 20:0 
256 1:0.46 2:0.696 3:0.185 4:0.02 5:0.061 6:0.02 7:0 8:0.041 9:0.143 10:0.082 11:0.061 12:0 13:0.041 14:0.041 15:0.041 16:0.041 17:0.061 18:0 19:0.347 20:0 
256 1:0.46 2:0.739 3:0.185 4:0.02 5:0 6:0 7:0.082 8:0.041 9:0.163 10:0.041 11:0.082 12:0.02 13:0.02 14:0.02 15:0.061 16:0.02 17:0.143 18:0.061 19:0.224 20:0 
247.5675290984216 1:0.46 2:0.739 3:0.185 4:0 5:0.082 6:0.02 7:0 8:0 9:0.143 10:0.041 11:0.163 12:0 13:0.02 14:0.02 15:0.082 16:0.082 17:0.102 18:0.041 19:0.204 20:0 
-99.4616494557731 1:0.46 2:0.739 3:0.185 4:0 5:0.02 6:0.02 7:0.061 8:0 9:0.184 10:0.061 11:0.082 12:0 13:0.041 14:0 15:0.082 16:0.102 17:0.082 18:0.041 19:0.224 20:0 
-72.93887603011233 1:0.46 2:0.739 3:0.185 4:0.02 5:0.061 6:0.02 7:0 8:0.02 9:0.02 10:0.041 11:0.265 12:0.02 13:0 14:0.02 15:0.082 16:0.041 17:0.265 18:0.041 19:0.082 20:0 
-256 1:0.46 2:0.739 3:0.185 4:0.02 5:0 6:0 7:0.082 8:0 9:0.265 10:0.02 11:0.061 12:0 13:0 14:0 15:0.122 16:0.082 17:0.082 18:0.082 19:0.184 20:0 
8.140868224524645 1:0.46 2:0.783 3:0.185 4:0 5:0.041 6:0 7:0.061 8:0.041 9:0.102 10:0 11:0.224 12:0.02 13:0.02 14:0.02 15:0.041 16:0.041 17:0.204 18:0.082 19:0.102 20:0 
-256 1:0.46 2:0.783 3:0.185 4:0.02 5:0.061 6:0 7:0.02 8:0.02 9:0.041 10:0.02 11:0.286 12:0 13:0.061 14:0.02 15:0 16:0.061 17:0.184 18:0.061 19:0.143 20:0 
-149.2995038213174 1:0.46 2:0.783 3:0.185 4:0 5:0.041 6:0.02 7:0.041 8:0.082 9:0.143 10:0.061 11:0.082 12:0 13:0.061 14:0 15:0.02 16:0.02 17:0.122 18:0 19:0.306 20:0 
49.1030324873602 1:0.46 2:0.783 3:0.185 4:0 5:0.02 6:0.02 7:0.061 8:0 9:0.061 10:0.041 11:0.265 12:0 13:0.041 14:0.02 15:0.041 16:0.102 17:0.245 18:0.02 19:0.061 20:0 
-152.5419265123603 1:0.46 2:0.783 3:0.185 4:0 5:0 6:0.02 7:0.082 8:0.02 9:0.102 10:0.061 11:0.184 12:0 13:0 14:0 15:0.082 16:0.082 17:0.245 18:0.02 19:0.102 20:0 
-93.37686833826753 1:0.46 2:0.783 3:0.185 4:0.02 5:0.02 6:0.02 7:0.02 8:0.082 9:0.163 10:0.041 11:0.082 12:0 13:0 14:0 15:0.102 16:0 17:0.184 18:0.02 19:0.245 20:0 
72.95121522110303 1:0.46 2:0.783 3:0.185 4:0 5:0.061 6:0 7:0.041 8:0.061 9:0.082 10:0 11:0.224 12:0 13:0.082 14:0 15:0.02 16:0.041 17:0.122 18:0.102 19:0.163 20:0 
-55.79794525342329 1:0.46 2:0.783 3:0.185 4:0.02 5:0.041 6:0 7:0.02 8:0 9:0.265 10:0 11:0.102 12:0 13:0.02 14:0 15:0.082 16:0.082 17:0.041 18:0.082 19:0.245 20:0 
56.87872117861802 1:0.46 2:0.217 3:0.259 4:0 5:0 6:0.082 7:0.041 8:0 9:0.02 10:0.02 11:0.061 12:0.02 13:0.02 14:0.082 15:0.245 16:0.122 17:0.041 18:0.184 19:0.061 20:0 
135.8441830586531 1:0.46 2:0.217 3:0.259 4:0.02 5:0 6:0.061 7:0.061 8:0 9:0.02 10:0.061 11:0 12:0.102 13:0.061 14:0.163 15:0.041 16:0.02 17:0 18:0.082 19:0.306 20:0 
166.3339577570279 1:0.46 2:0.217 3:0.259 4:0.02 5:0 6:0.102 7:0.02 8:0 9:0 10:0 11:0.102 12:0.122 13:0 14:0.122 15:0.102 16:0 17:0.102 18:0.122 19:0.184 20:0 
-160.5316430480573 1:0.46 2:0.217 3:0.259 4:0 5:0.02 6:0.061 7:0.041 8:0 9:0 10:0.082 11:0.02 12:0.102 13:0.061 14:0 15:0.204 16:0.041 17:0.02 18:0.224 19:0.122 20:0 
-29.83012294202587 1:0.46 2:0.217 3:0.259 4:0.041 5:0 6:0.061 7:0.041 8:0 9:0 10:0 11:0.102 12:0.102 13:0.02 14:0.02 15:0.204 16:0 17:0.082 18:0.265 19:0.061 20:0 
20.91477576667716 1:0.46 2:0.217 3:0.259 4:0.02 5:0 6:0.061 7:0.061 8:0 9:0 10:0.02 11:0.082 12:0 13:0.041 14:0.265 15:0.061 16:0.122 17:0.061 18:0.02 19:0.184 20:0 
-2.556632054381698 1:0.46 2:0.261 3:0.259 4:0 5:0.02 6:0.041 7:0.082 8:0 9:0 10:0.082 11:0.041 12:0.102 13:0 14:0.02 15:0.204 16:0.041 17:0.102 18:0.184 19:0.082 20:0 
-133.2599027780038 1:0.46 2:0.261 3:0.259 4:0.02 5:0.02 6:0.061 7:0.041 8:0 9:0.02 10:0 11:0.102 12:0.102 13:0.041 14:0.122 15:0.061 16:0 17:0.041 18:0.163 19:0.204 20:0 
-102.2164425771512 1:0.46 2:0.261 3:0.259 4:0 5:0 6:0.061 7:0.082 8:0 9:0 10:0 11:0.122 12:0.041 13:0 14:0.224 15:0.082 16:0.102 17:0.122 18:0.061 19:0.102 20:0 
256 1:0.46 2:0.261 3:0.259 4:0 5:0 6:0.041 7:0.082 8:0.041 9:0 10:0.061 11:0.02 12:0 13:0.102 14:0.082 15:0.163 16:0.102 17:0.02 18:0.163 19:0.122 20:0 
-256 1:0.46 2:0.261 3:0.259 4:0.02 5:0.02 6:0.082 7:0.02 8:0.02 9:0 10:0.061 11:0.041 12:0.02 13:0.102 14:0 15:0.224 16:0.061 17:0 18:0.204 19:0.122 20:0 
-248.7403933149266 1:0.46 2:0.261 3:0.259 4:0.041 5:0 6:0.02 7:0.082 8:0.041 9:0 10:0.02 11:0.041 12:0.061 13:0.041 14:0.204 15:0.041 16:0 17:0.082 18:0.082 19:0.245 20:0 
-87.87956213445612 1:0.46 2:0.304 3:0.259 4:0 5:0.041 6:0 7:0.102 8:0.02 9:0 10:0.102 11:0.02 12:0.02 13:0.041 14:0.082 15:0.184 16:0.102 17:0.061 18:0.143 19:0.082 20:0 
-96.43394629349673 1:0.46 2:0.304 3:0.259 4:0.02 5:0.041 6:0.02 7:0.061 8:0 9:0.041 10:0.082 11:0.02 12:0.102 13:0 14:0.122 15:0.082 16:0.02 17:0.061 18:0.082 19:0.245 20:0 
222.5930156495315 1:0.46 2:0.304 3:0.259 4:0.041 5:0 6:0.02 7:0.061 8:0.041 9:0.02 10:0 11:0.082 12:0.02 13:0.061 14:0.02 15:0.224 16:0.041 17:0.061 18:0.265 19:0.041 20:0 
-256 1:0.46 2:0.304 3:0.259 4:0 5:0.02 6:0.082 7:0.041 8:0.041 9:0 10:0.102 11:0 12:0.02 13:0.102 14:0 15:0.204 16:0.082 17:0.02 18:0.122 19:0.163 20:0 
21.61775593191198 1:0.46 2:0.304 3:0.259 4:0.041 5:0.041 6:0 7:0.041 8:0.041 9:0.041 10:0.041 11:0.02 12:0.041 13:0 14:0.122 15:0.163 16:0 17:0.061 18:0.163 19:0.184 20:0 
134.8142532231145 1:0.46 2:0.304 3:0.259 4:0.02 5:0 6:0.102 7:0.02 8:0 9:0.02 10:0.02 11:0.102 12:0.102 13:0.041 14:0 15:0.163 16:0.02 17:0.082 18:0.204 19:0.102 20:0 
256 1:0.46 2:0.304 3:0.259 4:0.041 5:0.041 6:0.02 7:0.041 8:0.041 9:0.041 10:0.02 11:0.02 12:0.02 13:0.061 14:0.163 15:0.082 16:0.041 17:0 18:0.122 19:0.245 20:0 
-256 1:0.46 2:0.348 3:0.259 4:0.02 5:0.02 6:0.02 7:0.082 8:0.041 9:0.02 10:0 11:0.102 12:0.02 13:0.122 14:0.061 15:0.082 16:0.061 17:0 18:0.224 19:0.122 20:0 
-256 1:0.46 2:0.348 3:0.259 4:0.041 5:0.02 6:0.082 7:0 8:0.02 9:0.041 10:0.02 11:0.082 12:0 13:0.02 14:0.082 15:0.184 16:0.082 17:0.082 18:0.122 19:0.122 20:0 
179.6434863343769 1:0.46 2:0.348 3:0.259 4:0 5:0 6:0.082 7:0.061 8:0 9:0.02 10:0.082 11:0.041 12:0.102 13:0 14:0.102 15:0.102 16:0.041 17:0.122 18:0.041 19:0.204 20:0 
-9.618629117194519 1:0.46 2:0.348 3:0.259 4:0 5:0 6:0.061 7:0.082 8:0 9:0 10:0 11:0.163 12:0.061 13:0.102 14:0.02 15:0.102 16:0.082 17:0.041 18:0.224 19:0.061 20:0 
256 1:0.46 2:0.348 3:0.259 4:0.041 5:0.02 6:0 7:0.082 8:0.02 9:0 10:0.122 11:0.02 12:0 13:0.082 14:0.082 15:0.143 16:0.082 17:0.061 18:0.082 19:0.163 20:0 
256 1:0.46 2:0.348 3:0.259 4:0.041 5:0.02 6:0 7:0.082 8:0.041 9:0 10:0 11:0.122 12:0.02 13:0.02 14:0.143 15:0.102 16:0.041 17:0.122 18:0.143 19:0.102 20:0 
-256 1:0.46 2:0.348 3:0.259 4:0.041 5:0 6:0 7:0.102 8:0.041 9:0.061 10:0.041 11:0 12:0.02 13:0.041 14:0.122 15:0.122 16:0.041 17:0.061 18:0.122 19:0.184 20:0 
211.4998791074434 1:0.46 2:0.348 3:0.259 4:0.041 5:0.02 6:0.041 7:0.041 8:0.041 9:0.02 10:0.02 11:0.082 12:0 13:0 14:0.041 15:0.245 16:0.061 17:0.122 18:0.184 19:0.041 20:0 
-256 1:0.46 2:0.348 3:0.259 4:0 5:0 6:0 7:0.143 8:0 9:0.041 10:0 11:0.122 12:0.082 13:0.082 14:0.102 15:0.02 16:0.061 17:0.041 18:0.184 19:0.122 20:0 
146.2856070485016 1:0.46 2:0.348 3:0.259 4:0.02 5:0 6:0.102 7:0.02 8:0 9:0 10:0.02 11:0.143 12:0 13:0.041 14:0.122 15:0.122 16:0.122 17:0.122 18:0.041 19:0.122 20:0 
160.8918866882414 1:0.46 2:0.391 3:0.259 4:0 5:0.041 6:0.061 7:0.041 8:0 9:0.061 10:0.041 11:0.082 12:0.041 13:0.02 14:0.102 15:0.102 16:0.102 17:0.061 18:0.082 19:0.163 20:0 
256 1:0.46 2:0.391 3:0.259 4:0 5:0.041 6:0 7:0.102 8:0 9:0.02 10:0.041 11:0.122 12:0.061 13:0.02 14:0.122 15:0.061 16:0.082 17:0.102 18:0.102 19:0.122 20:0 
-256 1:0.46 2:0.391 3:0.259 4:0.041 5:0.061 6:0 7:0.041 8:0.041 9:0 10:0.041 11:0.102 12:0 13:0.041 14:0.163 15:0.082 16:0.061 17:0.061 18:0.082 19:0.184 20:0 
256 1:0.46 2:0.391 3:0.259 4:0.02 5:0 6:0.02 7:0.102 8:0.02 9:0.082 10:0 11:0.082 12:0.041 13:0.061 14:0.122 15:0.041 16:0.061 17:0.041 18:0.122 19:0.184 20:0 
-15.98274244820134 1:0.46 2:0.391 3:0.259 4:0.041 5:0 6:0 7:0.102 8:0.02 9:0.061 10:0.02 11:0.082 12:0.082 13:0.02 14:0.061 15:0.102 16:0 17:0.102 18:0.184 19:0.122 20:0 
-256 1:0.46 2:0.391 3:0.259 4:0 5:0.02 6:0.02 7:0.102 8:0.061 9:0 10:0.041 11:0.061 12:0.041 13:0.041 14:0.163 15:0.041 16:0.041 17:0.122 18:0.061 19:0.184 20:0 
-47.23237176049681 1:0.46 2:0.391 3:0.259 4:0 5:0.041 6:0.082 7:0.02 8:0 9:0 10:0 11:0.184 12:0.041 13:0.061 14:0.041 15:0.143 16:0.102 17:0.082 18:0.143 19:0.061 20:0 
-62.25920800567605 1:0.46 2:0.391 3:0.259 4:0.041 5:0.02 6:0.02 7:0.061 8:0.02 9:0 10:0 11:0.163 12:0.061 13:0.041 14:0.02 15:0.143 16:0.02 17:0.122 18:0.224 19:0.041 20:0 
64.30903019631172 1:0.46 2:0.391 3:0.259 4:0 5:0.041 6:0.02 7:0.082 8:0.041 9:0 10:0 11:0.143 12:0 13:0 14:0.122 15:0.143 16:0.102 17:0.143 18:0.122 19:0.041 20:0 
-28.16418063952241 1:0.46 2:0.391 3:0.259 4:0 5:0.041 6:0 7:0.102 8:0.061 9:0.082 10:0.041 11:0 12:0.041 13:0 14:0.102 15:0.122 16:0.02 17:0.061 18:0.143 19:0.184 20:0 
-193.7054965648144 1:0.46 2:0.391 3:0.259 4:0.041 5:0 6:0.041 7:0.061 8:0.041 9:0.082 10:0.02 11:0.02 12:0 13:0.082 14:0.041 15:0.163 16:0.061 17:0.02 18:0.163 19:0.163 20:0 
-96.7133165340672 1:0.46 2:0.391 3:0.259 4:0.02 5:0.061 6:0 7:0.061 8:0.02 9:0.082 10:0.02 11:0.061 12:0.061 13:0.041 14:0.082 15:0.082 16:0.041 17:0 18:0.184 19:0.184 20:0 
225.6969634213019 1:0.46 2:0.391 3:0.259 4:0.02 5:0.02 6:0.061 7:0.041 8:0 9:0.041 10:0.041 11:0.102 12:0.041 13:0.02 14:0.163 15:0.041 16:0.082 17:0.102 18:0.02 19:0.204 20:0 
-72.54305127497791 1:0.46 2:0.391 3:0.259 4:0.041 5:0.061 6:0.02 7:0 8:0 9:0.041 10:0.02 11:0.122 12:0 13:0.082 14:0.041 15:0.163 16:0.102 17:0 18:0.204 19:0.102 20:0 
-60.77103480456628 1:0.46 2:0.391 3:0.259 4:0.02 5:0 6:0 7:0.122 8:0.02 9:0.02 10:0.122 11:0 12:0.02 13:0.082 14:0.02 15:0.163 16:0.082 17:0.082 18:0.143 19:0.102 20:0 
-104.1762434156743 1:0.46 2:0.391 3:0.259 4:0.02 5:0 6:0 7:0.102 8:0.061 9:0.061 10:0 11:0.061 12:0.061 13:0 14:0.143 15:0.082 16:0 17:0.122 18:0.122 19:0.163 20:0 
-59.37297201040118 1:0.46 2:0.391 3:0.259 4:0 5:0 6:0 7:0.143 8:0 9:0.082 10:0 11:0.102 12:0.02 13:0.041 14:0.122 15:0.102 16:0.122 17:0.061 18:0.143 19:0.061 20:0 
256 1:0.46 2:0.435 3:0.259 4:0.02 5:0 6:0.061 7:0.061 8:0 9:0.061 10:0.041 11:0.102 12:0.061 13:0.02 14:0.082 15:0.082 16:0.061 17:0.122 18:0.082 19:0.143 20:0 
-256 1:0.46 2:0.435 3:0.259 4:0 5:0.02 6:0.082 7:0.041 8:0 9:0.102 10:0.041 11:0.061 12:0.02 13:0.061 14:0.082 15:0.082 16:0.122 17:0.02 18:0.061 19:0.204 20:0 
122.6508707820781 1:0.46 2:0.435 3:0.259 4:0.041 5:0.061 6:0 7:0.041 8:0.041 9:0.061 10:0.02 11:0.082 12:0.061 13:0 14:0.082 15:0.102 16:0 17:0.082 18:0.163 19:0.163 20:0 
256 1:0.46 2:0.435 3:0.259 4:0 5:0.061 6:0.061 7:0.02 8:0.061 9:0.02 10:0.02 11:0.082 12:0.02 13:0 14:0.122 15:0.122 16:0.061 17:0.122 18:0.041 19:0.184 20:0 
256 1:0.46 2:0.435 3:0.259 4:0 5:0 6:0.041 7:0.102 8:0 9:0.041 10:0.041 11:0.122 12:0.041 13:0.061 14:0.143 15:0 16:0.102 17:0.102 18:0.02 19:0.184 20:0 
-256 1:0.46 2:0.435 3:0.259 4:0.041 5:0.041 6:0.041 7:0.02 8:0 9:0.02 10:0 11:0.184 12:0.061 13:0 14:0.061 15:0.122 16:0.041 17:0.143 18:0.143 19:0.082 20:0 
-256 1:0.46 2:0.435 3:0.259 4:0 5:0 6:0.061 7:0.082 8:0 9:0.041 10:0.122 11:0.02 12:0.061 13:0.102 14:0 15:0.102 16:0.082 17:0.061 18:0.082 19:0.184 20:0 
62.17371039827304 1:0.46 2:0.435 3:0.259 4:0.041 5:0 6:0.041 7:0.041 8:0 9:0.02 10:0.041 11:0.143 12:0.082 13:0.061 14:0 15:0.122 16:0 17:0.122 18:0.184 19:0.102 20:0 
-256 1:0.46 2:0.435 3:0.259 4:0.02 5:0.041 6:0.061 7:0.02 8:0 9:0.041 10:0 11:0.143 12:0.061 13:0 14:0.163 15:0.041 16:0.061 17:0.122 18:0.02 19:0.204 20:0 
-256 1:0.46 2:0.435 3:0.259 4:0.02 5:0 6:0 7:0.122 8:0.041 9:0.02 10:0.082 11:0.061 12:0.082 13:0.041 14:0.102 15:0.02 16:0 17:0.143 18:0.061 19:0.204 20:0 
256 1:0.46 2:0.435 3:0.259 4:0 5:0 6:0.02 7:0.122 8:0.041 9:0.102 10:0.061 11:0 12:0 13:0.02 14:0.102 15:0.122 16:0.102 17:0.082 18:0.082 19:0.143 20:0 
18.80316429819015 1:0.46 2:0.435 3:0.259 4:0.041 5:0.041 6:0.061 7:0 8:0.02 9:0.02 10:0.02 11:0.143 12:0.061 13:0.041 14:0.061 15:0.082 16:0 17:0.102 18:0.122 19:0.184 20:0 
245.3841271920864 1:0.46 2:0.435 3:0.259 4:0.041 5:0 6:0.02 7:0.082 8:0.041 9:0.02 10:0.082 11:0.041 12:0.041 13:0.122 14:0.102 15:0 16:0.02 17:0.061 18:0.061 19:0.265 20:0 
-57.61503445899449 1:0.46 2:0.435 3:0.259 4:0.02 5:0 6:0.082 7:0.02 8:0 9:0 10:0.061 11:0.143 12:0 13:0.082 14:0.122 15:0.061 16:0.122 17:0.102 18:0 19:0.184 20:0 
256 1:0.46 2:0.522 3:0.259 4:0 5:0.061 6:0.061 7:0.02 8:0.061 9:0.061 10:0.02 11:0.102 12:0.061 13:0.02 14:0.041 15:0.082 16:0.02 17:0.102 18:0.102 19:0.184 20:0 
-256 1:0.46 2:0.522 3:0.259 4:0 5:0.02 6:0.02 7:0.102 8:0.082 9:0.041 10:0.061 11:0.061 12:0.02 13:0.061 14:0.061 15:0.082 16:0.041 17:0.122 18:0.061 19:0.163 20:0 
-256 1:0.46 2:0.522 3:0.259 4:0 5:0.061 6:0 7:0.082 8:0.02 9:0.041 10:0.02 11:0.163 12:0.061 13:0.02 14:0.082 15:0.041 16:0.061 17:0.122 18:0.122 19:0.102 20:0 
-256 1:0.46 2:0.522 3:0.259 4:0 5:0.02 6:0.02 7:0.102 8:0.02 9:0.02 10:0.02 11:0.184 12:0 13:0.041 14:0.122 15:0.041 16:0.102 17:0.163 18:0.061 19:0.082 20:0 
256 1:0.46 2:0.522 3:0.259 4:0 5:0 6:0.041 7:0.102 8:0.082 9:0.102 10:0.02 11:0.02 12:0 13:0.102 14:0.082 15:0.041 16:0.061 17:0.041 18:0.061 19:0.245 20:0 
256 1:0.46 2:0.522 3:0.259 4:0.041 5:0 6:0.041 7:0.061 8:0 9:0.082 10:0.02 11:0.143 12:0 13:0.102 14:0.102 15:0 16:0.082 17:0.061 18:0.061 19:0.204 20:0 
-256 1:0.46 2:0.522 3:0.259 4:0.041 5:0.02 6:0 7:0.082 8:0.061 9:0.102 10:0.061 11:0.02 12:0 13:0 14:0.061 15:0.143 16:0.041 17:0.102 18:0.102 19:0.163 20:0 
256 1:0.46 2:0.522 3:0.259 4:0.041 5:0.02 6:0 7:0.061 8:0.082 9:0.082 10:0.02 11:0.061 12:0 13:0.102 14:0 15:0.122 16:0.02 17:0.041 18:0.204 19:0.143 20:0 
256 1:0.46 2:0.522 3:0.259 4:0 5:0.041 6:0.061 7:0.041 8:0.02 9:0.143 10:0.02 11:0.061 12:0.041 13:0.02 14:0.082 15:0.061 16:0.082 17:0.02 18:0.061 19:0.245 20:0 
256 1:0.46 2:0.565 3:0.259 4:0 5:0.041 6:0.02 7:0.082 8:0.041 9:0.082 10:0.041 11:0.102 12:0 13:0.041 14:0.041 15:0.102 16:0.082 17:0.102 18:0.102 19:0.122 20:0 
-256 1:0.46 2:0.565 3:0.259 4:0.02 5:0 6:0.041 7:0.082 8:0.02 9:0.061 10:0 11:0.184 12:0.041 13:0.061 14:0.041 15:0.041 16:0.061 17:0.143 18:0.102 19:0.102 20:0 
256 1:0.46 2:0.565 3:0.259 4:0.041 5:0.02 6:0.061 7:0.02 8:0 9:0.122 10:0.041 11:0.082 12:0 13:0.082 14:0.02 15:0.102 16:0.102 17:0.041 18:0.082 19:0.184 20:0 
256 1:0.46 2:0.565 3:0.259 4:0 5:0.082 6:0.061 7:0 8:0.061 9:0.061 10:0.02 11:0.102 12:0 13:0.02 14:0.102 15:0.082 16:0.082 17:0.102 18:0.02 19:0.204 20:0 
-97.11928639137642 1:0.46 2:0.565 3:0.259 4:0.041 5:0.041 6:0.02 7:0.041 8:0.082 9:0.061 10:0.061 11:0.061 12:0 13:0.122 14:0.061 15:0.02 16:0.02 17:0.041 18:0.061 19:0.265 20:0 
-256 1:0.46 2:0.565 3:0.259 4:0.041 5:0.082 6:0 7:0.02 8:0 9:0.041 10:0.061 11:0.163 12:0.02 13:0.082 14:0.061 15:0.02 16:0.082 17:0.041 18:0.082 19:0.204 20:0 
-256 1:0.46 2:0.565 3:0.259 4:0 5:0 6:0 7:0.143 8:0.041 9:0.122 10:0 11:0.082 12:0.02 13:0.082 14:0.061 15:0.041 16:0.082 17:0.061 18:0.122 19:0.143 20:0 
-222.391764274903 1:0.46 2:0.565 3:0.259 4:0.041 5:0 6:0.02 7:0.082 8:0 9:0.102 10:0.02 11:0.143 12:0.02 13:0.02 14:0.02 15:0.122 16:0.061 17:0.143 18:0.143 19:0.061 20:0 
-256 1:0.46 2:0.565 3:0.259 4:0 5:0.082 6:0 7:0.061 8:0.061 9:0.082 10:0.061 11:0.061 12:0 13:0.082 14:0.02 15:0.102 16:0.082 17:0 18:0.122 19:0.184 20:0 
-256 1:0.46 2:0.565 3:0.259 4:0.041 5:0.02 6:0.061 7:0.02 8:0.082 9:0.122 10:0.02 11:0.041 12:0 13:0.041 14:0.061 15:0.082 16:0.02 17:0.082 18:0.041 19:0.265 20:0 
256 1:0.46 2:0.565 3:0.259 4:0 5:0 6:0 7:0.143 8:0.041 9:0.143 10:0 11:0.082 12:0.041 13:0.02 14:0.041 15:0.102 16:0.041 17:0.102 18:0.163 19:0.082 20:0 
-130.0763640254183 1:0.46 2:0.565 3:0.259 4:0.041 5:0 6:0 7:0.102 8:0.061 9:0.041 10:0.122 11:0.02 12:0.02 13:0.02 14:0.041 15:0.122 16:0.02 17:0.204 18:0.041 19:0.143 20:0 
-9.469528301732121 1:0.46 2:0.565 3:0.259 4:0 5:0 6:0 7:0.143 8:0.082 9:0.102 10:0.061 11:0.02 12:0.041 13:0.041 14:0.082 15:0.02 16:0.02 17:0.102 18:0.061 19:0.224 20:0 
256 1:0.46 2:0.565 3:0.259 4:0.02 5:0 6:0.061 7:0.061 8:0.082 9:0.061 10:0.041 11:0.061 12:0 13:0.102 14:0 15:0.102 16:0.041 17:0.102 18:0.102 19:0.163 20:0 
256 1:0.46 2:0.565 3:0.259 4:0.02 5:0 6:0.061 7:0.061 8:0.041 9:0.122 10:0.02 11:0.082 12:0 13:0.041 14:0.082 15:0.061 16:0.082 17:0.102 18:0.02 19:0.204 20:0 
256 1:0.46 2:0.565 3:0.259 4:0 5:0.061 6:0.02 7:0.061 8:0 9:0.082 10:0.02 11:0.143 12:0 13:0.122 14:0.02 15:0.061 16:0.143 17:0 18:0.122 19:0.143 20:0 
-256 1:0.46 2:0.565 3:0.259 4:0 5:0 6:0.061 7:0.082 8:0.041 9:0.082 10:0.02 11:0.122 12:0.061 13:0 14:0.082 15:0.041 16:0.041 17:0.184 18:0.041 19:0.143 20:0 
-256 1:0.46 2:0.609 3:0.259 4:0.02 5:0.02 6:0.02 7:0.082 8:0.02 9:0.102 10:0.061 11:0.102 12:0.02 13:0.041 14:0.061 15:0.041 16:0.082 17:0.102 18:0.041 19:0.184 20:0 
-256 1:0.46 2:0.609 3:0.259 4:0.02 5:0.02 6:0.02 7:0.082 8:0.041 9:0.082 10:0.082 11:0.082 12:0.061 13:0 14:0.02 15:0.082 16:0.02 17:0.163 18:0.061 19:0.163 20:0 
-65.28946196112976 1:0.46 2:0.609 3:0.259 4:0 5:0.041 6:0.041 7:0.041 8:0.082 9:0.02 10:0.061 11:0.122 12:0.02 13:0.061 14:0.02 15:0.082 16:0.041 17:0.163 18:0.041 19:0.163 20:0 
-206.3156524694514 1:0.46 2:0.609 3:0.259 4:0.041 5:0 6:0.041 7:0.041 8:0.041 9:0.041 10:0.02 11:0.184 12:0.061 13:0 14:0.082 15:0.041 16:0 17:0.224 18:0.041 19:0.143 20:0 
-171.8803878991432 1:0.46 2:0.609 3:0.259 4:0.041 5:0.041 6:0.041 7:0.02 8:0.02 9:0.082 10:0.102 11:0.061 12:0 13:0.041 14:0.02 15:0.122 16:0.082 17:0.122 18:0 19:0.204 20:0 
-2.068570812259172 1:0.46 2:0.609 3:0.259 4:0 5:0.061 6:0 7:0.082 8:0 9:0.122 10:0.082 11:0.082 12:0 13:0.082 14:0.02 15:0.082 16:0.143 17:0.02 18:0.082 19:0.143 20:0 
208.8428216909129 1:0.46 2:0.609 3:0.259 4:0 5:0.041 6:0 7:0.102 8:0.061 9:0.02 10:0.041 11:0.163 12:0.061 13:0.061 14:0.041 15:0.02 16:0 17:0.163 18:0.102 19:0.122 20:0 
10.71311296840746 1:0.46 2:0.609 3:0.259 4:0 5:0 6:0.02 7:0.122 8:0 9:0.02 10:0.122 11:0.122 12:0.041 13:0.102 14:0.041 15:0 16:0.102 17:0.143 18:0 19:0.163 20:0 
256 1:0.46 2:0.609 3:0.259 4:0.041 5:0 6:0 7:0.102 8:0.02 9:0.122 10:0 11:0.143 12:0.02 13:0.061 14:0.061 15:0.02 16:0.061 17:0.102 18:0.122 19:0.122 20:0 
-121.5664965171092 1:0.46 2:0.609 3:0.259 4:0.02 5:0 6:0.02 7:0.102 8:0.02 9:0.041 10:0.122 11:0.102 12:0.061 13:0 14:0.02 15:0.102 16:0.041 17:0.245 18:0.02 19:0.082 20:0 
256 1:0.46 2:0.609 3:0.259 4:0 5:0 6:0.041 7:0.102 8:0.02 9:0.143 10:0.082 11:0.02 12:0.041 13:0.061 14:0 15:0.082 16:0.082 17:0.082 18:0.061 19:0.184 20:0 
256 1:0.46 2:0.609 3:0.259 4:0.041 5:0.041 6:0.041 7:0.02 8:0.02 9:0.184 10:0.041 11:0.02 12:0 13:0 14:0.02 15:0.163 16:0.082 17:0.061 18:0.082 19:0.184 20:0 
-7.36100126529996 1:0.46 2:0.609 3:0.259 4:0.02 5:0.082 6:0.041 7:0 8:0.02 9:0.041 10:0.061 11:0.163 12:0 13:0 14:0.041 15:0.122 16:0.102 17:0.163 18:0.02 19:0.122 20:0 
256 1:0.46 2:0.609 3:0.259 4:0 5:0.02 6:0 7:0.122 8:0.02 9:0.061 10:0.041 11:0.163 12:0 13:0.102 14:0.041 15:0.02 16:0.122 17:0.102 18:0.082 19:0.102 20:0 
-256 1:0.46 2:0.609 3:0.259 4:0.041 5:0.082 6:0.02 7:0 8:0.02 9:0.061 10:0.122 11:0.061 12:0.061 13:0.041 14:0 15:0.082 16:0 17:0.102 18:0.041 19:0.265 20:0 
256 1:0.46 2:0.609 3:0.259 4:0.041 5:0.061 6:0.02 7:0.02 8:0 9:0.082 10:0 11:0.204 12:0.041 13:0.02 14:0.082 15:0.02 16:0.041 17:0.122 18:0.082 19:0.163 20:0 
256 1:0.46 2:0.609 3:0.259 4:0.02 5:0 6:0 7:0.122 8:0.02 9:0.122 10:0 11:0.143 12:0.02 13:0.082 14:0 15:0.082 16:0.082 17:0.082 18:0.184 19:0.041 20:0 
-256 1:0.46 2:0.609 3:0.259 4:0 5:0.082 6:0.041 7:0.02 8:0 9:0 10:0.02 11:0.265 12:0 13:0.122 14:0 15:0.061 16:0.143 17:0.061 18:0.122 19:0.061 20:0 
-145.3956561947763 1:0.46 2:0.609 3:0.259 4:0 5:0.02 6:0.061 7:0.061 8:0 9:0.143 10:0.061 11:0.082 12:0 13:0.122 14:0.02 15:0.02 16:0.143 17:0 18:0.041 19:0.224 20:0 
-177.7443296546588 1:0.46 2:0.652 3:0.259 4:0.02 5:0.02 6:0 7:0.102 8:0.102 9:0.041 10:0.02 11:0.122 12:0 13:0.102 14:0 15:0.061 16:0.02 17:0.143 18:0.122 19:0.122 20:0 
256 1:0.46 2:0.652 3:0.259 4:0.02 5:0.061 6:0.041 7:0.02 8:0.041 9:0.163 10:0.041 11:0.061 12:0 13:0.02 14:0.041 15:0.102 16:0.082 17:0.061 18:0.041 19:0.204 20:0 
-254.3677659046512 1:0.46 2:0.652 3:0.259 4:0 5:0.041 6:0.02 7:0.082 8:0 9:0.122 10:0.082 11:0.082 12:0 13:0.061 14:0 15:0.102 16:0.122 17:0.082 18:0.061 19:0.143 20:0 
183.8190304870305 1:0.46 2:0.652 3:0.259 4:0 5:0.061 6:0.041 7:0.041 8:0 9:0.122 10:0 11:0.184 12:0.041 13:0 14:0 15:0.122 16:0.102 17:0.102 18:0.122 19:0.061 20:0 
256 1:0.46 2:0.652 3:0.259 4:0 5:0.02 6:0 7:0.122 8:0.102 9:0.082 10:0.02 11:0.102 12:0.02 13:0 14:0.061 15:0.082 16:0.02 17:0.204 18:0.061 19:0.102 20:0 
-109.4919414393519 1:0.46 2:0.652 3:0.259 4:0 5:0.102 6:0 7:0.041 8:0.082 9:0 10:0.041 11:0.184 12:0.02 13:0.102 14:0 15:0.02 16:0.041 17:0.082 18:0.122 19:0.163 20:0 
-256 1:0.46 2:0.652 3:0.259 4:0.02 5:0.102 6:0.02 7:0 8:0.102 9:0.061 10:0 11:0.143 12:0.02 13:0.02 14:0 15:0.122 16:0 17:0.102 18:0.143 19:0.143 20:0 
-26.76266311849778 1:0.46 2:0.652 3:0.259 4:0 5:0 6:0.041 7:0.102 8:0.041 9:0.204 10:0.041 11:0 12:0.02 13:0.041 14:0 15:0.102 16:0.061 17:0.061 18:0.082 19:0.204 20:0 
256 1:0.46 2:0.652 3:0.259 4:0 5:0.102 6:0 7:0.041 8:0.02 9:0.143 10:0.061 11:0.082 12:0 13:0 14:0 15:0.163 16:0.102 17:0.061 18:0.102 19:0.122 20:0 
110.7895093735376 1:0.46 2:0.652 3:0.259 4:0 5:0.02 6:0 7:0.102 8:0.102 9:0.163 10:0.02 11:0.02 12:0 13:0.082 14:0 15:0.082 16:0.041 17:0.02 18:0.143 19:0.204 20:0 
-125.6076173051991 1:0.46 2:0.652 3:0.259 4:0.041 5:0.041 6:0.041 7:0.02 8:0 9:0.102 10:0.061 11:0.122 12:0.041 13:0.041 14:0.061 15:0.02 16:0.041 17:0.122 18:0 19:0.245 20:0 
256 1:0.46 2:0.696 3:0.259 4:0 5:0.061 6:0 7:0.082 8:0.061 9:0.061 10:0.041 11:0.163 12:0 13:0.061 14:0.041 15:0.02 16:0.082 17:0.143 18:0.061 19:0.122 20:0 
256 1:0.46 2:0.696 3:0.259 4:0.02 5:0 6:0.041 7:0.082 8:0.02 9:0.061 10:0.082 11:0.163 12:0.041 13:0.02 14:0.02 15:0.041 16:0.061 17:0.224 18:0 19:0.122 20:0 
-256 1:0.46 2:0.696 3:0.259 4:0.041 5:0.082 6:0.02 7:0 8:0.061 9:0.061 10:0.041 11:0.143 12:0 13:0.102 14:0.02 15:0.02 16:0.041 17:0.061 18:0.061 19:0.245 20:0 
256 1:0.46 2:0.696 3:0.259 4:0 5:0.041 6:0.041 7:0.061 8:0.102 9:0.163 10:0.041 11:0.02 12:0 13:0.082 14:0.02 15:0.02 16:0.041 17:0.041 18:0.041 19:0.286 20:0 
-104.2445682543391 1:0.46 2:0.696 3:0.259 4:0.041 5:0.02 6:0 7:0.082 8:0 9:0.041 10:0.041 11:0.245 12:0.041 13:0.041 14:0.041 15:0 16:0.061 17:0.224 18:0.041 19:0.082 20:0 
256 1:0.46 2:0.696 3:0.259 4:0.02 5:0 6:0 7:0.122 8:0.102 9:0.143 10:0 11:0.082 12:0 13:0.041 14:0 15:0.102 16:0.02 17:0.122 18:0.143 19:0.102 20:0 
-163.5557003104863 1:0.46 2:0.696 3:0.259 4:0 5:0.061 6:0.02 7:0.061 8:0.102 9:0.041 10:0.02 11:0.143 12:0 13:0 14:0 15:0.143 16:0.041 17:0.224 18:0.102 19:0.041 20:0 
256 1:0.46 2:0.696 3:0.259 4:0.041 5:0 6:0.02 7:0.061 8:0 9:0.224 10:0 11:0.102 12:0.041 13:0.02 14:0.041 15:0.041 16:0.041 17:0.082 18:0.082 19:0.204 20:0 
-2.416025145530674 1:0.46 2:0.696 3:0.259 4:0.02 5:0.02 6:0.02 7:0.082 8:0 9:0.245 10:0.041 11:0.041 12:0 13:0.041 14:0 15:0.082 16:0.122 17:0.02 18:0.061 19:0.204 20:0 
239.976545017325 1:0.46 2:0.696 3:0.259 4:0 5:0.102 6:0.041 7:0 8:0.02 9:0.02 10:0 11:0.286 12:0 13:0.102 14:0.041 15:0 16:0.102 17:0.102 18:0.061 19:0.122 20:0 
256 1:0.46 2:0.739 3:0.259 4:0.041 5:0.082 6:0 7:0.02 8:0.02 9:0.102 10:0.061 11:0.143 12:0.041 13:0.061 14:0.02 15:0 16:0.041 17:0.102 18:0.041 19:0.224 20:0 
256 1:0.46 2:0.739 3:0.259 4:0.02 5:0 6:0 7:0.122 8:0.061 9:0.184 10:0.02 11:0.082 12:0 13:0 14:0.02 15:0.102 16:0.061 17:0.143 18:0.082 19:0.102 20:0 
194.6450548936322 1:0.46 2:0.739 3:0.259 4:0.02 5:0.082 6:0 7:0.041 8:0.082 9:0.02 10:0.02 11:0.224 12:0.02 13:0.082 14:0 15:0.02 16:0.02 17:0.163 18:0.082 19:0.122 20:0 
-42.37740694602952 1:0.46 2:0.739 3:0.259 4:0.041 5:0 6:0 7:0.102 8:0.082 9:0.143 10:0.102 11:0 12:0 13:0.061 14:0.02 15:0.041 16:0.02 17:0.143 18:0 19:0.245 20:0 
238.3760978073327 1:0.46 2:0.739 3:0.259 4:0 5:0.102 6:0.041 7:0 8:0.102 9:0.122 10:0 11:0.122 12:0 13:0.061 14:0 15:0.061 16:0.041 17:0.041 18:0.082 19:0.224 20:0 
256 1:0.46 2:0.739 3:0.259 4:0.041 5:0.082 6:0.02 7:0 8:0.061 9:0.02 10:0.061 11:0.184 12:0 13:0.102 14:0.02 15:0 16:0.041 17:0.143 18:0.02 19:0.204 20:0 
-116.5435359814875 1:0.46 2:0.739 3:0.259 4:0.041 5:0.082 6:0.02 7:0 8:0 9:0.143 10:0.102 11:0.102 12:0.041 13:0 14:0 15:0.061 16:0.061 17:0.102 18:0 19:0.245 20:0 
-256 1:0.46 2:0.739 3:0.259 4:0.02 5:0.102 6:0.02 7:0 8:0.02 9:0.061 10:0 11:0.265 12:0.041 13:0 14:0.02 15:0.061 16:0.061 17:0.184 18:0.082 19:0.061 20:0 
256 1:0.46 2:0.739 3:0.259 4:0 5:0 6:0 7:0.143 8:0.041 9:0.184 10:0.102 11:0.02 12:0.02 13:0 14:0 15:0.102 16:0.061 17:0.163 18:0.02 19:0.143 20:0 
-210.8666097661224 1:0.46 2:0.739 3:0.259 4:0.041 5:0.102 6:0 7:0 8:0 9:0.184 10:0.041 11:0.122 12:0.02 13:0.041 14:0.02 15:0.02 16:0.061 17:0.02 18:0.061 19:0.265 20:0 
-59.73848116800092 1:0.46 2:0.783 3:0.259 4:0.041 5:0.102 6:0 7:0 8:0.041 9:0.184 10:0.041 11:0.082 12:0 13:0.041 14:0 15:0.061 16:0.061 17:0.041 18:0.061 19:0.245 20:0 
-160.1355845036138 1:0.46 2:0.783 3:0.259 4:0.041 5:0.02 6:0.02 7:0.061 8:0.041 9:0.122 10:0 11:0.204 12:0.02 13:0 14:0.02 15:0.041 16:0.041 17:0.224 18:0.061 19:0.082 20:0 
126.9086173816809 1:0.46 2:0.783 3:0.259 4:0 5:0.02 6:0 7:0.122 8:0.041 9:0.082 10:0.061 11:0.163 12:0 13:0.02 14:0.02 15:0.061 16:0.102 17:0.245 18:0.02 19:0.041 20:0 
-64.03656588576749 1:0.46 2:0.783 3:0.259 4:0 5:0.102 6:0.02 7:0.02 8:0.122 9:0.082 10:0 11:0.163 12:0 13:0.082 14:0.02 15:0 16:0.02 17:0.082 18:0.061 19:0.224 20:0 
-256 1:0.46 2:0.783 3:0.259 4:0 5:0 6:0 7:0.143 8:0.082 9:0.163 10:0.082 11:0.041 12:0 13:0 14:0 15:0.102 16:0.061 17:0.204 18:0 19:0.122 20:0 
28.09667009701817 1:0.46 2:0.783 3:0.259 4:0 5:0.061 6:0 7:0.082 8:0.122 9:0.204 10:0 11:0.041 12:0 13:0.02 14:0 15:0.082 16:0.02 17:0.061 18:0.102 19:0.204 20:0 
-86.02115192847195 1:0.46 2:0.217 3:0.296 4:0.061 5:0 6:0.102 7:0 8:0.041 9:0 10:0.02 11:0.02 12:0 13:0.02 14:0.143 15:0.204 16:0.061 17:0.082 18:0.102 19:0.143 20:0 
256 1:0.46 2:0.217 3:0.296 4:0.02 5:0 6:0.041 7:0.102 8:0 9:0.02 10:0 11:0.082 12:0.122 13:0 14:0.061 15:0.163 16:0.02 17:0.082 18:0.265 19:0.02 20:0 
-48.90905356613078 1:0.46 2:0.217 3:0.296 4:0.061 5:0.041 6:0.041 7:0.02 8:0 9:0 10:0.02 11:0.082 12:0.041 13:0 14:0.265 15:0.061 16:0.061 17:0.061 18:0.041 19:0.204 20:0 
72.77192454526812 1:0.46 2:0.261 3:0.296 4:0.041 5:0 6:0.041 7:0.082 8:0 9:0.02 10:0.061 11:0.02 12:0.02 13:0.041 14:0.163 15:0.122 16:0.102 17:0.061 18:0.082 19:0.143 20:0 
-119.6523889308004 1:0.46 2:0.261 3:0.296 4:0 5:0.02 6:0.061 7:0.082 8:0 9:0.02 10:0 11:0.102 12:0.082 13:0.061 14:0.102 15:0.082 16:0.082 17:0.02 18:0.163 19:0.122 20:0 
-105.7971554194205 1:0.46 2:0.261 3:0.296 4:0.02 5:0.041 6:0.082 7:0.02 8:0 9:0.02 10:0.061 11:0.041 12:0 13:0.02 14:0.143 15:0.184 16:0.143 17:0.041 18:0.041 19:0.143 20:0 
-135.6956578947225 1:0.46 2:0.261 3:0.296 4:0.02 5:0.02 6:0.061 7:0.061 8:0.041 9:0.02 10:0.02 11:0.02 12:0.102 13:0.082 14:0.122 15:0.041 16:0 17:0 18:0.143 19:0.245 20:0 
-110.7116383992744 1:0.46 2:0.261 3:0.296 4:0.02 5:0 6:0.02 7:0.122 8:0 9:0.02 10:0.082 11:0.02 12:0 13:0.102 14:0.041 15:0.204 16:0.143 17:0 18:0.204 19:0.02 20:0 
128.9470247968547 1:0.46 2:0.304 3:0.296 4:0.041 5:0.041 6:0.061 7:0.02 8:0 9:0.041 10:0.041 11:0.061 12:0.082 13:0.041 14:0.061 15:0.122 16:0.041 17:0.02 18:0.143 19:0.184 20:0 
256 1:0.46 2:0.304 3:0.296 4:0 5:0 6:0.122 7:0.041 8:0.02 9:0 10:0.02 11:0.102 12:0.102 13:0.02 14:0.122 15:0.082 16:0.041 17:0.122 18:0.061 19:0.143 20:0 
-43.50035385263389 1:0.46 2:0.304 3:0.296 4:0 5:0.02 6:0.082 7:0.061 8:0.02 9:0.02 10:0.041 11:0.061 12:0.102 13:0 14:0.061 15:0.143 16:0.041 17:0.102 18:0.143 19:0.102 20:0 
-62.60702254630652 1:0.46 2:0.304 3:0.296 4:0.041 5:0.041 6:0.02 7:0.061 8:0.02 9:0 10:0 11:0.122 12:0.102 13:0 14:0.122 15:0.082 16:0 17:0.102 18:0.184 19:0.102 20:0 
-256 1:0.46 2:0.304 3:0.296 4:0.02 5:0.041 6:0.102 7:0 8:0 9:0.041 10:0.02 11:0.082 12:0.061 13:0.02 14:0.122 15:0.102 16:0.082 17:0.041 18:0.061 19:0.204 20:0 
35.64309898648247 1:0.46 2:0.304 3:0.296 4:0 5:0 6:0.102 7:0.061 8:0.02 9:0.02 10:0.082 11:0.02 12:0.102 13:0.061 14:0.102 15:0.041 16:0.041 17:0.061 18:0.02 19:0.265 20:0 
256 1:0.46 2:0.304 3:0.296 4:0.02 5:0 6:0.061 7:0.082 8:0 9:0.041 10:0.02 11:0.082 12:0.102 13:0.102 14:0.061 15:0.041 16:0.041 17:0 18:0.163 19:0.184 20:0 
-159.5449748772 1:0.46 2:0.304 3:0.296 4:0.041 5:0.02 6:0 7:0.102 8:0.041 9:0.02 10:0.041 11:0.041 12:0 13:0.102 14:0.061 15:0.143 16:0.082 17:0 18:0.224 19:0.082 20:0 
-26.69424600081195 1:0.46 2:0.304 3:0.296 4:0 5:0 6:0.02 7:0.143 8:0.041 9:0 10:0 11:0.102 12:0.082 13:0.102 14:0.061 15:0.061 16:0.041 17:0.041 18:0.245 19:0.061 20:0 
-67.80458813623594 1:0.46 2:0.304 3:0.296 4:0.02 5:0 6:0.02 7:0.122 8:0.041 9:0.041 10:0.061 11:0 12:0.102 13:0.02 14:0.143 15:0.041 16:0 17:0.082 18:0.082 19:0.224 20:0 
256 1:0.46 2:0.304 3:0.296 4:0.02 5:0.02 6:0.02 7:0.102 8:0.041 9:0.041 10:0 11:0.041 12:0.02 13:0.02 14:0.245 15:0.041 16:0.082 17:0.061 18:0.061 19:0.184 20:0 
91.402761253641 1:0.46 2:0.304 3:0.296 4:0.061 5:0.02 6:0 7:0.061 8:0 9:0 10:0.061 11:0.082 12:0.061 13:0 14:0.082 15:0.184 16:0.041 17:0.122 18:0.184 19:0.041 20:0 
175.8434642467704 1:0.46 2:0.304 3:0.296 4:0.02 5:0.041 6:0.02 7:0.082 8:0.02 9:0 10:0 11:0.122 12:0.102 13:0.02 14:0.184 15:0 16:0 17:0.082 18:0.122 19:0.184 20:0 
256 1:0.46 2:0.348 3:0.296 4:0.041 5:0.02 6:0.061 7:0.041 8:0.061 9:0.041 10:0.02 11:0.041 12:0.041 13:0 14:0.143 15:0.102 16:0.02 17:0.102 18:0.061 19:0.204 20:0 
-256 1:0.46 2:0.348 3:0.296 4:0.02 5:0.02 6:0.082 7:0.041 8:0 9:0.02 10:0.102 11:0.041 12:0.102 13:0 14:0.082 15:0.102 16:0.041 17:0.122 18:0.041 19:0.184 20:0 
256 1:0.46 2:0.348 3:0.296 4:0.061 5:0.02 6:0.02 7:0.061 8:0.02 9:0.061 10:0 11:0.082 12:0.041 13:0.061 14:0.082 15:0.102 16:0.02 17:0.02 18:0.204 19:0.143 20:0 
-256 1:0.46 2:0.348 3:0.296 4:0.02 5:0 6:0.082 7:0.061 8:0.041 9:0.061 10:0.041 11:0.02 12:0 13:0.102 14:0.122 15:0.061 16:0.102 17:0 18:0.061 19:0.224 20:0 
-96.41873986306847 1:0.46 2:0.348 3:0.296 4:0.061 5:0.02 6:0.02 7:0.061 8:0.02 9:0 10:0.061 11:0.061 12:0 13:0.02 14:0.184 15:0.102 16:0.082 17:0.122 18:0.02 19:0.163 20:0 
173.848080666201 1:0.46 2:0.348 3:0.296 4:0.041 5:0 6:0 7:0.102 8:0.061 9:0 10:0.082 11:0.02 12:0.061 13:0.061 14:0.061 15:0.122 16:0 17:0.102 18:0.163 19:0.122 20:0 
-256 1:0.46 2:0.348 3:0.296 4:0.02 5:0.041 6:0.102 7:0 8:0 9:0.041 10:0 11:0.122 12:0.102 13:0 14:0.082 15:0.102 16:0.041 17:0.082 18:0.122 19:0.143 20:0 
-96.08103297352298 1:0.46 2:0.348 3:0.296 4:0.02 5:0.041 6:0.102 7:0 8:0.041 9:0.041 10:0 11:0.082 12:0.082 13:0 14:0.02 15:0.204 16:0.02 17:0.082 18:0.163 19:0.102 20:0 
-256 1:0.46 2:0.348 3:0.296 4:0.02 5:0 6:0 7:0.143 8:0 9:0.061 10:0.02 11:0.082 12:0.102 13:0.082 14:0.102 15:0 16:0.041 17:0.02 18:0.163 19:0.163 20:0 
256 1:0.46 2:0.348 3:0.296 4:0 5:0.02 6:0.041 7:0.102 8:0.061 9:0 10:0 11:0.102 12:0.061 13:0.02 14:0.184 15:0.02 16:0.041 17:0.122 18:0.061 19:0.163 20:0 
-171.5600120342738 1:0.46 2:0.348 3:0.296 4:0.02 5:0.02 6:0.02 7:0.102 8:0 9:0.061 10:0 11:0.082 12:0.02 13:0 14:0.184 15:0.102 16:0.122 17:0.082 18:0.102 19:0.082 20:0 
-75.0721172855079 1:0.46 2:0.348 3:0.296 4:0.061 5:0.02 6:0.02 7:0.061 8:0.041 9:0.02 10:0.082 11:0 12:0.02 13:0.102 14:0.163 15:0.02 16:0.041 17:0.02 18:0.041 19:0.286 20:0 
-256 1:0.46 2:0.391 3:0.296 4:0 5:0.041 6:0.041 7:0.082 8:0.041 9:0.02 10:0.061 11:0.061 12:0.02 13:0.061 14:0.102 15:0.102 16:0.082 17:0.061 18:0.082 19:0.143 20:0 
-256 1:0.46 2:0.391 3:0.296 4:0.061 5:0 6:0.041 7:0.041 8:0.02 9:0.02 10:0 11:0.143 12:0.02 13:0.061 14:0.061 15:0.143 16:0.061 17:0.102 18:0.184 19:0.041 20:0 
256 1:0.46 2:0.391 3:0.296 4:0.041 5:0.061 6:0.041 7:0.02 8:0.061 9:0.041 10:0.041 11:0.02 12:0 13:0.041 14:0.143 15:0.102 16:0.061 17:0.041 18:0.041 19:0.245 20:0 
256 1:0.46 2:0.391 3:0.296 4:0.02 5:0 6:0.102 7:0.041 8:0.061 9:0.02 10:0.061 11:0.041 12:0.02 13:0.082 14:0.082 15:0.082 16:0.041 17:0.082 18:0.041 19:0.224 20:0 
-27.62387482969068 1:0.46 2:0.391 3:0.296 4:0 5:0.041 6:0 7:0.122 8:0.061 9:0 10:0.041 11:0.082 12:0.041 13:0.061 14:0.163 15:0 16:0.061 17:0.082 18:0.082 19:0.163 20:0 
256 1:0.46 2:0.391 3:0.296 4:0 5:0.061 6:0.102 7:0 8:0 9:0.041 10:0.02 11:0.122 12:0.102 13:0.061 14:0.041 15:0.061 16:0.061 17:0.02 18:0.102 19:0.204 20:0 
180.521269960719 1:0.46 2:0.391 3:0.296 4:0 5:0.041 6:0 7:0.122 8:0.02 9:0 10:0 11:0.163 12:0.082 13:0.02 14:0.163 15:0 16:0.041 17:0.122 18:0.122 19:0.102 20:0 
-256 1:0.46 2:0.391 3:0.296 4:0.061 5:0.061 6:0.02 7:0.02 8:0.061 9:0.02 10:0.061 11:0.041 12:0.041 13:0.02 14:0.082 15:0.122 16:0 17:0.082 18:0.122 19:0.184 20:0 
122.2216096593851 1:0.46 2:0.391 3:0.296 4:0.02 5:0 6:0 7:0.143 8:0.041 9:0.02 10:0.082 11:0.02 12:0 13:0.122 14:0.102 15:0.061 16:0.102 17:0.041 18:0.082 19:0.163 20:0 
256 1:0.46 2:0.391 3:0.296 4:0 5:0.041 6:0 7:0.122 8:0.02 9:0 10:0.041 11:0.122 12:0.102 13:0.061 14:0.041 15:0.061 16:0.02 17:0.082 18:0.204 19:0.082 20:0 
114.7322890602686 1:0.46 2:0.391 3:0.296 4:0.041 5:0.061 6:0 7:0.061 8:0 9:0.02 10:0.061 11:0.102 12:0.061 13:0.102 14:0 15:0.102 16:0.061 17:0 18:0.224 19:0.102 20:0 
256 1:0.46 2:0.391 3:0.296 4:0.041 5:0.041 6:0.082 7:0 8:0.061 9:0 10:0.122 11:0 12:0 13:0.02 14:0.082 15:0.163 16:0.061 17:0.122 18:0 19:0.204 20:0 
256 1:0.46 2:0.435 3:0.296 4:0.02 5:0.082 6:0 7:0.061 8:0.02 9:0.041 10:0.02 11:0.122 12:0.02 13:0.061 14:0.163 15:0.02 16:0.102 17:0 18:0.082 19:0.184 20:0 
195.2391778177122 1:0.46 2:0.435 3:0.296 4:0.041 5:0.041 6:0 7:0.061 8:0.061 9:0.02 10:0.041 11:0.082 12:0.041 13:0.041 14:0 15:0.184 16:0.02 17:0.102 18:0.204 19:0.061 20:0 
-146.696948401173 1:0.46 2:0.435 3:0.296 4:0.061 5:0 6:0 7:0.102 8:0.041 9:0.041 10:0.041 11:0.082 12:0 13:0.102 14:0.041 15:0.102 16:0.061 17:0.061 18:0.184 19:0.082 20:0 
256 1:0.46 2:0.435 3:0.296 4:0.041 5:0 6:0.02 7:0.102 8:0.041 9:0.02 10:0.041 11:0.102 12:0.041 13:0.02 14:0.143 15:0.041 16:0.041 17:0.163 18:0.041 19:0.143 20:0 
56.33677977968548 1:0.46 2:0.435 3:0.296 4:0.041 5:0.041 6:0.041 7:0.041 8:0.041 9:0.102 10:0.02 11:0.041 12:0.082 13:0.061 14:0.061 15:0.061 16:0 17:0 18:0.122 19:0.245 20:0 
-129.5785674876559 1:0.46 2:0.435 3:0.296 4:0 5:0.082 6:0.061 7:0.02 8:0.082 9:0.061 10:0 11:0.041 12:0.02 13:0 14:0.122 15:0.122 16:0.041 17:0.061 18:0.082 19:0.204 20:0 
-256 1:0.46 2:0.435 3:0.296 4:0.02 5:0.082 6:0.02 7:0.041 8:0 9:0.02 10:0.061 11:0.122 12:0.082 13:0.082 14:0.082 15:0.02 16:0.041 17:0.02 18:0.102 19:0.204 20:0 
-256 1:0.46 2:0.435 3:0.296 4:0 5:0.041 6:0.102 7:0.02 8:0.041 9:0.061 10:0 11:0.102 12:0.102 13:0 14:0.082 15:0.082 16:0 17:0.102 18:0.082 19:0.184 20:0 
205.2677995310224 1:0.46 2:0.435 3:0.296 4:0.041 5:0 6:0.061 7:0.061 8:0.02 9:0.082 10:0.02 11:0.061 12:0 13:0.02 14:0.163 15:0.082 16:0.102 17:0.102 18:0 19:0.184 20:0 
-45.78961111183467 1:0.46 2:0.435 3:0.296 4:0 5:0.082 6:0.041 7:0.041 8:0 9:0 10:0.102 11:0.102 12:0.02 13:0.082 14:0.02 15:0.143 16:0.143 17:0.02 18:0.102 19:0.102 20:0 
39.7409533924339 1:0.46 2:0.435 3:0.296 4:0.02 5:0.061 6:0.041 7:0.041 8:0 9:0.102 10:0 11:0.102 12:0.102 13:0 14:0 15:0.163 16:0.041 17:0.041 18:0.224 19:0.061 20:0 
108.2316935035498 1:0.46 2:0.435 3:0.296 4:0.041 5:0 6:0.061 7:0.041 8:0.02 9:0 10:0 11:0.184 12:0.082 13:0.061 14:0.02 15:0.102 16:0.02 17:0.143 18:0.184 19:0.041 20:0 
256 1:0.46 2:0.435 3:0.296 4:0.02 5:0.082 6:0.02 7:0.02 8:0 9:0.02 10:0.02 11:0.163 12:0.061 13:0 14:0.061 15:0.143 16:0.061 17:0.102 18:0.163 19:0.061 20:0 
256 1:0.46 2:0.435 3:0.296 4:0.041 5:0 6:0.082 7:0.041 8:0.02 9:0.061 10:0.102 11:0.02 12:0.041 13:0.041 14:0.061 15:0.102 16:0.041 17:0.102 18:0.02 19:0.224 20:0 
111.9808887811746 1:0.46 2:0.435 3:0.296 4:0.061 5:0.041 6:0.041 7:0.02 8:0.041 9:0.082 10:0.061 11:0.02 12:0 13:0.041 14:0.122 15:0.082 16:0.041 17:0.041 18:0.041 19:0.265 20:0 
-208.7158507584139 1:0.46 2:0.435 3:0.296 4:0 5:0.061 6:0 7:0.102 8:0.02 9:0.061 10:0 11:0.122 12:0.102 13:0 14:0.061 15:0.102 16:0.02 17:0.082 18:0.204 19:0.061 20:0 
256 1:0.46 2:0.522 3:0.296 4:0 5:0.041 6:0 7:0.122 8:0.02 9:0.082 10:0.041 11:0.102 12:0.02 13:0.041 14:0.061 15:0.082 16:0.122 17:0.061 18:0.122 19:0.082 20:0 
-256 1:0.46 2:0.522 3:0.296 4:0.02 5:0.041 6:0.082 7:0.02 8:0 9:0.082 10:0.061 11:0.082 12:0 13:0.041 14:0 15:0.184 16:0.143 17:0.082 18:0.082 19:0.082 20:0 
245.1672196445524 1:0.46 2:0.522 3:0.296 4:0.061 5:0.082 6:0 7:0.02 8:0.02 9:0.041 10:0.041 11:0.143 12:0.061 13:0.082 14:0 15:0.082 16:0.02 17:0.041 18:0.163 19:0.143 20:0 
-162.6207199325884 1:0.46 2:0.522 3:0.296 4:0.02 5:0.02 6:0.02 7:0.102 8:0.02 9:0.061 10:0.102 11:0.061 12:0.082 13:0 14:0.041 15:0.082 16:0.041 17:0.163 18:0.061 19:0.122 20:0 
-67.87508112621686 1:0.46 2:0.522 3:0.296 4:0 5:0.02 6:0.041 7:0.102 8:0.02 9:0.082 10:0.061 11:0.082 12:0.02 13:0.082 14:0.061 15:0.041 16:0.122 17:0.041 18:0.061 19:0.163 20:0 
-78.72749403217946 1:0.46 2:0.522 3:0.296 4:0.02 5:0.02 6:0 7:0.122 8:0.041 9:0 10:0.102 11:0.102 12:0.061 13:0.041 14:0.102 15:0 16:0.041 17:0.163 18:0.02 19:0.163 20:0 
124.677880406264 1:0.46 2:0.522 3:0.296 4:0.02 5:0.041 6:0 7:0.102 8:0.02 9:0.082 10:0.122 11:0.02 12:0.082 13:0.041 14:0 15:0.102 16:0.02 17:0.082 18:0.102 19:0.163 20:0 
-111.4573302914929 1:0.46 2:0.522 3:0.296 4:0.041 5:0 6:0.082 7:0.041 8:0.02 9:0.061 10:0.082 11:0.082 12:0 13:0.102 14:0.061 15:0.041 16:0.082 17:0.082 18:0 19:0.224 20:0 
54.38752400543332 1:0.46 2:0.522 3:0.296 4:0.02 5:0.082 6:0.061 7:0 8:0.02 9:0.082 10:0.02 11:0.122 12:0.02 13:0.02 14:0.122 15:0.061 16:0.082 17:0.061 18:0.02 19:0.204 20:0 
256 1:0.46 2:0.522 3:0.296 4:0.02 5:0.061 6:0.02 7:0.061 8:0.02 9:0.082 10:0 11:0.122 12:0.02 13:0.082 14:0.122 15:0 16:0.102 17:0.02 18:0.082 19:0.184 20:0 
-256 1:0.46 2:0.522 3:0.296 4:0 5:0 6:0.041 7:0.122 8:0.041 9:0.143 10:0 11:0.061 12:0.041 13:0.041 14:0.122 15:0.02 16:0.082 17:0.041 18:0.061 19:0.184 20:0 
46.13716597517853 1:0.46 2:0.522 3:0.296 4:0.061 5:0.02 6:0 7:0.082 8:0.082 9:0.122 10:0 11:0.041 12:0.02 13:0.041 14:0.082 15:0.061 16:0 17:0.041 18:0.143 19:0.204 20:0 
180.0944801267996 1:0.46 2:0.522 3:0.296 4:0 5:0.082 6:0.061 7:0 8:0.041 9:0 10:0.02 11:0.184 12:0.082 13:0 14:0.041 15:0.102 16:0.041 17:0.163 18:0.082 19:0.102 20:0 
-209.9474488340723 1:0.46 2:0.522 3:0.296 4:0 5:0.041 6:0 7:0.122 8:0.02 9:0.102 10:0.041 11:0.082 12:0.061 13:0.02 14:0 15:0.143 16:0.082 17:0.061 18:0.184 19:0.041 20:0 
256 1:0.46 2:0.522 3:0.296 4:0.061 5:0.082 6:0 7:0.02 8:0.02 9:0.041 10:0 11:0.163 12:0.061 13:0.02 14:0.122 15:0.02 16:0.02 17:0.102 18:0.102 19:0.163 20:0 
129.4618402773466 1:0.46 2:0.522 3:0.296 4:0 5:0 6:0.061 7:0.102 8:0.061 9:0.061 10:0.061 11:0.041 12:0.061 13:0 14:0 15:0.163 16:0.041 17:0.184 18:0.102 19:0.061 20:0 
256 1:0.46 2:0.522 3:0.296 4:0 5:0.082 6:0.02 7:0.061 8:0.082 9:0.061 10:0 11:0.102 12:0.061 13:0.02 14:0.061 15:0.061 16:0.02 17:0.082 18:0.143 19:0.143 20:0 
-256 1:0.46 2:0.522 3:0.296 4:0.061 5:0.02 6:0.041 7:0.041 8:0 9:0.082 10:0 11:0.163 12:0.061 13:0.041 14:0.02 15:0.082 16:0.02 17:0.102 18:0.163 19:0.102 20:0 
-256 1:0.46 2:0.522 3:0.296 4:0 5:0.061 6:0.041 7:0.061 8:0.061 9:0.061 10:0.102 11:0 12:0 13:0.061 14:0 15:0.163 16:0.102 17:0.061 18:0.061 19:0.163 20:0 
256 1:0.46 2:0.522 3:0.296 4:0 5:0.02 6:0.061 7:0.082 8:0.082 9:0.122 10:0.02 11:0.02 12:0 13:0 14:0.082 15:0.122 16:0.082 17:0.102 18:0.061 19:0.143 20:0 
77.46933545453828 1:0.46 2:0.522 3:0.296 4:0.02 5:0.02 6:0.082 7:0.02 8:0 9:0.082 10:0.122 11:0.041 12:0.082 13:0 14:0 15:0.143 16:0.061 17:0.143 18:0 19:0.184 20:0 
-256 1:0.46 2:0.522 3:0.296 4:0.061 5:0.02 6:0.041 7:0.041 8:0.02 9:0.122 10:0.041 11:0.061 12:0.041 13:0.041 14:0.102 15:0.02 16:0.041 17:0.061 18:0.041 19:0.245 20:0 
23.0571075772455 1:0.46 2:0.522 3:0.296 4:0.02 5:0 6:0.082 7:0.061 8:0.061 9:0.082 10:0 11:0.102 12:0 13:0.102 14:0.122 15:0 16:0.082 17:0.041 18:0.02 19:0.224 20:0 
-102.4876844250593 1:0.46 2:0.565 3:0.296 4:0.02 5:0.061 6:0.041 7:0.041 8:0.061 9:0.061 10:0.061 11:0.082 12:0.02 13:0 14:0.082 15:0.082 16:0.041 17:0.143 18:0.02 19:0.184 20:0 
-256 1:0.46 2:0.565 3:0.296 4:0.02 5:0 6:0.082 7:0.061 8:0.061 9:0.061 10:0.041 11:0.082 12:0.02 13:0.082 14:0.02 15:0.082 16:0.061 17:0.122 18:0.041 19:0.163 20:0 
256 1:0.46 2:0.565 3:0.296 4:0.02 5:0.041 6:0.02 7:0.082 8:0.082 9:0.041 10:0.102 11:0.02 12:0 13:0.061 14:0 15:0.143 16:0.061 17:0.122 18:0.061 19:0.143 20:0 
256 1:0.46 2:0.565 3:0.296 4:0.061 5:0.041 6:0 7:0.061 8:0.041 9:0.102 10:0.02 11:0.082 12:0.02 13:0.102 14:0 15:0.082 16:0.041 17:0.02 18:0.184 19:0.143 20:0 
256 1:0.46 2:0.565 3:0.296 4:0.041 5:0.02 6:0.02 7:0.082 8:0.02 9:0.02 10:0.061 11:0.163 12:0.041 13:0.041 14:0.082 15:0.02 16:0.061 17:0.184 18:0.02 19:0.122 20:0 
-83.82371969861134 1:0.46 2:0.565 3:0.296 4:0.02 5:0.02 6:0.02 7:0.102 8:0.041 9:0.061 10:0 11:0.163 12:0.061 13:0.041 14:0.041 15:0.041 16:0.041 17:0.143 18:0.143 19:0.061 20:0 
183.3601738984104 1:0.46 2:0.565 3:0.296 4:0.061 5:0.082 6:0 7:0.02 8:0.041 9:0.02 10:0.061 11:0.143 12:0 13:0.102 14:0.041 15:0.061 16:0.061 17:0.041 18:0.102 19:0.163 20:0 
157.7771287905994 1:0.46 2:0.565 3:0.296 4:0.041 5:0.041 6:0.082 7:0 8:0.02 9:0.102 10:0.02 11:0.102 12:0.041 13:0.02 14:0 15:0.143 16:0.061 17:0.102 18:0.102 19:0.122 20:0 
-144.1850548411643 1:0.46 2:0.565 3:0.296 4:0 5:0.082 6:0.041 7:0.041 8:0.02 9:0 10:0.082 11:0.143 12:0.082 13:0.061 14:0.02 15:0.041 16:0.061 17:0.122 18:0.041 19:0.163 20:0 
138.4770461526781 1:0.46 2:0.565 3:0.296 4:0 5:0.102 6:0.061 7:0 8:0.02 9:0.082 10:0.082 11:0.082 12:0.02 13:0.041 14:0 15:0.143 16:0.122 17:0.041 18:0.041 19:0.163 20:0 
256 1:0.46 2:0.565 3:0.296 4:0 5:0 6:0.061 7:0.102 8:0.061 9:0.061 10:0.02 11:0.122 12:0.082 13:0.041 14:0.041 15:0.02 16:0 17:0.163 18:0.082 19:0.143 20:0 
256 1:0.46 2:0.565 3:0.296 4:0 5:0.02 6:0.041 7:0.102 8:0.02 9:0.061 10:0.102 11:0.061 12:0 13:0.082 14:0 15:0.122 16:0.143 17:0.102 18:0.041 19:0.102 20:0 
-256 1:0.46 2:0.565 3:0.296 4:0 5:0.082 6:0.02 7:0.061 8:0.082 9:0 10:0.02 11:0.163 12:0 13:0.082 14:0.102 15:0.02 16:0.082 17:0.102 18:0.061 19:0.122 20:0 
216.7731794861269 1:0.46 2:0.565 3:0.296 4:0 5:0.082 6:0.082 7:0 8:0.102 9:0 10:0.061 11:0.102 12:0.02 13:0.082 14:0.041 15:0.061 16:0.02 17:0.102 18:0.02 19:0.224 20:0 
-256 1:0.46 2:0.565 3:0.296 4:0.02 5:0.02 6:0.061 7:0.061 8:0.061 9:0.143 10:0.041 11:0 12:0.041 13:0.02 14:0 15:0.143 16:0.02 17:0.082 18:0.102 19:0.184 20:0 
256 1:0.46 2:0.565 3:0.296 4:0 5:0.061 6:0 7:0.102 8:0.061 9:0.02 10:0 11:0.184 12:0.02 13:0.122 14:0.041 15:0 16:0.082 17:0.061 18:0.163 19:0.082 20:0 
-76.64638692718754 1:0.46 2:0.565 3:0.296 4:0 5:0.061 6:0.082 7:0 8:0.02 9:0.163 10:0 11:0.082 12:0.082 13:0 14:0.02 15:0.102 16:0.061 17:0.041 18:0.102 19:0.184 20:0 
-256 1:0.46 2:0.565 3:0.296 4:0.061 5:0.041 6:0 7:0.061 8:0.041 9:0.122 10:0.082 11:0.02 12:0.041 13:0 14:0.102 15:0.041 16:0.02 17:0.102 18:0.02 19:0.245 20:0 
-256 1:0.46 2:0.565 3:0.296 4:0.061 5:0 6:0.02 7:0.061 8:0 9:0.102 10:0.041 11:0.122 12:0.02 13:0.061 14:0 15:0.122 16:0.061 17:0.102 18:0.143 19:0.082 20:0 
-67.08477336480277 1:0.46 2:0.565 3:0.296 4:0.061 5:0.02 6:0.02 7:0.061 8:0 9:0 10:0.082 11:0.184 12:0 13:0.061 14:0.02 15:0.102 16:0.102 17:0.184 18:0.061 19:0.041 20:0 
256 1:0.46 2:0.565 3:0.296 4:0.041 5:0.082 6:0.02 7:0.02 8:0.061 9:0 10:0.102 11:0.082 12:0.061 13:0.102 14:0.041 15:0 16:0 17:0.082 18:0.041 19:0.265 20:0 
-109.0152433582117 1:0.46 2:0.565 3:0.296 4:0 5:0.082 6:0 7:0.082 8:0.102 9:0.082 10:0 11:0.082 12:0 13:0.102 14:0.061 15:0.041 16:0.061 17:0 18:0.143 19:0.163 20:0 
-256 1:0.46 2:0.565 3:0.296 4:0.061 5:0.041 6:0.061 7:0 8:0.041 9:0.061 10:0.061 11:0.082 12:0.041 13:0.102 14:0 15:0.061 16:0.02 17:0.041 18:0.082 19:0.245 20:0 
102.3647562329052 1:0.46 2:0.565 3:0.296 4:0.061 5:0 6:0.082 7:0.02 8:0.061 9:0.082 10:0 11:0.122 12:0 13:0.102 14:0 15:0.102 16:0.041 17:0.082 18:0.122 19:0.122 20:0 
-35.81276973101848 1:0.46 2:0.565 3:0.296 4:0.041 5:0 6:0.082 7:0.041 8:0.02 9:0.163 10:0.041 11:0.041 12:0.02 13:0.061 14:0.061 15:0.041 16:0.061 17:0.041 18:0.02 19:0.265 20:0 
-256 1:0.46 2:0.609 3:0.296 4:0 5:0.102 6:0.041 7:0.02 8:0.061 9:0.041 10:0.041 11:0.122 12:0 13:0.061 14:0 15:0.122 16:0.102 17:0.082 18:0.082 19:0.122 20:0 
-256 1:0.46 2:0.609 3:0.296 4:0.041 5:0.041 6:0.041 7:0.041 8:0.02 9:0.061 10:0.041 11:0.163 12:0.061 13:0.082 14:0.02 15:0 16:0.02 17:0.102 18:0.082 19:0.184 20:0 
256 1:0.46 2:0.609 3:0.296 4:0.02 5:0 6:0.061 7:0.082 8:0.041 9:0.082 10:0.061 11:0.102 12:0.041 13:0 14:0.061 15:0.061 16:0.061 17:0.184 18:0 19:0.143 20:0 
-231.6686477616027 1:0.46 2:0.609 3:0.296 4:0.041 5:0.02 6:0.041 7:0.061 8:0.061 9:0.041 10:0.102 11:0.061 12:0.02 13:0.122 14:0.02 15:0.02 16:0.041 17:0.102 18:0.02 19:0.224 20:0 
-256 1:0.46 2:0.609 3:0.296 4:0.02 5:0 6:0 7:0.143 8:0.082 9:0.061 10:0.082 11:0.041 12:0.02 13:0.102 14:0 15:0.061 16:0.041 17:0.122 18:0.102 19:0.122 20:0 
-256 1:0.46 2:0.609 3:0.296 4:0.02 5:0.082 6:0.041 7:0 8:0.082 9:0.041 10:0 11:0.163 12:0.041 13:0.041 14:0.082 15:0.02 16:0.02 17:0.122 18:0.041 19:0.204 20:0 
12.62728250308582 1:0.46 2:0.609 3:0.296 4:0.02 5:0.061 6:0.02 7:0.041 8:0 9:0.02 10:0.122 11:0.143 12:0.061 13:0.02 14:0 15:0.102 16:0.082 17:0.184 18:0.041 19:0.082 20:0 
256 1:0.46 2:0.609 3:0.296 4:0.02 5:0.061 6:0.041 7:0.041 8:0.041 9:0 10:0.041 11:0.204 12:0.041 13:0.041 14:0.041 15:0.061 16:0.041 17:0.184 18:0.061 19:0.082 20:0 
256 1:0.46 2:0.609 3:0.296 4:0 5:0.02 6:0.02 7:0.122 8:0.102 9:0.061 10:0.102 11:0.02 12:0 13:0.041 14:0.061 15:0.061 16:0.061 17:0.143 18:0 19:0.184 20:0 
256 1:0.46 2:0.609 3:0.296 4:0 5:0.082 6:0.061 7:0.02 8:0.041 9:0.02 10:0.041 11:0.184 12:0 13:0.102 14:0.041 15:0.041 16:0.122 17:0.061 18:0.041 19:0.143 20:0 
-256 1:0.46 2:0.609 3:0.296 4:0.061 5:0.082 6:0 7:0.02 8:0 9:0.061 10:0.102 11:0.102 12:0.02 13:0.082 14:0 15:0.082 16:0.082 17:0.061 18:0.082 19:0.163 20:0 
-256 1:0.46 2:0.609 3:0.296 4:0 5:0.082 6:0 7:0.082 8:0.02 9:0.102 10:0.122 11:0.02 12:0 13:0.041 14:0.02 15:0.122 16:0.143 17:0.041 18:0.041 19:0.163 20:0 
-256 1:0.46 2:0.609 3:0.296 4:0 5:0.041 6:0 7:0.122 8:0.082 9:0.102 10:0.061 11:0.041 12:0.061 13:0 14:0.02 15:0.102 16:0.02 17:0.143 18:0.102 19:0.102 20:0 
-256 1:0.46 2:0.609 3:0.296 4:0 5:0.061 6:0.061 7:0.041 8:0.02 9:0.122 10:0.02 11:0.122 12:0 13:0.02 14:0.02 15:0.143 16:0.143 17:0.061 18:0.082 19:0.082 20:0 
-37.42992427090488 1:0.46 2:0.609 3:0.296 4:0 5:0.061 6:0 7:0.102 8:0.02 9:0.061 10:0.082 11:0.122 12:0 13:0 14:0.061 15:0.102 16:0.143 17:0.143 18:0.041 19:0.061 20:0 
-219.0799008975027 1:0.46 2:0.609 3:0.296 4:0 5:0.02 6:0.02 7:0.122 8:0 9:0.102 10:0.02 11:0.163 12:0.02 13:0.102 14:0.061 15:0 16:0.143 17:0.061 18:0.061 19:0.102 20:0 
-256 1:0.46 2:0.609 3:0.296 4:0.061 5:0.082 6:0.02 7:0 8:0.082 9:0 10:0.122 11:0.061 12:0 13:0.041 14:0 15:0.143 16:0 17:0.163 18:0.041 19:0.184 20:0 
-190.7745615939927 1:0.46 2:0.609 3:0.296 4:0 5:0.02 6:0.02 7:0.122 8:0.082 9:0 10:0.082 11:0.122 12:0.061 13:0.082 14:0 15:0.041 16:0.02 17:0.184 18:0.082 19:0.082 20:0 
232.1300359319486 1:0.46 2:0.609 3:0.296 4:0.061 5:0.02 6:0 7:0.061 8:0.02 9:0.102 10:0 11:0.163 12:0.061 13:0.02 14:0.082 15:0.02 16:0.02 17:0.143 18:0.082 19:0.143 20:0 
256 1:0.46 2:0.609 3:0.296 4:0.02 5:0.041 6:0 7:0.102 8:0.041 9:0.061 10:0.102 11:0.061 12:0 13:0.061 14:0 15:0.122 16:0.102 17:0.122 18:0.082 19:0.082 20:0 
256 1:0.46 2:0.609 3:0.296 4:0.02 5:0 6:0.061 7:0.082 8:0.061 9:0.143 10:0.041 11:0.041 12:0.061 13:0.02 14:0.061 15:0.02 16:0.02 17:0.102 18:0.02 19:0.245 20:0 
2.857925876206632 1:0.46 2:0.609 3:0.296 4:0.061 5:0.02 6:0.02 7:0.061 8:0.02 9:0.122 10:0.082 11:0.041 12:0.02 13:0 14:0 15:0.163 16:0.061 17:0.122 18:0.082 19:0.122 20:0 
256 1:0.46 2:0.609 3:0.296 4:0.061 5:0.02 6:0.02 7:0.061 8:0.102 9:0.082 10:0.082 11:0.02 12:0 13:0.041 14:0.02 15:0.102 16:0 17:0.143 18:0.041 19:0.204 20:0 
256 1:0.46 2:0.609 3:0.296 4:0.02 5:0.041 6:0 7:0.102 8:0.061 9:0.102 10:0.102 11:0.02 12:0.061 13:0.061 14:0 15:0.061 16:0.02 17:0.061 18:0.082 19:0.204 20:0 
-256 1:0.46 2:0.652 3:0.296 4:0 5:0.061 6:0 7:0.102 8:0.061 9:0.061 10:0.102 11:0.061 12:0.041 13:0.082 14:0 15:0.041 16:0.061 17:0.102 18:0.061 19:0.163 20:0 
-256 1:0.46 2:0.652 3:0.296 4:0.041 5:0.122 6:0 7:0 8:0.061 9:0.061 10:0.061 11:0.122 12:0.02 13:0 14:0.061 15:0.061 16:0.041 17:0.102 18:0.041 19:0.204 20:0 
195.0096659212057 1:0.46 2:0.652 3:0.296 4:0 5:0 6:0.02 7:0.143 8:0.082 9:0.061 10:0.061 11:0.082 12:0.02 13:0.061 14:0.041 15:0.041 16:0.041 17:0.184 18:0.041 19:0.122 20:0 
117.5236464762374 1:0.46 2:0.652 3:0.296 4:0.02 5:0.082 6:0.02 7:0.041 8:0.061 9:0.041 10:0.102 11:0.102 12:0.041 13:0.02 14:0 15:0.102 16:0.041 17:0.143 18:0.041 19:0.143 20:0 
-224.504518985215 1:0.46 2:0.652 3:0.296 4:0.041 5:0.061 6:0.02 7:0.041 8:0.02 9:0.041 10:0 11:0.245 12:0 13:0.082 14:0.02 15:0.061 16:0.102 17:0.122 18:0.122 19:0.02 20:0 
256 1:0.46 2:0.652 3:0.296 4:0 5:0.082 6:0 7:0.082 8:0.122 9:0.082 10:0.041 11:0.041 12:0.041 13:0.061 14:0 15:0.061 16:0 17:0.082 18:0.122 19:0.184 20:0 
-256 1:0.46 2:0.652 3:0.296 4:0.02 5:0.02 6:0.02 7:0.102 8:0.041 9:0.082 10:0.122 11:0.061 12:0.02 13:0 14:0.02 15:0.102 16:0.061 17:0.204 18:0 19:0.122 20:0 
256 1:0.46 2:0.652 3:0.296 4:0.061 5:0.061 6:0 7:0.041 8:0.041 9:0.02 10:0.122 11:0.102 12:0.02 13:0.082 14:0.02 15:0.041 16:0.02 17:0.143 18:0.02 19:0.204 20:0 
256 1:0.46 2:0.652 3:0.296 4:0.041 5:0.082 6:0 7:0.041 8:0 9:0.082 10:0.102 11:0.122 12:0 13:0.061 14:0.061 15:0.02 16:0.122 17:0.082 18:0 19:0.184 20:0 
134.4751598823752 1:0.46 2:0.652 3:0.296 4:0.02 5:0.02 6:0 7:0.122 8:0.102 9:0.02 10:0.102 11:0.061 12:0.02 13:0.02 14:0 15:0.122 16:0.02 17:0.224 18:0.061 19:0.082 20:0 
256 1:0.46 2:0.652 3:0.296 4:0.041 5:0.041 6:0 7:0.082 8:0.041 9:0.102 10:0.122 11:0.02 12:0.02 13:0.041 14:0.02 15:0.082 16:0.061 17:0.122 18:0 19:0.204 20:0 
-256 1:0.46 2:0.652 3:0.296 4:0 5:0.082 6:0.061 7:0.02 8:0.041 9:0.102 10:0 11:0.163 12:0 13:0.082 14:0.02 15:0.061 16:0.122 17:0.041 18:0.082 19:0.122 20:0 
256 1:0.46 2:0.652 3:0.296 4:0.061 5:0.02 6:0.061 7:0.02 8:0.061 9:0.082 10:0.041 11:0.122 12:0 13:0.061 14:0.061 15:0.02 16:0.02 17:0.143 18:0 19:0.224 20:0 
-256 1:0.46 2:0.652 3:0.296 4:0 5:0.041 6:0.061 7:0.061 8:0 9:0.122 10:0.02 11:0.163 12:0.061 13:0.041 14:0.02 15:0.02 16:0.102 17:0.102 18:0.061 19:0.122 20:0 
-256 1:0.46 2:0.652 3:0.296 4:0.02 5:0 6:0.041 7:0.102 8:0.02 9:0.184 10:0 11:0.082 12:0 13:0.082 14:0.061 15:0.02 16:0.102 17:0.041 18:0.061 19:0.184 20:0 
-256 1:0.46 2:0.652 3:0.296 4:0 5:0.082 6:0.02 7:0.061 8:0.02 9:0.082 10:0 11:0.204 12:0.061 13:0 14:0.02 15:0.082 16:0.082 17:0.122 18:0.122 19:0.041 20:0 
-1.889968219285068 1:0.46 2:0.652 3:0.296 4:0.041 5:0.02 6:0 7:0.082 8:0.061 9:0.041 10:0.041 11:0.163 12:0 13:0.02 14:0 15:0.143 16:0.061 17:0.204 18:0.122 19:0 20:0 
153.7274056358491 1:0.46 2:0.652 3:0.296 4:0 5:0.102 6:0.02 7:0.041 8:0.102 9:0.02 10:0.041 11:0.143 12:0 13:0.02 14:0.061 15:0.061 16:0.061 17:0.163 18:0.041 19:0.122 20:0 
-256 1:0.46 2:0.652 3:0.296 4:0.061 5:0 6:0 7:0.102 8:0.041 9:0.102 10:0.061 11:0.082 12:0.061 13:0.02 14:0.061 15:0.02 16:0 17:0.184 18:0.041 19:0.163 20:0 
256 1:0.46 2:0.652 3:0.296 4:0.041 5:0.041 6:0.02 7:0.061 8:0 9:0.224 10:0 11:0.061 12:0.061 13:0.02 14:0.061 15:0.02 16:0.041 17:0.02 18:0.082 19:0.245 20:0 
-200.0145156778781 1:0.46 2:0.652 3:0.296 4:0 5:0.082 6:0.041 7:0.041 8:0.061 9:0.041 10:0.122 11:0.061 12:0 13:0.122 14:0 15:0.041 16:0.102 17:0.061 18:0 19:0.224 20:0 
256 1:0.46 2:0.652 3:0.296 4:0.02 5:0 6:0.041 7:0.082 8:0.041 9:0.082 10:0.02 11:0.163 12:0.061 13:0 14:0.061 15:0.041 16:0.041 17:0.224 18:0.02 19:0.102 20:0 
37.79174497699807 1:0.46 2:0.652 3:0.296 4:0.041 5:0.041 6:0.061 7:0 8:0.061 9:0.082 10:0.041 11:0.122 12:0.041 13:0.122 14:0 15:0 16:0.02 17:0.061 18:0.041 19:0.265 20:0 
-256 1:0.46 2:0.696 3:0.296 4:0.061 5:0.02 6:0.041 7:0.041 8:0 9:0.163 10:0.041 11:0.122 12:0.02 13:0.02 14:0 15:0.082 16:0.061 17:0.122 18:0.061 19:0.143 20:0 
-256 1:0.46 2:0.696 3:0.296 4:0.041 5:0.02 6:0.02 7:0.082 8:0.082 9:0.041 10:0.061 11:0.122 12:0.02 13:0.041 14:0.02 15:0.061 16:0.02 17:0.224 18:0.02 19:0.122 20:0 
-256 1:0.46 2:0.696 3:0.296 4:0.02 5:0.041 6:0 7:0.102 8:0.061 9:0.102 10:0.02 11:0.143 12:0.02 13:0.041 14:0.02 15:0.041 16:0.041 17:0.143 18:0.102 19:0.102 20:0 
-158.7127994638976 1:0.46 2:0.696 3:0.296 4:0.02 5:0.122 6:0 7:0.02 8:0.02 9:0.041 10:0.041 11:0.224 12:0.02 13:0.061 14:0.02 15:0.041 16:0.082 17:0.102 18:0.082 19:0.102 20:0 
31.36821135522652 1:0.46 2:0.696 3:0.296 4:0.041 5:0.061 6:0 7:0.061 8:0.082 9:0.082 10:0.041 11:0.122 12:0.02 13:0 14:0 15:0.122 16:0.02 17:0.184 18:0.102 19:0.061 20:0 
256 1:0.46 2:0.696 3:0.296 4:0.061 5:0.082 6:0.02 7:0 8:0.061 9:0.122 10:0.02 11:0.122 12:0.02 13:0 14:0.041 15:0.061 16:0.02 17:0.122 18:0.041 19:0.204 20:0 
256 1:0.46 2:0.696 3:0.296 4:0.061 5:0.102 6:0 7:0 8:0 9:0.102 10:0.102 11:0.102 12:0.041 13:0 14:0 15:0.102 16:0.061 17:0.102 18:0.041 19:0.184 20:0 
-256 1:0.46 2:0.696 3:0.296 4:0.061 5:0.061 6:0.041 7:0 8:0.082 9:0.02 10:0.082 11:0.122 12:0.02 13:0.082 14:0 15:0.041 16:0 17:0.163 18:0 19:0.224 20:0 
256 1:0.46 2:0.696 3:0.296 4:0 5:0.082 6:0 7:0.082 8:0.041 9:0.061 10:0.02 11:0.204 12:0 13:0.102 14:0 15:0.041 16:0.122 17:0.061 18:0.122 19:0.061 20:0 
-71.20299507630317 1:0.46 2:0.696 3:0.296 4:0.041 5:0.041 6:0 7:0.061 8:0.02 9:0.163 10:0.102 11:0.041 12:0.02 13:0.061 14:0.041 15:0.02 16:0.061 17:0.061 18:0 19:0.265 20:0 
-256 1:0.46 2:0.696 3:0.296 4:0.061 5:0.061 6:0.02 7:0.02 8:0.041 9:0.102 10:0 11:0.184 12:0.041 13:0 14:0.041 15:0.061 16:0 17:0.163 18:0.082 19:0.122 20:0 
-256 1:0.46 2:0.696 3:0.296 4:0.02 5:0.122 6:0.02 7:0 8:0.02 9:0.102 10:0 11:0.204 12:0.02 13:0 14:0.02 15:0.102 16:0.102 17:0.102 18:0.102 19:0.061 20:0 
256 1:0.46 2:0.696 3:0.296 4:0.061 5:0.061 6:0.02 7:0.02 8:0 9:0.122 10:0.082 11:0.122 12:0 13:0.102 14:0.02 15:0 16:0.102 17:0.041 18:0.02 19:0.224 20:0 
-165.8737125904881 1:0.46 2:0.696 3:0.296 4:0.02 5:0.082 6:0 7:0.061 8:0.102 9:0.163 10:0.02 11:0.02 12:0.02 13:0.061 14:0.02 15:0.041 16:0.02 17:0.02 18:0.102 19:0.245 20:0 
40.8142420734514 1:0.46 2:0.696 3:0.296 4:0.02 5:0.122 6:0 7:0.02 8:0.02 9:0.143 10:0.102 11:0.061 12:0.041 13:0.041 14:0 15:0.061 16:0.061 17:0.02 18:0.041 19:0.245 20:0 
-76.65116688939747 1:0.46 2:0.696 3:0.296 4:0.041 5:0.02 6:0.041 7:0.061 8:0.041 9:0.143 10:0 11:0.143 12:0.041 13:0.041 14:0.041 15:0 16:0.041 17:0.122 18:0.041 19:0.184 20:0 
-44.24296817041784 1:0.46 2:0.696 3:0.296 4:0 5:0.041 6:0 7:0.122 8:0.122 9:0.102 10:0 11:0.102 12:0 13:0.102 14:0.041 15:0 16:0.02 17:0.082 18:0.102 19:0.163 20:0 
-35.04365331949629 1:0.46 2:0.696 3:0.296 4:0.041 5:0.02 6:0 7:0.102 8:0.041 9:0.143 10:0.102 11:0.041 12:0.041 13:0 14:0.041 15:0.041 16:0.041 17:0.163 18:0 19:0.184 20:0 
256 1:0.46 2:0.696 3:0.296 4:0 5:0.122 6:0.041 7:0 8:0.082 9:0.041 10:0.02 11:0.163 12:0 13:0.102 14:0 15:0.041 16:0.082 17:0.061 18:0.082 19:0.163 20:0 
-214.7773507230895 1:0.46 2:0.696 3:0.296 4:0.02 5:0 6:0 7:0.143 8:0.02 9:0.184 10:0.082 11:0.041 12:0.041 13:0.061 14:0.041 15:0 16:0.082 17:0.082 18:0.02 19:0.184 20:0 
-256 1:0.46 2:0.739 3:0.296 4:0.02 5:0.041 6:0.02 7:0.082 8:0.082 9:0.102 10:0.041 11:0.122 12:0 13:0.041 14:0 15:0.061 16:0.061 17:0.163 18:0.041 19:0.122 20:0 
231.9334993879094 1:0.46 2:0.739 3:0.296 4:0 5:0.02 6:0.02 7:0.122 8:0.02 9:0.122 10:0.102 11:0.082 12:0.02 13:0.061 14:0 15:0.041 16:0.122 17:0.122 18:0 19:0.143 20:0 
-256 1:0.46 2:0.739 3:0.296 4:0 5:0.02 6:0 7:0.143 8:0.082 9:0.122 10:0.102 11:0.041 12:0.041 13:0 14:0.02 15:0.041 16:0.041 17:0.184 18:0 19:0.163 20:0 
-256 1:0.46 2:0.739 3:0.296 4:0.02 5:0.02 6:0 7:0.122 8:0.102 9:0.122 10:0 11:0.102 12:0.041 13:0.041 14:0.02 15:0.02 16:0 17:0.143 18:0.102 19:0.143 20:0 
80.53556940423734 1:0.46 2:0.739 3:0.296 4:0.041 5:0.02 6:0 7:0.102 8:0.02 9:0.163 10:0.02 11:0.143 12:0 13:0.102 14:0 15:0.02 16:0.102 17:0.041 18:0.102 19:0.122 20:0 
256 1:0.46 2:0.739 3:0.296 4:0.041 5:0.041 6:0.02 7:0.061 8:0.061 9:0.102 10:0.102 11:0.061 12:0.02 13:0.082 14:0 15:0.02 16:0.041 17:0.122 18:0 19:0.224 20:0 
-256 1:0.46 2:0.739 3:0.296 4:0.02 5:0.041 6:0.02 7:0.082 8:0.102 9:0 10:0.102 11:0.122 12:0 13:0.061 14:0 15:0.061 16:0.041 17:0.245 18:0 19:0.102 20:0 
11.66775780806501 1:0.46 2:0.739 3:0.296 4:0 5:0.041 6:0 7:0.122 8:0.082 9:0.163 10:0.02 11:0.061 12:0 13:0.02 14:0 15:0.102 16:0.082 17:0.102 18:0.102 19:0.102 20:0 
-177.710098166559 1:0.46 2:0.739 3:0.296 4:0 5:0.061 6:0.02 7:0.082 8:0.02 9:0.163 10:0 11:0.163 12:0 13:0.041 14:0 15:0.082 16:0.143 17:0.082 18:0.102 19:0.041 20:0 
-3.688377698490923 1:0.46 2:0.739 3:0.296 4:0.02 5:0.082 6:0.02 7:0.041 8:0.041 9:0.041 10:0.02 11:0.245 12:0 13:0 14:0.02 15:0.082 16:0.102 17:0.224 18:0.061 19:0 20:0 
-31.59989603910662 1:0.46 2:0.739 3:0.296 4:0.041 5:0.061 6:0.02 7:0.041 8:0.061 9:0.02 10:0.102 11:0.143 12:0 13:0.102 14:0 15:0.02 16:0.041 17:0.163 18:0 19:0.184 20:0 
256 1:0.46 2:0.739 3:0.296 4:0.02 5:0.02 6:0.041 7:0.082 8:0.122 9:0.082 10:0.061 11:0.082 12:0.02 13:0 14:0.02 15:0.061 16:0 17:0.224 18:0 19:0.163 20:0 
-104.4008203226371 1:0.46 2:0.783 3:0.296 4:0.02 5:0.122 6:0.02 7:0 8:0.082 9:0.082 10:0.041 11:0.143 12:0 13:0.082 14:0.02 15:0 16:0.061 17:0.061 18:0.02 19:0.245 20:0 
-188.4003286186045 1:0.46 2:0.783 3:0.296 4:0.02 5:0.082 6:0.041 7:0.02 8:0.122 9:0.102 10:0 11:0.122 12:0.02 13:0.041 14:0 15:0.041 16:0 17:0.122 18:0.061 19:0.204 20:0 
-136.6068229026795 1:0.46 2:0.783 3:0.296 4:0.041 5:0.061 6:0.041 7:0.02 8:0 9:0.102 10:0.041 11:0.204 12:0 13:0.061 14:0.02 15:0.02 16:0.122 17:0.122 18:0 19:0.143 20:0 
-40.49073628856538 1:0.46 2:0.783 3:0.296 4:0.041 5:0.041 6:0.02 7:0.041 8:0.061 9:0.184 10:0.082 11:0.041 12:0 13:0.061 14:0 15:0.041 16:0.041 17:0.082 18:0 19:0.265 20:0 
-194.0728988485691 1:0.46 2:0.783 3:0.296 4:0.02 5:0.143 6:0 7:0 8:0.02 9:0.041 10:0.082 11:0.204 12:0 13:0.082 14:0 15:0.02 16:0.122 17:0.102 18:0.02 19:0.143 20:0 
256 1:0.46 2:0.783 3:0.296 4:0.061 5:0.102 6:0 7:0 8:0.102 9:0.041 10:0.02 11:0.204 12:0 13:0.02 14:0.02 15:0.041 16:0 17:0.204 18:0.061 19:0.122 20:0 
80.92200116758835 1:0.46 2:0.783 3:0.296 4:0.02 5:0.102 6:0 7:0.041 8:0 9:0.224 10:0.02 11:0.122 12:0.02 13:0.02 14:0.02 15:0.041 16:0.122 17:0.02 18:0.061 19:0.163 20:0 
161.0703483447866 1:0.46 2:0.783 3:0.296 4:0 5:0 6:0.041 7:0.122 8:0.041 9:0.224 10:0.041 11:0.061 12:0 13:0 14:0.02 15:0.082 16:0.122 17:0.143 18:0 19:0.102 20:0 
100.7467303492434 1:0.46 2:0.217 3:0.333 4:0.041 5:0 6:0.041 7:0.102 8:0.02 9:0 10:0 11:0.082 12:0.02 13:0.061 14:0.224 15:0.061 16:0.102 17:0.041 18:0.102 19:0.102 20:0 
30.25604602436763 1:0.46 2:0.261 3:0.333 4:0.02 5:0.02 6:0.122 7:0.02 8:0 9:0 10:0.02 11:0.102 12:0.061 13:0.02 14:0.061 15:0.204 16:0.082 17:0.082 18:0.143 19:0.041 20:0 
256 1:0.46 2:0.261 3:0.333 4:0 5:0.041 6:0.122 7:0.02 8:0.02 9:0.02 10:0.041 11:0.02 12:0 13:0.02 14:0.143 15:0.184 16:0.163 17:0.041 18:0.041 19:0.122 20:0 
38.45015746656718 1:0.46 2:0.261 3:0.333 4:0.061 5:0 6:0.102 7:0.02 8:0.02 9:0 10:0.061 11:0.041 12:0 13:0.041 14:0.061 15:0.245 16:0.102 17:0.082 18:0.102 19:0.061 20:0 
98.70954129796077 1:0.46 2:0.261 3:0.333 4:0 5:0 6:0.102 7:0.082 8:0 9:0.02 10:0.041 11:0.061 12:0.143 13:0.082 14:0.041 15:0.061 16:0.02 17:0.02 18:0.163 19:0.163 20:0 
256 1:0.46 2:0.261 3:0.333 4:0.082 5:0.041 6:0 7:0.061 8:0.041 9:0.02 10:0.02 11:0.02 12:0.041 13:0.02 14:0.204 15:0.082 16:0.02 17:0.041 18:0.122 19:0.184 20:0 
256 1:0.46 2:0.261 3:0.333 4:0.082 5:0 6:0.102 7:0 8:0.02 9:0.02 10:0 11:0.061 12:0.041 13:0 14:0.163 15:0.143 16:0.041 17:0.102 18:0.061 19:0.163 20:0 
94.07584961321193 1:0.46 2:0.261 3:0.333 4:0 5:0.041 6:0.061 7:0.082 8:0.041 9:0.02 10:0.02 11:0.041 12:0.061 13:0.061 14:0.204 15:0 16:0.082 17:0 18:0.041 19:0.245 20:0 
71.58111482149546 1:0.46 2:0.261 3:0.333 4:0.02 5:0.02 6:0.122 7:0 8:0.02 9:0 10:0.102 11:0 12:0.082 13:0.082 14:0.082 15:0.102 16:0.061 17:0 18:0.041 19:0.265 20:0 
-157.0938281002472 1:0.46 2:0.261 3:0.333 4:0 5:0 6:0.102 7:0.082 8:0.02 9:0.02 10:0.041 11:0.041 12:0 13:0.02 14:0.082 15:0.224 16:0.163 17:0.082 18:0.122 19:0 20:0 
-117.8059642072237 1:0.46 2:0.261 3:0.333 4:0.082 5:0.041 6:0.02 7:0.02 8:0.02 9:0.02 10:0.041 11:0.041 12:0.061 13:0.041 14:0.02 15:0.224 16:0.02 17:0.02 18:0.265 19:0.061 20:0 
-62.62578424065861 1:0.46 2:0.261 3:0.333 4:0 5:0.02 6:0.122 7:0.041 8:0 9:0 10:0.061 11:0.061 12:0.143 13:0 14:0.02 15:0.163 16:0.02 17:0.102 18:0.143 19:0.102 20:0 
51.94737053870658 1:0.46 2:0.304 3:0.333 4:0.061 5:0.061 6:0 7:0.061 8:0.061 9:0 10:0.061 11:0.02 12:0 13:0.02 14:0.143 15:0.163 16:0.061 17:0.061 18:0.102 19:0.122 20:0 
-256 1:0.46 2:0.304 3:0.333 4:0.041 5:0 6:0.082 7:0.061 8:0.041 9:0.02 10:0.02 11:0.041 12:0.102 13:0.082 14:0.02 15:0.122 16:0 17:0.041 18:0.184 19:0.143 20:0 
-32.50721218135558 1:0.46 2:0.304 3:0.333 4:0.02 5:0.02 6:0.143 7:0 8:0.02 9:0.02 10:0.02 11:0.061 12:0.02 13:0.02 14:0.082 15:0.204 16:0.122 17:0.082 18:0.061 19:0.102 20:0 
34.67630194718058 1:0.46 2:0.304 3:0.333 4:0.061 5:0.061 6:0.02 7:0.041 8:0 9:0.02 10:0.082 11:0.02 12:0.102 13:0.041 14:0 15:0.184 16:0.02 17:0.02 18:0.224 19:0.102 20:0 
256 1:0.46 2:0.304 3:0.333 4:0.061 5:0 6:0.102 7:0.02 8:0 9:0.02 10:0 11:0.122 12:0 13:0.041 14:0.122 15:0.163 16:0.122 17:0.061 18:0.102 19:0.061 20:0 
-214.1383516302365 1:0.46 2:0.304 3:0.333 4:0 5:0 6:0.122 7:0.061 8:0.061 9:0 10:0 11:0.061 12:0.041 13:0.041 14:0.163 15:0.082 16:0.082 17:0.102 18:0.02 19:0.163 20:0 
-19.95645442789642 1:0.46 2:0.304 3:0.333 4:0.082 5:0 6:0 7:0.102 8:0 9:0 10:0.02 11:0.122 12:0.082 13:0.02 14:0.122 15:0.082 16:0.02 17:0.122 18:0.184 19:0.041 20:0 
-92.60700511317224 1:0.46 2:0.304 3:0.333 4:0 5:0.061 6:0 7:0.122 8:0.041 9:0.041 10:0.061 11:0 12:0.061 13:0 14:0.143 15:0.102 16:0.082 17:0.02 18:0.122 19:0.143 20:0 
-256 1:0.46 2:0.348 3:0.333 4:0 5:0 6:0.082 7:0.102 8:0.02 9:0.061 10:0.061 11:0.02 12:0 13:0.041 14:0.143 15:0.102 16:0.163 17:0.061 18:0.02 19:0.122 20:0 
-256 1:0.46 2:0.348 3:0.333 4:0.041 5:0 6:0.041 7:0.102 8:0.02 9:0.02 10:0.061 11:0.061 12:0.02 13:0.082 14:0.143 15:0.041 16:0.082 17:0.061 18:0.061 19:0.163 20:0 
-145.6149215872823 1:0.46 2:0.348 3:0.333 4:0.082 5:0.041 6:0.041 7:0 8:0.02 9:0.02 10:0.061 11:0.061 12:0.061 13:0.061 14:0.143 15:0.041 16:0.02 17:0.041 18:0.041 19:0.265 20:0 
256 1:0.46 2:0.348 3:0.333 4:0.041 5:0.02 6:0.041 7:0.082 8:0.041 9:0.041 10:0.061 11:0.02 12:0.041 13:0.102 14:0 15:0.163 16:0.061 17:0 18:0.184 19:0.102 20:0 
-124.7782708826026 1:0.46 2:0.348 3:0.333 4:0.02 5:0 6:0.102 7:0.061 8:0.02 9:0.061 10:0.02 11:0.061 12:0 13:0.102 14:0.082 15:0.102 16:0.143 17:0 18:0.082 19:0.143 20:0 
256 1:0.46 2:0.348 3:0.333 4:0.02 5:0 6:0.02 7:0.143 8:0.02 9:0.061 10:0.061 11:0 12:0.102 13:0.041 14:0.143 15:0.02 16:0.041 17:0.041 18:0.082 19:0.204 20:0 
-256 1:0.46 2:0.348 3:0.333 4:0.041 5:0 6:0.122 7:0.02 8:0.041 9:0.041 10:0.061 11:0.02 12:0.02 13:0 14:0.082 15:0.184 16:0.061 17:0.122 18:0.041 19:0.143 20:0 
-256 1:0.46 2:0.348 3:0.333 4:0.02 5:0.02 6:0.061 7:0.061 8:0 9:0.02 10:0 11:0.143 12:0.082 13:0 14:0.102 15:0.122 16:0.082 17:0.122 18:0.122 19:0.041 20:0 
167.7425649098393 1:0.46 2:0.348 3:0.333 4:0.041 5:0 6:0.02 7:0.122 8:0.02 9:0 10:0.041 11:0.082 12:0.041 13:0.02 14:0.224 15:0.02 16:0.082 17:0.143 18:0.02 19:0.122 20:0 
256 1:0.46 2:0.348 3:0.333 4:0 5:0 6:0.02 7:0.163 8:0.061 9:0.02 10:0.02 11:0.041 12:0.102 13:0.02 14:0.143 15:0.041 16:0.02 17:0.122 18:0.102 19:0.122 20:0 
256 1:0.46 2:0.348 3:0.333 4:0.02 5:0.061 6:0 7:0.102 8:0 9:0.041 10:0.061 11:0.041 12:0.102 13:0.02 14:0 15:0.184 16:0.061 17:0.041 18:0.245 19:0.02 20:0 
-255.9394002477975 1:0.46 2:0.391 3:0.333 4:0.02 5:0 6:0.041 7:0.102 8:0.061 9:0.041 10:0.041 11:0.041 12:0.041 13:0.061 14:0.041 15:0.143 16:0.061 17:0.082 18:0.143 19:0.082 20:0 
256 1:0.46 2:0.391 3:0.333 4:0 5:0 6:0.041 7:0.143 8:0 9:0.061 10:0.061 11:0.041 12:0.041 13:0.102 14:0.041 15:0.102 16:0.143 17:0.02 18:0.143 19:0.061 20:0 
256 1:0.46 2:0.391 3:0.333 4:0 5:0.061 6:0.02 7:0.082 8:0.02 9:0 10:0.061 11:0.102 12:0.082 13:0 14:0.122 15:0.082 16:0.082 17:0.122 18:0.061 19:0.102 20:0 
42.50785670774982 1:0.46 2:0.391 3:0.333 4:0.02 5:0 6:0.02 7:0.143 8:0.02 9:0.041 10:0.102 11:0 12:0.102 13:0.122 14:0.02 15:0.041 16:0.041 17:0.02 18:0.122 19:0.184 20:0 
-256 1:0.46 2:0.391 3:0.333 4:0.02 5:0.02 6:0.122 7:0.02 8:0.02 9:0.061 10:0.02 11:0.061 12:0 13:0.061 14:0.061 15:0.163 16:0.143 17:0.041 18:0.061 19:0.122 20:0 
-256 1:0.46 2:0.391 3:0.333 4:0.02 5:0.041 6:0.041 7:0.082 8:0 9:0.061 10:0.061 11:0.041 12:0.061 13:0.02 14:0.184 15:0.02 16:0.102 17:0.061 18:0 19:0.204 20:0 
-256 1:0.46 2:0.391 3:0.333 4:0 5:0.082 6:0 7:0.102 8:0.061 9:0.041 10:0.041 11:0.02 12:0.082 13:0 14:0.163 15:0.041 16:0.041 17:0.061 18:0.061 19:0.204 20:0 
36.82157915694334 1:0.46 2:0.391 3:0.333 4:0.041 5:0.041 6:0.041 7:0.061 8:0.082 9:0 10:0.102 11:0 12:0 13:0.02 14:0.041 15:0.224 16:0.041 17:0.122 18:0.102 19:0.082 20:0 
256 1:0.46 2:0.391 3:0.333 4:0.082 5:0.02 6:0.041 7:0.041 8:0 9:0 10:0.02 11:0.163 12:0.041 13:0.082 14:0.102 15:0.041 16:0.061 17:0.082 18:0.102 19:0.122 20:0 
256 1:0.46 2:0.391 3:0.333 4:0 5:0.061 6:0 7:0.122 8:0.02 9:0.061 10:0.02 11:0.082 12:0.02 13:0.02 14:0.163 15:0.061 16:0.143 17:0.041 18:0.082 19:0.102 20:0 
-256 1:0.46 2:0.391 3:0.333 4:0 5:0.041 6:0.082 7:0.061 8:0.061 9:0.082 10:0.041 11:0 12:0.02 13:0.061 14:0.122 15:0.061 16:0.082 17:0 18:0.041 19:0.245 20:0 
129.1789256634881 1:0.46 2:0.391 3:0.333 4:0 5:0.02 6:0.02 7:0.143 8:0.061 9:0 10:0.102 11:0.02 12:0.082 13:0 14:0.122 15:0.082 16:0.041 17:0.163 18:0.02 19:0.122 20:0 
117.4625349445737 1:0.46 2:0.391 3:0.333 4:0.02 5:0.02 6:0 7:0.122 8:0.041 9:0.02 10:0.02 11:0.102 12:0.02 13:0.122 14:0.041 15:0.102 16:0.102 17:0.02 18:0.204 19:0.041 20:0 
39.53727440054315 1:0.46 2:0.391 3:0.333 4:0.02 5:0.082 6:0.082 7:0 8:0 9:0 10:0.041 11:0.143 12:0.02 13:0.082 14:0 15:0.184 16:0.122 17:0.02 18:0.163 19:0.041 20:0 
256 1:0.46 2:0.391 3:0.333 4:0 5:0 6:0.082 7:0.102 8:0.02 9:0.041 10:0.02 11:0.082 12:0.082 13:0.122 14:0 15:0.082 16:0.082 17:0.02 18:0.163 19:0.102 20:0 
-73.89978660479592 1:0.46 2:0.435 3:0.333 4:0.041 5:0.02 6:0.02 7:0.082 8:0 9:0 10:0.041 11:0.163 12:0.061 13:0.041 14:0.102 15:0.061 16:0.082 17:0.122 18:0.102 19:0.061 20:0 
-256 1:0.46 2:0.435 3:0.333 4:0.02 5:0.02 6:0 7:0.143 8:0.02 9:0.061 10:0.041 11:0.082 12:0.02 13:0.061 14:0.122 15:0.041 16:0.102 17:0.061 18:0.102 19:0.102 20:0 
43.09734470958877 1:0.46 2:0.435 3:0.333 4:0 5:0 6:0.061 7:0.122 8:0.082 9:0.02 10:0.061 11:0.041 12:0.082 13:0.041 14:0.041 15:0.082 16:0.02 17:0.143 18:0.082 19:0.122 20:0 
-256 1:0.46 2:0.435 3:0.333 4:0 5:0.041 6:0.102 7:0.041 8:0.061 9:0.041 10:0.02 11:0.061 12:0.061 13:0.122 14:0.02 15:0.061 16:0.061 17:0 18:0.122 19:0.184 20:0 
-256 1:0.46 2:0.435 3:0.333 4:0.02 5:0.061 6:0 7:0.082 8:0 9:0.061 10:0.061 11:0.082 12:0.102 13:0.061 14:0.041 15:0.061 16:0.061 17:0 18:0.163 19:0.143 20:0 
-256 1:0.46 2:0.435 3:0.333 4:0 5:0.02 6:0.082 7:0.082 8:0.082 9:0.061 10:0.02 11:0.041 12:0.041 13:0.02 14:0.122 15:0.061 16:0.061 17:0.102 18:0.02 19:0.184 20:0 
256 1:0.46 2:0.435 3:0.333 4:0.041 5:0.041 6:0.041 7:0.061 8:0 9:0.061 10:0.041 11:0.102 12:0.02 13:0.02 14:0.143 15:0.061 16:0.122 17:0.082 18:0.041 19:0.122 20:0 
-256 1:0.46 2:0.435 3:0.333 4:0.082 5:0.02 6:0.082 7:0 8:0.041 9:0.02 10:0.061 11:0.061 12:0.02 13:0.02 14:0.02 15:0.204 16:0.041 17:0.143 18:0.082 19:0.102 20:0 
256 1:0.46 2:0.435 3:0.333 4:0 5:0.041 6:0.02 7:0.122 8:0.082 9:0.061 10:0.041 11:0.02 12:0.02 13:0.041 14:0.082 15:0.102 16:0.061 17:0.061 18:0.122 19:0.122 20:0 
-256 1:0.46 2:0.435 3:0.333 4:0.041 5:0.02 6:0.061 7:0.061 8:0.02 9:0.061 10:0.041 11:0.061 12:0.041 13:0.02 14:0 15:0.204 16:0.082 17:0.102 18:0.163 19:0.02 20:0 
244.6244916850548 1:0.46 2:0.435 3:0.333 4:0 5:0.082 6:0.02 7:0.082 8:0.02 9:0.041 10:0.102 11:0.02 12:0.082 13:0 14:0 15:0.184 16:0.082 17:0.061 18:0.143 19:0.082 20:0 
256 1:0.46 2:0.435 3:0.333 4:0.041 5:0.02 6:0.082 7:0.041 8:0.082 9:0.02 10:0.02 11:0.082 12:0 13:0 14:0.102 15:0.143 16:0.061 17:0.163 18:0.061 19:0.082 20:0 
-256 1:0.46 2:0.435 3:0.333 4:0.041 5:0 6:0.061 7:0.082 8:0.061 9:0.02 10:0.061 11:0.061 12:0.041 13:0 14:0.143 15:0.061 16:0.041 17:0.184 18:0 19:0.143 20:0 
256 1:0.46 2:0.435 3:0.333 4:0 5:0.061 6:0.082 7:0.041 8:0.041 9:0.082 10:0.041 11:0.02 12:0.041 13:0.041 14:0 15:0.184 16:0.082 17:0.02 18:0.143 19:0.122 20:0 
89.30428538497318 1:0.46 2:0.435 3:0.333 4:0.02 5:0.02 6:0.041 7:0.082 8:0 9:0.061 10:0.102 11:0.041 12:0.02 13:0 14:0.02 15:0.224 16:0.143 17:0.122 18:0.082 19:0.02 20:0 
256 1:0.46 2:0.435 3:0.333 4:0 5:0.082 6:0.041 7:0.061 8:0.082 9:0.061 10:0 11:0.061 12:0.02 13:0.061 14:0.102 15:0.061 16:0.082 17:0 18:0.102 19:0.184 20:0 
245.6625691364638 1:0.46 2:0.435 3:0.333 4:0.082 5:0 6:0.041 7:0.041 8:0 9:0.041 10:0.041 11:0.122 12:0.102 13:0 14:0.061 15:0.102 16:0 17:0.163 18:0.122 19:0.082 20:0 
174.090328573518 1:0.46 2:0.435 3:0.333 4:0.041 5:0.061 6:0.082 7:0 8:0.082 9:0.041 10:0.061 11:0 12:0.041 13:0.061 14:0 15:0.163 16:0.02 17:0.041 18:0.122 19:0.184 20:0 
256 1:0.46 2:0.435 3:0.333 4:0.02 5:0.061 6:0.102 7:0 8:0.082 9:0.082 10:0.041 11:0 12:0.041 13:0.041 14:0.061 15:0.102 16:0.041 17:0.02 18:0.061 19:0.245 20:0 
-256 1:0.46 2:0.435 3:0.333 4:0.041 5:0.02 6:0.02 7:0.102 8:0.082 9:0.041 10:0.061 11:0.02 12:0 13:0.122 14:0.02 15:0.122 16:0.061 17:0 18:0.163 19:0.122 20:0 
-190.530750054481 1:0.46 2:0.435 3:0.333 4:0.02 5:0.02 6:0.041 7:0.102 8:0 9:0.061 10:0.082 11:0.061 12:0 13:0.102 14:0.061 15:0.082 16:0.163 17:0 18:0.082 19:0.122 20:0 
110.7096970849492 1:0.46 2:0.435 3:0.333 4:0.061 5:0.02 6:0 7:0.102 8:0.02 9:0.061 10:0.102 11:0.02 12:0 13:0.122 14:0.061 15:0.061 16:0.082 17:0 18:0.102 19:0.184 20:0 
256 1:0.46 2:0.435 3:0.333 4:0.02 5:0.02 6:0.102 7:0.041 8:0.02 9:0.061 10:0.082 11:0.02 12:0 13:0.102 14:0 15:0.163 16:0.143 17:0 18:0.082 19:0.143 20:0 
-256 1:0.46 2:0.522 3:0.333 4:0.02 5:0.041 6:0.041 7:0.082 8:0.041 9:0.061 10:0.082 11:0.041 12:0.041 13:0.041 14:0 15:0.143 16:0.082 17:0.102 18:0.102 19:0.082 20:0 
256 1:0.46 2:0.522 3:0.333 4:0 5:0.061 6:0.041 7:0.082 8:0.02 9:0.082 10:0.02 11:0.122 12:0.041 13:0 14:0.061 15:0.102 16:0.122 17:0.102 18:0.102 19:0.041 20:0 
-256 1:0.46 2:0.522 3:0.333 4:0 5:0.041 6:0.061 7:0.082 8:0.102 9:0.061 10:0 11:0.082 12:0 13:0.061 14:0.122 15:0.02 16:0.082 17:0.061 18:0.041 19:0.184 20:0 
256 1:0.46 2:0.522 3:0.333 4:0.082 5:0 6:0 7:0.102 8:0.02 9:0.061 10:0.102 11:0.061 12:0.02 13:0.041 14:0.041 15:0.102 16:0.061 17:0.143 18:0.061 19:0.102 20:0 
256 1:0.46 2:0.522 3:0.333 4:0.02 5:0.02 6:0.041 7:0.102 8:0.082 9:0.122 10:0.02 11:0.02 12:0.02 13:0.061 14:0.061 15:0.082 16:0.061 17:0.041 18:0.082 19:0.163 20:0 
-256 1:0.46 2:0.522 3:0.333 4:0.02 5:0.02 6:0.061 7:0.082 8:0.082 9:0.082 10:0.061 11:0.02 12:0.061 13:0.041 14:0.082 15:0.02 16:0 17:0.102 18:0.02 19:0.245 20:0 
256 1:0.46 2:0.522 3:0.333 4:0.041 5:0.041 6:0.041 7:0.041 8:0.041 9:0 10:0.082 11:0.122 12:0.082 13:0.082 14:0.041 15:0.02 16:0 17:0.122 18:0.061 19:0.184 20:0 
256 1:0.46 2:0.522 3:0.333 4:0 5:0.082 6:0.061 7:0.041 8:0.061 9:0 10:0.082 11:0.082 12:0.02 13:0.122 14:0.041 15:0.041 16:0.102 17:0.02 18:0.041 19:0.204 20:0 
-52.6592835680269 1:0.46 2:0.522 3:0.333 4:0.02 5:0 6:0.02 7:0.143 8:0.041 9:0.082 10:0.061 11:0.061 12:0.061 13:0 14:0.041 15:0.102 16:0.061 17:0.163 18:0.102 19:0.041 20:0 
-256 1:0.46 2:0.522 3:0.333 4:0.02 5:0.082 6:0.082 7:0 8:0.02 9:0.02 10:0.041 11:0.163 12:0 13:0.041 14:0.061 15:0.122 16:0.143 17:0.102 18:0.02 19:0.082 20:0 
256 1:0.46 2:0.522 3:0.333 4:0.02 5:0.082 6:0.061 7:0.02 8:0 9:0.061 10:0.02 11:0.163 12:0.041 13:0.041 14:0.082 15:0.061 16:0.122 17:0.041 18:0.061 19:0.122 20:0 
-256 1:0.46 2:0.522 3:0.333 4:0.041 5:0.02 6:0 7:0.122 8:0 9:0.122 10:0.02 11:0.102 12:0.02 13:0.041 14:0.122 15:0.02 16:0.122 17:0.041 18:0.082 19:0.122 20:0 
256 1:0.46 2:0.522 3:0.333 4:0 5:0.041 6:0.041 7:0.102 8:0.02 9:0.061 10:0 11:0.143 12:0.061 13:0.102 14:0 15:0.061 16:0.082 17:0.041 18:0.184 19:0.061 20:0 
-256 1:0.46 2:0.522 3:0.333 4:0.061 5:0.02 6:0.061 7:0.041 8:0 9:0.143 10:0.061 11:0.02 12:0.082 13:0.02 14:0 15:0.122 16:0.041 17:0.061 18:0.102 19:0.163 20:0 
103.6543838520849 1:0.46 2:0.522 3:0.333 4:0.02 5:0.041 6:0.041 7:0.082 8:0.061 9:0.061 10:0.061 11:0.041 12:0 13:0.122 14:0 15:0.102 16:0.102 17:0.02 18:0.122 19:0.122 20:0 
-256 1:0.46 2:0.522 3:0.333 4:0.02 5:0.02 6:0.061 7:0.082 8:0.02 9:0.061 10:0.02 11:0.122 12:0 13:0.041 14:0.122 15:0.061 16:0.143 17:0.122 18:0.02 19:0.082 20:0 
-256 1:0.46 2:0.522 3:0.333 4:0.041 5:0 6:0.061 7:0.061 8:0.041 9:0.02 10:0 11:0.184 12:0.061 13:0.102 14:0.02 15:0.041 16:0.041 17:0.122 18:0.143 19:0.061 20:0 
256 1:0.46 2:0.522 3:0.333 4:0.02 5:0.061 6:0 7:0.102 8:0.041 9:0.02 10:0.02 11:0.163 12:0.02 13:0.041 14:0.122 15:0.041 16:0.102 17:0.122 18:0.082 19:0.041 20:0 
-256 1:0.46 2:0.522 3:0.333 4:0 5:0.041 6:0.02 7:0.122 8:0.041 9:0.102 10:0.041 11:0.041 12:0.02 13:0.061 14:0 15:0.143 16:0.122 17:0.02 18:0.163 19:0.061 20:0 
-256 1:0.46 2:0.522 3:0.333 4:0.02 5:0.082 6:0.082 7:0 8:0 9:0.082 10:0.102 11:0.061 12:0.041 13:0 14:0.041 15:0.143 16:0.122 17:0.082 18:0 19:0.143 20:0 
-185.4101165601628 1:0.46 2:0.522 3:0.333 4:0 5:0.02 6:0 7:0.163 8:0.061 9:0 10:0.041 11:0.143 12:0.041 13:0.082 14:0.041 15:0.061 16:0.082 17:0.143 18:0.122 19:0 20:0 
-95.97797086317181 1:0.46 2:0.522 3:0.333 4:0.041 5:0.102 6:0.02 7:0.02 8:0.082 9:0.041 10:0.082 11:0.041 12:0 13:0.061 14:0.102 15:0.041 16:0.061 17:0.041 18:0 19:0.265 20:0 
-256 1:0.46 2:0.522 3:0.333 4:0 5:0 6:0.041 7:0.143 8:0.061 9:0.122 10:0.02 11:0.041 12:0 13:0.02 14:0.082 15:0.102 16:0.102 17:0.102 18:0.082 19:0.082 20:0 
-178.4118533158409 1:0.46 2:0.522 3:0.333 4:0.041 5:0 6:0.02 7:0.122 8:0.061 9:0.02 10:0.02 11:0.143 12:0.061 13:0.02 14:0.082 15:0.041 16:0.02 17:0.184 18:0.102 19:0.061 20:0 
-256 1:0.46 2:0.522 3:0.333 4:0 5:0.061 6:0 7:0.122 8:0.082 9:0.041 10:0.041 11:0.061 12:0.041 13:0.102 14:0 15:0.082 16:0.041 17:0.041 18:0.184 19:0.102 20:0 
-256 1:0.46 2:0.522 3:0.333 4:0.082 5:0.082 6:0 7:0.02 8:0 9:0.041 10:0.061 11:0.143 12:0.02 13:0 14:0.102 15:0.082 16:0.082 17:0.122 18:0.061 19:0.102 20:0 
-256 1:0.46 2:0.522 3:0.333 4:0.041 5:0.041 6:0.061 7:0.041 8:0.02 9:0.122 10:0 11:0.082 12:0.02 13:0 14:0.122 15:0.082 16:0.102 17:0.082 18:0.02 19:0.163 20:0 
-151.1872574433274 1:0.46 2:0.522 3:0.333 4:0.02 5:0.102 6:0.02 7:0.041 8:0.061 9:0.082 10:0.02 11:0.061 12:0.082 13:0.061 14:0 15:0.082 16:0.02 17:0 18:0.184 19:0.163 20:0 
-148.8337833190855 1:0.46 2:0.522 3:0.333 4:0.082 5:0.02 6:0.082 7:0 8:0.082 9:0.061 10:0 11:0.102 12:0 13:0.061 14:0.061 15:0.082 16:0.02 17:0.102 18:0.061 19:0.184 20:0 
106.3767965433782 1:0.46 2:0.565 3:0.333 4:0 5:0.061 6:0 7:0.122 8:0.041 9:0.041 10:0.122 11:0.061 12:0 13:0.061 14:0.082 15:0.041 16:0.143 17:0.082 18:0 19:0.143 20:0 
103.0093675299019 1:0.46 2:0.565 3:0.333 4:0.061 5:0 6:0.041 7:0.061 8:0.061 9:0.122 10:0.02 11:0.061 12:0.041 13:0 14:0 15:0.163 16:0.02 17:0.122 18:0.143 19:0.082 20:0 
256 1:0.46 2:0.565 3:0.333 4:0.061 5:0.02 6:0.02 7:0.082 8:0.041 9:0.082 10:0.041 11:0.102 12:0.02 13:0 14:0.082 15:0.082 16:0.061 17:0.163 18:0.061 19:0.082 20:0 
150.5319675828751 1:0.46 2:0.565 3:0.333 4:0.02 5:0 6:0.061 7:0.102 8:0.02 9:0.061 10:0.102 11:0.082 12:0 13:0.041 14:0 15:0.163 16:0.143 17:0.163 18:0.041 19:0 20:0 
-256 1:0.46 2:0.565 3:0.333 4:0.02 5:0.041 6:0.082 7:0.041 8:0.082 9:0.082 10:0.061 11:0.041 12:0.02 13:0.061 14:0.041 15:0.061 16:0.061 17:0.082 18:0 19:0.224 20:0 
-256 1:0.46 2:0.565 3:0.333 4:0.02 5:0.102 6:0.02 7:0.041 8:0.082 9:0.102 10:0 11:0.082 12:0.02 13:0 14:0.102 15:0.061 16:0.061 17:0.061 18:0.082 19:0.163 20:0 
231.6543273868467 1:0.46 2:0.565 3:0.333 4:0.02 5:0.082 6:0.02 7:0.061 8:0.061 9:0.082 10:0.061 11:0.061 12:0 13:0.02 14:0 15:0.184 16:0.082 17:0.082 18:0.122 19:0.061 20:0 
-256 1:0.46 2:0.565 3:0.333 4:0.061 5:0.102 6:0 7:0.02 8:0.082 9:0 10:0.061 11:0.102 12:0.02 13:0.082 14:0.082 15:0.02 16:0.02 17:0.082 18:0.061 19:0.204 20:0 
-219.9704891884406 1:0.46 2:0.565 3:0.333 4:0 5:0.02 6:0.02 7:0.143 8:0.02 9:0.082 10:0.082 11:0.082 12:0.02 13:0.122 14:0.041 15:0.02 16:0.143 17:0.041 18:0.061 19:0.102 20:0 
256 1:0.46 2:0.565 3:0.333 4:0.041 5:0 6:0.061 7:0.061 8:0.041 9:0.02 10:0.02 11:0.184 12:0.041 13:0.061 14:0.061 15:0.041 16:0.061 17:0.184 18:0.061 19:0.061 20:0 
-256 1:0.46 2:0.565 3:0.333 4:0.02 5:0.02 6:0.082 7:0.061 8:0.041 9:0.143 10:0.061 11:0 12:0.082 13:0.041 14:0 15:0.082 16:0.02 17:0.061 18:0.061 19:0.224 20:0 
-118.4797589051244 1:0.46 2:0.565 3:0.333 4:0.02 5:0.082 6:0.061 7:0.02 8:0.041 9:0.02 10:0.082 11:0.102 12:0.02 13:0 14:0 15:0.184 16:0.102 17:0.163 18:0.041 19:0.061 20:0 
-93.51902966188784 1:0.46 2:0.565 3:0.333 4:0.061 5:0.02 6:0.041 7:0.061 8:0.082 9:0.122 10:0 11:0.041 12:0.02 13:0.102 14:0 15:0.082 16:0.02 17:0.02 18:0.143 19:0.184 20:0 
-256 1:0.46 2:0.565 3:0.333 4:0.082 5:0.02 6:0.041 7:0.041 8:0.041 9:0.102 10:0.061 11:0.061 12:0 13:0.02 14:0.102 15:0.061 16:0.061 17:0.122 18:0 19:0.184 20:0 
256 1:0.46 2:0.565 3:0.333 4:0.02 5:0.02 6:0.041 7:0.102 8:0.02 9:0.082 10:0.02 11:0.122 12:0 13:0.122 14:0 15:0.082 16:0.122 17:0.041 18:0.143 19:0.061 20:0 
-256 1:0.46 2:0.565 3:0.333 4:0.061 5:0.061 6:0.061 7:0 8:0 9:0.122 10:0.041 11:0.102 12:0.02 13:0 14:0.061 15:0.102 16:0.102 17:0.061 18:0.041 19:0.163 20:0 
-256 1:0.46 2:0.565 3:0.333 4:0.082 5:0.02 6:0 7:0.061 8:0 9:0.143 10:0.061 11:0.061 12:0.061 13:0.041 14:0 15:0.102 16:0.041 17:0.041 18:0.143 19:0.143 20:0 
-48.02458311892391 1:0.46 2:0.565 3:0.333 4:0 5:0.061 6:0.02 7:0.082 8:0 9:0.143 10:0.082 11:0.041 12:0.082 13:0 14:0.082 15:0.041 16:0.102 17:0.061 18:0 19:0.204 20:0 
256 1:0.46 2:0.565 3:0.333 4:0 5:0.082 6:0.041 7:0.041 8:0.02 9:0.041 10:0.122 11:0.082 12:0 13:0.082 14:0 15:0.122 16:0.163 17:0.041 18:0.041 19:0.122 20:0 
74.26539859431088 1:0.46 2:0.565 3:0.333 4:0.02 5:0.102 6:0.061 7:0 8:0.082 9:0.082 10:0.102 11:0 12:0.041 13:0.041 14:0 15:0.122 16:0.041 17:0.041 18:0.041 19:0.224 20:0 
58.72967930970209 1:0.46 2:0.565 3:0.333 4:0.02 5:0.061 6:0 7:0.102 8:0.102 9:0.02 10:0.122 11:0 12:0.041 13:0.082 14:0.041 15:0.041 16:0.02 17:0.082 18:0.041 19:0.224 20:0 
-216.6870007517245 1:0.46 2:0.565 3:0.333 4:0.02 5:0.061 6:0.041 7:0.061 8:0.061 9:0.082 10:0.122 11:0 12:0 13:0.102 14:0.02 15:0.061 16:0.102 17:0.02 18:0.02 19:0.224 20:0 
244.6065879539496 1:0.46 2:0.565 3:0.333 4:0.041 5:0.02 6:0 7:0.122 8:0.102 9:0.061 10:0.061 11:0.041 12:0 13:0.102 14:0 15:0.082 16:0.02 17:0.082 18:0.143 19:0.122 20:0 
-256 1:0.46 2:0.565 3:0.333 4:0 5:0.061 6:0.02 7:0.102 8:0.061 9:0.061 10:0 11:0.122 12:0.02 13:0.041 14:0.02 15:0.122 16:0.102 17:0.102 18:0.163 19:0 20:0 
256 1:0.46 2:0.565 3:0.333 4:0.061 5:0.082 6:0.02 7:0.02 8:0 9:0.041 10:0.02 11:0.184 12:0 13:0.02 14:0.041 15:0.143 16:0.122 17:0.122 18:0.102 19:0.02 20:0 
256 1:0.46 2:0.565 3:0.333 4:0 5:0.02 6:0.02 7:0.122 8:0 9:0.122 10:0.041 11:0.102 12:0.041 13:0.02 14:0.102 15:0.041 16:0.143 17:0.102 18:0.041 19:0.082 20:0 
-217.4650901191599 1:0.46 2:0.565 3:0.333 4:0.041 5:0.082 6:0.041 7:0.02 8:0.082 9:0.061 10:0 11:0.122 12:0.061 13:0 14:0.02 15:0.102 16:0 17:0.122 18:0.143 19:0.102 20:0 
56.83130013378137 1:0.46 2:0.609 3:0.333 4:0.041 5:0.041 6:0.02 7:0.082 8:0.041 9:0.122 10:0.061 11:0.061 12:0.041 13:0.041 14:0.061 15:0.041 16:0.061 17:0.061 18:0.041 19:0.184 20:0 
-256 1:0.46 2:0.609 3:0.333 4:0 5:0.102 6:0.041 7:0.041 8:0.082 9:0.061 10:0.061 11:0.082 12:0.041 13:0.082 14:0.02 15:0.02 16:0.061 17:0.041 18:0.061 19:0.204 20:0 
256 1:0.46 2:0.609 3:0.333 4:0.041 5:0.102 6:0 7:0.041 8:0.102 9:0.02 10:0.082 11:0.061 12:0.02 13:0.041 14:0.061 15:0.061 16:0.02 17:0.102 18:0.041 19:0.204 20:0 
-256 1:0.46 2:0.609 3:0.333 4:0.02 5:0.02 6:0.041 7:0.102 8:0.122 9:0.041 10:0.082 11:0.02 12:0.02 13:0.061 14:0 15:0.102 16:0.02 17:0.143 18:0.061 19:0.143 20:0 
-38.90114149631327 1:0.46 2:0.609 3:0.333 4:0 5:0.041 6:0.02 7:0.122 8:0.041 9:0.061 10:0.02 11:0.163 12:0.061 13:0 14:0.061 15:0.061 16:0.082 17:0.163 18:0.082 19:0.02 20:0 
-256 1:0.46 2:0.609 3:0.333 4:0.02 5:0 6:0.041 7:0.122 8:0 9:0.122 10:0 11:0.163 12:0.041 13:0.061 14:0.061 15:0 16:0.122 17:0.102 18:0.061 19:0.082 20:0 
-256 1:0.46 2:0.609 3:0.333 4:0 5:0.061 6:0.061 7:0.061 8:0.122 9:0.102 10:0 11:0.041 12:0 13:0.082 14:0.02 15:0.082 16:0.061 17:0.041 18:0.102 19:0.163 20:0 
209.5582586674223 1:0.46 2:0.609 3:0.333 4:0.041 5:0.122 6:0 7:0.02 8:0 9:0.041 10:0.122 11:0.102 12:0.041 13:0.061 14:0.041 15:0.041 16:0.102 17:0.061 18:0 19:0.204 20:0 
-36.19802076856831 1:0.46 2:0.609 3:0.333 4:0.02 5:0.082 6:0.02 7:0.041 8:0.02 9:0.041 10:0.02 11:0.204 12:0.082 13:0.02 14:0 15:0.082 16:0.061 17:0.143 18:0.143 19:0.02 20:0 
-34.5210155822783 1:0.46 2:0.609 3:0.333 4:0.041 5:0.082 6:0.041 7:0.02 8:0.061 9:0.041 10:0.041 11:0.122 12:0.082 13:0.02 14:0.02 15:0.061 16:0 17:0.143 18:0.061 19:0.163 20:0 
256 1:0.46 2:0.609 3:0.333 4:0.082 5:0 6:0.02 7:0.082 8:0.041 9:0.041 10:0.082 11:0.102 12:0.061 13:0.102 14:0 15:0.02 16:0 17:0.143 18:0.082 19:0.143 20:0 
-256 1:0.46 2:0.609 3:0.333 4:0.02 5:0.061 6:0.082 7:0.02 8:0.041 9:0.143 10:0.041 11:0.041 12:0.041 13:0.041 14:0 15:0.102 16:0.082 17:0.02 18:0.061 19:0.204 20:0 
256 1:0.46 2:0.609 3:0.333 4:0.02 5:0.061 6:0.082 7:0.02 8:0.061 9:0.082 10:0.061 11:0.061 12:0.061 13:0.041 14:0.02 15:0.061 16:0.041 17:0.102 18:0 19:0.224 20:0 
-245.5472470523625 1:0.46 2:0.609 3:0.333 4:0.02 5:0 6:0 7:0.163 8:0.041 9:0.082 10:0.082 11:0.061 12:0.061 13:0.102 14:0 15:0.02 16:0.061 17:0.102 18:0.102 19:0.102 20:0 
256 1:0.46 2:0.609 3:0.333 4:0.082 5:0.041 6:0.02 7:0.041 8:0.061 9:0.102 10:0.02 11:0.082 12:0.041 13:0.122 14:0 15:0.02 16:0 17:0 18:0.143 19:0.224 20:0 
-256 1:0.46 2:0.609 3:0.333 4:0.082 5:0.082 6:0.02 7:0 8:0.041 9:0.082 10:0.102 11:0.041 12:0.02 13:0.082 14:0 15:0.082 16:0.041 17:0.041 18:0.061 19:0.224 20:0 
-77.89276980762412 1:0.46 2:0.609 3:0.333 4:0.02 5:0 6:0.02 7:0.143 8:0.02 9:0.102 10:0.122 11:0.02 12:0.082 13:0.082 14:0 15:0.02 16:0.061 17:0.082 18:0.041 19:0.184 20:0 
256 1:0.46 2:0.609 3:0.333 4:0.041 5:0.082 6:0.02 7:0.041 8:0.041 9:0.061 10:0 11:0.184 12:0.082 13:0 14:0.061 15:0.02 16:0.02 17:0.143 18:0.102 19:0.102 20:0 
-4.018617279867573 1:0.46 2:0.609 3:0.333 4:0.041 5:0.122 6:0 7:0 8:0 9:0.082 10:0.061 11:0.143 12:0.041 13:0 14:0.061 15:0.082 16:0.082 17:0.082 18:0.061 19:0.143 20:0 
-256 1:0.46 2:0.609 3:0.333 4:0 5:0.02 6:0.082 7:0.082 8:0.102 9:0.102 10:0.061 11:0.02 12:0 13:0.061 14:0.02 15:0.082 16:0.082 17:0.082 18:0.02 19:0.184 20:0 
-256 1:0.46 2:0.609 3:0.333 4:0 5:0.102 6:0.02 7:0.061 8:0.02 9:0.082 10:0.02 11:0.163 12:0 13:0.082 14:0.061 15:0.02 16:0.163 17:0.02 18:0.061 19:0.122 20:0 
220.285067931641 1:0.46 2:0.609 3:0.333 4:0.02 5:0 6:0.082 7:0.082 8:0 9:0.122 10:0.02 11:0.122 12:0.02 13:0.102 14:0 15:0.061 16:0.143 17:0.061 18:0.061 19:0.102 20:0 
-256 1:0.46 2:0.609 3:0.333 4:0.041 5:0.122 6:0 7:0.02 8:0.102 9:0.061 10:0.061 11:0.041 12:0.02 13:0 14:0 15:0.163 16:0 17:0.102 18:0.122 19:0.143 20:0 
