svm_type nu_svr
kernel_type rbf
gamma 3
nr_class 2
total_sv 6374
rho 2.57923
SV
80.78203867551342 1:0.66 2:0.212 3:0.176 4:0 5:0 6:0.041 7:0.02 8:0.02 9:0 10:0.041 11:0.082 12:0.02 13:0.143 14:0.265 15:0.102 16:0.02 17:0 18:0.163 19:0.082 20:0 
120.7763646489031 1:0.66 2:0.212 3:0.176 4:0 5:0 6:0.061 7:0 8:0 9:0 10:0.143 11:0 12:0.041 13:0.122 14:0.224 15:0.122 16:0.02 17:0 18:0.102 19:0.163 20:0 
12.56246920394235 1:0.66 2:0.212 3:0.176 4:0 5:0 6:0.061 7:0 8:0 9:0 10:0.122 11:0.02 12:0.061 13:0.082 14:0.122 15:0.265 16:0 17:0.061 18:0.204 19:0 20:0 
13.42372206359554 1:0.66 2:0.212 3:0.176 4:0 5:0.02 6:0.02 7:0.02 8:0 9:0 10:0.143 11:0 12:0 13:0.122 14:0.184 15:0.224 16:0.041 17:0 18:0.184 19:0.041 20:0 
56.77926203948236 1:0.66 2:0.242 3:0.176 4:0 5:0.02 6:0 7:0.041 8:0.02 9:0.041 10:0.082 11:0 12:0.041 13:0.102 14:0.245 15:0.122 16:0 17:0 18:0.184 19:0.102 20:0 
-125.8562277659987 1:0.66 2:0.242 3:0.176 4:0 5:0.02 6:0 7:0.041 8:0 9:0.061 10:0.082 11:0.02 12:0.061 13:0.02 14:0.245 15:0.184 16:0 17:0.041 18:0.184 19:0.041 20:0 
39.22980559639709 1:0.66 2:0.242 3:0.176 4:0 5:0.02 6:0.02 7:0.02 8:0.02 9:0 10:0.061 11:0.082 12:0.041 13:0.143 14:0.163 15:0.143 16:0 17:0 18:0.265 19:0.02 20:0 
-111.7082291922917 1:0.66 2:0.242 3:0.176 4:0 5:0.02 6:0 7:0.041 8:0.02 9:0.02 10:0 11:0.102 12:0 13:0.102 14:0.327 15:0.082 16:0.041 17:0.02 18:0.163 19:0.061 20:0 
-141.0824008704579 1:0.66 2:0.242 3:0.176 4:0 5:0 6:0.061 7:0 8:0 9:0.061 10:0 11:0.102 12:0.02 13:0 14:0.327 15:0.163 16:0.041 17:0.102 18:0.102 19:0.02 20:0 
13.1103040785015 1:0.66 2:0.242 3:0.176 4:0 5:0 6:0.061 7:0 8:0 9:0 10:0.122 11:0.041 12:0.061 13:0.143 14:0.082 15:0.204 16:0 17:0 18:0.245 19:0.041 20:0 
-33.95223518291757 1:0.66 2:0.242 3:0.176 4:0 5:0.02 6:0.041 7:0 8:0.02 9:0.061 10:0.082 11:0 12:0 13:0.061 14:0.245 15:0.204 16:0.041 17:0 18:0.143 19:0.082 20:0 
-23.91667783447452 1:0.66 2:0.303 3:0.176 4:0 5:0.02 6:0.02 7:0.02 8:0 9:0.02 10:0.122 11:0.061 12:0.061 13:0.102 14:0.143 15:0.143 16:0 17:0.061 18:0.163 19:0.061 20:0 
-390.9844297365384 1:0.66 2:0.303 3:0.176 4:0 5:0.02 6:0.041 7:0 8:0 9:0.102 10:0.061 11:0.041 12:0.041 13:0.082 14:0.163 15:0.163 16:0.02 17:0 18:0.204 19:0.061 20:0 
377.3318493612724 1:0.66 2:0.303 3:0.176 4:0 5:0 6:0.02 7:0.041 8:0 9:0.041 10:0.061 11:0.102 12:0.041 13:0.143 14:0.143 15:0.122 16:0.02 17:0.02 18:0.224 19:0.02 20:0 
85.93725729275842 1:0.66 2:0.303 3:0.176 4:0 5:0.02 6:0 7:0.041 8:0.02 9:0.061 10:0.02 11:0.082 12:0 13:0.02 14:0.306 15:0.143 16:0.02 17:0.102 18:0.143 19:0.02 20:0 
52.7206794332465 1:0.66 2:0.303 3:0.176 4:0 5:0 6:0.061 7:0 8:0.02 9:0.041 10:0.102 11:0.02 12:0 13:0.143 14:0.102 15:0.224 16:0.041 17:0.02 18:0.184 19:0.041 20:0 
-27.74028277723093 1:0.66 2:0.303 3:0.176 4:0 5:0 6:0.02 7:0.041 8:0 9:0.102 10:0.041 11:0.061 12:0.061 13:0.102 14:0.224 15:0.061 16:0 17:0 18:0.184 19:0.102 20:0 
289.9903932438438 1:0.66 2:0.364 3:0.176 4:0 5:0.02 6:0.02 7:0.02 8:0.02 9:0.061 10:0.061 11:0.082 12:0.02 13:0.02 14:0.265 15:0.122 16:0.02 17:0.143 18:0.082 19:0.041 20:0 
-71.12174270835021 1:0.66 2:0.364 3:0.176 4:0 5:0.02 6:0.041 7:0 8:0.02 9:0.061 10:0.163 11:0 12:0.02 13:0.02 14:0.143 15:0.224 16:0.02 17:0.143 18:0.061 19:0.061 20:0 
-50.43699991634223 1:0.66 2:0.364 3:0.176 4:0 5:0 6:0.061 7:0 8:0 9:0.02 10:0.102 11:0.122 12:0.02 13:0.224 14:0.102 15:0.061 16:0.041 17:0 18:0.163 19:0.082 20:0 
267.3404801696965 1:0.66 2:0.364 3:0.176 4:0 5:0 6:0.061 7:0 8:0 9:0.122 10:0.082 11:0.041 12:0.061 13:0.102 14:0.184 15:0.061 16:0 17:0.02 18:0.102 19:0.163 20:0 
-256.8699290180494 1:0.66 2:0.364 3:0.176 4:0 5:0.02 6:0 7:0.041 8:0 9:0.041 10:0.102 11:0.102 12:0.061 13:0.041 14:0.184 15:0.122 16:0 17:0.143 18:0.122 19:0.02 20:0 
-1.966300875765059 1:0.66 2:0.364 3:0.176 4:0 5:0.02 6:0 7:0.02 8:0 9:0 10:0.224 11:0.02 12:0.061 13:0.163 14:0.02 15:0.184 16:0 17:0.041 18:0.184 19:0.061 20:0 
-55.11568532132161 1:0.66 2:0.364 3:0.176 4:0 5:0 6:0.041 7:0.02 8:0 9:0 10:0.224 11:0.02 12:0.061 13:0.184 14:0.041 15:0.122 16:0 17:0.061 18:0.102 19:0.122 20:0 
474.0106150806338 1:0.66 2:0.364 3:0.176 4:0 5:0 6:0.061 7:0 8:0.02 9:0.143 10:0.061 11:0.02 12:0.02 13:0.041 14:0.245 15:0.102 16:0.02 17:0.061 18:0.061 19:0.143 20:0 
-43.92825041626008 1:0.66 2:0.364 3:0.176 4:0 5:0 6:0.061 7:0 8:0.02 9:0.082 10:0.082 11:0.061 12:0 13:0.02 14:0.204 15:0.204 16:0.041 17:0.143 18:0.061 19:0.02 20:0 
-512 1:0.66 2:0.394 3:0.176 4:0 5:0 6:0.061 7:0 8:0.02 9:0.102 10:0.061 11:0.061 12:0 13:0.041 14:0.224 15:0.143 16:0.041 17:0.102 18:0.061 19:0.082 20:0 
195.3214861767864 1:0.66 2:0.394 3:0.176 4:0 5:0 6:0.02 7:0.041 8:0 9:0.163 10:0.02 11:0.082 12:0.041 13:0.02 14:0.265 15:0.061 16:0.02 17:0.061 18:0.102 19:0.102 20:0 
112.5706598267005 1:0.66 2:0.394 3:0.176 4:0 5:0.02 6:0.02 7:0.02 8:0.02 9:0 10:0.204 11:0.041 12:0.02 13:0.041 14:0.184 15:0.163 16:0.02 17:0.184 18:0 19:0.061 20:0 
-512 1:0.66 2:0.394 3:0.176 4:0 5:0.02 6:0 7:0.041 8:0 9:0.122 10:0.082 11:0.061 12:0.041 13:0.102 14:0.204 15:0.041 16:0.02 17:0.02 18:0.102 19:0.143 20:0 
-2.673633443320105 1:0.66 2:0.394 3:0.176 4:0 5:0.02 6:0.041 7:0 8:0 9:0.163 10:0.061 11:0.041 12:0.061 13:0.082 14:0.143 15:0.102 16:0 17:0 18:0.143 19:0.143 20:0 
-123.534212746722 1:0.66 2:0.394 3:0.176 4:0 5:0.02 6:0 7:0.041 8:0.02 9:0.102 10:0.061 11:0.061 12:0 13:0.02 14:0.224 15:0.163 16:0.041 17:0.122 18:0.122 19:0 20:0 
-203.6742163491537 1:0.66 2:0.394 3:0.176 4:0 5:0 6:0.041 7:0.02 8:0.02 9:0.061 10:0.102 11:0.082 12:0.041 13:0.204 14:0.061 15:0.082 16:0 17:0 18:0.184 19:0.102 20:0 
-118.9426197456822 1:0.66 2:0.394 3:0.176 4:0 5:0 6:0.061 7:0 8:0 9:0 10:0.163 11:0.102 12:0.041 13:0.102 14:0.122 15:0.122 16:0 17:0.163 18:0.061 19:0.061 20:0 
512 1:0.66 2:0.394 3:0.176 4:0 5:0 6:0.041 7:0.02 8:0.02 9:0.163 10:0.02 11:0.041 12:0 13:0.041 14:0.204 15:0.163 16:0.041 17:0.041 18:0.143 19:0.061 20:0 
6.152879322738349 1:0.66 2:0.394 3:0.176 4:0 5:0.02 6:0.041 7:0 8:0.02 9:0.122 10:0.041 11:0.082 12:0.041 13:0.082 14:0.082 15:0.204 16:0 17:0.02 18:0.245 19:0 20:0 
-3.547226874541746 1:0.66 2:0.394 3:0.176 4:0 5:0.02 6:0.041 7:0 8:0.02 9:0.061 10:0.184 11:0 12:0.02 13:0.184 14:0.102 15:0.102 16:0.02 17:0 18:0.061 19:0.184 20:0 
235.1625232295577 1:0.66 2:0.455 3:0.176 4:0 5:0 6:0.02 7:0.041 8:0 9:0.102 10:0.122 11:0.061 12:0.041 13:0.143 14:0.143 15:0.041 16:0.02 17:0.041 18:0.082 19:0.143 20:0 
-203.1141221369815 1:0.66 2:0.455 3:0.176 4:0 5:0 6:0.041 7:0.02 8:0.041 9:0.02 10:0.143 11:0.102 12:0 13:0.082 14:0.143 15:0.122 16:0.02 17:0.204 18:0.041 19:0.02 20:0 
252.9967550431952 1:0.66 2:0.455 3:0.176 4:0 5:0 6:0.02 7:0.041 8:0 9:0.122 10:0.082 11:0.082 12:0.02 13:0.143 14:0.061 15:0.143 16:0.041 17:0.02 18:0.204 19:0.02 20:0 
512 1:0.66 2:0.455 3:0.176 4:0 5:0.041 6:0.02 7:0 8:0.02 9:0.041 10:0.102 11:0.143 12:0.02 13:0.061 14:0.204 15:0.061 16:0.02 17:0.163 18:0.02 19:0.082 20:0 
118.4902320238688 1:0.66 2:0.455 3:0.176 4:0 5:0 6:0.041 7:0.02 8:0 9:0.163 10:0.122 11:0.02 12:0.041 13:0.061 14:0.102 15:0.143 16:0 17:0.082 18:0.102 19:0.102 20:0 
-235.280876420961 1:0.66 2:0.455 3:0.176 4:0 5:0.02 6:0.041 7:0 8:0 9:0.02 10:0.082 11:0.204 12:0.041 13:0.061 14:0.163 15:0.082 16:0.02 17:0.204 18:0.061 19:0 20:0 
134.5560080469058 1:0.66 2:0.455 3:0.176 4:0 5:0 6:0.041 7:0.02 8:0.041 9:0.122 10:0.061 11:0.061 12:0 13:0.061 14:0.245 15:0.061 16:0.02 17:0.122 18:0 19:0.143 20:0 
248.4248041527504 1:0.66 2:0.455 3:0.176 4:0 5:0.02 6:0.041 7:0 8:0.02 9:0.163 10:0.102 11:0 12:0.041 13:0.102 14:0.122 15:0.102 16:0 17:0 18:0.102 19:0.184 20:0 
-198.1432087020115 1:0.66 2:0.455 3:0.176 4:0 5:0.02 6:0.041 7:0 8:0.041 9:0.02 10:0.061 11:0.184 12:0.02 13:0.184 14:0.122 15:0.02 16:0 17:0.061 18:0.143 19:0.082 20:0 
-390.7204805976385 1:0.66 2:0.455 3:0.176 4:0 5:0.041 6:0 7:0.02 8:0.02 9:0.184 10:0.041 11:0.061 12:0.02 13:0 14:0.265 15:0.082 16:0.02 17:0.082 18:0.041 19:0.122 20:0 
60.58015527979013 1:0.66 2:0.455 3:0.176 4:0 5:0 6:0.02 7:0.02 8:0 9:0 10:0.143 11:0.163 12:0.02 13:0.245 14:0.041 15:0.061 16:0.02 17:0.061 18:0.163 19:0.041 20:0 
-248.0447818883752 1:0.66 2:0.455 3:0.176 4:0 5:0 6:0 7:0.041 8:0.041 9:0.082 10:0.082 11:0.102 12:0 13:0.02 14:0.245 15:0.102 16:0.02 17:0.204 18:0.02 19:0.041 20:0 
-512 1:0.66 2:0.515 3:0.176 4:0 5:0 6:0.041 7:0.02 8:0.02 9:0.184 10:0.061 11:0.082 12:0.02 13:0.122 14:0.082 15:0.082 16:0.02 17:0.041 18:0.122 19:0.102 20:0 
-512 1:0.66 2:0.515 3:0.176 4:0 5:0 6:0.02 7:0.041 8:0.02 9:0.163 10:0.082 11:0.082 12:0 13:0.082 14:0.184 15:0.041 16:0.02 17:0.102 18:0.041 19:0.122 20:0 
-395.2305763734022 1:0.66 2:0.515 3:0.176 4:0 5:0.041 6:0.02 7:0 8:0.02 9:0.102 10:0.122 11:0.082 12:0.02 13:0.163 14:0.082 15:0.061 16:0.02 17:0.041 18:0.082 19:0.143 20:0 
-512 1:0.66 2:0.515 3:0.176 4:0 5:0.02 6:0 7:0.041 8:0 9:0.143 10:0.061 11:0.143 12:0.02 13:0.102 14:0.143 15:0.041 16:0.041 17:0.061 18:0.122 19:0.061 20:0 
512 1:0.66 2:0.515 3:0.176 4:0 5:0.041 6:0.02 7:0 8:0.041 9:0.102 10:0.122 11:0.082 12:0 13:0.041 14:0.143 15:0.143 16:0.02 17:0.163 18:0.02 19:0.061 20:0 
512 1:0.66 2:0.515 3:0.176 4:0 5:0.02 6:0.02 7:0.02 8:0.041 9:0.082 10:0.061 11:0.143 12:0 13:0.184 14:0.143 15:0 16:0.02 17:0.061 18:0.102 19:0.102 20:0 
-96.52703014001774 1:0.66 2:0.515 3:0.176 4:0 5:0.041 6:0 7:0.02 8:0 9:0.02 10:0.184 11:0.143 12:0.02 13:0.163 14:0.041 15:0.102 16:0.041 17:0.102 18:0.102 19:0.02 20:0 
-284.548385915319 1:0.66 2:0.515 3:0.176 4:0 5:0.041 6:0 7:0.02 8:0.041 9:0.163 10:0.02 11:0.102 12:0.02 13:0.102 14:0.184 15:0.02 16:0 17:0.02 18:0.122 19:0.143 20:0 
-512 1:0.66 2:0.515 3:0.176 4:0 5:0.02 6:0.02 7:0.02 8:0.02 9:0.082 10:0.02 11:0.204 12:0.02 13:0.122 14:0.184 15:0 16:0 17:0.122 18:0.102 19:0.061 20:0 
-315.6067785570739 1:0.66 2:0.515 3:0.176 4:0 5:0.02 6:0.041 7:0 8:0.041 9:0.184 10:0.082 11:0.02 12:0 13:0.02 14:0.184 15:0.122 16:0.02 17:0.122 18:0.02 19:0.122 20:0 
-141.1582136680068 1:0.66 2:0.515 3:0.176 4:0 5:0.041 6:0 7:0.02 8:0.02 9:0.224 10:0.061 11:0.041 12:0.041 13:0 14:0.082 15:0.184 16:0 17:0.082 18:0.184 19:0.02 20:0 
-45.76516684041466 1:0.66 2:0.515 3:0.176 4:0 5:0 6:0.02 7:0.041 8:0.041 9:0.02 10:0.082 11:0.184 12:0 13:0.143 14:0.143 15:0.041 16:0.02 17:0.184 18:0.061 19:0.02 20:0 
338.3756067084732 1:0.66 2:0.515 3:0.176 4:0 5:0.041 6:0 7:0 8:0 9:0.163 10:0.184 11:0 12:0.02 13:0.041 14:0.041 15:0.224 16:0.02 17:0.102 18:0.102 19:0.061 20:0 
-417.07365673865 1:0.66 2:0.545 3:0.176 4:0 5:0.041 6:0.02 7:0 8:0.02 9:0.102 10:0.122 11:0.102 12:0.02 13:0.102 14:0.122 15:0.061 16:0.02 17:0.122 18:0.041 19:0.102 20:0 
512 1:0.66 2:0.545 3:0.176 4:0 5:0 6:0.041 7:0.02 8:0 9:0.204 10:0.082 11:0.082 12:0.02 13:0.102 14:0.082 15:0.082 16:0.041 17:0.041 18:0.102 19:0.102 20:0 
512 1:0.66 2:0.545 3:0.176 4:0 5:0.02 6:0.041 7:0 8:0.02 9:0.143 10:0.082 11:0.122 12:0 13:0.204 14:0.02 15:0.061 16:0.041 17:0 18:0.163 19:0.082 20:0 
377.3833753317161 1:0.66 2:0.545 3:0.176 4:0 5:0.02 6:0 7:0.041 8:0.02 9:0.143 10:0.082 11:0.122 12:0.041 13:0.02 14:0.163 15:0.061 16:0 17:0.184 18:0.041 19:0.061 20:0 
512 1:0.66 2:0.545 3:0.176 4:0 5:0.02 6:0.041 7:0 8:0.041 9:0.122 10:0.041 11:0.163 12:0.02 13:0.163 14:0.102 15:0 16:0 17:0.061 18:0.122 19:0.102 20:0 
351.7155708818214 1:0.66 2:0.545 3:0.176 4:0 5:0.02 6:0.041 7:0 8:0.02 9:0.041 10:0.184 11:0.102 12:0 13:0.184 14:0.041 15:0.082 16:0.041 17:0.102 18:0.041 19:0.102 20:0 
512 1:0.66 2:0.545 3:0.176 4:0 5:0.02 6:0 7:0.041 8:0 9:0.184 10:0.102 11:0.082 12:0.02 13:0.102 14:0.143 15:0.02 16:0.041 17:0.061 18:0.041 19:0.143 20:0 
102.4163435157748 1:0.66 2:0.545 3:0.176 4:0 5:0.02 6:0.02 7:0.02 8:0.02 9:0.041 10:0.204 11:0.082 12:0.041 13:0.204 14:0.061 15:0 16:0 17:0.102 18:0.02 19:0.163 20:0 
512 1:0.66 2:0.545 3:0.176 4:0 5:0.02 6:0 7:0.041 8:0.041 9:0.163 10:0.041 11:0.122 12:0.02 13:0.061 14:0.122 15:0.082 16:0 17:0.102 18:0.143 19:0.041 20:0 
-1.996091153707391 1:0.66 2:0.545 3:0.176 4:0 5:0.041 6:0 7:0 8:0.041 9:0.143 10:0.143 11:0.041 12:0.02 13:0.041 14:0.143 15:0.102 16:0 17:0.143 18:0 19:0.143 20:0 
-205.5605981046088 1:0.66 2:0.545 3:0.176 4:0 5:0 6:0.02 7:0.041 8:0 9:0.082 10:0.143 11:0.122 12:0 13:0.224 14:0.082 15:0 16:0.041 17:0.061 18:0.061 19:0.122 20:0 
512 1:0.66 2:0.545 3:0.176 4:0 5:0.02 6:0.02 7:0.02 8:0.02 9:0.204 10:0.061 11:0.082 12:0.041 13:0.02 14:0.184 15:0.041 16:0 17:0.122 18:0.02 19:0.143 20:0 
310.6624139574441 1:0.66 2:0.545 3:0.176 4:0 5:0.041 6:0 7:0.02 8:0 9:0.041 10:0.143 11:0.163 12:0.041 13:0.122 14:0.061 15:0.082 16:0.02 17:0.143 18:0.102 19:0.02 20:0 
-512 1:0.66 2:0.545 3:0.176 4:0 5:0 6:0.02 7:0.041 8:0.02 9:0.224 10:0.122 11:0 12:0.041 13:0.041 14:0.102 15:0.102 16:0 17:0.082 18:0.061 19:0.143 20:0 
512 1:0.66 2:0.545 3:0.176 4:0 5:0.041 6:0.02 7:0 8:0.02 9:0.102 10:0.184 11:0.041 12:0 13:0.204 14:0 15:0.102 16:0.02 17:0.02 18:0.102 19:0.143 20:0 
282.0916866436378 1:0.66 2:0.545 3:0.176 4:0 5:0.02 6:0.02 7:0 8:0 9:0.061 10:0.143 11:0.163 12:0.041 13:0.041 14:0.122 15:0.102 16:0.02 17:0.224 18:0.02 19:0.02 20:0 
-11.61232442231822 1:0.66 2:0.545 3:0.176 4:0 5:0 6:0.02 7:0.041 8:0 9:0 10:0.184 11:0.184 12:0.02 13:0.184 14:0.061 15:0.041 16:0.02 17:0.184 18:0.041 19:0.02 20:0 
-512 1:0.66 2:0.606 3:0.176 4:0 5:0.041 6:0 7:0.02 8:0.02 9:0.102 10:0.163 11:0.102 12:0.02 13:0.102 14:0.02 15:0.122 16:0.02 17:0.163 18:0.061 19:0.041 20:0 
415.8416427835265 1:0.66 2:0.606 3:0.176 4:0 5:0.061 6:0 7:0 8:0.041 9:0.163 10:0.122 11:0.061 12:0 13:0.082 14:0.061 15:0.122 16:0.02 17:0.082 18:0.082 19:0.102 20:0 
-509.7097851331411 1:0.66 2:0.606 3:0.176 4:0 5:0.061 6:0 7:0 8:0.02 9:0.163 10:0.082 11:0.143 12:0.02 13:0.082 14:0.102 15:0.041 16:0.02 17:0.102 18:0.082 19:0.082 20:0 
-97.41028975809778 1:0.66 2:0.606 3:0.176 4:0 5:0.02 6:0 7:0.041 8:0.061 9:0.163 10:0.122 11:0.061 12:0 13:0.061 14:0.102 15:0.082 16:0 17:0.163 18:0.041 19:0.082 20:0 
-512 1:0.66 2:0.606 3:0.176 4:0 5:0.02 6:0.02 7:0.02 8:0 9:0.265 10:0.02 11:0.122 12:0.02 13:0.082 14:0.061 15:0.082 16:0.041 17:0.02 18:0.163 19:0.061 20:0 
13.8234534730285 1:0.66 2:0.606 3:0.176 4:0 5:0.02 6:0.02 7:0.02 8:0.041 9:0.102 10:0.204 11:0.041 12:0.02 13:0.122 14:0.02 15:0.102 16:0 17:0.143 18:0.02 19:0.122 20:0 
-4.735786541517848 1:0.66 2:0.606 3:0.176 4:0 5:0.041 6:0.02 7:0 8:0.041 9:0.163 10:0.082 11:0.102 12:0.02 13:0.061 14:0.041 15:0.143 16:0 17:0.143 18:0.122 19:0.02 20:0 
-512 1:0.66 2:0.606 3:0.176 4:0 5:0.02 6:0 7:0.041 8:0.041 9:0.102 10:0.102 11:0.143 12:0 13:0.102 14:0.163 15:0 16:0.02 17:0.184 18:0 19:0.082 20:0 
512 1:0.66 2:0.606 3:0.176 4:0 5:0.061 6:0 7:0 8:0.02 9:0.082 10:0.122 11:0.163 12:0.02 13:0.224 14:0 15:0.02 16:0.02 17:0.041 18:0.122 19:0.102 20:0 
-396.0560703922358 1:0.66 2:0.606 3:0.176 4:0 5:0.061 6:0 7:0 8:0.02 9:0.245 10:0.082 11:0.061 12:0.02 13:0.082 14:0.061 15:0.082 16:0.02 17:0 18:0.122 19:0.143 20:0 
-512 1:0.66 2:0.606 3:0.176 4:0 5:0.041 6:0 7:0.02 8:0.02 9:0.224 10:0.061 11:0.102 12:0 13:0.02 14:0.143 15:0.082 16:0.041 17:0.122 18:0.041 19:0.082 20:0 
62.94377597745339 1:0.66 2:0.606 3:0.176 4:0 5:0.02 6:0.02 7:0 8:0.041 9:0.224 10:0.061 11:0.082 12:0 13:0.102 14:0.02 15:0.143 16:0 17:0.061 18:0.163 19:0.061 20:0 
-153.0296817262359 1:0.66 2:0.606 3:0.176 4:0 5:0 6:0.02 7:0.041 8:0 9:0.184 10:0.061 11:0.163 12:0.02 13:0.061 14:0.122 15:0.061 16:0.041 17:0.163 18:0.061 19:0 20:0 
338.7614924544436 1:0.66 2:0.606 3:0.176 4:0 5:0.02 6:0 7:0.041 8:0.061 9:0.082 10:0.041 11:0.224 12:0 13:0.143 14:0.102 15:0 16:0 17:0.163 18:0.122 19:0 20:0 
-373.2868579598145 1:0.66 2:0.606 3:0.176 4:0 5:0.061 6:0 7:0 8:0.041 9:0.102 10:0.143 11:0.122 12:0.02 13:0.02 14:0.122 15:0.102 16:0 17:0.204 18:0 19:0.061 20:0 
-128.3371447778014 1:0.66 2:0.606 3:0.176 4:0 5:0.02 6:0.02 7:0.02 8:0 9:0.163 10:0.163 11:0.061 12:0.02 13:0.122 14:0.082 15:0.041 16:0.041 17:0.082 18:0 19:0.163 20:0 
36.85734614642328 1:0.66 2:0.606 3:0.176 4:0 5:0 6:0 7:0.041 8:0.061 9:0.163 10:0.143 11:0.041 12:0 13:0.102 14:0 15:0.163 16:0 17:0.122 18:0.122 19:0.041 20:0 
-433.968848153992 1:0.66 2:0.606 3:0.176 4:0 5:0.061 6:0 7:0 8:0 9:0.041 10:0.143 11:0.204 12:0.02 13:0.143 14:0.02 15:0.082 16:0.041 17:0.143 18:0.102 19:0 20:0 
424.1767768684085 1:0.66 2:0.606 3:0.176 4:0 5:0.02 6:0.02 7:0.02 8:0.061 9:0.265 10:0.02 11:0.061 12:0 13:0.061 14:0.143 15:0.041 16:0 17:0.061 18:0.082 19:0.143 20:0 
-31.52602941987336 1:0.66 2:0.606 3:0.176 4:0 5:0.061 6:0 7:0 8:0 9:0.204 10:0.163 11:0.041 12:0.02 13:0.061 14:0 15:0.184 16:0.041 17:0.061 18:0.102 19:0.061 20:0 
20.56849550979436 1:0.66 2:0.606 3:0.176 4:0 5:0.02 6:0.02 7:0.02 8:0.02 9:0.163 10:0.122 11:0.102 12:0 13:0.224 14:0.02 15:0.02 16:0.041 17:0 18:0.082 19:0.143 20:0 
434.4506435531274 1:0.66 2:0.636 3:0.176 4:0 5:0.061 6:0 7:0 8:0.02 9:0.184 10:0.102 11:0.122 12:0 13:0.061 14:0.061 15:0.122 16:0.02 17:0.122 18:0.082 19:0.041 20:0 
396.5617623649048 1:0.66 2:0.636 3:0.176 4:0 5:0.061 6:0 7:0 8:0.02 9:0.061 10:0.163 11:0.163 12:0.02 13:0.143 14:0.02 15:0.061 16:0.02 17:0.143 18:0.061 19:0.061 20:0 
-84.76865840942986 1:0.66 2:0.636 3:0.176 4:0 5:0 6:0.02 7:0.041 8:0.02 9:0.224 10:0.163 11:0.02 12:0.02 13:0.061 14:0.041 15:0.102 16:0.02 17:0.143 18:0 19:0.122 20:0 
512 1:0.66 2:0.636 3:0.176 4:0 5:0.061 6:0 7:0 8:0 9:0.265 10:0.041 11:0.122 12:0 13:0.041 14:0.061 15:0.122 16:0.041 17:0.061 18:0.143 19:0.041 20:0 
-371.1257137440502 1:0.66 2:0.636 3:0.176 4:0 5:0.061 6:0 7:0 8:0 9:0.184 10:0.163 11:0.082 12:0.02 13:0.102 14:0.02 15:0.082 16:0.02 17:0.082 18:0.061 19:0.122 20:0 
-512 1:0.66 2:0.636 3:0.176 4:0 5:0 6:0.02 7:0.041 8:0.061 9:0.163 10:0.102 11:0.082 12:0 13:0.163 14:0 15:0.082 16:0 17:0.082 18:0.122 19:0.082 20:0 
-16.19955466948166 1:0.66 2:0.636 3:0.176 4:0 5:0 6:0.02 7:0.041 8:0.02 9:0.061 10:0.122 11:0.224 12:0 13:0.184 14:0.041 15:0.02 16:0.041 17:0.163 18:0.061 19:0 20:0 
-512 1:0.66 2:0.636 3:0.176 4:0 5:0.02 6:0 7:0.041 8:0.02 9:0.122 10:0.102 11:0.163 12:0 13:0.224 14:0.02 15:0 16:0.041 17:0.041 18:0.122 19:0.082 20:0 
512 1:0.66 2:0.636 3:0.176 4:0 5:0 6:0.02 7:0.041 8:0.02 9:0.306 10:0.061 11:0.041 12:0.02 13:0.02 14:0.041 15:0.143 16:0.02 17:0.102 18:0.102 19:0.061 20:0 
-31.83625708476693 1:0.66 2:0.636 3:0.176 4:0 5:0 6:0 7:0.041 8:0.061 9:0.184 10:0.122 11:0.061 12:0 13:0.02 14:0.061 15:0.163 16:0 17:0.224 18:0.061 19:0 20:0 
512 1:0.66 2:0.636 3:0.176 4:0 5:0 6:0.02 7:0.041 8:0.041 9:0.102 10:0.061 11:0.204 12:0 13:0.102 14:0.143 15:0 16:0.02 17:0.204 18:0.02 19:0.041 20:0 
-72.73027711917035 1:0.66 2:0.697 3:0.176 4:0 5:0.02 6:0.02 7:0.02 8:0.061 9:0.224 10:0.102 11:0.082 12:0 13:0.122 14:0.041 15:0.02 16:0 17:0.082 18:0.041 19:0.163 20:0 
313.4397856714252 1:0.66 2:0.697 3:0.176 4:0 5:0.061 6:0 7:0 8:0.02 9:0.143 10:0.163 11:0.122 12:0.02 13:0.082 14:0 15:0.102 16:0.02 17:0.184 18:0.041 19:0.041 20:0 
-512 1:0.66 2:0.697 3:0.176 4:0 5:0.02 6:0.02 7:0.02 8:0.02 9:0.204 10:0.082 11:0.163 12:0 13:0.102 14:0.061 15:0.02 16:0.041 17:0.122 18:0.041 19:0.082 20:0 
-512 1:0.66 2:0.697 3:0.176 4:0 5:0.041 6:0.02 7:0 8:0.02 9:0.224 10:0.02 11:0.204 12:0.02 13:0.122 14:0.041 15:0 16:0.02 17:0.082 18:0.122 19:0.061 20:0 
-474.0085920305823 1:0.66 2:0.697 3:0.176 4:0 5:0.041 6:0 7:0.02 8:0.02 9:0.306 10:0.082 11:0.061 12:0 13:0.041 14:0.061 15:0.082 16:0.02 17:0.082 18:0.061 19:0.122 20:0 
-367.9447806758003 1:0.66 2:0.697 3:0.176 4:0 5:0.02 6:0.02 7:0.02 8:0.02 9:0.327 10:0.02 11:0.102 12:0.02 13:0.041 14:0.02 15:0.102 16:0.02 17:0.061 18:0.143 19:0.061 20:0 
203.5434079921622 1:0.66 2:0.697 3:0.176 4:0 5:0.02 6:0.02 7:0.02 8:0.041 9:0.082 10:0.163 11:0.163 12:0.02 13:0.163 14:0.02 15:0 16:0 17:0.184 18:0 19:0.102 20:0 
34.82760392875888 1:0.66 2:0.697 3:0.176 4:0 5:0.02 6:0.02 7:0.02 8:0.02 9:0.224 10:0.061 11:0.163 12:0 13:0.204 14:0 15:0 16:0.041 17:0 18:0.122 19:0.102 20:0 
369.836729164919 1:0.66 2:0.697 3:0.176 4:0 5:0.061 6:0 7:0 8:0 9:0.265 10:0.061 11:0.143 12:0.02 13:0.041 14:0.102 15:0.02 16:0.02 17:0.102 18:0.041 19:0.122 20:0 
284.5744439777627 1:0.66 2:0.697 3:0.176 4:0 5:0 6:0.02 7:0.041 8:0 9:0.265 10:0.143 11:0.061 12:0.02 13:0.041 14:0.041 15:0.082 16:0.041 17:0.143 18:0 19:0.102 20:0 
98.35257054906374 1:0.66 2:0.758 3:0.176 4:0 5:0.041 6:0 7:0.02 8:0.061 9:0.286 10:0.02 11:0.122 12:0 13:0.082 14:0.041 15:0.041 16:0 17:0.082 18:0.102 19:0.102 20:0 
318.7315975503932 1:0.66 2:0.758 3:0.176 4:0 5:0.02 6:0.02 7:0.02 8:0.041 9:0.184 10:0.061 11:0.224 12:0.02 13:0.041 14:0.061 15:0.02 16:0 17:0.245 18:0.02 19:0.02 20:0 
363.5376581770497 1:0.66 2:0.758 3:0.176 4:0 5:0.02 6:0 7:0.041 8:0.02 9:0.245 10:0.061 11:0.184 12:0 13:0.163 14:0 15:0 16:0.041 17:0.082 18:0.082 19:0.061 20:0 
512 1:0.66 2:0.758 3:0.176 4:0 5:0.041 6:0 7:0.02 8:0 9:0.286 10:0.061 11:0.163 12:0.02 13:0.02 14:0.061 15:0.041 16:0.041 17:0.163 18:0.041 19:0.041 20:0 
-315.5746766126137 1:0.66 2:0.758 3:0.176 4:0 5:0.061 6:0 7:0 8:0.041 9:0.163 10:0.143 11:0.143 12:0.02 13:0.02 14:0.02 15:0.102 16:0 17:0.245 18:0 19:0.041 20:0 
512 1:0.66 2:0.758 3:0.176 4:0 5:0.02 6:0.02 7:0.02 8:0 9:0.265 10:0.02 11:0.224 12:0.02 13:0.082 14:0.02 15:0.02 16:0.041 17:0.122 18:0.102 19:0.02 20:0 
512 1:0.66 2:0.758 3:0.176 4:0 5:0.041 6:0 7:0.02 8:0.061 9:0.082 10:0.122 11:0.224 12:0 13:0.122 14:0.02 15:0.02 16:0 17:0.265 18:0.02 19:0 20:0 
512 1:0.66 2:0.758 3:0.176 4:0 5:0 6:0.02 7:0.041 8:0.02 9:0.184 10:0.122 11:0.163 12:0 13:0.163 14:0 15:0 16:0.041 17:0.143 18:0.02 19:0.082 20:0 
71.21706542051487 1:0.66 2:0.758 3:0.176 4:0 5:0 6:0.02 7:0.041 8:0.041 9:0.286 10:0.041 11:0.143 12:0.02 13:0.041 14:0 15:0.102 16:0 17:0.163 18:0.102 19:0 20:0 
512 1:0.66 2:0.758 3:0.176 4:0 5:0.061 6:0 7:0 8:0.061 9:0.163 10:0.143 11:0.122 12:0 13:0.122 14:0 15:0.041 16:0 17:0.143 18:0.02 19:0.122 20:0 
35.8633168449154 1:0.66 2:0.758 3:0.176 4:0 5:0.02 6:0 7:0.041 8:0.02 9:0.367 10:0.02 11:0.082 12:0 13:0.02 14:0.041 15:0.102 16:0.041 17:0.102 18:0.102 19:0.041 20:0 
-77.79672626317956 1:0.66 2:0.758 3:0.176 4:0 5:0.041 6:0 7:0 8:0.02 9:0.102 10:0.143 11:0.245 12:0 13:0.163 14:0 15:0 16:0.041 17:0.184 18:0.02 19:0.041 20:0 
-94.21547054981667 1:0.66 2:0.758 3:0.176 4:0 5:0.061 6:0 7:0 8:0.02 9:0.184 10:0.02 11:0.265 12:0 13:0.082 14:0.061 15:0.02 16:0.041 17:0.184 18:0.061 19:0 20:0 
-512 1:0.66 2:0.788 3:0.176 4:0 5:0.041 6:0 7:0.02 8:0.041 9:0.306 10:0.041 11:0.143 12:0.02 13:0.041 14:0 15:0.061 16:0 17:0.143 18:0.082 19:0.061 20:0 
-86.66678230907897 1:0.66 2:0.788 3:0.176 4:0 5:0 6:0.02 7:0.041 8:0.041 9:0.286 10:0.102 11:0.082 12:0 13:0.061 14:0 15:0.082 16:0 17:0.184 18:0.02 19:0.082 20:0 
-252.7987758163789 1:0.66 2:0.788 3:0.176 4:0 5:0.061 6:0 7:0 8:0.02 9:0.367 10:0.041 11:0.102 12:0.02 13:0.02 14:0.02 15:0.082 16:0.02 17:0.061 18:0.082 19:0.102 20:0 
-233.4697473246304 1:0.66 2:0.788 3:0.176 4:0 5:0.041 6:0 7:0.02 8:0.061 9:0.102 10:0.082 11:0.265 12:0 13:0.102 14:0.041 15:0 16:0 17:0.265 18:0.02 19:0 20:0 
-378.4018248929114 1:0.66 2:0.788 3:0.176 4:0 5:0.02 6:0 7:0.041 8:0.02 9:0.163 10:0.122 11:0.204 12:0 13:0.143 14:0 15:0 16:0.041 17:0.204 18:0.02 19:0.02 20:0 
-370.7178215752963 1:0.66 2:0.788 3:0.176 4:0 5:0 6:0.02 7:0.041 8:0 9:0.286 10:0.061 11:0.163 12:0.02 13:0.082 14:0.041 15:0 16:0.041 17:0.163 18:0 19:0.082 20:0 
-307.7542371481874 1:0.66 2:0.242 3:0.235 4:0 5:0.02 6:0.02 7:0.041 8:0 9:0 10:0.122 11:0.041 12:0.041 13:0.061 14:0.265 15:0.122 16:0.041 17:0.061 18:0.102 19:0.061 20:0 
-144.8072677183069 1:0.66 2:0.242 3:0.235 4:0 5:0.02 6:0.02 7:0.041 8:0.02 9:0.041 10:0.041 11:0.041 12:0.041 13:0.02 14:0.347 15:0.102 16:0.02 17:0.082 18:0.082 19:0.082 20:0 
4.71276764115135 1:0.66 2:0.242 3:0.235 4:0 5:0.02 6:0.041 7:0.02 8:0 9:0 10:0.143 11:0.02 12:0.02 13:0.143 14:0.224 15:0.102 16:0.041 17:0 18:0.102 19:0.122 20:0 
76.95723309953013 1:0.66 2:0.242 3:0.235 4:0 5:0 6:0.061 7:0 8:0 9:0.02 10:0.061 11:0.082 12:0.082 13:0.041 14:0.245 15:0.143 16:0 17:0.102 18:0.122 19:0.041 20:0 
-212.9477782302044 1:0.66 2:0.242 3:0.235 4:0 5:0 6:0.082 7:0 8:0 9:0.061 10:0 11:0.102 12:0.082 13:0.061 14:0.224 15:0.122 16:0 17:0.041 18:0.204 19:0.02 20:0 
459.0484048910406 1:0.66 2:0.303 3:0.235 4:0 5:0 6:0.082 7:0 8:0 9:0.102 10:0.02 11:0.082 12:0.082 13:0.041 14:0.204 15:0.122 16:0 17:0.061 18:0.143 19:0.061 20:0 
116.8869531165764 1:0.66 2:0.303 3:0.235 4:0 5:0.041 6:0 7:0.041 8:0 9:0.041 10:0.061 11:0.102 12:0.082 13:0.041 14:0.224 15:0.102 16:0 17:0.082 18:0.184 19:0 20:0 
58.64727030776806 1:0.66 2:0.303 3:0.235 4:0 5:0.02 6:0.061 7:0 8:0 9:0.102 10:0.02 11:0.061 12:0.082 13:0.082 14:0.102 15:0.204 16:0 17:0 18:0.265 19:0 20:0 
-18.3779986132976 1:0.66 2:0.303 3:0.235 4:0 5:0.02 6:0.061 7:0 8:0.041 9:0.082 10:0 11:0.082 12:0.041 13:0.041 14:0.347 15:0.02 16:0 17:0.041 18:0.061 19:0.163 20:0 
-148.3234027928129 1:0.66 2:0.303 3:0.235 4:0 5:0.041 6:0.02 7:0.02 8:0.041 9:0.02 10:0.102 11:0.041 12:0.02 13:0.122 14:0.102 15:0.204 16:0.02 17:0 18:0.245 19:0 20:0 
142.8825336935475 1:0.66 2:0.303 3:0.235 4:0 5:0 6:0.061 7:0.02 8:0.041 9:0 10:0.041 11:0.122 12:0.041 13:0.102 14:0.286 15:0.02 16:0 17:0.102 18:0.061 19:0.102 20:0 
512 1:0.66 2:0.364 3:0.235 4:0 5:0.02 6:0.041 7:0.02 8:0.02 9:0.082 10:0.041 11:0.102 12:0.041 13:0.061 14:0.286 15:0.041 16:0.02 17:0.061 18:0.061 19:0.102 20:0 
328.8449589187345 1:0.66 2:0.364 3:0.235 4:0 5:0 6:0.082 7:0 8:0 9:0.061 10:0.143 11:0.041 12:0.061 13:0.143 14:0.061 15:0.143 16:0 17:0.041 18:0.143 19:0.082 20:0 
-512 1:0.66 2:0.364 3:0.235 4:0 5:0 6:0.041 7:0.041 8:0.041 9:0.102 10:0.061 11:0.041 12:0.02 13:0.143 14:0.204 15:0.041 16:0.02 17:0 18:0.102 19:0.143 20:0 
-512 1:0.66 2:0.364 3:0.235 4:0 5:0 6:0.061 7:0.02 8:0.02 9:0.143 10:0.061 11:0.02 12:0.041 13:0.061 14:0.245 15:0.061 16:0.02 17:0.041 18:0.041 19:0.163 20:0 
-512 1:0.66 2:0.364 3:0.235 4:0 5:0 6:0.082 7:0 8:0 9:0.122 10:0.02 11:0.102 12:0.041 13:0.082 14:0.143 15:0.143 16:0.041 17:0.02 18:0.184 19:0.02 20:0 
100.7033223111378 1:0.66 2:0.394 3:0.235 4:0 5:0.02 6:0.041 7:0.02 8:0.02 9:0.102 10:0.041 11:0.082 12:0.041 13:0.02 14:0.184 15:0.163 16:0.02 17:0.102 18:0.143 19:0 20:0 
143.8521534549477 1:0.66 2:0.394 3:0.235 4:0 5:0.041 6:0 7:0.041 8:0.041 9:0.041 10:0.082 11:0.102 12:0.041 13:0.163 14:0.163 15:0.02 16:0 17:0.02 18:0.163 19:0.082 20:0 
115.9847837981191 1:0.66 2:0.394 3:0.235 4:0 5:0.041 6:0.041 7:0 8:0.041 9:0.122 10:0.082 11:0.02 12:0 13:0.061 14:0.143 15:0.184 16:0.041 17:0.041 18:0.143 19:0.041 20:0 
-512 1:0.66 2:0.394 3:0.235 4:0 5:0.041 6:0.02 7:0.02 8:0 9:0.082 10:0.041 11:0.143 12:0.082 13:0.082 14:0.143 15:0.082 16:0 17:0.061 18:0.184 19:0.02 20:0 
232.5457740463742 1:0.66 2:0.394 3:0.235 4:0 5:0.041 6:0 7:0.041 8:0.02 9:0.143 10:0.02 11:0.082 12:0.041 13:0.041 14:0.265 15:0.061 16:0.02 17:0.041 18:0.122 19:0.061 20:0 
-60.9428689585862 1:0.66 2:0.394 3:0.235 4:0 5:0 6:0.082 7:0 8:0.041 9:0.061 10:0.143 11:0.02 12:0 13:0.163 14:0.102 15:0.122 16:0.041 17:0.041 18:0.061 19:0.122 20:0 
496.9368183724663 1:0.66 2:0.394 3:0.235 4:0 5:0.02 6:0.041 7:0.02 8:0.041 9:0.082 10:0.02 11:0.102 12:0 13:0.041 14:0.286 15:0.082 16:0.041 17:0.122 18:0.061 19:0.041 20:0 
-512 1:0.66 2:0.394 3:0.235 4:0 5:0.041 6:0 7:0.041 8:0.041 9:0 10:0.122 11:0.082 12:0.02 13:0.082 14:0.265 15:0.041 16:0.02 17:0.122 18:0.02 19:0.102 20:0 
-107.082552001476 1:0.66 2:0.394 3:0.235 4:0 5:0 6:0.061 7:0.02 8:0 9:0.163 10:0 11:0.082 12:0.061 13:0.061 14:0.143 15:0.143 16:0.02 17:0.041 18:0.184 19:0.02 20:0 
-512 1:0.66 2:0.455 3:0.235 4:0 5:0.02 6:0.041 7:0.02 8:0.041 9:0.143 10:0.061 11:0.061 12:0.02 13:0.061 14:0.143 15:0.122 16:0.02 17:0.082 18:0.122 19:0.041 20:0 
47.54096378850713 1:0.66 2:0.455 3:0.235 4:0 5:0.041 6:0 7:0.041 8:0 9:0.122 10:0.122 11:0.061 12:0.041 13:0.122 14:0.122 15:0.061 16:0.041 17:0.02 18:0.122 19:0.082 20:0 
-512 1:0.66 2:0.455 3:0.235 4:0 5:0.02 6:0.02 7:0.041 8:0.061 9:0.041 10:0.061 11:0.143 12:0 13:0.122 14:0.143 15:0.082 16:0 17:0.122 18:0.143 19:0 20:0 
134.2867607822621 1:0.66 2:0.455 3:0.235 4:0 5:0.041 6:0.02 7:0.02 8:0 9:0.102 10:0.184 11:0 12:0.061 13:0.143 14:0.061 15:0.102 16:0.02 17:0.02 18:0.082 19:0.143 20:0 
131.9634897014738 1:0.66 2:0.455 3:0.235 4:0 5:0.061 6:0 7:0.02 8:0 9:0.041 10:0.082 11:0.184 12:0.061 13:0.082 14:0.184 15:0.041 16:0.02 17:0.122 18:0.102 19:0 20:0 
-84.19084693739727 1:0.66 2:0.455 3:0.235 4:0 5:0.041 6:0.02 7:0.02 8:0.041 9:0.184 10:0.061 11:0 12:0.041 13:0.082 14:0.082 15:0.163 16:0 17:0 18:0.204 19:0.061 20:0 
-512 1:0.66 2:0.455 3:0.235 4:0 5:0.02 6:0.041 7:0.02 8:0.041 9:0.224 10:0 11:0.041 12:0.02 13:0 14:0.224 15:0.122 16:0.02 17:0.061 18:0.082 19:0.082 20:0 
351.4757086760047 1:0.66 2:0.455 3:0.235 4:0 5:0.041 6:0 7:0.041 8:0.061 9:0.082 10:0.082 11:0.082 12:0 13:0.163 14:0.184 15:0 16:0.02 17:0.02 18:0.102 19:0.122 20:0 
172.7027216061033 1:0.66 2:0.455 3:0.235 4:0 5:0 6:0.061 7:0 8:0.061 9:0.143 10:0 11:0.102 12:0 13:0.143 14:0.122 15:0.102 16:0.02 17:0 18:0.184 19:0.061 20:0 
-512 1:0.66 2:0.515 3:0.235 4:0 5:0.041 6:0.02 7:0.02 8:0.061 9:0.102 10:0.122 11:0.061 12:0 13:0.082 14:0.122 15:0.102 16:0.02 17:0.122 18:0.041 19:0.082 20:0 
512 1:0.66 2:0.515 3:0.235 4:0 5:0 6:0.041 7:0.041 8:0.041 9:0.102 10:0.061 11:0.143 12:0 13:0.143 14:0.102 15:0.061 16:0.041 17:0.082 18:0.122 19:0.02 20:0 
512 1:0.66 2:0.515 3:0.235 4:0 5:0.02 6:0.02 7:0.041 8:0 9:0.163 10:0.102 11:0.082 12:0.061 13:0.102 14:0.082 15:0.061 16:0.02 17:0.061 18:0.122 19:0.061 20:0 
-290.2812940873119 1:0.66 2:0.515 3:0.235 4:0 5:0.02 6:0.061 7:0 8:0.041 9:0.102 10:0.122 11:0.082 12:0.02 13:0.102 14:0.02 15:0.163 16:0 17:0.122 18:0.122 19:0.02 20:0 
237.4039287168526 1:0.66 2:0.515 3:0.235 4:0 5:0.041 6:0 7:0.041 8:0.041 9:0.184 10:0.02 11:0.102 12:0 13:0.061 14:0.224 15:0.02 16:0.041 17:0.061 18:0.082 19:0.082 20:0 
512 1:0.66 2:0.515 3:0.235 4:0 5:0.041 6:0.041 7:0 8:0 9:0.102 10:0.082 11:0.163 12:0.061 13:0.061 14:0.082 15:0.102 16:0 17:0.143 18:0.122 19:0 20:0 
512 1:0.66 2:0.515 3:0.235 4:0 5:0.02 6:0.041 7:0.02 8:0.061 9:0.082 10:0.102 11:0.102 12:0 13:0.02 14:0.163 15:0.122 16:0.02 17:0.204 18:0.02 19:0.02 20:0 
-512 1:0.66 2:0.515 3:0.235 4:0 5:0.041 6:0.041 7:0 8:0.041 9:0.082 10:0.082 11:0.122 12:0 13:0.204 14:0.02 15:0.102 16:0.041 17:0.02 18:0.163 19:0.041 20:0 
-135.2880674962817 1:0.66 2:0.515 3:0.235 4:0 5:0.02 6:0.061 7:0 8:0.02 9:0.143 10:0.184 11:0 12:0.02 13:0.122 14:0.061 15:0.102 16:0.041 17:0.061 18:0.02 19:0.143 20:0 
-512 1:0.66 2:0.515 3:0.235 4:0 5:0.061 6:0 7:0.02 8:0.061 9:0.122 10:0.061 11:0.102 12:0.02 13:0.143 14:0.102 15:0.041 16:0 17:0.02 18:0.163 19:0.082 20:0 
-512 1:0.66 2:0.515 3:0.235 4:0 5:0.061 6:0 7:0.02 8:0.02 9:0.102 10:0.041 11:0.184 12:0.041 13:0.102 14:0.143 15:0.02 16:0.02 17:0.061 18:0.143 19:0.041 20:0 
512 1:0.66 2:0.515 3:0.235 4:0 5:0.02 6:0.041 7:0.02 8:0 9:0.061 10:0.061 11:0.224 12:0.02 13:0.184 14:0.102 15:0 16:0.041 17:0.082 18:0.122 19:0.02 20:0 
-512 1:0.66 2:0.515 3:0.235 4:0 5:0 6:0.041 7:0.041 8:0.041 9:0.122 10:0.082 11:0.102 12:0.041 13:0.102 14:0.143 15:0.02 16:0 17:0.122 18:0.061 19:0.082 20:0 
512 1:0.66 2:0.515 3:0.235 4:0 5:0.061 6:0 7:0.02 8:0 9:0.184 10:0.041 11:0.122 12:0.061 13:0.061 14:0.143 15:0.041 16:0.02 17:0.02 18:0.143 19:0.082 20:0 
18.84947594670311 1:0.66 2:0.515 3:0.235 4:0 5:0.061 6:0.02 7:0 8:0.041 9:0.041 10:0.061 11:0.204 12:0.041 13:0.143 14:0.061 15:0.061 16:0 17:0.082 18:0.184 19:0 20:0 
71.05025737933413 1:0.66 2:0.515 3:0.235 4:0 5:0.061 6:0 7:0.02 8:0.02 9:0.041 10:0.265 11:0.02 12:0.041 13:0.163 14:0.02 15:0.102 16:0.02 17:0.061 18:0.041 19:0.122 20:0 
-232.3454215086802 1:0.66 2:0.545 3:0.235 4:0 5:0.02 6:0.061 7:0 8:0.041 9:0.143 10:0.082 11:0.082 12:0 13:0.163 14:0.061 15:0.082 16:0.041 17:0.041 18:0.102 19:0.082 20:0 
512 1:0.66 2:0.545 3:0.235 4:0 5:0.02 6:0.02 7:0.041 8:0.061 9:0.061 10:0.143 11:0.102 12:0.02 13:0.082 14:0.102 15:0.082 16:0 17:0.204 18:0.02 19:0.041 20:0 
-512 1:0.66 2:0.545 3:0.235 4:0 5:0.041 6:0.02 7:0.02 8:0.041 9:0.204 10:0.061 11:0.061 12:0.041 13:0 14:0.102 15:0.143 16:0 17:0.102 18:0.122 19:0.041 20:0 
-73.78693041057653 1:0.66 2:0.545 3:0.235 4:0 5:0.061 6:0 7:0.02 8:0 9:0.143 10:0.102 11:0.122 12:0.061 13:0.02 14:0.122 15:0.082 16:0.02 17:0.143 18:0.082 19:0.02 20:0 
-114.5195740438805 1:0.66 2:0.545 3:0.235 4:0 5:0.02 6:0.061 7:0 8:0.041 9:0.082 10:0.02 11:0.204 12:0 13:0.204 14:0.102 15:0 16:0.041 17:0.041 18:0.122 19:0.061 20:0 
407.9104567761913 1:0.66 2:0.545 3:0.235 4:0 5:0.02 6:0.061 7:0 8:0.02 9:0.082 10:0.163 11:0.082 12:0.02 13:0.184 14:0 15:0.102 16:0.02 17:0.082 18:0.082 19:0.082 20:0 
-512 1:0.66 2:0.545 3:0.235 4:0 5:0.041 6:0 7:0.041 8:0 9:0.224 10:0.02 11:0.122 12:0.061 13:0.041 14:0.143 15:0.041 16:0.02 17:0.061 18:0.143 19:0.041 20:0 
-512 1:0.66 2:0.545 3:0.235 4:0 5:0 6:0.041 7:0.041 8:0.041 9:0.184 10:0.082 11:0.061 12:0 13:0.061 14:0.122 15:0.102 16:0.041 17:0.122 18:0.061 19:0.041 20:0 
-512 1:0.66 2:0.545 3:0.235 4:0 5:0.041 6:0 7:0.041 8:0.041 9:0.082 10:0.122 11:0.102 12:0 13:0.122 14:0.143 15:0.041 16:0.041 17:0.122 18:0.041 19:0.061 20:0 
-20.8476167061357 1:0.66 2:0.545 3:0.235 4:0 5:0.02 6:0.061 7:0 8:0.041 9:0.204 10:0.061 11:0.041 12:0 13:0.082 14:0.041 15:0.184 16:0.02 17:0.061 18:0.143 19:0.041 20:0 
-512 1:0.66 2:0.545 3:0.235 4:0 5:0.02 6:0.061 7:0 8:0 9:0.245 10:0.061 11:0.061 12:0.061 13:0.041 14:0.143 15:0.041 16:0.02 17:0.061 18:0.041 19:0.143 20:0 
-108.9189284312512 1:0.66 2:0.545 3:0.235 4:0 5:0 6:0.041 7:0.041 8:0.041 9:0.122 10:0.061 11:0.122 12:0.02 13:0.245 14:0.041 15:0 16:0.02 17:0 18:0.143 19:0.102 20:0 
-104.7268464918252 1:0.66 2:0.606 3:0.235 4:0 5:0 6:0.041 7:0.041 8:0.061 9:0.184 10:0.061 11:0.102 12:0.02 13:0.143 14:0.102 15:0 16:0 17:0.082 18:0.041 19:0.122 20:0 
512 1:0.66 2:0.606 3:0.235 4:0 5:0.02 6:0.041 7:0.02 8:0.061 9:0.102 10:0.122 11:0.122 12:0.02 13:0.102 14:0.082 15:0.041 16:0 17:0.163 18:0.02 19:0.082 20:0 
512 1:0.66 2:0.606 3:0.235 4:0 5:0.041 6:0 7:0.041 8:0.082 9:0.163 10:0.061 11:0.082 12:0 13:0.122 14:0.082 15:0.061 16:0 17:0.061 18:0.122 19:0.082 20:0 
-496.8131315592516 1:0.66 2:0.606 3:0.235 4:0 5:0.041 6:0 7:0.041 8:0.02 9:0.041 10:0.245 11:0.082 12:0.02 13:0.204 14:0 15:0.041 16:0.041 17:0.102 18:0.02 19:0.102 20:0 
512 1:0.66 2:0.606 3:0.235 4:0 5:0.02 6:0.02 7:0.041 8:0.02 9:0.184 10:0.041 11:0.163 12:0.041 13:0.061 14:0.102 15:0.041 16:0.02 17:0.143 18:0.102 19:0 20:0 
410.0753344122105 1:0.66 2:0.606 3:0.235 4:0 5:0.02 6:0.041 7:0.02 8:0.02 9:0.143 10:0.143 11:0.082 12:0.02 13:0.184 14:0.02 15:0.041 16:0.041 17:0.041 18:0.061 19:0.122 20:0 
512 1:0.66 2:0.606 3:0.235 4:0 5:0.041 6:0.02 7:0.02 8:0.02 9:0.286 10:0.02 11:0.082 12:0.02 13:0.041 14:0.122 15:0.061 16:0.041 17:0.02 18:0.102 19:0.102 20:0 
-512 1:0.66 2:0.606 3:0.235 4:0 5:0.02 6:0.02 7:0.041 8:0.061 9:0.082 10:0.204 11:0.041 12:0.02 13:0.143 14:0.02 15:0.082 16:0 17:0.163 18:0.02 19:0.082 20:0 
19.11129149426348 1:0.66 2:0.606 3:0.235 4:0 5:0.041 6:0 7:0.041 8:0.061 9:0.102 10:0.082 11:0.143 12:0.02 13:0.184 14:0.02 15:0.041 16:0 17:0.061 18:0.163 19:0.041 20:0 
-512 1:0.66 2:0.606 3:0.235 4:0 5:0 6:0.041 7:0.041 8:0 9:0.245 10:0.143 11:0.02 12:0.041 13:0.061 14:0.02 15:0.122 16:0.041 17:0.082 18:0.061 19:0.082 20:0 
512 1:0.66 2:0.606 3:0.235 4:0 5:0.041 6:0.02 7:0.02 8:0.082 9:0.082 10:0.122 11:0.122 12:0 13:0.184 14:0.061 15:0 16:0 17:0.102 18:0.061 19:0.102 20:0 
334.5876867868612 1:0.66 2:0.606 3:0.235 4:0 5:0 6:0.041 7:0.041 8:0.041 9:0.204 10:0.163 11:0 12:0.02 13:0.041 14:0.061 15:0.122 16:0 17:0.163 18:0 19:0.102 20:0 
512 1:0.66 2:0.606 3:0.235 4:0 5:0.041 6:0 7:0.041 8:0.082 9:0.02 10:0.163 11:0.122 12:0 13:0.204 14:0 15:0.061 16:0 17:0.143 18:0.082 19:0.041 20:0 
512 1:0.66 2:0.606 3:0.235 4:0 5:0.061 6:0.02 7:0 8:0.041 9:0.265 10:0.102 11:0 12:0 13:0.061 14:0.082 15:0.102 16:0.041 17:0.02 18:0.061 19:0.143 20:0 
-512 1:0.66 2:0.606 3:0.235 4:0 5:0.061 6:0 7:0.02 8:0.061 9:0.163 10:0.143 11:0.02 12:0 13:0.143 14:0.02 15:0.102 16:0.02 17:0.02 18:0.102 19:0.122 20:0 
467.5323761532774 1:0.66 2:0.606 3:0.235 4:0 5:0 6:0.041 7:0.041 8:0.061 9:0.224 10:0.082 11:0.02 12:0.02 13:0.143 14:0 15:0.102 16:0 17:0.041 18:0.143 19:0.082 20:0 
512 1:0.66 2:0.606 3:0.235 4:0 5:0.041 6:0.041 7:0 8:0.02 9:0.082 10:0.082 11:0.204 12:0 13:0.204 14:0.041 15:0.02 16:0.041 17:0.082 18:0.102 19:0.041 20:0 
-50.71956087822556 1:0.66 2:0.606 3:0.235 4:0 5:0.02 6:0.02 7:0.041 8:0 9:0.184 10:0.143 11:0.061 12:0.041 13:0.061 14:0 15:0.163 16:0.041 17:0.122 18:0.102 19:0 20:0 
-397.4808711052765 1:0.66 2:0.606 3:0.235 4:0 5:0 6:0.041 7:0.041 8:0.082 9:0.122 10:0.041 11:0.163 12:0 13:0.143 14:0.082 15:0.02 16:0 17:0.143 18:0.102 19:0.02 20:0 
512 1:0.66 2:0.636 3:0.235 4:0 5:0.061 6:0 7:0.02 8:0.061 9:0.122 10:0.122 11:0.122 12:0.02 13:0.102 14:0.061 15:0.041 16:0 17:0.143 18:0.061 19:0.061 20:0 
-512 1:0.66 2:0.636 3:0.235 4:0 5:0.041 6:0.041 7:0 8:0.061 9:0.245 10:0.041 11:0.082 12:0.02 13:0.061 14:0.102 15:0.041 16:0 17:0.082 18:0.061 19:0.122 20:0 
-308.408970815599 1:0.66 2:0.636 3:0.235 4:0 5:0.02 6:0.041 7:0.02 8:0.041 9:0.184 10:0.122 11:0.061 12:0.041 13:0.102 14:0.041 15:0.061 16:0 17:0.122 18:0.02 19:0.122 20:0 
487.6101632503746 1:0.66 2:0.636 3:0.235 4:0 5:0.041 6:0 7:0.041 8:0 9:0.122 10:0.204 11:0.082 12:0.041 13:0.102 14:0.041 15:0.061 16:0.041 17:0.163 18:0 19:0.061 20:0 
-512 1:0.66 2:0.636 3:0.235 4:0 5:0.061 6:0.02 7:0 8:0.041 9:0.143 10:0.082 11:0.163 12:0.02 13:0.02 14:0.102 15:0.082 16:0.02 17:0.184 18:0.041 19:0.02 20:0 
512 1:0.66 2:0.636 3:0.235 4:0 5:0 6:0.041 7:0.041 8:0.02 9:0.265 10:0.082 11:0.061 12:0.041 13:0.041 14:0.061 15:0.082 16:0.02 17:0.122 18:0.061 19:0.061 20:0 
376.578299320137 1:0.66 2:0.636 3:0.235 4:0 5:0.02 6:0 7:0.041 8:0.041 9:0.265 10:0.02 11:0.102 12:0.02 13:0.061 14:0.082 15:0.082 16:0.02 17:0.082 18:0.143 19:0.02 20:0 
-352.5198939085922 1:0.66 2:0.636 3:0.235 4:0 5:0.061 6:0.02 7:0 8:0.082 9:0.102 10:0.041 11:0.204 12:0 13:0.122 14:0.102 15:0 16:0 17:0.143 18:0.082 19:0.041 20:0 
110.3552581105657 1:0.66 2:0.636 3:0.235 4:0 5:0.02 6:0.02 7:0.041 8:0.061 9:0.061 10:0.163 11:0.122 12:0 13:0.224 14:0.02 15:0 16:0.02 17:0.122 18:0.041 19:0.082 20:0 
35.01420341326354 1:0.66 2:0.636 3:0.235 4:0 5:0.041 6:0.041 7:0 8:0.061 9:0.082 10:0.163 11:0.122 12:0 13:0.061 14:0.041 15:0.143 16:0.02 17:0.224 18:0 19:0 20:0 
-512 1:0.66 2:0.636 3:0.235 4:0 5:0.041 6:0.02 7:0.02 8:0.082 9:0.061 10:0.184 11:0.082 12:0 13:0.122 14:0.041 15:0.082 16:0 17:0.184 18:0 19:0.082 20:0 
-275.912287155245 1:0.66 2:0.636 3:0.235 4:0 5:0.02 6:0.02 7:0.041 8:0.041 9:0.041 10:0.184 11:0.143 12:0.041 13:0.122 14:0.041 15:0.041 16:0 17:0.245 18:0 19:0.02 20:0 
512 1:0.66 2:0.636 3:0.235 4:0 5:0.02 6:0.02 7:0.041 8:0.061 9:0.204 10:0.041 11:0.122 12:0.02 13:0.02 14:0.082 15:0.102 16:0 17:0.163 18:0.102 19:0 20:0 
21.67580771044744 1:0.66 2:0.636 3:0.235 4:0 5:0.061 6:0 7:0.02 8:0.02 9:0.082 10:0.122 11:0.204 12:0.041 13:0.163 14:0 15:0.02 16:0.02 17:0.102 18:0.122 19:0.02 20:0 
-61.04206496029637 1:0.66 2:0.636 3:0.235 4:0 5:0.02 6:0.041 7:0.02 8:0.061 9:0.082 10:0.082 11:0.184 12:0.02 13:0.082 14:0.122 15:0.02 16:0 17:0.224 18:0 19:0.041 20:0 
-344.9991537711659 1:0.66 2:0.636 3:0.235 4:0 5:0.02 6:0.041 7:0.02 8:0.041 9:0.204 10:0.061 11:0.102 12:0 13:0.143 14:0 15:0.102 16:0.041 17:0.041 18:0.143 19:0.041 20:0 
-455.9945926609512 1:0.66 2:0.636 3:0.235 4:0 5:0.061 6:0.02 7:0 8:0.041 9:0.163 10:0.184 11:0.02 12:0.02 13:0.122 14:0 15:0.102 16:0.02 17:0.061 18:0.041 19:0.143 20:0 
4.055591291663434 1:0.66 2:0.636 3:0.235 4:0 5:0.041 6:0 7:0.041 8:0.02 9:0.306 10:0.041 11:0.061 12:0.02 13:0.02 14:0.143 15:0.041 16:0.041 17:0.041 18:0.061 19:0.122 20:0 
-512 1:0.66 2:0.697 3:0.235 4:0 5:0.02 6:0.02 7:0.041 8:0.061 9:0.184 10:0.143 11:0.061 12:0 13:0.122 14:0.02 15:0.061 16:0.02 17:0.122 18:0.02 19:0.102 20:0 
-512 1:0.66 2:0.697 3:0.235 4:0 5:0 6:0.041 7:0.041 8:0.061 9:0.306 10:0.061 11:0.041 12:0 13:0.061 14:0.02 15:0.102 16:0.02 17:0.102 18:0.082 19:0.061 20:0 
-512 1:0.66 2:0.697 3:0.235 4:0 5:0.041 6:0.02 7:0.02 8:0.061 9:0.286 10:0.041 11:0.082 12:0 13:0.061 14:0.082 15:0.041 16:0.02 17:0.082 18:0.041 19:0.122 20:0 
512 1:0.66 2:0.697 3:0.235 4:0 5:0.02 6:0.041 7:0.02 8:0.061 9:0.245 10:0.082 11:0.082 12:0 13:0.143 14:0.02 15:0.02 16:0.02 17:0.061 18:0.041 19:0.143 20:0 
-233.7449148785468 1:0.66 2:0.697 3:0.235 4:0 5:0.082 6:0 7:0 8:0.061 9:0.122 10:0.061 11:0.204 12:0.02 13:0.061 14:0.082 15:0.041 16:0 17:0.184 18:0.061 19:0.02 20:0 
38.05681915893228 1:0.66 2:0.697 3:0.235 4:0 5:0.061 6:0.02 7:0 8:0.02 9:0.224 10:0.061 11:0.163 12:0.041 13:0.163 14:0 15:0 16:0.02 17:0 18:0.122 19:0.102 20:0 
-93.19920585650807 1:0.66 2:0.697 3:0.235 4:0 5:0.02 6:0.02 7:0.041 8:0.082 9:0.122 10:0.082 11:0.163 12:0 13:0.143 14:0 15:0.061 16:0 17:0.184 18:0.082 19:0 20:0 
-512 1:0.66 2:0.697 3:0.235 4:0 5:0.082 6:0 7:0 8:0.082 9:0.163 10:0.122 11:0.102 12:0 13:0.163 14:0.02 15:0 16:0 17:0.041 18:0.061 19:0.163 20:0 
512 1:0.66 2:0.697 3:0.235 4:0 5:0.082 6:0 7:0 8:0.041 9:0.306 10:0.061 11:0.061 12:0.02 13:0.061 14:0.02 15:0.082 16:0.02 17:0.02 18:0.122 19:0.102 20:0 
512 1:0.66 2:0.697 3:0.235 4:0 5:0.082 6:0 7:0 8:0.02 9:0.224 10:0.061 11:0.163 12:0.041 13:0.082 14:0.061 15:0 16:0.02 17:0.061 18:0.082 19:0.102 20:0 
-512 1:0.66 2:0.697 3:0.235 4:0 5:0 6:0.041 7:0.041 8:0.02 9:0.163 10:0.061 11:0.224 12:0.041 13:0.122 14:0.02 15:0 16:0 17:0.184 18:0.082 19:0 20:0 
-512 1:0.66 2:0.697 3:0.235 4:0 5:0.082 6:0 7:0 8:0.082 9:0.122 10:0.122 11:0.143 12:0 13:0.102 14:0.061 15:0.02 16:0 17:0.163 18:0.02 19:0.082 20:0 
-277.3058323883866 1:0.66 2:0.697 3:0.235 4:0 5:0.061 6:0 7:0 8:0.061 9:0.041 10:0.143 11:0.224 12:0 13:0.184 14:0.02 15:0 16:0.02 17:0.184 18:0.02 19:0.041 20:0 
-512 1:0.66 2:0.758 3:0.235 4:0 5:0 6:0.02 7:0.041 8:0.041 9:0.286 10:0.082 11:0.102 12:0 13:0.061 14:0 15:0.102 16:0.02 17:0.163 18:0.061 19:0.02 20:0 
-2.011371566084332 1:0.66 2:0.758 3:0.235 4:0 5:0.082 6:0 7:0 8:0.041 9:0.265 10:0.102 11:0.102 12:0.02 13:0.041 14:0.02 15:0.082 16:0.02 17:0.102 18:0.041 19:0.082 20:0 
-211.7078636742155 1:0.66 2:0.758 3:0.235 4:0 5:0.061 6:0 7:0.02 8:0.041 9:0.245 10:0.143 11:0.061 12:0.02 13:0.102 14:0.02 15:0.02 16:0.02 17:0.082 18:0 19:0.163 20:0 
321.0390553021064 1:0.66 2:0.758 3:0.235 4:0 5:0.041 6:0 7:0.041 8:0.041 9:0.327 10:0.102 11:0.02 12:0.02 13:0.02 14:0.041 15:0.082 16:0.02 17:0.102 18:0.02 19:0.122 20:0 
512 1:0.66 2:0.758 3:0.235 4:0 5:0.02 6:0.02 7:0.041 8:0.041 9:0.347 10:0.02 11:0.102 12:0.02 13:0.02 14:0.041 15:0.061 16:0 17:0.122 18:0.082 19:0.061 20:0 
-164.2340367602633 1:0.66 2:0.758 3:0.235 4:0 5:0.061 6:0.02 7:0 8:0.082 9:0.102 10:0.102 11:0.204 12:0 13:0.143 14:0.02 15:0 16:0 17:0.184 18:0.02 19:0.061 20:0 
128.6422785561993 1:0.66 2:0.758 3:0.235 4:0 5:0.041 6:0 7:0.041 8:0.02 9:0.184 10:0.082 11:0.224 12:0 13:0.082 14:0.061 15:0 16:0.041 17:0.204 18:0.02 19:0 20:0 
-512 1:0.66 2:0.758 3:0.235 4:0 5:0.061 6:0 7:0.02 8:0.02 9:0.327 10:0.082 11:0.082 12:0.02 13:0.061 14:0.061 15:0 16:0.02 17:0.061 18:0.02 19:0.163 20:0 
429.7513450756786 1:0.66 2:0.758 3:0.235 4:0 5:0.082 6:0 7:0 8:0.061 9:0.184 10:0.163 11:0.082 12:0 13:0.082 14:0 15:0.082 16:0.02 17:0.143 18:0 19:0.102 20:0 
-167.539297440724 1:0.66 2:0.758 3:0.235 4:0 5:0.082 6:0 7:0 8:0.082 9:0.143 10:0.143 11:0.122 12:0 13:0.163 14:0 15:0 16:0 17:0.122 18:0.02 19:0.122 20:0 
-103.0104037843636 1:0.66 2:0.758 3:0.235 4:0 5:0.082 6:0 7:0 8:0.02 9:0.286 10:0.041 11:0.163 12:0.02 13:0.041 14:0.02 15:0.082 16:0.041 17:0.082 18:0.102 19:0.02 20:0 
512 1:0.66 2:0.788 3:0.235 4:0 5:0.061 6:0 7:0.02 8:0.02 9:0.327 10:0.041 11:0.143 12:0.02 13:0.02 14:0.041 15:0.041 16:0.041 17:0.122 18:0.041 19:0.061 20:0 
424.3746656070542 1:0.66 2:0.788 3:0.235 4:0 5:0.082 6:0 7:0 8:0.02 9:0.143 10:0.102 11:0.245 12:0.02 13:0.082 14:0.02 15:0.02 16:0.041 17:0.204 18:0.02 19:0 20:0 
-510.0029970066842 1:0.66 2:0.788 3:0.235 4:0 5:0.041 6:0.02 7:0.02 8:0.041 9:0.388 10:0 11:0.102 12:0.02 13:0.082 14:0.02 15:0 16:0.02 17:0.02 18:0.082 19:0.143 20:0 
512 1:0.66 2:0.788 3:0.235 4:0 5:0.082 6:0 7:0 8:0.061 9:0.327 10:0.061 11:0.082 12:0.02 13:0.041 14:0.041 15:0.02 16:0 17:0.061 18:0.041 19:0.163 20:0 
-30.40196188088682 1:0.66 2:0.788 3:0.235 4:0 5:0.041 6:0.02 7:0.02 8:0.061 9:0.204 10:0.02 11:0.245 12:0.02 13:0.082 14:0.041 15:0 16:0 17:0.184 18:0.061 19:0 20:0 
421.1171495167644 1:0.66 2:0.212 3:0.294 4:0.02 5:0.02 6:0.02 7:0.041 8:0 9:0.041 10:0.061 11:0.02 12:0 13:0 14:0.347 15:0.184 16:0.061 17:0.082 18:0.102 19:0 20:0 
-5.413334933571297 1:0.66 2:0.212 3:0.294 4:0 5:0 6:0.041 7:0.061 8:0.02 9:0.041 10:0 11:0.061 12:0.02 13:0.082 14:0.306 15:0.122 16:0.041 17:0.02 18:0.184 19:0 20:0 
141.450953107436 1:0.66 2:0.242 3:0.294 4:0 5:0.041 6:0.02 7:0.041 8:0 9:0 10:0.163 11:0 12:0.061 13:0.041 14:0.245 15:0.143 16:0.041 17:0.082 18:0.082 19:0.041 20:0 
126.7057579317571 1:0.66 2:0.242 3:0.294 4:0.02 5:0.041 6:0.041 7:0 8:0.041 9:0.041 10:0.082 11:0 12:0.02 13:0.082 14:0.265 15:0.122 16:0 17:0 18:0.122 19:0.122 20:0 
428.5458682097459 1:0.66 2:0.303 3:0.294 4:0.02 5:0.02 6:0 7:0.041 8:0 9:0 10:0.143 11:0.061 12:0.061 13:0.102 14:0.265 15:0.041 16:0.02 17:0.082 18:0.041 19:0.102 20:0 
110.5619389982602 1:0.66 2:0.303 3:0.294 4:0 5:0.041 6:0.02 7:0.041 8:0.041 9:0.061 10:0.082 11:0 12:0 13:0.041 14:0.224 15:0.204 16:0.041 17:0.061 18:0.143 19:0 20:0 
-89.94259462269945 1:0.66 2:0.303 3:0.294 4:0 5:0.02 6:0.041 7:0.041 8:0.02 9:0.082 10:0.082 11:0.02 12:0.02 13:0 14:0.286 15:0.163 16:0.061 17:0.082 18:0.061 19:0.02 20:0 
-61.33002573463016 1:0.66 2:0.303 3:0.294 4:0 5:0 6:0.102 7:0 8:0.041 9:0.102 10:0.02 11:0.02 12:0 13:0.082 14:0.265 15:0.122 16:0.041 17:0.02 18:0.082 19:0.102 20:0 
-344.7044530525485 1:0.66 2:0.303 3:0.294 4:0 5:0 6:0.102 7:0 8:0.041 9:0.102 10:0.061 11:0 12:0.041 13:0.102 14:0.184 15:0.122 16:0 17:0 18:0.122 19:0.122 20:0 
512 1:0.66 2:0.303 3:0.294 4:0 5:0 6:0.102 7:0 8:0 9:0.061 10:0.02 11:0.102 12:0.082 13:0.02 14:0.265 15:0.102 16:0.02 17:0.102 18:0.082 19:0.041 20:0 
454.1743459474038 1:0.66 2:0.364 3:0.294 4:0 5:0.041 6:0.061 7:0 8:0 9:0.061 10:0.102 11:0.082 12:0.041 13:0.082 14:0.143 15:0.143 16:0.041 17:0.061 18:0.122 19:0.02 20:0 
323.4809410092396 1:0.66 2:0.364 3:0.294 4:0 5:0.02 6:0.082 7:0 8:0.061 9:0.061 10:0.02 11:0.082 12:0.041 13:0.102 14:0.204 15:0.082 16:0 17:0.041 18:0.122 19:0.082 20:0 
512 1:0.66 2:0.364 3:0.294 4:0.02 5:0.02 6:0.041 7:0.02 8:0.02 9:0.143 10:0.061 11:0.02 12:0.041 13:0.082 14:0.224 15:0.061 16:0.02 17:0 18:0.082 19:0.143 20:0 
-175.4957822841917 1:0.66 2:0.364 3:0.294 4:0.02 5:0.061 6:0.02 7:0 8:0.02 9:0.061 10:0.061 11:0.082 12:0 13:0.102 14:0.224 15:0.102 16:0.061 17:0.02 18:0.102 19:0.061 20:0 
-119.3970334681902 1:0.66 2:0.364 3:0.294 4:0 5:0 6:0.082 7:0.02 8:0.061 9:0.082 10:0.082 11:0.02 12:0.02 13:0.163 14:0.143 15:0.082 16:0.02 17:0 18:0.102 19:0.122 20:0 
-512 1:0.66 2:0.364 3:0.294 4:0 5:0 6:0.102 7:0 8:0 9:0.061 10:0.102 11:0.082 12:0.102 13:0.082 14:0.163 15:0.061 16:0 17:0.102 18:0.041 19:0.102 20:0 
95.33824105304227 1:0.66 2:0.364 3:0.294 4:0 5:0 6:0.102 7:0 8:0 9:0.02 10:0.082 11:0.122 12:0.102 13:0.143 14:0.082 15:0.102 16:0 17:0.082 18:0.163 19:0 20:0 
415.9983271501067 1:0.66 2:0.364 3:0.294 4:0.02 5:0 6:0.02 7:0.061 8:0 9:0.102 10:0.082 11:0.061 12:0.082 13:0.02 14:0.184 15:0.122 16:0 17:0.122 18:0.122 19:0 20:0 
-11.01147622543598 1:0.66 2:0.364 3:0.294 4:0 5:0.061 6:0.02 7:0.02 8:0.02 9:0.082 10:0.143 11:0 12:0.082 13:0.02 14:0.102 15:0.204 16:0 17:0.082 18:0.143 19:0.02 20:0 
78.98976151412455 1:0.66 2:0.364 3:0.294 4:0 5:0 6:0.102 7:0 8:0.02 9:0.122 10:0.082 11:0 12:0.082 13:0.061 14:0.061 15:0.224 16:0 17:0.041 18:0.184 19:0.02 20:0 
-18.71958845811702 1:0.66 2:0.364 3:0.294 4:0.02 5:0 6:0.041 7:0.041 8:0.02 9:0.061 10:0.02 11:0.143 12:0.061 13:0.163 14:0.122 15:0.061 16:0 17:0.02 18:0.224 19:0 20:0 
512 1:0.66 2:0.364 3:0.294 4:0 5:0.061 6:0 7:0.041 8:0.02 9:0.143 10:0.061 11:0.02 12:0.082 13:0.041 14:0.122 15:0.163 16:0 17:0 18:0.224 19:0.02 20:0 
-267.6083216262974 1:0.66 2:0.364 3:0.294 4:0.02 5:0.02 6:0.02 7:0.041 8:0.041 9:0.061 10:0.143 11:0 12:0 13:0.102 14:0.102 15:0.204 16:0.041 17:0.061 18:0.143 19:0 20:0 
-336.5816369737878 1:0.66 2:0.364 3:0.294 4:0 5:0.061 6:0.02 7:0.02 8:0 9:0.102 10:0 11:0.122 12:0.061 13:0 14:0.286 15:0.082 16:0.041 17:0.061 18:0.122 19:0.02 20:0 
-268.2881626781889 1:0.66 2:0.364 3:0.294 4:0.02 5:0.02 6:0.02 7:0.041 8:0.02 9:0.061 10:0.02 11:0.122 12:0.041 13:0.02 14:0.327 15:0.041 16:0.02 17:0.143 18:0.041 19:0.041 20:0 
-512 1:0.66 2:0.364 3:0.294 4:0.02 5:0 6:0.061 7:0.02 8:0 9:0.082 10:0.102 11:0.041 12:0.041 13:0.163 14:0.061 15:0.163 16:0.02 17:0 18:0.204 19:0.02 20:0 
401.0648008546429 1:0.66 2:0.364 3:0.294 4:0 5:0 6:0.041 7:0.061 8:0 9:0.122 10:0.122 11:0 12:0.041 13:0.122 14:0.143 15:0.102 16:0.061 17:0 18:0.102 19:0.082 20:0 
-326.0924669493418 1:0.66 2:0.364 3:0.294 4:0.02 5:0.02 6:0.02 7:0.02 8:0.041 9:0.082 10:0.02 11:0.102 12:0.041 13:0 14:0.265 15:0.122 16:0 17:0.143 18:0.102 19:0 20:0 
-142.6133386064294 1:0.66 2:0.364 3:0.294 4:0.02 5:0.041 6:0.041 7:0 8:0 9:0.061 10:0.184 11:0 12:0.02 13:0.102 14:0.122 15:0.184 16:0.061 17:0.02 18:0.082 19:0.061 20:0 
-437.4469346065479 1:0.66 2:0.364 3:0.294 4:0 5:0 6:0.061 7:0.041 8:0.061 9:0.041 10:0 11:0.143 12:0 13:0.122 14:0.245 15:0.041 16:0.041 17:0.061 18:0.122 19:0.02 20:0 
512 1:0.66 2:0.394 3:0.294 4:0 5:0 6:0.061 7:0.041 8:0.041 9:0.102 10:0.082 11:0.041 12:0.02 13:0.122 14:0.163 15:0.082 16:0.041 17:0.041 18:0.082 19:0.082 20:0 
512 1:0.66 2:0.394 3:0.294 4:0 5:0.061 6:0.02 7:0.02 8:0.061 9:0.061 10:0.041 11:0.082 12:0 13:0.061 14:0.265 15:0.082 16:0.041 17:0.061 18:0.082 19:0.061 20:0 
386.4249888376325 1:0.66 2:0.394 3:0.294 4:0 5:0.02 6:0.082 7:0 8:0.061 9:0.102 10:0.061 11:0.041 12:0.02 13:0.02 14:0.224 15:0.122 16:0.02 17:0.122 18:0.02 19:0.082 20:0 
495.3521645768972 1:0.66 2:0.394 3:0.294 4:0 5:0 6:0.061 7:0.041 8:0.041 9:0.122 10:0 11:0.102 12:0 13:0.102 14:0.204 15:0.082 16:0.061 17:0.041 18:0.122 19:0.02 20:0 
-373.6598400173947 1:0.66 2:0.394 3:0.294 4:0.02 5:0 6:0.082 7:0 8:0 9:0.082 10:0.082 11:0.102 12:0.082 13:0.102 14:0.082 15:0.122 16:0 17:0.061 18:0.163 19:0.02 20:0 
512 1:0.66 2:0.394 3:0.294 4:0 5:0.061 6:0.041 7:0 8:0 9:0.122 10:0.02 11:0.122 12:0.061 13:0.041 14:0.265 15:0.02 16:0.041 17:0.041 18:0.061 19:0.102 20:0 
-95.0282955868703 1:0.66 2:0.394 3:0.294 4:0 5:0.041 6:0.061 7:0 8:0.061 9:0.061 10:0.143 11:0 12:0.02 13:0.02 14:0.143 15:0.204 16:0.02 17:0.143 18:0.041 19:0.041 20:0 
-512 1:0.66 2:0.394 3:0.294 4:0 5:0 6:0.102 7:0 8:0.02 9:0.061 10:0.061 11:0.122 12:0.082 13:0.082 14:0.224 15:0 16:0 17:0.102 18:0.02 19:0.122 20:0 
-53.48311949012854 1:0.66 2:0.394 3:0.294 4:0.02 5:0 6:0.061 7:0.02 8:0 9:0.061 10:0.163 11:0.041 12:0.02 13:0.184 14:0.143 15:0.041 16:0.061 17:0 18:0.041 19:0.143 20:0 
-512 1:0.66 2:0.394 3:0.294 4:0 5:0 6:0.082 7:0.02 8:0.041 9:0.061 10:0.041 11:0.122 12:0.02 13:0.061 14:0.265 15:0.041 16:0.041 17:0.143 18:0.02 19:0.041 20:0 
241.3027113101467 1:0.66 2:0.394 3:0.294 4:0.02 5:0 6:0.02 7:0.041 8:0.061 9:0.02 10:0.041 11:0.143 12:0.02 13:0.102 14:0.224 15:0.061 16:0 17:0.143 18:0.102 19:0 20:0 
42.96696168856659 1:0.66 2:0.455 3:0.294 4:0.02 5:0.02 6:0 7:0.061 8:0.02 9:0.02 10:0.143 11:0.102 12:0 13:0.204 14:0.082 15:0.082 16:0.061 17:0.041 18:0.143 19:0 20:0 
512 1:0.66 2:0.455 3:0.294 4:0 5:0.061 6:0.02 7:0.02 8:0.02 9:0.082 10:0.102 11:0.102 12:0.061 13:0.041 14:0.122 15:0.122 16:0.02 17:0.122 18:0.102 19:0 20:0 
-512 1:0.66 2:0.455 3:0.294 4:0.02 5:0.041 6:0.041 7:0 8:0.02 9:0.082 10:0.184 11:0 12:0.041 13:0.184 14:0.061 15:0.082 16:0.02 17:0 18:0.082 19:0.143 20:0 
-512 1:0.66 2:0.455 3:0.294 4:0 5:0 6:0.082 7:0.02 8:0.02 9:0.061 10:0.122 11:0.082 12:0.041 13:0.184 14:0.061 15:0.082 16:0.041 17:0.061 18:0.082 19:0.061 20:0 
512 1:0.66 2:0.455 3:0.294 4:0 5:0 6:0.061 7:0.041 8:0 9:0.143 10:0.102 11:0.061 12:0.082 13:0.102 14:0.082 15:0.082 16:0 17:0.061 18:0.122 19:0.061 20:0 
512 1:0.66 2:0.455 3:0.294 4:0 5:0.02 6:0.061 7:0.02 8:0.02 9:0.143 10:0.061 11:0.082 12:0.02 13:0.102 14:0.204 15:0.02 16:0.061 17:0.041 18:0.041 19:0.102 20:0 
-384.5577089990254 1:0.66 2:0.455 3:0.294 4:0 5:0.041 6:0.061 7:0 8:0 9:0.102 10:0.122 11:0.082 12:0.082 13:0.061 14:0.163 15:0.041 16:0.02 17:0.082 18:0.02 19:0.122 20:0 
-189.8580497430922 1:0.66 2:0.455 3:0.294 4:0.02 5:0.041 6:0.041 7:0 8:0.041 9:0.061 10:0.163 11:0.02 12:0 13:0.163 14:0.143 15:0.061 16:0.041 17:0.041 18:0.02 19:0.143 20:0 
-45.40625732295246 1:0.66 2:0.455 3:0.294 4:0.02 5:0.02 6:0.041 7:0.02 8:0 9:0.204 10:0.082 11:0.02 12:0.061 13:0.02 14:0.143 15:0.122 16:0.02 17:0.061 18:0.102 19:0.061 20:0 
104.438133163771 1:0.66 2:0.455 3:0.294 4:0 5:0.02 6:0.041 7:0.041 8:0.02 9:0.02 10:0.204 11:0.041 12:0.082 13:0.163 14:0.082 15:0.041 16:0 17:0.102 18:0.041 19:0.102 20:0 
429.1918114587283 1:0.66 2:0.455 3:0.294 4:0 5:0.02 6:0.02 7:0.061 8:0.061 9:0.102 10:0.082 11:0.061 12:0.041 13:0.163 14:0.143 15:0 16:0 17:0.02 18:0.102 19:0.122 20:0 
-425.923157813364 1:0.66 2:0.455 3:0.294 4:0 5:0.061 6:0.041 7:0 8:0.061 9:0.122 10:0 11:0.122 12:0.02 13:0 14:0.245 15:0.082 16:0.02 17:0.102 18:0.082 19:0.041 20:0 
-183.8647102339793 1:0.66 2:0.455 3:0.294 4:0.02 5:0.02 6:0.061 7:0 8:0.041 9:0.143 10:0 11:0.122 12:0.02 13:0.082 14:0.122 15:0.122 16:0.02 17:0.061 18:0.163 19:0 20:0 
512 1:0.66 2:0.455 3:0.294 4:0 5:0.02 6:0.082 7:0 8:0.061 9:0.082 10:0.041 11:0.122 12:0 13:0.061 14:0.224 15:0.061 16:0.041 17:0.143 18:0.02 19:0.041 20:0 
-512 1:0.66 2:0.455 3:0.294 4:0 5:0.041 6:0.02 7:0.041 8:0 9:0.163 10:0.02 11:0.122 12:0.082 13:0.02 14:0.163 15:0.082 16:0.02 17:0.061 18:0.163 19:0 20:0 
512 1:0.66 2:0.455 3:0.294 4:0 5:0.061 6:0.02 7:0.02 8:0.061 9:0.061 10:0 11:0.163 12:0.02 13:0.082 14:0.204 15:0.061 16:0.02 17:0.082 18:0.143 19:0 20:0 
-512 1:0.66 2:0.455 3:0.294 4:0.02 5:0.02 6:0 7:0.061 8:0 9:0.163 10:0.082 11:0.061 12:0.082 13:0.061 14:0.184 15:0.02 16:0 17:0.041 18:0.102 19:0.102 20:0 
311.6759070173206 1:0.66 2:0.455 3:0.294 4:0.02 5:0.061 6:0 7:0.02 8:0 9:0.082 10:0.061 11:0.163 12:0.02 13:0.122 14:0.204 15:0 16:0.061 17:0.041 18:0.082 19:0.061 20:0 
512 1:0.66 2:0.515 3:0.294 4:0.02 5:0.061 6:0 7:0.02 8:0.041 9:0.122 10:0.143 11:0.041 12:0.02 13:0.082 14:0.102 15:0.102 16:0.02 17:0.082 18:0.061 19:0.082 20:0 
-512 1:0.66 2:0.515 3:0.294 4:0.02 5:0 6:0.061 7:0.02 8:0.061 9:0.143 10:0.082 11:0.061 12:0 13:0.102 14:0.143 15:0.061 16:0.02 17:0.082 18:0.041 19:0.102 20:0 
367.3244004062844 1:0.66 2:0.515 3:0.294 4:0.02 5:0.041 6:0 7:0.041 8:0.061 9:0.143 10:0.082 11:0.061 12:0.02 13:0.102 14:0.082 15:0.102 16:0 17:0.041 18:0.163 19:0.041 20:0 
-512 1:0.66 2:0.515 3:0.294 4:0 5:0.02 6:0.041 7:0.041 8:0.02 9:0.163 10:0.061 11:0.102 12:0.02 13:0.122 14:0.102 15:0.061 16:0.061 17:0.041 18:0.102 19:0.041 20:0 
-322.006180131237 1:0.66 2:0.515 3:0.294 4:0 5:0.061 6:0.041 7:0 8:0.041 9:0.122 10:0.122 11:0.061 12:0 13:0.02 14:0.102 15:0.184 16:0.061 17:0.143 18:0.041 19:0 20:0 
253.4798808952237 1:0.66 2:0.515 3:0.294 4:0 5:0.041 6:0 7:0.061 8:0.082 9:0.061 10:0.122 11:0.061 12:0.02 13:0.143 14:0.102 15:0.061 16:0 17:0.082 18:0.102 19:0.061 20:0 
-125.7084759188641 1:0.66 2:0.515 3:0.294 4:0 5:0.02 6:0.041 7:0.041 8:0.061 9:0.163 10:0.061 11:0.061 12:0.041 13:0 14:0.143 15:0.122 16:0 17:0.163 18:0.082 19:0 20:0 
367.3407063908197 1:0.66 2:0.515 3:0.294 4:0.02 5:0.041 6:0.02 7:0.02 8:0.061 9:0.061 10:0.061 11:0.143 12:0.02 13:0.184 14:0.122 15:0 16:0 17:0.061 18:0.122 19:0.061 20:0 
-420.459880269088 1:0.66 2:0.515 3:0.294 4:0.02 5:0.041 6:0.02 7:0.02 8:0.02 9:0.204 10:0.061 11:0.061 12:0.061 13:0.041 14:0.143 15:0.061 16:0 17:0.061 18:0.102 19:0.082 20:0 
512 1:0.66 2:0.515 3:0.294 4:0.02 5:0.041 6:0.041 7:0 8:0 9:0.143 10:0.061 11:0.143 12:0.061 13:0.143 14:0.061 15:0.041 16:0 17:0.02 18:0.163 19:0.061 20:0 
144.192115870289 1:0.66 2:0.515 3:0.294 4:0 5:0.082 6:0 7:0.02 8:0.02 9:0.061 10:0.204 11:0.061 12:0.082 13:0.082 14:0.061 15:0.082 16:0 17:0.122 18:0.041 19:0.082 20:0 
512 1:0.66 2:0.515 3:0.294 4:0.02 5:0.02 6:0.041 7:0.02 8:0 9:0.163 10:0.041 11:0.143 12:0.041 13:0.041 14:0.163 15:0.061 16:0.041 17:0.102 18:0.082 19:0.02 20:0 
-13.73956824837548 1:0.66 2:0.515 3:0.294 4:0.02 5:0.061 6:0 7:0.02 8:0 9:0.082 10:0.204 11:0.061 12:0.061 13:0.163 14:0.02 15:0.061 16:0.02 17:0.041 18:0.102 19:0.082 20:0 
-512 1:0.66 2:0.515 3:0.294 4:0.02 5:0.061 6:0 7:0.02 8:0.082 9:0.082 10:0.041 11:0.122 12:0 13:0.102 14:0.204 15:0.02 16:0 17:0.102 18:0.061 19:0.082 20:0 
512 1:0.66 2:0.515 3:0.294 4:0 5:0 6:0.082 7:0.02 8:0 9:0.163 10:0.102 11:0.082 12:0.041 13:0.061 14:0.102 15:0.102 16:0.061 17:0.102 18:0.041 19:0.041 20:0 
-512 1:0.66 2:0.515 3:0.294 4:0.02 5:0.041 6:0 7:0.041 8:0.041 9:0.02 10:0.163 11:0.102 12:0.02 13:0.122 14:0.163 15:0.02 16:0.02 17:0.143 18:0 19:0.082 20:0 
-512 1:0.66 2:0.515 3:0.294 4:0.02 5:0.02 6:0.02 7:0.041 8:0.02 9:0.041 10:0.102 11:0.184 12:0.02 13:0.224 14:0.041 15:0.02 16:0.02 17:0.061 18:0.163 19:0 20:0 
-23.67423291060737 1:0.66 2:0.515 3:0.294 4:0 5:0.082 6:0.02 7:0 8:0.041 9:0.082 10:0.122 11:0.102 12:0.061 13:0.143 14:0.082 15:0.02 16:0 17:0.02 18:0.102 19:0.122 20:0 
-0.571805894240651 1:0.66 2:0.515 3:0.294 4:0.02 5:0.02 6:0.061 7:0 8:0 9:0.163 10:0.122 11:0.061 12:0.082 13:0.082 14:0.102 15:0.061 16:0 17:0.082 18:0.02 19:0.122 20:0 
512 1:0.66 2:0.515 3:0.294 4:0 5:0 6:0.041 7:0.061 8:0.041 9:0.122 10:0.061 11:0.122 12:0 13:0.122 14:0.184 15:0 16:0.061 17:0.102 18:0.02 19:0.061 20:0 
-512 1:0.66 2:0.515 3:0.294 4:0 5:0.02 6:0.082 7:0 8:0 9:0.102 10:0.102 11:0.143 12:0.041 13:0.163 14:0.082 15:0.02 16:0.061 17:0.061 18:0.041 19:0.082 20:0 
512 1:0.66 2:0.515 3:0.294 4:0 5:0.041 6:0.061 7:0 8:0.082 9:0.143 10:0.041 11:0.082 12:0.02 13:0 14:0.204 15:0.102 16:0 17:0.163 18:0 19:0.061 20:0 
-512 1:0.66 2:0.515 3:0.294 4:0.02 5:0 6:0.061 7:0.02 8:0.02 9:0.184 10:0.102 11:0.02 12:0 13:0.143 14:0.041 15:0.143 16:0.041 17:0.02 18:0.122 19:0.061 20:0 
239.8459439333905 1:0.66 2:0.515 3:0.294 4:0.02 5:0 6:0.041 7:0.041 8:0.02 9:0 10:0.163 11:0.143 12:0.02 13:0.204 14:0.061 15:0.041 16:0.041 17:0.143 18:0.041 19:0.02 20:0 
512 1:0.66 2:0.515 3:0.294 4:0.02 5:0.041 6:0 7:0.041 8:0.061 9:0.184 10:0.02 11:0.082 12:0 13:0.041 14:0.163 15:0.102 16:0 17:0.082 18:0.143 19:0.02 20:0 
-202.2600324274752 1:0.66 2:0.515 3:0.294 4:0 5:0.02 6:0.02 7:0.041 8:0.061 9:0.204 10:0 11:0.082 12:0.02 13:0.041 14:0.224 15:0.041 16:0.02 17:0.082 18:0.061 19:0.082 20:0 
-512 1:0.66 2:0.515 3:0.294 4:0.02 5:0.041 6:0.02 7:0.02 8:0.02 9:0.102 10:0.082 11:0.143 12:0.02 13:0.02 14:0.224 15:0.041 16:0.041 17:0.163 18:0 19:0.041 20:0 
141.194356610034 1:0.66 2:0.515 3:0.294 4:0.02 5:0.02 6:0.041 7:0.02 8:0 9:0.082 10:0.061 11:0.204 12:0.082 13:0.061 14:0.163 15:0 16:0 17:0.184 18:0.041 19:0.02 20:0 
-465.0491765439325 1:0.66 2:0.545 3:0.294 4:0 5:0.02 6:0.02 7:0.061 8:0.082 9:0.102 10:0.102 11:0.082 12:0.02 13:0.122 14:0.102 15:0.041 16:0 17:0.102 18:0.082 19:0.061 20:0 
512 1:0.66 2:0.545 3:0.294 4:0.02 5:0.02 6:0.02 7:0.041 8:0.02 9:0.184 10:0.122 11:0.041 12:0.02 13:0.082 14:0.143 15:0.041 16:0.041 17:0.061 18:0.02 19:0.122 20:0 
-186.167127907421 1:0.66 2:0.545 3:0.294 4:0 5:0.061 6:0.041 7:0 8:0.02 9:0.082 10:0.122 11:0.143 12:0.061 13:0.082 14:0.082 15:0.061 16:0.02 17:0.143 18:0.061 19:0.02 20:0 
512 1:0.66 2:0.545 3:0.294 4:0 5:0.082 6:0 7:0.02 8:0.082 9:0.143 10:0.082 11:0.041 12:0 13:0.082 14:0.143 15:0.082 16:0.02 17:0.061 18:0.061 19:0.102 20:0 
-255.4953895373649 1:0.66 2:0.545 3:0.294 4:0 5:0.041 6:0.02 7:0.041 8:0.041 9:0.122 10:0.082 11:0.102 12:0.041 13:0.163 14:0.041 15:0.061 16:0.02 17:0.02 18:0.163 19:0.041 20:0 
512 1:0.66 2:0.545 3:0.294 4:0.02 5:0.02 6:0 7:0.061 8:0 9:0.163 10:0.184 11:0.02 12:0.041 13:0.143 14:0.061 15:0.041 16:0.02 17:0.041 18:0.061 19:0.122 20:0 
512 1:0.66 2:0.545 3:0.294 4:0.02 5:0.041 6:0.02 7:0.02 8:0 9:0.082 10:0.204 11:0.082 12:0.061 13:0.143 14:0.02 15:0.061 16:0.02 17:0.082 18:0.061 19:0.082 20:0 
-503.0185673154434 1:0.66 2:0.545 3:0.294 4:0 5:0 6:0.061 7:0.041 8:0.02 9:0.143 10:0.102 11:0.102 12:0.02 13:0.184 14:0.061 15:0.02 16:0.061 17:0.041 18:0.082 19:0.061 20:0 
-512 1:0.66 2:0.545 3:0.294 4:0 5:0.061 6:0.041 7:0 8:0.061 9:0.204 10:0.041 11:0.061 12:0 13:0.102 14:0.061 15:0.122 16:0.02 17:0 18:0.163 19:0.061 20:0 
-512 1:0.66 2:0.545 3:0.294 4:0.02 5:0.041 6:0.041 7:0 8:0.061 9:0.163 10:0.02 11:0.122 12:0 13:0.143 14:0.122 15:0.02 16:0.02 17:0.02 18:0.122 19:0.082 20:0 
392.6659410071824 1:0.66 2:0.545 3:0.294 4:0.02 5:0.041 6:0.041 7:0 8:0.041 9:0.102 10:0.204 11:0.02 12:0 13:0.082 14:0.02 15:0.184 16:0.041 17:0.143 18:0.041 19:0.02 20:0 
86.38190420136698 1:0.66 2:0.545 3:0.294 4:0 5:0.082 6:0.02 7:0 8:0.082 9:0.041 10:0.184 11:0.041 12:0.02 13:0.163 14:0.02 15:0.102 16:0 17:0.061 18:0.082 19:0.102 20:0 
-512 1:0.66 2:0.545 3:0.294 4:0 5:0.041 6:0.041 7:0.02 8:0.041 9:0.143 10:0.041 11:0.143 12:0.061 13:0.02 14:0.143 15:0.061 16:0 17:0.163 18:0.061 19:0.02 20:0 
512 1:0.66 2:0.545 3:0.294 4:0 5:0.041 6:0.02 7:0.041 8:0.082 9:0.041 10:0.143 11:0.082 12:0 13:0.143 14:0.122 15:0.041 16:0.02 17:0.143 18:0 19:0.082 20:0 
-355.572459960163 1:0.66 2:0.545 3:0.294 4:0 5:0 6:0.041 7:0.061 8:0.061 9:0.184 10:0 11:0.102 12:0.041 13:0.082 14:0.122 15:0.061 16:0 17:0.102 18:0.122 19:0.02 20:0 
-22.5371885839889 1:0.66 2:0.545 3:0.294 4:0.02 5:0 6:0.02 7:0.061 8:0.061 9:0.122 10:0.143 11:0.041 12:0.02 13:0.061 14:0.082 15:0.122 16:0 17:0.184 18:0.061 19:0 20:0 
512 1:0.66 2:0.545 3:0.294 4:0.02 5:0.041 6:0.041 7:0 8:0.041 9:0.102 10:0.041 11:0.184 12:0.02 13:0.041 14:0.224 15:0 16:0.02 17:0.163 18:0 19:0.061 20:0 
-497.6477388770414 1:0.66 2:0.545 3:0.294 4:0.02 5:0 6:0 7:0.061 8:0.02 9:0.102 10:0.122 11:0.122 12:0.061 13:0.143 14:0.041 15:0.061 16:0 17:0.122 18:0.122 19:0 20:0 
322.3285206022633 1:0.66 2:0.545 3:0.294 4:0 5:0.082 6:0 7:0.02 8:0.02 9:0.204 10:0.102 11:0.041 12:0.061 13:0 14:0.163 15:0.082 16:0.02 17:0.082 18:0.02 19:0.102 20:0 
-195.7566666583971 1:0.66 2:0.545 3:0.294 4:0 5:0.041 6:0.061 7:0 8:0.02 9:0.163 10:0 11:0.184 12:0.061 13:0.082 14:0.143 15:0.02 16:0.02 17:0.082 18:0.082 19:0.041 20:0 
-14.26100120587011 1:0.66 2:0.545 3:0.294 4:0 5:0.082 6:0.02 7:0 8:0 9:0.163 10:0.082 11:0.122 12:0.061 13:0.02 14:0.102 15:0.122 16:0.041 17:0.102 18:0.082 19:0 20:0 
-410.18388280871 1:0.66 2:0.545 3:0.294 4:0 5:0.061 6:0 7:0.041 8:0.061 9:0.102 10:0.163 11:0.041 12:0.041 13:0.122 14:0.102 15:0.02 16:0 17:0.082 18:0.02 19:0.143 20:0 
512 1:0.66 2:0.545 3:0.294 4:0.02 5:0.02 6:0 7:0.061 8:0.041 9:0.184 10:0.041 11:0.082 12:0.041 13:0.041 14:0.224 15:0 16:0 17:0.122 18:0.041 19:0.082 20:0 
-17.20740434355199 1:0.66 2:0.545 3:0.294 4:0 5:0.02 6:0.02 7:0.061 8:0.02 9:0.02 10:0.204 11:0.102 12:0.041 13:0.184 14:0.061 15:0.02 16:0.041 17:0.143 18:0.02 19:0.041 20:0 
-512 1:0.66 2:0.545 3:0.294 4:0 5:0.061 6:0 7:0.041 8:0.02 9:0.082 10:0.102 11:0.143 12:0.02 13:0.061 14:0.163 15:0.061 16:0.061 17:0.163 18:0.02 19:0 20:0 
512 1:0.66 2:0.545 3:0.294 4:0 5:0.082 6:0 7:0.02 8:0.061 9:0.122 10:0 11:0.163 12:0.02 13:0.082 14:0.163 15:0.041 16:0.02 17:0.061 18:0.143 19:0.02 20:0 
-4.059177689440729 1:0.66 2:0.545 3:0.294 4:0 5:0.082 6:0.02 7:0 8:0 9:0.163 10:0.102 11:0.082 12:0.041 13:0.102 14:0.041 15:0.122 16:0.061 17:0.02 18:0.122 19:0.041 20:0 
-184.0418368743471 1:0.66 2:0.545 3:0.294 4:0 5:0.041 6:0 7:0.061 8:0 9:0.102 10:0.224 11:0.041 12:0.061 13:0.041 14:0.041 15:0.143 16:0.041 17:0.163 18:0.041 19:0 20:0 
-101.8136809037806 1:0.66 2:0.606 3:0.294 4:0.02 5:0.041 6:0.02 7:0.02 8:0 9:0.184 10:0.082 11:0.143 12:0 13:0.061 14:0.122 15:0.061 16:0.061 17:0.122 18:0.041 19:0.02 20:0 
512 1:0.66 2:0.606 3:0.294 4:0 5:0.02 6:0.061 7:0.02 8:0.082 9:0.184 10:0.082 11:0.061 12:0 13:0.122 14:0.02 15:0.102 16:0.02 17:0.082 18:0.082 19:0.061 20:0 
-293.1478500393847 1:0.66 2:0.606 3:0.294 4:0 5:0.102 6:0 7:0 8:0 9:0.204 10:0.061 11:0.122 12:0.041 13:0.041 14:0.122 15:0.061 16:0.061 17:0.041 18:0.082 19:0.061 20:0 
-507.3217387371471 1:0.66 2:0.606 3:0.294 4:0 5:0.041 6:0.041 7:0.02 8:0.041 9:0.265 10:0.041 11:0.061 12:0.041 13:0.041 14:0.061 15:0.102 16:0.02 17:0.061 18:0.122 19:0.041 20:0 
512 1:0.66 2:0.606 3:0.294 4:0 5:0.061 6:0 7:0.041 8:0.102 9:0.143 10:0.102 11:0.041 12:0 13:0.082 14:0.082 15:0.102 16:0 17:0.122 18:0.061 19:0.061 20:0 
-512 1:0.66 2:0.606 3:0.294 4:0.02 5:0.061 6:0 7:0.02 8:0.041 9:0.102 10:0.163 11:0.082 12:0 13:0.184 14:0.041 15:0.041 16:0.041 17:0.061 18:0.041 19:0.102 20:0 
-512 1:0.66 2:0.606 3:0.294 4:0 5:0.041 6:0.061 7:0 8:0.041 9:0.163 10:0.082 11:0.122 12:0.061 13:0.061 14:0.061 15:0.061 16:0 17:0.143 18:0.041 19:0.061 20:0 
-512 1:0.66 2:0.606 3:0.294 4:0 5:0.041 6:0 7:0.061 8:0.082 9:0.184 10:0.082 11:0.061 12:0.02 13:0.122 14:0.082 15:0.02 16:0 17:0.061 18:0.102 19:0.082 20:0 
512 1:0.66 2:0.606 3:0.294 4:0.02 5:0.041 6:0 7:0.041 8:0.061 9:0.082 10:0.163 11:0.082 12:0 13:0.143 14:0.102 15:0.02 16:0 17:0.143 18:0 19:0.102 20:0 
512 1:0.66 2:0.606 3:0.294 4:0 5:0.082 6:0 7:0.02 8:0.041 9:0.224 10:0.061 11:0.082 12:0.061 13:0.02 14:0.143 15:0.02 16:0 17:0.082 18:0.041 19:0.122 20:0 
512 1:0.66 2:0.606 3:0.294 4:0 5:0.02 6:0.061 7:0.02 8:0.02 9:0.245 10:0.082 11:0.061 12:0.041 13:0.102 14:0.082 15:0.02 16:0.041 17:0.02 18:0.041 19:0.143 20:0 
98.01537971024557 1:0.66 2:0.606 3:0.294 4:0 5:0.02 6:0.061 7:0.02 8:0 9:0.224 10:0.143 11:0.02 12:0.02 13:0.061 14:0.041 15:0.143 16:0.061 17:0.102 18:0.02 19:0.061 20:0 
66.66253695122185 1:0.66 2:0.606 3:0.294 4:0 5:0 6:0.061 7:0.041 8:0.02 9:0.102 10:0.102 11:0.163 12:0.061 13:0.143 14:0.02 15:0.041 16:0 17:0.163 18:0.082 19:0 20:0 
512 1:0.66 2:0.606 3:0.294 4:0.02 5:0.02 6:0 7:0.061 8:0.061 9:0.143 10:0.143 11:0.041 12:0 13:0.143 14:0 15:0.122 16:0.02 17:0.082 18:0.122 19:0.02 20:0 
512 1:0.66 2:0.606 3:0.294 4:0 5:0.061 6:0.041 7:0 8:0.041 9:0.224 10:0.02 11:0.122 12:0.061 13:0.102 14:0.041 15:0.041 16:0 17:0.02 18:0.143 19:0.082 20:0 
-380.2131193566963 1:0.66 2:0.606 3:0.294 4:0 5:0.102 6:0 7:0 8:0.082 9:0.204 10:0.02 11:0.102 12:0 13:0.02 14:0.122 15:0.122 16:0.02 17:0.061 18:0.122 19:0.02 20:0 
512 1:0.66 2:0.606 3:0.294 4:0.02 5:0.02 6:0 7:0.061 8:0.02 9:0.041 10:0.184 11:0.143 12:0.041 13:0.184 14:0.041 15:0 16:0.02 17:0.163 18:0.02 19:0.041 20:0 
-80.83737773242311 1:0.66 2:0.606 3:0.294 4:0.02 5:0 6:0.02 7:0.061 8:0.061 9:0.265 10:0.041 11:0.02 12:0 13:0.122 14:0.061 15:0.082 16:0.02 17:0.02 18:0.122 19:0.082 20:0 
-395.4070798128181 1:0.66 2:0.606 3:0.294 4:0.02 5:0 6:0.041 7:0.041 8:0.041 9:0.122 10:0.102 11:0.122 12:0.041 13:0.102 14:0.122 15:0 16:0 17:0.184 18:0 19:0.061 20:0 
512 1:0.66 2:0.606 3:0.294 4:0 5:0.041 6:0.061 7:0 8:0.02 9:0.082 10:0.184 11:0.102 12:0 13:0.163 14:0 15:0.102 16:0.061 17:0.122 18:0.02 19:0.041 20:0 
512 1:0.66 2:0.636 3:0.294 4:0 5:0.041 6:0.041 7:0.02 8:0.041 9:0.184 10:0.041 11:0.163 12:0.061 13:0.102 14:0.041 15:0.02 16:0 17:0.102 18:0.102 19:0.041 20:0 
512 1:0.66 2:0.636 3:0.294 4:0 5:0.041 6:0.061 7:0 8:0.041 9:0.184 10:0.102 11:0.082 12:0.02 13:0.082 14:0.082 15:0.061 16:0.02 17:0.122 18:0 19:0.102 20:0 
512 1:0.66 2:0.636 3:0.294 4:0 5:0.041 6:0.041 7:0.02 8:0.102 9:0.163 10:0.061 11:0.102 12:0 13:0.143 14:0.082 15:0 16:0 17:0.082 18:0.041 19:0.122 20:0 
-131.8736009730617 1:0.66 2:0.636 3:0.294 4:0 5:0.02 6:0.061 7:0.02 8:0.02 9:0.122 10:0.122 11:0.163 12:0.02 13:0.204 14:0 15:0.02 16:0.061 17:0.082 18:0.061 19:0.02 20:0 
512 1:0.66 2:0.636 3:0.294 4:0 5:0.082 6:0 7:0.02 8:0.082 9:0.122 10:0.122 11:0.102 12:0 13:0.041 14:0.061 15:0.122 16:0.02 17:0.163 18:0.061 19:0 20:0 
512 1:0.66 2:0.636 3:0.294 4:0 5:0.02 6:0.02 7:0.061 8:0.041 9:0.245 10:0.143 11:0 12:0.041 13:0.082 14:0.041 15:0.061 16:0.02 17:0.061 18:0.041 19:0.122 20:0 
512 1:0.66 2:0.636 3:0.294 4:0.02 5:0.082 6:0 7:0 8:0.041 9:0.224 10:0.061 11:0.082 12:0.041 13:0.102 14:0.082 15:0.02 16:0 17:0.02 18:0.082 19:0.143 20:0 
26.85787491961407 1:0.66 2:0.636 3:0.294 4:0 5:0.041 6:0 7:0.061 8:0.041 9:0.061 10:0.184 11:0.122 12:0.041 13:0.163 14:0.02 15:0.02 16:0 17:0.163 18:0.041 19:0.041 20:0 
249.9010718017225 1:0.66 2:0.636 3:0.294 4:0 5:0 6:0.061 7:0.041 8:0.082 9:0.163 10:0.061 11:0.122 12:0.02 13:0.061 14:0.082 15:0.082 16:0 17:0.204 18:0.02 19:0 20:0 
512 1:0.66 2:0.636 3:0.294 4:0 5:0.061 6:0 7:0.041 8:0.02 9:0.245 10:0.041 11:0.122 12:0.041 13:0.02 14:0.143 15:0.041 16:0.041 17:0.102 18:0.041 19:0.041 20:0 
31.02161530057268 1:0.66 2:0.636 3:0.294 4:0.02 5:0.041 6:0 7:0.041 8:0.041 9:0.163 10:0.102 11:0.122 12:0.041 13:0.163 14:0 15:0.041 16:0 17:0.061 18:0.122 19:0.041 20:0 
-206.7785530190123 1:0.66 2:0.636 3:0.294 4:0.02 5:0.041 6:0.041 7:0 8:0.02 9:0.122 10:0.163 11:0.102 12:0.041 13:0.061 14:0 15:0.143 16:0 17:0.204 18:0.041 19:0 20:0 
-19.96234374219433 1:0.66 2:0.636 3:0.294 4:0 5:0.041 6:0.061 7:0 8:0.041 9:0.184 10:0.102 11:0.082 12:0 13:0.163 14:0.061 15:0.02 16:0.061 17:0.02 18:0.02 19:0.143 20:0 
-436.0640837742894 1:0.66 2:0.636 3:0.294 4:0 5:0.02 6:0.061 7:0.02 8:0.102 9:0.224 10:0.02 11:0.082 12:0 13:0 14:0.102 15:0.122 16:0 17:0.163 18:0.061 19:0.02 20:0 
-512 1:0.66 2:0.636 3:0.294 4:0 5:0.102 6:0 7:0 8:0.02 9:0.102 10:0.163 11:0.122 12:0.041 13:0.143 14:0.02 15:0.041 16:0.041 17:0.061 18:0.061 19:0.082 20:0 
512 1:0.66 2:0.636 3:0.294 4:0 5:0.102 6:0 7:0 8:0.041 9:0.061 10:0.102 11:0.204 12:0.02 13:0.102 14:0.122 15:0 16:0.041 17:0.163 18:0.02 19:0.02 20:0 
-18.84457003910744 1:0.66 2:0.636 3:0.294 4:0 5:0.082 6:0 7:0.02 8:0.102 9:0.102 10:0.143 11:0.061 12:0 13:0.061 14:0.102 15:0.082 16:0 17:0.163 18:0 19:0.082 20:0 
-512 1:0.66 2:0.636 3:0.294 4:0.02 5:0.082 6:0 7:0 8:0.061 9:0.163 10:0.122 11:0.061 12:0 13:0.122 14:0 15:0.122 16:0.02 17:0.061 18:0.122 19:0.041 20:0 
251.3136583867133 1:0.66 2:0.636 3:0.294 4:0 5:0.102 6:0 7:0 8:0.02 9:0.143 10:0.143 11:0.122 12:0.061 13:0.082 14:0.082 15:0 16:0 17:0.102 18:0.02 19:0.122 20:0 
-279.3543469874838 1:0.66 2:0.636 3:0.294 4:0.02 5:0.02 6:0.061 7:0 8:0.02 9:0.204 10:0.102 11:0.102 12:0.061 13:0.122 14:0.02 15:0.02 16:0 17:0.082 18:0.061 19:0.102 20:0 
-512 1:0.66 2:0.636 3:0.294 4:0 5:0.061 6:0.041 7:0 8:0.102 9:0.082 10:0.102 11:0.122 12:0 13:0.184 14:0 15:0.061 16:0 17:0.082 18:0.102 19:0.061 20:0 
-42.48523448701062 1:0.66 2:0.636 3:0.294 4:0 5:0.102 6:0 7:0 8:0 9:0.204 10:0.061 11:0.163 12:0.061 13:0.122 14:0.061 15:0 16:0.041 17:0 18:0.102 19:0.082 20:0 
-18.22021439595473 1:0.66 2:0.636 3:0.294 4:0 5:0.041 6:0.061 7:0 8:0 9:0.163 10:0.041 11:0.204 12:0.041 13:0.082 14:0.122 15:0 16:0.061 17:0.122 18:0.02 19:0.041 20:0 
-262.8541996757031 1:0.66 2:0.636 3:0.294 4:0 5:0.02 6:0.061 7:0.02 8:0.02 9:0.245 10:0.122 11:0.041 12:0 13:0.061 14:0.02 15:0.143 16:0.061 17:0.102 18:0.041 19:0.041 20:0 
-512 1:0.66 2:0.636 3:0.294 4:0.02 5:0.02 6:0.041 7:0.02 8:0.061 9:0.245 10:0.061 11:0.041 12:0.02 13:0.143 14:0.02 15:0.061 16:0 17:0.02 18:0.102 19:0.122 20:0 
-512 1:0.66 2:0.636 3:0.294 4:0 5:0.082 6:0 7:0.02 8:0 9:0.224 10:0.143 11:0.061 12:0.061 13:0.102 14:0.02 15:0.041 16:0.041 17:0.02 18:0.082 19:0.102 20:0 
-512 1:0.66 2:0.636 3:0.294 4:0 5:0.041 6:0 7:0.061 8:0.041 9:0.163 10:0.143 11:0.061 12:0 13:0.204 14:0.02 15:0.02 16:0.061 17:0.02 18:0.061 19:0.102 20:0 
-305.0198883947126 1:0.66 2:0.636 3:0.294 4:0 5:0.041 6:0.061 7:0 8:0.061 9:0.02 10:0.143 11:0.184 12:0 13:0.204 14:0.02 15:0.02 16:0.041 17:0.143 18:0.02 19:0.041 20:0 
-350.9540207489761 1:0.66 2:0.636 3:0.294 4:0 5:0.02 6:0.041 7:0.041 8:0.02 9:0.245 10:0.041 11:0.122 12:0.02 13:0.143 14:0.061 15:0 16:0.061 17:0.02 18:0.082 19:0.082 20:0 
-474.3985593419369 1:0.66 2:0.636 3:0.294 4:0.02 5:0.02 6:0.061 7:0 8:0.082 9:0.245 10:0 11:0.102 12:0 13:0.102 14:0.102 15:0.02 16:0 17:0.041 18:0.082 19:0.122 20:0 
512 1:0.66 2:0.636 3:0.294 4:0 5:0.082 6:0.02 7:0 8:0.102 9:0.163 10:0.122 11:0.02 12:0 13:0.163 14:0.02 15:0.061 16:0 17:0.02 18:0.082 19:0.143 20:0 
-248.2055532232361 1:0.66 2:0.636 3:0.294 4:0 5:0.082 6:0.02 7:0 8:0.082 9:0.041 10:0.143 11:0.143 12:0.02 13:0.102 14:0.02 15:0.102 16:0 17:0.184 18:0.061 19:0 20:0 
419.6787950641762 1:0.66 2:0.636 3:0.294 4:0.02 5:0.061 6:0.02 7:0 8:0.041 9:0.224 10:0.02 11:0.143 12:0.02 13:0 14:0.102 15:0.102 16:0.02 17:0.122 18:0.102 19:0 20:0 
512 1:0.66 2:0.636 3:0.294 4:0 5:0.02 6:0.041 7:0.041 8:0.102 9:0.082 10:0.102 11:0.122 12:0 13:0.143 14:0.102 15:0 16:0 17:0.163 18:0 19:0.082 20:0 
-100.951525862146 1:0.66 2:0.636 3:0.294 4:0 5:0.082 6:0.02 7:0 8:0 9:0.265 10:0.082 11:0.061 12:0.061 13:0.061 14:0 15:0.122 16:0.041 17:0 18:0.143 19:0.061 20:0 
479.8466205176534 1:0.66 2:0.697 3:0.294 4:0 5:0.02 6:0.02 7:0.061 8:0.041 9:0.224 10:0.061 11:0.122 12:0.02 13:0.163 14:0.02 15:0 16:0.041 17:0.041 18:0.102 19:0.061 20:0 
-225.7212964776355 1:0.66 2:0.697 3:0.294 4:0 5:0.041 6:0.041 7:0.02 8:0.061 9:0.184 10:0.122 11:0.082 12:0 13:0.082 14:0.041 15:0.082 16:0.02 17:0.163 18:0 19:0.061 20:0 
512 1:0.66 2:0.697 3:0.294 4:0.02 5:0.02 6:0.041 7:0.02 8:0 9:0.306 10:0.102 11:0.061 12:0.02 13:0.082 14:0.041 15:0.041 16:0.061 17:0.061 18:0.02 19:0.102 20:0 
512 1:0.66 2:0.697 3:0.294 4:0 5:0.061 6:0.02 7:0.02 8:0.082 9:0.286 10:0 11:0.102 12:0.02 13:0.082 14:0.041 15:0.041 16:0 17:0.041 18:0.122 19:0.082 20:0 
512 1:0.66 2:0.697 3:0.294 4:0 5:0 6:0.041 7:0.061 8:0.041 9:0.286 10:0.041 11:0.102 12:0 13:0.102 14:0.041 15:0.041 16:0.061 17:0.082 18:0.061 19:0.041 20:0 
512 1:0.66 2:0.697 3:0.294 4:0.02 5:0.02 6:0 7:0.061 8:0.041 9:0.265 10:0.102 11:0.061 12:0.041 13:0.041 14:0.082 15:0.02 16:0 17:0.143 18:0.02 19:0.082 20:0 
-252.9701491573168 1:0.66 2:0.697 3:0.294 4:0 5:0.061 6:0.02 7:0.02 8:0.102 9:0.102 10:0.122 11:0.122 12:0 13:0.102 14:0.02 15:0.082 16:0 17:0.204 18:0.041 19:0 20:0 
-512 1:0.66 2:0.697 3:0.294 4:0.02 5:0 6:0.02 7:0.061 8:0.02 9:0.184 10:0.163 11:0.102 12:0.041 13:0.143 14:0.02 15:0 16:0.02 17:0.122 18:0 19:0.082 20:0 
-89.10217661021119 1:0.66 2:0.697 3:0.294 4:0 5:0.082 6:0.02 7:0 8:0.082 9:0.143 10:0.163 11:0.082 12:0.02 13:0.02 14:0.02 15:0.122 16:0 17:0.224 18:0 19:0.02 20:0 
-91.77691241743302 1:0.66 2:0.697 3:0.294 4:0 5:0.041 6:0 7:0.061 8:0.041 9:0.204 10:0.122 11:0.082 12:0.041 13:0 14:0.061 15:0.102 16:0.02 17:0.204 18:0.02 19:0 20:0 
244.6152930636924 1:0.66 2:0.697 3:0.294 4:0 5:0 6:0.041 7:0.061 8:0.041 9:0.265 10:0.061 11:0.082 12:0 13:0.02 14:0.082 15:0.102 16:0.061 17:0.184 18:0 19:0 20:0 
-512 1:0.66 2:0.697 3:0.294 4:0 5:0.02 6:0.041 7:0.041 8:0.02 9:0.306 10:0 11:0.143 12:0.041 13:0.041 14:0.102 15:0 16:0.041 17:0.102 18:0.061 19:0.041 20:0 
-146.3694735162904 1:0.66 2:0.697 3:0.294 4:0.02 5:0.041 6:0.041 7:0 8:0.02 9:0.143 10:0.061 11:0.224 12:0.02 13:0.102 14:0.082 15:0 16:0.041 17:0.184 18:0.02 19:0 20:0 
512 1:0.66 2:0.758 3:0.294 4:0.02 5:0.02 6:0.041 7:0.02 8:0.082 9:0.286 10:0.082 11:0.041 12:0 13:0.082 14:0.041 15:0.041 16:0 17:0.122 18:0 19:0.122 20:0 
-469.0215390608499 1:0.66 2:0.758 3:0.294 4:0 5:0.041 6:0 7:0.061 8:0.102 9:0.204 10:0.082 11:0.102 12:0 13:0.143 14:0.02 15:0 16:0 17:0.122 18:0.061 19:0.061 20:0 
-512 1:0.66 2:0.758 3:0.294 4:0 5:0.102 6:0 7:0 8:0.02 9:0.245 10:0.061 11:0.184 12:0.041 13:0.02 14:0.041 15:0.061 16:0.02 17:0.143 18:0.061 19:0 20:0 
28.7676415664925 1:0.66 2:0.758 3:0.294 4:0 5:0.102 6:0 7:0 8:0.041 9:0.184 10:0.102 11:0.184 12:0 13:0.122 14:0 15:0.041 16:0.061 17:0.082 18:0.061 19:0.02 20:0 
-161.6313756761929 1:0.66 2:0.758 3:0.294 4:0 5:0.082 6:0 7:0 8:0 9:0.347 10:0.061 11:0.102 12:0.02 13:0.082 14:0.041 15:0.02 16:0.061 17:0 18:0.061 19:0.122 20:0 
2.499091879975406 1:0.66 2:0.758 3:0.294 4:0 5:0.102 6:0 7:0 8:0.082 9:0.286 10:0.122 11:0.02 12:0 13:0.041 14:0.041 15:0.082 16:0.02 17:0.082 18:0 19:0.122 20:0 
453.0985591378391 1:0.66 2:0.758 3:0.294 4:0.02 5:0.041 6:0.041 7:0 8:0.02 9:0.306 10:0 11:0.184 12:0.041 13:0.041 14:0.02 15:0.041 16:0.02 17:0.122 18:0.082 19:0.02 20:0 
-174.4487746005465 1:0.66 2:0.758 3:0.294 4:0.02 5:0.02 6:0.041 7:0.02 8:0.02 9:0.286 10:0.041 11:0.163 12:0.02 13:0.02 14:0.061 15:0.061 16:0.041 17:0.184 18:0 19:0 20:0 
128.6118256726324 1:0.66 2:0.788 3:0.294 4:0 5:0.041 6:0 7:0.041 8:0.082 9:0.204 10:0.102 11:0.143 12:0.02 13:0.061 14:0.041 15:0.02 16:0 17:0.224 18:0 19:0.02 20:0 
-131.622420301769 1:0.66 2:0.788 3:0.294 4:0.02 5:0.082 6:0 7:0 8:0.02 9:0.184 10:0.143 11:0.163 12:0.02 13:0.061 14:0 15:0.061 16:0.041 17:0.184 18:0 19:0.02 20:0 
-66.14992606034855 1:0.66 2:0.788 3:0.294 4:0 5:0.102 6:0 7:0 8:0.061 9:0.204 10:0.143 11:0.102 12:0 13:0.102 14:0 15:0.041 16:0.02 17:0.122 18:0 19:0.102 20:0 
-506.7635948690435 1:0.66 2:0.788 3:0.294 4:0 5:0.082 6:0.02 7:0 8:0.02 9:0.245 10:0.061 11:0.184 12:0.02 13:0.122 14:0 15:0 16:0.061 17:0.061 18:0.061 19:0.061 20:0 
-226.2571715928642 1:0.66 2:0.788 3:0.294 4:0 5:0.102 6:0 7:0 8:0.102 9:0.245 10:0.061 11:0.102 12:0 13:0.082 14:0.041 15:0.02 16:0 17:0.082 18:0.041 19:0.122 20:0 
-305.9065657851643 1:0.66 2:0.788 3:0.294 4:0 5:0.061 6:0.02 7:0.02 8:0.102 9:0.102 10:0.122 11:0.184 12:0 13:0.143 14:0 15:0 16:0 17:0.204 18:0 19:0.041 20:0 
-32.70608422843917 1:0.66 2:0.212 3:0.353 4:0 5:0.041 6:0.041 7:0.041 8:0.041 9:0.02 10:0.041 11:0.041 12:0.02 13:0.061 14:0.286 15:0.143 16:0.061 17:0.02 18:0.143 19:0 20:0 
-172.4600378964973 1:0.66 2:0.212 3:0.353 4:0 5:0.041 6:0.061 7:0.02 8:0.02 9:0.02 10:0.102 11:0 12:0.061 13:0.082 14:0.163 15:0.204 16:0.041 17:0 18:0.184 19:0 20:0 
-215.0436837692854 1:0.66 2:0.212 3:0.353 4:0.02 5:0.02 6:0.041 7:0.041 8:0 9:0 10:0.102 11:0.02 12:0.02 13:0.061 14:0.347 15:0.102 16:0.061 17:0.061 18:0.041 19:0.061 20:0 
4.537977634557519 1:0.66 2:0.212 3:0.353 4:0.02 5:0 6:0.102 7:0 8:0.041 9:0 10:0.041 11:0.061 12:0 13:0.143 14:0.224 15:0.143 16:0.041 17:0 18:0.163 19:0.02 20:0 
120.5811447759226 1:0.66 2:0.212 3:0.353 4:0 5:0 6:0.122 7:0 8:0.041 9:0.041 10:0.041 11:0 12:0.02 13:0.082 14:0.224 15:0.204 16:0.061 17:0.02 18:0.122 19:0.02 20:0 
-53.18356252390416 1:0.66 2:0.242 3:0.353 4:0.02 5:0 6:0.041 7:0.061 8:0 9:0.02 10:0.122 11:0.02 12:0.102 13:0.143 14:0.163 15:0.082 16:0 17:0 18:0.163 19:0.061 20:0 
-5.433883694590985 1:0.66 2:0.242 3:0.353 4:0.02 5:0.041 6:0 7:0.061 8:0.041 9:0.041 10:0.02 11:0.041 12:0.02 13:0.041 14:0.347 15:0.102 16:0.041 17:0.041 18:0.143 19:0 20:0 
-361.2543106988352 1:0.66 2:0.303 3:0.353 4:0 5:0.02 6:0.082 7:0.02 8:0 9:0.061 10:0.122 11:0 12:0.082 13:0.02 14:0.184 15:0.184 16:0.02 17:0.102 18:0.082 19:0.02 20:0 
-20.98791863899966 1:0.66 2:0.303 3:0.353 4:0 5:0.061 6:0 7:0.061 8:0.061 9:0.041 10:0.041 11:0.041 12:0.041 13:0.082 14:0.306 15:0.041 16:0.02 17:0.02 18:0.102 19:0.082 20:0 
97.80479618491066 1:0.66 2:0.303 3:0.353 4:0 5:0.041 6:0.061 7:0.02 8:0.061 9:0.061 10:0.041 11:0.02 12:0.041 13:0.041 14:0.327 15:0.061 16:0.02 17:0.061 18:0.02 19:0.122 20:0 
-512 1:0.66 2:0.303 3:0.353 4:0 5:0.041 6:0.041 7:0.041 8:0 9:0.102 10:0.061 11:0.02 12:0.122 13:0.02 14:0.286 15:0.041 16:0 17:0.041 18:0.082 19:0.102 20:0 
5.131079066190898 1:0.66 2:0.303 3:0.353 4:0 5:0 6:0.122 7:0 8:0.061 9:0 10:0.102 11:0.041 12:0.041 13:0.184 14:0.163 15:0.082 16:0.02 17:0.02 18:0.061 19:0.102 20:0 
-260.3630847037356 1:0.66 2:0.303 3:0.353 4:0 5:0 6:0.122 7:0 8:0.041 9:0.061 10:0 11:0.082 12:0 13:0.061 14:0.327 15:0.082 16:0.061 17:0.082 18:0.02 19:0.061 20:0 
196.2296224289728 1:0.66 2:0.303 3:0.353 4:0.02 5:0 6:0.102 7:0 8:0.02 9:0.061 10:0.102 11:0.02 12:0.02 13:0.143 14:0.102 15:0.184 16:0.061 17:0 18:0.163 19:0 20:0 
512 1:0.66 2:0.303 3:0.353 4:0 5:0 6:0.061 7:0.061 8:0.041 9:0.041 10:0.102 11:0 12:0 13:0.122 14:0.306 15:0.041 16:0.061 17:0.041 18:0 19:0.122 20:0 
512 1:0.66 2:0.364 3:0.353 4:0.02 5:0.041 6:0.02 7:0.041 8:0.041 9:0.061 10:0.02 11:0.102 12:0.02 13:0.082 14:0.265 15:0.061 16:0.041 17:0.041 18:0.122 19:0.02 20:0 
-410.4053295711958 1:0.66 2:0.364 3:0.353 4:0.02 5:0.061 6:0 7:0.02 8:0.02 9:0.02 10:0.163 11:0.041 12:0.061 13:0.102 14:0.122 15:0.143 16:0.02 17:0.061 18:0.143 19:0 20:0 
-512 1:0.66 2:0.364 3:0.353 4:0 5:0.041 6:0.061 7:0.02 8:0 9:0.122 10:0.061 11:0.061 12:0.102 13:0.082 14:0.184 15:0.041 16:0.02 17:0 18:0.102 19:0.102 20:0 
204.9111956904381 1:0.66 2:0.364 3:0.353 4:0 5:0.061 6:0.041 7:0 8:0 9:0 10:0.204 11:0.041 12:0.102 13:0.102 14:0.143 15:0.082 16:0.02 17:0.082 18:0.041 19:0.082 20:0 
-512 1:0.66 2:0.364 3:0.353 4:0.02 5:0 6:0.102 7:0 8:0.061 9:0.122 10:0.02 11:0.041 12:0.02 13:0.082 14:0.224 15:0.082 16:0.02 17:0.041 18:0.061 19:0.102 20:0 
512 1:0.66 2:0.364 3:0.353 4:0.02 5:0.02 6:0.082 7:0 8:0 9:0.102 10:0.061 11:0.082 12:0.061 13:0.102 14:0.102 15:0.143 16:0.041 17:0.02 18:0.163 19:0 20:0 
512 1:0.66 2:0.364 3:0.353 4:0.02 5:0.061 6:0.041 7:0 8:0.041 9:0.041 10:0.102 11:0.041 12:0 13:0.143 14:0.224 15:0.061 16:0.061 17:0 18:0.041 19:0.122 20:0 
512 1:0.66 2:0.364 3:0.353 4:0 5:0.061 6:0.041 7:0.02 8:0 9:0.061 10:0.102 11:0.082 12:0.122 13:0.061 14:0.224 15:0 16:0 17:0.061 18:0.061 19:0.102 20:0 
-298.905041657178 1:0.66 2:0.364 3:0.353 4:0 5:0.02 6:0.041 7:0.061 8:0.061 9:0.02 10:0.102 11:0.061 12:0 13:0.163 14:0.265 15:0 16:0.041 17:0.041 18:0.02 19:0.102 20:0 
-180.8086963198485 1:0.66 2:0.394 3:0.353 4:0 5:0.041 6:0.02 7:0.061 8:0 9:0.122 10:0.122 11:0.02 12:0.082 13:0.02 14:0.163 15:0.122 16:0.041 17:0.082 18:0.082 19:0.02 20:0 
174.6171899116748 1:0.66 2:0.394 3:0.353 4:0 5:0 6:0.082 7:0.041 8:0.041 9:0.122 10:0.02 11:0.082 12:0.061 13:0.02 14:0.204 15:0.102 16:0.02 17:0.122 18:0.082 19:0 20:0 
-132.357127713466 1:0.66 2:0.394 3:0.353 4:0.02 5:0 6:0.041 7:0.061 8:0.041 9:0.143 10:0.02 11:0.041 12:0.02 13:0.102 14:0.245 15:0.041 16:0.041 17:0.02 18:0.082 19:0.082 20:0 
-512 1:0.66 2:0.394 3:0.353 4:0 5:0 6:0.102 7:0.02 8:0.02 9:0.143 10:0.102 11:0 12:0.041 13:0.082 14:0.143 15:0.122 16:0.041 17:0.041 18:0.061 19:0.082 20:0 
-512 1:0.66 2:0.394 3:0.353 4:0.02 5:0 6:0.041 7:0.061 8:0.02 9:0.041 10:0.082 11:0.122 12:0.02 13:0.163 14:0.204 15:0 16:0.061 17:0.061 18:0.061 19:0.041 20:0 
512 1:0.66 2:0.394 3:0.353 4:0 5:0.041 6:0.02 7:0.061 8:0.061 9:0 10:0.184 11:0 12:0.041 13:0.163 14:0.102 15:0.102 16:0.02 17:0.061 18:0.102 19:0.041 20:0 
75.51080265966992 1:0.66 2:0.394 3:0.353 4:0 5:0.061 6:0.061 7:0 8:0.02 9:0.143 10:0.061 11:0.041 12:0.102 13:0.041 14:0.143 15:0.102 16:0 17:0.02 18:0.143 19:0.061 20:0 
-61.35846275037301 1:0.66 2:0.394 3:0.353 4:0 5:0.02 6:0.102 7:0 8:0.061 9:0.061 10:0.02 11:0.122 12:0.041 13:0.163 14:0.102 15:0.082 16:0.02 17:0 18:0.184 19:0.02 20:0 
116.6180394492376 1:0.66 2:0.394 3:0.353 4:0.02 5:0 6:0.102 7:0 8:0.02 9:0.082 10:0.122 11:0.02 12:0.082 13:0.163 14:0.041 15:0.122 16:0 17:0 18:0.143 19:0.082 20:0 
-512 1:0.66 2:0.394 3:0.353 4:0 5:0.02 6:0.082 7:0.02 8:0 9:0.102 10:0.02 11:0.143 12:0.061 13:0.143 14:0.163 15:0.02 16:0.061 17:0 18:0.122 19:0.041 20:0 
512 1:0.66 2:0.394 3:0.353 4:0.02 5:0 6:0.082 7:0.02 8:0.061 9:0.082 10:0.041 11:0.082 12:0.02 13:0.143 14:0.224 15:0 16:0.02 17:0.041 18:0.041 19:0.122 20:0 
512 1:0.66 2:0.394 3:0.353 4:0 5:0 6:0.122 7:0 8:0.041 9:0.163 10:0.02 11:0.041 12:0.061 13:0.102 14:0.122 15:0.102 16:0.02 17:0 18:0.122 19:0.082 20:0 
-368.4762166848582 1:0.66 2:0.455 3:0.353 4:0 5:0.082 6:0.02 7:0.02 8:0.041 9:0.061 10:0.184 11:0.02 12:0.02 13:0.082 14:0.122 15:0.143 16:0.061 17:0.082 18:0.02 19:0.041 20:0 
-445.7798636182808 1:0.66 2:0.455 3:0.353 4:0 5:0.02 6:0.082 7:0.02 8:0.082 9:0.061 10:0.122 11:0.041 12:0 13:0.184 14:0.122 15:0.041 16:0.041 17:0.041 18:0.041 19:0.102 20:0 
-512 1:0.66 2:0.455 3:0.353 4:0.02 5:0.041 6:0.02 7:0.041 8:0.041 9:0.122 10:0.082 11:0.041 12:0.02 13:0.102 14:0.204 15:0.041 16:0.041 17:0.041 18:0.061 19:0.082 20:0 
18.74583433502879 1:0.66 2:0.455 3:0.353 4:0.02 5:0.02 6:0.041 7:0.02 8:0.02 9:0.163 10:0.061 11:0.061 12:0.061 13:0 14:0.184 15:0.122 16:0.02 17:0.102 18:0.082 19:0.02 20:0 
227.2110834758996 1:0.66 2:0.455 3:0.353 4:0.02 5:0.041 6:0.041 7:0.02 8:0.061 9:0.102 10:0.102 11:0.02 12:0.02 13:0.163 14:0.082 15:0.102 16:0.02 17:0 18:0.122 19:0.082 20:0 
43.54695688956982 1:0.66 2:0.455 3:0.353 4:0 5:0.061 6:0 7:0.061 8:0.02 9:0.082 10:0.041 11:0.143 12:0.041 13:0.143 14:0.163 15:0.02 16:0.061 17:0.02 18:0.143 19:0 20:0 
-36.1593313663008 1:0.66 2:0.455 3:0.353 4:0.02 5:0.041 6:0.041 7:0.02 8:0 9:0.02 10:0.204 11:0.082 12:0.082 13:0.245 14:0.02 15:0.02 16:0 17:0 18:0.102 19:0.102 20:0 
-268.5516185095462 1:0.66 2:0.455 3:0.353 4:0 5:0.061 6:0.02 7:0.02 8:0 9:0.061 10:0.082 11:0.163 12:0.102 13:0.163 14:0.082 15:0.02 16:0.02 17:0.02 18:0.163 19:0.02 20:0 
235.0650539085171 1:0.66 2:0.455 3:0.353 4:0.02 5:0.02 6:0.061 7:0.02 8:0.082 9:0.041 10:0.143 11:0.041 12:0.02 13:0.082 14:0.143 15:0.102 16:0 17:0.163 18:0 19:0.061 20:0 
-512 1:0.66 2:0.455 3:0.353 4:0 5:0 6:0.102 7:0.02 8:0 9:0.163 10:0.082 11:0.061 12:0.102 13:0.041 14:0.102 15:0.102 16:0 17:0.102 18:0.082 19:0.041 20:0 
-189.659256058758 1:0.66 2:0.455 3:0.353 4:0.02 5:0.061 6:0.041 7:0 8:0.061 9:0.143 10:0.02 11:0.082 12:0.041 13:0.02 14:0.265 15:0.041 16:0 17:0.082 18:0.02 19:0.102 20:0 
-72.18317407035912 1:0.66 2:0.455 3:0.353 4:0 5:0.041 6:0.02 7:0.061 8:0 9:0 10:0.245 11:0.061 12:0.061 13:0.184 14:0.02 15:0.082 16:0.061 17:0.082 18:0.061 19:0.02 20:0 
512 1:0.66 2:0.455 3:0.353 4:0.02 5:0.02 6:0.041 7:0.041 8:0.041 9:0.122 10:0.061 11:0.082 12:0.02 13:0.143 14:0.082 15:0.102 16:0.041 17:0 18:0.184 19:0 20:0 
-512 1:0.66 2:0.515 3:0.353 4:0 5:0.02 6:0.082 7:0.02 8:0.041 9:0.143 10:0.102 11:0.061 12:0.041 13:0.041 14:0.102 15:0.122 16:0.02 17:0.143 18:0.041 19:0.02 20:0 
101.8849149681166 1:0.66 2:0.515 3:0.353 4:0 5:0.061 6:0 7:0.061 8:0.082 9:0.082 10:0.122 11:0.061 12:0.041 13:0.143 14:0.082 15:0.041 16:0 17:0.061 18:0.102 19:0.061 20:0 
334.1635181937696 1:0.66 2:0.515 3:0.353 4:0 5:0.082 6:0.041 7:0 8:0.02 9:0.082 10:0.122 11:0.122 12:0.041 13:0.163 14:0.041 15:0.061 16:0.061 17:0.02 18:0.102 19:0.041 20:0 
512 1:0.66 2:0.515 3:0.353 4:0 5:0.102 6:0 7:0.02 8:0.041 9:0.122 10:0.143 11:0.041 12:0.041 13:0.082 14:0.041 15:0.143 16:0.041 17:0.041 18:0.122 19:0.02 20:0 
-183.195618023169 1:0.66 2:0.515 3:0.353 4:0 5:0.02 6:0.082 7:0.02 8:0.041 9:0.184 10:0.041 11:0.082 12:0.061 13:0.041 14:0.143 15:0.061 16:0.02 17:0.082 18:0.061 19:0.061 20:0 
512 1:0.66 2:0.515 3:0.353 4:0.02 5:0.02 6:0.082 7:0 8:0.061 9:0.102 10:0.041 11:0.143 12:0.02 13:0.143 14:0.061 15:0.082 16:0 17:0.082 18:0.143 19:0 20:0 
512 1:0.66 2:0.515 3:0.353 4:0.02 5:0.061 6:0 7:0.041 8:0.02 9:0.122 10:0.102 11:0.102 12:0.02 13:0.041 14:0.163 15:0.082 16:0.061 17:0.122 18:0.041 19:0 20:0 
512 1:0.66 2:0.515 3:0.353 4:0 5:0.082 6:0.02 7:0.02 8:0.061 9:0.184 10:0.082 11:0.02 12:0.041 13:0 14:0.143 15:0.122 16:0.02 17:0.082 18:0.082 19:0.041 20:0 
512 1:0.66 2:0.515 3:0.353 4:0 5:0.061 6:0.061 7:0 8:0 9:0.184 10:0.02 11:0.143 12:0.082 13:0.061 14:0.102 15:0.061 16:0.041 17:0.02 18:0.143 19:0.02 20:0 
-512 1:0.66 2:0.515 3:0.353 4:0.02 5:0.082 6:0 7:0.02 8:0.041 9:0.163 10:0.122 11:0 12:0.02 13:0.061 14:0.184 15:0.061 16:0.041 17:0.041 18:0.02 19:0.122 20:0 
512 1:0.66 2:0.515 3:0.353 4:0.02 5:0.02 6:0.061 7:0 8:0.102 9:0.163 10:0.041 11:0.041 12:0 13:0.102 14:0.061 15:0.163 16:0 17:0.061 18:0.163 19:0 20:0 
-512 1:0.66 2:0.515 3:0.353 4:0.02 5:0.041 6:0.02 7:0.041 8:0 9:0.122 10:0.102 11:0.122 12:0.082 13:0.102 14:0.061 15:0.061 16:0.02 17:0.061 18:0.143 19:0 20:0 
-155.1501802064633 1:0.66 2:0.515 3:0.353 4:0 5:0.102 6:0 7:0.02 8:0.082 9:0.041 10:0.143 11:0.082 12:0.02 13:0.143 14:0.041 15:0.122 16:0 17:0.061 18:0.143 19:0 20:0 
203.893362008921 1:0.66 2:0.515 3:0.353 4:0 5:0.02 6:0.02 7:0.061 8:0 9:0.265 10:0.061 11:0.02 12:0.061 13:0.02 14:0.163 15:0.082 16:0.041 17:0.041 18:0.082 19:0.061 20:0 
87.57588693889194 1:0.66 2:0.515 3:0.353 4:0 5:0.041 6:0.02 7:0.061 8:0.102 9:0 10:0.184 11:0.041 12:0.02 13:0.102 14:0.082 15:0.122 16:0 17:0.184 18:0.041 19:0 20:0 
-210.0983130474277 1:0.66 2:0.515 3:0.353 4:0.02 5:0 6:0.061 7:0.041 8:0 9:0.061 10:0.143 11:0.143 12:0.082 13:0.082 14:0.122 15:0.02 16:0.02 17:0.184 18:0 19:0.02 20:0 
-14.85280563490528 1:0.66 2:0.515 3:0.353 4:0 5:0.082 6:0 7:0.041 8:0.061 9:0.082 10:0.082 11:0.102 12:0 13:0.163 14:0.082 15:0.082 16:0.061 17:0 18:0.163 19:0 20:0 
-512 1:0.66 2:0.515 3:0.353 4:0 5:0.061 6:0.041 7:0.02 8:0.061 9:0.184 10:0.02 11:0.082 12:0.061 13:0.041 14:0.082 15:0.122 16:0 17:0.061 18:0.163 19:0 20:0 
-373.7042912333791 1:0.66 2:0.515 3:0.353 4:0 5:0.041 6:0.02 7:0.061 8:0.061 9:0.204 10:0.041 11:0.02 12:0 13:0.061 14:0.184 15:0.082 16:0.061 17:0.041 18:0.061 19:0.061 20:0 
-271.0813925784857 1:0.66 2:0.545 3:0.353 4:0 5:0.041 6:0.02 7:0.061 8:0.041 9:0.102 10:0.122 11:0.102 12:0.041 13:0.163 14:0.082 15:0 16:0.041 17:0.061 18:0.082 19:0.041 20:0 
-512 1:0.66 2:0.545 3:0.353 4:0.02 5:0 6:0.061 7:0.041 8:0.041 9:0.204 10:0.061 11:0.061 12:0.041 13:0.041 14:0.102 15:0.102 16:0.02 17:0.122 18:0.082 19:0 20:0 
512 1:0.66 2:0.545 3:0.353 4:0 5:0.041 6:0.082 7:0 8:0.02 9:0.143 10:0.122 11:0.082 12:0.082 13:0.041 14:0.061 15:0.102 16:0.02 17:0.143 18:0.041 19:0.02 20:0 
-512 1:0.66 2:0.545 3:0.353 4:0 5:0.082 6:0.02 7:0.02 8:0.061 9:0.082 10:0.102 11:0.102 12:0.02 13:0.102 14:0.163 15:0.02 16:0.041 17:0.102 18:0 19:0.082 20:0 
511.5286324825117 1:0.66 2:0.545 3:0.353 4:0 5:0.041 6:0.082 7:0 8:0.061 9:0.143 10:0.122 11:0.02 12:0.041 13:0.143 14:0.041 15:0.082 16:0.02 17:0.041 18:0.041 19:0.122 20:0 
512 1:0.66 2:0.545 3:0.353 4:0 5:0.061 6:0.041 7:0.02 8:0.082 9:0.184 10:0.082 11:0.02 12:0 13:0.082 14:0.082 15:0.122 16:0.02 17:0.041 18:0.102 19:0.061 20:0 
-289.3772726279669 1:0.66 2:0.545 3:0.353 4:0 5:0.041 6:0.082 7:0 8:0.041 9:0.184 10:0 11:0.143 12:0.02 13:0.082 14:0.143 15:0.041 16:0.061 17:0.061 18:0.082 19:0.02 20:0 
512 1:0.66 2:0.545 3:0.353 4:0 5:0 6:0.061 7:0.061 8:0.102 9:0.143 10:0.082 11:0.041 12:0 13:0.082 14:0.143 15:0.061 16:0.02 17:0.122 18:0.02 19:0.061 20:0 
-512 1:0.66 2:0.545 3:0.353 4:0.02 5:0 6:0.061 7:0.041 8:0.061 9:0.102 10:0.122 11:0.082 12:0 13:0.061 14:0.122 15:0.102 16:0.041 17:0.184 18:0 19:0 20:0 
-512 1:0.66 2:0.545 3:0.353 4:0 5:0.102 6:0 7:0.02 8:0.02 9:0.184 10:0.041 11:0.122 12:0.082 13:0.061 14:0.122 15:0.02 16:0.02 17:0.02 18:0.143 19:0.041 20:0 
-512 1:0.66 2:0.545 3:0.353 4:0 5:0.041 6:0.02 7:0.061 8:0.061 9:0.204 10:0.082 11:0.02 12:0.061 13:0.061 14:0.143 15:0.02 16:0 17:0.061 18:0.061 19:0.102 20:0 
260.8674898618032 1:0.66 2:0.545 3:0.353 4:0 5:0.02 6:0.082 7:0.02 8:0.102 9:0.061 10:0.061 11:0.122 12:0 13:0.143 14:0.143 15:0.02 16:0.02 17:0.143 18:0 19:0.061 20:0 
512 1:0.66 2:0.545 3:0.353 4:0 5:0 6:0.082 7:0.02 8:0.02 9:0.082 10:0.204 11:0.061 12:0.061 13:0.163 14:0 15:0.082 16:0.041 17:0.122 18:0 19:0.061 20:0 
-194.7264452756038 1:0.66 2:0.545 3:0.353 4:0.02 5:0 6:0.061 7:0.02 8:0.061 9:0.082 10:0.204 11:0.02 12:0.02 13:0.102 14:0.02 15:0.163 16:0.02 17:0.163 18:0.02 19:0.02 20:0 
362.5260835367836 1:0.66 2:0.545 3:0.353 4:0.02 5:0.02 6:0.061 7:0.02 8:0.041 9:0.204 10:0.061 11:0.041 12:0 13:0.122 14:0.122 15:0.061 16:0.061 17:0 18:0.061 19:0.102 20:0 
-512 1:0.66 2:0.545 3:0.353 4:0.02 5:0 6:0.082 7:0.02 8:0.102 9:0.082 10:0.102 11:0.061 12:0 13:0.204 14:0.02 15:0.082 16:0 17:0.082 18:0.082 19:0.061 20:0 
512 1:0.66 2:0.545 3:0.353 4:0.02 5:0 6:0.082 7:0.02 8:0.041 9:0.184 10:0.122 11:0 12:0.061 13:0.061 14:0.082 15:0.102 16:0 17:0.102 18:0.02 19:0.102 20:0 
512 1:0.66 2:0.545 3:0.353 4:0.02 5:0.02 6:0.061 7:0.02 8:0 9:0.306 10:0.02 11:0.041 12:0.082 13:0.02 14:0.122 15:0.082 16:0.02 17:0.02 18:0.102 19:0.061 20:0 
512 1:0.66 2:0.545 3:0.353 4:0 5:0.102 6:0 7:0.02 8:0.102 9:0.143 10:0.082 11:0.041 12:0.02 13:0.02 14:0.122 15:0.122 16:0 17:0.102 18:0.082 19:0.041 20:0 
-512 1:0.66 2:0.545 3:0.353 4:0.02 5:0.041 6:0.02 7:0.041 8:0.041 9:0.204 10:0 11:0.122 12:0 13:0.122 14:0.143 15:0.02 16:0.061 17:0 18:0.143 19:0.02 20:0 
-172.8202458038782 1:0.66 2:0.545 3:0.353 4:0 5:0.082 6:0.041 7:0 8:0.041 9:0 10:0.204 11:0.102 12:0.02 13:0.184 14:0.02 15:0.082 16:0.041 17:0.102 18:0.041 19:0.041 20:0 
-512 1:0.66 2:0.606 3:0.353 4:0.02 5:0.061 6:0 7:0.041 8:0 9:0.184 10:0.082 11:0.122 12:0.061 13:0.102 14:0.041 15:0.061 16:0.02 17:0.061 18:0.143 19:0 20:0 
-512 1:0.66 2:0.606 3:0.353 4:0.02 5:0.041 6:0.02 7:0.041 8:0.041 9:0.184 10:0.163 11:0 12:0.02 13:0.122 14:0.02 15:0.102 16:0.041 17:0.041 18:0.061 19:0.082 20:0 
-285.5119918307666 1:0.66 2:0.606 3:0.353 4:0 5:0.061 6:0.061 7:0 8:0.082 9:0.082 10:0.163 11:0.061 12:0.02 13:0.122 14:0.02 15:0.102 16:0.02 17:0.143 18:0 19:0.061 20:0 
447.8480603669601 1:0.66 2:0.606 3:0.353 4:0.02 5:0.061 6:0.02 7:0.02 8:0.102 9:0.184 10:0.061 11:0.061 12:0 13:0.061 14:0.143 15:0.041 16:0 17:0.082 18:0.041 19:0.102 20:0 
-16.57361840948676 1:0.66 2:0.606 3:0.353 4:0.02 5:0 6:0.061 7:0.041 8:0.02 9:0.184 10:0.122 11:0.082 12:0.041 13:0.061 14:0.061 15:0.082 16:0.041 17:0.163 18:0.02 19:0 20:0 
-3.078735690443311 1:0.66 2:0.606 3:0.353 4:0.02 5:0.02 6:0.061 7:0.02 8:0.061 9:0.082 10:0.163 11:0.082 12:0.02 13:0.204 14:0.02 15:0.02 16:0.02 17:0.082 18:0.02 19:0.102 20:0 
512 1:0.66 2:0.606 3:0.353 4:0 5:0.041 6:0.041 7:0.041 8:0.061 9:0.143 10:0.122 11:0.061 12:0.061 13:0.102 14:0 15:0.102 16:0 17:0.122 18:0.102 19:0 20:0 
-512 1:0.66 2:0.606 3:0.353 4:0 5:0.122 6:0 7:0 8:0.041 9:0.163 10:0.061 11:0.143 12:0.061 13:0.102 14:0.082 15:0.02 16:0.02 17:0.02 18:0.102 19:0.061 20:0 
479.8100434201198 1:0.66 2:0.606 3:0.353 4:0.02 5:0.102 6:0 7:0 8:0 9:0.122 10:0.143 11:0.122 12:0.041 13:0.143 14:0.041 15:0.041 16:0.061 17:0.041 18:0.061 19:0.061 20:0 
512 1:0.66 2:0.606 3:0.353 4:0.02 5:0 6:0.061 7:0.041 8:0 9:0.204 10:0.061 11:0.143 12:0.041 13:0.122 14:0.061 15:0.02 16:0.061 17:0.082 18:0.082 19:0 20:0 
-512 1:0.66 2:0.606 3:0.353 4:0.02 5:0.061 6:0.041 7:0 8:0 9:0.143 10:0.184 11:0.061 12:0.061 13:0.102 14:0 15:0.102 16:0.041 17:0.102 18:0.02 19:0.061 20:0 
-281.699890832431 1:0.66 2:0.606 3:0.353 4:0.02 5:0 6:0.061 7:0.041 8:0 9:0.204 10:0.122 11:0.082 12:0.061 13:0.143 14:0.02 15:0.02 16:0.041 17:0.041 18:0.061 19:0.082 20:0 
-512 1:0.66 2:0.606 3:0.353 4:0.02 5:0.02 6:0.041 7:0.041 8:0.102 9:0.061 10:0.143 11:0.082 12:0 13:0.163 14:0 15:0.102 16:0 17:0.143 18:0.082 19:0 20:0 
-51.61215315909292 1:0.66 2:0.606 3:0.353 4:0 5:0.061 6:0.061 7:0 8:0.02 9:0.286 10:0.061 11:0.041 12:0.061 13:0.061 14:0.041 15:0.082 16:0.041 17:0 18:0.102 19:0.082 20:0 
150.6595917222262 1:0.66 2:0.606 3:0.353 4:0 5:0.061 6:0 7:0.061 8:0.082 9:0.102 10:0.143 11:0.061 12:0 13:0.224 14:0.02 15:0.02 16:0.041 17:0.02 18:0.082 19:0.082 20:0 
-512 1:0.66 2:0.606 3:0.353 4:0 5:0.122 6:0 7:0 8:0 9:0.143 10:0.143 11:0.122 12:0.061 13:0.041 14:0.082 15:0.082 16:0.061 17:0.102 18:0.02 19:0.02 20:0 
-512 1:0.66 2:0.606 3:0.353 4:0 5:0.041 6:0.041 7:0.041 8:0.041 9:0.041 10:0.143 11:0.163 12:0.02 13:0.204 14:0.041 15:0 16:0.061 17:0.122 18:0.041 19:0 20:0 
512 1:0.66 2:0.606 3:0.353 4:0.02 5:0.02 6:0.061 7:0.02 8:0.102 9:0.122 10:0.061 11:0.102 12:0 13:0.184 14:0 15:0.082 16:0 17:0.082 18:0.143 19:0 20:0 
396.7939441566199 1:0.66 2:0.606 3:0.353 4:0 5:0.061 6:0 7:0.061 8:0.061 9:0.102 10:0.184 11:0.061 12:0 13:0.102 14:0.061 15:0.102 16:0.061 17:0.122 18:0.02 19:0 20:0 
85.69960969783241 1:0.66 2:0.606 3:0.353 4:0.02 5:0.102 6:0 7:0 8:0.041 9:0.122 10:0.122 11:0.102 12:0.041 13:0 14:0.143 15:0.082 16:0.02 17:0.184 18:0 19:0.02 20:0 
162.903440034732 1:0.66 2:0.606 3:0.353 4:0 5:0.02 6:0.02 7:0.061 8:0.02 9:0.286 10:0.02 11:0.082 12:0.061 13:0.102 14:0.061 15:0.041 16:0.041 17:0 18:0.143 19:0.041 20:0 
512 1:0.66 2:0.606 3:0.353 4:0 5:0.082 6:0.02 7:0.02 8:0.082 9:0.224 10:0.061 11:0.02 12:0 13:0.102 14:0.02 15:0.143 16:0.041 17:0 18:0.143 19:0.041 20:0 
512 1:0.66 2:0.606 3:0.353 4:0.02 5:0.02 6:0.041 7:0.041 8:0.082 9:0.286 10:0.02 11:0.02 12:0 13:0.082 14:0.122 15:0.041 16:0.02 17:0 18:0.082 19:0.122 20:0 
-34.50087385850846 1:0.66 2:0.606 3:0.353 4:0.02 5:0 6:0.02 7:0.061 8:0.082 9:0.082 10:0.163 11:0.082 12:0 13:0.163 14:0.061 15:0.041 16:0.02 17:0.163 18:0 19:0.041 20:0 
510.3238868787905 1:0.66 2:0.606 3:0.353 4:0.02 5:0.02 6:0.041 7:0.041 8:0.041 9:0.122 10:0.184 11:0.041 12:0.041 13:0.082 14:0 15:0.143 16:0.02 17:0.184 18:0.02 19:0 20:0 
-214.4435572792473 1:0.66 2:0.606 3:0.353 4:0.02 5:0.041 6:0 7:0.061 8:0.041 9:0.245 10:0.122 11:0 12:0.061 13:0.041 14:0.061 15:0.082 16:0 17:0.082 18:0.082 19:0.061 20:0 
512 1:0.66 2:0.636 3:0.353 4:0.02 5:0.061 6:0 7:0.041 8:0.082 9:0.122 10:0.143 11:0.061 12:0.02 13:0.102 14:0.061 15:0.061 16:0 17:0.143 18:0.041 19:0.041 20:0 
212.1831030505353 1:0.66 2:0.636 3:0.353 4:0 5:0.041 6:0.041 7:0.041 8:0.02 9:0.204 10:0.041 11:0.163 12:0.041 13:0.102 14:0.082 15:0.02 16:0.061 17:0.061 18:0.082 19:0 20:0 
231.26352555986 1:0.66 2:0.636 3:0.353 4:0.02 5:0 6:0.061 7:0.041 8:0.041 9:0.184 10:0.122 11:0.061 12:0.061 13:0.082 14:0.02 15:0.082 16:0 17:0.143 18:0.041 19:0.041 20:0 
-512 1:0.66 2:0.636 3:0.353 4:0.02 5:0.061 6:0.041 7:0 8:0.02 9:0.265 10:0.061 11:0.082 12:0.061 13:0.02 14:0.102 15:0.041 16:0.02 17:0.061 18:0.041 19:0.102 20:0 
-198.3612189524688 1:0.66 2:0.636 3:0.353 4:0.02 5:0.102 6:0 7:0 8:0.082 9:0.163 10:0.102 11:0.082 12:0 13:0.02 14:0.122 15:0.082 16:0 17:0.143 18:0.02 19:0.061 20:0 
512 1:0.66 2:0.636 3:0.353 4:0 5:0.061 6:0.02 7:0.041 8:0 9:0.204 10:0.122 11:0.102 12:0.061 13:0.061 14:0.041 15:0.061 16:0.061 17:0.102 18:0.041 19:0.02 20:0 
512 1:0.66 2:0.636 3:0.353 4:0.02 5:0.061 6:0 7:0.041 8:0.02 9:0.245 10:0.122 11:0.041 12:0.041 13:0.082 14:0.061 15:0.041 16:0.041 17:0.041 18:0.061 19:0.082 20:0 
17.55527317858015 1:0.66 2:0.636 3:0.353 4:0 5:0.122 6:0 7:0 8:0.02 9:0.184 10:0.163 11:0.041 12:0.061 13:0.041 14:0.061 15:0.082 16:0.02 17:0.082 18:0.02 19:0.102 20:0 
512 1:0.66 2:0.636 3:0.353 4:0.02 5:0.061 6:0 7:0.041 8:0.041 9:0.265 10:0.041 11:0.082 12:0.041 13:0.041 14:0.082 15:0.082 16:0.02 17:0.041 18:0.122 19:0.02 20:0 
-512 1:0.66 2:0.636 3:0.353 4:0.02 5:0.02 6:0.02 7:0.061 8:0.082 9:0.265 10:0 11:0.082 12:0 13:0.02 14:0.143 15:0.061 16:0.02 17:0.102 18:0.082 19:0.02 20:0 
512 1:0.66 2:0.636 3:0.353 4:0 5:0.082 6:0.041 7:0 8:0.102 9:0.082 10:0.122 11:0.102 12:0.02 13:0.122 14:0.082 15:0.02 16:0 17:0.122 18:0 19:0.102 20:0 
-388.9749115395041 1:0.66 2:0.636 3:0.353 4:0.02 5:0.02 6:0.02 7:0.061 8:0.061 9:0.082 10:0.204 11:0.061 12:0.041 13:0.163 14:0 15:0.041 16:0 17:0.163 18:0.02 19:0.041 20:0 
-60.78964168653104 1:0.66 2:0.636 3:0.353 4:0 5:0.102 6:0 7:0.02 8:0.122 9:0.143 10:0.061 11:0.102 12:0 13:0.082 14:0.061 15:0.082 16:0 17:0.102 18:0.122 19:0 20:0 
65.82200788206617 1:0.66 2:0.636 3:0.353 4:0 5:0.102 6:0 7:0.02 8:0.122 9:0.061 10:0.143 11:0.102 12:0 13:0.143 14:0.02 15:0.082 16:0 17:0.102 18:0.082 19:0.02 20:0 
-375.1218091193946 1:0.66 2:0.636 3:0.353 4:0.02 5:0.041 6:0 7:0.061 8:0 9:0.143 10:0.184 11:0.082 12:0.061 13:0.122 14:0.041 15:0.02 16:0.041 17:0.122 18:0.02 19:0.041 20:0 
-172.2620392975897 1:0.66 2:0.636 3:0.353 4:0 5:0.102 6:0 7:0 8:0.122 9:0.143 10:0.143 11:0.02 12:0 13:0.082 14:0.102 15:0.061 16:0 17:0.102 18:0 19:0.122 20:0 
-512 1:0.66 2:0.636 3:0.353 4:0.02 5:0.02 6:0.061 7:0.02 8:0.041 9:0.224 10:0.082 11:0.082 12:0.061 13:0.02 14:0.102 15:0.041 16:0 17:0.163 18:0 19:0.061 20:0 
-156.9235645290755 1:0.66 2:0.636 3:0.353 4:0 5:0.061 6:0 7:0.061 8:0.082 9:0.122 10:0.041 11:0.163 12:0 13:0.122 14:0.122 15:0 16:0.041 17:0.102 18:0.082 19:0 20:0 
512 1:0.66 2:0.697 3:0.353 4:0.02 5:0.061 6:0.041 7:0 8:0.041 9:0.204 10:0.082 11:0.122 12:0.02 13:0.122 14:0.02 15:0.041 16:0.041 17:0.082 18:0.041 19:0.061 20:0 
512 1:0.66 2:0.697 3:0.353 4:0 5:0.082 6:0.041 7:0 8:0.041 9:0.265 10:0.02 11:0.143 12:0.041 13:0.041 14:0.082 15:0.02 16:0.041 17:0.082 18:0.061 19:0.041 20:0 
512 1:0.66 2:0.697 3:0.353 4:0 5:0.061 6:0 7:0.061 8:0.061 9:0.102 10:0.204 11:0.082 12:0.02 13:0.163 14:0 15:0.02 16:0.041 17:0.122 18:0 19:0.061 20:0 
-263.1635230804597 1:0.66 2:0.697 3:0.353 4:0.02 5:0 6:0.041 7:0.061 8:0 9:0.224 10:0.102 11:0.143 12:0.041 13:0.102 14:0.041 15:0 16:0.041 17:0.143 18:0.02 19:0.02 20:0 
512 1:0.66 2:0.697 3:0.353 4:0 5:0.102 6:0.02 7:0 8:0.102 9:0.061 10:0.102 11:0.204 12:0 13:0.122 14:0.041 15:0.02 16:0.02 17:0.163 18:0.041 19:0 20:0 
-118.3810156067646 1:0.66 2:0.697 3:0.353 4:0 5:0.061 6:0.041 7:0.02 8:0.041 9:0.306 10:0.102 11:0.02 12:0.02 13:0.061 14:0.061 15:0.041 16:0.061 17:0.041 18:0 19:0.122 20:0 
496.9780399461649 1:0.66 2:0.697 3:0.353 4:0 5:0 6:0.061 7:0.061 8:0 9:0.306 10:0.041 11:0.102 12:0.061 13:0.122 14:0.02 15:0 16:0.061 17:0.041 18:0.061 19:0.061 20:0 
512 1:0.66 2:0.697 3:0.353 4:0 5:0.102 6:0 7:0.02 8:0.082 9:0.224 10:0.061 11:0.102 12:0 13:0.082 14:0.041 15:0.082 16:0.02 17:0.061 18:0.102 19:0.02 20:0 
-58.01326932668164 1:0.66 2:0.697 3:0.353 4:0 5:0.061 6:0.041 7:0.02 8:0.102 9:0.286 10:0.041 11:0.041 12:0 13:0.082 14:0.041 15:0.082 16:0.02 17:0.02 18:0.082 19:0.082 20:0 
-512 1:0.66 2:0.697 3:0.353 4:0 5:0.041 6:0.02 7:0.061 8:0.041 9:0.245 10:0.082 11:0.102 12:0.061 13:0 14:0.102 15:0.02 16:0.02 17:0.163 18:0 19:0.041 20:0 
38.56369399891563 1:0.66 2:0.697 3:0.353 4:0 5:0 6:0.041 7:0.061 8:0.061 9:0.327 10:0.02 11:0.061 12:0.041 13:0 14:0.082 15:0.082 16:0 17:0.143 18:0.061 19:0.02 20:0 
