char* stdv_56_60_string=
"svm_type nu_svr\n"
"kernel_type rbf\n"
"gamma 3\n"
"nr_class 2\n"
"total_sv 9248\n"
"rho -2.41894\n"
"SV\n"
"9.819889229130888 1:0.56 2:0.214 3:0.182 4:0 5:0.02 6:0 7:0.061 8:0.02 9:0 10:0.082 11:0.02 12:0.02 13:0.082 14:0.245 15:0.102 16:0.041 17:0.02 18:0.102 19:0.184 20:0 \n"
"-37.70279552111563 1:0.56 2:0.214 3:0.182 4:0 5:0 6:0.041 7:0.041 8:0 9:0.02 10:0 11:0.102 12:0.041 13:0 14:0.286 15:0.122 16:0.041 17:0.102 18:0.102 19:0.102 20:0 \n"
"-13.6159870890476 1:0.56 2:0.214 3:0.182 4:0 5:0.02 6:0.061 7:0 8:0 9:0.02 10:0.061 11:0.041 12:0.082 13:0.041 14:0.02 15:0.286 16:0 17:0.02 18:0.306 19:0.041 20:0 \n"
"4.570929716769948 1:0.56 2:0.25 3:0.182 4:0 5:0.02 6:0 7:0.061 8:0.02 9:0.041 10:0 11:0.061 12:0 13:0.041 14:0.204 15:0.184 16:0.061 17:0.041 18:0.224 19:0.041 20:0 \n"
"-5.509644235368355 1:0.56 2:0.286 3:0.182 4:0 5:0 6:0.041 7:0.041 8:0.02 9:0 10:0.082 11:0.061 12:0.02 13:0.102 14:0.102 15:0.163 16:0.041 17:0.061 18:0.184 19:0.082 20:0 \n"
"-54.64309790196338 1:0.56 2:0.286 3:0.182 4:0 5:0 6:0.02 7:0.061 8:0.02 9:0.02 10:0.082 11:0.02 12:0.02 13:0.143 14:0.163 15:0.082 16:0.041 17:0 18:0.122 19:0.204 20:0 \n"
"33.27757390803218 1:0.56 2:0.286 3:0.182 4:0 5:0.02 6:0.041 7:0.02 8:0.02 9:0 10:0.102 11:0.041 12:0 13:0.061 14:0.245 15:0.102 16:0.061 17:0.082 18:0 19:0.204 20:0 \n"
"-13.3788632141502 1:0.56 2:0.357 3:0.182 4:0 5:0 6:0.061 7:0.02 8:0.02 9:0.082 10:0.041 11:0.061 12:0.061 13:0.02 14:0.163 15:0.122 16:0 17:0.082 18:0.102 19:0.163 20:0 \n"
"-1.582049063657625 1:0.56 2:0.357 3:0.182 4:0 5:0.02 6:0.041 7:0 8:0.041 9:0.061 10:0.082 11:0.02 12:0.041 13:0.02 14:0.082 15:0.224 16:0 17:0.102 18:0.143 19:0.122 20:0 \n"
"87.1334601238739 1:0.56 2:0.357 3:0.182 4:0 5:0.02 6:0.061 7:0 8:0.02 9:0.102 10:0.02 11:0.041 12:0.02 13:0.082 14:0.163 15:0.102 16:0.041 17:0 18:0.122 19:0.204 20:0 \n"
"-21.95656773839373 1:0.56 2:0.357 3:0.182 4:0 5:0.041 6:0 7:0.02 8:0.041 9:0.041 10:0 11:0.122 12:0.02 13:0.02 14:0.306 15:0.02 16:0.02 17:0.082 18:0.061 19:0.204 20:0 \n"
"-26.68878503690032 1:0.56 2:0.357 3:0.182 4:0 5:0.02 6:0 7:0.061 8:0.02 9:0.02 10:0.102 11:0.041 12:0.041 13:0.122 14:0 15:0.204 16:0.02 17:0.041 18:0.245 19:0.061 20:0 \n"
"72.35342410044757 1:0.56 2:0.393 3:0.182 4:0 5:0.02 6:0.02 7:0.041 8:0.02 9:0.061 10:0.122 11:0.02 12:0 13:0.102 14:0.061 15:0.163 16:0.061 17:0.02 18:0.143 19:0.143 20:0 \n"
"-8.969548881230143 1:0.56 2:0.393 3:0.182 4:0 5:0.041 6:0.041 7:0 8:0 9:0.102 10:0 11:0.102 12:0.02 13:0 14:0.184 15:0.143 16:0.061 17:0.082 18:0.102 19:0.122 20:0 \n"
"-37.71924253882538 1:0.56 2:0.393 3:0.182 4:0 5:0.02 6:0.061 7:0 8:0 9:0.122 10:0.02 11:0.061 12:0.041 13:0.082 14:0.163 15:0.061 16:0.041 17:0 18:0.102 19:0.224 20:0 \n"
"-26.54633921853353 1:0.56 2:0.393 3:0.182 4:0 5:0 6:0 7:0.061 8:0.041 9:0.041 10:0.082 11:0.061 12:0.041 13:0.082 14:0.02 15:0.204 16:0 17:0.102 18:0.224 19:0.041 20:0 \n"
"-256 1:0.56 2:0.393 3:0.182 4:0 5:0 6:0.02 7:0.061 8:0.041 9:0.082 10:0.061 11:0.02 12:0.02 13:0.082 14:0.204 15:0.041 16:0.02 17:0.061 18:0.061 19:0.224 20:0 \n"
"24.36759435989511 1:0.56 2:0.464 3:0.182 4:0 5:0.041 6:0.02 7:0 8:0.041 9:0.082 10:0.02 11:0.122 12:0.041 13:0.102 14:0.02 15:0.143 16:0 17:0.02 18:0.245 19:0.102 20:0 \n"
"25.26608291210512 1:0.56 2:0.464 3:0.182 4:0 5:0 6:0.02 7:0.061 8:0 9:0.143 10:0.02 11:0.102 12:0.041 13:0.082 14:0.02 15:0.143 16:0.041 17:0.041 18:0.245 19:0.041 20:0 \n"
"-4.213157544416186 1:0.56 2:0.5 3:0.182 4:0 5:0.02 6:0.041 7:0.02 8:0.02 9:0.041 10:0.082 11:0.122 12:0.041 13:0.041 14:0.122 15:0.082 16:0.02 17:0.163 18:0.041 19:0.143 20:0 \n"
"33.67938268671572 1:0.56 2:0.5 3:0.182 4:0 5:0.02 6:0.041 7:0.02 8:0.041 9:0.082 10:0.082 11:0.061 12:0 13:0.143 14:0 15:0.143 16:0.041 17:0.041 18:0.143 19:0.143 20:0 \n"
"123.0452947834337 1:0.56 2:0.5 3:0.182 4:0 5:0.02 6:0.041 7:0.02 8:0 9:0.163 10:0 11:0.122 12:0.041 13:0.02 14:0.061 15:0.143 16:0.041 17:0.061 18:0.184 19:0.082 20:0 \n"
"50.56067666312987 1:0.56 2:0.5 3:0.182 4:0 5:0.02 6:0 7:0.061 8:0.02 9:0.082 10:0.102 11:0.061 12:0 13:0.143 14:0.122 15:0.02 16:0.061 17:0.041 18:0.041 19:0.224 20:0 \n"
"12.78627476695346 1:0.56 2:0.536 3:0.182 4:0 5:0.02 6:0.041 7:0.02 8:0.041 9:0.102 10:0 11:0.143 12:0.02 13:0.061 14:0.163 15:0.02 16:0.02 17:0.122 18:0.041 19:0.184 20:0 \n"
"-84.22653297071551 1:0.56 2:0.536 3:0.182 4:0 5:0 6:0.02 7:0.041 8:0.061 9:0 10:0.041 11:0.204 12:0.02 13:0.143 14:0.02 15:0.082 16:0 17:0.163 18:0.163 19:0.041 20:0 \n"
"74.41355389558152 1:0.56 2:0.536 3:0.182 4:0 5:0.061 6:0 7:0.02 8:0.02 9:0.143 10:0.02 11:0.122 12:0 13:0.082 14:0.143 15:0.02 16:0.041 17:0.02 18:0.102 19:0.204 20:0 \n"
"5.560316910377693 1:0.56 2:0.536 3:0.182 4:0 5:0.02 6:0 7:0.061 8:0.02 9:0.082 10:0.061 11:0.143 12:0.02 13:0.163 14:0 15:0.082 16:0.041 17:0.041 18:0.184 19:0.082 20:0 \n"
"-35.18316341786655 1:0.56 2:0.536 3:0.182 4:0 5:0.061 6:0 7:0.02 8:0.061 9:0 10:0.041 11:0.204 12:0 13:0.143 14:0.102 15:0 16:0.02 17:0.082 18:0.122 19:0.143 20:0 \n"
"209.912111852117 1:0.56 2:0.536 3:0.182 4:0 5:0.02 6:0 7:0.061 8:0.041 9:0.143 10:0.082 11:0.041 12:0.041 13:0.061 14:0.122 15:0.02 16:0 17:0.082 18:0.061 19:0.224 20:0 \n"
"-256 1:0.56 2:0.536 3:0.182 4:0 5:0.02 6:0 7:0.061 8:0 9:0.184 10:0.02 11:0.102 12:0.041 13:0.102 14:0.061 15:0.041 16:0.041 17:0 18:0.184 19:0.143 20:0 \n"
"164.7089325357465 1:0.56 2:0.536 3:0.182 4:0 5:0.02 6:0.02 7:0.02 8:0.041 9:0.041 10:0.102 11:0.122 12:0.041 13:0.02 14:0.122 15:0.082 16:0 17:0.224 18:0 19:0.143 20:0 \n"
"-0.2669165163913569 1:0.56 2:0.536 3:0.182 4:0 5:0.041 6:0.041 7:0 8:0 9:0 10:0.163 11:0.143 12:0.041 13:0.143 14:0.061 15:0.02 16:0.041 17:0.122 18:0 19:0.184 20:0 \n"
"12.36412097135726 1:0.56 2:0.607 3:0.182 4:0 5:0.041 6:0.02 7:0.02 8:0.041 9:0.041 10:0.122 11:0.122 12:0.041 13:0.163 14:0.02 15:0 16:0 17:0.082 18:0.061 19:0.224 20:0 \n"
"-186.4326849158456 1:0.56 2:0.607 3:0.182 4:0 5:0.02 6:0.02 7:0.041 8:0.061 9:0.061 10:0.082 11:0.122 12:0 13:0.02 14:0.102 15:0.102 16:0.02 17:0.245 18:0 19:0.102 20:0 \n"
"-116.2879056972087 1:0.56 2:0.643 3:0.182 4:0 5:0.02 6:0 7:0.041 8:0 9:0.204 10:0.122 11:0.041 12:0.041 13:0.02 14:0.041 15:0.102 16:0.041 17:0.102 18:0.041 19:0.184 20:0 \n"
"6.2595129507631 1:0.56 2:0.643 3:0.182 4:0 5:0.02 6:0.02 7:0.041 8:0.02 9:0.041 10:0.082 11:0.224 12:0 13:0.102 14:0 15:0.082 16:0.061 17:0.184 18:0.102 19:0.02 20:0 \n"
"-57.61111456832769 1:0.56 2:0.643 3:0.182 4:0 5:0.02 6:0.041 7:0.02 8:0 9:0.204 10:0.082 11:0.082 12:0.041 13:0.082 14:0.041 15:0.02 16:0.041 17:0.061 18:0.02 19:0.245 20:0 \n"
"-64.48688724509249 1:0.56 2:0.643 3:0.182 4:0 5:0 6:0.02 7:0.061 8:0.061 9:0.163 10:0.102 11:0.041 12:0 13:0.163 14:0.02 15:0.02 16:0 17:0.041 18:0.061 19:0.245 20:0 \n"
"-0.08656651569294359 1:0.56 2:0.643 3:0.182 4:0 5:0.061 6:0.02 7:0 8:0.041 9:0 10:0.041 11:0.265 12:0.02 13:0.143 14:0 15:0.041 16:0.02 17:0.163 18:0.143 19:0.041 20:0 \n"
"127.9815668318517 1:0.56 2:0.643 3:0.182 4:0 5:0.02 6:0 7:0.061 8:0.041 9:0.163 10:0 11:0.143 12:0.02 13:0.122 14:0.061 15:0 16:0.02 17:0.041 18:0.143 19:0.163 20:0 \n"
"256 1:0.56 2:0.714 3:0.182 4:0 5:0.02 6:0.02 7:0.041 8:0.041 9:0.224 10:0 11:0.122 12:0.02 13:0.102 14:0 15:0.041 16:0.02 17:0.061 18:0.143 19:0.143 20:0 \n"
"8.369146464198982 1:0.56 2:0.714 3:0.182 4:0 5:0.02 6:0 7:0.061 8:0.082 9:0.143 10:0.02 11:0.143 12:0 13:0.163 14:0 15:0 16:0 17:0.082 18:0.122 19:0.163 20:0 \n"
"234.4712607250664 1:0.56 2:0.714 3:0.182 4:0 5:0 6:0.02 7:0.061 8:0.02 9:0.184 10:0.082 11:0.122 12:0 13:0.122 14:0 15:0.041 16:0.061 17:0.082 18:0.061 19:0.143 20:0 \n"
"-5.964030828532072 1:0.56 2:0.714 3:0.182 4:0 5:0 6:0.02 7:0.041 8:0.061 9:0.265 10:0 11:0.082 12:0 13:0.102 14:0.061 15:0 16:0.02 17:0.041 18:0.061 19:0.245 20:0 \n"
"-85.26229905940342 1:0.56 2:0.714 3:0.182 4:0 5:0.061 6:0 7:0.02 8:0 9:0.082 10:0.041 11:0.286 12:0.02 13:0.143 14:0 15:0 16:0.061 17:0.122 18:0.102 19:0.061 20:0 \n"
"65.13134464280424 1:0.56 2:0.714 3:0.182 4:0 5:0.041 6:0 7:0.041 8:0.02 9:0.204 10:0.082 11:0.082 12:0.02 13:0.122 14:0 15:0.02 16:0.041 17:0.02 18:0.082 19:0.224 20:0 \n"
"-256 1:0.56 2:0.75 3:0.182 4:0 5:0.02 6:0 7:0.061 8:0.082 9:0.163 10:0.082 11:0.082 12:0 13:0.122 14:0.02 15:0 16:0 17:0.122 18:0.041 19:0.204 20:0 \n"
"152.2603494108602 1:0.56 2:0.75 3:0.182 4:0 5:0 6:0.02 7:0.061 8:0.061 9:0.184 10:0.041 11:0.122 12:0 13:0.02 14:0.02 15:0.102 16:0 17:0.224 18:0.061 19:0.082 20:0 \n"
"71.87276083282227 1:0.56 2:0.75 3:0.182 4:0 5:0.02 6:0 7:0.061 8:0.082 9:0.041 10:0.143 11:0.143 12:0 13:0.122 14:0 15:0.02 16:0 17:0.224 18:0 19:0.143 20:0 \n"
"97.65678341415793 1:0.56 2:0.75 3:0.182 4:0 5:0.061 6:0.02 7:0 8:0.061 9:0.041 10:0.061 11:0.265 12:0 13:0.061 14:0.02 15:0.061 16:0.02 17:0.245 18:0.041 19:0.041 20:0 \n"
"-256 1:0.56 2:0.786 3:0.182 4:0 5:0.041 6:0 7:0.041 8:0.02 9:0.224 10:0.061 11:0.122 12:0 13:0.041 14:0 15:0.082 16:0.061 17:0.143 18:0.061 19:0.102 20:0 \n"
"-125.6907006840464 1:0.56 2:0.786 3:0.182 4:0 5:0.02 6:0 7:0.061 8:0.082 9:0.041 10:0.102 11:0.224 12:0 13:0.061 14:0 15:0.041 16:0 17:0.306 18:0.02 19:0.041 20:0 \n"
"83.9065331283409 1:0.56 2:0.786 3:0.182 4:0 5:0.02 6:0 7:0.061 8:0.02 9:0.204 10:0 11:0.224 12:0.02 13:0.041 14:0.02 15:0.041 16:0.02 17:0.184 18:0.102 19:0.041 20:0 \n"
"256 1:0.56 2:0.786 3:0.182 4:0 5:0.02 6:0.02 7:0.041 8:0.061 9:0.204 10:0.102 11:0.061 12:0.02 13:0 14:0 15:0.102 16:0 17:0.224 18:0 19:0.143 20:0 \n"
"-256 1:0.56 2:0.786 3:0.182 4:0 5:0.082 6:0 7:0 8:0.061 9:0.245 10:0.02 11:0.102 12:0 13:0.041 14:0 15:0.082 16:0 17:0.082 18:0.102 19:0.184 20:0 \n"
"-129.217450750856 1:0.56 2:0.786 3:0.182 4:0 5:0.02 6:0 7:0.061 8:0 9:0.265 10:0.102 11:0.061 12:0.02 13:0.082 14:0 15:0.02 16:0.061 17:0.082 18:0.02 19:0.204 20:0 \n"
"-256 1:0.56 2:0.786 3:0.182 4:0 5:0 6:0.02 7:0.061 8:0.082 9:0.163 10:0.082 11:0.122 12:0 13:0.02 14:0 15:0.102 16:0 17:0.265 18:0.02 19:0.061 20:0 \n"
"54.13948678203595 1:0.56 2:0.786 3:0.182 4:0 5:0.082 6:0 7:0 8:0 9:0.245 10:0.102 11:0.102 12:0.02 13:0 14:0.02 15:0.061 16:0.061 17:0.102 18:0 19:0.204 20:0 \n"
"63.26437059481319 1:0.56 2:0.286 3:0.273 4:0 5:0.041 6:0 7:0.082 8:0 9:0.041 10:0.122 11:0 12:0.102 13:0.041 14:0.102 15:0.143 16:0.02 17:0.02 18:0.184 19:0.102 20:0 \n"
"-73.20053447269757 1:0.56 2:0.357 3:0.273 4:0.02 5:0.02 6:0.082 7:0 8:0.041 9:0.02 10:0.061 11:0.082 12:0.02 13:0.02 14:0.204 15:0.122 16:0.041 17:0.143 18:0 19:0.122 20:0 \n"
"-24.08353724998501 1:0.56 2:0.357 3:0.273 4:0.02 5:0.041 6:0.061 7:0 8:0 9:0.041 10:0.061 11:0.102 12:0.061 13:0.102 14:0.204 15:0 16:0.02 17:0.02 18:0.041 19:0.224 20:0 \n"
"-63.43381496565205 1:0.56 2:0.357 3:0.273 4:0 5:0 6:0.102 7:0.02 8:0.02 9:0.061 10:0.102 11:0 12:0.102 13:0.041 14:0.02 15:0.204 16:0 17:0.082 18:0.143 19:0.102 20:0 \n"
"66.90122984186172 1:0.56 2:0.357 3:0.273 4:0.02 5:0.02 6:0 7:0.082 8:0.02 9:0.061 10:0.061 11:0.041 12:0.061 13:0.122 14:0.143 15:0.041 16:0.02 17:0 18:0.163 19:0.143 20:0 \n"
"-0.09482025156581214 1:0.56 2:0.357 3:0.273 4:0 5:0.061 6:0.02 7:0.041 8:0.061 9:0.02 10:0.082 11:0.02 12:0.041 13:0.02 14:0.122 15:0.184 16:0.02 17:0.102 18:0.122 19:0.082 20:0 \n"
"13.40509860050904 1:0.56 2:0.393 3:0.273 4:0.02 5:0.061 6:0.02 7:0 8:0.041 9:0.061 10:0.102 11:0.02 12:0.061 13:0.102 14:0.102 15:0.082 16:0 17:0 18:0.122 19:0.204 20:0 \n"
"28.14909023716134 1:0.56 2:0.393 3:0.273 4:0 5:0.041 6:0 7:0.082 8:0.041 9:0.02 10:0.102 11:0.061 12:0 13:0.02 14:0.245 15:0.082 16:0.082 17:0.122 18:0 19:0.102 20:0 \n"
"-41.2523380162515 1:0.56 2:0.464 3:0.273 4:0.02 5:0.061 6:0 7:0.041 8:0.041 9:0.082 10:0.102 11:0.02 12:0.02 13:0.082 14:0.143 15:0.061 16:0.041 17:0.041 18:0.061 19:0.184 20:0 \n"
"-224.2667211230135 1:0.56 2:0.464 3:0.273 4:0.02 5:0.061 6:0 7:0.041 8:0.02 9:0.143 10:0 11:0.102 12:0.041 13:0.061 14:0.082 15:0.102 16:0.041 17:0 18:0.204 19:0.082 20:0 \n"
"-98.85005698293642 1:0.56 2:0.464 3:0.273 4:0.02 5:0.041 6:0 7:0.061 8:0.061 9:0 10:0.184 11:0.02 12:0 13:0.143 14:0.061 15:0.102 16:0.041 17:0.061 18:0.061 19:0.143 20:0 \n"
"13.76099946051569 1:0.56 2:0.464 3:0.273 4:0.02 5:0.02 6:0.02 7:0.061 8:0.041 9:0.02 10:0.143 11:0.041 12:0.041 13:0.02 14:0.041 15:0.204 16:0.02 17:0.204 18:0.082 19:0.02 20:0 \n"
"10.9729767123788 1:0.56 2:0.464 3:0.273 4:0.02 5:0.02 6:0.061 7:0.02 8:0 9:0.082 10:0.143 11:0.041 12:0.041 13:0.143 14:0.082 15:0.02 16:0.061 17:0.02 18:0.02 19:0.224 20:0 \n"
"33.29750361697405 1:0.56 2:0.5 3:0.273 4:0 5:0.082 6:0.041 7:0 8:0 9:0 10:0.122 11:0.163 12:0.02 13:0.041 14:0.122 15:0.102 16:0.082 17:0.163 18:0 19:0.061 20:0 \n"
"233.6148243006363 1:0.56 2:0.5 3:0.273 4:0.02 5:0.082 6:0 7:0.02 8:0.02 9:0.082 10:0.163 11:0.02 12:0.02 13:0.082 14:0.061 15:0.102 16:0.061 17:0.041 18:0.061 19:0.163 20:0 \n"
"-191.9900220771353 1:0.56 2:0.5 3:0.273 4:0 5:0.061 6:0.061 7:0 8:0.061 9:0.143 10:0.02 11:0.041 12:0.02 13:0 14:0.082 15:0.184 16:0.041 17:0.061 18:0.122 19:0.102 20:0 \n"
"-77.3187987196398 1:0.56 2:0.5 3:0.273 4:0 5:0.061 6:0 7:0.061 8:0.061 9:0.02 10:0.163 11:0.02 12:0 13:0.102 14:0.122 15:0.061 16:0.041 17:0.102 18:0 19:0.184 20:0 \n"
"87.22143699545157 1:0.56 2:0.536 3:0.273 4:0.02 5:0 6:0.02 7:0.082 8:0.061 9:0.143 10:0.02 11:0.082 12:0.02 13:0.082 14:0.102 15:0.041 16:0.02 17:0.082 18:0.122 19:0.102 20:0 \n"
"51.16728932818756 1:0.56 2:0.536 3:0.273 4:0 5:0.082 6:0.02 7:0.02 8:0.02 9:0.122 10:0 11:0.163 12:0.061 13:0.02 14:0.102 15:0.082 16:0.041 17:0.082 18:0.122 19:0.061 20:0 \n"
"256 1:0.56 2:0.536 3:0.273 4:0 5:0 6:0.041 7:0.082 8:0.061 9:0.204 10:0 11:0.02 12:0.041 13:0.061 14:0.143 15:0.02 16:0.02 17:0.041 18:0.082 19:0.184 20:0 \n"
"-11.76728133113797 1:0.56 2:0.607 3:0.273 4:0.02 5:0.082 6:0.02 7:0 8:0.061 9:0.204 10:0.02 11:0.041 12:0.02 13:0.02 14:0.061 15:0.122 16:0.02 17:0.041 18:0.102 19:0.163 20:0 \n"
"-76.36382765521209 1:0.56 2:0.607 3:0.273 4:0 5:0.102 6:0.02 7:0 8:0.082 9:0.082 10:0 11:0.163 12:0.02 13:0.082 14:0.102 15:0.02 16:0.02 17:0.082 18:0.102 19:0.122 20:0 \n"
"25.55346427866285 1:0.56 2:0.607 3:0.273 4:0.02 5:0 6:0 7:0.082 8:0 9:0.245 10:0.02 11:0.082 12:0.061 13:0.02 14:0.041 15:0.102 16:0.041 17:0.061 18:0.163 19:0.061 20:0 \n"
"-78.57427307942486 1:0.56 2:0.643 3:0.273 4:0 5:0.02 6:0.02 7:0.082 8:0.061 9:0.102 10:0.02 11:0.184 12:0.061 13:0.041 14:0.061 15:0.02 16:0 17:0.204 18:0.082 19:0.041 20:0 \n"
"45.04013550777355 1:0.56 2:0.643 3:0.273 4:0 5:0 6:0.041 7:0.082 8:0.082 9:0.143 10:0.143 11:0 12:0 13:0.082 14:0 15:0.102 16:0.041 17:0.122 18:0.02 19:0.143 20:0 \n"
"219.071729906225 1:0.56 2:0.643 3:0.273 4:0.02 5:0 6:0.041 7:0.061 8:0.082 9:0.041 10:0.041 11:0.204 12:0.02 13:0.163 14:0.02 15:0 16:0 17:0.163 18:0.102 19:0.041 20:0 \n"
"22.77890183845768 1:0.56 2:0.643 3:0.273 4:0 5:0.041 6:0 7:0.082 8:0 9:0.204 10:0.102 11:0.061 12:0.061 13:0.102 14:0 15:0.02 16:0.041 17:0.02 18:0.102 19:0.163 20:0 \n"
"-256 1:0.56 2:0.643 3:0.273 4:0 5:0.02 6:0.02 7:0.082 8:0.082 9:0.245 10:0.02 11:0.02 12:0 13:0.061 14:0.102 15:0.02 16:0.041 17:0.02 18:0.061 19:0.204 20:0 \n"
"-158.1270789056042 1:0.56 2:0.643 3:0.273 4:0.02 5:0 6:0.02 7:0.082 8:0.041 9:0.102 10:0.102 11:0.122 12:0.061 13:0.02 14:0.082 15:0.02 16:0 17:0.224 18:0 19:0.102 20:0 \n"
"-51.28842006615674 1:0.56 2:0.714 3:0.273 4:0.02 5:0.061 6:0 7:0.02 8:0.041 9:0.184 10:0.082 11:0.102 12:0 13:0.02 14:0.041 15:0.102 16:0.061 17:0.122 18:0.041 19:0.102 20:0 \n"
"-256 1:0.56 2:0.714 3:0.273 4:0.02 5:0.041 6:0.02 7:0.041 8:0.02 9:0.184 10:0.041 11:0.163 12:0 13:0.143 14:0.02 15:0 16:0.082 17:0.041 18:0.082 19:0.102 20:0 \n"
"-256 1:0.56 2:0.714 3:0.273 4:0 5:0.082 6:0.041 7:0 8:0.061 9:0.082 10:0.122 11:0.143 12:0.02 13:0.02 14:0 15:0.122 16:0.041 17:0.204 18:0 19:0.061 20:0 \n"
"-61.75032829469511 1:0.56 2:0.714 3:0.273 4:0 5:0 6:0.041 7:0.082 8:0.061 9:0.204 10:0.082 11:0.061 12:0 13:0.143 14:0.02 15:0 16:0.041 17:0.061 18:0.02 19:0.184 20:0 \n"
"-100.3299838931515 1:0.56 2:0.714 3:0.273 4:0.02 5:0.061 6:0 7:0.02 8:0.061 9:0.102 10:0.041 11:0.204 12:0 13:0.163 14:0 15:0 16:0.041 17:0.082 18:0.122 19:0.082 20:0 \n"
"201.920371575321 1:0.56 2:0.714 3:0.273 4:0 5:0.041 6:0 7:0.061 8:0.122 9:0.163 10:0.082 11:0.041 12:0 13:0.082 14:0.061 15:0.02 16:0 17:0.102 18:0.02 19:0.204 20:0 \n"
"-31.37475259329297 1:0.56 2:0.714 3:0.273 4:0.02 5:0.041 6:0.041 7:0.02 8:0.02 9:0.122 10:0 11:0.265 12:0 13:0.122 14:0 15:0.041 16:0.082 17:0.102 18:0.122 19:0 20:0 \n"
"4.798029229007287 1:0.56 2:0.714 3:0.273 4:0 5:0 6:0.041 7:0.082 8:0 9:0.224 10:0.102 11:0.082 12:0.041 13:0 14:0 15:0.122 16:0.082 17:0.163 18:0.02 19:0.041 20:0 \n"
"256 1:0.56 2:0.714 3:0.273 4:0 5:0.041 6:0.02 7:0.041 8:0.061 9:0.041 10:0.122 11:0.184 12:0.041 13:0.061 14:0 15:0.061 16:0.02 17:0.265 18:0 19:0.041 20:0 \n"
"-256 1:0.56 2:0.75 3:0.273 4:0 5:0.082 6:0 7:0.041 8:0.082 9:0.102 10:0.102 11:0.122 12:0.02 13:0.041 14:0.041 15:0.041 16:0 17:0.204 18:0 19:0.122 20:0 \n"
"-175.9284667539044 1:0.56 2:0.75 3:0.273 4:0 5:0.082 6:0.041 7:0 8:0.082 9:0.143 10:0.041 11:0.163 12:0 13:0.122 14:0.02 15:0 16:0.041 17:0.082 18:0.02 19:0.163 20:0 \n"
"0.09650589586042001 1:0.56 2:0.75 3:0.273 4:0 5:0.061 6:0.02 7:0.041 8:0.082 9:0.041 10:0.061 11:0.224 12:0 13:0.082 14:0 15:0.061 16:0.041 17:0.224 18:0.061 19:0 20:0 \n"
"233.0843194745376 1:0.56 2:0.75 3:0.273 4:0 5:0.061 6:0 7:0.061 8:0.122 9:0.163 10:0.02 11:0.122 12:0 13:0 14:0.041 15:0.082 16:0 17:0.184 18:0.082 19:0.061 20:0 \n"
"256 1:0.56 2:0.786 3:0.273 4:0 5:0.082 6:0 7:0.041 8:0.041 9:0.245 10:0.061 11:0.102 12:0 13:0.02 14:0.02 15:0.082 16:0.082 17:0.102 18:0.041 19:0.082 20:0 \n"
"26.52887109052515 1:0.56 2:0.786 3:0.273 4:0 5:0.102 6:0.02 7:0 8:0.082 9:0.204 10:0 11:0.143 12:0 13:0.041 14:0.02 15:0.061 16:0.02 17:0.102 18:0.082 19:0.122 20:0 \n"
"256 1:0.56 2:0.786 3:0.273 4:0 5:0.041 6:0 7:0.082 8:0.102 9:0.143 10:0.102 11:0.102 12:0 13:0.041 14:0.02 15:0.041 16:0.02 17:0.224 18:0 19:0.082 20:0 \n"
"-256 1:0.56 2:0.786 3:0.273 4:0.02 5:0.02 6:0 7:0.082 8:0.041 9:0.306 10:0.041 11:0.061 12:0 13:0.061 14:0 15:0.061 16:0.061 17:0.061 18:0.082 19:0.102 20:0 \n"
"256 1:0.56 2:0.786 3:0.273 4:0.02 5:0.061 6:0.02 7:0.02 8:0.061 9:0.286 10:0.041 11:0.041 12:0 13:0.02 14:0.02 15:0.082 16:0.02 17:0.082 18:0.041 19:0.184 20:0 \n"
"213.1760772878227 1:0.56 2:0.786 3:0.273 4:0 5:0.082 6:0.02 7:0.02 8:0.102 9:0.184 10:0.061 11:0.082 12:0.02 13:0 14:0.02 15:0.082 16:0 17:0.184 18:0.02 19:0.122 20:0 \n"
"256 1:0.56 2:0.786 3:0.273 4:0.02 5:0.082 6:0 7:0.02 8:0 9:0.204 10:0.061 11:0.184 12:0 13:0.122 14:0 15:0 16:0.082 17:0.041 18:0.061 19:0.122 20:0 \n"
"99.84210106654928 1:0.56 2:0.786 3:0.273 4:0.02 5:0.061 6:0 7:0.02 8:0.082 9:0.224 10:0.102 11:0.041 12:0 13:0.082 14:0.02 15:0.02 16:0.02 17:0.061 18:0 19:0.245 20:0 \n"
"-153.978180489543 1:0.56 2:0.786 3:0.273 4:0.02 5:0.02 6:0 7:0.082 8:0 9:0.204 10:0.041 11:0.204 12:0.02 13:0.082 14:0.02 15:0 16:0.082 17:0.143 18:0.061 19:0.02 20:0 \n"
"15.70960125626447 1:0.56 2:0.214 3:0.318 4:0 5:0 6:0.082 7:0.061 8:0.041 9:0.02 10:0 11:0.061 12:0.02 13:0.061 14:0.184 15:0.163 16:0.082 17:0.041 18:0.163 19:0.02 20:0 \n"
"-32.9777586402582 1:0.56 2:0.214 3:0.318 4:0 5:0.02 6:0.102 7:0 8:0.02 9:0.02 10:0.082 11:0 12:0.122 13:0 14:0.184 15:0.143 16:0 17:0.082 18:0.082 19:0.143 20:0 \n"
"108.6578624227353 1:0.56 2:0.25 3:0.318 4:0.041 5:0.02 6:0.02 7:0.061 8:0.02 9:0.041 10:0 11:0.061 12:0.02 13:0 14:0.347 15:0.061 16:0.061 17:0.082 18:0.041 19:0.122 20:0 \n"
"15.70162121199732 1:0.56 2:0.286 3:0.318 4:0.02 5:0 6:0.102 7:0 8:0.041 9:0 10:0.02 11:0.102 12:0.082 13:0.102 14:0.041 15:0.184 16:0 17:0.041 18:0.245 19:0.02 20:0 \n"
"10.18311199222498 1:0.56 2:0.286 3:0.318 4:0.041 5:0 6:0.061 7:0.041 8:0 9:0 10:0.143 11:0.02 12:0.041 13:0.102 14:0.204 15:0.041 16:0.061 17:0.061 18:0 19:0.184 20:0 \n"
"-10.01631848991636 1:0.56 2:0.286 3:0.318 4:0.02 5:0.041 6:0.061 7:0.02 8:0 9:0 10:0.143 11:0.02 12:0.122 13:0.02 14:0.061 15:0.204 16:0 17:0.102 18:0.122 19:0.061 20:0 \n"
"-99.21831796601406 1:0.56 2:0.357 3:0.318 4:0.02 5:0.061 6:0.02 7:0.041 8:0.02 9:0.02 10:0.163 11:0 12:0.041 13:0.082 14:0.122 15:0.102 16:0.061 17:0.041 18:0.061 19:0.143 20:0 \n"
"-37.08591665220001 1:0.56 2:0.357 3:0.318 4:0 5:0.041 6:0 7:0.102 8:0.061 9:0 10:0.082 11:0.061 12:0.061 13:0.143 14:0.082 15:0.082 16:0 17:0.02 18:0.204 19:0.061 20:0 \n"
"111.6178061857462 1:0.56 2:0.357 3:0.318 4:0.02 5:0.02 6:0.02 7:0.082 8:0.02 9:0.02 10:0.163 11:0 12:0.061 13:0.082 14:0.02 15:0.184 16:0.041 17:0.082 18:0.143 19:0.041 20:0 \n"
"28.0868181676382 1:0.56 2:0.357 3:0.318 4:0 5:0.061 6:0.061 7:0.02 8:0.02 9:0 10:0.082 11:0.102 12:0.02 13:0.041 14:0.224 15:0.082 16:0.102 17:0.082 18:0 19:0.102 20:0 \n"
"-109.0113202100654 1:0.56 2:0.393 3:0.318 4:0 5:0.041 6:0.102 7:0 8:0 9:0.041 10:0.041 11:0.143 12:0.102 13:0.02 14:0.102 15:0.122 16:0.041 17:0.122 18:0.082 19:0.041 20:0 \n"
"115.1248616732031 1:0.56 2:0.464 3:0.318 4:0 5:0.082 6:0.061 7:0 8:0.082 9:0.082 10:0.082 11:0 12:0 13:0.041 14:0.082 15:0.184 16:0.061 17:0.041 18:0.082 19:0.122 20:0 \n"
"-70.76791083041012 1:0.56 2:0.5 3:0.318 4:0.02 5:0.061 6:0.041 7:0.02 8:0 9:0.041 10:0.041 11:0.184 12:0.02 13:0.143 14:0.102 15:0.02 16:0.102 17:0.02 18:0.102 19:0.082 20:0 \n"
"256 1:0.56 2:0.5 3:0.318 4:0 5:0.061 6:0.061 7:0.02 8:0.082 9:0.122 10:0.041 11:0.02 12:0.041 13:0 14:0.102 15:0.143 16:0.02 17:0.082 18:0.082 19:0.122 20:0 \n"
"-63.64608508162835 1:0.56 2:0.5 3:0.318 4:0 5:0.082 6:0.041 7:0.02 8:0 9:0.122 10:0.041 11:0.102 12:0.02 13:0 14:0.102 15:0.163 16:0.102 17:0.082 18:0.102 19:0.02 20:0 \n"
"72.44268806950016 1:0.56 2:0.5 3:0.318 4:0.041 5:0.02 6:0 7:0.082 8:0 9:0.082 10:0.143 11:0.061 12:0 13:0.184 14:0.041 15:0.041 16:0.102 17:0 18:0.082 19:0.122 20:0 \n"
"132.8909948151454 1:0.56 2:0.5 3:0.318 4:0.02 5:0 6:0.082 7:0.041 8:0.02 9:0.143 10:0.041 11:0.061 12:0.082 13:0.061 14:0 15:0.143 16:0.02 17:0.061 18:0.163 19:0.061 20:0 \n"
"-171.3877197117115 1:0.56 2:0.536 3:0.318 4:0 5:0.102 6:0.041 7:0 8:0.061 9:0.02 10:0.102 11:0.122 12:0 13:0.082 14:0.061 15:0.122 16:0.082 17:0.082 18:0.061 19:0.061 20:0 \n"
"92.81933579174611 1:0.56 2:0.536 3:0.318 4:0.041 5:0.02 6:0.041 7:0.02 8:0.02 9:0.102 10:0.122 11:0.061 12:0.061 13:0.122 14:0.061 15:0.02 16:0.02 17:0.061 18:0.02 19:0.204 20:0 \n"
"-136.3687246089228 1:0.56 2:0.536 3:0.318 4:0.041 5:0.02 6:0 7:0.061 8:0.041 9:0.061 10:0.082 11:0.122 12:0.061 13:0.02 14:0.082 15:0.102 16:0 17:0.204 18:0.102 19:0 20:0 \n"
"104.6821754198533 1:0.56 2:0.536 3:0.318 4:0 5:0.02 6:0.061 7:0.061 8:0 9:0.224 10:0 11:0.061 12:0.041 13:0 14:0.122 15:0.102 16:0.102 17:0.061 18:0.061 19:0.082 20:0 \n"
"171.1741260359516 1:0.56 2:0.536 3:0.318 4:0.02 5:0.02 6:0.082 7:0 8:0.082 9:0.061 10:0.02 11:0.143 12:0.02 13:0.061 14:0.02 15:0.163 16:0.02 17:0.163 18:0.122 19:0 20:0 \n"
"204.5060648744676 1:0.56 2:0.536 3:0.318 4:0.02 5:0.082 6:0 7:0.041 8:0.082 9:0.163 10:0 11:0.061 12:0.041 13:0 14:0.122 15:0.102 16:0 17:0.061 18:0.143 19:0.082 20:0 \n"
"8.737345851878946 1:0.56 2:0.607 3:0.318 4:0.041 5:0.061 6:0.041 7:0 8:0 9:0.122 10:0.102 11:0.122 12:0.041 13:0.041 14:0.061 15:0.082 16:0.061 17:0.122 18:0 19:0.102 20:0 \n"
"-256 1:0.56 2:0.607 3:0.318 4:0.02 5:0.02 6:0.02 7:0.061 8:0.041 9:0.163 10:0.02 11:0.122 12:0.02 13:0.143 14:0.041 15:0.02 16:0.061 17:0.02 18:0.122 19:0.102 20:0 \n"
"-141.120738264853 1:0.56 2:0.643 3:0.318 4:0 5:0.041 6:0.02 7:0.082 8:0.041 9:0.102 10:0.122 11:0.082 12:0.02 13:0.143 14:0.02 15:0.02 16:0.061 17:0.082 18:0.041 19:0.122 20:0 \n"
"-256 1:0.56 2:0.643 3:0.318 4:0 5:0.02 6:0.041 7:0.061 8:0.102 9:0.184 10:0 11:0.082 12:0.02 13:0.02 14:0.102 15:0.061 16:0.02 17:0.122 18:0.061 19:0.102 20:0 \n"
"-58.94754360522472 1:0.56 2:0.643 3:0.318 4:0 5:0.102 6:0 7:0.02 8:0.061 9:0.061 10:0.184 11:0.061 12:0 13:0.061 14:0.02 15:0.122 16:0.061 17:0.143 18:0 19:0.102 20:0 \n"
"85.03184551240285 1:0.56 2:0.643 3:0.318 4:0.02 5:0.02 6:0.02 7:0.082 8:0.061 9:0.122 10:0.02 11:0.143 12:0 13:0.102 14:0.102 15:0 16:0.061 17:0.122 18:0.041 19:0.082 20:0 \n"
"-1.484379533556881 1:0.56 2:0.643 3:0.318 4:0.02 5:0.082 6:0 7:0.041 8:0.061 9:0.184 10:0.061 11:0.061 12:0.061 13:0 14:0.02 15:0.122 16:0 17:0.102 18:0.122 19:0.061 20:0 \n"
"-62.33251383123861 1:0.56 2:0.643 3:0.318 4:0 5:0.02 6:0.041 7:0.082 8:0.041 9:0.204 10:0.102 11:0.02 12:0 13:0.082 14:0.02 15:0.102 16:0.102 17:0.061 18:0.02 19:0.102 20:0 \n"
"-119.4574810584623 1:0.56 2:0.643 3:0.318 4:0.041 5:0.02 6:0.061 7:0.02 8:0.02 9:0.224 10:0.082 11:0.02 12:0.061 13:0.02 14:0.02 15:0.102 16:0.02 17:0.082 18:0.041 19:0.163 20:0 \n"
"145.2864569000457 1:0.56 2:0.714 3:0.318 4:0 5:0.02 6:0.02 7:0.102 8:0.041 9:0.184 10:0.082 11:0.082 12:0 13:0.061 14:0 15:0.102 16:0.082 17:0.143 18:0.061 19:0.02 20:0 \n"
"139.9454845376403 1:0.56 2:0.714 3:0.318 4:0 5:0.122 6:0 7:0.02 8:0.082 9:0.143 10:0.082 11:0.082 12:0 13:0.122 14:0 15:0.041 16:0.061 17:0.02 18:0.082 19:0.143 20:0 \n"
"50.99235930383026 1:0.56 2:0.714 3:0.318 4:0 5:0.082 6:0 7:0.061 8:0.102 9:0.224 10:0.041 11:0.041 12:0.02 13:0.082 14:0.02 15:0.041 16:0.02 17:0.02 18:0.082 19:0.163 20:0 \n"
"79.44466933965545 1:0.56 2:0.714 3:0.318 4:0.041 5:0.041 6:0.041 7:0.02 8:0.061 9:0 10:0.061 11:0.265 12:0.02 13:0.143 14:0 15:0 16:0.02 17:0.204 18:0.061 19:0.02 20:0 \n"
"51.09880061033617 1:0.56 2:0.75 3:0.318 4:0.041 5:0.061 6:0 7:0.041 8:0.082 9:0.102 10:0.061 11:0.163 12:0 13:0.102 14:0 15:0.041 16:0.02 17:0.143 18:0.082 19:0.061 20:0 \n"
"256 1:0.56 2:0.75 3:0.318 4:0.041 5:0 6:0.02 7:0.082 8:0.061 9:0.122 10:0.102 11:0.122 12:0 13:0.143 14:0 15:0 16:0.041 17:0.143 18:0.02 19:0.102 20:0 \n"
"-192.7607240264524 1:0.56 2:0.75 3:0.318 4:0.041 5:0.061 6:0.02 7:0.02 8:0 9:0.265 10:0.082 11:0.061 12:0.041 13:0.061 14:0 15:0.041 16:0.061 17:0.041 18:0.041 19:0.163 20:0 \n"
"256 1:0.56 2:0.75 3:0.318 4:0.02 5:0 6:0.02 7:0.102 8:0.061 9:0.204 10:0.082 11:0.061 12:0 13:0.143 14:0 15:0 16:0.061 17:0.061 18:0.041 19:0.143 20:0 \n"
"87.1485108575901 1:0.56 2:0.75 3:0.318 4:0.041 5:0 6:0.041 7:0.061 8:0.041 9:0.286 10:0.082 11:0 12:0.02 13:0.041 14:0.02 15:0.061 16:0.041 17:0.082 18:0 19:0.184 20:0 \n"
"-16.37860669631547 1:0.56 2:0.75 3:0.318 4:0.041 5:0.02 6:0 7:0.061 8:0.061 9:0.204 10:0.102 11:0.061 12:0.041 13:0.041 14:0.041 15:0.02 16:0 17:0.143 18:0 19:0.163 20:0 \n"
"-256 1:0.56 2:0.786 3:0.318 4:0.02 5:0.082 6:0 7:0.041 8:0.082 9:0.102 10:0.041 11:0.224 12:0.02 13:0.082 14:0 15:0 16:0.02 17:0.163 18:0.082 19:0.041 20:0 \n"
"-119.5258466763166 1:0.56 2:0.786 3:0.318 4:0.02 5:0 6:0.02 7:0.102 8:0.102 9:0.224 10:0.02 11:0.102 12:0 13:0.041 14:0 15:0.082 16:0.02 17:0.163 18:0.082 19:0.02 20:0 \n"
"91.48768542973649 1:0.56 2:0.786 3:0.318 4:0.041 5:0.061 6:0.041 7:0 8:0.02 9:0.163 10:0.041 11:0.204 12:0.041 13:0.061 14:0.02 15:0 16:0.02 17:0.163 18:0.02 19:0.102 20:0 \n"
"15.61287675080045 1:0.56 2:0.786 3:0.318 4:0.041 5:0.061 6:0 7:0.02 8:0.02 9:0.102 10:0.102 11:0.224 12:0 13:0.122 14:0 15:0 16:0.082 17:0.163 18:0 19:0.061 20:0 \n"
"-27.11288276184205 1:0.56 2:0.25 3:0.364 4:0.041 5:0.02 6:0.082 7:0.02 8:0.041 9:0 10:0.102 11:0 12:0.061 13:0.102 14:0.082 15:0.163 16:0.02 17:0 18:0.163 19:0.102 20:0 \n"
"61.5611632048772 1:0.56 2:0.25 3:0.364 4:0 5:0.02 6:0.143 7:0 8:0.02 9:0.041 10:0.061 11:0.02 12:0.102 13:0.02 14:0.102 15:0.204 16:0.041 17:0.061 18:0.102 19:0.061 20:0 \n"
"1.187480705128925 1:0.56 2:0.286 3:0.364 4:0 5:0.061 6:0.082 7:0.02 8:0.061 9:0.041 10:0.061 11:0 12:0 13:0.061 14:0.102 15:0.224 16:0.102 17:0 18:0.143 19:0.041 20:0 \n"
"-84.10881109921264 1:0.56 2:0.357 3:0.364 4:0.02 5:0 6:0.041 7:0.102 8:0 9:0 10:0.122 11:0.082 12:0.082 13:0.102 14:0.122 15:0.061 16:0.061 17:0.102 18:0.061 19:0.041 20:0 \n"
"33.50020718024359 1:0.56 2:0.357 3:0.364 4:0.02 5:0.02 6:0.102 7:0.02 8:0.041 9:0.041 10:0.02 11:0.102 12:0.061 13:0.122 14:0.082 15:0.082 16:0.041 17:0.02 18:0.163 19:0.061 20:0 \n"
"-230.8058323317928 1:0.56 2:0.357 3:0.364 4:0.02 5:0.061 6:0.061 7:0.02 8:0.082 9:0.082 10:0 11:0.02 12:0.041 13:0.02 14:0.122 15:0.184 16:0.02 17:0.02 18:0.184 19:0.061 20:0 \n"
"-97.93717351236795 1:0.56 2:0.357 3:0.364 4:0 5:0.02 6:0.082 7:0.061 8:0.041 9:0 10:0.041 11:0.122 12:0.041 13:0.041 14:0.224 15:0.061 16:0.082 17:0.143 18:0.02 19:0.02 20:0 \n"
"65.09568318196287 1:0.56 2:0.357 3:0.364 4:0.061 5:0 6:0.061 7:0.041 8:0 9:0.102 10:0.02 11:0.082 12:0.102 13:0.041 14:0.082 15:0.143 16:0 17:0.041 18:0.204 19:0.02 20:0 \n"
"139.8259423221474 1:0.56 2:0.357 3:0.364 4:0.041 5:0.02 6:0.02 7:0.082 8:0 9:0.02 10:0.102 11:0.061 12:0.02 13:0.082 14:0.245 15:0.02 16:0.082 17:0.082 18:0 19:0.122 20:0 \n"
"37.57884872485347 1:0.56 2:0.393 3:0.364 4:0 5:0 6:0.122 7:0.041 8:0.082 9:0.041 10:0.02 11:0.082 12:0.02 13:0.163 14:0.041 15:0.102 16:0.061 17:0.02 18:0.163 19:0.041 20:0 \n"
"256 1:0.56 2:0.464 3:0.364 4:0 5:0.041 6:0.02 7:0.102 8:0.02 9:0.122 10:0.061 11:0.041 12:0.122 13:0 14:0.122 15:0.061 16:0.02 17:0.082 18:0.102 19:0.082 20:0 \n"
"-13.95161480634481 1:0.56 2:0.464 3:0.364 4:0 5:0.102 6:0.041 7:0.02 8:0.061 9:0.02 10:0.082 11:0.102 12:0 13:0.143 14:0.122 15:0.02 16:0.102 17:0 18:0.061 19:0.122 20:0 \n"
"120.8996228028372 1:0.56 2:0.464 3:0.364 4:0.061 5:0.082 6:0.02 7:0 8:0.082 9:0 10:0.082 11:0.102 12:0.02 13:0.102 14:0.143 15:0.02 16:0 17:0.061 18:0.061 19:0.163 20:0 \n"
"32.97237063600961 1:0.56 2:0.464 3:0.364 4:0.061 5:0.02 6:0.061 7:0 8:0.041 9:0.061 10:0.061 11:0.102 12:0.061 13:0.163 14:0.082 15:0 16:0 17:0.02 18:0.102 19:0.163 20:0 \n"
"185.8548782703439 1:0.56 2:0.464 3:0.364 4:0.02 5:0.02 6:0.102 7:0 8:0.041 9:0.02 10:0.082 11:0.122 12:0.102 13:0.061 14:0.082 15:0.061 16:0 17:0.163 18:0.02 19:0.102 20:0 \n"
"230.1594966642359 1:0.56 2:0.464 3:0.364 4:0 5:0.02 6:0.041 7:0.102 8:0 9:0.02 10:0.184 11:0.061 12:0.061 13:0.122 14:0.041 15:0.061 16:0.102 17:0.082 18:0.041 19:0.061 20:0 \n"
"8.409982375139634 1:0.56 2:0.464 3:0.364 4:0 5:0.061 6:0.102 7:0 8:0.102 9:0.02 10:0.143 11:0 12:0 13:0.061 14:0.041 15:0.184 16:0.061 17:0.102 18:0.02 19:0.102 20:0 \n"
"-236.5234084647981 1:0.56 2:0.5 3:0.364 4:0.02 5:0.041 6:0.102 7:0 8:0.082 9:0.041 10:0.082 11:0.082 12:0.041 13:0.143 14:0.041 15:0.041 16:0.02 17:0.061 18:0.041 19:0.163 20:0 \n"
"-132.1655358765193 1:0.56 2:0.5 3:0.364 4:0.041 5:0 6:0.061 7:0.061 8:0.041 9:0.041 10:0.184 11:0.02 12:0.02 13:0.102 14:0 15:0.143 16:0.061 17:0.143 18:0.041 19:0.041 20:0 \n"
"-38.43876448163871 1:0.56 2:0.5 3:0.364 4:0 5:0.061 6:0.082 7:0.02 8:0.041 9:0.061 10:0.122 11:0.061 12:0 13:0.102 14:0.02 15:0.163 16:0.102 17:0.061 18:0.061 19:0.041 20:0 \n"
"256 1:0.56 2:0.5 3:0.364 4:0.061 5:0.061 6:0.02 7:0.02 8:0.061 9:0.082 10:0.041 11:0.102 12:0 13:0.143 14:0.082 15:0.061 16:0.041 17:0 18:0.122 19:0.102 20:0 \n"
"256 1:0.56 2:0.5 3:0.364 4:0.02 5:0.02 6:0.102 7:0.02 8:0.02 9:0.082 10:0.082 11:0.082 12:0 13:0.163 14:0.082 15:0.041 16:0.102 17:0.02 18:0.02 19:0.143 20:0 \n"
"256 1:0.56 2:0.5 3:0.364 4:0.02 5:0.082 6:0.02 7:0.041 8:0.02 9:0.163 10:0.02 11:0.061 12:0.082 13:0.041 14:0.143 15:0.02 16:0.041 17:0 18:0.102 19:0.143 20:0 \n"
"169.7297193397621 1:0.56 2:0.5 3:0.364 4:0.041 5:0.02 6:0.102 7:0 8:0 9:0.143 10:0.041 11:0.102 12:0.061 13:0.061 14:0.143 15:0.02 16:0.061 17:0.061 18:0 19:0.143 20:0 \n"
"-122.5271504457286 1:0.56 2:0.536 3:0.364 4:0.041 5:0.041 6:0.082 7:0 8:0.061 9:0.02 10:0.02 11:0.184 12:0.061 13:0.082 14:0.102 15:0.02 16:0 17:0.143 18:0.061 19:0.082 20:0 \n"
"123.098485188474 1:0.56 2:0.536 3:0.364 4:0.061 5:0 6:0 7:0.102 8:0.041 9:0.041 10:0.102 11:0.102 12:0.041 13:0.041 14:0.122 15:0.061 16:0.02 17:0.204 18:0.041 19:0.02 20:0 \n"
"-0.2638643991501985 1:0.56 2:0.536 3:0.364 4:0 5:0.102 6:0.02 7:0.041 8:0 9:0 10:0.163 11:0.143 12:0.102 13:0.082 14:0.041 15:0.02 16:0.061 17:0.122 18:0.041 19:0.061 20:0 \n"
"-46.02138950082645 1:0.56 2:0.536 3:0.364 4:0 5:0.082 6:0 7:0.082 8:0.02 9:0.02 10:0.102 11:0.163 12:0.041 13:0.102 14:0.102 15:0 16:0.102 17:0.102 18:0.041 19:0.041 20:0 \n"
"256 1:0.56 2:0.607 3:0.364 4:0.02 5:0.041 6:0.02 7:0.082 8:0.082 9:0.041 10:0.061 11:0.163 12:0.061 13:0.041 14:0.102 15:0.02 16:0 17:0.204 18:0.041 19:0.02 20:0 \n"
"-256 1:0.56 2:0.607 3:0.364 4:0.02 5:0.061 6:0.041 7:0.041 8:0.082 9:0.163 10:0.041 11:0.041 12:0 13:0.061 14:0.02 15:0.143 16:0.061 17:0.061 18:0.122 19:0.041 20:0 \n"
"-217.8807554991014 1:0.56 2:0.607 3:0.364 4:0.041 5:0.041 6:0.02 7:0.061 8:0.102 9:0.041 10:0.061 11:0.143 12:0.02 13:0.143 14:0 15:0.061 16:0 17:0.122 18:0.143 19:0 20:0 \n"
"16.26177104211508 1:0.56 2:0.607 3:0.364 4:0 5:0.082 6:0.041 7:0.041 8:0.102 9:0.02 10:0.143 11:0.082 12:0 13:0.041 14:0.02 15:0.143 16:0.061 17:0.184 18:0.02 19:0.02 20:0 \n"
"-31.79770248664594 1:0.56 2:0.607 3:0.364 4:0 5:0.102 6:0.02 7:0.041 8:0.122 9:0.082 10:0.041 11:0.082 12:0.041 13:0 14:0.122 15:0.061 16:0 17:0.143 18:0.041 19:0.102 20:0 \n"
"256 1:0.56 2:0.607 3:0.364 4:0 5:0.041 6:0.02 7:0.102 8:0.122 9:0.041 10:0.082 11:0.082 12:0.041 13:0.082 14:0.02 15:0.082 16:0 17:0.184 18:0.082 19:0.02 20:0 \n"
"82.46126879250468 1:0.56 2:0.607 3:0.364 4:0 5:0 6:0.061 7:0.102 8:0.02 9:0.184 10:0.102 11:0.041 12:0.082 13:0.041 14:0 15:0.082 16:0.061 17:0.122 18:0.061 19:0.041 20:0 \n"
"-51.12197687127632 1:0.56 2:0.607 3:0.364 4:0 5:0.02 6:0.041 7:0.082 8:0.122 9:0.102 10:0.102 11:0.02 12:0.041 13:0.163 14:0.02 15:0 16:0 17:0.061 18:0.061 19:0.163 20:0 \n"
"-256 1:0.56 2:0.643 3:0.364 4:0 5:0.041 6:0.041 7:0.061 8:0.143 9:0.143 10:0.02 11:0.061 12:0 13:0.061 14:0.061 15:0.082 16:0.02 17:0.102 18:0.082 19:0.082 20:0 \n"
"47.99248596266558 1:0.56 2:0.643 3:0.364 4:0.02 5:0.061 6:0.02 7:0.061 8:0.143 9:0.102 10:0.02 11:0.082 12:0 13:0.122 14:0.082 15:0 16:0 17:0.082 18:0.061 19:0.143 20:0 \n"
"-256 1:0.56 2:0.643 3:0.364 4:0.02 5:0.041 6:0 7:0.102 8:0.02 9:0.061 10:0.143 11:0.122 12:0.02 13:0.143 14:0 15:0.041 16:0.102 17:0.102 18:0.061 19:0.02 20:0 \n"
"-18.23673180468376 1:0.56 2:0.643 3:0.364 4:0 5:0.102 6:0.02 7:0.041 8:0.02 9:0.163 10:0.143 11:0.02 12:0.082 13:0.061 14:0.02 15:0.041 16:0.061 17:0.041 18:0.02 19:0.163 20:0 \n"
"53.19438830174128 1:0.56 2:0.643 3:0.364 4:0 5:0.143 6:0.02 7:0 8:0.082 9:0.082 10:0.122 11:0.061 12:0 13:0.02 14:0.041 15:0.143 16:0.082 17:0.102 18:0.02 19:0.082 20:0 \n"
"-256 1:0.56 2:0.643 3:0.364 4:0.02 5:0 6:0.041 7:0.102 8:0.102 9:0.082 10:0.143 11:0.02 12:0.041 13:0.102 14:0.02 15:0.041 16:0 17:0.163 18:0 19:0.122 20:0 \n"
"-63.57243607106889 1:0.56 2:0.643 3:0.364 4:0.02 5:0.041 6:0.082 7:0.02 8:0.122 9:0.143 10:0.02 11:0.061 12:0 13:0.163 14:0.041 15:0 16:0.02 17:0.02 18:0.061 19:0.184 20:0 \n"
"-228.6236803359465 1:0.56 2:0.714 3:0.364 4:0 5:0.061 6:0.061 7:0.041 8:0.102 9:0.163 10:0.02 11:0.122 12:0.061 13:0.02 14:0 15:0.082 16:0 17:0.143 18:0.082 19:0.041 20:0 \n"
"41.94915304065606 1:0.56 2:0.714 3:0.364 4:0 5:0 6:0.061 7:0.102 8:0.082 9:0.122 10:0.061 11:0.143 12:0.02 13:0.082 14:0.02 15:0.041 16:0.061 17:0.184 18:0.02 19:0 20:0 \n"
"-256 1:0.56 2:0.714 3:0.364 4:0.041 5:0.02 6:0.041 7:0.061 8:0.041 9:0.286 10:0 11:0.061 12:0 13:0.082 14:0.061 15:0.02 16:0.082 17:0.02 18:0.061 19:0.122 20:0 \n"
"256 1:0.56 2:0.714 3:0.364 4:0.061 5:0.02 6:0.041 7:0.02 8:0.082 9:0.224 10:0 11:0.102 12:0 13:0.122 14:0 15:0.041 16:0.02 17:0.041 18:0.102 19:0.122 20:0 \n"
"-24.12613582700817 1:0.56 2:0.714 3:0.364 4:0 5:0.102 6:0.02 7:0.041 8:0.163 9:0.082 10:0.02 11:0.122 12:0 13:0.082 14:0 15:0.082 16:0 17:0.143 18:0.102 19:0.041 20:0 \n"
"256 1:0.56 2:0.714 3:0.364 4:0 5:0.082 6:0.061 7:0.02 8:0.041 9:0.122 10:0.102 11:0.122 12:0 13:0.082 14:0 15:0.082 16:0.102 17:0.122 18:0 19:0.061 20:0 \n"
"164.7593120075254 1:0.56 2:0.714 3:0.364 4:0.041 5:0.02 6:0.02 7:0.082 8:0 9:0.265 10:0.041 11:0.102 12:0 13:0.082 14:0 15:0.061 16:0.102 17:0.041 18:0.102 19:0.041 20:0 \n"
"-252.5768996687348 1:0.56 2:0.75 3:0.364 4:0.02 5:0.082 6:0.041 7:0.02 8:0.041 9:0.061 10:0.082 11:0.224 12:0 13:0.122 14:0 15:0.02 16:0.082 17:0.163 18:0.02 19:0.02 20:0 \n"
"256 1:0.56 2:0.75 3:0.364 4:0.02 5:0.122 6:0.02 7:0 8:0.061 9:0.082 10:0.041 11:0.224 12:0.041 13:0.102 14:0 15:0 16:0.041 17:0.102 18:0.082 19:0.061 20:0 \n"
"-7.305374173618727 1:0.56 2:0.75 3:0.364 4:0 5:0.061 6:0.02 7:0.082 8:0.143 9:0.184 10:0.061 11:0.02 12:0.02 13:0.102 14:0.02 15:0 16:0 17:0.061 18:0.041 19:0.184 20:0 \n"
"128.2019744239833 1:0.56 2:0.75 3:0.364 4:0 5:0.061 6:0 7:0.102 8:0.041 9:0.265 10:0.02 11:0.102 12:0.02 13:0.041 14:0.041 15:0.041 16:0.102 17:0.041 18:0.082 19:0.041 20:0 \n"
"256 1:0.56 2:0.75 3:0.364 4:0 5:0.122 6:0.02 7:0.02 8:0.082 9:0.061 10:0.122 11:0.163 12:0 13:0.041 14:0 15:0.082 16:0.082 17:0.184 18:0 19:0.02 20:0 \n"
"-1.57543805227432 1:0.56 2:0.75 3:0.364 4:0.02 5:0.143 6:0 7:0 8:0.082 9:0.041 10:0.143 11:0.163 12:0.041 13:0.082 14:0 15:0 16:0.02 17:0.143 18:0 19:0.122 20:0 \n"
"-75.13268869431897 1:0.56 2:0.786 3:0.364 4:0.02 5:0.122 6:0 7:0.02 8:0.082 9:0.163 10:0.082 11:0.122 12:0 13:0.02 14:0.02 15:0.082 16:0.041 17:0.143 18:0.02 19:0.061 20:0 \n"
"-256 1:0.56 2:0.786 3:0.364 4:0.02 5:0.061 6:0.02 7:0.061 8:0.102 9:0.143 10:0.082 11:0.102 12:0.041 13:0.061 14:0 15:0.02 16:0 17:0.184 18:0.02 19:0.082 20:0 \n"
"-20.50879445527778 1:0.56 2:0.786 3:0.364 4:0.061 5:0.061 6:0.041 7:0 8:0.02 9:0.163 10:0.041 11:0.204 12:0 13:0.102 14:0.02 15:0 16:0.082 17:0.122 18:0.02 19:0.061 20:0 \n"
"-256 1:0.56 2:0.786 3:0.364 4:0.041 5:0.102 6:0 7:0 8:0.082 9:0.061 10:0.061 11:0.245 12:0.041 13:0.082 14:0 15:0 16:0 17:0.184 18:0.061 19:0.041 20:0 \n"
"170.2944411822809 1:0.56 2:0.786 3:0.364 4:0.02 5:0.122 6:0.02 7:0 8:0.122 9:0.184 10:0.041 11:0.082 12:0 13:0.061 14:0.02 15:0.041 16:0.02 17:0.061 18:0.041 19:0.163 20:0 \n"
"58.37253081806846 1:0.56 2:0.786 3:0.364 4:0 5:0.082 6:0.02 7:0.061 8:0.02 9:0.163 10:0.041 11:0.204 12:0.041 13:0.061 14:0.02 15:0 16:0.102 17:0.143 18:0.041 19:0 20:0 \n"
"-256 1:0.56 2:0.786 3:0.364 4:0.041 5:0.122 6:0 7:0 8:0.02 9:0.163 10:0.041 11:0.204 12:0.041 13:0.082 14:0 15:0 16:0.061 17:0.061 18:0.082 19:0.082 20:0 \n"
"-256 1:0.56 2:0.786 3:0.364 4:0.061 5:0.02 6:0.041 7:0.041 8:0.061 9:0.265 10:0.061 11:0.041 12:0 13:0.102 14:0 15:0.02 16:0.02 17:0.061 18:0.02 19:0.184 20:0 \n"
"-103.3699356995742 1:0.56 2:0.786 3:0.364 4:0.02 5:0.041 6:0.02 7:0.061 8:0.082 9:0.327 10:0.02 11:0.02 12:0.041 13:0.02 14:0 15:0.061 16:0.02 17:0.041 18:0.082 19:0.143 20:0 \n"
"149.1923950359501 1:0.56 2:0.786 3:0.364 4:0.061 5:0.041 6:0.02 7:0.041 8:0 9:0.347 10:0.041 11:0.061 12:0 13:0.02 14:0.02 15:0.082 16:0.102 17:0.041 18:0.02 19:0.102 20:0 \n"
"-256 1:0.56 2:0.786 3:0.364 4:0.061 5:0.02 6:0 7:0.082 8:0.061 9:0.204 10:0.122 11:0.041 12:0 13:0.041 14:0 15:0.082 16:0.041 17:0.163 18:0 19:0.082 20:0 \n"
"19.36622617378246 1:0.56 2:0.786 3:0.364 4:0.02 5:0.061 6:0.041 7:0.041 8:0.02 9:0.245 10:0.082 11:0.082 12:0 13:0.122 14:0 15:0 16:0.102 17:0.02 18:0 19:0.163 20:0 \n"
"256 1:0.56 2:0.786 3:0.364 4:0 5:0.082 6:0.041 7:0.041 8:0.082 9:0.184 10:0 11:0.184 12:0 13:0.122 14:0 15:0 16:0.082 17:0.061 18:0.082 19:0.041 20:0 \n"
"15.20472347662761 1:0.56 2:0.25 3:0.409 4:0.02 5:0.061 6:0.041 7:0.061 8:0.061 9:0.02 10:0 11:0.041 12:0.041 13:0.02 14:0.265 15:0.102 16:0.061 17:0.041 18:0.102 19:0.061 20:0 \n"
"-124.4110859807383 1:0.56 2:0.25 3:0.409 4:0.041 5:0.041 6:0 7:0.102 8:0.041 9:0 10:0.02 11:0.082 12:0.02 13:0.041 14:0.327 15:0.02 16:0.082 17:0.061 18:0.061 19:0.061 20:0 \n"
"65.85681341804847 1:0.56 2:0.25 3:0.409 4:0.082 5:0.061 6:0 7:0.041 8:0 9:0.02 10:0.082 11:0.041 12:0.102 13:0.041 14:0.143 15:0.122 16:0 17:0.02 18:0.184 19:0.061 20:0 \n"
"110.0751869022103 1:0.56 2:0.286 3:0.409 4:0.02 5:0.02 6:0.102 7:0.041 8:0 9:0.061 10:0.102 11:0 12:0.102 13:0.02 14:0.102 15:0.163 16:0.041 17:0.061 18:0.102 19:0.061 20:0 \n"
"-88.90439078301203 1:0.56 2:0.286 3:0.409 4:0.061 5:0.061 6:0.02 7:0.041 8:0 9:0.041 10:0.102 11:0 12:0.061 13:0.02 14:0.163 15:0.163 16:0.041 17:0.041 18:0.122 19:0.061 20:0 \n"
"187.0551002864948 1:0.56 2:0.357 3:0.409 4:0.061 5:0.061 6:0.061 7:0 8:0 9:0.061 10:0.143 11:0 12:0.061 13:0.041 14:0.102 15:0.163 16:0.061 17:0.041 18:0.041 19:0.102 20:0 \n"
"-76.29797683121612 1:0.56 2:0.357 3:0.409 4:0 5:0.082 6:0.02 7:0.082 8:0.041 9:0 10:0.163 11:0 12:0.061 13:0.122 14:0.102 15:0.061 16:0.082 17:0 18:0.061 19:0.122 20:0 \n"
"133.8708370282237 1:0.56 2:0.393 3:0.409 4:0.061 5:0.041 6:0.041 7:0.041 8:0.082 9:0.082 10:0 11:0.041 12:0.02 13:0.061 14:0.082 15:0.184 16:0 17:0.041 18:0.224 19:0 20:0 \n"
"58.9655377682982 1:0.56 2:0.393 3:0.409 4:0.061 5:0 6:0 7:0.102 8:0.041 9:0.122 10:0.061 11:0 12:0.082 13:0.102 14:0.122 15:0.041 16:0 17:0 18:0.163 19:0.102 20:0 \n"
"-71.79432976057507 1:0.56 2:0.393 3:0.409 4:0.02 5:0.082 6:0.082 7:0 8:0 9:0.061 10:0.082 11:0.082 12:0.143 13:0.061 14:0.02 15:0.122 16:0 17:0.02 18:0.163 19:0.061 20:0 \n"
"-24.14239187801729 1:0.56 2:0.393 3:0.409 4:0.02 5:0.02 6:0.082 7:0.061 8:0 9:0.02 10:0.163 11:0.02 12:0.143 13:0.061 14:0.082 15:0.061 16:0.02 17:0.122 18:0.02 19:0.102 20:0 \n"
"24.75755981590776 1:0.56 2:0.393 3:0.409 4:0.02 5:0.02 6:0.102 7:0.041 8:0.02 9:0.02 10:0.143 11:0.041 12:0.061 13:0.061 14:0.02 15:0.184 16:0.082 17:0.122 18:0.061 19:0 20:0 \n"
"-256 1:0.56 2:0.464 3:0.409 4:0.061 5:0.041 6:0.041 7:0.041 8:0.061 9:0.082 10:0.061 11:0.041 12:0 13:0.102 14:0.163 15:0.041 16:0.061 17:0.041 18:0.041 19:0.122 20:0 \n"
"74.75075908328849 1:0.56 2:0.464 3:0.409 4:0 5:0.102 6:0.02 7:0.061 8:0.02 9:0.041 10:0.143 11:0.041 12:0.082 13:0.02 14:0.041 15:0.163 16:0.082 17:0.082 18:0.102 19:0 20:0 \n"
"-256 1:0.56 2:0.464 3:0.409 4:0.041 5:0 6:0.041 7:0.102 8:0 9:0.102 10:0.143 11:0.02 12:0.102 13:0.041 14:0.041 15:0.102 16:0.041 17:0.122 18:0.061 19:0.041 20:0 \n"
"105.1328501358558 1:0.56 2:0.464 3:0.409 4:0.061 5:0.02 6:0.061 7:0.041 8:0.041 9:0.041 10:0.143 11:0.02 12:0 13:0.061 14:0.061 15:0.184 16:0.061 17:0.143 18:0.041 19:0.02 20:0 \n"
"-49.98729221228206 1:0.56 2:0.464 3:0.409 4:0 5:0.102 6:0.02 7:0.061 8:0.041 9:0.02 10:0.163 11:0.041 12:0.082 13:0.143 14:0 15:0.061 16:0.041 17:0 18:0.122 19:0.102 20:0 \n"
"-12.19435353548511 1:0.56 2:0.464 3:0.409 4:0.041 5:0.061 6:0.02 7:0.041 8:0 9:0.02 10:0.122 11:0.122 12:0.122 13:0.02 14:0.082 15:0.082 16:0 17:0.163 18:0.082 19:0.02 20:0 \n"
"-256 1:0.56 2:0.464 3:0.409 4:0 5:0.061 6:0.041 7:0.082 8:0.02 9:0.122 10:0.122 11:0 12:0.082 13:0.061 14:0.061 15:0.082 16:0.082 17:0.02 18:0.082 19:0.082 20:0 \n"
"-37.12025875689094 1:0.56 2:0.464 3:0.409 4:0.082 5:0.061 6:0 7:0.041 8:0 9:0 10:0.163 11:0.082 12:0.102 13:0.102 14:0.061 15:0.041 16:0 17:0.102 18:0.061 19:0.102 20:0 \n"
"-56.59748264026716 1:0.56 2:0.464 3:0.409 4:0 5:0.082 6:0.102 7:0 8:0.02 9:0.082 10:0.122 11:0.02 12:0.102 13:0.041 14:0 15:0.163 16:0.061 17:0.041 18:0.082 19:0.082 20:0 \n"
"-256 1:0.56 2:0.5 3:0.409 4:0.061 5:0.02 6:0.061 7:0.041 8:0.082 9:0.061 10:0.082 11:0.041 12:0.02 13:0.122 14:0.102 15:0.041 16:0.02 17:0.082 18:0.041 19:0.122 20:0 \n"
"256 1:0.56 2:0.5 3:0.409 4:0 5:0.041 6:0.061 7:0.082 8:0.02 9:0.082 10:0.082 11:0.082 12:0.061 13:0.122 14:0.02 15:0.082 16:0.102 17:0.041 18:0.102 19:0.02 20:0 \n"
"-256 1:0.56 2:0.5 3:0.409 4:0.041 5:0.02 6:0.041 7:0.082 8:0.041 9:0.143 10:0.041 11:0.041 12:0.061 13:0.02 14:0.184 15:0.02 16:0.02 17:0.102 18:0.02 19:0.122 20:0 \n"
"-0.9863746092753006 1:0.56 2:0.5 3:0.409 4:0.041 5:0.061 6:0.061 7:0.02 8:0.102 9:0.122 10:0 11:0.061 12:0 13:0.02 14:0.184 15:0.082 16:0.041 17:0.082 18:0.02 19:0.102 20:0 \n"
"-256 1:0.56 2:0.5 3:0.409 4:0.061 5:0.061 6:0 7:0.061 8:0.041 9:0.163 10:0.061 11:0.02 12:0.082 13:0.041 14:0.082 15:0.061 16:0 17:0.02 18:0.122 19:0.122 20:0 \n"
"256 1:0.56 2:0.5 3:0.409 4:0.082 5:0.061 6:0.041 7:0 8:0.082 9:0.02 10:0.02 11:0.143 12:0 13:0.061 14:0.184 15:0.041 16:0.02 17:0.143 18:0.02 19:0.082 20:0 \n"
"-256 1:0.56 2:0.536 3:0.409 4:0.02 5:0.122 6:0 7:0.041 8:0.082 9:0.041 10:0.102 11:0.082 12:0.041 13:0.02 14:0.122 15:0.061 16:0.041 17:0.122 18:0.02 19:0.082 20:0 \n"
"86.7573452471877 1:0.56 2:0.536 3:0.409 4:0.082 5:0.061 6:0.02 7:0.02 8:0.041 9:0.082 10:0.143 11:0.041 12:0.061 13:0.041 14:0.041 15:0.102 16:0 17:0.122 18:0.041 19:0.102 20:0 \n"
"-94.54025555374692 1:0.56 2:0.536 3:0.409 4:0.02 5:0.061 6:0 7:0.102 8:0.02 9:0.122 10:0.061 11:0.102 12:0.061 13:0 14:0.122 15:0.061 16:0.082 17:0.122 18:0.061 19:0 20:0 \n"
"256 1:0.56 2:0.536 3:0.409 4:0.061 5:0 6:0.041 7:0.082 8:0.041 9:0.061 10:0.163 11:0.02 12:0 13:0.163 14:0.041 15:0.061 16:0.082 17:0.082 18:0.02 19:0.082 20:0 \n"
"-104.7709831477576 1:0.56 2:0.536 3:0.409 4:0.02 5:0.102 6:0.061 7:0 8:0.122 9:0.082 10:0.061 11:0.041 12:0 13:0.041 14:0.143 15:0.082 16:0.041 17:0.061 18:0 19:0.143 20:0 \n"
"256 1:0.56 2:0.536 3:0.409 4:0.02 5:0.122 6:0.041 7:0 8:0.122 9:0.102 10:0.02 11:0.061 12:0.041 13:0 14:0.082 15:0.122 16:0 17:0.082 18:0.102 19:0.082 20:0 \n"
"256 1:0.56 2:0.536 3:0.409 4:0.041 5:0.041 6:0 7:0.102 8:0.082 9:0.082 10:0.122 11:0 12:0.041 13:0.143 14:0.041 15:0.041 16:0.02 17:0.041 18:0.102 19:0.102 20:0 \n"
"-256 1:0.56 2:0.536 3:0.409 4:0 5:0.061 6:0.082 7:0.041 8:0.082 9:0.102 10:0.02 11:0.082 12:0.102 13:0.02 14:0.122 15:0.02 16:0 17:0.122 18:0.041 19:0.102 20:0 \n"
"151.7918971883589 1:0.56 2:0.536 3:0.409 4:0.082 5:0 6:0.02 7:0.082 8:0.082 9:0.102 10:0.041 11:0.082 12:0 13:0.163 14:0.082 15:0 16:0.02 17:0.02 18:0.122 19:0.102 20:0 \n"
"-171.8614675124974 1:0.56 2:0.536 3:0.409 4:0.041 5:0.041 6:0 7:0.102 8:0.061 9:0.163 10:0.041 11:0.041 12:0.061 13:0.102 14:0.061 15:0.041 16:0.02 17:0 18:0.143 19:0.082 20:0 \n"
"256 1:0.56 2:0.607 3:0.409 4:0.02 5:0.061 6:0.041 7:0.061 8:0.082 9:0.041 10:0.122 11:0.082 12:0 13:0.143 14:0.041 15:0.041 16:0.082 17:0.082 18:0.02 19:0.082 20:0 \n"
"-74.08531001084641 1:0.56 2:0.607 3:0.409 4:0.061 5:0.061 6:0.061 7:0 8:0 9:0.143 10:0 11:0.184 12:0.061 13:0.02 14:0.122 15:0.02 16:0.061 17:0.102 18:0.041 19:0.061 20:0 \n"
"-111.2153492116517 1:0.56 2:0.607 3:0.409 4:0.061 5:0.102 6:0 7:0.02 8:0.122 9:0.122 10:0.02 11:0.061 12:0 13:0.02 14:0.102 15:0.102 16:0 17:0.102 18:0.102 19:0.061 20:0 \n"
"256 1:0.56 2:0.607 3:0.409 4:0.061 5:0.02 6:0.041 7:0.061 8:0.02 9:0.224 10:0.102 11:0 12:0.041 13:0.082 14:0 15:0.082 16:0.041 17:0.02 18:0.082 19:0.122 20:0 \n"
"-153.8004668393637 1:0.56 2:0.607 3:0.409 4:0 5:0.041 6:0.041 7:0.102 8:0.122 9:0.122 10:0.041 11:0.041 12:0.041 13:0 14:0.122 15:0.061 16:0.02 17:0.184 18:0.02 19:0.041 20:0 \n"
"-123.4817251215149 1:0.56 2:0.607 3:0.409 4:0.02 5:0.082 6:0 7:0.082 8:0.122 9:0.143 10:0.061 11:0 12:0.02 13:0.02 14:0.122 15:0.061 16:0.02 17:0.102 18:0.02 19:0.122 20:0 \n"
"238.1048630137274 1:0.56 2:0.607 3:0.409 4:0.02 5:0.082 6:0 7:0.082 8:0.102 9:0.122 10:0 11:0.102 12:0.02 13:0.102 14:0.082 15:0.02 16:0.041 17:0.02 18:0.143 19:0.061 20:0 \n"
"187.6001376963014 1:0.56 2:0.643 3:0.409 4:0.082 5:0.082 6:0.02 7:0 8:0.02 9:0.143 10:0.061 11:0.143 12:0.061 13:0.061 14:0 15:0.061 16:0.02 17:0.061 18:0.122 19:0.061 20:0 \n"
"-17.86772232102306 1:0.56 2:0.643 3:0.409 4:0.082 5:0.041 6:0.02 7:0.041 8:0.02 9:0.082 10:0.061 11:0.184 12:0.061 13:0.122 14:0 15:0.02 16:0.02 17:0.122 18:0.102 19:0.02 20:0 \n"
"-61.21197882726018 1:0.56 2:0.643 3:0.409 4:0.061 5:0.02 6:0 7:0.102 8:0.061 9:0.122 10:0.061 11:0.122 12:0.041 13:0.02 14:0.082 15:0.041 16:0.02 17:0.204 18:0.041 19:0 20:0 \n"
"-88.33409796144468 1:0.56 2:0.643 3:0.409 4:0.082 5:0.041 6:0 7:0.061 8:0.082 9:0.061 10:0.061 11:0.143 12:0 13:0.163 14:0.041 15:0 16:0.02 17:0.102 18:0.082 19:0.061 20:0 \n"
"13.72325802828187 1:0.56 2:0.643 3:0.409 4:0 5:0.082 6:0.082 7:0.02 8:0.122 9:0.163 10:0.082 11:0 12:0 13:0.041 14:0.02 15:0.122 16:0.041 17:0.082 18:0.02 19:0.122 20:0 \n"
"54.41895770276592 1:0.56 2:0.643 3:0.409 4:0.061 5:0 6:0.02 7:0.102 8:0.02 9:0.204 10:0.122 11:0 12:0.061 13:0.082 14:0 15:0.061 16:0.041 17:0.082 18:0.061 19:0.082 20:0 \n"
"-256 1:0.56 2:0.714 3:0.409 4:0.061 5:0.02 6:0.02 7:0.082 8:0.041 9:0.184 10:0.061 11:0.102 12:0 13:0.143 14:0.02 15:0 16:0.061 17:0.061 18:0.061 19:0.082 20:0 \n"
"256 1:0.56 2:0.714 3:0.409 4:0.041 5:0.102 6:0.041 7:0 8:0.102 9:0.122 10:0.041 11:0.122 12:0.02 13:0.061 14:0.061 15:0.02 16:0.02 17:0.122 18:0 19:0.122 20:0 \n"
"4.655482396726554 1:0.56 2:0.714 3:0.409 4:0.061 5:0.061 6:0.061 7:0 8:0 9:0.245 10:0.02 11:0.122 12:0.02 13:0.041 14:0.061 15:0.041 16:0.102 17:0.061 18:0 19:0.102 20:0 \n"
"225.9855943876385 1:0.56 2:0.714 3:0.409 4:0.02 5:0.082 6:0 7:0.082 8:0.102 9:0.204 10:0.061 11:0.02 12:0 13:0.102 14:0.061 15:0 16:0.061 17:0.02 18:0.02 19:0.163 20:0 \n"
"86.63032763915866 1:0.56 2:0.714 3:0.409 4:0 5:0.184 6:0 7:0 8:0.122 9:0.061 10:0.041 11:0.163 12:0 13:0.102 14:0.041 15:0.02 16:0.061 17:0.041 18:0.082 19:0.082 20:0 \n"
"153.2356786583775 1:0.56 2:0.714 3:0.409 4:0.061 5:0.122 6:0 7:0 8:0.061 9:0.082 10:0.061 11:0.204 12:0.041 13:0 14:0.061 15:0.041 16:0 17:0.204 18:0.041 19:0.02 20:0 \n"
"-256 1:0.56 2:0.75 3:0.409 4:0.041 5:0.061 6:0.02 7:0.061 8:0.122 9:0.184 10:0.061 11:0.041 12:0 13:0.122 14:0.02 15:0 16:0.02 17:0.061 18:0.041 19:0.143 20:0 \n"
"10.11555296113421 1:0.56 2:0.75 3:0.409 4:0.082 5:0.041 6:0.061 7:0 8:0.02 9:0.184 10:0.061 11:0.143 12:0 13:0.041 14:0.02 15:0.082 16:0.082 17:0.163 18:0 19:0.02 20:0 \n"
"256 1:0.56 2:0.75 3:0.409 4:0.061 5:0.102 6:0 7:0.02 8:0.082 9:0.02 10:0.102 11:0.204 12:0 13:0.143 14:0 15:0 16:0.041 17:0.163 18:0.041 19:0.02 20:0 \n"
"37.36010981824226 1:0.56 2:0.75 3:0.409 4:0.041 5:0.082 6:0.061 7:0 8:0 9:0.224 10:0.061 11:0.122 12:0.061 13:0.02 14:0 15:0.061 16:0.082 17:0.102 18:0 19:0.082 20:0 \n"
"-256 1:0.56 2:0.75 3:0.409 4:0.02 5:0 6:0.061 7:0.102 8:0.061 9:0.245 10:0.082 11:0.041 12:0 13:0.041 14:0 15:0.082 16:0.102 17:0.143 18:0 19:0.02 20:0 \n"
"-53.16889110430659 1:0.56 2:0.75 3:0.409 4:0.061 5:0.061 6:0.061 7:0 8:0.122 9:0.143 10:0.061 11:0.102 12:0 13:0.082 14:0 15:0.061 16:0 17:0.143 18:0 19:0.102 20:0 \n"
"111.539378057308 1:0.56 2:0.786 3:0.409 4:0.041 5:0.02 6:0.02 7:0.102 8:0.041 9:0.224 10:0.061 11:0.102 12:0 13:0.122 14:0 15:0 16:0.102 17:0.082 18:0.02 19:0.061 20:0 \n"
"-256 1:0.56 2:0.786 3:0.409 4:0.02 5:0.061 6:0 7:0.102 8:0.082 9:0.163 10:0.102 11:0.082 12:0 13:0.082 14:0 15:0.041 16:0.082 17:0.143 18:0 19:0.041 20:0 \n"
"256 1:0.56 2:0.786 3:0.409 4:0.061 5:0.061 6:0 7:0.061 8:0.061 9:0.102 10:0.102 11:0.163 12:0 13:0.122 14:0 15:0 16:0.041 17:0.163 18:0.02 19:0.041 20:0 \n"
"-256 1:0.56 2:0.786 3:0.409 4:0 5:0.163 6:0 7:0.02 8:0.102 9:0.184 10:0.041 11:0.122 12:0.041 13:0.02 14:0.02 15:0.02 16:0.041 17:0.061 18:0.061 19:0.102 20:0 \n"
"51.18372269950581 1:0.56 2:0.786 3:0.409 4:0.082 5:0.041 6:0.02 7:0.041 8:0.02 9:0.286 10:0.02 11:0.122 12:0.041 13:0.02 14:0.02 15:0.02 16:0.041 17:0.102 18:0.061 19:0.061 20:0 \n"
"-256 1:0.56 2:0.786 3:0.409 4:0.02 5:0.163 6:0 7:0 8:0.102 9:0.143 10:0.102 11:0.082 12:0.041 13:0.02 14:0.02 15:0.041 16:0.02 17:0.122 18:0 19:0.122 20:0 \n"
"-256 1:0.56 2:0.786 3:0.409 4:0 5:0.061 6:0.041 7:0.082 8:0.143 9:0.102 10:0.02 11:0.163 12:0 13:0.102 14:0.02 15:0 16:0.041 17:0.184 18:0.02 19:0.02 20:0 \n"
"-95.13487984114776 1:0.56 2:0.786 3:0.409 4:0.02 5:0.163 6:0 7:0 8:0.02 9:0.163 10:0.041 11:0.224 12:0.041 13:0.082 14:0 15:0 16:0.102 17:0.041 18:0.061 19:0.041 20:0 \n"
"-65.55783661661359 1:0.56 2:0.786 3:0.409 4:0 5:0.061 6:0.02 7:0.102 8:0.163 9:0.224 10:0.02 11:0.02 12:0 13:0.102 14:0.02 15:0 16:0.02 17:0.061 18:0.041 19:0.143 20:0 \n"
"-227.2470709010209 1:0.56 2:0.786 3:0.409 4:0.02 5:0.082 6:0.02 7:0.061 8:0.02 9:0.265 10:0.02 11:0.143 12:0.041 13:0.02 14:0 15:0.061 16:0.102 17:0.082 18:0.061 19:0 20:0 \n"
"26.20025706418931 1:0.56 2:0.214 3:0.455 4:0.041 5:0.041 6:0.041 7:0.082 8:0 9:0 10:0.082 11:0.02 12:0.061 13:0.061 14:0.224 15:0.102 16:0.102 17:0.02 18:0.082 19:0.041 20:0 \n"
"-16.55438202094905 1:0.56 2:0.214 3:0.455 4:0 5:0.02 6:0.061 7:0.122 8:0.061 9:0 10:0.02 11:0.041 12:0.143 13:0.02 14:0.265 15:0.02 16:0 17:0.061 18:0.102 19:0.061 20:0 \n"
"-11.23694442534427 1:0.56 2:0.214 3:0.455 4:0.02 5:0.02 6:0.082 7:0.082 8:0.061 9:0.02 10:0.041 11:0 12:0.122 13:0.061 14:0.245 15:0.02 16:0 17:0 18:0.082 19:0.143 20:0 \n"
"-76.28281769538953 1:0.56 2:0.214 3:0.455 4:0.061 5:0.041 6:0.102 7:0 8:0.061 9:0 10:0 11:0.061 12:0.02 13:0.02 14:0.347 15:0.061 16:0.041 17:0.061 18:0 19:0.122 20:0 \n"
"19.98129551102294 1:0.56 2:0.25 3:0.455 4:0.082 5:0 6:0.122 7:0 8:0.041 9:0 10:0.02 11:0.082 12:0.061 13:0.102 14:0.184 15:0.061 16:0.02 17:0.02 18:0.102 19:0.102 20:0 \n"
"3.854661663286659 1:0.56 2:0.286 3:0.455 4:0 5:0 6:0.143 7:0.061 8:0.02 9:0.041 10:0.082 11:0.02 12:0.082 13:0.122 14:0.122 15:0.061 16:0.102 17:0 18:0.041 19:0.102 20:0 \n"
"142.6765180425348 1:0.56 2:0.286 3:0.455 4:0.02 5:0.061 6:0.02 7:0.102 8:0.02 9:0 10:0.061 11:0.061 12:0.082 13:0.061 14:0.245 15:0.02 16:0.082 17:0.02 18:0.082 19:0.061 20:0 \n"
"62.37357530067548 1:0.56 2:0.286 3:0.455 4:0.041 5:0.082 6:0.02 7:0.061 8:0.041 9:0 10:0.082 11:0.02 12:0.082 13:0.041 14:0.265 15:0.02 16:0.041 17:0.02 18:0.041 19:0.143 20:0 \n"
"-45.06419214112589 1:0.56 2:0.357 3:0.455 4:0 5:0.041 6:0.163 7:0 8:0.041 9:0 10:0.061 11:0.102 12:0.102 13:0.102 14:0.082 15:0.061 16:0.041 17:0.061 18:0.061 19:0.082 20:0 \n"
"-238.1203491502237 1:0.56 2:0.357 3:0.455 4:0.041 5:0 6:0.122 7:0.041 8:0 9:0.02 10:0.122 11:0.041 12:0.082 13:0.122 14:0.122 15:0.041 16:0.082 17:0.041 18:0 19:0.122 20:0 \n"
"14.96434205851649 1:0.56 2:0.357 3:0.455 4:0.041 5:0 6:0.041 7:0.122 8:0.082 9:0.061 10:0.02 11:0.02 12:0.061 13:0.02 14:0.224 15:0.061 16:0.02 17:0.122 18:0.061 19:0.041 20:0 \n"
"58.63250701171973 1:0.56 2:0.357 3:0.455 4:0 5:0.102 6:0.082 7:0 8:0.061 9:0 10:0.041 11:0.102 12:0.102 13:0.061 14:0.204 15:0 16:0.041 17:0.041 18:0.02 19:0.143 20:0 \n"
"161.7530658940452 1:0.56 2:0.393 3:0.455 4:0.061 5:0.041 6:0.041 7:0.061 8:0.102 9:0.041 10:0 11:0.061 12:0 13:0.082 14:0.204 15:0.061 16:0.041 17:0.061 18:0.082 19:0.061 20:0 \n"
"-256 1:0.56 2:0.393 3:0.455 4:0.082 5:0.02 6:0 7:0.102 8:0.02 9:0.041 10:0.061 11:0.082 12:0.041 13:0.122 14:0.143 15:0.041 16:0.041 17:0.041 18:0.143 19:0.02 20:0 \n"
"256 1:0.56 2:0.393 3:0.455 4:0.041 5:0.041 6:0.061 7:0.061 8:0.102 9:0 10:0.082 11:0.02 12:0 13:0.102 14:0.204 15:0.041 16:0.061 17:0.082 18:0 19:0.102 20:0 \n"
"-256 1:0.56 2:0.393 3:0.455 4:0.041 5:0 6:0.082 7:0.082 8:0.082 9:0.041 10:0.102 11:0 12:0.02 13:0.102 14:0.041 15:0.163 16:0.061 17:0.082 18:0.102 19:0 20:0 \n"
"23.62605956308443 1:0.56 2:0.393 3:0.455 4:0.061 5:0.102 6:0.041 7:0 8:0.061 9:0.02 10:0.061 11:0.082 12:0 13:0.02 14:0.224 15:0.102 16:0.082 17:0.061 18:0.02 19:0.061 20:0 \n"
"-139.1205459757162 1:0.56 2:0.464 3:0.455 4:0.02 5:0.02 6:0.082 7:0.082 8:0.061 9:0.041 10:0.082 11:0.061 12:0 13:0.143 14:0.102 15:0.061 16:0.102 17:0.061 18:0.041 19:0.041 20:0 \n"
"200.6340189927197 1:0.56 2:0.464 3:0.455 4:0 5:0.041 6:0.122 7:0.041 8:0.061 9:0.102 10:0 11:0.102 12:0.122 13:0.082 14:0.082 15:0.02 16:0.02 17:0.041 18:0.102 19:0.061 20:0 \n"
"-256 1:0.56 2:0.464 3:0.455 4:0.102 5:0.061 6:0 7:0.041 8:0.061 9:0.102 10:0.02 11:0.061 12:0.041 13:0.02 14:0.163 15:0.082 16:0 17:0.082 18:0.102 19:0.061 20:0 \n"
"-14.11181196897953 1:0.56 2:0.464 3:0.455 4:0 5:0.02 6:0.102 7:0.082 8:0.041 9:0.082 10:0.041 11:0.102 12:0.102 13:0.143 14:0.02 15:0.02 16:0.061 17:0 18:0.143 19:0.041 20:0 \n"
"-248.2389292217516 1:0.56 2:0.464 3:0.455 4:0.102 5:0.082 6:0.02 7:0 8:0.041 9:0.082 10:0.082 11:0.041 12:0 13:0.02 14:0.122 15:0.163 16:0.061 17:0.061 18:0.082 19:0.041 20:0 \n"
"-148.4463242883713 1:0.56 2:0.464 3:0.455 4:0 5:0.041 6:0.041 7:0.122 8:0.041 9:0.143 10:0.061 11:0.02 12:0.122 13:0.061 14:0.082 15:0.02 16:0.02 17:0.02 18:0.122 19:0.082 20:0 \n"
"72.18413170716926 1:0.56 2:0.464 3:0.455 4:0.082 5:0.02 6:0.02 7:0.061 8:0.041 9:0.061 10:0.143 11:0.02 12:0 13:0.041 14:0.102 15:0.163 16:0.082 17:0.122 18:0.041 19:0 20:0 \n"
"128.3605841258514 1:0.56 2:0.464 3:0.455 4:0.061 5:0.041 6:0.082 7:0.02 8:0.041 9:0 10:0.163 11:0.061 12:0.061 13:0.163 14:0 15:0.061 16:0.041 17:0.041 18:0.061 19:0.102 20:0 \n"
"-10.32573451800571 1:0.56 2:0.464 3:0.455 4:0.041 5:0 6:0.02 7:0.122 8:0.02 9:0.02 10:0.122 11:0.102 12:0.02 13:0.143 14:0.122 15:0.02 16:0.122 17:0.082 18:0.041 19:0 20:0 \n"
"-211.6691168697134 1:0.56 2:0.464 3:0.455 4:0.02 5:0.082 6:0.041 7:0.061 8:0.102 9:0.041 10:0 11:0.122 12:0.082 13:0.02 14:0.143 15:0.061 16:0 17:0.102 18:0.122 19:0 20:0 \n"
"1.486291249623243 1:0.56 2:0.464 3:0.455 4:0.082 5:0.061 6:0.041 7:0 8:0.041 9:0.102 10:0.061 11:0.061 12:0.061 13:0.02 14:0.041 15:0.184 16:0.02 17:0.082 18:0.143 19:0 20:0 \n"
"135.7149493112024 1:0.56 2:0.464 3:0.455 4:0.02 5:0.061 6:0 7:0.122 8:0.122 9:0.082 10:0.061 11:0 12:0.061 13:0 14:0.163 15:0.061 16:0 17:0.122 18:0.082 19:0.041 20:0 \n"
"218.0425304601812 1:0.56 2:0.464 3:0.455 4:0.041 5:0.082 6:0.02 7:0.041 8:0 9:0.143 10:0.02 11:0.102 12:0.143 13:0.041 14:0.082 15:0.041 16:0.02 17:0 18:0.163 19:0.061 20:0 \n"
"-20.53944669662281 1:0.56 2:0.464 3:0.455 4:0.02 5:0.02 6:0.041 7:0.102 8:0.02 9:0.02 10:0.143 11:0.082 12:0.102 13:0.184 14:0 15:0.02 16:0.041 17:0.041 18:0.122 19:0.041 20:0 \n"
"25.89389973618654 1:0.56 2:0.464 3:0.455 4:0.102 5:0.082 6:0 7:0 8:0.02 9:0 10:0.102 11:0.143 12:0.041 13:0.061 14:0.163 15:0.041 16:0.041 17:0.122 18:0.041 19:0.041 20:0 \n"
"-11.37595060647764 1:0.56 2:0.5 3:0.455 4:0.061 5:0.082 6:0 7:0.061 8:0.082 9:0.102 10:0.041 11:0.061 12:0.041 13:0.061 14:0.061 15:0.102 16:0.02 17:0.041 18:0.163 19:0.02 20:0 \n"
"153.7795072161146 1:0.56 2:0.5 3:0.455 4:0.02 5:0 6:0.102 7:0.082 8:0.122 9:0.082 10:0.082 11:0 12:0 13:0.143 14:0.082 15:0.061 16:0.061 17:0.061 18:0.02 19:0.082 20:0 \n"
"-76.30414745180209 1:0.56 2:0.5 3:0.455 4:0.041 5:0.041 6:0.102 7:0.02 8:0.02 9:0.163 10:0.02 11:0.082 12:0.02 13:0.061 14:0.122 15:0.082 16:0.122 17:0.02 18:0.041 19:0.041 20:0 \n"
"184.0122829386711 1:0.56 2:0.5 3:0.455 4:0.061 5:0.041 6:0 7:0.102 8:0.02 9:0.184 10:0.02 11:0.041 12:0 13:0.041 14:0.143 15:0.102 16:0.102 17:0.02 18:0.122 19:0 20:0 \n"
"35.02435152432825 1:0.56 2:0.5 3:0.455 4:0.082 5:0.041 6:0.041 7:0.041 8:0.041 9:0.061 10:0.184 11:0 12:0.02 13:0.041 14:0.061 15:0.163 16:0.041 17:0.143 18:0 19:0.041 20:0 \n"
"31.81983189942819 1:0.56 2:0.5 3:0.455 4:0 5:0.102 6:0.102 7:0 8:0 9:0.122 10:0.061 11:0.082 12:0.082 13:0.061 14:0.02 15:0.122 16:0.122 17:0 18:0.082 19:0.041 20:0 \n"
"-256 1:0.56 2:0.5 3:0.455 4:0.061 5:0.082 6:0.041 7:0.02 8:0.082 9:0.02 10:0.082 11:0.082 12:0 13:0.184 14:0.082 15:0.02 16:0.061 17:0 18:0.061 19:0.122 20:0 \n"
"-256 1:0.56 2:0.5 3:0.455 4:0.102 5:0 6:0.102 7:0 8:0 9:0.102 10:0.02 11:0.163 12:0.061 13:0.122 14:0.061 15:0.02 16:0.02 17:0.061 18:0.102 19:0.061 20:0 \n"
"127.8994855888937 1:0.56 2:0.536 3:0.455 4:0.041 5:0.02 6:0.061 7:0.082 8:0.041 9:0.041 10:0.143 11:0.061 12:0.102 13:0.102 14:0.041 15:0.02 16:0 17:0.143 18:0.02 19:0.082 20:0 \n"
"183.2448075946664 1:0.56 2:0.536 3:0.455 4:0.041 5:0.143 6:0.02 7:0 8:0.102 9:0.061 10:0.061 11:0.061 12:0.041 13:0.041 14:0.041 15:0.143 16:0.02 17:0.061 18:0.122 19:0.041 20:0 \n"
"-226.7679269223175 1:0.56 2:0.536 3:0.455 4:0.041 5:0 6:0.061 7:0.082 8:0.02 9:0.184 10:0.102 11:0 12:0.061 13:0.102 14:0.041 15:0.061 16:0.082 17:0.02 18:0.041 19:0.102 20:0 \n"
"256 1:0.56 2:0.536 3:0.455 4:0.02 5:0.082 6:0.061 7:0.041 8:0.082 9:0.184 10:0 11:0.041 12:0.02 13:0.041 14:0.102 15:0.082 16:0.061 17:0 18:0.102 19:0.082 20:0 \n"
"-195.9960716947541 1:0.56 2:0.536 3:0.455 4:0.02 5:0.082 6:0.02 7:0.082 8:0 9:0.204 10:0.02 11:0.082 12:0.122 13:0 14:0.082 15:0.061 16:0.041 17:0.02 18:0.143 19:0.02 20:0 \n"
"112.0385210821835 1:0.56 2:0.536 3:0.455 4:0.082 5:0.102 6:0 7:0.02 8:0.061 9:0.041 10:0.122 11:0.061 12:0.061 13:0 14:0.102 15:0.102 16:0 17:0.163 18:0.02 19:0.061 20:0 \n"
"10.98858314373073 1:0.56 2:0.536 3:0.455 4:0 5:0.102 6:0.041 7:0.061 8:0.082 9:0.041 10:0.122 11:0.061 12:0.122 13:0.061 14:0.082 15:0 16:0 17:0.102 18:0 19:0.122 20:0 \n"
"-256 1:0.56 2:0.607 3:0.455 4:0 5:0.143 6:0.02 7:0.041 8:0.041 9:0.102 10:0.143 11:0.041 12:0.082 13:0.041 14:0.02 15:0.082 16:0.082 17:0.041 18:0.041 19:0.082 20:0 \n"
"256 1:0.56 2:0.607 3:0.455 4:0.02 5:0.02 6:0.061 7:0.082 8:0.102 9:0.143 10:0.061 11:0.041 12:0.041 13:0.061 14:0.102 15:0.02 16:0.041 17:0.122 18:0 19:0.082 20:0 \n"
"181.4179850427183 1:0.56 2:0.607 3:0.455 4:0.041 5:0.102 6:0.041 7:0.02 8:0.122 9:0.02 10:0.102 11:0.102 12:0.041 13:0.163 14:0 15:0.02 16:0 17:0.061 18:0.061 19:0.102 20:0 \n"
"-66.77158514753971 1:0.56 2:0.607 3:0.455 4:0 5:0.102 6:0.082 7:0.02 8:0.163 9:0.041 10:0.041 11:0.082 12:0.041 13:0.102 14:0 15:0.082 16:0 17:0.082 18:0.102 19:0.061 20:0 \n"
"-206.5563668557643 1:0.56 2:0.607 3:0.455 4:0.061 5:0.02 6:0.041 7:0.082 8:0.082 9:0.02 10:0.122 11:0.122 12:0 13:0.184 14:0.041 15:0 16:0.041 17:0.122 18:0.02 19:0.041 20:0 \n"
"-228.4767439864331 1:0.56 2:0.607 3:0.455 4:0.061 5:0.02 6:0.082 7:0.041 8:0.02 9:0.224 10:0 11:0.082 12:0.102 13:0.082 14:0.02 15:0.02 16:0.02 17:0.02 18:0.122 19:0.082 20:0 \n"
"256 1:0.56 2:0.607 3:0.455 4:0 5:0.122 6:0 7:0.082 8:0.061 9:0.122 10:0.122 11:0.02 12:0.061 13:0.082 14:0.082 15:0 16:0.082 17:0.02 18:0.02 19:0.122 20:0 \n"
"191.8844907596377 1:0.56 2:0.607 3:0.455 4:0.02 5:0.061 6:0.082 7:0.02 8:0.122 9:0.163 10:0.02 11:0.041 12:0.02 13:0 14:0.082 15:0.122 16:0.041 17:0.122 18:0.02 19:0.061 20:0 \n"
"-45.19314245821357 1:0.56 2:0.607 3:0.455 4:0.082 5:0.061 6:0.041 7:0 8:0.122 9:0.041 10:0.061 11:0.122 12:0 13:0.122 14:0 15:0.102 16:0 17:0.122 18:0.122 19:0 20:0 \n"
"-101.7293094370764 1:0.56 2:0.607 3:0.455 4:0 5:0.143 6:0 7:0.061 8:0.041 9:0.102 10:0.102 11:0.082 12:0.041 13:0.082 14:0.02 15:0.082 16:0.122 17:0.02 18:0.102 19:0 20:0 \n"
"-51.10045309298771 1:0.56 2:0.643 3:0.455 4:0.041 5:0 6:0.102 7:0.041 8:0.061 9:0.204 10:0.02 11:0.082 12:0.061 13:0.02 14:0.02 15:0.102 16:0.041 17:0.122 18:0.061 19:0.02 20:0 \n"
"-9.299836035958581 1:0.56 2:0.643 3:0.455 4:0.061 5:0.041 6:0 7:0.082 8:0.102 9:0.102 10:0.143 11:0.02 12:0.041 13:0.082 14:0.041 15:0.041 16:0 17:0.143 18:0 19:0.102 20:0 \n"
"25.25607096533312 1:0.56 2:0.643 3:0.455 4:0.02 5:0.082 6:0.061 7:0.041 8:0.082 9:0.184 10:0 11:0.102 12:0.082 13:0 14:0.082 15:0.02 16:0 17:0.102 18:0.061 19:0.082 20:0 \n"
"20.13363176206153 1:0.56 2:0.643 3:0.455 4:0 5:0.122 6:0.061 7:0.02 8:0.102 9:0.082 10:0.041 11:0.122 12:0.082 13:0.02 14:0.102 15:0 16:0.02 17:0.122 18:0 19:0.102 20:0 \n"
"-200.0554391438673 1:0.56 2:0.714 3:0.455 4:0.02 5:0.02 6:0.061 7:0.102 8:0.122 9:0.041 10:0.102 11:0.122 12:0.02 13:0.143 14:0 15:0 16:0.041 17:0.184 18:0 19:0.02 20:0 \n"
"-76.12374442693574 1:0.56 2:0.714 3:0.455 4:0.041 5:0.143 6:0 7:0.02 8:0.02 9:0.122 10:0.163 11:0.082 12:0.041 13:0.082 14:0 15:0.041 16:0.102 17:0.061 18:0 19:0.082 20:0 \n"
"175.7155780853249 1:0.56 2:0.714 3:0.455 4:0.061 5:0.041 6:0.082 7:0.02 8:0.102 9:0.102 10:0.061 11:0.143 12:0.041 13:0.061 14:0 15:0.061 16:0 17:0.204 18:0 19:0.02 20:0 \n"
"135.4762074079832 1:0.56 2:0.714 3:0.455 4:0.082 5:0 6:0.02 7:0.102 8:0 9:0.204 10:0.061 11:0.143 12:0.061 13:0.061 14:0.041 15:0 16:0.041 17:0.143 18:0.041 19:0 20:0 \n"
"207.8912676815381 1:0.56 2:0.714 3:0.455 4:0.061 5:0.041 6:0.041 7:0.061 8:0.102 9:0.184 10:0.082 11:0.041 12:0.02 13:0 14:0.041 15:0.082 16:0.02 17:0.184 18:0 19:0.041 20:0 \n"
"-256 1:0.56 2:0.714 3:0.455 4:0 5:0.122 6:0.082 7:0 8:0.163 9:0.122 10:0.02 11:0.082 12:0 13:0.02 14:0.061 15:0.082 16:0.02 17:0.143 18:0 19:0.082 20:0 \n"
"256 1:0.56 2:0.75 3:0.455 4:0.02 5:0.082 6:0.02 7:0.082 8:0.122 9:0.102 10:0.041 11:0.143 12:0 13:0.122 14:0 15:0.02 16:0.041 17:0.122 18:0.082 19:0 20:0 \n"
"110.9867066731796 1:0.56 2:0.75 3:0.455 4:0.061 5:0 6:0.061 7:0.082 8:0.041 9:0.286 10:0.02 11:0.082 12:0.061 13:0.041 14:0.02 15:0 16:0.041 17:0.102 18:0.041 19:0.061 20:0 \n"
"123.1150870271478 1:0.56 2:0.75 3:0.455 4:0.02 5:0.082 6:0.041 7:0.061 8:0.082 9:0.102 10:0.082 11:0.163 12:0.061 13:0.041 14:0.02 15:0.02 16:0.02 17:0.204 18:0 19:0 20:0 \n"
"-66.68260431126373 1:0.56 2:0.75 3:0.455 4:0.082 5:0.041 6:0 7:0.082 8:0.061 9:0.204 10:0 11:0.163 12:0.02 13:0.061 14:0.041 15:0 16:0.041 17:0.122 18:0.082 19:0 20:0 \n"
"256 1:0.56 2:0.75 3:0.455 4:0.082 5:0.082 6:0 7:0.02 8:0.061 9:0.143 10:0.061 11:0.163 12:0 13:0.082 14:0 15:0.061 16:0.041 17:0.122 18:0.082 19:0 20:0 \n"
"256 1:0.56 2:0.75 3:0.455 4:0.041 5:0.061 6:0.041 7:0.061 8:0.061 9:0.224 10:0 11:0.122 12:0 13:0.122 14:0 15:0.02 16:0.102 17:0.02 18:0.082 19:0.041 20:0 \n"
"-0.6319211717664158 1:0.56 2:0.75 3:0.455 4:0 5:0.041 6:0.061 7:0.102 8:0.082 9:0.224 10:0.061 11:0.061 12:0 13:0.122 14:0.02 15:0 16:0.122 17:0.041 18:0 19:0.061 20:0 \n"
"-113.3403643195923 1:0.56 2:0.75 3:0.455 4:0.082 5:0 6:0.061 7:0.041 8:0.102 9:0.163 10:0 11:0.163 12:0 13:0.102 14:0.02 15:0.02 16:0 17:0.163 18:0.061 19:0.02 20:0 \n"
"27.03467688891008 1:0.56 2:0.75 3:0.455 4:0.02 5:0 6:0.041 7:0.122 8:0.163 9:0.163 10:0.082 11:0.02 12:0 13:0.102 14:0 15:0.041 16:0.02 17:0.163 18:0.02 19:0.041 20:0 \n"
"256 1:0.56 2:0.75 3:0.455 4:0.082 5:0 6:0.041 7:0.061 8:0.061 9:0.245 10:0.041 11:0.082 12:0.02 13:0 14:0.041 15:0.082 16:0.041 17:0.184 18:0 19:0.02 20:0 \n"
"166.0695375725344 1:0.56 2:0.75 3:0.455 4:0.02 5:0.163 6:0 7:0.02 8:0.02 9:0.163 10:0.061 11:0.184 12:0.061 13:0 14:0.041 15:0.02 16:0.102 17:0.082 18:0.041 19:0.02 20:0 \n"
"14.10574008838146 1:0.56 2:0.75 3:0.455 4:0.082 5:0.102 6:0.02 7:0 8:0.041 9:0.184 10:0.122 11:0.061 12:0.02 13:0.041 14:0 15:0.082 16:0.041 17:0.102 18:0 19:0.102 20:0 \n"
"-103.8753176326025 1:0.56 2:0.75 3:0.455 4:0.102 5:0 6:0.061 7:0.041 8:0.02 9:0.224 10:0.02 11:0.143 12:0.02 13:0.102 14:0.02 15:0 16:0.041 17:0.102 18:0.041 19:0.061 20:0 \n"
"-256 1:0.56 2:0.786 3:0.455 4:0.061 5:0.143 6:0 7:0 8:0.041 9:0.184 10:0.082 11:0.143 12:0.02 13:0.041 14:0.02 15:0.02 16:0.082 17:0.082 18:0 19:0.082 20:0 \n"
"256 1:0.56 2:0.786 3:0.455 4:0.061 5:0.061 6:0.02 7:0.061 8:0.102 9:0.204 10:0.082 11:0.041 12:0.02 13:0.041 14:0.02 15:0.041 16:0 17:0.143 18:0 19:0.102 20:0 \n"
"70.83393767951686 1:0.56 2:0.786 3:0.455 4:0.061 5:0.02 6:0 7:0.122 8:0.122 9:0.184 10:0.082 11:0.061 12:0 13:0.041 14:0.02 15:0.041 16:0.02 17:0.184 18:0.02 19:0.02 20:0 \n"
"84.37586158131495 1:0.56 2:0.786 3:0.455 4:0.102 5:0.082 6:0 7:0.02 8:0.061 9:0.245 10:0.082 11:0.041 12:0 13:0.082 14:0 15:0.041 16:0.041 17:0.041 18:0.041 19:0.122 20:0 \n"
"138.6831774093799 1:0.56 2:0.786 3:0.455 4:0 5:0.163 6:0.02 7:0.02 8:0.102 9:0.122 10:0.102 11:0.122 12:0.061 13:0.041 14:0 15:0.02 16:0.041 17:0.102 18:0 19:0.082 20:0 \n"
"-167.2172234757454 1:0.56 2:0.786 3:0.455 4:0.02 5:0.143 6:0.041 7:0 8:0.143 9:0.082 10:0.061 11:0.163 12:0 13:0.02 14:0.02 15:0.061 16:0.041 17:0.184 18:0 19:0.02 20:0 \n"
"21.9940156655883 1:0.56 2:0.786 3:0.455 4:0.061 5:0.061 6:0 7:0.082 8:0.122 9:0.102 10:0.102 11:0.102 12:0 13:0.122 14:0 15:0 16:0 17:0.163 18:0.02 19:0.061 20:0 \n"
"108.1850568046421 1:0.56 2:0.786 3:0.455 4:0 5:0.061 6:0.02 7:0.122 8:0.102 9:0.224 10:0.061 11:0.061 12:0.02 13:0.02 14:0.02 15:0.061 16:0.082 17:0.122 18:0.02 19:0 20:0 \n"
"256 1:0.56 2:0.786 3:0.455 4:0 5:0.082 6:0.02 7:0.102 8:0.184 9:0.102 10:0.102 11:0.041 12:0 13:0.122 14:0 15:0 16:0.02 17:0.122 18:0 19:0.102 20:0 \n"
"16.53433138831517 1:0.56 2:0.786 3:0.455 4:0.061 5:0.082 6:0.041 7:0.02 8:0.122 9:0.163 10:0.02 11:0.143 12:0.02 13:0 14:0.02 15:0.061 16:0 17:0.204 18:0.041 19:0 20:0 \n"
"6.911057011235894 1:0.56 2:0.25 3:0.5 4:0.082 5:0.061 6:0 7:0.082 8:0 9:0 10:0.122 11:0.02 12:0.122 13:0.02 14:0.245 15:0.041 16:0.02 17:0.061 18:0.041 19:0.082 20:0 \n"
"31.28291022582359 1:0.56 2:0.25 3:0.5 4:0.082 5:0 6:0.041 7:0.102 8:0.041 9:0.041 10:0.061 11:0 12:0.102 13:0.061 14:0.245 15:0 16:0 17:0.041 18:0.061 19:0.122 20:0 \n"
"-51.04278185334883 1:0.56 2:0.286 3:0.5 4:0.061 5:0.02 6:0.082 7:0.061 8:0 9:0 10:0.163 11:0 12:0.122 13:0.082 14:0.061 15:0.122 16:0.041 17:0.061 18:0.102 19:0.02 20:0 \n"
"-112.1820931253221 1:0.56 2:0.286 3:0.5 4:0.061 5:0.061 6:0.02 7:0.082 8:0 9:0.02 10:0.122 11:0 12:0.143 13:0.041 14:0.082 15:0.143 16:0.02 17:0.02 18:0.184 19:0 20:0 \n"
"220.8518419643635 1:0.56 2:0.286 3:0.5 4:0.082 5:0.02 6:0.102 7:0.02 8:0.041 9:0.041 10:0.082 11:0 12:0.082 13:0.02 14:0.082 15:0.204 16:0 17:0.082 18:0.143 19:0 20:0 \n"
"8.481101571226551 1:0.56 2:0.286 3:0.5 4:0.02 5:0 6:0.184 7:0.02 8:0.061 9:0.041 10:0 11:0.041 12:0.102 13:0.122 14:0.061 15:0.122 16:0.02 17:0 18:0.163 19:0.041 20:0 \n"
"36.28608307116264 1:0.56 2:0.286 3:0.5 4:0.041 5:0 6:0.102 7:0.082 8:0.082 9:0.061 10:0 11:0.02 12:0.061 13:0.102 14:0.122 15:0.102 16:0.041 17:0 18:0.184 19:0 20:0 \n"
"-256 1:0.56 2:0.357 3:0.5 4:0.061 5:0.102 6:0.02 7:0.041 8:0 9:0.061 10:0.061 11:0.082 12:0.163 13:0.02 14:0.163 15:0 16:0 17:0.02 18:0.122 19:0.082 20:0 \n"
"21.70936477358278 1:0.56 2:0.357 3:0.5 4:0.122 5:0.041 6:0.061 7:0 8:0 9:0.082 10:0.041 11:0.082 12:0.02 13:0.041 14:0.224 15:0.061 16:0.082 17:0.02 18:0.041 19:0.082 20:0 \n"
"27.00878092100783 1:0.56 2:0.357 3:0.5 4:0.061 5:0 6:0.061 7:0.102 8:0 9:0.061 10:0.143 11:0 12:0.082 13:0.061 14:0.122 15:0.082 16:0.082 17:0.061 18:0.041 19:0.041 20:0 \n"
"71.95667129735006 1:0.56 2:0.357 3:0.5 4:0.041 5:0.102 6:0.02 7:0.061 8:0 9:0 10:0.102 11:0.082 12:0.163 13:0 14:0.163 15:0.041 16:0.02 17:0.102 18:0.061 19:0.041 20:0 \n"
"-92.43305622132236 1:0.56 2:0.357 3:0.5 4:0.041 5:0.082 6:0 7:0.102 8:0 9:0.02 10:0.163 11:0 12:0.102 13:0 14:0.184 15:0.082 16:0.082 17:0.102 18:0.02 19:0.02 20:0 \n"
"-12.23726984320247 1:0.56 2:0.357 3:0.5 4:0.041 5:0.082 6:0 7:0.102 8:0.02 9:0.041 10:0.122 11:0 12:0.122 13:0.041 14:0.184 15:0.02 16:0.041 17:0.041 18:0.041 19:0.102 20:0 \n"
"-256 1:0.56 2:0.357 3:0.5 4:0.102 5:0.041 6:0 7:0.082 8:0 9:0.041 10:0.102 11:0.041 12:0 13:0.102 14:0.245 15:0.02 16:0.102 17:0.02 18:0.02 19:0.082 20:0 \n"
"-48.79868755131739 1:0.56 2:0.393 3:0.5 4:0.02 5:0.02 6:0.102 7:0.082 8:0.102 9:0.041 10:0.061 11:0 12:0.041 13:0.122 14:0.061 15:0.122 16:0.061 17:0.041 18:0.122 19:0 20:0 \n"
"12.26919411057908 1:0.56 2:0.393 3:0.5 4:0.061 5:0 6:0.102 7:0.061 8:0.02 9:0.122 10:0.02 11:0.041 12:0.122 13:0.102 14:0.082 15:0.041 16:0.02 17:0 18:0.143 19:0.061 20:0 \n"
"45.70798979248215 1:0.56 2:0.393 3:0.5 4:0.082 5:0.02 6:0.102 7:0.02 8:0.02 9:0.061 10:0 11:0.122 12:0.082 13:0.041 14:0.224 15:0 16:0.041 17:0.082 18:0.02 19:0.082 20:0 \n"
"-165.1671488607315 1:0.56 2:0.393 3:0.5 4:0.041 5:0.02 6:0.143 7:0 8:0.082 9:0.041 10:0.02 11:0.082 12:0.082 13:0.082 14:0.041 15:0.143 16:0.02 17:0.082 18:0.122 19:0 20:0 \n"
"15.11105564888893 1:0.56 2:0.393 3:0.5 4:0 5:0 6:0.102 7:0.122 8:0.082 9:0.122 10:0.02 11:0 12:0.102 13:0.041 14:0.122 15:0.061 16:0.041 17:0.061 18:0.102 19:0.02 20:0 \n"
"57.12129245765652 1:0.56 2:0.393 3:0.5 4:0.061 5:0 6:0.143 7:0.02 8:0 9:0.02 10:0.082 11:0.122 12:0.143 13:0.143 14:0 15:0.041 16:0.02 17:0.041 18:0.122 19:0.041 20:0 \n"
"-256 1:0.56 2:0.393 3:0.5 4:0.082 5:0.02 6:0.082 7:0.041 8:0.02 9:0.02 10:0.184 11:0 12:0.02 13:0.102 14:0.02 15:0.184 16:0.102 17:0.082 18:0.041 19:0 20:0 \n"
"-236.0593689968452 1:0.56 2:0.393 3:0.5 4:0.082 5:0.082 6:0.041 7:0.02 8:0.02 9:0.102 10:0.102 11:0 12:0.082 13:0 14:0.061 15:0.184 16:0.02 17:0.041 18:0.143 19:0.02 20:0 \n"
"256 1:0.56 2:0.464 3:0.5 4:0.02 5:0.082 6:0.082 7:0.041 8:0.061 9:0.061 10:0.082 11:0.041 12:0.061 13:0.102 14:0.082 15:0.061 16:0.082 17:0.02 18:0.041 19:0.082 20:0 \n"
"95.74732196807837 1:0.56 2:0.464 3:0.5 4:0.082 5:0.02 6:0 7:0.122 8:0.02 9:0.061 10:0.143 11:0.02 12:0.102 13:0.143 14:0.061 15:0 16:0.02 17:0.041 18:0.082 19:0.082 20:0 \n"
"-12.18971588503732 1:0.56 2:0.464 3:0.5 4:0 5:0.02 6:0.102 7:0.102 8:0.102 9:0.061 10:0.082 11:0 12:0.102 13:0.082 14:0.02 15:0.102 16:0.02 17:0.102 18:0.102 19:0 20:0 \n"
"115.865516640947 1:0.56 2:0.464 3:0.5 4:0.102 5:0.041 6:0.02 7:0.061 8:0 9:0.041 10:0.102 11:0.102 12:0.041 13:0.163 14:0.082 15:0.02 16:0.082 17:0.02 18:0.102 19:0.02 20:0 \n"
"256 1:0.56 2:0.464 3:0.5 4:0.082 5:0.061 6:0.041 7:0.041 8:0.02 9:0.163 10:0.02 11:0.041 12:0.02 13:0.041 14:0.163 15:0.082 16:0.082 17:0 18:0.082 19:0.061 20:0 \n"
"70.02304944521788 1:0.56 2:0.464 3:0.5 4:0.102 5:0 6:0.102 7:0.02 8:0.02 9:0.082 10:0.02 11:0.143 12:0.082 13:0.082 14:0.102 15:0.02 16:0 17:0.102 18:0.082 19:0.041 20:0 \n"
"98.86171505927535 1:0.56 2:0.464 3:0.5 4:0.122 5:0 6:0.082 7:0.02 8:0.082 9:0.102 10:0.02 11:0.041 12:0 13:0.061 14:0.122 15:0.122 16:0.02 17:0.102 18:0.061 19:0.041 20:0 \n"
"-256 1:0.56 2:0.464 3:0.5 4:0.061 5:0.041 6:0.122 7:0 8:0.102 9:0.082 10:0.041 11:0.041 12:0.061 13:0 14:0.122 15:0.122 16:0 17:0.143 18:0 19:0.061 20:0 \n"
"-101.6661935762812 1:0.56 2:0.464 3:0.5 4:0.041 5:0.143 6:0.02 7:0.02 8:0.041 9:0.061 10:0.02 11:0.143 12:0.061 13:0.02 14:0.204 15:0 16:0.082 17:0.041 18:0.041 19:0.061 20:0 \n"
"-256 1:0.56 2:0.464 3:0.5 4:0.061 5:0.082 6:0.082 7:0 8:0.102 9:0.102 10:0.02 11:0.02 12:0 13:0.02 14:0.163 15:0.122 16:0.041 17:0.061 18:0.041 19:0.082 20:0 \n"
"-37.11045685192594 1:0.56 2:0.464 3:0.5 4:0.041 5:0.061 6:0 7:0.122 8:0.041 9:0.122 10:0.082 11:0 12:0.082 13:0.082 14:0.041 15:0.102 16:0.061 17:0 18:0.163 19:0 20:0 \n"
"-94.59000944583875 1:0.56 2:0.464 3:0.5 4:0.041 5:0.102 6:0.082 7:0 8:0 9:0.041 10:0.082 11:0.143 12:0.122 13:0.082 14:0 15:0.082 16:0.061 17:0.041 18:0.122 19:0 20:0 \n"
"256 1:0.56 2:0.5 3:0.5 4:0.02 5:0.102 6:0.082 7:0.02 8:0.102 9:0.082 10:0 11:0.082 12:0.061 13:0.02 14:0.102 15:0.102 16:0.041 17:0.082 18:0.082 19:0.02 20:0 \n"
"-0.004663173721482772 1:0.56 2:0.5 3:0.5 4:0.041 5:0.041 6:0.02 7:0.122 8:0.041 9:0.041 10:0.122 11:0.061 12:0.02 13:0.122 14:0.102 15:0.041 16:0.122 17:0.061 18:0.041 19:0 20:0 \n"
"-50.9736256984059 1:0.56 2:0.5 3:0.5 4:0.082 5:0.061 6:0.02 7:0.041 8:0 9:0.041 10:0.122 11:0.122 12:0.02 13:0.102 14:0.143 15:0.02 16:0.102 17:0.082 18:0 19:0.041 20:0 \n"
"256 1:0.56 2:0.5 3:0.5 4:0.041 5:0.102 6:0.041 7:0.041 8:0.143 9:0.02 10:0 11:0.102 12:0 13:0.082 14:0.163 15:0.041 16:0.041 17:0.082 18:0.061 19:0.041 20:0 \n"
"65.51104335109679 1:0.56 2:0.5 3:0.5 4:0.061 5:0.102 6:0.061 7:0 8:0.041 9:0 10:0.163 11:0.082 12:0.041 13:0.163 14:0 15:0.061 16:0.082 17:0.02 18:0.041 19:0.082 20:0 \n"
"-231.6367174419547 1:0.56 2:0.5 3:0.5 4:0.02 5:0.041 6:0.041 7:0.122 8:0.122 9:0.082 10:0.02 11:0.041 12:0.02 13:0.082 14:0.163 15:0.02 16:0.061 17:0.082 18:0.061 19:0.02 20:0 \n"
"99.56055235194977 1:0.56 2:0.5 3:0.5 4:0 5:0.041 6:0.143 7:0.041 8:0.02 9:0.122 10:0 11:0.122 12:0.082 13:0.082 14:0.102 15:0.02 16:0.122 17:0.041 18:0.02 19:0.041 20:0 \n"
"155.303969871322 1:0.56 2:0.5 3:0.5 4:0.082 5:0 6:0.082 7:0.061 8:0 9:0.122 10:0.082 11:0.082 12:0.122 13:0.061 14:0.082 15:0 16:0.02 17:0.102 18:0.041 19:0.061 20:0 \n"
"-210.2834516240338 1:0.56 2:0.5 3:0.5 4:0.122 5:0.102 6:0 7:0 8:0.02 9:0.061 10:0.143 11:0.061 12:0.061 13:0.122 14:0.02 15:0.061 16:0.02 17:0 18:0.102 19:0.102 20:0 \n"
"-87.14857502334104 1:0.56 2:0.536 3:0.5 4:0.02 5:0.082 6:0.061 7:0.061 8:0.102 9:0.122 10:0.041 11:0.041 12:0.02 13:0.082 14:0.041 15:0.102 16:0.082 17:0.02 18:0.102 19:0.02 20:0 \n"
"-256 1:0.56 2:0.536 3:0.5 4:0.082 5:0.02 6:0.102 7:0.02 8:0.041 9:0.143 10:0.082 11:0.041 12:0.041 13:0.122 14:0.041 15:0.041 16:0.061 17:0.02 18:0.02 19:0.122 20:0 \n"
"36.97259731776566 1:0.56 2:0.536 3:0.5 4:0.02 5:0.122 6:0.02 7:0.061 8:0.041 9:0.082 10:0.122 11:0.061 12:0.082 13:0 14:0.102 15:0.061 16:0.061 17:0.102 18:0.02 19:0.041 20:0 \n"
"128.374487077462 1:0.56 2:0.536 3:0.5 4:0.02 5:0.163 6:0 7:0.041 8:0.02 9:0.02 10:0.102 11:0.143 12:0.102 13:0.102 14:0.061 15:0 16:0.082 17:0 18:0.102 19:0.041 20:0 \n"
"-70.34584385002746 1:0.56 2:0.536 3:0.5 4:0.102 5:0.041 6:0.061 7:0.02 8:0.102 9:0.061 10:0.041 11:0.102 12:0 13:0.041 14:0.102 15:0.102 16:0.02 17:0.163 18:0.041 19:0 20:0 \n"
"38.42704568319702 1:0.56 2:0.607 3:0.5 4:0.041 5:0.143 6:0.02 7:0.02 8:0.061 9:0.102 10:0.143 11:0.041 12:0.041 13:0 14:0.061 15:0.122 16:0.082 17:0.102 18:0 19:0.02 20:0 \n"
"42.63056314262599 1:0.56 2:0.607 3:0.5 4:0.061 5:0.143 6:0 7:0.02 8:0.122 9:0.041 10:0.102 11:0.082 12:0.041 13:0 14:0.102 15:0.082 16:0 17:0.163 18:0.02 19:0.02 20:0 \n"
"10.97061058435493 1:0.56 2:0.607 3:0.5 4:0.082 5:0.122 6:0.02 7:0 8:0.02 9:0.122 10:0.041 11:0.163 12:0.082 13:0 14:0.102 15:0.02 16:0.02 17:0.102 18:0.061 19:0.041 20:0 \n"
"256 1:0.56 2:0.607 3:0.5 4:0.041 5:0.02 6:0.102 7:0.061 8:0.082 9:0.082 10:0.041 11:0.122 12:0.02 13:0.122 14:0.082 15:0 16:0.061 17:0.122 18:0 19:0.041 20:0 \n"
"256 1:0.56 2:0.607 3:0.5 4:0.041 5:0.02 6:0.061 7:0.102 8:0.122 9:0.143 10:0.082 11:0 12:0.02 13:0.102 14:0.082 15:0 16:0.02 17:0.082 18:0 19:0.122 20:0 \n"
"256 1:0.56 2:0.607 3:0.5 4:0.02 5:0.122 6:0.061 7:0.02 8:0.102 9:0.102 10:0.061 11:0.061 12:0.082 13:0 14:0.102 15:0.041 16:0 17:0.122 18:0 19:0.102 20:0 \n"
"143.2601290402611 1:0.56 2:0.607 3:0.5 4:0 5:0.082 6:0.102 7:0.02 8:0.163 9:0.082 10:0.082 11:0.02 12:0.041 13:0.041 14:0.041 15:0.102 16:0.02 17:0.122 18:0 19:0.082 20:0 \n"
"-119.9316535424738 1:0.56 2:0.607 3:0.5 4:0.061 5:0.061 6:0.082 7:0.02 8:0.122 9:0.061 10:0 11:0.143 12:0.041 13:0.082 14:0.102 15:0 16:0 17:0.122 18:0.041 19:0.061 20:0 \n"
"-256 1:0.56 2:0.643 3:0.5 4:0.02 5:0.061 6:0.082 7:0.041 8:0.041 9:0.102 10:0.122 11:0.102 12:0.102 13:0.082 14:0 15:0.02 16:0.041 17:0.122 18:0 19:0.061 20:0 \n"
"-1.630658859376833 1:0.56 2:0.643 3:0.5 4:0 5:0.082 6:0 7:0.122 8:0.061 9:0.184 10:0.082 11:0.041 12:0.061 13:0.02 14:0.102 15:0.02 16:0.102 17:0.082 18:0 19:0.041 20:0 \n"
"256 1:0.56 2:0.643 3:0.5 4:0.02 5:0.02 6:0.061 7:0.102 8:0.184 9:0.061 10:0.082 11:0.041 12:0 13:0.122 14:0.061 15:0.02 16:0.02 17:0.143 18:0 19:0.061 20:0 \n"
"21.97707972895261 1:0.56 2:0.643 3:0.5 4:0.02 5:0.082 6:0.102 7:0 8:0.061 9:0.082 10:0.061 11:0.163 12:0.02 13:0.122 14:0.02 15:0.041 16:0.122 17:0.082 18:0 19:0.02 20:0 \n"
"143.2245469526667 1:0.56 2:0.643 3:0.5 4:0.082 5:0.102 6:0.041 7:0 8:0.102 9:0.163 10:0 11:0.102 12:0.02 13:0 14:0.102 15:0.061 16:0.02 17:0.102 18:0.061 19:0.041 20:0 \n"
"-17.09010969116729 1:0.56 2:0.643 3:0.5 4:0.041 5:0.061 6:0.061 7:0.061 8:0.102 9:0.122 10:0.082 11:0.041 12:0.02 13:0.184 14:0 15:0 16:0.061 17:0 18:0.041 19:0.122 20:0 \n"
"99.45189507896943 1:0.56 2:0.643 3:0.5 4:0.061 5:0.061 6:0 7:0.102 8:0.02 9:0.082 10:0.184 11:0.061 12:0.102 13:0.061 14:0.02 15:0.02 16:0.02 17:0.163 18:0 19:0.041 20:0 \n"
"256 1:0.56 2:0.643 3:0.5 4:0 5:0.102 6:0.082 7:0.041 8:0.143 9:0.122 10:0 11:0.082 12:0.02 13:0.082 14:0.102 15:0 16:0.061 17:0.061 18:0.02 19:0.082 20:0 \n"
"73.79470302395644 1:0.56 2:0.643 3:0.5 4:0.041 5:0.061 6:0.102 7:0.02 8:0.041 9:0.204 10:0.02 11:0.082 12:0.102 13:0.082 14:0 15:0.02 16:0.02 17:0.02 18:0.082 19:0.102 20:0 \n"
"-145.2812226805381 1:0.56 2:0.643 3:0.5 4:0.082 5:0.082 6:0.061 7:0 8:0.061 9:0.061 10:0.082 11:0.143 12:0.082 13:0.02 14:0.041 15:0.061 16:0 17:0.184 18:0.02 19:0.02 20:0 \n"
"-62.12075302298135 1:0.56 2:0.714 3:0.5 4:0 5:0.143 6:0.082 7:0 8:0.163 9:0.082 10:0.041 11:0.102 12:0.061 13:0.082 14:0 15:0.02 16:0 17:0.082 18:0.041 19:0.102 20:0 \n"
"-163.5170843724451 1:0.56 2:0.714 3:0.5 4:0 5:0.102 6:0.02 7:0.102 8:0.02 9:0.245 10:0.102 11:0.041 12:0.082 13:0.041 14:0.041 15:0 16:0.122 17:0.02 18:0 19:0.061 20:0 \n"
"-256 1:0.56 2:0.714 3:0.5 4:0.02 5:0.163 6:0 7:0.02 8:0.143 9:0.061 10:0.041 11:0.163 12:0.061 13:0.02 14:0.061 15:0.02 16:0 17:0.143 18:0.061 19:0.02 20:0 \n"
"256 1:0.56 2:0.714 3:0.5 4:0.102 5:0.061 6:0.02 7:0.041 8:0.02 9:0.224 10:0.122 11:0.041 12:0.082 13:0 14:0.02 15:0.041 16:0.02 17:0.102 18:0 19:0.102 20:0 \n"
"-256 1:0.56 2:0.714 3:0.5 4:0.041 5:0.102 6:0 7:0.082 8:0.184 9:0.041 10:0.122 11:0.041 12:0 13:0.163 14:0 15:0 16:0 17:0.082 18:0.041 19:0.102 20:0 \n"
"145.8228500308388 1:0.56 2:0.75 3:0.5 4:0 5:0.102 6:0.02 7:0.102 8:0.143 9:0.163 10:0.041 11:0.082 12:0.061 13:0.061 14:0.02 15:0 16:0 17:0.102 18:0.061 19:0.041 20:0 \n"
"3.466433976475585 1:0.56 2:0.75 3:0.5 4:0.041 5:0.082 6:0.061 7:0.041 8:0.082 9:0.184 10:0.061 11:0.102 12:0 13:0.122 14:0 15:0.02 16:0.102 17:0.02 18:0.02 19:0.061 20:0 \n"
"215.9287197969992 1:0.56 2:0.75 3:0.5 4:0.02 5:0.184 6:0 7:0.02 8:0.061 9:0.102 10:0.061 11:0.184 12:0.061 13:0.041 14:0.02 15:0.02 16:0.082 17:0.082 18:0.061 19:0 20:0 \n"
"-256 1:0.56 2:0.75 3:0.5 4:0 5:0.204 6:0.02 7:0 8:0.082 9:0.184 10:0.041 11:0.122 12:0.041 13:0.02 14:0.041 15:0.02 16:0.102 17:0 18:0.041 19:0.082 20:0 \n"
"-131.0099195825421 1:0.56 2:0.75 3:0.5 4:0.02 5:0.102 6:0 7:0.102 8:0.122 9:0.082 10:0.143 11:0.061 12:0.02 13:0.082 14:0 15:0.041 16:0.061 17:0.163 18:0 19:0 20:0 \n"
"-256 1:0.56 2:0.75 3:0.5 4:0.061 5:0.041 6:0 7:0.122 8:0.061 9:0.204 10:0.082 11:0.061 12:0 13:0.122 14:0.02 15:0 16:0.102 17:0.061 18:0.041 19:0.02 20:0 \n"
"-256 1:0.56 2:0.75 3:0.5 4:0.102 5:0.041 6:0.02 7:0.061 8:0.102 9:0.122 10:0.122 11:0.061 12:0 13:0.122 14:0 15:0.02 16:0.02 17:0.122 18:0 19:0.082 20:0 \n"
"-73.15725304473779 1:0.56 2:0.786 3:0.5 4:0.02 5:0.122 6:0.041 7:0.041 8:0.082 9:0.224 10:0.082 11:0.061 12:0.061 13:0.02 14:0 15:0.02 16:0.061 17:0.061 18:0 19:0.102 20:0 \n"
"150.8852826054828 1:0.56 2:0.786 3:0.5 4:0.041 5:0.061 6:0.061 7:0.061 8:0.163 9:0.143 10:0.02 11:0.102 12:0 13:0.122 14:0 15:0 16:0.02 17:0.102 18:0.041 19:0.061 20:0 \n"
"173.1944087429583 1:0.56 2:0.786 3:0.5 4:0.061 5:0 6:0.061 7:0.102 8:0.163 9:0.224 10:0 11:0.041 12:0 13:0.102 14:0 15:0.02 16:0 17:0.102 18:0.061 19:0.061 20:0 \n"
"-256 1:0.56 2:0.786 3:0.5 4:0.122 5:0.041 6:0.02 7:0.041 8:0.061 9:0.224 10:0.102 11:0.061 12:0 13:0.041 14:0 15:0.061 16:0.041 17:0.143 18:0 19:0.041 20:0 \n"
"-33.1574536019551 1:0.56 2:0.786 3:0.5 4:0.02 5:0.061 6:0.02 7:0.122 8:0.102 9:0.204 10:0.102 11:0.02 12:0 13:0.122 14:0 15:0 16:0.102 17:0.041 18:0 19:0.082 20:0 \n"
"91.64350795888915 1:0.56 2:0.786 3:0.5 4:0.02 5:0.163 6:0 7:0.041 8:0.184 9:0.061 10:0.061 11:0.122 12:0.02 13:0.041 14:0 15:0.061 16:0 17:0.184 18:0.041 19:0 20:0 \n"
"-98.53600566111929 1:0.56 2:0.25 3:0.545 4:0.082 5:0.02 6:0.122 7:0 8:0.061 9:0 10:0.082 11:0 12:0.102 13:0.082 14:0.061 15:0.184 16:0 17:0.041 18:0.143 19:0.02 20:0 \n"
"-64.91471854493861 1:0.56 2:0.25 3:0.545 4:0.02 5:0.082 6:0.061 7:0.061 8:0 9:0.041 10:0.102 11:0 12:0.122 13:0.02 14:0.224 15:0.061 16:0.102 17:0 18:0.02 19:0.082 20:0 \n"
"182.8464480600727 1:0.56 2:0.286 3:0.545 4:0.061 5:0.02 6:0.102 7:0.061 8:0.082 9:0.041 10:0.02 11:0 12:0.041 13:0.02 14:0.265 15:0.082 16:0.061 17:0.061 18:0.02 19:0.061 20:0 \n"
"-35.75302380061918 1:0.56 2:0.286 3:0.545 4:0.082 5:0 6:0.122 7:0.041 8:0.041 9:0 10:0.122 11:0 12:0.122 13:0.122 14:0.122 15:0.041 16:0 17:0.041 18:0.041 19:0.102 20:0 \n"
"-51.663499891002 1:0.56 2:0.286 3:0.545 4:0.02 5:0.082 6:0.102 7:0.041 8:0.041 9:0.061 10:0.02 11:0.041 12:0.082 13:0.02 14:0.224 15:0.082 16:0.102 17:0 18:0.041 19:0.041 20:0 \n"
"58.78975357374619 1:0.56 2:0.286 3:0.545 4:0.122 5:0.061 6:0.041 7:0.02 8:0.041 9:0.041 10:0.061 11:0.02 12:0.061 13:0.02 14:0.265 15:0.061 16:0 17:0.041 18:0.041 19:0.102 20:0 \n"
"84.34366774765876 1:0.56 2:0.286 3:0.545 4:0.082 5:0.02 6:0.061 7:0.061 8:0.02 9:0 10:0.102 11:0.041 12:0.061 13:0.082 14:0.245 15:0.02 16:0.082 17:0.061 18:0 19:0.061 20:0 \n"
"-67.65028177410747 1:0.56 2:0.286 3:0.545 4:0.102 5:0 6:0.041 7:0.102 8:0 9:0.061 10:0.061 11:0.02 12:0.02 13:0.102 14:0.204 15:0.082 16:0.122 17:0 18:0.082 19:0 20:0 \n"
"12.29592411331872 1:0.56 2:0.286 3:0.545 4:0.143 5:0.061 6:0.041 7:0 8:0.061 9:0.041 10:0.041 11:0.02 12:0.041 13:0.061 14:0.184 15:0.102 16:0 17:0 18:0.143 19:0.061 20:0 \n"
"256 1:0.56 2:0.357 3:0.545 4:0.102 5:0.041 6:0.102 7:0 8:0.02 9:0.041 10:0.082 11:0.061 12:0.041 13:0.122 14:0.143 15:0.041 16:0.082 17:0 18:0.041 19:0.082 20:0 \n"
"-15.87630555759542 1:0.56 2:0.357 3:0.545 4:0.041 5:0.02 6:0.143 7:0.041 8:0.102 9:0.082 10:0.02 11:0 12:0.061 13:0.082 14:0.061 15:0.143 16:0.041 17:0.02 18:0.122 19:0.02 20:0 \n"
"147.618138406405 1:0.56 2:0.357 3:0.545 4:0.061 5:0.02 6:0.061 7:0.082 8:0 9:0.02 10:0.184 11:0 12:0.102 13:0.122 14:0.02 15:0.122 16:0.082 17:0.02 18:0.102 19:0 20:0 \n"
"8.191807353598616 1:0.56 2:0.357 3:0.545 4:0.041 5:0.02 6:0.184 7:0 8:0.122 9:0.041 10:0 11:0.041 12:0.061 13:0.041 14:0.143 15:0.122 16:0 17:0.102 18:0.041 19:0.041 20:0 \n"
"256 1:0.56 2:0.357 3:0.545 4:0.102 5:0.02 6:0.122 7:0 8:0.02 9:0.082 10:0.082 11:0.02 12:0.061 13:0.041 14:0.082 15:0.184 16:0.061 17:0.041 18:0.082 19:0 20:0 \n"
"-0.8697568719170841 1:0.56 2:0.357 3:0.545 4:0 5:0.061 6:0.061 7:0.122 8:0.061 9:0.102 10:0 11:0.041 12:0.122 13:0.02 14:0.184 15:0.041 16:0.061 17:0 18:0.122 19:0 20:0 \n"
"106.8317325428946 1:0.56 2:0.357 3:0.545 4:0.143 5:0.041 6:0.02 7:0.041 8:0 9:0 10:0.143 11:0.061 12:0.02 13:0.061 14:0.204 15:0.082 16:0.082 17:0.102 18:0 19:0 20:0 \n"
"26.24131745424009 1:0.56 2:0.393 3:0.545 4:0.102 5:0 6:0.061 7:0.082 8:0 9:0.061 10:0.143 11:0.02 12:0.061 13:0.143 14:0.061 15:0.061 16:0.082 17:0 18:0.082 19:0.041 20:0 \n"
"-155.5458570170061 1:0.56 2:0.393 3:0.545 4:0.122 5:0.02 6:0.102 7:0 8:0 9:0.102 10:0.02 11:0.102 12:0.061 13:0.061 14:0.143 15:0.061 16:0.061 17:0.041 18:0.061 19:0.041 20:0 \n"
"-256 1:0.56 2:0.393 3:0.545 4:0.061 5:0.02 6:0.102 7:0.061 8:0.082 9:0.082 10:0.02 11:0.02 12:0.041 13:0.122 14:0.163 15:0.02 16:0.041 17:0 18:0.061 19:0.102 20:0 \n"
"-40.83464223018246 1:0.56 2:0.393 3:0.545 4:0.02 5:0.02 6:0.204 7:0 8:0.102 9:0.02 10:0.061 11:0.041 12:0.041 13:0.184 14:0.061 15:0.061 16:0.082 17:0 18:0 19:0.102 20:0 \n"
"128.8305056213071 1:0.56 2:0.393 3:0.545 4:0 5:0.122 6:0.061 7:0.061 8:0.122 9:0.041 10:0.061 11:0 12:0.122 13:0.02 14:0.061 15:0.122 16:0 17:0.041 18:0.163 19:0 20:0 \n"
"-47.82115518125742 1:0.56 2:0.464 3:0.545 4:0 5:0.082 6:0.143 7:0.02 8:0.102 9:0.02 10:0.061 11:0.082 12:0.02 13:0.122 14:0.102 15:0.041 16:0.122 17:0.041 18:0 19:0.041 20:0 \n"
"14.5331260567282 1:0.56 2:0.464 3:0.545 4:0.122 5:0.02 6:0 7:0.102 8:0.02 9:0.102 10:0.122 11:0 12:0.041 13:0.102 14:0.143 15:0.02 16:0.061 17:0.041 18:0.041 19:0.061 20:0 \n"
"-233.1999125245153 1:0.56 2:0.464 3:0.545 4:0.041 5:0.041 6:0.143 7:0.02 8:0.082 9:0.163 10:0 11:0.02 12:0.082 13:0.061 14:0.061 15:0.082 16:0.041 17:0 18:0.102 19:0.061 20:0 \n"
"52.48117567941704 1:0.56 2:0.464 3:0.545 4:0.143 5:0.041 6:0.061 7:0 8:0 9:0.082 10:0.102 11:0.061 12:0.02 13:0.102 14:0.082 15:0.102 16:0.061 17:0.041 18:0.061 19:0.041 20:0 \n"
"12.79058893548938 1:0.56 2:0.464 3:0.545 4:0.041 5:0 6:0.143 7:0.061 8:0.041 9:0.143 10:0 11:0.082 12:0.061 13:0.102 14:0.122 15:0.02 16:0.082 17:0.02 18:0.041 19:0.041 20:0 \n"
"4.057189254053111 1:0.56 2:0.464 3:0.545 4:0.082 5:0.061 6:0.082 7:0 8:0.041 9:0.122 10:0.082 11:0.02 12:0.02 13:0.082 14:0.122 15:0.082 16:0.082 17:0 18:0.02 19:0.102 20:0 \n"
"26.36271224675699 1:0.56 2:0.464 3:0.545 4:0.122 5:0.082 6:0.041 7:0 8:0.061 9:0.122 10:0.061 11:0 12:0.061 13:0.041 14:0.061 15:0.143 16:0 17:0.02 18:0.122 19:0.061 20:0 \n"
"-40.90148931262222 1:0.56 2:0.5 3:0.545 4:0.061 5:0.041 6:0.102 7:0.041 8:0.143 9:0.061 10:0.061 11:0.02 12:0 13:0.102 14:0.061 15:0.102 16:0.041 17:0.082 18:0.041 19:0.041 20:0 \n"
"256 1:0.56 2:0.5 3:0.545 4:0.082 5:0.02 6:0.082 7:0.061 8:0.041 9:0.143 10:0.061 11:0.041 12:0.082 13:0.082 14:0 15:0.102 16:0.02 17:0.041 18:0.143 19:0 20:0 \n"
"65.99427818240301 1:0.56 2:0.5 3:0.545 4:0.122 5:0.082 6:0 7:0.041 8:0.02 9:0.082 10:0.102 11:0.082 12:0.102 13:0.041 14:0.102 15:0.041 16:0 17:0.082 18:0.082 19:0.02 20:0 \n"
"-256 1:0.56 2:0.5 3:0.545 4:0 5:0.061 6:0.122 7:0.061 8:0.102 9:0.02 10:0.122 11:0.02 12:0.041 13:0.163 14:0.041 15:0.041 16:0.102 17:0.02 18:0 19:0.082 20:0 \n"
"-256 1:0.56 2:0.5 3:0.545 4:0.02 5:0.041 6:0.143 7:0.041 8:0.041 9:0.122 10:0.041 11:0.082 12:0.082 13:0.061 14:0.082 15:0.041 16:0.102 17:0.061 18:0 19:0.041 20:0 \n"
"87.56007910814903 1:0.56 2:0.5 3:0.545 4:0.041 5:0.02 6:0.061 7:0.122 8:0.061 9:0.02 10:0.184 11:0.02 12:0.061 13:0.163 14:0.02 15:0.02 16:0.082 17:0.061 18:0.02 19:0.041 20:0 \n"
"256 1:0.56 2:0.5 3:0.545 4:0.041 5:0.122 6:0.041 7:0.041 8:0 9:0.041 10:0.184 11:0.041 12:0.143 13:0.102 14:0.02 15:0.02 16:0.041 17:0.02 18:0.041 19:0.102 20:0 \n"
"-235.5842603227759 1:0.56 2:0.5 3:0.545 4:0.102 5:0.082 6:0.041 7:0.02 8:0.041 9:0 10:0.163 11:0.082 12:0.02 13:0.143 14:0.082 15:0.041 16:0.061 17:0.061 18:0 19:0.061 20:0 \n"
"81.70449600012346 1:0.56 2:0.5 3:0.545 4:0.082 5:0.082 6:0.02 7:0.061 8:0.082 9:0.082 10:0.02 11:0.102 12:0.061 13:0 14:0.163 15:0.041 16:0 17:0.122 18:0.082 19:0 20:0 \n"
"-256 1:0.56 2:0.5 3:0.545 4:0.082 5:0 6:0.102 7:0.041 8:0.122 9:0.082 10:0.02 11:0.061 12:0.02 13:0.143 14:0.041 15:0.082 16:0.02 17:0.041 18:0.122 19:0.02 20:0 \n"
"256 1:0.56 2:0.5 3:0.545 4:0 5:0.041 6:0.122 7:0.082 8:0.122 9:0.041 10:0.102 11:0.02 12:0.02 13:0.082 14:0.061 15:0.102 16:0.102 17:0.102 18:0 19:0 20:0 \n"
"51.23360586138312 1:0.56 2:0.5 3:0.545 4:0.122 5:0.082 6:0 7:0.02 8:0 9:0.122 10:0.082 11:0.082 12:0.02 13:0.041 14:0.122 15:0.102 16:0.102 17:0.02 18:0.082 19:0 20:0 \n"
"256 1:0.56 2:0.536 3:0.545 4:0.082 5:0.02 6:0.122 7:0.02 8:0.061 9:0.102 10:0 11:0.143 12:0.041 13:0.082 14:0.082 15:0.041 16:0.061 17:0.082 18:0.061 19:0 20:0 \n"
"49.37022282388116 1:0.56 2:0.536 3:0.545 4:0.02 5:0.143 6:0.02 7:0.061 8:0.061 9:0.082 10:0.102 11:0.041 12:0.082 13:0.061 14:0.122 15:0 16:0.082 17:0.02 18:0 19:0.102 20:0 \n"
"12.83934722637907 1:0.56 2:0.536 3:0.545 4:0.041 5:0.061 6:0.102 7:0.041 8:0.163 9:0.041 10:0.102 11:0 12:0.02 13:0.061 14:0.041 15:0.122 16:0.02 17:0.122 18:0.02 19:0.041 20:0 \n"
"106.1957053104064 1:0.56 2:0.536 3:0.545 4:0.061 5:0 6:0.143 7:0.041 8:0.061 9:0.163 10:0.061 11:0 12:0.082 13:0.102 14:0 15:0.082 16:0.041 17:0.02 18:0.061 19:0.082 20:0 \n"
"-249.2091562947141 1:0.56 2:0.536 3:0.545 4:0.061 5:0.102 6:0.082 7:0 8:0 9:0.143 10:0.082 11:0.061 12:0.122 13:0.02 14:0.082 15:0.041 16:0.041 17:0.041 18:0.02 19:0.102 20:0 \n"
"-122.4052009698611 1:0.56 2:0.536 3:0.545 4:0.082 5:0.122 6:0.041 7:0 8:0 9:0.061 10:0.163 11:0.082 12:0.122 13:0.082 14:0.041 15:0 16:0.041 17:0.041 18:0.02 19:0.102 20:0 \n"
"-102.9404710370476 1:0.56 2:0.536 3:0.545 4:0.041 5:0.02 6:0.082 7:0.102 8:0.041 9:0.143 10:0.041 11:0.082 12:0.122 13:0.102 14:0.041 15:0 16:0.02 17:0.041 18:0.102 19:0.02 20:0 \n"
"-1.692834037669668 1:0.56 2:0.536 3:0.545 4:0.102 5:0.061 6:0.041 7:0.02 8:0.143 9:0.02 10:0.102 11:0.041 12:0 13:0.082 14:0.122 15:0.061 16:0 17:0.122 18:0 19:0.082 20:0 \n"
"-256 1:0.56 2:0.536 3:0.545 4:0.041 5:0.122 6:0.061 7:0.02 8:0.082 9:0.061 10:0 11:0.143 12:0.061 13:0.061 14:0.143 15:0 16:0.061 17:0.061 18:0.061 19:0.02 20:0 \n"
"-256 1:0.56 2:0.536 3:0.545 4:0.041 5:0.041 6:0.102 7:0.061 8:0.163 9:0.061 10:0 11:0.061 12:0.041 13:0.061 14:0.143 15:0.02 16:0 17:0.143 18:0 19:0.061 20:0 \n"
"74.52958601432978 1:0.56 2:0.536 3:0.545 4:0.102 5:0.143 6:0 7:0 8:0.061 9:0.102 10:0.082 11:0.061 12:0 13:0.061 14:0.102 15:0.082 16:0.082 17:0 18:0.061 19:0.061 20:0 \n"
"30.08966897914621 1:0.56 2:0.536 3:0.545 4:0.082 5:0.061 6:0.041 7:0.061 8:0.041 9:0.082 10:0.102 11:0.061 12:0 13:0.163 14:0.102 15:0 16:0.122 17:0 18:0 19:0.082 20:0 \n"
"-36.68510026538914 1:0.56 2:0.536 3:0.545 4:0.082 5:0 6:0.122 7:0.041 8:0 9:0.163 10:0.122 11:0.02 12:0.041 13:0.122 14:0.02 15:0.061 16:0.102 17:0.02 18:0 19:0.082 20:0 \n"
"-185.6508373462121 1:0.56 2:0.607 3:0.545 4:0.061 5:0.122 6:0.02 7:0.02 8:0.102 9:0.122 10:0.041 11:0.082 12:0 13:0.02 14:0.122 15:0.082 16:0.061 17:0.082 18:0.041 19:0.02 20:0 \n"
"-2.351874168669895 1:0.56 2:0.607 3:0.545 4:0.02 5:0.102 6:0.102 7:0.02 8:0.061 9:0.143 10:0.041 11:0.082 12:0.122 13:0 14:0.02 15:0.082 16:0.02 17:0.102 18:0.061 19:0.02 20:0 \n"
"-35.53186395443073 1:0.56 2:0.607 3:0.545 4:0.102 5:0.041 6:0.061 7:0.02 8:0.082 9:0.163 10:0.102 11:0 12:0.061 13:0 14:0.061 15:0.102 16:0 17:0.122 18:0 19:0.082 20:0 \n"
"16.30888558672246 1:0.56 2:0.607 3:0.545 4:0.082 5:0.102 6:0 7:0.061 8:0.02 9:0.143 10:0.102 11:0.082 12:0.122 13:0 14:0.02 15:0.061 16:0.02 17:0.082 18:0.102 19:0 20:0 \n"
"-256 1:0.56 2:0.607 3:0.545 4:0.102 5:0.102 6:0 7:0.02 8:0.02 9:0.102 10:0.184 11:0.041 12:0.041 13:0.122 14:0.02 15:0.041 16:0.082 17:0 18:0.02 19:0.102 20:0 \n"
"-27.60742855845431 1:0.56 2:0.607 3:0.545 4:0.102 5:0 6:0.061 7:0.082 8:0.082 9:0.204 10:0.02 11:0.02 12:0.02 13:0.02 14:0.102 15:0.082 16:0.041 17:0.122 18:0.02 19:0.02 20:0 \n"
"-73.58710568124799 1:0.56 2:0.643 3:0.545 4:0 5:0.122 6:0.082 7:0.041 8:0.163 9:0.102 10:0.061 11:0.02 12:0.061 13:0.061 14:0 15:0.082 16:0.02 17:0.082 18:0.041 19:0.061 20:0 \n"
"175.5365458259137 1:0.56 2:0.643 3:0.545 4:0.061 5:0.143 6:0.02 7:0.02 8:0.143 9:0.041 10:0.122 11:0.061 12:0.02 13:0.061 14:0.041 15:0.061 16:0.02 17:0.122 18:0.02 19:0.041 20:0 \n"
"40.36094387080798 1:0.56 2:0.643 3:0.545 4:0.082 5:0.082 6:0.061 7:0 8:0.041 9:0.163 10:0.102 11:0.061 12:0.02 13:0.041 14:0.041 15:0.102 16:0.102 17:0.061 18:0 19:0.041 20:0 \n"
"-256 1:0.56 2:0.643 3:0.545 4:0.041 5:0.163 6:0 7:0.02 8:0.061 9:0.061 10:0.122 11:0.122 12:0.122 13:0.02 14:0.061 15:0 16:0.02 17:0.102 18:0.02 19:0.061 20:0 \n"
"-65.34110416675098 1:0.56 2:0.643 3:0.545 4:0 5:0.061 6:0.061 7:0.122 8:0.061 9:0.143 10:0.102 11:0.041 12:0.122 13:0.041 14:0.02 15:0.02 16:0.061 17:0.122 18:0 19:0.02 20:0 \n"
"-54.959677564594 1:0.56 2:0.643 3:0.545 4:0.122 5:0.02 6:0.041 7:0.061 8:0.02 9:0.245 10:0.041 11:0.041 12:0.061 13:0.02 14:0.102 15:0.02 16:0.02 17:0.082 18:0.02 19:0.082 20:0 \n"
"-256 1:0.56 2:0.643 3:0.545 4:0.061 5:0.082 6:0.02 7:0.082 8:0.02 9:0.204 10:0.122 11:0.02 12:0.102 13:0.02 14:0.061 15:0.02 16:0.041 17:0.061 18:0 19:0.082 20:0 \n"
"-67.48941806185658 1:0.56 2:0.643 3:0.545 4:0 5:0.102 6:0.122 7:0.02 8:0.061 9:0.102 10:0.061 11:0.143 12:0.102 13:0.082 14:0 15:0 16:0.082 17:0.082 18:0.02 19:0.02 20:0 \n"
"187.2879487169254 1:0.56 2:0.643 3:0.545 4:0.122 5:0.041 6:0.061 7:0.02 8:0.082 9:0.184 10:0.02 11:0.082 12:0.041 13:0.102 14:0.02 15:0.02 16:0 17:0.02 18:0.102 19:0.082 20:0 \n"
"-73.60451213712095 1:0.56 2:0.643 3:0.545 4:0.061 5:0.061 6:0.102 7:0.02 8:0.143 9:0.061 10:0.02 11:0.122 12:0 13:0.061 14:0.082 15:0.061 16:0.041 17:0.163 18:0 19:0 20:0 \n"
"-17.04509737786472 1:0.56 2:0.643 3:0.545 4:0.143 5:0.02 6:0.02 7:0.061 8:0.02 9:0.082 10:0.143 11:0.102 12:0.061 13:0.143 14:0 15:0 16:0.02 17:0.102 18:0.041 19:0.041 20:0 \n"
"-101.4060895083136 1:0.56 2:0.643 3:0.545 4:0 5:0.082 6:0.102 7:0.061 8:0.061 9:0.224 10:0.041 11:0.02 12:0.061 13:0.02 14:0.041 15:0.082 16:0.122 17:0.041 18:0.02 19:0.02 20:0 \n"
"-256 1:0.56 2:0.643 3:0.545 4:0.102 5:0.082 6:0.041 7:0.02 8:0.061 9:0.041 10:0.082 11:0.184 12:0.041 13:0.082 14:0.061 15:0 16:0.041 17:0.163 18:0 19:0 20:0 \n"
"-56.72185144072723 1:0.56 2:0.643 3:0.545 4:0.061 5:0.082 6:0.041 7:0.061 8:0.02 9:0.286 10:0.02 11:0.041 12:0.041 13:0 14:0.102 15:0.061 16:0.122 17:0 18:0.041 19:0.02 20:0 \n"
"-12.99346468648692 1:0.56 2:0.643 3:0.545 4:0.02 5:0.143 6:0.02 7:0.061 8:0.143 9:0.041 10:0.143 11:0.041 12:0.061 13:0 14:0.02 15:0.102 16:0.02 17:0.184 18:0 19:0 20:0 \n"
"10.57070749221253 1:0.56 2:0.643 3:0.545 4:0 5:0.122 6:0.122 7:0 8:0.122 9:0.082 10:0.041 11:0.102 12:0.082 13:0.082 14:0.041 15:0 16:0.041 17:0.061 18:0 19:0.102 20:0 \n"
"-256 1:0.56 2:0.714 3:0.545 4:0.082 5:0.02 6:0.041 7:0.102 8:0.163 9:0.122 10:0.082 11:0.02 12:0 13:0.143 14:0 15:0.02 16:0 17:0.102 18:0.041 19:0.061 20:0 \n"
"-256 1:0.56 2:0.714 3:0.545 4:0.02 5:0.184 6:0.02 7:0.02 8:0.143 9:0.102 10:0.041 11:0.122 12:0 13:0.102 14:0.02 15:0.02 16:0.082 17:0.02 18:0.061 19:0.041 20:0 \n"
"-256 1:0.56 2:0.714 3:0.545 4:0 5:0.082 6:0.02 7:0.122 8:0.204 9:0.143 10:0.041 11:0.02 12:0 13:0.082 14:0.02 15:0.061 16:0.041 17:0.102 18:0.061 19:0 20:0 \n"
"-44.33212946323793 1:0.56 2:0.714 3:0.545 4:0.02 5:0.102 6:0 7:0.102 8:0.143 9:0.204 10:0.061 11:0 12:0 13:0.061 14:0.061 15:0.041 16:0.061 17:0.041 18:0.041 19:0.061 20:0 \n"
"-256 1:0.56 2:0.714 3:0.545 4:0.02 5:0.082 6:0.061 7:0.082 8:0.122 9:0.082 10:0.082 11:0.102 12:0 13:0.163 14:0 15:0 16:0.102 17:0.061 18:0.02 19:0.02 20:0 \n"
"38.22800270805401 1:0.56 2:0.714 3:0.545 4:0.082 5:0.143 6:0.02 7:0 8:0.102 9:0.082 10:0.041 11:0.163 12:0.041 13:0.02 14:0.061 15:0.041 16:0.02 17:0.163 18:0.02 19:0 20:0 \n"
"154.8823552982432 1:0.56 2:0.714 3:0.545 4:0.061 5:0.02 6:0.02 7:0.122 8:0.102 9:0.224 10:0.082 11:0 12:0 13:0.102 14:0 15:0.061 16:0.082 17:0.061 18:0.041 19:0.02 20:0 \n"
"-39.0025939111761 1:0.56 2:0.714 3:0.545 4:0.061 5:0.122 6:0.02 7:0.041 8:0.143 9:0 10:0.122 11:0.122 12:0.041 13:0.082 14:0.02 15:0.02 16:0 17:0.184 18:0 19:0.02 20:0 \n"
"-24.11520339487609 1:0.56 2:0.75 3:0.545 4:0 5:0.143 6:0.02 7:0.061 8:0.163 9:0.102 10:0.082 11:0.082 12:0.061 13:0.041 14:0 15:0.041 16:0.02 17:0.143 18:0.041 19:0 20:0 \n"
"188.199944894203 1:0.56 2:0.75 3:0.545 4:0.061 5:0.02 6:0.041 7:0.122 8:0.102 9:0.306 10:0.02 11:0 12:0.041 13:0.041 14:0.02 15:0.02 16:0.041 17:0.041 18:0.061 19:0.061 20:0 \n"
"28.16686637669107 1:0.56 2:0.75 3:0.545 4:0.082 5:0.143 6:0 7:0 8:0.143 9:0.122 10:0.082 11:0.082 12:0.02 13:0.041 14:0.02 15:0.061 16:0 17:0.122 18:0.041 19:0.041 20:0 \n"
"181.6846123564202 1:0.56 2:0.75 3:0.545 4:0.02 5:0.143 6:0.02 7:0.061 8:0.061 9:0.265 10:0.041 11:0.061 12:0.061 13:0 14:0.02 15:0.041 16:0.102 17:0.02 18:0.041 19:0.041 20:0 \n"
"112.6460665865441 1:0.56 2:0.75 3:0.545 4:0.082 5:0.143 6:0.02 7:0 8:0.02 9:0.163 10:0.082 11:0.143 12:0.02 13:0.041 14:0.02 15:0.061 16:0.122 17:0.082 18:0 19:0 20:0 \n"
"247.2155830125292 1:0.56 2:0.75 3:0.545 4:0.143 5:0.02 6:0.02 7:0.061 8:0.041 9:0.163 10:0.122 11:0.082 12:0.02 13:0.122 14:0 15:0 16:0.041 17:0.102 18:0 19:0.061 20:0 \n"
"-256 1:0.56 2:0.786 3:0.545 4:0.082 5:0.122 6:0.02 7:0.02 8:0.102 9:0.143 10:0.082 11:0.102 12:0 13:0.061 14:0 15:0.061 16:0.061 17:0.122 18:0 19:0.02 20:0 \n"
"114.5346659033054 1:0.56 2:0.786 3:0.545 4:0.102 5:0.02 6:0.061 7:0.061 8:0.02 9:0.327 10:0.041 11:0.061 12:0.061 13:0.02 14:0.02 15:0.02 16:0.041 17:0.082 18:0 19:0.061 20:0 \n"
"-184.2648418410948 1:0.56 2:0.786 3:0.545 4:0.041 5:0.061 6:0.041 7:0.102 8:0.163 9:0.102 10:0.061 11:0.102 12:0.041 13:0.082 14:0 15:0 16:0 17:0.184 18:0.02 19:0 20:0 \n"
"231.4096630542513 1:0.56 2:0.786 3:0.545 4:0 5:0.143 6:0 7:0.082 8:0.122 9:0.122 10:0.122 11:0.082 12:0 13:0.122 14:0 15:0 16:0.102 17:0.061 18:0 19:0.041 20:0 \n"
"2.759766331149255 1:0.56 2:0.214 3:0.591 4:0.02 5:0.02 6:0.163 7:0.061 8:0 9:0.02 10:0.061 11:0.041 12:0.245 13:0.082 14:0.122 15:0 16:0 17:0 18:0.082 19:0.082 20:0 \n"
"-33.67191074115234 1:0.56 2:0.214 3:0.591 4:0.041 5:0 6:0.224 7:0 8:0.02 9:0.02 10:0.041 11:0.02 12:0.163 13:0.082 14:0.122 15:0.082 16:0.02 17:0.02 18:0.061 19:0.082 20:0 \n"
"-49.78225717547566 1:0.56 2:0.286 3:0.591 4:0.082 5:0 6:0.061 7:0.102 8:0.02 9:0.02 10:0.122 11:0 12:0.061 13:0.122 14:0.143 15:0.082 16:0.102 17:0 18:0.082 19:0 20:0 \n"
"78.89942358025429 1:0.56 2:0.286 3:0.591 4:0.143 5:0.061 6:0 7:0.061 8:0 9:0 10:0.082 11:0.061 12:0.041 13:0.102 14:0.224 15:0.041 16:0.061 17:0 18:0.102 19:0.02 20:0 \n"
"-64.07760184143277 1:0.56 2:0.286 3:0.591 4:0.02 5:0.041 6:0.184 7:0.02 8:0 9:0.041 10:0.102 11:0.02 12:0.204 13:0.061 14:0 15:0.143 16:0.041 17:0 18:0.122 19:0 20:0 \n"
"-136.8222425281267 1:0.56 2:0.286 3:0.591 4:0.163 5:0 6:0.102 7:0 8:0 9:0.061 10:0.061 11:0.02 12:0.061 13:0.02 14:0.163 15:0.163 16:0.041 17:0.061 18:0.082 19:0 20:0 \n"
"22.68122260968332 1:0.56 2:0.357 3:0.591 4:0.02 5:0.061 6:0.102 7:0.082 8:0.061 9:0.061 10:0.041 11:0.02 12:0.163 13:0.061 14:0.102 15:0.041 16:0.02 17:0 18:0.122 19:0.041 20:0 \n"
"11.23716212427758 1:0.56 2:0.357 3:0.591 4:0.163 5:0 6:0.061 7:0.041 8:0.02 9:0.061 10:0.082 11:0.02 12:0.061 13:0.082 14:0.102 15:0.122 16:0.02 17:0.041 18:0.122 19:0 20:0 \n"
"48.2179015442746 1:0.56 2:0.357 3:0.591 4:0.082 5:0.082 6:0.061 7:0.041 8:0 9:0.082 10:0.122 11:0 12:0.102 13:0.02 14:0.082 15:0.143 16:0.082 17:0 18:0.102 19:0 20:0 \n"
"67.50353833108004 1:0.56 2:0.357 3:0.591 4:0.082 5:0.061 6:0.122 7:0 8:0.061 9:0 10:0.061 11:0.082 12:0.02 13:0.102 14:0.163 15:0.082 16:0.102 17:0.02 18:0.02 19:0.02 20:0 \n"
"-256 1:0.56 2:0.393 3:0.591 4:0.102 5:0.061 6:0.02 7:0.082 8:0.041 9:0.02 10:0.143 11:0 12:0.061 13:0.122 14:0.102 15:0.061 16:0.061 17:0 18:0.082 19:0.041 20:0 \n"
"7.353068278165297 1:0.56 2:0.393 3:0.591 4:0.082 5:0.082 6:0.102 7:0 8:0.122 9:0.02 10:0 11:0.061 12:0.061 13:0.122 14:0.122 15:0.041 16:0 17:0 18:0.102 19:0.082 20:0 \n"
"122.2939143677532 1:0.56 2:0.393 3:0.591 4:0.122 5:0.082 6:0.02 7:0.041 8:0.041 9:0 10:0.082 11:0.082 12:0.102 13:0.082 14:0.122 15:0.041 16:0 17:0.061 18:0.122 19:0 20:0 \n"
"90.90439284671488 1:0.56 2:0.393 3:0.591 4:0.041 5:0 6:0.122 7:0.102 8:0.061 9:0.041 10:0.122 11:0 12:0.061 13:0.143 14:0.061 15:0.082 16:0.082 17:0.041 18:0.041 19:0 20:0 \n"
"8.564150328595295 1:0.56 2:0.393 3:0.591 4:0.061 5:0.143 6:0 7:0.061 8:0.082 9:0 10:0.122 11:0.02 12:0.061 13:0.061 14:0.204 15:0.02 16:0.061 17:0 18:0.02 19:0.082 20:0 \n"
"-146.3727687281749 1:0.56 2:0.393 3:0.591 4:0.041 5:0.082 6:0.102 7:0.041 8:0.143 9:0.061 10:0 11:0 12:0.041 13:0.082 14:0.184 15:0.041 16:0.041 17:0 18:0.061 19:0.082 20:0 \n"
"-256 1:0.56 2:0.393 3:0.591 4:0.061 5:0.082 6:0.061 7:0.061 8:0.061 9:0.082 10:0.041 11:0.041 12:0.082 13:0.02 14:0.224 15:0 16:0.061 17:0.02 18:0.02 19:0.082 20:0 \n"
