char* avg_70_80_string=
"svm_type nu_svr\n"
"kernel_type rbf\n"
"gamma 2\n"
"nr_class 2\n"
"total_sv 9649\n"
"rho 2.54865\n"
"SV\n"
"-90.8794594162804 1:0.7 2:0.2 3:0.2 4:0 5:0 6:0.061 7:0 8:0.02 9:0.02 10:0.041 11:0.041 12:0 13:0.082 14:0.367 15:0.122 16:0.02 17:0.041 18:0.102 19:0.082 20:0 \n"
"20.99278680185257 1:0.7 2:0.2 3:0.2 4:0 5:0 6:0.061 7:0 8:0 9:0.02 10:0.102 11:0 12:0.041 13:0.102 14:0.204 15:0.224 16:0.02 17:0.02 18:0.184 19:0.02 20:0 \n"
"-175.8762545650469 1:0.7 2:0.2 3:0.2 4:0 5:0.02 6:0 7:0.02 8:0 9:0.02 10:0.041 11:0.082 12:0.061 13:0.041 14:0.367 15:0.102 16:0 17:0.041 18:0.163 19:0.041 20:0 \n"
"-27.42101446324887 1:0.7 2:0.2 3:0.2 4:0 5:0.02 6:0 7:0.02 8:0.02 9:0.041 10:0.082 11:0 12:0.041 13:0.041 14:0.265 15:0.224 16:0 17:0.02 18:0.224 19:0 20:0 \n"
"-107.203576750922 1:0.7 2:0.2 3:0.2 4:0 5:0.02 6:0.02 7:0.02 8:0 9:0.041 10:0.082 11:0.02 12:0.061 13:0 14:0.388 15:0.102 16:0 17:0.082 18:0.082 19:0.082 20:0 \n"
"547.8940038568289 1:0.7 2:0.257 3:0.2 4:0 5:0.02 6:0.02 7:0.02 8:0.02 9:0.02 10:0.02 11:0.102 12:0.02 13:0.041 14:0.408 15:0.061 16:0.02 17:0.082 18:0.082 19:0.061 20:0 \n"
"480.9847991313533 1:0.7 2:0.257 3:0.2 4:0 5:0.02 6:0.041 7:0 8:0 9:0.082 10:0.061 11:0.02 12:0.061 13:0.041 14:0.224 15:0.204 16:0 17:0.02 18:0.204 19:0.02 20:0 \n"
"149.9608832385685 1:0.7 2:0.343 3:0.2 4:0 5:0 6:0.041 7:0.02 8:0 9:0.102 10:0.122 11:0.02 12:0.061 13:0.143 14:0.184 15:0.061 16:0 17:0 18:0.122 19:0.122 20:0 \n"
"-768 1:0.7 2:0.343 3:0.2 4:0 5:0 6:0.041 7:0 8:0 9:0.122 10:0.02 11:0.102 12:0.041 13:0.02 14:0.388 15:0.02 16:0.02 17:0.102 18:0.02 19:0.102 20:0 \n"
"92.24690412349305 1:0.7 2:0.343 3:0.2 4:0 5:0 6:0.041 7:0 8:0 9:0.061 10:0.184 11:0 12:0.041 13:0.082 14:0.102 15:0.245 16:0.02 17:0.102 18:0.122 19:0 20:0 \n"
"768 1:0.7 2:0.4 3:0.2 4:0 5:0 6:0.061 7:0 8:0 9:0.102 10:0.061 11:0.122 12:0.041 13:0.163 14:0.163 15:0.041 16:0.02 17:0.02 18:0.143 19:0.061 20:0 \n"
"231.6659988207928 1:0.7 2:0.4 3:0.2 4:0 5:0 6:0.061 7:0 8:0.02 9:0.082 10:0.082 11:0.102 12:0.02 13:0.041 14:0.245 15:0.102 16:0.02 17:0.163 18:0.041 19:0.02 20:0 \n"
"480.9196281467595 1:0.7 2:0.4 3:0.2 4:0 5:0 6:0.061 7:0 8:0 9:0.061 10:0.163 11:0.041 12:0.041 13:0.082 14:0.204 15:0.102 16:0.02 17:0.143 18:0 19:0.082 20:0 \n"
"-189.427040164161 1:0.7 2:0.4 3:0.2 4:0 5:0.02 6:0.02 7:0.02 8:0.041 9:0.02 10:0.061 11:0.163 12:0.02 13:0.184 14:0.184 15:0.02 16:0 17:0.061 18:0.143 19:0.041 20:0 \n"
"-88.48617598889058 1:0.7 2:0.4 3:0.2 4:0 5:0.041 6:0 7:0.02 8:0.041 9:0.122 10:0.102 11:0.02 12:0 13:0.122 14:0.163 15:0.143 16:0.02 17:0 18:0.143 19:0.061 20:0 \n"
"768 1:0.7 2:0.4 3:0.2 4:0 5:0.02 6:0.041 7:0 8:0 9:0.184 10:0.082 11:0.02 12:0.061 13:0.082 14:0.163 15:0.102 16:0 17:0 18:0.122 19:0.122 20:0 \n"
"768 1:0.7 2:0.4 3:0.2 4:0 5:0.041 6:0 7:0.02 8:0 9:0.163 10:0.041 11:0.082 12:0.061 13:0.082 14:0.184 15:0.082 16:0 17:0 18:0.184 19:0.061 20:0 \n"
"-58.40947926450659 1:0.7 2:0.4 3:0.2 4:0 5:0.041 6:0 7:0.02 8:0.02 9:0.061 10:0.184 11:0.02 12:0.041 13:0.082 14:0.224 15:0.061 16:0 17:0.082 18:0.02 19:0.143 20:0 \n"
"-768 1:0.7 2:0.457 3:0.2 4:0 5:0.041 6:0.02 7:0 8:0 9:0.204 10:0.061 11:0.061 12:0.041 13:0.061 14:0.184 15:0.082 16:0.02 17:0.02 18:0.102 19:0.102 20:0 \n"
"396.9595584648931 1:0.7 2:0.457 3:0.2 4:0 5:0 6:0.041 7:0.02 8:0.02 9:0.102 10:0.122 11:0.082 12:0.041 13:0.122 14:0.061 15:0.143 16:0 17:0.102 18:0.143 19:0 20:0 \n"
"-768 1:0.7 2:0.457 3:0.2 4:0 5:0 6:0.041 7:0.02 8:0 9:0.184 10:0.122 11:0.02 12:0.041 13:0.102 14:0.061 15:0.163 16:0.02 17:0.041 18:0.143 19:0.041 20:0 \n"
"768 1:0.7 2:0.457 3:0.2 4:0 5:0.02 6:0.041 7:0 8:0.02 9:0.163 10:0.082 11:0.061 12:0.041 13:0.061 14:0.224 15:0.041 16:0 17:0.082 18:0.02 19:0.143 20:0 \n"
"79.24035697444855 1:0.7 2:0.457 3:0.2 4:0 5:0.02 6:0.041 7:0 8:0 9:0.122 10:0.061 11:0.122 12:0.041 13:0.184 14:0.061 15:0.102 16:0.02 17:0 18:0.204 19:0.02 20:0 \n"
"-622.8522410321033 1:0.7 2:0.457 3:0.2 4:0 5:0.02 6:0.041 7:0 8:0.041 9:0.122 10:0.122 11:0.02 12:0 13:0 14:0.184 15:0.204 16:0.02 17:0.163 18:0.041 19:0.02 20:0 \n"
"196.3618124476946 1:0.7 2:0.457 3:0.2 4:0 5:0 6:0.041 7:0.02 8:0 9:0.041 10:0.122 11:0.143 12:0.041 13:0.265 14:0.082 15:0 16:0.02 17:0 18:0.143 19:0.082 20:0 \n"
"-768 1:0.7 2:0.457 3:0.2 4:0 5:0 6:0.041 7:0.02 8:0 9:0.184 10:0.102 11:0.041 12:0.041 13:0.143 14:0.122 15:0.061 16:0 17:0 18:0.122 19:0.122 20:0 \n"
"-215.586459010871 1:0.7 2:0.457 3:0.2 4:0 5:0 6:0.041 7:0.02 8:0.02 9:0.204 10:0 11:0.102 12:0.041 13:0.082 14:0.163 15:0.082 16:0 17:0.02 18:0.184 19:0.041 20:0 \n"
"768 1:0.7 2:0.457 3:0.2 4:0 5:0.02 6:0.02 7:0.02 8:0 9:0.143 10:0.041 11:0.143 12:0.041 13:0.163 14:0.143 15:0.02 16:0.02 17:0 18:0.163 19:0.061 20:0 \n"
"-184.1780386445334 1:0.7 2:0.514 3:0.2 4:0 5:0.041 6:0 7:0.02 8:0.041 9:0.061 10:0.224 11:0.041 12:0.02 13:0.184 14:0.041 15:0.102 16:0 17:0.061 18:0.082 19:0.082 20:0 \n"
"-768 1:0.7 2:0.514 3:0.2 4:0 5:0.02 6:0.041 7:0 8:0.02 9:0.163 10:0.143 11:0.041 12:0.041 13:0.102 14:0.061 15:0.122 16:0 17:0.061 18:0.102 19:0.082 20:0 \n"
"-768 1:0.7 2:0.514 3:0.2 4:0 5:0 6:0.041 7:0.02 8:0 9:0.163 10:0.082 11:0.122 12:0.041 13:0.184 14:0.061 15:0.041 16:0.02 17:0.02 18:0.163 19:0.041 20:0 \n"
"-768 1:0.7 2:0.514 3:0.2 4:0 5:0.041 6:0 7:0.02 8:0 9:0.204 10:0.082 11:0.082 12:0.041 13:0.122 14:0.143 15:0.02 16:0.02 17:0 18:0.102 19:0.122 20:0 \n"
"768 1:0.7 2:0.514 3:0.2 4:0 5:0.041 6:0.02 7:0 8:0 9:0.265 10:0.041 11:0.061 12:0.041 13:0 14:0.163 15:0.122 16:0.02 17:0.061 18:0.102 19:0.061 20:0 \n"
"-200.6953567584434 1:0.7 2:0.514 3:0.2 4:0 5:0.041 6:0 7:0.02 8:0.041 9:0.082 10:0.102 11:0.143 12:0 13:0.204 14:0.143 15:0 16:0.02 17:0.041 18:0.082 19:0.082 20:0 \n"
"-376.4863625930678 1:0.7 2:0.514 3:0.2 4:0 5:0.041 6:0 7:0.02 8:0.041 9:0.041 10:0.245 11:0.041 12:0.02 13:0.122 14:0.041 15:0.143 16:0 17:0.163 18:0.061 19:0.02 20:0 \n"
"-744.5277671693391 1:0.7 2:0.514 3:0.2 4:0 5:0.02 6:0.02 7:0.02 8:0 9:0.163 10:0.041 11:0.143 12:0.041 13:0.041 14:0.245 15:0.02 16:0.02 17:0.143 18:0.02 19:0.061 20:0 \n"
"-527.2638157678726 1:0.7 2:0.514 3:0.2 4:0 5:0 6:0.041 7:0.02 8:0.041 9:0.245 10:0 11:0.082 12:0 13:0.061 14:0.143 15:0.122 16:0.02 17:0.061 18:0.143 19:0.02 20:0 \n"
"768 1:0.7 2:0.514 3:0.2 4:0 5:0.041 6:0 7:0.02 8:0.041 9:0.163 10:0.082 11:0.061 12:0 13:0.02 14:0.245 15:0.082 16:0.02 17:0.122 18:0.02 19:0.082 20:0 \n"
"-316.567622067041 1:0.7 2:0.514 3:0.2 4:0 5:0.02 6:0.02 7:0.02 8:0.041 9:0.184 10:0.122 11:0 12:0 13:0.163 14:0.102 15:0.082 16:0.02 17:0 18:0.082 19:0.143 20:0 \n"
"-503.1200974261801 1:0.7 2:0.514 3:0.2 4:0 5:0.02 6:0.02 7:0.02 8:0.02 9:0.122 10:0.204 11:0 12:0.041 13:0.143 14:0 15:0.163 16:0 17:0.082 18:0.122 19:0.041 20:0 \n"
"355.81170061983 1:0.7 2:0.543 3:0.2 4:0 5:0.02 6:0.02 7:0.02 8:0.041 9:0.102 10:0.143 11:0.082 12:0 13:0.204 14:0.041 15:0.082 16:0.02 17:0.061 18:0.122 19:0.041 20:0 \n"
"768 1:0.7 2:0.543 3:0.2 4:0 5:0.041 6:0 7:0.02 8:0.02 9:0.122 10:0.061 11:0.184 12:0.041 13:0.102 14:0.122 15:0.041 16:0 17:0.122 18:0.122 19:0 20:0 \n"
"768 1:0.7 2:0.543 3:0.2 4:0 5:0 6:0.041 7:0.02 8:0.02 9:0.224 10:0.102 11:0.041 12:0.041 13:0.122 14:0.082 15:0.061 16:0 17:0.041 18:0.102 19:0.102 20:0 \n"
"495.2690091602515 1:0.7 2:0.543 3:0.2 4:0 5:0 6:0.041 7:0.02 8:0.02 9:0.204 10:0.102 11:0.061 12:0.041 13:0.061 14:0.122 15:0.082 16:0 17:0.122 18:0.061 19:0.061 20:0 \n"
"238.3087164991746 1:0.7 2:0.543 3:0.2 4:0 5:0 6:0.041 7:0.02 8:0.02 9:0.122 10:0.143 11:0.102 12:0.02 13:0.184 14:0.102 15:0 16:0.02 17:0.082 18:0.041 19:0.102 20:0 \n"
"65.0536180786539 1:0.7 2:0.543 3:0.2 4:0 5:0 6:0.02 7:0.02 8:0.041 9:0.224 10:0.082 11:0.041 12:0.02 13:0.122 14:0.02 15:0.163 16:0 17:0.041 18:0.184 19:0.02 20:0 \n"
"-19.29673085230097 1:0.7 2:0.543 3:0.2 4:0 5:0.041 6:0 7:0.02 8:0.02 9:0.204 10:0 11:0.143 12:0.041 13:0.082 14:0.122 15:0.082 16:0 17:0.061 18:0.184 19:0 20:0 \n"
"768 1:0.7 2:0.543 3:0.2 4:0 5:0.041 6:0 7:0.02 8:0 9:0.265 10:0.061 11:0.061 12:0.041 13:0.041 14:0.122 15:0.102 16:0.02 17:0.041 18:0.122 19:0.061 20:0 \n"
"-768 1:0.7 2:0.543 3:0.2 4:0 5:0.041 6:0 7:0.02 8:0.041 9:0.122 10:0.061 11:0.163 12:0.02 13:0.163 14:0.061 15:0.061 16:0 17:0.061 18:0.184 19:0 20:0 \n"
"-768 1:0.7 2:0.543 3:0.2 4:0 5:0.02 6:0.041 7:0 8:0 9:0.184 10:0.02 11:0.184 12:0.041 13:0.061 14:0.184 15:0.02 16:0.02 17:0.122 18:0.061 19:0.041 20:0 \n"
"-768 1:0.7 2:0.543 3:0.2 4:0 5:0 6:0.041 7:0.02 8:0.02 9:0.061 10:0.122 11:0.184 12:0.02 13:0.122 14:0.122 15:0.041 16:0.02 17:0.184 18:0.041 19:0 20:0 \n"
"-554.8850436419474 1:0.7 2:0.543 3:0.2 4:0 5:0 6:0.041 7:0.02 8:0.02 9:0.143 10:0.184 11:0.02 12:0.041 13:0.184 14:0 15:0.102 16:0 17:0.041 18:0.102 19:0.102 20:0 \n"
"213.9725343920988 1:0.7 2:0.543 3:0.2 4:0 5:0.02 6:0.02 7:0.02 8:0 9:0.02 10:0.224 11:0.122 12:0.02 13:0.224 14:0.02 15:0.061 16:0.02 17:0.122 18:0.061 19:0.041 20:0 \n"
"768 1:0.7 2:0.543 3:0.2 4:0 5:0.041 6:0.02 7:0 8:0.041 9:0.224 10:0.041 11:0.082 12:0.02 13:0.102 14:0.082 15:0.102 16:0 17:0 18:0.184 19:0.061 20:0 \n"
"-411.5186308509548 1:0.7 2:0.543 3:0.2 4:0 5:0.02 6:0.02 7:0.02 8:0.02 9:0.224 10:0.02 11:0.102 12:0.041 13:0.143 14:0.143 15:0 16:0 17:0 18:0.122 19:0.122 20:0 \n"
"-768 1:0.7 2:0.543 3:0.2 4:0 5:0.041 6:0 7:0.02 8:0.02 9:0.041 10:0.265 11:0.041 12:0.02 13:0.122 14:0.061 15:0.122 16:0.02 17:0.163 18:0 19:0.061 20:0 \n"
"-768 1:0.7 2:0.6 3:0.2 4:0 5:0.041 6:0 7:0.02 8:0.02 9:0.265 10:0.082 11:0.061 12:0.041 13:0.02 14:0.102 15:0.102 16:0 17:0.102 18:0.102 19:0.041 20:0 \n"
"768 1:0.7 2:0.6 3:0.2 4:0 5:0.061 6:0 7:0 8:0.02 9:0.204 10:0.061 11:0.143 12:0.02 13:0.102 14:0.122 15:0.02 16:0.02 17:0.061 18:0.102 19:0.061 20:0 \n"
"720.3497523499841 1:0.7 2:0.6 3:0.2 4:0 5:0.041 6:0.02 7:0 8:0.041 9:0.061 10:0.163 11:0.163 12:0 13:0.143 14:0.061 15:0.061 16:0.02 17:0.163 18:0.041 19:0.02 20:0 \n"
"768 1:0.7 2:0.6 3:0.2 4:0 5:0 6:0.041 7:0.02 8:0.041 9:0.265 10:0.102 11:0.02 12:0 13:0.102 14:0.041 15:0.122 16:0.02 17:0.061 18:0.102 19:0.061 20:0 \n"
"-768 1:0.7 2:0.6 3:0.2 4:0 5:0.02 6:0.041 7:0 8:0 9:0.102 10:0.122 11:0.184 12:0.041 13:0.102 14:0.122 15:0.02 16:0.02 17:0.184 18:0 19:0.041 20:0 \n"
"608.8635064821486 1:0.7 2:0.6 3:0.2 4:0 5:0 6:0.041 7:0.02 8:0.041 9:0.327 10:0.041 11:0.02 12:0 13:0 14:0.143 15:0.122 16:0.02 17:0.082 18:0.061 19:0.082 20:0 \n"
"677.1814063400552 1:0.7 2:0.657 3:0.2 4:0 5:0.041 6:0.02 7:0 8:0.02 9:0.224 10:0.122 11:0.082 12:0.02 13:0.122 14:0.061 15:0.041 16:0.02 17:0.061 18:0.041 19:0.122 20:0 \n"
"-768 1:0.7 2:0.657 3:0.2 4:0 5:0.061 6:0 7:0 8:0.041 9:0.102 10:0.184 11:0.122 12:0 13:0.204 14:0 15:0.041 16:0.02 17:0.102 18:0.041 19:0.082 20:0 \n"
"664.8564180674161 1:0.7 2:0.657 3:0.2 4:0 5:0.041 6:0 7:0.02 8:0.061 9:0.286 10:0.041 11:0.061 12:0 13:0.082 14:0.122 15:0.041 16:0 17:0.041 18:0.082 19:0.122 20:0 \n"
"-635.3931850942383 1:0.7 2:0.657 3:0.2 4:0 5:0.061 6:0 7:0 8:0.041 9:0.163 10:0.082 11:0.184 12:0 13:0.204 14:0.02 15:0 16:0 17:0.041 18:0.143 19:0.061 20:0 \n"
"332.0983897273981 1:0.7 2:0.657 3:0.2 4:0 5:0.041 6:0 7:0.02 8:0 9:0.143 10:0.224 11:0.082 12:0.02 13:0.122 14:0 15:0.102 16:0.02 17:0.163 18:0.02 19:0.041 20:0 \n"
"-625.1219110035454 1:0.7 2:0.657 3:0.2 4:0 5:0.041 6:0 7:0.02 8:0.02 9:0.286 10:0.082 11:0.061 12:0.02 13:0 14:0.122 15:0.102 16:0.02 17:0.143 18:0.02 19:0.061 20:0 \n"
"768 1:0.7 2:0.657 3:0.2 4:0 5:0.041 6:0 7:0.02 8:0.02 9:0.204 10:0.204 11:0.02 12:0.02 13:0.143 14:0 15:0.082 16:0.02 17:0.082 18:0.041 19:0.102 20:0 \n"
"-455.9420266301258 1:0.7 2:0.657 3:0.2 4:0 5:0.061 6:0 7:0 8:0.041 9:0.184 10:0.163 11:0.061 12:0 13:0.102 14:0 15:0.143 16:0.02 17:0.102 18:0.082 19:0.041 20:0 \n"
"-768 1:0.7 2:0.657 3:0.2 4:0 5:0.041 6:0 7:0.02 8:0.02 9:0.286 10:0.122 11:0.041 12:0.02 13:0.102 14:0.02 15:0.082 16:0 17:0.041 18:0.102 19:0.102 20:0 \n"
"87.62400655791234 1:0.7 2:0.657 3:0.2 4:0 5:0.02 6:0.02 7:0.02 8:0.02 9:0.306 10:0.041 11:0.102 12:0.02 13:0.02 14:0.082 15:0.122 16:0.02 17:0.102 18:0.102 19:0 20:0 \n"
"768 1:0.7 2:0.714 3:0.2 4:0 5:0.041 6:0.02 7:0 8:0.041 9:0.163 10:0.082 11:0.204 12:0.02 13:0.143 14:0.041 15:0 16:0 17:0.163 18:0.041 19:0.041 20:0 \n"
"768 1:0.7 2:0.714 3:0.2 4:0 5:0.061 6:0 7:0 8:0.041 9:0.286 10:0.041 11:0.143 12:0 13:0.122 14:0.061 15:0 16:0.02 17:0.041 18:0.102 19:0.082 20:0 \n"
"768 1:0.7 2:0.714 3:0.2 4:0 5:0.041 6:0 7:0.02 8:0.041 9:0.184 10:0.184 11:0.082 12:0.02 13:0.163 14:0 15:0.02 16:0 17:0.102 18:0.02 19:0.122 20:0 \n"
"-250.2989069825357 1:0.7 2:0.714 3:0.2 4:0 5:0.041 6:0.02 7:0 8:0.041 9:0.367 10:0.082 11:0.02 12:0.02 13:0.041 14:0.061 15:0.061 16:0 17:0.061 18:0.041 19:0.143 20:0 \n"
"768 1:0.7 2:0.714 3:0.2 4:0 5:0.061 6:0 7:0 8:0.061 9:0.265 10:0.061 11:0.122 12:0 13:0.082 14:0 15:0.122 16:0 17:0.102 18:0.122 19:0 20:0 \n"
"768 1:0.7 2:0.714 3:0.2 4:0 5:0.02 6:0.02 7:0.02 8:0.041 9:0.265 10:0.163 11:0.041 12:0.02 13:0.02 14:0.02 15:0.122 16:0 17:0.184 18:0 19:0.061 20:0 \n"
"-768 1:0.7 2:0.743 3:0.2 4:0 5:0.02 6:0.02 7:0.02 8:0.041 9:0.286 10:0.041 11:0.163 12:0.02 13:0.102 14:0.041 15:0 16:0 17:0.122 18:0.061 19:0.061 20:0 \n"
"-578.5754965571005 1:0.7 2:0.743 3:0.2 4:0 5:0.02 6:0.02 7:0.02 8:0.061 9:0.286 10:0.143 11:0.041 12:0 13:0.041 14:0.02 15:0.102 16:0 17:0.163 18:0 19:0.082 20:0 \n"
"-768 1:0.7 2:0.743 3:0.2 4:0 5:0.061 6:0 7:0 8:0.041 9:0.163 10:0.143 11:0.163 12:0 13:0.184 14:0 15:0 16:0.02 17:0.122 18:0.041 19:0.061 20:0 \n"
"395.8749658796087 1:0.7 2:0.743 3:0.2 4:0 5:0.041 6:0 7:0.02 8:0 9:0.245 10:0.102 11:0.163 12:0.02 13:0.02 14:0.082 15:0.061 16:0.02 17:0.224 18:0 19:0 20:0 \n"
"-651.3938377738714 1:0.7 2:0.743 3:0.2 4:0 5:0.02 6:0.02 7:0.02 8:0.061 9:0.327 10:0 11:0.143 12:0 13:0.02 14:0.082 15:0.061 16:0 17:0.163 18:0.082 19:0 20:0 \n"
"-768 1:0.7 2:0.8 3:0.2 4:0 5:0.041 6:0 7:0.02 8:0.041 9:0.224 10:0.082 11:0.204 12:0 13:0.122 14:0.02 15:0 16:0.02 17:0.184 18:0.041 19:0 20:0 \n"
"-455.9014551035361 1:0.7 2:0.8 3:0.2 4:0 5:0.061 6:0 7:0 8:0.041 9:0.347 10:0.082 11:0.082 12:0 13:0.102 14:0.02 15:0.02 16:0 17:0.061 18:0.041 19:0.143 20:0 \n"
"768 1:0.7 2:0.8 3:0.2 4:0 5:0.02 6:0.02 7:0.02 8:0.02 9:0.469 10:0 11:0.082 12:0.02 13:0.041 14:0.041 15:0.02 16:0.02 17:0.041 18:0.061 19:0.122 20:0 \n"
"-362.3206152498832 1:0.7 2:0.2 3:0.267 4:0 5:0.02 6:0.041 7:0.02 8:0 9:0 10:0.102 11:0.02 12:0.061 13:0.082 14:0.306 15:0.122 16:0 17:0.041 18:0.122 19:0.061 20:0 \n"
"768 1:0.7 2:0.257 3:0.267 4:0 5:0.02 6:0.02 7:0.041 8:0 9:0.082 10:0.02 11:0.061 12:0.02 13:0.041 14:0.367 15:0.102 16:0.041 17:0.041 18:0.122 19:0.02 20:0 \n"
"431.3789525178922 1:0.7 2:0.257 3:0.267 4:0 5:0.02 6:0.02 7:0.041 8:0.02 9:0 10:0.082 11:0.082 12:0.02 13:0.082 14:0.408 15:0.02 16:0.041 17:0.082 18:0.02 19:0.061 20:0 \n"
"-304.8020580187089 1:0.7 2:0.314 3:0.267 4:0 5:0.041 6:0 7:0.041 8:0 9:0.02 10:0.163 11:0.02 12:0.041 13:0.061 14:0.286 15:0.102 16:0.041 17:0.102 18:0.041 19:0.041 20:0 \n"
"-513.4321554499493 1:0.7 2:0.314 3:0.267 4:0 5:0.041 6:0.041 7:0 8:0 9:0.122 10:0.02 11:0.061 12:0.02 13:0.061 14:0.245 15:0.163 16:0.041 17:0 18:0.184 19:0 20:0 \n"
"-306.4385148526788 1:0.7 2:0.314 3:0.267 4:0 5:0.041 6:0 7:0.041 8:0.041 9:0.041 10:0.02 11:0.102 12:0.02 13:0.102 14:0.327 15:0.041 16:0.02 17:0.041 18:0.143 19:0.02 20:0 \n"
"476.887421700079 1:0.7 2:0.314 3:0.267 4:0 5:0.02 6:0.061 7:0 8:0.041 9:0.082 10:0.082 11:0.02 12:0 13:0.061 14:0.306 15:0.122 16:0.041 17:0.061 18:0.02 19:0.082 20:0 \n"
"-311.6705119662944 1:0.7 2:0.343 3:0.267 4:0 5:0 6:0.041 7:0.041 8:0.02 9:0.122 10:0.041 11:0.061 12:0.041 13:0.122 14:0.204 15:0.082 16:0 17:0 18:0.184 19:0.041 20:0 \n"
"-746.3887500437463 1:0.7 2:0.343 3:0.267 4:0 5:0.041 6:0.041 7:0 8:0.041 9:0.102 10:0.02 11:0.061 12:0.041 13:0.082 14:0.286 15:0.061 16:0 17:0.02 18:0.102 19:0.102 20:0 \n"
"-0.5504201205903588 1:0.7 2:0.343 3:0.267 4:0 5:0 6:0.061 7:0.02 8:0.02 9:0.143 10:0 11:0.061 12:0.041 13:0.041 14:0.245 15:0.143 16:0.02 17:0.041 18:0.163 19:0 20:0 \n"
"-768 1:0.7 2:0.4 3:0.267 4:0 5:0 6:0.082 7:0 8:0 9:0.163 10:0.102 11:0.02 12:0.041 13:0.061 14:0.163 15:0.163 16:0.02 17:0.061 18:0.082 19:0.041 20:0 \n"
"768 1:0.7 2:0.4 3:0.267 4:0 5:0 6:0.082 7:0 8:0 9:0.163 10:0.02 11:0.102 12:0.082 13:0.082 14:0.163 15:0.082 16:0 17:0.041 18:0.143 19:0.041 20:0 \n"
"768 1:0.7 2:0.4 3:0.267 4:0 5:0 6:0.082 7:0 8:0.041 9:0.041 10:0.061 11:0.143 12:0.02 13:0.143 14:0.184 15:0.061 16:0 17:0.102 18:0.102 19:0.02 20:0 \n"
"333.1925313585281 1:0.7 2:0.4 3:0.267 4:0 5:0 6:0.082 7:0 8:0.02 9:0.143 10:0.061 11:0.041 12:0.02 13:0.061 14:0.265 15:0.082 16:0.041 17:0.082 18:0.02 19:0.082 20:0 \n"
"81.56050739493857 1:0.7 2:0.4 3:0.267 4:0 5:0.02 6:0.02 7:0.041 8:0.041 9:0 10:0.184 11:0.061 12:0.02 13:0.245 14:0.102 15:0.061 16:0 17:0.02 18:0.122 19:0.061 20:0 \n"
"55.02520250114355 1:0.7 2:0.4 3:0.267 4:0 5:0.041 6:0 7:0.041 8:0.041 9:0.041 10:0.102 11:0.102 12:0.041 13:0.184 14:0.163 15:0.02 16:0 17:0.02 18:0.163 19:0.041 20:0 \n"
"-421.1076308486109 1:0.7 2:0.4 3:0.267 4:0 5:0.041 6:0.041 7:0 8:0.041 9:0.082 10:0.02 11:0.143 12:0.041 13:0.02 14:0.265 15:0.082 16:0 17:0.143 18:0.082 19:0 20:0 \n"
"534.2263238464107 1:0.7 2:0.4 3:0.267 4:0 5:0.041 6:0 7:0.041 8:0.041 9:0 10:0.245 11:0 12:0 13:0.143 14:0.163 15:0.122 16:0.041 17:0.082 18:0.02 19:0.061 20:0 \n"
"-768 1:0.7 2:0.4 3:0.267 4:0 5:0 6:0.082 7:0 8:0 9:0.082 10:0.082 11:0.122 12:0.082 13:0.143 14:0.082 15:0.102 16:0 17:0.061 18:0.163 19:0 20:0 \n"
"-749.7205893880124 1:0.7 2:0.457 3:0.267 4:0 5:0.041 6:0.041 7:0 8:0.041 9:0.061 10:0.102 11:0.122 12:0.041 13:0.102 14:0.204 15:0.02 16:0 17:0.122 18:0.041 19:0.061 20:0 \n"
"-768 1:0.7 2:0.457 3:0.267 4:0 5:0.041 6:0.041 7:0 8:0.02 9:0.143 10:0.082 11:0.061 12:0.061 13:0.041 14:0.204 15:0.082 16:0 17:0.102 18:0.041 19:0.082 20:0 \n"
"-242.2092954450198 1:0.7 2:0.457 3:0.267 4:0 5:0.041 6:0 7:0.041 8:0.061 9:0.02 10:0.122 11:0.102 12:0 13:0.122 14:0.184 15:0.082 16:0.02 17:0.122 18:0.082 19:0 20:0 \n"
"-27.2762395105911 1:0.7 2:0.457 3:0.267 4:0 5:0.041 6:0.041 7:0 8:0 9:0.143 10:0.184 11:0 12:0.061 13:0.061 14:0.143 15:0.122 16:0.02 17:0.061 18:0.02 19:0.102 20:0 \n"
"154.1080321794982 1:0.7 2:0.457 3:0.267 4:0 5:0 6:0.041 7:0.041 8:0.041 9:0.082 10:0.082 11:0.102 12:0.041 13:0.245 14:0.041 15:0.061 16:0 17:0 18:0.204 19:0.02 20:0 \n"
"-162.5790966111168 1:0.7 2:0.457 3:0.267 4:0 5:0.02 6:0.02 7:0.041 8:0.02 9:0 10:0.265 11:0.041 12:0.02 13:0.286 14:0.02 15:0.061 16:0.02 17:0.02 18:0.082 19:0.082 20:0 \n"
"768 1:0.7 2:0.514 3:0.267 4:0 5:0 6:0.061 7:0.02 8:0.02 9:0.204 10:0.082 11:0.061 12:0.02 13:0.122 14:0.122 15:0.061 16:0.041 17:0.041 18:0.061 19:0.082 20:0 \n"
"-768 1:0.7 2:0.514 3:0.267 4:0 5:0.02 6:0.02 7:0.041 8:0.02 9:0.224 10:0.082 11:0.041 12:0.02 13:0.041 14:0.184 15:0.082 16:0.02 17:0.082 18:0.061 19:0.061 20:0 \n"
"768 1:0.7 2:0.514 3:0.267 4:0 5:0.061 6:0 7:0.02 8:0.02 9:0.184 10:0.102 11:0.061 12:0.061 13:0.102 14:0.122 15:0.041 16:0 17:0.02 18:0.122 19:0.082 20:0 \n"
"768 1:0.7 2:0.514 3:0.267 4:0 5:0.061 6:0 7:0.02 8:0.041 9:0.143 10:0.122 11:0.041 12:0.02 13:0.163 14:0.041 15:0.122 16:0.02 17:0 18:0.163 19:0.041 20:0 \n"
"683.6957664553222 1:0.7 2:0.514 3:0.267 4:0 5:0.02 6:0.061 7:0 8:0.02 9:0.163 10:0.122 11:0.041 12:0.041 13:0.184 14:0.061 15:0.061 16:0.02 17:0 18:0.082 19:0.122 20:0 \n"
"721.4665890496761 1:0.7 2:0.514 3:0.267 4:0 5:0.02 6:0.02 7:0.041 8:0.061 9:0.02 10:0.163 11:0.102 12:0.02 13:0.122 14:0.143 15:0.061 16:0 17:0.184 18:0.02 19:0.02 20:0 \n"
"768 1:0.7 2:0.514 3:0.267 4:0 5:0.061 6:0 7:0.02 8:0.061 9:0.041 10:0.204 11:0.041 12:0 13:0.122 14:0.082 15:0.143 16:0 17:0.143 18:0.061 19:0.02 20:0 \n"
"249.7395481001709 1:0.7 2:0.514 3:0.267 4:0 5:0 6:0.041 7:0.041 8:0.041 9:0.082 10:0.184 11:0.061 12:0.041 13:0.245 14:0.041 15:0 16:0 17:0.041 18:0.061 19:0.122 20:0 \n"
"327.7672365093015 1:0.7 2:0.514 3:0.267 4:0 5:0 6:0.041 7:0.041 8:0 9:0.204 10:0.102 11:0.041 12:0.061 13:0.143 14:0.02 15:0.122 16:0.02 17:0.02 18:0.184 19:0 20:0 \n"
"-230.1505541626107 1:0.7 2:0.514 3:0.267 4:0 5:0.02 6:0.02 7:0.041 8:0.02 9:0.184 10:0.163 11:0 12:0.061 13:0.082 14:0.122 15:0.061 16:0 17:0.082 18:0.041 19:0.102 20:0 \n"
"-726.8611063226828 1:0.7 2:0.514 3:0.267 4:0 5:0.061 6:0.02 7:0 8:0.041 9:0.184 10:0.041 11:0.082 12:0 13:0 14:0.265 15:0.082 16:0.041 17:0.122 18:0.02 19:0.041 20:0 \n"
"768 1:0.7 2:0.514 3:0.267 4:0 5:0 6:0.061 7:0 8:0 9:0.204 10:0.041 11:0.122 12:0.061 13:0.061 14:0.122 15:0.102 16:0 17:0.102 18:0.122 19:0 20:0 \n"
"-768 1:0.7 2:0.543 3:0.267 4:0 5:0.041 6:0 7:0.041 8:0.061 9:0.041 10:0.163 11:0.102 12:0.02 13:0.163 14:0.102 15:0.041 16:0 17:0.122 18:0.061 19:0.041 20:0 \n"
"646.4649325497879 1:0.7 2:0.543 3:0.267 4:0 5:0 6:0.061 7:0.02 8:0.061 9:0.061 10:0.102 11:0.163 12:0 13:0.163 14:0.122 15:0.02 16:0.02 17:0.163 18:0.041 19:0 20:0 \n"
"-768 1:0.7 2:0.543 3:0.267 4:0 5:0 6:0.061 7:0.02 8:0.041 9:0.102 10:0.102 11:0.143 12:0.041 13:0.204 14:0.061 15:0 16:0 17:0.082 18:0.082 19:0.061 20:0 \n"
"768 1:0.7 2:0.543 3:0.267 4:0 5:0.02 6:0.02 7:0.041 8:0.02 9:0.224 10:0.082 11:0.061 12:0.02 13:0.041 14:0.184 15:0.061 16:0.041 17:0.102 18:0.02 19:0.061 20:0 \n"
"-768 1:0.7 2:0.543 3:0.267 4:0 5:0.041 6:0.041 7:0 8:0.02 9:0.204 10:0.143 11:0.02 12:0.061 13:0.061 14:0.122 15:0.061 16:0 17:0.082 18:0.02 19:0.122 20:0 \n"
"768 1:0.7 2:0.543 3:0.267 4:0 5:0.061 6:0.02 7:0 8:0 9:0.122 10:0.163 11:0.082 12:0.041 13:0.204 14:0 15:0.082 16:0.041 17:0 18:0.122 19:0.061 20:0 \n"
"10.87522972779387 1:0.7 2:0.543 3:0.267 4:0 5:0.061 6:0.02 7:0 8:0.02 9:0.041 10:0.143 11:0.163 12:0.041 13:0.102 14:0.122 15:0.061 16:0.02 17:0.184 18:0.02 19:0 20:0 \n"
"393.162253439517 1:0.7 2:0.543 3:0.267 4:0 5:0.061 6:0.02 7:0 8:0 9:0.224 10:0.02 11:0.143 12:0.061 13:0.02 14:0.163 15:0.061 16:0.02 17:0.082 18:0.102 19:0.02 20:0 \n"
"768 1:0.7 2:0.543 3:0.267 4:0 5:0 6:0.061 7:0.02 8:0 9:0.265 10:0.102 11:0.02 12:0.061 13:0.02 14:0.082 15:0.143 16:0.02 17:0.082 18:0.082 19:0.041 20:0 \n"
"-768 1:0.7 2:0.543 3:0.267 4:0 5:0.02 6:0.041 7:0.02 8:0 9:0.265 10:0.041 11:0.082 12:0.061 13:0.102 14:0.102 15:0.041 16:0.02 17:0 18:0.143 19:0.061 20:0 \n"
"-297.5175602510539 1:0.7 2:0.6 3:0.267 4:0 5:0.061 6:0 7:0.02 8:0.041 9:0.204 10:0.082 11:0.102 12:0.041 13:0.041 14:0.082 15:0.102 16:0 17:0.102 18:0.122 19:0 20:0 \n"
"128.717400254148 1:0.7 2:0.6 3:0.267 4:0 5:0.02 6:0.02 7:0.041 8:0.041 9:0.122 10:0.163 11:0.082 12:0.02 13:0.163 14:0.02 15:0.082 16:0.02 17:0.122 18:0.061 19:0.02 20:0 \n"
"-37.06433130977345 1:0.7 2:0.6 3:0.267 4:0 5:0.041 6:0 7:0.041 8:0 9:0.163 10:0.122 11:0.143 12:0.041 13:0.082 14:0.163 15:0 16:0.02 17:0.143 18:0 19:0.041 20:0 \n"
"-276.7446987394989 1:0.7 2:0.6 3:0.267 4:0 5:0.041 6:0 7:0.041 8:0 9:0.224 10:0.082 11:0.122 12:0.041 13:0.163 14:0.041 15:0.02 16:0.041 17:0 18:0.143 19:0.041 20:0 \n"
"-768 1:0.7 2:0.6 3:0.267 4:0 5:0.061 6:0.02 7:0 8:0.041 9:0.184 10:0.102 11:0.082 12:0 13:0.122 14:0.02 15:0.143 16:0.041 17:0.061 18:0.122 19:0 20:0 \n"
"-768 1:0.7 2:0.6 3:0.267 4:0 5:0.041 6:0.041 7:0 8:0.041 9:0.265 10:0.041 11:0.082 12:0.041 13:0.122 14:0.061 15:0.041 16:0 17:0 18:0.122 19:0.102 20:0 \n"
"725.4115965856475 1:0.7 2:0.6 3:0.267 4:0 5:0.041 6:0.02 7:0.02 8:0.082 9:0.122 10:0.204 11:0 12:0 13:0.143 14:0 15:0.143 16:0 17:0.122 18:0.061 19:0.041 20:0 \n"
"-768 1:0.7 2:0.6 3:0.267 4:0 5:0 6:0.041 7:0.041 8:0.061 9:0.082 10:0.143 11:0.122 12:0 13:0.224 14:0.061 15:0 16:0.02 17:0.122 18:0.02 19:0.061 20:0 \n"
"389.6472182160466 1:0.7 2:0.6 3:0.267 4:0 5:0.041 6:0.02 7:0.02 8:0.02 9:0.143 10:0.265 11:0 12:0.041 13:0.122 14:0 15:0.122 16:0.02 17:0.102 18:0 19:0.082 20:0 \n"
"-768 1:0.7 2:0.6 3:0.267 4:0 5:0.041 6:0 7:0.041 8:0.082 9:0.204 10:0.061 11:0.082 12:0 13:0.122 14:0.082 15:0.061 16:0 17:0.041 18:0.143 19:0.041 20:0 \n"
"-768 1:0.7 2:0.657 3:0.267 4:0 5:0.02 6:0.02 7:0.041 8:0.02 9:0.245 10:0.122 11:0.082 12:0.02 13:0.122 14:0.02 15:0.082 16:0.041 17:0.061 18:0.082 19:0.02 20:0 \n"
"768 1:0.7 2:0.657 3:0.267 4:0 5:0.082 6:0 7:0 8:0.02 9:0.122 10:0.143 11:0.163 12:0.02 13:0.122 14:0.082 15:0.02 16:0.041 17:0.143 18:0.02 19:0.02 20:0 \n"
"-768 1:0.7 2:0.657 3:0.267 4:0 5:0.02 6:0.041 7:0.02 8:0.041 9:0.265 10:0.102 11:0.061 12:0 13:0.143 14:0.061 15:0.02 16:0.041 17:0.041 18:0.041 19:0.102 20:0 \n"
"-697.1842186806126 1:0.7 2:0.657 3:0.267 4:0 5:0.02 6:0.02 7:0.041 8:0.041 9:0.184 10:0.163 11:0.061 12:0 13:0.163 14:0.041 15:0.041 16:0.041 17:0.102 18:0.02 19:0.061 20:0 \n"
"540.6536670871906 1:0.7 2:0.657 3:0.267 4:0 5:0.02 6:0.02 7:0.041 8:0 9:0.245 10:0.102 11:0.122 12:0.041 13:0.082 14:0.102 15:0 16:0.041 17:0.102 18:0.02 19:0.061 20:0 \n"
"574.7254754197884 1:0.7 2:0.657 3:0.267 4:0 5:0.082 6:0 7:0 8:0.041 9:0.204 10:0.163 11:0.061 12:0.02 13:0.102 14:0.061 15:0.041 16:0.02 17:0.061 18:0.02 19:0.122 20:0 \n"
"-768 1:0.7 2:0.657 3:0.267 4:0 5:0.041 6:0 7:0.041 8:0.061 9:0.102 10:0.204 11:0.102 12:0.02 13:0.143 14:0.02 15:0.041 16:0 17:0.163 18:0.02 19:0.041 20:0 \n"
"-506.2871297793814 1:0.7 2:0.657 3:0.267 4:0 5:0.02 6:0.02 7:0.041 8:0.082 9:0.163 10:0.082 11:0.122 12:0 13:0.122 14:0.122 15:0 16:0 17:0.143 18:0.02 19:0.061 20:0 \n"
"-676.5026458833661 1:0.7 2:0.657 3:0.267 4:0 5:0.082 6:0 7:0 8:0 9:0.184 10:0.082 11:0.204 12:0.041 13:0.122 14:0.061 15:0 16:0.041 17:0.082 18:0.082 19:0.02 20:0 \n"
"-768 1:0.7 2:0.657 3:0.267 4:0 5:0.041 6:0.041 7:0 8:0 9:0.122 10:0.184 11:0.143 12:0.041 13:0.184 14:0 15:0.02 16:0.041 17:0.122 18:0 19:0.061 20:0 \n"
"768 1:0.7 2:0.657 3:0.267 4:0 5:0 6:0.041 7:0.041 8:0.041 9:0.306 10:0.02 11:0.082 12:0.041 13:0.102 14:0.041 15:0.061 16:0 17:0.061 18:0.122 19:0.041 20:0 \n"
"300.2435148769777 1:0.7 2:0.657 3:0.267 4:0 5:0.082 6:0 7:0 8:0.041 9:0.286 10:0.082 11:0.041 12:0.041 13:0.082 14:0.082 15:0.041 16:0 17:0.02 18:0.082 19:0.122 20:0 \n"
"-28.71828819607013 1:0.7 2:0.714 3:0.267 4:0 5:0 6:0.041 7:0.041 8:0.082 9:0.224 10:0.061 11:0.122 12:0 13:0.143 14:0.041 15:0.02 16:0 17:0.122 18:0.061 19:0.041 20:0 \n"
"768 1:0.7 2:0.714 3:0.267 4:0 5:0.061 6:0 7:0.02 8:0.041 9:0.143 10:0.163 11:0.143 12:0 13:0.163 14:0 15:0.041 16:0.041 17:0.143 18:0.02 19:0.02 20:0 \n"
"-297.661416848765 1:0.7 2:0.714 3:0.267 4:0 5:0 6:0.041 7:0.041 8:0.061 9:0.224 10:0.061 11:0.163 12:0 13:0.082 14:0.082 15:0.02 16:0 17:0.204 18:0.02 19:0 20:0 \n"
"-26.74239714673584 1:0.7 2:0.714 3:0.267 4:0 5:0.02 6:0.02 7:0.041 8:0 9:0.347 10:0.163 11:0 12:0.041 13:0.041 14:0 15:0.102 16:0.041 17:0.102 18:0.02 19:0.061 20:0 \n"
"423.8232797955128 1:0.7 2:0.714 3:0.267 4:0 5:0.061 6:0 7:0.02 8:0.02 9:0.306 10:0.122 11:0.041 12:0.041 13:0 14:0.061 15:0.102 16:0 17:0.143 18:0.02 19:0.061 20:0 \n"
"-563.4100552956961 1:0.7 2:0.743 3:0.267 4:0 5:0.061 6:0 7:0.02 8:0.061 9:0.224 10:0.163 11:0.061 12:0.02 13:0.082 14:0.02 15:0.061 16:0 17:0.163 18:0 19:0.061 20:0 \n"
"495.9793360155998 1:0.7 2:0.743 3:0.267 4:0 5:0.041 6:0 7:0.041 8:0.082 9:0.143 10:0.163 11:0.122 12:0 13:0.143 14:0.02 15:0.02 16:0 17:0.184 18:0 19:0.041 20:0 \n"
"-768 1:0.7 2:0.743 3:0.267 4:0 5:0.082 6:0 7:0 8:0.02 9:0.286 10:0.143 11:0.061 12:0.02 13:0.102 14:0.02 15:0.041 16:0.041 17:0.041 18:0.02 19:0.122 20:0 \n"
"226.547557950617 1:0.7 2:0.743 3:0.267 4:0 5:0.061 6:0.02 7:0 8:0.082 9:0.245 10:0.082 11:0.102 12:0 13:0.041 14:0.082 15:0.061 16:0 17:0.184 18:0 19:0.041 20:0 \n"
"768 1:0.7 2:0.743 3:0.267 4:0 5:0.041 6:0.02 7:0.02 8:0.061 9:0.163 10:0.082 11:0.204 12:0 13:0.184 14:0 15:0 16:0.02 17:0.143 18:0.061 19:0 20:0 \n"
"-768 1:0.7 2:0.743 3:0.267 4:0 5:0.02 6:0.02 7:0.041 8:0.041 9:0.347 10:0.082 11:0.061 12:0.02 13:0.02 14:0.082 15:0.041 16:0.02 17:0.122 18:0 19:0.082 20:0 \n"
"0.5082035061965631 1:0.7 2:0.743 3:0.267 4:0 5:0.061 6:0.02 7:0 8:0.061 9:0.082 10:0.163 11:0.204 12:0.02 13:0.143 14:0 15:0.02 16:0 17:0.224 18:0 19:0 20:0 \n"
"298.2003098144538 1:0.7 2:0.8 3:0.267 4:0 5:0.02 6:0.02 7:0.041 8:0.02 9:0.388 10:0.041 11:0.122 12:0.02 13:0.061 14:0.041 15:0.02 16:0.041 17:0.102 18:0.041 19:0.02 20:0 \n"
"-669.0724632586647 1:0.7 2:0.8 3:0.267 4:0 5:0.02 6:0.02 7:0.041 8:0.061 9:0.429 10:0.041 11:0.02 12:0 13:0.061 14:0.02 15:0.061 16:0.02 17:0.041 18:0.061 19:0.102 20:0 \n"
"768 1:0.7 2:0.8 3:0.267 4:0 5:0.082 6:0 7:0 8:0.041 9:0.184 10:0.122 11:0.204 12:0 13:0.143 14:0 15:0 16:0.041 17:0.143 18:0.02 19:0.02 20:0 \n"
"-58.00134439312819 1:0.7 2:0.257 3:0.333 4:0 5:0.041 6:0.061 7:0 8:0 9:0.02 10:0.143 11:0.02 12:0.102 13:0.102 14:0.204 15:0.102 16:0 17:0 18:0.122 19:0.082 20:0 \n"
"-695.4648169302621 1:0.7 2:0.257 3:0.333 4:0 5:0 6:0.102 7:0 8:0 9:0.061 10:0.041 11:0.061 12:0.102 13:0.102 14:0.265 15:0.061 16:0 17:0.02 18:0.122 19:0.061 20:0 \n"
"-211.8373225246056 1:0.7 2:0.257 3:0.333 4:0.02 5:0 6:0.082 7:0 8:0.041 9:0.02 10:0.122 11:0 12:0.02 13:0.163 14:0.143 15:0.204 16:0 17:0 18:0.184 19:0 20:0 \n"
"-767.9983752615276 1:0.7 2:0.314 3:0.333 4:0.02 5:0.041 6:0 7:0.041 8:0 9:0.02 10:0.143 11:0.041 12:0.041 13:0.082 14:0.327 15:0.041 16:0.041 17:0.061 18:0.02 19:0.082 20:0 \n"
"768 1:0.7 2:0.343 3:0.333 4:0.02 5:0 6:0.061 7:0.02 8:0.041 9:0.082 10:0.122 11:0 12:0.041 13:0.041 14:0.245 15:0.122 16:0 17:0.122 18:0.02 19:0.061 20:0 \n"
"-768 1:0.7 2:0.343 3:0.333 4:0 5:0 6:0.102 7:0 8:0.02 9:0.102 10:0 11:0.122 12:0.041 13:0.102 14:0.265 15:0.041 16:0.041 17:0.041 18:0.102 19:0.02 20:0 \n"
"182.4903386927419 1:0.7 2:0.343 3:0.333 4:0.02 5:0.041 6:0.041 7:0 8:0 9:0.122 10:0.102 11:0 12:0.041 13:0.02 14:0.224 15:0.184 16:0.041 17:0.041 18:0.102 19:0.02 20:0 \n"
"768 1:0.7 2:0.343 3:0.333 4:0 5:0.041 6:0.02 7:0.041 8:0 9:0.122 10:0.061 11:0.041 12:0.061 13:0.041 14:0.347 15:0.02 16:0.02 17:0.041 18:0.041 19:0.102 20:0 \n"
"446.2559038728496 1:0.7 2:0.343 3:0.333 4:0.02 5:0.041 6:0 7:0.041 8:0.041 9:0.061 10:0.02 11:0.102 12:0.041 13:0.122 14:0.306 15:0 16:0 17:0.02 18:0.122 19:0.061 20:0 \n"
"768 1:0.7 2:0.4 3:0.333 4:0 5:0 6:0.082 7:0.02 8:0.061 9:0.122 10:0.061 11:0.041 12:0 13:0.102 14:0.163 15:0.143 16:0.041 17:0.061 18:0.102 19:0 20:0 \n"
"-768 1:0.7 2:0.4 3:0.333 4:0.02 5:0.041 6:0 7:0.02 8:0.061 9:0.122 10:0.102 11:0 12:0.02 13:0.061 14:0.163 15:0.184 16:0 17:0.041 18:0.163 19:0 20:0 \n"
"768 1:0.7 2:0.4 3:0.333 4:0 5:0 6:0.102 7:0 8:0.061 9:0.041 10:0.143 11:0.041 12:0.02 13:0.163 14:0.163 15:0.061 16:0.02 17:0.082 18:0 19:0.102 20:0 \n"
"303.871257233855 1:0.7 2:0.4 3:0.333 4:0 5:0.02 6:0.082 7:0 8:0.041 9:0.122 10:0 11:0.122 12:0.041 13:0.061 14:0.306 15:0 16:0.02 17:0.082 18:0.02 19:0.082 20:0 \n"
"-768 1:0.7 2:0.4 3:0.333 4:0 5:0.02 6:0.082 7:0 8:0 9:0.143 10:0.041 11:0.102 12:0.082 13:0.122 14:0.102 15:0.102 16:0.02 17:0 18:0.184 19:0 20:0 \n"
"-768 1:0.7 2:0.4 3:0.333 4:0.02 5:0.041 6:0 7:0.041 8:0 9:0.163 10:0.041 11:0.082 12:0.041 13:0.02 14:0.306 15:0.041 16:0.041 17:0.061 18:0.082 19:0.02 20:0 \n"
"768 1:0.7 2:0.4 3:0.333 4:0 5:0 6:0.082 7:0.02 8:0.02 9:0.082 10:0.041 11:0.143 12:0.082 13:0.102 14:0.204 15:0.02 16:0 17:0.102 18:0.082 19:0.02 20:0 \n"
"410.0104494142768 1:0.7 2:0.457 3:0.333 4:0.02 5:0.02 6:0.02 7:0.041 8:0.02 9:0.082 10:0.204 11:0.02 12:0.02 13:0.082 14:0.122 15:0.143 16:0.02 17:0.143 18:0.041 19:0 20:0 \n"
"-768 1:0.7 2:0.457 3:0.333 4:0 5:0.02 6:0.041 7:0.041 8:0 9:0.163 10:0.041 11:0.122 12:0.082 13:0.122 14:0.122 15:0.041 16:0.02 17:0.02 18:0.163 19:0 20:0 \n"
"550.0893553649031 1:0.7 2:0.457 3:0.333 4:0.02 5:0.02 6:0.041 7:0.02 8:0.041 9:0.184 10:0.082 11:0 12:0 13:0.041 14:0.245 15:0.102 16:0.041 17:0.061 18:0.02 19:0.082 20:0 \n"
"249.7165213462493 1:0.7 2:0.457 3:0.333 4:0 5:0 6:0.061 7:0.041 8:0 9:0.102 10:0.204 11:0.02 12:0.061 13:0.204 14:0 15:0.102 16:0.041 17:0.02 18:0.122 19:0.02 20:0 \n"
"768 1:0.7 2:0.457 3:0.333 4:0 5:0.041 6:0.061 7:0 8:0.061 9:0.082 10:0.02 11:0.163 12:0.02 13:0.122 14:0.224 15:0 16:0.02 17:0.082 18:0.061 19:0.041 20:0 \n"
"-559.9291443463585 1:0.7 2:0.457 3:0.333 4:0 5:0.082 6:0.02 7:0 8:0 9:0.143 10:0.163 11:0.02 12:0.082 13:0.082 14:0.122 15:0.082 16:0.02 17:0 18:0.082 19:0.102 20:0 \n"
"768 1:0.7 2:0.457 3:0.333 4:0.02 5:0.061 6:0 7:0.02 8:0.02 9:0 10:0.245 11:0.061 12:0.041 13:0.204 14:0.122 15:0.02 16:0.02 17:0.041 18:0.02 19:0.102 20:0 \n"
"-318.8679221100128 1:0.7 2:0.514 3:0.333 4:0 5:0.061 6:0 7:0.041 8:0.082 9:0.143 10:0.082 11:0.061 12:0 13:0.102 14:0.184 15:0.041 16:0.02 17:0.061 18:0.082 19:0.041 20:0 \n"
"768 1:0.7 2:0.514 3:0.333 4:0 5:0.061 6:0.041 7:0 8:0.02 9:0.143 10:0.082 11:0.102 12:0.061 13:0.041 14:0.224 15:0.02 16:0.02 17:0.122 18:0 19:0.061 20:0 \n"
"566.4131927104156 1:0.7 2:0.514 3:0.333 4:0 5:0.061 6:0 7:0.041 8:0 9:0.184 10:0.061 11:0.122 12:0.082 13:0.082 14:0.143 15:0.02 16:0.02 17:0.02 18:0.143 19:0.02 20:0 \n"
"-768 1:0.7 2:0.514 3:0.333 4:0 5:0.061 6:0.041 7:0 8:0.02 9:0.204 10:0.082 11:0.061 12:0.061 13:0.02 14:0.163 15:0.082 16:0.02 17:0.082 18:0.041 19:0.061 20:0 \n"
"85.77522550674691 1:0.7 2:0.514 3:0.333 4:0.02 5:0 6:0.061 7:0.02 8:0.041 9:0.041 10:0.245 11:0.02 12:0.041 13:0.204 14:0.02 15:0.082 16:0 17:0.122 18:0.02 19:0.061 20:0 \n"
"-768 1:0.7 2:0.514 3:0.333 4:0 5:0 6:0.061 7:0.041 8:0.061 9:0.122 10:0.102 11:0.082 12:0.02 13:0.122 14:0.163 15:0.02 16:0.02 17:0.102 18:0.02 19:0.061 20:0 \n"
"768 1:0.7 2:0.514 3:0.333 4:0 5:0.041 6:0.061 7:0 8:0.041 9:0.102 10:0.143 11:0.061 12:0.041 13:0.163 14:0 15:0.143 16:0 17:0.061 18:0.143 19:0 20:0 \n"
"-768 1:0.7 2:0.514 3:0.333 4:0 5:0.041 6:0.02 7:0.041 8:0.041 9:0.245 10:0.041 11:0.02 12:0.02 13:0.02 14:0.163 15:0.143 16:0.041 17:0.061 18:0.102 19:0 20:0 \n"
"-768 1:0.7 2:0.514 3:0.333 4:0 5:0.061 6:0 7:0.041 8:0.02 9:0.143 10:0.163 11:0.02 12:0.041 13:0.082 14:0.184 15:0.041 16:0.02 17:0.082 18:0 19:0.102 20:0 \n"
"138.2574531435133 1:0.7 2:0.514 3:0.333 4:0 5:0.082 6:0.02 7:0 8:0.082 9:0.041 10:0.082 11:0.163 12:0 13:0.184 14:0.122 15:0.02 16:0.02 17:0.061 18:0.102 19:0.02 20:0 \n"
"-375.9003425576255 1:0.7 2:0.514 3:0.333 4:0 5:0.041 6:0.02 7:0.02 8:0 9:0.102 10:0.184 11:0.082 12:0.061 13:0.224 14:0.061 15:0 16:0.041 17:0 18:0.061 19:0.102 20:0 \n"
"-768 1:0.7 2:0.514 3:0.333 4:0 5:0.082 6:0.02 7:0 8:0.041 9:0 10:0.245 11:0.082 12:0.061 13:0.184 14:0.02 15:0.082 16:0 17:0.102 18:0.041 19:0.041 20:0 \n"
"768 1:0.7 2:0.543 3:0.333 4:0 5:0.082 6:0 7:0.02 8:0.02 9:0.082 10:0.143 11:0.143 12:0.061 13:0.122 14:0.082 15:0.041 16:0.02 17:0.102 18:0.082 19:0 20:0 \n"
"768 1:0.7 2:0.543 3:0.333 4:0.02 5:0.041 6:0 7:0.041 8:0.061 9:0.041 10:0.204 11:0.082 12:0.02 13:0.184 14:0.041 15:0.061 16:0 17:0.122 18:0.061 19:0.02 20:0 \n"
"-724.2163796810719 1:0.7 2:0.543 3:0.333 4:0 5:0.061 6:0.02 7:0.02 8:0.041 9:0.204 10:0.082 11:0.061 12:0.041 13:0.082 14:0.163 15:0.02 16:0.02 17:0.041 18:0.061 19:0.082 20:0 \n"
"-768 1:0.7 2:0.543 3:0.333 4:0.02 5:0.061 6:0.02 7:0 8:0.041 9:0.143 10:0.122 11:0.061 12:0.041 13:0.184 14:0.041 15:0.061 16:0 17:0 18:0.143 19:0.061 20:0 \n"
"768 1:0.7 2:0.543 3:0.333 4:0.02 5:0.041 6:0.02 7:0.02 8:0 9:0.245 10:0.082 11:0.061 12:0.041 13:0.061 14:0.082 15:0.122 16:0.041 17:0.041 18:0.122 19:0 20:0 \n"
"-768 1:0.7 2:0.543 3:0.333 4:0 5:0.02 6:0.082 7:0 8:0.061 9:0.184 10:0.143 11:0 12:0.041 13:0.061 14:0.041 15:0.163 16:0 17:0.122 18:0.041 19:0.041 20:0 \n"
"-768 1:0.7 2:0.543 3:0.333 4:0 5:0.041 6:0.02 7:0.041 8:0.041 9:0.184 10:0.122 11:0.02 12:0.061 13:0.122 14:0.02 15:0.122 16:0 17:0.041 18:0.163 19:0 20:0 \n"
"-768 1:0.7 2:0.543 3:0.333 4:0 5:0 6:0.061 7:0.041 8:0.082 9:0.163 10:0.122 11:0.02 12:0 13:0.102 14:0.143 15:0.061 16:0.02 17:0.102 18:0 19:0.082 20:0 \n"
"-768 1:0.7 2:0.543 3:0.333 4:0 5:0 6:0.082 7:0.02 8:0.041 9:0.204 10:0 11:0.122 12:0.041 13:0.122 14:0.143 15:0.02 16:0.02 17:0.061 18:0.082 19:0.041 20:0 \n"
"768 1:0.7 2:0.543 3:0.333 4:0.02 5:0 6:0.041 7:0.041 8:0 9:0.184 10:0.184 11:0.02 12:0.061 13:0.143 14:0.061 15:0.041 16:0.02 17:0.041 18:0.041 19:0.102 20:0 \n"
"-768 1:0.7 2:0.543 3:0.333 4:0 5:0.041 6:0.061 7:0 8:0.082 9:0.143 10:0.061 11:0.102 12:0 13:0.143 14:0.163 15:0 16:0.02 17:0.041 18:0.041 19:0.102 20:0 \n"
"-380.7198542427028 1:0.7 2:0.543 3:0.333 4:0 5:0 6:0.082 7:0.02 8:0.082 9:0.102 10:0.02 11:0.163 12:0.02 13:0.143 14:0.163 15:0 16:0 17:0.143 18:0.041 19:0.02 20:0 \n"
"768 1:0.7 2:0.543 3:0.333 4:0 5:0 6:0.082 7:0.02 8:0 9:0.122 10:0.082 11:0.184 12:0.061 13:0.143 14:0.102 15:0 16:0.02 17:0.122 18:0.061 19:0 20:0 \n"
"-620.5389502411508 1:0.7 2:0.543 3:0.333 4:0.02 5:0.041 6:0 7:0.041 8:0.082 9:0.122 10:0.122 11:0.041 12:0 13:0.204 14:0.102 15:0.02 16:0 17:0.02 18:0.082 19:0.102 20:0 \n"
"-768 1:0.7 2:0.543 3:0.333 4:0 5:0 6:0.061 7:0.041 8:0.02 9:0.041 10:0.245 11:0.061 12:0.02 13:0.224 14:0.02 15:0.061 16:0.041 17:0.122 18:0 19:0.041 20:0 \n"
"-768 1:0.7 2:0.6 3:0.333 4:0.02 5:0.061 6:0 7:0.02 8:0.041 9:0.122 10:0.143 11:0.102 12:0 13:0.122 14:0.122 15:0.041 16:0.041 17:0.122 18:0 19:0.041 20:0 \n"
"768 1:0.7 2:0.6 3:0.333 4:0 5:0.041 6:0.061 7:0 8:0.02 9:0.184 10:0.082 11:0.122 12:0.061 13:0.163 14:0.041 15:0.02 16:0.02 17:0.02 18:0.102 19:0.061 20:0 \n"
"-708.8405138575071 1:0.7 2:0.6 3:0.333 4:0 5:0.02 6:0.041 7:0.041 8:0.02 9:0.245 10:0.102 11:0.061 12:0.061 13:0.082 14:0.02 15:0.102 16:0.02 17:0.061 18:0.122 19:0 20:0 \n"
"745.5791826350664 1:0.7 2:0.6 3:0.333 4:0.02 5:0.041 6:0.02 7:0.02 8:0.082 9:0.224 10:0.102 11:0.02 12:0 13:0.061 14:0.163 15:0.041 16:0 17:0.102 18:0 19:0.102 20:0 \n"
"768 1:0.7 2:0.6 3:0.333 4:0 5:0.041 6:0.02 7:0.041 8:0.041 9:0.245 10:0 11:0.143 12:0.061 13:0.061 14:0.122 15:0.02 16:0 17:0.082 18:0.122 19:0 20:0 \n"
"224.1449894448895 1:0.7 2:0.6 3:0.333 4:0 5:0.061 6:0 7:0.041 8:0.041 9:0.306 10:0.061 11:0.02 12:0.041 13:0.041 14:0.082 15:0.122 16:0 17:0.02 18:0.143 19:0.02 20:0 \n"
"768 1:0.7 2:0.6 3:0.333 4:0 5:0.041 6:0.041 7:0.02 8:0.061 9:0.184 10:0.061 11:0.102 12:0.02 13:0.143 14:0.041 15:0.082 16:0 17:0.061 18:0.143 19:0 20:0 \n"
"-410.3210572158015 1:0.7 2:0.6 3:0.333 4:0 5:0.02 6:0.061 7:0 8:0.082 9:0.061 10:0.102 11:0.184 12:0.02 13:0.163 14:0.082 15:0.02 16:0 17:0.184 18:0.02 19:0 20:0 \n"
"654.5436760452292 1:0.7 2:0.6 3:0.333 4:0.02 5:0.082 6:0 7:0 8:0 9:0.204 10:0.102 11:0.122 12:0.02 13:0.082 14:0.184 15:0 16:0.041 17:0.061 18:0 19:0.082 20:0 \n"
"768 1:0.7 2:0.6 3:0.333 4:0.02 5:0 6:0.041 7:0.041 8:0.02 9:0.163 10:0.143 11:0.082 12:0.061 13:0.143 14:0 15:0.082 16:0 17:0.102 18:0.102 19:0 20:0 \n"
"768 1:0.7 2:0.657 3:0.333 4:0 5:0.061 6:0.02 7:0.02 8:0.061 9:0.143 10:0.163 11:0.082 12:0 13:0.143 14:0.061 15:0.041 16:0.041 17:0.102 18:0 19:0.061 20:0 \n"
"768 1:0.7 2:0.657 3:0.333 4:0 5:0.041 6:0.02 7:0.041 8:0.082 9:0.224 10:0.061 11:0.102 12:0.02 13:0.082 14:0.122 15:0 16:0 17:0.122 18:0.041 19:0.041 20:0 \n"
"768 1:0.7 2:0.657 3:0.333 4:0 5:0 6:0.061 7:0.041 8:0.061 9:0.265 10:0.061 11:0.082 12:0 13:0.041 14:0.122 15:0.061 16:0.041 17:0.143 18:0 19:0.02 20:0 \n"
"768 1:0.7 2:0.657 3:0.333 4:0 5:0.041 6:0.061 7:0 8:0 9:0.245 10:0.102 11:0.102 12:0.061 13:0.143 14:0.02 15:0.02 16:0.02 17:0.041 18:0.061 19:0.082 20:0 \n"
"768 1:0.7 2:0.657 3:0.333 4:0.02 5:0.02 6:0.02 7:0.041 8:0.041 9:0.224 10:0.122 11:0.061 12:0.02 13:0.143 14:0.082 15:0 16:0.02 17:0.061 18:0.02 19:0.102 20:0 \n"
"103.0108409623989 1:0.7 2:0.657 3:0.333 4:0 5:0.02 6:0.061 7:0 8:0.02 9:0.143 10:0.163 11:0.143 12:0.02 13:0.163 14:0 15:0.061 16:0.041 17:0.143 18:0.02 19:0 20:0 \n"
"-768 1:0.7 2:0.657 3:0.333 4:0.02 5:0.061 6:0.02 7:0 8:0.041 9:0.286 10:0.061 11:0.082 12:0.02 13:0.02 14:0.102 15:0.082 16:0.02 17:0.082 18:0.061 19:0.041 20:0 \n"
"-768 1:0.7 2:0.657 3:0.333 4:0 5:0.102 6:0 7:0 8:0.02 9:0.224 10:0.082 11:0.143 12:0.061 13:0.102 14:0.02 15:0.041 16:0.02 17:0.041 18:0.122 19:0.02 20:0 \n"
"-768 1:0.7 2:0.657 3:0.333 4:0 5:0.041 6:0.041 7:0.02 8:0.102 9:0.163 10:0.041 11:0.143 12:0 13:0.163 14:0.041 15:0.041 16:0 17:0.102 18:0.102 19:0 20:0 \n"
"-768 1:0.7 2:0.657 3:0.333 4:0 5:0.061 6:0.041 7:0 8:0.082 9:0.245 10:0.02 11:0.122 12:0 13:0.122 14:0.102 15:0 16:0.02 17:0.02 18:0.082 19:0.082 20:0 \n"
"768 1:0.7 2:0.657 3:0.333 4:0 5:0.082 6:0 7:0.02 8:0 9:0.224 10:0.102 11:0.122 12:0.061 13:0.041 14:0.102 15:0.041 16:0.041 17:0.122 18:0.02 19:0.02 20:0 \n"
"104.8631293567407 1:0.7 2:0.657 3:0.333 4:0 5:0.02 6:0.041 7:0.041 8:0.061 9:0.122 10:0.102 11:0.163 12:0 13:0.184 14:0.061 15:0 16:0.041 17:0.122 18:0.041 19:0 20:0 \n"
"374.1173516770521 1:0.7 2:0.657 3:0.333 4:0 5:0.102 6:0 7:0 8:0.061 9:0.143 10:0.122 11:0.122 12:0 13:0.184 14:0.061 15:0 16:0.02 17:0.041 18:0.061 19:0.082 20:0 \n"
"-768 1:0.7 2:0.657 3:0.333 4:0 5:0.041 6:0.02 7:0.041 8:0.041 9:0.265 10:0.02 11:0.143 12:0.041 13:0.061 14:0.102 15:0.02 16:0.02 17:0.082 18:0.102 19:0 20:0 \n"
"-768 1:0.7 2:0.657 3:0.333 4:0 5:0.061 6:0 7:0.041 8:0.061 9:0.327 10:0.061 11:0 12:0.041 13:0 14:0.082 15:0.122 16:0 17:0.082 18:0.102 19:0.02 20:0 \n"
"768 1:0.7 2:0.657 3:0.333 4:0 5:0.041 6:0.061 7:0 8:0.02 9:0.184 10:0.061 11:0.184 12:0.041 13:0.184 14:0.02 15:0 16:0.041 17:0.041 18:0.102 19:0.02 20:0 \n"
"-768 1:0.7 2:0.657 3:0.333 4:0 5:0.082 6:0.02 7:0 8:0.082 9:0.204 10:0.061 11:0.122 12:0.02 13:0.02 14:0.102 15:0.082 16:0 17:0.143 18:0.061 19:0 20:0 \n"
"768 1:0.7 2:0.657 3:0.333 4:0 5:0 6:0.061 7:0.041 8:0.082 9:0.224 10:0.061 11:0.082 12:0.02 13:0.224 14:0 15:0 16:0 17:0 18:0.122 19:0.082 20:0 \n"
"768 1:0.7 2:0.657 3:0.333 4:0.02 5:0.082 6:0 7:0 8:0 9:0.306 10:0.082 11:0.082 12:0.041 13:0.041 14:0.041 15:0.102 16:0.041 17:0.02 18:0.122 19:0.02 20:0 \n"
"664.5917013839908 1:0.7 2:0.657 3:0.333 4:0 5:0.102 6:0 7:0 8:0.041 9:0.143 10:0.143 11:0.122 12:0.061 13:0.082 14:0.102 15:0 16:0 17:0.122 18:0 19:0.082 20:0 \n"
"-452.0811471439154 1:0.7 2:0.657 3:0.333 4:0.02 5:0.02 6:0 7:0.041 8:0 9:0.204 10:0.184 11:0.082 12:0.041 13:0.122 14:0 15:0.082 16:0.041 17:0.102 18:0.061 19:0 20:0 \n"
"-768 1:0.7 2:0.657 3:0.333 4:0 5:0.102 6:0 7:0 8:0.02 9:0.245 10:0.061 11:0.122 12:0.061 13:0.061 14:0.122 15:0 16:0 17:0.061 18:0.061 19:0.082 20:0 \n"
"29.6915765251421 1:0.7 2:0.714 3:0.333 4:0 5:0.041 6:0.041 7:0 8:0.041 9:0.265 10:0.061 11:0.143 12:0.041 13:0.041 14:0.061 15:0.061 16:0.02 17:0.163 18:0.02 19:0 20:0 \n"
"-768 1:0.7 2:0.714 3:0.333 4:0.02 5:0.082 6:0 7:0 8:0.02 9:0.245 10:0.143 11:0.082 12:0.02 13:0.061 14:0.02 15:0.102 16:0.041 17:0.102 18:0.041 19:0.02 20:0 \n"
"-395.8503231657476 1:0.7 2:0.714 3:0.333 4:0 5:0.102 6:0 7:0 8:0.041 9:0.204 10:0.082 11:0.163 12:0.041 13:0.102 14:0.02 15:0.041 16:0 17:0.102 18:0.102 19:0 20:0 \n"
"768 1:0.7 2:0.714 3:0.333 4:0 5:0.02 6:0.041 7:0.041 8:0.102 9:0.286 10:0.061 11:0.061 12:0 13:0.082 14:0.082 15:0.02 16:0 17:0.102 18:0.02 19:0.082 20:0 \n"
"87.81395315248032 1:0.7 2:0.714 3:0.333 4:0.02 5:0.041 6:0.041 7:0 8:0.02 9:0.367 10:0.061 11:0.061 12:0.041 13:0.061 14:0.061 15:0.041 16:0.02 17:0.02 18:0.041 19:0.102 20:0 \n"
"-768 1:0.7 2:0.714 3:0.333 4:0 5:0.041 6:0.02 7:0.041 8:0.082 9:0.224 10:0.102 11:0.082 12:0.02 13:0.102 14:0 15:0.082 16:0 17:0.122 18:0.082 19:0 20:0 \n"
"-768 1:0.7 2:0.714 3:0.333 4:0 5:0.102 6:0 7:0 8:0.061 9:0.327 10:0.041 11:0.082 12:0 13:0.041 14:0.061 15:0.102 16:0.041 17:0.041 18:0.102 19:0 20:0 \n"
"-567.366886264412 1:0.7 2:0.714 3:0.333 4:0.02 5:0 6:0.041 7:0.041 8:0 9:0.306 10:0.102 11:0.082 12:0.041 13:0.102 14:0.061 15:0 16:0.041 17:0.082 18:0 19:0.082 20:0 \n"
"-176.709629141101 1:0.7 2:0.714 3:0.333 4:0.02 5:0 6:0.041 7:0.041 8:0.041 9:0.265 10:0.143 11:0.061 12:0 13:0.102 14:0.02 15:0.082 16:0.02 17:0.143 18:0 19:0.02 20:0 \n"
"768 1:0.7 2:0.714 3:0.333 4:0 5:0.102 6:0 7:0 8:0.082 9:0.204 10:0.102 11:0.122 12:0 13:0.163 14:0.02 15:0 16:0.02 17:0.02 18:0.082 19:0.082 20:0 \n"
"-601.2676986418981 1:0.7 2:0.714 3:0.333 4:0.02 5:0.041 6:0 7:0.041 8:0.041 9:0.408 10:0.02 11:0.041 12:0 13:0.02 14:0.102 15:0.082 16:0.041 17:0.02 18:0.082 19:0.041 20:0 \n"
"-415.0223423293207 1:0.7 2:0.743 3:0.333 4:0 5:0.082 6:0 7:0.02 8:0.082 9:0.224 10:0.082 11:0.122 12:0 13:0.122 14:0.061 15:0 16:0.02 17:0.082 18:0.041 19:0.061 20:0 \n"
"768 1:0.7 2:0.743 3:0.333 4:0 5:0.061 6:0.02 7:0.02 8:0.061 9:0.327 10:0.041 11:0.102 12:0 13:0.02 14:0.061 15:0.082 16:0.02 17:0.122 18:0.061 19:0 20:0 \n"
"768 1:0.7 2:0.743 3:0.333 4:0 5:0.061 6:0.02 7:0.02 8:0.082 9:0.163 10:0.143 11:0.143 12:0 13:0.143 14:0.02 15:0 16:0 17:0.163 18:0 19:0.041 20:0 \n"
"-287.8656858933938 1:0.7 2:0.743 3:0.333 4:0.02 5:0.02 6:0.02 7:0.041 8:0.041 9:0.347 10:0.041 11:0.082 12:0 13:0.122 14:0.061 15:0 16:0.041 17:0.02 18:0.061 19:0.082 20:0 \n"
"-768 1:0.7 2:0.743 3:0.333 4:0 5:0.102 6:0 7:0 8:0.061 9:0.286 10:0.102 11:0.061 12:0.02 13:0 14:0.082 15:0.082 16:0.02 17:0.143 18:0 19:0.041 20:0 \n"
"768 1:0.7 2:0.8 3:0.333 4:0.02 5:0.061 6:0.02 7:0 8:0.041 9:0.367 10:0.02 11:0.143 12:0.02 13:0.041 14:0.041 15:0.041 16:0.02 17:0.082 18:0.061 19:0.02 20:0 \n"
"768 1:0.7 2:0.8 3:0.333 4:0.02 5:0.041 6:0.02 7:0.02 8:0 9:0.265 10:0.122 11:0.163 12:0.02 13:0.122 14:0 15:0 16:0.041 17:0.143 18:0 19:0.02 20:0 \n"
"202.4141446725406 1:0.7 2:0.8 3:0.333 4:0.02 5:0.02 6:0.02 7:0.041 8:0.02 9:0.429 10:0.041 11:0.061 12:0 13:0.041 14:0.041 15:0.061 16:0.041 17:0.082 18:0.041 19:0.041 20:0 \n"
"104.4366424038027 1:0.7 2:0.2 3:0.4 4:0.02 5:0.02 6:0.041 7:0.041 8:0 9:0 10:0.143 11:0 12:0.102 13:0.082 14:0.224 15:0.143 16:0 17:0.02 18:0.163 19:0 20:0 \n"
"-56.02969363568345 1:0.7 2:0.257 3:0.4 4:0.02 5:0 6:0.061 7:0.041 8:0 9:0.02 10:0.102 11:0.041 12:0.102 13:0.122 14:0.265 15:0.041 16:0 17:0.02 18:0.102 19:0.061 20:0 \n"
"24.50232681214872 1:0.7 2:0.257 3:0.4 4:0.02 5:0.041 6:0.061 7:0 8:0.041 9:0.041 10:0.082 11:0.02 12:0.02 13:0.102 14:0.286 15:0.102 16:0.02 17:0 18:0.102 19:0.061 20:0 \n"
"403.9959129441181 1:0.7 2:0.257 3:0.4 4:0.02 5:0.041 6:0.02 7:0.02 8:0.041 9:0.082 10:0.02 11:0.041 12:0.02 13:0.061 14:0.388 15:0.061 16:0.041 17:0 18:0.082 19:0.061 20:0 \n"
"527.6448078156134 1:0.7 2:0.257 3:0.4 4:0 5:0.041 6:0.082 7:0 8:0 9:0.082 10:0.082 11:0 12:0.102 13:0.02 14:0.224 15:0.184 16:0.02 17:0.02 18:0.143 19:0 20:0 \n"
"158.024397374171 1:0.7 2:0.314 3:0.4 4:0 5:0.041 6:0.061 7:0.02 8:0.041 9:0.041 10:0.082 11:0.061 12:0.061 13:0.061 14:0.286 15:0.061 16:0.02 17:0.082 18:0.041 19:0.041 20:0 \n"
"-768 1:0.7 2:0.314 3:0.4 4:0.02 5:0 6:0.082 7:0.02 8:0.041 9:0.122 10:0.02 11:0.02 12:0.041 13:0.061 14:0.306 15:0.082 16:0.02 17:0.041 18:0.061 19:0.061 20:0 \n"
"-69.41836320359002 1:0.7 2:0.314 3:0.4 4:0.02 5:0 6:0.041 7:0.041 8:0 9:0 10:0.204 11:0.02 12:0.082 13:0.163 14:0.204 15:0.041 16:0 17:0.061 18:0.041 19:0.082 20:0 \n"
"-73.62577243503767 1:0.7 2:0.343 3:0.4 4:0 5:0.02 6:0.061 7:0.041 8:0.061 9:0.122 10:0 11:0.061 12:0.041 13:0.041 14:0.306 15:0.082 16:0.02 17:0.041 18:0.102 19:0 20:0 \n"
"-768 1:0.7 2:0.343 3:0.4 4:0.02 5:0.041 6:0.041 7:0.02 8:0.061 9:0.041 10:0.041 11:0.082 12:0 13:0.082 14:0.327 15:0.061 16:0.041 17:0.082 18:0.041 19:0.02 20:0 \n"
"-79.16479101074975 1:0.7 2:0.343 3:0.4 4:0 5:0 6:0.122 7:0 8:0.061 9:0.143 10:0.041 11:0 12:0.041 13:0.082 14:0.245 15:0.102 16:0 17:0.02 18:0.061 19:0.082 20:0 \n"
"-90.81449553599469 1:0.7 2:0.343 3:0.4 4:0 5:0.02 6:0.082 7:0.02 8:0 9:0.02 10:0.143 11:0.082 12:0.082 13:0.143 14:0.224 15:0 16:0.041 17:0.061 18:0 19:0.082 20:0 \n"
"-288.073729284669 1:0.7 2:0.343 3:0.4 4:0 5:0.041 6:0.041 7:0.041 8:0 9:0 10:0.245 11:0 12:0.102 13:0.102 14:0.102 15:0.143 16:0.02 17:0.102 18:0.061 19:0 20:0 \n"
"320.827328805549 1:0.7 2:0.4 3:0.4 4:0 5:0.02 6:0.041 7:0.041 8:0.082 9:0 10:0.143 11:0.061 12:0.041 13:0.204 14:0.122 15:0.061 16:0 17:0.061 18:0.122 19:0 20:0 \n"
"-100.4490655966281 1:0.7 2:0.4 3:0.4 4:0.02 5:0.041 6:0.041 7:0.02 8:0.02 9:0.163 10:0.041 11:0.061 12:0.041 13:0.061 14:0.224 15:0.082 16:0.041 17:0 18:0.122 19:0.02 20:0 \n"
"-219.5226396924746 1:0.7 2:0.4 3:0.4 4:0.02 5:0.061 6:0 7:0.041 8:0 9:0.061 10:0.102 11:0.102 12:0.041 13:0.082 14:0.265 15:0.041 16:0.041 17:0.082 18:0.061 19:0 20:0 \n"
"768 1:0.7 2:0.4 3:0.4 4:0 5:0.041 6:0.041 7:0.041 8:0.02 9:0.102 10:0.061 11:0.082 12:0.102 13:0.041 14:0.224 15:0.061 16:0 17:0.082 18:0.102 19:0 20:0 \n"
"768 1:0.7 2:0.4 3:0.4 4:0 5:0.061 6:0 7:0.041 8:0.082 9:0.082 10:0.041 11:0.082 12:0 13:0.122 14:0.245 15:0.061 16:0.041 17:0 18:0.143 19:0 20:0 \n"
"-387.8975607648953 1:0.7 2:0.4 3:0.4 4:0 5:0.082 6:0 7:0.041 8:0.02 9:0.02 10:0.184 11:0.061 12:0.082 13:0.184 14:0.082 15:0.061 16:0 17:0 18:0.163 19:0.02 20:0 \n"
"-768 1:0.7 2:0.4 3:0.4 4:0 5:0 6:0.082 7:0.041 8:0.082 9:0.102 10:0.082 11:0.02 12:0.041 13:0.082 14:0.163 15:0.122 16:0 17:0.102 18:0.082 19:0 20:0 \n"
"768 1:0.7 2:0.4 3:0.4 4:0.02 5:0 6:0.061 7:0.041 8:0 9:0.143 10:0.143 11:0 12:0.102 13:0.143 14:0.102 15:0.061 16:0 17:0 18:0.102 19:0.082 20:0 \n"
"768 1:0.7 2:0.4 3:0.4 4:0.02 5:0 6:0.082 7:0.02 8:0.082 9:0.163 10:0.02 11:0.02 12:0 13:0.061 14:0.224 15:0.122 16:0.02 17:0.061 18:0.082 19:0.02 20:0 \n"
"-187.6160348108264 1:0.7 2:0.4 3:0.4 4:0 5:0.02 6:0.102 7:0 8:0 9:0.163 10:0.122 11:0 12:0.082 13:0.082 14:0.143 15:0.102 16:0.041 17:0.02 18:0.061 19:0.061 20:0 \n"
"701.0916721406714 1:0.7 2:0.4 3:0.4 4:0 5:0.082 6:0.041 7:0 8:0.061 9:0 10:0.102 11:0.122 12:0.041 13:0.102 14:0.224 15:0.041 16:0.02 17:0.102 18:0.041 19:0.02 20:0 \n"
"-768 1:0.7 2:0.4 3:0.4 4:0 5:0.061 6:0.02 7:0.041 8:0 9:0.143 10:0 11:0.122 12:0.102 13:0.061 14:0.245 15:0.02 16:0.02 17:0.02 18:0.143 19:0 20:0 \n"
"-768 1:0.7 2:0.4 3:0.4 4:0 5:0 6:0.122 7:0 8:0.061 9:0.082 10:0.061 11:0.082 12:0.02 13:0.122 14:0.204 15:0.061 16:0.041 17:0.082 18:0.02 19:0.041 20:0 \n"
"-647.3125581268456 1:0.7 2:0.457 3:0.4 4:0 5:0.02 6:0.082 7:0.02 8:0.02 9:0.184 10:0.082 11:0.02 12:0.082 13:0.102 14:0.082 15:0.122 16:0.02 17:0.02 18:0.122 19:0.02 20:0 \n"
"340.4887679750239 1:0.7 2:0.457 3:0.4 4:0.02 5:0.061 6:0 7:0.041 8:0.041 9:0.204 10:0.061 11:0.02 12:0.041 13:0.041 14:0.224 15:0.061 16:0.02 17:0.02 18:0.082 19:0.061 20:0 \n"
"-768 1:0.7 2:0.457 3:0.4 4:0.02 5:0.082 6:0 7:0.02 8:0.041 9:0.041 10:0.082 11:0.143 12:0.061 13:0.122 14:0.204 15:0 16:0 17:0.082 18:0.102 19:0 20:0 \n"
"-768 1:0.7 2:0.457 3:0.4 4:0 5:0 6:0.082 7:0.041 8:0.082 9:0.163 10:0.02 11:0.061 12:0.041 13:0.02 14:0.224 15:0.082 16:0 17:0.122 18:0.061 19:0 20:0 \n"
"-768 1:0.7 2:0.457 3:0.4 4:0.02 5:0 6:0.061 7:0.041 8:0.082 9:0.102 10:0.061 11:0.082 12:0.02 13:0.204 14:0.143 15:0 16:0 17:0.02 18:0.102 19:0.061 20:0 \n"
"-768 1:0.7 2:0.457 3:0.4 4:0.02 5:0.061 6:0 7:0.041 8:0.082 9:0 10:0.163 11:0.061 12:0.02 13:0.102 14:0.204 15:0.061 16:0 17:0.143 18:0.02 19:0.02 20:0 \n"
"652.0414510724122 1:0.7 2:0.457 3:0.4 4:0 5:0 6:0.102 7:0.02 8:0.082 9:0.204 10:0 11:0.041 12:0 13:0.082 14:0.204 15:0.082 16:0.041 17:0.041 18:0.061 19:0.041 20:0 \n"
"613.7671808816461 1:0.7 2:0.514 3:0.4 4:0.02 5:0.082 6:0 7:0.02 8:0.061 9:0.082 10:0.143 11:0.082 12:0 13:0.082 14:0.163 15:0.082 16:0.041 17:0.122 18:0.02 19:0 20:0 \n"
"-5.917930036906155 1:0.7 2:0.514 3:0.4 4:0 5:0.061 6:0.041 7:0.02 8:0 9:0.122 10:0.224 11:0 12:0.102 13:0.122 14:0 15:0.122 16:0.02 17:0.061 18:0.061 19:0.041 20:0 \n"
"-723.7172872579256 1:0.7 2:0.514 3:0.4 4:0.02 5:0.041 6:0.061 7:0 8:0.041 9:0.102 10:0.102 11:0.122 12:0.02 13:0.163 14:0.143 15:0 16:0.041 17:0.041 18:0.041 19:0.061 20:0 \n"
"768 1:0.7 2:0.514 3:0.4 4:0.02 5:0.061 6:0.02 7:0.02 8:0 9:0.143 10:0.122 11:0.102 12:0.102 13:0.122 14:0.041 15:0.061 16:0 17:0.041 18:0.143 19:0 20:0 \n"
"-768 1:0.7 2:0.514 3:0.4 4:0.02 5:0 6:0.102 7:0 8:0.02 9:0.204 10:0.102 11:0.041 12:0.041 13:0.122 14:0.102 15:0.061 16:0.041 17:0.041 18:0.02 19:0.082 20:0 \n"
"645.9541842070578 1:0.7 2:0.514 3:0.4 4:0 5:0.02 6:0.102 7:0 8:0.061 9:0.041 10:0.143 11:0.122 12:0.061 13:0.204 14:0.061 15:0 16:0 17:0.102 18:0.02 19:0.061 20:0 \n"
"194.5927859469788 1:0.7 2:0.514 3:0.4 4:0 5:0.061 6:0.02 7:0.041 8:0.102 9:0.102 10:0.061 11:0.102 12:0 13:0.041 14:0.245 15:0.041 16:0.02 17:0.143 18:0.02 19:0 20:0 \n"
"24.97505010523815 1:0.7 2:0.514 3:0.4 4:0.02 5:0.061 6:0.041 7:0 8:0.082 9:0.082 10:0.122 11:0.061 12:0.02 13:0.204 14:0.041 15:0.082 16:0 17:0.02 18:0.143 19:0.02 20:0 \n"
"496.9304640972443 1:0.7 2:0.514 3:0.4 4:0 5:0.102 6:0 7:0.02 8:0.102 9:0.122 10:0.122 11:0.02 12:0.02 13:0.041 14:0.122 15:0.143 16:0 17:0.102 18:0.082 19:0 20:0 \n"
"-396.1393275724594 1:0.7 2:0.514 3:0.4 4:0.02 5:0 6:0.102 7:0 8:0.061 9:0.224 10:0.02 11:0.041 12:0 13:0.122 14:0.122 15:0.102 16:0.041 17:0.02 18:0.082 19:0.041 20:0 \n"
"768 1:0.7 2:0.514 3:0.4 4:0 5:0.02 6:0.102 7:0 8:0.061 9:0.102 10:0.163 11:0.041 12:0.041 13:0.143 14:0.02 15:0.122 16:0 17:0.102 18:0.061 19:0.02 20:0 \n"
"-381.3995935618787 1:0.7 2:0.514 3:0.4 4:0.02 5:0.02 6:0.082 7:0 8:0 9:0.204 10:0.143 11:0 12:0.061 13:0.122 14:0.02 15:0.143 16:0.041 17:0.02 18:0.082 19:0.041 20:0 \n"
"-768 1:0.7 2:0.514 3:0.4 4:0 5:0.102 6:0 7:0.02 8:0.02 9:0.184 10:0.061 11:0.102 12:0.041 13:0.02 14:0.224 15:0.041 16:0.041 17:0.061 18:0.061 19:0.02 20:0 \n"
"768 1:0.7 2:0.514 3:0.4 4:0.02 5:0.041 6:0.02 7:0.041 8:0.082 9:0.224 10:0.041 11:0.02 12:0.02 13:0.102 14:0.143 15:0.061 16:0 17:0 18:0.122 19:0.061 20:0 \n"
"768 1:0.7 2:0.543 3:0.4 4:0 5:0 6:0.082 7:0.041 8:0.061 9:0.204 10:0.061 11:0.061 12:0.041 13:0.102 14:0.143 15:0.02 16:0 17:0.082 18:0.041 19:0.061 20:0 \n"
"-768 1:0.7 2:0.543 3:0.4 4:0 5:0.082 6:0.041 7:0 8:0.102 9:0.143 10:0.041 11:0.102 12:0 13:0.102 14:0.143 15:0.061 16:0 17:0.061 18:0.102 19:0.02 20:0 \n"
"-71.41566233909042 1:0.7 2:0.543 3:0.4 4:0.02 5:0.02 6:0.082 7:0 8:0.041 9:0.143 10:0.143 11:0.061 12:0.02 13:0.184 14:0.061 15:0.041 16:0.041 17:0.041 18:0.02 19:0.082 20:0 \n"
"768 1:0.7 2:0.543 3:0.4 4:0 5:0.041 6:0.041 7:0.041 8:0.061 9:0.245 10:0.041 11:0.041 12:0.02 13:0.061 14:0.143 15:0.082 16:0.041 17:0.041 18:0.082 19:0.02 20:0 \n"
"154.1290956992925 1:0.7 2:0.543 3:0.4 4:0 5:0.061 6:0.061 7:0 8:0.041 9:0.143 10:0.184 11:0.02 12:0.082 13:0.041 14:0.041 15:0.143 16:0 17:0.143 18:0.041 19:0 20:0 \n"
"-768 1:0.7 2:0.543 3:0.4 4:0.02 5:0 6:0.082 7:0.02 8:0.102 9:0.102 10:0.163 11:0.02 12:0 13:0.143 14:0.061 15:0.102 16:0 17:0.143 18:0.02 19:0.02 20:0 \n"
"-768 1:0.7 2:0.543 3:0.4 4:0 5:0.082 6:0.02 7:0.02 8:0.041 9:0.041 10:0.143 11:0.143 12:0.061 13:0.184 14:0.082 15:0 16:0.02 17:0.082 18:0.061 19:0.02 20:0 \n"
"768 1:0.7 2:0.543 3:0.4 4:0 5:0.041 6:0.061 7:0.02 8:0.02 9:0.163 10:0.143 11:0.061 12:0.082 13:0.02 14:0.122 15:0.082 16:0 17:0.163 18:0 19:0.02 20:0 \n"
"768 1:0.7 2:0.543 3:0.4 4:0.02 5:0.102 6:0 7:0 8:0 9:0.224 10:0.082 11:0.082 12:0.082 13:0.02 14:0.122 15:0.082 16:0.02 17:0.041 18:0.102 19:0.02 20:0 \n"
"-768 1:0.7 2:0.543 3:0.4 4:0.02 5:0.02 6:0.082 7:0 8:0.02 9:0.224 10:0.082 11:0.061 12:0.061 13:0.082 14:0.061 15:0.102 16:0.02 17:0.041 18:0.102 19:0.02 20:0 \n"
"768 1:0.7 2:0.543 3:0.4 4:0.02 5:0 6:0.061 7:0.041 8:0.082 9:0.082 10:0.122 11:0.082 12:0 13:0.184 14:0.122 15:0.02 16:0.02 17:0.122 18:0 19:0.041 20:0 \n"
"-0.546551629289489 1:0.7 2:0.543 3:0.4 4:0 5:0.041 6:0.041 7:0.041 8:0.082 9:0.163 10:0.082 11:0.041 12:0 13:0.184 14:0.122 15:0.02 16:0.041 17:0 18:0.061 19:0.082 20:0 \n"
"532.2377781393293 1:0.7 2:0.543 3:0.4 4:0 5:0.082 6:0.041 7:0 8:0.102 9:0.102 10:0.143 11:0.041 12:0.02 13:0.041 14:0.143 15:0.102 16:0 17:0.143 18:0 19:0.041 20:0 \n"
"190.2975844879195 1:0.7 2:0.543 3:0.4 4:0.02 5:0.02 6:0.041 7:0.041 8:0.02 9:0.082 10:0.143 11:0.143 12:0.041 13:0.265 14:0 15:0 16:0.041 17:0.02 18:0.122 19:0 20:0 \n"
"28.95399446936558 1:0.7 2:0.543 3:0.4 4:0.02 5:0.041 6:0 7:0.041 8:0.02 9:0.061 10:0.163 11:0.143 12:0.082 13:0.122 14:0.122 15:0 16:0 17:0.163 18:0.02 19:0 20:0 \n"
"768 1:0.7 2:0.543 3:0.4 4:0.02 5:0.041 6:0.02 7:0.041 8:0.061 9:0.061 10:0.163 11:0.082 12:0 13:0.265 14:0.061 15:0 16:0.02 17:0.02 18:0.082 19:0.061 20:0 \n"
"-2.234293072054841 1:0.7 2:0.543 3:0.4 4:0 5:0.061 6:0.02 7:0.041 8:0.102 9:0.122 10:0.122 11:0.041 12:0.02 13:0.204 14:0.02 15:0.061 16:0 17:0 18:0.143 19:0.041 20:0 \n"
"360.3544052381619 1:0.7 2:0.543 3:0.4 4:0.02 5:0 6:0.061 7:0.02 8:0.041 9:0.163 10:0.082 11:0.102 12:0.041 13:0.224 14:0.02 15:0.041 16:0.02 17:0 18:0.143 19:0.02 20:0 \n"
"768 1:0.7 2:0.543 3:0.4 4:0.02 5:0.082 6:0 7:0.02 8:0.082 9:0.02 10:0.143 11:0.122 12:0 13:0.224 14:0.061 15:0.041 16:0.02 17:0.041 18:0.122 19:0 20:0 \n"
"682.7252993925737 1:0.7 2:0.543 3:0.4 4:0 5:0.061 6:0.061 7:0 8:0.041 9:0.143 10:0.163 11:0.02 12:0.082 13:0.102 14:0 15:0.143 16:0 17:0.061 18:0.102 19:0.02 20:0 \n"
"745.5253868115512 1:0.7 2:0.6 3:0.4 4:0 5:0.061 6:0.061 7:0 8:0.061 9:0.204 10:0.02 11:0.122 12:0.02 13:0.143 14:0.102 15:0.02 16:0.041 17:0 18:0.102 19:0.041 20:0 \n"
"-768 1:0.7 2:0.6 3:0.4 4:0.02 5:0.102 6:0 7:0 8:0.082 9:0.163 10:0.143 11:0.02 12:0 13:0.143 14:0.02 15:0.122 16:0.02 17:0.02 18:0.122 19:0.02 20:0 \n"
"510.0559388053548 1:0.7 2:0.6 3:0.4 4:0 5:0.041 6:0.02 7:0.041 8:0.122 9:0.204 10:0.061 11:0.041 12:0 13:0.102 14:0.102 15:0.082 16:0 17:0.061 18:0.102 19:0.02 20:0 \n"
"-768 1:0.7 2:0.6 3:0.4 4:0.02 5:0.02 6:0.061 7:0.02 8:0.102 9:0.184 10:0.143 11:0 12:0 13:0.082 14:0.061 15:0.122 16:0 17:0.143 18:0 19:0.041 20:0 \n"
"-768 1:0.7 2:0.6 3:0.4 4:0 5:0.082 6:0.02 7:0.02 8:0.102 9:0.163 10:0.061 11:0.082 12:0.02 13:0.102 14:0.163 15:0 16:0 17:0.061 18:0.041 19:0.082 20:0 \n"
"768 1:0.7 2:0.6 3:0.4 4:0 5:0.041 6:0.082 7:0 8:0.041 9:0.286 10:0.02 11:0.082 12:0.041 13:0.082 14:0.061 15:0.082 16:0.041 17:0.02 18:0.122 19:0 20:0 \n"
"-768 1:0.7 2:0.6 3:0.4 4:0 5:0.041 6:0.082 7:0 8:0.061 9:0.163 10:0.041 11:0.163 12:0.061 13:0.122 14:0.061 15:0.02 16:0 17:0.102 18:0.082 19:0 20:0 \n"
"768 1:0.7 2:0.6 3:0.4 4:0 5:0.02 6:0.061 7:0.041 8:0.102 9:0.265 10:0.041 11:0.02 12:0 13:0.082 14:0.143 15:0.041 16:0.02 17:0.061 18:0.041 19:0.061 20:0 \n"
"-768 1:0.7 2:0.6 3:0.4 4:0.02 5:0.061 6:0 7:0.041 8:0.102 9:0.041 10:0.184 11:0.082 12:0 13:0.204 14:0.02 15:0.061 16:0 17:0.122 18:0.061 19:0 20:0 \n"
"-768 1:0.7 2:0.6 3:0.4 4:0.02 5:0 6:0.061 7:0.041 8:0.041 9:0.224 10:0.102 11:0.061 12:0.041 13:0.02 14:0.122 15:0.082 16:0 17:0.184 18:0 19:0 20:0 \n"
"-447.6076257975783 1:0.7 2:0.6 3:0.4 4:0.02 5:0.061 6:0.041 7:0 8:0.082 9:0.265 10:0.082 11:0 12:0 13:0.102 14:0.041 15:0.122 16:0.02 17:0 18:0.102 19:0.061 20:0 \n"
"768 1:0.7 2:0.6 3:0.4 4:0 5:0.061 6:0.041 7:0.02 8:0.102 9:0.122 10:0.143 11:0.041 12:0 13:0.224 14:0 15:0.061 16:0.02 17:0.02 18:0.102 19:0.041 20:0 \n"
"768 1:0.7 2:0.6 3:0.4 4:0 5:0 6:0.082 7:0.041 8:0.082 9:0.204 10:0.102 11:0.041 12:0 13:0.143 14:0.102 15:0.02 16:0.041 17:0.082 18:0 19:0.061 20:0 \n"
"-768 1:0.7 2:0.657 3:0.4 4:0 5:0.082 6:0.02 7:0.02 8:0.061 9:0.163 10:0.143 11:0.102 12:0.02 13:0.122 14:0.061 15:0.02 16:0.041 17:0.082 18:0.02 19:0.041 20:0 \n"
"-768 1:0.7 2:0.657 3:0.4 4:0.02 5:0.061 6:0.02 7:0.02 8:0.02 9:0.286 10:0.102 11:0.041 12:0.061 13:0.102 14:0.02 15:0.061 16:0.02 17:0.02 18:0.102 19:0.041 20:0 \n"
"-565.4604236932149 1:0.7 2:0.657 3:0.4 4:0.02 5:0.041 6:0.02 7:0.041 8:0.082 9:0.204 10:0.102 11:0.061 12:0 13:0.163 14:0.02 15:0.061 16:0.02 17:0.061 18:0.102 19:0 20:0 \n"
"453.5819141790336 1:0.7 2:0.657 3:0.4 4:0.02 5:0.082 6:0 7:0.02 8:0.041 9:0.224 10:0.082 11:0.102 12:0.041 13:0.02 14:0.122 15:0.061 16:0.02 17:0.143 18:0.02 19:0 20:0 \n"
"768 1:0.7 2:0.657 3:0.4 4:0 5:0.061 6:0.041 7:0.02 8:0.122 9:0.224 10:0.102 11:0 12:0 13:0.102 14:0.041 15:0.102 16:0 17:0.061 18:0.061 19:0.061 20:0 \n"
"-768 1:0.7 2:0.657 3:0.4 4:0.02 5:0 6:0.061 7:0.041 8:0.041 9:0.286 10:0.122 11:0.02 12:0.02 13:0.122 14:0.041 15:0.041 16:0.02 17:0.061 18:0.02 19:0.082 20:0 \n"
"768 1:0.7 2:0.657 3:0.4 4:0.02 5:0.041 6:0.02 7:0.041 8:0.041 9:0.286 10:0.122 11:0.02 12:0.041 13:0.02 14:0.061 15:0.102 16:0.02 17:0.102 18:0.041 19:0.02 20:0 \n"
"33.92054687556136 1:0.7 2:0.657 3:0.4 4:0 5:0.122 6:0 7:0 8:0.102 9:0.102 10:0.163 11:0.082 12:0.02 13:0.102 14:0.061 15:0.061 16:0 17:0.143 18:0.02 19:0.02 20:0 \n"
"768 1:0.7 2:0.657 3:0.4 4:0 5:0.061 6:0.02 7:0.041 8:0.041 9:0.143 10:0.224 11:0.041 12:0.041 13:0.122 14:0 15:0.082 16:0.041 17:0.143 18:0 19:0 20:0 \n"
"-558.9264749100435 1:0.7 2:0.657 3:0.4 4:0 5:0.02 6:0.061 7:0.041 8:0.082 9:0.265 10:0.041 11:0.061 12:0 13:0.184 14:0.061 15:0 16:0.02 17:0 18:0.082 19:0.082 20:0 \n"
"-768 1:0.7 2:0.657 3:0.4 4:0.02 5:0.082 6:0 7:0.02 8:0.02 9:0.082 10:0.224 11:0.122 12:0.041 13:0.184 14:0.02 15:0 16:0.02 17:0.122 18:0 19:0.041 20:0 \n"
"768 1:0.7 2:0.657 3:0.4 4:0 5:0.102 6:0.02 7:0 8:0.122 9:0.245 10:0.02 11:0.082 12:0 13:0.041 14:0.122 15:0.061 16:0 17:0.082 18:0.061 19:0.041 20:0 \n"
"768 1:0.7 2:0.657 3:0.4 4:0 5:0.061 6:0.061 7:0 8:0.041 9:0.245 10:0.02 11:0.163 12:0.061 13:0.041 14:0.102 15:0.02 16:0.02 17:0.122 18:0.041 19:0 20:0 \n"
"768 1:0.7 2:0.714 3:0.4 4:0.02 5:0.061 6:0 7:0.041 8:0.061 9:0.265 10:0.122 11:0.041 12:0.02 13:0.122 14:0.02 15:0.041 16:0.02 17:0.061 18:0.061 19:0.041 20:0 \n"
"768 1:0.7 2:0.714 3:0.4 4:0.02 5:0.02 6:0.041 7:0.041 8:0.061 9:0.265 10:0.122 11:0.061 12:0.02 13:0.061 14:0.041 15:0.061 16:0.02 17:0.143 18:0 19:0.02 20:0 \n"
"768 1:0.7 2:0.714 3:0.4 4:0 5:0.082 6:0.02 7:0.02 8:0.082 9:0.265 10:0.041 11:0.122 12:0.02 13:0.061 14:0.102 15:0 16:0.02 17:0.082 18:0.041 19:0.041 20:0 \n"
"-768 1:0.7 2:0.714 3:0.4 4:0 5:0.102 6:0.02 7:0 8:0.061 9:0.184 10:0.143 11:0.102 12:0.041 13:0.143 14:0.02 15:0 16:0.02 17:0.061 18:0.02 19:0.082 20:0 \n"
"-347.5531318061269 1:0.7 2:0.714 3:0.4 4:0 5:0.02 6:0.061 7:0.041 8:0.041 9:0.306 10:0.061 11:0.082 12:0.041 13:0.122 14:0.041 15:0 16:0.041 17:0.041 18:0.041 19:0.061 20:0 \n"
"-628.12208309529 1:0.7 2:0.714 3:0.4 4:0.02 5:0.041 6:0.041 7:0.02 8:0.082 9:0.204 10:0.163 11:0.041 12:0 13:0.163 14:0 15:0.041 16:0 17:0.102 18:0 19:0.082 20:0 \n"
"-270.9433831985133 1:0.7 2:0.714 3:0.4 4:0.02 5:0.102 6:0 7:0 8:0.041 9:0.184 10:0.122 11:0.163 12:0.041 13:0.041 14:0.082 15:0.02 16:0 17:0.184 18:0 19:0 20:0 \n"
"-768 1:0.7 2:0.714 3:0.4 4:0.02 5:0.02 6:0.061 7:0.02 8:0.02 9:0.347 10:0 11:0.143 12:0.061 13:0.041 14:0.061 15:0.02 16:0.02 17:0.082 18:0.082 19:0 20:0 \n"
"768 1:0.7 2:0.714 3:0.4 4:0 5:0.102 6:0.02 7:0 8:0.082 9:0.163 10:0.061 11:0.184 12:0 13:0.122 14:0.082 15:0 16:0.041 17:0.102 18:0.041 19:0 20:0 \n"
"768 1:0.7 2:0.714 3:0.4 4:0.02 5:0.082 6:0 7:0.02 8:0.102 9:0.082 10:0.204 11:0.102 12:0 13:0.163 14:0 15:0.041 16:0 17:0.163 18:0 19:0.02 20:0 \n"
"768 1:0.7 2:0.714 3:0.4 4:0 5:0.102 6:0.02 7:0 8:0.102 9:0.224 10:0.061 11:0.102 12:0 13:0.143 14:0.061 15:0 16:0.02 17:0.02 18:0.061 19:0.082 20:0 \n"
"-617.1475272995056 1:0.7 2:0.714 3:0.4 4:0 5:0.122 6:0 7:0 8:0.082 9:0.286 10:0.041 11:0.082 12:0 13:0.061 14:0.061 15:0.082 16:0.041 17:0.041 18:0.082 19:0.02 20:0 \n"
"-768 1:0.7 2:0.714 3:0.4 4:0 5:0.061 6:0.041 7:0.02 8:0.102 9:0.306 10:0.082 11:0.02 12:0.02 13:0.041 14:0.082 15:0.041 16:0 17:0.102 18:0 19:0.082 20:0 \n"
"768 1:0.7 2:0.714 3:0.4 4:0 5:0.102 6:0 7:0.02 8:0.02 9:0.306 10:0.102 11:0.082 12:0.061 13:0.082 14:0.041 15:0 16:0.041 17:0 18:0.061 19:0.082 20:0 \n"
"-725.2439955146272 1:0.7 2:0.714 3:0.4 4:0.02 5:0 6:0.041 7:0.041 8:0.02 9:0.327 10:0.082 11:0.082 12:0.061 13:0.082 14:0 15:0.061 16:0.02 17:0.082 18:0.082 19:0 20:0 \n"
"66.04672708584232 1:0.7 2:0.714 3:0.4 4:0 5:0.041 6:0.041 7:0.041 8:0.122 9:0.245 10:0.082 11:0.041 12:0 13:0.143 14:0.061 15:0 16:0 17:0.082 18:0.02 19:0.082 20:0 \n"
"-768 1:0.7 2:0.743 3:0.4 4:0 5:0.102 6:0 7:0.02 8:0.041 9:0.306 10:0.122 11:0.061 12:0.041 13:0 14:0.061 15:0.061 16:0.041 17:0.122 18:0 19:0.02 20:0 \n"
"-768 1:0.7 2:0.8 3:0.4 4:0.02 5:0.061 6:0.02 7:0.02 8:0.02 9:0.286 10:0.122 11:0.122 12:0.041 13:0.061 14:0 15:0.041 16:0.041 17:0.143 18:0 19:0 20:0 \n"
"-350.5914918667044 1:0.7 2:0.8 3:0.4 4:0 5:0.061 6:0.041 7:0.02 8:0.122 9:0.306 10:0 11:0.122 12:0 13:0.122 14:0.02 15:0 16:0 17:0.082 18:0.061 19:0.041 20:0 \n"
"768 1:0.7 2:0.8 3:0.4 4:0.02 5:0.02 6:0.041 7:0.041 8:0.061 9:0.449 10:0.041 11:0.02 12:0 13:0.041 14:0.02 15:0.061 16:0.041 17:0.041 18:0.041 19:0.061 20:0 \n"
"768 1:0.7 2:0.2 3:0.467 4:0 5:0 6:0.143 7:0 8:0.02 9:0.041 10:0.02 11:0.041 12:0.102 13:0.041 14:0.306 15:0.122 16:0.02 17:0.041 18:0.102 19:0 20:0 \n"
"768 1:0.7 2:0.2 3:0.467 4:0.02 5:0 6:0.122 7:0 8:0.02 9:0 10:0.122 11:0 12:0.102 13:0.143 14:0.143 15:0.163 16:0 17:0 18:0.163 19:0 20:0 \n"
"-184.7821465587712 1:0.7 2:0.257 3:0.467 4:0.041 5:0 6:0.061 7:0.041 8:0.041 9:0.02 10:0.082 11:0.041 12:0.041 13:0.082 14:0.347 15:0.041 16:0.02 17:0.061 18:0.041 19:0.041 20:0 \n"
"47.79881384952494 1:0.7 2:0.257 3:0.467 4:0 5:0.041 6:0.102 7:0 8:0.02 9:0.061 10:0.041 11:0.041 12:0.122 13:0.041 14:0.306 15:0.061 16:0 17:0.02 18:0.082 19:0.061 20:0 \n"
"-71.31917863172039 1:0.7 2:0.314 3:0.467 4:0 5:0 6:0.143 7:0 8:0.061 9:0.041 10:0.082 11:0.041 12:0.082 13:0.122 14:0.143 15:0.122 16:0 17:0.061 18:0.102 19:0 20:0 \n"
"-724.6750208050217 1:0.7 2:0.314 3:0.467 4:0 5:0.061 6:0.041 7:0.041 8:0.02 9:0.082 10:0.041 11:0.061 12:0.061 13:0.061 14:0.327 15:0.041 16:0.041 17:0.02 18:0.082 19:0.02 20:0 \n"
"-376.3809193742346 1:0.7 2:0.314 3:0.467 4:0 5:0.061 6:0.082 7:0 8:0 9:0.061 10:0.061 11:0.082 12:0.143 13:0.041 14:0.265 15:0.041 16:0 17:0.061 18:0.082 19:0.02 20:0 \n"
"-102.3083897874938 1:0.7 2:0.314 3:0.467 4:0 5:0.02 6:0.122 7:0 8:0 9:0.02 10:0.204 11:0 12:0.122 13:0.102 14:0.102 15:0.163 16:0.02 17:0.082 18:0.041 19:0 20:0 \n"
"-136.6171772296747 1:0.7 2:0.314 3:0.467 4:0.041 5:0.041 6:0.02 7:0.041 8:0 9:0.082 10:0.082 11:0.061 12:0.102 13:0 14:0.347 15:0.02 16:0 17:0.082 18:0.041 19:0.041 20:0 \n"
"-768 1:0.7 2:0.314 3:0.467 4:0.02 5:0.061 6:0.041 7:0.02 8:0.061 9:0.122 10:0.02 11:0.02 12:0.061 13:0 14:0.306 15:0.102 16:0 17:0.02 18:0.122 19:0.02 20:0 \n"
"-646.8939847328433 1:0.7 2:0.343 3:0.467 4:0.041 5:0 6:0.102 7:0 8:0 9:0.122 10:0.061 11:0.061 12:0.082 13:0.041 14:0.224 15:0.102 16:0.02 17:0.082 18:0.061 19:0 20:0 \n"
"-768 1:0.7 2:0.343 3:0.467 4:0 5:0.02 6:0.122 7:0 8:0.02 9:0.102 10:0.102 11:0 12:0.122 13:0.041 14:0.143 15:0.163 16:0 17:0.082 18:0.082 19:0 20:0 \n"
"768 1:0.7 2:0.343 3:0.467 4:0.041 5:0 6:0.061 7:0.041 8:0 9:0.102 10:0.041 11:0.082 12:0.082 13:0.061 14:0.306 15:0.02 16:0.02 17:0.082 18:0.061 19:0 20:0 \n"
"-13.02992364016843 1:0.7 2:0.4 3:0.467 4:0.041 5:0 6:0.082 7:0.02 8:0 9:0.082 10:0.163 11:0.041 12:0.082 13:0.122 14:0.184 15:0.041 16:0 17:0.082 18:0 19:0.061 20:0 \n"
"768 1:0.7 2:0.4 3:0.467 4:0 5:0.041 6:0.102 7:0 8:0.061 9:0.143 10:0.082 11:0 12:0.061 13:0.041 14:0.204 15:0.102 16:0.02 17:0.061 18:0.02 19:0.061 20:0 \n"
"-284.5756711029021 1:0.7 2:0.4 3:0.467 4:0.02 5:0.041 6:0.061 7:0.02 8:0.082 9:0.041 10:0.143 11:0.02 12:0.02 13:0.204 14:0.082 15:0.102 16:0.02 17:0 18:0.122 19:0.02 20:0 \n"
"768 1:0.7 2:0.4 3:0.467 4:0.041 5:0.082 6:0 7:0.02 8:0 9:0.041 10:0.204 11:0.02 12:0.082 13:0.102 14:0.163 15:0.082 16:0.02 17:0.041 18:0.061 19:0.041 20:0 \n"
"-768 1:0.7 2:0.4 3:0.467 4:0.02 5:0.02 6:0.061 7:0.041 8:0 9:0.143 10:0.122 11:0.02 12:0.122 13:0.061 14:0.184 15:0.041 16:0 17:0.061 18:0.061 19:0.041 20:0 \n"
"489.4664460377759 1:0.7 2:0.4 3:0.467 4:0.02 5:0 6:0.122 7:0 8:0.082 9:0.163 10:0 11:0.041 12:0.02 13:0.082 14:0.245 15:0.061 16:0 17:0.041 18:0.061 19:0.061 20:0 \n"
"-258.9708425394808 1:0.7 2:0.4 3:0.467 4:0.041 5:0.02 6:0.082 7:0 8:0 9:0.122 10:0.143 11:0.02 12:0.061 13:0.041 14:0.163 15:0.143 16:0.02 17:0.102 18:0.041 19:0 20:0 \n"
"-768 1:0.7 2:0.4 3:0.467 4:0 5:0.082 6:0.061 7:0 8:0 9:0.143 10:0.102 11:0.041 12:0.122 13:0 14:0.184 15:0.102 16:0.02 17:0.061 18:0.082 19:0 20:0 \n"
"768 1:0.7 2:0.4 3:0.467 4:0 5:0.082 6:0.02 7:0.041 8:0.082 9:0 10:0.204 11:0 12:0.061 13:0.163 14:0.122 15:0.061 16:0 17:0.041 18:0.061 19:0.061 20:0 \n"
"768 1:0.7 2:0.457 3:0.467 4:0 5:0.102 6:0.02 7:0.02 8:0.061 9:0.082 10:0.122 11:0.041 12:0.061 13:0.082 14:0.224 15:0.02 16:0.02 17:0.061 18:0.02 19:0.061 20:0 \n"
"242.8495666007419 1:0.7 2:0.457 3:0.467 4:0.02 5:0.082 6:0.041 7:0 8:0.041 9:0.163 10:0.041 11:0.061 12:0.041 13:0.061 14:0.204 15:0.082 16:0.041 17:0 18:0.102 19:0.02 20:0 \n"
"768 1:0.7 2:0.457 3:0.467 4:0 5:0.102 6:0 7:0.041 8:0.061 9:0.102 10:0.061 11:0.102 12:0.082 13:0.061 14:0.204 15:0.02 16:0 17:0.061 18:0.102 19:0 20:0 \n"
"258.2767184357277 1:0.7 2:0.457 3:0.467 4:0.02 5:0.02 6:0.102 7:0 8:0.061 9:0.061 10:0.102 11:0.082 12:0.061 13:0.245 14:0.082 15:0 16:0 17:0 18:0.102 19:0.061 20:0 \n"
"-638.7782611726074 1:0.7 2:0.457 3:0.467 4:0.041 5:0.02 6:0.041 7:0.041 8:0.02 9:0.061 10:0.224 11:0.02 12:0.082 13:0.204 14:0.041 15:0.041 16:0 17:0.041 18:0.082 19:0.041 20:0 \n"
"-768 1:0.7 2:0.457 3:0.467 4:0 5:0.041 6:0.102 7:0 8:0.082 9:0 10:0.163 11:0.082 12:0.041 13:0.245 14:0.02 15:0.061 16:0.02 17:0.041 18:0.102 19:0 20:0 \n"
"-592.7084231907614 1:0.7 2:0.457 3:0.467 4:0.041 5:0.041 6:0.041 7:0.02 8:0.02 9:0.184 10:0 11:0.122 12:0.041 13:0.082 14:0.245 15:0 16:0.02 17:0.02 18:0.102 19:0.02 20:0 \n"
"-768 1:0.7 2:0.457 3:0.467 4:0 5:0.082 6:0.041 7:0.02 8:0.02 9:0.204 10:0 11:0.102 12:0.102 13:0 14:0.265 15:0.02 16:0.02 17:0.041 18:0.061 19:0.02 20:0 \n"
"-139.4361699651672 1:0.7 2:0.457 3:0.467 4:0 5:0.041 6:0.061 7:0.041 8:0.02 9:0.143 10:0.143 11:0.02 12:0.102 13:0.061 14:0.184 15:0.02 16:0.02 17:0.082 18:0 19:0.061 20:0 \n"
"768 1:0.7 2:0.514 3:0.467 4:0.02 5:0.061 6:0.061 7:0 8:0.041 9:0.204 10:0.082 11:0.041 12:0.041 13:0 14:0.163 15:0.122 16:0.02 17:0.102 18:0.041 19:0 20:0 \n"
"768 1:0.7 2:0.514 3:0.467 4:0.041 5:0.041 6:0.041 7:0.02 8:0.041 9:0.245 10:0.082 11:0 12:0.061 13:0.061 14:0.122 15:0.082 16:0 17:0.02 18:0.082 19:0.061 20:0 \n"
"-768 1:0.7 2:0.514 3:0.467 4:0.041 5:0.061 6:0 7:0.041 8:0.02 9:0.102 10:0.163 11:0.061 12:0.02 13:0.082 14:0.184 15:0.061 16:0.041 17:0.122 18:0 19:0 20:0 \n"
"-768 1:0.7 2:0.514 3:0.467 4:0 5:0.102 6:0 7:0.041 8:0.102 9:0.163 10:0.082 11:0 12:0.02 13:0.102 14:0.163 15:0.061 16:0.02 17:0 18:0.082 19:0.061 20:0 \n"
"768 1:0.7 2:0.514 3:0.467 4:0.02 5:0.061 6:0.041 7:0.02 8:0.02 9:0.224 10:0.041 11:0.082 12:0.061 13:0.041 14:0.163 15:0.061 16:0.041 17:0.041 18:0.082 19:0 20:0 \n"
"-719.7367468035736 1:0.7 2:0.514 3:0.467 4:0.041 5:0.082 6:0 7:0.02 8:0.02 9:0.163 10:0.082 11:0.102 12:0.041 13:0.082 14:0.204 15:0 16:0.041 17:0.041 18:0.061 19:0.02 20:0 \n"
"-768 1:0.7 2:0.514 3:0.467 4:0.02 5:0.082 6:0 7:0.041 8:0.102 9:0.041 10:0.082 11:0.122 12:0.02 13:0.143 14:0.184 15:0 16:0 17:0.102 18:0.061 19:0 20:0 \n"
"-768 1:0.7 2:0.514 3:0.467 4:0 5:0 6:0.102 7:0.041 8:0.061 9:0.224 10:0.041 11:0.02 12:0.061 13:0.143 14:0.102 15:0.041 16:0.02 17:0 18:0.082 19:0.061 20:0 \n"
"-436.9831783228614 1:0.7 2:0.514 3:0.467 4:0 5:0.122 6:0 7:0.02 8:0 9:0.061 10:0.245 11:0.041 12:0.102 13:0.082 14:0.061 15:0.102 16:0.041 17:0.102 18:0.02 19:0 20:0 \n"
"655.3590562024203 1:0.7 2:0.514 3:0.467 4:0 5:0 6:0.102 7:0.041 8:0.082 9:0.184 10:0.102 11:0 12:0.02 13:0.163 14:0.041 15:0.122 16:0.041 17:0.02 18:0.082 19:0 20:0 \n"
"768 1:0.7 2:0.514 3:0.467 4:0.02 5:0.102 6:0 7:0.02 8:0.102 9:0.143 10:0.061 11:0.041 12:0 13:0.041 14:0.245 15:0.061 16:0.02 17:0.082 18:0.041 19:0.02 20:0 \n"
"312.6706614975726 1:0.7 2:0.543 3:0.467 4:0.041 5:0.082 6:0 7:0.02 8:0.041 9:0.184 10:0.122 11:0.02 12:0.02 13:0.02 14:0.184 15:0.102 16:0.02 17:0.102 18:0.02 19:0.02 20:0 \n"
"-768 1:0.7 2:0.543 3:0.467 4:0.02 5:0.102 6:0.02 7:0 8:0.082 9:0.041 10:0.184 11:0.061 12:0 13:0.143 14:0.102 15:0.082 16:0.041 17:0.102 18:0 19:0.02 20:0 \n"
"-68.0260358983039 1:0.7 2:0.543 3:0.467 4:0.041 5:0.041 6:0.041 7:0.02 8:0.02 9:0.122 10:0.122 11:0.122 12:0.061 13:0.163 14:0.061 15:0.02 16:0 17:0.061 18:0.102 19:0 20:0 \n"
"-768 1:0.7 2:0.543 3:0.467 4:0.02 5:0.041 6:0.041 7:0.041 8:0.102 9:0.204 10:0.041 11:0.02 12:0 13:0.122 14:0.163 15:0.041 16:0.02 17:0.02 18:0.061 19:0.061 20:0 \n"
"768 1:0.7 2:0.543 3:0.467 4:0.02 5:0.041 6:0.061 7:0.02 8:0.02 9:0.224 10:0.122 11:0.02 12:0.082 13:0.02 14:0.082 15:0.122 16:0.02 17:0.102 18:0.041 19:0 20:0 \n"
"-768 1:0.7 2:0.543 3:0.467 4:0.02 5:0 6:0.102 7:0.02 8:0.082 9:0.224 10:0.02 11:0.061 12:0.041 13:0.041 14:0.163 15:0.061 16:0 17:0.122 18:0.02 19:0.02 20:0 \n"
"327.9873250937828 1:0.7 2:0.543 3:0.467 4:0.041 5:0.082 6:0 7:0.02 8:0.041 9:0.204 10:0.041 11:0.102 12:0.041 13:0.061 14:0.184 15:0.02 16:0.02 17:0.041 18:0.102 19:0 20:0 \n"
"31.30828671546819 1:0.7 2:0.543 3:0.467 4:0.02 5:0.02 6:0.102 7:0 8:0.061 9:0 10:0.204 11:0.102 12:0.041 13:0.245 14:0.02 15:0.02 16:0 17:0.122 18:0 19:0.041 20:0 \n"
"-768 1:0.7 2:0.543 3:0.467 4:0 5:0.061 6:0.082 7:0 8:0.061 9:0.265 10:0.041 11:0.02 12:0.082 13:0.041 14:0.102 15:0.082 16:0 17:0.02 18:0.102 19:0.041 20:0 \n"
"768 1:0.7 2:0.6 3:0.467 4:0 5:0.082 6:0.02 7:0.041 8:0.041 9:0.224 10:0.143 11:0.02 12:0.082 13:0.041 14:0.061 15:0.082 16:0.02 17:0.061 18:0.061 19:0.02 20:0 \n"
"256.0929562711235 1:0.7 2:0.6 3:0.467 4:0 5:0.122 6:0.02 7:0 8:0.061 9:0.061 10:0.163 11:0.122 12:0.041 13:0.143 14:0.061 15:0.041 16:0.041 17:0.082 18:0.041 19:0 20:0 \n"
"-768 1:0.7 2:0.6 3:0.467 4:0 5:0.082 6:0.061 7:0 8:0.122 9:0.163 10:0.102 11:0.041 12:0 13:0.102 14:0.082 15:0.082 16:0.02 17:0.082 18:0.02 19:0.041 20:0 \n"
"-768 1:0.7 2:0.6 3:0.467 4:0 5:0.02 6:0.082 7:0.041 8:0.082 9:0.204 10:0.143 11:0 12:0.041 13:0.122 14:0.02 15:0.082 16:0.02 17:0.061 18:0.041 19:0.041 20:0 \n"
"-180.4621189398238 1:0.7 2:0.6 3:0.467 4:0 5:0.143 6:0 7:0 8:0.143 9:0.102 10:0.102 11:0.061 12:0 13:0.102 14:0.102 15:0.082 16:0 17:0.061 18:0.082 19:0.02 20:0 \n"
"396.561511889773 1:0.7 2:0.6 3:0.467 4:0.02 5:0.122 6:0 7:0 8:0.082 9:0.102 10:0.082 11:0.143 12:0 13:0.143 14:0.122 15:0.02 16:0.02 17:0.061 18:0.082 19:0 20:0 \n"
"464.8370676693613 1:0.7 2:0.6 3:0.467 4:0 5:0.02 6:0.082 7:0.041 8:0.122 9:0.143 10:0.082 11:0.061 12:0.02 13:0.184 14:0.02 15:0.061 16:0 17:0.082 18:0.082 19:0 20:0 \n"
"768 1:0.7 2:0.6 3:0.467 4:0 5:0.02 6:0.082 7:0.041 8:0.102 9:0.265 10:0.041 11:0.02 12:0 13:0.082 14:0.102 15:0.082 16:0.02 17:0.061 18:0.061 19:0.02 20:0 \n"
"768 1:0.7 2:0.6 3:0.467 4:0 5:0.122 6:0.02 7:0 8:0.041 9:0.143 10:0.184 11:0.041 12:0.082 13:0.102 14:0 15:0.102 16:0.02 17:0.041 18:0.082 19:0.02 20:0 \n"
"-43.85530095584806 1:0.7 2:0.6 3:0.467 4:0.041 5:0.02 6:0.082 7:0 8:0.02 9:0.224 10:0.041 11:0.122 12:0.061 13:0.082 14:0.122 15:0.02 16:0.02 17:0.102 18:0.02 19:0.02 20:0 \n"
"-562.1017591219415 1:0.7 2:0.6 3:0.467 4:0.041 5:0.102 6:0 7:0 8:0.041 9:0.204 10:0.082 11:0.102 12:0.061 13:0 14:0.184 15:0.041 16:0 17:0.122 18:0.02 19:0 20:0 \n"
"-768 1:0.7 2:0.6 3:0.467 4:0 5:0.082 6:0.061 7:0 8:0.102 9:0.102 10:0.082 11:0.122 12:0 13:0.224 14:0.02 15:0.041 16:0.041 17:0.02 18:0.102 19:0 20:0 \n"
"397.9476388242534 1:0.7 2:0.6 3:0.467 4:0 5:0.143 6:0 7:0 8:0.082 9:0.122 10:0.122 11:0.082 12:0.041 13:0.163 14:0.061 15:0.02 16:0.02 17:0 18:0.082 19:0.061 20:0 \n"
"768 1:0.7 2:0.6 3:0.467 4:0.02 5:0 6:0.082 7:0.041 8:0.02 9:0.306 10:0.02 11:0.082 12:0.082 13:0.02 14:0.122 15:0.041 16:0.02 17:0.102 18:0.041 19:0 20:0 \n"
"-119.7905899602049 1:0.7 2:0.6 3:0.467 4:0.02 5:0.02 6:0.061 7:0.041 8:0.082 9:0.204 10:0.041 11:0.102 12:0 13:0.061 14:0.184 15:0.02 16:0.041 17:0.122 18:0 19:0 20:0 \n"
"-768 1:0.7 2:0.657 3:0.467 4:0.02 5:0.082 6:0.041 7:0 8:0 9:0.265 10:0.122 11:0.082 12:0.082 13:0.082 14:0.041 15:0.02 16:0.041 17:0.041 18:0.041 19:0.041 20:0 \n"
"-768 1:0.7 2:0.657 3:0.467 4:0 5:0.082 6:0.02 7:0.041 8:0.102 9:0.143 10:0.184 11:0.02 12:0 13:0.143 14:0.041 15:0.061 16:0.041 17:0.082 18:0 19:0.041 20:0 \n"
"-768 1:0.7 2:0.657 3:0.467 4:0 5:0.082 6:0.061 7:0 8:0.122 9:0.224 10:0.041 11:0.082 12:0.02 13:0.061 14:0.082 15:0.061 16:0 17:0.102 18:0.041 19:0.02 20:0 \n"
"141.8876028523059 1:0.7 2:0.657 3:0.467 4:0 5:0.122 6:0.02 7:0 8:0.041 9:0.265 10:0.041 11:0.122 12:0.061 13:0.061 14:0.102 15:0 16:0.041 17:0 18:0.082 19:0.041 20:0 \n"
"-768 1:0.7 2:0.657 3:0.467 4:0.041 5:0.061 6:0.041 7:0 8:0.02 9:0.163 10:0.122 11:0.143 12:0.02 13:0.163 14:0.041 15:0.02 16:0.041 17:0.082 18:0.041 19:0 20:0 \n"
"768 1:0.7 2:0.657 3:0.467 4:0 5:0.02 6:0.082 7:0.041 8:0.122 9:0.245 10:0.082 11:0.02 12:0 13:0.122 14:0.02 15:0.082 16:0.02 17:0.061 18:0.061 19:0.02 20:0 \n"
"-768 1:0.7 2:0.657 3:0.467 4:0.041 5:0.041 6:0.061 7:0 8:0.02 9:0.224 10:0.143 11:0.082 12:0.02 13:0.102 14:0.02 15:0.082 16:0.041 17:0.102 18:0.02 19:0 20:0 \n"
"251.3389271633677 1:0.7 2:0.657 3:0.467 4:0.041 5:0.041 6:0.02 7:0.041 8:0.041 9:0.327 10:0.082 11:0 12:0.02 13:0.102 14:0.061 15:0.061 16:0.041 17:0 18:0.061 19:0.061 20:0 \n"
"768 1:0.7 2:0.657 3:0.467 4:0.041 5:0.02 6:0.061 7:0.02 8:0.061 9:0.102 10:0.143 11:0.143 12:0 13:0.204 14:0.041 15:0 16:0.02 17:0.143 18:0 19:0 20:0 \n"
"-768 1:0.7 2:0.657 3:0.467 4:0 5:0.082 6:0.061 7:0 8:0.082 9:0.143 10:0.082 11:0.143 12:0.02 13:0.204 14:0.02 15:0 16:0.041 17:0.02 18:0.082 19:0.02 20:0 \n"
"-11.10564292005021 1:0.7 2:0.714 3:0.467 4:0 5:0.061 6:0.061 7:0.02 8:0.102 9:0.265 10:0.082 11:0.061 12:0.041 13:0.061 14:0.02 15:0.061 16:0 17:0.122 18:0.02 19:0.02 20:0 \n"
"768 1:0.7 2:0.714 3:0.467 4:0 5:0.082 6:0.02 7:0.041 8:0.061 9:0.306 10:0.061 11:0.082 12:0.061 13:0.02 14:0.082 15:0.02 16:0.02 17:0.082 18:0.041 19:0.02 20:0 \n"
"287.4389498664274 1:0.7 2:0.714 3:0.467 4:0 5:0.082 6:0.041 7:0.02 8:0.102 9:0.184 10:0.163 11:0.041 12:0.02 13:0.143 14:0 15:0.041 16:0.02 17:0.102 18:0 19:0.041 20:0 \n"
"768 1:0.7 2:0.714 3:0.467 4:0.041 5:0.02 6:0.061 7:0.02 8:0.061 9:0.224 10:0.122 11:0.102 12:0 13:0.122 14:0.02 15:0.041 16:0.041 17:0.122 18:0 19:0 20:0 \n"
"-768 1:0.7 2:0.714 3:0.467 4:0.02 5:0.041 6:0.041 7:0.041 8:0.102 9:0.327 10:0.02 11:0.061 12:0 13:0.082 14:0.041 15:0.061 16:0.02 17:0.061 18:0.082 19:0 20:0 \n"
"-26.86080378064261 1:0.7 2:0.714 3:0.467 4:0 5:0.122 6:0.02 7:0 8:0.082 9:0.204 10:0.061 11:0.143 12:0.061 13:0.041 14:0.082 15:0.02 16:0 17:0.122 18:0.041 19:0 20:0 \n"
"768 1:0.7 2:0.714 3:0.467 4:0.02 5:0.041 6:0.061 7:0.02 8:0.082 9:0.184 10:0.102 11:0.122 12:0 13:0.204 14:0 15:0 16:0.041 17:0.061 18:0.041 19:0.02 20:0 \n"
"768 1:0.7 2:0.714 3:0.467 4:0.041 5:0.102 6:0 7:0 8:0.02 9:0.286 10:0.143 11:0.041 12:0.061 13:0.041 14:0.061 15:0.041 16:0.02 17:0.082 18:0 19:0.061 20:0 \n"
"-206.3297147159448 1:0.7 2:0.714 3:0.467 4:0.02 5:0.102 6:0 7:0.02 8:0.122 9:0.184 10:0.122 11:0.061 12:0 13:0.184 14:0.02 15:0 16:0 17:0.041 18:0.061 19:0.061 20:0 \n"
"-273.7269534000955 1:0.7 2:0.714 3:0.467 4:0.041 5:0.041 6:0.061 7:0 8:0.02 9:0.367 10:0.041 11:0.061 12:0.061 13:0 14:0.061 15:0.082 16:0.02 17:0.102 18:0.02 19:0.02 20:0 \n"
"-410.410929490955 1:0.7 2:0.714 3:0.467 4:0.041 5:0.041 6:0.02 7:0.041 8:0.061 9:0.143 10:0.163 11:0.122 12:0.041 13:0.163 14:0 15:0 16:0 17:0.143 18:0.02 19:0 20:0 \n"
"-83.19229128266942 1:0.7 2:0.714 3:0.467 4:0.02 5:0.102 6:0 7:0.02 8:0.061 9:0.143 10:0.204 11:0.082 12:0.061 13:0.082 14:0 15:0.061 16:0 17:0.163 18:0 19:0 20:0 \n"
"-11.69143251362554 1:0.7 2:0.714 3:0.467 4:0.041 5:0.061 6:0 7:0.02 8:0.102 9:0.204 10:0.143 11:0.061 12:0 13:0.082 14:0.041 15:0.082 16:0 17:0.163 18:0 19:0 20:0 \n"
"768 1:0.7 2:0.714 3:0.467 4:0.041 5:0.02 6:0.041 7:0.041 8:0.082 9:0.286 10:0.143 11:0 12:0 13:0.082 14:0.02 15:0.082 16:0.02 17:0.102 18:0 19:0.041 20:0 \n"
"-768 1:0.7 2:0.743 3:0.467 4:0.041 5:0.041 6:0.041 7:0.02 8:0.041 9:0.245 10:0.122 11:0.102 12:0.02 13:0.122 14:0.02 15:0.02 16:0.041 17:0.102 18:0 19:0.02 20:0 \n"
"768 1:0.7 2:0.743 3:0.467 4:0 5:0.082 6:0.02 7:0.041 8:0.122 9:0.245 10:0.082 11:0.061 12:0.02 13:0.061 14:0.061 15:0.041 16:0 17:0.143 18:0 19:0.02 20:0 \n"
"767.9894074199811 1:0.7 2:0.743 3:0.467 4:0.02 5:0.102 6:0 7:0.02 8:0.041 9:0.224 10:0.184 11:0.061 12:0.061 13:0.082 14:0 15:0.041 16:0.02 17:0.102 18:0 19:0.041 20:0 \n"
"-768 1:0.7 2:0.743 3:0.467 4:0 5:0.122 6:0 7:0.02 8:0.102 9:0.306 10:0.102 11:0.02 12:0.02 13:0.02 14:0.061 15:0.061 16:0.02 17:0.082 18:0 19:0.061 20:0 \n"
"-441.1165673589751 1:0.7 2:0.743 3:0.467 4:0 5:0.082 6:0.02 7:0.041 8:0.122 9:0.306 10:0.02 11:0.082 12:0.02 13:0.061 14:0.061 15:0.041 16:0 17:0.082 18:0.061 19:0 20:0 \n"
"768 1:0.7 2:0.743 3:0.467 4:0 5:0.102 6:0 7:0.041 8:0.061 9:0.367 10:0.082 11:0.02 12:0.041 13:0.061 14:0.02 15:0.041 16:0.041 17:0 18:0.061 19:0.061 20:0 \n"
"768 1:0.7 2:0.743 3:0.467 4:0.02 5:0.02 6:0.061 7:0.041 8:0.122 9:0.184 10:0.102 11:0.102 12:0 13:0.163 14:0.02 15:0 16:0 17:0.143 18:0 19:0.02 20:0 \n"
"-768 1:0.7 2:0.743 3:0.467 4:0.041 5:0.041 6:0.041 7:0.02 8:0.061 9:0.408 10:0.041 11:0.02 12:0.02 13:0 14:0.082 15:0.061 16:0.02 17:0.082 18:0.02 19:0.041 20:0 \n"
"-121.9016534862673 1:0.7 2:0.8 3:0.467 4:0.02 5:0.102 6:0 7:0.02 8:0.102 9:0.245 10:0.102 11:0.102 12:0 13:0.102 14:0.02 15:0.02 16:0.02 17:0.122 18:0 19:0.02 20:0 \n"
"768 1:0.7 2:0.8 3:0.467 4:0 5:0.061 6:0.041 7:0.041 8:0.102 9:0.367 10:0.041 11:0.041 12:0.041 13:0.02 14:0.041 15:0.041 16:0 17:0.122 18:0.02 19:0.02 20:0 \n"
"-110.7429709109156 1:0.7 2:0.8 3:0.467 4:0 5:0.102 6:0.041 7:0 8:0.143 9:0.204 10:0.041 11:0.163 12:0 13:0.122 14:0.02 15:0 16:0 17:0.122 18:0.041 19:0 20:0 \n"
"-577.9090195589872 1:0.7 2:0.8 3:0.467 4:0 5:0.082 6:0.02 7:0.041 8:0.122 9:0.306 10:0.122 11:0.02 12:0 13:0.082 14:0 15:0.041 16:0.02 17:0.102 18:0 19:0.041 20:0 \n"
"768 1:0.7 2:0.8 3:0.467 4:0.041 5:0.041 6:0.041 7:0.02 8:0 9:0.388 10:0.061 11:0.122 12:0.041 13:0.02 14:0.041 15:0.02 16:0.041 17:0.122 18:0 19:0 20:0 \n"
"323.7251357999426 1:0.7 2:0.2 3:0.533 4:0 5:0 6:0.122 7:0.041 8:0 9:0 10:0.143 11:0 12:0.122 13:0.143 14:0.224 15:0.061 16:0.041 17:0 18:0.061 19:0.041 20:0 \n"
"-261.9652213963913 1:0.7 2:0.2 3:0.533 4:0.061 5:0.02 6:0.061 7:0 8:0 9:0 10:0.122 11:0.02 12:0.082 13:0.122 14:0.245 15:0.122 16:0.02 17:0 18:0.122 19:0 20:0 \n"
"-387.6416567709734 1:0.7 2:0.2 3:0.533 4:0.02 5:0 6:0.143 7:0 8:0.02 9:0 10:0.122 11:0 12:0.122 13:0.122 14:0.163 15:0.143 16:0 17:0.02 18:0.122 19:0 20:0 \n"
"-191.0246164526712 1:0.7 2:0.2 3:0.533 4:0.061 5:0.041 6:0.02 7:0.041 8:0 9:0 10:0.122 11:0.02 12:0.041 13:0.102 14:0.327 15:0.082 16:0.041 17:0 18:0.102 19:0 20:0 \n"
"-104.3443548716586 1:0.7 2:0.257 3:0.533 4:0 5:0.061 6:0.102 7:0 8:0.02 9:0.061 10:0.061 11:0.041 12:0.143 13:0 14:0.265 15:0.102 16:0 17:0.041 18:0.102 19:0 20:0 \n"
"-139.952633255065 1:0.7 2:0.257 3:0.533 4:0 5:0.041 6:0.122 7:0 8:0 9:0.02 10:0.163 11:0 12:0.143 13:0.061 14:0.163 15:0.143 16:0.02 17:0.061 18:0.061 19:0 20:0 \n"
"768 1:0.7 2:0.314 3:0.533 4:0.02 5:0.061 6:0.061 7:0.02 8:0.041 9:0.082 10:0.02 11:0.061 12:0.082 13:0.061 14:0.286 15:0.061 16:0 17:0.02 18:0.122 19:0 20:0 \n"
"306.679913994992 1:0.7 2:0.314 3:0.533 4:0.061 5:0 6:0.061 7:0.041 8:0 9:0.041 10:0.184 11:0 12:0.061 13:0.184 14:0.122 15:0.102 16:0.02 17:0 18:0.122 19:0 20:0 \n"
"768 1:0.7 2:0.314 3:0.533 4:0.02 5:0 6:0.102 7:0.041 8:0 9:0.102 10:0.082 11:0.041 12:0.143 13:0.122 14:0.163 15:0.041 16:0 17:0 18:0.122 19:0.02 20:0 \n"
"599.654914820371 1:0.7 2:0.314 3:0.533 4:0.041 5:0.041 6:0.041 7:0.041 8:0.082 9:0.082 10:0.02 11:0.02 12:0 13:0.061 14:0.347 15:0.082 16:0.02 17:0.041 18:0.082 19:0 20:0 \n"
"-768 1:0.7 2:0.343 3:0.533 4:0 5:0.02 6:0.102 7:0.041 8:0.02 9:0.061 10:0.102 11:0.041 12:0.143 13:0.082 14:0.224 15:0.02 16:0 17:0.082 18:0.02 19:0.041 20:0 \n"
"768 1:0.7 2:0.343 3:0.533 4:0 5:0 6:0.163 7:0 8:0 9:0.143 10:0.061 11:0.041 12:0.122 13:0.082 14:0.184 15:0.061 16:0.02 17:0.02 18:0.061 19:0.041 20:0 \n"
"354.2241936301097 1:0.7 2:0.343 3:0.533 4:0.041 5:0.02 6:0.102 7:0 8:0.061 9:0.061 10:0.02 11:0.082 12:0.02 13:0.122 14:0.265 15:0.061 16:0.041 17:0.02 18:0.082 19:0 20:0 \n"
"768 1:0.7 2:0.343 3:0.533 4:0.041 5:0.082 6:0.041 7:0 8:0.041 9:0.082 10:0.02 11:0.082 12:0.061 13:0.061 14:0.286 15:0.061 16:0.02 17:0 18:0.122 19:0 20:0 \n"
"768 1:0.7 2:0.4 3:0.533 4:0.041 5:0.02 6:0.102 7:0 8:0.082 9:0.102 10:0.02 11:0.082 12:0.02 13:0.122 14:0.204 15:0.061 16:0.02 17:0.041 18:0.082 19:0 20:0 \n"
"768 1:0.7 2:0.4 3:0.533 4:0.02 5:0 6:0.143 7:0 8:0 9:0.143 10:0.061 11:0.082 12:0.122 13:0.061 14:0.184 15:0.061 16:0.02 17:0.061 18:0.041 19:0 20:0 \n"
"-768 1:0.7 2:0.4 3:0.533 4:0.02 5:0 6:0.143 7:0 8:0.061 9:0.082 10:0.082 11:0.061 12:0.061 13:0.122 14:0.184 15:0.041 16:0.02 17:0.082 18:0 19:0.041 20:0 \n"
"-252.9562938431612 1:0.7 2:0.4 3:0.533 4:0.02 5:0 6:0.143 7:0 8:0.102 9:0.041 10:0.143 11:0 12:0.041 13:0.163 14:0.143 15:0.082 16:0 17:0.082 18:0 19:0.041 20:0 \n"
"768 1:0.7 2:0.457 3:0.533 4:0 5:0.082 6:0.082 7:0 8:0.102 9:0.122 10:0.082 11:0.02 12:0.041 13:0.061 14:0.184 15:0.082 16:0.02 17:0.061 18:0.02 19:0.041 20:0 \n"
"154.0949332817294 1:0.7 2:0.457 3:0.533 4:0 5:0.082 6:0.02 7:0.041 8:0.082 9:0.02 10:0.163 11:0.061 12:0.02 13:0.224 14:0.122 15:0.02 16:0.041 17:0 18:0.082 19:0.02 20:0 \n"
"768 1:0.7 2:0.457 3:0.533 4:0.02 5:0.082 6:0.061 7:0 8:0.082 9:0.122 10:0.02 11:0.082 12:0.02 13:0.041 14:0.286 15:0.041 16:0.02 17:0.082 18:0.02 19:0.02 20:0 \n"
"768 1:0.7 2:0.457 3:0.533 4:0.041 5:0 6:0.122 7:0 8:0.082 9:0.184 10:0.041 11:0.02 12:0.02 13:0.041 14:0.224 15:0.082 16:0.02 17:0.082 18:0 19:0.041 20:0 \n"
"768 1:0.7 2:0.457 3:0.533 4:0 5:0.041 6:0.102 7:0.02 8:0.082 9:0.163 10:0.02 11:0.061 12:0.082 13:0.122 14:0.143 15:0.02 16:0 17:0 18:0.102 19:0.041 20:0 \n"
"22.83757592833377 1:0.7 2:0.457 3:0.533 4:0.02 5:0.061 6:0.061 7:0.02 8:0.102 9:0.02 10:0.082 11:0.102 12:0.041 13:0.224 14:0.102 15:0.02 16:0 17:0.02 18:0.122 19:0 20:0 \n"
"-768 1:0.7 2:0.457 3:0.533 4:0.061 5:0.041 6:0.061 7:0 8:0.041 9:0.224 10:0.041 11:0.02 12:0.061 13:0.02 14:0.163 15:0.122 16:0 17:0.041 18:0.102 19:0 20:0 \n"
"768 1:0.7 2:0.457 3:0.533 4:0.02 5:0.041 6:0.061 7:0.041 8:0.122 9:0.082 10:0.061 11:0.041 12:0.02 13:0.102 14:0.224 15:0.041 16:0 17:0.102 18:0.041 19:0 20:0 \n"
"-473.6719219366107 1:0.7 2:0.457 3:0.533 4:0.02 5:0.102 6:0 7:0.041 8:0.102 9:0.041 10:0.143 11:0.02 12:0.041 13:0.143 14:0.122 15:0.082 16:0 17:0.02 18:0.122 19:0 20:0 \n"
"768 1:0.7 2:0.457 3:0.533 4:0.061 5:0.041 6:0.041 7:0.02 8:0 9:0.143 10:0.082 11:0.082 12:0.061 13:0.041 14:0.265 15:0.02 16:0.02 17:0.102 18:0 19:0.02 20:0 \n"
"768 1:0.7 2:0.514 3:0.533 4:0.02 5:0.02 6:0.082 7:0.041 8:0 9:0.122 10:0.184 11:0.041 12:0.102 13:0.204 14:0.02 15:0.02 16:0.041 17:0.02 18:0.061 19:0.02 20:0 \n"
"-768 1:0.7 2:0.514 3:0.533 4:0.02 5:0.102 6:0.02 7:0.02 8:0.082 9:0.061 10:0.122 11:0.082 12:0.041 13:0.082 14:0.184 15:0.041 16:0.02 17:0.102 18:0.02 19:0 20:0 \n"
"768 1:0.7 2:0.514 3:0.533 4:0.02 5:0.02 6:0.102 7:0 8:0.02 9:0.184 10:0.143 11:0.02 12:0.102 13:0.041 14:0.102 15:0.102 16:0.02 17:0.102 18:0 19:0.02 20:0 \n"
"518.5037760447605 1:0.7 2:0.514 3:0.533 4:0 5:0.102 6:0.041 7:0.02 8:0.122 9:0.041 10:0.163 11:0.02 12:0.02 13:0.122 14:0.102 15:0.102 16:0.02 17:0.102 18:0.02 19:0 20:0 \n"
"-441.2014685041769 1:0.7 2:0.514 3:0.533 4:0.041 5:0.02 6:0.041 7:0.041 8:0 9:0.163 10:0.204 11:0 12:0.082 13:0.122 14:0.041 15:0.102 16:0.02 17:0.061 18:0.061 19:0 20:0 \n"
"-768 1:0.7 2:0.514 3:0.533 4:0.02 5:0 6:0.122 7:0.02 8:0.061 9:0.204 10:0.061 11:0.041 12:0.041 13:0.163 14:0.082 15:0.041 16:0.041 17:0 18:0.061 19:0.041 20:0 \n"
"768 1:0.7 2:0.514 3:0.533 4:0.061 5:0 6:0.102 7:0 8:0.082 9:0.163 10:0.082 11:0.041 12:0.02 13:0.082 14:0.122 15:0.102 16:0 17:0.122 18:0.02 19:0 20:0 \n"
"762.8572379449759 1:0.7 2:0.514 3:0.533 4:0.061 5:0.082 6:0 7:0.02 8:0.061 9:0 10:0.184 11:0.102 12:0.02 13:0.163 14:0.143 15:0.02 16:0.02 17:0.122 18:0 19:0 20:0 \n"
"235.6510094059774 1:0.7 2:0.514 3:0.533 4:0 5:0.143 6:0.02 7:0 8:0.061 9:0.041 10:0.122 11:0.122 12:0.061 13:0.143 14:0.143 15:0 16:0.041 17:0.041 18:0.061 19:0 20:0 \n"
"301.4378734103996 1:0.7 2:0.514 3:0.533 4:0.061 5:0.102 6:0 7:0 8:0 9:0.102 10:0.184 11:0.082 12:0.061 13:0.122 14:0.163 15:0 16:0.041 17:0.041 18:0 19:0.041 20:0 \n"
"768 1:0.7 2:0.514 3:0.533 4:0.02 5:0.082 6:0.02 7:0.041 8:0.143 9:0.122 10:0.082 11:0 12:0 13:0.041 14:0.204 15:0.102 16:0 17:0.122 18:0.02 19:0 20:0 \n"
"768 1:0.7 2:0.514 3:0.533 4:0.02 5:0.122 6:0 7:0.02 8:0.02 9:0.102 10:0.163 11:0.061 12:0.122 13:0.041 14:0.143 15:0.041 16:0 17:0.102 18:0.041 19:0 20:0 \n"
"768 1:0.7 2:0.543 3:0.533 4:0 5:0.082 6:0.061 7:0.02 8:0.082 9:0.204 10:0.041 11:0.061 12:0.082 13:0.061 14:0.102 15:0.061 16:0 17:0.041 18:0.102 19:0 20:0 \n"
"-768 1:0.7 2:0.543 3:0.533 4:0.02 5:0.082 6:0.061 7:0 8:0.02 9:0.143 10:0.122 11:0.082 12:0.082 13:0.163 14:0.061 15:0.02 16:0.041 17:0 18:0.061 19:0.041 20:0 \n"
"-151.5109475348766 1:0.7 2:0.543 3:0.533 4:0.061 5:0.02 6:0.082 7:0 8:0.041 9:0.143 10:0.082 11:0.122 12:0.061 13:0.163 14:0.061 15:0.02 16:0 17:0.061 18:0.082 19:0 20:0 \n"
"-768 1:0.7 2:0.543 3:0.533 4:0.02 5:0.041 6:0.102 7:0 8:0.061 9:0.224 10:0.082 11:0.02 12:0.061 13:0.061 14:0.102 15:0.082 16:0.02 17:0.061 18:0.02 19:0.041 20:0 \n"
"768 1:0.7 2:0.543 3:0.533 4:0.02 5:0.041 6:0.082 7:0.02 8:0.061 9:0.184 10:0.102 11:0.02 12:0.041 13:0.143 14:0.061 15:0.082 16:0.041 17:0.02 18:0.082 19:0 20:0 \n"
"-768 1:0.7 2:0.543 3:0.533 4:0.041 5:0.082 6:0 7:0.041 8:0.061 9:0.102 10:0.163 11:0.041 12:0.041 13:0.184 14:0.102 15:0 16:0.02 17:0.02 18:0.061 19:0.041 20:0 \n"
"-768 1:0.7 2:0.543 3:0.533 4:0.041 5:0.082 6:0.02 7:0.02 8:0.041 9:0.184 10:0.143 11:0.02 12:0.041 13:0.061 14:0.143 15:0.061 16:0.02 17:0.061 18:0.02 19:0.041 20:0 \n"
"536.3641293851106 1:0.7 2:0.543 3:0.533 4:0 5:0.041 6:0.122 7:0 8:0.061 9:0.122 10:0.143 11:0.061 12:0.061 13:0.204 14:0 15:0.061 16:0.041 17:0.02 18:0.041 19:0.02 20:0 \n"
"768 1:0.7 2:0.543 3:0.533 4:0 5:0.102 6:0.041 7:0.02 8:0.082 9:0.041 10:0.184 11:0.061 12:0.061 13:0.122 14:0.082 15:0.061 16:0.02 17:0.122 18:0 19:0 20:0 \n"
"-768 1:0.7 2:0.543 3:0.533 4:0.041 5:0.082 6:0.02 7:0.02 8:0.082 9:0.163 10:0.041 11:0.082 12:0.02 13:0.041 14:0.224 15:0.041 16:0 17:0.102 18:0.041 19:0 20:0 \n"
"768 1:0.7 2:0.543 3:0.533 4:0.041 5:0.082 6:0.041 7:0 8:0.041 9:0.102 10:0.163 11:0.061 12:0.082 13:0.143 14:0.02 15:0.082 16:0 17:0.041 18:0.102 19:0 20:0 \n"
"768 1:0.7 2:0.543 3:0.533 4:0.041 5:0 6:0.082 7:0.041 8:0.061 9:0.224 10:0.041 11:0.061 12:0.041 13:0.143 14:0.122 15:0 16:0.02 17:0.02 18:0.082 19:0.02 20:0 \n"
"768 1:0.7 2:0.543 3:0.533 4:0.061 5:0.041 6:0.041 7:0.02 8:0.102 9:0.122 10:0.143 11:0 12:0 13:0.184 14:0.041 15:0.102 16:0 17:0.041 18:0.082 19:0.02 20:0 \n"
"768 1:0.7 2:0.543 3:0.533 4:0 5:0.122 6:0.041 7:0 8:0.082 9:0.184 10:0.041 11:0.082 12:0.041 13:0.082 14:0.163 15:0.02 16:0.041 17:0 18:0.061 19:0.041 20:0 \n"
"-768 1:0.7 2:0.543 3:0.533 4:0.041 5:0 6:0.082 7:0.041 8:0.082 9:0.224 10:0 11:0.061 12:0.041 13:0.061 14:0.224 15:0 16:0 17:0.102 18:0.02 19:0.02 20:0 \n"
"-768 1:0.7 2:0.543 3:0.533 4:0.02 5:0.102 6:0.02 7:0.02 8:0.102 9:0.102 10:0.122 11:0.061 12:0.02 13:0.082 14:0.184 15:0.02 16:0.02 17:0.082 18:0 19:0.041 20:0 \n"
"768 1:0.7 2:0.543 3:0.533 4:0.061 5:0.02 6:0.082 7:0 8:0.02 9:0.143 10:0.184 11:0.02 12:0.02 13:0.184 14:0.041 15:0.082 16:0.041 17:0.041 18:0.02 19:0.041 20:0 \n"
"-768 1:0.7 2:0.543 3:0.533 4:0 5:0 6:0.122 7:0.041 8:0 9:0.143 10:0.143 11:0.102 12:0.122 13:0.163 14:0.02 15:0 16:0.041 17:0.082 18:0.02 19:0 20:0 \n"
"81.55369491736079 1:0.7 2:0.543 3:0.533 4:0 5:0.122 6:0 7:0.041 8:0.122 9:0.122 10:0.041 11:0.102 12:0 13:0.122 14:0.204 15:0 16:0.041 17:0 18:0.082 19:0 20:0 \n"
"-768 1:0.7 2:0.543 3:0.533 4:0 5:0.102 6:0.02 7:0.041 8:0.061 9:0.163 10:0.143 11:0.02 12:0.102 13:0 14:0.122 15:0.082 16:0 17:0.122 18:0.02 19:0 20:0 \n"
"-768 1:0.7 2:0.543 3:0.533 4:0.02 5:0.102 6:0.041 7:0 8:0.122 9:0.02 10:0.122 11:0.122 12:0 13:0.143 14:0.163 15:0 16:0.02 17:0.102 18:0 19:0.02 20:0 \n"
"-768 1:0.7 2:0.543 3:0.533 4:0 5:0.082 6:0.082 7:0 8:0.122 9:0.224 10:0.041 11:0 12:0 13:0.041 14:0.163 15:0.102 16:0.02 17:0.041 18:0.041 19:0.041 20:0 \n"
"-768 1:0.7 2:0.6 3:0.533 4:0 5:0.102 6:0.02 7:0.041 8:0.122 9:0.041 10:0.163 11:0.082 12:0.02 13:0.204 14:0.041 15:0.02 16:0.02 17:0.082 18:0.041 19:0 20:0 \n"
"-768 1:0.7 2:0.6 3:0.533 4:0 5:0.143 6:0 7:0.02 8:0.061 9:0.204 10:0.122 11:0.041 12:0.061 13:0.041 14:0.082 15:0.082 16:0.041 17:0.041 18:0.061 19:0 20:0 \n"
"-768 1:0.7 2:0.6 3:0.533 4:0 5:0.143 6:0.02 7:0 8:0.061 9:0.184 10:0.061 11:0.122 12:0.061 13:0.061 14:0.122 15:0.02 16:0.02 17:0.041 18:0.082 19:0 20:0 \n"
"768 1:0.7 2:0.6 3:0.533 4:0.02 5:0.082 6:0.061 7:0 8:0.143 9:0.163 10:0.061 11:0.041 12:0 13:0.041 14:0.163 15:0.082 16:0 17:0.122 18:0 19:0.02 20:0 \n"
"768 1:0.7 2:0.6 3:0.533 4:0.061 5:0.02 6:0.082 7:0 8:0.061 9:0.245 10:0.102 11:0.02 12:0 13:0.122 14:0.061 15:0.082 16:0.02 17:0.041 18:0.041 19:0.041 20:0 \n"
"-487.012296839 1:0.7 2:0.6 3:0.533 4:0.02 5:0 6:0.102 7:0.041 8:0.041 9:0.184 10:0.122 11:0.061 12:0.102 13:0.143 14:0.041 15:0 16:0 17:0.102 18:0.02 19:0.02 20:0 \n"
"-768 1:0.7 2:0.6 3:0.533 4:0 5:0.163 6:0 7:0 8:0.061 9:0.082 10:0.163 11:0.122 12:0.082 13:0.143 14:0.061 15:0 16:0.02 17:0.02 18:0.061 19:0.02 20:0 \n"
"-768 1:0.7 2:0.6 3:0.533 4:0.02 5:0.041 6:0.082 7:0.02 8:0.122 9:0.265 10:0.02 11:0.02 12:0 13:0.041 14:0.143 15:0.082 16:0.02 17:0.061 18:0.041 19:0.02 20:0 \n"
"768 1:0.7 2:0.6 3:0.533 4:0.061 5:0.061 6:0.02 7:0.02 8:0.102 9:0.143 10:0.082 11:0.082 12:0 13:0.102 14:0.184 15:0 16:0 17:0.102 18:0 19:0.041 20:0 \n"
"-687.5833762980565 1:0.7 2:0.6 3:0.533 4:0.061 5:0.02 6:0.082 7:0 8:0.082 9:0.204 10:0.02 11:0.102 12:0 13:0.082 14:0.163 15:0.041 16:0 17:0.122 18:0.02 19:0 20:0 \n"
"768 1:0.7 2:0.6 3:0.533 4:0.02 5:0.041 6:0.102 7:0 8:0.102 9:0.082 10:0.102 11:0.143 12:0.041 13:0.163 14:0.061 15:0 16:0 17:0.143 18:0 19:0 20:0 \n"
"768 1:0.7 2:0.657 3:0.533 4:0.02 5:0.122 6:0.02 7:0 8:0.082 9:0.204 10:0.143 11:0.041 12:0.041 13:0.082 14:0.061 15:0.041 16:0.02 17:0.061 18:0.02 19:0.041 20:0 \n"
"768 1:0.7 2:0.657 3:0.533 4:0.02 5:0.041 6:0.082 7:0.02 8:0.102 9:0.204 10:0.041 11:0.122 12:0.041 13:0.102 14:0.082 15:0 16:0 17:0.122 18:0.02 19:0 20:0 \n"
"-768 1:0.7 2:0.657 3:0.533 4:0.02 5:0.082 6:0.02 7:0.041 8:0.082 9:0.265 10:0.102 11:0.02 12:0.02 13:0.061 14:0.122 15:0.02 16:0.041 17:0.061 18:0 19:0.041 20:0 \n"
"-768 1:0.7 2:0.657 3:0.533 4:0.041 5:0.02 6:0.082 7:0.02 8:0.041 9:0.306 10:0.061 11:0.061 12:0.041 13:0.041 14:0.102 15:0.041 16:0.041 17:0.082 18:0 19:0.02 20:0 \n"
"-768 1:0.7 2:0.657 3:0.533 4:0 5:0.102 6:0.041 7:0.02 8:0.163 9:0.163 10:0.102 11:0.041 12:0 13:0.102 14:0.082 15:0.041 16:0 17:0.102 18:0.02 19:0.02 20:0 \n"
"-768 1:0.7 2:0.657 3:0.533 4:0 5:0.082 6:0.082 7:0 8:0.122 9:0.286 10:0 11:0.061 12:0.041 13:0.041 14:0.102 15:0.041 16:0 17:0.061 18:0.061 19:0.02 20:0 \n"
"697.3697527577643 1:0.7 2:0.657 3:0.533 4:0 5:0.163 6:0 7:0 8:0.082 9:0.122 10:0.122 11:0.122 12:0.041 13:0.082 14:0.102 15:0.02 16:0.02 17:0.102 18:0.02 19:0 20:0 \n"
"768 1:0.7 2:0.657 3:0.533 4:0.02 5:0.061 6:0.061 7:0.02 8:0.061 9:0.265 10:0.102 11:0.02 12:0.082 13:0.061 14:0.041 15:0.061 16:0 17:0.082 18:0.041 19:0.02 20:0 \n"
"768 1:0.7 2:0.657 3:0.533 4:0.041 5:0.02 6:0.082 7:0.02 8:0.102 9:0.143 10:0.122 11:0.082 12:0 13:0.224 14:0 15:0.02 16:0.02 17:0.061 18:0.041 19:0.02 20:0 \n"
"768 1:0.7 2:0.657 3:0.533 4:0.061 5:0 6:0.061 7:0.041 8:0.061 9:0.245 10:0.061 11:0.082 12:0.02 13:0.184 14:0.041 15:0 16:0.02 17:0.041 18:0.061 19:0.02 20:0 \n"
"-205.6568423585729 1:0.7 2:0.657 3:0.533 4:0.041 5:0.082 6:0 7:0.041 8:0.02 9:0.224 10:0.204 11:0.02 12:0.082 13:0.061 14:0.02 15:0.061 16:0.02 17:0.082 18:0.02 19:0.02 20:0 \n"
"-758.9197479903157 1:0.7 2:0.657 3:0.533 4:0 5:0.041 6:0.082 7:0.041 8:0.102 9:0.286 10:0.02 11:0.041 12:0.061 13:0.122 14:0.041 15:0.02 16:0 17:0.02 18:0.082 19:0.041 20:0 \n"
"768 1:0.7 2:0.657 3:0.533 4:0.02 5:0.102 6:0 7:0.041 8:0.041 9:0.204 10:0.184 11:0.02 12:0.082 13:0.143 14:0 15:0.02 16:0.02 17:0.02 18:0.061 19:0.041 20:0 \n"
"768 1:0.7 2:0.657 3:0.533 4:0.061 5:0.02 6:0.041 7:0.041 8:0.102 9:0.163 10:0.122 11:0.061 12:0 13:0.163 14:0.061 15:0.02 16:0 17:0.122 18:0 19:0.02 20:0 \n"
"-685.9090667239429 1:0.7 2:0.714 3:0.533 4:0.041 5:0.061 6:0.02 7:0.041 8:0.061 9:0.224 10:0.143 11:0.061 12:0.041 13:0.102 14:0.02 15:0.041 16:0 17:0.122 18:0.02 19:0 20:0 \n"
"-768 1:0.7 2:0.714 3:0.533 4:0 5:0.102 6:0.041 7:0.02 8:0.102 9:0.224 10:0.082 11:0.082 12:0.02 13:0.143 14:0.02 15:0.02 16:0.041 17:0.02 18:0.061 19:0.02 20:0 \n"
"768 1:0.7 2:0.714 3:0.533 4:0.041 5:0.061 6:0.041 7:0.02 8:0.102 9:0.265 10:0.041 11:0.102 12:0.02 13:0.082 14:0.061 15:0.02 16:0 17:0.082 18:0.061 19:0 20:0 \n"
"768 1:0.7 2:0.714 3:0.533 4:0.041 5:0.041 6:0.041 7:0.041 8:0.102 9:0.347 10:0.02 11:0.041 12:0 13:0.02 14:0.102 15:0.061 16:0.02 17:0.102 18:0.02 19:0 20:0 \n"
"-768 1:0.7 2:0.714 3:0.533 4:0.02 5:0.02 6:0.082 7:0.041 8:0.102 9:0.204 10:0.102 11:0.082 12:0.02 13:0.163 14:0.02 15:0 16:0.02 17:0.102 18:0 19:0.02 20:0 \n"
"768 1:0.7 2:0.714 3:0.533 4:0 5:0.163 6:0 7:0 8:0.143 9:0.224 10:0.102 11:0.041 12:0 13:0.061 14:0.061 15:0.061 16:0.02 17:0.041 18:0.041 19:0.041 20:0 \n"
"-768 1:0.7 2:0.714 3:0.533 4:0.041 5:0.041 6:0.082 7:0 8:0.082 9:0.224 10:0.041 11:0.143 12:0 13:0.184 14:0.02 15:0 16:0.041 17:0.041 18:0.061 19:0 20:0 \n"
"768 1:0.7 2:0.714 3:0.533 4:0 5:0.143 6:0 7:0.02 8:0.082 9:0.143 10:0.184 11:0.082 12:0.082 13:0.102 14:0 15:0.02 16:0 17:0.122 18:0 19:0.02 20:0 \n"
"-768 1:0.7 2:0.714 3:0.533 4:0.041 5:0.02 6:0.061 7:0.041 8:0.082 9:0.286 10:0.082 11:0.041 12:0.041 13:0.143 14:0 15:0.02 16:0 17:0.041 18:0.061 19:0.041 20:0 \n"
"0.02524646316880331 1:0.7 2:0.714 3:0.533 4:0.061 5:0.061 6:0.041 7:0 8:0 9:0.245 10:0.163 11:0.082 12:0.061 13:0.143 14:0 15:0 16:0.041 17:0.061 18:0 19:0.041 20:0 \n"
"768 1:0.7 2:0.714 3:0.533 4:0.02 5:0.061 6:0.041 7:0.041 8:0.143 9:0.163 10:0.163 11:0.02 12:0 13:0.163 14:0 15:0.041 16:0 17:0.102 18:0 19:0.041 20:0 \n"
"-768 1:0.7 2:0.714 3:0.533 4:0 5:0.082 6:0.082 7:0 8:0.102 9:0.143 10:0.122 11:0.122 12:0.061 13:0.122 14:0 15:0.02 16:0 17:0.143 18:0 19:0 20:0 \n"
"-206.1377675022359 1:0.7 2:0.714 3:0.533 4:0.02 5:0.082 6:0.02 7:0.041 8:0.102 9:0.347 10:0.02 11:0.041 12:0 13:0.082 14:0.102 15:0.02 16:0.02 17:0 18:0.061 19:0.041 20:0 \n"
"768 1:0.7 2:0.743 3:0.533 4:0 5:0.061 6:0.061 7:0.041 8:0.122 9:0.306 10:0.061 11:0.041 12:0.02 13:0.061 14:0.061 15:0.02 16:0.02 17:0.082 18:0 19:0.041 20:0 \n"
"768 1:0.7 2:0.743 3:0.533 4:0.02 5:0.122 6:0.02 7:0 8:0.102 9:0.184 10:0.122 11:0.102 12:0 13:0.122 14:0.02 15:0.041 16:0.041 17:0.082 18:0.02 19:0 20:0 \n"
"-569.8647113603214 1:0.7 2:0.743 3:0.533 4:0 5:0.163 6:0 7:0 8:0.082 9:0.204 10:0.122 11:0.122 12:0.061 13:0.041 14:0.061 15:0 16:0.02 17:0.102 18:0 19:0.02 20:0 \n"
"-767.9757677673368 1:0.7 2:0.743 3:0.533 4:0.02 5:0.143 6:0 7:0 8:0.061 9:0.245 10:0.102 11:0.102 12:0.041 13:0.122 14:0.02 15:0 16:0.041 17:0 18:0.061 19:0.041 20:0 \n"
"-768 1:0.7 2:0.743 3:0.533 4:0.02 5:0.102 6:0 7:0.041 8:0.102 9:0.204 10:0.184 11:0.02 12:0.02 13:0.122 14:0 15:0.041 16:0.02 17:0.082 18:0 19:0.041 20:0 \n"
"-158.0309985413934 1:0.7 2:0.743 3:0.533 4:0 5:0.143 6:0 7:0.02 8:0.061 9:0.347 10:0.061 11:0.041 12:0.061 13:0 14:0.082 15:0.041 16:0.041 17:0.02 18:0.041 19:0.041 20:0 \n"
"-117.7104620779433 1:0.7 2:0.743 3:0.533 4:0.061 5:0.041 6:0.061 7:0 8:0.02 9:0.306 10:0.061 11:0.143 12:0.041 13:0.102 14:0.02 15:0 16:0.041 17:0.061 18:0.041 19:0 20:0 \n"
"-618.1561674173307 1:0.7 2:0.743 3:0.533 4:0 5:0.143 6:0.02 7:0 8:0.143 9:0.102 10:0.163 11:0.102 12:0.02 13:0.143 14:0 15:0.02 16:0 17:0.122 18:0 19:0.02 20:0 \n"
"-515.5370551959336 1:0.7 2:0.743 3:0.533 4:0 5:0.122 6:0.02 7:0.02 8:0.122 9:0.204 10:0.143 11:0.061 12:0.041 13:0.041 14:0.02 15:0.061 16:0 17:0.143 18:0 19:0 20:0 \n"
"270.0494650661804 1:0.7 2:0.743 3:0.533 4:0.061 5:0.061 6:0 7:0.041 8:0.061 9:0.306 10:0.143 11:0 12:0.041 13:0.041 14:0.041 15:0.061 16:0 17:0.122 18:0 19:0.02 20:0 \n"
"-768 1:0.7 2:0.743 3:0.533 4:0.02 5:0.082 6:0.02 7:0.041 8:0.143 9:0.184 10:0.122 11:0.061 12:0 13:0.184 14:0 15:0 16:0 17:0.061 18:0.041 19:0.041 20:0 \n"
"-114.1767967346549 1:0.7 2:0.8 3:0.533 4:0.02 5:0.082 6:0.02 7:0.041 8:0.082 9:0.245 10:0.122 11:0.102 12:0.02 13:0.122 14:0 15:0 16:0.041 17:0.102 18:0 19:0 20:0 \n"
"-768 1:0.7 2:0.8 3:0.533 4:0.061 5:0.102 6:0 7:0 8:0.102 9:0.265 10:0.061 11:0.143 12:0 13:0.082 14:0.041 15:0 16:0 17:0.102 18:0.041 19:0 20:0 \n"
"768 1:0.7 2:0.8 3:0.533 4:0 5:0.102 6:0.041 7:0.02 8:0.163 9:0.224 10:0.061 11:0.102 12:0 13:0.102 14:0.041 15:0 16:0 17:0.122 18:0 19:0.02 20:0 \n"
"-311.0089515896334 1:0.7 2:0.2 3:0.6 4:0.02 5:0.061 6:0.061 7:0.041 8:0.041 9:0 10:0.041 11:0.041 12:0.061 13:0.061 14:0.429 15:0.02 16:0.041 17:0.02 18:0.041 19:0.02 20:0 \n"
"-393.2053546424384 1:0.7 2:0.2 3:0.6 4:0 5:0 6:0.143 7:0.041 8:0 9:0.02 10:0.082 11:0.041 12:0.184 13:0.082 14:0.245 15:0.041 16:0 17:0.041 18:0.082 19:0 20:0 \n"
"176.5727338747827 1:0.7 2:0.2 3:0.6 4:0.041 5:0 6:0.122 7:0.02 8:0.061 9:0 10:0.041 11:0.041 12:0.061 13:0.122 14:0.367 15:0.02 16:0.02 17:0.02 18:0.041 19:0.02 20:0 \n"
"-245.7332173894225 1:0.7 2:0.2 3:0.6 4:0 5:0 6:0.184 7:0 8:0.02 9:0 10:0.082 11:0.041 12:0.143 13:0.143 14:0.184 15:0.082 16:0.02 17:0 18:0.102 19:0 20:0 \n"
"768 1:0.7 2:0.257 3:0.6 4:0.02 5:0.082 6:0.041 7:0.041 8:0 9:0.061 10:0.082 11:0.02 12:0.102 13:0.02 14:0.347 15:0.061 16:0.041 17:0.02 18:0.061 19:0 20:0 \n"
"-379.9256268292826 1:0.7 2:0.257 3:0.6 4:0 5:0.082 6:0.082 7:0.02 8:0.041 9:0.02 10:0.122 11:0 12:0.143 13:0.082 14:0.184 15:0.102 16:0 17:0 18:0.122 19:0 20:0 \n"
"396.1774149708045 1:0.7 2:0.257 3:0.6 4:0 5:0.061 6:0.082 7:0.041 8:0.082 9:0.041 10:0.061 11:0 12:0.041 13:0.041 14:0.367 15:0.061 16:0.041 17:0.041 18:0.02 19:0.02 20:0 \n"
"-237.6618655837405 1:0.7 2:0.257 3:0.6 4:0 5:0 6:0.163 7:0.02 8:0.082 9:0 10:0.061 11:0.041 12:0.102 13:0.184 14:0.163 15:0.061 16:0 17:0 18:0.122 19:0 20:0 \n"
