svm_type nu_svr
kernel_type rbf
gamma 3
nr_class 2
total_sv 10953
rho -1.3272
SV
26.38108648650213 1:0.4 2:0.2 3:0.2 4:0 5:0 6:0.082 7:0.041 8:0 9:0 10:0 11:0.082 12:0.041 13:0.02 14:0.041 15:0.224 16:0.082 17:0.061 18:0.204 19:0.122 20:0 
12.44283752320287 1:0.4 2:0.2 3:0.2 4:0 5:0 6:0.082 7:0.041 8:0.02 9:0 10:0.061 11:0 12:0 13:0.02 14:0.143 15:0.163 16:0.082 17:0.061 18:0.041 19:0.286 20:0 
118.3153470095386 1:0.4 2:0.25 3:0.2 4:0 5:0.02 6:0.02 7:0.082 8:0.02 9:0.02 10:0.041 11:0 12:0.02 13:0.02 14:0.02 15:0.245 16:0.082 17:0.041 18:0.224 19:0.143 20:0 
102.0159641964211 1:0.4 2:0.25 3:0.2 4:0.02 5:0.02 6:0.02 7:0.041 8:0.02 9:0.02 10:0 11:0.061 12:0 13:0.02 14:0.224 15:0.061 16:0.082 17:0.041 18:0.061 19:0.306 20:0 
-160.7091622489902 1:0.4 2:0.25 3:0.2 4:0.02 5:0 6:0.082 7:0.02 8:0 9:0.02 10:0.02 11:0.041 12:0 13:0 14:0.041 15:0.265 16:0.082 17:0.082 18:0.163 19:0.163 20:0 
-92.44978073021194 1:0.4 2:0.25 3:0.2 4:0.02 5:0 6:0.082 7:0.02 8:0 9:0.02 10:0.041 11:0.02 12:0.061 13:0.061 14:0.102 15:0.082 16:0.041 17:0 18:0.082 19:0.367 20:0 
73.16596296654252 1:0.4 2:0.3 3:0.2 4:0 5:0.02 6:0 7:0.102 8:0 9:0.02 10:0.082 11:0 12:0.041 13:0.082 14:0.061 15:0.102 16:0.082 17:0 18:0.143 19:0.265 20:0 
45.73320186175278 1:0.4 2:0.3 3:0.2 4:0 5:0 6:0.082 7:0.041 8:0.02 9:0 10:0.061 11:0.041 12:0.061 13:0.082 14:0 15:0.122 16:0.02 17:0.041 18:0.143 19:0.286 20:0 
76.09486001532152 1:0.4 2:0.35 3:0.2 4:0.02 5:0 6:0.041 7:0.061 8:0.02 9:0.02 10:0.02 11:0.082 12:0.061 13:0 14:0.02 15:0.184 16:0.02 17:0.122 18:0.163 19:0.163 20:0 
-156.1388314044315 1:0.4 2:0.35 3:0.2 4:0 5:0 6:0.041 7:0.061 8:0.041 9:0.041 10:0.061 11:0 12:0.02 13:0.082 14:0 15:0.163 16:0.061 17:0.02 18:0.163 19:0.245 20:0 
32.09114852142076 1:0.4 2:0.35 3:0.2 4:0 5:0 6:0 7:0.122 8:0 9:0 10:0 11:0.143 12:0 13:0.082 14:0.163 15:0.02 16:0.122 17:0.041 18:0.102 19:0.204 20:0 
133.6281387502258 1:0.4 2:0.4 3:0.2 4:0 5:0.041 6:0.061 7:0.02 8:0.041 9:0.041 10:0 11:0.082 12:0.02 13:0 14:0.041 15:0.184 16:0.061 17:0.061 18:0.143 19:0.204 20:0 
23.89667137380502 1:0.4 2:0.4 3:0.2 4:0 5:0.041 6:0 7:0.082 8:0 9:0.02 10:0.02 11:0.122 12:0.061 13:0.061 14:0.061 15:0.041 16:0.061 17:0.02 18:0.163 19:0.245 20:0 
-153.5901461673253 1:0.4 2:0.45 3:0.2 4:0 5:0 6:0.02 7:0.102 8:0 9:0.082 10:0 11:0.082 12:0 13:0.082 14:0.041 15:0.102 16:0.122 17:0.02 18:0.163 19:0.184 20:0 
-104.5599215118323 1:0.4 2:0.45 3:0.2 4:0 5:0.041 6:0.041 7:0.041 8:0 9:0.061 10:0 11:0.122 12:0.061 13:0.02 14:0.102 15:0.02 16:0.061 17:0.061 18:0.082 19:0.286 20:0 
190.5867703261129 1:0.4 2:0.5 3:0.2 4:0.02 5:0 6:0.02 7:0.082 8:0.02 9:0.102 10:0.02 11:0.041 12:0.02 13:0.041 14:0.082 15:0.061 16:0.061 17:0.061 18:0.061 19:0.306 20:0 
-3.471649397081805 1:0.4 2:0.5 3:0.2 4:0.02 5:0.061 6:0.041 7:0 8:0.02 9:0 10:0.02 11:0.163 12:0.041 13:0.02 14:0.061 15:0.061 16:0.02 17:0.122 18:0.082 19:0.265 20:0 
-171.871047800005 1:0.4 2:0.5 3:0.2 4:0.02 5:0.02 6:0.041 7:0.02 8:0.041 9:0 10:0 11:0.163 12:0.041 13:0.02 14:0 15:0.143 16:0 17:0.163 18:0.163 19:0.163 20:0 
-34.20003670693839 1:0.4 2:0.55 3:0.2 4:0 5:0 6:0.041 7:0.061 8:0.02 9:0 10:0 11:0.204 12:0 13:0.082 14:0.02 15:0.082 16:0.102 17:0.122 18:0.122 19:0.143 20:0 
41.82527168627337 1:0.4 2:0.55 3:0.2 4:0 5:0.061 6:0.041 7:0.02 8:0.02 9:0.082 10:0.061 11:0.061 12:0 13:0 14:0.061 15:0.122 16:0.102 17:0.061 18:0.02 19:0.286 20:0 
51.54314728315326 1:0.4 2:0.55 3:0.2 4:0.02 5:0.02 6:0 7:0.082 8:0 9:0.102 10:0.082 11:0.02 12:0 13:0.082 14:0.061 15:0.041 16:0.102 17:0.02 18:0.041 19:0.327 20:0 
126.1723048515309 1:0.4 2:0.6 3:0.2 4:0 5:0 6:0 7:0.122 8:0 9:0.082 10:0.041 11:0.102 12:0 13:0.061 14:0.041 15:0.061 16:0.122 17:0.102 18:0.082 19:0.184 20:0 
-48.76949719205314 1:0.4 2:0.6 3:0.2 4:0.02 5:0.041 6:0.02 7:0.02 8:0.061 9:0.061 10:0 11:0.122 12:0.041 13:0 14:0.061 15:0.061 16:0 17:0.143 18:0.082 19:0.265 20:0 
-256 1:0.4 2:0.6 3:0.2 4:0 5:0 6:0 7:0.122 8:0.041 9:0.122 10:0 11:0.061 12:0.041 13:0.082 14:0.02 15:0.02 16:0.041 17:0.041 18:0.122 19:0.286 20:0 
62.71040742487897 1:0.4 2:0.6 3:0.2 4:0 5:0 6:0 7:0.122 8:0.02 9:0.102 10:0.02 11:0.102 12:0 13:0.02 14:0 15:0.143 16:0.102 17:0.122 18:0.143 19:0.102 20:0 
256 1:0.4 2:0.65 3:0.2 4:0 5:0.061 6:0 7:0.061 8:0 9:0.122 10:0.082 11:0.061 12:0 13:0.041 14:0 15:0.102 16:0.122 17:0.041 18:0.061 19:0.245 20:0 
147.3070734266351 1:0.4 2:0.7 3:0.2 4:0.02 5:0 6:0 7:0.102 8:0.061 9:0.102 10:0 11:0.122 12:0.02 13:0.082 14:0 15:0.02 16:0.02 17:0.102 18:0.122 19:0.224 20:0 
-254.1866610464709 1:0.4 2:0.7 3:0.2 4:0.02 5:0.041 6:0 7:0.061 8:0 9:0.061 10:0.02 11:0.204 12:0 13:0.061 14:0 15:0.061 16:0.082 17:0.122 18:0.102 19:0.163 20:0 
256 1:0.4 2:0.7 3:0.2 4:0 5:0 6:0 7:0.122 8:0.041 9:0.061 10:0.082 11:0.102 12:0 13:0.061 14:0.02 15:0.041 16:0.082 17:0.163 18:0 19:0.224 20:0 
-166.7169503803262 1:0.4 2:0.7 3:0.2 4:0 5:0.061 6:0 7:0.061 8:0.082 9:0.102 10:0.02 11:0.082 12:0.02 13:0.02 14:0 15:0.082 16:0.02 17:0.082 18:0.102 19:0.265 20:0 
64.24394761463999 1:0.4 2:0.7 3:0.2 4:0.02 5:0.02 6:0 7:0.082 8:0.082 9:0.122 10:0.061 11:0 12:0.02 13:0 14:0 15:0.102 16:0 17:0.143 18:0.061 19:0.286 20:0 
-256 1:0.4 2:0.7 3:0.2 4:0 5:0 6:0 7:0.122 8:0.02 9:0.163 10:0.082 11:0.02 12:0 13:0 14:0 15:0.102 16:0.102 17:0.102 18:0.041 19:0.245 20:0 
177.7969212275829 1:0.4 2:0.7 3:0.2 4:0.02 5:0.041 6:0 7:0.061 8:0.02 9:0 10:0.082 11:0.163 12:0.02 13:0.082 14:0 15:0.02 16:0.061 17:0.163 18:0.02 19:0.245 20:0 
148.6820869730621 1:0.4 2:0.7 3:0.2 4:0 5:0.061 6:0.02 7:0.02 8:0 9:0.041 10:0 11:0.245 12:0.02 13:0.082 14:0.02 15:0 16:0.102 17:0.082 18:0.082 19:0.224 20:0 
-86.46629035642316 1:0.4 2:0.7 3:0.2 4:0 5:0.02 6:0.02 7:0.082 8:0.02 9:0.163 10:0.082 11:0.02 12:0.02 13:0.041 14:0.02 15:0.02 16:0.061 17:0.061 18:0 19:0.367 20:0 
-40.9240338291703 1:0.4 2:0.7 3:0.2 4:0.02 5:0 6:0.02 7:0.082 8:0.041 9:0.184 10:0 11:0.041 12:0 13:0 14:0 15:0.122 16:0.061 17:0.102 18:0.102 19:0.224 20:0 
-256 1:0.4 2:0.75 3:0.2 4:0.02 5:0.041 6:0 7:0.061 8:0 9:0.082 10:0.02 11:0.204 12:0 13:0.061 14:0 15:0.041 16:0.102 17:0.102 18:0.082 19:0.184 20:0 
9.845970906491726 1:0.4 2:0.75 3:0.2 4:0.02 5:0.082 6:0 7:0.02 8:0.041 9:0.082 10:0.061 11:0.122 12:0.02 13:0 14:0 15:0.061 16:0.041 17:0.143 18:0.041 19:0.265 20:0 
138.1586868550227 1:0.4 2:0.75 3:0.2 4:0 5:0.061 6:0.02 7:0.041 8:0.02 9:0.122 10:0 11:0.143 12:0.02 13:0.041 14:0.02 15:0.02 16:0.082 17:0.082 18:0.061 19:0.265 20:0 
44.95382381699385 1:0.4 2:0.75 3:0.2 4:0.02 5:0.02 6:0.02 7:0.061 8:0.061 9:0.122 10:0.041 11:0.082 12:0 13:0.061 14:0.02 15:0.02 16:0.041 17:0.102 18:0 19:0.327 20:0 
206.7406019904619 1:0.4 2:0.75 3:0.2 4:0.02 5:0.061 6:0 7:0.041 8:0.041 9:0.184 10:0.02 11:0.061 12:0 13:0.041 14:0.02 15:0.041 16:0.061 17:0.02 18:0.061 19:0.327 20:0 
256 1:0.4 2:0.75 3:0.2 4:0 5:0 6:0 7:0.122 8:0.02 9:0.184 10:0 11:0.102 12:0 13:0.02 14:0.02 15:0.061 16:0.082 17:0.102 18:0.082 19:0.204 20:0 
-256 1:0.4 2:0.75 3:0.2 4:0 5:0 6:0 7:0.122 8:0.082 9:0.163 10:0.02 11:0.02 12:0 13:0 14:0 15:0.102 16:0.041 17:0.143 18:0.082 19:0.224 20:0 
-256 1:0.4 2:0.75 3:0.2 4:0 5:0.02 6:0 7:0.102 8:0.082 9:0.082 10:0 11:0.143 12:0.02 13:0.061 14:0 15:0 16:0.02 17:0.143 18:0.102 19:0.224 20:0 
-256 1:0.4 2:0.75 3:0.2 4:0 5:0 6:0.02 7:0.102 8:0.082 9:0 10:0.061 11:0.143 12:0 13:0.061 14:0.02 15:0.02 16:0.041 17:0.224 18:0 19:0.224 20:0 
256 1:0.4 2:0.75 3:0.2 4:0 5:0.02 6:0.02 7:0.061 8:0.082 9:0.061 10:0.061 11:0.102 12:0.02 13:0 14:0.02 15:0.061 16:0 17:0.224 18:0 19:0.265 20:0 
256 1:0.4 2:0.75 3:0.2 4:0.02 5:0.082 6:0 7:0.02 8:0.082 9:0.02 10:0 11:0.204 12:0.02 13:0 14:0 15:0.082 16:0 17:0.184 18:0.102 19:0.184 20:0 
-256 1:0.4 2:0.8 3:0.2 4:0.02 5:0.02 6:0 7:0.082 8:0.061 9:0.122 10:0.041 11:0.082 12:0.02 13:0.02 14:0 15:0.041 16:0 17:0.163 18:0.041 19:0.286 20:0 
-124.3440037634339 1:0.4 2:0.8 3:0.2 4:0.02 5:0.041 6:0 7:0.061 8:0.041 9:0.184 10:0.041 11:0.061 12:0 13:0.02 14:0 15:0.061 16:0.061 17:0.082 18:0.02 19:0.306 20:0 
-256 1:0.4 2:0.8 3:0.2 4:0 5:0.082 6:0 7:0.041 8:0 9:0.163 10:0.02 11:0.122 12:0 13:0.041 14:0 15:0.041 16:0.122 17:0.041 18:0.061 19:0.265 20:0 
-256 1:0.4 2:0.8 3:0.2 4:0 5:0.02 6:0 7:0.102 8:0.061 9:0 10:0.02 11:0.224 12:0.02 13:0.041 14:0 15:0.02 16:0.041 17:0.265 18:0.061 19:0.122 20:0 
256 1:0.4 2:0.8 3:0.2 4:0 5:0.02 6:0.02 7:0.082 8:0 9:0.143 10:0 11:0.184 12:0 13:0.02 14:0 15:0.061 16:0.122 17:0.143 18:0.061 19:0.143 20:0 
194.3902512544251 1:0.4 2:0.8 3:0.2 4:0.02 5:0.02 6:0.02 7:0.041 8:0 9:0.041 10:0.041 11:0.245 12:0.02 13:0 14:0 15:0.061 16:0.082 17:0.265 18:0 19:0.143 20:0 
-194.037916324647 1:0.4 2:0.8 3:0.2 4:0 5:0.041 6:0 7:0.061 8:0 9:0.02 10:0 11:0.306 12:0.02 13:0.041 14:0 15:0.02 16:0.102 17:0.224 18:0.061 19:0.102 20:0 
256 1:0.4 2:0.8 3:0.2 4:0 5:0 6:0.02 7:0.102 8:0.02 9:0.082 10:0 11:0.204 12:0.02 13:0 14:0 15:0.061 16:0.082 17:0.245 18:0.061 19:0.102 20:0 
-256 1:0.4 2:0.8 3:0.2 4:0 5:0.082 6:0.02 7:0.02 8:0.061 9:0.041 10:0.061 11:0.163 12:0 13:0 14:0 15:0.082 16:0.061 17:0.204 18:0 19:0.204 20:0 
256 1:0.4 2:0.8 3:0.2 4:0.02 5:0 6:0 7:0.102 8:0.041 9:0.163 10:0 11:0.102 12:0.02 13:0.061 14:0 15:0 16:0.041 17:0.082 18:0.082 19:0.286 20:0 
-9.747412465120542 1:0.4 2:0.2 3:0.267 4:0.061 5:0.02 6:0.082 7:0 8:0 9:0 10:0 11:0.082 12:0.061 13:0.041 14:0.082 15:0.122 16:0.02 17:0.02 18:0.163 19:0.245 20:0 
-27.11199114030002 1:0.4 2:0.2 3:0.267 4:0 5:0 6:0.061 7:0.102 8:0 9:0 10:0.061 11:0.02 12:0 13:0.041 14:0.041 15:0.245 16:0.143 17:0.041 18:0.163 19:0.082 20:0 
-256 1:0.4 2:0.25 3:0.267 4:0 5:0.02 6:0.041 7:0.102 8:0.041 9:0 10:0.061 11:0 12:0.02 13:0.061 14:0.102 15:0.122 16:0.082 17:0.02 18:0.102 19:0.224 20:0 
-8.11363588350078 1:0.4 2:0.25 3:0.267 4:0.061 5:0 6:0.102 7:0 8:0 9:0 10:0 11:0.102 12:0 13:0.02 14:0.061 15:0.204 16:0.082 17:0.082 18:0.143 19:0.143 20:0 
-135.6714435196212 1:0.4 2:0.3 3:0.267 4:0.02 5:0.041 6:0.082 7:0.02 8:0.02 9:0.02 10:0.02 11:0.041 12:0.041 13:0.041 14:0.143 15:0.061 16:0.082 17:0.02 18:0.02 19:0.327 20:0 
73.5353266447467 1:0.4 2:0.3 3:0.267 4:0.061 5:0.02 6:0 7:0.082 8:0.02 9:0.02 10:0.082 11:0 12:0 13:0.061 14:0.041 15:0.184 16:0.082 17:0.02 18:0.143 19:0.184 20:0 
-2.971945521632423 1:0.4 2:0.3 3:0.267 4:0.061 5:0 6:0.082 7:0.02 8:0 9:0 10:0 11:0.122 12:0.041 13:0.082 14:0.102 15:0.061 16:0.061 17:0.041 18:0.102 19:0.224 20:0 
46.65814851267417 1:0.4 2:0.3 3:0.267 4:0 5:0 6:0.02 7:0.143 8:0 9:0 10:0.02 11:0.102 12:0.02 13:0.061 14:0.02 15:0.184 16:0.143 17:0.061 18:0.204 19:0.02 20:0 
256 1:0.4 2:0.35 3:0.267 4:0.041 5:0.02 6:0.082 7:0.02 8:0.02 9:0.041 10:0.082 11:0 12:0.02 13:0.02 14:0.061 15:0.143 16:0.082 17:0.061 18:0.02 19:0.286 20:0 
103.2296917800933 1:0.4 2:0.35 3:0.267 4:0.041 5:0.02 6:0.082 7:0.02 8:0 9:0.041 10:0.02 11:0.061 12:0.102 13:0.082 14:0.061 15:0.02 16:0.02 17:0 18:0.082 19:0.347 20:0 
-256 1:0.4 2:0.4 3:0.267 4:0.041 5:0.041 6:0 7:0.082 8:0.061 9:0.02 10:0.02 11:0.061 12:0 13:0.082 14:0.102 15:0.041 16:0.061 17:0.02 18:0.102 19:0.265 20:0 
-141.002761191324 1:0.4 2:0.4 3:0.267 4:0 5:0 6:0.061 7:0.102 8:0.02 9:0.061 10:0.082 11:0 12:0.082 13:0.061 14:0.061 15:0.02 16:0.061 17:0.041 18:0.041 19:0.306 20:0 
62.33315373542065 1:0.4 2:0.4 3:0.267 4:0.02 5:0 6:0.02 7:0.122 8:0.061 9:0 10:0 11:0.102 12:0.041 13:0 14:0.122 15:0.082 16:0.041 17:0.163 18:0.082 19:0.143 20:0 
-36.59815323114736 1:0.4 2:0.45 3:0.267 4:0 5:0.061 6:0.041 7:0.061 8:0 9:0.02 10:0.082 11:0.061 12:0.082 13:0 14:0.061 15:0.082 16:0.082 17:0.102 18:0.041 19:0.224 20:0 
-158.4543892551373 1:0.4 2:0.45 3:0.267 4:0 5:0.02 6:0.02 7:0.122 8:0.041 9:0.02 10:0.082 11:0.041 12:0.041 13:0.02 14:0.122 15:0.02 16:0.061 17:0.122 18:0 19:0.265 20:0 
256 1:0.4 2:0.45 3:0.267 4:0.041 5:0.041 6:0.02 7:0.061 8:0.041 9:0.061 10:0.041 11:0.041 12:0.02 13:0.082 14:0.082 15:0.02 16:0.061 17:0 18:0.082 19:0.306 20:0 
-163.8418313614195 1:0.4 2:0.45 3:0.267 4:0.041 5:0 6:0.041 7:0.082 8:0.041 9:0 10:0.082 11:0.061 12:0.082 13:0.02 14:0.061 15:0.061 16:0 17:0.163 18:0.02 19:0.245 20:0 
84.18409072640294 1:0.4 2:0.45 3:0.267 4:0.041 5:0.02 6:0 7:0.102 8:0.061 9:0.02 10:0.082 11:0 12:0.02 13:0.02 14:0.02 15:0.163 16:0.041 17:0.122 18:0.122 19:0.163 20:0 
256 1:0.4 2:0.45 3:0.267 4:0.061 5:0 6:0.082 7:0 8:0.041 9:0 10:0.082 11:0.061 12:0.02 13:0.02 14:0.061 15:0.122 16:0.02 17:0.163 18:0 19:0.265 20:0 
1.937719895462885 1:0.4 2:0.45 3:0.267 4:0.041 5:0.041 6:0.061 7:0 8:0.02 9:0.082 10:0 11:0.082 12:0 13:0.061 14:0.082 15:0.082 16:0.102 17:0 18:0.082 19:0.265 20:0 
-95.26350497239622 1:0.4 2:0.45 3:0.267 4:0 5:0.02 6:0 7:0.143 8:0.061 9:0.02 10:0 11:0.082 12:0.082 13:0.02 14:0 15:0.122 16:0.02 17:0.122 18:0.224 19:0.082 20:0 
256 1:0.4 2:0.5 3:0.267 4:0 5:0.041 6:0.02 7:0.102 8:0.061 9:0.061 10:0.061 11:0.02 12:0.061 13:0 14:0.061 15:0.082 16:0.041 17:0.102 18:0.061 19:0.224 20:0 
-95.13675434296447 1:0.4 2:0.5 3:0.267 4:0.02 5:0.041 6:0 7:0.102 8:0 9:0.102 10:0 11:0.102 12:0.041 13:0.02 14:0.061 15:0.061 16:0.102 17:0.041 18:0.143 19:0.163 20:0 
-237.0271338158335 1:0.4 2:0.5 3:0.267 4:0 5:0 6:0.02 7:0.143 8:0.041 9:0.102 10:0.041 11:0.02 12:0.041 13:0 14:0.041 15:0.122 16:0.082 17:0.102 18:0.102 19:0.143 20:0 
-26.94984863213138 1:0.4 2:0.5 3:0.267 4:0 5:0 6:0 7:0.163 8:0.041 9:0 10:0.082 11:0.082 12:0.041 13:0.02 14:0.061 15:0.061 16:0.082 17:0.184 18:0.041 19:0.143 20:0 
187.143336512921 1:0.4 2:0.5 3:0.267 4:0.061 5:0 6:0.02 7:0.082 8:0.02 9:0.061 10:0.02 11:0.102 12:0.082 13:0.041 14:0.041 15:0.02 16:0 17:0.102 18:0.122 19:0.224 20:0 
-161.2644744057232 1:0.4 2:0.5 3:0.267 4:0 5:0.041 6:0.082 7:0.041 8:0.082 9:0.082 10:0 11:0.02 12:0.02 13:0.02 14:0.102 15:0.061 16:0.061 17:0.061 18:0.02 19:0.306 20:0 
-22.59590822435287 1:0.4 2:0.5 3:0.267 4:0.061 5:0.061 6:0 7:0.02 8:0.061 9:0.041 10:0 11:0.102 12:0 13:0.082 14:0.102 15:0.02 16:0.041 17:0.02 18:0.082 19:0.306 20:0 
70.30256687975348 1:0.4 2:0.5 3:0.267 4:0 5:0.02 6:0.082 7:0.061 8:0.02 9:0.02 10:0 11:0.163 12:0.082 13:0.082 14:0.02 15:0 16:0.041 17:0.082 18:0.102 19:0.224 20:0 
-64.09337143302463 1:0.4 2:0.55 3:0.267 4:0.02 5:0.02 6:0.041 7:0.082 8:0.041 9:0.041 10:0.082 11:0.041 12:0.041 13:0 14:0.061 15:0.082 16:0.061 17:0.143 18:0 19:0.245 20:0 
-256 1:0.4 2:0.55 3:0.267 4:0.041 5:0 6:0.061 7:0.061 8:0.061 9:0.041 10:0.041 11:0.061 12:0 13:0.082 14:0.061 15:0.041 16:0.061 17:0.102 18:0.02 19:0.265 20:0 
81.90590065849219 1:0.4 2:0.55 3:0.267 4:0.041 5:0 6:0 7:0.122 8:0.02 9:0.102 10:0 11:0.082 12:0.02 13:0.041 14:0 15:0.122 16:0.082 17:0.061 18:0.184 19:0.122 20:0 
-173.1916288921554 1:0.4 2:0.55 3:0.267 4:0 5:0.02 6:0.041 7:0.102 8:0 9:0.041 10:0.02 11:0.163 12:0 13:0.02 14:0.082 15:0.082 16:0.163 17:0.122 18:0.041 19:0.102 20:0 
256 1:0.4 2:0.6 3:0.267 4:0.02 5:0.041 6:0 7:0.102 8:0.041 9:0.041 10:0.02 11:0.143 12:0.02 13:0.082 14:0.041 15:0 16:0.061 17:0.082 18:0.102 19:0.204 20:0 
16.59679946106519 1:0.4 2:0.6 3:0.267 4:0.02 5:0 6:0.061 7:0.082 8:0.02 9:0.02 10:0.041 11:0.143 12:0.02 13:0 14:0.02 15:0.122 16:0.102 17:0.224 18:0.02 19:0.102 20:0 
-98.29685728856342 1:0.4 2:0.6 3:0.267 4:0 5:0 6:0 7:0.163 8:0.041 9:0.082 10:0 11:0.122 12:0 13:0.082 14:0.02 15:0.061 16:0.102 17:0.082 18:0.143 19:0.102 20:0 
-256 1:0.4 2:0.6 3:0.267 4:0.061 5:0 6:0.061 7:0.041 8:0.02 9:0.143 10:0.02 11:0.061 12:0 13:0 14:0 15:0.163 16:0.082 17:0.102 18:0.082 19:0.163 20:0 
-23.24109698242582 1:0.4 2:0.6 3:0.267 4:0.061 5:0.02 6:0.041 7:0.02 8:0.041 9:0.082 10:0.082 11:0.041 12:0.061 13:0.02 14:0.041 15:0.041 16:0 17:0.122 18:0 19:0.327 20:0 
-32.44469408044834 1:0.4 2:0.65 3:0.267 4:0.041 5:0.02 6:0 7:0.102 8:0.02 9:0.122 10:0 11:0.122 12:0.041 13:0.02 14:0.041 15:0.02 16:0.061 17:0.102 18:0.102 19:0.184 20:0 
-70.47781709536959 1:0.4 2:0.65 3:0.267 4:0.041 5:0.102 6:0.02 7:0 8:0 9:0.102 10:0.061 11:0.082 12:0.041 13:0.02 14:0 15:0.082 16:0.082 17:0.041 18:0.041 19:0.286 20:0 
34.28032771556283 1:0.4 2:0.65 3:0.267 4:0.041 5:0 6:0 7:0.122 8:0.02 9:0.041 10:0 11:0.204 12:0.02 13:0.061 14:0.041 15:0 16:0.082 17:0.163 18:0.102 19:0.102 20:0 
-35.07213199139223 1:0.4 2:0.65 3:0.267 4:0 5:0.102 6:0.041 7:0.02 8:0 9:0.122 10:0.02 11:0.122 12:0 13:0 14:0.041 15:0.082 16:0.143 17:0.041 18:0.041 19:0.224 20:0 
-79.61290782233384 1:0.4 2:0.65 3:0.267 4:0 5:0.082 6:0 7:0.082 8:0.102 9:0 10:0.041 11:0.122 12:0.041 13:0.041 14:0.041 15:0 16:0.02 17:0.143 18:0.061 19:0.224 20:0 
42.07886982746337 1:0.4 2:0.65 3:0.267 4:0 5:0.061 6:0 7:0.102 8:0 9:0.061 10:0 11:0.204 12:0 13:0.02 14:0 15:0.102 16:0.163 17:0.122 18:0.122 19:0.041 20:0 
256 1:0.4 2:0.7 3:0.267 4:0 5:0.102 6:0 7:0.061 8:0.041 9:0.061 10:0.061 11:0.122 12:0.041 13:0.041 14:0.02 15:0.02 16:0.061 17:0.082 18:0.041 19:0.245 20:0 
256 1:0.4 2:0.7 3:0.267 4:0.061 5:0 6:0.041 7:0.061 8:0.041 9:0.102 10:0 11:0.143 12:0 13:0 14:0.02 15:0.102 16:0.061 17:0.163 18:0.061 19:0.143 20:0 
256 1:0.4 2:0.7 3:0.267 4:0 5:0.02 6:0 7:0.143 8:0.082 9:0.143 10:0.02 11:0.02 12:0 13:0 14:0 15:0.122 16:0.082 17:0.122 18:0.102 19:0.143 20:0 
89.41971118381464 1:0.4 2:0.7 3:0.267 4:0 5:0.041 6:0.02 7:0.102 8:0 9:0.02 10:0 11:0.265 12:0 13:0.041 14:0.02 15:0.041 16:0.143 17:0.184 18:0.082 19:0.041 20:0 
176.7530413268812 1:0.4 2:0.7 3:0.267 4:0 5:0 6:0 7:0.163 8:0.02 9:0.102 10:0.02 11:0.143 12:0.02 13:0.02 14:0.02 15:0.061 16:0.122 17:0.163 18:0.082 19:0.061 20:0 
256 1:0.4 2:0.7 3:0.267 4:0.041 5:0.082 6:0.02 7:0.02 8:0.041 9:0 10:0.041 11:0.204 12:0.041 13:0.041 14:0.02 15:0 16:0.02 17:0.163 18:0.041 19:0.224 20:0 
256 1:0.4 2:0.75 3:0.267 4:0.02 5:0.041 6:0 7:0.102 8:0.082 9:0.102 10:0.02 11:0.102 12:0 13:0.041 14:0.02 15:0.02 16:0.061 17:0.102 18:0.061 19:0.224 20:0 
256 1:0.4 2:0.75 3:0.267 4:0.02 5:0.041 6:0.041 7:0.061 8:0.122 9:0.041 10:0 11:0.122 12:0 13:0.061 14:0 15:0.041 16:0.02 17:0.163 18:0.041 19:0.224 20:0 
190.3231709070693 1:0.4 2:0.75 3:0.267 4:0.061 5:0.061 6:0 7:0.041 8:0.102 9:0.061 10:0.061 11:0.082 12:0 13:0.061 14:0 15:0.041 16:0 17:0.102 18:0.041 19:0.286 20:0 
-256 1:0.4 2:0.75 3:0.267 4:0.041 5:0.102 6:0 7:0.02 8:0.02 9:0.041 10:0.02 11:0.224 12:0.041 13:0.041 14:0 15:0 16:0.061 17:0.102 18:0.082 19:0.204 20:0 
110.0815502010348 1:0.4 2:0.75 3:0.267 4:0 5:0.02 6:0 7:0.143 8:0.082 9:0.061 10:0.02 11:0.122 12:0.041 13:0.041 14:0.02 15:0 16:0.041 17:0.184 18:0.061 19:0.163 20:0 
256 1:0.4 2:0.75 3:0.267 4:0 5:0.082 6:0 7:0.082 8:0.102 9:0.041 10:0.061 11:0.082 12:0.02 13:0 14:0.02 15:0.061 16:0.041 17:0.184 18:0.02 19:0.204 20:0 
-256 1:0.4 2:0.75 3:0.267 4:0.041 5:0.02 6:0 7:0.102 8:0.041 9:0.082 10:0 11:0.184 12:0 13:0 14:0 15:0.082 16:0.082 17:0.184 18:0.102 19:0.082 20:0 
128.189684218685 1:0.4 2:0.75 3:0.267 4:0 5:0.02 6:0.041 7:0.102 8:0.122 9:0.061 10:0 11:0.102 12:0.02 13:0 14:0 15:0.082 16:0 17:0.224 18:0.061 19:0.163 20:0 
256 1:0.4 2:0.75 3:0.267 4:0 5:0.02 6:0.02 7:0.122 8:0 9:0.061 10:0.041 11:0.184 12:0 13:0 14:0 15:0.102 16:0.143 17:0.224 18:0.041 19:0.041 20:0 
256 1:0.4 2:0.75 3:0.267 4:0.061 5:0.02 6:0.02 7:0.061 8:0.061 9:0.122 10:0 11:0.122 12:0.041 13:0 14:0 15:0.041 16:0 17:0.163 18:0.082 19:0.204 20:0 
113.4605665798528 1:0.4 2:0.75 3:0.267 4:0.02 5:0.082 6:0 7:0.061 8:0 9:0.163 10:0.02 11:0.122 12:0 13:0.041 14:0 15:0.061 16:0.143 17:0 18:0.082 19:0.204 20:0 
255.2745459244385 1:0.4 2:0.75 3:0.267 4:0.061 5:0.061 6:0 7:0.041 8:0.082 9:0.041 10:0 11:0.163 12:0 13:0 14:0.02 15:0.082 16:0.02 17:0.204 18:0.082 19:0.143 20:0 
256 1:0.4 2:0.75 3:0.267 4:0 5:0.02 6:0.041 7:0.102 8:0.122 9:0.082 10:0.041 11:0.041 12:0 13:0.061 14:0.02 15:0.02 16:0.041 17:0.122 18:0 19:0.286 20:0 
-256 1:0.4 2:0.8 3:0.267 4:0.041 5:0.041 6:0 7:0.082 8:0.082 9:0.143 10:0.041 11:0.061 12:0 13:0.02 14:0 15:0.061 16:0.041 17:0.102 18:0.041 19:0.245 20:0 
256 1:0.4 2:0.8 3:0.267 4:0 5:0.122 6:0.02 7:0.02 8:0.122 9:0.082 10:0.02 11:0.082 12:0.02 13:0 14:0 15:0.061 16:0.02 17:0.122 18:0.041 19:0.265 20:0 
-188.8391139218718 1:0.4 2:0.8 3:0.267 4:0.041 5:0.102 6:0 7:0 8:0 9:0.102 10:0.02 11:0.204 12:0.02 13:0.061 14:0 15:0 16:0.102 17:0.041 18:0.061 19:0.245 20:0 
-256 1:0.4 2:0.8 3:0.267 4:0 5:0.102 6:0 7:0.061 8:0.102 9:0.041 10:0.02 11:0.143 12:0 13:0 14:0 15:0.082 16:0.041 17:0.184 18:0.061 19:0.163 20:0 
-256 1:0.4 2:0.8 3:0.267 4:0.02 5:0.061 6:0.02 7:0.061 8:0 9:0.082 10:0.02 11:0.224 12:0.02 13:0.041 14:0 15:0 16:0.102 17:0.143 18:0.041 19:0.163 20:0 
64.94870489237502 1:0.4 2:0.8 3:0.267 4:0.061 5:0.02 6:0.02 7:0.041 8:0.041 9:0.082 10:0.061 11:0.143 12:0.02 13:0 14:0 15:0.061 16:0.041 17:0.224 18:0 19:0.184 20:0 
-71.81201239427948 1:0.4 2:0.8 3:0.267 4:0.02 5:0.041 6:0.02 7:0.082 8:0.041 9:0.02 10:0.061 11:0.204 12:0 13:0.02 14:0 15:0.061 16:0.102 17:0.245 18:0 19:0.082 20:0 
-17.07329146235957 1:0.4 2:0.8 3:0.267 4:0 5:0.02 6:0 7:0.122 8:0 9:0.143 10:0.02 11:0.163 12:0 13:0.041 14:0 15:0.041 16:0.163 17:0.102 18:0.061 19:0.122 20:0 
-97.56382010604626 1:0.4 2:0.8 3:0.267 4:0.061 5:0.02 6:0 7:0.082 8:0.082 9:0 10:0 11:0.245 12:0 13:0.02 14:0 15:0.061 16:0.02 17:0.286 18:0.082 19:0.041 20:0 
-256 1:0.4 2:0.8 3:0.267 4:0.041 5:0.041 6:0 7:0.082 8:0 9:0.204 10:0 11:0.122 12:0.02 13:0.061 14:0 15:0 16:0.102 17:0.02 18:0.061 19:0.245 20:0 
256 1:0.4 2:0.8 3:0.267 4:0.02 5:0 6:0 7:0.143 8:0.122 9:0.02 10:0.02 11:0.163 12:0 13:0.041 14:0 15:0.041 16:0.02 17:0.245 18:0.061 19:0.102 20:0 
-198.2046879559864 1:0.4 2:0.8 3:0.267 4:0.061 5:0.02 6:0 7:0.061 8:0 9:0.102 10:0 11:0.224 12:0 13:0 14:0 15:0.082 16:0.082 17:0.204 18:0.082 19:0.082 20:0 
-185.9424351779673 1:0.4 2:0.8 3:0.267 4:0.061 5:0.082 6:0.02 7:0 8:0.102 9:0.041 10:0.061 11:0.102 12:0 13:0.02 14:0 15:0.061 16:0 17:0.184 18:0 19:0.265 20:0 
76.46606897833665 1:0.4 2:0.8 3:0.267 4:0 5:0.061 6:0 7:0.102 8:0.082 9:0 10:0.061 11:0.184 12:0.02 13:0.061 14:0 15:0 16:0.061 17:0.184 18:0.02 19:0.163 20:0 
47.488071931141 1:0.4 2:0.8 3:0.267 4:0.061 5:0 6:0.02 7:0.061 8:0.061 9:0.143 10:0.061 11:0.061 12:0.02 13:0.061 14:0 15:0 16:0.02 17:0.122 18:0 19:0.306 20:0 
-21.86415067993319 1:0.4 2:0.25 3:0.3 4:0.061 5:0.041 6:0.061 7:0 8:0.02 9:0 10:0.061 11:0.02 12:0 13:0 14:0.041 15:0.265 16:0.102 17:0.041 18:0.143 19:0.143 20:0 
-256 1:0.4 2:0.3 3:0.3 4:0 5:0.02 6:0 7:0.163 8:0 9:0.02 10:0.061 11:0.041 12:0.02 13:0 14:0.122 15:0.122 16:0.163 17:0.082 18:0.102 19:0.082 20:0 
156.2549289917428 1:0.4 2:0.35 3:0.3 4:0 5:0 6:0.061 7:0.122 8:0.041 9:0.041 10:0.061 11:0 12:0.041 13:0.061 14:0.102 15:0.061 16:0.102 17:0.041 18:0.041 19:0.224 20:0 
103.9031750450127 1:0.4 2:0.35 3:0.3 4:0 5:0 6:0.102 7:0.082 8:0.02 9:0.02 10:0.061 11:0.02 12:0 13:0.041 14:0.02 15:0.204 16:0.163 17:0.061 18:0.082 19:0.122 20:0 
256 1:0.4 2:0.35 3:0.3 4:0.041 5:0.061 6:0.041 7:0.041 8:0 9:0.041 10:0.041 11:0.041 12:0.02 13:0.041 14:0.061 15:0.143 16:0.122 17:0 18:0.102 19:0.204 20:0 
256 1:0.4 2:0.35 3:0.3 4:0 5:0.02 6:0.061 7:0.102 8:0.061 9:0.041 10:0 11:0.041 12:0 13:0.082 14:0.061 15:0.102 16:0.102 17:0 18:0.143 19:0.184 20:0 
97.91970406640759 1:0.4 2:0.35 3:0.3 4:0 5:0.041 6:0.061 7:0.082 8:0.02 9:0.041 10:0.061 11:0 12:0.102 13:0 14:0.122 15:0.041 16:0.061 17:0.061 18:0.02 19:0.286 20:0 
-165.8553073210597 1:0.4 2:0.4 3:0.3 4:0.02 5:0.061 6:0 7:0.102 8:0.02 9:0.061 10:0.082 11:0 12:0.102 13:0.041 14:0.02 15:0.082 16:0.041 17:0 18:0.122 19:0.245 20:0 
-166.3515369365482 1:0.4 2:0.4 3:0.3 4:0.02 5:0.041 6:0 7:0.122 8:0.061 9:0.02 10:0.061 11:0.02 12:0 13:0.061 14:0 15:0.184 16:0.102 17:0.02 18:0.184 19:0.102 20:0 
-38.47118220695865 1:0.4 2:0.4 3:0.3 4:0 5:0.02 6:0.082 7:0.082 8:0.02 9:0.041 10:0.082 11:0.02 12:0 13:0.061 14:0 15:0.184 16:0.163 17:0.041 18:0.082 19:0.122 20:0 
256 1:0.4 2:0.4 3:0.3 4:0 5:0.061 6:0 7:0.122 8:0 9:0.02 10:0.02 11:0.122 12:0 13:0.02 14:0.143 15:0.082 16:0.184 17:0.061 18:0.082 19:0.082 20:0 
256 1:0.4 2:0.4 3:0.3 4:0 5:0 6:0.082 7:0.102 8:0.041 9:0.061 10:0.061 11:0 12:0.02 13:0.082 14:0.082 15:0.041 16:0.122 17:0.02 18:0.02 19:0.265 20:0 
-107.0907005026383 1:0.4 2:0.4 3:0.3 4:0 5:0.02 6:0.082 7:0.082 8:0.02 9:0.061 10:0.082 11:0 12:0.082 13:0.041 14:0.02 15:0.102 16:0.082 17:0.041 18:0.041 19:0.245 20:0 
-37.69589893951716 1:0.4 2:0.45 3:0.3 4:0.061 5:0 6:0 7:0.122 8:0.082 9:0.041 10:0.02 11:0.041 12:0.041 13:0.02 14:0.082 15:0.082 16:0 17:0.102 18:0.122 19:0.184 20:0 
-256 1:0.4 2:0.45 3:0.3 4:0.061 5:0.041 6:0.02 7:0.061 8:0 9:0.061 10:0.082 11:0.041 12:0.02 13:0.061 14:0.02 15:0.102 16:0.102 17:0.02 18:0.082 19:0.224 20:0 
221.1961325577846 1:0.4 2:0.45 3:0.3 4:0.082 5:0 6:0 7:0.102 8:0.02 9:0.02 10:0.061 11:0.061 12:0.082 13:0.061 14:0.061 15:0.02 16:0 17:0.102 18:0.082 19:0.245 20:0 
-163.8678772441057 1:0.4 2:0.45 3:0.3 4:0 5:0.082 6:0.02 7:0.082 8:0.061 9:0 10:0.061 11:0.041 12:0 13:0 14:0.02 15:0.204 16:0.122 17:0.102 18:0.122 19:0.082 20:0 
-256 1:0.4 2:0.5 3:0.3 4:0.061 5:0.041 6:0.02 7:0.061 8:0.082 9:0.061 10:0 11:0.041 12:0 13:0.041 14:0.102 15:0.061 16:0.041 17:0.061 18:0.082 19:0.245 20:0 
-96.50469173221097 1:0.4 2:0.5 3:0.3 4:0.061 5:0 6:0.061 7:0.061 8:0 9:0.082 10:0.102 11:0.02 12:0.02 13:0.082 14:0 15:0.082 16:0.102 17:0.041 18:0.02 19:0.265 20:0 
178.1150932900181 1:0.4 2:0.55 3:0.3 4:0.02 5:0.02 6:0.061 7:0.082 8:0.061 9:0.041 10:0.02 11:0.102 12:0.041 13:0.02 14:0.061 15:0.061 16:0.061 17:0.143 18:0.041 19:0.163 20:0 
-256 1:0.4 2:0.55 3:0.3 4:0 5:0.082 6:0 7:0.102 8:0.041 9:0.061 10:0.02 11:0.082 12:0.082 13:0.02 14:0.082 15:0 16:0.061 17:0.061 18:0.061 19:0.245 20:0 
-15.53066399951461 1:0.4 2:0.55 3:0.3 4:0 5:0.061 6:0.082 7:0.041 8:0.041 9:0 10:0 11:0.184 12:0 13:0.082 14:0 15:0.082 16:0.143 17:0.061 18:0.102 19:0.122 20:0 
10.7837146782067 1:0.4 2:0.55 3:0.3 4:0 5:0.061 6:0 7:0.122 8:0.02 9:0 10:0.061 11:0.143 12:0 13:0.061 14:0 15:0.122 16:0.163 17:0.082 18:0.122 19:0.041 20:0 
-55.59365024930807 1:0.4 2:0.55 3:0.3 4:0.041 5:0.041 6:0.02 7:0.082 8:0.061 9:0.122 10:0 11:0.02 12:0 13:0.061 14:0.041 15:0.082 16:0.061 17:0 18:0.122 19:0.245 20:0 
-206.3891626816468 1:0.4 2:0.55 3:0.3 4:0.082 5:0 6:0 7:0.102 8:0.02 9:0.061 10:0.082 11:0.041 12:0 13:0.061 14:0.082 15:0.041 16:0.061 17:0.102 18:0.02 19:0.245 20:0 
-53.33851790477115 1:0.4 2:0.55 3:0.3 4:0 5:0 6:0.041 7:0.143 8:0.061 9:0 10:0.02 11:0.122 12:0.02 13:0.082 14:0.061 15:0.02 16:0.102 17:0.143 18:0.061 19:0.122 20:0 
-256 1:0.4 2:0.6 3:0.3 4:0.041 5:0.02 6:0.041 7:0.082 8:0.102 9:0.02 10:0.02 11:0.102 12:0.02 13:0 14:0.061 15:0.082 16:0.02 17:0.204 18:0.02 19:0.163 20:0 
256 1:0.4 2:0.6 3:0.3 4:0.02 5:0 6:0.02 7:0.143 8:0.02 9:0.122 10:0.061 11:0.02 12:0.02 13:0.02 14:0 15:0.122 16:0.122 17:0.102 18:0.061 19:0.143 20:0 
-15.25228411968964 1:0.4 2:0.6 3:0.3 4:0 5:0.102 6:0.041 7:0.041 8:0.082 9:0.02 10:0 11:0.143 12:0.041 13:0.02 14:0.061 15:0.02 16:0.061 17:0.082 18:0.061 19:0.224 20:0 
15.45043906795642 1:0.4 2:0.6 3:0.3 4:0.041 5:0 6:0.02 7:0.122 8:0.041 9:0.02 10:0.02 11:0.143 12:0.02 13:0.041 14:0 15:0.102 16:0.061 17:0.184 18:0.122 19:0.061 20:0 
18.55492605376253 1:0.4 2:0.6 3:0.3 4:0 5:0.082 6:0 7:0.082 8:0.061 9:0.082 10:0.02 11:0.082 12:0.02 13:0.082 14:0.061 15:0 16:0.102 17:0 18:0.082 19:0.245 20:0 
256 1:0.4 2:0.65 3:0.3 4:0 5:0.082 6:0 7:0.102 8:0.082 9:0.082 10:0.02 11:0.082 12:0.061 13:0 14:0.02 15:0.041 16:0.041 17:0.102 18:0.102 19:0.184 20:0 
-256 1:0.4 2:0.65 3:0.3 4:0.082 5:0.02 6:0.061 7:0.02 8:0.02 9:0.061 10:0.041 11:0.122 12:0.041 13:0.02 14:0.041 15:0.041 16:0.041 17:0.163 18:0 19:0.224 20:0 
-167.3196417411193 1:0.4 2:0.65 3:0.3 4:0.061 5:0.102 6:0 7:0 8:0.082 9:0.02 10:0.061 11:0.102 12:0.041 13:0 14:0.02 15:0.082 16:0 17:0.143 18:0.061 19:0.224 20:0 
2.505722090524297 1:0.4 2:0.65 3:0.3 4:0.041 5:0 6:0.061 7:0.082 8:0.102 9:0 10:0 11:0.143 12:0 13:0.041 14:0.041 15:0.061 16:0.041 17:0.224 18:0.02 19:0.143 20:0 
-256 1:0.4 2:0.65 3:0.3 4:0.02 5:0.02 6:0.02 7:0.122 8:0.102 9:0 10:0.082 11:0.082 12:0.041 13:0.02 14:0.02 15:0.041 16:0 17:0.224 18:0.02 19:0.184 20:0 
34.51147212272345 1:0.4 2:0.7 3:0.3 4:0.041 5:0.122 6:0 7:0.02 8:0 9:0.041 10:0.061 11:0.184 12:0.02 13:0.041 14:0.02 15:0.041 16:0.122 17:0.082 18:0.02 19:0.184 20:0 
144.3575330109084 1:0.4 2:0.7 3:0.3 4:0.02 5:0.061 6:0 7:0.102 8:0.082 9:0.061 10:0.082 11:0.041 12:0.041 13:0.041 14:0.02 15:0.02 16:0.041 17:0.102 18:0.02 19:0.265 20:0 
21.92493340037204 1:0.4 2:0.7 3:0.3 4:0.041 5:0.102 6:0.02 7:0.02 8:0.061 9:0.061 10:0 11:0.163 12:0.02 13:0.082 14:0 15:0.02 16:0.061 17:0.02 18:0.102 19:0.224 20:0 
254.8845293370901 1:0.4 2:0.7 3:0.3 4:0.082 5:0.041 6:0.041 7:0.02 8:0 9:0.102 10:0.041 11:0.143 12:0 13:0.041 14:0.02 15:0.041 16:0.102 17:0.102 18:0 19:0.224 20:0 
-256 1:0.4 2:0.7 3:0.3 4:0 5:0.102 6:0 7:0.082 8:0 9:0.102 10:0.02 11:0.163 12:0.041 13:0.041 14:0.02 15:0 16:0.143 17:0.041 18:0.082 19:0.163 20:0 
18.75847285964965 1:0.4 2:0.7 3:0.3 4:0.061 5:0.061 6:0.041 7:0.02 8:0.02 9:0.02 10:0 11:0.224 12:0 13:0 14:0.02 15:0.102 16:0.102 17:0.204 18:0.041 19:0.082 20:0 
256 1:0.4 2:0.7 3:0.3 4:0.061 5:0.082 6:0.02 7:0.02 8:0 9:0.082 10:0.061 11:0.122 12:0 13:0 14:0 15:0.122 16:0.122 17:0.122 18:0.02 19:0.163 20:0 
-256 1:0.4 2:0.7 3:0.3 4:0.02 5:0 6:0.041 7:0.102 8:0.02 9:0.163 10:0.041 11:0.061 12:0 13:0 14:0 15:0.122 16:0.143 17:0.122 18:0.041 19:0.122 20:0 
-256 1:0.4 2:0.75 3:0.3 4:0.02 5:0.061 6:0.02 7:0.082 8:0.122 9:0.102 10:0.041 11:0.041 12:0.02 13:0.02 14:0 15:0.061 16:0.02 17:0.102 18:0.041 19:0.245 20:0 
42.48708839762184 1:0.4 2:0.75 3:0.3 4:0 5:0.102 6:0 7:0.082 8:0.061 9:0.102 10:0.061 11:0.061 12:0 13:0.041 14:0 15:0.061 16:0.122 17:0.061 18:0.041 19:0.204 20:0 
-250.2359221481836 1:0.4 2:0.75 3:0.3 4:0 5:0.041 6:0 7:0.143 8:0.02 9:0.122 10:0.02 11:0.143 12:0.041 13:0 14:0 15:0.061 16:0.122 17:0.143 18:0.061 19:0.082 20:0 
111.951333564619 1:0.4 2:0.75 3:0.3 4:0 5:0.122 6:0 7:0.061 8:0.02 9:0.061 10:0 11:0.224 12:0 13:0.02 14:0.02 15:0.041 16:0.163 17:0.102 18:0.082 19:0.082 20:0 
227.2688245886498 1:0.4 2:0.75 3:0.3 4:0.02 5:0.061 6:0.02 7:0.082 8:0.122 9:0.061 10:0.02 11:0.102 12:0.02 13:0 14:0 15:0.082 16:0 17:0.184 18:0.061 19:0.163 20:0 
-256 1:0.4 2:0.75 3:0.3 4:0.082 5:0.041 6:0.041 7:0.02 8:0.061 9:0.082 10:0.041 11:0.102 12:0 13:0.041 14:0 15:0.061 16:0.041 17:0.143 18:0 19:0.245 20:0 
-227.4442018873325 1:0.4 2:0.75 3:0.3 4:0 5:0.082 6:0 7:0.102 8:0.102 9:0 10:0.041 11:0.163 12:0.041 13:0 14:0.02 15:0.041 16:0.041 17:0.224 18:0.041 19:0.102 20:0 
247.3141280640636 1:0.4 2:0.75 3:0.3 4:0 5:0.041 6:0 7:0.122 8:0.102 9:0.041 10:0.061 11:0.102 12:0.041 13:0.041 14:0.02 15:0 16:0.041 17:0.184 18:0.02 19:0.184 20:0 
-256 1:0.4 2:0.75 3:0.3 4:0.061 5:0.061 6:0 7:0.061 8:0 9:0.082 10:0.041 11:0.184 12:0 13:0 14:0 15:0.102 16:0.122 17:0.143 18:0.061 19:0.082 20:0 
89.30278448039773 1:0.4 2:0.75 3:0.3 4:0.02 5:0.041 6:0.02 7:0.102 8:0 9:0.041 10:0.041 11:0.224 12:0 13:0.061 14:0 15:0.041 16:0.163 17:0.143 18:0.041 19:0.061 20:0 
-256 1:0.4 2:0.75 3:0.3 4:0.061 5:0 6:0.041 7:0.082 8:0.061 9:0.102 10:0 11:0.122 12:0.041 13:0.02 14:0.02 15:0.02 16:0 17:0.184 18:0.041 19:0.204 20:0 
11.96773363926675 1:0.4 2:0.75 3:0.3 4:0 5:0.041 6:0.041 7:0.082 8:0.041 9:0.02 10:0.02 11:0.224 12:0.02 13:0 14:0 15:0.082 16:0.122 17:0.224 18:0.041 19:0.041 20:0 
-256 1:0.4 2:0.75 3:0.3 4:0.061 5:0 6:0.02 7:0.102 8:0 9:0.082 10:0.061 11:0.143 12:0 13:0 14:0 15:0.102 16:0.122 17:0.224 18:0.02 19:0.061 20:0 
-256 1:0.4 2:0.75 3:0.3 4:0 5:0.122 6:0.041 7:0.02 8:0.122 9:0.02 10:0.061 11:0.102 12:0 13:0.02 14:0 15:0.082 16:0.061 17:0.122 18:0 19:0.224 20:0 
-29.21964809781548 1:0.4 2:0.75 3:0.3 4:0.061 5:0 6:0 7:0.102 8:0.082 9:0.184 10:0 11:0.041 12:0.02 13:0.02 14:0 15:0.061 16:0 17:0.102 18:0.102 19:0.224 20:0 
-256 1:0.4 2:0.8 3:0.3 4:0.041 5:0 6:0 7:0.122 8:0.082 9:0.143 10:0.02 11:0.082 12:0 13:0.02 14:0 15:0.061 16:0.061 17:0.143 18:0.061 19:0.163 20:0 
199.5240076557328 1:0.4 2:0.8 3:0.3 4:0.061 5:0.061 6:0.02 7:0.041 8:0.061 9:0.061 10:0.061 11:0.143 12:0.02 13:0 14:0 15:0.061 16:0.041 17:0.204 18:0 19:0.163 20:0 
256 1:0.4 2:0.8 3:0.3 4:0.041 5:0.061 6:0.02 7:0.061 8:0.082 9:0.082 10:0 11:0.143 12:0.02 13:0.041 14:0 15:0.02 16:0.041 17:0.143 18:0.061 19:0.184 20:0 
-256 1:0.4 2:0.8 3:0.3 4:0.041 5:0 6:0.02 7:0.122 8:0.102 9:0.082 10:0.02 11:0.122 12:0 13:0.02 14:0 15:0.061 16:0.041 17:0.224 18:0.041 19:0.102 20:0 
256 1:0.4 2:0.8 3:0.3 4:0.061 5:0.122 6:0 7:0 8:0.061 9:0.082 10:0.061 11:0.122 12:0.02 13:0 14:0 15:0.061 16:0.041 17:0.122 18:0.02 19:0.224 20:0 
25.07791733611528 1:0.4 2:0.8 3:0.3 4:0.082 5:0.02 6:0.02 7:0.061 8:0.061 9:0.041 10:0 11:0.204 12:0 13:0.061 14:0 15:0.02 16:0.041 17:0.204 18:0.061 19:0.122 20:0 
12.83004392825639 1:0.4 2:0.8 3:0.3 4:0 5:0.143 6:0 7:0.041 8:0.02 9:0.02 10:0.061 11:0.224 12:0 13:0.041 14:0 15:0.041 16:0.163 17:0.102 18:0.02 19:0.122 20:0 
-256 1:0.4 2:0.8 3:0.3 4:0.02 5:0.082 6:0.02 7:0.061 8:0.143 9:0.082 10:0.02 11:0.082 12:0 13:0 14:0 15:0.061 16:0.02 17:0.163 18:0.02 19:0.224 20:0 
256 1:0.4 2:0.8 3:0.3 4:0.02 5:0.082 6:0 7:0.082 8:0.122 9:0.02 10:0.02 11:0.163 12:0.02 13:0 14:0 15:0.061 16:0.02 17:0.204 18:0.061 19:0.122 20:0 
-256 1:0.4 2:0.8 3:0.3 4:0 5:0.041 6:0.02 7:0.122 8:0 9:0.204 10:0.02 11:0.102 12:0.02 13:0.041 14:0 15:0.02 16:0.163 17:0.041 18:0.041 19:0.163 20:0 
-178.7076355954114 1:0.4 2:0.8 3:0.3 4:0.041 5:0.102 6:0 7:0.041 8:0.061 9:0.163 10:0.041 11:0.061 12:0.02 13:0.041 14:0 15:0.02 16:0.061 17:0 18:0.041 19:0.306 20:0 
29.22243101587812 1:0.4 2:0.8 3:0.3 4:0.02 5:0.102 6:0.02 7:0.02 8:0 9:0.163 10:0 11:0.163 12:0 13:0.02 14:0 15:0.061 16:0.163 17:0.041 18:0.061 19:0.163 20:0 
256 1:0.4 2:0.8 3:0.3 4:0.02 5:0.061 6:0 7:0.102 8:0.02 9:0.184 10:0.061 11:0.041 12:0 13:0 14:0 15:0.082 16:0.143 17:0.082 18:0.02 19:0.184 20:0 
256 1:0.4 2:0.8 3:0.3 4:0.082 5:0.082 6:0 7:0.02 8:0 9:0.184 10:0.061 11:0.082 12:0.02 13:0 14:0 15:0.061 16:0.082 17:0.061 18:0.02 19:0.245 20:0 
-176.9132717589908 1:0.4 2:0.8 3:0.3 4:0 5:0.02 6:0 7:0.163 8:0.061 9:0.082 10:0.061 11:0.102 12:0.02 13:0.041 14:0 15:0.02 16:0.102 17:0.184 18:0.02 19:0.122 20:0 
-3.445817463960929 1:0.4 2:0.8 3:0.3 4:0 5:0.02 6:0.02 7:0.143 8:0.122 9:0.102 10:0.061 11:0.02 12:0.02 13:0.02 14:0 15:0.041 16:0.041 17:0.163 18:0 19:0.224 20:0 
-256 1:0.4 2:0.8 3:0.3 4:0 5:0.082 6:0.02 7:0.082 8:0.082 9:0.061 10:0.061 11:0.102 12:0 13:0.02 14:0 15:0.061 16:0.102 17:0.143 18:0 19:0.184 20:0 
256 1:0.4 2:0.8 3:0.3 4:0.041 5:0 6:0.02 7:0.102 8:0.061 9:0 10:0.061 11:0.204 12:0.02 13:0.061 14:0 15:0 16:0.061 17:0.265 18:0 19:0.102 20:0 
100.2178303363111 1:0.4 2:0.2 3:0.367 4:0.02 5:0 6:0.082 7:0.102 8:0 9:0 10:0.02 11:0.061 12:0.122 13:0 14:0.143 15:0.061 16:0.082 17:0.061 18:0.082 19:0.163 20:0 
59.70997404582745 1:0.4 2:0.2 3:0.367 4:0.041 5:0.02 6:0.061 7:0.082 8:0 9:0 10:0.061 11:0.02 12:0.02 13:0.02 14:0.184 15:0.102 16:0.143 17:0.041 18:0.02 19:0.184 20:0 
-30.58004190724739 1:0.4 2:0.2 3:0.367 4:0.02 5:0 6:0.163 7:0.041 8:0 9:0 10:0 11:0.061 12:0.102 13:0.061 14:0.02 15:0.143 16:0.102 17:0.02 18:0.143 19:0.122 20:0 
16.56684980380512 1:0.4 2:0.2 3:0.367 4:0.102 5:0.02 6:0.041 7:0.061 8:0.041 9:0 10:0.02 11:0 12:0 13:0 14:0.184 15:0.143 16:0.082 17:0.061 18:0.061 19:0.184 20:0 
-40.55194095272422 1:0.4 2:0.25 3:0.367 4:0 5:0.02 6:0.041 7:0.163 8:0.041 9:0.02 10:0.041 11:0 12:0.061 13:0.041 14:0.061 15:0.122 16:0.122 17:0 18:0.163 19:0.102 20:0 
-145.6938427341678 1:0.4 2:0.25 3:0.367 4:0.061 5:0.041 6:0.041 7:0.082 8:0 9:0.02 10:0 11:0.082 12:0.102 13:0.02 14:0.184 15:0 16:0.061 17:0.02 18:0.061 19:0.224 20:0 
256 1:0.4 2:0.3 3:0.367 4:0.041 5:0 6:0 7:0.184 8:0.061 9:0.02 10:0.041 11:0 12:0.061 13:0.082 14:0.041 15:0.102 16:0.061 17:0.02 18:0.184 19:0.102 20:0 
-30.75411572297772 1:0.4 2:0.3 3:0.367 4:0 5:0 6:0.102 7:0.122 8:0.061 9:0 10:0 11:0.061 12:0.082 13:0.061 14:0.041 15:0.082 16:0.082 17:0.041 18:0.143 19:0.122 20:0 
-17.77211588779916 1:0.4 2:0.3 3:0.367 4:0.041 5:0.041 6:0.082 7:0.061 8:0 9:0 10:0.082 11:0.041 12:0 13:0.082 14:0.082 15:0.122 16:0.184 17:0 18:0.041 19:0.143 20:0 
1.801565225257773 1:0.4 2:0.35 3:0.367 4:0 5:0.041 6:0.082 7:0.082 8:0 9:0.02 10:0 11:0.122 12:0.122 13:0.061 14:0.061 15:0.02 16:0.102 17:0.02 18:0.122 19:0.143 20:0 
61.92172352285286 1:0.4 2:0.35 3:0.367 4:0.102 5:0.041 6:0.061 7:0.02 8:0.02 9:0.041 10:0.082 11:0 12:0 13:0.061 14:0.041 15:0.143 16:0.102 17:0 18:0.082 19:0.204 20:0 
-154.1448998107082 1:0.4 2:0.35 3:0.367 4:0.102 5:0 6:0 7:0.122 8:0.061 9:0.041 10:0 11:0.041 12:0.041 13:0 14:0.082 15:0.122 16:0.02 17:0.102 18:0.163 19:0.102 20:0 
-30.25050322955446 1:0.4 2:0.4 3:0.367 4:0.082 5:0.041 6:0 7:0.102 8:0.061 9:0 10:0 11:0.102 12:0.02 13:0.082 14:0.02 15:0.102 16:0.061 17:0.041 18:0.224 19:0.061 20:0 
116.0041586140393 1:0.4 2:0.4 3:0.367 4:0 5:0 6:0.041 7:0.184 8:0.041 9:0.061 10:0.061 11:0 12:0.082 13:0.041 14:0.082 15:0.041 16:0.102 17:0.061 18:0.041 19:0.163 20:0 
-66.7951180040821 1:0.4 2:0.4 3:0.367 4:0.122 5:0.061 6:0.041 7:0 8:0.02 9:0.02 10:0.082 11:0.041 12:0.041 13:0.061 14:0.061 15:0.061 16:0.02 17:0.02 18:0.061 19:0.286 20:0 
-231.3975615675977 1:0.4 2:0.4 3:0.367 4:0.041 5:0.061 6:0.02 7:0.102 8:0.041 9:0.02 10:0 11:0.102 12:0 13:0.082 14:0.143 15:0.02 16:0.143 17:0 18:0.082 19:0.143 20:0 
-13.91054206671278 1:0.4 2:0.4 3:0.367 4:0 5:0.061 6:0.102 7:0.061 8:0 9:0.061 10:0 11:0.082 12:0.122 13:0 14:0 15:0.122 16:0.082 17:0.041 18:0.143 19:0.122 20:0 
-88.86900722798217 1:0.4 2:0.4 3:0.367 4:0.02 5:0.02 6:0.122 7:0.041 8:0.041 9:0.061 10:0.041 11:0.02 12:0 13:0.082 14:0.02 15:0.143 16:0.163 17:0 18:0.041 19:0.184 20:0 
-26.15529164425897 1:0.4 2:0.4 3:0.367 4:0.041 5:0.02 6:0.122 7:0.041 8:0.082 9:0.041 10:0 11:0.041 12:0 13:0 14:0.122 15:0.122 16:0.102 17:0.102 18:0 19:0.163 20:0 
45.28900876260229 1:0.4 2:0.4 3:0.367 4:0.102 5:0.02 6:0.102 7:0 8:0.041 9:0 10:0 11:0.122 12:0.02 13:0.041 14:0.143 15:0.02 16:0.061 17:0.082 18:0 19:0.245 20:0 
256 1:0.4 2:0.4 3:0.367 4:0 5:0.061 6:0 7:0.143 8:0.082 9:0.041 10:0.02 11:0.02 12:0 13:0.061 14:0.041 15:0.143 16:0.143 17:0 18:0.163 19:0.082 20:0 
72.50593473715216 1:0.4 2:0.4 3:0.367 4:0.122 5:0.041 6:0.02 7:0.041 8:0.02 9:0.02 10:0.02 11:0.102 12:0.041 13:0.02 14:0 15:0.184 16:0.02 17:0.082 18:0.204 19:0.061 20:0 
221.2858619533026 1:0.4 2:0.45 3:0.367 4:0.061 5:0 6:0.041 7:0.102 8:0.041 9:0.041 10:0.061 11:0.041 12:0.082 13:0.061 14:0.041 15:0.041 16:0.041 17:0.082 18:0.061 19:0.204 20:0 
-33.45944749509135 1:0.4 2:0.45 3:0.367 4:0 5:0.041 6:0.061 7:0.122 8:0 9:0.061 10:0.082 11:0.02 12:0.061 13:0 14:0.041 15:0.122 16:0.163 17:0.082 18:0.02 19:0.122 20:0 
-13.96216912327078 1:0.4 2:0.45 3:0.367 4:0.041 5:0.041 6:0 7:0.143 8:0.041 9:0 10:0.061 11:0.082 12:0.041 13:0 14:0.02 15:0.143 16:0.102 17:0.143 18:0.122 19:0.02 20:0 
142.1182426932768 1:0.4 2:0.45 3:0.367 4:0.02 5:0 6:0.082 7:0.122 8:0 9:0.041 10:0.041 11:0.082 12:0.02 13:0.02 14:0.02 15:0.163 16:0.184 17:0.102 18:0.082 19:0.02 20:0 
210.4065714990526 1:0.4 2:0.45 3:0.367 4:0 5:0.082 6:0.061 7:0.082 8:0.082 9:0 10:0 11:0.102 12:0.102 13:0 14:0 15:0.102 16:0.041 17:0.102 18:0.163 19:0.082 20:0 
43.80853449837876 1:0.4 2:0.5 3:0.367 4:0.122 5:0.041 6:0.02 7:0.041 8:0 9:0.02 10:0.02 11:0.143 12:0.02 13:0.061 14:0.02 15:0.102 16:0.061 17:0.082 18:0.143 19:0.102 20:0 
49.4577658351871 1:0.4 2:0.5 3:0.367 4:0.102 5:0.041 6:0.041 7:0.041 8:0.02 9:0.041 10:0 11:0.143 12:0.102 13:0.041 14:0.041 15:0 16:0 17:0.082 18:0.122 19:0.184 20:0 
-256 1:0.4 2:0.5 3:0.367 4:0 5:0.041 6:0.061 7:0.102 8:0 9:0.041 10:0.102 11:0.061 12:0.041 13:0.082 14:0 15:0.082 16:0.163 17:0.041 18:0.041 19:0.143 20:0 
105.4919480222172 1:0.4 2:0.5 3:0.367 4:0.102 5:0 6:0.061 7:0.061 8:0 9:0 10:0.041 11:0.163 12:0.041 13:0.02 14:0 15:0.143 16:0.061 17:0.184 18:0.102 19:0.02 20:0 
40.12093022843441 1:0.4 2:0.5 3:0.367 4:0.02 5:0.082 6:0.02 7:0.082 8:0.02 9:0.102 10:0.061 11:0.02 12:0.061 13:0 14:0.102 15:0.041 16:0.102 17:0.02 18:0.02 19:0.245 20:0 
-256 1:0.4 2:0.55 3:0.367 4:0 5:0.102 6:0 7:0.122 8:0.082 9:0.041 10:0.061 11:0.02 12:0.041 13:0.02 14:0.082 15:0.041 16:0.102 17:0.061 18:0.041 19:0.184 20:0 
97.90965087784919 1:0.4 2:0.55 3:0.367 4:0.102 5:0.02 6:0.061 7:0.041 8:0.061 9:0.041 10:0.061 11:0.061 12:0 13:0 14:0.041 15:0.143 16:0.061 17:0.143 18:0.02 19:0.143 20:0 
-89.71694827706067 1:0.4 2:0.55 3:0.367 4:0.041 5:0.02 6:0 7:0.163 8:0.02 9:0.041 10:0.061 11:0.082 12:0.082 13:0 14:0 15:0.102 16:0.082 17:0.163 18:0.102 19:0.041 20:0 
256 1:0.4 2:0.55 3:0.367 4:0.061 5:0.122 6:0 7:0.02 8:0.02 9:0.082 10:0.02 11:0.102 12:0.082 13:0 14:0.082 15:0.02 16:0.041 17:0.02 18:0.082 19:0.245 20:0 
148.1531628873948 1:0.4 2:0.55 3:0.367 4:0 5:0.02 6:0.082 7:0.122 8:0.102 9:0.02 10:0.061 11:0.041 12:0 13:0 14:0.041 15:0.122 16:0.122 17:0.184 18:0 19:0.082 20:0 
192.9430594269654 1:0.4 2:0.55 3:0.367 4:0.061 5:0.041 6:0.082 7:0.041 8:0.02 9:0.122 10:0 11:0.061 12:0.02 13:0.061 14:0 15:0.102 16:0.122 17:0 18:0.102 19:0.163 20:0 
138.3670797006016 1:0.4 2:0.55 3:0.367 4:0.082 5:0 6:0.02 7:0.122 8:0.061 9:0.02 10:0.082 11:0.041 12:0 13:0.041 14:0.061 15:0.082 16:0.082 17:0.163 18:0.02 19:0.122 20:0 
256 1:0.4 2:0.6 3:0.367 4:0.041 5:0.082 6:0.02 7:0.082 8:0.082 9:0.061 10:0 11:0.102 12:0.061 13:0.041 14:0.061 15:0 16:0.041 17:0.061 18:0.061 19:0.204 20:0 
-256 1:0.4 2:0.6 3:0.367 4:0.082 5:0 6:0.082 7:0.061 8:0.061 9:0.061 10:0 11:0.102 12:0.061 13:0.02 14:0 15:0.082 16:0.02 17:0.143 18:0.082 19:0.143 20:0 
-256 1:0.4 2:0.6 3:0.367 4:0.061 5:0.082 6:0 7:0.082 8:0 9:0.082 10:0 11:0.143 12:0 13:0 14:0.061 15:0.102 16:0.163 17:0.082 18:0.102 19:0.041 20:0 
-256 1:0.4 2:0.6 3:0.367 4:0.041 5:0 6:0.082 7:0.102 8:0.082 9:0.061 10:0.082 11:0.02 12:0 13:0.02 14:0 15:0.122 16:0.102 17:0.163 18:0 19:0.122 20:0 
-25.81717876603787 1:0.4 2:0.6 3:0.367 4:0.082 5:0.02 6:0.02 7:0.102 8:0.102 9:0.143 10:0 11:0 12:0.02 13:0.02 14:0.061 15:0.061 16:0.02 17:0.061 18:0.082 19:0.204 20:0 
-1.077682575217852 1:0.4 2:0.6 3:0.367 4:0.102 5:0 6:0.061 7:0.041 8:0.082 9:0.061 10:0.082 11:0.02 12:0 13:0.02 14:0.02 15:0.122 16:0.041 17:0.143 18:0 19:0.204 20:0 
-154.0749358584908 1:0.4 2:0.6 3:0.367 4:0.02 5:0.102 6:0.041 7:0.061 8:0.041 9:0.122 10:0.061 11:0.02 12:0 13:0 14:0.041 15:0.122 16:0.163 17:0.02 18:0.02 19:0.163 20:0 
-256 1:0.4 2:0.65 3:0.367 4:0 5:0.041 6:0.061 7:0.122 8:0.082 9:0.122 10:0.02 11:0.041 12:0 13:0.082 14:0.02 15:0.02 16:0.143 17:0.02 18:0.041 19:0.184 20:0 
-185.4668421991509 1:0.4 2:0.65 3:0.367 4:0.02 5:0.061 6:0 7:0.143 8:0.082 9:0 10:0.082 11:0.082 12:0.02 13:0.082 14:0.041 15:0 16:0.102 17:0.122 18:0.02 19:0.143 20:0 
256 1:0.4 2:0.65 3:0.367 4:0.122 5:0.041 6:0 7:0.061 8:0.041 9:0.041 10:0.041 11:0.122 12:0 13:0.041 14:0 15:0.102 16:0.061 17:0.122 18:0.102 19:0.102 20:0 
-1.879927486594285 1:0.4 2:0.65 3:0.367 4:0 5:0.143 6:0.02 7:0.061 8:0.122 9:0.02 10:0.02 11:0.102 12:0.041 13:0.02 14:0.041 15:0.041 16:0.061 17:0.082 18:0.061 19:0.163 20:0 
256 1:0.4 2:0.65 3:0.367 4:0.061 5:0.061 6:0.061 7:0.041 8:0.143 9:0.041 10:0.041 11:0.041 12:0.02 13:0 14:0.02 15:0.102 16:0 17:0.163 18:0.02 19:0.184 20:0 
-230.4957257665056 1:0.4 2:0.65 3:0.367 4:0.122 5:0.02 6:0 7:0.082 8:0.041 9:0.061 10:0 11:0.143 12:0.061 13:0.02 14:0.02 15:0.041 16:0 17:0.163 18:0.122 19:0.102 20:0 
-80.08656036502231 1:0.4 2:0.65 3:0.367 4:0.02 5:0.082 6:0 7:0.122 8:0.122 9:0.02 10:0.041 11:0.082 12:0.061 13:0.02 14:0.041 15:0 16:0 17:0.143 18:0.061 19:0.184 20:0 
12.47636597753739 1:0.4 2:0.65 3:0.367 4:0 5:0.082 6:0.02 7:0.122 8:0.143 9:0 10:0.041 11:0.061 12:0 13:0.082 14:0 15:0.061 16:0.082 17:0.102 18:0.082 19:0.122 20:0 
51.47344882057769 1:0.4 2:0.7 3:0.367 4:0.082 5:0.041 6:0 7:0.082 8:0.061 9:0.02 10:0.041 11:0.163 12:0 13:0.041 14:0.02 15:0.061 16:0.082 17:0.184 18:0.061 19:0.061 20:0 
-256 1:0.4 2:0.7 3:0.367 4:0 5:0.061 6:0.02 7:0.143 8:0.122 9:0.041 10:0.041 11:0.082 12:0.061 13:0 14:0 15:0.061 16:0.041 17:0.163 18:0.061 19:0.102 20:0 
-190.0020289650436 1:0.4 2:0.7 3:0.367 4:0.102 5:0.082 6:0 7:0.041 8:0.02 9:0.02 10:0.082 11:0.143 12:0.061 13:0.02 14:0.02 15:0.02 16:0.02 17:0.163 18:0.02 19:0.184 20:0 
74.93975121306359 1:0.4 2:0.7 3:0.367 4:0 5:0.143 6:0.061 7:0.02 8:0.122 9:0.082 10:0.02 11:0.061 12:0 13:0.02 14:0 15:0.102 16:0.102 17:0.02 18:0.041 19:0.204 20:0 
-256 1:0.4 2:0.7 3:0.367 4:0.041 5:0.143 6:0.02 7:0.02 8:0.122 9:0.061 10:0.041 11:0.061 12:0.061 13:0.02 14:0 15:0.041 16:0 17:0.041 18:0.061 19:0.265 20:0 
-228.2062006235271 1:0.4 2:0.7 3:0.367 4:0.102 5:0.061 6:0.061 7:0 8:0.02 9:0.061 10:0 11:0.184 12:0.061 13:0 14:0.02 15:0.041 16:0.041 17:0.163 18:0.041 19:0.143 20:0 
99.35317736060412 1:0.4 2:0.7 3:0.367 4:0.041 5:0.102 6:0 7:0.082 8:0.041 9:0.02 10:0 11:0.204 12:0 13:0.082 14:0.02 15:0.02 16:0.143 17:0.082 18:0.102 19:0.061 20:0 
-248.9187010288898 1:0.4 2:0.7 3:0.367 4:0.02 5:0.041 6:0 7:0.143 8:0.061 9:0 10:0.082 11:0.143 12:0.061 13:0.02 14:0.02 15:0.02 16:0.082 17:0.224 18:0.02 19:0.061 20:0 
256 1:0.4 2:0.75 3:0.367 4:0.041 5:0.041 6:0.02 7:0.122 8:0.082 9:0.061 10:0.061 11:0.082 12:0.02 13:0.041 14:0 15:0.041 16:0.082 17:0.143 18:0.02 19:0.143 20:0 
-203.1270776798875 1:0.4 2:0.75 3:0.367 4:0.02 5:0.082 6:0.02 7:0.102 8:0.061 9:0.082 10:0 11:0.163 12:0.041 13:0.02 14:0 15:0.041 16:0.102 17:0.122 18:0.082 19:0.061 20:0 
256 1:0.4 2:0.75 3:0.367 4:0.061 5:0.02 6:0.041 7:0.102 8:0.02 9:0.163 10:0.041 11:0.082 12:0.02 13:0 14:0.02 15:0.041 16:0.122 17:0.122 18:0 19:0.143 20:0 
256 1:0.4 2:0.75 3:0.367 4:0.02 5:0.143 6:0.041 7:0 8:0.02 9:0.102 10:0 11:0.184 12:0.041 13:0.041 14:0.02 15:0 16:0.143 17:0.02 18:0.041 19:0.184 20:0 
256 1:0.4 2:0.75 3:0.367 4:0.02 5:0.143 6:0 7:0.061 8:0.122 9:0.041 10:0.02 11:0.122 12:0 13:0.041 14:0.02 15:0.041 16:0.082 17:0.061 18:0.061 19:0.163 20:0 
174.5124095948647 1:0.4 2:0.75 3:0.367 4:0.02 5:0.041 6:0 7:0.163 8:0.061 9:0 10:0.061 11:0.163 12:0.041 13:0.061 14:0 15:0 16:0.102 17:0.204 18:0.02 19:0.061 20:0 
256 1:0.4 2:0.75 3:0.367 4:0.02 5:0.122 6:0 7:0.061 8:0.102 9:0.102 10:0.061 11:0.041 12:0.02 13:0.041 14:0.02 15:0.02 16:0.061 17:0.041 18:0.02 19:0.265 20:0 
112.7471962487822 1:0.4 2:0.75 3:0.367 4:0.122 5:0 6:0.02 7:0.082 8:0.082 9:0.041 10:0.061 11:0.122 12:0.02 13:0.041 14:0.02 15:0 16:0 17:0.224 18:0 19:0.163 20:0 
-75.82359820187182 1:0.4 2:0.75 3:0.367 4:0.061 5:0.061 6:0 7:0.082 8:0.122 9:0.02 10:0.02 11:0.143 12:0 13:0.02 14:0 15:0.082 16:0.041 17:0.204 18:0.082 19:0.061 20:0 
32.99662817065234 1:0.4 2:0.75 3:0.367 4:0.122 5:0.041 6:0.02 7:0.041 8:0.041 9:0.082 10:0.061 11:0.102 12:0.02 13:0 14:0 15:0.082 16:0.041 17:0.184 18:0 19:0.163 20:0 
173.940507516853 1:0.4 2:0.75 3:0.367 4:0.02 5:0.02 6:0.02 7:0.163 8:0.143 9:0.02 10:0.061 11:0.082 12:0.02 13:0.061 14:0 15:0 16:0.02 17:0.204 18:0.02 19:0.143 20:0 
-59.27040246906407 1:0.4 2:0.75 3:0.367 4:0 5:0.102 6:0.041 7:0.082 8:0.102 9:0.102 10:0.061 11:0.02 12:0.02 13:0 14:0 15:0.082 16:0.102 17:0.102 18:0 19:0.184 20:0 
256 1:0.4 2:0.75 3:0.367 4:0.102 5:0.02 6:0.041 7:0.061 8:0.082 9:0.122 10:0.061 11:0.02 12:0.041 13:0 14:0 15:0.061 16:0 17:0.143 18:0 19:0.245 20:0 
-256 1:0.4 2:0.8 3:0.367 4:0.082 5:0.061 6:0.02 7:0.061 8:0.041 9:0.102 10:0.041 11:0.143 12:0 13:0.041 14:0 15:0.041 16:0.102 17:0.122 18:0 19:0.143 20:0 
-256 1:0.4 2:0.8 3:0.367 4:0.041 5:0.122 6:0 7:0.061 8:0.061 9:0.143 10:0.041 11:0.082 12:0.02 13:0 14:0 15:0.061 16:0.082 17:0.061 18:0.041 19:0.184 20:0 
256 1:0.4 2:0.8 3:0.367 4:0.02 5:0.122 6:0 7:0.082 8:0.02 9:0.102 10:0.061 11:0.143 12:0.041 13:0 14:0 15:0.041 16:0.143 17:0.082 18:0.02 19:0.122 20:0 
-256 1:0.4 2:0.8 3:0.367 4:0.02 5:0.061 6:0.041 7:0.102 8:0.163 9:0.082 10:0.02 11:0.061 12:0 13:0.041 14:0 15:0.041 16:0.041 17:0.143 18:0 19:0.184 20:0 
256 1:0.4 2:0.8 3:0.367 4:0.082 5:0.02 6:0.02 7:0.102 8:0 9:0.184 10:0 11:0.122 12:0 13:0.041 14:0 15:0.041 16:0.143 17:0.082 18:0.061 19:0.102 20:0 
-256 1:0.4 2:0.8 3:0.367 4:0.102 5:0.082 6:0 7:0.041 8:0 9:0.163 10:0.02 11:0.122 12:0.02 13:0.041 14:0 15:0.02 16:0.102 17:0.041 18:0.061 19:0.184 20:0 
-256 1:0.4 2:0.8 3:0.367 4:0.041 5:0.02 6:0.041 7:0.122 8:0.102 9:0.041 10:0.02 11:0.143 12:0 13:0.02 14:0 15:0.061 16:0.061 17:0.245 18:0.02 19:0.061 20:0 
256 1:0.4 2:0.8 3:0.367 4:0.061 5:0 6:0.02 7:0.143 8:0.02 9:0.224 10:0.041 11:0.02 12:0.02 13:0.041 14:0 15:0.02 16:0.122 17:0.041 18:0.02 19:0.204 20:0 
32.44736795196022 1:0.4 2:0.8 3:0.367 4:0.041 5:0.143 6:0.02 7:0.02 8:0.041 9:0.061 10:0 11:0.224 12:0.041 13:0 14:0 15:0.041 16:0.082 17:0.122 18:0.061 19:0.102 20:0 
13.65390650975591 1:0.4 2:0.8 3:0.367 4:0.122 5:0.02 6:0.041 7:0.041 8:0.082 9:0.122 10:0 11:0.122 12:0 13:0.061 14:0 15:0.02 16:0.02 17:0.122 18:0.02 19:0.204 20:0 
256 1:0.4 2:0.8 3:0.367 4:0.061 5:0.02 6:0.041 7:0.102 8:0.02 9:0.102 10:0.041 11:0.143 12:0.041 13:0 14:0 15:0.041 16:0.102 17:0.204 18:0 19:0.082 20:0 
256 1:0.4 2:0.8 3:0.367 4:0.061 5:0.082 6:0.02 7:0.061 8:0.143 9:0.041 10:0.061 11:0.082 12:0.02 13:0 14:0 15:0.061 16:0 17:0.204 18:0 19:0.163 20:0 
-256 1:0.4 2:0.8 3:0.367 4:0 5:0.061 6:0 7:0.143 8:0.163 9:0.02 10:0.02 11:0.122 12:0.02 13:0.061 14:0 15:0 16:0.041 17:0.184 18:0.041 19:0.122 20:0 
-207.9650390491033 1:0.4 2:0.8 3:0.367 4:0.082 5:0.02 6:0.02 7:0.102 8:0.02 9:0.02 10:0.041 11:0.245 12:0 13:0.041 14:0 15:0.02 16:0.122 17:0.245 18:0 19:0.02 20:0 
256 1:0.4 2:0.8 3:0.367 4:0.02 5:0.082 6:0.02 7:0.102 8:0 9:0.143 10:0.02 11:0.163 12:0.02 13:0 14:0 15:0.061 16:0.184 17:0.102 18:0.041 19:0.041 20:0 
-256 1:0.4 2:0.8 3:0.367 4:0.041 5:0.163 6:0.02 7:0 8:0.061 9:0 10:0.061 11:0.204 12:0 13:0.02 14:0 15:0.041 16:0.102 17:0.143 18:0 19:0.143 20:0 
-256 1:0.4 2:0.8 3:0.367 4:0 5:0.02 6:0.02 7:0.163 8:0.041 9:0.143 10:0.061 11:0.082 12:0 13:0.02 14:0 15:0.061 16:0.184 17:0.143 18:0 19:0.061 20:0 
256 1:0.4 2:0.8 3:0.367 4:0 5:0.061 6:0.041 7:0.102 8:0.061 9:0.122 10:0 11:0.143 12:0 13:0.061 14:0 15:0.02 16:0.163 17:0.061 18:0.041 19:0.122 20:0 
-256 1:0.4 2:0.8 3:0.367 4:0.102 5:0.061 6:0 7:0.061 8:0.082 9:0.082 10:0.061 11:0.082 12:0.041 13:0.041 14:0 15:0 16:0 17:0.143 18:0 19:0.245 20:0 
137.1706118752692 1:0.4 2:0.8 3:0.367 4:0.02 5:0 6:0.02 7:0.184 8:0.061 9:0.102 10:0.02 11:0.122 12:0.02 13:0 14:0 15:0.061 16:0.122 17:0.204 18:0.041 19:0.02 20:0 
-106.4680118459417 1:0.4 2:0.2 3:0.4 4:0 5:0.041 6:0.041 7:0.163 8:0.041 9:0 10:0.02 11:0.02 12:0.184 13:0.02 14:0.041 15:0.082 16:0.02 17:0 18:0.224 19:0.102 20:0 
15.94896229446937 1:0.4 2:0.25 3:0.4 4:0.082 5:0 6:0.102 7:0.061 8:0.02 9:0 10:0.061 11:0 12:0.02 13:0.041 14:0.122 15:0.122 16:0.122 17:0.061 18:0.02 19:0.163 20:0 
-55.47258512981558 1:0.4 2:0.25 3:0.4 4:0.041 5:0 6:0.184 7:0.02 8:0 9:0.02 10:0.02 11:0.061 12:0.143 13:0 14:0 15:0.143 16:0.061 17:0.082 18:0.082 19:0.143 20:0 
192.3813891736061 1:0.4 2:0.3 3:0.4 4:0.061 5:0.061 6:0.02 7:0.102 8:0.02 9:0.02 10:0.041 11:0.02 12:0.143 13:0.041 14:0.061 15:0.041 16:0.02 17:0 18:0.163 19:0.184 20:0 
-220.1833065452971 1:0.4 2:0.3 3:0.4 4:0.122 5:0 6:0.102 7:0 8:0.041 9:0.02 10:0.061 11:0 12:0.02 13:0 14:0.102 15:0.163 16:0.061 17:0.102 18:0 19:0.204 20:0 
1.586412758924072 1:0.4 2:0.3 3:0.4 4:0.041 5:0.041 6:0.061 7:0.102 8:0 9:0 10:0.02 11:0.102 12:0.163 13:0.082 14:0 15:0.02 16:0.041 17:0 18:0.184 19:0.143 20:0 
-242.0801324517398 1:0.4 2:0.3 3:0.4 4:0.02 5:0.061 6:0.041 7:0.102 8:0 9:0.02 10:0.041 11:0.061 12:0.102 13:0.02 14:0.163 15:0 16:0.122 17:0.02 18:0.041 19:0.184 20:0 
-7.770122907593613 1:0.4 2:0.3 3:0.4 4:0.02 5:0.041 6:0 7:0.184 8:0.041 9:0.02 10:0.041 11:0.02 12:0.02 13:0.061 14:0.163 15:0.02 16:0.143 17:0 18:0.082 19:0.143 20:0 
-54.43828070549491 1:0.4 2:0.3 3:0.4 4:0.041 5:0 6:0 7:0.204 8:0 9:0 10:0.082 11:0.041 12:0.061 13:0.02 14:0.163 15:0.041 16:0.143 17:0.082 18:0.041 19:0.082 20:0 
13.57283375890161 1:0.4 2:0.35 3:0.4 4:0.082 5:0 6:0.02 7:0.122 8:0.082 9:0 10:0 11:0.061 12:0.02 13:0.041 14:0.163 15:0.041 16:0.061 17:0.102 18:0.082 19:0.122 20:0 
-71.89083549353602 1:0.4 2:0.35 3:0.4 4:0.102 5:0.041 6:0.102 7:0 8:0.082 9:0 10:0.061 11:0 12:0.041 13:0 14:0.082 15:0.122 16:0.02 17:0.082 18:0.02 19:0.245 20:0 
89.33293699478453 1:0.4 2:0.35 3:0.4 4:0.041 5:0.041 6:0.041 7:0.122 8:0.02 9:0 10:0 11:0.122 12:0.02 13:0.082 14:0.082 15:0.061 16:0.163 17:0 18:0.143 19:0.061 20:0 
-82.95990801390823 1:0.4 2:0.35 3:0.4 4:0.02 5:0.02 6:0.082 7:0.102 8:0 9:0.041 10:0 11:0.102 12:0.02 13:0.02 14:0.163 15:0.061 16:0.204 17:0.041 18:0.02 19:0.102 20:0 
-36.46681517279676 1:0.4 2:0.4 3:0.4 4:0.02 5:0.061 6:0.061 7:0.102 8:0.061 9:0 10:0.041 11:0.041 12:0.143 13:0.02 14:0.041 15:0.041 16:0.02 17:0.082 18:0.102 19:0.163 20:0 
-152.2081316566353 1:0.4 2:0.4 3:0.4 4:0.041 5:0.041 6:0 7:0.163 8:0.041 9:0 10:0.061 11:0.061 12:0 13:0.02 14:0.082 15:0.122 16:0.143 17:0.102 18:0.102 19:0.02 20:0 
75.95776165534646 1:0.4 2:0.4 3:0.4 4:0.122 5:0.061 6:0.041 7:0.02 8:0 9:0.041 10:0.082 11:0.02 12:0.061 13:0 14:0.102 15:0.082 16:0.041 17:0.061 18:0.02 19:0.245 20:0 
256 1:0.4 2:0.4 3:0.4 4:0 5:0.041 6:0.02 7:0.184 8:0 9:0.061 10:0.082 11:0 12:0.122 13:0 14:0.082 15:0.041 16:0.122 17:0.061 18:0.041 19:0.143 20:0 
29.44314426058618 1:0.4 2:0.4 3:0.4 4:0.041 5:0.02 6:0.02 7:0.143 8:0.041 9:0 10:0 11:0.122 12:0.02 13:0.061 14:0.122 15:0.041 16:0.122 17:0.082 18:0.102 19:0.061 20:0 
256 1:0.4 2:0.4 3:0.4 4:0 5:0.041 6:0.061 7:0.143 8:0 9:0 10:0.082 11:0.082 12:0.041 13:0.061 14:0.02 15:0.102 16:0.204 17:0.061 18:0.082 19:0.02 20:0 
256 1:0.4 2:0.4 3:0.4 4:0.082 5:0 6:0.041 7:0.122 8:0 9:0.061 10:0.082 11:0.02 12:0.041 13:0.082 14:0.082 15:0.041 16:0.122 17:0.02 18:0.041 19:0.163 20:0 
10.50591314268554 1:0.4 2:0.4 3:0.4 4:0.041 5:0.082 6:0 7:0.122 8:0.082 9:0 10:0.041 11:0.02 12:0.041 13:0.061 14:0.122 15:0.02 16:0.082 17:0.02 18:0.082 19:0.184 20:0 
-198.0950052742088 1:0.4 2:0.4 3:0.4 4:0.061 5:0 6:0.061 7:0.102 8:0.061 9:0.041 10:0.041 11:0.02 12:0.122 13:0.082 14:0 15:0.041 16:0 17:0.041 18:0.122 19:0.204 20:0 
-230.5698295435659 1:0.4 2:0.4 3:0.4 4:0.041 5:0 6:0.02 7:0.184 8:0.061 9:0.041 10:0.02 11:0.041 12:0 13:0.082 14:0.02 15:0.122 16:0.143 17:0.041 18:0.163 19:0.02 20:0 
63.99904701114605 1:0.4 2:0.4 3:0.4 4:0 5:0.061 6:0.082 7:0.102 8:0.041 9:0.061 10:0 11:0.061 12:0 13:0 14:0.082 15:0.163 16:0.204 17:0.041 18:0.061 19:0.041 20:0 
152.4858185253586 1:0.4 2:0.45 3:0.4 4:0.122 5:0.041 6:0.041 7:0.02 8:0 9:0 10:0.061 11:0.122 12:0.041 13:0.02 14:0.02 15:0.143 16:0.082 17:0.102 18:0.102 19:0.082 20:0 
256 1:0.4 2:0.45 3:0.4 4:0.041 5:0.041 6:0.061 7:0.102 8:0.082 9:0 10:0.061 11:0.041 12:0.102 13:0 14:0 15:0.102 16:0.02 17:0.143 18:0.102 19:0.102 20:0 
256 1:0.4 2:0.45 3:0.4 4:0.061 5:0.02 6:0.061 7:0.102 8:0 9:0.041 10:0.082 11:0.061 12:0.02 13:0.082 14:0.061 15:0.041 16:0.163 17:0.041 18:0.02 19:0.143 20:0 
-3.039439305196078 1:0.4 2:0.45 3:0.4 4:0.102 5:0 6:0.041 7:0.102 8:0.061 9:0.02 10:0.082 11:0.02 12:0 13:0.041 14:0 15:0.184 16:0.082 17:0.102 18:0.102 19:0.061 20:0 
-256 1:0.4 2:0.45 3:0.4 4:0 5:0.02 6:0.082 7:0.143 8:0.02 9:0.041 10:0.02 11:0.102 12:0.061 13:0.082 14:0 15:0.082 16:0.143 17:0.041 18:0.122 19:0.041 20:0 
23.48237684666537 1:0.4 2:0.45 3:0.4 4:0.082 5:0.061 6:0.082 7:0 8:0.041 9:0.082 10:0 11:0.061 12:0.061 13:0 14:0.082 15:0.082 16:0.061 17:0.041 18:0.061 19:0.204 20:0 
-256 1:0.4 2:0.45 3:0.4 4:0.061 5:0.02 6:0.041 7:0.122 8:0.02 9:0.061 10:0.061 11:0.02 12:0.061 13:0.02 14:0.122 15:0.02 16:0.102 17:0.082 18:0 19:0.184 20:0 
-1.335948378231874 1:0.4 2:0.45 3:0.4 4:0.061 5:0.102 6:0 7:0.082 8:0.082 9:0.02 10:0 11:0.082 12:0.082 13:0 14:0.082 15:0.061 16:0 17:0.061 18:0.143 19:0.143 20:0 
121.3701002365082 1:0.4 2:0.45 3:0.4 4:0.041 5:0 6:0 7:0.204 8:0.102 9:0.02 10:0.061 11:0 12:0 13:0.061 14:0.061 15:0.102 16:0.102 17:0.102 18:0.082 19:0.061 20:0 
15.69788490351609 1:0.4 2:0.5 3:0.4 4:0 5:0.102 6:0.082 7:0.041 8:0.122 9:0.041 10:0 11:0.041 12:0.02 13:0 14:0.061 15:0.122 16:0.082 17:0.061 18:0.061 19:0.163 20:0 
-37.92120408989758 1:0.4 2:0.5 3:0.4 4:0.061 5:0.082 6:0 7:0.082 8:0.041 9:0 10:0.102 11:0.061 12:0 13:0.082 14:0.061 15:0.061 16:0.143 17:0.041 18:0.041 19:0.143 20:0 
151.40958017916 1:0.4 2:0.5 3:0.4 4:0.041 5:0.082 6:0 7:0.122 8:0.082 9:0.041 10:0.082 11:0 12:0.082 13:0 14:0.082 15:0.02 16:0.02 17:0.082 18:0.041 19:0.224 20:0 
-162.0126026102455 1:0.4 2:0.5 3:0.4 4:0.122 5:0.041 6:0 7:0.061 8:0.02 9:0.082 10:0.061 11:0.041 12:0.102 13:0.02 14:0.061 15:0.02 16:0 17:0.061 18:0.061 19:0.245 20:0 
-256 1:0.4 2:0.5 3:0.4 4:0.082 5:0.082 6:0.041 7:0.02 8:0 9:0.02 10:0.041 11:0.143 12:0 13:0.02 14:0.041 15:0.143 16:0.163 17:0.082 18:0.061 19:0.061 20:0 
-2.471484538205805 1:0.4 2:0.5 3:0.4 4:0.02 5:0.02 6:0.122 7:0.082 8:0.102 9:0 10:0 11:0.102 12:0.02 13:0.041 14:0 15:0.143 16:0.102 17:0.143 18:0.082 19:0.02 20:0 
-13.45410051101336 1:0.4 2:0.5 3:0.4 4:0.041 5:0.02 6:0.02 7:0.163 8:0 9:0.061 10:0.082 11:0.041 12:0.122 13:0 14:0 15:0.082 16:0.061 17:0.122 18:0.102 19:0.082 20:0 
256 1:0.4 2:0.5 3:0.4 4:0.02 5:0.082 6:0.02 7:0.122 8:0.02 9:0.082 10:0.061 11:0.041 12:0 13:0 14:0.102 15:0.082 16:0.204 17:0.041 18:0.02 19:0.102 20:0 
-256 1:0.4 2:0.55 3:0.4 4:0.02 5:0.061 6:0.02 7:0.143 8:0.02 9:0.041 10:0.061 11:0.082 12:0 13:0.061 14:0.082 15:0.041 16:0.204 17:0.041 18:0.02 19:0.102 20:0 
-180.9077119485781 1:0.4 2:0.55 3:0.4 4:0.041 5:0.082 6:0.02 7:0.102 8:0.122 9:0.041 10:0.041 11:0.02 12:0.02 13:0.02 14:0 15:0.143 16:0.041 17:0.082 18:0.122 19:0.102 20:0 
-252.8418532209625 1:0.4 2:0.55 3:0.4 4:0.041 5:0.041 6:0.082 7:0.082 8:0.041 9:0.102 10:0.02 11:0.041 12:0 13:0.082 14:0.02 15:0.082 16:0.143 17:0 18:0.061 19:0.163 20:0 
182.5753198175138 1:0.4 2:0.55 3:0.4 4:0.122 5:0.061 6:0.02 7:0.041 8:0.041 9:0.02 10:0.041 11:0.102 12:0.082 13:0 14:0.061 15:0.041 16:0 17:0.143 18:0.041 19:0.184 20:0 
97.25812418512048 1:0.4 2:0.55 3:0.4 4:0.102 5:0.061 6:0.061 7:0 8:0.02 9:0.122 10:0 11:0.082 12:0 13:0.02 14:0.041 15:0.122 16:0.122 17:0.02 18:0.082 19:0.143 20:0 
256 1:0.4 2:0.55 3:0.4 4:0.041 5:0.122 6:0.061 7:0 8:0 9:0.061 10:0 11:0.163 12:0.02 13:0 14:0.082 15:0.082 16:0.184 17:0.041 18:0.041 19:0.102 20:0 
256 1:0.4 2:0.55 3:0.4 4:0.061 5:0 6:0.082 7:0.102 8:0.02 9:0.122 10:0.041 11:0.02 12:0.102 13:0.041 14:0 15:0.041 16:0.061 17:0.041 18:0.061 19:0.204 20:0 
208.9700285437329 1:0.4 2:0.55 3:0.4 4:0.102 5:0 6:0 7:0.143 8:0.061 9:0.102 10:0.041 11:0 12:0 13:0.041 14:0.082 15:0.061 16:0.082 17:0.082 18:0.061 19:0.143 20:0 
-95.05013505642802 1:0.4 2:0.6 3:0.4 4:0.122 5:0.122 6:0 7:0 8:0.02 9:0.061 10:0.02 11:0.143 12:0 13:0 14:0.061 15:0.082 16:0.102 17:0.061 18:0.061 19:0.143 20:0 
212.3098039508054 1:0.4 2:0.6 3:0.4 4:0.041 5:0.122 6:0.061 7:0.02 8:0.02 9:0.041 10:0.061 11:0.102 12:0 13:0.061 14:0.041 15:0.061 16:0.184 17:0 18:0 19:0.184 20:0 
256 1:0.4 2:0.65 3:0.4 4:0.041 5:0.102 6:0.02 7:0.082 8:0 9:0.082 10:0.041 11:0.143 12:0.041 13:0.041 14:0.041 15:0.02 16:0.163 17:0.041 18:0.041 19:0.102 20:0 
42.70813636938788 1:0.4 2:0.65 3:0.4 4:0.082 5:0 6:0.061 7:0.102 8:0.082 9:0.082 10:0.041 11:0.041 12:0 13:0.041 14:0.02 15:0.082 16:0.061 17:0.143 18:0.02 19:0.143 20:0 
256 1:0.4 2:0.65 3:0.4 4:0.143 5:0.02 6:0.061 7:0.02 8:0.061 9:0.082 10:0.041 11:0.082 12:0 13:0.041 14:0.041 15:0.041 16:0.041 17:0.122 18:0 19:0.204 20:0 
136.3621445076766 1:0.4 2:0.65 3:0.4 4:0.102 5:0.061 6:0 7:0.061 8:0 9:0.082 10:0.02 11:0.163 12:0 13:0.041 14:0 15:0.102 16:0.143 17:0.061 18:0.122 19:0.041 20:0 
-56.12865432973984 1:0.4 2:0.65 3:0.4 4:0.02 5:0.082 6:0.02 7:0.122 8:0.02 9:0.122 10:0.082 11:0.041 12:0.082 13:0 14:0.041 15:0 16:0.102 17:0.061 18:0 19:0.204 20:0 
256 1:0.4 2:0.65 3:0.4 4:0.102 5:0.02 6:0.061 7:0.061 8:0.041 9:0.061 10:0.041 11:0.102 12:0 13:0 14:0.041 15:0.102 16:0.102 17:0.184 18:0 19:0.082 20:0 
122.1202021242429 1:0.4 2:0.65 3:0.4 4:0.041 5:0.122 6:0.061 7:0.02 8:0.082 9:0.041 10:0.082 11:0.061 12:0 13:0 14:0 15:0.122 16:0.122 17:0.102 18:0 19:0.143 20:0 
44.62915029611272 1:0.4 2:0.65 3:0.4 4:0.122 5:0 6:0 7:0.102 8:0.02 9:0.163 10:0 11:0.082 12:0.02 13:0.02 14:0.041 15:0.061 16:0.082 17:0.061 18:0.102 19:0.122 20:0 
90.82803253187937 1:0.4 2:0.7 3:0.4 4:0.061 5:0.082 6:0.02 7:0.082 8:0.102 9:0.082 10:0 11:0.102 12:0.061 13:0.041 14:0 15:0.02 16:0.02 17:0.061 18:0.102 19:0.163 20:0 
-256 1:0.4 2:0.7 3:0.4 4:0.102 5:0.082 6:0 7:0.061 8:0.041 9:0.041 10:0.02 11:0.163 12:0.02 13:0.082 14:0 15:0.02 16:0.082 17:0.082 18:0.102 19:0.102 20:0 
-84.21217100572818 1:0.4 2:0.7 3:0.4 4:0 5:0.02 6:0.061 7:0.163 8:0.061 9:0.082 10:0.02 11:0.102 12:0.061 13:0 14:0.02 15:0.041 16:0.102 17:0.184 18:0.02 19:0.061 20:0 
256 1:0.4 2:0.7 3:0.4 4:0.061 5:0.061 6:0.02 7:0.102 8:0.02 9:0.041 10:0 11:0.224 12:0.041 13:0.041 14:0.02 15:0.02 16:0.102 17:0.143 18:0.082 19:0.02 20:0 
256 1:0.4 2:0.7 3:0.4 4:0.02 5:0.122 6:0.02 7:0.082 8:0.041 9:0.061 10:0 11:0.184 12:0.061 13:0.041 14:0.02 15:0 16:0.122 17:0.061 18:0.082 19:0.082 20:0 
-256 1:0.4 2:0.7 3:0.4 4:0.122 5:0.061 6:0 7:0.061 8:0.041 9:0.102 10:0.041 11:0.102 12:0.02 13:0.061 14:0.02 15:0 16:0.061 17:0.061 18:0.061 19:0.184 20:0 
-256 1:0.4 2:0.7 3:0.4 4:0.143 5:0 6:0.02 7:0.082 8:0 9:0.102 10:0.041 11:0.143 12:0.02 13:0 14:0 15:0.102 16:0.082 17:0.163 18:0.061 19:0.041 20:0 
-37.13087483433946 1:0.4 2:0.7 3:0.4 4:0 5:0.02 6:0.061 7:0.163 8:0.163 9:0 10:0.041 11:0.061 12:0.02 13:0.061 14:0.02 15:0.02 16:0.061 17:0.184 18:0 19:0.122 20:0 
174.5665868498156 1:0.4 2:0.7 3:0.4 4:0.041 5:0.061 6:0.061 7:0.082 8:0.082 9:0 10:0 11:0.184 12:0.041 13:0.082 14:0 15:0 16:0.082 17:0.143 18:0.041 19:0.102 20:0 
-256 1:0.4 2:0.75 3:0.4 4:0.02 5:0.122 6:0.02 7:0.082 8:0.143 9:0.061 10:0.02 11:0.082 12:0.02 13:0.041 14:0.02 15:0 16:0.061 17:0.082 18:0.041 19:0.184 20:0 
-256 1:0.4 2:0.75 3:0.4 4:0.041 5:0.143 6:0.041 7:0.02 8:0.061 9:0.082 10:0.02 11:0.122 12:0 13:0.02 14:0.02 15:0.061 16:0.143 17:0.041 18:0.02 19:0.163 20:0 
-256 1:0.4 2:0.75 3:0.4 4:0.061 5:0.02 6:0.041 7:0.122 8:0.122 9:0.082 10:0.02 11:0.061 12:0.041 13:0.061 14:0 15:0 16:0.02 17:0.143 18:0.02 19:0.184 20:0 
30.34278382849816 1:0.4 2:0.75 3:0.4 4:0.041 5:0.061 6:0 7:0.143 8:0.041 9:0.082 10:0.02 11:0.163 12:0.02 13:0.02 14:0 15:0.041 16:0.143 17:0.122 18:0.082 19:0.02 20:0 
-191.1574149798779 1:0.4 2:0.75 3:0.4 4:0.082 5:0.041 6:0.061 7:0.061 8:0.041 9:0.204 10:0 11:0.041 12:0.041 13:0.02 14:0 15:0.041 16:0.082 17:0.041 18:0.041 19:0.204 20:0 
94.29831184666894 1:0.4 2:0.75 3:0.4 4:0.082 5:0.082 6:0 7:0.082 8:0.082 9:0.041 10:0.02 11:0.143 12:0.02 13:0 14:0 15:0.082 16:0.061 17:0.184 18:0.061 19:0.061 20:0 
-107.6995564962972 1:0.4 2:0.75 3:0.4 4:0.02 5:0.082 6:0.02 7:0.122 8:0.102 9:0.102 10:0.061 11:0.041 12:0 13:0.061 14:0 15:0.02 16:0.122 17:0.041 18:0.02 19:0.184 20:0 
256 1:0.4 2:0.75 3:0.4 4:0.041 5:0.102 6:0.041 7:0.061 8:0.143 9:0.122 10:0 11:0.02 12:0 13:0.041 14:0 15:0.061 16:0.061 17:0.041 18:0.061 19:0.204 20:0 
-89.07418073462966 1:0.4 2:0.75 3:0.4 4:0 5:0.02 6:0.061 7:0.163 8:0.041 9:0.102 10:0.02 11:0.122 12:0.061 13:0 14:0 15:0.041 16:0.122 17:0.184 18:0.02 19:0.041 20:0 
256 1:0.4 2:0.75 3:0.4 4:0.02 5:0.061 6:0.061 7:0.102 8:0.082 9:0.143 10:0 11:0.082 12:0.061 13:0.041 14:0 15:0 16:0.061 17:0.061 18:0.041 19:0.184 20:0 
-256 1:0.4 2:0.75 3:0.4 4:0.061 5:0.102 6:0.061 7:0.02 8:0.122 9:0.102 10:0.02 11:0.061 12:0.02 13:0.041 14:0.02 15:0 16:0.041 17:0.061 18:0 19:0.265 20:0 
256 1:0.4 2:0.75 3:0.4 4:0.082 5:0.02 6:0.02 7:0.122 8:0.041 9:0.163 10:0.061 11:0.041 12:0.061 13:0 14:0 15:0.02 16:0.041 17:0.122 18:0.02 19:0.184 20:0 
55.28283758068434 1:0.4 2:0.75 3:0.4 4:0 5:0.041 6:0.061 7:0.143 8:0.143 9:0 10:0 11:0.143 12:0.02 13:0.02 14:0.02 15:0.041 16:0.082 17:0.245 18:0.02 19:0.02 20:0 
-256 1:0.4 2:0.75 3:0.4 4:0.102 5:0.122 6:0 7:0.02 8:0.041 9:0.041 10:0.02 11:0.204 12:0.041 13:0.061 14:0 15:0 16:0.061 17:0.082 18:0.082 19:0.122 20:0 
-36.23843432661433 1:0.4 2:0.8 3:0.4 4:0.02 5:0.082 6:0.02 7:0.122 8:0.122 9:0.02 10:0.061 11:0.122 12:0.02 13:0.02 14:0 15:0.02 16:0.082 17:0.184 18:0 19:0.102 20:0 
-256 1:0.4 2:0.8 3:0.4 4:0.143 5:0.061 6:0 7:0.041 8:0.061 9:0.102 10:0.041 11:0.102 12:0 13:0.02 14:0 15:0.061 16:0.02 17:0.143 18:0.041 19:0.163 20:0 
-256 1:0.4 2:0.8 3:0.4 4:0.061 5:0.061 6:0.02 7:0.102 8:0.061 9:0.102 10:0.061 11:0.082 12:0.041 13:0.02 14:0 15:0.02 16:0.061 17:0.143 18:0 19:0.163 20:0 
-256 1:0.4 2:0.8 3:0.4 4:0.041 5:0.143 6:0 7:0.061 8:0.041 9:0.122 10:0.041 11:0.122 12:0.02 13:0 14:0 15:0.061 16:0.143 17:0.061 18:0.041 19:0.102 20:0 
-256 1:0.4 2:0.8 3:0.4 4:0.041 5:0.143 6:0 7:0.061 8:0.082 9:0.102 10:0.041 11:0.102 12:0.041 13:0.02 14:0 15:0 16:0.061 17:0.061 18:0.041 19:0.204 20:0 
256 1:0.4 2:0.8 3:0.4 4:0.061 5:0.082 6:0.041 7:0.061 8:0.061 9:0.204 10:0 11:0.041 12:0.041 13:0 14:0 15:0.041 16:0.082 17:0.02 18:0.041 19:0.224 20:0 
-93.58670890554244 1:0.4 2:0.8 3:0.4 4:0.02 5:0.061 6:0 7:0.163 8:0.02 9:0.122 10:0.041 11:0.143 12:0 13:0.02 14:0 15:0.061 16:0.204 17:0.122 18:0.02 19:0 20:0 
2.094168864048648 1:0.4 2:0.8 3:0.4 4:0.041 5:0.061 6:0.041 7:0.082 8:0.184 9:0.041 10:0.02 11:0.082 12:0 13:0.061 14:0 15:0.02 16:0.02 17:0.163 18:0.02 19:0.163 20:0 
211.7086364858931 1:0.4 2:0.8 3:0.4 4:0.02 5:0.184 6:0 7:0.041 8:0.122 9:0.02 10:0.041 11:0.143 12:0 13:0 14:0 15:0.061 16:0.102 17:0.102 18:0.041 19:0.122 20:0 
-12.24124864055828 1:0.4 2:0.8 3:0.4 4:0.143 5:0 6:0.02 7:0.082 8:0 9:0.204 10:0.02 11:0.102 12:0.02 13:0.02 14:0 15:0.041 16:0.082 17:0.102 18:0.041 19:0.122 20:0 
-256 1:0.4 2:0.8 3:0.4 4:0.102 5:0 6:0.02 7:0.122 8:0.061 9:0.204 10:0.041 11:0.02 12:0.02 13:0.02 14:0 15:0.041 16:0.061 17:0.102 18:0 19:0.184 20:0 
256 1:0.4 2:0.8 3:0.4 4:0 5:0.02 6:0.02 7:0.204 8:0.082 9:0.122 10:0.041 11:0.061 12:0.02 13:0 14:0 15:0.061 16:0.143 17:0.184 18:0.02 19:0.02 20:0 
68.68734181445527 1:0.4 2:0.8 3:0.4 4:0.041 5:0.163 6:0.02 7:0.02 8:0.02 9:0.082 10:0 11:0.224 12:0 13:0.02 14:0 15:0.061 16:0.163 17:0.061 18:0.061 19:0.061 20:0 
167.8833795477552 1:0.4 2:0.8 3:0.4 4:0.041 5:0.061 6:0.041 7:0.102 8:0.143 9:0.163 10:0 11:0 12:0.02 13:0 14:0 15:0.061 16:0.041 17:0.102 18:0.041 19:0.184 20:0 
121.7403576942865 1:0.4 2:0.8 3:0.4 4:0.061 5:0.02 6:0.041 7:0.122 8:0 9:0.224 10:0 11:0.102 12:0.041 13:0 14:0 15:0.02 16:0.143 17:0.061 18:0.041 19:0.122 20:0 
94.9883736240777 1:0.4 2:0.2 3:0.467 4:0.061 5:0 6:0.061 7:0.163 8:0.02 9:0 10:0 11:0.061 12:0.143 13:0.041 14:0.122 15:0 16:0.061 17:0.041 18:0.143 19:0.082 20:0 
-16.66830828456643 1:0.4 2:0.2 3:0.467 4:0.082 5:0.02 6:0.102 7:0.061 8:0.02 9:0 10:0.061 11:0 12:0.061 13:0.02 14:0.02 15:0.224 16:0.102 17:0.041 18:0.143 19:0.041 20:0 
-121.6868190211567 1:0.4 2:0.2 3:0.467 4:0.102 5:0 6:0.163 7:0.02 8:0 9:0 10:0.041 11:0.041 12:0.02 13:0 14:0.082 15:0.204 16:0.163 17:0.061 18:0.041 19:0.061 20:0 
-99.49692475484406 1:0.4 2:0.2 3:0.467 4:0.02 5:0 6:0.163 7:0.102 8:0 9:0 10:0.061 11:0 12:0.184 13:0 14:0.041 15:0.102 16:0.082 17:0.061 18:0.061 19:0.122 20:0 
30.53054484719306 1:0.4 2:0.2 3:0.467 4:0.122 5:0.041 6:0.02 7:0.102 8:0.02 9:0 10:0.041 11:0 12:0.061 13:0 14:0.224 15:0.041 16:0.082 17:0.041 18:0.02 19:0.184 20:0 
180.1750601339562 1:0.4 2:0.25 3:0.467 4:0.061 5:0.061 6:0.041 7:0.122 8:0.041 9:0.02 10:0 11:0.041 12:0.163 13:0 14:0.082 15:0.061 16:0.02 17:0.02 18:0.184 19:0.082 20:0 
171.7808286685884 1:0.4 2:0.25 3:0.467 4:0.02 5:0.041 6:0.163 7:0.041 8:0 9:0.02 10:0.061 11:0.02 12:0.041 13:0.041 14:0.02 15:0.204 16:0.204 17:0 18:0.061 19:0.061 20:0 
26.28240064417723 1:0.4 2:0.25 3:0.467 4:0.041 5:0.061 6:0.102 7:0.082 8:0 9:0 10:0.02 11:0.082 12:0.163 13:0.041 14:0.102 15:0 16:0.082 17:0 18:0.082 19:0.143 20:0 
79.85409329743823 1:0.4 2:0.25 3:0.467 4:0 5:0 6:0.143 7:0.143 8:0 9:0.02 10:0.061 11:0 12:0.082 13:0.061 14:0.041 15:0.122 16:0.204 17:0.02 18:0.041 19:0.061 20:0 
177.6673359711771 1:0.4 2:0.3 3:0.467 4:0.082 5:0.02 6:0.102 7:0.082 8:0 9:0.02 10:0.082 11:0.02 12:0.041 13:0.02 14:0.041 15:0.163 16:0.163 17:0.061 18:0.061 19:0.041 20:0 
256 1:0.4 2:0.3 3:0.467 4:0.102 5:0 6:0.102 7:0.061 8:0.082 9:0 10:0 11:0.041 12:0 13:0.041 14:0.102 15:0.143 16:0.102 17:0.082 18:0.082 19:0.061 20:0 
-0.3703010569182465 1:0.4 2:0.3 3:0.467 4:0.102 5:0.041 6:0.122 7:0.02 8:0.082 9:0.02 10:0 11:0.02 12:0.041 13:0.061 14:0.122 15:0.061 16:0.061 17:0 18:0.02 19:0.224 20:0 
-197.7848004051315 1:0.4 2:0.3 3:0.467 4:0.02 5:0.082 6:0.082 7:0.102 8:0 9:0.02 10:0.041 11:0.041 12:0.061 13:0.02 14:0.061 15:0.143 16:0.204 17:0 18:0.102 19:0.02 20:0 
-95.35381818872494 1:0.4 2:0.3 3:0.467 4:0.122 5:0.041 6:0 7:0.122 8:0.041 9:0 10:0.02 11:0.061 12:0.122 13:0.082 14:0.061 15:0.02 16:0 17:0 18:0.184 19:0.122 20:0 
140.7706883710652 1:0.4 2:0.3 3:0.467 4:0.102 5:0.082 6:0.02 7:0.082 8:0 9:0.02 10:0.02 11:0.082 12:0.143 13:0 14:0.102 15:0.041 16:0.041 17:0 18:0.143 19:0.122 20:0 
88.57053380793474 1:0.4 2:0.3 3:0.467 4:0.122 5:0 6:0.061 7:0.102 8:0.082 9:0.02 10:0 11:0.02 12:0.041 13:0.02 14:0.184 15:0.041 16:0.041 17:0.061 18:0.041 19:0.163 20:0 
192.5108267557147 1:0.4 2:0.3 3:0.467 4:0.163 5:0.041 6:0.061 7:0.02 8:0.02 9:0.02 10:0 11:0.061 12:0.02 13:0 14:0.184 15:0.082 16:0.082 17:0.061 18:0.02 19:0.163 20:0 
4.48171426977553 1:0.4 2:0.35 3:0.467 4:0.02 5:0.02 6:0.122 7:0.102 8:0.041 9:0.02 10:0 11:0.082 12:0.102 13:0.041 14:0.02 15:0.102 16:0.102 17:0.061 18:0.122 19:0.041 20:0 
20.51088998174838 1:0.4 2:0.35 3:0.467 4:0 5:0.041 6:0.02 7:0.204 8:0.02 9:0.041 10:0.02 11:0.061 12:0.122 13:0 14:0.082 15:0.061 16:0.122 17:0.061 18:0.143 19:0 20:0 
13.84309629813041 1:0.4 2:0.35 3:0.467 4:0.122 5:0.041 6:0 7:0.122 8:0.041 9:0.02 10:0.061 11:0 12:0.02 13:0.02 14:0.041 15:0.184 16:0.082 17:0.061 18:0.163 19:0.02 20:0 
-15.46680318986883 1:0.4 2:0.35 3:0.467 4:0.102 5:0.082 6:0 7:0.082 8:0.082 9:0.041 10:0 11:0.02 12:0.02 13:0.02 14:0.122 15:0.102 16:0.082 17:0 18:0.143 19:0.102 20:0 
-166.4497748443079 1:0.4 2:0.35 3:0.467 4:0.02 5:0.041 6:0.061 7:0.163 8:0 9:0.041 10:0.041 11:0.041 12:0.02 13:0.061 14:0.102 15:0.082 16:0.224 17:0 18:0.061 19:0.041 20:0 
-4.520896723315775 1:0.4 2:0.35 3:0.467 4:0.122 5:0.082 6:0.02 7:0.061 8:0 9:0.041 10:0 11:0.082 12:0.041 13:0 14:0.163 15:0.061 16:0.102 17:0.02 18:0.082 19:0.122 20:0 
146.5541004040059 1:0.4 2:0.35 3:0.467 4:0 5:0.061 6:0.041 7:0.184 8:0.041 9:0 10:0.082 11:0.02 12:0.102 13:0 14:0.02 15:0.122 16:0.143 17:0.082 18:0.102 19:0 20:0 
3.815071583542819 1:0.4 2:0.35 3:0.467 4:0.061 5:0 6:0.143 7:0.082 8:0 9:0.041 10:0.082 11:0.02 12:0.061 13:0.02 14:0.041 15:0.122 16:0.143 17:0.082 18:0 19:0.102 20:0 
132.170926737812 1:0.4 2:0.35 3:0.467 4:0.102 5:0 6:0.061 7:0.122 8:0.041 9:0.041 10:0.02 11:0.02 12:0 13:0.082 14:0.041 15:0.143 16:0.143 17:0 18:0.143 19:0.041 20:0 
38.05871850447238 1:0.4 2:0.35 3:0.467 4:0.041 5:0.041 6:0.061 7:0.122 8:0 9:0.041 10:0 11:0.102 12:0.143 13:0.041 14:0.02 15:0.061 16:0.102 17:0 18:0.184 19:0.041 20:0 
-256 1:0.4 2:0.4 3:0.467 4:0.143 5:0.041 6:0.061 7:0.041 8:0.041 9:0.02 10:0.061 11:0.02 12:0.02 13:0.082 14:0.041 15:0.102 16:0.082 17:0.02 18:0.082 19:0.143 20:0 
-134.5024396093707 1:0.4 2:0.4 3:0.467 4:0.041 5:0 6:0.041 7:0.204 8:0.02 9:0.02 10:0.082 11:0.02 12:0.122 13:0.061 14:0.041 15:0.02 16:0.082 17:0.082 18:0.082 19:0.082 20:0 
-201.7055282183712 1:0.4 2:0.4 3:0.467 4:0.041 5:0.102 6:0.061 7:0.082 8:0.061 9:0.02 10:0 11:0.061 12:0 13:0.041 14:0.143 15:0.061 16:0.184 17:0 18:0.041 19:0.102 20:0 
-82.55506525675776 1:0.4 2:0.4 3:0.467 4:0.082 5:0.041 6:0.041 7:0.122 8:0 9:0 10:0.041 11:0.122 12:0.163 13:0.02 14:0.041 15:0 16:0.041 17:0.102 18:0.122 19:0.061 20:0 
131.368218232674 1:0.4 2:0.4 3:0.467 4:0.041 5:0 6:0.143 7:0.102 8:0.102 9:0.041 10:0 11:0 12:0.082 13:0 14:0.061 15:0.102 16:0.041 17:0.122 18:0.041 19:0.122 20:0 
168.705028320851 1:0.4 2:0.4 3:0.467 4:0.02 5:0.041 6:0.102 7:0.122 8:0.082 9:0 10:0.082 11:0 12:0.041 13:0.082 14:0 15:0.122 16:0.143 17:0.02 18:0.061 19:0.082 20:0 
-42.74934596534909 1:0.4 2:0.4 3:0.467 4:0.143 5:0.041 6:0 7:0.102 8:0.082 9:0 10:0.041 11:0.041 12:0.041 13:0.082 14:0.082 15:0.041 16:0 17:0.041 18:0.122 19:0.143 20:0 
-256 1:0.4 2:0.4 3:0.467 4:0.082 5:0.102 6:0.02 7:0.082 8:0 9:0.061 10:0.02 11:0.082 12:0.061 13:0 14:0.041 15:0.122 16:0.143 17:0 18:0.143 19:0.041 20:0 
-256 1:0.4 2:0.45 3:0.467 4:0.082 5:0.02 6:0.102 7:0.082 8:0.122 9:0.041 10:0 11:0 12:0.02 13:0.061 14:0.082 15:0.061 16:0.061 17:0.061 18:0.02 19:0.184 20:0 
-256 1:0.4 2:0.45 3:0.467 4:0.061 5:0.082 6:0.082 7:0.061 8:0.02 9:0 10:0.041 11:0.122 12:0.122 13:0.02 14:0.041 15:0.02 16:0.082 17:0.082 18:0.041 19:0.122 20:0 
99.92840731961861 1:0.4 2:0.45 3:0.467 4:0.041 5:0.061 6:0.102 7:0.082 8:0.122 9:0.041 10:0 11:0.02 12:0 13:0.061 14:0.041 15:0.122 16:0.122 17:0.02 18:0.061 19:0.102 20:0 
-138.2360528830423 1:0.4 2:0.45 3:0.467 4:0.102 5:0 6:0.061 7:0.122 8:0.082 9:0.041 10:0.061 11:0 12:0.041 13:0.082 14:0 15:0.082 16:0.061 17:0.061 18:0.082 19:0.122 20:0 
62.31872314545144 1:0.4 2:0.45 3:0.467 4:0.082 5:0.02 6:0.061 7:0.122 8:0.02 9:0.041 10:0 11:0.122 12:0.122 13:0 14:0.082 15:0.02 16:0.041 17:0.122 18:0.082 19:0.061 20:0 
-66.71300442556517 1:0.4 2:0.45 3:0.467 4:0.122 5:0.02 6:0 7:0.143 8:0.041 9:0.041 10:0.041 11:0.061 12:0 13:0.082 14:0.02 15:0.102 16:0.122 17:0.02 18:0.163 19:0.02 20:0 
72.51025814025451 1:0.4 2:0.45 3:0.467 4:0 5:0.082 6:0.041 7:0.163 8:0 9:0.061 10:0.082 11:0.02 12:0.102 13:0.041 14:0.061 15:0.02 16:0.184 17:0 18:0.041 19:0.102 20:0 
-256 1:0.4 2:0.45 3:0.467 4:0.041 5:0 6:0.122 7:0.122 8:0 9:0.082 10:0 11:0.102 12:0.061 13:0.061 14:0.041 15:0.041 16:0.163 17:0.041 18:0.061 19:0.061 20:0 
-43.78689556512235 1:0.4 2:0.45 3:0.467 4:0.143 5:0.041 6:0.061 7:0.02 8:0.041 9:0 10:0.02 11:0.122 12:0.082 13:0 14:0.02 15:0.122 16:0.02 17:0.143 18:0.122 19:0.041 20:0 
78.39586879885738 1:0.4 2:0.45 3:0.467 4:0.061 5:0.102 6:0.041 7:0.082 8:0.122 9:0 10:0.02 11:0.02 12:0.041 13:0.041 14:0.122 15:0.02 16:0.041 17:0.041 18:0.041 19:0.204 20:0 
256 1:0.4 2:0.5 3:0.467 4:0.122 5:0 6:0.041 7:0.122 8:0.041 9:0.041 10:0.082 11:0.041 12:0.041 13:0.102 14:0.041 15:0.02 16:0.082 17:0.061 18:0.041 19:0.122 20:0 
-256 1:0.4 2:0.5 3:0.467 4:0.184 5:0.02 6:0 7:0.082 8:0.041 9:0.041 10:0.061 11:0.041 12:0.02 13:0.02 14:0.082 15:0.082 16:0.041 17:0.102 18:0.061 19:0.122 20:0 
-142.1032482679205 1:0.4 2:0.5 3:0.467 4:0.02 5:0.102 6:0 7:0.143 8:0.041 9:0.041 10:0.102 11:0.02 12:0.143 13:0.02 14:0.041 15:0 16:0.082 17:0.041 18:0.041 19:0.163 20:0 
256 1:0.4 2:0.5 3:0.467 4:0.102 5:0.041 6:0.02 7:0.122 8:0.102 9:0.02 10:0.02 11:0.061 12:0.02 13:0.061 14:0.02 15:0.082 16:0.061 17:0.061 18:0.143 19:0.061 20:0 
0.002178980691866464 1:0.4 2:0.5 3:0.467 4:0.102 5:0.102 6:0.082 7:0 8:0.102 9:0 10:0.02 11:0.082 12:0.082 13:0.02 14:0 15:0.082 16:0 17:0.082 18:0.102 19:0.143 20:0 
256 1:0.4 2:0.5 3:0.467 4:0.163 5:0.02 6:0.02 7:0.082 8:0 9:0.082 10:0.061 11:0.061 12:0.02 13:0.061 14:0 15:0.122 16:0.102 17:0.041 18:0.122 19:0.041 20:0 
141.1509351706768 1:0.4 2:0.5 3:0.467 4:0.143 5:0 6:0.041 7:0.102 8:0.061 9:0.041 10:0 11:0.082 12:0.02 13:0.082 14:0.102 15:0 16:0.041 17:0.082 18:0.061 19:0.143 20:0 
-256 1:0.4 2:0.5 3:0.467 4:0.02 5:0.082 6:0.082 7:0.102 8:0.061 9:0 10:0.061 11:0.061 12:0.061 13:0 14:0.061 15:0.082 16:0.122 17:0.122 18:0 19:0.082 20:0 
28.88634870654484 1:0.4 2:0.5 3:0.467 4:0.041 5:0.061 6:0.082 7:0.102 8:0.082 9:0 10:0.082 11:0.02 12:0.143 13:0.041 14:0.02 15:0 16:0.02 17:0.082 18:0.02 19:0.204 20:0 
-256 1:0.4 2:0.5 3:0.467 4:0.061 5:0.061 6:0.041 7:0.122 8:0.143 9:0.02 10:0.02 11:0 12:0 13:0.102 14:0.041 15:0.061 16:0.082 17:0 18:0.102 19:0.143 20:0 
-80.97732755417574 1:0.4 2:0.5 3:0.467 4:0 5:0.061 6:0.041 7:0.184 8:0.082 9:0.102 10:0 11:0.02 12:0.122 13:0.02 14:0.061 15:0 16:0.082 17:0.02 18:0.082 19:0.122 20:0 
152.1135138833856 1:0.4 2:0.55 3:0.467 4:0.02 5:0.122 6:0.061 7:0.082 8:0.02 9:0.041 10:0.041 11:0.122 12:0.061 13:0 14:0.061 15:0.041 16:0.163 17:0.061 18:0.02 19:0.082 20:0 
68.09502125750868 1:0.4 2:0.55 3:0.467 4:0 5:0.061 6:0.041 7:0.184 8:0.082 9:0.02 10:0.02 11:0.102 12:0.061 13:0.041 14:0.02 15:0.041 16:0.143 17:0.102 18:0.082 19:0 20:0 
76.87151023086008 1:0.4 2:0.55 3:0.467 4:0.082 5:0.143 6:0.061 7:0 8:0.082 9:0 10:0.041 11:0.102 12:0.02 13:0.061 14:0 15:0.102 16:0.102 17:0.02 18:0.061 19:0.122 20:0 
-151.1404787339397 1:0.4 2:0.55 3:0.467 4:0.041 5:0.122 6:0.041 7:0.082 8:0.02 9:0.061 10:0.082 11:0.061 12:0 13:0.02 14:0 15:0.143 16:0.224 17:0.02 18:0.041 19:0.041 20:0 
256 1:0.4 2:0.55 3:0.467 4:0.102 5:0.122 6:0.02 7:0.041 8:0.143 9:0.061 10:0 11:0 12:0.02 13:0.041 14:0.041 15:0.082 16:0.02 17:0 18:0.122 19:0.184 20:0 
165.6471236640409 1:0.4 2:0.55 3:0.467 4:0.041 5:0.041 6:0.02 7:0.184 8:0.061 9:0.041 10:0.082 11:0.02 12:0.122 13:0 14:0.041 15:0.02 16:0.061 17:0.143 18:0.041 19:0.082 20:0 
66.64585645914303 1:0.4 2:0.55 3:0.467 4:0.061 5:0.143 6:0 7:0.082 8:0.02 9:0 10:0.082 11:0.102 12:0.102 13:0.061 14:0.02 15:0 16:0.102 17:0 18:0.082 19:0.143 20:0 
208.4660500851954 1:0.4 2:0.55 3:0.467 4:0.082 5:0.122 6:0 7:0.082 8:0.102 9:0 10:0.02 11:0.102 12:0 13:0.041 14:0.082 15:0.041 16:0.102 17:0.061 18:0.061 19:0.102 20:0 
-256 1:0.4 2:0.55 3:0.467 4:0.082 5:0.041 6:0.061 7:0.102 8:0.102 9:0 10:0 11:0.122 12:0 13:0.082 14:0.02 15:0.082 16:0.102 17:0.082 18:0.102 19:0.02 20:0 
-188.7898295361165 1:0.4 2:0.55 3:0.467 4:0.041 5:0.102 6:0.041 7:0.082 8:0.143 9:0 10:0.02 11:0.061 12:0.082 13:0.061 14:0.041 15:0 16:0.02 17:0.041 18:0.082 19:0.184 20:0 
-256 1:0.4 2:0.55 3:0.467 4:0 5:0.041 6:0.082 7:0.143 8:0.102 9:0 10:0.02 11:0.102 12:0.082 13:0.02 14:0.061 15:0.02 16:0.102 17:0.163 18:0.02 19:0.041 20:0 
205.5660543197905 1:0.4 2:0.55 3:0.467 4:0.122 5:0.122 6:0.02 7:0.02 8:0.041 9:0.082 10:0 11:0.082 12:0.02 13:0 14:0.082 15:0.082 16:0.082 17:0.02 18:0.082 19:0.143 20:0 
110.6883814058809 1:0.4 2:0.55 3:0.467 4:0.02 5:0.02 6:0.02 7:0.204 8:0.122 9:0.02 10:0 11:0.082 12:0.102 13:0.041 14:0.02 15:0.02 16:0.041 17:0.143 18:0.122 19:0.02 20:0 
-55.99065056062596 1:0.4 2:0.6 3:0.467 4:0.082 5:0.143 6:0 7:0.041 8:0.061 9:0.061 10:0.061 11:0.061 12:0.102 13:0.02 14:0.02 15:0.02 16:0.02 17:0.02 18:0.082 19:0.204 20:0 
-256 1:0.4 2:0.6 3:0.467 4:0.041 5:0.041 6:0.02 7:0.163 8:0.082 9:0.102 10:0.041 11:0.02 12:0.082 13:0.02 14:0.041 15:0.02 16:0.082 17:0.061 18:0.061 19:0.122 20:0 
174.9849365591843 1:0.4 2:0.6 3:0.467 4:0.102 5:0 6:0 7:0.184 8:0.061 9:0.122 10:0.02 11:0.02 12:0.02 13:0.082 14:0 15:0.061 16:0.102 17:0.041 18:0.122 19:0.061 20:0 
-228.1232378862187 1:0.4 2:0.6 3:0.467 4:0.082 5:0.102 6:0 7:0.102 8:0.041 9:0.041 10:0.082 11:0.061 12:0.061 13:0 14:0 15:0.102 16:0.102 17:0.102 18:0.082 19:0.041 20:0 
256 1:0.4 2:0.6 3:0.467 4:0.082 5:0.02 6:0.041 7:0.143 8:0.02 9:0.122 10:0 11:0.102 12:0.061 13:0 14:0.02 15:0.061 16:0.102 17:0.102 18:0.102 19:0.02 20:0 
-2.552020117231659 1:0.4 2:0.6 3:0.467 4:0.02 5:0.122 6:0.061 7:0.061 8:0.163 9:0.02 10:0 11:0.061 12:0 13:0.061 14:0.061 15:0.041 16:0.102 17:0.041 18:0.041 19:0.143 20:0 
129.199310883678 1:0.4 2:0.6 3:0.467 4:0.041 5:0.163 6:0.02 7:0.041 8:0.143 9:0 10:0.041 11:0.061 12:0.02 13:0.082 14:0 15:0.061 16:0.082 17:0 18:0.102 19:0.143 20:0 
8.660559972990379 1:0.4 2:0.6 3:0.467 4:0.082 5:0.082 6:0.041 7:0.082 8:0.163 9:0 10:0.061 11:0 12:0.02 13:0.082 14:0 15:0.061 16:0.02 17:0.082 18:0.041 19:0.184 20:0 
-256 1:0.4 2:0.6 3:0.467 4:0.041 5:0.122 6:0.041 7:0.082 8:0.02 9:0.102 10:0 11:0.102 12:0.041 13:0.02 14:0.061 15:0.041 16:0.184 17:0 18:0.061 19:0.082 20:0 
-8.619820453412871 1:0.4 2:0.6 3:0.467 4:0.102 5:0.122 6:0.041 7:0.02 8:0 9:0.102 10:0.082 11:0.061 12:0.082 13:0 14:0 15:0.082 16:0.082 17:0.02 18:0.041 19:0.163 20:0 
-256 1:0.4 2:0.6 3:0.467 4:0.122 5:0.061 6:0.02 7:0.082 8:0.061 9:0 10:0.082 11:0.102 12:0 13:0.082 14:0.061 15:0 16:0.102 17:0.102 18:0 19:0.122 20:0 
256 1:0.4 2:0.6 3:0.467 4:0.02 5:0.122 6:0 7:0.143 8:0.122 9:0 10:0.041 11:0.082 12:0.082 13:0 14:0.061 15:0 16:0.061 17:0.122 18:0.061 19:0.082 20:0 
97.27661353112713 1:0.4 2:0.6 3:0.467 4:0.082 5:0.041 6:0.061 7:0.102 8:0.082 9:0.143 10:0.02 11:0 12:0 13:0.041 14:0 15:0.122 16:0.122 17:0.02 18:0.082 19:0.082 20:0 
-256 1:0.4 2:0.65 3:0.467 4:0.041 5:0.143 6:0 7:0.102 8:0.082 9:0.02 10:0 11:0.143 12:0.02 13:0.02 14:0.041 15:0.061 16:0.122 17:0.082 18:0.102 19:0.02 20:0 
134.0693105673272 1:0.4 2:0.65 3:0.467 4:0.082 5:0.082 6:0.082 7:0.041 8:0.102 9:0.041 10:0.061 11:0.061 12:0 13:0.041 14:0 15:0.102 16:0.102 17:0.082 18:0 19:0.122 20:0 
-256 1:0.4 2:0.65 3:0.467 4:0.061 5:0.163 6:0 7:0.061 8:0.102 9:0.041 10:0.041 11:0.061 12:0.02 13:0.041 14:0.041 15:0.041 16:0.102 17:0 18:0.061 19:0.163 20:0 
-256 1:0.4 2:0.65 3:0.467 4:0.041 5:0.143 6:0.061 7:0.02 8:0.02 9:0.082 10:0.061 11:0.102 12:0.061 13:0.02 14:0.02 15:0.041 16:0.143 17:0.02 18:0 19:0.163 20:0 
-153.7864417580672 1:0.4 2:0.65 3:0.467 4:0.041 5:0.143 6:0.02 7:0.061 8:0.184 9:0 10:0.082 11:0 12:0 13:0.02 14:0.041 15:0.082 16:0.041 17:0.102 18:0 19:0.184 20:0 
130.9745370088934 1:0.4 2:0.65 3:0.467 4:0.02 5:0.163 6:0.02 7:0.082 8:0.184 9:0 10:0.041 11:0.041 12:0.082 13:0.041 14:0 15:0.02 16:0 17:0.061 18:0.082 19:0.163 20:0 
-256 1:0.4 2:0.7 3:0.467 4:0.184 5:0 6:0.082 7:0.02 8:0.061 9:0.102 10:0 11:0.122 12:0 13:0.02 14:0.02 15:0.061 16:0.041 17:0.163 18:0.02 19:0.102 20:0 
-43.07172209190491 1:0.4 2:0.7 3:0.467 4:0.082 5:0.02 6:0 7:0.163 8:0.082 9:0.082 10:0.061 11:0.061 12:0.061 13:0.02 14:0.02 15:0.02 16:0.061 17:0.143 18:0.041 19:0.082 20:0 
92.10768703686281 1:0.4 2:0.7 3:0.467 4:0.163 5:0.061 6:0 7:0.061 8:0 9:0.061 10:0.082 11:0.143 12:0 13:0.082 14:0 15:0.041 16:0.122 17:0.082 18:0.041 19:0.061 20:0 
-256 1:0.4 2:0.7 3:0.467 4:0.082 5:0.143 6:0 7:0.041 8:0.143 9:0.061 10:0.02 11:0.061 12:0 13:0.02 14:0.02 15:0.082 16:0.041 17:0.061 18:0.082 19:0.143 20:0 
-155.5600989027522 1:0.4 2:0.7 3:0.467 4:0.061 5:0.082 6:0.041 7:0.102 8:0.122 9:0 10:0.041 11:0.122 12:0.082 13:0.02 14:0.02 15:0 16:0.02 17:0.163 18:0.02 19:0.102 20:0 
-154.550098121503 1:0.4 2:0.7 3:0.467 4:0.082 5:0.02 6:0 7:0.184 8:0.02 9:0.122 10:0.061 11:0.061 12:0.041 13:0.082 14:0 15:0 16:0.143 17:0.061 18:0.061 19:0.061 20:0 
256 1:0.4 2:0.7 3:0.467 4:0.082 5:0.041 6:0.082 7:0.082 8:0.082 9:0.184 10:0 11:0.02 12:0 13:0.061 14:0 15:0.041 16:0.102 17:0 18:0.041 19:0.184 20:0 
-256 1:0.4 2:0.7 3:0.467 4:0.041 5:0.184 6:0.061 7:0 8:0.143 9:0.02 10:0 11:0.122 12:0.041 13:0.02 14:0 15:0.061 16:0.041 17:0.061 18:0.061 19:0.143 20:0 
-256 1:0.4 2:0.7 3:0.467 4:0.163 5:0.041 6:0 7:0.082 8:0 9:0.102 10:0.082 11:0.102 12:0.082 13:0.02 14:0.02 15:0 16:0.041 17:0.122 18:0.02 19:0.122 20:0 
-118.0361704916993 1:0.4 2:0.7 3:0.467 4:0.041 5:0.061 6:0.082 7:0.082 8:0 9:0.122 10:0 11:0.163 12:0.061 13:0 14:0 15:0.061 16:0.184 17:0.102 18:0.041 19:0 20:0 
-100.4364075308939 1:0.4 2:0.7 3:0.467 4:0.041 5:0.041 6:0.02 7:0.184 8:0.163 9:0 10:0.082 11:0.02 12:0.041 13:0.02 14:0.02 15:0.041 16:0.041 17:0.204 18:0 19:0.082 20:0 
-256 1:0.4 2:0.75 3:0.467 4:0.122 5:0.02 6:0 7:0.143 8:0.02 9:0.102 10:0.061 11:0.122 12:0 13:0.02 14:0 15:0.061 16:0.122 17:0.163 18:0.041 19:0 20:0 
256 1:0.4 2:0.75 3:0.467 4:0.082 5:0.143 6:0.041 7:0 8:0.041 9:0.041 10:0.041 11:0.184 12:0.041 13:0.041 14:0.02 15:0 16:0.122 17:0.082 18:0 19:0.122 20:0 
-256 1:0.4 2:0.75 3:0.467 4:0.082 5:0.122 6:0 7:0.082 8:0.143 9:0.122 10:0.02 11:0.02 12:0 13:0.02 14:0.02 15:0.041 16:0.061 17:0.041 18:0.061 19:0.163 20:0 
256 1:0.4 2:0.75 3:0.467 4:0.122 5:0.102 6:0.02 7:0.041 8:0.061 9:0.061 10:0.061 11:0.122 12:0.061 13:0.041 14:0 15:0 16:0.02 17:0.102 18:0.02 19:0.163 20:0 
-187.3990356371974 1:0.4 2:0.75 3:0.467 4:0.082 5:0.041 6:0.02 7:0.122 8:0.082 9:0.204 10:0 11:0.02 12:0.061 13:0.02 14:0.02 15:0 16:0.061 17:0.02 18:0.061 19:0.184 20:0 
-157.1124172279189 1:0.4 2:0.75 3:0.467 4:0.061 5:0.163 6:0 7:0.061 8:0.082 9:0.02 10:0.02 11:0.184 12:0.041 13:0 14:0.02 15:0.041 16:0.102 17:0.122 18:0.041 19:0.041 20:0 
256 1:0.4 2:0.75 3:0.467 4:0.122 5:0.082 6:0.041 7:0.041 8:0 9:0.163 10:0.02 11:0.122 12:0.02 13:0.041 14:0.02 15:0 16:0.122 17:0.02 18:0.02 19:0.163 20:0 
256 1:0.4 2:0.75 3:0.467 4:0.02 5:0.061 6:0.061 7:0.122 8:0.122 9:0.061 10:0.041 11:0.082 12:0.02 13:0 14:0 15:0.082 16:0.122 17:0.184 18:0 19:0.02 20:0 
75.78824595573238 1:0.4 2:0.75 3:0.467 4:0.082 5:0.102 6:0.041 7:0.041 8:0.041 9:0 10:0.02 11:0.245 12:0.041 13:0.041 14:0 15:0.02 16:0.102 17:0.163 18:0.041 19:0.02 20:0 
-118.1728292682283 1:0.4 2:0.75 3:0.467 4:0.122 5:0.02 6:0.061 7:0.082 8:0.041 9:0.143 10:0.041 11:0.082 12:0 13:0.02 14:0 15:0.082 16:0.122 17:0.122 18:0 19:0.061 20:0 
46.51747123344057 1:0.4 2:0.75 3:0.467 4:0.061 5:0.102 6:0.02 7:0.102 8:0.122 9:0 10:0 11:0.163 12:0 13:0.061 14:0 15:0.041 16:0.082 17:0.143 18:0.082 19:0.02 20:0 
170.5261871419553 1:0.4 2:0.75 3:0.467 4:0.041 5:0.02 6:0.041 7:0.184 8:0.061 9:0.184 10:0.041 11:0.02 12:0.02 13:0 14:0 15:0.082 16:0.143 17:0.102 18:0.02 19:0.041 20:0 
227.7428255980882 1:0.4 2:0.75 3:0.467 4:0.122 5:0.082 6:0 7:0.082 8:0.061 9:0.122 10:0.02 11:0.082 12:0 13:0.061 14:0 15:0.041 16:0.082 17:0.041 18:0.082 19:0.122 20:0 
-110.7677494626442 1:0.4 2:0.75 3:0.467 4:0.061 5:0.184 6:0 7:0.02 8:0.082 9:0.02 10:0.02 11:0.184 12:0.041 13:0.061 14:0 15:0 16:0.102 17:0.041 18:0.082 19:0.102 20:0 
31.42917481885044 1:0.4 2:0.75 3:0.467 4:0.102 5:0.082 6:0.041 7:0.061 8:0 9:0.163 10:0 11:0.122 12:0 13:0.041 14:0 15:0.061 16:0.184 17:0.02 18:0.041 19:0.082 20:0 
256 1:0.4 2:0.8 3:0.467 4:0.02 5:0.143 6:0.02 7:0.102 8:0.082 9:0.082 10:0.041 11:0.102 12:0.041 13:0 14:0 15:0.041 16:0.143 17:0.082 18:0.02 19:0.082 20:0 
-256 1:0.4 2:0.8 3:0.467 4:0.082 5:0.061 6:0 7:0.143 8:0.122 9:0.082 10:0.02 11:0.102 12:0 13:0.02 14:0 15:0.041 16:0.061 17:0.163 18:0.061 19:0.041 20:0 
-256 1:0.4 2:0.8 3:0.467 4:0.122 5:0.02 6:0.041 7:0.102 8:0.122 9:0.122 10:0.02 11:0.061 12:0.02 13:0.041 14:0 15:0.02 16:0.02 17:0.143 18:0 19:0.143 20:0 
256 1:0.4 2:0.8 3:0.467 4:0.082 5:0.102 6:0.02 7:0.082 8:0 9:0.102 10:0.061 11:0.143 12:0.041 13:0 14:0 15:0.041 16:0.143 17:0.122 18:0 19:0.061 20:0 
-256 1:0.4 2:0.8 3:0.467 4:0.02 5:0.143 6:0.041 7:0.061 8:0.163 9:0.02 10:0.041 11:0.102 12:0.02 13:0.02 14:0 15:0.041 16:0.082 17:0.143 18:0 19:0.102 20:0 
179.1421199599576 1:0.4 2:0.8 3:0.467 4:0.02 5:0.061 6:0.02 7:0.163 8:0.122 9:0.061 10:0.061 11:0.082 12:0.02 13:0.041 14:0 15:0.02 16:0.122 17:0.143 18:0 19:0.061 20:0 
254.7419630272292 1:0.4 2:0.8 3:0.467 4:0.122 5:0.102 6:0.041 7:0.02 8:0.082 9:0.041 10:0 11:0.204 12:0.041 13:0 14:0 15:0.02 16:0.041 17:0.184 18:0.02 19:0.082 20:0 
-136.7820628943206 1:0.4 2:0.8 3:0.467 4:0.041 5:0.102 6:0.041 7:0.082 8:0.143 9:0 10:0 11:0.184 12:0.041 13:0.02 14:0 15:0.02 16:0.041 17:0.204 18:0.041 19:0.041 20:0 
13.21674409097909 1:0.4 2:0.8 3:0.467 4:0.061 5:0.163 6:0 7:0.041 8:0.041 9:0.143 10:0.061 11:0.082 12:0.02 13:0 14:0 15:0.061 16:0.163 17:0.02 18:0.02 19:0.122 20:0 
-256 1:0.4 2:0.8 3:0.467 4:0.061 5:0.082 6:0.041 7:0.102 8:0.163 9:0.02 10:0.041 11:0.102 12:0 13:0 14:0 15:0.061 16:0.061 17:0.224 18:0 19:0.041 20:0 
256 1:0.4 2:0.8 3:0.467 4:0.082 5:0.163 6:0.041 7:0 8:0.041 9:0.102 10:0 11:0.184 12:0.02 13:0 14:0 15:0.041 16:0.122 17:0.061 18:0.041 19:0.102 20:0 
87.48650417561041 1:0.4 2:0.2 3:0.5 4:0.102 5:0.02 6:0.061 7:0.122 8:0.02 9:0 10:0.041 11:0.02 12:0.163 13:0 14:0.143 15:0 16:0 17:0.061 18:0.082 19:0.163 20:0 
58.6612067433167 1:0.4 2:0.2 3:0.5 4:0.224 5:0 6:0.041 7:0.02 8:0.02 9:0 10:0.041 11:0.02 12:0 13:0.061 14:0.143 15:0.122 16:0.061 17:0.02 18:0.102 19:0.122 20:0 
84.34122800720404 1:0.4 2:0.2 3:0.5 4:0.122 5:0 6:0 7:0.184 8:0.061 9:0 10:0.02 11:0 12:0.061 13:0.02 14:0.143 15:0.082 16:0.061 17:0.061 18:0.143 19:0.041 20:0 
-225.4921552258195 1:0.4 2:0.25 3:0.5 4:0.184 5:0.02 6:0 7:0.102 8:0.041 9:0.02 10:0.041 11:0 12:0.041 13:0.041 14:0.143 15:0.082 16:0.041 17:0.02 18:0.122 19:0.102 20:0 
-51.54735369521032 1:0.4 2:0.25 3:0.5 4:0.082 5:0.02 6:0.061 7:0.143 8:0.02 9:0.02 10:0.061 11:0 12:0.122 13:0.02 14:0 15:0.143 16:0.061 17:0.041 18:0.184 19:0.02 20:0 
144.2040568369326 1:0.4 2:0.25 3:0.5 4:0 5:0.061 6:0.143 7:0.102 8:0.02 9:0.02 10:0.041 11:0.02 12:0.082 13:0 14:0.122 15:0.082 16:0.204 17:0.02 18:0 19:0.082 20:0 
77.82535709826341 1:0.4 2:0.25 3:0.5 4:0.122 5:0.061 6:0.041 7:0.061 8:0.041 9:0.02 10:0.02 11:0.02 12:0.102 13:0.02 14:0.02 15:0.163 16:0.041 17:0 18:0.224 19:0.041 20:0 
-242.3254076480232 1:0.4 2:0.25 3:0.5 4:0.061 5:0 6:0.143 7:0.102 8:0 9:0.02 10:0.061 11:0 12:0.02 13:0.061 14:0.102 15:0.122 16:0.224 17:0 18:0 19:0.082 20:0 
-221.3333791949104 1:0.4 2:0.3 3:0.5 4:0.02 5:0.082 6:0.143 7:0.061 8:0.041 9:0.02 10:0.02 11:0.041 12:0.061 13:0.02 14:0.102 15:0.082 16:0.184 17:0 18:0.02 19:0.102 20:0 
26.33001665547464 1:0.4 2:0.3 3:0.5 4:0.041 5:0 6:0.184 7:0.082 8:0.061 9:0.02 10:0.02 11:0.02 12:0.163 13:0.061 14:0.02 15:0.02 16:0.041 17:0.02 18:0.061 19:0.184 20:0 
-14.62210260280963 1:0.4 2:0.3 3:0.5 4:0.041 5:0.082 6:0.163 7:0.02 8:0.061 9:0 10:0 11:0.061 12:0.143 13:0.041 14:0.041 15:0.061 16:0.041 17:0 18:0.082 19:0.163 20:0 
-256 1:0.4 2:0.3 3:0.5 4:0.143 5:0 6:0.143 7:0.02 8:0.041 9:0 10:0 11:0.082 12:0.061 13:0.082 14:0.082 15:0.061 16:0.061 17:0.041 18:0.061 19:0.122 20:0 
22.80401978069938 1:0.4 2:0.3 3:0.5 4:0.02 5:0.02 6:0.02 7:0.224 8:0.02 9:0.02 10:0.082 11:0 12:0.163 13:0.061 14:0.041 15:0.02 16:0.082 17:0.02 18:0.143 19:0.061 20:0 
7.509506289567978 1:0.4 2:0.35 3:0.5 4:0.143 5:0.041 6:0.102 7:0.02 8:0.041 9:0 10:0.041 11:0.061 12:0.041 13:0.061 14:0 15:0.163 16:0.061 17:0.041 18:0.122 19:0.061 20:0 
-163.3185787861898 1:0.4 2:0.35 3:0.5 4:0.02 5:0.041 6:0.082 7:0.163 8:0.082 9:0 10:0.02 11:0.041 12:0.163 13:0.02 14:0.061 15:0.02 16:0.041 17:0.082 18:0.102 19:0.061 20:0 
256 1:0.4 2:0.35 3:0.5 4:0.122 5:0.02 6:0.102 7:0.061 8:0 9:0.02 10:0.02 11:0.102 12:0.041 13:0.041 14:0.143 15:0.02 16:0.122 17:0.061 18:0 19:0.122 20:0 
10.21414644805374 1:0.4 2:0.35 3:0.5 4:0.102 5:0 6:0.082 7:0.122 8:0.02 9:0.02 10:0 11:0.102 12:0.082 13:0.041 14:0.041 15:0.082 16:0.082 17:0.082 18:0.143 19:0 20:0 
-62.80773453145012 1:0.4 2:0.35 3:0.5 4:0.061 5:0.102 6:0.102 7:0.041 8:0 9:0.02 10:0.02 11:0.082 12:0.102 13:0 14:0 15:0.163 16:0.143 17:0.02 18:0.143 19:0 20:0 
121.571186585155 1:0.4 2:0.35 3:0.5 4:0.082 5:0.061 6:0.02 7:0.143 8:0 9:0.02 10:0.061 11:0.041 12:0.122 13:0 14:0.143 15:0 16:0.102 17:0.061 18:0.041 19:0.102 20:0 
74.77757046489536 1:0.4 2:0.35 3:0.5 4:0.163 5:0.102 6:0.02 7:0.02 8:0 9:0.041 10:0.061 11:0.041 12:0.082 13:0 14:0.082 15:0.102 16:0.061 17:0 18:0.102 19:0.122 20:0 
55.70689496066779 1:0.4 2:0.4 3:0.5 4:0 5:0.041 6:0.082 7:0.184 8:0.041 9:0.041 10:0.061 11:0.02 12:0.102 13:0.041 14:0.041 15:0.061 16:0.163 17:0.041 18:0.041 19:0.041 20:0 
256 1:0.4 2:0.4 3:0.5 4:0.02 5:0.061 6:0.143 7:0.082 8:0 9:0.061 10:0 11:0.082 12:0.061 13:0.041 14:0.082 15:0.061 16:0.204 17:0 18:0.02 19:0.082 20:0 
-164.1951960253978 1:0.4 2:0.4 3:0.5 4:0.163 5:0.082 6:0.041 7:0.02 8:0.02 9:0.061 10:0.041 11:0.041 12:0.02 13:0.02 14:0.041 15:0.143 16:0.082 17:0 18:0.122 19:0.102 20:0 
-256 1:0.4 2:0.4 3:0.5 4:0.122 5:0.041 6:0.061 7:0.082 8:0.082 9:0.041 10:0 11:0.02 12:0.041 13:0.02 14:0.143 15:0.041 16:0.061 17:0.061 18:0.02 19:0.163 20:0 
-80.34394215442492 1:0.4 2:0.4 3:0.5 4:0.122 5:0.02 6:0 7:0.163 8:0.041 9:0.061 10:0.02 11:0.02 12:0.041 13:0.041 14:0.122 15:0.041 16:0.102 17:0.041 18:0.102 19:0.061 20:0 
62.60673209450436 1:0.4 2:0.4 3:0.5 4:0.143 5:0.061 6:0.102 7:0 8:0.082 9:0.02 10:0.041 11:0.02 12:0 13:0.041 14:0.041 15:0.163 16:0.082 17:0.02 18:0.061 19:0.122 20:0 
-128.7839105352971 1:0.4 2:0.4 3:0.5 4:0.122 5:0.061 6:0.041 7:0.082 8:0.061 9:0.02 10:0.041 11:0.041 12:0.122 13:0.02 14:0.082 15:0 16:0 17:0.061 18:0.082 19:0.163 20:0 
-71.19755904899696 1:0.4 2:0.4 3:0.5 4:0.082 5:0.122 6:0.082 7:0.02 8:0.061 9:0 10:0.041 11:0.041 12:0.163 13:0.02 14:0.041 15:0.02 16:0 17:0.02 18:0.082 19:0.204 20:0 
108.0911401076062 1:0.4 2:0.4 3:0.5 4:0 5:0.041 6:0.061 7:0.184 8:0.061 9:0.061 10:0 11:0.041 12:0.102 13:0.061 14:0.082 15:0 16:0.143 17:0 18:0.102 19:0.061 20:0 
-125.4751779084257 1:0.4 2:0.4 3:0.5 4:0.082 5:0.041 6:0.163 7:0 8:0 9:0.061 10:0.02 11:0.082 12:0.143 13:0 14:0 15:0.102 16:0.061 17:0.061 18:0.061 19:0.122 20:0 
55.4676902408221 1:0.4 2:0.4 3:0.5 4:0.122 5:0.122 6:0.061 7:0 8:0 9:0 10:0.041 11:0.102 12:0.122 13:0 14:0.102 15:0.02 16:0.061 17:0.041 18:0.041 19:0.163 20:0 
-140.0348310864616 1:0.4 2:0.4 3:0.5 4:0.102 5:0 6:0 7:0.204 8:0.061 9:0.041 10:0.02 11:0.041 12:0.082 13:0.061 14:0.041 15:0.041 16:0.061 17:0.061 18:0.163 19:0.02 20:0 
103.887210263659 1:0.4 2:0.45 3:0.5 4:0.082 5:0.041 6:0.02 7:0.163 8:0.082 9:0.082 10:0.02 11:0 12:0 13:0.041 14:0.082 15:0.082 16:0.122 17:0.02 18:0.102 19:0.061 20:0 
-67.23751625460368 1:0.4 2:0.45 3:0.5 4:0.061 5:0.061 6:0.102 7:0.082 8:0.061 9:0.061 10:0.041 11:0.02 12:0.143 13:0.02 14:0.041 15:0 16:0.041 17:0.041 18:0.041 19:0.184 20:0 
-3.983957403294992 1:0.4 2:0.45 3:0.5 4:0 5:0.041 6:0.102 7:0.143 8:0.041 9:0 10:0.082 11:0.061 12:0.102 13:0 14:0.041 15:0.082 16:0.163 17:0.122 18:0 19:0.02 20:0 
-256 1:0.4 2:0.45 3:0.5 4:0.041 5:0.102 6:0.082 7:0.061 8:0 9:0.041 10:0.02 11:0.122 12:0.102 13:0.02 14:0.102 15:0 16:0.143 17:0.02 18:0.02 19:0.122 20:0 
-256 1:0.4 2:0.45 3:0.5 4:0.143 5:0 6:0 7:0.163 8:0.02 9:0.061 10:0.061 11:0.041 12:0.061 13:0.082 14:0.041 15:0.02 16:0.082 17:0.041 18:0.122 19:0.061 20:0 
-20.84002234722582 1:0.4 2:0.45 3:0.5 4:0.02 5:0.102 6:0.041 7:0.143 8:0.082 9:0.061 10:0.041 11:0 12:0.163 13:0.02 14:0 15:0.02 16:0.041 17:0 18:0.122 19:0.143 20:0 
-240.784134514967 1:0.4 2:0.45 3:0.5 4:0.082 5:0.061 6:0.061 7:0.102 8:0.082 9:0.082 10:0 11:0.02 12:0.102 13:0 14:0 15:0.122 16:0.041 17:0.041 18:0.143 19:0.061 20:0 
-256 1:0.4 2:0.45 3:0.5 4:0.082 5:0 6:0.02 7:0.204 8:0.082 9:0 10:0.061 11:0.02 12:0.102 13:0.061 14:0.061 15:0 16:0.041 17:0.122 18:0.082 19:0.061 20:0 
12.22958877293921 1:0.4 2:0.45 3:0.5 4:0.102 5:0.041 6:0.082 7:0.082 8:0.041 9:0.082 10:0.061 11:0 12:0.02 13:0.061 14:0.061 15:0.082 16:0.143 17:0 18:0.02 19:0.122 20:0 
-30.53802748699082 1:0.4 2:0.45 3:0.5 4:0.102 5:0.041 6:0.122 7:0.041 8:0.02 9:0.041 10:0 11:0.122 12:0 13:0.041 14:0.041 15:0.122 16:0.184 17:0.061 18:0.041 19:0.02 20:0 
256 1:0.4 2:0.45 3:0.5 4:0.061 5:0.102 6:0.061 7:0.082 8:0.122 9:0 10:0 11:0.041 12:0.041 13:0.061 14:0.122 15:0 16:0.061 17:0.02 18:0.041 19:0.184 20:0 
-98.53009737593825 1:0.4 2:0.45 3:0.5 4:0.02 5:0.102 6:0.163 7:0.02 8:0.082 9:0.041 10:0.02 11:0.02 12:0.082 13:0 14:0 15:0.143 16:0.122 17:0.041 18:0.041 19:0.102 20:0 
-99.03353496308843 1:0.4 2:0.45 3:0.5 4:0 5:0.061 6:0.082 7:0.163 8:0.061 9:0.041 10:0.082 11:0 12:0.143 13:0 14:0 15:0.061 16:0.102 17:0.082 18:0.061 19:0.061 20:0 
69.73093115650393 1:0.4 2:0.5 3:0.5 4:0.143 5:0.061 6:0.041 7:0.061 8:0.041 9:0.102 10:0 11:0.061 12:0.02 13:0.041 14:0.082 15:0.041 16:0.102 17:0 18:0.061 19:0.143 20:0 
256 1:0.4 2:0.5 3:0.5 4:0.102 5:0.061 6:0 7:0.122 8:0.041 9:0.082 10:0.061 11:0.02 12:0.082 13:0.041 14:0.082 15:0 16:0.082 17:0.02 18:0.061 19:0.143 20:0 
221.9838681869956 1:0.4 2:0.5 3:0.5 4:0 5:0.02 6:0.122 7:0.163 8:0.082 9:0.061 10:0 11:0.061 12:0 13:0.102 14:0.041 15:0.061 16:0.204 17:0.02 18:0.041 19:0.02 20:0 
-256 1:0.4 2:0.5 3:0.5 4:0.102 5:0.102 6:0.02 7:0.061 8:0 9:0.041 10:0.082 11:0.082 12:0.061 13:0.02 14:0.082 15:0.041 16:0.143 17:0.02 18:0.02 19:0.122 20:0 
177.7450095501873 1:0.4 2:0.5 3:0.5 4:0.082 5:0 6:0.02 7:0.204 8:0.102 9:0.041 10:0 11:0.061 12:0.061 13:0.082 14:0.041 15:0.02 16:0.041 17:0.082 18:0.143 19:0.02 20:0 
47.70913581418155 1:0.4 2:0.5 3:0.5 4:0.041 5:0.102 6:0.02 7:0.143 8:0.143 9:0.02 10:0 11:0.02 12:0.02 13:0.02 14:0.02 15:0.143 16:0.102 17:0.061 18:0.143 19:0 20:0 
36.70912589555442 1:0.4 2:0.5 3:0.5 4:0.02 5:0.02 6:0.041 7:0.224 8:0.061 9:0 10:0.102 11:0.041 12:0.082 13:0.082 14:0 15:0.041 16:0.143 17:0.082 18:0.061 19:0 20:0 
-9.772988018722033 1:0.4 2:0.5 3:0.5 4:0.102 5:0.061 6:0.143 7:0 8:0 9:0.102 10:0.02 11:0.061 12:0.082 13:0 14:0 15:0.122 16:0.122 17:0.041 18:0.041 19:0.102 20:0 
256 1:0.4 2:0.55 3:0.5 4:0.061 5:0.082 6:0.061 7:0.102 8:0.041 9:0.041 10:0.041 11:0.102 12:0.102 13:0 14:0.02 15:0.041 16:0.102 17:0.082 18:0.061 19:0.061 20:0 
-84.88888860181783 1:0.4 2:0.55 3:0.5 4:0.122 5:0.041 6:0.061 7:0.082 8:0.061 9:0.041 10:0.02 11:0.082 12:0.02 13:0.061 14:0.061 15:0.041 16:0.102 17:0.061 18:0.041 19:0.102 20:0 
256 1:0.4 2:0.55 3:0.5 4:0.082 5:0.02 6:0.041 7:0.163 8:0.061 9:0.041 10:0.061 11:0.061 12:0.061 13:0.061 14:0.041 15:0 16:0.102 17:0.102 18:0.041 19:0.061 20:0 
-256 1:0.4 2:0.55 3:0.5 4:0.061 5:0.122 6:0.02 7:0.102 8:0.061 9:0.061 10:0 11:0.102 12:0.061 13:0.02 14:0.082 15:0 16:0.102 17:0.02 18:0.082 19:0.102 20:0 
-57.71297005999757 1:0.4 2:0.55 3:0.5 4:0.061 5:0.02 6:0.082 7:0.122 8:0.061 9:0.061 10:0.082 11:0.02 12:0.061 13:0.082 14:0 15:0.041 16:0.122 17:0.041 18:0.02 19:0.122 20:0 
204.6123396532944 1:0.4 2:0.55 3:0.5 4:0.082 5:0.061 6:0.02 7:0.143 8:0.082 9:0.061 10:0.02 11:0.041 12:0 13:0.082 14:0.082 15:0.02 16:0.143 17:0 18:0.061 19:0.102 20:0 
-256 1:0.4 2:0.55 3:0.5 4:0.102 5:0 6:0.041 7:0.163 8:0.041 9:0.122 10:0.061 11:0 12:0.082 13:0 14:0.061 15:0.041 16:0.061 17:0.102 18:0.02 19:0.102 20:0 
-256 1:0.4 2:0.55 3:0.5 4:0.061 5:0.122 6:0.102 7:0.02 8:0.02 9:0.02 10:0 11:0.163 12:0.102 13:0.02 14:0.041 15:0.02 16:0.122 17:0.041 18:0.041 19:0.102 20:0 
130.2721971618183 1:0.4 2:0.55 3:0.5 4:0.061 5:0.082 6:0.02 7:0.143 8:0.163 9:0.061 10:0 11:0 12:0.061 13:0.041 14:0.061 15:0.02 16:0.02 17:0.041 18:0.102 19:0.122 20:0 
-10.21074066543832 1:0.4 2:0.55 3:0.5 4:0.122 5:0.061 6:0.041 7:0.082 8:0.082 9:0.102 10:0 11:0.02 12:0.082 13:0 14:0.02 15:0.082 16:0 17:0.061 18:0.122 19:0.122 20:0 
-76.61545424874168 1:0.4 2:0.55 3:0.5 4:0 5:0.082 6:0.02 7:0.204 8:0.102 9:0.02 10:0.082 11:0.02 12:0.102 13:0.02 14:0.041 15:0 16:0.102 17:0.102 18:0.02 19:0.082 20:0 
-115.7268003167178 1:0.4 2:0.55 3:0.5 4:0.122 5:0.02 6:0.02 7:0.122 8:0 9:0.122 10:0.082 11:0.02 12:0.061 13:0.061 14:0.041 15:0.02 16:0.122 17:0.02 18:0.02 19:0.143 20:0 
49.76525124665365 1:0.4 2:0.55 3:0.5 4:0.02 5:0.02 6:0.122 7:0.143 8:0.082 9:0.102 10:0.041 11:0 12:0.122 13:0.041 14:0 15:0 16:0.082 17:0.061 18:0.02 19:0.143 20:0 
-256 1:0.4 2:0.55 3:0.5 4:0.122 5:0 6:0.041 7:0.143 8:0 9:0.122 10:0.02 11:0.082 12:0.061 13:0.02 14:0.061 15:0.02 16:0.102 17:0.082 18:0.061 19:0.061 20:0 
-117.8487118075236 1:0.4 2:0.55 3:0.5 4:0.041 5:0.041 6:0.02 7:0.204 8:0.041 9:0.102 10:0.061 11:0.02 12:0.122 13:0.02 14:0.041 15:0 16:0.082 17:0.061 18:0.061 19:0.082 20:0 
256 1:0.4 2:0.55 3:0.5 4:0.102 5:0.082 6:0.02 7:0.102 8:0 9:0.061 10:0.082 11:0.061 12:0.061 13:0 14:0.061 15:0.061 16:0.143 17:0.082 18:0 19:0.082 20:0 
124.4119984716719 1:0.4 2:0.55 3:0.5 4:0.122 5:0 6:0.061 7:0.102 8:0.122 9:0.02 10:0.061 11:0.02 12:0.041 13:0.082 14:0.041 15:0.02 16:0.02 17:0.122 18:0 19:0.163 20:0 
33.97628954578261 1:0.4 2:0.6 3:0.5 4:0.061 5:0.163 6:0.02 7:0.041 8:0.082 9:0.061 10:0.02 11:0.082 12:0.102 13:0 14:0.041 15:0.02 16:0.061 17:0.02 18:0.082 19:0.143 20:0 
256 1:0.4 2:0.6 3:0.5 4:0.082 5:0.061 6:0.041 7:0.122 8:0.02 9:0.041 10:0.082 11:0.082 12:0.122 13:0 14:0.041 15:0 16:0.082 17:0.122 18:0 19:0.102 20:0 
256 1:0.4 2:0.6 3:0.5 4:0.041 5:0.122 6:0.02 7:0.102 8:0.02 9:0.082 10:0.041 11:0.102 12:0.082 13:0.041 14:0.041 15:0 16:0.163 17:0 18:0.061 19:0.082 20:0 
197.0311021544562 1:0.4 2:0.6 3:0.5 4:0.041 5:0.082 6:0.041 7:0.143 8:0.041 9:0.143 10:0.02 11:0.041 12:0.102 13:0 14:0.02 15:0.02 16:0.122 17:0 18:0.082 19:0.102 20:0 
173.5375470699886 1:0.4 2:0.6 3:0.5 4:0.102 5:0.102 6:0 7:0.102 8:0.061 9:0.082 10:0.082 11:0 12:0.041 13:0 14:0.061 15:0.061 16:0.102 17:0.041 18:0.02 19:0.143 20:0 
56.10164817144539 1:0.4 2:0.6 3:0.5 4:0 5:0.122 6:0 7:0.163 8:0.102 9:0.061 10:0 11:0.082 12:0.102 13:0 14:0.061 15:0 16:0.102 17:0.061 18:0.082 19:0.061 20:0 
-108.0312956770547 1:0.4 2:0.6 3:0.5 4:0.02 5:0.082 6:0.082 7:0.102 8:0.143 9:0.041 10:0 11:0.061 12:0 13:0.041 14:0 15:0.122 16:0.143 17:0.061 18:0.082 19:0.02 20:0 
256 1:0.4 2:0.6 3:0.5 4:0.061 5:0.102 6:0.061 7:0.082 8:0.122 9:0.102 10:0 11:0 12:0.082 13:0.041 14:0.041 15:0 16:0.041 17:0 18:0.041 19:0.224 20:0 
256 1:0.4 2:0.65 3:0.5 4:0.02 5:0.102 6:0.02 7:0.143 8:0.143 9:0 10:0.061 11:0.061 12:0.02 13:0.061 14:0 15:0.061 16:0.122 17:0.102 18:0.041 19:0.041 20:0 
256 1:0.4 2:0.65 3:0.5 4:0.143 5:0.041 6:0.02 7:0.082 8:0 9:0.082 10:0.061 11:0.122 12:0.02 13:0.041 14:0 15:0.082 16:0.143 17:0.082 18:0.061 19:0.02 20:0 
-256 1:0.4 2:0.65 3:0.5 4:0.163 5:0.041 6:0.061 7:0.041 8:0.02 9:0.102 10:0 11:0.122 12:0 13:0.082 14:0.02 15:0.041 16:0.122 17:0.02 18:0.061 19:0.102 20:0 
256 1:0.4 2:0.65 3:0.5 4:0.163 5:0.061 6:0 7:0.082 8:0.061 9:0.082 10:0.02 11:0.102 12:0.02 13:0.041 14:0.041 15:0.02 16:0.041 17:0.082 18:0.082 19:0.102 20:0 
131.5825746825759 1:0.4 2:0.65 3:0.5 4:0.041 5:0.02 6:0.082 7:0.143 8:0.082 9:0.122 10:0.041 11:0.02 12:0.02 13:0.02 14:0 15:0.102 16:0.163 17:0.102 18:0.02 19:0.02 20:0 
-128.2311469882004 1:0.4 2:0.65 3:0.5 4:0.122 5:0.102 6:0.02 7:0.061 8:0.02 9:0.061 10:0.082 11:0.102 12:0.061 13:0.02 14:0.041 15:0 16:0.102 17:0.082 18:0 19:0.122 20:0 
-256 1:0.4 2:0.65 3:0.5 4:0.082 5:0.082 6:0.02 7:0.122 8:0.122 9:0.122 10:0.02 11:0 12:0.02 13:0.061 14:0.02 15:0.041 16:0.082 17:0 18:0.082 19:0.122 20:0 
