svm_type nu_svr
kernel_type rbf
gamma 2
nr_class 2
total_sv 7609
rho 2.33402
SV
-105.7621270018744 1:0.6 2:0.2 3:0.2 4:0 5:0 6:0.082 7:0 8:0.02 9:0.02 10:0 11:0.061 12:0.061 13:0.02 14:0.204 15:0.204 16:0 17:0.082 18:0.184 19:0.061 20:0 
-159.9897611492737 1:0.6 2:0.2 3:0.2 4:0 5:0 6:0.082 7:0 8:0 9:0 10:0.082 11:0.041 12:0.082 13:0.041 14:0.265 15:0.082 16:0 17:0.082 18:0.061 19:0.184 20:0 
-768 1:0.6 2:0.267 3:0.2 4:0 5:0.02 6:0.041 7:0.02 8:0.02 9:0.02 10:0.061 11:0.041 12:0.02 13:0.061 14:0.224 15:0.143 16:0.041 17:0.061 18:0.102 19:0.122 20:0 
71.75695419233016 1:0.6 2:0.267 3:0.2 4:0 5:0 6:0.061 7:0.02 8:0.02 9:0 10:0.02 11:0.122 12:0 13:0.082 14:0.286 15:0.061 16:0.041 17:0.082 18:0.082 19:0.122 20:0 
386.8305081087274 1:0.6 2:0.267 3:0.2 4:0 5:0 6:0.082 7:0 8:0 9:0.061 10:0 11:0.102 12:0.061 13:0.02 14:0.204 15:0.143 16:0.02 17:0.082 18:0.143 19:0.082 20:0 
-405.6131934225528 1:0.6 2:0.267 3:0.2 4:0 5:0 6:0.082 7:0 8:0 9:0.041 10:0.02 11:0.082 12:0 13:0.02 14:0.286 15:0.143 16:0.061 17:0.102 18:0.061 19:0.102 20:0 
-16.28995189215537 1:0.6 2:0.267 3:0.2 4:0 5:0.02 6:0.041 7:0 8:0.02 9:0 10:0.122 11:0.02 12:0 13:0.041 14:0.265 15:0.143 16:0.061 17:0.102 18:0.02 19:0.143 20:0 
699.5519942420559 1:0.6 2:0.267 3:0.2 4:0 5:0.02 6:0 7:0.061 8:0.02 9:0 10:0.061 11:0.082 12:0.061 13:0.061 14:0.306 15:0 16:0 17:0.082 18:0.061 19:0.184 20:0 
-234.2844379842432 1:0.6 2:0.3 3:0.2 4:0 5:0 6:0.041 7:0.041 8:0 9:0.061 10:0.061 11:0.061 12:0.02 13:0.061 14:0.143 15:0.184 16:0.061 17:0.061 18:0.163 19:0.041 20:0 
-119.8249876694726 1:0.6 2:0.3 3:0.2 4:0 5:0.02 6:0.02 7:0.041 8:0 9:0.082 10:0.041 11:0.061 12:0.082 13:0.061 14:0.122 15:0.143 16:0 17:0.02 18:0.224 19:0.082 20:0 
-100.4439252857523 1:0.6 2:0.3 3:0.2 4:0 5:0.02 6:0 7:0.061 8:0 9:0.02 10:0.041 11:0.102 12:0 13:0.061 14:0.265 15:0.102 16:0.061 17:0.082 18:0.122 19:0.061 20:0 
346.9234607414483 1:0.6 2:0.3 3:0.2 4:0 5:0.02 6:0 7:0.061 8:0 9:0.02 10:0.061 11:0.102 12:0.061 13:0.122 14:0.082 15:0.143 16:0.02 17:0.02 18:0.265 19:0.02 20:0 
768 1:0.6 2:0.3 3:0.2 4:0 5:0 6:0.041 7:0.041 8:0 9:0.041 10:0 11:0.143 12:0.061 13:0.061 14:0.245 15:0.041 16:0.02 17:0.082 18:0.122 19:0.102 20:0 
595.3127477097831 1:0.6 2:0.3 3:0.2 4:0 5:0 6:0.082 7:0 8:0 9:0.082 10:0.082 11:0.02 12:0.061 13:0.061 14:0.184 15:0.102 16:0.02 17:0.041 18:0.061 19:0.204 20:0 
-270.0273925220549 1:0.6 2:0.367 3:0.2 4:0 5:0.041 6:0.02 7:0.02 8:0.041 9:0.02 10:0.041 11:0.102 12:0 13:0.041 14:0.245 15:0.102 16:0.041 17:0.122 18:0.061 19:0.102 20:0 
16.8251769060949 1:0.6 2:0.367 3:0.2 4:0 5:0 6:0.041 7:0.041 8:0 9:0.082 10:0.082 11:0.061 12:0.02 13:0.102 14:0.163 15:0.082 16:0.061 17:0.041 18:0.082 19:0.143 20:0 
-378.2378134792354 1:0.6 2:0.367 3:0.2 4:0 5:0.02 6:0.061 7:0 8:0.02 9:0.122 10:0.041 11:0.041 12:0 13:0.041 14:0.184 15:0.163 16:0.061 17:0.02 18:0.102 19:0.122 20:0 
-531.1618853933969 1:0.6 2:0.367 3:0.2 4:0 5:0 6:0.041 7:0.041 8:0 9:0.102 10:0.041 11:0.061 12:0.02 13:0.082 14:0.265 15:0.02 16:0.041 17:0.041 18:0.041 19:0.204 20:0 
-201.9096743114639 1:0.6 2:0.367 3:0.2 4:0 5:0 6:0.041 7:0.041 8:0.041 9:0.02 10:0.082 11:0.082 12:0.02 13:0.163 14:0.02 15:0.163 16:0 17:0.041 18:0.245 19:0.041 20:0 
-463.5734585777329 1:0.6 2:0.4 3:0.2 4:0 5:0.02 6:0.061 7:0 8:0.041 9:0.102 10:0.041 11:0.061 12:0.041 13:0.041 14:0.102 15:0.163 16:0 17:0.082 18:0.163 19:0.082 20:0 
768 1:0.6 2:0.4 3:0.2 4:0 5:0.02 6:0.02 7:0.041 8:0.02 9:0 10:0.163 11:0.041 12:0 13:0.143 14:0.102 15:0.122 16:0.061 17:0.061 18:0.082 19:0.122 20:0 
768 1:0.6 2:0.4 3:0.2 4:0 5:0.041 6:0.02 7:0.02 8:0.041 9:0.082 10:0.082 11:0.041 12:0 13:0 14:0.122 15:0.224 16:0.02 17:0.122 18:0.143 19:0.041 20:0 
-311.7667122841513 1:0.6 2:0.4 3:0.2 4:0 5:0.02 6:0.061 7:0 8:0.041 9:0.02 10:0.041 11:0.143 12:0.041 13:0.041 14:0.184 15:0.102 16:0 17:0.163 18:0.061 19:0.082 20:0 
99.32948897509057 1:0.6 2:0.467 3:0.2 4:0 5:0.041 6:0 7:0.02 8:0 9:0.122 10:0.082 11:0.082 12:0.061 13:0.02 14:0.143 15:0.102 16:0.02 17:0.102 18:0.082 19:0.122 20:0 
-440.7606590790062 1:0.6 2:0.467 3:0.2 4:0 5:0.041 6:0 7:0.041 8:0.02 9:0.061 10:0.163 11:0.041 12:0.02 13:0.143 14:0.122 15:0.02 16:0.041 17:0.041 18:0.041 19:0.204 20:0 
-526.3511537662245 1:0.6 2:0.467 3:0.2 4:0 5:0.02 6:0 7:0.061 8:0 9:0.061 10:0.082 11:0.143 12:0.041 13:0.061 14:0.163 15:0.041 16:0.041 17:0.122 18:0.082 19:0.082 20:0 
768 1:0.6 2:0.467 3:0.2 4:0 5:0.02 6:0.02 7:0.041 8:0.02 9:0.102 10:0.02 11:0.143 12:0.02 13:0.122 14:0.163 15:0 16:0.041 17:0.041 18:0.122 19:0.122 20:0 
768 1:0.6 2:0.467 3:0.2 4:0 5:0 6:0.061 7:0.02 8:0.041 9:0 10:0.082 11:0.163 12:0.02 13:0.143 14:0.061 15:0.082 16:0.02 17:0.143 18:0.102 19:0.061 20:0 
580.2242554195823 1:0.6 2:0.467 3:0.2 4:0 5:0.041 6:0 7:0.02 8:0.02 9:0.02 10:0.02 11:0.224 12:0.061 13:0.061 14:0.143 15:0.061 16:0 17:0.143 18:0.163 19:0.02 20:0 
-768 1:0.6 2:0.467 3:0.2 4:0 5:0.041 6:0 7:0.041 8:0.041 9:0.122 10:0.102 11:0 12:0.041 13:0.082 14:0.041 15:0.163 16:0 17:0.041 18:0.163 19:0.122 20:0 
86.96719440421394 1:0.6 2:0.467 3:0.2 4:0 5:0.02 6:0.02 7:0.041 8:0.041 9:0.102 10:0.102 11:0.02 12:0 13:0 14:0.163 15:0.163 16:0.041 17:0.163 18:0.041 19:0.082 20:0 
-303.4139596918464 1:0.6 2:0.467 3:0.2 4:0 5:0.02 6:0.061 7:0 8:0 9:0.122 10:0.082 11:0.061 12:0.041 13:0.102 14:0.122 15:0.061 16:0.041 17:0.041 18:0.041 19:0.204 20:0 
12.32560233308594 1:0.6 2:0.467 3:0.2 4:0 5:0.041 6:0 7:0.02 8:0 9:0.041 10:0.204 11:0.041 12:0.061 13:0.082 14:0.102 15:0.082 16:0.02 17:0.122 18:0 19:0.184 20:0 
-768 1:0.6 2:0.467 3:0.2 4:0 5:0.041 6:0 7:0.041 8:0 9:0.102 10:0 11:0.184 12:0.02 13:0.102 14:0.122 15:0.061 16:0.061 17:0.041 18:0.184 19:0.041 20:0 
768 1:0.6 2:0.5 3:0.2 4:0 5:0.041 6:0 7:0.041 8:0.02 9:0.041 10:0.102 11:0.143 12:0 13:0.061 14:0.143 15:0.082 16:0.061 17:0.163 18:0.041 19:0.061 20:0 
-768 1:0.6 2:0.5 3:0.2 4:0 5:0.02 6:0 7:0.061 8:0 9:0.102 10:0.061 11:0.143 12:0.061 13:0.102 14:0.102 15:0.02 16:0.02 17:0.082 18:0.143 19:0.082 20:0 
-561.516915018728 1:0.6 2:0.5 3:0.2 4:0 5:0.061 6:0 7:0.02 8:0.02 9:0.122 10:0.143 11:0 12:0.041 13:0.041 14:0.041 15:0.184 16:0.02 17:0.082 18:0.102 19:0.122 20:0 
-658.3310408469512 1:0.6 2:0.5 3:0.2 4:0 5:0.041 6:0.041 7:0 8:0 9:0 10:0.122 11:0.184 12:0.061 13:0.163 14:0 15:0.061 16:0.02 17:0.102 18:0.122 19:0.082 20:0 
263.8763509527031 1:0.6 2:0.5 3:0.2 4:0 5:0.02 6:0 7:0.061 8:0.041 9:0.102 10:0.143 11:0.02 12:0.02 13:0.02 14:0.082 15:0.163 16:0.02 17:0.163 18:0.061 19:0.082 20:0 
768 1:0.6 2:0.5 3:0.2 4:0 5:0.041 6:0.02 7:0.02 8:0 9:0.143 10:0.041 11:0.122 12:0.02 13:0.082 14:0.163 15:0.02 16:0.061 17:0.041 18:0.061 19:0.163 20:0 
76.5338581074481 1:0.6 2:0.5 3:0.2 4:0 5:0.041 6:0 7:0.041 8:0.02 9:0.163 10:0.02 11:0.102 12:0.061 13:0.061 14:0.122 15:0.061 16:0 17:0.02 18:0.163 19:0.122 20:0 
368.1321225253208 1:0.6 2:0.5 3:0.2 4:0 5:0.02 6:0.02 7:0.041 8:0.02 9:0.184 10:0.102 11:0 12:0.041 13:0 14:0.122 15:0.122 16:0.02 17:0.102 18:0.041 19:0.163 20:0 
-768 1:0.6 2:0.5 3:0.2 4:0 5:0.041 6:0.041 7:0 8:0.02 9:0.061 10:0.02 11:0.204 12:0.061 13:0.082 14:0.102 15:0.041 16:0 17:0.122 18:0.143 19:0.061 20:0 
768 1:0.6 2:0.5 3:0.2 4:0 5:0.041 6:0 7:0.041 8:0.02 9:0.102 10:0.041 11:0.122 12:0.041 13:0.02 14:0.204 15:0.041 16:0.02 17:0.122 18:0.061 19:0.122 20:0 
-646.7658639130535 1:0.6 2:0.5 3:0.2 4:0 5:0.061 6:0.02 7:0 8:0.041 9:0.102 10:0.041 11:0.122 12:0 13:0.102 14:0.02 15:0.184 16:0.041 17:0.041 18:0.204 19:0.02 20:0 
-768 1:0.6 2:0.5 3:0.2 4:0 5:0.02 6:0 7:0.061 8:0.061 9:0.061 10:0.122 11:0.041 12:0 13:0.184 14:0.02 15:0.102 16:0.02 17:0.041 18:0.163 19:0.102 20:0 
112.3375595688945 1:0.6 2:0.5 3:0.2 4:0 5:0.02 6:0.041 7:0 8:0.02 9:0 10:0.082 11:0.204 12:0.061 13:0.082 14:0.122 15:0.041 16:0 17:0.204 18:0.041 19:0.082 20:0 
-368.5417560376393 1:0.6 2:0.5 3:0.2 4:0 5:0.02 6:0.02 7:0.041 8:0.061 9:0.02 10:0.102 11:0.122 12:0.02 13:0.02 14:0.143 15:0.102 16:0 17:0.245 18:0.02 19:0.061 20:0 
768 1:0.6 2:0.5 3:0.2 4:0 5:0 6:0.041 7:0.041 8:0.041 9:0.204 10:0.02 11:0.041 12:0.02 13:0.041 14:0.163 15:0.061 16:0.02 17:0.061 18:0.061 19:0.184 20:0 
768 1:0.6 2:0.5 3:0.2 4:0 5:0.02 6:0 7:0.061 8:0.02 9:0.204 10:0 11:0.061 12:0 13:0.041 14:0.102 15:0.163 16:0.061 17:0.041 18:0.184 19:0.041 20:0 
-154.2505121638582 1:0.6 2:0.5 3:0.2 4:0 5:0.02 6:0 7:0.061 8:0.041 9:0.02 10:0.184 11:0.041 12:0.02 13:0.061 14:0.041 15:0.184 16:0.02 17:0.204 18:0.082 19:0.02 20:0 
768 1:0.6 2:0.5 3:0.2 4:0 5:0 6:0.02 7:0.061 8:0 9:0.041 10:0.041 11:0.224 12:0.02 13:0.163 14:0.102 15:0 16:0.041 17:0.102 18:0.143 19:0.041 20:0 
219.3044832137772 1:0.6 2:0.567 3:0.2 4:0 5:0.02 6:0.02 7:0.041 8:0.02 9:0.061 10:0.082 11:0.163 12:0.02 13:0.102 14:0.041 15:0.102 16:0.041 17:0.163 18:0.102 19:0.02 20:0 
768 1:0.6 2:0.567 3:0.2 4:0 5:0 6:0.02 7:0.061 8:0.02 9:0.122 10:0.122 11:0.061 12:0 13:0.163 14:0.02 15:0.082 16:0.061 17:0.061 18:0.082 19:0.122 20:0 
768 1:0.6 2:0.567 3:0.2 4:0 5:0.041 6:0 7:0.041 8:0.02 9:0.122 10:0.163 11:0.041 12:0.02 13:0.082 14:0.061 15:0.082 16:0.041 17:0.082 18:0.041 19:0.163 20:0 
768 1:0.6 2:0.567 3:0.2 4:0 5:0.061 6:0.02 7:0 8:0.061 9:0.143 10:0.082 11:0.041 12:0 13:0.122 14:0 15:0.143 16:0.02 17:0.02 18:0.163 19:0.122 20:0 
-106.0644431355459 1:0.6 2:0.567 3:0.2 4:0 5:0.041 6:0.02 7:0.02 8:0.061 9:0.143 10:0 11:0.143 12:0 13:0.082 14:0.061 15:0.122 16:0 17:0.082 18:0.184 19:0.041 20:0 
-768 1:0.6 2:0.567 3:0.2 4:0 5:0.041 6:0.041 7:0 8:0.061 9:0.143 10:0.082 11:0.061 12:0.02 13:0.061 14:0.102 15:0.061 16:0 17:0.102 18:0.02 19:0.204 20:0 
-558.8833427199532 1:0.6 2:0.567 3:0.2 4:0 5:0.02 6:0 7:0.061 8:0.041 9:0.143 10:0.102 11:0.041 12:0 13:0.041 14:0.02 15:0.204 16:0.041 17:0.143 18:0.122 19:0.02 20:0 
-491.947339625981 1:0.6 2:0.567 3:0.2 4:0 5:0 6:0.02 7:0.061 8:0 9:0.224 10:0.102 11:0.02 12:0.041 13:0.082 14:0.041 15:0.082 16:0.041 17:0.041 18:0.082 19:0.163 20:0 
-763.3336389235308 1:0.6 2:0.567 3:0.2 4:0 5:0.061 6:0.02 7:0 8:0.061 9:0.143 10:0.02 11:0.122 12:0.02 13:0.02 14:0.143 15:0.061 16:0 17:0.122 18:0.061 19:0.143 20:0 
356.5372499389114 1:0.6 2:0.567 3:0.2 4:0 5:0.061 6:0 7:0 8:0 9:0.163 10:0.082 11:0.102 12:0.02 13:0.02 14:0.041 15:0.184 16:0.061 17:0.082 18:0.143 19:0.041 20:0 
260.6899806831224 1:0.6 2:0.567 3:0.2 4:0 5:0.041 6:0.041 7:0 8:0.02 9:0.102 10:0.082 11:0.122 12:0.02 13:0 14:0.143 15:0.102 16:0.041 17:0.184 18:0 19:0.102 20:0 
105.5995503227656 1:0.6 2:0.567 3:0.2 4:0 5:0.041 6:0.041 7:0 8:0.041 9:0.184 10:0.061 11:0.041 12:0.041 13:0.041 14:0.02 15:0.163 16:0 17:0.082 18:0.122 19:0.122 20:0 
768 1:0.6 2:0.567 3:0.2 4:0 5:0 6:0.02 7:0.061 8:0.061 9:0 10:0.163 11:0.102 12:0 13:0.082 14:0.061 15:0.122 16:0.02 17:0.245 18:0.02 19:0.041 20:0 
-223.3045877559831 1:0.6 2:0.567 3:0.2 4:0 5:0.061 6:0.02 7:0 8:0 9:0.102 10:0.041 11:0.204 12:0.041 13:0.041 14:0.061 15:0.102 16:0.041 17:0.122 18:0.143 19:0.02 20:0 
-768 1:0.6 2:0.567 3:0.2 4:0 5:0.041 6:0.02 7:0.02 8:0 9:0.245 10:0.041 11:0.061 12:0.041 13:0 14:0.102 15:0.102 16:0.041 17:0.041 18:0.102 19:0.143 20:0 
-65.0451146943044 1:0.6 2:0.567 3:0.2 4:0 5:0.061 6:0.02 7:0 8:0.061 9:0.143 10:0.02 11:0.122 12:0.02 13:0.02 14:0.02 15:0.204 16:0 17:0.102 18:0.204 19:0 20:0 
-768 1:0.6 2:0.567 3:0.2 4:0 5:0.02 6:0 7:0.061 8:0.041 9:0.122 10:0.082 11:0.102 12:0.041 13:0.041 14:0.143 15:0.02 16:0 17:0.163 18:0.02 19:0.143 20:0 
768 1:0.6 2:0.6 3:0.2 4:0 5:0.02 6:0.041 7:0.02 8:0.041 9:0.102 10:0.102 11:0.122 12:0.02 13:0.061 14:0.082 15:0.061 16:0.02 17:0.163 18:0.02 19:0.122 20:0 
-514.4459973330652 1:0.6 2:0.6 3:0.2 4:0 5:0.02 6:0.02 7:0.041 8:0 9:0.204 10:0.041 11:0.102 12:0.041 13:0.082 14:0.02 15:0.102 16:0.041 17:0.041 18:0.163 19:0.082 20:0 
768 1:0.6 2:0.6 3:0.2 4:0 5:0.061 6:0.02 7:0 8:0.061 9:0.143 10:0.061 11:0.082 12:0 13:0.061 14:0 15:0.184 16:0.02 17:0.082 18:0.163 19:0.061 20:0 
768 1:0.6 2:0.6 3:0.2 4:0 5:0 6:0.02 7:0.061 8:0.041 9:0.265 10:0.02 11:0.041 12:0.02 13:0.041 14:0.061 15:0.102 16:0 17:0.061 18:0.143 19:0.122 20:0 
-768 1:0.6 2:0.6 3:0.2 4:0 5:0.061 6:0 7:0.02 8:0.041 9:0.02 10:0.163 11:0.122 12:0.02 13:0.122 14:0.061 15:0.041 16:0.02 17:0.163 18:0 19:0.143 20:0 
563.6357471687859 1:0.6 2:0.6 3:0.2 4:0 5:0.041 6:0.02 7:0.02 8:0 9:0.245 10:0.041 11:0.082 12:0.02 13:0.02 14:0.122 15:0.061 16:0.061 17:0.041 18:0.061 19:0.163 20:0 
-111.1247962875591 1:0.6 2:0.6 3:0.2 4:0 5:0.041 6:0.041 7:0 8:0 9:0.122 10:0.061 11:0.163 12:0.02 13:0.102 14:0.122 15:0 16:0.061 17:0.082 18:0.02 19:0.163 20:0 
-317.0745587015051 1:0.6 2:0.6 3:0.2 4:0 5:0.02 6:0.02 7:0.041 8:0.061 9:0.061 10:0.02 11:0.224 12:0.02 13:0.122 14:0.061 15:0.02 16:0 17:0.143 18:0.143 19:0.041 20:0 
-431.4143103007423 1:0.6 2:0.6 3:0.2 4:0 5:0 6:0 7:0.061 8:0.041 9:0.041 10:0.143 11:0.143 12:0 13:0.102 14:0.082 15:0.061 16:0.041 17:0.224 18:0 19:0.061 20:0 
-664.1703222409765 1:0.6 2:0.6 3:0.2 4:0 5:0 6:0.02 7:0.061 8:0.041 9:0.163 10:0.041 11:0.122 12:0 13:0.163 14:0.061 15:0 16:0.041 17:0.041 18:0.102 19:0.143 20:0 
-598.889216556859 1:0.6 2:0.6 3:0.2 4:0 5:0 6:0.041 7:0.041 8:0 9:0.163 10:0 11:0.204 12:0.041 13:0.082 14:0.041 15:0.061 16:0.041 17:0.122 18:0.143 19:0.02 20:0 
17.91695603267557 1:0.6 2:0.6 3:0.2 4:0 5:0.061 6:0.02 7:0 8:0.041 9:0.102 10:0.041 11:0.163 12:0.041 13:0.143 14:0.061 15:0 16:0 17:0.041 18:0.122 19:0.163 20:0 
-23.91389873475489 1:0.6 2:0.6 3:0.2 4:0 5:0.061 6:0.02 7:0 8:0.061 9:0.082 10:0.102 11:0.122 12:0.02 13:0.061 14:0 15:0.163 16:0 17:0.163 18:0.102 19:0.041 20:0 
-347.4152515667535 1:0.6 2:0.6 3:0.2 4:0 5:0.02 6:0.02 7:0.041 8:0.02 9:0 10:0.102 11:0.224 12:0 13:0.163 14:0.082 15:0 16:0.061 17:0.184 18:0.041 19:0.041 20:0 
-678.8848490810051 1:0.6 2:0.6 3:0.2 4:0 5:0.061 6:0.02 7:0 8:0.061 9:0.041 10:0.184 11:0.082 12:0.02 13:0.082 14:0 15:0.143 16:0 17:0.184 18:0.041 19:0.082 20:0 
531.8774644691407 1:0.6 2:0.6 3:0.2 4:0 5:0.061 6:0 7:0.02 8:0.02 9:0.143 10:0.082 11:0.122 12:0 13:0 14:0.082 15:0.163 16:0.061 17:0.143 18:0.082 19:0.02 20:0 
768 1:0.6 2:0.667 3:0.2 4:0 5:0.02 6:0.02 7:0.041 8:0.041 9:0.061 10:0.102 11:0.184 12:0.02 13:0.163 14:0.02 15:0 16:0.02 17:0.163 18:0.041 19:0.102 20:0 
-768 1:0.6 2:0.667 3:0.2 4:0 5:0.061 6:0 7:0.02 8:0.041 9:0.082 10:0.163 11:0.102 12:0 13:0.082 14:0.02 15:0.102 16:0.041 17:0.163 18:0.02 19:0.102 20:0 
-768 1:0.6 2:0.667 3:0.2 4:0 5:0.082 6:0 7:0 8:0.041 9:0.224 10:0.061 11:0.082 12:0.02 13:0.061 14:0.02 15:0.082 16:0.02 17:0.041 18:0.122 19:0.143 20:0 
768 1:0.6 2:0.667 3:0.2 4:0 5:0.082 6:0 7:0 8:0.082 9:0.041 10:0.061 11:0.204 12:0 13:0.061 14:0.082 15:0.061 16:0 17:0.204 18:0.061 19:0.061 20:0 
768 1:0.6 2:0.667 3:0.2 4:0 5:0.061 6:0 7:0.02 8:0.02 9:0.163 10:0.082 11:0.143 12:0 13:0.041 14:0.102 15:0.041 16:0.061 17:0.122 18:0.02 19:0.122 20:0 
-768 1:0.6 2:0.667 3:0.2 4:0 5:0.02 6:0.02 7:0.041 8:0.061 9:0.143 10:0.02 11:0.184 12:0 13:0.082 14:0.102 15:0 16:0.02 17:0.143 18:0.061 19:0.102 20:0 
-768 1:0.6 2:0.667 3:0.2 4:0 5:0.041 6:0 7:0.041 8:0.02 9:0.143 10:0.02 11:0.224 12:0.041 13:0.02 14:0.082 15:0.041 16:0.02 17:0.184 18:0.102 19:0.02 20:0 
-308.271420722698 1:0.6 2:0.667 3:0.2 4:0 5:0.082 6:0 7:0 8:0 9:0.102 10:0.102 11:0.204 12:0.041 13:0.061 14:0.02 15:0.061 16:0.041 17:0.143 18:0.082 19:0.061 20:0 
-147.8028846524292 1:0.6 2:0.667 3:0.2 4:0 5:0.061 6:0 7:0.02 8:0.082 9:0.082 10:0.122 11:0.102 12:0 13:0.163 14:0.041 15:0 16:0 17:0.102 18:0.02 19:0.204 20:0 
60.40129428364794 1:0.6 2:0.667 3:0.2 4:0 5:0.02 6:0 7:0.061 8:0.041 9:0.204 10:0.082 11:0.082 12:0.041 13:0.041 14:0.102 15:0 16:0 17:0.143 18:0.02 19:0.163 20:0 
768 1:0.6 2:0.667 3:0.2 4:0 5:0 6:0.02 7:0.061 8:0.041 9:0.082 10:0.143 11:0.143 12:0.041 13:0.082 14:0.02 15:0.041 16:0 17:0.224 18:0.02 19:0.082 20:0 
768 1:0.6 2:0.667 3:0.2 4:0 5:0.02 6:0.041 7:0.02 8:0.082 9:0.102 10:0.061 11:0.143 12:0 13:0.061 14:0.082 15:0.061 16:0 17:0.204 18:0.02 19:0.102 20:0 
-398.1212466872123 1:0.6 2:0.667 3:0.2 4:0 5:0.02 6:0.041 7:0.02 8:0 9:0.224 10:0 11:0.163 12:0.041 13:0 14:0.102 15:0.061 16:0.02 17:0.163 18:0.061 19:0.082 20:0 
-284.1974617497657 1:0.6 2:0.667 3:0.2 4:0 5:0.061 6:0 7:0.02 8:0.02 9:0.02 10:0.163 11:0.184 12:0.02 13:0.102 14:0 15:0.082 16:0.041 17:0.204 18:0.041 19:0.041 20:0 
-768 1:0.6 2:0.667 3:0.2 4:0 5:0.02 6:0.041 7:0.02 8:0.061 9:0.265 10:0 11:0.061 12:0 13:0.082 14:0.102 15:0.02 16:0.02 17:0.041 18:0.061 19:0.204 20:0 
485.6084167602457 1:0.6 2:0.667 3:0.2 4:0 5:0.061 6:0 7:0.02 8:0.02 9:0.102 10:0.204 11:0.061 12:0.041 13:0.102 14:0 15:0.061 16:0.02 17:0.122 18:0 19:0.184 20:0 
-68.7956208287768 1:0.6 2:0.667 3:0.2 4:0 5:0.082 6:0 7:0 8:0.02 9:0.02 10:0.061 11:0.286 12:0.041 13:0.061 14:0.102 15:0 16:0.02 17:0.224 18:0.041 19:0.041 20:0 
50.29473603646838 1:0.6 2:0.667 3:0.2 4:0 5:0.082 6:0 7:0 8:0 9:0.122 10:0.143 11:0.143 12:0.02 13:0.041 14:0 15:0.143 16:0.061 17:0.163 18:0.061 19:0.02 20:0 
-768 1:0.6 2:0.7 3:0.2 4:0 5:0.061 6:0 7:0.02 8:0.02 9:0.082 10:0.102 11:0.204 12:0.02 13:0.082 14:0.02 15:0.061 16:0.02 17:0.204 18:0.061 19:0.041 20:0 
768 1:0.6 2:0.7 3:0.2 4:0 5:0.061 6:0 7:0.02 8:0.061 9:0.163 10:0.02 11:0.163 12:0.02 13:0.102 14:0.02 15:0.041 16:0 17:0.082 18:0.143 19:0.102 20:0 
768 1:0.6 2:0.7 3:0.2 4:0 5:0 6:0.02 7:0.061 8:0.041 9:0.163 10:0.061 11:0.163 12:0.02 13:0.041 14:0.02 15:0.082 16:0.02 17:0.224 18:0.082 19:0 20:0 
-551.0715874895341 1:0.6 2:0.7 3:0.2 4:0 5:0.041 6:0 7:0.041 8:0.061 9:0.102 10:0.122 11:0.122 12:0 13:0.041 14:0.041 15:0.102 16:0.02 17:0.245 18:0.02 19:0.041 20:0 
34.53288767301153 1:0.6 2:0.7 3:0.2 4:0 5:0.041 6:0.02 7:0.02 8:0.02 9:0.143 10:0.143 11:0.102 12:0.02 13:0.143 14:0 15:0.02 16:0.02 17:0.102 18:0.02 19:0.184 20:0 
-570.3041882542773 1:0.6 2:0.7 3:0.2 4:0 5:0.02 6:0 7:0.061 8:0.061 9:0.082 10:0.184 11:0.082 12:0 13:0.143 14:0 15:0.041 16:0.02 17:0.163 18:0 19:0.143 20:0 
573.7188265729797 1:0.6 2:0.7 3:0.2 4:0 5:0.02 6:0 7:0.061 8:0 9:0.224 10:0.041 11:0.163 12:0.02 13:0.143 14:0 15:0.02 16:0.041 17:0.041 18:0.143 19:0.082 20:0 
-13.69644275024521 1:0.6 2:0.7 3:0.2 4:0 5:0.041 6:0 7:0.041 8:0.02 9:0.224 10:0.02 11:0.163 12:0.02 13:0 14:0.082 15:0.082 16:0.041 17:0.163 18:0.082 19:0.02 20:0 
768 1:0.6 2:0.7 3:0.2 4:0 5:0 6:0.02 7:0.061 8:0.061 9:0.245 10:0.082 11:0.041 12:0 13:0.082 14:0.082 15:0 16:0.02 17:0.102 18:0 19:0.204 20:0 
768 1:0.6 2:0.7 3:0.2 4:0 5:0.061 6:0.02 7:0 8:0.041 9:0.245 10:0 11:0.143 12:0 13:0.082 14:0.061 15:0.02 16:0.041 17:0.041 18:0.102 19:0.143 20:0 
642.6314550262872 1:0.6 2:0.8 3:0.2 4:0 5:0.082 6:0 7:0 8:0.041 9:0.143 10:0.122 11:0.163 12:0.02 13:0.061 14:0 15:0.041 16:0.02 17:0.204 18:0 19:0.102 20:0 
-361.4882257829109 1:0.6 2:0.8 3:0.2 4:0 5:0.02 6:0.02 7:0.041 8:0 9:0.265 10:0 11:0.224 12:0.02 13:0.061 14:0.02 15:0 16:0.061 17:0.143 18:0.082 19:0.041 20:0 
157.1715606969488 1:0.6 2:0.8 3:0.2 4:0 5:0.082 6:0 7:0 8:0.041 9:0.265 10:0.061 11:0.102 12:0 13:0.122 14:0 15:0 16:0.041 17:0.02 18:0.061 19:0.204 20:0 
333.5152047540257 1:0.6 2:0.8 3:0.2 4:0 5:0.082 6:0 7:0 8:0.061 9:0.122 10:0.082 11:0.224 12:0 13:0.041 14:0 15:0.082 16:0.02 17:0.224 18:0.041 19:0.02 20:0 
-222.0253175446822 1:0.6 2:0.8 3:0.2 4:0 5:0.02 6:0.02 7:0.041 8:0.061 9:0.163 10:0 11:0.265 12:0.02 13:0.061 14:0.02 15:0.02 16:0 17:0.224 18:0.082 19:0 20:0 
-129.9385267753132 1:0.6 2:0.2 3:0.25 4:0 5:0 6:0.082 7:0.02 8:0.02 9:0.02 10:0.061 11:0 12:0.061 13:0.02 14:0.143 15:0.265 16:0.02 17:0.082 18:0.184 19:0.02 20:0 
-231.2695546933312 1:0.6 2:0.2 3:0.25 4:0 5:0 6:0.082 7:0.02 8:0.02 9:0.02 10:0 11:0.061 12:0.041 13:0.041 14:0.367 15:0.041 16:0.02 17:0.061 18:0.041 19:0.184 20:0 
307.063293845492 1:0.6 2:0.2 3:0.25 4:0 5:0 6:0.102 7:0 8:0 9:0.02 10:0.02 11:0.082 12:0.102 13:0.02 14:0.204 15:0.163 16:0 17:0.082 18:0.163 19:0.041 20:0 
-607.334423742403 1:0.6 2:0.267 3:0.25 4:0 5:0.041 6:0.041 7:0.02 8:0 9:0.041 10:0 11:0.122 12:0.082 13:0 14:0.245 15:0.102 16:0.02 17:0.082 18:0.163 19:0.041 20:0 
-167.8354670190493 1:0.6 2:0.267 3:0.25 4:0 5:0.02 6:0.02 7:0.061 8:0.041 9:0.041 10:0.082 11:0 12:0 13:0.082 14:0.122 15:0.224 16:0.061 17:0 18:0.224 19:0.02 20:0 
225.7819505611545 1:0.6 2:0.267 3:0.25 4:0 5:0 6:0.102 7:0 8:0.041 9:0.02 10:0.041 11:0.061 12:0 13:0.02 14:0.265 15:0.143 16:0.061 17:0.122 18:0.02 19:0.102 20:0 
768 1:0.6 2:0.267 3:0.25 4:0 5:0.02 6:0.061 7:0.02 8:0.041 9:0.061 10:0.041 11:0 12:0 13:0.061 14:0.265 15:0.122 16:0.061 17:0.02 18:0.082 19:0.143 20:0 
-260.1985354820357 1:0.6 2:0.267 3:0.25 4:0 5:0.02 6:0.041 7:0.041 8:0.02 9:0.02 10:0.061 11:0.041 12:0.02 13:0.082 14:0.306 15:0.041 16:0.061 17:0.041 18:0.041 19:0.163 20:0 
768 1:0.6 2:0.3 3:0.25 4:0.02 5:0.02 6:0.02 7:0.041 8:0.02 9:0.041 10:0.061 11:0.041 12:0 13:0.082 14:0.286 15:0.061 16:0.061 17:0.041 18:0.041 19:0.163 20:0 
768 1:0.6 2:0.3 3:0.25 4:0 5:0.041 6:0.041 7:0.02 8:0.041 9:0.041 10:0.041 11:0.041 12:0 13:0.041 14:0.224 15:0.163 16:0.061 17:0.041 18:0.122 19:0.082 20:0 
-226.5851393572976 1:0.6 2:0.3 3:0.25 4:0 5:0.02 6:0.082 7:0 8:0 9:0.041 10:0.041 11:0.102 12:0.041 13:0.102 14:0.224 15:0.041 16:0.061 17:0.02 18:0.061 19:0.163 20:0 
768 1:0.6 2:0.3 3:0.25 4:0.02 5:0.02 6:0.041 7:0.02 8:0.02 9:0.061 10:0.041 11:0.061 12:0.061 13:0.102 14:0.082 15:0.163 16:0 17:0 18:0.265 19:0.041 20:0 
-768 1:0.6 2:0.367 3:0.25 4:0.02 5:0.041 6:0 7:0.041 8:0 9:0.102 10:0.02 11:0.102 12:0.061 13:0.061 14:0.163 15:0.082 16:0.02 17:0.02 18:0.184 19:0.082 20:0 
80.13578881324206 1:0.6 2:0.367 3:0.25 4:0 5:0.041 6:0.061 7:0 8:0.02 9:0.041 10:0.143 11:0 12:0.041 13:0.041 14:0.143 15:0.163 16:0.041 17:0.102 18:0.02 19:0.143 20:0 
-515.1330075309268 1:0.6 2:0.367 3:0.25 4:0.02 5:0 6:0.082 7:0 8:0 9:0.041 10:0.02 11:0.163 12:0.02 13:0.061 14:0.245 15:0.041 16:0.061 17:0.102 18:0.041 19:0.102 20:0 
-768 1:0.6 2:0.367 3:0.25 4:0 5:0.02 6:0.082 7:0 8:0 9:0.02 10:0.061 11:0.143 12:0.041 13:0.082 14:0.102 15:0.143 16:0.061 17:0.102 18:0.122 19:0.02 20:0 
88.49293686930976 1:0.6 2:0.367 3:0.25 4:0.02 5:0 6:0.041 7:0.041 8:0.02 9:0 10:0.02 11:0.163 12:0 13:0.204 14:0.122 15:0.061 16:0.061 17:0.02 18:0.184 19:0.041 20:0 
-356.1951568785978 1:0.6 2:0.367 3:0.25 4:0 5:0.041 6:0.02 7:0.041 8:0.041 9:0.041 10:0.082 11:0.061 12:0.041 13:0.02 14:0.245 15:0.061 16:0 17:0.122 18:0.041 19:0.143 20:0 
248.4392775842647 1:0.6 2:0.367 3:0.25 4:0.02 5:0.02 6:0 7:0.061 8:0 9:0.041 10:0.102 11:0.061 12:0.061 13:0 14:0.143 15:0.184 16:0.02 17:0.163 18:0.122 19:0 20:0 
-768 1:0.6 2:0.367 3:0.25 4:0 5:0.02 6:0.02 7:0.061 8:0 9:0.122 10:0.02 11:0.061 12:0.082 13:0 14:0.245 15:0.061 16:0.02 17:0.082 18:0.102 19:0.102 20:0 
-768 1:0.6 2:0.4 3:0.25 4:0.02 5:0.02 6:0.02 7:0.041 8:0 9:0.143 10:0.041 11:0.061 12:0.02 13:0.041 14:0.163 15:0.122 16:0.041 17:0.041 18:0.143 19:0.082 20:0 
768 1:0.6 2:0.4 3:0.25 4:0.02 5:0.02 6:0 7:0.061 8:0 9:0.102 10:0.02 11:0.122 12:0.041 13:0.102 14:0.122 15:0.082 16:0.041 17:0.02 18:0.204 19:0.041 20:0 
-317.2656612559521 1:0.6 2:0.4 3:0.25 4:0 5:0 6:0.041 7:0.061 8:0.041 9:0.061 10:0.061 11:0.082 12:0 13:0.163 14:0.163 15:0.02 16:0.041 17:0.02 18:0.102 19:0.143 20:0 
219.8415655728639 1:0.6 2:0.4 3:0.25 4:0 5:0.061 6:0.041 7:0 8:0.061 9:0.02 10:0.122 11:0.02 12:0.02 13:0.02 14:0.143 15:0.184 16:0 17:0.143 18:0.061 19:0.102 20:0 
-186.3836741073604 1:0.6 2:0.4 3:0.25 4:0.02 5:0 6:0.02 7:0.061 8:0 9:0.041 10:0.184 11:0.02 12:0.082 13:0.163 14:0.082 15:0.02 16:0 17:0.041 18:0.061 19:0.204 20:0 
-39.34224017101839 1:0.6 2:0.4 3:0.25 4:0.02 5:0 6:0.041 7:0.041 8:0.041 9:0.102 10:0.082 11:0.02 12:0 13:0.143 14:0.061 15:0.143 16:0.041 17:0 18:0.184 19:0.082 20:0 
-768 1:0.6 2:0.4 3:0.25 4:0 5:0.02 6:0.02 7:0.061 8:0.02 9:0.102 10:0.061 11:0.061 12:0.061 13:0 14:0.122 15:0.163 16:0.02 17:0.122 18:0.143 19:0.02 20:0 
-692.4314525333796 1:0.6 2:0.4 3:0.25 4:0 5:0 6:0.082 7:0.02 8:0.02 9:0.061 10:0.061 11:0.102 12:0.082 13:0.163 14:0.061 15:0.041 16:0 17:0.02 18:0.143 19:0.143 20:0 
768 1:0.6 2:0.4 3:0.25 4:0.02 5:0 6:0.041 7:0.041 8:0 9:0.143 10:0.041 11:0.061 12:0.041 13:0.041 14:0.082 15:0.184 16:0.041 17:0.041 18:0.204 19:0.02 20:0 
211.8476659500453 1:0.6 2:0.4 3:0.25 4:0 5:0.041 6:0.02 7:0.041 8:0.041 9:0 10:0.184 11:0.02 12:0.02 13:0.02 14:0.122 15:0.204 16:0.041 17:0.184 18:0.02 19:0.041 20:0 
386.1786393586674 1:0.6 2:0.4 3:0.25 4:0.02 5:0.02 6:0.02 7:0.041 8:0.02 9:0.102 10:0.082 11:0.02 12:0 13:0 14:0.204 15:0.163 16:0.061 17:0.122 18:0.061 19:0.061 20:0 
19.8887707272969 1:0.6 2:0.4 3:0.25 4:0 5:0.061 6:0.02 7:0.02 8:0.061 9:0.041 10:0.122 11:0 12:0.02 13:0.122 14:0.163 15:0.061 16:0.02 17:0 18:0.061 19:0.224 20:0 
768 1:0.6 2:0.467 3:0.25 4:0 5:0.041 6:0.02 7:0.041 8:0.041 9:0.082 10:0 11:0.143 12:0.061 13:0.061 14:0.184 15:0.02 16:0 17:0.082 18:0.122 19:0.102 20:0 
768 1:0.6 2:0.467 3:0.25 4:0 5:0.061 6:0 7:0.041 8:0.061 9:0.041 10:0.061 11:0.122 12:0 13:0.061 14:0.163 15:0.082 16:0.041 17:0.122 18:0.082 19:0.061 20:0 
-768 1:0.6 2:0.467 3:0.25 4:0 5:0.061 6:0.041 7:0 8:0.041 9:0.102 10:0.122 11:0.02 12:0 13:0.102 14:0.082 15:0.122 16:0.061 17:0.02 18:0.082 19:0.143 20:0 
-768 1:0.6 2:0.467 3:0.25 4:0.02 5:0 6:0.041 7:0.041 8:0.041 9:0.041 10:0.061 11:0.143 12:0.02 13:0.102 14:0.102 15:0.082 16:0.02 17:0.143 18:0.122 19:0.02 20:0 
221.2235058090407 1:0.6 2:0.467 3:0.25 4:0 5:0.02 6:0.082 7:0 8:0.041 9:0.082 10:0.102 11:0.061 12:0.041 13:0.061 14:0.143 15:0.061 16:0.02 17:0.122 18:0 19:0.163 20:0 
-289.4796289563689 1:0.6 2:0.467 3:0.25 4:0 5:0.02 6:0.041 7:0.041 8:0.02 9:0.061 10:0.122 11:0.082 12:0.02 13:0.02 14:0.102 15:0.163 16:0.061 17:0.184 18:0.041 19:0.02 20:0 
768 1:0.6 2:0.467 3:0.25 4:0 5:0 6:0.041 7:0.061 8:0.02 9:0.102 10:0.041 11:0.122 12:0.061 13:0.102 14:0.041 15:0.102 16:0.02 17:0.082 18:0.184 19:0.02 20:0 
768 1:0.6 2:0.467 3:0.25 4:0 5:0.061 6:0.02 7:0.02 8:0.041 9:0.061 10:0.082 11:0.082 12:0.041 13:0.143 14:0 15:0.143 16:0.02 17:0.02 18:0.224 19:0.041 20:0 
-479.8704207357622 1:0.6 2:0.467 3:0.25 4:0.02 5:0.02 6:0.061 7:0 8:0 9:0.163 10:0.041 11:0.082 12:0.082 13:0.041 14:0.02 15:0.163 16:0 17:0.041 18:0.204 19:0.061 20:0 
768 1:0.6 2:0.467 3:0.25 4:0.02 5:0.02 6:0 7:0.061 8:0.061 9:0.102 10:0.061 11:0.061 12:0.02 13:0.163 14:0.082 15:0.041 16:0 17:0 18:0.184 19:0.122 20:0 
-648.591684728902 1:0.6 2:0.467 3:0.25 4:0 5:0 6:0.061 7:0.041 8:0.02 9:0 10:0.143 11:0.122 12:0.061 13:0.184 14:0.02 15:0.041 16:0.02 17:0.102 18:0.102 19:0.082 20:0 
-768 1:0.6 2:0.467 3:0.25 4:0 5:0.02 6:0.082 7:0 8:0.02 9:0.061 10:0.061 11:0.143 12:0.041 13:0.02 14:0.184 15:0.061 16:0.041 17:0.163 18:0 19:0.102 20:0 
-258.0601513001915 1:0.6 2:0.467 3:0.25 4:0 5:0.02 6:0.082 7:0 8:0.041 9:0.082 10:0.143 11:0.02 12:0.041 13:0.163 14:0.02 15:0.082 16:0.02 17:0.02 18:0.082 19:0.184 20:0 
-458.5855850290983 1:0.6 2:0.467 3:0.25 4:0.02 5:0 6:0.041 7:0.041 8:0.061 9:0 10:0.143 11:0.061 12:0 13:0.102 14:0.061 15:0.163 16:0 17:0.184 18:0.082 19:0.041 20:0 
-768 1:0.6 2:0.5 3:0.25 4:0 5:0.041 6:0.041 7:0.02 8:0 9:0.122 10:0.122 11:0.041 12:0.041 13:0.122 14:0.02 15:0.122 16:0.061 17:0.02 18:0.122 19:0.102 20:0 
-768 1:0.6 2:0.5 3:0.25 4:0.02 5:0.041 6:0.02 7:0.02 8:0 9:0.082 10:0.082 11:0.143 12:0.02 13:0.122 14:0.102 15:0.041 16:0.061 17:0.041 18:0.102 19:0.102 20:0 
768 1:0.6 2:0.5 3:0.25 4:0 5:0.041 6:0.061 7:0 8:0.061 9:0.102 10:0.082 11:0.061 12:0.02 13:0.102 14:0.102 15:0.061 16:0.02 17:0.061 18:0.041 19:0.184 20:0 
768 1:0.6 2:0.5 3:0.25 4:0.02 5:0.061 6:0 7:0.02 8:0.02 9:0.102 10:0.143 11:0.041 12:0.061 13:0.082 14:0.061 15:0.082 16:0 17:0.061 18:0.102 19:0.143 20:0 
768 1:0.6 2:0.5 3:0.25 4:0 5:0.02 6:0.041 7:0.041 8:0.061 9:0.122 10:0.041 11:0.082 12:0 13:0.102 14:0.041 15:0.143 16:0.041 17:0.061 18:0.163 19:0.041 20:0 
-272.8063525877485 1:0.6 2:0.5 3:0.25 4:0 5:0.02 6:0.061 7:0.02 8:0.061 9:0.102 10:0.122 11:0.02 12:0 13:0.041 14:0.041 15:0.204 16:0.041 17:0.143 18:0.061 19:0.061 20:0 
-746.1199688115074 1:0.6 2:0.5 3:0.25 4:0.02 5:0 6:0.02 7:0.061 8:0 9:0.082 10:0.184 11:0.02 12:0.061 13:0.082 14:0.02 15:0.143 16:0.02 17:0.143 18:0.082 19:0.061 20:0 
-768 1:0.6 2:0.5 3:0.25 4:0 5:0.02 6:0.041 7:0.041 8:0.041 9:0.143 10:0.061 11:0.061 12:0.061 13:0.143 14:0.082 15:0 16:0 17:0 18:0.122 19:0.184 20:0 
768 1:0.6 2:0.5 3:0.25 4:0 5:0.02 6:0.061 7:0.02 8:0 9:0.041 10:0.041 11:0.224 12:0.041 13:0.122 14:0.082 15:0.041 16:0.061 17:0.122 18:0.102 19:0.02 20:0 
768 1:0.6 2:0.5 3:0.25 4:0 5:0.041 6:0.02 7:0.041 8:0.061 9:0.143 10:0.041 11:0.061 12:0 13:0.041 14:0.204 15:0.041 16:0.041 17:0.082 18:0.02 19:0.163 20:0 
768 1:0.6 2:0.5 3:0.25 4:0 5:0.041 6:0.061 7:0 8:0.061 9:0.082 10:0.041 11:0.122 12:0.041 13:0.041 14:0.163 15:0.041 16:0 17:0.143 18:0.02 19:0.143 20:0 
-768 1:0.6 2:0.5 3:0.25 4:0.02 5:0.041 6:0.02 7:0.02 8:0.02 9:0.224 10:0.041 11:0.02 12:0 13:0 14:0.163 15:0.122 16:0.061 17:0.02 18:0.082 19:0.143 20:0 
314.195653507052 1:0.6 2:0.5 3:0.25 4:0 5:0.061 6:0.02 7:0.02 8:0.041 9:0.122 10:0 11:0.143 12:0 13:0.082 14:0.143 15:0.082 16:0.061 17:0.02 18:0.143 19:0.061 20:0 
-768 1:0.6 2:0.567 3:0.25 4:0 5:0.02 6:0.061 7:0.02 8:0.061 9:0.163 10:0.061 11:0.061 12:0.02 13:0.122 14:0.02 15:0.082 16:0.02 17:0.041 18:0.122 19:0.122 20:0 
-768 1:0.6 2:0.567 3:0.25 4:0 5:0.02 6:0.02 7:0.061 8:0 9:0.082 10:0.082 11:0.184 12:0.02 13:0.143 14:0.061 15:0.02 16:0.061 17:0.102 18:0.102 19:0.041 20:0 
768 1:0.6 2:0.567 3:0.25 4:0 5:0.061 6:0.02 7:0.02 8:0.041 9:0.061 10:0.122 11:0.102 12:0.041 13:0.102 14:0.122 15:0 16:0.02 17:0.102 18:0 19:0.184 20:0 
768 1:0.6 2:0.567 3:0.25 4:0.02 5:0.02 6:0.02 7:0.041 8:0 9:0.143 10:0.082 11:0.122 12:0.061 13:0.082 14:0.102 15:0 16:0.02 17:0.102 18:0.061 19:0.122 20:0 
768 1:0.6 2:0.567 3:0.25 4:0 5:0.061 6:0 7:0.041 8:0.082 9:0.02 10:0.102 11:0.143 12:0 13:0.122 14:0.02 15:0.122 16:0.02 17:0.143 18:0.122 19:0 20:0 
-449.0153320402557 1:0.6 2:0.567 3:0.25 4:0 5:0.061 6:0 7:0.02 8:0.02 9:0.122 10:0.061 11:0.143 12:0 13:0.102 14:0.163 15:0 16:0.061 17:0.061 18:0.041 19:0.143 20:0 
-6.607665619001176 1:0.6 2:0.567 3:0.25 4:0.02 5:0.02 6:0 7:0.061 8:0.02 9:0.143 10:0.163 11:0 12:0 13:0.143 14:0.061 15:0.061 16:0.061 17:0.041 18:0.02 19:0.184 20:0 
207.6932734268821 1:0.6 2:0.567 3:0.25 4:0 5:0.061 6:0.02 7:0.02 8:0 9:0.204 10:0.041 11:0.102 12:0.02 13:0.041 14:0.143 15:0.041 16:0.061 17:0.041 18:0.061 19:0.143 20:0 
-768 1:0.6 2:0.567 3:0.25 4:0.02 5:0 6:0.02 7:0.061 8:0 9:0.163 10:0.02 11:0.163 12:0.02 13:0.102 14:0.061 15:0.061 16:0.061 17:0.082 18:0.143 19:0.02 20:0 
-239.908031682564 1:0.6 2:0.567 3:0.25 4:0.02 5:0.061 6:0 7:0.02 8:0.02 9:0.102 10:0.122 11:0.102 12:0.061 13:0.143 14:0.061 15:0 16:0 17:0.041 18:0.061 19:0.184 20:0 
-768 1:0.6 2:0.567 3:0.25 4:0 5:0.082 6:0 7:0.02 8:0.082 9:0.102 10:0.082 11:0.061 12:0.02 13:0.122 14:0 15:0.122 16:0 17:0.041 18:0.163 19:0.102 20:0 
768 1:0.6 2:0.567 3:0.25 4:0 5:0.082 6:0.02 7:0 8:0.041 9:0.163 10:0.082 11:0.061 12:0.041 13:0.102 14:0.061 15:0.041 16:0.02 17:0 18:0.102 19:0.184 20:0 
768 1:0.6 2:0.567 3:0.25 4:0 5:0.041 6:0 7:0.061 8:0.082 9:0.082 10:0.02 11:0.163 12:0 13:0.082 14:0.102 15:0.061 16:0.02 17:0.143 18:0.143 19:0 20:0 
-126.8378968408352 1:0.6 2:0.567 3:0.25 4:0 5:0.02 6:0.041 7:0.041 8:0.041 9:0.102 10:0.02 11:0.184 12:0.061 13:0.041 14:0.143 15:0 16:0 17:0.163 18:0.061 19:0.082 20:0 
-768 1:0.6 2:0.567 3:0.25 4:0 5:0 6:0.041 7:0.061 8:0.082 9:0.163 10:0 11:0.102 12:0 13:0.102 14:0.082 15:0.061 16:0 17:0.082 18:0.143 19:0.082 20:0 
768 1:0.6 2:0.567 3:0.25 4:0 5:0.041 6:0.02 7:0.041 8:0.082 9:0.122 10:0.122 11:0 12:0.02 13:0.143 14:0.041 15:0.061 16:0 17:0.02 18:0.082 19:0.204 20:0 
-768 1:0.6 2:0.6 3:0.25 4:0 5:0.061 6:0.041 7:0 8:0.02 9:0.143 10:0.082 11:0.122 12:0.02 13:0.082 14:0.061 15:0.061 16:0.061 17:0.082 18:0.061 19:0.102 20:0 
768 1:0.6 2:0.6 3:0.25 4:0 5:0.041 6:0.041 7:0.02 8:0.041 9:0.204 10:0.082 11:0.02 12:0.02 13:0.102 14:0.02 15:0.102 16:0.041 17:0.02 18:0.082 19:0.163 20:0 
-760.1184341068912 1:0.6 2:0.6 3:0.25 4:0 5:0.02 6:0.02 7:0.061 8:0 9:0.224 10:0.082 11:0.061 12:0.061 13:0 14:0.061 15:0.102 16:0.041 17:0.102 18:0.082 19:0.082 20:0 
541.3658919398709 1:0.6 2:0.6 3:0.25 4:0.02 5:0.082 6:0 7:0 8:0.02 9:0.061 10:0.143 11:0.143 12:0.041 13:0.143 14:0.041 15:0 16:0.02 17:0.082 18:0.061 19:0.143 20:0 
-75.4918625098379 1:0.6 2:0.6 3:0.25 4:0 5:0.041 6:0.02 7:0.041 8:0 9:0.122 10:0.041 11:0.204 12:0.061 13:0.102 14:0.02 15:0.041 16:0.02 17:0.102 18:0.163 19:0.02 20:0 
768 1:0.6 2:0.6 3:0.25 4:0 5:0.02 6:0.02 7:0.061 8:0.02 9:0.184 10:0.122 11:0.02 12:0.061 13:0.143 14:0.041 15:0 16:0.02 17:0.02 18:0.061 19:0.204 20:0 
-671.0095008518387 1:0.6 2:0.6 3:0.25 4:0.02 5:0.02 6:0 7:0.061 8:0.041 9:0.041 10:0.184 11:0.082 12:0.02 13:0.082 14:0.041 15:0.102 16:0 17:0.224 18:0.02 19:0.061 20:0 
768 1:0.6 2:0.6 3:0.25 4:0.02 5:0.082 6:0 7:0 8:0.02 9:0.02 10:0.082 11:0.245 12:0.061 13:0.102 14:0.041 15:0.02 16:0 17:0.163 18:0.122 19:0.02 20:0 
-768 1:0.6 2:0.6 3:0.25 4:0 5:0.02 6:0.02 7:0.061 8:0.061 9:0.122 10:0.102 11:0.061 12:0 13:0.122 14:0 15:0.122 16:0.041 17:0.082 18:0.122 19:0.061 20:0 
768 1:0.6 2:0.6 3:0.25 4:0.02 5:0.02 6:0.041 7:0 8:0 9:0.102 10:0.082 11:0.184 12:0.061 13:0.061 14:0.041 15:0.082 16:0.02 17:0.184 18:0.061 19:0.041 20:0 
-768 1:0.6 2:0.6 3:0.25 4:0.02 5:0.041 6:0 7:0.041 8:0.02 9:0.061 10:0.184 11:0.082 12:0 13:0.163 14:0 15:0.082 16:0.061 17:0.082 18:0.061 19:0.102 20:0 
768 1:0.6 2:0.6 3:0.25 4:0 5:0.02 6:0.061 7:0.02 8:0 9:0.102 10:0.102 11:0.143 12:0.02 13:0.163 14:0 15:0.061 16:0.061 17:0.082 18:0.082 19:0.082 20:0 
118.0370041978493 1:0.6 2:0.6 3:0.25 4:0.02 5:0 6:0.061 7:0.02 8:0.041 9:0.245 10:0.041 11:0.02 12:0 13:0.061 14:0.102 15:0.082 16:0.041 17:0.061 18:0.02 19:0.184 20:0 
-334.4205695937399 1:0.6 2:0.6 3:0.25 4:0.02 5:0.082 6:0 7:0 8:0 9:0.163 10:0.163 11:0.041 12:0.02 13:0.041 14:0.061 15:0.122 16:0.061 17:0.061 18:0.02 19:0.143 20:0 
-307.3739503313735 1:0.6 2:0.6 3:0.25 4:0 5:0 6:0.041 7:0.061 8:0.082 9:0.041 10:0.061 11:0.163 12:0 13:0.122 14:0.061 15:0.061 16:0.02 17:0.184 18:0.082 19:0.02 20:0 
-768 1:0.6 2:0.6 3:0.25 4:0 5:0.061 6:0.041 7:0 8:0 9:0.224 10:0.041 11:0.102 12:0.041 13:0.061 14:0.061 15:0.061 16:0.061 17:0 18:0.102 19:0.143 20:0 
768 1:0.6 2:0.6 3:0.25 4:0 5:0.041 6:0 7:0.061 8:0.061 9:0.02 10:0.163 11:0.102 12:0.02 13:0.163 14:0.041 15:0.02 16:0.02 17:0.143 18:0.041 19:0.102 20:0 
-84.38308935147198 1:0.6 2:0.6 3:0.25 4:0 5:0.041 6:0.041 7:0.02 8:0.02 9:0.143 10:0.041 11:0.163 12:0.061 13:0 14:0.143 15:0.041 16:0 17:0.184 18:0.02 19:0.082 20:0 
-3.120026321561589 1:0.6 2:0.6 3:0.25 4:0 5:0.041 6:0.061 7:0 8:0.02 9:0.041 10:0.102 11:0.204 12:0.02 13:0.122 14:0 15:0.102 16:0.061 17:0.163 18:0.061 19:0 20:0 
768 1:0.6 2:0.6 3:0.25 4:0 5:0.041 6:0 7:0.061 8:0.02 9:0.265 10:0.082 11:0 12:0.041 13:0.02 14:0.082 15:0.082 16:0.041 17:0.041 18:0.061 19:0.163 20:0 
768 1:0.6 2:0.6 3:0.25 4:0.02 5:0.02 6:0.061 7:0 8:0.061 9:0.204 10:0.061 11:0.02 12:0.02 13:0.02 14:0.02 15:0.184 16:0 17:0.122 18:0.102 19:0.082 20:0 
-101.5096946955871 1:0.6 2:0.6 3:0.25 4:0.02 5:0.041 6:0 7:0.041 8:0.02 9:0.265 10:0.061 11:0.02 12:0 13:0.061 14:0.041 15:0.143 16:0.041 17:0 18:0.143 19:0.102 20:0 
768 1:0.6 2:0.667 3:0.25 4:0.02 5:0 6:0.02 7:0.061 8:0.041 9:0.122 10:0.061 11:0.184 12:0.02 13:0.082 14:0.061 15:0.02 16:0.02 17:0.204 18:0.041 19:0.041 20:0 
768 1:0.6 2:0.667 3:0.25 4:0.02 5:0.041 6:0.02 7:0.02 8:0.041 9:0.184 10:0.061 11:0.102 12:0.02 13:0.102 14:0.082 15:0 16:0.02 17:0.061 18:0.041 19:0.184 20:0 
325.1006673588934 1:0.6 2:0.667 3:0.25 4:0 5:0.041 6:0 7:0.061 8:0.102 9:0.184 10:0.061 11:0.041 12:0 13:0.082 14:0.02 15:0.102 16:0 17:0.082 18:0.122 19:0.102 20:0 
768 1:0.6 2:0.667 3:0.25 4:0 5:0 6:0.041 7:0.061 8:0.02 9:0.204 10:0.041 11:0.122 12:0.02 13:0.082 14:0.082 15:0.02 16:0.061 17:0.122 18:0.02 19:0.102 20:0 
768 1:0.6 2:0.667 3:0.25 4:0 5:0.041 6:0 7:0.061 8:0.041 9:0.041 10:0.143 11:0.163 12:0.041 13:0.102 14:0.02 15:0.041 16:0.02 17:0.224 18:0.02 19:0.041 20:0 
768 1:0.6 2:0.667 3:0.25 4:0 5:0.102 6:0 7:0 8:0.02 9:0.122 10:0.184 11:0.061 12:0.041 13:0.041 14:0 15:0.122 16:0.041 17:0.122 18:0.02 19:0.122 20:0 
-215.8688398245813 1:0.6 2:0.667 3:0.25 4:0 5:0.041 6:0.041 7:0.02 8:0.041 9:0.245 10:0.061 11:0.041 12:0.02 13:0.082 14:0.02 15:0.082 16:0.041 17:0.02 18:0.082 19:0.163 20:0 
-722.4638184874708 1:0.6 2:0.667 3:0.25 4:0 5:0.02 6:0.02 7:0.061 8:0 9:0.143 10:0.122 11:0.143 12:0.041 13:0.102 14:0.02 15:0.02 16:0.061 17:0.143 18:0.041 19:0.061 20:0 
-768 1:0.6 2:0.667 3:0.25 4:0 5:0.061 6:0.02 7:0.02 8:0.041 9:0.102 10:0.082 11:0.184 12:0 13:0.082 14:0.102 15:0 16:0.061 17:0.143 18:0 19:0.102 20:0 
387.6652458301106 1:0.6 2:0.667 3:0.25 4:0 5:0.02 6:0.02 7:0.061 8:0.02 9:0.265 10:0 11:0.102 12:0.02 13:0.082 14:0.041 15:0.061 16:0.041 17:0.041 18:0.143 19:0.082 20:0 
-768 1:0.6 2:0.667 3:0.25 4:0.02 5:0 6:0.02 7:0.061 8:0.02 9:0.245 10:0.061 11:0.082 12:0.041 13:0.041 14:0 15:0.102 16:0.02 17:0.122 18:0.102 19:0.061 20:0 
-768 1:0.6 2:0.667 3:0.25 4:0 5:0.02 6:0.02 7:0.061 8:0.041 9:0.143 10:0.163 11:0.041 12:0.041 13:0.163 14:0 15:0 16:0.02 17:0.082 18:0.02 19:0.184 20:0 
768 1:0.6 2:0.667 3:0.25 4:0 5:0.061 6:0.041 7:0 8:0 9:0.082 10:0.082 11:0.245 12:0.041 13:0.082 14:0.041 15:0.02 16:0.061 17:0.163 18:0.041 19:0.041 20:0 
304.4218942261954 1:0.6 2:0.667 3:0.25 4:0 5:0.102 6:0 7:0 8:0 9:0.204 10:0.102 11:0.082 12:0.041 13:0.041 14:0.082 15:0.041 16:0.061 17:0.061 18:0.02 19:0.163 20:0 
768 1:0.6 2:0.667 3:0.25 4:0.02 5:0.082 6:0 7:0 8:0.082 9:0.061 10:0.143 11:0.122 12:0 13:0.02 14:0.061 15:0.102 16:0 17:0.224 18:0 19:0.082 20:0 
-768 1:0.6 2:0.667 3:0.25 4:0.02 5:0.082 6:0 7:0 8:0.041 9:0.224 10:0.041 11:0.102 12:0.02 13:0.102 14:0.02 15:0.041 16:0 17:0 18:0.143 19:0.163 20:0 
-238.4514806012928 1:0.6 2:0.667 3:0.25 4:0 5:0.041 6:0.02 7:0.041 8:0.082 9:0.041 10:0.061 11:0.204 12:0.02 13:0.122 14:0 15:0.061 16:0 17:0.204 18:0.102 19:0 20:0 
-432.2506236335843 1:0.6 2:0.667 3:0.25 4:0.02 5:0.041 6:0 7:0.041 8:0 9:0.245 10:0.143 11:0 12:0.041 13:0.082 14:0.041 15:0.041 16:0.041 17:0.041 18:0.02 19:0.204 20:0 
496.5472199142456 1:0.6 2:0.7 3:0.25 4:0 5:0 6:0.041 7:0.061 8:0.02 9:0.163 10:0.122 11:0.102 12:0.041 13:0.122 14:0 15:0.02 16:0.041 17:0.143 18:0 19:0.122 20:0 
-76.73639829419062 1:0.6 2:0.7 3:0.25 4:0.02 5:0.061 6:0.02 7:0 8:0 9:0.265 10:0.041 11:0.122 12:0.02 13:0.041 14:0.041 15:0.061 16:0.041 17:0.061 18:0.082 19:0.122 20:0 
-768 1:0.6 2:0.7 3:0.25 4:0 5:0.102 6:0 7:0 8:0.082 9:0.184 10:0.082 11:0.082 12:0 13:0.082 14:0.061 15:0.02 16:0.02 17:0.061 18:0.041 19:0.184 20:0 
-768 1:0.6 2:0.7 3:0.25 4:0 5:0.02 6:0.02 7:0.061 8:0.041 9:0.306 10:0.02 11:0.041 12:0 13:0.061 14:0.061 15:0.061 16:0.061 17:0.041 18:0.061 19:0.143 20:0 
-252.7262836163312 1:0.6 2:0.7 3:0.25 4:0 5:0.102 6:0 7:0 8:0.061 9:0.061 10:0.102 11:0.184 12:0.041 13:0.02 14:0.041 15:0.082 16:0 17:0.224 18:0.041 19:0.041 20:0 
-592.0954763574376 1:0.6 2:0.7 3:0.25 4:0 5:0.02 6:0.041 7:0.041 8:0.082 9:0.143 10:0.143 11:0.041 12:0 13:0.143 14:0 15:0.041 16:0 17:0.122 18:0 19:0.184 20:0 
-10.33226064032312 1:0.6 2:0.7 3:0.25 4:0 5:0 6:0.041 7:0.061 8:0.02 9:0.102 10:0.122 11:0.184 12:0.02 13:0.143 14:0 15:0 16:0.061 17:0.163 18:0.02 19:0.061 20:0 
768 1:0.6 2:0.7 3:0.25 4:0 5:0.041 6:0.041 7:0.02 8:0.041 9:0.102 10:0.041 11:0.245 12:0.02 13:0.041 14:0.082 15:0.02 16:0.02 17:0.245 18:0.02 19:0.02 20:0 
-768 1:0.6 2:0.7 3:0.25 4:0.02 5:0.041 6:0.041 7:0 8:0.061 9:0.122 10:0 11:0.224 12:0 13:0.163 14:0.02 15:0 16:0 17:0.102 18:0.122 19:0.082 20:0 
-36.46479683286187 1:0.6 2:0.7 3:0.25 4:0.02 5:0.02 6:0 7:0.061 8:0.02 9:0.265 10:0.02 11:0.102 12:0 13:0.061 14:0.02 15:0.102 16:0.061 17:0.082 18:0.122 19:0.041 20:0 
-358.6337352266071 1:0.6 2:0.7 3:0.25 4:0 5:0.061 6:0.041 7:0 8:0.061 9:0.204 10:0.061 11:0.082 12:0.041 13:0 14:0.082 15:0.061 16:0 17:0.163 18:0 19:0.143 20:0 
-330.1396624367601 1:0.6 2:0.767 3:0.25 4:0 5:0.061 6:0.02 7:0.02 8:0.02 9:0.184 10:0.041 11:0.204 12:0.02 13:0.102 14:0.02 15:0 16:0.061 17:0.102 18:0.061 19:0.082 20:0 
768 1:0.6 2:0.767 3:0.25 4:0 5:0.061 6:0 7:0.041 8:0.082 9:0.184 10:0.041 11:0.163 12:0.02 13:0.02 14:0.02 15:0.061 16:0 17:0.204 18:0.061 19:0.041 20:0 
-768 1:0.6 2:0.767 3:0.25 4:0.02 5:0.02 6:0 7:0.061 8:0.041 9:0.184 10:0.102 11:0.143 12:0 13:0.102 14:0.02 15:0 16:0.041 17:0.143 18:0.02 19:0.102 20:0 
20.19809153206942 1:0.6 2:0.767 3:0.25 4:0 5:0.082 6:0.02 7:0 8:0.02 9:0.122 10:0.122 11:0.184 12:0.02 13:0.102 14:0 15:0.02 16:0.061 17:0.143 18:0 19:0.102 20:0 
768 1:0.6 2:0.767 3:0.25 4:0 5:0.082 6:0 7:0.02 8:0.02 9:0.265 10:0.122 11:0.041 12:0.02 13:0.02 14:0 15:0.102 16:0.041 17:0.102 18:0.02 19:0.143 20:0 
26.36472142030292 1:0.6 2:0.767 3:0.25 4:0 5:0.102 6:0 7:0 8:0.02 9:0.204 10:0.143 11:0.082 12:0.02 13:0.082 14:0 15:0.041 16:0.041 17:0.082 18:0 19:0.184 20:0 
-452.0998728193744 1:0.6 2:0.767 3:0.25 4:0.02 5:0.02 6:0 7:0.061 8:0.02 9:0.327 10:0 11:0.122 12:0 13:0.082 14:0.041 15:0.02 16:0.061 17:0.041 18:0.102 19:0.082 20:0 
-768 1:0.6 2:0.8 3:0.25 4:0 5:0.02 6:0.02 7:0.061 8:0.082 9:0.224 10:0.102 11:0.082 12:0 13:0.061 14:0 15:0.041 16:0.02 17:0.163 18:0 19:0.122 20:0 
-97.18462509634539 1:0.6 2:0.8 3:0.25 4:0 5:0.082 6:0 7:0.02 8:0.082 9:0.184 10:0.02 11:0.204 12:0.02 13:0.061 14:0.02 15:0 16:0 17:0.163 18:0.061 19:0.082 20:0 
-768 1:0.6 2:0.8 3:0.25 4:0 5:0.102 6:0 7:0 8:0 9:0.204 10:0.102 11:0.163 12:0.02 13:0.082 14:0.02 15:0 16:0.061 17:0.102 18:0 19:0.143 20:0 
-30.75706572002152 1:0.6 2:0.8 3:0.25 4:0 5:0.061 6:0.02 7:0.02 8:0.041 9:0.327 10:0.02 11:0.102 12:0 13:0.02 14:0 15:0.082 16:0.041 17:0.082 18:0.082 19:0.102 20:0 
-640.9756800113672 1:0.6 2:0.2 3:0.3 4:0.02 5:0.02 6:0.082 7:0 8:0 9:0.02 10:0.082 11:0.02 12:0.061 13:0.02 14:0.245 15:0.163 16:0.02 17:0.061 18:0.082 19:0.102 20:0 
-120.54790955593 1:0.6 2:0.2 3:0.3 4:0 5:0 6:0.041 7:0.082 8:0.02 9:0 10:0.102 11:0 12:0.02 13:0.061 14:0.184 15:0.204 16:0.082 17:0.041 18:0.163 19:0 20:0 
-154.3979849514824 1:0.6 2:0.267 3:0.3 4:0 5:0.02 6:0.102 7:0 8:0.02 9:0.02 10:0.02 11:0.082 12:0.102 13:0.02 14:0.143 15:0.184 16:0 17:0.102 18:0.163 19:0.02 20:0 
603.6161832984536 1:0.6 2:0.267 3:0.3 4:0 5:0 6:0.082 7:0.02 8:0.041 9:0 10:0.102 11:0.02 12:0.061 13:0.061 14:0.102 15:0.224 16:0.02 17:0.102 18:0.143 19:0.02 20:0 
768 1:0.6 2:0.267 3:0.3 4:0.02 5:0 6:0.102 7:0 8:0 9:0 10:0.061 11:0.102 12:0.041 13:0.061 14:0.245 15:0.082 16:0.041 17:0.102 18:0.041 19:0.102 20:0 
-181.7191833186598 1:0.6 2:0.3 3:0.3 4:0 5:0.041 6:0.061 7:0.02 8:0 9:0.02 10:0.041 11:0.122 12:0.102 13:0.082 14:0.122 15:0.102 16:0.02 17:0.041 18:0.184 19:0.041 20:0 
-125.3282679855907 1:0.6 2:0.3 3:0.3 4:0 5:0.02 6:0.02 7:0.082 8:0.02 9:0 10:0.041 11:0.102 12:0.082 13:0.061 14:0.204 15:0.082 16:0.02 17:0.102 18:0.143 19:0.02 20:0 
768 1:0.6 2:0.3 3:0.3 4:0.02 5:0 6:0.061 7:0.041 8:0.02 9:0.082 10:0 11:0.082 12:0.061 13:0.061 14:0.204 15:0.082 16:0 17:0.041 18:0.163 19:0.082 20:0 
-474.5168829279849 1:0.6 2:0.3 3:0.3 4:0 5:0.041 6:0.041 7:0.041 8:0.02 9:0 10:0.102 11:0.041 12:0.041 13:0 14:0.245 15:0.143 16:0.061 17:0.122 18:0.041 19:0.061 20:0 
24.75891661654967 1:0.6 2:0.3 3:0.3 4:0 5:0 6:0.041 7:0.082 8:0.041 9:0 10:0.122 11:0 12:0.082 13:0.143 14:0.102 15:0.102 16:0 17:0.02 18:0.163 19:0.102 20:0 
768 1:0.6 2:0.3 3:0.3 4:0.02 5:0 6:0.061 7:0.02 8:0.041 9:0 10:0.122 11:0.02 12:0.041 13:0.143 14:0.061 15:0.184 16:0.02 17:0.02 18:0.184 19:0.061 20:0 
-77.29324620143908 1:0.6 2:0.3 3:0.3 4:0.02 5:0.02 6:0.082 7:0 8:0.02 9:0.02 10:0.102 11:0.02 12:0.041 13:0.02 14:0.122 15:0.245 16:0.041 17:0.122 18:0.102 19:0.02 20:0 
-768 1:0.6 2:0.3 3:0.3 4:0 5:0 6:0.041 7:0.082 8:0.041 9:0.041 10:0.061 11:0.02 12:0 13:0.041 14:0.306 15:0.082 16:0.082 17:0.102 18:0.02 19:0.082 20:0 
-729.6988294436715 1:0.6 2:0.367 3:0.3 4:0 5:0 6:0.041 7:0.082 8:0.041 9:0.061 10:0.122 11:0 12:0.02 13:0.122 14:0.122 15:0.102 16:0.061 17:0.041 18:0.082 19:0.102 20:0 
-768 1:0.6 2:0.367 3:0.3 4:0.02 5:0 6:0.02 7:0.082 8:0.041 9:0.122 10:0.02 11:0.041 12:0.02 13:0.082 14:0.224 15:0.041 16:0.041 17:0.02 18:0.122 19:0.102 20:0 
768 1:0.6 2:0.367 3:0.3 4:0 5:0.02 6:0.102 7:0 8:0 9:0.102 10:0 11:0.122 12:0.102 13:0.102 14:0.082 15:0.082 16:0.02 17:0 18:0.204 19:0.061 20:0 
-287.2171564271192 1:0.6 2:0.367 3:0.3 4:0.02 5:0 6:0.102 7:0 8:0.02 9:0.02 10:0.163 11:0.02 12:0 13:0.184 14:0.061 15:0.143 16:0.082 17:0.02 18:0.041 19:0.122 20:0 
649.622273483047 1:0.6 2:0.4 3:0.3 4:0.02 5:0.02 6:0.041 7:0.041 8:0.02 9:0.102 10:0.061 11:0.041 12:0.041 13:0.041 14:0.204 15:0.082 16:0.02 17:0.082 18:0.061 19:0.122 20:0 
-768 1:0.6 2:0.4 3:0.3 4:0.02 5:0.02 6:0.082 7:0 8:0 9:0.02 10:0.122 11:0.082 12:0.061 13:0.122 14:0.02 15:0.163 16:0.041 17:0.061 18:0.143 19:0.041 20:0 
702.2899779488414 1:0.6 2:0.4 3:0.3 4:0 5:0.061 6:0.02 7:0.041 8:0.02 9:0 10:0.204 11:0.02 12:0.082 13:0.102 14:0.041 15:0.143 16:0.02 17:0.061 18:0.102 19:0.082 20:0 
768 1:0.6 2:0.4 3:0.3 4:0 5:0.041 6:0.061 7:0.02 8:0 9:0.082 10:0.082 11:0.082 12:0.061 13:0 14:0.102 15:0.184 16:0.041 17:0.122 18:0.122 19:0 20:0 
768 1:0.6 2:0.4 3:0.3 4:0.02 5:0 6:0.02 7:0.082 8:0 9:0.102 10:0.061 11:0.082 12:0.02 13:0.143 14:0.122 15:0.061 16:0.082 17:0 18:0.143 19:0.061 20:0 
197.2269836293741 1:0.6 2:0.4 3:0.3 4:0.02 5:0 6:0.102 7:0 8:0.02 9:0.122 10:0.041 11:0.061 12:0.061 13:0.102 14:0.143 15:0.041 16:0.02 17:0.02 18:0.061 19:0.184 20:0 
-339.5510604843765 1:0.6 2:0.4 3:0.3 4:0 5:0 6:0.061 7:0.061 8:0.041 9:0.143 10:0 11:0.061 12:0.061 13:0.082 14:0.082 15:0.122 16:0.02 17:0.02 18:0.204 19:0.041 20:0 
-645.5220318656148 1:0.6 2:0.4 3:0.3 4:0.02 5:0.061 6:0.02 7:0.02 8:0 9:0.102 10:0.02 11:0.122 12:0.02 13:0.041 14:0.204 15:0.082 16:0.082 17:0.02 18:0.122 19:0.061 20:0 
768 1:0.6 2:0.4 3:0.3 4:0.02 5:0.02 6:0 7:0.082 8:0.02 9:0.102 10:0.041 11:0.061 12:0.041 13:0.102 14:0.224 15:0 16:0.041 17:0.02 18:0.102 19:0.122 20:0 
768 1:0.6 2:0.4 3:0.3 4:0.02 5:0 6:0.102 7:0 8:0.041 9:0.082 10:0.041 11:0.082 12:0 13:0.082 14:0.082 15:0.184 16:0.061 17:0.082 18:0.122 19:0.02 20:0 
-420.9640272494448 1:0.6 2:0.4 3:0.3 4:0 5:0 6:0.041 7:0.082 8:0 9:0.102 10:0 11:0.143 12:0.041 13:0.082 14:0.204 15:0.02 16:0.082 17:0.061 18:0.122 19:0.02 20:0 
-223.8045979297015 1:0.6 2:0.4 3:0.3 4:0.02 5:0.061 6:0.041 7:0 8:0.02 9:0.102 10:0.082 11:0.041 12:0.02 13:0.061 14:0.204 15:0.061 16:0.061 17:0 18:0.041 19:0.184 20:0 
62.08100176517297 1:0.6 2:0.467 3:0.3 4:0 5:0.061 6:0.02 7:0.041 8:0.061 9:0.02 10:0.143 11:0.061 12:0.02 13:0.082 14:0.082 15:0.143 16:0.041 17:0.122 18:0.082 19:0.02 20:0 
768 1:0.6 2:0.467 3:0.3 4:0.02 5:0.061 6:0.02 7:0.02 8:0 9:0.122 10:0.102 11:0.061 12:0.041 13:0.041 14:0.143 15:0.082 16:0.061 17:0.061 18:0.041 19:0.122 20:0 
-768 1:0.6 2:0.467 3:0.3 4:0 5:0.041 6:0.02 7:0.061 8:0 9:0.122 10:0.102 11:0.061 12:0.02 13:0.02 14:0.122 15:0.143 16:0.082 17:0.102 18:0.082 19:0.02 20:0 
-768 1:0.6 2:0.467 3:0.3 4:0.02 5:0.02 6:0.041 7:0.041 8:0 9:0.143 10:0.061 11:0.082 12:0.082 13:0.082 14:0.122 15:0.02 16:0.02 17:0.041 18:0.082 19:0.143 20:0 
-343.0784280992547 1:0.6 2:0.467 3:0.3 4:0.02 5:0 6:0.082 7:0.02 8:0.02 9:0.143 10:0.02 11:0.102 12:0 13:0.041 14:0.122 15:0.143 16:0.082 17:0.082 18:0.102 19:0.02 20:0 
-768 1:0.6 2:0.467 3:0.3 4:0.02 5:0.041 6:0 7:0.041 8:0.041 9:0.061 10:0.02 11:0.163 12:0.02 13:0.041 14:0.224 15:0.041 16:0.02 17:0.143 18:0.082 19:0.041 20:0 
129.647829121241 1:0.6 2:0.467 3:0.3 4:0.02 5:0 6:0.02 7:0.082 8:0.082 9:0.041 10:0.143 11:0.02 12:0.02 13:0.122 14:0.082 15:0.082 16:0 17:0.122 18:0.061 19:0.102 20:0 
136.0496717046665 1:0.6 2:0.467 3:0.3 4:0 5:0.041 6:0 7:0.061 8:0 9:0.02 10:0.224 11:0.041 12:0.041 13:0.061 14:0.082 15:0.143 16:0.082 17:0.143 18:0.02 19:0.041 20:0 
768 1:0.6 2:0.467 3:0.3 4:0.02 5:0.061 6:0.02 7:0.02 8:0.02 9:0.061 10:0.061 11:0.122 12:0 13:0.041 14:0.224 15:0.061 16:0.082 17:0.102 18:0.02 19:0.082 20:0 
-768 1:0.6 2:0.467 3:0.3 4:0 5:0.082 6:0 7:0.041 8:0.02 9:0.041 10:0.061 11:0.163 12:0.02 13:0.122 14:0.122 15:0.041 16:0.082 17:0.02 18:0.143 19:0.041 20:0 
-651.7820270452647 1:0.6 2:0.467 3:0.3 4:0.02 5:0.061 6:0.02 7:0.02 8:0.061 9:0.163 10:0 11:0.041 12:0.02 13:0.041 14:0.082 15:0.184 16:0.02 17:0.02 18:0.224 19:0.02 20:0 
-768 1:0.6 2:0.467 3:0.3 4:0.02 5:0.02 6:0.082 7:0 8:0.02 9:0.143 10:0.082 11:0.041 12:0.082 13:0.041 14:0.122 15:0.061 16:0 17:0.082 18:0.02 19:0.184 20:0 
768 1:0.6 2:0.467 3:0.3 4:0.02 5:0.02 6:0.041 7:0.041 8:0.082 9:0.041 10:0.061 11:0.082 12:0.02 13:0.163 14:0 15:0.143 16:0 17:0.041 18:0.224 19:0.02 20:0 
-42.42959920050679 1:0.6 2:0.5 3:0.3 4:0.02 5:0.041 6:0.041 7:0.02 8:0.02 9:0.02 10:0.082 11:0.163 12:0 13:0.143 14:0.143 15:0.02 16:0.082 17:0.102 18:0.02 19:0.082 20:0 
768 1:0.6 2:0.5 3:0.3 4:0.02 5:0.02 6:0.061 7:0.02 8:0.02 9:0.122 10:0.082 11:0.082 12:0.061 13:0.082 14:0.082 15:0.061 16:0.02 17:0.082 18:0.061 19:0.122 20:0 
-768 1:0.6 2:0.5 3:0.3 4:0 5:0.082 6:0.02 7:0.02 8:0.061 9:0.122 10:0.02 11:0.102 12:0.061 13:0.041 14:0.102 15:0.102 16:0 17:0.061 18:0.143 19:0.061 20:0 
703.0512353512746 1:0.6 2:0.5 3:0.3 4:0.02 5:0.041 6:0.061 7:0 8:0.061 9:0.082 10:0.02 11:0.122 12:0.041 13:0.02 14:0.143 15:0.102 16:0 17:0.163 18:0.082 19:0.041 20:0 
-768 1:0.6 2:0.5 3:0.3 4:0.02 5:0.041 6:0.02 7:0.041 8:0.082 9:0.122 10:0 11:0.102 12:0.02 13:0.122 14:0.102 15:0.041 16:0 17:0.02 18:0.163 19:0.102 20:0 
-191.8457377831267 1:0.6 2:0.5 3:0.3 4:0 5:0.041 6:0 7:0.082 8:0.082 9:0.122 10:0.041 11:0.041 12:0 13:0.061 14:0.143 15:0.102 16:0.041 17:0.082 18:0.122 19:0.041 20:0 
768 1:0.6 2:0.5 3:0.3 4:0.02 5:0 6:0.061 7:0.041 8:0.041 9:0.122 10:0.082 11:0.041 12:0.02 13:0.163 14:0.02 15:0.102 16:0.041 17:0.02 18:0.122 19:0.102 20:0 
-768 1:0.6 2:0.5 3:0.3 4:0.02 5:0.02 6:0.041 7:0.041 8:0.02 9:0.061 10:0.061 11:0.163 12:0.061 13:0.041 14:0.163 15:0.02 16:0 17:0.184 18:0.041 19:0.061 20:0 
768 1:0.6 2:0.5 3:0.3 4:0 5:0 6:0.061 7:0.061 8:0.02 9:0.102 10:0.143 11:0.041 12:0.061 13:0.02 14:0.061 15:0.143 16:0.02 17:0.184 18:0.041 19:0.041 20:0 
768 1:0.6 2:0.5 3:0.3 4:0 5:0.02 6:0.02 7:0.082 8:0.02 9:0.143 10:0.061 11:0.082 12:0.061 13:0.102 14:0.102 15:0.02 16:0.041 17:0.041 18:0.122 19:0.082 20:0 
352.2847213191159 1:0.6 2:0.5 3:0.3 4:0 5:0.02 6:0.061 7:0.041 8:0.041 9:0.041 10:0.143 11:0.061 12:0.02 13:0.184 14:0 15:0.102 16:0.061 17:0.061 18:0.102 19:0.061 20:0 
-252.4652633532308 1:0.6 2:0.5 3:0.3 4:0.02 5:0.082 6:0.02 7:0 8:0.082 9:0.061 10:0.143 11:0.02 12:0 13:0.102 14:0.061 15:0.143 16:0 17:0.061 18:0.082 19:0.122 20:0 
-768 1:0.6 2:0.5 3:0.3 4:0.02 5:0.041 6:0 7:0.061 8:0.02 9:0.082 10:0.041 11:0.163 12:0 13:0.102 14:0.163 15:0.02 16:0.082 17:0.061 18:0.102 19:0.041 20:0 
768 1:0.6 2:0.5 3:0.3 4:0.02 5:0.082 6:0 7:0.02 8:0 9:0.143 10:0.082 11:0.082 12:0.041 13:0.02 14:0.082 15:0.163 16:0.061 17:0.061 18:0.143 19:0 20:0 
604.3641871691009 1:0.6 2:0.5 3:0.3 4:0 5:0 6:0.082 7:0.02 8:0.041 9:0.122 10:0.143 11:0 12:0.082 13:0.061 14:0.02 15:0.143 16:0 17:0.122 18:0.061 19:0.102 20:0 
-349.8916211870772 1:0.6 2:0.5 3:0.3 4:0.02 5:0.041 6:0.02 7:0.041 8:0.061 9:0.082 10:0 11:0.143 12:0.041 13:0.082 14:0.184 15:0 16:0 17:0.102 18:0.102 19:0.082 20:0 
638.7347576646126 1:0.6 2:0.5 3:0.3 4:0 5:0.082 6:0.041 7:0 8:0.041 9:0.082 10:0.143 11:0.02 12:0.082 13:0.061 14:0 15:0.163 16:0 17:0.082 18:0.122 19:0.082 20:0 
-3.026353459164704 1:0.6 2:0.5 3:0.3 4:0 5:0 6:0.082 7:0.041 8:0.082 9:0.041 10:0.082 11:0.082 12:0 13:0.102 14:0.082 15:0.122 16:0.041 17:0.163 18:0.061 19:0.02 20:0 
-692.3514449423139 1:0.6 2:0.567 3:0.3 4:0 5:0.102 6:0.02 7:0 8:0.061 9:0.082 10:0.061 11:0.143 12:0 13:0.082 14:0.061 15:0.102 16:0.061 17:0.082 18:0.102 19:0.041 20:0 
-768 1:0.6 2:0.567 3:0.3 4:0.02 5:0 6:0.041 7:0.061 8:0 9:0.143 10:0.122 11:0.061 12:0.061 13:0.102 14:0.041 15:0.061 16:0.02 17:0.102 18:0.061 19:0.102 20:0 
768 1:0.6 2:0.567 3:0.3 4:0 5:0.02 6:0.061 7:0.041 8:0.082 9:0.143 10:0.061 11:0.061 12:0.02 13:0.143 14:0.02 15:0.061 16:0.02 17:0.02 18:0.122 19:0.122 20:0 
768 1:0.6 2:0.567 3:0.3 4:0 5:0 6:0.041 7:0.082 8:0.02 9:0.102 10:0.082 11:0.122 12:0.041 13:0.184 14:0 15:0.041 16:0.061 17:0.041 18:0.143 19:0.041 20:0 
-768 1:0.6 2:0.567 3:0.3 4:0 5:0.061 6:0.041 7:0.02 8:0.082 9:0.082 10:0.143 11:0.02 12:0 13:0.082 14:0.02 15:0.163 16:0.041 17:0.122 18:0.061 19:0.061 20:0 
-768 1:0.6 2:0.567 3:0.3 4:0 5:0.082 6:0 7:0.041 8:0.061 9:0.041 10:0.082 11:0.163 12:0.02 13:0.041 14:0.122 15:0.061 16:0.041 17:0.163 18:0.061 19:0.02 20:0 
768 1:0.6 2:0.567 3:0.3 4:0 5:0.082 6:0.02 7:0.02 8:0.02 9:0.102 10:0.082 11:0.143 12:0.041 13:0.122 14:0 15:0.102 16:0.061 17:0.02 18:0.163 19:0.02 20:0 
768 1:0.6 2:0.567 3:0.3 4:0 5:0.061 6:0.02 7:0.041 8:0.041 9:0.061 10:0.061 11:0.184 12:0 13:0.163 14:0.061 15:0.02 16:0.082 17:0.061 18:0.122 19:0.02 20:0 
-768 1:0.6 2:0.567 3:0.3 4:0.02 5:0.02 6:0.061 7:0.02 8:0.041 9:0.143 10:0.082 11:0.082 12:0.061 13:0 14:0.102 15:0.082 16:0 17:0.184 18:0.02 19:0.082 20:0 
-543.2848489287038 1:0.6 2:0.567 3:0.3 4:0 5:0.061 6:0 7:0.061 8:0.02 9:0.204 10:0.041 11:0.061 12:0.061 13:0.061 14:0.122 15:0.02 16:0.041 17:0.02 18:0.082 19:0.143 20:0 
768 1:0.6 2:0.567 3:0.3 4:0.02 5:0.02 6:0 7:0.082 8:0.02 9:0.143 10:0.122 11:0.041 12:0.061 13:0.143 14:0 15:0.061 16:0.02 17:0.041 18:0.143 19:0.082 20:0 
-768 1:0.6 2:0.567 3:0.3 4:0.02 5:0.02 6:0.061 7:0.02 8:0.061 9:0.02 10:0.143 11:0.102 12:0.02 13:0.143 14:0.02 15:0.082 16:0.02 17:0.163 18:0.02 19:0.082 20:0 
-768 1:0.6 2:0.567 3:0.3 4:0 5:0.041 6:0 7:0.082 8:0.082 9:0.122 10:0.041 11:0.102 12:0 13:0.082 14:0.143 15:0.02 16:0.041 17:0.102 18:0.082 19:0.061 20:0 
768 1:0.6 2:0.567 3:0.3 4:0 5:0 6:0.061 7:0.061 8:0.041 9:0.122 10:0.061 11:0.122 12:0.041 13:0.143 14:0.061 15:0 16:0.02 17:0.082 18:0.082 19:0.102 20:0 
-768 1:0.6 2:0.567 3:0.3 4:0 5:0 6:0.061 7:0.061 8:0.041 9:0.102 10:0.02 11:0.163 12:0.061 13:0.041 14:0.122 15:0.041 16:0.02 17:0.204 18:0.041 19:0.02 20:0 
-768 1:0.6 2:0.567 3:0.3 4:0.02 5:0.041 6:0.02 7:0.041 8:0.061 9:0.041 10:0.041 11:0.204 12:0.02 13:0.102 14:0.082 15:0.041 16:0.02 17:0.143 18:0.122 19:0 20:0 
-43.63988103519565 1:0.6 2:0.567 3:0.3 4:0.02 5:0.102 6:0 7:0 8:0.02 9:0.061 10:0.204 11:0.041 12:0.02 13:0.041 14:0.041 15:0.163 16:0.061 17:0.143 18:0.02 19:0.061 20:0 
768 1:0.6 2:0.567 3:0.3 4:0.02 5:0.061 6:0.041 7:0 8:0 9:0.184 10:0.041 11:0.122 12:0.02 13:0.041 14:0.163 15:0.02 16:0.082 17:0.061 18:0.02 19:0.122 20:0 
-768 1:0.6 2:0.567 3:0.3 4:0 5:0.102 6:0 7:0.02 8:0.082 9:0.061 10:0.102 11:0.082 12:0 13:0.061 14:0.163 15:0.041 16:0.041 17:0.102 18:0 19:0.143 20:0 
768 1:0.6 2:0.567 3:0.3 4:0 5:0 6:0.061 7:0.061 8:0.02 9:0.265 10:0 11:0.061 12:0.041 13:0.041 14:0.122 15:0.041 16:0.061 17:0.041 18:0.082 19:0.102 20:0 
768 1:0.6 2:0.567 3:0.3 4:0 5:0 6:0.041 7:0.082 8:0.061 9:0.122 10:0.02 11:0.143 12:0.061 13:0.082 14:0.061 15:0.041 16:0 17:0.143 18:0.122 19:0.02 20:0 
768 1:0.6 2:0.567 3:0.3 4:0.02 5:0 6:0.061 7:0.041 8:0.02 9:0.122 10:0.122 11:0.061 12:0 13:0.102 14:0 15:0.163 16:0.082 17:0.122 18:0.082 19:0 20:0 
224.714539898929 1:0.6 2:0.567 3:0.3 4:0 5:0.082 6:0.041 7:0 8:0.02 9:0.184 10:0.143 11:0 12:0.041 13:0.041 14:0.061 15:0.102 16:0.061 17:0.02 18:0.02 19:0.184 20:0 
469.8041308580493 1:0.6 2:0.567 3:0.3 4:0 5:0.082 6:0 7:0.041 8:0.02 9:0.082 10:0.163 11:0.082 12:0.02 13:0.163 14:0 15:0.082 16:0.082 17:0.02 18:0.102 19:0.061 20:0 
768 1:0.6 2:0.567 3:0.3 4:0.02 5:0.061 6:0.02 7:0.02 8:0.041 9:0.02 10:0.061 11:0.224 12:0 13:0.102 14:0.143 15:0 16:0.061 17:0.163 18:0.02 19:0.041 20:0 
768 1:0.6 2:0.6 3:0.3 4:0 5:0.041 6:0 7:0.082 8:0 9:0.143 10:0.102 11:0.122 12:0.061 13:0.061 14:0.082 15:0.02 16:0.061 17:0.102 18:0.061 19:0.061 20:0 
-248.619066209714 1:0.6 2:0.6 3:0.3 4:0.02 5:0.041 6:0.041 7:0.02 8:0.02 9:0.204 10:0.061 11:0.061 12:0.061 13:0.082 14:0.041 15:0.061 16:0.02 17:0.041 18:0.082 19:0.143 20:0 
-768 1:0.6 2:0.6 3:0.3 4:0.02 5:0.061 6:0.02 7:0.02 8:0.082 9:0.02 10:0.061 11:0.204 12:0 13:0.122 14:0.082 15:0.02 16:0.02 17:0.163 18:0.061 19:0.041 20:0 
-768 1:0.6 2:0.6 3:0.3 4:0.02 5:0.041 6:0.02 7:0.041 8:0.041 9:0.163 10:0.082 11:0.082 12:0.02 13:0.02 14:0.143 15:0.041 16:0.041 17:0.143 18:0 19:0.102 20:0 
-768 1:0.6 2:0.6 3:0.3 4:0 5:0.02 6:0.041 7:0.061 8:0.102 9:0.122 10:0.02 11:0.102 12:0 13:0.163 14:0.041 15:0.041 16:0.02 17:0.061 18:0.122 19:0.082 20:0 
-768 1:0.6 2:0.6 3:0.3 4:0 5:0.102 6:0.02 7:0 8:0.041 9:0.082 10:0.143 11:0.082 12:0.041 13:0.041 14:0 15:0.163 16:0.041 17:0.143 18:0.082 19:0.02 20:0 
768 1:0.6 2:0.6 3:0.3 4:0 5:0.082 6:0 7:0.041 8:0.061 9:0.163 10:0.041 11:0.102 12:0 13:0.102 14:0.082 15:0.041 16:0.061 17:0.02 18:0.102 19:0.102 20:0 
-768 1:0.6 2:0.6 3:0.3 4:0.02 5:0 6:0.061 7:0.041 8:0.02 9:0.184 10:0.122 11:0.02 12:0.061 13:0.061 14:0.02 15:0.102 16:0.02 17:0.122 18:0.02 19:0.122 20:0 
359.0948799811264 1:0.6 2:0.6 3:0.3 4:0 5:0.082 6:0 7:0.041 8:0.041 9:0.041 10:0.122 11:0.143 12:0.02 13:0.102 14:0.102 15:0.02 16:0.061 17:0.122 18:0.02 19:0.082 20:0 
463.9230438097891 1:0.6 2:0.6 3:0.3 4:0.02 5:0 6:0.02 7:0.061 8:0.041 9:0.204 10:0.061 11:0.061 12:0.061 13:0.041 14:0.082 15:0.061 16:0 17:0.122 18:0.061 19:0.102 20:0 
-748.2810760927524 1:0.6 2:0.6 3:0.3 4:0.02 5:0.02 6:0.02 7:0.041 8:0.102 9:0.143 10:0.122 11:0 12:0 13:0 14:0.102 15:0.143 16:0 17:0.184 18:0 19:0.102 20:0 
-768 1:0.6 2:0.6 3:0.3 4:0 5:0.082 6:0.041 7:0 8:0.102 9:0.184 10:0.02 11:0.061 12:0.02 13:0.02 14:0.102 15:0.082 16:0 17:0.082 18:0.061 19:0.143 20:0 
605.6727090232115 1:0.6 2:0.6 3:0.3 4:0 5:0.061 6:0 7:0.061 8:0.102 9:0.041 10:0.102 11:0.102 12:0.02 13:0.184 14:0.02 15:0.02 16:0 17:0.082 18:0.122 19:0.082 20:0 
-637.7914035339153 1:0.6 2:0.6 3:0.3 4:0.02 5:0 6:0.061 7:0.041 8:0.02 9:0.204 10:0.041 11:0.082 12:0.02 13:0.163 14:0 15:0.061 16:0.061 17:0 18:0.143 19:0.082 20:0 
706.3677173033861 1:0.6 2:0.6 3:0.3 4:0.02 5:0.082 6:0 7:0.02 8:0.02 9:0.122 10:0.204 11:0 12:0.061 13:0.082 14:0 15:0.102 16:0.02 17:0.082 18:0.02 19:0.163 20:0 
-53.62307702220062 1:0.6 2:0.6 3:0.3 4:0 5:0.082 6:0.041 7:0 8:0.061 9:0.061 10:0.041 11:0.204 12:0.061 13:0.122 14:0.02 15:0.041 16:0 17:0.102 18:0.143 19:0.02 20:0 
181.1719784908403 1:0.6 2:0.6 3:0.3 4:0 5:0 6:0.061 7:0.061 8:0 9:0.082 10:0.061 11:0.204 12:0.041 13:0.122 14:0.082 15:0 16:0.061 17:0.163 18:0.041 19:0.02 20:0 
-768 1:0.6 2:0.6 3:0.3 4:0.02 5:0 6:0.061 7:0.041 8:0.02 9:0.163 10:0.02 11:0.163 12:0.02 13:0.02 14:0.102 15:0.082 16:0.061 17:0.184 18:0.041 19:0 20:0 
-544.152888103309 1:0.6 2:0.6 3:0.3 4:0 5:0.082 6:0.02 7:0.02 8:0.041 9:0 10:0.143 11:0.184 12:0 13:0.204 14:0 15:0.041 16:0.082 17:0.082 18:0.061 19:0.041 20:0 
768 1:0.6 2:0.6 3:0.3 4:0.02 5:0.02 6:0 7:0.082 8:0.02 9:0.082 10:0.184 11:0.061 12:0 13:0.143 14:0 15:0.102 16:0.082 17:0.122 18:0.061 19:0.02 20:0 
768 1:0.6 2:0.667 3:0.3 4:0.02 5:0.061 6:0.02 7:0.02 8:0.102 9:0.122 10:0.061 11:0.102 12:0 13:0.082 14:0.082 15:0.041 16:0 17:0.143 18:0.02 19:0.122 20:0 
-498.3784766148416 1:0.6 2:0.667 3:0.3 4:0 5:0.061 6:0.041 7:0.02 8:0.061 9:0.082 10:0.061 11:0.204 12:0 13:0.102 14:0.061 15:0.02 16:0.061 17:0.163 18:0.02 19:0.041 20:0 
768 1:0.6 2:0.667 3:0.3 4:0.02 5:0.061 6:0.02 7:0.02 8:0.02 9:0.143 10:0.061 11:0.184 12:0 13:0.122 14:0.02 15:0.041 16:0.082 17:0.061 18:0.102 19:0.041 20:0 
768 1:0.6 2:0.667 3:0.3 4:0.02 5:0.102 6:0 7:0 8:0.061 9:0.224 10:0.02 11:0.102 12:0 13:0.041 14:0.041 15:0.122 16:0.041 17:0.041 18:0.143 19:0.041 20:0 
462.9401504183868 1:0.6 2:0.667 3:0.3 4:0.02 5:0.02 6:0.02 7:0.061 8:0.02 9:0.102 10:0.163 11:0.102 12:0.061 13:0.041 14:0 15:0.102 16:0.02 17:0.224 18:0.02 19:0.02 20:0 
768 1:0.6 2:0.667 3:0.3 4:0 5:0.061 6:0.041 7:0.02 8:0 9:0.265 10:0.061 11:0.082 12:0.041 13:0.061 14:0.02 15:0.061 16:0.082 17:0.02 18:0.082 19:0.102 20:0 
768 1:0.6 2:0.667 3:0.3 4:0.02 5:0.02 6:0 7:0.082 8:0.061 9:0.143 10:0.184 11:0 12:0.041 13:0.082 14:0 15:0.082 16:0 17:0.163 18:0 19:0.122 20:0 
-768 1:0.6 2:0.667 3:0.3 4:0 5:0.02 6:0.02 7:0.082 8:0.122 9:0.204 10:0.02 11:0.041 12:0 13:0.122 14:0.02 15:0.061 16:0 17:0.061 18:0.122 19:0.102 20:0 
-768 1:0.6 2:0.667 3:0.3 4:0 5:0.061 6:0.041 7:0.02 8:0.061 9:0.204 10:0.02 11:0.122 12:0.02 13:0 14:0.102 15:0.082 16:0.041 17:0.122 18:0.041 19:0.061 20:0 
-768 1:0.6 2:0.667 3:0.3 4:0.02 5:0.02 6:0.02 7:0.061 8:0 9:0.102 10:0.184 11:0.102 12:0.02 13:0.143 14:0 15:0.041 16:0.082 17:0.122 18:0 19:0.082 20:0 
355.1429711870857 1:0.6 2:0.667 3:0.3 4:0 5:0.02 6:0.041 7:0.041 8:0.041 9:0.265 10:0.082 11:0.02 12:0.041 13:0 14:0.041 15:0.122 16:0.041 17:0.102 18:0.041 19:0.102 20:0 
-571.2172498939447 1:0.6 2:0.667 3:0.3 4:0 5:0.041 6:0 7:0.082 8:0.082 9:0.184 10:0.143 11:0 12:0.02 13:0 14:0.041 15:0.122 16:0 17:0.184 18:0.02 19:0.082 20:0 
-394.7512011693625 1:0.6 2:0.667 3:0.3 4:0 5:0.041 6:0.02 7:0.061 8:0.061 9:0.041 10:0.061 11:0.224 12:0.061 13:0.122 14:0.02 15:0 16:0 17:0.184 18:0.102 19:0 20:0 
-708.4324647265479 1:0.6 2:0.667 3:0.3 4:0 5:0 6:0.041 7:0.082 8:0.102 9:0.122 10:0.082 11:0.082 12:0.02 13:0.163 14:0.02 15:0 16:0 17:0.122 18:0.041 19:0.122 20:0 
768 1:0.6 2:0.667 3:0.3 4:0.02 5:0 6:0.061 7:0.02 8:0.041 9:0.204 10:0.041 11:0.122 12:0.061 13:0.041 14:0.041 15:0.061 16:0 17:0.163 18:0.061 19:0.061 20:0 
-768 1:0.6 2:0.667 3:0.3 4:0.02 5:0 6:0.041 7:0.061 8:0 9:0.163 10:0.041 11:0.184 12:0.041 13:0.122 14:0.041 15:0 16:0.061 17:0.122 18:0.061 19:0.041 20:0 
-768 1:0.6 2:0.667 3:0.3 4:0 5:0.082 6:0 7:0.041 8:0.041 9:0.204 10:0.102 11:0.061 12:0 13:0.02 14:0.041 15:0.143 16:0.082 17:0.082 18:0.061 19:0.041 20:0 
768 1:0.6 2:0.667 3:0.3 4:0 5:0.102 6:0 7:0.02 8:0.061 9:0.204 10:0.02 11:0.122 12:0.041 13:0.061 14:0.082 15:0 16:0.02 17:0.02 18:0.102 19:0.143 20:0 
-768 1:0.6 2:0.667 3:0.3 4:0 5:0.102 6:0 7:0.02 8:0 9:0.122 10:0.102 11:0.163 12:0.061 13:0.143 14:0 15:0 16:0.041 17:0.041 18:0.102 19:0.102 20:0 
768 1:0.6 2:0.667 3:0.3 4:0.02 5:0.082 6:0 7:0.02 8:0.02 9:0.143 10:0.122 11:0.122 12:0 13:0.122 14:0.061 15:0 16:0.082 17:0.041 18:0.02 19:0.143 20:0 
768 1:0.6 2:0.667 3:0.3 4:0.02 5:0.02 6:0 7:0.082 8:0.041 9:0.204 10:0.082 11:0.061 12:0 13:0.102 14:0 15:0.102 16:0.041 17:0.082 18:0.122 19:0.041 20:0 
-648.3517352472911 1:0.6 2:0.667 3:0.3 4:0 5:0.041 6:0.061 7:0.02 8:0.061 9:0.041 10:0.102 11:0.184 12:0.041 13:0.082 14:0.02 15:0.061 16:0.02 17:0.245 18:0.02 19:0 20:0 
-768 1:0.6 2:0.667 3:0.3 4:0 5:0.041 6:0 7:0.082 8:0.02 9:0.224 10:0.02 11:0.143 12:0 13:0.082 14:0.082 15:0.02 16:0.082 17:0.061 18:0.102 19:0.041 20:0 
-768 1:0.6 2:0.667 3:0.3 4:0 5:0.082 6:0.02 7:0.02 8:0 9:0.245 10:0.082 11:0.082 12:0.061 13:0 14:0.082 15:0.041 16:0.061 17:0.061 18:0.02 19:0.143 20:0 
161.8056054060458 1:0.6 2:0.667 3:0.3 4:0 5:0.02 6:0.061 7:0.041 8:0.02 9:0.327 10:0 11:0.061 12:0.061 13:0.041 14:0.061 15:0.02 16:0.041 17:0 18:0.082 19:0.163 20:0 
-768 1:0.6 2:0.667 3:0.3 4:0.02 5:0.041 6:0 7:0.061 8:0.041 9:0.224 10:0.02 11:0.122 12:0.061 13:0.02 14:0.102 15:0 16:0 17:0.102 18:0.082 19:0.102 20:0 
-768 1:0.6 2:0.667 3:0.3 4:0.02 5:0.041 6:0.061 7:0 8:0.041 9:0.122 10:0.061 11:0.184 12:0.061 13:0.061 14:0.082 15:0 16:0 17:0.163 18:0 19:0.102 20:0 
768 1:0.6 2:0.7 3:0.3 4:0 5:0.122 6:0 7:0 8:0.061 9:0.122 10:0.082 11:0.163 12:0.02 13:0.041 14:0.041 15:0.061 16:0.041 17:0.122 18:0.061 19:0.061 20:0 
662.1619765609888 1:0.6 2:0.7 3:0.3 4:0 5:0.082 6:0.02 7:0.02 8:0 9:0.204 10:0.082 11:0.122 12:0.041 13:0.041 14:0.02 15:0.082 16:0.082 17:0.102 18:0.061 19:0.041 20:0 
194.0388602064671 1:0.6 2:0.7 3:0.3 4:0.02 5:0.082 6:0 7:0.02 8:0.02 9:0.143 10:0.061 11:0.204 12:0 13:0.122 14:0.02 15:0.041 16:0.082 17:0.061 18:0.102 19:0.02 20:0 
-768 1:0.6 2:0.7 3:0.3 4:0 5:0.102 6:0 7:0.02 8:0.061 9:0.02 10:0.122 11:0.204 12:0.02 13:0.102 14:0.02 15:0.041 16:0.041 17:0.204 18:0.02 19:0.02 20:0 
-768 1:0.6 2:0.7 3:0.3 4:0.02 5:0.102 6:0 7:0 8:0.061 9:0.143 10:0.122 11:0.082 12:0.041 13:0 14:0.041 15:0.102 16:0 17:0.163 18:0.02 19:0.102 20:0 
-707.7475506122051 1:0.6 2:0.7 3:0.3 4:0 5:0.041 6:0.041 7:0.041 8:0.102 9:0.122 10:0.041 11:0.143 12:0.02 13:0.061 14:0.02 15:0.082 16:0 17:0.204 18:0.082 19:0 20:0 
768 1:0.6 2:0.7 3:0.3 4:0 5:0.082 6:0 7:0.041 8:0.041 9:0.204 10:0.041 11:0.122 12:0 13:0.122 14:0.02 15:0.041 16:0.082 17:0.02 18:0.102 19:0.082 20:0 
768 1:0.6 2:0.7 3:0.3 4:0.02 5:0.02 6:0.041 7:0.041 8:0.02 9:0.265 10:0 11:0.143 12:0.02 13:0 14:0.082 15:0.061 16:0.061 17:0.143 18:0.061 19:0.02 20:0 
-768 1:0.6 2:0.7 3:0.3 4:0.02 5:0.02 6:0 7:0.082 8:0.061 9:0.245 10:0.082 11:0.041 12:0.041 13:0.061 14:0.061 15:0 16:0 17:0.102 18:0.041 19:0.143 20:0 
-768 1:0.6 2:0.7 3:0.3 4:0 5:0.041 6:0.02 7:0.061 8:0.02 9:0.265 10:0.061 11:0.061 12:0.02 13:0.041 14:0 15:0.122 16:0.082 17:0.082 18:0.082 19:0.041 20:0 
-454.4267047303359 1:0.6 2:0.7 3:0.3 4:0 5:0.102 6:0 7:0.02 8:0.102 9:0.184 10:0.041 11:0.102 12:0.02 13:0 14:0.041 15:0.102 16:0 17:0.143 18:0.102 19:0.041 20:0 
768 1:0.6 2:0.7 3:0.3 4:0 5:0.082 6:0.02 7:0.02 8:0.082 9:0.082 10:0.163 11:0.082 12:0 13:0.082 14:0 15:0.102 16:0.041 17:0.184 18:0 19:0.061 20:0 
768 1:0.6 2:0.7 3:0.3 4:0.02 5:0 6:0.02 7:0.082 8:0.061 9:0.163 10:0.02 11:0.163 12:0 13:0.102 14:0.061 15:0.02 16:0.041 17:0.163 18:0.061 19:0.02 20:0 
395.0752218603548 1:0.6 2:0.7 3:0.3 4:0.02 5:0.061 6:0.041 7:0 8:0.061 9:0.224 10:0.082 11:0.041 12:0.02 13:0.041 14:0.061 15:0.061 16:0.02 17:0.082 18:0 19:0.184 20:0 
768 1:0.6 2:0.7 3:0.3 4:0 5:0.02 6:0.041 7:0.061 8:0.122 9:0.082 10:0.122 11:0.082 12:0 13:0.143 14:0 15:0.041 16:0 17:0.184 18:0.02 19:0.082 20:0 
-768 1:0.6 2:0.7 3:0.3 4:0.02 5:0 6:0.02 7:0.082 8:0.082 9:0.245 10:0.02 11:0.082 12:0 13:0.02 14:0.082 15:0.061 16:0.02 17:0.163 18:0.041 19:0.061 20:0 
-768 1:0.6 2:0.7 3:0.3 4:0.02 5:0.082 6:0.02 7:0 8:0 9:0.245 10:0.122 11:0.061 12:0.02 13:0 14:0.041 15:0.102 16:0.082 17:0.102 18:0 19:0.102 20:0 
-149.8777470475756 1:0.6 2:0.767 3:0.3 4:0.02 5:0.041 6:0 7:0.061 8:0.082 9:0.102 10:0.143 11:0.122 12:0 13:0.122 14:0 15:0.02 16:0.02 17:0.184 18:0 19:0.082 20:0 
-768 1:0.6 2:0.767 3:0.3 4:0 5:0.102 6:0.02 7:0 8:0.082 9:0.082 10:0.122 11:0.163 12:0.02 13:0.061 14:0 15:0.061 16:0.02 17:0.204 18:0 19:0.061 20:0 
768 1:0.6 2:0.767 3:0.3 4:0.02 5:0.02 6:0 7:0.082 8:0.041 9:0.306 10:0.02 11:0.082 12:0.041 13:0.02 14:0.041 15:0.041 16:0.02 17:0.122 18:0.082 19:0.061 20:0 
-661.3524076851691 1:0.6 2:0.767 3:0.3 4:0 5:0.082 6:0 7:0.041 8:0.122 9:0.184 10:0.102 11:0.041 12:0 13:0.061 14:0.02 15:0.061 16:0 17:0.143 18:0 19:0.143 20:0 
17.02575139826448 1:0.6 2:0.767 3:0.3 4:0 5:0 6:0.041 7:0.082 8:0.02 9:0.224 10:0.061 11:0.163 12:0 13:0.143 14:0 15:0 16:0.082 17:0.102 18:0.041 19:0.041 20:0 
5.598830234070499 1:0.6 2:0.767 3:0.3 4:0.02 5:0.061 6:0.041 7:0 8:0 9:0.184 10:0.061 11:0.224 12:0 13:0.102 14:0 15:0.041 16:0.082 17:0.122 18:0.041 19:0.02 20:0 
768 1:0.6 2:0.767 3:0.3 4:0.02 5:0.02 6:0 7:0.082 8:0.041 9:0.245 10:0.122 11:0.041 12:0.02 13:0.122 14:0 15:0 16:0.041 17:0.082 18:0 19:0.163 20:0 
-648.7080112496349 1:0.6 2:0.767 3:0.3 4:0 5:0.041 6:0.02 7:0.061 8:0.122 9:0.102 10:0.102 11:0.143 12:0 13:0.061 14:0 15:0.061 16:0 17:0.265 18:0 19:0.02 20:0 
768 1:0.6 2:0.767 3:0.3 4:0.02 5:0.02 6:0.041 7:0.041 8:0.102 9:0.286 10:0.041 11:0.041 12:0 13:0.02 14:0.041 15:0.061 16:0 17:0.143 18:0.02 19:0.122 20:0 
358.750739672244 1:0.6 2:0.767 3:0.3 4:0 5:0.041 6:0 7:0.082 8:0.082 9:0.184 10:0.143 11:0.041 12:0.02 13:0.041 14:0 15:0.082 16:0.02 17:0.204 18:0 19:0.061 20:0 
768 1:0.6 2:0.767 3:0.3 4:0 5:0.102 6:0 7:0.02 8:0.041 9:0.204 10:0.143 11:0.061 12:0 13:0.122 14:0 15:0.02 16:0.061 17:0.041 18:0 19:0.184 20:0 
768 1:0.6 2:0.8 3:0.3 4:0.02 5:0.061 6:0.02 7:0.02 8:0.082 9:0.245 10:0.082 11:0.082 12:0 13:0 14:0.02 15:0.082 16:0 17:0.184 18:0 19:0.102 20:0 
390.6944503798999 1:0.6 2:0.8 3:0.3 4:0.02 5:0.02 6:0 7:0.082 8:0.102 9:0.265 10:0.061 11:0.061 12:0 13:0.122 14:0 15:0 16:0 17:0.061 18:0.061 19:0.143 20:0 
-566.9275236547059 1:0.6 2:0.8 3:0.3 4:0 5:0.122 6:0 7:0 8:0.061 9:0.286 10:0.061 11:0.082 12:0.02 13:0.061 14:0 15:0.02 16:0.041 17:0 18:0.061 19:0.184 20:0 
-28.83764693383207 1:0.6 2:0.8 3:0.3 4:0 5:0.122 6:0 7:0 8:0.041 9:0.184 10:0.122 11:0.122 12:0.02 13:0.02 14:0 15:0.082 16:0.061 17:0.143 18:0 19:0.082 20:0 
-110.9117281939734 1:0.6 2:0.8 3:0.3 4:0.02 5:0.061 6:0.02 7:0.02 8:0.02 9:0.204 10:0 11:0.265 12:0.02 13:0.061 14:0.02 15:0 16:0.061 17:0.163 18:0.061 19:0 20:0 
-182.7626625509303 1:0.6 2:0.2 3:0.35 4:0.041 5:0 6:0.082 7:0.02 8:0.041 9:0 10:0.041 11:0.041 12:0 13:0.102 14:0.265 15:0.102 16:0.061 17:0 18:0.102 19:0.102 20:0 
190.4370343371771 1:0.6 2:0.2 3:0.35 4:0 5:0.02 6:0.122 7:0 8:0 9:0 10:0.122 11:0 12:0.061 13:0.041 14:0.143 15:0.224 16:0.082 17:0.061 18:0.102 19:0.02 20:0 
-120.041288624917 1:0.6 2:0.267 3:0.35 4:0.041 5:0 6:0.041 7:0.061 8:0 9:0.061 10:0.061 11:0.041 12:0.041 13:0.102 14:0.163 15:0.122 16:0.041 17:0 18:0.184 19:0.041 20:0 
-628.6857065488725 1:0.6 2:0.267 3:0.35 4:0.041 5:0.02 6:0 7:0.061 8:0 9:0 10:0.082 11:0.082 12:0.082 13:0.122 14:0.184 15:0.061 16:0 17:0.02 18:0.184 19:0.061 20:0 
-768 1:0.6 2:0.267 3:0.35 4:0.041 5:0.02 6:0.061 7:0.02 8:0.041 9:0.061 10:0.041 11:0 12:0.041 13:0.02 14:0.163 15:0.224 16:0 17:0.061 18:0.184 19:0.02 20:0 
299.5515883099918 1:0.6 2:0.3 3:0.35 4:0.041 5:0.061 6:0.02 7:0.02 8:0.02 9:0.02 10:0.102 11:0.02 12:0.061 13:0.082 14:0.163 15:0.122 16:0 17:0.02 18:0.143 19:0.102 20:0 
-265.1382403886121 1:0.6 2:0.3 3:0.35 4:0 5:0.02 6:0.041 7:0.082 8:0.041 9:0.082 10:0 11:0.061 12:0.041 13:0.082 14:0.184 15:0.102 16:0.061 17:0 18:0.184 19:0.02 20:0 
625.4813452179044 1:0.6 2:0.3 3:0.35 4:0 5:0 6:0.122 7:0.02 8:0.041 9:0.041 10:0 11:0.102 12:0.061 13:0.041 14:0.265 15:0.061 16:0.041 17:0.102 18:0.041 19:0.061 20:0 
430.2625856723114 1:0.6 2:0.3 3:0.35 4:0 5:0 6:0.082 7:0.061 8:0 9:0.02 10:0.102 11:0.041 12:0.143 13:0.061 14:0.204 15:0.02 16:0 17:0.102 18:0.041 19:0.122 20:0 
-768 1:0.6 2:0.3 3:0.35 4:0.02 5:0.061 6:0.041 7:0.02 8:0.041 9:0.02 10:0.02 11:0.082 12:0.082 13:0.082 14:0.245 15:0.02 16:0 17:0.02 18:0.102 19:0.143 20:0 
-31.68789677166531 1:0.6 2:0.3 3:0.35 4:0 5:0.041 6:0.041 7:0.061 8:0 9:0.061 10:0.02 11:0.082 12:0.061 13:0.082 14:0.245 15:0.041 16:0.082 17:0 18:0.122 19:0.061 20:0 
511.7559815068919 1:0.6 2:0.367 3:0.35 4:0 5:0.041 6:0.041 7:0.061 8:0.041 9:0.041 10:0.061 11:0.082 12:0.02 13:0.143 14:0.163 15:0.061 16:0.082 17:0 18:0.122 19:0.041 20:0 
-768 1:0.6 2:0.367 3:0.35 4:0.02 5:0.041 6:0.041 7:0.041 8:0.061 9:0.041 10:0.041 11:0.061 12:0.02 13:0.061 14:0.265 15:0.041 16:0.041 17:0.082 18:0.041 19:0.102 20:0 
-625.774980104601 1:0.6 2:0.367 3:0.35 4:0.02 5:0.02 6:0.102 7:0 8:0.041 9:0.122 10:0.041 11:0.02 12:0.02 13:0.041 14:0.184 15:0.122 16:0.061 17:0.041 18:0.041 19:0.122 20:0 
768 1:0.6 2:0.367 3:0.35 4:0.02 5:0.061 6:0.02 7:0.041 8:0 9:0.02 10:0.061 11:0.143 12:0.102 13:0.041 14:0.204 15:0.02 16:0.02 17:0.102 18:0.082 19:0.061 20:0 
515.7819285924911 1:0.6 2:0.367 3:0.35 4:0.02 5:0.02 6:0.02 7:0.061 8:0 9:0 10:0.143 11:0.082 12:0.122 13:0.061 14:0.143 15:0.061 16:0 17:0.143 18:0.082 19:0.041 20:0 
-217.9332440103295 1:0.6 2:0.367 3:0.35 4:0.041 5:0 6:0.061 7:0.041 8:0.061 9:0.041 10:0 11:0.122 12:0.02 13:0.122 14:0.143 15:0.082 16:0.02 17:0.041 18:0.184 19:0.02 20:0 
-768 1:0.6 2:0.367 3:0.35 4:0.02 5:0.041 6:0.02 7:0.061 8:0.041 9:0.041 10:0.143 11:0 12:0.02 13:0.143 14:0.041 15:0.163 16:0.061 17:0 18:0.163 19:0.041 20:0 
-768 1:0.6 2:0.367 3:0.35 4:0.02 5:0.061 6:0.041 7:0 8:0.061 9:0.061 10:0.02 11:0.082 12:0.041 13:0.082 14:0.082 15:0.184 16:0.02 17:0.02 18:0.224 19:0 20:0 
-369.5996285282192 1:0.6 2:0.367 3:0.35 4:0.041 5:0 6:0.061 7:0.041 8:0.02 9:0.061 10:0.143 11:0 12:0.061 13:0.02 14:0.102 15:0.184 16:0.02 17:0.143 18:0.061 19:0.041 20:0 
-395.2471584716941 1:0.6 2:0.367 3:0.35 4:0.02 5:0 6:0.061 7:0.061 8:0.061 9:0.102 10:0.02 11:0.02 12:0 13:0.061 14:0.143 15:0.184 16:0.041 17:0.061 18:0.163 19:0 20:0 
768 1:0.6 2:0.367 3:0.35 4:0.02 5:0.041 6:0 7:0.082 8:0 9:0.041 10:0.061 11:0.102 12:0.02 13:0.061 14:0.245 15:0.061 16:0.082 17:0.082 18:0.082 19:0.02 20:0 
768 1:0.6 2:0.4 3:0.35 4:0.041 5:0.02 6:0.082 7:0 8:0.02 9:0.122 10:0.061 11:0.041 12:0.061 13:0.082 14:0.082 15:0.122 16:0.02 17:0.02 18:0.143 19:0.082 20:0 
768 1:0.6 2:0.4 3:0.35 4:0.02 5:0.061 6:0.041 7:0.02 8:0.061 9:0.082 10:0.02 11:0.082 12:0.061 13:0.061 14:0.143 15:0.082 16:0 17:0.041 18:0.163 19:0.061 20:0 
-405.4984138093205 1:0.6 2:0.4 3:0.35 4:0.02 5:0 6:0.041 7:0.082 8:0.082 9:0.02 10:0.102 11:0.02 12:0.02 13:0.122 14:0.163 15:0.061 16:0.02 17:0.102 18:0.061 19:0.082 20:0 
-768 1:0.6 2:0.4 3:0.35 4:0 5:0.041 6:0.061 7:0.041 8:0.041 9:0.061 10:0.061 11:0.061 12:0.082 13:0.061 14:0.204 15:0.02 16:0.02 17:0.082 18:0.02 19:0.143 20:0 
-768 1:0.6 2:0.4 3:0.35 4:0.02 5:0.082 6:0 7:0.041 8:0.02 9:0.041 10:0.082 11:0.082 12:0.041 13:0.02 14:0.265 15:0.041 16:0.061 17:0.082 18:0.02 19:0.102 20:0 
768 1:0.6 2:0.4 3:0.35 4:0.02 5:0 6:0.082 7:0.041 8:0.061 9:0.122 10:0.02 11:0.041 12:0 13:0.082 14:0.143 15:0.122 16:0.061 17:0.041 18:0.102 19:0.061 20:0 
-768 1:0.6 2:0.4 3:0.35 4:0 5:0 6:0.102 7:0.041 8:0 9:0.102 10:0.041 11:0.102 12:0.061 13:0.102 14:0.122 15:0.061 16:0.082 17:0.041 18:0.082 19:0.061 20:0 
768 1:0.6 2:0.4 3:0.35 4:0.02 5:0 6:0.041 7:0.082 8:0.041 9:0.122 10:0.02 11:0.061 12:0.061 13:0.041 14:0.184 15:0.061 16:0.02 17:0.082 18:0.122 19:0.041 20:0 
768 1:0.6 2:0.4 3:0.35 4:0.041 5:0.041 6:0.061 7:0 8:0.02 9:0.061 10:0.02 11:0.143 12:0.02 13:0.082 14:0.143 15:0.102 16:0.061 17:0.061 18:0.122 19:0.02 20:0 
768 1:0.6 2:0.4 3:0.35 4:0.041 5:0.082 6:0 7:0.02 8:0.061 9:0.041 10:0.082 11:0.061 12:0.041 13:0.122 14:0.143 15:0.041 16:0 17:0 18:0.143 19:0.122 20:0 
-768 1:0.6 2:0.4 3:0.35 4:0.041 5:0 6:0.02 7:0.082 8:0 9:0.082 10:0.041 11:0.122 12:0.061 13:0.122 14:0.163 15:0 16:0.041 17:0.041 18:0.143 19:0.041 20:0 
390.7093103296745 1:0.6 2:0.4 3:0.35 4:0.041 5:0.041 6:0.061 7:0 8:0.02 9:0.122 10:0.02 11:0.061 12:0.082 13:0.02 14:0.184 15:0.082 16:0 17:0.041 18:0.102 19:0.122 20:0 
357.1336744563634 1:0.6 2:0.4 3:0.35 4:0 5:0.061 6:0 7:0.061 8:0.082 9:0.041 10:0.02 11:0.102 12:0 13:0.143 14:0.143 15:0.082 16:0.061 17:0 18:0.184 19:0.02 20:0 
768 1:0.6 2:0.4 3:0.35 4:0 5:0.02 6:0.041 7:0.082 8:0.061 9:0.102 10:0.061 11:0 12:0 13:0.041 14:0.204 15:0.122 16:0.061 17:0.082 18:0.061 19:0.061 20:0 
-768 1:0.6 2:0.467 3:0.35 4:0 5:0.02 6:0.082 7:0.041 8:0.041 9:0.163 10:0.02 11:0.061 12:0.041 13:0.061 14:0.102 15:0.102 16:0.041 17:0.041 18:0.122 19:0.061 20:0 
-313.1536362011317 1:0.6 2:0.467 3:0.35 4:0.041 5:0.061 6:0.02 7:0.02 8:0 9:0.122 10:0.143 11:0.02 12:0.061 13:0.041 14:0.122 15:0.082 16:0.041 17:0.061 18:0.041 19:0.122 20:0 
-768 1:0.6 2:0.467 3:0.35 4:0 5:0.041 6:0.02 7:0.082 8:0.061 9:0.143 10:0.041 11:0.041 12:0 13:0.041 14:0.163 15:0.122 16:0.061 17:0.061 18:0.102 19:0.02 20:0 
768 1:0.6 2:0.467 3:0.35 4:0.041 5:0 6:0.102 7:0 8:0.02 9:0.122 10:0.061 11:0.082 12:0.061 13:0.061 14:0.102 15:0.082 16:0.02 17:0.102 18:0.061 19:0.082 20:0 
768 1:0.6 2:0.467 3:0.35 4:0 5:0.02 6:0.102 7:0.02 8:0 9:0.102 10:0.122 11:0.061 12:0.061 13:0.122 14:0.02 15:0.102 16:0.082 17:0.041 18:0.061 19:0.082 20:0 
768 1:0.6 2:0.467 3:0.35 4:0.041 5:0.02 6:0.02 7:0.061 8:0.061 9:0.041 10:0.122 11:0.041 12:0 13:0.061 14:0.184 15:0.082 16:0.041 17:0.163 18:0 19:0.061 20:0 
768 1:0.6 2:0.467 3:0.35 4:0 5:0.041 6:0.082 7:0.02 8:0.02 9:0.122 10:0.143 11:0 12:0.041 13:0.041 14:0.082 15:0.143 16:0.082 17:0.082 18:0 19:0.102 20:0 
768 1:0.6 2:0.467 3:0.35 4:0.02 5:0.041 6:0 7:0.082 8:0 9:0.082 10:0.102 11:0.102 12:0.061 13:0.122 14:0.082 15:0.041 16:0.061 17:0.041 18:0.122 19:0.041 20:0 
-768 1:0.6 2:0.467 3:0.35 4:0.02 5:0.082 6:0.041 7:0 8:0.082 9:0.061 10:0.041 11:0.102 12:0 13:0.041 14:0.184 15:0.082 16:0.041 17:0.102 18:0.061 19:0.061 20:0 
553.4073779009162 1:0.6 2:0.467 3:0.35 4:0 5:0 6:0.082 7:0.061 8:0.041 9:0.061 10:0.102 11:0.082 12:0.102 13:0.061 14:0.061 15:0.082 16:0 17:0.163 18:0.061 19:0.041 20:0 
-768 1:0.6 2:0.467 3:0.35 4:0.041 5:0.061 6:0 7:0.041 8:0.061 9:0.122 10:0 11:0.102 12:0.02 13:0.102 14:0.143 15:0.041 16:0.02 17:0 18:0.184 19:0.061 20:0 
-768 1:0.6 2:0.467 3:0.35 4:0 5:0.041 6:0.02 7:0.082 8:0.061 9:0.02 10:0.102 11:0.102 12:0.041 13:0.061 14:0.122 15:0.082 16:0.041 17:0.163 18:0.061 19:0 20:0 
768 1:0.6 2:0.467 3:0.35 4:0 5:0.061 6:0 7:0.082 8:0.041 9:0.082 10:0.061 11:0.082 12:0.02 13:0.041 14:0.204 15:0.061 16:0.082 17:0.102 18:0.061 19:0.02 20:0 
-768 1:0.6 2:0.467 3:0.35 4:0 5:0.02 6:0.041 7:0.082 8:0.02 9:0.163 10:0.082 11:0.02 12:0.102 13:0 14:0.102 15:0.102 16:0.02 17:0.102 18:0.102 19:0.041 20:0 
-768 1:0.6 2:0.467 3:0.35 4:0.02 5:0.02 6:0.02 7:0.082 8:0.082 9:0.122 10:0.061 11:0.02 12:0.041 13:0 14:0.184 15:0.082 16:0 17:0.143 18:0.041 19:0.082 20:0 
-768 1:0.6 2:0.467 3:0.35 4:0.041 5:0.061 6:0.041 7:0 8:0.041 9:0.082 10:0.02 11:0.143 12:0.041 13:0.061 14:0.204 15:0 16:0.02 17:0.082 18:0.041 19:0.122 20:0 
537.7913626111067 1:0.6 2:0.467 3:0.35 4:0 5:0.082 6:0 7:0.061 8:0.02 9:0.061 10:0.082 11:0.122 12:0.102 13:0.02 14:0.143 15:0.041 16:0.02 17:0.122 18:0.082 19:0.041 20:0 
-768 1:0.6 2:0.467 3:0.35 4:0.041 5:0 6:0.082 7:0.02 8:0.061 9:0.122 10:0.061 11:0.041 12:0 13:0.143 14:0.082 15:0.082 16:0.041 17:0 18:0.102 19:0.122 20:0 
-768 1:0.6 2:0.467 3:0.35 4:0.02 5:0.02 6:0.082 7:0.02 8:0.061 9:0.184 10:0 11:0.041 12:0.02 13:0 14:0.122 15:0.184 16:0.02 17:0.082 18:0.122 19:0.02 20:0 
550.4044977925456 1:0.6 2:0.467 3:0.35 4:0 5:0 6:0.102 7:0.041 8:0.02 9:0.02 10:0.061 11:0.184 12:0.041 13:0.102 14:0.143 15:0.02 16:0.082 17:0.163 18:0 19:0.02 20:0 
657.7061194566313 1:0.6 2:0.467 3:0.35 4:0.041 5:0.02 6:0.082 7:0 8:0.082 9:0.061 10:0.102 11:0.041 12:0.02 13:0.041 14:0.143 15:0.102 16:0 17:0.143 18:0 19:0.122 20:0 
768 1:0.6 2:0.467 3:0.35 4:0.041 5:0.02 6:0.082 7:0 8:0 9:0.102 10:0.082 11:0.102 12:0.061 13:0 14:0.082 15:0.163 16:0.041 17:0.163 18:0.061 19:0 20:0 
768 1:0.6 2:0.5 3:0.35 4:0 5:0.041 6:0.061 7:0.041 8:0.041 9:0.102 10:0.082 11:0.082 12:0.061 13:0.082 14:0.102 15:0.041 16:0.02 17:0.082 18:0.061 19:0.102 20:0 
768 1:0.6 2:0.5 3:0.35 4:0 5:0.041 6:0.061 7:0.041 8:0.02 9:0.184 10:0 11:0.102 12:0.061 13:0.041 14:0.122 15:0.061 16:0.061 17:0.041 18:0.102 19:0.061 20:0 
768 1:0.6 2:0.5 3:0.35 4:0 5:0.061 6:0.061 7:0.02 8:0.082 9:0.122 10:0.061 11:0.041 12:0 13:0.061 14:0.102 15:0.122 16:0.061 17:0.061 18:0.061 19:0.082 20:0 
-768 1:0.6 2:0.5 3:0.35 4:0.02 5:0.061 6:0.02 7:0.041 8:0.041 9:0.082 10:0.061 11:0.102 12:0.02 13:0.041 14:0.143 15:0.102 16:0.061 17:0.122 18:0.061 19:0.02 20:0 
-434.8309125587307 1:0.6 2:0.5 3:0.35 4:0 5:0.061 6:0.02 7:0.061 8:0.02 9:0.102 10:0.061 11:0.122 12:0.082 13:0.061 14:0.102 15:0.041 16:0.041 17:0.082 18:0.122 19:0.02 20:0 
-63.69311004627573 1:0.6 2:0.5 3:0.35 4:0.041 5:0 6:0.082 7:0.02 8:0.061 9:0.041 10:0.122 11:0.082 12:0.02 13:0.122 14:0.041 15:0.102 16:0.02 17:0.143 18:0.041 19:0.061 20:0 
-768 1:0.6 2:0.5 3:0.35 4:0.02 5:0.061 6:0.061 7:0 8:0.02 9:0.041 10:0.122 11:0.122 12:0.061 13:0.041 14:0.122 15:0.061 16:0.041 17:0.143 18:0 19:0.082 20:0 
213.4095737007559 1:0.6 2:0.5 3:0.35 4:0 5:0.061 6:0.082 7:0 8:0.082 9:0.102 10:0.02 11:0.082 12:0.02 13:0 14:0.163 15:0.122 16:0.041 17:0.143 18:0.02 19:0.061 20:0 
-768 1:0.6 2:0.5 3:0.35 4:0.02 5:0.082 6:0 7:0.041 8:0.102 9:0.061 10:0.082 11:0.041 12:0.02 13:0.082 14:0.102 15:0.102 16:0 17:0.082 18:0.102 19:0.082 20:0 
-388.8021790575133 1:0.6 2:0.5 3:0.35 4:0 5:0.041 6:0.102 7:0 8:0.082 9:0.061 10:0.061 11:0.082 12:0.041 13:0.122 14:0.02 15:0.122 16:0.02 17:0.061 18:0.122 19:0.061 20:0 
768 1:0.6 2:0.5 3:0.35 4:0.02 5:0.041 6:0.082 7:0 8:0.041 9:0.122 10:0.122 11:0.02 12:0.082 13:0.041 14:0.02 15:0.143 16:0 17:0.102 18:0.082 19:0.082 20:0 
768 1:0.6 2:0.5 3:0.35 4:0 5:0.02 6:0.061 7:0.061 8:0.082 9:0.061 10:0.143 11:0.02 12:0 13:0.122 14:0 15:0.163 16:0.061 17:0.102 18:0.102 19:0 20:0 
768 1:0.6 2:0.5 3:0.35 4:0.02 5:0 6:0.102 7:0.02 8:0.02 9:0.204 10:0.061 11:0.02 12:0.041 13:0.061 14:0.061 15:0.122 16:0.061 17:0.041 18:0.061 19:0.102 20:0 
768 1:0.6 2:0.5 3:0.35 4:0 5:0.061 6:0 7:0.082 8:0.102 9:0 10:0.184 11:0 12:0.02 13:0.102 14:0.082 15:0.102 16:0.02 17:0.143 18:0.041 19:0.061 20:0 
327.304408654064 1:0.6 2:0.5 3:0.35 4:0.02 5:0.02 6:0.02 7:0.082 8:0.082 9:0.102 10:0.061 11:0.041 12:0.041 13:0.02 14:0.163 15:0.082 16:0 17:0.143 18:0.061 19:0.061 20:0 
-364.60846165865 1:0.6 2:0.5 3:0.35 4:0 5:0.02 6:0.061 7:0.061 8:0.041 9:0.041 10:0.102 11:0.102 12:0.02 13:0.143 14:0.122 15:0.02 16:0.082 17:0.102 18:0 19:0.082 20:0 
354.1460008006571 1:0.6 2:0.5 3:0.35 4:0 5:0 6:0.082 7:0.061 8:0 9:0.082 10:0.061 11:0.143 12:0.102 13:0.163 14:0.02 15:0.02 16:0.041 17:0.061 18:0.122 19:0.041 20:0 
-300.5797728525184 1:0.6 2:0.5 3:0.35 4:0 5:0.041 6:0.061 7:0.041 8:0.082 9:0.163 10:0 11:0.061 12:0.041 13:0.061 14:0.061 15:0.122 16:0.02 17:0.041 18:0.184 19:0.02 20:0 
-414.1597472961153 1:0.6 2:0.5 3:0.35 4:0.041 5:0.061 6:0.02 7:0 8:0.041 9:0.041 10:0.082 11:0.143 12:0 13:0.143 14:0.061 15:0.102 16:0.061 17:0.041 18:0.143 19:0.02 20:0 
-768 1:0.6 2:0.5 3:0.35 4:0.041 5:0.02 6:0 7:0.082 8:0 9:0.102 10:0.143 11:0.061 12:0.082 13:0.061 14:0.143 15:0 16:0.02 17:0.102 18:0.02 19:0.122 20:0 
-768 1:0.6 2:0.5 3:0.35 4:0 5:0 6:0.102 7:0.041 8:0 9:0.061 10:0.122 11:0.102 12:0.061 13:0.143 14:0.041 15:0.061 16:0.082 17:0.082 18:0.041 19:0.061 20:0 
-283.4193679310978 1:0.6 2:0.5 3:0.35 4:0.02 5:0.082 6:0.041 7:0 8:0 9:0.143 10:0.082 11:0.082 12:0.02 13:0.02 14:0.163 15:0.102 16:0.082 17:0.061 18:0.02 19:0.082 20:0 
243.560231484609 1:0.6 2:0.5 3:0.35 4:0.02 5:0.041 6:0.02 7:0.061 8:0.102 9:0.061 10:0.041 11:0.082 12:0.02 13:0.184 14:0.082 15:0.02 16:0 17:0 18:0.163 19:0.102 20:0 
-525.1618503691619 1:0.6 2:0.5 3:0.35 4:0 5:0.102 6:0.041 7:0 8:0.02 9:0.061 10:0.102 11:0.122 12:0.041 13:0.102 14:0.122 15:0.02 16:0.082 17:0.041 18:0.02 19:0.122 20:0 
-597.1511565265941 1:0.6 2:0.5 3:0.35 4:0 5:0.082 6:0 7:0.061 8:0.082 9:0.082 10:0.082 11:0.041 12:0.041 13:0.122 14:0.122 15:0.02 16:0.02 17:0 18:0.102 19:0.143 20:0 
-143.0659822777518 1:0.6 2:0.5 3:0.35 4:0.02 5:0.02 6:0.061 7:0.041 8:0.061 9:0.143 10:0 11:0.082 12:0.041 13:0 14:0.143 15:0.122 16:0 17:0.143 18:0.102 19:0.02 20:0 
768 1:0.6 2:0.5 3:0.35 4:0 5:0.082 6:0 7:0.061 8:0.102 9:0.082 10:0 11:0.102 12:0.02 13:0.02 14:0.184 15:0.082 16:0.02 17:0.102 18:0.122 19:0.02 20:0 
-768 1:0.6 2:0.567 3:0.35 4:0.041 5:0 6:0.061 7:0.041 8:0.082 9:0.102 10:0.102 11:0.061 12:0.02 13:0.143 14:0.061 15:0.02 16:0 17:0.102 18:0.041 19:0.122 20:0 
768 1:0.6 2:0.567 3:0.35 4:0.041 5:0.102 6:0 7:0 8:0.041 9:0.102 10:0.061 11:0.143 12:0 13:0.061 14:0.122 15:0.061 16:0.061 17:0.082 18:0.061 19:0.061 20:0 
-643.9438607082947 1:0.6 2:0.567 3:0.35 4:0 5:0.102 6:0 7:0.041 8:0.041 9:0.061 10:0.082 11:0.143 12:0.061 13:0.122 14:0.041 15:0.041 16:0.041 17:0.041 18:0.143 19:0.041 20:0 
768 1:0.6 2:0.567 3:0.35 4:0.041 5:0.041 6:0.02 7:0.041 8:0.041 9:0.224 10:0.02 11:0.061 12:0.02 13:0.041 14:0.061 15:0.122 16:0.02 17:0.041 18:0.163 19:0.041 20:0 
768 1:0.6 2:0.567 3:0.35 4:0 5:0.061 6:0 7:0.082 8:0.082 9:0.041 10:0.143 11:0.061 12:0.041 13:0.102 14:0.102 15:0.02 16:0.02 17:0.122 18:0.02 19:0.102 20:0 
768 1:0.6 2:0.567 3:0.35 4:0.02 5:0.061 6:0.02 7:0.041 8:0.061 9:0.102 10:0 11:0.184 12:0.02 13:0.102 14:0.122 15:0 16:0.02 17:0.082 18:0.122 19:0.041 20:0 
-768 1:0.6 2:0.567 3:0.35 4:0.041 5:0.061 6:0.041 7:0 8:0.061 9:0.163 10:0.02 11:0.102 12:0.041 13:0.02 14:0.122 15:0.061 16:0 17:0.102 18:0.082 19:0.082 20:0 
-768 1:0.6 2:0.567 3:0.35 4:0 5:0.061 6:0.02 7:0.061 8:0.061 9:0.122 10:0.143 11:0.02 12:0.02 13:0.102 14:0.082 15:0.041 16:0.041 17:0.061 18:0.02 19:0.143 20:0 
-768 1:0.6 2:0.567 3:0.35 4:0.041 5:0.02 6:0.082 7:0 8:0.02 9:0.102 10:0.102 11:0.102 12:0 13:0.102 14:0.02 15:0.143 16:0.061 17:0.122 18:0.061 19:0.02 20:0 
768 1:0.6 2:0.567 3:0.35 4:0.041 5:0.041 6:0 7:0.061 8:0.082 9:0.143 10:0.061 11:0.061 12:0.02 13:0.082 14:0.143 15:0 16:0 17:0.082 18:0.061 19:0.122 20:0 
-768 1:0.6 2:0.567 3:0.35 4:0.041 5:0.041 6:0 7:0.061 8:0.02 9:0.143 10:0.122 11:0.061 12:0.061 13:0.061 14:0 15:0.122 16:0.02 17:0.102 18:0.143 19:0 20:0 
768 1:0.6 2:0.567 3:0.35 4:0 5:0.061 6:0 7:0.082 8:0.02 9:0.163 10:0.061 11:0.102 12:0.041 13:0.02 14:0.143 15:0.061 16:0.082 17:0.102 18:0.041 19:0.02 20:0 
-125.1915343056368 1:0.6 2:0.567 3:0.35 4:0 5:0.082 6:0.061 7:0 8:0.061 9:0.061 10:0.02 11:0.204 12:0.02 13:0.184 14:0.041 15:0.02 16:0.061 17:0.02 18:0.122 19:0.041 20:0 
-8.53027295799615 1:0.6 2:0.567 3:0.35 4:0.041 5:0 6:0.082 7:0.02 8:0.082 9:0.163 10:0.02 11:0.082 12:0 13:0.102 14:0.082 15:0.061 16:0.02 17:0.082 18:0.061 19:0.102 20:0 
-51.26159441738611 1:0.6 2:0.567 3:0.35 4:0 5:0.102 6:0.02 7:0.02 8:0 9:0.224 10:0.041 11:0.061 12:0.041 13:0 14:0.143 15:0.082 16:0.082 17:0.02 18:0.061 19:0.102 20:0 
768 1:0.6 2:0.567 3:0.35 4:0 5:0.061 6:0.061 7:0.02 8:0.061 9:0.082 10:0.02 11:0.184 12:0.082 13:0.041 14:0.082 15:0.041 16:0 17:0.163 18:0.082 19:0.02 20:0 
-210.7977014843639 1:0.6 2:0.567 3:0.35 4:0.041 5:0.082 6:0 7:0.02 8:0.02 9:0.122 10:0.102 11:0.082 12:0 13:0.102 14:0.02 15:0.143 16:0.082 17:0.041 18:0.122 19:0.02 20:0 
768 1:0.6 2:0.567 3:0.35 4:0.02 5:0.061 6:0.061 7:0 8:0.061 9:0.102 10:0.041 11:0.122 12:0 13:0.02 14:0.122 15:0.122 16:0.041 17:0.163 18:0.041 19:0.02 20:0 
-226.6752762244595 1:0.6 2:0.567 3:0.35 4:0 5:0.041 6:0.082 7:0.02 8:0.061 9:0.143 10:0.041 11:0.082 12:0 13:0.143 14:0.02 15:0.102 16:0.082 17:0 18:0.122 19:0.061 20:0 
768 1:0.6 2:0.567 3:0.35 4:0 5:0.061 6:0.041 7:0.041 8:0 9:0.143 10:0.082 11:0.122 12:0.061 13:0.143 14:0.041 15:0 16:0.082 17:0 18:0.082 19:0.102 20:0 
768 1:0.6 2:0.567 3:0.35 4:0.02 5:0.041 6:0.082 7:0 8:0.02 9:0.143 10:0 11:0.184 12:0.082 13:0.061 14:0.082 15:0.02 16:0.02 17:0.082 18:0.102 19:0.061 20:0 
768 1:0.6 2:0.567 3:0.35 4:0.02 5:0.041 6:0.082 7:0 8:0.041 9:0.061 10:0.122 11:0.102 12:0 13:0.143 14:0.061 15:0.061 16:0.061 17:0.102 18:0 19:0.102 20:0 
-333.9845820441573 1:0.6 2:0.567 3:0.35 4:0 5:0 6:0.082 7:0.061 8:0.041 9:0.245 10:0.02 11:0.02 12:0.061 13:0.061 14:0.061 15:0.082 16:0.041 17:0.041 18:0.102 19:0.082 20:0 
290.9516241380781 1:0.6 2:0.567 3:0.35 4:0.02 5:0.041 6:0.082 7:0 8:0.102 9:0.02 10:0.102 11:0.122 12:0.02 13:0.041 14:0.061 15:0.122 16:0 17:0.224 18:0.02 19:0.02 20:0 
38.71853012306139 1:0.6 2:0.567 3:0.35 4:0.02 5:0.041 6:0 7:0.082 8:0.02 9:0.122 10:0.102 11:0.102 12:0.02 13:0.184 14:0 15:0.041 16:0.082 17:0 18:0.143 19:0.041 20:0 
-160.8404098920736 1:0.6 2:0.567 3:0.35 4:0.02 5:0.041 6:0.082 7:0 8:0 9:0.184 10:0.102 11:0.061 12:0.061 13:0.102 14:0 15:0.082 16:0.041 17:0.02 18:0.082 19:0.122 20:0 
767.496616855066 1:0.6 2:0.567 3:0.35 4:0.02 5:0.082 6:0.041 7:0 8:0 9:0.204 10:0.02 11:0.122 12:0.082 13:0.02 14:0.082 15:0.082 16:0.041 17:0.041 18:0.122 19:0.041 20:0 
768 1:0.6 2:0.6 3:0.35 4:0.02 5:0.061 6:0.02 7:0.041 8:0 9:0.163 10:0.122 11:0.082 12:0.082 13:0.061 14:0.041 15:0.041 16:0.041 17:0.082 18:0.061 19:0.082 20:0 
-482.7019935638293 1:0.6 2:0.6 3:0.35 4:0 5:0.02 6:0.082 7:0.041 8:0.061 9:0.102 10:0.122 11:0.061 12:0.02 13:0.122 14:0 15:0.102 16:0.061 17:0.122 18:0.02 19:0.061 20:0 
768 1:0.6 2:0.6 3:0.35 4:0.041 5:0.02 6:0.061 7:0.02 8:0.02 9:0.143 10:0.041 11:0.143 12:0 13:0.122 14:0.082 15:0.041 16:0.082 17:0.061 18:0.061 19:0.061 20:0 
616.8821388318325 1:0.6 2:0.6 3:0.35 4:0.02 5:0.061 6:0 7:0.061 8:0.102 9:0.061 10:0.082 11:0.102 12:0.02 13:0.102 14:0.041 15:0.082 16:0 17:0.122 18:0.122 19:0.02 20:0 
-503.2355033255773 1:0.6 2:0.6 3:0.35 4:0 5:0.041 6:0.02 7:0.082 8:0.061 9:0.082 10:0.082 11:0.143 12:0.082 13:0.082 14:0.082 15:0 16:0 17:0.143 18:0.061 19:0.041 20:0 
768 1:0.6 2:0.6 3:0.35 4:0.02 5:0.02 6:0.02 7:0.082 8:0.122 9:0.163 10:0 11:0.082 12:0 13:0.082 14:0.061 15:0.082 16:0 17:0.102 18:0.143 19:0.02 20:0 
-237.5682972442106 1:0.6 2:0.6 3:0.35 4:0.02 5:0 6:0.082 7:0.041 8:0.02 9:0.061 10:0.102 11:0.184 12:0.02 13:0.204 14:0.02 15:0 16:0.082 17:0.102 18:0.041 19:0.02 20:0 
768 1:0.6 2:0.6 3:0.35 4:0.041 5:0 6:0.041 7:0.061 8:0.082 9:0.082 10:0.143 11:0.061 12:0 13:0.082 14:0.061 15:0.082 16:0.02 17:0.204 18:0 19:0.041 20:0 
-768 1:0.6 2:0.6 3:0.35 4:0.041 5:0.041 6:0 7:0.061 8:0.02 9:0.204 10:0.082 11:0.061 12:0.061 13:0 14:0.122 15:0.041 16:0.02 17:0.122 18:0.02 19:0.102 20:0 
768 1:0.6 2:0.6 3:0.35 4:0.041 5:0 6:0.061 7:0.041 8:0.02 9:0.245 10:0.061 11:0.02 12:0.02 13:0.102 14:0.041 15:0.082 16:0.061 17:0.02 18:0.082 19:0.102 20:0 
768 1:0.6 2:0.6 3:0.35 4:0.02 5:0.061 6:0.02 7:0.041 8:0.02 9:0.143 10:0.143 11:0.061 12:0.061 13:0.102 14:0.061 15:0 16:0.041 17:0.061 18:0 19:0.163 20:0 
-768 1:0.6 2:0.6 3:0.35 4:0 5:0.082 6:0.02 7:0.041 8:0.02 9:0.184 10:0.122 11:0.02 12:0.041 13:0.102 14:0.02 15:0.082 16:0.061 17:0 18:0.082 19:0.122 20:0 
768 1:0.6 2:0.6 3:0.35 4:0.02 5:0 6:0.061 7:0.061 8:0.061 9:0.122 10:0.082 11:0.082 12:0.061 13:0.082 14:0 15:0.102 16:0 17:0.143 18:0.102 19:0.02 20:0 
-768 1:0.6 2:0.6 3:0.35 4:0 5:0.041 6:0.061 7:0.041 8:0.061 9:0.122 10:0.163 11:0 12:0.041 13:0.122 14:0 15:0.082 16:0.041 17:0.082 18:0 19:0.143 20:0 
329.7600370392543 1:0.6 2:0.6 3:0.35 4:0 5:0.061 6:0.061 7:0.02 8:0.122 9:0.122 10:0.02 11:0.082 12:0 13:0.163 14:0.061 15:0.02 16:0.02 17:0 18:0.102 19:0.143 20:0 
264.8112150332892 1:0.6 2:0.6 3:0.35 4:0.02 5:0.061 6:0 7:0.061 8:0.061 9:0.163 10:0.143 11:0 12:0.061 13:0.041 14:0.061 15:0.082 16:0 17:0.082 18:0.041 19:0.122 20:0 
-768 1:0.6 2:0.6 3:0.35 4:0.02 5:0.061 6:0.02 7:0.041 8:0.122 9:0.041 10:0.041 11:0.143 12:0 13:0.082 14:0.102 15:0.061 16:0 17:0.184 18:0.061 19:0.02 20:0 
768 1:0.6 2:0.6 3:0.35 4:0.02 5:0 6:0.082 7:0.041 8:0.061 9:0.02 10:0.122 11:0.143 12:0.02 13:0.163 14:0.041 15:0.02 16:0.02 17:0.184 18:0 19:0.061 20:0 
-252.3377381040733 1:0.6 2:0.6 3:0.35 4:0.02 5:0.061 6:0.041 7:0.02 8:0.102 9:0 10:0.102 11:0.143 12:0 13:0.143 14:0.02 15:0.082 16:0.02 17:0.163 18:0.061 19:0.02 20:0 
-457.1449518221589 1:0.6 2:0.6 3:0.35 4:0 5:0.061 6:0 7:0.082 8:0.061 9:0.041 10:0.204 11:0.061 12:0.082 13:0.102 14:0 15:0.061 16:0 17:0.143 18:0.041 19:0.061 20:0 
768 1:0.6 2:0.6 3:0.35 4:0.041 5:0.041 6:0.041 7:0.02 8:0.061 9:0.224 10:0.02 11:0.061 12:0.041 13:0.102 14:0.061 15:0.02 16:0 17:0 18:0.102 19:0.163 20:0 
-768 1:0.6 2:0.6 3:0.35 4:0 5:0.102 6:0 7:0.041 8:0.061 9:0.143 10:0.041 11:0.122 12:0 13:0.041 14:0.082 15:0.102 16:0.082 17:0.061 18:0.122 19:0 20:0 
768 1:0.6 2:0.6 3:0.35 4:0.02 5:0.041 6:0.082 7:0 8:0 9:0.224 10:0.102 11:0.041 12:0.061 13:0.061 14:0.041 15:0.061 16:0.041 17:0.041 18:0.02 19:0.163 20:0 
663.3656406661823 1:0.6 2:0.6 3:0.35 4:0 5:0.082 6:0.061 7:0 8:0.082 9:0.041 10:0.163 11:0.061 12:0 13:0.143 14:0.02 15:0.082 16:0.061 17:0.082 18:0 19:0.122 20:0 
-17.91030575058011 1:0.6 2:0.6 3:0.35 4:0 5:0.041 6:0.041 7:0.061 8:0.122 9:0.082 10:0.122 11:0.02 12:0.02 13:0.082 14:0.082 15:0.061 16:0 17:0.143 18:0 19:0.122 20:0 
265.4726374412937 1:0.6 2:0.667 3:0.35 4:0 5:0.061 6:0 7:0.082 8:0.041 9:0.102 10:0.102 11:0.143 12:0.02 13:0.122 14:0.041 15:0.02 16:0.061 17:0.122 18:0.061 19:0.02 20:0 
768 1:0.6 2:0.667 3:0.35 4:0.041 5:0.041 6:0.02 7:0.041 8:0.082 9:0.122 10:0.041 11:0.143 12:0.02 13:0.102 14:0.041 15:0.041 16:0 17:0.122 18:0.102 19:0.041 20:0 
-768 1:0.6 2:0.667 3:0.35 4:0.02 5:0.082 6:0.041 7:0 8:0.041 9:0.163 10:0.102 11:0.082 12:0.02 13:0.143 14:0.02 15:0.02 16:0.061 17:0.02 18:0.02 19:0.163 20:0 
768 1:0.6 2:0.667 3:0.35 4:0.02 5:0.02 6:0.02 7:0.082 8:0.02 9:0.245 10:0.061 11:0.061 12:0.02 13:0.041 14:0.041 15:0.102 16:0.082 17:0.082 18:0.082 19:0.02 20:0 
768 1:0.6 2:0.667 3:0.35 4:0.02 5:0.061 6:0 7:0.061 8:0.041 9:0.245 10:0.041 11:0.082 12:0.061 13:0.02 14:0.082 15:0.02 16:0.02 17:0.061 18:0.082 19:0.102 20:0 
-639.1658777435885 1:0.6 2:0.667 3:0.35 4:0.02 5:0.041 6:0.061 7:0.02 8:0.02 9:0.224 10:0.102 11:0.041 12:0.061 13:0.082 14:0.02 15:0.041 16:0.041 17:0.061 18:0.02 19:0.143 20:0 
-768 1:0.6 2:0.667 3:0.35 4:0 5:0.02 6:0.041 7:0.082 8:0.082 9:0.224 10:0.041 11:0.061 12:0.02 13:0.102 14:0.041 15:0.02 16:0.041 17:0.041 18:0.082 19:0.102 20:0 
768 1:0.6 2:0.667 3:0.35 4:0.041 5:0.02 6:0.061 7:0.02 8:0.061 9:0.163 10:0.02 11:0.143 12:0.02 13:0.163 14:0 15:0.02 16:0 17:0.061 18:0.122 19:0.082 20:0 
768 1:0.6 2:0.667 3:0.35 4:0 5:0.082 6:0 7:0.061 8:0.082 9:0.184 10:0.122 11:0 12:0 13:0.122 14:0.041 15:0.041 16:0.061 17:0.02 18:0.041 19:0.143 20:0 
99.51191411889199 1:0.6 2:0.667 3:0.35 4:0 5:0.061 6:0.041 7:0.041 8:0.082 9:0.184 10:0.02 11:0.122 12:0.061 13:0.02 14:0.102 15:0 16:0 17:0.122 18:0.041 19:0.102 20:0 
-768 1:0.6 2:0.667 3:0.35 4:0.041 5:0.041 6:0.02 7:0.041 8:0.02 9:0.122 10:0.102 11:0.143 12:0 13:0.184 14:0 15:0.02 16:0.061 17:0.061 18:0.082 19:0.061 20:0 
768 1:0.6 2:0.667 3:0.35 4:0 5:0.082 6:0 7:0.061 8:0.122 9:0.041 10:0.061 11:0.163 12:0 13:0.163 14:0.02 15:0.02 16:0.02 17:0.122 18:0.102 19:0.02 20:0 
141.5507966659932 1:0.6 2:0.667 3:0.35 4:0.041 5:0 6:0.02 7:0.082 8:0.02 9:0.122 10:0.143 11:0.102 12:0.02 13:0.082 14:0.041 15:0.061 16:0.061 17:0.204 18:0 19:0 20:0 
-768 1:0.6 2:0.667 3:0.35 4:0.041 5:0.041 6:0.02 7:0.041 8:0.102 9:0.204 10:0.061 11:0.041 12:0 13:0 14:0.102 15:0.082 16:0 17:0.143 18:0.02 19:0.102 20:0 
376.6370387767903 1:0.6 2:0.667 3:0.35 4:0 5:0.102 6:0.02 7:0.02 8:0.082 9:0.224 10:0.041 11:0.061 12:0 13:0 14:0.082 15:0.122 16:0.061 17:0.082 18:0.061 19:0.041 20:0 
-768 1:0.6 2:0.667 3:0.35 4:0 5:0.061 6:0 7:0.082 8:0.143 9:0.102 10:0.061 11:0.082 12:0 13:0.082 14:0.102 15:0.02 16:0 17:0.143 18:0.041 19:0.082 20:0 
-768 1:0.6 2:0.667 3:0.35 4:0 5:0.082 6:0.02 7:0.041 8:0.02 9:0.204 10:0.02 11:0.163 12:0.061 13:0 14:0.102 15:0.041 16:0.061 17:0.102 18:0.061 19:0.02 20:0 
-545.0879765690478 1:0.6 2:0.667 3:0.35 4:0 5:0.02 6:0.041 7:0.082 8:0.061 9:0.122 10:0.041 11:0.184 12:0 13:0.082 14:0.102 15:0 16:0.082 17:0.163 18:0.02 19:0 20:0 
-768 1:0.6 2:0.7 3:0.35 4:0 5:0.041 6:0.02 7:0.082 8:0.041 9:0.245 10:0.082 11:0.061 12:0.041 13:0.061 14:0.02 15:0.041 16:0.061 17:0.061 18:0.061 19:0.082 20:0 
768 1:0.6 2:0.7 3:0.35 4:0 5:0.061 6:0 7:0.082 8:0.102 9:0.102 10:0.102 11:0.102 12:0.041 13:0.102 14:0 15:0.041 16:0 17:0.163 18:0.061 19:0.041 20:0 
-768 1:0.6 2:0.7 3:0.35 4:0.02 5:0.061 6:0.02 7:0.041 8:0.082 9:0.102 10:0.061 11:0.163 12:0 13:0.082 14:0.061 15:0.041 16:0.041 17:0.184 18:0.02 19:0.02 20:0 
-768 1:0.6 2:0.7 3:0.35 4:0 5:0.041 6:0.02 7:0.082 8:0.082 9:0.163 10:0.122 11:0.041 12:0.041 13:0.102 14:0.02 15:0.02 16:0.02 17:0.102 18:0.02 19:0.122 20:0 
-360.446579527167 1:0.6 2:0.7 3:0.35 4:0.041 5:0.082 6:0.02 7:0 8:0.102 9:0.163 10:0.061 11:0.082 12:0 13:0.061 14:0.02 15:0.102 16:0 17:0.102 18:0.082 19:0.082 20:0 
-768 1:0.6 2:0.7 3:0.35 4:0.041 5:0.082 6:0 7:0.02 8:0.041 9:0.204 10:0.082 11:0.102 12:0.02 13:0.102 14:0.02 15:0.02 16:0.041 17:0.02 18:0.082 19:0.122 20:0 
-523.8588648764043 1:0.6 2:0.7 3:0.35 4:0 5:0.041 6:0.041 7:0.041 8:0.061 9:0.224 10:0.082 11:0.061 12:0 13:0.122 14:0.061 15:0 16:0.082 17:0.041 18:0 19:0.143 20:0 
768 1:0.6 2:0.7 3:0.35 4:0.02 5:0.082 6:0.041 7:0 8:0.082 9:0.122 10:0.122 11:0.082 12:0 13:0.143 14:0 15:0.041 16:0.041 17:0.061 18:0.02 19:0.143 20:0 
-768 1:0.6 2:0.7 3:0.35 4:0 5:0.041 6:0.041 7:0.061 8:0.082 9:0.143 10:0.02 11:0.163 12:0 13:0.143 14:0.02 15:0.02 16:0.061 17:0.102 18:0.102 19:0 20:0 
768 1:0.6 2:0.7 3:0.35 4:0 5:0.082 6:0.041 7:0.02 8:0.082 9:0.143 10:0.02 11:0.184 12:0 13:0.082 14:0.082 15:0 16:0.061 17:0.102 18:0.041 19:0.061 20:0 
-768 1:0.6 2:0.7 3:0.35 4:0 5:0.102 6:0.02 7:0.02 8:0.082 9:0.224 10:0.061 11:0.061 12:0 13:0.02 14:0.082 15:0.061 16:0.041 17:0.082 18:0.02 19:0.122 20:0 
768 1:0.6 2:0.7 3:0.35 4:0 5:0.061 6:0 7:0.082 8:0.122 9:0.204 10:0.061 11:0.02 12:0 13:0.061 14:0.041 15:0.082 16:0.02 17:0.082 18:0.082 19:0.082 20:0 
768 1:0.6 2:0.7 3:0.35 4:0.041 5:0.02 6:0.061 7:0.02 8:0.02 9:0.265 10:0.041 11:0.102 12:0.061 13:0 14:0.02 15:0.082 16:0 17:0.143 18:0.061 19:0.061 20:0 
768 1:0.6 2:0.7 3:0.35 4:0.041 5:0.041 6:0.041 7:0.02 8:0.02 9:0.204 10:0.122 11:0.061 12:0.061 13:0.122 14:0 15:0 16:0.02 17:0.061 18:0.02 19:0.163 20:0 
-768 1:0.6 2:0.7 3:0.35 4:0.02 5:0.102 6:0.02 7:0 8:0 9:0.224 10:0.102 11:0.102 12:0.041 13:0 14:0.041 15:0.082 16:0.082 17:0.102 18:0 19:0.082 20:0 
-768 1:0.6 2:0.7 3:0.35 4:0.041 5:0.02 6:0.061 7:0.02 8:0.041 9:0.143 10:0.041 11:0.184 12:0.061 13:0.082 14:0.02 15:0.02 16:0 17:0.184 18:0.041 19:0.041 20:0 
-768 1:0.6 2:0.7 3:0.35 4:0.041 5:0.02 6:0 7:0.082 8:0.041 9:0.143 10:0.122 11:0.102 12:0 13:0.163 14:0.02 15:0 16:0.061 17:0.082 18:0.041 19:0.082 20:0 
768 1:0.6 2:0.7 3:0.35 4:0 5:0.122 6:0 7:0.02 8:0.102 9:0.02 10:0.082 11:0.204 12:0.02 13:0.082 14:0.061 15:0.02 16:0.02 17:0.204 18:0.041 19:0 20:0 
-360.1077089309836 1:0.6 2:0.7 3:0.35 4:0 5:0.041 6:0.061 7:0.041 8:0.02 9:0.286 10:0 11:0.122 12:0.041 13:0.041 14:0 15:0.102 16:0.082 17:0.061 18:0.102 19:0 20:0 
-614.1565691125318 1:0.6 2:0.7 3:0.35 4:0.041 5:0.02 6:0 7:0.082 8:0.02 9:0.163 10:0.184 11:0.041 12:0.02 13:0.102 14:0 15:0.061 16:0.041 17:0.143 18:0 19:0.082 20:0 
-182.0762479494944 1:0.6 2:0.7 3:0.35 4:0 5:0.082 6:0 7:0.061 8:0.143 9:0.122 10:0.041 11:0.102 12:0 13:0.122 14:0.041 15:0.02 16:0 17:0.082 18:0.102 19:0.082 20:0 
768 1:0.6 2:0.7 3:0.35 4:0 5:0.082 6:0 7:0.061 8:0.061 9:0.061 10:0.163 11:0.122 12:0.02 13:0.143 14:0 15:0.02 16:0.061 17:0.122 18:0.02 19:0.061 20:0 
-461.088020280998 1:0.6 2:0.767 3:0.35 4:0.041 5:0.041 6:0 7:0.041 8:0.082 9:0.184 10:0.082 11:0.122 12:0.02 13:0 14:0.041 15:0.082 16:0 17:0.224 18:0.02 19:0.02 20:0 
-768 1:0.6 2:0.767 3:0.35 4:0 5:0.061 6:0 7:0.082 8:0.102 9:0.143 10:0.082 11:0.122 12:0 13:0.122 14:0.02 15:0 16:0.041 17:0.122 18:0.041 19:0.061 20:0 
-768 1:0.6 2:0.767 3:0.35 4:0.041 5:0.02 6:0.041 7:0.041 8:0.041 9:0.327 10:0.041 11:0.041 12:0 13:0.061 14:0.02 15:0.061 16:0.061 17:0.061 18:0.041 19:0.102 20:0 
552.982575899475 1:0.6 2:0.767 3:0.35 4:0.02 5:0.061 6:0.041 7:0.02 8:0.041 9:0.143 10:0.102 11:0.163 12:0 13:0.143 14:0 15:0 16:0.082 17:0.102 18:0 19:0.082 20:0 
-284.4053614231088 1:0.6 2:0.767 3:0.35 4:0.041 5:0.082 6:0 7:0.02 8:0.02 9:0.306 10:0.102 11:0.041 12:0.041 13:0 14:0.02 15:0.061 16:0.02 17:0.082 18:0.02 19:0.143 20:0 
768 1:0.6 2:0.767 3:0.35 4:0.02 5:0.041 6:0 7:0.082 8:0.102 9:0.143 10:0.02 11:0.184 12:0 13:0.102 14:0.041 15:0 16:0.02 17:0.163 18:0.082 19:0 20:0 
768 1:0.6 2:0.767 3:0.35 4:0.041 5:0.061 6:0 7:0.041 8:0.02 9:0.204 10:0.102 11:0.143 12:0.041 13:0.041 14:0.041 15:0 16:0.02 17:0.163 18:0 19:0.082 20:0 
768 1:0.6 2:0.8 3:0.35 4:0 5:0.082 6:0.02 7:0.041 8:0.082 9:0.163 10:0.061 11:0.184 12:0.02 13:0.041 14:0.02 15:0.02 16:0.041 17:0.184 18:0.02 19:0.02 20:0 
639.2143721245228 1:0.6 2:0.8 3:0.35 4:0.041 5:0.061 6:0.041 7:0 8:0.061 9:0.184 10:0.041 11:0.204 12:0 13:0.122 14:0 15:0 16:0.041 17:0.102 18:0.041 19:0.061 20:0 
-768 1:0.6 2:0.8 3:0.35 4:0 5:0.102 6:0.02 7:0.02 8:0.102 9:0.122 10:0.102 11:0.143 12:0 13:0.122 14:0 15:0 16:0.041 17:0.143 18:0 19:0.082 20:0 
-174.7844548846423 1:0.6 2:0.8 3:0.35 4:0 5:0.082 6:0.02 7:0.041 8:0.122 9:0.184 10:0.082 11:0.082 12:0 13:0.122 14:0 15:0 16:0.02 17:0.082 18:0.02 19:0.143 20:0 
-377.7657649210288 1:0.6 2:0.8 3:0.35 4:0 5:0.082 6:0 7:0.061 8:0.061 9:0.245 10:0.041 11:0.143 12:0.02 13:0 14:0.02 15:0.061 16:0.061 17:0.143 18:0.061 19:0 20:0 
768 1:0.6 2:0.8 3:0.35 4:0.02 5:0.041 6:0 7:0.082 8:0.041 9:0.163 10:0.122 11:0.143 12:0.02 13:0.102 14:0 15:0 16:0.061 17:0.163 18:0 19:0.041 20:0 
-62.45911284480687 1:0.6 2:0.2 3:0.4 4:0.041 5:0.041 6:0 7:0.082 8:0.041 9:0 10:0.061 11:0.02 12:0.041 13:0 14:0.286 15:0.143 16:0.041 17:0.061 18:0.143 19:0 20:0 
297.2368733097053 1:0.6 2:0.2 3:0.4 4:0.02 5:0.041 6:0.082 7:0.02 8:0.041 9:0.02 10:0 11:0.061 12:0.082 13:0.02 14:0.224 15:0.163 16:0 17:0.041 18:0.184 19:0 20:0 
-186.615008959936 1:0.6 2:0.267 3:0.4 4:0.02 5:0 6:0.122 7:0.02 8:0.041 9:0.061 10:0 11:0.061 12:0.061 13:0.02 14:0.286 15:0.082 16:0.02 17:0.082 18:0.041 19:0.082 20:0 
768 1:0.6 2:0.267 3:0.4 4:0.061 5:0.061 6:0.02 7:0 8:0.061 9:0.041 10:0 11:0.061 12:0.02 13:0 14:0.265 15:0.163 16:0.02 17:0.061 18:0.143 19:0.02 20:0 
722.4249050023545 1:0.6 2:0.267 3:0.4 4:0.02 5:0.041 6:0.02 7:0.082 8:0 9:0.02 10:0.143 11:0 12:0.061 13:0.02 14:0.184 15:0.163 16:0.061 17:0.082 18:0.102 19:0 20:0 
-436.8773129263728 1:0.6 2:0.3 3:0.4 4:0.041 5:0 6:0.041 7:0.082 8:0 9:0.02 10:0.143 11:0.02 12:0.102 13:0.061 14:0.224 15:0.041 16:0.02 17:0.102 18:0.02 19:0.082 20:0 
-768 1:0.6 2:0.3 3:0.4 4:0.02 5:0 6:0.122 7:0 8:0.041 9:0.061 10:0.02 11:0.061 12:0.061 13:0.122 14:0.082 15:0.163 16:0.041 17:0 18:0.204 19:0 20:0 
768 1:0.6 2:0.3 3:0.4 4:0.041 5:0.041 6:0.041 7:0.02 8:0.061 9:0.02 10:0.102 11:0 12:0.061 13:0.041 14:0.102 15:0.224 16:0 17:0.082 18:0.163 19:0 20:0 
768 1:0.6 2:0.3 3:0.4 4:0.061 5:0.061 6:0.02 7:0.02 8:0.02 9:0.082 10:0.041 11:0.02 12:0.02 13:0 14:0.265 15:0.143 16:0.061 17:0.041 18:0.102 19:0.041 20:0 
-230.0549829846454 1:0.6 2:0.3 3:0.4 4:0.061 5:0.02 6:0.082 7:0 8:0.041 9:0.02 10:0.061 11:0.041 12:0 13:0.143 14:0.224 15:0.061 16:0.061 17:0 18:0.041 19:0.143 20:0 
768 1:0.6 2:0.3 3:0.4 4:0.02 5:0.041 6:0.102 7:0 8:0.041 9:0.061 10:0.041 11:0.02 12:0.041 13:0 14:0.265 15:0.122 16:0.061 17:0.082 18:0.02 19:0.082 20:0 
-768 1:0.6 2:0.367 3:0.4 4:0.02 5:0.082 6:0.02 7:0.02 8:0.041 9:0.082 10:0 11:0.102 12:0.02 13:0 14:0.265 15:0.102 16:0.082 17:0.061 18:0.082 19:0.02 20:0 
