char* avg_36_40_string=
"svm_type nu_svr\n"
"kernel_type rbf\n"
"gamma 3\n"
"nr_class 2\n"
"total_sv 9560\n"
"rho 1.4623\n"
"SV\n"
"65.56508699534476 1:0.36 2:0.222 3:0.188 4:0.02 5:0 6:0.082 7:0.02 8:0.02 9:0 10:0.041 11:0.02 12:0.041 13:0.02 14:0.061 15:0.143 16:0.041 17:0.061 18:0.082 19:0.347 20:0 \n"
"93.49682114312685 1:0.36 2:0.222 3:0.188 4:0.02 5:0.02 6:0 7:0.082 8:0.02 9:0 10:0 11:0.061 12:0.082 13:0.02 14:0.102 15:0.061 16:0 17:0.041 18:0.184 19:0.306 20:0 \n"
"33.1583596245074 1:0.36 2:0.222 3:0.188 4:0.02 5:0.02 6:0 7:0.061 8:0.02 9:0 10:0.041 11:0.02 12:0 13:0.041 14:0.102 15:0.143 16:0.082 17:0 18:0.143 19:0.306 20:0 \n"
"-75.8388869564623 1:0.36 2:0.222 3:0.188 4:0.02 5:0.02 6:0.061 7:0.02 8:0 9:0 10:0.02 11:0.061 12:0.061 13:0 14:0.143 15:0.082 16:0.041 17:0.061 18:0.041 19:0.367 20:0 \n"
"38.41539893289794 1:0.36 2:0.222 3:0.188 4:0 5:0 6:0 7:0.122 8:0.02 9:0 10:0.02 11:0.041 12:0 13:0.041 14:0.02 15:0.224 16:0.102 17:0.041 18:0.245 19:0.122 20:0 \n"
"2.645610057532399 1:0.36 2:0.278 3:0.188 4:0.02 5:0 6:0.041 7:0.041 8:0.02 9:0 10:0.02 11:0.061 12:0.061 13:0.041 14:0.041 15:0.122 16:0 17:0.061 18:0.163 19:0.306 20:0 \n"
"-256 1:0.36 2:0.278 3:0.188 4:0 5:0.02 6:0 7:0.102 8:0.02 9:0.02 10:0.041 11:0 12:0.061 13:0.041 14:0.02 15:0.143 16:0.041 17:0.02 18:0.204 19:0.265 20:0 \n"
"-256 1:0.36 2:0.333 3:0.188 4:0.02 5:0.02 6:0.041 7:0.041 8:0 9:0 10:0.02 11:0.102 12:0.061 13:0.02 14:0.061 15:0.082 16:0.041 17:0.082 18:0.102 19:0.306 20:0 \n"
"256 1:0.36 2:0.333 3:0.188 4:0.02 5:0 6:0.061 7:0.041 8:0.02 9:0.02 10:0 11:0.061 12:0 13:0 14:0.122 15:0.122 16:0.082 17:0.102 18:0.061 19:0.286 20:0 \n"
"135.6254293969187 1:0.36 2:0.333 3:0.188 4:0 5:0 6:0 7:0.122 8:0 9:0 10:0.02 11:0.102 12:0 13:0.02 14:0.122 15:0.102 16:0.122 17:0.102 18:0.082 19:0.204 20:0 \n"
"-256 1:0.36 2:0.333 3:0.188 4:0 5:0 6:0.02 7:0.102 8:0.02 9:0 10:0 11:0.102 12:0.061 13:0 14:0.143 15:0.041 16:0.041 17:0.122 18:0.082 19:0.265 20:0 \n"
"-203.8543163909833 1:0.36 2:0.389 3:0.188 4:0 5:0.041 6:0 7:0.082 8:0 9:0.041 10:0.02 11:0.082 12:0.02 13:0.061 14:0.061 15:0.061 16:0.082 17:0 18:0.143 19:0.306 20:0 \n"
"43.36464800927716 1:0.36 2:0.389 3:0.188 4:0.02 5:0.02 6:0.041 7:0.041 8:0.02 9:0.02 10:0.041 11:0.061 12:0.041 13:0.041 14:0.082 15:0.061 16:0.041 17:0.061 18:0.061 19:0.347 20:0 \n"
"-13.96065854148728 1:0.36 2:0.389 3:0.188 4:0 5:0 6:0 7:0.122 8:0.041 9:0 10:0.061 11:0.041 12:0.041 13:0.02 14:0.102 15:0.061 16:0.041 17:0.122 18:0.061 19:0.286 20:0 \n"
"217.7370104031631 1:0.36 2:0.389 3:0.188 4:0.02 5:0 6:0.041 7:0.041 8:0 9:0 10:0.061 11:0.082 12:0.061 13:0 14:0.02 15:0.143 16:0.041 17:0.143 18:0.082 19:0.265 20:0 \n"
"256 1:0.36 2:0.389 3:0.188 4:0 5:0.041 6:0 7:0.082 8:0 9:0.02 10:0 11:0.122 12:0.061 13:0.041 14:0.02 15:0.082 16:0.061 17:0.02 18:0.204 19:0.245 20:0 \n"
"-246.3104776066105 1:0.36 2:0.389 3:0.188 4:0 5:0 6:0 7:0.122 8:0.02 9:0 10:0 11:0.122 12:0 13:0.061 14:0.102 15:0.061 16:0.102 17:0.082 18:0.122 19:0.204 20:0 \n"
"256 1:0.36 2:0.389 3:0.188 4:0 5:0.02 6:0.041 7:0.061 8:0.02 9:0.041 10:0.061 11:0 12:0.02 13:0.061 14:0 15:0.143 16:0.082 17:0.02 18:0.102 19:0.327 20:0 \n"
"-11.36955178205777 1:0.36 2:0.389 3:0.188 4:0.02 5:0 6:0.041 7:0.061 8:0 9:0 10:0.02 11:0.122 12:0 13:0 14:0 15:0.204 16:0.102 17:0.143 18:0.163 19:0.122 20:0 \n"
"256 1:0.36 2:0.389 3:0.188 4:0 5:0.041 6:0 7:0.061 8:0 9:0.041 10:0 11:0.102 12:0 13:0.02 14:0 15:0.204 16:0.122 17:0.041 18:0.224 19:0.143 20:0 \n"
"-21.31316355837405 1:0.36 2:0.389 3:0.188 4:0 5:0.02 6:0.061 7:0.041 8:0.041 9:0 10:0 11:0.102 12:0.061 13:0.061 14:0.02 15:0.061 16:0 17:0.061 18:0.143 19:0.327 20:0 \n"
"187.4661739498271 1:0.36 2:0.389 3:0.188 4:0.02 5:0 6:0.061 7:0.041 8:0.041 9:0 10:0 11:0.102 12:0 13:0 14:0.041 15:0.163 16:0.061 17:0.143 18:0.122 19:0.204 20:0 \n"
"-174.3764412771594 1:0.36 2:0.444 3:0.188 4:0 5:0 6:0 7:0.122 8:0.02 9:0 10:0.02 11:0.122 12:0.061 13:0.061 14:0.02 15:0.041 16:0.041 17:0.102 18:0.143 19:0.245 20:0 \n"
"14.78367868048974 1:0.36 2:0.444 3:0.188 4:0.02 5:0 6:0.041 7:0.061 8:0.041 9:0.02 10:0.082 11:0.02 12:0 13:0 14:0 15:0.204 16:0.041 17:0.143 18:0.082 19:0.245 20:0 \n"
"-253.7640782164335 1:0.36 2:0.444 3:0.188 4:0.02 5:0.041 6:0 7:0.061 8:0 9:0.061 10:0 11:0.102 12:0.02 13:0 14:0 15:0.184 16:0.082 17:0.041 18:0.204 19:0.184 20:0 \n"
"78.31496362071144 1:0.36 2:0.444 3:0.188 4:0 5:0.02 6:0 7:0.102 8:0.041 9:0.041 10:0.02 11:0.061 12:0.061 13:0.082 14:0 15:0.041 16:0.02 17:0.02 18:0.184 19:0.306 20:0 \n"
"-78.98811213739953 1:0.36 2:0.444 3:0.188 4:0 5:0.041 6:0.041 7:0.041 8:0.041 9:0.02 10:0.082 11:0.02 12:0.061 13:0 14:0.041 15:0.082 16:0 17:0.102 18:0.041 19:0.388 20:0 \n"
"-151.747759538252 1:0.36 2:0.444 3:0.188 4:0.02 5:0 6:0.041 7:0.061 8:0.041 9:0.041 10:0.02 11:0.041 12:0.041 13:0.061 14:0.102 15:0 16:0.02 17:0.061 18:0.041 19:0.408 20:0 \n"
"-256 1:0.36 2:0.5 3:0.188 4:0 5:0 6:0.041 7:0.082 8:0.02 9:0 10:0.061 11:0.102 12:0.041 13:0 14:0.061 15:0.061 16:0.041 17:0.184 18:0.02 19:0.286 20:0 \n"
"-255.9700103501616 1:0.36 2:0.5 3:0.188 4:0 5:0.02 6:0.041 7:0.061 8:0.02 9:0.061 10:0.082 11:0.02 12:0 13:0.061 14:0.02 15:0.102 16:0.102 17:0.041 18:0.041 19:0.327 20:0 \n"
"188.731730177934 1:0.36 2:0.5 3:0.188 4:0 5:0 6:0 7:0.122 8:0.02 9:0.041 10:0.041 11:0.061 12:0 13:0.082 14:0 15:0.102 16:0.082 17:0.061 18:0.143 19:0.245 20:0 \n"
"256 1:0.36 2:0.5 3:0.188 4:0 5:0 6:0 7:0.122 8:0.041 9:0.041 10:0.02 11:0.082 12:0.02 13:0.02 14:0.082 15:0.041 16:0.061 17:0.122 18:0.082 19:0.265 20:0 \n"
"-256 1:0.36 2:0.5 3:0.188 4:0 5:0.041 6:0.02 7:0.061 8:0.041 9:0.082 10:0 11:0.041 12:0 13:0 14:0.082 15:0.102 16:0.082 17:0.061 18:0.082 19:0.306 20:0 \n"
"213.9021466771275 1:0.36 2:0.5 3:0.188 4:0 5:0 6:0 7:0.122 8:0.02 9:0.061 10:0.082 11:0.02 12:0.02 13:0 14:0.041 15:0.122 16:0.082 17:0.122 18:0.041 19:0.265 20:0 \n"
"256 1:0.36 2:0.5 3:0.188 4:0 5:0 6:0 7:0.122 8:0 9:0 10:0.02 11:0.163 12:0.02 13:0 14:0.082 15:0.061 16:0.102 17:0.184 18:0.061 19:0.184 20:0 \n"
"-256 1:0.36 2:0.556 3:0.188 4:0 5:0.02 6:0.02 7:0.082 8:0 9:0.061 10:0 11:0.143 12:0 13:0.041 14:0.02 15:0.102 16:0.122 17:0.082 18:0.122 19:0.184 20:0 \n"
"251.1231206074294 1:0.36 2:0.556 3:0.188 4:0 5:0 6:0.041 7:0.082 8:0.02 9:0.02 10:0 11:0.163 12:0.041 13:0.02 14:0.041 15:0.061 16:0.061 17:0.163 18:0.082 19:0.204 20:0 \n"
"-8.664205538033345 1:0.36 2:0.556 3:0.188 4:0.02 5:0.061 6:0 7:0.041 8:0.02 9:0 10:0.02 11:0.163 12:0.02 13:0.02 14:0 15:0.102 16:0.061 17:0.122 18:0.143 19:0.204 20:0 \n"
"22.07441257017137 1:0.36 2:0.556 3:0.188 4:0.02 5:0 6:0 7:0.082 8:0 9:0.02 10:0.082 11:0.102 12:0.041 13:0.082 14:0 15:0.041 16:0.061 17:0.102 18:0.082 19:0.286 20:0 \n"
"163.0504421209326 1:0.36 2:0.556 3:0.188 4:0 5:0.061 6:0.02 7:0.041 8:0 9:0.061 10:0.082 11:0.041 12:0.02 13:0.082 14:0 15:0.061 16:0.102 17:0 18:0.061 19:0.367 20:0 \n"
"139.6893791059139 1:0.36 2:0.556 3:0.188 4:0 5:0.02 6:0 7:0.102 8:0 9:0 10:0.082 11:0.122 12:0.041 13:0 14:0.061 15:0.041 16:0.082 17:0.184 18:0.02 19:0.245 20:0 \n"
"35.00677360019979 1:0.36 2:0.556 3:0.188 4:0 5:0.061 6:0.041 7:0.02 8:0.041 9:0.082 10:0.082 11:0 12:0.041 13:0.02 14:0 15:0.082 16:0.041 17:0.041 18:0.041 19:0.408 20:0 \n"
"256 1:0.36 2:0.556 3:0.188 4:0 5:0 6:0.02 7:0.102 8:0.041 9:0.02 10:0.041 11:0.102 12:0.041 13:0.041 14:0.061 15:0 16:0.02 17:0.143 18:0.041 19:0.327 20:0 \n"
"256 1:0.36 2:0.556 3:0.188 4:0.02 5:0.041 6:0.041 7:0 8:0.02 9:0.02 10:0.02 11:0.143 12:0.041 13:0.02 14:0 15:0.102 16:0.02 17:0.122 18:0.102 19:0.286 20:0 \n"
"-217.4018493092698 1:0.36 2:0.611 3:0.188 4:0 5:0.02 6:0 7:0.102 8:0.041 9:0.082 10:0 11:0.102 12:0.02 13:0.041 14:0.02 15:0.041 16:0.061 17:0.061 18:0.122 19:0.286 20:0 \n"
"-47.18120812380205 1:0.36 2:0.611 3:0.188 4:0 5:0.02 6:0 7:0.102 8:0.041 9:0.082 10:0 11:0.082 12:0.02 13:0 14:0 15:0.122 16:0.061 17:0.122 18:0.143 19:0.204 20:0 \n"
"-175.6846924521161 1:0.36 2:0.611 3:0.188 4:0 5:0.041 6:0 7:0.082 8:0 9:0.02 10:0.061 11:0.143 12:0.041 13:0.02 14:0.041 15:0.02 16:0.061 17:0.143 18:0.041 19:0.286 20:0 \n"
"168.2463897322061 1:0.36 2:0.611 3:0.188 4:0 5:0.061 6:0.041 7:0.02 8:0.02 9:0.02 10:0 11:0.184 12:0 13:0.02 14:0 15:0.122 16:0.102 17:0.122 18:0.102 19:0.184 20:0 \n"
"-256 1:0.36 2:0.611 3:0.188 4:0 5:0.02 6:0 7:0.102 8:0.061 9:0.041 10:0.041 11:0.082 12:0.041 13:0.061 14:0.02 15:0 16:0 17:0.102 18:0.082 19:0.347 20:0 \n"
"-54.3320168177592 1:0.36 2:0.611 3:0.188 4:0 5:0.02 6:0 7:0.102 8:0.041 9:0.102 10:0.041 11:0.02 12:0.02 13:0 14:0 15:0.122 16:0.041 17:0.102 18:0.102 19:0.286 20:0 \n"
"-90.6539000250321 1:0.36 2:0.611 3:0.188 4:0 5:0.041 6:0 7:0.082 8:0 9:0 10:0 11:0.224 12:0.041 13:0.041 14:0.041 15:0 16:0.082 17:0.122 18:0.102 19:0.224 20:0 \n"
"-81.36264775120888 1:0.36 2:0.667 3:0.188 4:0.02 5:0.041 6:0.02 7:0.041 8:0.02 9:0.041 10:0.02 11:0.163 12:0 13:0.041 14:0.02 15:0.041 16:0.061 17:0.122 18:0.061 19:0.286 20:0 \n"
"68.04623329211384 1:0.36 2:0.667 3:0.188 4:0 5:0.02 6:0 7:0.102 8:0.041 9:0 10:0.041 11:0.143 12:0.02 13:0.041 14:0 15:0.061 16:0.061 17:0.163 18:0.082 19:0.224 20:0 \n"
"-180.4303270831623 1:0.36 2:0.667 3:0.188 4:0 5:0.041 6:0 7:0.082 8:0.02 9:0.02 10:0.02 11:0.184 12:0 13:0 14:0.02 15:0.102 16:0.102 17:0.184 18:0.082 19:0.143 20:0 \n"
"-204.088422589041 1:0.36 2:0.667 3:0.188 4:0 5:0.041 6:0.02 7:0.061 8:0.041 9:0.143 10:0.041 11:0.02 12:0 13:0.02 14:0 15:0.102 16:0.061 17:0.041 18:0.061 19:0.347 20:0 \n"
"21.50791452296975 1:0.36 2:0.667 3:0.188 4:0.02 5:0.061 6:0 7:0.041 8:0.02 9:0.102 10:0.02 11:0.102 12:0.02 13:0.041 14:0.02 15:0.041 16:0.061 17:0.02 18:0.082 19:0.347 20:0 \n"
"111.0635928723329 1:0.36 2:0.667 3:0.188 4:0 5:0 6:0 7:0.122 8:0.061 9:0.122 10:0.02 11:0.02 12:0.02 13:0.061 14:0 15:0.041 16:0.02 17:0.061 18:0.102 19:0.347 20:0 \n"
"256 1:0.36 2:0.722 3:0.188 4:0.02 5:0.02 6:0.02 7:0.061 8:0 9:0.122 10:0.02 11:0.122 12:0 13:0 14:0.02 15:0.082 16:0.102 17:0.122 18:0.041 19:0.245 20:0 \n"
"32.06602894694043 1:0.36 2:0.722 3:0.188 4:0 5:0.061 6:0 7:0.061 8:0 9:0.061 10:0.061 11:0.143 12:0.02 13:0.041 14:0.02 15:0.02 16:0.102 17:0.102 18:0 19:0.306 20:0 \n"
"-65.74974318938482 1:0.36 2:0.722 3:0.188 4:0 5:0.041 6:0 7:0.082 8:0.041 9:0.163 10:0.02 11:0.02 12:0.02 13:0 14:0 15:0.082 16:0.061 17:0.061 18:0.082 19:0.327 20:0 \n"
"-3.352545029073747 1:0.36 2:0.778 3:0.188 4:0 5:0 6:0 7:0.122 8:0.02 9:0.163 10:0.02 11:0.082 12:0 13:0 14:0 15:0.082 16:0.102 17:0.102 18:0.061 19:0.245 20:0 \n"
"62.6076241676829 1:0.36 2:0.778 3:0.188 4:0.02 5:0 6:0 7:0.082 8:0.082 9:0.082 10:0.041 11:0.082 12:0.02 13:0.02 14:0 15:0.041 16:0 17:0.184 18:0.041 19:0.306 20:0 \n"
"-20.91384542566241 1:0.36 2:0.222 3:0.25 4:0 5:0 6:0 7:0.163 8:0.02 9:0 10:0 11:0.061 12:0 13:0.02 14:0.143 15:0.122 16:0.143 17:0.061 18:0.143 19:0.122 20:0 \n"
"195.0400205874901 1:0.36 2:0.278 3:0.25 4:0.041 5:0 6:0.061 7:0.061 8:0.041 9:0.02 10:0.02 11:0.02 12:0.061 13:0.061 14:0.041 15:0.082 16:0.02 17:0.02 18:0.143 19:0.306 20:0 \n"
"256 1:0.36 2:0.278 3:0.25 4:0 5:0.02 6:0.061 7:0.082 8:0 9:0.02 10:0 11:0.082 12:0 13:0 14:0.102 15:0.163 16:0.163 17:0.041 18:0.102 19:0.163 20:0 \n"
"-74.2496206061406 1:0.36 2:0.278 3:0.25 4:0 5:0.02 6:0.102 7:0.041 8:0.041 9:0.02 10:0.041 11:0 12:0.082 13:0 14:0.041 15:0.122 16:0.02 17:0.061 18:0.082 19:0.327 20:0 \n"
"76.81871454933268 1:0.36 2:0.278 3:0.25 4:0.041 5:0.041 6:0 7:0.082 8:0 9:0 10:0.02 11:0.082 12:0.061 13:0.061 14:0.061 15:0.082 16:0.061 17:0 18:0.163 19:0.245 20:0 \n"
"-108.1901856726414 1:0.36 2:0.278 3:0.25 4:0 5:0 6:0 7:0.163 8:0.02 9:0 10:0.061 11:0.02 12:0.02 13:0 14:0.102 15:0.143 16:0.122 17:0.102 18:0.102 19:0.143 20:0 \n"
"-256 1:0.36 2:0.333 3:0.25 4:0.041 5:0 6:0.041 7:0.082 8:0 9:0.02 10:0.02 11:0.082 12:0.02 13:0.02 14:0.02 15:0.163 16:0.082 17:0.082 18:0.163 19:0.163 20:0 \n"
"-256 1:0.36 2:0.333 3:0.25 4:0.041 5:0.02 6:0.041 7:0.061 8:0.02 9:0.02 10:0 11:0.082 12:0 13:0.061 14:0.082 15:0.082 16:0.102 17:0.02 18:0.102 19:0.265 20:0 \n"
"165.0193184060481 1:0.36 2:0.333 3:0.25 4:0 5:0.02 6:0.061 7:0.061 8:0.041 9:0 10:0 11:0.082 12:0.082 13:0.02 14:0.102 15:0.041 16:0.041 17:0.061 18:0.082 19:0.306 20:0 \n"
"256 1:0.36 2:0.333 3:0.25 4:0.061 5:0.02 6:0.061 7:0.02 8:0.02 9:0 10:0.041 11:0.061 12:0.02 13:0 14:0.102 15:0.102 16:0.041 17:0.102 18:0.041 19:0.306 20:0 \n"
"-256 1:0.36 2:0.333 3:0.25 4:0.02 5:0 6:0 7:0.143 8:0.041 9:0.02 10:0.041 11:0.02 12:0.082 13:0 14:0.102 15:0.061 16:0.02 17:0.102 18:0.082 19:0.265 20:0 \n"
"151.6001112160328 1:0.36 2:0.333 3:0.25 4:0 5:0 6:0.082 7:0.082 8:0 9:0 10:0.02 11:0.102 12:0.082 13:0.061 14:0 15:0.082 16:0.082 17:0.061 18:0.143 19:0.204 20:0 \n"
"53.69013892729352 1:0.36 2:0.333 3:0.25 4:0.061 5:0.02 6:0.082 7:0 8:0 9:0.02 10:0.02 11:0.082 12:0 13:0.041 14:0.122 15:0.082 16:0.102 17:0.02 18:0.02 19:0.327 20:0 \n"
"173.7925360336453 1:0.36 2:0.333 3:0.25 4:0.061 5:0.02 6:0.061 7:0.02 8:0 9:0 10:0 11:0.122 12:0.061 13:0.061 14:0.041 15:0.061 16:0.041 17:0.041 18:0.143 19:0.265 20:0 \n"
"-256 1:0.36 2:0.333 3:0.25 4:0.061 5:0.02 6:0.082 7:0 8:0 9:0 10:0 11:0.122 12:0.061 13:0.02 14:0 15:0.143 16:0.041 17:0.082 18:0.163 19:0.204 20:0 \n"
"-232.7456839734832 1:0.36 2:0.333 3:0.25 4:0 5:0.041 6:0.082 7:0.041 8:0.02 9:0.02 10:0.041 11:0.041 12:0 13:0.041 14:0.061 15:0.143 16:0.143 17:0.02 18:0.041 19:0.265 20:0 \n"
"148.6819550491843 1:0.36 2:0.333 3:0.25 4:0.02 5:0.02 6:0 7:0.122 8:0 9:0.02 10:0.02 11:0.082 12:0.061 13:0.061 14:0.102 15:0 16:0.061 17:0.02 18:0.122 19:0.286 20:0 \n"
"256 1:0.36 2:0.389 3:0.25 4:0 5:0.02 6:0 7:0.143 8:0.02 9:0 10:0.061 11:0.061 12:0.061 13:0.02 14:0.102 15:0.041 16:0.082 17:0.082 18:0.061 19:0.245 20:0 \n"
"-256 1:0.36 2:0.389 3:0.25 4:0 5:0 6:0.02 7:0.143 8:0 9:0 10:0.02 11:0.122 12:0.02 13:0.061 14:0.082 15:0.041 16:0.143 17:0.082 18:0.082 19:0.184 20:0 \n"
"-256 1:0.36 2:0.389 3:0.25 4:0.041 5:0.041 6:0 7:0.082 8:0.041 9:0.02 10:0.061 11:0.02 12:0 13:0.061 14:0.02 15:0.143 16:0.082 17:0.02 18:0.143 19:0.224 20:0 \n"
"-256 1:0.36 2:0.389 3:0.25 4:0.02 5:0 6:0.041 7:0.082 8:0.041 9:0 10:0.041 11:0.061 12:0 13:0 14:0.102 15:0.122 16:0.102 17:0.143 18:0.02 19:0.224 20:0 \n"
"-76.64698197195916 1:0.36 2:0.389 3:0.25 4:0 5:0.02 6:0.041 7:0.102 8:0 9:0 10:0.061 11:0.061 12:0.02 13:0.061 14:0.122 15:0.02 16:0.122 17:0.061 18:0 19:0.306 20:0 \n"
"90.35594924806966 1:0.36 2:0.389 3:0.25 4:0.061 5:0.02 6:0 7:0.061 8:0.041 9:0.041 10:0 11:0.061 12:0 13:0 14:0.102 15:0.122 16:0.061 17:0.082 18:0.122 19:0.224 20:0 \n"
"85.22251820111296 1:0.36 2:0.444 3:0.25 4:0.02 5:0 6:0.02 7:0.122 8:0.061 9:0.061 10:0.041 11:0 12:0.041 13:0.02 14:0.02 15:0.122 16:0.02 17:0.082 18:0.122 19:0.245 20:0 \n"
"105.5591094634881 1:0.36 2:0.444 3:0.25 4:0 5:0 6:0.02 7:0.143 8:0.02 9:0 10:0.082 11:0.061 12:0.061 13:0.02 14:0.041 15:0.061 16:0.082 17:0.143 18:0.061 19:0.204 20:0 \n"
"-9.916090872817223 1:0.36 2:0.444 3:0.25 4:0 5:0 6:0.02 7:0.122 8:0.02 9:0.02 10:0 11:0.122 12:0.082 13:0.061 14:0.041 15:0.02 16:0.061 17:0.082 18:0.143 19:0.204 20:0 \n"
"-256 1:0.36 2:0.444 3:0.25 4:0 5:0.061 6:0.041 7:0.061 8:0.041 9:0.061 10:0 11:0.061 12:0.02 13:0 14:0.102 15:0.082 16:0.102 17:0.041 18:0.041 19:0.286 20:0 \n"
"-256 1:0.36 2:0.444 3:0.25 4:0.02 5:0.061 6:0 7:0.082 8:0 9:0.061 10:0 11:0.102 12:0.061 13:0 14:0.041 15:0.082 16:0.082 17:0.02 18:0.163 19:0.224 20:0 \n"
"-256 1:0.36 2:0.444 3:0.25 4:0.041 5:0 6:0 7:0.122 8:0.061 9:0.041 10:0 11:0.061 12:0 13:0.061 14:0.082 15:0.041 16:0.061 17:0.061 18:0.102 19:0.265 20:0 \n"
"256 1:0.36 2:0.444 3:0.25 4:0.061 5:0.041 6:0 7:0.061 8:0.02 9:0.02 10:0 11:0.122 12:0.082 13:0.02 14:0.041 15:0.041 16:0 17:0.082 18:0.163 19:0.245 20:0 \n"
"222.6695822586653 1:0.36 2:0.444 3:0.25 4:0.02 5:0.061 6:0.02 7:0.061 8:0.061 9:0.041 10:0.02 11:0.041 12:0.02 13:0.041 14:0 15:0.122 16:0.061 17:0.02 18:0.163 19:0.245 20:0 \n"
"-212.3807283623987 1:0.36 2:0.444 3:0.25 4:0.041 5:0 6:0.082 7:0.041 8:0 9:0.041 10:0.082 11:0.041 12:0.061 13:0.061 14:0.041 15:0.041 16:0.061 17:0.061 18:0 19:0.347 20:0 \n"
"-256 1:0.36 2:0.444 3:0.25 4:0.061 5:0.041 6:0 7:0.041 8:0 9:0 10:0 11:0.163 12:0.041 13:0 14:0.102 15:0.061 16:0.061 17:0.122 18:0.102 19:0.204 20:0 \n"
"18.92892166212539 1:0.36 2:0.444 3:0.25 4:0 5:0 6:0 7:0.163 8:0 9:0.041 10:0.061 11:0.061 12:0.02 13:0.082 14:0.061 15:0.041 16:0.143 17:0.041 18:0.061 19:0.224 20:0 \n"
"-256 1:0.36 2:0.5 3:0.25 4:0.02 5:0.02 6:0 7:0.122 8:0.041 9:0 10:0.041 11:0.102 12:0.02 13:0.02 14:0.061 15:0.082 16:0.082 17:0.143 18:0.082 19:0.163 20:0 \n"
"-27.63963297475563 1:0.36 2:0.5 3:0.25 4:0.041 5:0 6:0.041 7:0.082 8:0.02 9:0.041 10:0.061 11:0.041 12:0.061 13:0.02 14:0.041 15:0.061 16:0.041 17:0.122 18:0.02 19:0.306 20:0 \n"
"256 1:0.36 2:0.5 3:0.25 4:0 5:0.061 6:0 7:0.102 8:0.041 9:0 10:0 11:0.143 12:0.061 13:0.02 14:0.061 15:0.041 16:0.061 17:0.082 18:0.122 19:0.204 20:0 \n"
"256 1:0.36 2:0.5 3:0.25 4:0 5:0.061 6:0.02 7:0.082 8:0 9:0.041 10:0.02 11:0.122 12:0 13:0.02 14:0.061 15:0.082 16:0.163 17:0.041 18:0.082 19:0.204 20:0 \n"
"61.32160667419001 1:0.36 2:0.5 3:0.25 4:0 5:0.061 6:0.02 7:0.061 8:0 9:0.02 10:0.082 11:0.082 12:0.02 13:0.041 14:0.041 15:0.082 16:0.143 17:0.061 18:0.02 19:0.265 20:0 \n"
"-256 1:0.36 2:0.5 3:0.25 4:0.02 5:0.041 6:0.061 7:0.02 8:0 9:0 10:0.061 11:0.122 12:0.041 13:0 14:0.02 15:0.122 16:0.102 17:0.143 18:0.02 19:0.224 20:0 \n"
"-97.20574490281747 1:0.36 2:0.5 3:0.25 4:0.041 5:0.02 6:0.061 7:0.041 8:0.02 9:0.082 10:0 11:0.082 12:0 13:0.02 14:0.082 15:0.061 16:0.102 17:0.061 18:0.041 19:0.286 20:0 \n"
"-256 1:0.36 2:0.5 3:0.25 4:0.061 5:0 6:0.041 7:0.041 8:0.061 9:0.02 10:0 11:0.102 12:0 13:0 14:0.061 15:0.122 16:0.041 17:0.163 18:0.061 19:0.224 20:0 \n"
"256 1:0.36 2:0.5 3:0.25 4:0.061 5:0 6:0 7:0.102 8:0.02 9:0.041 10:0.082 11:0.041 12:0 13:0.082 14:0.061 15:0.02 16:0.082 17:0.061 18:0.041 19:0.306 20:0 \n"
"-256 1:0.36 2:0.5 3:0.25 4:0.02 5:0.061 6:0 7:0.082 8:0.02 9:0.041 10:0 11:0.122 12:0.061 13:0.061 14:0 15:0.041 16:0.041 17:0.02 18:0.184 19:0.245 20:0 \n"
"256 1:0.36 2:0.5 3:0.25 4:0.041 5:0.041 6:0.02 7:0.041 8:0 9:0.02 10:0.02 11:0.143 12:0.061 13:0 14:0.082 15:0.041 16:0.061 17:0.122 18:0.041 19:0.265 20:0 \n"
"256 1:0.36 2:0.5 3:0.25 4:0 5:0 6:0 7:0.163 8:0 9:0.02 10:0.02 11:0.143 12:0 13:0.061 14:0.061 15:0.041 16:0.163 17:0.102 18:0.102 19:0.122 20:0 \n"
"-119.7012215863952 1:0.36 2:0.5 3:0.25 4:0.061 5:0.061 6:0.02 7:0.02 8:0 9:0 10:0 11:0.184 12:0.061 13:0.041 14:0 15:0.082 16:0.041 17:0.082 18:0.163 19:0.184 20:0 \n"
"-152.0443892909406 1:0.36 2:0.5 3:0.25 4:0 5:0 6:0 7:0.163 8:0 9:0.082 10:0.02 11:0.082 12:0.02 13:0.061 14:0.02 15:0.082 16:0.143 17:0.041 18:0.143 19:0.143 20:0 \n"
"256 1:0.36 2:0.5 3:0.25 4:0 5:0.02 6:0.061 7:0.082 8:0 9:0.082 10:0.041 11:0.041 12:0 13:0.082 14:0.02 15:0.082 16:0.163 17:0 18:0.061 19:0.265 20:0 \n"
"38.63347137022342 1:0.36 2:0.5 3:0.25 4:0.041 5:0.041 6:0.02 7:0.041 8:0 9:0 10:0.082 11:0.102 12:0.041 13:0.082 14:0.061 15:0 16:0.082 17:0.041 18:0.02 19:0.347 20:0 \n"
"196.7403329405405 1:0.36 2:0.5 3:0.25 4:0.02 5:0.041 6:0.02 7:0.082 8:0.041 9:0.082 10:0.061 11:0 12:0.041 13:0.02 14:0.082 15:0.02 16:0.061 17:0.041 18:0.02 19:0.367 20:0 \n"
"256 1:0.36 2:0.5 3:0.25 4:0.041 5:0.041 6:0 7:0.082 8:0.02 9:0.082 10:0 11:0.082 12:0.061 13:0 14:0.061 15:0.041 16:0.041 17:0.041 18:0.122 19:0.286 20:0 \n"
"256 1:0.36 2:0.5 3:0.25 4:0 5:0 6:0.061 7:0.102 8:0 9:0.061 10:0.041 11:0.082 12:0.041 13:0.041 14:0.082 15:0 16:0.102 17:0.082 18:0 19:0.306 20:0 \n"
"-256 1:0.36 2:0.5 3:0.25 4:0 5:0 6:0 7:0.163 8:0.041 9:0.02 10:0.082 11:0.02 12:0.02 13:0.041 14:0 15:0.122 16:0.102 17:0.122 18:0.102 19:0.163 20:0 \n"
"256 1:0.36 2:0.556 3:0.25 4:0.02 5:0.082 6:0.02 7:0.041 8:0 9:0.061 10:0.02 11:0.122 12:0 13:0.02 14:0.061 15:0.061 16:0.143 17:0.02 18:0.061 19:0.265 20:0 \n"
"256 1:0.36 2:0.556 3:0.25 4:0.02 5:0 6:0 7:0.143 8:0 9:0.061 10:0.02 11:0.122 12:0.041 13:0.02 14:0.02 15:0.082 16:0.102 17:0.122 18:0.122 19:0.122 20:0 \n"
"256 1:0.36 2:0.556 3:0.25 4:0 5:0.061 6:0 7:0.102 8:0.041 9:0.02 10:0.082 11:0.061 12:0.041 13:0.02 14:0 15:0.102 16:0.082 17:0.102 18:0.082 19:0.204 20:0 \n"
"-256 1:0.36 2:0.556 3:0.25 4:0.041 5:0 6:0.061 7:0.061 8:0.041 9:0.02 10:0.061 11:0.082 12:0.02 13:0.061 14:0.041 15:0.02 16:0.061 17:0.122 18:0 19:0.306 20:0 \n"
"-256 1:0.36 2:0.556 3:0.25 4:0.061 5:0 6:0.061 7:0.041 8:0.02 9:0.02 10:0 11:0.163 12:0.041 13:0.041 14:0.041 15:0.02 16:0.041 17:0.122 18:0.061 19:0.265 20:0 \n"
"-256 1:0.36 2:0.556 3:0.25 4:0 5:0 6:0.061 7:0.102 8:0.061 9:0.061 10:0.02 11:0.061 12:0.041 13:0 14:0.041 15:0.061 16:0.061 17:0.143 18:0.041 19:0.245 20:0 \n"
"186.9997209668751 1:0.36 2:0.556 3:0.25 4:0 5:0.02 6:0.041 7:0.102 8:0.082 9:0 10:0 11:0.122 12:0.02 13:0.082 14:0.061 15:0 16:0.061 17:0.102 18:0.061 19:0.245 20:0 \n"
"-256 1:0.36 2:0.556 3:0.25 4:0 5:0.041 6:0 7:0.122 8:0 9:0 10:0.02 11:0.184 12:0 13:0.041 14:0.061 15:0.041 16:0.143 17:0.122 18:0.082 19:0.143 20:0 \n"
"-256 1:0.36 2:0.556 3:0.25 4:0 5:0.041 6:0 7:0.122 8:0 9:0.02 10:0.082 11:0.102 12:0.061 13:0 14:0.061 15:0.02 16:0.102 17:0.143 18:0.02 19:0.224 20:0 \n"
"-97.52977197535611 1:0.36 2:0.556 3:0.25 4:0.061 5:0 6:0.061 7:0.041 8:0 9:0 10:0 11:0.204 12:0.041 13:0 14:0.061 15:0.061 16:0.061 17:0.204 18:0.041 19:0.163 20:0 \n"
"-256 1:0.36 2:0.556 3:0.25 4:0.061 5:0.082 6:0.02 7:0 8:0 9:0 10:0.02 11:0.184 12:0.041 13:0 14:0.02 15:0.082 16:0.061 17:0.122 18:0.102 19:0.204 20:0 \n"
"256 1:0.36 2:0.556 3:0.25 4:0 5:0.02 6:0 7:0.143 8:0.041 9:0.102 10:0 11:0.061 12:0 13:0.02 14:0.041 15:0.102 16:0.122 17:0.061 18:0.102 19:0.184 20:0 \n"
"-15.674661252456 1:0.36 2:0.556 3:0.25 4:0 5:0.02 6:0.061 7:0.082 8:0 9:0.061 10:0.02 11:0.122 12:0.02 13:0.041 14:0.061 15:0.041 16:0.143 17:0.082 18:0 19:0.245 20:0 \n"
"238.1936731376569 1:0.36 2:0.611 3:0.25 4:0.041 5:0.061 6:0.041 7:0.02 8:0 9:0.041 10:0.02 11:0.163 12:0.02 13:0.02 14:0.02 15:0.082 16:0.102 17:0.102 18:0.061 19:0.204 20:0 \n"
"256 1:0.36 2:0.611 3:0.25 4:0.041 5:0.041 6:0.02 7:0.061 8:0.041 9:0.061 10:0.041 11:0.082 12:0 13:0.041 14:0.02 15:0.061 16:0.082 17:0.082 18:0.041 19:0.286 20:0 \n"
"256 1:0.36 2:0.611 3:0.25 4:0.02 5:0.041 6:0 7:0.102 8:0.02 9:0.02 10:0.02 11:0.163 12:0.041 13:0 14:0 15:0.102 16:0.061 17:0.163 18:0.122 19:0.122 20:0 \n"
"133.8454821515237 1:0.36 2:0.611 3:0.25 4:0 5:0.02 6:0 7:0.143 8:0.082 9:0.061 10:0.02 11:0.041 12:0.02 13:0 14:0 15:0.122 16:0.041 17:0.143 18:0.122 19:0.184 20:0 \n"
"-256 1:0.36 2:0.611 3:0.25 4:0.041 5:0 6:0 7:0.122 8:0 9:0.061 10:0.041 11:0.122 12:0 13:0.041 14:0 15:0.082 16:0.122 17:0.122 18:0.102 19:0.143 20:0 \n"
"256 1:0.36 2:0.611 3:0.25 4:0 5:0.082 6:0 7:0.082 8:0 9:0.02 10:0.061 11:0.122 12:0 13:0 14:0 15:0.143 16:0.163 17:0.122 18:0.082 19:0.122 20:0 \n"
"-207.2607897566899 1:0.36 2:0.611 3:0.25 4:0 5:0.061 6:0.02 7:0.082 8:0.082 9:0 10:0.02 11:0.122 12:0 13:0.061 14:0 15:0.082 16:0.082 17:0.102 18:0.102 19:0.184 20:0 \n"
"-256 1:0.36 2:0.611 3:0.25 4:0 5:0 6:0.02 7:0.143 8:0.061 9:0.041 10:0.061 11:0.061 12:0 13:0.061 14:0.041 15:0.02 16:0.082 17:0.122 18:0.02 19:0.265 20:0 \n"
"219.8375111387304 1:0.36 2:0.611 3:0.25 4:0.02 5:0.061 6:0 7:0.082 8:0.082 9:0 10:0.061 11:0.061 12:0.041 13:0.061 14:0.02 15:0.02 16:0.02 17:0.102 18:0.061 19:0.306 20:0 \n"
"81.54289341212451 1:0.36 2:0.611 3:0.25 4:0 5:0.082 6:0.041 7:0.041 8:0 9:0.02 10:0.061 11:0.122 12:0.041 13:0.02 14:0.041 15:0.041 16:0.122 17:0.102 18:0 19:0.265 20:0 \n"
"256 1:0.36 2:0.667 3:0.25 4:0 5:0.082 6:0 7:0.082 8:0.02 9:0.041 10:0.02 11:0.163 12:0 13:0.02 14:0 15:0.102 16:0.122 17:0.102 18:0.102 19:0.143 20:0 \n"
"-35.85557516930265 1:0.36 2:0.667 3:0.25 4:0 5:0.041 6:0 7:0.122 8:0.061 9:0.122 10:0.02 11:0.041 12:0.02 13:0 14:0 15:0.102 16:0.082 17:0.082 18:0.102 19:0.204 20:0 \n"
"256 1:0.36 2:0.667 3:0.25 4:0 5:0.061 6:0.041 7:0.061 8:0.02 9:0 10:0.061 11:0.143 12:0.02 13:0.02 14:0.02 15:0.061 16:0.122 17:0.163 18:0 19:0.204 20:0 \n"
"256 1:0.36 2:0.667 3:0.25 4:0.041 5:0.082 6:0 7:0.041 8:0.061 9:0.082 10:0 11:0.102 12:0.041 13:0 14:0.02 15:0.041 16:0.02 17:0.082 18:0.102 19:0.286 20:0 \n"
"-79.06870219737756 1:0.36 2:0.667 3:0.25 4:0.041 5:0.041 6:0.041 7:0.041 8:0.082 9:0.082 10:0.061 11:0.02 12:0.041 13:0 14:0.02 15:0.061 16:0 17:0.102 18:0 19:0.367 20:0 \n"
"256 1:0.36 2:0.667 3:0.25 4:0.02 5:0 6:0.041 7:0.102 8:0 9:0.041 10:0 11:0.204 12:0 13:0.041 14:0.02 15:0.041 16:0.143 17:0.143 18:0.061 19:0.143 20:0 \n"
"-12.05726829891074 1:0.36 2:0.667 3:0.25 4:0 5:0 6:0.041 7:0.122 8:0 9:0.041 10:0.061 11:0.143 12:0.041 13:0 14:0 15:0.082 16:0.122 17:0.204 18:0.02 19:0.122 20:0 \n"
"-256 1:0.36 2:0.667 3:0.25 4:0 5:0.02 6:0.041 7:0.102 8:0 9:0.061 10:0.061 11:0.102 12:0.02 13:0.061 14:0 15:0.041 16:0.143 17:0.102 18:0 19:0.245 20:0 \n"
"-48.32108064430502 1:0.36 2:0.667 3:0.25 4:0 5:0.061 6:0.02 7:0.082 8:0 9:0 10:0.02 11:0.224 12:0.041 13:0 14:0 15:0.082 16:0.122 17:0.184 18:0.082 19:0.082 20:0 \n"
"110.0679705954873 1:0.36 2:0.667 3:0.25 4:0 5:0.02 6:0 7:0.143 8:0.082 9:0.061 10:0.061 11:0.02 12:0 13:0.061 14:0.02 15:0.041 16:0.082 17:0.082 18:0.041 19:0.286 20:0 \n"
"-210.8401051491142 1:0.36 2:0.722 3:0.25 4:0.061 5:0 6:0.02 7:0.082 8:0.041 9:0.102 10:0.02 11:0.082 12:0.041 13:0.041 14:0 15:0.02 16:0.02 17:0.102 18:0.061 19:0.306 20:0 \n"
"-256 1:0.36 2:0.722 3:0.25 4:0.041 5:0.082 6:0.02 7:0.02 8:0.082 9:0 10:0.061 11:0.102 12:0.02 13:0.02 14:0 15:0.061 16:0.02 17:0.163 18:0.02 19:0.286 20:0 \n"
"-79.79517633414321 1:0.36 2:0.722 3:0.25 4:0.02 5:0.102 6:0.02 7:0.02 8:0.02 9:0.122 10:0 11:0.102 12:0 13:0.02 14:0 15:0.082 16:0.122 17:0 18:0.082 19:0.286 20:0 \n"
"-119.3240387005268 1:0.36 2:0.722 3:0.25 4:0.061 5:0.082 6:0 7:0.02 8:0 9:0.041 10:0.041 11:0.184 12:0.041 13:0 14:0.02 15:0.02 16:0.061 17:0.143 18:0.041 19:0.245 20:0 \n"
"256 1:0.36 2:0.722 3:0.25 4:0.061 5:0.061 6:0.02 7:0.02 8:0.02 9:0.122 10:0.041 11:0.082 12:0 13:0 14:0.02 15:0.061 16:0.061 17:0.082 18:0.02 19:0.327 20:0 \n"
"-256 1:0.36 2:0.722 3:0.25 4:0.02 5:0.102 6:0 7:0.041 8:0.082 9:0.02 10:0 11:0.163 12:0.041 13:0 14:0 15:0.061 16:0.02 17:0.143 18:0.102 19:0.204 20:0 \n"
"-59.22225614405129 1:0.36 2:0.722 3:0.25 4:0.041 5:0.061 6:0 7:0.061 8:0.082 9:0.122 10:0.02 11:0.02 12:0.041 13:0.02 14:0 15:0.041 16:0 17:0.041 18:0.082 19:0.367 20:0 \n"
"-256 1:0.36 2:0.722 3:0.25 4:0.061 5:0 6:0 7:0.102 8:0 9:0.122 10:0.02 11:0.122 12:0 13:0 14:0 15:0.102 16:0.102 17:0.143 18:0.082 19:0.143 20:0 \n"
"192.9143887461813 1:0.36 2:0.722 3:0.25 4:0.061 5:0 6:0.02 7:0.082 8:0.02 9:0.061 10:0 11:0.184 12:0.041 13:0.02 14:0 15:0.041 16:0.02 17:0.184 18:0.082 19:0.184 20:0 \n"
"30.40667919752823 1:0.36 2:0.722 3:0.25 4:0.041 5:0.041 6:0 7:0.082 8:0 9:0.163 10:0 11:0.102 12:0.041 13:0.02 14:0.02 15:0.02 16:0.082 17:0.041 18:0.082 19:0.265 20:0 \n"
"256 1:0.36 2:0.722 3:0.25 4:0.02 5:0.082 6:0.041 7:0.02 8:0 9:0.102 10:0 11:0.163 12:0.02 13:0.041 14:0.02 15:0 16:0.102 17:0.041 18:0.041 19:0.306 20:0 \n"
"-222.4774106372707 1:0.36 2:0.722 3:0.25 4:0.041 5:0 6:0.041 7:0.082 8:0 9:0.102 10:0.041 11:0.102 12:0.041 13:0 14:0.02 15:0.041 16:0.061 17:0.163 18:0 19:0.265 20:0 \n"
"-256 1:0.36 2:0.778 3:0.25 4:0 5:0.061 6:0 7:0.102 8:0.02 9:0.122 10:0 11:0.143 12:0.02 13:0.02 14:0 15:0.041 16:0.122 17:0.082 18:0.082 19:0.184 20:0 \n"
"48.52994843711615 1:0.36 2:0.778 3:0.25 4:0.061 5:0.102 6:0 7:0 8:0.061 9:0.02 10:0.041 11:0.163 12:0 13:0 14:0 15:0.082 16:0.041 17:0.163 18:0.041 19:0.224 20:0 \n"
"-256 1:0.36 2:0.222 3:0.312 4:0.082 5:0 6:0.102 7:0.02 8:0.02 9:0 10:0 11:0.061 12:0.102 13:0 14:0.102 15:0.061 16:0 17:0.061 18:0.082 19:0.306 20:0 \n"
"155.5888752125039 1:0.36 2:0.222 3:0.312 4:0 5:0.02 6:0.122 7:0.061 8:0 9:0 10:0 11:0.082 12:0.143 13:0.02 14:0.082 15:0.02 16:0.061 17:0.041 18:0.082 19:0.265 20:0 \n"
"56.97071325776248 1:0.36 2:0.222 3:0.312 4:0 5:0.041 6:0.082 7:0.082 8:0.041 9:0 10:0.02 11:0.02 12:0.02 13:0.02 14:0.143 15:0.102 16:0.143 17:0.02 18:0.02 19:0.245 20:0 \n"
"-83.22515324575581 1:0.36 2:0.222 3:0.312 4:0.061 5:0 6:0 7:0.143 8:0 9:0 10:0 11:0.082 12:0.061 13:0.02 14:0.041 15:0.143 16:0.061 17:0.061 18:0.245 19:0.082 20:0 \n"
"114.6241066857981 1:0.36 2:0.278 3:0.312 4:0.102 5:0.041 6:0 7:0.061 8:0 9:0 10:0 11:0.102 12:0.082 13:0.041 14:0 15:0.143 16:0.02 17:0.02 18:0.265 19:0.122 20:0 \n"
"-139.0008367089804 1:0.36 2:0.278 3:0.312 4:0.061 5:0 6:0.122 7:0.02 8:0 9:0.02 10:0.02 11:0.061 12:0.02 13:0.061 14:0.082 15:0.082 16:0.122 17:0.02 18:0.041 19:0.265 20:0 \n"
"10.60857625265938 1:0.36 2:0.278 3:0.312 4:0.061 5:0 6:0.061 7:0.082 8:0.02 9:0 10:0.02 11:0.061 12:0.02 13:0 14:0 15:0.245 16:0.102 17:0.102 18:0.184 19:0.041 20:0 \n"
"-78.92535933383755 1:0.36 2:0.278 3:0.312 4:0.061 5:0 6:0 7:0.143 8:0.041 9:0 10:0 11:0.061 12:0.102 13:0.061 14:0.041 15:0.041 16:0 17:0.041 18:0.224 19:0.184 20:0 \n"
"119.51029900996 1:0.36 2:0.278 3:0.312 4:0 5:0.041 6:0.122 7:0.02 8:0.041 9:0.02 10:0.041 11:0 12:0.102 13:0 14:0.061 15:0.102 16:0.061 17:0.041 18:0.02 19:0.327 20:0 \n"
"-213.1670465497797 1:0.36 2:0.333 3:0.312 4:0 5:0.02 6:0.041 7:0.143 8:0 9:0 10:0.02 11:0.102 12:0.102 13:0 14:0.061 15:0.061 16:0.082 17:0.102 18:0.122 19:0.143 20:0 \n"
"256 1:0.36 2:0.333 3:0.312 4:0.082 5:0 6:0.061 7:0.061 8:0 9:0.02 10:0.02 11:0.082 12:0 13:0.02 14:0.143 15:0.061 16:0.122 17:0.082 18:0.02 19:0.224 20:0 \n"
"66.93138138245787 1:0.36 2:0.333 3:0.312 4:0.061 5:0.02 6:0.102 7:0 8:0 9:0.02 10:0.061 11:0.041 12:0 13:0.061 14:0 15:0.184 16:0.143 17:0.02 18:0.061 19:0.224 20:0 \n"
"-134.585568336367 1:0.36 2:0.333 3:0.312 4:0.041 5:0 6:0.041 7:0.102 8:0 9:0.02 10:0 11:0.102 12:0.082 13:0.02 14:0 15:0.143 16:0.082 17:0.082 18:0.204 19:0.082 20:0 \n"
"256 1:0.36 2:0.333 3:0.312 4:0.102 5:0 6:0.02 7:0.082 8:0 9:0.02 10:0 11:0.102 12:0 13:0.061 14:0.061 15:0.102 16:0.102 17:0.041 18:0.163 19:0.143 20:0 \n"
"191.5950962976276 1:0.36 2:0.333 3:0.312 4:0 5:0 6:0.041 7:0.143 8:0 9:0 10:0.061 11:0.061 12:0.061 13:0 14:0.02 15:0.163 16:0.143 17:0.122 18:0.102 19:0.082 20:0 \n"
"18.2234198524218 1:0.36 2:0.333 3:0.312 4:0.061 5:0 6:0.102 7:0.041 8:0.061 9:0 10:0.061 11:0 12:0.02 13:0.02 14:0.061 15:0.122 16:0.061 17:0.102 18:0 19:0.286 20:0 \n"
"59.18159701506443 1:0.36 2:0.333 3:0.312 4:0 5:0.02 6:0.02 7:0.163 8:0.041 9:0.02 10:0.061 11:0 12:0.102 13:0 14:0.02 15:0.122 16:0.061 17:0.082 18:0.122 19:0.163 20:0 \n"
"113.4759467833985 1:0.36 2:0.333 3:0.312 4:0 5:0 6:0.102 7:0.102 8:0.061 9:0 10:0.041 11:0.02 12:0.122 13:0 14:0.061 15:0.061 16:0.02 17:0.122 18:0.02 19:0.265 20:0 \n"
"-256 1:0.36 2:0.333 3:0.312 4:0 5:0.041 6:0.102 7:0.061 8:0.02 9:0.02 10:0 11:0.082 12:0.102 13:0 14:0.122 15:0 16:0.082 17:0.041 18:0.02 19:0.306 20:0 \n"
"256 1:0.36 2:0.389 3:0.312 4:0.041 5:0 6:0.041 7:0.122 8:0.041 9:0.02 10:0 11:0.082 12:0.061 13:0.02 14:0.02 15:0.102 16:0.061 17:0.102 18:0.163 19:0.122 20:0 \n"
"-256 1:0.36 2:0.389 3:0.312 4:0.041 5:0.02 6:0.02 7:0.122 8:0.061 9:0 10:0 11:0.082 12:0 13:0.041 14:0.102 15:0.061 16:0.102 17:0.082 18:0.102 19:0.163 20:0 \n"
"248.3941357508792 1:0.36 2:0.389 3:0.312 4:0.082 5:0.041 6:0.02 7:0.041 8:0.02 9:0.02 10:0 11:0.102 12:0 13:0.061 14:0 15:0.163 16:0.102 17:0.02 18:0.204 19:0.122 20:0 \n"
"256 1:0.36 2:0.389 3:0.312 4:0.082 5:0 6:0.02 7:0.102 8:0.041 9:0.02 10:0.061 11:0 12:0.02 13:0.02 14:0.102 15:0.082 16:0.041 17:0.102 18:0.041 19:0.265 20:0 \n"
"-256 1:0.36 2:0.389 3:0.312 4:0.02 5:0 6:0.082 7:0.082 8:0.061 9:0.02 10:0.061 11:0 12:0.02 13:0.061 14:0.041 15:0.102 16:0.082 17:0.061 18:0.041 19:0.265 20:0 \n"
"-21.26587217977973 1:0.36 2:0.389 3:0.312 4:0.082 5:0.041 6:0.041 7:0.041 8:0 9:0.02 10:0 11:0.122 12:0.082 13:0.061 14:0.061 15:0.02 16:0.041 17:0.02 18:0.102 19:0.265 20:0 \n"
"-256 1:0.36 2:0.389 3:0.312 4:0.061 5:0 6:0.061 7:0.082 8:0.061 9:0.041 10:0.02 11:0 12:0 13:0 14:0.041 15:0.184 16:0.061 17:0.102 18:0.102 19:0.184 20:0 \n"
"-232.5615376191781 1:0.36 2:0.389 3:0.312 4:0.041 5:0.041 6:0.061 7:0.061 8:0.061 9:0 10:0.02 11:0.061 12:0 13:0 14:0.122 15:0.082 16:0.082 17:0.102 18:0.02 19:0.245 20:0 \n"
"13.60026640888619 1:0.36 2:0.389 3:0.312 4:0.02 5:0.061 6:0 7:0.122 8:0.061 9:0.041 10:0.041 11:0 12:0.082 13:0 14:0.02 15:0.122 16:0.041 17:0.041 18:0.143 19:0.204 20:0 \n"
"-29.43826192207224 1:0.36 2:0.389 3:0.312 4:0 5:0.061 6:0.02 7:0.122 8:0.061 9:0 10:0 11:0.082 12:0.102 13:0 14:0.102 15:0.02 16:0.02 17:0.082 18:0.102 19:0.224 20:0 \n"
"-256 1:0.36 2:0.444 3:0.312 4:0.041 5:0.061 6:0.061 7:0.041 8:0.082 9:0 10:0.02 11:0.061 12:0.02 13:0.02 14:0 15:0.163 16:0.061 17:0.061 18:0.122 19:0.184 20:0 \n"
"256 1:0.36 2:0.444 3:0.312 4:0.02 5:0.02 6:0.061 7:0.082 8:0.041 9:0.041 10:0.061 11:0.02 12:0.061 13:0.041 14:0 15:0.102 16:0.082 17:0.061 18:0.061 19:0.245 20:0 \n"
"140.0636702351238 1:0.36 2:0.444 3:0.312 4:0.061 5:0.082 6:0.02 7:0.041 8:0 9:0 10:0.041 11:0.122 12:0.02 13:0 14:0 15:0.184 16:0.122 17:0.082 18:0.122 19:0.102 20:0 \n"
"-21.59372582013207 1:0.36 2:0.444 3:0.312 4:0.041 5:0 6:0.02 7:0.143 8:0 9:0.041 10:0 11:0.122 12:0.02 13:0.082 14:0.041 15:0.061 16:0.143 17:0.041 18:0.122 19:0.122 20:0 \n"
"-256 1:0.36 2:0.444 3:0.312 4:0.102 5:0.02 6:0.02 7:0.061 8:0 9:0.061 10:0 11:0.102 12:0 13:0.041 14:0.041 15:0.122 16:0.082 17:0.041 18:0.143 19:0.163 20:0 \n"
"21.11615228874022 1:0.36 2:0.444 3:0.312 4:0.041 5:0.041 6:0.082 7:0.041 8:0.061 9:0 10:0 11:0.102 12:0.02 13:0.082 14:0.041 15:0.041 16:0.061 17:0.041 18:0.082 19:0.265 20:0 \n"
"-116.0357452711079 1:0.36 2:0.444 3:0.312 4:0.02 5:0 6:0.041 7:0.143 8:0.082 9:0.02 10:0.02 11:0.041 12:0 13:0.082 14:0.041 15:0.061 16:0.102 17:0.061 18:0.102 19:0.184 20:0 \n"
"256 1:0.36 2:0.444 3:0.312 4:0.061 5:0.02 6:0.061 7:0.061 8:0 9:0.041 10:0 11:0.122 12:0 13:0.02 14:0.102 15:0.061 16:0.143 17:0.082 18:0.041 19:0.184 20:0 \n"
"-256 1:0.36 2:0.444 3:0.312 4:0 5:0.082 6:0 7:0.122 8:0.061 9:0.041 10:0.02 11:0.041 12:0.02 13:0.041 14:0.041 15:0.102 16:0.122 17:0 18:0.143 19:0.163 20:0 \n"
"-256 1:0.36 2:0.444 3:0.312 4:0.102 5:0 6:0.041 7:0.061 8:0 9:0.061 10:0.082 11:0.02 12:0.061 13:0 14:0.041 15:0.082 16:0.041 17:0.102 18:0.041 19:0.265 20:0 \n"
"256 1:0.36 2:0.444 3:0.312 4:0.082 5:0 6:0.02 7:0.102 8:0.041 9:0.041 10:0.082 11:0 12:0 13:0.02 14:0 15:0.184 16:0.082 17:0.082 18:0.102 19:0.163 20:0 \n"
"256 1:0.36 2:0.444 3:0.312 4:0.082 5:0.041 6:0.02 7:0.061 8:0.061 9:0.041 10:0.02 11:0.02 12:0.061 13:0.02 14:0.082 15:0.041 16:0 17:0.061 18:0.082 19:0.306 20:0 \n"
"-256 1:0.36 2:0.444 3:0.312 4:0.02 5:0.041 6:0.041 7:0.082 8:0 9:0.02 10:0 11:0.143 12:0.082 13:0 14:0.02 15:0.102 16:0.102 17:0.102 18:0.143 19:0.102 20:0 \n"
"256 1:0.36 2:0.444 3:0.312 4:0 5:0 6:0.041 7:0.163 8:0.041 9:0.061 10:0 11:0.061 12:0 13:0.02 14:0.061 15:0.102 16:0.163 17:0.082 18:0.102 19:0.102 20:0 \n"
"-210.7094703566428 1:0.36 2:0.444 3:0.312 4:0 5:0.041 6:0 7:0.163 8:0.041 9:0 10:0.082 11:0.041 12:0 13:0.061 14:0.02 15:0.122 16:0.163 17:0.061 18:0.082 19:0.122 20:0 \n"
"-256 1:0.36 2:0.444 3:0.312 4:0 5:0.02 6:0.02 7:0.163 8:0 9:0.061 10:0.061 11:0.041 12:0.02 13:0.02 14:0.102 15:0.061 16:0.184 17:0.061 18:0.02 19:0.163 20:0 \n"
"256 1:0.36 2:0.444 3:0.312 4:0 5:0 6:0.082 7:0.122 8:0.082 9:0.041 10:0.041 11:0 12:0 13:0.061 14:0.082 15:0.041 16:0.102 17:0.061 18:0 19:0.286 20:0 \n"
"-256 1:0.36 2:0.444 3:0.312 4:0.02 5:0.061 6:0.041 7:0.061 8:0.061 9:0.02 10:0.082 11:0 12:0.02 13:0.061 14:0.061 15:0.061 16:0.082 17:0.02 18:0.02 19:0.327 20:0 \n"
"-256 1:0.36 2:0.444 3:0.312 4:0.041 5:0 6:0.082 7:0.061 8:0 9:0.02 10:0.041 11:0.102 12:0.102 13:0.061 14:0.041 15:0 16:0.061 17:0.061 18:0.041 19:0.286 20:0 \n"
"-36.47341145232645 1:0.36 2:0.444 3:0.312 4:0.082 5:0.02 6:0.082 7:0.02 8:0.061 9:0.02 10:0.061 11:0.02 12:0.041 13:0.082 14:0.02 15:0.041 16:0.02 17:0.041 18:0.041 19:0.347 20:0 \n"
"-97.64808035155136 1:0.36 2:0.444 3:0.312 4:0.02 5:0.061 6:0.041 7:0.082 8:0 9:0.02 10:0.02 11:0.122 12:0 13:0 14:0.061 15:0.143 16:0.184 17:0.082 18:0.082 19:0.082 20:0 \n"
"-256 1:0.36 2:0.444 3:0.312 4:0.061 5:0 6:0 7:0.143 8:0.02 9:0.041 10:0.061 11:0.041 12:0.061 13:0.082 14:0.041 15:0 16:0.061 17:0.041 18:0.102 19:0.245 20:0 \n"
"-131.1794173290391 1:0.36 2:0.444 3:0.312 4:0.102 5:0.082 6:0 7:0.02 8:0 9:0 10:0.02 11:0.143 12:0.02 13:0 14:0.061 15:0.102 16:0.082 17:0.082 18:0.122 19:0.163 20:0 \n"
"-20.52168935222334 1:0.36 2:0.444 3:0.312 4:0.102 5:0 6:0 7:0.082 8:0.041 9:0 10:0 11:0.122 12:0.02 13:0.061 14:0.061 15:0.061 16:0.041 17:0.102 18:0.143 19:0.163 20:0 \n"
"256 1:0.36 2:0.444 3:0.312 4:0.061 5:0.041 6:0.082 7:0.02 8:0.02 9:0.041 10:0 11:0.102 12:0.102 13:0.061 14:0 15:0.02 16:0.02 17:0.02 18:0.122 19:0.286 20:0 \n"
"132.8836678551349 1:0.36 2:0.444 3:0.312 4:0.02 5:0.02 6:0.061 7:0.102 8:0.041 9:0.02 10:0.041 11:0.041 12:0.102 13:0.082 14:0 15:0.02 16:0.02 17:0.041 18:0.102 19:0.286 20:0 \n"
"127.6455405821931 1:0.36 2:0.5 3:0.312 4:0.061 5:0.082 6:0.061 7:0 8:0.082 9:0.041 10:0.02 11:0.02 12:0.02 13:0.02 14:0 15:0.143 16:0.041 17:0.041 18:0.082 19:0.286 20:0 \n"
"256 1:0.36 2:0.5 3:0.312 4:0.082 5:0 6:0.041 7:0.082 8:0.041 9:0.02 10:0.041 11:0.082 12:0.061 13:0.02 14:0.02 15:0.061 16:0.02 17:0.143 18:0.061 19:0.224 20:0 \n"
"-256 1:0.36 2:0.5 3:0.312 4:0.041 5:0.02 6:0.082 7:0.061 8:0.041 9:0.082 10:0 11:0.041 12:0 13:0.02 14:0 15:0.163 16:0.122 17:0.061 18:0.102 19:0.163 20:0 \n"
"-256 1:0.36 2:0.5 3:0.312 4:0.082 5:0 6:0.02 7:0.102 8:0.061 9:0.061 10:0.02 11:0.041 12:0.02 13:0.061 14:0.041 15:0.041 16:0.041 17:0.061 18:0.082 19:0.265 20:0 \n"
"70.23056928654613 1:0.36 2:0.5 3:0.312 4:0 5:0 6:0.061 7:0.122 8:0 9:0.082 10:0.041 11:0.061 12:0.041 13:0.02 14:0.041 15:0.082 16:0.163 17:0.082 18:0.041 19:0.163 20:0 \n"
"168.4738806574053 1:0.36 2:0.5 3:0.312 4:0.02 5:0.082 6:0 7:0.102 8:0.082 9:0.041 10:0.02 11:0.041 12:0.082 13:0 14:0.082 15:0 16:0.02 17:0.061 18:0.082 19:0.286 20:0 \n"
"-256 1:0.36 2:0.5 3:0.312 4:0.102 5:0.082 6:0.02 7:0 8:0.02 9:0.02 10:0.041 11:0.082 12:0.02 13:0.061 14:0 15:0.102 16:0.061 17:0.02 18:0.122 19:0.245 20:0 \n"
"-57.21947056012581 1:0.36 2:0.5 3:0.312 4:0.02 5:0.041 6:0 7:0.143 8:0 9:0.082 10:0 11:0.102 12:0.082 13:0 14:0.082 15:0.02 16:0.102 17:0.061 18:0.102 19:0.163 20:0 \n"
"256 1:0.36 2:0.5 3:0.312 4:0.02 5:0.02 6:0 7:0.163 8:0.061 9:0.061 10:0.02 11:0.02 12:0.061 13:0.061 14:0 15:0.061 16:0.061 17:0.041 18:0.163 19:0.184 20:0 \n"
"-200.4085583283654 1:0.36 2:0.5 3:0.312 4:0.02 5:0.02 6:0.02 7:0.143 8:0.02 9:0 10:0.041 11:0.102 12:0.041 13:0.061 14:0.082 15:0 16:0.122 17:0.102 18:0.02 19:0.204 20:0 \n"
"131.5810980814735 1:0.36 2:0.5 3:0.312 4:0.082 5:0.082 6:0 7:0.041 8:0.061 9:0 10:0.061 11:0.061 12:0 13:0 14:0.061 15:0.122 16:0.041 17:0.102 18:0.061 19:0.224 20:0 \n"
"219.8155277412948 1:0.36 2:0.5 3:0.312 4:0.102 5:0 6:0.02 7:0.082 8:0 9:0.082 10:0.041 11:0.061 12:0 13:0.041 14:0.082 15:0.061 16:0.102 17:0.061 18:0.041 19:0.224 20:0 \n"
"250.5508225566981 1:0.36 2:0.5 3:0.312 4:0 5:0 6:0.061 7:0.143 8:0.02 9:0.061 10:0 11:0.082 12:0 13:0.082 14:0 15:0.102 16:0.184 17:0.02 18:0.122 19:0.122 20:0 \n"
"-256 1:0.36 2:0.5 3:0.312 4:0.02 5:0.041 6:0.082 7:0.061 8:0 9:0.082 10:0 11:0.102 12:0.02 13:0.061 14:0.061 15:0.041 16:0.143 17:0 18:0.041 19:0.245 20:0 \n"
"97.87804529001468 1:0.36 2:0.5 3:0.312 4:0 5:0.082 6:0 7:0.122 8:0 9:0.061 10:0.061 11:0.061 12:0.061 13:0.02 14:0.061 15:0.02 16:0.143 17:0 18:0.061 19:0.245 20:0 \n"
"-30.59412395269437 1:0.36 2:0.5 3:0.312 4:0.082 5:0 6:0.061 7:0.061 8:0.082 9:0.061 10:0 11:0.02 12:0 13:0.02 14:0.041 15:0.122 16:0.02 17:0.102 18:0.082 19:0.245 20:0 \n"
"256 1:0.36 2:0.5 3:0.312 4:0.082 5:0.041 6:0.02 7:0.061 8:0.02 9:0 10:0 11:0.163 12:0 13:0 14:0.041 15:0.122 16:0.102 17:0.143 18:0.122 19:0.082 20:0 \n"
"-256 1:0.36 2:0.5 3:0.312 4:0.082 5:0.041 6:0.041 7:0.041 8:0.02 9:0 10:0.082 11:0.061 12:0 13:0.082 14:0 15:0.102 16:0.102 17:0.061 18:0.041 19:0.245 20:0 \n"
"256 1:0.36 2:0.5 3:0.312 4:0.02 5:0 6:0.041 7:0.143 8:0.02 9:0.082 10:0.041 11:0.041 12:0.061 13:0.041 14:0.061 15:0 16:0.102 17:0.041 18:0.041 19:0.265 20:0 \n"
"174.7633286256245 1:0.36 2:0.5 3:0.312 4:0.082 5:0.041 6:0.02 7:0.041 8:0 9:0 10:0 11:0.184 12:0.061 13:0 14:0.082 15:0.041 16:0.061 17:0.143 18:0.082 19:0.163 20:0 \n"
"-62.25382470058172 1:0.36 2:0.5 3:0.312 4:0 5:0 6:0 7:0.204 8:0.041 9:0.082 10:0.061 11:0 12:0.061 13:0 14:0.041 15:0.061 16:0.082 17:0.102 18:0.082 19:0.184 20:0 \n"
"-256 1:0.36 2:0.5 3:0.312 4:0.082 5:0.061 6:0.041 7:0.02 8:0 9:0.082 10:0.082 11:0 12:0 13:0 14:0.02 15:0.163 16:0.122 17:0.041 18:0.02 19:0.265 20:0 \n"
"256 1:0.36 2:0.556 3:0.312 4:0.041 5:0.02 6:0.082 7:0.061 8:0.02 9:0.061 10:0.041 11:0.082 12:0.02 13:0.061 14:0 15:0.082 16:0.122 17:0.061 18:0.02 19:0.224 20:0 \n"
"256 1:0.36 2:0.556 3:0.312 4:0.061 5:0.082 6:0.02 7:0.041 8:0.041 9:0.041 10:0.02 11:0.102 12:0.02 13:0.02 14:0.041 15:0.061 16:0.061 17:0.061 18:0.082 19:0.245 20:0 \n"
"-256 1:0.36 2:0.556 3:0.312 4:0.082 5:0 6:0.02 7:0.102 8:0 9:0.061 10:0.02 11:0.122 12:0.02 13:0.041 14:0.061 15:0.02 16:0.102 17:0.102 18:0.061 19:0.184 20:0 \n"
"-256 1:0.36 2:0.556 3:0.312 4:0 5:0 6:0.02 7:0.184 8:0.041 9:0.041 10:0.041 11:0.061 12:0.061 13:0.082 14:0.02 15:0 16:0.102 17:0.082 18:0.082 19:0.184 20:0 \n"
"-256 1:0.36 2:0.556 3:0.312 4:0.02 5:0.041 6:0 7:0.143 8:0.041 9:0.041 10:0.02 11:0.102 12:0 13:0.061 14:0.02 15:0.061 16:0.143 17:0.061 18:0.122 19:0.122 20:0 \n"
"-176.6994406191447 1:0.36 2:0.556 3:0.312 4:0 5:0.082 6:0 7:0.122 8:0.041 9:0.061 10:0.02 11:0.082 12:0.082 13:0 14:0.02 15:0.041 16:0.061 17:0.061 18:0.122 19:0.204 20:0 \n"
"-256 1:0.36 2:0.556 3:0.312 4:0.041 5:0.02 6:0 7:0.143 8:0.061 9:0.082 10:0.02 11:0.02 12:0.041 13:0.061 14:0.02 15:0.041 16:0.061 17:0.041 18:0.122 19:0.224 20:0 \n"
"-256 1:0.36 2:0.556 3:0.312 4:0.02 5:0.082 6:0.02 7:0.082 8:0.041 9:0.02 10:0.061 11:0.061 12:0.061 13:0 14:0.061 15:0.041 16:0.061 17:0.102 18:0.02 19:0.265 20:0 \n"
"52.43137321875999 1:0.36 2:0.556 3:0.312 4:0 5:0.102 6:0.061 7:0.02 8:0.041 9:0.02 10:0.041 11:0.102 12:0.082 13:0.041 14:0 15:0.041 16:0.082 17:0.041 18:0.041 19:0.286 20:0 \n"
"256 1:0.36 2:0.556 3:0.312 4:0 5:0.082 6:0 7:0.122 8:0.082 9:0.02 10:0.02 11:0.082 12:0 13:0.041 14:0.061 15:0.041 16:0.102 17:0.061 18:0.082 19:0.204 20:0 \n"
"256 1:0.36 2:0.556 3:0.312 4:0.082 5:0.02 6:0.041 7:0.061 8:0.102 9:0.041 10:0.02 11:0.041 12:0.02 13:0.041 14:0.061 15:0.041 16:0 17:0.082 18:0.041 19:0.306 20:0 \n"
"-256 1:0.36 2:0.556 3:0.312 4:0.02 5:0.102 6:0.041 7:0.041 8:0.082 9:0.041 10:0.02 11:0.041 12:0 13:0.041 14:0 15:0.122 16:0.102 17:0.02 18:0.102 19:0.224 20:0 \n"
"256 1:0.36 2:0.556 3:0.312 4:0.061 5:0.041 6:0.02 7:0.082 8:0.041 9:0.082 10:0.061 11:0.02 12:0 13:0 14:0.041 15:0.122 16:0.082 17:0.082 18:0.041 19:0.224 20:0 \n"
"256 1:0.36 2:0.556 3:0.312 4:0.041 5:0.061 6:0.02 7:0.082 8:0.02 9:0.061 10:0.061 11:0.041 12:0.041 13:0.082 14:0 15:0.041 16:0.102 17:0 18:0.082 19:0.265 20:0 \n"
"104.6918075850716 1:0.36 2:0.556 3:0.312 4:0.061 5:0 6:0 7:0.143 8:0.02 9:0.061 10:0 11:0.102 12:0.061 13:0.061 14:0 15:0.041 16:0.061 17:0.082 18:0.163 19:0.143 20:0 \n"
"87.36186369943478 1:0.36 2:0.556 3:0.312 4:0.02 5:0.061 6:0.041 7:0.061 8:0.082 9:0 10:0.041 11:0.082 12:0 13:0.082 14:0.041 15:0.041 16:0.102 17:0.041 18:0.041 19:0.265 20:0 \n"
"256 1:0.36 2:0.556 3:0.312 4:0.102 5:0 6:0.02 7:0.061 8:0 9:0.061 10:0.041 11:0.102 12:0.082 13:0 14:0.041 15:0.041 16:0.02 17:0.143 18:0.061 19:0.224 20:0 \n"
"-256 1:0.36 2:0.556 3:0.312 4:0 5:0.061 6:0.02 7:0.122 8:0 9:0.061 10:0 11:0.143 12:0 13:0.082 14:0.061 15:0.02 16:0.184 17:0 18:0.082 19:0.163 20:0 \n"
"-194.0724203465573 1:0.36 2:0.556 3:0.312 4:0.041 5:0.102 6:0 7:0.061 8:0.02 9:0 10:0 11:0.184 12:0.02 13:0.041 14:0.02 15:0.082 16:0.122 17:0.061 18:0.143 19:0.102 20:0 \n"
"256 1:0.36 2:0.556 3:0.312 4:0.061 5:0.061 6:0.082 7:0 8:0.02 9:0.082 10:0.041 11:0.041 12:0 13:0 14:0.02 15:0.143 16:0.122 17:0.041 18:0.02 19:0.265 20:0 \n"
"-256 1:0.36 2:0.556 3:0.312 4:0 5:0 6:0.082 7:0.122 8:0.041 9:0.041 10:0.061 11:0.041 12:0.061 13:0.061 14:0.02 15:0.02 16:0.102 17:0.102 18:0 19:0.245 20:0 \n"
"256 1:0.36 2:0.556 3:0.312 4:0.02 5:0 6:0.02 7:0.163 8:0.02 9:0.102 10:0.061 11:0.02 12:0.061 13:0 14:0.041 15:0.061 16:0.082 17:0.102 18:0.041 19:0.204 20:0 \n"
"-256 1:0.36 2:0.556 3:0.312 4:0.02 5:0.102 6:0 7:0.082 8:0.082 9:0.02 10:0.061 11:0.041 12:0.061 13:0 14:0 15:0.102 16:0.02 17:0.082 18:0.102 19:0.224 20:0 \n"
"-256 1:0.36 2:0.556 3:0.312 4:0 5:0.102 6:0.061 7:0.041 8:0.041 9:0.061 10:0 11:0.102 12:0 13:0.02 14:0.061 15:0.082 16:0.163 17:0.02 18:0.041 19:0.204 20:0 \n"
"-256 1:0.36 2:0.556 3:0.312 4:0.061 5:0.041 6:0.082 7:0.02 8:0 9:0.061 10:0.02 11:0.122 12:0.061 13:0 14:0.061 15:0.041 16:0.082 17:0.102 18:0 19:0.245 20:0 \n"
"256 1:0.36 2:0.556 3:0.312 4:0.082 5:0 6:0.02 7:0.102 8:0 9:0.082 10:0.041 11:0.061 12:0 13:0.082 14:0 15:0.082 16:0.122 17:0.02 18:0.102 19:0.204 20:0 \n"
"256 1:0.36 2:0.556 3:0.312 4:0 5:0.102 6:0.082 7:0.02 8:0.102 9:0.02 10:0.041 11:0.041 12:0 13:0 14:0.02 15:0.143 16:0.102 17:0.082 18:0.02 19:0.224 20:0 \n"
"256 1:0.36 2:0.556 3:0.312 4:0.082 5:0.02 6:0.082 7:0.02 8:0.02 9:0.02 10:0 11:0.163 12:0 13:0.082 14:0.061 15:0.02 16:0.082 17:0.082 18:0.02 19:0.245 20:0 \n"
"-256 1:0.36 2:0.556 3:0.312 4:0.02 5:0.102 6:0.041 7:0.041 8:0.02 9:0.102 10:0 11:0.061 12:0.082 13:0 14:0 15:0.082 16:0.082 17:0 18:0.122 19:0.245 20:0 \n"
"-85.01185479675293 1:0.36 2:0.556 3:0.312 4:0.082 5:0.082 6:0 7:0.041 8:0.041 9:0.041 10:0.041 11:0.061 12:0 13:0.082 14:0.061 15:0.02 16:0.061 17:0 18:0.061 19:0.327 20:0 \n"
"256 1:0.36 2:0.556 3:0.312 4:0.041 5:0 6:0 7:0.163 8:0 9:0.102 10:0.02 11:0.082 12:0.041 13:0 14:0.041 15:0.061 16:0.122 17:0.102 18:0.102 19:0.122 20:0 \n"
"256 1:0.36 2:0.611 3:0.312 4:0 5:0.041 6:0 7:0.163 8:0.082 9:0.02 10:0.061 11:0.061 12:0.02 13:0.02 14:0.02 15:0.082 16:0.102 17:0.122 18:0.061 19:0.143 20:0 \n"
"-256 1:0.36 2:0.611 3:0.312 4:0.061 5:0.02 6:0 7:0.102 8:0.02 9:0.041 10:0.041 11:0.122 12:0 13:0.041 14:0 15:0.102 16:0.122 17:0.122 18:0.102 19:0.102 20:0 \n"
"-256 1:0.36 2:0.611 3:0.312 4:0.082 5:0.02 6:0.061 7:0.041 8:0.082 9:0.082 10:0 11:0.041 12:0 13:0.061 14:0 15:0.082 16:0.041 17:0.061 18:0.082 19:0.265 20:0 \n"
"-256 1:0.36 2:0.611 3:0.312 4:0 5:0.102 6:0.02 7:0.082 8:0.061 9:0.041 10:0.02 11:0.102 12:0 13:0 14:0.02 15:0.122 16:0.143 17:0.082 18:0.082 19:0.122 20:0 \n"
"209.1814181715456 1:0.36 2:0.611 3:0.312 4:0.082 5:0.082 6:0.02 7:0.02 8:0.02 9:0.061 10:0.02 11:0.102 12:0 13:0.061 14:0 15:0.082 16:0.102 17:0.02 18:0.102 19:0.224 20:0 \n"
"194.1096588195538 1:0.36 2:0.611 3:0.312 4:0 5:0 6:0.041 7:0.163 8:0.102 9:0.041 10:0 11:0.082 12:0 13:0.02 14:0 15:0.102 16:0.102 17:0.163 18:0.102 19:0.082 20:0 \n"
"199.3499831558207 1:0.36 2:0.611 3:0.312 4:0.061 5:0.102 6:0.02 7:0.02 8:0.02 9:0 10:0 11:0.204 12:0.041 13:0.041 14:0.02 15:0.041 16:0.061 17:0.082 18:0.102 19:0.184 20:0 \n"
"-256 1:0.36 2:0.611 3:0.312 4:0.082 5:0.02 6:0.061 7:0.041 8:0 9:0.041 10:0 11:0.163 12:0.061 13:0.061 14:0.02 15:0 16:0.061 17:0.102 18:0.041 19:0.245 20:0 \n"
"40.56009906427054 1:0.36 2:0.611 3:0.312 4:0.061 5:0.102 6:0.02 7:0.02 8:0.102 9:0.041 10:0.02 11:0.041 12:0 13:0.061 14:0.02 15:0.061 16:0.041 17:0 18:0.082 19:0.327 20:0 \n"
"256 1:0.36 2:0.611 3:0.312 4:0 5:0.102 6:0 7:0.102 8:0.082 9:0.061 10:0.02 11:0.061 12:0 13:0.041 14:0 15:0.102 16:0.122 17:0 18:0.122 19:0.184 20:0 \n"
"256 1:0.36 2:0.667 3:0.312 4:0.02 5:0.041 6:0.061 7:0.082 8:0.102 9:0.02 10:0.02 11:0.102 12:0.041 13:0 14:0.02 15:0.041 16:0.041 17:0.184 18:0.02 19:0.204 20:0 \n"
"-256 1:0.36 2:0.667 3:0.312 4:0 5:0.061 6:0.041 7:0.082 8:0.061 9:0.02 10:0 11:0.163 12:0.02 13:0 14:0.02 15:0.082 16:0.122 17:0.163 18:0.061 19:0.102 20:0 \n"
"256 1:0.36 2:0.667 3:0.312 4:0.041 5:0 6:0 7:0.163 8:0.041 9:0.102 10:0.061 11:0.041 12:0.02 13:0.041 14:0.02 15:0.02 16:0.082 17:0.102 18:0.041 19:0.224 20:0 \n"
"-256 1:0.36 2:0.667 3:0.312 4:0.061 5:0.102 6:0.041 7:0 8:0.082 9:0.02 10:0.041 11:0.102 12:0 13:0.061 14:0.02 15:0.02 16:0.061 17:0.061 18:0.02 19:0.306 20:0 \n"
"-42.50700667456636 1:0.36 2:0.667 3:0.312 4:0.041 5:0.02 6:0.061 7:0.082 8:0 9:0.102 10:0 11:0.143 12:0.061 13:0.02 14:0 15:0.02 16:0.102 17:0.082 18:0.061 19:0.204 20:0 \n"
"-250.9741153614806 1:0.36 2:0.667 3:0.312 4:0.041 5:0.082 6:0.061 7:0.02 8:0.02 9:0 10:0 11:0.224 12:0.041 13:0.061 14:0 15:0.02 16:0.102 17:0.082 18:0.061 19:0.184 20:0 \n"
"-256 1:0.36 2:0.667 3:0.312 4:0.02 5:0.122 6:0 7:0.061 8:0.041 9:0 10:0 11:0.204 12:0.02 13:0.041 14:0 15:0.061 16:0.122 17:0.082 18:0.122 19:0.102 20:0 \n"
"-28.22319304184437 1:0.36 2:0.667 3:0.312 4:0.082 5:0 6:0.02 7:0.102 8:0.02 9:0.02 10:0 11:0.184 12:0.061 13:0 14:0.02 15:0.041 16:0.041 17:0.224 18:0.082 19:0.102 20:0 \n"
"-236.3199855369383 1:0.36 2:0.667 3:0.312 4:0.02 5:0.02 6:0.061 7:0.102 8:0 9:0.143 10:0.061 11:0.02 12:0 13:0.02 14:0 15:0.102 16:0.184 17:0.041 18:0 19:0.224 20:0 \n"
"-256 1:0.36 2:0.667 3:0.312 4:0 5:0 6:0 7:0.204 8:0.122 9:0.082 10:0 11:0.041 12:0.02 13:0.061 14:0.02 15:0.02 16:0.061 17:0.102 18:0.082 19:0.184 20:0 \n"
"122.8982565463316 1:0.36 2:0.722 3:0.312 4:0.02 5:0.082 6:0.041 7:0.061 8:0.02 9:0.061 10:0.041 11:0.122 12:0 13:0.041 14:0 15:0.061 16:0.163 17:0.082 18:0.02 19:0.184 20:0 \n"
"120.2521995367224 1:0.36 2:0.722 3:0.312 4:0.061 5:0.122 6:0.02 7:0 8:0.082 9:0 10:0.061 11:0.102 12:0.02 13:0 14:0 15:0.082 16:0.041 17:0.143 18:0 19:0.265 20:0 \n"
"255.2007036568135 1:0.36 2:0.722 3:0.312 4:0.02 5:0.082 6:0.02 7:0.082 8:0.082 9:0.02 10:0 11:0.163 12:0 13:0 14:0 15:0.102 16:0.102 17:0.143 18:0.082 19:0.102 20:0 \n"
"256 1:0.36 2:0.722 3:0.312 4:0.041 5:0.02 6:0 7:0.143 8:0.061 9:0.02 10:0 11:0.184 12:0.02 13:0.041 14:0.02 15:0 16:0.061 17:0.184 18:0.082 19:0.122 20:0 \n"
"-210.0972867077138 1:0.36 2:0.722 3:0.312 4:0 5:0.102 6:0 7:0.102 8:0 9:0.02 10:0.061 11:0.184 12:0.041 13:0 14:0.02 15:0.02 16:0.143 17:0.143 18:0.02 19:0.143 20:0 \n"
"-179.8120815603047 1:0.36 2:0.722 3:0.312 4:0.102 5:0.061 6:0.02 7:0.02 8:0.041 9:0.02 10:0 11:0.184 12:0.041 13:0 14:0 15:0.061 16:0.02 17:0.184 18:0.082 19:0.163 20:0 \n"
"-256 1:0.36 2:0.722 3:0.312 4:0.061 5:0 6:0 7:0.143 8:0.02 9:0.122 10:0.02 11:0.102 12:0 13:0 14:0 15:0.102 16:0.102 17:0.143 18:0.082 19:0.102 20:0 \n"
"67.60255259698862 1:0.36 2:0.722 3:0.312 4:0 5:0.122 6:0 7:0.082 8:0 9:0.02 10:0.041 11:0.184 12:0.02 13:0.061 14:0 15:0.02 16:0.184 17:0.041 18:0.061 19:0.163 20:0 \n"
"-13.39698510894051 1:0.36 2:0.722 3:0.312 4:0.041 5:0.061 6:0.02 7:0.061 8:0.122 9:0 10:0 11:0.143 12:0.02 13:0 14:0.02 15:0.061 16:0.02 17:0.204 18:0.041 19:0.184 20:0 \n"
"-72.02505823566278 1:0.36 2:0.778 3:0.312 4:0 5:0.041 6:0 7:0.163 8:0.102 9:0.061 10:0 11:0.122 12:0.041 13:0 14:0 15:0.041 16:0.041 17:0.184 18:0.082 19:0.122 20:0 \n"
"256 1:0.36 2:0.778 3:0.312 4:0 5:0.041 6:0.041 7:0.122 8:0 9:0.082 10:0.041 11:0.143 12:0.041 13:0.041 14:0 15:0 16:0.163 17:0.122 18:0 19:0.163 20:0 \n"
"-65.98175188273461 1:0.36 2:0.778 3:0.312 4:0.061 5:0.02 6:0.02 7:0.082 8:0.102 9:0.02 10:0 11:0.163 12:0.02 13:0 14:0 15:0.061 16:0.02 17:0.245 18:0.061 19:0.122 20:0 \n"
"33.91272693571598 1:0.36 2:0.778 3:0.312 4:0.102 5:0.102 6:0 7:0 8:0.02 9:0.061 10:0 11:0.204 12:0.041 13:0.041 14:0 15:0 16:0.041 17:0.082 18:0.082 19:0.224 20:0 \n"
"227.0128727929638 1:0.36 2:0.778 3:0.312 4:0.102 5:0.041 6:0.041 7:0.02 8:0.102 9:0.041 10:0 11:0.143 12:0 13:0.02 14:0 15:0.041 16:0 17:0.184 18:0.041 19:0.224 20:0 \n"
"4.885710320667329 1:0.36 2:0.222 3:0.344 4:0.082 5:0 6:0 7:0.143 8:0.041 9:0 10:0.041 11:0 12:0.102 13:0.02 14:0.041 15:0.122 16:0 17:0.041 18:0.204 19:0.163 20:0 \n"
"-85.81022855114324 1:0.36 2:0.222 3:0.344 4:0.041 5:0.041 6:0.02 7:0.102 8:0 9:0 10:0.02 11:0.061 12:0.061 13:0.041 14:0 15:0.184 16:0.122 17:0 18:0.245 19:0.061 20:0 \n"
"89.4094345845475 1:0.36 2:0.222 3:0.344 4:0.102 5:0 6:0.102 7:0 8:0 9:0 10:0.041 11:0.041 12:0.061 13:0.02 14:0.061 15:0.143 16:0.061 17:0.061 18:0.061 19:0.245 20:0 \n"
"114.7083293570839 1:0.36 2:0.222 3:0.344 4:0.02 5:0 6:0.02 7:0.184 8:0.041 9:0 10:0.02 11:0.02 12:0.082 13:0.02 14:0.184 15:0 16:0.061 17:0.061 18:0.061 19:0.224 20:0 \n"
"109.1193381285315 1:0.36 2:0.222 3:0.344 4:0 5:0.041 6:0.102 7:0.061 8:0.041 9:0 10:0 11:0.041 12:0.061 13:0.041 14:0.02 15:0.163 16:0.122 17:0 18:0.163 19:0.143 20:0 \n"
"-256 1:0.36 2:0.278 3:0.344 4:0.041 5:0 6:0.02 7:0.143 8:0 9:0 10:0.041 11:0.061 12:0.02 13:0.02 14:0.061 15:0.163 16:0.163 17:0.082 18:0.143 19:0.041 20:0 \n"
"-105.8218285786826 1:0.36 2:0.278 3:0.344 4:0.02 5:0.02 6:0.082 7:0.102 8:0.041 9:0.02 10:0.041 11:0 12:0.102 13:0 14:0.102 15:0.041 16:0.061 17:0.041 18:0.041 19:0.286 20:0 \n"
"256 1:0.36 2:0.278 3:0.344 4:0 5:0 6:0.02 7:0.184 8:0.041 9:0 10:0 11:0.061 12:0.061 13:0.02 14:0.082 15:0.102 16:0.102 17:0.082 18:0.163 19:0.082 20:0 \n"
"256 1:0.36 2:0.278 3:0.344 4:0.061 5:0.02 6:0.02 7:0.122 8:0 9:0.02 10:0 11:0.061 12:0.041 13:0.061 14:0 15:0.163 16:0.122 17:0 18:0.224 19:0.082 20:0 \n"
"63.54642008297601 1:0.36 2:0.278 3:0.344 4:0.041 5:0 6:0.02 7:0.143 8:0.041 9:0 10:0.061 11:0 12:0.082 13:0 14:0.061 15:0.122 16:0.041 17:0.102 18:0.122 19:0.163 20:0 \n"
"-256 1:0.36 2:0.278 3:0.344 4:0 5:0 6:0.102 7:0.102 8:0.02 9:0 10:0.061 11:0.02 12:0.143 13:0.061 14:0 15:0.061 16:0.061 17:0.041 18:0.102 19:0.224 20:0 \n"
"170.3429760308162 1:0.36 2:0.278 3:0.344 4:0.041 5:0.041 6:0.061 7:0.082 8:0.041 9:0 10:0.061 11:0 12:0 13:0.061 14:0.102 15:0.082 16:0.143 17:0 18:0.02 19:0.265 20:0 \n"
"175.6645134391717 1:0.36 2:0.278 3:0.344 4:0 5:0 6:0.02 7:0.204 8:0.041 9:0 10:0.061 11:0 12:0.082 13:0 14:0.122 15:0.061 16:0.102 17:0.102 18:0.061 19:0.143 20:0 \n"
"-95.06630824206293 1:0.36 2:0.278 3:0.344 4:0.041 5:0.02 6:0.122 7:0.041 8:0.041 9:0 10:0 11:0.041 12:0.061 13:0 14:0 15:0.204 16:0.061 17:0.082 18:0.143 19:0.143 20:0 \n"
"104.6379179278804 1:0.36 2:0.278 3:0.344 4:0.061 5:0 6:0.122 7:0.02 8:0 9:0 10:0 11:0.102 12:0.082 13:0 14:0.061 15:0.122 16:0.082 17:0.102 18:0.061 19:0.184 20:0 \n"
"-69.18490676347309 1:0.36 2:0.278 3:0.344 4:0.02 5:0 6:0.061 7:0.122 8:0.041 9:0.02 10:0.02 11:0.02 12:0.143 13:0.061 14:0.061 15:0 16:0.02 17:0.02 18:0.122 19:0.265 20:0 \n"
"-256 1:0.36 2:0.333 3:0.344 4:0.041 5:0.041 6:0.02 7:0.122 8:0.041 9:0.02 10:0.02 11:0.041 12:0.041 13:0 14:0.143 15:0.041 16:0.102 17:0.061 18:0.041 19:0.224 20:0 \n"
"-256 1:0.36 2:0.333 3:0.344 4:0.102 5:0 6:0.02 7:0.082 8:0.041 9:0.02 10:0.02 11:0.041 12:0.061 13:0.061 14:0.02 15:0.102 16:0.02 17:0.041 18:0.184 19:0.184 20:0 \n"
"222.4321743327451 1:0.36 2:0.333 3:0.344 4:0.061 5:0.041 6:0.122 7:0 8:0.041 9:0 10:0.02 11:0.061 12:0.041 13:0.061 14:0.041 15:0.102 16:0.061 17:0.02 18:0.061 19:0.265 20:0 \n"
"-49.63623032761913 1:0.36 2:0.333 3:0.344 4:0.082 5:0.061 6:0.041 7:0.02 8:0.061 9:0.02 10:0 11:0.041 12:0.02 13:0.041 14:0.041 15:0.143 16:0.061 17:0 18:0.163 19:0.204 20:0 \n"
"256 1:0.36 2:0.333 3:0.344 4:0.02 5:0 6:0.082 7:0.122 8:0.061 9:0 10:0.061 11:0 12:0.102 13:0.02 14:0.082 15:0.041 16:0.02 17:0.102 18:0.02 19:0.265 20:0 \n"
"256 1:0.36 2:0.333 3:0.344 4:0.061 5:0 6:0 7:0.163 8:0.041 9:0 10:0 11:0.082 12:0.061 13:0 14:0.143 15:0.02 16:0.061 17:0.122 18:0.082 19:0.163 20:0 \n"
"256 1:0.36 2:0.389 3:0.344 4:0.061 5:0.02 6:0.041 7:0.102 8:0.02 9:0.02 10:0.02 11:0.061 12:0.061 13:0.02 14:0.122 15:0.02 16:0.082 17:0.082 18:0.041 19:0.224 20:0 \n"
"73.09428725251375 1:0.36 2:0.389 3:0.344 4:0 5:0.02 6:0.061 7:0.143 8:0.061 9:0.02 10:0.02 11:0.041 12:0 13:0.02 14:0.102 15:0.082 16:0.143 17:0.082 18:0.041 19:0.163 20:0 \n"
"-256 1:0.36 2:0.389 3:0.344 4:0.061 5:0 6:0.02 7:0.143 8:0.02 9:0.041 10:0.061 11:0 12:0.02 13:0.061 14:0.02 15:0.122 16:0.102 17:0.041 18:0.122 19:0.163 20:0 \n"
"-92.91029091398985 1:0.36 2:0.389 3:0.344 4:0.041 5:0.061 6:0.082 7:0.041 8:0.061 9:0.02 10:0.061 11:0 12:0.102 13:0.02 14:0.061 15:0.041 16:0 17:0.041 18:0.02 19:0.347 20:0 \n"
"-256 1:0.36 2:0.389 3:0.344 4:0.02 5:0.061 6:0.061 7:0.082 8:0.02 9:0.02 10:0.02 11:0.061 12:0.082 13:0.061 14:0.061 15:0.02 16:0.102 17:0 18:0.061 19:0.265 20:0 \n"
"220.0303655072711 1:0.36 2:0.389 3:0.344 4:0 5:0.041 6:0.082 7:0.102 8:0.061 9:0.02 10:0 11:0.061 12:0.122 13:0.02 14:0.061 15:0 16:0.041 17:0.061 18:0.082 19:0.245 20:0 \n"
"256 1:0.36 2:0.389 3:0.344 4:0.102 5:0.041 6:0.041 7:0.041 8:0 9:0 10:0 11:0.143 12:0.02 13:0.041 14:0.041 15:0.102 16:0.082 17:0.061 18:0.143 19:0.143 20:0 \n"
"256 1:0.36 2:0.389 3:0.344 4:0.061 5:0.041 6:0.061 7:0.041 8:0.061 9:0.02 10:0.041 11:0.02 12:0.041 13:0 14:0.122 15:0.061 16:0.061 17:0.082 18:0 19:0.286 20:0 \n"
"-127.6186309962402 1:0.36 2:0.389 3:0.344 4:0 5:0 6:0.041 7:0.163 8:0 9:0 10:0 11:0.143 12:0.082 13:0 14:0.102 15:0.041 16:0.143 17:0.143 18:0.061 19:0.082 20:0 \n"
"240.5079077129424 1:0.36 2:0.389 3:0.344 4:0.061 5:0.02 6:0 7:0.122 8:0.061 9:0 10:0 11:0.082 12:0.041 13:0 14:0.02 15:0.163 16:0.061 17:0.122 18:0.204 19:0.041 20:0 \n"
"-256 1:0.36 2:0.389 3:0.344 4:0.082 5:0.061 6:0.02 7:0.041 8:0 9:0 10:0 11:0.143 12:0 13:0.041 14:0.02 15:0.163 16:0.143 17:0.02 18:0.184 19:0.082 20:0 \n"
"-51.28054270953579 1:0.36 2:0.389 3:0.344 4:0.102 5:0 6:0.082 7:0.02 8:0.02 9:0 10:0.041 11:0.082 12:0 13:0 14:0 15:0.224 16:0.102 17:0.143 18:0.102 19:0.082 20:0 \n"
"251.7951172042671 1:0.36 2:0.389 3:0.344 4:0 5:0.041 6:0.02 7:0.143 8:0 9:0 10:0.02 11:0.122 12:0.02 13:0.061 14:0.041 15:0.102 16:0.204 17:0.041 18:0.122 19:0.061 20:0 \n"
"139.9544933834963 1:0.36 2:0.444 3:0.344 4:0.041 5:0.02 6:0.061 7:0.102 8:0.02 9:0.061 10:0.082 11:0 12:0.041 13:0.02 14:0 15:0.143 16:0.122 17:0.061 18:0.061 19:0.163 20:0 \n"
"256 1:0.36 2:0.444 3:0.344 4:0.061 5:0.041 6:0 7:0.122 8:0.041 9:0.041 10:0.02 11:0.061 12:0 13:0.061 14:0.041 15:0.102 16:0.122 17:0.02 18:0.143 19:0.122 20:0 \n"
"-256 1:0.36 2:0.444 3:0.344 4:0.041 5:0.02 6:0.061 7:0.102 8:0.082 9:0.02 10:0.061 11:0 12:0 13:0.041 14:0.082 15:0.082 16:0.102 17:0.082 18:0 19:0.224 20:0 \n"
"-256 1:0.36 2:0.444 3:0.344 4:0.02 5:0.02 6:0.061 7:0.122 8:0.02 9:0.061 10:0.02 11:0.041 12:0.082 13:0.041 14:0 15:0.082 16:0.102 17:0.041 18:0.122 19:0.163 20:0 \n"
"-256 1:0.36 2:0.444 3:0.344 4:0.041 5:0.082 6:0.041 7:0.061 8:0.02 9:0.041 10:0.02 11:0.061 12:0.061 13:0 14:0.102 15:0.041 16:0.102 17:0.02 18:0.041 19:0.265 20:0 \n"
"-129.4157623682492 1:0.36 2:0.444 3:0.344 4:0.102 5:0.061 6:0.02 7:0.041 8:0 9:0.041 10:0.041 11:0.082 12:0.082 13:0.02 14:0.041 15:0.041 16:0.041 17:0.02 18:0.102 19:0.265 20:0 \n"
"-22.24522383257852 1:0.36 2:0.444 3:0.344 4:0.02 5:0.02 6:0.041 7:0.122 8:0 9:0 10:0.041 11:0.122 12:0.02 13:0.041 14:0.082 15:0.061 16:0.184 17:0.102 18:0.02 19:0.122 20:0 \n"
"-256 1:0.36 2:0.444 3:0.344 4:0.02 5:0.041 6:0 7:0.163 8:0.082 9:0.041 10:0 11:0.041 12:0.041 13:0 14:0.102 15:0.041 16:0.082 17:0.082 18:0.102 19:0.163 20:0 \n"
"-256 1:0.36 2:0.444 3:0.344 4:0 5:0.041 6:0.041 7:0.143 8:0.061 9:0 10:0 11:0.102 12:0.061 13:0.061 14:0 15:0.082 16:0.102 17:0.061 18:0.163 19:0.082 20:0 \n"
"-256 1:0.36 2:0.444 3:0.344 4:0 5:0.041 6:0 7:0.184 8:0.082 9:0.02 10:0.02 11:0.02 12:0.02 13:0.02 14:0 15:0.163 16:0.102 17:0.082 18:0.184 19:0.061 20:0 \n"
"256 1:0.36 2:0.444 3:0.344 4:0 5:0 6:0 7:0.224 8:0.02 9:0.02 10:0.02 11:0.102 12:0.061 13:0.061 14:0.041 15:0.02 16:0.143 17:0.082 18:0.143 19:0.061 20:0 \n"
"256 1:0.36 2:0.444 3:0.344 4:0.122 5:0.061 6:0 7:0.041 8:0.041 9:0 10:0.02 11:0.102 12:0.02 13:0 14:0.041 15:0.143 16:0.041 17:0.102 18:0.143 19:0.122 20:0 \n"
"-128.2070445465257 1:0.36 2:0.444 3:0.344 4:0.041 5:0.082 6:0.02 7:0.082 8:0.061 9:0 10:0 11:0.102 12:0.082 13:0 14:0 15:0.122 16:0.041 17:0.082 18:0.184 19:0.102 20:0 \n"
"112.2306304805602 1:0.36 2:0.444 3:0.344 4:0.061 5:0.02 6:0 7:0.143 8:0.082 9:0 10:0.061 11:0.02 12:0.061 13:0 14:0.061 15:0.082 16:0.02 17:0.143 18:0.082 19:0.163 20:0 \n"
"256 1:0.36 2:0.444 3:0.344 4:0.122 5:0.041 6:0.02 7:0.041 8:0.061 9:0.041 10:0 11:0.061 12:0 13:0.061 14:0.102 15:0.02 16:0.041 17:0.02 18:0.061 19:0.306 20:0 \n"
"256 1:0.36 2:0.444 3:0.344 4:0.061 5:0.082 6:0.061 7:0.02 8:0.061 9:0 10:0.061 11:0.02 12:0.02 13:0 14:0.061 15:0.122 16:0.061 17:0.082 18:0.02 19:0.265 20:0 \n"
"256 1:0.36 2:0.444 3:0.344 4:0.102 5:0 6:0 7:0.122 8:0 9:0.061 10:0.041 11:0.061 12:0.061 13:0.082 14:0 15:0.041 16:0.061 17:0.02 18:0.163 19:0.184 20:0 \n"
"256 1:0.36 2:0.444 3:0.344 4:0.061 5:0.061 6:0.02 7:0.082 8:0.041 9:0 10:0.082 11:0.02 12:0.02 13:0.082 14:0.082 15:0.02 16:0.102 17:0.02 18:0.02 19:0.286 20:0 \n"
"256 1:0.36 2:0.444 3:0.344 4:0 5:0.061 6:0.061 7:0.102 8:0.061 9:0.061 10:0.02 11:0 12:0 13:0.041 14:0 15:0.163 16:0.143 17:0 18:0.122 19:0.163 20:0 \n"
"255.9146984789421 1:0.36 2:0.5 3:0.344 4:0 5:0.02 6:0.061 7:0.143 8:0.041 9:0.061 10:0.02 11:0.061 12:0.082 13:0.02 14:0.082 15:0 16:0.102 17:0.061 18:0.02 19:0.224 20:0 \n"
"178.8972249166812 1:0.36 2:0.5 3:0.344 4:0.061 5:0 6:0.061 7:0.102 8:0.061 9:0.02 10:0.041 11:0.061 12:0.061 13:0 14:0.041 15:0.061 16:0.041 17:0.163 18:0.041 19:0.184 20:0 \n"
"250.8682470223703 1:0.36 2:0.5 3:0.344 4:0 5:0.061 6:0 7:0.163 8:0.061 9:0 10:0 11:0.122 12:0.082 13:0.041 14:0.041 15:0 16:0.082 17:0.082 18:0.143 19:0.122 20:0 \n"
"-256 1:0.36 2:0.5 3:0.344 4:0.041 5:0.02 6:0.082 7:0.082 8:0 9:0.02 10:0 11:0.143 12:0.041 13:0 14:0.041 15:0.102 16:0.143 17:0.143 18:0.041 19:0.102 20:0 \n"
"256 1:0.36 2:0.5 3:0.344 4:0.061 5:0.041 6:0.082 7:0.041 8:0.061 9:0 10:0.02 11:0.102 12:0 13:0 14:0.082 15:0.082 16:0.102 17:0.143 18:0 19:0.184 20:0 \n"
"-256 1:0.36 2:0.5 3:0.344 4:0.082 5:0.061 6:0.041 7:0.041 8:0 9:0.082 10:0 11:0.102 12:0.02 13:0 14:0.082 15:0.082 16:0.102 17:0.041 18:0.061 19:0.204 20:0 \n"
"-256 1:0.36 2:0.5 3:0.344 4:0.082 5:0.02 6:0.041 7:0.061 8:0 9:0 10:0.02 11:0.163 12:0.061 13:0 14:0.082 15:0.041 16:0.082 17:0.163 18:0.041 19:0.143 20:0 \n"
"-256 1:0.36 2:0.5 3:0.344 4:0.082 5:0.061 6:0.041 7:0.041 8:0.02 9:0.082 10:0 11:0.061 12:0.02 13:0.02 14:0 15:0.143 16:0.082 17:0.02 18:0.143 19:0.184 20:0 \n"
"-256 1:0.36 2:0.5 3:0.344 4:0.02 5:0 6:0.02 7:0.184 8:0.02 9:0.082 10:0 11:0.061 12:0.082 13:0 14:0.082 15:0.02 16:0.102 17:0.102 18:0.082 19:0.143 20:0 \n"
"-123.6494211098812 1:0.36 2:0.5 3:0.344 4:0.102 5:0.02 6:0.02 7:0.082 8:0 9:0.061 10:0 11:0.122 12:0.061 13:0.02 14:0 15:0.102 16:0.061 17:0.082 18:0.163 19:0.102 20:0 \n"
"-256 1:0.36 2:0.5 3:0.344 4:0.122 5:0.041 6:0 7:0.061 8:0.082 9:0.061 10:0.02 11:0.02 12:0 13:0.041 14:0.061 15:0.061 16:0.02 17:0.041 18:0.102 19:0.265 20:0 \n"
"-256 1:0.36 2:0.5 3:0.344 4:0 5:0.082 6:0 7:0.143 8:0.02 9:0.02 10:0.061 11:0.082 12:0.02 13:0 14:0.02 15:0.143 16:0.184 17:0.082 18:0.102 19:0.041 20:0 \n"
"-256 1:0.36 2:0.556 3:0.344 4:0.082 5:0.041 6:0.02 7:0.082 8:0 9:0.102 10:0.041 11:0.061 12:0.041 13:0 14:0.061 15:0.041 16:0.102 17:0.061 18:0.041 19:0.224 20:0 \n"
"-256 1:0.36 2:0.556 3:0.344 4:0.082 5:0.061 6:0.02 7:0.061 8:0.061 9:0.041 10:0.041 11:0.041 12:0.02 13:0.082 14:0 15:0.061 16:0.061 17:0.02 18:0.082 19:0.265 20:0 \n"
"256 1:0.36 2:0.556 3:0.344 4:0.102 5:0 6:0.02 7:0.102 8:0.061 9:0 10:0.02 11:0.122 12:0.02 13:0.082 14:0.02 15:0.041 16:0.02 17:0.122 18:0.102 19:0.163 20:0 \n"
"-256 1:0.36 2:0.556 3:0.344 4:0 5:0.102 6:0.02 7:0.102 8:0.061 9:0.02 10:0.041 11:0.082 12:0 13:0 14:0 15:0.163 16:0.163 17:0.082 18:0.082 19:0.082 20:0 \n"
"-256 1:0.36 2:0.556 3:0.344 4:0.02 5:0.102 6:0.041 7:0.061 8:0.061 9:0.041 10:0.02 11:0.082 12:0 13:0.02 14:0.041 15:0.102 16:0.143 17:0.02 18:0.061 19:0.184 20:0 \n"
"256 1:0.36 2:0.556 3:0.344 4:0.02 5:0 6:0.061 7:0.143 8:0.061 9:0.061 10:0.061 11:0.02 12:0 13:0.02 14:0.02 15:0.102 16:0.143 17:0.122 18:0.02 19:0.143 20:0 \n"
"256 1:0.36 2:0.556 3:0.344 4:0.02 5:0.102 6:0 7:0.102 8:0.041 9:0 10:0.041 11:0.122 12:0.061 13:0.02 14:0 15:0.082 16:0.102 17:0.082 18:0.122 19:0.102 20:0 \n"
"-12.51315752851891 1:0.36 2:0.556 3:0.344 4:0.02 5:0 6:0.061 7:0.143 8:0.061 9:0.02 10:0 11:0.122 12:0.082 13:0.041 14:0.02 15:0.02 16:0.061 17:0.143 18:0.082 19:0.122 20:0 \n"
"-256 1:0.36 2:0.556 3:0.344 4:0.082 5:0.102 6:0.02 7:0.02 8:0.061 9:0.02 10:0 11:0.122 12:0.02 13:0 14:0.02 15:0.122 16:0.041 17:0.082 18:0.122 19:0.163 20:0 \n"
"256 1:0.36 2:0.556 3:0.344 4:0 5:0 6:0.02 7:0.204 8:0.082 9:0.041 10:0.041 11:0.041 12:0.02 13:0.061 14:0.041 15:0.02 16:0.122 17:0.102 18:0.041 19:0.163 20:0 \n"
"256 1:0.36 2:0.556 3:0.344 4:0.02 5:0.061 6:0 7:0.143 8:0.061 9:0.02 10:0.02 11:0.102 12:0.02 13:0.082 14:0 15:0.041 16:0.122 17:0.02 18:0.143 19:0.143 20:0 \n"
"-113.0516040040949 1:0.36 2:0.556 3:0.344 4:0 5:0.061 6:0 7:0.163 8:0.102 9:0 10:0.061 11:0.041 12:0.041 13:0 14:0 15:0.122 16:0.082 17:0.122 18:0.102 19:0.102 20:0 \n"
"-256 1:0.36 2:0.556 3:0.344 4:0.041 5:0.082 6:0.041 7:0.041 8:0.102 9:0.02 10:0.02 11:0.061 12:0.082 13:0.041 14:0.02 15:0.02 16:0 17:0.061 18:0.061 19:0.306 20:0 \n"
"-256 1:0.36 2:0.556 3:0.344 4:0.082 5:0 6:0.041 7:0.102 8:0.02 9:0.102 10:0.041 11:0.041 12:0 13:0 14:0 15:0.163 16:0.122 17:0.102 18:0.061 19:0.122 20:0 \n"
"-98.79902932097562 1:0.36 2:0.556 3:0.344 4:0.02 5:0.102 6:0.061 7:0.041 8:0.082 9:0.041 10:0.082 11:0 12:0 13:0 14:0.02 15:0.122 16:0.122 17:0.041 18:0 19:0.265 20:0 \n"
"256 1:0.36 2:0.556 3:0.344 4:0.082 5:0 6:0.02 7:0.122 8:0.082 9:0.102 10:0.02 11:0 12:0.02 13:0.02 14:0.041 15:0.061 16:0.041 17:0.082 18:0.082 19:0.224 20:0 \n"
"-27.30582909247021 1:0.36 2:0.556 3:0.344 4:0.041 5:0 6:0.02 7:0.163 8:0.02 9:0.041 10:0.061 11:0.082 12:0 13:0 14:0.02 15:0.122 16:0.163 17:0.163 18:0.061 19:0.041 20:0 \n"
"255.8980334317005 1:0.36 2:0.556 3:0.344 4:0 5:0.082 6:0.061 7:0.082 8:0.02 9:0.02 10:0.02 11:0.143 12:0.02 13:0.082 14:0.041 15:0 16:0.184 17:0.02 18:0.02 19:0.204 20:0 \n"
"-256 1:0.36 2:0.556 3:0.344 4:0.122 5:0 6:0 7:0.102 8:0 9:0.102 10:0.041 11:0.061 12:0.02 13:0.02 14:0 15:0.102 16:0.061 17:0.082 18:0.122 19:0.163 20:0 \n"
"-175.8536682789478 1:0.36 2:0.556 3:0.344 4:0.061 5:0 6:0.041 7:0.122 8:0.02 9:0 10:0.082 11:0.102 12:0.082 13:0.082 14:0 15:0 16:0.061 17:0.102 18:0.041 19:0.204 20:0 \n"
"-256 1:0.36 2:0.556 3:0.344 4:0 5:0.041 6:0.061 7:0.122 8:0.082 9:0.041 10:0 11:0.061 12:0 13:0.061 14:0 15:0.102 16:0.143 17:0.061 18:0.102 19:0.122 20:0 \n"
"-95.14844978929075 1:0.36 2:0.556 3:0.344 4:0 5:0.102 6:0.02 7:0.102 8:0.061 9:0 10:0 11:0.143 12:0.02 13:0.041 14:0.061 15:0.02 16:0.122 17:0.061 18:0.082 19:0.163 20:0 \n"
"-57.030752198363 1:0.36 2:0.556 3:0.344 4:0 5:0 6:0.082 7:0.122 8:0.041 9:0.102 10:0 11:0.061 12:0.061 13:0.02 14:0.061 15:0.02 16:0.102 17:0.082 18:0.02 19:0.224 20:0 \n"
"-256 1:0.36 2:0.611 3:0.344 4:0.061 5:0 6:0.061 7:0.102 8:0.061 9:0.102 10:0.041 11:0.02 12:0 13:0.02 14:0 15:0.122 16:0.082 17:0.102 18:0.041 19:0.184 20:0 \n"
"1.030434549723277 1:0.36 2:0.611 3:0.344 4:0 5:0.082 6:0 7:0.143 8:0.082 9:0.041 10:0.02 11:0.061 12:0 13:0.02 14:0.02 15:0.102 16:0.143 17:0.082 18:0.082 19:0.122 20:0 \n"
"256 1:0.36 2:0.611 3:0.344 4:0 5:0.102 6:0.041 7:0.082 8:0.041 9:0.041 10:0.041 11:0.102 12:0.061 13:0.02 14:0.02 15:0.02 16:0.122 17:0.061 18:0.041 19:0.204 20:0 \n"
"-176.5794309547675 1:0.36 2:0.611 3:0.344 4:0.082 5:0.041 6:0.02 7:0.061 8:0.02 9:0 10:0.041 11:0.163 12:0 13:0 14:0.02 15:0.122 16:0.122 17:0.184 18:0.061 19:0.061 20:0 \n"
"256 1:0.36 2:0.611 3:0.344 4:0.02 5:0.102 6:0.02 7:0.082 8:0.122 9:0.061 10:0 11:0.041 12:0.02 13:0.02 14:0 15:0.102 16:0.061 17:0.041 18:0.122 19:0.184 20:0 \n"
"-256 1:0.36 2:0.611 3:0.344 4:0.041 5:0.082 6:0 7:0.102 8:0.02 9:0.102 10:0.041 11:0.061 12:0 13:0 14:0.02 15:0.102 16:0.163 17:0.02 18:0.082 19:0.163 20:0 \n"
"-96.12908258479253 1:0.36 2:0.611 3:0.344 4:0 5:0.02 6:0.041 7:0.163 8:0 9:0.082 10:0 11:0.122 12:0.041 13:0 14:0.041 15:0.061 16:0.184 17:0.122 18:0.061 19:0.061 20:0 \n"
"256 1:0.36 2:0.611 3:0.344 4:0 5:0.122 6:0.041 7:0.061 8:0.041 9:0.061 10:0 11:0.102 12:0 13:0 14:0 15:0.143 16:0.163 17:0.041 18:0.102 19:0.122 20:0 \n"
"103.4950017717312 1:0.36 2:0.611 3:0.344 4:0.061 5:0.02 6:0 7:0.122 8:0.102 9:0.02 10:0 11:0.102 12:0 13:0 14:0 15:0.143 16:0.061 17:0.163 18:0.143 19:0.061 20:0 \n"
"-256 1:0.36 2:0.611 3:0.344 4:0 5:0.02 6:0 7:0.204 8:0.102 9:0 10:0.02 11:0.102 12:0.041 13:0.041 14:0 15:0.061 16:0.082 17:0.163 18:0.122 19:0.041 20:0 \n"
"160.3224303936097 1:0.36 2:0.611 3:0.344 4:0.082 5:0.061 6:0.061 7:0.02 8:0.061 9:0.041 10:0.061 11:0.061 12:0.061 13:0.041 14:0 15:0.041 16:0.02 17:0.082 18:0 19:0.306 20:0 \n"
"256 1:0.36 2:0.611 3:0.344 4:0.102 5:0 6:0.02 7:0.082 8:0.102 9:0.041 10:0 11:0.082 12:0.02 13:0.02 14:0 15:0.102 16:0 17:0.143 18:0.122 19:0.163 20:0 \n"
"-256 1:0.36 2:0.611 3:0.344 4:0.082 5:0 6:0.02 7:0.122 8:0.041 9:0.041 10:0.041 11:0.102 12:0.061 13:0 14:0.041 15:0.02 16:0.02 17:0.184 18:0.041 19:0.184 20:0 \n"
"-256 1:0.36 2:0.611 3:0.344 4:0.02 5:0.082 6:0 7:0.122 8:0.122 9:0 10:0 11:0.102 12:0.061 13:0.041 14:0 15:0.041 16:0.02 17:0.102 18:0.143 19:0.143 20:0 \n"
"-164.6059714534209 1:0.36 2:0.611 3:0.344 4:0 5:0.122 6:0.061 7:0.041 8:0.02 9:0 10:0.061 11:0.122 12:0 13:0.061 14:0 15:0.082 16:0.184 17:0.041 18:0.02 19:0.184 20:0 \n"
"252.9074090722346 1:0.36 2:0.611 3:0.344 4:0.061 5:0.02 6:0.061 7:0.082 8:0.041 9:0.122 10:0.041 11:0 12:0.061 13:0 14:0 15:0.082 16:0.061 17:0.082 18:0.02 19:0.265 20:0 \n"
"34.68823955003453 1:0.36 2:0.667 3:0.344 4:0.02 5:0 6:0.061 7:0.122 8:0.082 9:0.02 10:0.02 11:0.122 12:0.02 13:0.041 14:0 15:0.061 16:0.102 17:0.184 18:0.041 19:0.102 20:0 \n"
"256 1:0.36 2:0.667 3:0.344 4:0 5:0.061 6:0 7:0.163 8:0 9:0.061 10:0.02 11:0.163 12:0.041 13:0 14:0.02 15:0.061 16:0.184 17:0.122 18:0.082 19:0.02 20:0 \n"
"256 1:0.36 2:0.667 3:0.344 4:0 5:0.102 6:0.041 7:0.082 8:0.041 9:0.122 10:0.02 11:0.061 12:0.02 13:0 14:0.02 15:0.082 16:0.143 17:0.02 18:0.041 19:0.204 20:0 \n"
"256 1:0.36 2:0.667 3:0.344 4:0.041 5:0.02 6:0.061 7:0.102 8:0 9:0.143 10:0 11:0.082 12:0.041 13:0.061 14:0 15:0.02 16:0.122 17:0.02 18:0.061 19:0.224 20:0 \n"
"256 1:0.36 2:0.667 3:0.344 4:0.061 5:0.082 6:0.041 7:0.02 8:0.041 9:0 10:0.02 11:0.184 12:0.061 13:0.061 14:0 15:0 16:0.061 17:0.102 18:0.061 19:0.204 20:0 \n"
"-256 1:0.36 2:0.667 3:0.344 4:0.061 5:0.02 6:0.041 7:0.102 8:0 9:0.061 10:0 11:0.184 12:0.02 13:0.061 14:0.02 15:0.02 16:0.143 17:0.102 18:0.061 19:0.102 20:0 \n"
"256 1:0.36 2:0.667 3:0.344 4:0.02 5:0.061 6:0.061 7:0.061 8:0.102 9:0 10:0.02 11:0.122 12:0.061 13:0.02 14:0.02 15:0.02 16:0.041 17:0.143 18:0.02 19:0.224 20:0 \n"
"90.05193793970584 1:0.36 2:0.667 3:0.344 4:0.122 5:0.02 6:0.061 7:0.02 8:0.061 9:0.082 10:0.041 11:0.041 12:0.02 13:0 14:0.02 15:0.082 16:0.02 17:0.143 18:0 19:0.265 20:0 \n"
"-256 1:0.36 2:0.667 3:0.344 4:0.041 5:0 6:0.041 7:0.143 8:0.122 9:0.082 10:0.02 11:0 12:0.02 13:0.061 14:0 15:0.041 16:0.041 17:0.102 18:0.061 19:0.224 20:0 \n"
"9.469126646506625 1:0.36 2:0.667 3:0.344 4:0.061 5:0.082 6:0 7:0.061 8:0 9:0.122 10:0.041 11:0.082 12:0 13:0 14:0 15:0.122 16:0.163 17:0.041 18:0.082 19:0.143 20:0 \n"
"-256 1:0.36 2:0.667 3:0.344 4:0.122 5:0.02 6:0.02 7:0.061 8:0.02 9:0.143 10:0 11:0.061 12:0.02 13:0.02 14:0 15:0.082 16:0.061 17:0.061 18:0.102 19:0.204 20:0 \n"
"-18.85504963099023 1:0.36 2:0.667 3:0.344 4:0.041 5:0.02 6:0.061 7:0.102 8:0.102 9:0.041 10:0.041 11:0.061 12:0.02 13:0.061 14:0.02 15:0 16:0.061 17:0.102 18:0 19:0.265 20:0 \n"
"-256 1:0.36 2:0.667 3:0.344 4:0.041 5:0.041 6:0.041 7:0.082 8:0 9:0.041 10:0 11:0.204 12:0.02 13:0 14:0 15:0.102 16:0.163 17:0.143 18:0.082 19:0.041 20:0 \n"
"-190.9073677153325 1:0.36 2:0.722 3:0.344 4:0.02 5:0.082 6:0.041 7:0.061 8:0.082 9:0 10:0.061 11:0.122 12:0.02 13:0.061 14:0 15:0.02 16:0.102 17:0.122 18:0 19:0.204 20:0 \n"
"256 1:0.36 2:0.722 3:0.344 4:0.061 5:0.061 6:0 7:0.102 8:0.041 9:0.041 10:0.02 11:0.163 12:0.02 13:0 14:0 15:0.082 16:0.102 17:0.163 18:0.082 19:0.061 20:0 \n"
"-158.2979904958981 1:0.36 2:0.722 3:0.344 4:0.102 5:0.061 6:0.041 7:0.02 8:0.02 9:0.041 10:0.041 11:0.163 12:0.041 13:0 14:0 15:0.041 16:0.061 17:0.163 18:0.02 19:0.184 20:0 \n"
"-256 1:0.36 2:0.722 3:0.344 4:0.041 5:0.041 6:0 7:0.143 8:0.102 9:0.061 10:0.061 11:0.041 12:0.02 13:0 14:0.02 15:0.061 16:0.061 17:0.163 18:0.02 19:0.163 20:0 \n"
"-2.089048905785115 1:0.36 2:0.722 3:0.344 4:0 5:0.143 6:0 7:0.082 8:0.02 9:0.082 10:0.041 11:0.122 12:0.041 13:0.02 14:0 15:0.02 16:0.143 17:0.02 18:0.061 19:0.204 20:0 \n"
"31.50059590116875 1:0.36 2:0.722 3:0.344 4:0.02 5:0.061 6:0.02 7:0.122 8:0 9:0.102 10:0 11:0.163 12:0.041 13:0 14:0 15:0.061 16:0.163 17:0.082 18:0.082 19:0.082 20:0 \n"
"-36.50320562448631 1:0.36 2:0.722 3:0.344 4:0.041 5:0.102 6:0 7:0.082 8:0.122 9:0 10:0.041 11:0.082 12:0.02 13:0 14:0 15:0.082 16:0.041 17:0.143 18:0.061 19:0.184 20:0 \n"
"-256 1:0.36 2:0.722 3:0.344 4:0.041 5:0.143 6:0 7:0.041 8:0 9:0.02 10:0.041 11:0.204 12:0.041 13:0.041 14:0 15:0 16:0.143 17:0.061 18:0.041 19:0.184 20:0 \n"
"109.5560409140323 1:0.36 2:0.722 3:0.344 4:0.041 5:0.02 6:0.041 7:0.122 8:0.102 9:0.082 10:0.02 11:0.041 12:0.041 13:0.041 14:0.02 15:0 16:0.041 17:0.122 18:0 19:0.265 20:0 \n"
"256 1:0.36 2:0.722 3:0.344 4:0.041 5:0.102 6:0 7:0.082 8:0.041 9:0.143 10:0 11:0.061 12:0.041 13:0.02 14:0.02 15:0.02 16:0.102 17:0 18:0.082 19:0.245 20:0 \n"
"256 1:0.36 2:0.722 3:0.344 4:0 5:0.102 6:0 7:0.122 8:0.041 9:0 10:0.041 11:0.184 12:0 13:0.02 14:0.02 15:0.041 16:0.184 17:0.143 18:0.041 19:0.061 20:0 \n"
"37.09887186141007 1:0.36 2:0.722 3:0.344 4:0.02 5:0.143 6:0.041 7:0 8:0.02 9:0.082 10:0.041 11:0.122 12:0.041 13:0.041 14:0 15:0.02 16:0.143 17:0 18:0.02 19:0.265 20:0 \n"
"256 1:0.36 2:0.722 3:0.344 4:0.082 5:0.122 6:0 7:0.02 8:0.061 9:0.061 10:0 11:0.143 12:0 13:0 14:0 15:0.102 16:0.061 17:0.082 18:0.102 19:0.163 20:0 \n"
"-34.50082358869727 1:0.36 2:0.722 3:0.344 4:0.02 5:0.122 6:0 7:0.082 8:0.122 9:0.061 10:0.02 11:0.061 12:0 13:0.061 14:0.02 15:0.02 16:0.082 17:0 18:0.061 19:0.265 20:0 \n"
"-106.0709304667424 1:0.36 2:0.722 3:0.344 4:0 5:0.122 6:0 7:0.102 8:0.122 9:0.082 10:0 11:0.061 12:0 13:0.02 14:0 15:0.082 16:0.102 17:0.041 18:0.102 19:0.163 20:0 \n"
"-93.20865351149868 1:0.36 2:0.722 3:0.344 4:0 5:0.082 6:0.02 7:0.122 8:0 9:0.102 10:0.061 11:0.082 12:0 13:0.061 14:0 15:0.041 16:0.224 17:0.02 18:0.02 19:0.163 20:0 \n"
"-78.69429856050176 1:0.36 2:0.722 3:0.344 4:0.02 5:0.061 6:0 7:0.143 8:0.082 9:0.163 10:0 11:0 12:0 13:0 14:0.02 15:0.082 16:0.102 17:0.041 18:0.082 19:0.204 20:0 \n"
"36.48327803257778 1:0.36 2:0.722 3:0.344 4:0 5:0.122 6:0.041 7:0.061 8:0.082 9:0.102 10:0.041 11:0.02 12:0.02 13:0 14:0 15:0.082 16:0.122 17:0.041 18:0 19:0.265 20:0 \n"
"-256 1:0.36 2:0.778 3:0.344 4:0.041 5:0.061 6:0.02 7:0.102 8:0.102 9:0.041 10:0 11:0.143 12:0.02 13:0 14:0 15:0.061 16:0.041 17:0.184 18:0.061 19:0.122 20:0 \n"
"256 1:0.36 2:0.778 3:0.344 4:0.041 5:0.102 6:0 7:0.082 8:0.122 9:0.02 10:0.041 11:0.082 12:0.041 13:0.02 14:0 15:0.02 16:0.02 17:0.143 18:0.041 19:0.224 20:0 \n"
"256 1:0.36 2:0.778 3:0.344 4:0.061 5:0.122 6:0.02 7:0.02 8:0 9:0.041 10:0 11:0.245 12:0.041 13:0.02 14:0 15:0.02 16:0.102 17:0.102 18:0.061 19:0.143 20:0 \n"
"-256 1:0.36 2:0.778 3:0.344 4:0.02 5:0.061 6:0 7:0.122 8:0.02 9:0.184 10:0.02 11:0.061 12:0.041 13:0.02 14:0 15:0.02 16:0.143 17:0.02 18:0.061 19:0.204 20:0 \n"
"200.0966816879393 1:0.36 2:0.778 3:0.344 4:0.102 5:0.02 6:0.041 7:0.041 8:0.041 9:0.041 10:0 11:0.204 12:0.02 13:0 14:0 15:0.061 16:0.061 17:0.204 18:0.041 19:0.122 20:0 \n"
"172.3305480814212 1:0.36 2:0.778 3:0.344 4:0 5:0.041 6:0.041 7:0.143 8:0.143 9:0.082 10:0.02 11:0.02 12:0.041 13:0.02 14:0 15:0.02 16:0.041 17:0.143 18:0.02 19:0.224 20:0 \n"
"139.6734110437071 1:0.36 2:0.778 3:0.344 4:0.02 5:0 6:0.041 7:0.163 8:0.102 9:0.061 10:0.02 11:0.082 12:0.041 13:0 14:0 15:0.041 16:0.041 17:0.224 18:0.02 19:0.143 20:0 \n"
"-229.6892416728202 1:0.36 2:0.778 3:0.344 4:0.082 5:0.061 6:0.041 7:0.041 8:0.122 9:0.061 10:0.041 11:0.061 12:0 13:0.02 14:0 15:0.041 16:0 17:0.143 18:0 19:0.286 20:0 \n"
"256 1:0.36 2:0.778 3:0.344 4:0.061 5:0.041 6:0 7:0.122 8:0.122 9:0.122 10:0 11:0.02 12:0 13:0.02 14:0 15:0.061 16:0.02 17:0.102 18:0.082 19:0.224 20:0 \n"
"-109.2339823439257 1:0.36 2:0.778 3:0.344 4:0.082 5:0.122 6:0 7:0.02 8:0 9:0.082 10:0.02 11:0.184 12:0.02 13:0.041 14:0 15:0 16:0.122 17:0.02 18:0.061 19:0.224 20:0 \n"
"-256 1:0.36 2:0.778 3:0.344 4:0.041 5:0.061 6:0.041 7:0.061 8:0.02 9:0 10:0 11:0.265 12:0.02 13:0.041 14:0 15:0.02 16:0.143 17:0.163 18:0.041 19:0.082 20:0 \n"
"80.02295734321834 1:0.36 2:0.278 3:0.406 4:0 5:0.041 6:0.082 7:0.143 8:0.041 9:0.02 10:0.041 11:0 12:0.082 13:0.041 14:0 15:0.122 16:0.143 17:0 18:0.143 19:0.102 20:0 \n"
"-37.11171411865898 1:0.36 2:0.278 3:0.406 4:0.061 5:0 6:0 7:0.204 8:0 9:0 10:0.041 11:0.061 12:0.163 13:0 14:0.082 15:0 16:0.041 17:0.082 18:0.143 19:0.122 20:0 \n"
"27.53193588312742 1:0.36 2:0.278 3:0.406 4:0.122 5:0.061 6:0.02 7:0.061 8:0 9:0 10:0.041 11:0.061 12:0.061 13:0.02 14:0.143 15:0.041 16:0.082 17:0.02 18:0.041 19:0.224 20:0 \n"
"129.6984365176859 1:0.36 2:0.278 3:0.406 4:0 5:0.041 6:0.143 7:0.082 8:0.061 9:0 10:0.02 11:0.02 12:0.082 13:0.061 14:0.061 15:0.041 16:0.122 17:0 18:0.02 19:0.245 20:0 \n"
"-256 1:0.36 2:0.278 3:0.406 4:0.061 5:0 6:0.041 7:0.143 8:0.041 9:0 10:0 11:0.061 12:0.02 13:0.061 14:0.041 15:0.143 16:0.143 17:0.041 18:0.184 19:0.02 20:0 \n"
"-256 1:0.36 2:0.278 3:0.406 4:0.041 5:0.041 6:0.041 7:0.143 8:0.041 9:0 10:0.041 11:0.02 12:0.061 13:0 14:0.163 15:0.02 16:0.122 17:0.041 18:0.02 19:0.204 20:0 \n"
"-68.67477762843539 1:0.36 2:0.278 3:0.406 4:0.082 5:0 6:0.163 7:0.02 8:0 9:0.02 10:0 11:0.082 12:0.041 13:0 14:0.041 15:0.163 16:0.143 17:0.082 18:0.061 19:0.102 20:0 \n"
"256 1:0.36 2:0.278 3:0.406 4:0.163 5:0 6:0 7:0.102 8:0 9:0.02 10:0.02 11:0.061 12:0.02 13:0.061 14:0.082 15:0.082 16:0.082 17:0.02 18:0.163 19:0.122 20:0 \n"
"256 1:0.36 2:0.278 3:0.406 4:0.041 5:0.061 6:0.122 7:0.041 8:0.061 9:0 10:0 11:0.041 12:0.02 13:0 14:0.143 15:0.082 16:0.122 17:0.041 18:0 19:0.224 20:0 \n"
"64.99867893260682 1:0.36 2:0.333 3:0.406 4:0.122 5:0.02 6:0.082 7:0.02 8:0.041 9:0 10:0 11:0.082 12:0.041 13:0 14:0.061 15:0.143 16:0.061 17:0.102 18:0.102 19:0.122 20:0 \n"
"-256 1:0.36 2:0.333 3:0.406 4:0.041 5:0.02 6:0.102 7:0.082 8:0.02 9:0.02 10:0 11:0.082 12:0.102 13:0 14:0.041 15:0.102 16:0.102 17:0.082 18:0.102 19:0.102 20:0 \n"
"-256 1:0.36 2:0.333 3:0.406 4:0.082 5:0 6:0.122 7:0.061 8:0.061 9:0.02 10:0.041 11:0 12:0.02 13:0.02 14:0.041 15:0.163 16:0.102 17:0.082 18:0.041 19:0.143 20:0 \n"
"49.46559920378545 1:0.36 2:0.333 3:0.406 4:0.061 5:0 6:0.061 7:0.143 8:0.041 9:0.02 10:0.041 11:0.02 12:0.122 13:0 14:0 15:0.122 16:0.041 17:0.102 18:0.122 19:0.102 20:0 \n"
"-116.4900767484275 1:0.36 2:0.333 3:0.406 4:0.163 5:0 6:0 7:0.082 8:0.02 9:0 10:0.061 11:0.041 12:0.02 13:0.02 14:0.02 15:0.184 16:0.061 17:0.102 18:0.163 19:0.061 20:0 \n"
"-12.23959161278251 1:0.36 2:0.333 3:0.406 4:0.02 5:0.061 6:0.041 7:0.122 8:0.061 9:0 10:0.041 11:0.02 12:0.041 13:0.041 14:0.143 15:0.02 16:0.143 17:0.02 18:0 19:0.224 20:0 \n"
"-256 1:0.36 2:0.333 3:0.406 4:0.02 5:0 6:0.082 7:0.163 8:0.061 9:0.02 10:0 11:0.02 12:0.143 13:0 14:0.102 15:0 16:0.041 17:0.102 18:0.041 19:0.204 20:0 \n"
"-256 1:0.36 2:0.389 3:0.406 4:0.041 5:0.02 6:0.061 7:0.122 8:0.041 9:0.02 10:0.02 11:0.061 12:0.02 13:0.02 14:0.041 15:0.143 16:0.143 17:0.082 18:0.102 19:0.061 20:0 \n"
"233.9168826080258 1:0.36 2:0.389 3:0.406 4:0.102 5:0.041 6:0.041 7:0.082 8:0.041 9:0.02 10:0.02 11:0.041 12:0.102 13:0 14:0 15:0.122 16:0.02 17:0.082 18:0.143 19:0.143 20:0 \n"
"190.4301678875844 1:0.36 2:0.389 3:0.406 4:0.122 5:0 6:0.102 7:0.041 8:0 9:0.02 10:0.041 11:0.082 12:0.122 13:0 14:0 15:0.082 16:0.02 17:0.122 18:0.082 19:0.163 20:0 \n"
"-50.60900232315792 1:0.36 2:0.389 3:0.406 4:0.082 5:0.061 6:0.061 7:0.061 8:0.02 9:0 10:0.02 11:0.102 12:0 13:0.061 14:0.061 15:0.082 16:0.163 17:0.02 18:0.061 19:0.143 20:0 \n"
"-65.36702190936617 1:0.36 2:0.389 3:0.406 4:0.082 5:0.082 6:0 7:0.082 8:0.041 9:0 10:0.02 11:0.082 12:0.061 13:0.02 14:0 15:0.143 16:0.082 17:0.041 18:0.204 19:0.061 20:0 \n"
"-256 1:0.36 2:0.389 3:0.406 4:0.082 5:0.02 6:0.061 7:0.082 8:0.061 9:0 10:0.061 11:0.02 12:0.041 13:0 14:0 15:0.184 16:0.082 17:0.122 18:0.102 19:0.082 20:0 \n"
"256 1:0.36 2:0.389 3:0.406 4:0.102 5:0.041 6:0.041 7:0.082 8:0.02 9:0.041 10:0.02 11:0.061 12:0.122 13:0.041 14:0.041 15:0 16:0.02 17:0.02 18:0.102 19:0.245 20:0 \n"
"256 1:0.36 2:0.389 3:0.406 4:0.102 5:0 6:0.061 7:0.082 8:0.02 9:0.041 10:0.02 11:0.061 12:0.102 13:0 14:0.082 15:0.041 16:0.02 17:0.102 18:0.061 19:0.204 20:0 \n"
"-95.40511570047698 1:0.36 2:0.389 3:0.406 4:0.122 5:0.082 6:0 7:0.061 8:0.02 9:0.041 10:0.061 11:0 12:0.02 13:0 14:0.122 15:0.082 16:0.102 17:0.02 18:0.041 19:0.224 20:0 \n"
"-256 1:0.36 2:0.389 3:0.406 4:0.041 5:0.02 6:0.041 7:0.163 8:0.041 9:0.02 10:0.061 11:0 12:0.143 13:0 14:0 15:0.082 16:0.02 17:0.102 18:0.122 19:0.143 20:0 \n"
"-256 1:0.36 2:0.389 3:0.406 4:0.061 5:0 6:0 7:0.184 8:0.041 9:0.041 10:0.041 11:0.02 12:0.102 13:0 14:0 15:0.122 16:0.061 17:0.082 18:0.184 19:0.061 20:0 \n"
"-256 1:0.36 2:0.389 3:0.406 4:0.02 5:0 6:0.041 7:0.204 8:0.02 9:0.041 10:0 11:0.082 12:0.041 13:0.061 14:0.061 15:0.041 16:0.184 17:0.041 18:0.122 19:0.041 20:0 \n"
"-256 1:0.36 2:0.389 3:0.406 4:0.061 5:0.082 6:0.041 7:0.082 8:0.041 9:0 10:0 11:0.102 12:0 13:0.041 14:0.02 15:0.143 16:0.163 17:0 18:0.163 19:0.061 20:0 \n"
"-256 1:0.36 2:0.389 3:0.406 4:0.02 5:0.082 6:0.102 7:0.061 8:0.041 9:0.041 10:0 11:0.061 12:0.02 13:0 14:0.102 15:0.082 16:0.163 17:0.02 18:0.02 19:0.184 20:0 \n"
"13.50202046259662 1:0.36 2:0.389 3:0.406 4:0.122 5:0.02 6:0 7:0.122 8:0 9:0.02 10:0.061 11:0.061 12:0.02 13:0.061 14:0 15:0.122 16:0.102 17:0.041 18:0.163 19:0.082 20:0 \n"
"172.1480618966961 1:0.36 2:0.389 3:0.406 4:0.061 5:0.02 6:0.041 7:0.122 8:0.082 9:0.041 10:0 11:0.02 12:0.02 13:0.061 14:0.122 15:0.02 16:0.082 17:0.02 18:0.061 19:0.224 20:0 \n"
"209.7822704500391 1:0.36 2:0.444 3:0.406 4:0.061 5:0.061 6:0.02 7:0.122 8:0.041 9:0.02 10:0.082 11:0.02 12:0.122 13:0 14:0.041 15:0.041 16:0.041 17:0.082 18:0.041 19:0.204 20:0 \n"
"218.9462267646308 1:0.36 2:0.444 3:0.406 4:0.102 5:0.061 6:0.102 7:0 8:0.061 9:0 10:0 11:0.102 12:0 13:0.041 14:0.041 15:0.102 16:0.082 17:0.061 18:0.061 19:0.184 20:0 \n"
"256 1:0.36 2:0.444 3:0.406 4:0.061 5:0.102 6:0.041 7:0.061 8:0.061 9:0 10:0 11:0.102 12:0.061 13:0 14:0.041 15:0.102 16:0.082 17:0.061 18:0.122 19:0.102 20:0 \n"
"-93.20059423477613 1:0.36 2:0.444 3:0.406 4:0.041 5:0.082 6:0.102 7:0.041 8:0.041 9:0 10:0.082 11:0.041 12:0.102 13:0 14:0 15:0.082 16:0.082 17:0.082 18:0.02 19:0.204 20:0 \n"
"-256 1:0.36 2:0.444 3:0.406 4:0.041 5:0.102 6:0.02 7:0.102 8:0.041 9:0.061 10:0 11:0.041 12:0 13:0 14:0.102 15:0.102 16:0.163 17:0 18:0.082 19:0.143 20:0 \n"
"256 1:0.36 2:0.444 3:0.406 4:0.102 5:0.041 6:0.02 7:0.102 8:0.041 9:0.02 10:0 11:0.102 12:0 13:0 14:0.082 15:0.102 16:0.102 17:0.102 18:0.102 19:0.082 20:0 \n"
"256 1:0.36 2:0.444 3:0.406 4:0.041 5:0.061 6:0.02 7:0.122 8:0.082 9:0.061 10:0 11:0.02 12:0.02 13:0 14:0 15:0.184 16:0.122 17:0.041 18:0.163 19:0.061 20:0 \n"
"225.2619489931051 1:0.36 2:0.444 3:0.406 4:0.082 5:0 6:0.02 7:0.163 8:0.061 9:0.041 10:0.041 11:0.02 12:0.041 13:0.041 14:0.102 15:0 16:0.082 17:0.082 18:0.041 19:0.184 20:0 \n"
"-90.32703273869828 1:0.36 2:0.444 3:0.406 4:0.122 5:0.02 6:0.041 7:0.082 8:0.102 9:0 10:0.02 11:0.041 12:0 13:0.041 14:0.102 15:0.061 16:0.041 17:0.102 18:0.041 19:0.184 20:0 \n"
"-256 1:0.36 2:0.444 3:0.406 4:0.122 5:0 6:0.02 7:0.122 8:0.041 9:0.041 10:0 11:0.082 12:0.061 13:0 14:0.082 15:0.041 16:0.041 17:0.122 18:0.082 19:0.143 20:0 \n"
"256 1:0.36 2:0.444 3:0.406 4:0 5:0.061 6:0.041 7:0.163 8:0.102 9:0 10:0.061 11:0 12:0.02 13:0.02 14:0.041 15:0.122 16:0.143 17:0.082 18:0.061 19:0.082 20:0 \n"
"-256 1:0.36 2:0.444 3:0.406 4:0 5:0.061 6:0.061 7:0.143 8:0.02 9:0.02 10:0.02 11:0.102 12:0.122 13:0 14:0.041 15:0.02 16:0.122 17:0.082 18:0.082 19:0.102 20:0 \n"
"171.6227346841346 1:0.36 2:0.444 3:0.406 4:0 5:0 6:0.061 7:0.204 8:0.082 9:0.061 10:0.02 11:0 12:0.041 13:0.061 14:0 15:0.082 16:0.143 17:0.041 18:0.102 19:0.102 20:0 \n"
"-165.2067324831162 1:0.36 2:0.444 3:0.406 4:0 5:0.082 6:0.082 7:0.102 8:0.102 9:0 10:0 11:0.061 12:0 13:0.02 14:0.041 15:0.122 16:0.163 17:0.041 18:0.082 19:0.102 20:0 \n"
"-52.26265246426646 1:0.36 2:0.444 3:0.406 4:0.02 5:0.02 6:0 7:0.224 8:0.061 9:0 10:0.02 11:0.082 12:0.082 13:0.061 14:0 15:0.061 16:0.082 17:0.082 18:0.184 19:0.02 20:0 \n"
"256 1:0.36 2:0.444 3:0.406 4:0.082 5:0.102 6:0.02 7:0.061 8:0 9:0 10:0.041 11:0.122 12:0 13:0.02 14:0.082 15:0.102 16:0.184 17:0.041 18:0.041 19:0.102 20:0 \n"
"50.99924646613272 1:0.36 2:0.444 3:0.406 4:0.143 5:0.041 6:0.041 7:0.041 8:0.02 9:0 10:0.082 11:0.061 12:0 13:0 14:0.02 15:0.184 16:0.102 17:0.122 18:0.061 19:0.082 20:0 \n"
"256 1:0.36 2:0.444 3:0.406 4:0.082 5:0.041 6:0.082 7:0.061 8:0 9:0.041 10:0 11:0.102 12:0.102 13:0.02 14:0 15:0.082 16:0.061 17:0.061 18:0.122 19:0.143 20:0 \n"
"-256 1:0.36 2:0.444 3:0.406 4:0 5:0.102 6:0.102 7:0.061 8:0.102 9:0.02 10:0.02 11:0.02 12:0.122 13:0 14:0.02 15:0.061 16:0.041 17:0.02 18:0.061 19:0.245 20:0 \n"
"39.78990853109289 1:0.36 2:0.444 3:0.406 4:0.122 5:0.041 6:0.082 7:0.02 8:0.041 9:0.02 10:0.061 11:0.02 12:0 13:0.082 14:0 15:0.122 16:0.102 17:0.02 18:0.061 19:0.204 20:0 \n"
"256 1:0.36 2:0.444 3:0.406 4:0.102 5:0.082 6:0 7:0.082 8:0.082 9:0.02 10:0 11:0.041 12:0.082 13:0.041 14:0.061 15:0.02 16:0 17:0.02 18:0.143 19:0.224 20:0 \n"
"-247.6520898411631 1:0.36 2:0.444 3:0.406 4:0.143 5:0 6:0.102 7:0.02 8:0 9:0 10:0.02 11:0.143 12:0.02 13:0.082 14:0.061 15:0.02 16:0.082 17:0.082 18:0.02 19:0.204 20:0 \n"
"-256 1:0.36 2:0.444 3:0.406 4:0.041 5:0 6:0 7:0.224 8:0.102 9:0.02 10:0.02 11:0 12:0.02 13:0.061 14:0.02 15:0.102 16:0.102 17:0.082 18:0.163 19:0.041 20:0 \n"
"177.4871614087458 1:0.36 2:0.444 3:0.406 4:0.061 5:0 6:0.02 7:0.184 8:0.02 9:0.041 10:0.082 11:0.02 12:0.122 13:0.041 14:0 15:0.02 16:0.041 17:0.082 18:0.102 19:0.163 20:0 \n"
"-156.9227508563263 1:0.36 2:0.444 3:0.406 4:0.061 5:0.02 6:0.122 7:0.061 8:0 9:0.061 10:0 11:0.082 12:0.02 13:0.061 14:0.082 15:0.041 16:0.184 17:0.02 18:0 19:0.184 20:0 \n"
"256 1:0.36 2:0.5 3:0.406 4:0.061 5:0.02 6:0.082 7:0.102 8:0.041 9:0.061 10:0.02 11:0.041 12:0.041 13:0.061 14:0 15:0.082 16:0.122 17:0.041 18:0.082 19:0.143 20:0 \n"
"256 1:0.36 2:0.5 3:0.406 4:0.061 5:0.102 6:0.041 7:0.061 8:0.041 9:0.02 10:0.02 11:0.082 12:0.061 13:0.041 14:0 15:0.082 16:0.102 17:0.02 18:0.122 19:0.143 20:0 \n"
"256 1:0.36 2:0.5 3:0.406 4:0.061 5:0.02 6:0.082 7:0.102 8:0.02 9:0.02 10:0.02 11:0.122 12:0.02 13:0.041 14:0.082 15:0.02 16:0.163 17:0.102 18:0 19:0.122 20:0 \n"
"-256 1:0.36 2:0.5 3:0.406 4:0.143 5:0.061 6:0 7:0.061 8:0.041 9:0 10:0.02 11:0.122 12:0.02 13:0.041 14:0.082 15:0.041 16:0.041 17:0.082 18:0.082 19:0.163 20:0 \n"
"256 1:0.36 2:0.5 3:0.406 4:0.102 5:0.041 6:0.041 7:0.061 8:0 9:0.061 10:0 11:0.122 12:0.02 13:0.02 14:0.061 15:0.082 16:0.143 17:0.061 18:0.061 19:0.122 20:0 \n"
"-256 1:0.36 2:0.5 3:0.406 4:0.082 5:0.02 6:0.061 7:0.102 8:0.02 9:0.082 10:0.02 11:0.061 12:0 13:0.061 14:0.082 15:0.02 16:0.163 17:0.02 18:0.02 19:0.184 20:0 \n"
"-256 1:0.36 2:0.5 3:0.406 4:0.102 5:0.02 6:0.02 7:0.122 8:0.02 9:0.02 10:0.02 11:0.122 12:0.041 13:0 14:0.02 15:0.102 16:0.082 17:0.143 18:0.122 19:0.041 20:0 \n"
"-44.84493486124816 1:0.36 2:0.5 3:0.406 4:0.02 5:0.061 6:0.082 7:0.082 8:0 9:0.041 10:0.02 11:0.122 12:0.041 13:0.061 14:0 15:0.082 16:0.204 17:0.02 18:0.082 19:0.082 20:0 \n"
"-211.0792910998297 1:0.36 2:0.5 3:0.406 4:0.02 5:0.082 6:0.02 7:0.143 8:0.082 9:0.041 10:0.02 11:0.02 12:0.061 13:0 14:0 15:0.122 16:0.102 17:0.041 18:0.143 19:0.102 20:0 \n"
"256 1:0.36 2:0.5 3:0.406 4:0.102 5:0.02 6:0.02 7:0.122 8:0.102 9:0.041 10:0.02 11:0.02 12:0 13:0.082 14:0 15:0.082 16:0.061 17:0.041 18:0.143 19:0.143 20:0 \n"
"256 1:0.36 2:0.5 3:0.406 4:0.143 5:0 6:0.02 7:0.082 8:0.02 9:0.041 10:0.082 11:0.041 12:0.02 13:0.082 14:0 15:0.082 16:0.082 17:0.061 18:0.061 19:0.184 20:0 \n"
"144.1933434649758 1:0.36 2:0.5 3:0.406 4:0.082 5:0.02 6:0.02 7:0.143 8:0.02 9:0 10:0.082 11:0.061 12:0.041 13:0.082 14:0.061 15:0 16:0.122 17:0.082 18:0.02 19:0.163 20:0 \n"
"256 1:0.36 2:0.5 3:0.406 4:0.061 5:0.061 6:0.082 7:0.041 8:0.041 9:0 10:0 11:0.143 12:0.102 13:0.02 14:0 15:0.061 16:0.061 17:0.102 18:0.082 19:0.143 20:0 \n"
"-256 1:0.36 2:0.5 3:0.406 4:0.082 5:0.041 6:0.082 7:0.041 8:0.061 9:0 10:0.061 11:0.061 12:0.02 13:0.02 14:0.02 15:0.122 16:0.102 17:0.122 18:0 19:0.163 20:0 \n"
"-256 1:0.36 2:0.5 3:0.406 4:0.122 5:0.041 6:0 7:0.102 8:0.061 9:0.02 10:0.041 11:0.061 12:0.02 13:0.082 14:0.061 15:0 16:0.061 17:0.041 18:0.061 19:0.224 20:0 \n"
"-172.3923438983925 1:0.36 2:0.5 3:0.406 4:0 5:0.02 6:0.102 7:0.143 8:0.082 9:0 10:0.041 11:0.061 12:0.102 13:0 14:0 15:0.082 16:0.082 17:0.163 18:0.02 19:0.102 20:0 \n"
"256 1:0.36 2:0.5 3:0.406 4:0.041 5:0.041 6:0.102 7:0.061 8:0.041 9:0.061 10:0 11:0.082 12:0.061 13:0.02 14:0.082 15:0.02 16:0.122 17:0.041 18:0 19:0.224 20:0 \n"
"256 1:0.36 2:0.5 3:0.406 4:0.102 5:0 6:0.02 7:0.143 8:0.02 9:0 10:0.02 11:0.143 12:0.041 13:0.041 14:0.082 15:0 16:0.102 17:0.143 18:0.061 19:0.082 20:0 \n"
"256 1:0.36 2:0.5 3:0.406 4:0.061 5:0.041 6:0.041 7:0.122 8:0.041 9:0 10:0.02 11:0.102 12:0 13:0.041 14:0 15:0.143 16:0.163 17:0.102 18:0.122 19:0 20:0 \n"
"-256 1:0.36 2:0.5 3:0.406 4:0.102 5:0.102 6:0 7:0.061 8:0.02 9:0.02 10:0.02 11:0.122 12:0 13:0.02 14:0.041 15:0.122 16:0.143 17:0.041 18:0.122 19:0.061 20:0 \n"
"256 1:0.36 2:0.5 3:0.406 4:0.02 5:0.102 6:0.041 7:0.102 8:0.02 9:0 10:0.02 11:0.143 12:0.02 13:0 14:0.082 15:0.082 16:0.204 17:0.082 18:0.041 19:0.041 20:0 \n"
"159.0944311699414 1:0.36 2:0.5 3:0.406 4:0 5:0.041 6:0.041 7:0.184 8:0.082 9:0 10:0.02 11:0.082 12:0 13:0.082 14:0.041 15:0.041 16:0.184 17:0.061 18:0.082 19:0.061 20:0 \n"
"256 1:0.36 2:0.5 3:0.406 4:0.041 5:0 6:0.041 7:0.184 8:0.102 9:0.061 10:0 11:0.02 12:0.02 13:0.061 14:0.041 15:0.041 16:0.102 17:0.041 18:0.102 19:0.143 20:0 \n"
"0.004018854018860021 1:0.36 2:0.5 3:0.406 4:0.163 5:0 6:0 7:0.102 8:0.061 9:0.02 10:0.061 11:0.041 12:0 13:0.041 14:0 15:0.143 16:0.041 17:0.102 18:0.122 19:0.102 20:0 \n"
"-256 1:0.36 2:0.5 3:0.406 4:0.122 5:0.041 6:0.02 7:0.082 8:0.02 9:0.082 10:0.041 11:0.02 12:0.082 13:0 14:0.082 15:0.02 16:0.041 17:0.061 18:0.02 19:0.265 20:0 \n"
"82.19395514076962 1:0.36 2:0.5 3:0.406 4:0.122 5:0.041 6:0.061 7:0.02 8:0.02 9:0.082 10:0.041 11:0.041 12:0.02 13:0.041 14:0.082 15:0.041 16:0.102 17:0 18:0 19:0.286 20:0 \n"
"-9.86384463891026 1:0.36 2:0.5 3:0.406 4:0.061 5:0.102 6:0.02 7:0.082 8:0.02 9:0 10:0.061 11:0.102 12:0.082 13:0 14:0.082 15:0 16:0.102 17:0.061 18:0.02 19:0.204 20:0 \n"
"256 1:0.36 2:0.5 3:0.406 4:0 5:0.02 6:0.02 7:0.224 8:0.041 9:0.02 10:0.061 11:0.061 12:0.082 13:0.02 14:0.02 15:0.041 16:0.143 17:0.122 18:0.061 19:0.061 20:0 \n"
"256 1:0.36 2:0.5 3:0.406 4:0.061 5:0.02 6:0.082 7:0.102 8:0.082 9:0.041 10:0 11:0.041 12:0.102 13:0 14:0 15:0.082 16:0.02 17:0.122 18:0.102 19:0.143 20:0 \n"
"-256 1:0.36 2:0.5 3:0.406 4:0.02 5:0.041 6:0.02 7:0.184 8:0 9:0.061 10:0.061 11:0.041 12:0.041 13:0 14:0.02 15:0.122 16:0.204 17:0.082 18:0.061 19:0.041 20:0 \n"
"256 1:0.36 2:0.5 3:0.406 4:0.02 5:0.061 6:0.02 7:0.143 8:0.041 9:0.061 10:0.041 11:0.041 12:0 13:0.041 14:0 15:0.143 16:0.184 17:0.02 18:0.122 19:0.061 20:0 \n"
"-256 1:0.36 2:0.5 3:0.406 4:0.102 5:0.02 6:0.02 7:0.122 8:0 9:0.061 10:0.02 11:0.102 12:0 13:0.082 14:0.041 15:0.041 16:0.163 17:0 18:0.102 19:0.122 20:0 \n"
"-256 1:0.36 2:0.5 3:0.406 4:0 5:0.041 6:0.102 7:0.122 8:0.102 9:0.02 10:0 11:0.061 12:0 13:0.02 14:0.082 15:0.061 16:0.163 17:0.102 18:0 19:0.122 20:0 \n"
"126.7378611359768 1:0.36 2:0.5 3:0.406 4:0.122 5:0.02 6:0.082 7:0.041 8:0.082 9:0.041 10:0.02 11:0.041 12:0.02 13:0 14:0.082 15:0.082 16:0.041 17:0.122 18:0 19:0.204 20:0 \n"
"-207.1094019976085 1:0.36 2:0.5 3:0.406 4:0.082 5:0.102 6:0.02 7:0.061 8:0.102 9:0 10:0.061 11:0.02 12:0.02 13:0.082 14:0 15:0.082 16:0.061 17:0 18:0.102 19:0.204 20:0 \n"
"85.72772208595559 1:0.36 2:0.556 3:0.406 4:0.02 5:0.122 6:0.061 7:0.061 8:0.061 9:0.061 10:0.041 11:0.041 12:0.041 13:0 14:0 15:0.122 16:0.143 17:0.02 18:0.041 19:0.163 20:0 \n"
"256 1:0.36 2:0.556 3:0.406 4:0.061 5:0.02 6:0.041 7:0.143 8:0.061 9:0.102 10:0.02 11:0.02 12:0.02 13:0.041 14:0.041 15:0.061 16:0.122 17:0.041 18:0.061 19:0.143 20:0 \n"
"256 1:0.36 2:0.556 3:0.406 4:0.02 5:0.061 6:0.061 7:0.102 8:0.041 9:0.02 10:0.041 11:0.102 12:0.061 13:0.02 14:0 15:0.082 16:0.143 17:0.102 18:0.061 19:0.082 20:0 \n"
"256 1:0.36 2:0.556 3:0.406 4:0.102 5:0.061 6:0.041 7:0.061 8:0.061 9:0.082 10:0.02 11:0.02 12:0.02 13:0.02 14:0.061 15:0.061 16:0.082 17:0.041 18:0.041 19:0.224 20:0 \n"
"-21.69823093441553 1:0.36 2:0.556 3:0.406 4:0.082 5:0.041 6:0.02 7:0.122 8:0.102 9:0.02 10:0.082 11:0 12:0.02 13:0.082 14:0 15:0.061 16:0.061 17:0.041 18:0.061 19:0.204 20:0 \n"
"-106.940973010634 1:0.36 2:0.556 3:0.406 4:0.02 5:0.02 6:0.041 7:0.163 8:0.061 9:0.041 10:0.061 11:0.041 12:0 13:0.02 14:0.02 15:0.122 16:0.163 17:0.122 18:0.041 19:0.061 20:0 \n"
"256 1:0.36 2:0.556 3:0.406 4:0.122 5:0.02 6:0.061 7:0.041 8:0.02 9:0 10:0.02 11:0.163 12:0.02 13:0.041 14:0.041 15:0.061 16:0.082 17:0.143 18:0.041 19:0.122 20:0 \n"
"189.3424695356399 1:0.36 2:0.556 3:0.406 4:0.122 5:0.02 6:0.02 7:0.102 8:0 9:0.102 10:0.061 11:0.02 12:0.082 13:0 14:0 15:0.082 16:0.061 17:0.061 18:0.082 19:0.184 20:0 \n"
"-256 1:0.36 2:0.556 3:0.406 4:0.061 5:0.082 6:0.041 7:0.082 8:0.061 9:0.061 10:0.02 11:0.041 12:0.02 13:0.061 14:0 15:0.082 16:0.102 17:0 18:0.102 19:0.184 20:0 \n"
"-256 1:0.36 2:0.556 3:0.406 4:0.122 5:0.02 6:0 7:0.122 8:0.061 9:0.02 10:0.02 11:0.102 12:0.041 13:0 14:0.061 15:0.041 16:0.02 17:0.163 18:0.082 19:0.122 20:0 \n"
"-256 1:0.36 2:0.556 3:0.406 4:0.102 5:0.041 6:0.02 7:0.102 8:0.061 9:0.02 10:0.061 11:0.061 12:0.061 13:0 14:0.061 15:0.02 16:0.02 17:0.143 18:0.02 19:0.204 20:0 \n"
"183.1065755543182 1:0.36 2:0.556 3:0.406 4:0.02 5:0.041 6:0.102 7:0.102 8:0.02 9:0.102 10:0.02 11:0.041 12:0.082 13:0.02 14:0.02 15:0.041 16:0.143 17:0.041 18:0.02 19:0.184 20:0 \n"
"106.4652599551629 1:0.36 2:0.556 3:0.406 4:0.082 5:0.02 6:0.02 7:0.143 8:0 9:0.102 10:0 11:0.102 12:0.082 13:0.02 14:0.041 15:0.02 16:0.102 17:0.061 18:0.102 19:0.102 20:0 \n"
"-148.9407920526935 1:0.36 2:0.556 3:0.406 4:0.061 5:0.02 6:0.061 7:0.122 8:0 9:0.102 10:0 11:0.102 12:0.041 13:0 14:0.061 15:0.061 16:0.163 17:0.082 18:0.02 19:0.102 20:0 \n"
"117.4799317896972 1:0.36 2:0.556 3:0.406 4:0.061 5:0.02 6:0 7:0.184 8:0.102 9:0.061 10:0 11:0.041 12:0.041 13:0.041 14:0 15:0.061 16:0.061 17:0.082 18:0.143 19:0.102 20:0 \n"
"101.3545098664196 1:0.36 2:0.556 3:0.406 4:0.041 5:0.122 6:0.041 7:0.061 8:0.02 9:0.041 10:0.082 11:0.061 12:0.082 13:0.02 14:0 15:0.041 16:0.122 17:0.02 18:0.02 19:0.224 20:0 \n"
"-256 1:0.36 2:0.556 3:0.406 4:0.082 5:0 6:0 7:0.184 8:0.041 9:0.02 10:0 11:0.143 12:0.061 13:0.041 14:0.041 15:0 16:0.082 17:0.122 18:0.122 19:0.061 20:0 \n"
"256 1:0.36 2:0.556 3:0.406 4:0.143 5:0.02 6:0.061 7:0.041 8:0 9:0.102 10:0.02 11:0.082 12:0 13:0.02 14:0.041 15:0.082 16:0.122 17:0.061 18:0.041 19:0.163 20:0 \n"
"-256 1:0.36 2:0.556 3:0.406 4:0.02 5:0.02 6:0.041 7:0.184 8:0.102 9:0.02 10:0.041 11:0.041 12:0.102 13:0 14:0.02 15:0.02 16:0.041 17:0.163 18:0.061 19:0.122 20:0 \n"
"256 1:0.36 2:0.556 3:0.406 4:0.082 5:0.041 6:0.02 7:0.102 8:0.02 9:0.061 10:0.082 11:0.041 12:0.02 13:0 14:0.02 15:0.122 16:0.143 17:0.102 18:0.02 19:0.122 20:0 \n"
"-132.4097660337615 1:0.36 2:0.556 3:0.406 4:0.082 5:0.041 6:0.02 7:0.102 8:0 9:0.102 10:0.041 11:0.061 12:0.102 13:0 14:0.061 15:0 16:0.082 17:0.061 18:0.041 19:0.204 20:0 \n"
"256 1:0.36 2:0.556 3:0.406 4:0 5:0.061 6:0.041 7:0.163 8:0.02 9:0.082 10:0.061 11:0.02 12:0.041 13:0.02 14:0 15:0.102 16:0.204 17:0.041 18:0.061 19:0.082 20:0 \n"
"-250.3117164428021 1:0.36 2:0.556 3:0.406 4:0.041 5:0.122 6:0.02 7:0.082 8:0.122 9:0.082 10:0 11:0 12:0.041 13:0 14:0.041 15:0.082 16:0.061 17:0 18:0.082 19:0.224 20:0 \n"
"222.9849764018906 1:0.36 2:0.556 3:0.406 4:0.163 5:0.041 6:0 7:0.061 8:0 9:0.02 10:0.02 11:0.163 12:0 13:0.082 14:0 15:0.061 16:0.102 17:0.041 18:0.143 19:0.102 20:0 \n"
"256 1:0.36 2:0.556 3:0.406 4:0 5:0.041 6:0.102 7:0.122 8:0.102 9:0 10:0 11:0.102 12:0.082 13:0 14:0.041 15:0.02 16:0.082 17:0.163 18:0 19:0.143 20:0 \n"
"256 1:0.36 2:0.556 3:0.406 4:0.041 5:0.102 6:0 7:0.122 8:0 9:0.041 10:0.041 11:0.102 12:0.02 13:0.041 14:0 15:0.102 16:0.204 17:0.02 18:0.122 19:0.041 20:0 \n"
"-256 1:0.36 2:0.556 3:0.406 4:0.061 5:0.041 6:0.082 7:0.082 8:0 9:0.082 10:0 11:0.102 12:0.102 13:0.061 14:0 15:0 16:0.102 17:0.02 18:0.082 19:0.184 20:0 \n"
"256 1:0.36 2:0.556 3:0.406 4:0 5:0.102 6:0.082 7:0.061 8:0.122 9:0.02 10:0 11:0.061 12:0.02 13:0 14:0.061 15:0.082 16:0.102 17:0.082 18:0.02 19:0.184 20:0 \n"
"-256 1:0.36 2:0.611 3:0.406 4:0.041 5:0.082 6:0.02 7:0.122 8:0.102 9:0.041 10:0.041 11:0.041 12:0.041 13:0 14:0.02 15:0.082 16:0.082 17:0.102 18:0.061 19:0.122 20:0 \n"
"256 1:0.36 2:0.611 3:0.406 4:0.061 5:0.041 6:0.082 7:0.061 8:0.041 9:0.041 10:0.02 11:0.122 12:0.061 13:0.02 14:0 15:0.061 16:0.102 17:0.122 18:0.041 19:0.122 20:0 \n"
"-256 1:0.36 2:0.611 3:0.406 4:0.061 5:0.082 6:0.02 7:0.102 8:0.041 9:0.02 10:0.041 11:0.122 12:0 13:0.041 14:0.041 15:0.041 16:0.163 17:0.061 18:0.041 19:0.122 20:0 \n"
"256 1:0.36 2:0.611 3:0.406 4:0.041 5:0.102 6:0.041 7:0.082 8:0.041 9:0.102 10:0 11:0.082 12:0 13:0 14:0.02 15:0.122 16:0.163 17:0.02 18:0.082 19:0.102 20:0 \n"
"-256 1:0.36 2:0.611 3:0.406 4:0.082 5:0.082 6:0 7:0.102 8:0.041 9:0.082 10:0.041 11:0.041 12:0.02 13:0.041 14:0 15:0.082 16:0.122 17:0.02 18:0.082 19:0.163 20:0 \n"
"-256 1:0.36 2:0.611 3:0.406 4:0.02 5:0.061 6:0.082 7:0.102 8:0.041 9:0.082 10:0.061 11:0.02 12:0.041 13:0.041 14:0 15:0.061 16:0.143 17:0.041 18:0 19:0.204 20:0 \n"
"256 1:0.36 2:0.611 3:0.406 4:0 5:0.143 6:0 7:0.122 8:0.122 9:0.041 10:0.02 11:0.041 12:0.02 13:0.02 14:0 15:0.102 16:0.102 17:0.02 18:0.122 19:0.122 20:0 \n"
"-256 1:0.36 2:0.611 3:0.406 4:0.102 5:0.082 6:0.02 7:0.061 8:0 9:0.02 10:0 11:0.204 12:0 13:0.061 14:0.041 15:0.02 16:0.143 17:0.061 18:0.082 19:0.102 20:0 \n"
"-132.606025653783 1:0.36 2:0.611 3:0.406 4:0.02 5:0.082 6:0.02 7:0.143 8:0 9:0.102 10:0.041 11:0.082 12:0.02 13:0 14:0.041 15:0.061 16:0.224 17:0.041 18:0.02 19:0.102 20:0 \n"
"91.22976598780127 1:0.36 2:0.611 3:0.406 4:0.061 5:0.02 6:0.041 7:0.143 8:0 9:0.041 10:0.061 11:0.122 12:0.061 13:0 14:0.02 15:0.061 16:0.122 17:0.163 18:0.02 19:0.061 20:0 \n"
"199.774984476629 1:0.36 2:0.611 3:0.406 4:0.082 5:0.061 6:0.082 7:0.041 8:0.02 9:0 10:0.02 11:0.184 12:0 13:0.041 14:0.02 15:0.061 16:0.163 17:0.122 18:0.02 19:0.082 20:0 \n"
"256 1:0.36 2:0.611 3:0.406 4:0.143 5:0.082 6:0 7:0.041 8:0.061 9:0.061 10:0 11:0.102 12:0.061 13:0 14:0.041 15:0.02 16:0 17:0.061 18:0.102 19:0.224 20:0 \n"
"112.3614761780516 1:0.36 2:0.611 3:0.406 4:0.041 5:0.082 6:0 7:0.143 8:0.102 9:0.02 10:0 11:0.082 12:0.02 13:0.061 14:0.041 15:0.02 16:0.102 17:0.061 18:0.102 19:0.122 20:0 \n"
"256 1:0.36 2:0.611 3:0.406 4:0.082 5:0.102 6:0 7:0.082 8:0.143 9:0.041 10:0.02 11:0.02 12:0 13:0.02 14:0 15:0.122 16:0.02 17:0.061 18:0.122 19:0.163 20:0 \n"
"239.6988856737883 1:0.36 2:0.611 3:0.406 4:0.082 5:0.02 6:0.02 7:0.143 8:0.041 9:0.061 10:0 11:0.102 12:0.082 13:0 14:0 15:0.061 16:0.061 17:0.143 18:0.122 19:0.061 20:0 \n"
"71.50198609268263 1:0.36 2:0.611 3:0.406 4:0.02 5:0.02 6:0.061 7:0.163 8:0.061 9:0.102 10:0.061 11:0 12:0.02 13:0 14:0.02 15:0.102 16:0.143 17:0.102 18:0 19:0.122 20:0 \n"
"-256 1:0.36 2:0.611 3:0.406 4:0.061 5:0.061 6:0.082 7:0.041 8:0.122 9:0.02 10:0.02 11:0.061 12:0.041 13:0 14:0.02 15:0.082 16:0.041 17:0.143 18:0.02 19:0.184 20:0 \n"
"-243.8166504891502 1:0.36 2:0.611 3:0.406 4:0.02 5:0.02 6:0.041 7:0.184 8:0 9:0.082 10:0.041 11:0.082 12:0 13:0.041 14:0 15:0.102 16:0.245 17:0.082 18:0.041 19:0.02 20:0 \n"
"46.98645461435549 1:0.36 2:0.611 3:0.406 4:0.061 5:0.02 6:0 7:0.163 8:0.02 9:0 10:0.02 11:0.184 12:0.041 13:0.061 14:0.041 15:0 16:0.143 17:0.122 18:0.082 19:0.041 20:0 \n"
"256 1:0.36 2:0.611 3:0.406 4:0.122 5:0.02 6:0.082 7:0.041 8:0.02 9:0.02 10:0.061 11:0.122 12:0.061 13:0.041 14:0 15:0.02 16:0.041 17:0.143 18:0 19:0.204 20:0 \n"
"-256 1:0.36 2:0.611 3:0.406 4:0.02 5:0.122 6:0.061 7:0.061 8:0.02 9:0.061 10:0.061 11:0.082 12:0.041 13:0 14:0.02 15:0.082 16:0.184 17:0.041 18:0 19:0.143 20:0 \n"
"256 1:0.36 2:0.611 3:0.406 4:0.041 5:0.02 6:0.041 7:0.143 8:0.143 9:0 10:0 11:0.082 12:0.02 13:0.02 14:0 15:0.102 16:0.061 17:0.163 18:0.102 19:0.061 20:0 \n"
"-256 1:0.36 2:0.611 3:0.406 4:0 5:0.082 6:0.02 7:0.163 8:0.041 9:0.041 10:0 11:0.122 12:0.061 13:0.061 14:0 15:0.02 16:0.163 17:0.041 18:0.122 19:0.061 20:0 \n"
"256 1:0.36 2:0.611 3:0.406 4:0 5:0.082 6:0.082 7:0.102 8:0 9:0.082 10:0 11:0.122 12:0.061 13:0.041 14:0 15:0.041 16:0.204 17:0.02 18:0.061 19:0.102 20:0 \n"
"256 1:0.36 2:0.611 3:0.406 4:0.061 5:0.143 6:0.02 7:0.041 8:0.041 9:0.02 10:0.061 11:0.102 12:0 13:0.061 14:0 15:0.082 16:0.143 17:0 18:0.061 19:0.163 20:0 \n"
"256 1:0.36 2:0.611 3:0.406 4:0.102 5:0.061 6:0.082 7:0.02 8:0.02 9:0.02 10:0 11:0.184 12:0.041 13:0.041 14:0.041 15:0 16:0.082 17:0.102 18:0.02 19:0.184 20:0 \n"
